#include <MagnetometetNetworkInt8.h>


const int8_t MagnetometetNetworkInt8_layer_0_weights[] = {
-32, -50, 69, -64, 
78, 72, 80, -55, 
-41, 60, 27, -69, 
-71, -48, -79, 10, 
7, 43, -27, -8, 
-65, 21, 72, -67, 
42, 87, -37, 7, 
6, -82, -35, -8, 
10, -91, 5, 38, 
47, -86, -38, -26, 
-35, -17, 9, -44, 
-8, 103, -40, -86, 
-32, -46, 0, -87, 
-40, -50, -77, 7, 
-41, -107, -70, -51, 
4, 42, -107, 48, 
61, -14, 0, -77, 
26, -83, 63, 32, 
-83, -16, 36, -44, 
80, -32, 53, -81, 
50, -10, 18, -54, 
0, 5, -95, -53, 
-39, 25, -36, -31, 
58, -16, 99, -64, 
28, -48, 27, -42, 
102, -1, 127, 65, 
0, 10, 45, -48, 
5, -25, 57, -10, 
59, 50, -80, -71, 
-26, 85, -82, -11, 
-111, -43, -125, -11, 
-126, -17, 31, -44, 
-78, -69, -59, 17, 
-107, -88, 18, -84, 
71, -31, -47, -19, 
60, -32, 45, 44, 
4, 9, 72, -12, 
31, -57, 20, -65, 
-113, -27, -15, -71, 
-72, 85, -48, -26, 
8, 70, 52, 46, 
82, -8, 30, 86, 
-41, 101, 80, 75, 
7, 78, 92, -8, 
82, -24, 24, -27, 
-88, -26, -48, 49, 
-127, 74, 39, 67, 
40, -19, -6, -13, 
54, -5, 90, 72, 
-87, -40, -5, 24, 
31, -66, 44, -21, 
17, 101, -70, 49, 
-43, 42, -7, 32, 
73, 95, 8, -82, 
75, 117, 64, -97, 
-127, -54, -81, 16, 
87, -35, 69, -75, 
127, -76, 96, 13, 
67, 56, -67, -26, 
-113, 72, -14, -60, 
-16, -56, -28, 32, 
-127, -65, -62, -23, 
-103, 100, 3, 79, 
32, 76, 63, 35, 
127, 86, 14, -58, 
55, 1, -97, -9, 
-43, -36, -94, -15, 
-10, 13, 107, -16, 
58, 2, 78, 20, 
2, 25, 38, 19, 
26, 122, 68, -38, 
68, 73, 79, 48, 
92, -43, 14, 75, 
-37, 52, -87, 67, 
70, -17, 40, 54, 
-55, -42, 54, -61, 
51, -79, 18, -9, 
16, 67, 46, -36, 
111, 24, -45, 66, 
26, 111, 16, 78, 
-17, 56, 27, -12, 
-13, 24, 56, -46, 
48, 47, 8, 84, 
76, 29, -52, -55, 
44, 69, -117, 78, 
-87, -69, -32, -81, 
-64, -90, -84, -76, 
46, -63, -56, 50, 
-16, 36, -36, -57, 
-91, 6, 0, 0, 
-54, -95, 95, 69, 
-41, -61, -50, 2, 
-111, -7, 53, 37, 
23, 101, -10, -55, 
11, 65, 51, 0, 
-16, -11, -56, -24, 
-38, 47, -70, -19, 
83, 5, 1, 32, 
25, 72, -43, 64, 
29, -127, 6, -53, 
0, -43, -50, 31, 
56, 42, 39, 74, 
119, 28, -59, -64, 
-57, -69, 79, 75, 
108, 63, -48, -58, 
-68, 1, 44, -82, 
-122, -116, -96, -51, 
-127, -92, -99, -33, 
127, 28, 13, 56, 
125, 57, -6, 26, 
93, -28, 75, 58, 
-72, -2, -8, 21, 
-90, -57, 12, 13, 
-32, 92, -38, 7, 
62, -72, -86, 56, 
127, -101, 13, 67, 
-32, -32, -53, -78, 
32, -3, 70, -77, 
-122, 40, -109, 22, 
-76, 80, 11, 26, 
98, -79, -22, -31, 
-55, -76, 30, -58, 
-45, 106, -57, -24, 
-20, -83, 31, -26, 
-17, -50, 22, -32, 
-104, -67, 4, -66, 
-17, 86, 50, 0, 
127, -11, 20, 65, 
-12, -95, -62, -11, 
-64, -66, 36, -74, 
-74, -45, 4, -64, 
-88, -93, -119, -70, 
24, -103, -77, 2, 
-126, -89, -29, -35, 
43, -10, 20, -50, 
-60, -43, 51, -9, 
16, -59, -2, 35, 
61, -12, 88, 55, 
-56, -85, 16, 64, 
32, 8, -62, -29, 
86, -105, 25, 18, 
78, 37, 71, 86, 
27, 97, 48, 21, 
-30, -13, 53, 44, 
-4, 3, 64, 69, 
-65, 127, -17, 36, 
67, -23, 47, -8, 
101, 56, -95, -78, 
-34, -98, -127, -3, 
-13, -43, -62, -76, 
23, -63, -90, 55, 
53, -102, -55, 9, 
-15, 27, 75, 60, 
26, 35, -82, -24, 
88, -35, 111, 71, 
-127, 35, -13, -64, 
-33, 61, 41, -1, 
-65, 75, -2, 59, 
-63, 75, -86, 58, 
-2, -34, 10, -27, 
};

const int8_t MagnetometetNetworkInt8_layer_0_bias[] = {
-127, 8, 10, -127, -119, -52, 17, -56, -127, -17, -83, -27, 120, 29, 19, 20, 32, 66, -127, 7, -126, 11, -2, 74, -78, -80, 1, -85, -49, 1, -127, -104, };


const int8_t MagnetometetNetworkInt8_layer_3_weights[] = {
74, -13, 1, 127, -11, 69, -35, 94, 112, 33, -58, -50, 54, -90, -7, -58, -78, 0, -88, 39, 22, -92, 49, 20, 32, 1, -23, -127, -105, -39, 88, 67, 
54, 23, 0, 1, -43, 61, -6, 51, 72, -24, -3, 127, 55, -108, -40, 69, 2, 35, -77, 56, 70, -28, 35, 81, -33, 127, 13, -79, -127, -31, 44, -45, 
14, 15, 11, -7, -35, 38, 15, 76, -127, 23, 26, -18, -25, -62, -18, -60, -64, -17, -43, 61, 11, -23, 46, -30, 10, 82, -1, -52, -127, 12, 69, 2, 
-21, -13, 60, 51, 64, -127, 16, 63, -127, 36, 77, -56, -46, -32, -127, -127, -118, 42, -79, 55, -36, -1, 0, -21, 29, -11, 43, -38, -127, -81, 98, -20, 
97, -42, 38, -12, -21, -86, -57, 28, -127, -20, 102, -80, -18, -127, -121, -107, 71, -18, -73, 37, -25, -54, 10, -7, 21, -52, 15, -25, -127, 38, 100, 26, 
49, 32, 26, 75, 36, 20, 6, -6, -52, -20, -8, 84, 15, -12, -82, 60, -45, 29, -31, 14, 23, 49, 37, -16, 9, 20, 9, 9, 2, -114, 108, -88, 
-7, -13, 33, -34, 13, -14, -20, -4, -112, -12, -124, 29, -30, 33, -46, -14, -63, 12, 4, 23, -17, 42, 51, 66, 35, -30, 38, -33, -58, 6, 64, -28, 
24, -49, 57, -48, -28, -9, 49, 3, -111, 28, -25, 3, 30, 56, -72, -96, -33, 2, -15, -2, -127, 50, 25, 83, 3, -64, -16, -20, -93, 10, -24, -28, 
-39, -60, 14, 50, -43, -17, 49, 16, -60, 35, -26, 77, 95, -2, -81, -36, -3, 17, 32, -6, -30, -40, -50, 127, 1, -25, 4, -67, -56, 17, 29, -34, 
0, 0, 18, 37, -41, 12, 5, 10, -88, 28, -21, 18, 71, -19, -90, -13, -43, 15, 3, -8, -100, -41, 14, -63, -1, 37, -37, -58, -80, 20, -39, 4, 
35, -19, 0, -99, 3, 127, -70, -47, 127, -10, 75, -40, 74, -18, 127, 25, 104, -44, 101, 23, 20, -39, -18, -118, -82, -101, -80, -96, 2, 7, -11, 105, 
44, -36, -4, 28, 16, 93, -54, 5, 86, -1, 61, -59, -6, -43, 10, 23, 19, -39, -39, 43, -13, -29, 21, -78, -34, -15, -30, -73, -23, 56, -44, 82, 
16, 41, -15, 12, 52, 51, -4, 1, -100, 5, 14, -18, 24, -4, -20, -54, 37, -15, -35, 17, 0, 37, -13, 46, 18, -49, 38, -13, -70, 44, 47, -23, 
-44, 71, -8, 120, -32, -81, 23, 11, -127, -1, -47, -14, -14, -27, -87, -66, -78, 39, -127, 31, 11, -12, -2, -25, 90, 60, 98, 39, 3, 24, 35, -52, 
-58, 65, -4, 46, -26, -116, 65, -2, -127, -14, -86, 45, -89, 30, -127, -127, -120, 66, -109, -1, -49, 72, 42, 45, 107, 85, 117, 67, -68, -41, 82, -97, 
-40, -53, 23, -23, -15, 8, -43, 48, 10, -35, -28, 57, -24, 35, 26, 8, 28, -29, 12, -127, 76, -71, -38, 109, 35, 80, -32, -5, 72, -74, -127, 34, 
6, 28, -3, -6, -14, 17, -65, 25, 30, 33, 46, 104, -69, -53, -38, 23, 51, -8, 82, -92, 85, -32, 40, -51, -10, 70, 6, -6, -4, 67, -127, 49, 
-102, -9, -44, -24, 51, -1, -32, -6, -17, 56, -9, 1, 3, 73, -54, 6, 27, -19, 103, 12, 53, -30, 13, -44, 49, -10, 9, 27, -10, 44, -127, 24, 
-68, 7, 34, 26, 88, 41, -19, 4, -34, 1, 32, -39, 64, 60, -63, -23, -10, -56, 64, 21, 52, 23, -5, 24, -19, -47, -12, -39, -44, 21, -67, 0, 
-85, 43, 61, -3, 82, -27, 79, -34, -29, -1, -1, -14, 63, 84, -61, 2, 12, 48, 6, 18, 14, 35, -44, -10, 26, 6, 48, -44, -58, -51, 54, 59, 
46, -83, -99, 3, 38, 22, 50, -19, 5, -15, 0, 31, -16, -44, 38, -50, -41, -73, 2, -66, -40, -18, 48, -76, 37, -47, -89, -40, -35, -127, 23, 37, 
104, -67, -95, 16, 42, 39, -38, 46, 39, 14, -22, 70, 21, 6, 0, -16, -21, -124, -25, -83, -14, -120, 58, 14, 21, 47, -96, 66, 34, 44, 3, -20, 
85, -43, -127, 27, 91, -57, -3, 14, 22, 72, -12, 9, 25, 48, 0, -45, 9, -120, 33, -35, -79, 18, 44, -87, 50, 66, -101, 55, 14, -118, 14, -63, 
108, -45, -127, 11, 28, -46, -7, 47, 7, 1, -31, 43, 6, 13, -21, -20, 56, -127, 40, -62, 4, 68, 92, 1, 24, 59, -48, 16, 43, -127, 69, -127, 
78, 3, -127, -16, 32, -7, 2, 17, 2, 1, -59, -21, -60, 1, -17, -16, 53, -127, -33, 1, 18, -47, 0, -84, 74, 90, -28, 78, 26, -127, 95, -90, 
-10, 37, -18, 74, -40, -77, 42, -14, -6, 2, -39, 29, 5, -41, -16, -48, -22, 94, -4, -8, 30, 36, 16, -8, 11, 32, 41, -31, -10, -44, 88, 3, 
-26, -51, -12, 104, -26, 42, 58, 47, 41, -47, -46, 43, -13, 30, 4, -34, -54, 100, -44, -45, 16, 11, 20, -25, 18, 28, 76, 12, 4, 47, -24, -16, 
3, -91, -77, 31, -102, 79, 28, 4, 63, -11, -18, -32, -14, 13, 36, -30, -8, 10, -15, -77, 5, 41, -10, -49, -16, -20, 57, 23, -4, 51, -50, 49, 
-4, -67, -52, -6, -114, -8, 72, 25, 70, 34, 25, -65, 52, -79, 68, -12, -23, 24, 81, -15, -46, -28, -49, 14, 49, 48, 71, -27, 42, 33, 0, 35, 
-10, -97, -103, 45, -47, 50, -38, 20, 80, -23, 103, -25, 13, 61, 38, 36, 88, -23, 114, -17, 25, -98, -35, -63, -21, -13, 54, -9, 65, 21, -105, 64, 
40, 20, -30, 24, 53, -7, -5, 0, -127, -40, -57, 14, -127, -25, -72, -72, -113, -40, -127, 13, -13, -20, 0, -103, 31, 116, 19, 66, 58, -108, -38, 111, 
51, 52, -8, 87, 5, -24, 79, 24, -85, 5, -12, 9, -9, -27, -111, -66, 3, 3, -127, -8, -35, -62, 118, 7, 30, 22, 16, 52, 13, -68, -27, 75, 
-38, 19, -22, 64, 42, -7, 86, -70, -18, -127, -32, 47, 40, 41, -49, -24, -13, -48, -125, 77, 37, -11, 59, -33, 4, -5, 60, 25, -47, 25, 36, -71, 
46, 15, -45, 74, 27, 0, -25, 0, 52, -127, -1, -62, -59, 36, -10, 30, 54, -5, -122, 41, 95, -24, 45, -109, 42, -73, 27, -53, -2, -19, -27, -106, 
69, -14, -31, -59, 21, 126, -47, 127, 127, -127, 71, 44, -127, -9, 4, 5, 123, 49, -42, 79, 33, 87, 39, -58, 9, -31, 11, -92, -37, 62, -22, 3, 
76, -40, 51, -103, -47, -29, 21, -30, -120, -89, 34, -107, 12, -37, 45, -33, 63, 13, -127, -4, -1, 64, 33, 0, -119, -127, -5, -95, -70, 31, -126, 17, 
-19, 2, 53, -60, -6, -32, -49, 77, -120, -54, 32, 0, 64, -24, 28, 22, -4, -11, -127, 80, -54, 111, -15, -15, 5, -62, -17, -60, -48, 41, -55, -5, 
62, 64, 110, -50, -18, -1, -54, -7, -69, -127, -40, -34, -25, -31, -41, 48, 32, -64, -127, 94, -13, -55, 76, -91, -27, 13, -41, -45, 25, 26, -71, 44, 
-4, 66, -2, 81, 43, 25, -49, -34, 10, -94, -19, 21, -5, 61, -19, 53, -37, -14, -121, 51, 8, -30, 49, -101, 10, 65, 2, -47, 0, -68, -4, -37, 
72, 58, -61, 49, 62, 15, -75, -38, 11, -59, 0, -14, -16, 115, -32, 89, -117, 28, -97, 48, 9, 26, 7, -21, 79, 9, 26, 6, 123, -104, -9, -127, 
62, 45, -26, 88, -50, -109, -63, 88, -127, -21, -59, 127, -84, -51, 59, -29, -75, 16, 43, -6, -27, -96, 33, -1, -74, 124, -18, 48, 53, 31, -58, -4, 
-93, 82, -27, 21, -21, -107, 35, -59, -127, -26, 5, 127, 1, -59, 2, -6, -13, 45, 81, 72, 31, 6, -14, 14, -91, 36, 8, 48, 0, 69, -38, 24, 
-113, -3, -39, -77, 62, -120, -23, -69, -115, 47, -39, 39, -35, 31, 26, 23, 25, -19, -24, 16, -10, 37, -4, -67, -55, 7, -25, 23, 49, -21, -54, 47, 
-117, -8, -78, -28, 40, 57, 53, -54, -42, 59, -8, -98, 15, 26, -36, -26, 19, 26, -86, 17, -54, 78, 44, 59, -31, -127, -46, -27, 4, -23, -60, 84, 
-13, -39, -32, 80, 3, -35, 75, -51, -34, 26, -53, -88, 108, -87, 81, -16, 16, -23, -76, -41, -17, 41, -15, 82, -50, -34, 14, -43, 27, -46, 12, 51, 
-17, 86, -127, -47, 32, -46, -47, 68, -1, 123, -9, -7, -47, 17, -80, 5, -47, -106, 127, -127, -55, -54, 15, -127, 67, 90, -21, 127, 44, -95, -68, -24, 
-6, -11, -127, -127, 17, 12, -127, 0, 10, 84, -2, 39, -5, -4, -8, 20, -10, -127, 116, -55, -5, -82, -79, -30, 43, 0, -98, 25, 44, -127, -68, -29, 
5, -57, -127, -88, 0, 40, -127, 25, 37, -17, 35, -30, -8, -38, 5, 64, 34, -127, 31, -81, -35, -127, -127, -62, -23, 78, -109, -14, 18, -14, -56, 38, 
29, -27, -127, -127, -16, 86, -106, 10, -18, -29, 4, 21, -67, 4, 24, 46, 31, -127, -1, 33, -41, -25, -127, 20, 12, -26, -127, -56, 5, 51, 7, 20, 
-3, 37, -35, -115, 38, 59, -98, 27, -28, -86, 55, -39, -29, -79, 15, -19, 36, 38, 11, 87, 97, -89, -65, -48, -38, -3, -127, -54, -69, 32, -82, 57, 
-68, 42, -101, 41, -22, 32, -12, 17, -41, -49, 27, 50, -42, 37, -13, 48, -21, -2, -57, -11, -10, 72, 39, -38, -20, 28, 34, 65, 1, -55, 0, -27, 
-36, 55, -111, -29, -17, 105, -2, 25, -81, 9, -13, -49, 59, 76, 35, 81, 42, -127, -17, -46, 53, -105, 30, -36, -38, 31, -93, 34, 50, -58, 20, 12, 
37, -1, -85, 21, -72, 88, -39, 62, -69, 37, -51, 0, 40, -14, -16, 42, 18, -121, 10, 17, 14, -127, -35, 47, -67, -19, -127, 44, 33, -25, 20, 37, 
-7, 24, 23, -77, -45, 36, -2, 89, -31, 52, -40, -127, 58, -52, -27, 23, 29, -37, -17, 3, 26, -49, 1, 32, -17, 22, -33, 50, -1, 15, 11, -7, 
0, -21, 96, -85, -75, -57, -24, 15, -74, 29, -87, -86, 50, -90, -31, -12, -25, -32, -31, 29, 40, 4, -4, 87, -3, 4, -104, 14, -27, 67, 47, 0, 
127, -5, 67, -4, 27, 61, -49, 39, -58, 58, -26, 2, 4, -46, 55, 2, -51, -127, -127, -82, -10, -88, 0, -79, 53, -18, -75, -19, 70, -4, -4, -103, 
54, 37, -53, 15, 0, -4, -127, 5, -86, 51, -16, 102, 92, 5, 49, 44, -26, -127, -127, -72, -9, -121, -19, -127, -26, 34, -117, -3, 6, -66, 1, -16, 
12, 24, 41, -24, 49, 77, -97, 100, -34, -1, -10, 31, -4, 28, 48, -6, 36, -127, -127, -8, -39, -72, 50, -92, 20, 78, -103, 0, 21, 42, 27, -35, 
-17, -9, 17, 19, 59, 40, -26, -9, -80, -24, -11, 85, 4, -58, 25, -8, 3, -74, -127, 53, 31, 5, 55, -91, 14, 87, 52, -31, -33, 47, -38, 12, 
-27, 44, 8, 52, 43, -6, 17, 88, -80, -22, -54, 31, 51, -9, 13, -34, 60, 97, -47, 59, -52, 71, 79, -21, 35, 18, 89, -75, -74, 66, 56, -36, 
96, -14, 65, -60, -6, 6, -47, -17, 26, 15, -20, 121, -36, -76, -46, 40, -9, 65, -114, -41, -127, 85, 20, -17, -35, -23, -30, -63, -65, -38, -46, 49, 
-20, 31, -27, 49, 49, 11, -19, -52, -50, 14, 42, -14, -91, -18, 36, -14, -16, 58, -65, -13, -40, 32, 2, -40, -18, 3, 6, -1, -36, -28, 47, 46, 
-82, 42, 40, 71, 90, 10, 34, -102, 0, -1, 70, -4, -31, -33, 39, 24, -27, 61, 18, -11, -20, 74, 6, 29, -21, 21, 8, 20, 2, -69, 9, 0, 
-49, 32, -38, 85, 89, 66, 46, -70, 0, 12, 77, 3, -49, 35, 66, 19, 15, 5, -14, -72, 0, -46, 2, 1, -44, 34, -47, 22, 37, -63, -8, -40, 
-54, -14, -64, 77, 54, 29, 82, 2, -15, 36, 76, -72, -7, -9, 45, -16, -6, 24, -6, -94, -48, 54, 6, -11, 41, 8, 27, 55, 17, 8, 27, -81, 
-21, -27, 17, -36, -28, 12, 21, 69, -127, 12, -103, -42, 8, -98, -127, -107, -68, -33, -2, -35, -16, -110, -49, 12, -9, -44, -20, 6, -127, -20, -79, 0, 
0, -62, 94, -54, 17, -26, 39, 50, -127, 25, -21, -21, -44, -54, -127, -71, -119, 56, 2, 3, -16, -50, -18, 121, 19, 26, 4, 40, -81, -73, -1, -47, 
-11, 31, 41, -78, 8, 48, 22, -18, -127, 41, -127, -31, -54, -92, -84, -127, -87, 19, 75, -12, 92, -25, -19, 20, -17, 38, -11, -23, -105, 14, -44, -72, 
16, -19, 55, 33, 48, -7, 50, -10, -127, -17, 121, 66, 47, 44, -64, -127, -53, 70, -21, 38, 23, 62, -33, 18, 36, 57, 81, 63, -91, 51, 60, -56, 
29, 44, 35, 90, 97, 59, 16, -7, -127, 73, -70, 54, -44, 22, -46, -51, 11, -28, 56, 23, 126, 2, -2, -55, 69, 14, 83, 88, 28, -35, 15, -80, 
18, 47, 2, 10, 60, 22, -4, -62, -12, -69, 39, -54, 18, 7, -59, 5, -33, 37, -42, 36, 12, 75, 15, -64, -30, -39, 13, 1, -98, -14, -38, 5, 
51, 1, -56, 55, 58, 9, 90, 39, -4, -86, -13, 46, -7, 28, -45, 26, -14, -6, 64, 64, -46, 121, -62, -16, 46, -20, 46, 35, -44, -7, -3, 93, 
43, 32, -90, 87, 44, 11, 32, 28, 19, -3, -19, -7, -20, 35, -63, 20, -21, -68, 80, 4, -45, -101, -127, -86, 52, 18, -20, 52, 8, -80, -53, 40, 
38, -9, -97, 44, 63, 49, 43, 54, 12, -27, 28, -54, -82, -71, -12, -31, 52, -35, 127, 26, 20, 44, 11, -20, 53, -1, 55, 30, 10, -15, -54, 39, 
-2, 11, -64, 21, 26, 27, -16, 58, 45, -33, 97, 43, 8, 54, -12, -42, -2, -78, 19, 8, 28, -9, -17, -20, 6, -18, 30, 15, 0, -55, -47, -12, 
16, -30, -117, 0, -92, -17, 43, -127, 127, 2, -76, 36, 4, -76, 73, -127, 77, 49, -116, 16, -15, -23, 39, 23, -34, 35, 21, -18, -32, 80, -6, 12, 
15, 10, -118, 27, -56, -18, 64, -127, 62, -17, 67, -80, -13, -112, 9, -127, 51, -10, -78, 30, -97, 33, 29, -47, -13, -39, -10, 17, 8, -17, 19, 53, 
14, 6, -107, 42, -41, 16, 4, -127, -121, 1, -103, 14, -13, -5, 13, -127, -13, 33, 10, -3, -78, -3, 49, -88, -28, 17, 31, 46, 11, 34, 17, -2, 
7, -1, -127, 62, -7, 3, 40, -127, 2, -11, -84, 54, -21, 0, 3, -127, -6, 41, -59, 15, -95, -30, 58, -120, 88, 75, 20, 53, 5, -3, 92, 3, 
5, 75, -83, 83, 27, -54, 49, -127, -16, 8, -127, -44, -21, -127, -30, -127, -6, -66, -20, -43, -77, -62, 29, -125, 89, 107, 33, 55, -4, -65, 0, -32, 
-79, -16, 98, -127, 45, 32, 18, 47, -54, 36, 14, 127, -28, -14, 67, -127, -28, -77, -61, -58, -125, -127, 43, -32, -75, 67, -67, 50, 11, 2, 85, 19, 
-51, -127, 6, -127, 8, -67, -78, 107, -72, 22, -30, 127, 24, -86, -10, -89, 36, -88, -1, -64, -83, -120, 24, 73, -14, -84, -67, 73, 17, -45, 39, -31, 
76, -127, 72, -127, -31, 17, -35, 20, -15, 14, -27, 93, 30, -127, 35, -47, 11, -92, 1, -9, -30, -42, 4, 71, -101, -127, -120, 33, 14, -13, 7, 3, 
-83, -116, 93, -127, 2, -9, -67, 63, -35, 16, -28, 10, 52, 15, -24, -77, 1, 0, -105, -46, -8, -8, 0, 65, -1, -127, -19, 10, 3, -7, 2, 16, 
-127, -10, 81, -40, 57, 29, -61, -57, 51, 16, 37, 33, 59, -74, -23, -66, 80, 65, -68, 42, -48, -16, 29, 51, -127, -15, 67, -29, -61, 89, 40, 0, 
-39, 17, -10, -27, -18, -127, 25, 47, -127, 7, 85, 3, 39, -57, -35, -20, -4, 0, 16, 31, -126, -29, -19, 9, 9, 52, -60, 13, -53, -22, 40, 2, 
-50, 12, 14, -114, 62, -127, 34, 10, -127, -22, -56, 52, -12, 52, -127, -72, 18, 23, 20, 13, -54, 44, 1, 8, 10, -8, -8, 26, -39, -16, -30, 30, 
33, 23, -43, -32, -8, -127, 63, 83, -127, -11, -40, -6, 6, 46, -28, -68, -20, 74, -44, 18, -7, 82, 2, 21, -31, -5, 52, 3, -60, -13, 6, 6, 
-33, 10, -45, -79, 10, -127, -2, 19, -127, -9, -110, -89, -3, 9, -60, -68, -16, 5, 26, 40, 28, 69, -24, -23, -28, -28, 15, 16, -13, 22, -28, 25, 
31, -28, -23, -127, -17, 62, -5, 68, -86, 22, -13, 77, -80, -28, -13, 70, 11, -14, 17, 76, -47, 16, 5, 42, 19, 60, 1, 54, -2, 21, 4, 50, 
-9, 10, -53, -74, -7, -72, 31, 23, -76, 29, -25, -37, 29, -52, -97, -90, -53, 25, 9, -3, -17, 49, -49, -43, 1, 21, -48, -11, -64, 48, 52, 43, 
27, 19, -36, 105, -4, -46, 48, 76, -109, -127, -94, 39, -40, 36, -57, -50, 28, -35, 5, 64, -30, -105, -127, -62, 29, 62, -17, -21, -54, 39, 56, -60, 
41, 48, 16, 37, 53, -80, -49, 65, -76, -127, -3, -7, 1, 25, -8, 5, -26, -29, -81, 56, 22, 53, -79, -31, -8, 64, -15, -41, -16, 8, 53, 5, 
38, 48, -30, 68, 59, -74, 46, 65, -6, -127, 14, 16, 66, 15, -38, -62, -15, 49, 0, -10, 50, -21, -79, -2, 30, 64, -21, -22, 8, 5, 33, -28, 
55, 13, -11, 33, 22, 30, -80, 99, 59, -127, 50, 73, 40, 45, 73, 59, 45, -15, 11, -7, 4, 103, -77, 1, 27, 64, -71, 6, 34, -6, -4, -32, 
43, 1, -15, -12, 33, 34, 40, -66, -91, 39, -11, -21, 5, -72, -78, -108, -33, 38, -79, 20, -86, 124, 6, 5, 66, 17, 71, 23, -66, -49, -13, -14, 
-44, 43, 7, 26, -48, -45, -24, -16, -64, 34, 47, -40, 1, -95, -29, -90, 0, 17, -97, 32, -18, -3, -35, 23, 44, 61, 15, -28, -34, 27, 46, 43, 
36, 45, 24, 84, -106, -24, -42, 27, -3, 10, -42, 94, -43, -67, 33, -22, -7, 48, -26, 15, -10, -19, 4, 33, -72, 95, -46, -15, -57, 15, 51, -53, 
40, -5, 68, 61, -98, -35, -38, 46, -29, 42, 57, 116, 48, -68, 79, 68, 24, -10, -34, 43, 54, -127, -23, -37, -88, 127, -79, -25, -15, 66, 74, -3, 
-112, -28, 21, 49, -53, -28, -37, 36, -14, -21, 43, 34, 41, -28, 77, 59, 24, 13, 26, 99, 83, -27, -6, 58, -87, 63, -91, -13, 29, 68, 14, -11, 
-51, 127, 100, 125, 127, 15, 50, -36, -94, -60, -51, 27, -127, 96, 5, 90, -36, 127, -95, 42, 50, -4, -19, 0, 74, -25, 127, 14, 52, -55, 127, -86, 
-66, 63, -68, -42, 16, 31, -60, -16, -58, 3, -54, 44, -57, 71, -53, 82, -28, 42, -47, 28, 49, -127, 56, 20, 7, -3, 17, 30, 23, -43, 53, -92, 
-20, -9, -50, -4, -46, 0, -66, -6, -13, -42, 9, 39, -47, 33, 17, 26, -44, 35, -26, -3, -50, -75, 9, -23, 13, -20, 40, 61, 30, -82, -54, -62, 
10, -94, -71, -127, -36, 4, -105, 41, 22, 23, 29, -54, 60, -26, 6, 2, 43, -52, 13, -17, -76, -127, 33, 76, 42, -19, -57, -53, 6, -12, -71, 78, 
26, -114, -38, -127, -127, 44, -115, 85, 4, 30, 43, -29, 113, -82, -16, -15, 49, -40, 67, -39, -89, -122, 11, 113, -45, -48, -37, -64, -42, 110, -127, 119, 
1, -36, 22, -6, -127, 6, 32, -12, 74, 6, 18, -59, 5, -98, 24, 13, -17, 73, 127, -14, -127, 86, -16, 72, -46, 22, 31, 52, 49, 21, -61, 43, 
-72, -97, 32, -54, -56, -108, 39, -127, 69, 36, 3, -105, 54, -91, 16, -59, 33, 66, 8, -7, -31, 58, 31, -39, 27, 54, 46, 37, 46, 47, -93, 49, 
-127, -124, -47, -3, -127, -105, 55, -127, -91, 27, 4, 4, 30, -24, -26, -11, 21, 52, -29, -18, -62, 66, -6, 44, 5, -10, -14, -9, 3, -11, -32, 51, 
-32, -127, -10, -87, -41, -17, 13, -127, -127, 49, -22, -53, 12, -30, -39, -63, -20, -31, 16, 28, -76, -59, 32, -30, -24, 45, -81, 14, -15, 31, -90, -64, 
-110, -100, -27, -127, -76, -78, -27, -127, -127, 11, 8, -30, -20, -127, -47, 82, 24, 19, -24, 0, -3, 34, -1, 7, -70, 126, -69, -2, -18, 34, -17, -66, 
5, -4, 22, -64, 19, 14, -127, 0, -27, -37, 8, 63, -83, 28, -46, -14, -42, -78, -6, 1, 46, 57, 127, -127, 14, -75, 15, 12, -21, -59, 70, 9, 
14, 45, -34, 0, 57, 60, -122, 42, 36, -26, 26, 12, -39, 65, -25, -13, 11, -106, 17, 6, -1, -127, 127, -109, 6, -46, 67, -22, 3, 25, 4, 70, 
18, 67, -33, 6, 18, 2, -127, 3, 19, -4, 52, -15, -121, 10, -45, 0, 28, -127, -34, -40, -21, -58, 127, -127, 3, 3, -10, -23, -36, -14, 21, 26, 
-28, 1, -52, -99, 60, -1, -32, 13, -39, -43, -29, 42, 7, 33, -39, -11, 43, -67, -64, -52, 25, -70, 124, -97, 59, 10, 53, 45, 15, 36, -23, 7, 
-16, 20, -77, -50, 25, -25, -112, 114, -22, -9, 30, 31, -68, 29, -7, -11, -4, -61, -33, -8, -78, -98, 59, 6, 47, 74, 21, 9, 16, 43, 12, 28, 
6, 7, -53, -16, 79, -15, -76, -127, -12, 47, 75, -30, 33, 9, 26, 7, 41, -37, 75, -11, -34, -22, -119, 0, -26, -51, 37, 35, -58, -14, 47, 50, 
-18, 14, 37, -21, 79, 32, -40, -127, -47, -21, 48, 82, -14, -18, 40, 7, 17, -5, 73, 16, 26, -33, -54, 5, -1, 31, -1, 39, -46, 8, 49, 49, 
-25, 65, 67, 15, 76, 2, -26, -127, -21, -59, -12, 43, 38, 34, 34, 10, -4, 49, -127, 44, 26, 54, -79, -45, -22, -2, 54, -2, -44, -30, 61, -42, 
-127, 17, 26, 15, -7, 5, -59, -26, -17, 20, 19, 27, 12, 24, -9, -1, -11, 18, -80, 25, -45, -11, -53, 116, 37, -105, 22, 74, 3, -38, -19, 0, 
-127, -68, -4, -17, 15, 10, -107, 11, 50, -89, -15, 32, -64, -39, 9, -44, 4, 49, -58, -13, -52, -65, -77, -32, -12, -46, 0, 9, -13, 7, -24, 25, 
-75, 18, -6, 55, 1, -26, -59, -25, -61, -127, -38, 48, -1, 90, 13, -3, -16, -70, 66, 61, 127, 14, -52, -47, -12, -75, -33, 10, 17, 62, 22, -127, 
5, 55, 22, 89, -8, -1, 35, 74, -53, -127, -6, -28, -67, 52, 41, -19, -75, 19, -41, 39, 127, -127, -71, 14, 39, 83, 0, -7, 18, 77, -34, -127, 
13, -19, 13, 70, -25, 44, 48, 28, 0, -127, -17, -20, 15, 57, 49, 11, -47, 57, 0, 43, 45, -7, 64, 92, 28, -23, -6, -25, 30, -35, 35, -103, 
46, -60, -17, 21, -34, -65, 12, 53, -20, 21, 10, -40, 0, 55, -59, -46, -111, 70, -17, -8, -20, 39, -5, 108, 21, -3, 0, -49, 36, -35, -53, -127, 
71, -57, -49, -54, -76, -14, 15, 83, 58, 58, 91, -42, -41, 18, 7, 15, -45, 56, -45, -82, -76, 20, 7, 127, -9, -9, 7, 45, 2, -68, -64, -127, 
47, -10, 37, -77, -38, 23, 44, -13, 8, -127, 58, -12, -21, 85, 43, 20, 55, 12, -112, 14, 51, -14, 64, -59, -35, 13, -13, -69, -47, 29, -3, 16, 
-5, 40, -98, -83, -46, 29, -14, -59, -73, -123, -44, 63, -91, 13, 26, 64, 52, 16, 16, 66, 0, -19, 6, -29, 12, 3, -40, -31, 18, 10, 101, -30, 
-19, 27, -9, -28, -39, 2, 25, 13, -92, -99, 22, -88, -64, 79, 50, -8, 3, 53, -48, -1, -30, 51, -6, -50, 44, -27, 80, -9, 21, -53, 33, -62, 
-3, -26, -78, -110, -15, -14, -74, 55, -8, -5, -11, -84, -31, 92, 54, 47, 36, -68, 71, -13, -37, -8, 6, 13, 73, -21, -5, -51, 15, -26, 32, 1, 
0, 6, 57, -92, -68, -40, -127, 69, -76, -34, -36, -47, -39, 0, -46, 17, -6, -31, 71, 20, -58, -114, 81, 22, 26, 44, 59, 46, -3, -3, 11, 13, 
127, -33, 2, -66, -33, 66, 20, -47, 108, 11, 71, -81, 43, -50, 73, -13, 40, 20, 1, -6, 29, 7, 61, 3, -112, -31, 11, -65, -16, 45, -97, -94, 
-12, -28, -7, 34, 23, 71, -25, -65, 49, -43, 14, 24, 102, 8, 99, 25, 59, -54, -96, -34, -8, -3, 28, -17, -18, -27, -48, 10, 23, 13, -4, -79, 
97, 44, -29, 28, 2, 0, 0, -80, 38, -55, -33, -40, 8, 2, 17, -6, 47, 45, -38, 14, -6, -3, 24, -94, 22, -18, -7, 33, -23, 6, -37, -87, 
69, 43, 15, 9, -34, -12, -70, -62, -76, -34, -93, 20, -18, -49, 19, -13, 14, 27, -32, -3, -34, 44, 0, 41, 30, 11, 18, 41, -9, 63, 20, -13, 
86, 89, 50, 127, 57, -20, -64, 75, -55, -47, -101, -10, -60, 13, -60, -60, -71, -48, 8, -44, -67, 52, 2, -58, 73, -4, 6, 75, 16, 0, -40, -58, 
15, -117, -80, -81, -17, 0, -127, -10, -32, 13, -22, 65, 58, 7, 47, -8, 22, -89, 8, 45, 21, -79, 29, 48, -70, -6, -127, -114, -29, 56, -39, 21, 
16, -127, -105, 0, 19, -60, -127, 53, -26, 36, -12, 7, 61, -45, 3, -8, -5, -74, -32, 27, 32, -18, 58, 21, -48, 44, -127, -127, -11, 88, 21, -29, 
61, -127, -35, -22, -22, -35, -127, 58, 39, 2, -20, -75, 84, -62, -7, 6, 21, -110, -30, 45, 39, -63, 1, -45, -32, -1, 51, -84, 44, 43, 10, 48, 
37, -56, -127, 20, 66, 24, -127, -11, 43, 27, 27, -39, 58, 92, 2, -28, -1, -127, 12, 19, 7, -102, 26, -85, -89, 4, -17, -12, 67, 49, -29, 17, 
-32, -38, -49, 17, 39, -33, 7, 50, 55, 76, 11, -30, -42, 46, -17, 16, -58, -14, 5, 9, 40, -106, -10, -103, -46, 89, 127, 45, 77, 43, -68, 34, 
23, -67, 15, -77, -57, -17, 4, -54, -115, 9, 80, -43, 1, -111, -66, -111, 60, -56, 6, -34, 42, -58, 70, 48, -127, -127, 4, 71, -4, 77, 0, 45, 
11, -23, 44, 0, 23, 7, -26, 118, -85, 87, 50, -127, 21, -111, -18, -124, 34, -28, -51, 4, 15, 88, 72, -60, -49, -68, -24, 23, -48, 41, -61, -14, 
25, -51, 23, 66, 69, -8, -29, 55, -127, 63, 12, -66, 5, -80, -3, -127, 9, -55, -112, -3, 75, 32, 45, -20, 22, -4, -4, 14, 13, 85, -41, 16, 
-31, -15, 46, 12, 95, -43, -42, 57, -127, 0, 37, -117, -53, -57, 6, -55, 36, -102, -63, 64, 26, -48, 28, -50, 2, -102, -33, 13, -4, 58, 12, -34, 
-57, -2, 74, -36, 10, 15, -60, 8, 12, 3, -18, 84, -53, 11, 0, -47, -38, -9, -26, 14, -9, 75, 46, 3, 56, -127, -15, 9, 53, 1, 52, -125, 
10, -3, 12, 40, -25, 61, 11, 88, 50, -19, 58, 13, -111, 6, -6, 8, 71, 5, 60, 45, 65, -12, 36, -92, -3, 34, 64, 124, -17, 33, 91, 59, 
55, -61, 30, -9, -11, 88, 9, 38, 46, -48, 26, -35, -51, 42, 35, 0, 86, 54, -97, -21, 19, -6, 19, -74, 4, 21, 0, 83, 26, -14, 127, 20, 
85, -19, 51, 29, 19, 7, -6, 7, 62, -68, -8, -60, -73, -30, 22, -62, 8, -13, -30, 14, 21, -18, 17, -49, -24, -94, 29, 68, -18, 34, 94, 0, 
60, 3, 77, 39, 3, 34, 24, -25, 5, -36, 28, -29, -127, -35, -29, -47, -53, 57, -127, -15, 32, 23, 27, 0, -50, -52, 70, -9, -3, 4, 72, -60, 
41, -71, 2, -69, -11, -9, 36, -27, -32, -42, -12, -13, -16, -26, -62, -28, -33, -45, -127, -107, 24, -23, -46, -46, -90, -116, 24, -42, -13, -47, 31, -21, 
50, 18, 65, -85, -25, -56, 67, -48, -127, -127, -70, 56, -73, -44, -55, -26, -64, 17, -103, 40, -19, -20, -49, 16, -10, -45, 45, -13, -12, -8, -32, -86, 
30, -25, 27, -127, 25, 0, 46, -38, -118, -127, -54, 44, -39, 49, -24, 63, -29, 12, -107, -61, -43, 75, 16, 8, 1, -29, 24, 5, 11, -18, -34, -13, 
-26, -15, 11, -82, 28, -29, 8, -54, -91, -80, 37, 67, 18, 41, -37, 79, -11, -9, -73, -29, -39, 13, -111, 71, -40, 35, -11, 109, 32, -36, 9, -107, 
81, -12, 19, -88, 20, 50, 29, -1, -48, 8, 36, -26, -3, 2, -3, 21, 38, 15, -6, -65, 6, 11, -72, 99, -11, 43, 0, 28, 35, 15, 24, -12, 
80, -47, -59, 22, 18, 25, -38, 4, -43, 6, 104, -11, 35, 72, 102, 106, 9, -69, -67, -87, 94, 6, -127, 46, 1, -74, -95, 67, 20, 33, 55, 33, 
-38, 20, 32, 8, 11, -84, 0, -21, -55, 7, -81, 0, -31, 29, 12, -36, -50, 11, -25, -30, -49, -20, 35, 7, 27, -6, 76, 22, -9, -127, 109, -51, 
-57, 39, 57, 24, 0, -111, -19, -37, 32, 37, -108, -66, -50, 29, 18, -68, -127, -52, 45, -105, -97, -58, 44, -49, 49, 45, 62, -17, 9, 21, 2, -42, 
4, 26, 64, 3, 49, -59, -35, 31, -8, -5, -4, 20, 19, 67, -17, -13, -127, 49, -6, -56, -80, -83, -23, 85, 50, 50, 92, -30, 27, -127, 58, -54, 
43, 53, -29, 51, -32, -73, -97, 16, 34, -17, 77, 75, 20, -38, 36, 30, 74, 2, 68, -71, -35, -22, 21, 5, -8, 9, 46, -42, 13, -4, 56, -29, 
-7, -61, -37, 9, -13, -19, -8, 59, 59, 27, 68, -40, 76, -36, 48, 46, 93, -79, 27, -127, 24, -127, 3, 48, -18, -26, -27, -30, 25, -127, 48, 52, 
-30, -43, -71, 127, 48, -27, -37, 26, -31, -5, -77, 49, -30, -38, -56, -65, -74, 20, -24, 3, 104, -63, 35, -57, 4, 51, 8, -52, -26, 25, 93, 123, 
79, 24, 32, 49, 100, 27, -29, 4, -18, -47, 30, 46, -7, -16, 1, 14, -3, 19, 26, 65, 10, 97, 58, -108, -89, -72, 62, -44, 50, 38, 0, 10, 
125, -20, -12, -63, 24, 20, 35, 14, 30, -31, 59, -1, -16, -9, -65, -25, -1, 48, -39, 51, 9, 69, 51, 54, -35, -13, 15, -8, 9, 25, 8, -59, 
127, -65, -28, -49, 24, 94, 20, 93, 57, 21, 94, 23, 24, -52, -12, -4, 40, 17, -58, 49, 0, 118, 30, -77, -127, -127, -33, -5, -51, 46, 55, -37, 
81, 9, -14, -114, 14, 71, -3, -28, 63, 73, 30, -85, 0, -87, -33, -41, -5, -19, -57, -14, -1, 18, 52, -74, -36, -88, -10, -37, -76, 22, 43, 0, 
-16, 61, -3, 122, 8, 11, -22, 34, 10, 52, 62, 74, -1, 11, 75, -11, 25, -16, 63, 0, -8, 96, -104, -48, -16, 0, 46, 15, -5, 2, -94, 4, 
-24, 41, 2, 5, -52, -61, -34, 54, 12, -18, 41, -44, -3, -89, 88, 1, -47, 16, 77, -21, 54, 61, -127, -49, 76, 9, 56, 5, 31, 65, -70, 52, 
-50, 1, 63, 127, -66, -94, 16, 24, 63, -28, -9, 16, -47, -91, 58, -127, -21, 26, 34, -5, -17, 101, -127, -70, 26, -39, 54, -39, -42, -11, -107, 38, 
17, 66, 57, 46, 20, -127, -9, 18, 67, -20, 15, 52, 3, -25, 21, -127, -26, 4, 65, 0, -5, 61, -4, -25, 18, 40, 39, -7, -44, -11, -127, 22, 
-7, 11, 10, 88, -39, -8, -3, 31, 21, -35, -64, 17, -39, -29, -28, -87, 0, 0, 35, 4, 92, -23, -105, -23, -9, -10, 26, -61, -35, 56, -68, 52, 
-88, 34, -2, -50, -44, 24, -24, 27, -12, -64, -55, -55, 59, -54, -42, -14, -46, 32, -20, -25, -53, 61, 8, 24, -35, -56, 4, -66, -68, -77, -84, 6, 
-30, 19, 68, -14, -42, -43, 71, 63, -43, -41, -18, 39, -8, 38, 34, -6, -5, 89, -39, -54, -41, 127, -94, 20, 10, 0, 49, -17, -32, -4, 8, -5, 
8, 36, 64, -62, -52, 2, 17, 99, -7, -65, 11, 8, 10, 47, 13, 8, 4, 31, 0, -50, 7, -42, 50, 101, -12, 7, -22, 62, 6, 4, -64, -43, 
-37, -49, -91, 84, -84, 1, -17, 14, 9, 11, 23, 127, -57, 80, 61, 44, 62, -126, -84, -22, -16, -127, -127, -23, -15, 49, -79, 29, 33, -18, -10, -31, 
-37, -20, -22, 12, -35, -21, -102, -46, 20, -127, -10, 35, 18, 101, 38, 95, 66, -92, -78, 3, -41, 76, -45, -70, -11, 38, -51, 19, 85, 45, -15, 8, 
59, 0, 13, -3, -58, 5, 59, 9, -127, -60, 75, -56, 12, -78, -1, -3, 37, 74, -19, 20, 22, 115, 2, 98, -17, -55, 71, -14, -22, 46, 9, 113, 
48, 33, 48, -127, -70, 60, -5, 23, -127, -54, 40, -50, -34, -41, -45, -55, -33, 93, -32, 50, -5, 44, -18, 22, 21, 31, 60, 35, -69, 42, -15, -31, 
54, -24, -13, -127, -26, 42, 7, -17, -127, -61, 37, -11, -49, 19, -107, -21, 19, 75, -49, -4, -30, 20, 14, -5, 39, -56, -16, 65, -3, -4, -65, 48, 
5, -41, 10, -35, -20, 51, 15, -23, -127, -71, -47, -10, 0, 17, -117, 39, -4, 30, -64, -10, 64, -41, -40, 32, -28, 27, 14, 47, 51, 26, -50, -71, 
33, -11, -34, -3, 16, 18, -19, -21, -97, -66, -88, -8, -82, -1, -75, -43, -37, 42, 21, -50, -21, 36, 25, -51, 6, -26, -32, 15, 37, 20, -96, -105, 
-127, -2, -45, -69, -33, 7, 89, -12, 33, 73, 11, -114, 38, 2, 21, -63, -6, -95, 27, -27, -46, -127, 31, -78, -75, -80, -62, -35, -18, 50, 40, 15, 
-1, 8, -58, -11, 45, 17, 17, 37, -65, 45, 17, 68, 14, -46, -36, 7, -62, -63, 20, 38, 50, 27, 0, -127, -58, 1, -34, -39, -8, -11, 55, -62, 
-60, -3, -70, 19, 48, -22, -71, 73, -23, -44, -30, 68, -25, -53, 51, 42, -50, 16, -10, 8, 89, -3, 30, -76, -7, -27, -48, 33, 28, -4, 85, -64, 
-15, -1, 21, 80, 46, -33, -36, -45, 3, -17, -120, 18, 62, -10, 43, 24, -65, -14, 5, 7, 50, -60, 0, -18, 10, 49, 14, 25, 4, 12, 105, -25, 
-40, 62, 15, 127, 15, -34, -11, -4, 21, 0, -95, 37, 15, -24, 23, 33, -67, 46, 4, -62, 26, -9, 13, 7, 59, 57, 44, -25, 66, -81, 44, -23, 
80, 55, -37, -25, -41, -37, 49, -7, 5, 1, 0, 49, 51, 61, -74, 30, -55, -43, -48, -33, -27, -23, -6, 51, 14, -9, 33, 15, -87, -39, -46, 20, 
-127, 40, -54, -21, -28, 11, 24, -29, 7, -15, -32, 29, 53, -21, -77, 23, -14, 15, -24, -13, -31, -12, -19, 40, -9, 65, -14, 61, -52, -78, -37, -23, 
31, 36, 67, -96, -7, 24, -35, 60, -94, 0, -30, 69, 11, -1, -90, 58, -25, -15, -63, -29, -48, 29, 64, 56, -16, -13, 16, 14, -19, -40, -47, 4, 
-127, 77, -15, -58, -9, -8, 29, -85, -28, -32, -82, 82, 20, 42, -70, 18, 54, -23, -75, -19, 97, -36, -20, -1, -32, 1, 40, 41, -74, 54, -48, -36, 
-59, 43, 17, -14, -21, -53, -47, 6, 70, -27, 98, -40, 49, 59, -21, 6, 54, 25, -6, 27, 49, 10, -5, 11, -25, -87, 9, -7, -80, -2, 9, -33, 
39, 55, -14, -22, 87, 23, 29, 60, -62, 36, -127, 16, -62, 4, -66, 14, -127, 28, 20, -18, 65, 13, 58, 17, 39, 18, -3, 28, 17, 16, 25, -88, 
1, -18, -58, -25, 37, 7, -32, 17, -38, 42, -127, 98, -46, 72, -79, 70, -127, 74, 66, 51, 71, 127, 3, -12, 50, -64, -8, 21, 2, -59, 17, 0, 
-4, 28, 27, -62, 37, -18, -11, 1, -47, 23, 41, 10, -97, 4, -49, -52, -95, -26, 43, 69, -43, -7, 8, -127, 15, -46, -81, -13, 11, 5, -23, -11, 
-57, -23, 1, -20, 47, 58, -71, -11, 18, 63, -15, 65, -67, 64, -90, -3, -6, -47, 67, -2, -27, -92, -3, -30, 1, -53, -72, -8, 33, -40, 55, 28, 
-24, 50, 41, -7, 22, -43, -13, 38, 16, 25, 67, 60, -41, -44, -43, -37, -24, -2, -34, -12, 32, 28, 29, -58, 48, 27, 49, -21, -14, 49, 15, 40, 
-38, 68, 37, 46, 67, -3, -12, -1, -38, 14, -7, 80, -56, 35, -55, 34, -31, 127, -56, -42, -43, -127, 28, -87, 7, 25, 127, 43, 9, -127, 19, -127, 
-7, -13, 23, 62, 66, -10, 51, -31, 11, 15, -17, 63, -24, 1, -1, 10, -38, 38, -54, -65, -14, -127, -33, -127, -1, 43, 41, 12, 2, -49, 80, -45, 
65, 43, -127, 19, 80, -31, -11, -16, 10, 53, 41, 63, 84, 55, 48, 11, 25, -127, -21, -70, 55, -127, -61, -127, -6, -41, 14, 6, -10, -40, 12, -22, 
58, -2, -103, -36, 53, 36, 23, 34, 27, 5, 28, 23, 83, 48, -16, 30, 18, -127, 39, -24, 72, -127, -10, -127, -71, -7, -28, 30, 11, 33, 37, -34, 
61, -60, -38, -13, -31, 14, 85, 6, -47, 69, 42, 28, -15, -64, 49, 18, 49, -103, 12, -54, -55, -127, 29, -34, -72, -71, 0, -29, -21, 69, -70, -99, 
87, 9, 13, 38, 35, 76, 0, -5, 116, -29, 127, 18, 13, 19, 127, 50, 35, -31, -127, 52, 77, -66, -15, 72, -93, -35, -33, -33, 73, 35, 13, 103, 
-15, 55, 22, -64, 6, 49, -39, -18, 15, -1, 76, 25, -71, -34, 55, 3, -4, 61, -127, 65, 13, -77, 9, 43, -50, 4, 16, -4, 5, -19, -49, 63, 
-24, 11, -14, 48, -10, -70, -38, 18, 17, 37, 30, -7, -66, 49, -58, -9, -35, -8, -72, 15, 34, -29, 2, 60, 36, -95, -25, 37, 39, -54, -30, 13, 
-1, -20, 42, 101, -35, -59, -9, 58, -45, -30, -58, 52, -39, 56, -85, -32, -24, 26, -48, 29, -25, -114, 7, -34, 65, -101, -48, -9, 11, -19, 43, 0, 
-42, -20, 42, 60, 5, -125, 26, 77, -64, -18, -103, -74, -32, -3, -101, -79, -67, 12, 35, 7, -71, -73, 27, 117, 110, 32, 58, 64, 13, -15, -33, -82, 
-59, 59, -41, 47, 73, 12, 87, -27, -90, 108, -21, -1, -55, 65, -51, -20, 28, -70, 60, 68, 73, 13, 57, -82, 33, 26, 70, 81, -54, 62, 113, -23, 
-14, 16, -124, 13, 19, -40, 9, 10, -29, 41, 43, -26, -39, 1, -21, -42, -35, -127, 38, -10, 51, -127, 60, -83, 103, -60, 102, 64, 0, 59, 34, 27, 
35, -30, -127, -50, 21, -14, -114, 3, 0, 13, 12, 50, 54, 1, 18, 0, 31, -127, 40, 55, 18, -103, 26, -72, 21, -5, 18, 57, -21, 60, 21, 0, 
58, -23, -93, 53, 38, -15, -127, 19, 31, -3, 61, 24, 43, 39, -12, -1, -25, -127, -36, -7, -60, -127, -4, -81, 46, 18, -47, -2, -20, -31, 48, -15, 
49, -70, -30, -21, 10, 1, -127, -43, 45, 18, 43, 45, 124, -52, -10, 20, 52, -127, -29, -44, -51, -91, 77, -52, -4, -15, -125, -59, -35, 11, -16, 0, 
99, 9, 20, 25, 60, -74, -18, 22, -125, -16, -6, -11, -48, -37, -53, 35, 109, -8, 36, 64, 12, -44, 101, -6, 6, 47, -44, -15, 1, 86, 14, 76, 
114, 4, 23, -20, 89, -85, -56, 22, -127, 35, -38, -15, -6, -49, -127, -28, 77, -16, -53, -27, -48, -41, -8, 20, 5, 0, -13, -24, -62, -5, -56, 32, 
55, -20, -46, -31, 74, -80, -27, 23, -84, 5, -69, -71, 29, 66, -127, -22, 44, 40, 27, 19, -69, -4, 23, 0, -15, 12, 16, 2, 29, 29, -22, 0, 
75, -13, 13, 14, 51, -125, 7, 33, -127, 43, -127, 23, -94, -25, -127, 50, 9, 102, -41, 70, 31, 91, 40, 49, -20, 3, 43, 15, -38, 79, -4, -54, 
97, -37, -39, -114, 75, -83, 7, -16, -106, 2, -45, 16, -112, 9, -127, 34, -15, 50, 36, 72, 0, 56, 24, -77, -1, 46, 16, 1, -20, 0, -32, -81, 
69, -31, 82, 48, -64, -3, -28, -12, 23, -81, -3, -8, 5, -30, -42, -47, 17, -23, 44, -15, -44, -26, 17, 4, -9, -42, 53, 44, -14, 13, -10, -58, 
-112, -5, -9, 82, 15, -83, -23, -127, -26, -127, -27, -44, -127, 50, -81, -26, -19, -19, -3, -58, -49, 127, -38, -94, 70, -7, 25, 25, 40, 55, 8, 0, 
-127, -5, 25, -4, 17, -19, -125, -84, 20, -125, 19, 0, -81, 7, -53, -6, -9, -12, 38, -7, 97, -42, -16, -93, 5, 53, 12, 8, 14, 0, 17, 40, 
-98, 11, 15, 31, 9, 20, -104, -114, 74, -74, 21, 5, -127, -29, 27, 60, -8, 29, -56, 5, 105, -38, -72, -23, -2, -20, 33, 60, 36, 16, -23, 15, 
6, -55, 0, 28, 6, 39, -89, -15, 114, -127, 127, 79, -27, 72, 34, 54, -4, 39, -23, 57, 39, 87, -60, 58, -32, -46, 53, 54, 37, 32, -8, 31, 
2, -10, 34, 24, 8, 42, -82, -63, -5, -83, -42, 19, -46, 68, -34, 50, -43, -30, 100, 27, -55, -22, 12, 60, -44, 63, -127, 127, 46, 14, 111, 5, 
22, -12, 6, -9, -29, 18, -127, -51, 57, -56, 26, -54, -74, 43, 19, 24, -11, -17, 25, 21, -20, -14, -8, -120, 39, -62, -127, 121, 13, 31, 107, -39, 
50, 78, 1, -4, -18, 33, -127, -61, 25, -20, -1, -39, -24, -23, 45, -15, 38, -112, -127, 35, -5, -108, 11, -8, -43, 2, -127, 54, 9, 26, 36, -9, 
9, 15, 96, -32, -10, -14, -127, 1, 67, 7, 38, 6, -27, -6, 46, 53, 45, -116, 7, 16, 64, -127, 63, 49, -26, -105, -127, 0, -3, 78, -18, -51, 
48, 36, 127, -30, 11, 10, -127, -42, -6, 39, -55, -76, -40, -59, -25, -39, 27, -115, -94, 92, 6, -127, 53, -91, -50, -127, -127, -32, -67, 64, 3, -56, 
-63, -29, -41, 105, 8, -127, -68, -45, 30, -20, 34, -72, 20, 73, -25, -16, 12, -35, 13, -29, 48, -8, 12, 14, 32, -15, -49, 44, 42, 42, 70, 17, 
-20, 20, 49, 127, -2, -127, -13, -3, -46, 24, 68, 7, 42, 4, 3, -32, -28, -42, 44, -33, -36, -5, 19, 6, 59, 27, -39, 12, 8, -10, 48, 18, 
102, 30, 77, -10, -28, -127, -10, 66, -6, 11, 50, -51, 57, -127, 29, -125, -16, 17, 1, 46, -127, -5, 40, 127, 31, 60, -12, 5, 11, -81, -34, 58, 
121, -53, 68, -18, -55, -115, 25, 28, -26, 15, -2, 10, 47, -120, 1, -81, -50, 4, 103, 6, -127, 0, 38, 123, 6, 41, -35, -19, 7, -91, 41, 7, 
81, -34, 86, 0, -31, -127, -20, 51, -9, 40, -69, 15, -12, 6, -43, -120, -8, 49, 57, -54, -125, -26, 35, 86, 14, 61, -5, -28, -25, -48, -55, 16, 
14, -77, 0, -15, -36, 57, -30, -14, -73, -21, 117, 0, 123, -57, -60, -12, 69, 33, -40, 13, -64, -46, 37, 47, -59, -72, -37, -77, -127, 58, -13, 110, 
-5, -21, 14, -80, 9, -67, 15, 18, -99, -41, 31, 10, 61, -12, -22, -80, -19, 5, -10, 24, -83, -17, 41, 11, -51, -17, -17, -71, -94, 39, -22, 55, 
-24, 29, 16, 9, 73, -70, 12, -18, -6, -25, -50, -6, -22, -3, -88, -28, -55, 41, -64, 33, -47, -2, 14, -68, -6, 29, 31, 14, -9, 56, -22, -43, 
3, 67, -11, 69, 107, -43, 10, -13, -75, -6, 25, -44, 15, 63, -60, 60, -6, -8, -26, -7, 56, 7, 39, -62, 12, -7, 7, -9, 0, -26, 24, -105, 
-27, 75, 0, 114, 35, -87, 49, 67, 105, 20, -42, 103, -41, 108, -10, 0, -89, -52, -9, -66, 5, -76, 13, -91, 32, 92, 30, 88, 127, -15, 41, -117, 
25, 125, -71, -125, 18, 23, -18, 34, -40, -57, -44, 102, 0, 80, -77, 86, -28, -54, -82, -52, 16, -7, 35, 8, -48, -43, -24, 34, -68, -102, -10, -74, 
56, -27, 4, -103, -27, 31, 7, 68, 9, 35, 6, 36, 68, 59, -33, 60, 15, -49, -21, -35, -6, -60, -46, 32, -77, -10, -49, -16, -85, -33, 43, -71, 
74, 46, 31, 19, 2, -26, -35, 7, -4, -35, 41, -48, 35, -37, -63, 14, 17, -90, -29, 22, 14, -15, 7, -60, -69, -38, -54, -53, -88, 21, -18, 43, 
36, 36, -33, -44, -10, 9, 23, 35, -40, -63, 44, 36, 56, 38, -42, 30, 39, 55, -44, 64, -47, 60, 65, 89, -25, -54, -22, -115, -127, 28, -83, -41, 
73, 9, 42, -55, 58, -12, 85, 33, -13, -44, -11, -33, -62, -20, -35, -29, 48, -18, 3, 56, 20, 45, -30, -32, 25, 4, 27, 31, -122, 91, -53, 1, 
-69, 27, 27, 127, 48, 46, 62, -20, 90, 0, -16, 73, -84, 71, 81, 9, 45, 39, -104, 70, 127, 122, 54, -121, 38, 20, 48, -26, 8, -10, 89, -26, 
-14, -2, 55, 104, 85, -17, 70, 9, 117, -39, -40, 0, -99, -33, 67, -42, 40, 62, -96, 40, 89, 95, 78, -127, 58, 35, 33, -21, 25, -43, 25, 2, 
85, -53, -26, -16, 26, 53, 13, 50, 12, 7, 18, 68, -26, -16, 9, 25, 59, -4, -60, -42, 85, 80, 20, -87, 97, 22, 20, -23, 54, -102, 43, 40, 
10, -30, -14, 7, 13, -1, 18, 54, -13, -15, -31, 21, -48, -38, -22, -48, 44, -41, -23, -21, 7, -7, 46, 4, 4, 53, 0, -2, -3, -84, -34, -28, 
27, -110, -20, -80, 0, -72, -41, 60, -19, 6, 20, -16, 89, -87, -88, -87, -26, -71, -28, -83, -36, -72, 38, 67, 36, -7, -73, -62, -38, -76, -32, -3, 
-97, -13, 18, 43, -23, -4, -29, -76, 68, -35, 72, -66, -50, -88, -12, 7, 78, 20, 72, 15, 14, 20, 75, -127, 15, -16, 33, 18, -24, 98, -96, 127, 
-3, 33, 11, 103, 54, -35, -49, -26, 51, -73, 21, -65, -98, -51, 25, -9, -22, 16, 105, -25, 67, 20, 50, -68, 74, 18, 81, 29, -13, 21, -4, -22, 
-112, 2, -32, 127, 11, 30, 27, -63, 2, -19, -16, 18, -127, -11, 30, -22, -25, -33, 54, -17, 45, 38, 11, -106, -1, -17, 24, 27, -1, 10, -21, -67, 
12, -34, -29, 73, 36, 57, 23, 50, 8, 38, 29, 66, -108, 25, -22, -12, 39, 52, 90, 7, -20, 5, 50, -84, 36, 50, 38, 30, 19, -1, 18, -59, 
79, -44, 32, 67, -3, 10, -1, 78, 23, -19, -56, 25, -121, -70, 19, -24, -41, 57, 98, 31, -37, 46, 15, -25, 71, 3, -29, 8, -8, -44, 49, -94, 
-16, 2, -22, -18, -12, 95, -33, -95, -127, 13, 60, 47, -28, -41, -37, 58, 107, -90, -38, 9, -7, -67, 1, -127, -58, -11, -37, -105, -31, 40, 55, -92, 
-36, -1, 3, -5, 11, 80, -5, -80, -84, -29, -40, 89, -127, 30, -61, -28, 69, -41, -29, -10, 67, -100, -48, -101, -28, 14, -34, -2, -16, 71, 50, 9, 
-29, 20, 34, -80, 6, 13, 56, -4, -20, 11, -36, 6, -127, 16, -125, -8, -59, 7, 9, -10, -81, -26, 38, -9, 58, 48, 48, -30, -5, 23, 38, 24, 
39, -3, -3, -55, 50, -17, 98, 42, -17, 70, 82, 30, -127, 64, -127, 20, -84, 53, -23, -12, -127, 75, -39, 106, 73, 66, 87, 22, 61, -118, -21, 30, 
7, -28, -47, -39, -1, 16, 29, 47, 127, 20, 88, 6, -13, 58, -75, 17, -18, -69, 26, -115, -47, -52, -31, -19, 24, 97, 2, 7, 68, -65, -40, 37, 
-56, 38, 68, -12, 19, -49, -29, -55, -32, -57, -47, -60, 33, -52, -13, -19, -28, -43, 39, 77, -7, -57, 8, -46, -4, -89, -4, -37, -103, 75, -32, 19, 
-8, 28, 48, -41, 19, 27, 56, -21, 33, -123, -33, 61, 68, 57, -18, 19, -3, 58, 6, 64, 57, -42, 24, 36, 47, -81, 53, -57, -17, -29, 28, -30, 
37, -1, 53, 86, -19, 39, -15, 48, 69, -85, -54, 37, -77, 15, 22, -6, -28, 38, -127, 24, -27, 0, -49, 61, 11, -30, 67, 0, 36, 29, 11, -52, 
11, 42, 6, 64, 11, 38, 19, 5, 34, -11, 6, 80, 11, 46, 71, 34, -8, -61, -100, -12, -48, -13, 2, -27, -53, -84, -59, -13, -7, 21, 32, -19, 
66, -26, -42, 60, -39, 11, 105, 50, 80, -51, 1, -40, 35, 32, 69, 47, 0, -47, -105, -38, 2, -71, 57, -94, 13, 5, -55, -24, 61, -28, -1, -38, 
3, 109, -85, 35, 1, 16, 45, 45, 6, 56, -68, 38, 8, 0, -93, 2, -86, 4, 87, -68, -1, 40, 59, 32, 127, 88, 50, 127, 12, -119, -15, -29, 
1, -9, -56, -27, -12, -16, -7, 77, 16, 19, -27, -4, 66, 32, -39, 25, -15, -127, 56, -111, 15, -89, 5, 21, 49, 88, -66, 52, 21, -53, 2, -14, 
31, -46, -44, -75, -55, 59, -10, 96, -6, 25, 2, 37, 67, -2, 4, 12, -1, -127, 45, -42, 21, 21, -31, 11, -18, 43, -102, -4, 35, 10, 43, -1, 
7, -26, -80, -98, 5, 49, -49, 5, -20, -45, 22, 7, 99, -78, 5, 21, 75, -86, -18, -39, 105, -28, -18, 24, -96, -49, -127, -107, -32, -9, -52, -7, 
-55, 2, -32, -81, -17, 20, 17, -41, -66, -49, 30, -55, 74, -36, 43, 24, 87, -85, -75, 95, 79, -60, -6, 34, -88, -87, -127, -127, -84, 127, -37, -11, 
-127, 2, 106, 21, 25, -39, -90, -57, -45, 72, -57, 106, 25, -52, 5, 9, -18, -127, -42, -120, -4, -127, 51, -117, -36, 79, -96, 57, 74, -99, -56, -13, 
-18, 23, 45, 2, 6, -17, -127, -4, -45, 75, -15, 11, -20, -41, 59, 39, -24, -125, 20, -40, 2, -127, 57, -70, -114, -127, -88, 22, 79, -67, -3, -5, 
-61, -28, 0, -3, 13, 29, -127, -127, -34, -15, -10, -21, 17, 37, 26, 60, 24, -127, 22, -52, 27, -70, 81, 25, -100, -127, -127, -15, 16, -45, 28, 33, 
-80, 75, 34, -17, 37, 5, -127, -127, -5, 0, 13, -85, 82, -33, 87, -11, 18, -71, -16, 60, -11, -108, 74, -50, -127, -127, -2, 0, -18, 4, 64, 15, 
-62, 15, 127, -69, 46, -24, -79, -127, -10, -32, 26, -58, 46, -59, 44, -6, 65, -15, -35, 20, 56, -81, 62, 14, -99, -127, -105, -21, -2, 0, 17, 28, 
69, 27, -28, -96, -127, -14, -13, 71, 32, -44, -45, -127, -127, -24, 61, -65, -19, -14, -5, 59, -54, 7, 17, -35, -50, -26, 25, -8, -52, 42, 19, -89, 
59, 9, -102, -88, -127, -119, 45, 57, 65, 7, 65, -127, -47, 19, -83, -72, -12, 10, 57, 64, 9, 15, 9, 37, 25, 70, 6, 15, -20, -5, -18, 8, 
127, -42, -21, -127, -127, 27, -31, 127, -14, -17, -4, -127, -45, -115, 27, -33, 2, 4, 105, 82, -49, 25, -20, -18, 1, 31, -20, 31, -4, 14, 1, 27, 
8, -27, -30, -86, -127, -20, -1, 41, 12, 40, -16, -127, 10, -76, -67, -127, -3, -22, 127, 20, -10, 41, -5, 9, -21, 14, 31, 6, -13, 8, -26, 68, 
87, -49, -47, 44, -127, -74, 0, 5, 25, -9, -1, -127, 53, 32, -39, -76, -22, 11, 49, 112, 24, 83, -18, 10, 2, 21, 14, 29, -5, 39, 81, -14, 
-25, 97, -51, 71, 47, -55, -101, 86, -14, -127, -72, 17, -38, 45, -115, -34, -101, 45, -2, -61, -70, -11, -124, -2, 106, 58, 42, -4, 20, -124, 63, 120, 
3, 72, -36, -20, 23, -19, -127, 30, 19, -127, -28, 86, -32, 16, -73, -3, -65, -63, 10, -14, -28, -127, 64, -51, 88, 43, -58, -35, 16, -127, 13, 125, 
-23, 9, -127, -28, -14, -8, -100, 56, 17, -48, 22, 70, -16, 48, -72, 76, -34, -127, -53, -101, 41, -127, -46, -127, 35, -21, -127, -55, 52, -127, -65, -21, 
-50, -11, -36, -12, 26, 5, -127, 67, 56, -87, 45, -23, -82, 63, -11, 35, 4, -83, 7, -45, 62, -127, 40, -86, 4, -8, -127, -112, -8, -17, -31, -23, 
-29, 28, 94, -25, 0, 86, -127, -17, 2, -127, 64, 36, -40, 30, 22, 4, 96, 90, -42, 0, 43, -17, -77, 73, -54, 38, -127, -51, -19, 46, 17, -6, 
-39, 16, 40, 63, 9, 127, 57, -34, 46, -66, 94, 43, -51, 77, 112, 100, 55, 83, 34, 88, 76, 66, 33, 115, -45, 25, 94, 23, 14, 22, 5, -80, 
8, 13, -103, 106, 20, 40, 26, -20, 59, 12, -5, 17, -1, 47, 18, 7, -5, 65, 13, 59, 43, 1, -12, -51, 21, 14, 15, 42, 13, -91, 5, -70, 
-7, -29, -25, -12, 22, 61, 23, -9, 10, -24, 28, -96, -63, -16, 18, 18, -50, 47, 69, 29, -47, 76, 33, 44, -26, -6, 21, 24, 28, -11, -127, -38, 
92, 12, -39, -29, -39, 42, 21, -26, 24, -28, -15, -4, -4, -33, -19, 1, -79, -9, 48, -50, -97, 33, -51, 24, -62, -43, -31, 9, -27, -41, -127, 42, 
-4, -50, -85, -31, -2, -24, 43, -37, -74, 73, -43, -64, -32, 0, -89, -18, -113, -20, 57, -90, -68, -103, -38, -103, -16, -74, -12, -46, -29, -127, -127, 27, 
-14, 34, -41, 87, 25, 24, 15, 7, -48, 86, 58, -55, 80, 11, -30, -54, -127, -4, -72, 45, 22, 16, -32, -9, -15, -27, -14, 41, -6, -127, -23, 5, 
-3, 42, 4, 38, -43, -26, 23, 65, -88, 36, -15, 103, 38, 0, -52, -42, -100, 51, -75, 54, -15, -74, -48, -13, 4, 37, 33, 52, 35, -127, -34, -82, 
51, 10, -80, -9, -35, -5, -54, 33, -25, -4, 11, 42, 43, -27, -65, -28, 22, -41, 6, 17, -127, 29, -2, 4, -15, 17, 22, 43, 17, -127, -46, -42, 
28, -7, 79, 40, -43, -27, -7, 83, 11, 33, -6, -31, 91, -19, -17, -35, 31, 1, 5, 0, -127, -126, -60, 26, -27, 41, 8, 43, 41, 100, -28, -45, 
-14, -4, -15, 7, -33, -49, -45, 33, 54, -35, 94, -34, 53, -11, -33, 21, 46, 15, -11, -21, -127, 53, -5, -54, 8, 27, 44, 63, 45, -127, -39, -21, 
34, 68, -127, -84, 76, -23, 9, -35, -11, 14, -1, 28, -46, 36, -44, 24, 24, -70, 87, -30, -54, -127, 41, -127, 89, 98, 19, 32, 39, 3, -28, 50, 
29, 34, -127, -127, 48, 18, -78, 38, -10, 35, 42, 0, -33, 57, 42, 31, 9, -127, 15, -31, -77, -127, 78, -127, 33, -9, -93, 8, 44, 0, -57, 74, 
56, 1, -127, -97, 0, 33, -127, -4, -29, 28, -27, 34, -39, -11, -17, 13, -28, -127, 34, -26, -42, -127, 41, -127, -43, -35, -127, 44, -1, 21, 28, 48, 
-21, 19, -127, -68, -25, 1, -106, -2, -45, 3, -43, 102, 0, 37, -1, -14, -29, -127, -3, 46, -26, -127, 112, -16, -48, -59, -87, 56, 30, 58, -69, -9, 
18, 50, 44, -69, 47, 31, -127, -18, -34, -12, -9, 3, 35, 13, 44, 28, -18, -85, -29, 35, -46, -105, 92, 41, -50, -80, -81, -22, 2, 43, -6, -21, 
52, 17, -127, -57, -127, 62, 93, -34, -10, 20, 22, 21, -43, -52, -41, 5, -30, -5, -26, -43, -8, 88, 52, 10, -61, 45, 81, 67, -14, -22, 51, -51, 
69, -91, -127, 81, -127, 82, 47, -6, 31, 15, 60, -43, -11, -86, 10, 38, 23, -14, -63, -109, -99, 40, 32, 56, 40, -45, 23, 29, 28, -31, 18, 35, 
114, -119, -51, 2, -127, 48, 14, -3, 16, -35, 59, -127, 37, -86, -14, -39, 44, -20, -38, -79, -127, -14, 60, -14, -14, -40, -49, 9, -9, 30, 10, 68, 
-30, -27, -44, 0, -126, 53, 10, -28, 25, 9, 104, -127, 1, -127, 16, -102, 0, 17, 12, -53, -74, 8, 17, -19, -53, -43, 11, 57, -78, 72, -11, 62, 
35, -127, -37, 5, -127, 56, 50, -83, 8, -19, 41, -96, -16, -127, -26, -37, 44, 36, -4, 48, -127, -28, 67, 22, -65, -127, -90, -40, -97, 38, 20, 9, 
47, 2, -14, -21, -20, 15, -32, 15, 28, -6, 58, 0, 38, 27, -22, 28, -24, -2, 48, -56, 52, -66, 25, 30, -81, 81, -51, 8, 21, -127, -19, 97, 
-28, -12, 30, 19, 24, 62, -33, -56, 80, -18, -6, 1, -31, -18, 25, 52, 0, -34, -35, -34, 69, -113, 33, -54, -14, -6, -59, 14, 0, -18, -24, 11, 
-52, -38, 16, 35, 9, 56, -16, -34, 75, -41, 25, 17, 1, 30, -5, 32, 18, -27, 46, -36, 60, 42, 71, 34, -109, -60, -46, 6, -23, 0, 43, -10, 
-90, 20, 17, -42, 64, 7, 63, -3, 18, -15, -44, -59, -82, -32, -51, -55, -1, 94, 11, 9, 94, 112, 22, -40, -37, -76, 31, -33, 0, 8, -30, -38, 
3, 120, 107, 3, 14, -34, 60, 23, 2, -16, -71, 12, -91, -44, -3, -37, -72, 64, 96, 94, 20, 31, 48, -7, -53, 68, 82, 27, -35, 36, 51, -8, 
-33, -44, 3, 8, -29, -114, -52, 67, -43, 118, -5, -3, -20, -42, 18, -91, -46, -127, -32, -78, -70, -33, -27, -17, 47, 90, 103, -43, -15, -41, -61, -7, 
-127, 4, -8, -2, -34, -58, -122, -68, -77, 12, -42, 51, 51, 5, 50, -4, 41, -13, -38, -28, 13, -55, -58, -63, -34, 37, 23, 29, 26, 43, 8, 0, 
-127, 16, 11, 16, -44, -88, -96, -15, 2, 29, 22, 59, 21, -59, -31, 24, 23, 4, -81, 46, 2, 37, -25, -127, -41, 92, 18, -3, -19, 74, 24, 42, 
-127, 7, -21, 12, 15, -89, -26, -46, 11, 12, -17, -15, 88, 42, -13, -28, 58, -89, -27, 34, 99, 74, -38, -35, -22, -13, 11, 40, 13, 77, 17, 32, 
-127, 48, -11, 93, -16, -49, 17, -21, 53, -10, 5, -18, -22, 20, 44, 23, 45, -73, -127, 93, 126, 65, -5, -90, 32, -50, 51, 30, -16, 116, 66, -25, 
0, 4, 1, -82, 5, 13, 4, -75, 48, -20, 13, -73, -52, 31, -12, 1, -41, 49, 14, -48, -30, -22, -63, -37, 43, -16, -3, -38, 30, -39, 8, 32, 
2, 43, 22, -93, -48, 87, -9, -34, 29, -40, 59, -16, -78, -4, 32, 48, 53, 68, 3, -70, -19, 96, -71, -15, -9, -36, 112, 2, -8, -15, -38, -49, 
-80, 43, -23, 45, 12, 20, -34, -55, -25, -56, 31, 43, 27, 56, 10, 6, 29, 33, -11, -43, -59, 83, -127, 12, -30, 35, 51, -30, -30, 5, 21, -54, 
-52, 85, -5, 27, -13, 35, -51, 26, -32, -127, -33, 40, -120, 46, -29, 29, 3, -81, 84, -88, 22, 82, -36, -127, 66, 46, -43, -1, 38, 59, -80, -19, 
-103, 30, -40, -23, -4, 26, -17, -53, -53, -127, -35, 32, -29, 46, 0, 20, -5, 27, 54, -44, -6, 42, -127, -31, 21, 25, -29, -23, 63, 49, -44, -50, 
-15, 1, 5, 54, 28, 35, -56, 36, -34, 15, -22, 46, -104, -64, 51, -44, -29, 3, 32, -42, 111, -127, -41, 81, 21, 22, 28, 2, 47, 85, 69, -24, 
12, 35, 40, 13, -38, 10, 29, -6, 44, -22, -1, 89, -38, 2, -9, 21, 19, 18, 13, 51, -5, -127, -46, -86, -59, 101, 3, 18, 14, 0, -31, -29, 
-47, -14, -8, 39, 31, -21, 17, -84, -18, 44, 56, 35, 103, 43, -30, 22, 31, 51, -32, 42, -12, 56, 50, -44, -5, 38, 15, -17, 12, -34, -15, 36, 
18, -4, -42, -12, 50, 18, 42, -66, 36, -41, 1, -91, 66, 68, 0, 48, 0, -29, 33, -1, -19, 127, -27, -51, 46, -61, 11, 3, 32, -26, 55, 11, 
2, -49, -33, 82, -6, 6, 21, 43, 7, -56, -37, -118, 23, -7, -55, -27, -13, -30, -22, -74, -37, 57, 44, 127, -11, -83, -44, -38, -56, -36, -11, -30, 
};

const int8_t MagnetometetNetworkInt8_layer_3_bias[] = {
-3, 70, -75, -48, -26, -127, -32, 99, 6, 47, 109, 3, -53, -85, -80, -35, 127, 23, 3, -53, 57, 33, 75, 2, 11, 99, 32, 19, 22, -63, 105, 37, -126, -58, 97, 49, 13, 110, 9, -36, -11, 5, -32, -67, -49, -36, 22, 124, -127, -127, 68, -36, 55, 73, 26, 6, 32, 11, 87, -24, -6, -71, -3, -30, };


const int8_t MagnetometetNetworkInt8_layer_6_weights[] = {
77, 79, -82, -33, 91, 90, -40, -93, -127, 96, -43, 74, -23, 38, -45, 96, -127, -33, 17, -127, -53, 0, 87, 0, -83, -16, 75, -61, -17, 13, -17, 28, 110, 16, -56, 17, -19, 65, 22, 76, 19, 127, 19, -14, 20, -112, 16, -77, 33, -52, 0, -42, -61, -30, 106, 17, 49, -57, -2, 96, 118, -52, 37, 7, 
7, 52, 8, -92, -19, -5, -45, -29, 10, -36, -88, -87, -15, -18, -38, 45, -15, 41, -2, -127, 41, 17, -37, 13, 43, 5, -48, -64, -21, 7, -6, -8, -1, 29, -30, -59, -3, 74, -9, 60, 69, -59, -7, 10, 9, -15, 64, 7, 0, -33, -9, -33, -32, -32, -78, 12, -30, -5, -38, 119, -44, -43, -50, -32, 
39, 7, -108, 82, -16, -2, -34, 67, -18, 85, -84, -86, -30, 24, -29, 76, 94, -55, 39, -68, 8, -42, -11, -37, 1, -54, -59, -106, 31, -10, -8, -27, -55, -21, -25, -46, -24, 20, -48, -40, 35, 9, 0, 6, -22, 84, 30, 67, -66, -30, -35, -20, -88, -1, 3, 0, -24, 48, -69, -27, 6, 14, -11, -12, 
28, -46, 10, 75, 67, -15, 42, 23, 78, 73, -9, -32, -17, 96, 6, -90, -47, -28, -50, -41, 76, -48, 34, 15, 66, -6, 24, -7, -107, 17, 24, -39, 117, -36, -2, -51, 102, 9, -9, 2, -62, 34, -10, 5, 51, -127, 24, -14, -34, 12, -35, 40, 35, -21, -67, -24, -94, 61, 49, -127, -49, 1, -11, -2, 
-70, 34, 29, 39, 8, -58, 65, 30, -52, 40, -38, 34, -106, 20, 35, -72, -27, -39, 46, -57, 94, -127, 19, 59, 67, 35, 2, 36, -127, 55, 60, 33, 53, -1, -100, 46, -48, 51, -31, 54, -41, 54, -15, 71, 50, -127, 16, -66, -14, 52, 1, -9, 115, 123, -62, 5, -44, 40, 60, 27, 42, 19, 64, -6, 
-12, -6, -27, 52, 66, -127, 35, -34, -127, 83, 40, 8, -47, -89, 90, 4, 53, -73, -26, -26, 12, 35, 0, 41, -86, 28, -11, 52, -19, 12, 0, 10, 2, -50, 30, -48, -8, -49, -21, -2, 117, -117, -39, -26, -23, 50, -17, 17, 23, -29, 49, 11, -101, -45, 127, -67, 40, 9, -7, 33, -12, -3, 39, -52, 
-8, -12, 69, 25, 127, -126, -21, -55, -45, 127, 5, 70, 16, -13, 40, 5, -81, 53, 33, -94, -102, 57, -16, 28, -14, 85, -80, -37, 55, -21, 67, -4, 82, -82, 71, 16, -14, -33, 51, -75, -43, -2, -14, -37, -107, -4, -77, 19, -53, -127, 6, 5, -68, 116, -84, -50, -27, -15, 15, 78, -127, -15, -4, -98, 
-20, -33, -14, -15, -43, -30, -28, -13, -127, -42, -123, 93, 40, 24, 2, -16, -35, 34, 23, -18, -23, 25, 71, -4, 2, 39, -49, -116, 35, -35, 94, -4, -11, -5, 20, 23, 59, 7, -28, -17, -106, -21, -30, -5, -69, -28, -30, -29, -74, -56, -26, -36, -65, 14, -29, -126, -99, -7, -64, -26, -64, -56, 1, -69, 
-34, -33, -1, -22, -70, 9, -5, 42, -127, 6, -127, 39, -8, -13, 46, 84, 74, -19, 5, -83, -127, 8, 2, 17, -46, -1, -18, 28, -7, -20, 7, 35, 2, 23, -93, 38, 6, 43, 46, 20, -62, 48, 28, 16, -16, -13, 32, -1, -11, -1, -32, 64, -15, 56, 69, -12, -32, 3, -44, -23, 28, -59, 35, -127, 
-1, 8, 27, 92, 16, -2, 52, 18, -127, 122, -70, -18, 6, -48, 77, 5, -34, 16, 9, 86, 0, 13, 58, 6, 87, 42, 76, 5, 13, 92, 24, -56, 27, 1, 43, 47, 9, 5, 71, -5, -1, 15, 52, 38, -16, -20, -27, -44, 9, 46, -61, 95, -55, 52, 23, 54, 83, 15, 1, -127, 44, 20, 86, 43, 
-100, -46, 8, 3, 59, -23, 24, 63, -6, -35, -39, 22, -13, 51, 127, -38, -28, -24, 41, 81, 41, -1, 76, 0, 75, -17, 11, -13, 43, 11, 25, 87, 27, 33, 54, -24, 38, -105, 15, 27, 51, 127, 2, 43, 46, -7, 58, -61, 28, 8, 73, -41, -65, -28, -16, 20, -27, 9, -59, 62, -19, 72, -44, -30, 
-11, -68, 30, -68, 10, -20, -47, -79, -16, 14, -40, -30, 39, 62, 88, 56, -50, -42, 70, 51, 47, 73, -60, 10, -17, -35, 96, -46, 72, 37, 32, -28, 22, -37, -48, -21, -3, -127, -41, 19, 14, -16, 107, -15, 1, 95, 82, -44, 16, -11, 32, -24, 21, -66, 21, 4, 110, 7, -98, -2, -11, -13, -19, -61, 
-51, -48, 27, -2, 18, -56, -104, 26, -2, -47, 49, 0, 85, 57, 9, -2, 37, 46, -13, 28, -6, -1, -118, -46, 67, 35, 2, -18, 53, 95, 13, 16, 27, -21, -19, -46, -28, 24, 3, 51, -127, 26, 57, 64, 15, 35, -15, -21, 50, -40, 6, 27, -29, 3, 8, 77, -83, 21, -72, -58, 12, -62, 27, -18, 
8, -90, 31, 19, 14, -69, -127, 30, 4, -35, -26, 95, 5, -26, -71, 57, 24, -12, 123, -33, 13, -14, -127, -64, 57, 8, 16, -31, 23, 0, -69, -1, -31, -14, -66, -50, -75, -56, 8, 15, -32, -33, -24, 83, 58, 20, -47, 37, 50, -78, -37, -12, 58, 40, 9, 0, -61, -3, -16, 0, 78, 2, 14, -54, 
0, -22, -21, -67, -86, -127, -127, -58, -9, 56, 42, -1, -127, 127, -105, 62, 101, 75, 2, -10, -44, 36, 50, 2, 49, 78, -89, -24, 24, -8, -40, -69, 43, -28, -36, -35, -72, -121, -51, -46, -13, 3, 38, -74, 20, -37, -22, 38, 12, -71, 69, -41, 84, 11, 41, -83, -73, -8, -37, -52, -32, -56, -41, -92, 
-26, 1, -61, -70, 40, 3, -5, 31, -46, -9, 47, -16, -23, 2, 11, 9, -19, -38, -77, 43, -17, -2, -46, -18, 20, 98, 14, 71, -27, 33, 0, -74, 10, 1, -4, 17, -12, 20, -24, -44, -42, 52, 26, -26, -43, -101, 16, 21, -126, -96, -22, 47, 14, -40, -46, 71, -58, -62, 54, -35, 11, 62, -95, -24, 
29, 14, -11, -49, 33, -5, -44, 19, 53, 71, -29, -43, 78, 14, 31, 39, -83, -43, 107, 30, -33, -18, 6, 58, 67, 6, -31, -36, 2, 50, 0, -22, 13, -4, 15, -7, 19, 71, -43, -46, 60, 11, 47, -70, -23, -91, 81, -58, -42, -42, 9, 77, 64, 54, -81, 39, -72, 19, 37, -38, 42, 26, -31, 34, 
11, -26, -118, -24, -72, -66, 51, -38, 47, 83, -42, 37, 32, 51, 45, 4, 56, 11, 29, 57, 11, -67, 16, -39, -41, -35, 13, -23, -100, 0, 76, 42, -4, -5, 47, -68, -43, 31, -5, -3, -65, 38, -43, 20, 77, 43, -24, -15, 34, -50, 22, 12, 0, 32, 11, -65, -79, 6, -24, 34, 112, -14, 100, -89, 
-50, 21, 34, 3, 10, -127, 25, 53, 90, -3, -41, 55, -70, -17, -31, 2, -61, 0, -19, -34, -61, -16, -8, -50, 51, -12, 94, 8, 111, 38, -45, -92, -9, -33, 12, -4, 29, 10, -45, 62, 27, 16, -36, 23, -73, 4, 26, -26, -51, -31, -29, 17, -127, -60, -111, 96, -63, 20, -34, 63, 3, 17, -71, -71, 
83, -17, -104, 11, 4, 83, -6, -13, 71, -4, -22, -26, -69, 4, 18, -31, -14, -33, 1, -46, 105, -46, 3, 30, -3, -10, -34, -33, -38, -48, -52, 34, 113, 28, -62, -36, -53, 35, 77, 0, -29, 51, 21, -30, -37, 40, 51, -43, -68, -26, -19, -88, 89, 63, -124, -45, 52, 121, -20, -37, -127, -94, 0, 7, 
70, -91, -1, 6, -24, -52, -56, -84, -41, 23, -10, -2, 17, -127, -70, -53, 49, 1, 27, -7, 95, -43, -7, -63, -35, -26, 80, 12, 49, 41, -6, 108, 62, -127, -15, -35, 0, 76, -93, 44, -28, 7, -92, -19, -3, -10, -46, 1, 26, -66, 0, -63, 3, 62, 9, 6, 9, 12, 56, -31, 19, 10, 3, -41, 
38, -121, 13, -44, -3, -16, -127, -65, -87, 32, -69, -45, -25, -127, -53, -127, -9, 36, -61, -5, 14, 127, -63, -12, -58, -19, -1, -13, 7, 20, 36, 36, 1, -127, 115, 115, 66, 15, -60, 31, -19, 55, -127, -62, -2, 91, -127, -58, -8, 3, -85, -10, -16, -9, 69, -56, 69, 10, 89, -23, 19, 28, -85, -32, 
-80, -49, -20, -121, -37, -54, 56, 12, -127, 42, -39, 5, 0, -22, -5, 3, -23, 16, -8, 0, 42, 39, 3, -14, -40, -9, 34, 20, 11, 50, 40, -31, -74, -68, 33, -58, 111, 34, -80, -30, -6, -20, -127, -3, 29, -127, -76, 25, -18, 27, 75, -68, 28, 32, -127, -127, -23, -41, 9, 80, -14, 24, -43, 1, 
-103, -8, -50, -27, -2, -54, -11, 39, -127, -108, -8, 19, 0, 22, -51, -11, 77, 15, 7, -60, 47, -127, 4, 13, 32, 39, 1, -22, 24, -12, -16, 50, -28, -76, 54, -17, 64, -20, 45, -43, -31, -1, 28, 40, -15, 54, 24, 24, 54, 15, -37, -4, -8, -53, -127, -77, 0, 80, -37, -49, -24, 66, 42, 23, 
-56, -4, 74, 48, 18, -60, 80, 69, -110, -103, 8, 49, 25, 89, 1, -86, -68, -48, 127, 47, -69, -87, 75, 3, 14, 38, 26, -26, -42, -53, -15, -1, -26, 127, -111, -51, 127, -6, 94, -43, 68, 14, 16, 6, -23, -115, 102, 46, 33, 101, 57, -2, -127, -52, -9, -82, 127, -5, -5, -127, 38, 76, 0, -19, 
-53, 34, -37, 48, 33, 59, 17, -58, -67, -9, -36, 56, -67, -96, 7, -16, 38, -51, 33, -31, -82, -20, -53, -4, -27, -42, 102, 18, 81, -54, -40, 43, -76, -14, -47, 25, -77, -25, 17, 5, 43, -63, 40, -28, -108, 87, -17, -31, 60, 22, 65, -94, 28, 39, 56, 25, -3, 35, 11, -29, -22, -127, -25, 13, 
-81, -49, -32, -53, 12, -37, -20, -11, 40, -25, 42, -33, 10, 25, -81, 13, -10, -5, 45, -11, 53, -48, -25, -31, -26, -7, -22, 85, 38, -104, 127, 46, 61, 50, -14, -4, 22, -11, -15, 79, -127, -89, 18, -21, 75, -6, 16, 46, -14, -37, -23, -23, 40, -47, -61, 46, -64, 10, 1, 36, 89, 57, 50, -7, 
113, 27, -24, 7, -2, 10, -11, 8, -7, -1, 55, -8, -16, 84, -61, -1, 19, -48, 8, -12, -84, -110, -48, 20, -11, -33, 92, 33, -117, 1, 10, 40, 78, 16, -29, -10, 57, 16, -23, 2, 31, -30, -54, 54, 1, 16, 51, -26, -38, 66, -29, 59, -14, -1, -25, -87, -39, 14, -26, -16, 44, -1, 37, 66, 
-54, 56, 29, -30, -24, 3, -5, -4, 30, -60, -73, -39, 11, -18, 58, -41, 113, -51, 35, 44, 20, -87, -10, 21, 41, 0, 46, 41, -122, -73, 30, 18, 15, -19, 10, 27, 22, 2, 12, 45, 25, -16, -4, 39, -50, -41, -72, -12, -28, -4, -60, -19, 83, -57, 22, 29, 3, 33, -4, -60, 7, 51, -6, 65, 
-31, -27, 3, -127, -8, -95, 33, 46, 65, -4, 6, -89, 8, 4, 60, -25, 40, -29, -23, -7, 19, 3, 3, -36, 49, 4, -67, 56, -28, 34, -33, -56, 27, 39, -18, 65, 8, -15, -31, 10, 26, 37, 70, 0, -81, 0, 14, -116, 15, 2, -87, -29, -34, 25, -60, 98, 80, -108, 127, -23, -11, 20, 16, 87, 
89, -17, -69, -7, -127, -26, 58, -9, 7, -3, 88, 125, 38, 34, 43, 13, -1, -13, -65, -46, 15, 30, 48, -16, -49, -18, -21, -55, -21, 18, 47, 70, -43, -41, 113, -12, -16, 37, 24, 103, 52, -30, -54, -68, -38, 79, -11, -55, -1, -18, 82, -52, -34, -43, 20, 127, 56, 19, -74, 124, 0, 4, 120, -4, 
40, 11, -97, -43, -28, -90, 127, 14, -36, -127, 50, -26, -29, 32, 1, -17, 23, 30, -37, -61, -29, -35, 34, 0, 35, -44, -52, -28, -21, 70, 24, 109, -14, -54, -109, -33, 55, -4, 69, 7, 22, -73, 15, 41, 27, -84, -42, -106, -8, 29, 1, 31, -127, -104, 1, -86, -44, -33, 0, 43, -33, -87, 38, 32, 
-23, -39, -76, -8, -127, 4, 54, 30, 2, 0, 39, 13, -3, 2, 10, -28, -14, 2, 14, 46, -46, -82, 75, -38, -1, -56, 13, -35, 10, 18, 20, 42, 55, 32, -98, 7, 31, 36, 9, 15, -83, -70, 88, 35, -14, 6, -44, -12, -31, 58, -37, 0, -127, -64, 32, 98, 18, 15, -127, -24, -12, 18, -47, 20, 
-14, 2, 7, -56, -127, 18, 40, -4, -11, -47, 70, 5, -13, 12, 66, -7, -23, 6, -47, -51, -60, -9, -26, 59, -21, 15, -25, 107, -16, -47, 32, -10, 109, 9, -127, 49, -3, -10, 53, -113, -88, -47, -34, 19, -23, 7, 1, -24, 6, 7, -22, 87, -113, -92, -10, -27, 1, -3, -118, 6, 0, 19, -34, -5, 
52, -26, 15, -62, -127, -13, 5, 28, -9, -60, 55, -48, -75, -40, -127, -21, -9, 22, -105, 47, -107, 7, -77, 75, 45, 42, 9, -27, 64, -23, 57, -106, 68, 43, -127, 23, -123, 6, -1, -127, 50, -28, -37, -15, 116, -36, -34, 60, -105, 8, -127, 82, -25, -23, 31, -127, 9, -37, -24, -54, 10, 69, -43, -2, 
59, -43, 28, 26, -3, -57, -81, -57, 31, 27, 50, -22, 40, 34, -34, 44, 80, 56, -108, 22, 63, -43, -34, -63, -21, 2, -95, 81, -38, -70, -82, -23, -39, -32, -3, 67, 44, 1, -106, 40, -69, -42, 31, 83, -33, -64, 8, -127, -19, 11, -60, -6, 70, 56, -108, 14, 23, -4, 47, -69, -71, 53, -55, 28, 
127, -71, 1, -16, -43, -9, 61, -55, 54, -5, -59, 15, 50, 65, -31, -25, 33, 2, -28, 37, -36, 24, 78, 3, -103, 45, -43, 79, 4, -18, -12, -127, -8, -24, -27, -17, 42, 63, 49, 56, 4, -33, -73, 71, 74, -15, 12, 22, -5, 55, -11, 112, 26, -9, -4, 61, -19, -63, 97, -16, 26, -44, -15, 38, 
22, -53, -5, -3, 24, -30, -48, -44, -36, -74, -84, 25, 1, -36, -39, 8, -58, -19, -36, -61, 26, 126, 52, -13, 14, 28, 40, -25, 26, 56, -52, 2, 38, -23, -54, 46, -12, 66, -49, -10, 58, -9, 3, 19, 63, -49, 20, -4, 27, -5, -11, 5, -72, 87, -21, 30, 76, 37, -26, 11, -51, 22, 18, 36, 
71, 0, -33, 75, 127, -33, -37, -21, -69, -68, 17, -57, 11, -53, 42, -55, -43, 36, -12, 19, 38, 14, 73, 38, 127, -49, -1, -18, 21, -14, -96, 62, -19, 10, -30, 25, -24, 65, 17, -56, 83, -23, 81, 108, 61, 13, -2, -34, -77, 18, 62, -56, -69, 5, -112, -65, -77, 41, -80, -36, -49, -68, 68, -33, 
23, 67, 40, 21, 51, -85, 54, -12, -97, 36, -62, -105, -41, -18, 113, -17, 0, 31, -3, -4, -25, -13, 25, 2, 100, 41, -21, 58, 56, -38, -69, 20, 26, -20, -127, -9, -9, -12, 63, -117, 77, -20, 38, -20, 15, 22, 41, -17, -116, 57, -4, 21, -84, -127, 6, -34, -69, 63, -65, -24, -11, -96, -17, -121, 
58, -34, -92, -46, 31, -26, -30, -39, -42, -43, -9, -1, -38, 14, -13, 61, -63, -70, -69, -65, 19, 40, -1, 24, 36, -40, 11, -60, -106, -19, -4, 37, -34, 53, 1, -74, -25, -44, -33, 4, -9, -19, -42, -9, -91, 68, -79, -11, 3, -68, -29, -76, -35, -31, 16, 6, -2, 64, -14, 43, -32, -35, -12, -51, 
-127, -96, -15, -63, 0, -10, 60, 55, 57, 77, -43, 15, -98, 54, -28, 127, -14, 0, 3, 6, -75, 73, 3, 14, -31, 18, -56, 6, 41, -63, 55, 34, 6, -98, -24, -19, -76, 8, 19, -58, -61, -39, 3, 12, -63, -82, 0, -1, -77, -72, 80, -11, -11, -17, -95, -26, 10, 7, 47, 33, -32, -5, -15, -110, 
127, -85, 88, -109, -4, -35, 70, 37, -33, -49, 12, 7, -7, -38, 97, -22, 5, -49, 67, -36, 6, 57, 11, 64, -32, -14, 15, -36, -40, 0, 78, 71, 35, -108, 21, -65, 70, -55, 44, -2, -34, 57, -127, 45, 57, -101, 102, -29, 21, 71, 1, 43, -13, 99, -89, -24, 1, -8, -7, -13, 37, 51, 55, -2, 
53, -8, 106, -81, 61, -63, -22, -29, 44, 40, 32, 25, 1, 11, 78, -77, 101, 32, 19, -47, 42, 18, 21, -52, 50, -19, -18, 47, 4, -10, -21, -34, 26, 8, 5, -27, 47, -50, 3, 88, 68, 27, -51, 93, 17, -124, 9, 3, 46, 13, -127, 62, 127, 9, -73, 41, 20, -34, 27, -48, -27, 86, -39, 26, 
31, 42, -22, -127, -84, -28, 26, 26, -88, -35, -58, 96, -48, 71, -30, 42, -127, 127, 17, -26, -40, 31, -10, -24, 18, 3, -24, -77, 50, 44, -34, -127, 6, 21, 0, 64, -85, 80, -79, -42, 65, -90, 127, -10, 31, 71, 9, 19, -4, -100, -42, 6, 12, 74, 64, -11, -1, -71, -58, -93, 14, 46, 14, -40, 
64, -54, 8, 41, 84, -55, -27, -14, -6, -84, 26, -20, 30, -38, -33, 56, -78, -32, -7, 38, 44, -52, -23, -8, -52, 19, 10, 38, 24, -80, -24, -127, 17, 5, -37, -42, 38, 16, 21, -53, -90, -24, -39, 6, -58, 36, 2, 62, 7, -35, 7, -40, 18, -29, 80, 82, -36, -81, 25, 57, -40, 31, 29, -49, 
69, 35, -13, -9, -1, -54, -25, -28, -52, -94, 37, 42, 12, 74, 9, -2, -61, -3, 26, -12, 41, -70, 49, -1, -4, 26, 49, -13, 62, 31, 33, -27, 22, 56, 56, -12, -7, -51, -51, 36, -7, -4, -60, 21, 67, 103, 16, 0, 53, -52, -3, 73, -14, 21, -11, 31, 2, 33, 35, 34, 22, 47, 60, -85, 
-19, -46, 37, 14, -52, 12, -26, -39, -80, 34, 127, 57, 18, 5, -9, -67, 25, -32, -50, -84, 59, 51, 23, -3, 7, 24, 31, -48, 9, -48, -55, 26, 0, 1, -44, -6, 37, -20, -38, 79, 53, 68, 17, -36, 46, -27, 32, 35, 11, -41, -91, 33, 112, -8, -22, 45, 59, -63, 15, 30, 14, -39, 22, -127, 
-24, 6, 31, 27, -49, 0, 7, 0, -127, -19, 35, 56, 20, 21, 50, -32, -3, 10, 40, -51, -76, 27, 15, 0, 18, 30, -24, -37, 87, -46, -28, -13, 68, 9, -88, -11, 9, 11, 11, 67, 34, -38, 14, -31, 2, -53, 44, -32, -25, -52, 24, 36, -82, -47, -115, -61, -81, 15, 47, -6, 31, 71, 39, -127, 
-22, 31, 26, 69, -127, -16, -11, -61, -19, -22, -127, 47, 94, 98, 0, 3, 40, 49, 22, -98, -5, 39, -16, 35, 33, -95, -103, -68, -4, 80, -17, 20, 69, 96, -127, 26, -14, 17, 0, 101, -21, 1, 15, 0, 33, -1, -9, -69, -55, 13, -18, -18, -61, 72, 17, -67, -19, 50, -45, 26, -20, -38, -7, -127, 
-127, -55, 114, 49, 17, -19, 87, -19, -68, 13, 68, 44, 41, 12, 75, 41, 11, -60, 28, -20, 36, -54, 17, 40, -41, 7, 39, 29, 88, -15, 21, 82, -87, 97, 44, -50, -21, -104, 68, 57, -18, 31, -30, 14, -8, -12, 42, 48, 40, 64, 79, 49, 86, 26, -62, 12, 97, 72, 42, -89, 0, 49, -25, 4, 
-39, -5, 20, 39, -17, -5, -127, 3, -33, 36, 44, -5, 1, 75, 5, -27, 19, -60, -38, -67, -13, -27, -35, -29, -51, -38, 45, -22, 61, 71, -77, 24, 0, 52, -46, -78, 31, -79, -101, -13, -20, 5, -50, -29, 1, -9, 13, 2, -27, -33, 38, -15, 23, 18, 9, -75, 91, -25, 3, 1, 19, 42, -37, -59, 
6, 1, 59, -13, 13, -4, -25, 18, -22, -43, -12, -54, -63, 2, -83, -2, 41, -46, 26, 2, -1, -50, -43, -21, -66, -70, -26, -4, -46, 11, -89, -47, 64, 25, -122, -8, -41, -34, -71, -3, 124, 14, 26, 5, 14, -18, 47, 26, -114, -106, -43, -15, 4, -85, -23, -127, 48, 95, 77, 1, -13, 65, -18, -57, 
-22, 76, 17, -41, -18, -27, -41, -7, 48, -27, 0, 51, -25, 68, -69, 55, 45, 50, -13, 39, 123, -88, -39, 44, 63, 10, -84, -18, -50, -80, 14, 1, 70, 7, 9, -14, -87, -35, -115, 20, -82, -18, 84, -6, 14, -21, -39, -43, -26, -127, 25, -127, 26, -48, -119, 25, 19, 2, 103, 36, 72, -16, -31, 53, 
-3, 15, 73, -102, -127, -119, -64, 8, 65, -88, -41, 114, -12, 37, -127, 109, -8, 119, -21, 6, -80, -13, -80, 73, -51, 74, -21, -45, -64, 90, 22, -38, 13, 16, -14, -21, -76, -63, 63, -117, -62, 22, 92, 54, 35, 22, 0, -2, -127, -38, -30, -83, 98, 11, 14, -127, -7, -27, 91, 50, -34, 24, -20, -42, 
-4, 88, -8, -34, -49, -39, -25, 55, -41, 51, -62, -63, 81, 9, -13, 15, -58, 21, 21, 69, 23, -56, -70, -24, -51, -32, -29, -93, -15, 64, 31, 86, 30, -6, 34, 3, -32, 35, 87, 65, 103, -67, 78, -63, -30, -9, 22, -127, -30, -12, 127, -60, -40, 32, -53, -49, -100, 127, -76, -64, 36, -44, -1, -12, 
30, 0, 19, -41, -83, -29, 6, -2, -92, 63, -62, -86, 1, -36, 28, -111, 28, 3, 11, -52, 1, -47, 24, 19, -24, -3, -112, 81, 76, -22, -42, 34, 51, 18, -51, 21, -44, -12, 63, 24, 4, 37, 97, -20, -36, -78, 60, -55, -30, -26, 19, -6, 89, 1, 91, -55, -78, 18, -43, -2, -76, 47, -3, 2, 
15, 2, -32, -43, 6, 1, 36, 2, -105, -52, -35, 59, 29, -2, 56, -49, -30, 33, -30, -96, -21, -18, 33, 28, 24, 44, -16, 32, -127, -36, 1, 6, -29, -6, -20, -5, 14, 6, -1, 21, 4, 5, -33, 58, -8, -17, 28, 15, 0, 11, 8, 7, -44, 16, -19, 5, -34, -22, 81, -36, 4, 113, 47, 35, 
18, -13, -85, -104, 37, 26, 35, -47, -27, -1, -21, 7, 75, 52, 61, 89, -101, 73, 23, -30, -16, -65, 16, -13, 29, 6, 24, -39, -127, -65, -37, -17, -19, -5, 66, 36, -52, 39, -51, -5, -33, 36, -80, 2, -35, 39, -80, 84, 30, 30, -25, 60, -8, 74, 88, -38, 85, -57, 17, -5, -12, -8, 17, -6, 
14, -26, -83, 57, 52, 12, -76, 5, 19, -61, 127, 100, -17, 3, -54, -28, 31, 17, -29, 34, 32, -67, 15, -7, -2, 2, 78, -32, -1, 4, 70, -90, 43, -46, -38, -13, 15, 19, -127, -55, 41, 50, -66, -113, 85, -44, -127, 68, -9, -90, -37, -80, -2, 58, -38, 42, 37, -63, 45, 25, 4, -109, -75, -51, 
31, 28, 126, -59, 0, 39, 111, -70, -46, 61, 32, 21, 40, -42, -6, 92, -101, 35, -48, -50, 55, 29, -22, 7, -67, -7, -22, -25, -39, 110, 63, 11, 3, -60, 62, -89, 6, 73, -20, 81, -58, 6, -80, 21, -19, -48, 127, -104, 67, 41, 18, 37, 7, -20, 24, 70, -17, -19, -9, -29, 49, 15, 83, 25, 
38, -71, 4, 1, -49, -5, -53, 31, -89, 0, 19, -44, -67, -34, -50, -16, 27, -101, -20, 0, 22, -11, 70, 30, -41, -23, 29, 12, -12, 31, 27, -6, -99, -115, 3, -127, 38, 7, -86, 26, 55, 36, -102, -17, 31, 25, 39, 32, 47, 23, -10, 74, -19, 32, 0, -106, 66, -5, 13, -76, 30, 24, 15, 42, 
67, -70, -39, 11, 23, 60, -127, 127, -61, -90, 83, -44, 15, 86, -9, -111, 105, -109, 31, -32, 127, -42, 38, 94, 53, 33, -33, 33, 42, -28, -109, 21, -83, 36, -127, 55, 103, -42, 30, -54, 30, 90, 27, -6, 43, -15, 75, 90, -16, -81, -24, -11, -22, 2, -43, -52, 53, 6, -21, 4, 43, 81, -99, -16, 
127, -2, 25, 7, 18, 0, -117, 33, -6, 22, -9, -110, -17, 111, -19, -72, 55, -55, -33, -23, 127, 45, 96, 5, 110, -45, -30, 28, -28, -12, 72, -43, 90, 16, 55, 9, -14, -16, 1, 12, -27, 2, 34, -19, -43, 51, 15, -24, -57, -30, 28, 7, -12, -1, 6, -1, -51, -30, 18, 35, 9, 26, -83, 6, 
67, 21, 85, 2, -83, -19, -103, 43, 32, 61, 13, -101, -68, 8, -75, 127, -8, -13, 93, 37, 68, 64, 38, -17, -43, -44, -64, -43, 10, 7, -45, 15, -18, -36, -50, 6, -111, -27, -83, 0, -82, -119, -103, -127, -98, 71, -41, 29, -127, -59, -43, -127, -55, -127, -62, -127, 10, -70, 43, -44, -58, -40, -127, -7, 
-20, -53, 72, 13, -52, 23, 2, 34, -12, -127, 15, 7, 45, 21, 10, 92, -124, 2, -3, 12, 65, 25, 10, -36, -28, -44, -35, -102, 4, 15, 5, 42, -78, 52, 35, -25, 41, 33, -18, -1, 9, -25, -38, -49, -101, 40, -37, -30, 3, -23, -17, 104, -69, -5, -15, -7, 6, 57, -19, -127, -48, -42, 12, -9, 
40, -56, -48, -12, -17, -127, 23, -104, -30, 43, 93, 32, -48, 3, 37, -106, 20, -23, -9, -109, 62, 39, 114, -8, -29, 19, -6, 64, -1, -26, 41, 26, -127, 84, 4, -43, 50, -19, 18, 21, -24, 74, -56, 21, 3, -49, -80, -22, 9, -13, -27, -46, 127, 9, -49, 26, -72, -8, 38, -48, -17, 61, 37, -15, 
-12, -22, 98, 10, -44, 4, 17, -32, -43, -7, -96, 68, -16, -23, -10, -127, 127, 11, -1, 7, 5, -16, -27, -28, 35, 23, 71, -58, 127, -91, 32, -15, -22, 93, 57, 2, -10, -58, -25, 13, -71, 6, -20, 11, -93, 62, -55, 23, 15, 61, -51, -42, 48, 10, 47, 39, -46, 0, -54, -108, -21, -85, -15, 5, 
68, 4, -3, -25, -7, 16, -55, 64, -29, -10, -97, -26, -55, 21, -107, -59, -10, 48, -23, 79, -2, -20, 39, 22, 6, 28, 68, -82, 82, -63, 23, -20, 61, 49, 50, 51, -1, 44, -55, 31, 19, -124, 13, -14, 102, -54, 73, -35, 32, 10, -57, 21, -127, -34, 96, -60, 0, -17, -15, 73, 100, -74, -8, 34, 
64, 29, -95, 36, 57, 3, -15, 88, -127, -12, -111, 35, -36, -12, 8, 3, -30, -39, 99, -65, 94, -48, 62, 0, 90, 53, -83, -67, 58, -17, 55, 52, -6, -95, -81, 24, 95, 36, -92, 5, -62, 10, 49, -3, 90, 1, 29, -34, 62, -18, -90, 24, -48, -8, 14, -53, 31, 23, 46, 23, -10, -61, -59, -70, 
51, 6, 13, -18, 29, -46, 36, -100, 0, -42, 57, 22, 10, -5, 127, -14, -46, 4, -54, -18, -33, -106, -2, -98, -71, 123, -69, -5, 11, -100, 47, 116, -64, 4, 23, -49, -28, -6, 38, -75, -9, 40, -97, -127, -86, -18, -90, 50, -58, -91, 114, -74, 1, -103, 18, 50, -27, 39, 27, -5, -75, 70, -78, -80, 
70, -6, -29, 26, 11, 28, 17, -37, 24, 53, -83, -16, -72, -90, 55, -68, 18, -23, -80, -56, -17, 25, -25, -52, -112, -46, -75, -19, -63, 5, -62, -14, 4, 67, -59, 13, -79, 12, -14, -36, -15, 17, -59, -7, -25, 59, -5, -31, -12, -120, 29, -15, 29, -27, 26, 48, 13, 33, 35, 8, 60, 28, -14, -34, 
18, 18, 123, 14, -47, -11, 68, 20, 2, -21, -12, 7, 18, -69, -66, 88, 26, -18, 39, -58, -51, 46, -20, 35, -81, -5, -10, 0, -44, 24, -78, -27, 8, 13, -12, 29, -10, 65, 51, -32, -62, -47, -11, 33, 38, 4, 29, 19, -127, -92, -52, -17, 68, 42, 17, 3, -41, -44, 29, 13, 11, -23, -40, -31, 
35, 25, 57, -71, -54, -2, 43, 14, -6, -9, -62, 119, 32, -57, -61, 31, -55, 21, 28, 58, -16, 43, 35, 72, -3, 33, 77, -24, 11, 48, -12, 2, -21, -32, 8, 17, 33, -12, -3, -47, 82, 36, -14, 95, 21, -108, 62, 89, -96, -14, -65, 12, 12, 3, -23, -17, -55, -93, 44, -32, 35, 56, 56, 28, 
-30, 33, 5, 28, 36, 51, -7, 11, -28, 107, -58, -56, -9, 26, -11, -13, -78, -20, -57, 62, 35, -32, 60, 23, 20, 29, -39, -23, 53, -21, -37, 3, 20, 65, 127, 0, 3, 27, 21, 55, -61, 57, 25, 19, 35, -52, 82, -9, -49, -51, 56, 68, 24, 20, -4, 127, 83, -46, 52, -11, 47, 90, 5, 24, 
33, -81, -51, 69, 32, -122, 63, -83, -21, 19, -36, 65, -111, -118, 26, -11, -50, -90, 33, -127, -81, -38, 38, -54, -11, 111, 42, -52, 52, 29, 76, 19, -127, 113, -60, -127, -5, -127, -98, 76, -127, -11, 3, -104, -77, 43, -25, -64, -117, -88, 0, -74, 9, 47, 3, -8, 23, -2, 16, -85, 19, 127, -121, -93, 
53, -15, -33, 16, 23, -72, -21, -123, 26, -49, -61, -62, -1, -45, 34, 73, 63, -31, -31, -14, 26, -55, 112, -127, 61, 100, -3, -8, -93, 71, -26, 3, 0, -46, -10, 6, 9, -8, -38, 7, 54, -14, 30, -1, -19, -77, -1, -45, -34, -2, -27, -95, 69, 16, -64, -11, -14, -2, -63, 22, 59, -36, -72, -4, 
-20, -6, 28, 58, -1, 91, -127, -127, -29, 4, 58, 1, 42, 95, 7, 74, 60, 67, 4, -4, 37, -39, 55, -45, -12, 45, -127, -21, 4, -44, 40, 50, 114, -9, 17, 8, -97, 42, -12, 47, 22, -13, 127, 35, 21, -11, -11, -17, 71, 10, 46, -113, 16, -20, -24, 72, 101, 27, 21, 71, 100, -66, -75, 57, 
127, -127, 59, 34, 16, 43, -127, -127, 48, -18, -58, -38, 0, -91, -13, 127, -18, -13, -21, 67, -40, -2, 37, -45, -64, -87, 55, -34, 71, -72, -127, 1, -16, -8, -40, 74, -59, -1, 70, -26, -75, -36, -78, -111, 13, 40, -77, 127, -24, -9, -7, -127, 5, -8, 79, 11, 11, 8, 12, 50, -25, -33, -20, -75, 
-50, -127, -15, 95, 68, 44, 127, 40, -37, 56, -59, -94, -22, -43, 13, -71, -24, -115, 60, 123, -91, 48, 10, -7, 27, -97, 45, -45, 53, 4, -55, -10, -15, 17, 23, -6, 75, -73, 24, 31, -70, 24, 11, 31, 72, -2, -56, 80, 64, 12, -78, -50, -29, 26, -127, 79, -30, -30, 76, 8, -48, 54, 120, -30, 
-7, -127, -47, 26, 63, 14, -23, 66, -14, -23, 51, 33, 18, -127, 54, -61, 90, -127, -127, 69, 20, -127, 95, 67, 127, 38, 1, 5, 57, -68, 27, 6, -23, -18, -66, -67, 127, -127, 67, 14, 59, 53, -22, -13, 21, 35, -5, 49, 17, -82, 29, 18, 27, 41, -8, 111, 38, 127, -48, 8, 24, -3, -30, 38, 
82, -78, 24, 42, 50, -24, 34, -18, -11, -70, 37, -13, -127, 51, 96, 10, 98, 10, 105, -12, 89, 33, 56, 62, 13, -21, -69, 5, 16, -9, -70, -77, -33, 64, -27, -77, 65, -116, -68, -7, -2, 25, -8, 81, 34, -20, -48, 0, -110, -127, 84, -4, -39, 30, -70, 44, -26, -127, 13, -54, -34, -54, 57, -38, 
73, -35, -35, 2, -47, -63, 74, -54, 27, 52, -44, -43, -78, 86, 57, 24, 12, 0, -42, 31, 67, 63, -17, -44, -17, 69, 33, 51, 7, -30, -19, -47, 54, 46, 73, -1, -63, -60, 27, 29, -41, -109, 68, -66, -80, 37, 1, -9, -23, -43, 38, -20, -81, -14, -38, 127, 53, -127, 3, -13, -2, 23, 93, -24, 
-40, 16, 0, 2, -2, 121, 7, 64, 28, -93, -14, -14, -127, 30, -127, 28, -51, -14, -50, -3, 62, 8, -74, 8, -61, 40, 42, -46, 63, 59, -64, -81, 35, -48, -99, -28, -27, 44, 67, -127, 15, -127, -18, -43, -75, 40, 15, -9, -127, 0, 33, -23, -127, -81, -99, 127, -31, -15, 32, -3, -33, 61, -89, -66, 
-81, -27, 21, -18, -57, 118, 24, 48, 24, -92, -50, -80, -10, 53, -64, -22, -44, -4, -66, 8, -51, -66, -50, 16, -68, -26, 55, 71, 17, 44, -97, -29, -14, -2, -127, -23, 81, 67, 46, -127, -26, -127, 23, -15, -127, 45, 0, -32, -77, 50, -38, -16, -127, -82, 21, -127, 31, 46, -127, -39, -48, -3, -93, -44, 
-28, -70, 32, 42, 83, 58, 28, -31, -110, 72, 29, -26, 10, 19, -34, -127, 16, -97, -77, 35, 83, 1, 4, 87, 36, 20, 92, -5, 27, -7, -101, -30, 95, -93, -106, -82, -4, -27, -12, 30, -2, 63, -47, -24, 80, -127, -32, 60, 127, 39, -30, -26, 0, 39, -127, 34, -2, -127, 33, -14, 65, -59, 42, 61, 
-10, -18, -52, 60, -4, -10, 6, -23, -33, -86, -24, 48, -13, 29, 31, -67, -10, 24, 38, -47, 16, -39, 39, 33, -70, 19, 6, -36, 21, -20, -45, -1, 72, -21, 33, -73, -18, 12, -9, 19, -28, 8, -73, -32, -56, 1, -35, 26, 60, -74, 0, -44, -76, 8, 72, -33, 53, -51, 34, 2, -42, 12, 10, -48, 
46, 2, 51, -7, 23, 23, -17, 15, 31, -28, -3, -10, -43, 110, -7, 54, 68, 56, 44, 42, 33, -46, 23, -38, 69, 8, -24, -96, -39, -39, -44, 0, -14, 36, -26, -44, 4, -100, 21, -13, -23, -20, 27, -29, -112, -12, 43, 55, -44, 62, 86, -49, -89, 16, 20, -8, 56, 24, -50, -55, -55, 5, -50, -61, 
13, -37, 38, -48, 103, 72, -17, 13, 35, 51, -38, -117, 50, 122, 18, -17, 4, 50, 5, -36, 60, -4, 32, -44, 16, -36, -127, 0, 3, -45, -14, -8, 5, -21, 47, 32, 48, 2, 4, 48, -119, 62, 39, 39, 16, -8, 51, -10, 21, -39, -10, 0, 16, 18, 47, -14, 4, -51, 64, 5, -67, 27, -40, -19, 
-79, 20, -48, 78, -4, -4, 24, 54, 70, -8, 16, -28, -13, 112, -29, -127, 73, -19, -42, 16, -29, 31, 1, -21, -17, 85, 25, 28, 12, -39, 47, -58, 13, -6, 47, 1, 51, 40, -25, 12, -60, 37, 92, 78, 68, 22, -24, -27, 31, -27, -78, 8, 25, 19, -41, -6, 45, -39, 23, 6, 22, 9, 32, -28, 
54, -29, -14, 50, 69, 53, 12, 127, -23, 125, 34, 94, -74, -37, 13, -41, 23, 29, -30, 18, 0, -6, -19, 87, 3, 105, 55, 45, -94, 41, -27, -36, 62, -77, 10, 10, 91, -18, 34, 15, 6, 1, 51, -42, 124, -66, 5, -75, 102, 87, -34, 31, 17, 57, 17, -77, -35, 30, 98, 28, -33, -15, 9, 30, 
38, -5, -90, 18, -94, 13, 49, -66, 7, 56, -56, -31, 6, -20, 94, 13, 105, 54, 22, -40, -104, 84, -1, 72, 50, 2, 18, 30, -48, -33, 1, -5, 46, -37, -127, -33, -42, -92, -60, -120, -9, -55, 2, -13, 19, 54, 29, 66, -25, -51, 4, -80, -37, 49, 36, -37, -21, -86, -25, 25, -51, 10, 0, -20, 
31, 43, -27, -13, 45, -40, 30, 69, 5, -89, -127, -40, 38, 34, 12, 30, 74, 35, -38, -90, -90, 119, 80, -11, 21, -29, 11, -58, -17, -77, -47, -30, 9, -82, -96, 0, 39, 54, -28, -33, -61, -48, 15, 52, -29, 49, -40, 11, -31, -6, 29, -64, -127, -9, 9, -62, -32, 31, -127, 4, -23, 23, 61, -127, 
107, 1, 1, -52, 12, 17, -12, 38, 16, 27, -24, -80, 50, 114, -5, 19, -56, -8, 29, -104, 26, -39, 21, 10, -38, -10, -13, 17, -27, -93, -6, 11, 44, -5, 39, -11, 44, 72, 16, 15, -86, 12, 74, -72, -76, -19, -20, 1, -20, 20, -31, -64, -27, -50, -112, -29, 45, 77, 50, -93, -9, -49, 48, -127, 
-25, -71, -37, -47, 82, 103, -86, 54, -33, 29, 127, -80, -51, 6, -11, 24, -7, -40, 33, -50, 56, -86, -41, 75, 30, -18, 15, 20, -14, -2, -13, 15, 22, 27, 106, -95, 28, -116, 45, -37, -16, -22, -8, -94, 18, -59, -26, 16, -66, 26, -11, -51, -13, 106, -127, -12, 54, 64, 21, 9, -110, 53, -33, -41, 
127, -2, -27, -16, 29, 20, -77, -36, -109, -4, -18, -13, -51, 58, -6, -58, 84, 17, -4, 65, -51, -17, 19, -31, -79, -52, -9, -17, 14, -15, 60, 34, 81, 18, -60, 4, -4, 0, -48, -53, 47, 12, 1, -7, -74, 67, -6, -27, -57, -7, -26, -71, -15, 49, 45, -88, 50, 18, 13, -25, 6, -34, -4, -7, 
-84, -45, -57, 38, 3, 6, 36, 75, -59, 11, -32, 18, 75, -78, 80, -49, 80, -60, 9, -30, 72, 85, -35, 50, -38, -8, -68, -33, 86, -98, 16, -7, 33, -9, 41, -18, 86, 104, 43, -14, -59, -21, -127, 14, -1, -41, 10, 49, -30, 70, 71, 13, 46, -59, 6, 20, -61, -26, -49, 22, -87, -39, -10, 57, 
115, 48, -18, 6, 26, -16, 55, 2, -127, 78, 94, 29, -19, -127, 43, -127, 24, -114, 2, 19, 74, 25, 41, -52, 8, -9, 44, -25, 81, -7, -19, -118, 19, -34, 82, -33, -62, 83, 15, 82, -12, 68, -4, 49, -20, -48, -28, 46, 15, 8, 32, 37, 33, 42, -2, 89, 99, 24, 19, -8, 29, 14, -17, 60, 
34, -16, -4, -11, -78, -9, -43, -23, 39, -4, -19, -19, -43, -127, -53, 68, -117, -65, -32, -45, -51, -80, -8, -4, -20, 33, 23, -86, 24, 63, -98, -53, -12, 29, -77, 49, 56, 90, -2, 6, 75, -33, 71, -23, 53, -4, 15, 65, 44, 11, -30, 1, -43, 29, -10, -38, 8, -67, -33, 88, 42, -2, -8, -6, 
-1, -59, 62, -14, 6, 63, -12, -1, -38, 0, 52, -80, 24, -58, 0, 18, -64, -77, 108, -48, 38, 10, 95, -46, 18, -24, -46, -98, -5, -15, -88, 41, -127, -66, 21, 10, -13, 71, 78, -29, -10, -35, -63, 21, -94, -24, -49, -41, -44, 44, 41, -82, -127, 27, 127, 99, -22, 53, -52, -106, -76, -44, 13, -23, 
83, -68, 100, -71, 65, -71, -83, -64, 108, 12, -4, 24, -35, -29, -67, -31, 41, -54, -40, -56, 76, 15, 127, 44, 94, 19, 68, 104, 45, 40, -109, -35, 79, -24, -25, 25, 73, -38, 12, 98, -2, 127, 8, -17, 30, -84, -83, -109, 78, 13, -4, 64, 6, 30, -77, 69, 79, 1, 64, -2, 73, 73, 99, -17, 
74, 58, 75, -8, -14, -43, -68, -22, -15, -36, -36, 41, -15, 31, 4, -69, 47, -33, 15, -53, 127, 50, -11, -41, 89, 52, 11, 1, -32, -39, -20, -36, -34, 5, -19, -4, -5, 2, -40, -2, -3, 26, 30, 0, -5, 22, -44, -85, 42, 7, -37, 5, 16, -26, -84, 2, 6, 40, 29, 62, -28, -72, 31, -44, 
-17, 53, -29, -36, -52, -70, -27, -78, 76, -13, 7, 7, -23, -20, 29, -15, -3, 14, 42, 46, 20, 81, 4, -20, 5, -38, -29, 44, -58, -30, 14, -25, -1, 29, -59, -41, -60, 13, -43, -41, -40, 36, 9, -30, -53, 70, -45, -12, 59, -5, 7, -45, -58, 21, 126, 99, -18, 14, -13, -27, -75, 0, 11, -56, 
-2, 35, 54, -3, -37, 49, -9, 57, 37, 9, -46, -4, -5, 6, 32, 0, 39, 33, 26, 35, -80, -30, 26, -29, -90, 25, -24, 45, 105, -12, 78, 3, -12, 38, 42, -3, -37, -10, -40, -35, -19, 7, 51, -47, -71, 44, -12, -9, -58, -9, -12, -64, -127, -99, 121, 53, 24, 52, 14, 36, -111, 71, -28, -68, 
8, -82, -33, -40, 40, -111, 54, 8, -127, -77, -68, -46, 78, -42, 23, -20, -127, -11, 12, -63, -23, -48, -6, 18, -82, 16, 16, -65, 64, 2, 107, -45, -37, 0, 67, 1, 67, -7, -10, 48, 26, -20, -23, 127, 30, -17, 22, -69, 34, -8, -43, 57, -127, -45, 30, 62, -32, -30, -53, -87, 7, -30, 69, 39, 
121, -25, -4, 21, -63, -12, -98, 16, 28, 127, -26, -34, -31, -15, 43, -127, 71, 100, 0, 0, -108, -34, -7, 36, 38, 27, -22, -4, 67, -127, 29, -127, -21, 2, 27, -14, 44, -93, -61, 15, -68, 37, 75, -34, -3, -77, -74, -37, -115, -127, -64, 25, -17, 0, -127, -17, -45, -56, -40, 34, -66, -90, -57, -125, 
-21, -7, -24, 56, -58, -127, 8, -8, 46, -51, -84, 6, 32, -80, 12, 68, -87, 100, 2, 32, -105, 0, 31, 56, 40, -38, -27, -23, 55, -46, 33, 17, 12, 10, -4, -46, 4, -4, -25, 20, 36, -20, 56, 26, 32, 12, 23, 15, -49, -29, 49, 13, -71, 106, -127, 16, 49, 36, 62, 37, 32, 9, 86, -39, 
-51, -55, -40, -9, 38, -104, -12, 39, -73, -127, -27, 52, 21, -127, 12, 127, -4, -127, 4, 23, -37, 69, -55, 31, 84, -3, 44, -82, 75, 7, -20, 42, 8, 49, 52, -119, 12, -64, 1, 51, -24, 45, -32, 41, 72, 88, 23, 51, 22, 57, 119, 55, -40, -15, -117, -28, -68, -25, 0, 14, 6, 6, 52, -31, 
-46, -99, -24, 56, 0, -67, 14, 29, -93, -35, 0, 49, -103, 9, -11, -127, 7, 29, 50, 31, 58, 7, -26, 37, 92, 38, -6, -91, 16, -47, -20, 40, -51, 11, -110, -71, 32, -63, -1, 6, 57, -17, 64, -3, -24, 6, -18, 49, 25, 36, 29, -6, -23, -37, -42, -71, -127, 68, 83, -38, 1, 58, -11, 0, 
-75, 101, -82, 35, -28, -26, 21, -22, -32, 17, 55, 86, 20, -40, 64, 14, -20, -25, 9, -74, 57, -24, -55, 29, -49, -61, -1, 4, -56, -113, -55, -3, 40, -70, 22, -19, 60, -52, 10, -33, 28, 5, 57, -6, -110, 50, -127, 88, -22, -29, -78, -116, 46, -127, -73, -52, 13, 21, 26, 34, -87, -58, -25, 29, 
77, 50, 96, -93, -33, -7, -35, -112, -127, 27, 92, -41, -36, -12, -64, 105, -12, -12, -50, -98, 110, 45, -18, -55, -46, -20, 0, 81, -105, -27, 50, -9, 7, -21, 21, -26, -63, -113, 3, 70, 50, -51, -35, -26, 19, 35, -21, -34, 40, -41, 100, -107, -2, 68, 97, 29, 16, 73, 17, 105, 0, -127, -53, -65, 
3, 68, 11, -44, -9, -14, -31, 27, -127, 1, 1, 22, -34, 3, -54, 84, 127, 29, -82, 62, 96, 53, -81, 27, -67, -44, -6, -11, -91, -38, 25, 19, -107, -11, 3, 11, -8, -85, -34, -25, 77, -41, -24, 8, -1, -49, -52, 33, 1, -9, -14, -5, 36, -19, 18, 51, -28, -2, -6, -63, -4, -13, -80, 2, 
-58, 30, -13, -124, 4, -21, -57, -32, -101, -49, -71, -6, -17, -12, -3, 1, 104, 73, -127, -8, -23, 51, -64, -27, 21, 27, 18, 64, -29, -48, 7, 54, -30, -41, 16, -22, 30, -2, -71, 40, -14, -35, -19, 51, 14, -29, -4, 38, -61, 76, 2, 41, -50, 31, 35, 29, 0, 65, -52, -47, 24, 7, -83, -12, 
-7, -10, 80, -40, -29, 17, -32, -35, -54, -70, 74, 21, 23, 75, 24, -61, -46, -12, -127, 0, -18, -50, -22, 107, 43, 35, 38, -29, -53, -14, 49, 36, 63, 32, -40, 21, 79, -22, -54, 73, 37, 36, -72, 51, 37, 38, 3, -9, 32, 55, 29, 90, 33, -39, -80, 65, -21, -22, 63, -60, 71, -3, -44, 39, 
-122, -35, 0, -27, -57, -31, 23, 62, -104, 78, -57, 6, 34, -46, 26, 16, -104, -62, 2, 46, -20, -67, -28, 57, -1, 10, 13, -74, 44, 59, -24, 3, 15, -37, -101, 42, 42, 32, 25, 72, -17, -45, -58, -9, 68, -127, -62, 63, 5, 10, -127, 37, 62, -44, 118, -4, 68, -37, 24, -104, 60, 127, 25, 39, 
-62, 20, -2, -57, 14, 6, 25, 73, 1, -53, -11, 61, 32, 35, -50, 92, -80, -46, 14, -38, -8, 48, 56, 70, 67, 59, -18, -4, 7, -21, -39, -78, 40, -19, -13, 26, 55, 14, -46, 52, -55, 2, 50, 54, 75, -105, 56, -76, 0, 11, 6, 54, -109, 5, -122, 37, -77, -57, 6, -118, 8, -17, 11, 0, 
-18, 11, -81, 46, 31, -5, -52, 38, 42, -99, 18, 34, 28, -33, -78, 43, -8, -21, -96, -126, 7, -55, -4, 38, -7, 0, -34, -32, -103, -59, 25, -77, -30, -17, 9, 1, -73, -8, 12, 9, -30, -22, -2, -18, 67, -2, 32, 113, 19, -1, 37, -31, -72, 29, -42, 11, 6, 14, 17, -127, -54, -106, -28, 53, 
-127, 2, -43, -55, -16, 7, 5, 62, 50, 17, -55, -66, 60, 3, 22, -33, -45, -59, 25, 29, 1, -6, -24, -11, -115, 22, -23, 15, -23, -26, 45, 8, -56, -21, -38, -11, 50, -30, 11, 25, 45, 7, -73, 52, 14, 9, 40, -21, 0, -7, 20, 1, 67, -9, 8, 15, -7, 92, -54, 31, -39, 72, 56, -16, 
-9, 49, -13, -35, 55, 14, -56, -51, 10, -6, 10, -102, -40, 22, 67, -4, 69, -28, 15, 24, -42, -11, 5, -10, -29, 54, 28, 36, -13, -67, 38, 8, -42, 34, -85, -19, 5, 22, -77, 44, -17, 97, -30, 53, 25, 11, 18, 20, -50, 1, 8, -46, 6, 49, 127, 65, 41, 55, -11, 32, -35, 99, -64, 13, 
45, 51, 55, 103, 99, -4, -25, -26, 59, 76, -22, -34, -48, 22, -37, 25, 20, -5, 10, 59, -61, -12, -37, -52, -55, -67, 46, -27, -68, 36, -122, 0, 13, 3, -67, 38, -19, 55, 22, -112, 8, 15, -1, 47, -31, -90, 111, 6, 3, 17, -8, 8, 73, -13, -2, -38, -10, 25, -2, 4, 43, 78, 21, -16, 
70, 36, -127, -23, -29, 30, 67, 3, 7, -127, 86, 0, 66, -4, -3, -44, -48, -33, -1, -13, -4, 11, -56, -20, 49, -56, -28, -71, 6, -68, -45, 127, -98, 7, 9, -84, 15, 14, 55, 19, -57, 15, 30, -60, -13, 56, -47, -83, -54, -46, 67, -14, -56, -127, -54, 32, 17, 65, -20, 50, -15, -60, 31, 90, 
29, 46, -62, -1, -24, -16, 38, 47, -29, 65, 29, -26, -32, 3, -41, -39, -1, -32, 24, -46, -67, -35, -67, -37, 10, -38, 18, -55, -44, -3, -12, 30, -21, 52, -64, -34, 28, 0, 4, 22, 9, -109, -26, -67, -49, -9, -34, 7, -75, -39, 98, -15, -81, -75, -17, 38, -11, 6, -127, 0, -11, 7, -19, 90, 
-5, 13, -65, 17, -18, 0, -14, -7, -9, 5, 21, 33, 3, -5, 37, -32, -27, -13, 20, -7, -90, -34, 48, -27, 6, 25, 28, -100, -14, -29, 5, 35, 9, 46, -8, -39, 106, -5, 8, 51, -14, -40, -50, -19, 1, -19, 30, 47, -66, -78, -6, 87, 18, -90, 0, 21, -18, -34, -127, 0, 56, 26, 56, 38, 
-84, -5, -78, -29, -93, -42, -16, 83, 15, -127, 46, 74, -50, -54, -25, -8, 6, 19, 9, 74, -127, -22, 46, 48, 27, 113, 38, -13, 67, 2, 40, 17, 44, -22, 12, 5, 25, 41, -36, -127, -9, -86, -47, 0, 1, -19, 15, 53, -45, -47, -5, -25, -17, -36, -22, -127, 45, -1, -127, 8, 2, 53, 6, 79, 
-84, 1, -70, 20, -59, 9, -53, 94, 15, -127, 5, 22, -127, -16, -64, -75, 26, -43, 7, 89, -64, 10, 66, 14, -10, 4, 55, -85, 49, -1, 31, 0, 36, -34, -31, 50, -29, 12, -18, -127, 22, 4, -17, 47, 26, -19, -13, 48, -66, -113, -80, 39, -61, -127, 9, -7, 68, -5, -127, 5, 9, 59, -26, 38, 
13, -4, 13, 28, -15, 30, -14, 58, -57, -127, -81, 6, 15, -6, -51, 60, 53, 12, 49, -13, -122, 54, 16, 36, 66, 25, -17, -62, 82, -53, 99, 75, 77, -78, -56, 110, 103, -62, 75, -47, 16, 29, 85, 88, 46, 55, 25, 21, 17, -10, 63, 123, -127, -93, 127, 17, 27, 42, -37, 85, 3, 2, 36, -7, 
106, 57, -3, 19, 27, -8, 15, 16, -127, 19, -24, 18, 25, 18, -16, 34, -24, -9, 57, -3, 67, 116, 23, 6, 41, -58, -18, -83, 54, 3, 3, 30, -5, -59, 6, 9, -32, -10, 44, 39, 18, 58, -10, 16, 82, 5, 72, 7, -57, 40, 75, 10, -6, 127, 87, -40, 19, 5, -41, -34, 55, -30, 53, -59, 
55, 69, 4, -55, -3, -22, 51, -46, -97, -35, -30, -65, -50, 23, 7, 15, -127, -32, 24, -14, 21, 40, -22, -57, -20, -127, -67, 29, -87, -5, -28, -32, -54, -17, -4, -43, -90, 36, 37, -31, -57, 0, 35, 0, 7, -10, 18, -4, -7, 0, 83, 29, 12, 75, -13, -32, 62, -44, -18, 7, -4, 67, 2, 6, 
-44, 30, -127, -14, -28, -28, 65, -17, -127, 28, -50, -82, -21, 24, -3, 73, -26, -98, 50, 29, -34, -2, -65, -15, -64, -99, -82, 58, -64, -29, -8, 31, 27, -21, -55, -37, -10, -29, 30, -2, -102, -44, 45, -59, -33, -51, -9, -51, -72, 35, 31, -69, 72, 12, -58, -14, -53, -20, 17, 0, -4, 91, 19, -27, 
53, 55, 69, -20, 22, -45, 40, -26, -127, 11, -118, -5, -31, -2, -47, -127, 65, -47, -89, -44, -48, -86, -43, -19, -50, -110, -56, 23, -46, -58, 22, -19, -47, 18, -25, -62, 75, 42, -61, 47, -127, 74, 57, 58, -103, -42, 17, 81, -113, 0, -15, -46, -81, 63, 44, 17, -98, -44, 37, 30, 37, -6, 11, 27, 
-127, -78, 10, 14, 3, 35, 52, -37, 23, 36, 34, 103, 36, 25, 1, 96, 67, -55, -27, 78, 127, -127, 76, -13, 36, -26, -85, -84, -16, 1, -108, 47, -13, 19, -18, -19, 63, -33, 69, 24, -7, 85, -52, 50, 16, -25, -58, -38, 19, 58, 65, 41, 44, -42, -64, -40, 55, 86, -42, -70, -18, 14, 4, 53, 
-61, -69, -69, -84, 27, -65, 48, -89, 51, -101, -4, 31, -23, 9, 15, -29, -22, 25, 94, -118, -44, -118, 26, 7, -2, 18, 1, 71, -61, -38, -73, 33, -55, 97, -3, -43, 51, -37, 25, 21, 17, -12, 56, 24, 4, 25, -5, -17, 15, 47, -47, 14, -127, -12, 2, 127, 77, 53, 6, -36, 29, -9, 3, -11, 
-73, -29, 42, -27, 57, -35, -44, -74, -35, -83, -2, 28, -25, 7, 2, -8, 111, -15, -76, 0, -87, -127, 2, -9, -25, -75, -67, -34, -73, -45, -105, -27, -44, 78, -119, -15, 11, -16, 21, -40, 63, -32, -3, 62, 65, 34, -56, -28, 42, 77, -42, -30, -11, -85, 116, 90, 0, 15, 9, 35, 9, -76, -10, -48, 
-4, 21, -6, 118, -54, -120, -124, -28, -48, -46, -107, -71, 5, 39, -112, 30, 127, -26, -99, -17, -2, 15, -40, 39, 21, 28, -9, -39, 21, 8, 37, -44, 86, 36, -123, 11, -61, 24, 9, 25, -22, -31, -15, 74, 4, -54, 34, 45, -3, 63, 21, 1, -13, 109, -22, -71, -53, -3, 13, 19, -5, 101, -8, -105, 
112, 58, 3, -13, -127, -8, 8, 38, 27, -37, -72, 68, -95, 75, -97, 27, -28, 12, 13, 20, -110, 50, -86, 29, -20, -18, 29, -127, 46, 48, 79, -15, 93, 79, -127, 70, -8, 33, -3, -65, -52, 24, 3, -36, 69, 5, -4, 17, -67, 22, -111, 30, -6, -103, -92, -123, -55, 8, 1, 123, -16, 34, 2, -115, 
-69, -47, 37, -92, 41, 64, -17, 122, 127, 79, -22, -20, -72, -61, -41, 50, 107, 9, 28, -127, -12, -38, -72, -55, -2, 1, 56, -7, -66, 91, 11, 25, -71, -6, 44, -85, 2, 12, -63, 2, -63, -71, -5, -75, -107, 127, -48, -92, -91, -116, 40, -44, 46, -42, 2, -26, 8, -3, 9, -15, -6, -90, 1, -67, 
127, -53, 21, -14, -27, -7, -31, -16, -5, -49, -52, -7, 15, 6, -7, -53, -10, -23, -66, -126, -44, 102, -46, 16, 67, -44, -84, -56, 32, 5, -2, 12, 29, 111, 19, -43, -16, -33, -60, 30, -127, 19, -29, 26, -10, 0, 64, -33, -18, 10, 50, 83, 48, 45, 64, -20, -38, -36, -58, 65, -20, -3, 14, -38, 
75, -72, 28, -11, -6, -25, 31, 20, -127, 11, -41, -15, 17, 65, 34, 20, 2, 51, 8, 37, 48, -46, 32, 46, 23, 33, -9, 7, -45, 7, -11, -14, 97, 36, 42, 42, 76, -18, -68, 57, -33, 26, -13, -7, 62, -10, 88, 56, 56, 70, 13, 19, 12, 0, 40, -13, -16, 39, 83, -9, 64, 38, 54, 31, 
7, 83, -95, -43, 14, -53, 58, 68, -46, 82, -1, 41, 125, -30, 7, -61, -6, 54, 7, 33, 49, -44, 11, -35, 22, 85, 57, -18, 127, 0, 0, 7, 27, -55, 32, 127, 46, -12, 31, 50, 91, 45, -123, 18, 71, -95, 25, -20, 0, 8, -21, 58, -23, -7, 13, 20, 73, 8, 68, 46, -41, 94, 45, 33, 
93, -127, -84, -23, -29, -78, -40, 45, -127, 26, 61, -24, 33, -127, 31, 1, -83, -127, -34, -26, 58, -60, 26, 20, 54, 55, -40, -19, 86, -97, 10, 37, 6, -81, 18, 34, 12, -70, 56, 52, 55, 32, 16, -27, -28, -127, -127, -45, -56, -77, 3, -76, -61, -18, 19, 37, -13, 17, 55, 21, -35, -31, 52, -8, 
26, 4, -127, 12, 120, 62, 127, -127, 33, 78, 20, -127, 67, 104, -127, 6, 100, 54, -1, 5, -22, 15, 25, -33, -36, 38, 15, -46, 0, 63, 127, 30, -14, -59, -23, 0, -35, -14, -63, -127, -5, 53, -127, 127, -57, 8, -17, -33, -25, 94, 112, -55, 52, -91, -2, 4, -42, 1, -127, -8, -57, -32, 126, -61, 
14, 22, -127, -7, 4, 46, -19, -127, 34, -53, 27, -127, 26, 1, -127, 22, 36, 39, -93, -8, -98, 32, -51, 3, 127, -94, -65, -28, -16, -96, 81, -37, -51, -28, -60, -6, -34, 6, -77, -127, 33, -127, -23, 76, -71, 16, 31, -94, -127, -13, 31, -127, 54, 34, 14, 3, 3, 1, -127, -13, -14, 6, 13, -20, 
54, 9, -127, -24, 74, -49, -69, -44, 2, -119, 1, -127, -10, -40, -127, 8, 15, -6, 70, 5, -127, 18, 21, 58, 62, -54, 7, 28, 22, -103, -127, -41, -21, 19, -127, -9, -69, 34, -56, -53, -72, -127, 78, 26, 21, 10, 66, -43, -127, -33, -70, -127, -53, 78, 18, 36, 30, -16, -97, 18, -27, -35, -4, -35, 
78, -20, 3, 2, 59, 7, 70, -78, -20, -127, 3, 80, 14, -127, -127, 2, -4, -7, 24, -37, -127, 7, 62, -13, -127, 56, 15, -23, 32, -31, 11, -48, -44, 66, -21, -127, 46, 12, 13, 127, -27, -127, -100, -84, -32, 5, -65, -57, -127, -46, -111, -10, 7, 49, 53, -9, -1, 21, -104, -66, 30, 23, -127, -21, 
0, 11, 52, -47, -27, -42, -127, -26, -41, -127, 70, -103, 55, -57, -99, 48, -18, 2, -61, -4, -104, -52, 127, -81, -127, 127, 127, 27, -32, 83, -127, 13, -2, 104, 21, -127, 127, -99, 40, -58, 127, -127, -127, 17, -22, -31, -66, 25, 37, 86, -8, 43, 88, 28, 20, -9, -67, 15, 8, -100, 29, 60, -127, 3, 
121, -75, 47, -77, 68, -33, 34, -27, -127, 96, 48, 72, -48, -40, 14, 38, 125, -127, -127, -43, -16, -127, 1, -53, 62, -67, 10, -10, 36, -8, -72, -19, 28, 110, 43, -56, -33, -83, -37, 4, -55, -127, 23, -102, -6, -123, 6, 97, -34, -16, 60, -63, 53, 3, -127, 41, -15, -6, 57, -23, -51, 26, -39, -52, 
115, -82, 10, 27, 47, -45, 28, -59, -127, 17, -50, -13, -81, 23, -2, 0, 40, -8, -17, 32, 46, 79, 20, -44, -31, 78, -7, -6, -68, 52, 47, 57, 54, 23, 60, -94, -37, -13, -28, -9, -14, 28, -47, -59, -15, -104, 12, -47, 9, 48, -36, -38, 2, 26, 25, -8, 16, 50, 2, 41, 3, 127, -48, -80, 
75, 2, 4, 73, -12, -16, -68, 87, -53, 64, 29, -24, 15, 78, 22, 18, -122, -43, -108, 35, -6, -27, 127, 27, -37, 109, -56, -57, -43, 97, -31, 61, -71, -39, -49, -49, -68, 36, -26, -41, -74, 88, -57, 40, 31, -118, -46, 50, -84, -49, -16, -16, -50, 21, 10, 50, 3, -3, 44, -3, -9, 90, -94, -19, 
52, 38, 66, 88, -37, -13, 0, 26, 2, -4, -55, -31, 59, 60, -28, -8, -45, 65, 16, -55, 62, 75, 51, 21, -4, -13, -45, -55, -70, 67, 60, 14, 10, -34, 18, 66, -38, 63, 57, 5, 94, 15, 55, 40, 27, -39, 31, -3, -96, 38, 11, 33, -78, 87, -17, 50, -44, 35, 15, -36, 7, 0, -31, -67, 
-115, 42, 8, -79, -92, 17, 83, -23, 72, 48, -2, -25, 57, 2, -33, 61, -26, -1, -68, -89, 47, 13, -58, -3, 11, 23, 53, 1, 34, 3, 78, -64, -39, -61, 15, 52, -49, -17, -3, 72, -86, 35, -15, -48, 27, -18, -33, -111, -23, -47, -56, 39, 49, 76, -29, 46, 35, -21, 115, 38, -56, -31, 29, 24, 
-47, -9, -123, 24, 54, -127, 80, -70, -43, -127, 9, 11, 53, -73, -40, -22, 76, -42, -81, -32, 64, -34, -11, 0, 21, -45, -72, -10, 26, -84, -41, 88, 75, 124, -34, -1, 22, 38, 51, 38, 28, -27, -27, 82, -70, 127, -63, 95, -37, -4, -23, 38, -34, 28, -51, -127, -28, 82, -66, -18, 17, 19, -109, 46, 
-32, -74, -127, -7, -39, -127, 36, -16, -64, -127, 61, -1, -127, -123, -41, -127, -58, -40, -51, -21, 49, -15, 122, -2, -2, -30, -3, -22, -1, -61, 5, 47, -28, 60, -102, 6, 26, 30, -16, -66, 52, -84, -121, -40, 24, 9, -32, 11, 32, -44, 58, 18, 15, -19, 12, -127, 51, 69, -30, -40, 20, -47, -22, 38, 
88, -85, -127, 43, -32, -114, 27, 12, 2, -127, 13, 31, -31, -24, -26, -117, -25, -120, -85, 29, -20, -35, 6, -24, -71, 46, -12, -19, 7, -75, 25, -33, 3, -61, -75, -27, -28, 45, 29, -127, 1, -79, -77, -50, 64, 27, -54, 54, -62, -75, 94, 34, -39, 28, 5, -127, -70, 31, -127, -31, -17, -42, 86, 47, 
67, 23, -127, -21, -39, -70, -36, 37, 9, -127, -17, 8, 13, 58, -45, -127, 36, -32, -12, -30, 7, 19, 16, -19, -48, 78, 55, 7, -37, 7, 45, 7, -48, 48, -43, 58, 50, -12, 1, -127, -14, -45, -20, 50, -12, -23, -8, 55, -125, -18, 27, 52, 53, 30, 23, -127, -30, 24, -69, 6, -16, -42, 116, 18, 
-35, -45, -115, -12, 13, 47, 2, 46, 22, -127, -54, 65, -87, -60, 1, -42, 15, -72, -51, -81, -64, 17, 48, 50, 21, 19, 24, 34, 78, -14, 48, 42, -70, -42, -1, 33, -121, 104, 15, -127, -11, -1, -12, 64, 8, 22, -19, 23, 60, -90, 19, 11, -55, 43, -79, -76, 111, -7, 51, -83, 12, -54, 105, 11, 
78, 127, -127, -105, -7, -95, 48, -32, -60, -127, 65, 49, -127, -127, 47, 50, -28, -127, -38, -14, -119, 8, -2, -94, -28, 52, -48, -38, -35, 76, -88, -40, -127, 5, -47, -2, 30, 5, -12, -89, -9, -35, 62, 61, 61, 43, -127, 30, 70, -126, -12, 25, -2, 64, 1, -127, -83, -18, -127, -105, 54, 47, -127, 93, 
9, 78, -127, 7, 38, -67, -61, -55, -34, -23, -4, -47, -103, -127, 3, 37, 2, -127, 13, 0, -127, -24, -73, -44, -60, -2, 28, -26, -18, 7, -127, -4, -32, 20, -29, -13, -58, -127, -12, -127, -127, 14, 74, 15, -7, 92, -127, 10, 30, -86, -76, 19, 19, 64, -9, -123, 5, 4, -127, 124, -51, -43, -127, 59, 
-39, 64, -127, -51, 30, -51, -107, -114, -42, -127, -12, -24, -68, -127, 9, 104, 2, -127, 22, -7, -127, 73, -63, -20, 29, -3, 34, 25, 57, 8, -127, -13, 48, 54, -35, -68, -46, -86, -10, -127, -95, 8, 75, 9, 20, 44, -127, 54, 35, -65, -29, 5, -46, 44, -74, -47, -116, 4, -127, 80, -15, 0, -34, -64, 
-43, -87, -127, 6, 41, -58, -51, -33, -45, -127, -41, 127, 0, -127, 52, 114, 47, -127, 30, 46, -127, -56, 50, 25, -14, 27, 60, 3, 122, -30, 73, -4, 55, 32, -53, -127, -51, -27, 69, -127, -61, 62, 92, -49, 11, 38, -117, -9, 39, -127, 86, -19, -64, 19, -38, -127, -15, 28, -127, -31, -33, 22, 118, 31, 
-127, -127, -127, 39, 72, -53, -13, -127, -41, -29, -38, 127, -9, -127, 84, 106, 20, -91, 74, -33, -42, -65, 127, 16, 19, 78, -1, 49, 51, 12, 127, -3, -50, -29, 33, 35, -29, -78, 84, -127, -20, 44, 127, -81, 4, -46, 49, 51, 71, -127, 127, -77, -38, 14, -11, 107, -4, 10, -127, -57, -15, -26, 127, -27, 
-27, 49, 44, 22, -14, -4, -127, 127, 127, -35, 25, 81, 23, 20, -34, -127, 50, -46, -78, 12, 0, 110, 82, 86, 106, 127, 105, 8, -75, 10, 73, -127, 32, 8, -11, -9, -67, 0, -127, -21, -12, 95, 35, 73, 84, -1, -127, 17, -32, 4, -67, 65, -5, 1, -3, -124, 5, -18, -3, 26, 6, 10, 26, -79, 
-53, -34, 64, 22, 10, -14, -6, 25, -41, 67, 83, 43, -49, -69, -21, 32, 10, 16, -89, 2, -53, 24, 21, 66, -23, 37, 9, 116, 42, -4, 79, -38, -30, 80, 27, -23, 15, -17, -79, -73, -5, 99, -37, 14, 1, 3, -82, -60, -112, -17, 18, 19, 56, -5, 57, -46, 6, -50, -33, -3, -92, 0, 31, -21, 
73, 5, 3, 1, -25, -30, -97, -33, -118, 43, 109, -28, 71, -18, -33, 13, -21, -34, -78, -127, -123, -127, 32, -44, 37, -5, 26, 13, 38, 39, 4, -78, 15, 38, 80, -8, 22, -50, -18, -19, 49, -14, 53, 18, -42, 47, -34, -54, -38, -9, 18, 45, 0, 35, -48, 10, -37, -5, 78, 51, -31, -83, -12, 67, 
40, 59, -127, -107, 78, -6, -57, -54, -63, -11, 76, -17, -6, 81, 10, -111, -11, -36, -127, -36, -109, -113, -104, -57, 68, -20, 26, 37, 59, 12, -106, 6, -83, 17, 31, 11, 35, -21, 53, -32, 70, -95, 75, 6, -3, 63, -10, -31, -5, 75, -9, 42, -64, 4, 4, -69, 14, 0, 2, 48, 14, -127, 13, 74, 
-11, -59, -127, -21, 85, -127, 26, -72, -127, -82, 83, 51, -17, 54, 29, -127, -91, -56, -1, -30, -57, -127, 7, -40, -38, -111, -11, -37, -53, -32, -32, 58, -127, -31, 1, 5, 8, -9, -73, 17, 83, -47, 39, -25, -1, -19, -1, 7, -3, 38, -2, -14, -127, 41, 56, -10, 119, 62, 63, -35, -26, -39, 20, 34, 
59, -11, -60, -17, -13, -97, -127, 48, 39, 42, -101, -2, -18, -63, -39, -84, -1, -11, -40, -27, -39, 99, 5, 31, -6, -46, 104, 24, 24, -19, -24, -53, -33, -17, 58, 37, -10, -94, -105, 30, -2, -33, 5, -47, 40, -21, -68, -14, 64, -69, -127, -87, -67, 83, 42, -8, -30, -67, 59, -57, 76, -112, 39, -54, 
3, -56, 3, -16, -8, -127, -97, 28, 23, 48, -84, 20, 33, -23, -3, 50, 56, -49, -51, 40, 20, 27, 38, -55, -57, -78, -1, -20, 46, 0, 3, -40, -127, -24, 11, -49, 44, -37, -44, 47, 18, 41, 5, 53, -18, 36, 19, -11, -83, 46, -13, 1, 20, -44, -14, 52, 8, -51, 54, -64, -47, -108, 6, -14, 
127, 58, 11, 33, 45, -47, 12, 23, -10, -17, -40, -10, -18, 11, 26, 22, 38, -4, 1, -69, -114, 4, 40, -82, 30, 27, 15, 6, 46, -55, 15, -55, 35, -19, 23, -27, 1, -11, -14, 46, 25, -15, -27, 2, -127, -34, 34, 64, -60, -12, 20, -46, 62, 41, 14, 10, 17, 26, 72, 111, 8, -81, -22, -3, 
84, 49, 19, 6, 91, -45, 12, 54, 54, 67, -67, -1, -42, 32, 87, -14, -37, 23, 29, 13, -32, -70, 48, -18, -67, 56, 98, 31, -18, -42, 4, 28, -112, 23, 13, 37, 57, -28, 8, -38, -27, -41, 12, -4, -21, -113, 60, 67, 30, 86, -4, 6, -124, 14, 4, 45, -52, 17, 37, -47, -40, 40, -17, -48, 
-31, -3, -15, -14, -30, -77, 74, -94, -1, 55, -127, 0, -8, -38, 78, 6, 74, 74, 48, -105, -74, -63, 99, 25, 62, 31, -16, 10, -127, 70, 33, 21, -82, 31, -2, 26, 56, 91, 72, 56, 13, 54, 26, 14, -79, -41, 41, -19, 67, 82, -15, 52, -21, 37, 19, -1, -127, 94, -40, -92, -3, 61, 33, -27, 
-13, 19, 27, -30, 56, -16, -20, -67, -5, 109, -43, -107, 30, 33, -62, -110, -48, 55, 51, 32, -81, -113, 24, 83, -21, -1, 117, 49, -57, 13, -10, 30, 5, 32, -57, 32, 45, 30, -3, 9, 47, -14, -16, 2, 14, -88, 16, 73, -11, 26, 89, 18, 53, -1, -38, -53, 16, 70, 65, 57, -37, 9, 52, 12, 
92, 27, 70, -61, 2, 43, 37, -28, -11, 23, 107, -57, 23, 77, -24, -19, -78, 30, 46, 20, 33, 3, -22, 32, 38, -44, 64, 40, -11, -37, 9, 36, -40, 38, 30, 42, 11, -19, 64, 50, 66, -16, 0, -8, 1, -17, 0, -56, 9, 0, 55, 41, -31, -49, -53, 59, -29, 32, 74, -101, -82, -39, -33, 28, 
9, 49, -48, -24, 6, 56, -18, -52, -121, -18, 37, -14, 40, -4, 41, -63, -16, 11, -41, -26, 54, -39, -18, -10, -7, 36, -64, -48, 18, -44, 39, 24, -21, 80, 30, -6, 14, -4, 40, 56, -4, 21, -26, 49, -28, 54, 8, -24, 64, 14, 20, -27, -85, -20, -50, 80, -28, -44, 65, -8, -102, -29, 37, 21, 
37, 21, -114, 68, -56, 18, -32, -27, -88, -3, -3, -79, -57, -87, 0, -93, 35, -42, -29, 19, 42, 77, -19, -22, -66, 18, -59, 75, 14, -100, 83, -75, 16, 27, 32, -49, -50, -19, 4, 30, -34, 6, -38, -63, -16, -62, -99, 23, -17, -50, -112, -30, -52, -2, 10, 56, 25, 21, 31, -3, -52, -9, 11, -1, 
9, 27, 65, 41, -12, -52, 0, 45, -71, -69, -50, -36, -33, -71, -76, -33, 32, -60, -81, 28, -30, -11, 38, 89, -34, 26, -48, -1, 96, -18, -56, -81, -29, -27, -63, -8, -40, -25, -11, -66, -58, -65, 38, 62, 67, 66, -2, 78, -114, -102, -112, 23, -50, 72, 2, 9, -96, -14, -31, 127, 1, 25, -30, -25, 
119, -11, 45, 62, 48, 0, -55, 30, 19, -54, 17, 31, -70, 23, 30, -52, 78, 47, 13, 115, 36, 49, -54, 48, -62, 13, 94, 27, 118, 42, 19, 27, -13, -20, 77, 73, -33, -88, 36, 95, 38, 82, 88, -29, -38, 49, -42, 80, -42, -87, -38, -56, -6, -57, -11, 31, 46, 16, 35, 17, 106, 105, -77, -34, 
