#include <MyModel.h>


const float MyModel_layer_0_weights[] = {
0.0017726619, -0.18622556, 0.3375923, 0.15004519, 
-0.008982189, -0.17768985, 0.2401165, -0.012104393, 
0.06584481, -0.13348639, 0.24093236, 0.16066374, 
0.09449643, -0.08479648, 0.23844773, -0.12837471, 
0.063297756, 0.22777383, -0.10953806, 0.2300676, 
0.1376631, 0.24933709, -0.10281689, 0.18416657, 
0.073279604, 0.21919218, -0.2135786, -0.14749536, 
0.040119283, 0.2858226, -0.20031169, -0.02299205, 
0.007819976, 0.22622238, -0.3942082, -0.10228863, 
-0.009418666, 0.22409232, -0.3135141, 0.11968817, 
0.0345468, 0.12509294, -0.47893363, -0.35352877, 
0.025276491, 0.21026199, -0.31761953, -0.010376656, 
-0.16408803, -0.28346685, 0.23778026, -0.22273074, 
-0.13831472, -0.34449542, 0.17801906, 0.03344894, 
-0.16103208, -0.2721453, 0.33905992, -0.04477247, 
-0.11661322, -0.39070365, 0.2753768, 0.13476832, 
-0.37178832, -0.09672531, 0.07301152, -0.17428091, 
0.02799047, 0.28208587, 0.09337844, 0.21296094, 
0.27819857, -0.05598379, 0.19885588, -0.16030952, 
-0.043681297, 0.081858635, 0.08108275, 0.14213578, 
0.077066794, 0.1049384, 0.009143717, -0.15469539, 
-0.1962236, -0.24071558, -0.19247164, 0.19561955, 
-0.11021457, 0.095453195, -0.18257742, 0.18143882, 
0.24325992, -0.19678363, -0.15132576, 0.16453297, 
0.20339061, -0.07812169, -0.06883611, -0.23526488, 
0.13891268, -0.14060807, -0.18389753, -0.0008047342, 
0.09795885, -0.1197475, -0.15078588, 0.06283325, 
0.10717026, -0.0886933, -0.19098009, 0.07231637, 
-0.12084239, -0.0011138621, 0.098149434, -0.20855968, 
-0.15542008, 0.07462667, 0.16687119, 0.010861998, 
-0.082311496, 0.06154373, 0.19488876, -0.22042501, 
-0.19770093, 0.12343213, 0.18996757, -0.24005362, 
0.16174258, 0.12852858, -0.1297555, -0.03659679, 
-0.021949962, -0.055545982, -0.03099509, -0.18151028, 
-0.3629984, 0.0782465, -0.13721938, 0.08795327, 
-0.11096827, -0.06764035, -0.17519504, 0.14227915, 
-0.0119010685, -0.06861229, 0.07446414, -0.11865007, 
-0.07109871, -0.08281326, -0.07904651, -0.16522263, 
-0.12611128, -0.24804114, -0.17639425, -0.19966656, 
-0.2453638, 0.011655506, 0.21609819, -0.051633384, 
0.0001314566, 0.057633806, -0.1498057, -0.2004417, 
0.029992886, 0.061455064, -0.14039119, 0.08916158, 
0.07719107, 0.017874965, -0.06620659, 0.07840029, 
0.09657286, 0.005936173, -0.14893873, -0.1536772, 
0.0022170737, -0.072451726, 0.06307579, 0.036976233, 
0.04933519, -0.063325204, 0.089264326, 0.13606068, 
0.022754021, -0.076090984, 0.14873211, 0.103049785, 
0.013294363, -0.11986961, 0.17727885, 0.16464962, 
0.099461116, -0.2376841, -0.07067376, 0.12519513, 
0.053993583, -0.19411467, -0.04085526, 0.16192277, 
0.0879646, -0.15344913, -0.0583315, 0.1373798, 
0.07486971, -0.1357656, 0.035473008, 0.043988045, 
-0.15503466, 0.099389814, 0.12811859, 0.052151848, 
-0.14769351, 0.11063906, 0.13537443, -0.18823801, 
-0.14421341, 0.16907093, 0.15391135, -0.0652518, 
-0.1504974, 0.13413242, 0.14887641, -0.22762999, 
-0.09124485, 0.24300447, -0.028310934, 0.0486565, 
-0.09153072, 0.22723107, 0.035120465, -0.017677303, 
-0.054192934, 0.23096834, 0.015687788, 0.0035267265, 
-0.05661913, 0.16501199, -0.0077040317, 0.09966074, 
0.123283945, -0.1358915, -0.056964464, 0.026512736, 
0.1232887, -0.17289513, -0.12809251, -0.049444538, 
0.112529226, -0.17851911, -0.13304985, -0.10957525, 
0.11384563, -0.20197608, -0.14769474, -0.014609474, 
};

const float MyModel_layer_0_bias[] = {
-0.0046602855, 0.1943591, 0.04001863, -0.18289609, -0.6381981, 0.013213126, -0.04704292, 0.08154935, };


const float MyModel_layer_2_weights[] = {
-0.25549296, 0.14220956, -0.07939456, 0.18851797, -0.07990604, -0.08565791, 0.25264964, -0.19013733, 
-0.23369637, 0.10456585, -0.10046617, 0.049308244, 0.14075273, 0.032988656, 0.25245032, -0.29928374, 
-0.103566244, 0.046217646, -0.022435619, 0.12679787, 0.19755659, 0.0148056615, 0.163398, -0.17559315, 
0.013596073, -0.026711922, -0.032406554, 0.078047566, 0.04488546, -0.021754678, 0.07418936, -0.115408584, 
0.17189193, -0.09475301, 0.031305157, -0.07280363, -0.020277979, 0.04187139, -0.048047353, 0.014305711, 
0.109718755, -0.14454427, -0.020812927, -0.07128029, -0.06585126, 0.056519948, -0.17904727, 0.24688186, 
0.057146676, -0.12190302, 0.10422103, -0.022996623, 0.033662908, 0.038304962, -0.19666564, 0.2551211, 
0.013156248, -0.11768694, 0.043223374, 0.0049818303, -0.1980726, 0.019629726, -0.324013, 0.24770235, 
0.17459403, -0.43007156, -0.29256597, 0.12136193, 0.1754909, 0.20013171, 0.4136448, -0.3045086, 
0.22446355, -0.4657008, -0.21811323, 0.1647656, 0.2963752, 0.13355984, 0.22223057, -0.2590525, 
0.12195373, -0.56820625, -0.29745236, 0.15101218, 0.21470895, 0.082524285, 0.054595314, -0.18010962, 
0.09184243, -0.43997818, -0.2582964, 0.13925388, 0.43996456, 0.076492384, 0.0962124, -0.029485362, 
0.043666206, -0.10566124, -0.35769114, -0.043295857, 0.11764415, -0.023384381, -0.20506121, 0.11390181, 
-0.040824473, 0.04051886, -0.24750587, -0.10149591, -0.06836504, -0.07404058, -0.19264472, 0.22746095, 
-0.22643834, -0.18012545, -0.36248177, -0.14795193, 0.088826865, -0.21427806, -0.24399745, 0.19293565, 
-0.2630536, -0.033770528, -0.4428584, -0.19563678, -0.03420097, -0.22566514, -0.21878384, 0.25830263, 
-0.29373828, 0.18896167, -0.27889386, 0.35309273, 0.15447913, 0.0014095119, 0.07896726, -0.17438607, 
-0.25156027, 0.22609943, -0.23492585, 0.16599964, -0.017400121, 0.051766116, 0.3068053, -0.4414798, 
-0.14532495, 0.11659118, -0.22909646, 0.090199776, 0.22007199, -0.11422135, 0.31780487, -0.46454352, 
0.06329732, -0.07902508, -0.13583562, 0.03905721, 0.07804576, -0.1480544, 0.13104372, -0.19996433, 
0.1561786, -0.26805654, -0.003501896, -0.17085917, 0.21913488, -0.22962724, -0.047823127, 0.028194878, 
0.14559837, -0.35134938, 0.06468459, -0.23207471, 0.08712379, -0.0878759, -0.043819055, 0.26264066, 
0.09558555, -0.35385916, 0.15974134, -0.25656214, 0.11611235, 0.09740782, -0.23368402, 0.35807732, 
0.0049588326, -0.3315155, 0.12695964, -0.057201043, 0.07453638, 0.18331878, -0.37926736, 0.4380823, 
0.28559345, -0.11848058, -0.17121533, -0.16646613, 0.011980525, -0.14747614, -0.13713191, 0.12343423, 
0.21768628, -0.11665625, -0.15948556, -0.19673671, -0.037887745, -0.19399667, -0.078244455, 0.09558071, 
0.14918871, -0.04452308, -0.1591583, -0.17238389, -0.09635951, -0.08009511, -0.09535847, 0.09016464, 
-0.020753782, -0.048347127, -0.20314725, 0.011990683, -0.0029348347, -0.13576873, -0.08611228, 0.067427225, 
-0.15506215, -0.031077808, -0.16141675, -0.0017962105, 0.08014756, -0.012927127, -0.029139444, 0.024980698, 
-0.20125966, 0.016614236, -0.1539579, -1.2487767e-06, -0.032584414, 0.034107532, 0.022543242, -0.11966803, 
-0.25271764, 0.05811885, -0.06180148, 0.15325725, 0.108406276, 0.070453756, 0.09282967, -0.13552421, 
-0.29269174, 0.05344632, -0.13372804, 0.09736823, 0.0049538105, 0.097947136, -0.0098584, -0.21032263, 
0.135726, 0.1938159, -0.02750966, 0.044182837, -0.0076982933, -0.111858934, -0.16571356, -0.13330369, 
0.19206943, 0.19783889, -0.013927178, 0.0630944, 0.051777825, -0.22383796, 0.016993755, 0.12281247, 
-0.08598011, 0.017151196, -0.0877292, 0.11171301, -0.031413663, 0.05740343, -0.07014459, 0.021235589, 
-0.03305378, 0.09541697, 0.0657415, 0.05837016, -0.0024710258, -0.12798446, 0.046827402, 0.07170449, 
-0.046376336, 0.06514945, -0.030995246, 0.05610543, -0.0023473708, -0.13435459, 0.021259252, 0.15542254, 
-0.10604211, 0.08474815, -0.12202956, -0.068257995, -0.121733285, 0.022266764, -0.017905265, -0.08582138, 
0.08498873, 0.1630369, -0.16973554, -0.08522954, -0.14289348, -0.06981193, -0.092225365, 0.048253708, 
-0.022064662, 0.12094278, -0.08939482, -0.078707755, 0.023192488, 0.26124007, 0.07455772, -0.15377933, 
0.042035453, -0.44239476, 0.0494662, -0.083810665, -0.115879685, -0.26912606, 0.40779045, -0.3203327, 
0.2425642, -0.53001595, 0.026538325, -0.13865808, 0.06649464, -0.2657165, 0.17564721, -0.26866442, 
0.25420597, -0.46320286, 0.050007254, -0.15642634, -0.19761577, -0.20564656, 0.029966814, -0.008758983, 
0.09662791, -0.29772013, 0.027574688, -0.08368378, -0.018158546, -0.15661068, -0.2537582, 0.10322897, 
-0.06312897, -0.079457454, -0.0050428207, -0.017559685, 0.12199754, 0.14707562, -0.2464756, 0.24329266, 
-0.23771311, 0.1423776, -0.049898297, 0.16085239, 0.05051187, 0.27443394, -0.21313964, 0.23034136, 
-0.28039712, 0.36366487, -0.0709713, 0.17874597, 0.02597007, 0.29218933, 0.006046427, 0.13024068, 
-0.1989791, 0.38489416, -0.0013303668, 0.23724116, 0.2412198, 0.22992106, 0.13460523, 0.019269865, 
-0.14516343, 0.18056668, 0.14371115, -0.041133814, -0.27856532, -0.115518354, -0.2942041, 0.32959703, 
-0.14833778, 0.18329924, 0.1445803, -0.11325475, 0.009744249, 0.09708764, -0.24398899, 0.40407798, 
-0.22119083, 0.16760191, -0.006638897, -0.04166366, -0.14371237, 0.16479902, -0.18248458, 0.12006036, 
-0.12706734, 0.13752568, -0.026325757, 0.059133206, 0.004277399, 0.06448943, -0.098072715, 0.03642659, 
0.06417757, 0.027096378, -0.17949925, 0.0040572034, 0.07692978, 0.14414008, 0.23705961, -0.13135631, 
0.17805292, -0.15984379, -0.18149859, 0.08098885, 0.11306503, 0.16234286, 0.1293389, -0.2265575, 
0.16921666, -0.23797162, -0.18767469, 0.08757733, 0.18917081, 0.037102442, 0.28648794, -0.2996744, 
0.120194435, -0.20649551, -0.15043618, 0.14652486, 0.23552908, -0.035242505, 0.38013813, -0.20511478, 
-0.742074, -0.26347217, 0.07451409, 0.009086685, 0.026684342, -0.1134913, 0.22234605, -0.15728913, 
-0.5201721, -0.24575461, 0.017791066, -0.015890649, 0.062916316, 0.0007149845, 0.08928209, -0.05619346, 
-0.5029686, -0.16262601, 0.12589031, 0.09048429, 0.030229954, -0.10964851, 0.16262648, -0.04946493, 
-0.23959129, -0.15226597, 0.17588978, -0.026137374, -0.103780255, -0.10449263, 0.07016423, -0.06495327, 
-0.40555236, -0.014778915, 0.25071356, 0.096299745, -0.23066187, 0.19622557, -0.061851174, 0.09682542, 
-0.5336808, 0.06442953, 0.21179533, -0.028314557, -0.2192479, -0.033770476, -0.087314025, 0.0020888017, 
-0.72793084, 0.056490313, 0.22317784, -0.052664578, -0.08652647, -0.0072713615, -0.1855805, -0.0567127, 
-0.8081133, 0.13053341, 0.15833977, -0.055273946, -0.3771782, 0.07396246, -0.12598354, 0.11354561, 
-0.027690195, 0.16059294, -0.020091344, 0.21802257, 0.024518939, 0.23476143, -0.1488253, 0.04005796, 
-0.06971854, 0.19933407, -0.08758718, 0.15361904, 0.092360064, 0.03638447, -0.07005928, -0.048834622, 
-0.16390727, 0.19395122, 0.03496278, 0.04330661, 0.08134037, -0.05151204, -0.006414433, -0.17531015, 
-0.16216245, 0.15201809, 0.016961196, -0.09002059, 0.13928664, -0.07741267, 0.13708022, -0.113285966, 
-0.06644832, -0.053826544, 0.044813346, -0.28173906, 0.08740801, -0.28969446, 0.11503714, -0.058410566, 
0.0871797, -0.13647686, 0.07959743, -0.346639, -0.055864938, -0.038986, 0.05568022, -0.0080866385, 
-0.005997008, -0.23731169, 0.0673661, -0.22646545, 0.046118055, -0.03644485, -0.0017658949, 0.18722285, 
-0.15084292, -0.19433329, 0.09179359, -0.08189359, -0.011418789, -0.059119698, -0.06286335, 0.12260103, 
-0.14685106, -0.040965118, -0.07366572, 0.09695414, -0.13922188, 0.17153816, -0.22610365, 0.26656798, 
-0.15900593, 0.013291638, -0.02706679, 0.18607357, -0.07390669, 0.14375266, -0.27555698, 0.31396678, 
-0.17994507, 0.07032745, -0.10817168, 0.09798668, -0.068265125, 0.17200586, -0.19999336, 0.20318288, 
-0.009577176, 0.10491234, -0.15308343, 0.08303105, -0.031775597, 0.052705508, -0.14823823, 0.077013575, 
0.2127494, 0.023643794, -0.19126932, -0.0038745624, 0.07566766, -0.13259742, 0.06284624, -0.19315906, 
0.1092946, -0.057078037, -0.08327001, -0.092078336, 0.009553603, -0.17511143, 0.1972112, -0.27876064, 
0.18783174, -0.09926978, -0.189207, -0.17242146, -0.014121312, -0.112495385, 0.21646556, -0.34747952, 
0.048150476, -0.10821821, -0.16381894, -0.21556841, 0.008475187, -0.24384265, 0.22219278, -0.26501927, 
0.03294561, -0.15572643, -0.04763569, -0.06582467, 0.024754083, 0.2384205, 0.13018371, -0.14234507, 
0.039638005, -0.13440402, -0.14259109, 0.15859067, -0.053242423, 0.32192844, 0.07751203, -0.16215178, 
0.020711435, -0.019157037, -0.07436276, -0.012427329, -0.0005859917, 0.22286843, 0.2644333, -0.1774974, 
0.11684493, -0.021330541, -0.04366566, 0.060942143, 0.028707359, -0.0021847403, 0.25627762, -0.21417083, 
-0.010345612, -0.07981732, 0.11072106, 0.027742673, 0.19708133, -0.09355561, 0.053351637, 0.08718855, 
-0.069762826, -0.066486925, 0.17907795, -0.11919934, 0.27402148, -0.3244975, -0.09154673, 0.05862704, 
-0.12006519, -0.15333769, 0.30122846, -0.051140066, 0.25178298, -0.24792875, -0.25669742, 0.20829777, 
-0.13698608, -0.15909149, 0.22213146, -0.20535733, 0.25470135, -0.19416915, -0.3531123, 0.2024254, 
0.24316527, -0.3511153, 0.09337739, -0.2740416, 0.35728535, -0.16687766, -0.1435307, 0.16448928, 
0.20313574, -0.3642061, 0.046653476, -0.15720776, 0.23930234, -0.09947447, -0.15228447, 0.1888495, 
0.10149353, -0.16648641, 0.040908154, -0.09022528, -0.032221816, -0.06754345, -0.18952282, 0.052620392, 
-0.09801905, -0.010009223, 0.0316909, -0.022827633, 0.06888987, -0.011770458, -0.101887524, 0.003248589, 
-0.26768067, 0.24696946, -0.04451092, 0.1368697, -0.15114103, -0.023403667, 0.030469937, -0.0015333918, 
-0.42300743, 0.26512498, -0.02154741, 0.17288293, -0.19352677, 0.082328804, 0.12177765, -0.13200201, 
-0.35268828, 0.25950414, -0.09066494, 0.18142839, -0.15390252, 0.068733625, 0.23387684, -0.14369062, 
-0.025586946, 0.20179099, 0.006258226, -0.025714945, -0.23463011, 0.14825533, 0.18644178, -0.17345545, 
0.19296217, 0.01907324, 0.20297983, -0.36760598, -0.37514955, 0.15381916, -0.36404517, -0.2100296, 
-0.09111304, -0.119390614, 0.038853187, -0.28769523, -0.6369554, 0.21458171, 0.031034946, -0.11174752, 
-0.21355948, -0.20754106, -0.17485364, -0.53630245, -0.5196644, -0.07174415, 0.36729595, 0.07447128, 
0.04857859, -0.06286971, -0.10796777, 0.043532472, -0.072744206, -0.13380206, 0.58769023, -0.078573026, 
-0.00568239, -0.18309842, -0.20994312, -0.40791145, -0.092550404, 0.047542598, -0.23912925, -0.031502254, 
-0.12139689, -0.14508823, -0.26672474, -0.2404297, -0.04197684, 0.028638499, -0.23272891, 0.1529493, 
0.011513167, -0.0566771, -0.09416368, -0.3044118, -0.042644266, 0.09346201, -0.4463562, 0.3240742, 
0.14445752, -0.12574571, -0.008072999, -0.6515942, -0.4231524, 0.09583495, -0.09830903, 0.3360773, 
0.09195384, -0.64161766, 0.1307261, -0.24285455, 0.05626417, -0.21204494, -0.09270181, 0.15116611, 
-0.012731799, -0.2916712, 0.21964373, -0.16420613, 0.3265632, -0.20141114, -0.25285217, 0.28280407, 
-0.23131669, 0.13899304, 0.1456721, -0.10663162, 0.10921794, -0.21474655, -0.2718065, 0.037472166, 
-0.2608259, 0.24208455, 0.12359877, -0.22037108, 0.045135543, -0.0513006, 0.004545604, 0.1051609, 
-0.17953525, 0.4156073, -0.15281896, 0.026535572, -0.13843663, 0.042507127, 0.21934892, -0.14451395, 
0.08856893, 0.090576194, -0.16231711, 0.2136164, -0.096860334, 0.01682945, 0.26620203, -0.10224817, 
0.25573203, -0.36436617, -0.03377439, 0.10848989, -0.018343624, 0.21481718, 0.12581304, -0.19923636, 
0.2970816, -0.663161, -0.074306, 0.21904425, 0.25002638, 0.33285525, 0.02864744, -0.18219264, 
-0.06555902, 0.23032737, -0.041720245, 0.2364065, -0.20608942, 0.21026559, 0.031501252, -0.22711685, 
-0.11016876, 0.31158, -0.15676068, 0.25726217, -0.16168652, 0.019245032, 0.010746635, -0.18200009, 
-0.041411076, 0.3077841, 0.055600315, 0.2464625, -0.12446188, -0.00039302075, 0.018182958, -0.18271333, 
0.0057929894, 0.09879526, -0.017096968, 0.15142627, 0.023121689, -0.091908626, 0.03821384, -0.0715648, 
0.03400621, -0.15919527, -0.03578286, -0.12760063, -0.015797157, -0.079778716, 0.10138451, 0.08343639, 
0.11758936, -0.19516715, 0.06604931, -0.20698643, 0.1934298, -0.09240919, -0.009273244, 0.08475792, 
0.12677404, -0.34774783, 0.0012294531, -0.2522044, 0.18945634, -0.12873088, -0.16614094, 0.28180623, 
0.16836777, -0.3551317, 0.04214824, -0.3297648, 0.04294657, 0.09554029, -0.10072559, 0.26473504, 
0.04473162, -0.31679487, -0.10682895, -0.20277788, 0.045145042, 0.094651096, -0.0077426257, 0.036649697, 
0.121944025, -0.20289926, -0.09779005, -0.32147294, -0.03450208, 0.091767125, -0.03363978, 0.09950197, 
0.20563726, -0.22891358, -0.045585588, -0.17566636, 0.021577736, 0.12666216, -0.14214225, 0.16793486, 
0.10695552, -0.13074315, -0.018934747, -0.01930448, -0.2622309, 0.13595739, -0.065563634, -0.03012644, 
0.11655845, -0.16886903, 0.07921086, 0.18637973, -0.3055168, 0.061731156, 0.049500145, 0.014961715, 
-0.00078228564, -0.12275967, 0.120199226, 0.25406343, -0.39622813, 0.013365618, 0.123398125, -0.13029417, 
-0.12173519, -0.04343138, 0.14200622, 0.25673726, -0.5165504, -0.13556722, 0.2202003, -0.040367454, 
-0.16649173, 0.00093423337, 0.11816606, 0.18926415, -0.3269476, -0.14348508, 0.1924923, -0.049457263, 
};

const float MyModel_layer_2_bias[] = {
0.1221282, 0.048702218, 0.012297347, 0.669404, -0.084483765, -0.10954083, -0.32610214, 0.4125579, 0.33047935, 0.24035749, 0.30726102, -0.009561557, -0.13662164, 0.09885389, 0.07470172, -0.13616097, };


const float MyModel_layer_4_weights[] = {
0.050029583, 0.118969515, -0.32715994, 0.18065616, -0.0019845236, 0.21498424, -0.083794974, -0.27109212, -1.0679265, 0.11492801, 0.39403546, 0.18818724, 0.15305665, -0.13138492, 0.18505532, -0.18857814, 
-0.18000157, -0.24470446, -0.42493233, 0.14932154, -0.007992756, 0.150488, -0.26971936, -0.1122587, -0.033481367, 0.038318407, -0.040149555, -0.17493755, -0.41932306, -0.013638665, -0.34046206, 0.20762162, 
-0.068611756, 0.31580627, 0.16054258, -0.2953161, 0.030411555, 0.019008236, -0.09112878, -0.09342468, 0.2532316, 7.874695e-05, -0.12763627, -0.06462528, -0.35209343, -0.08924628, -0.1882256, 0.03804488, 
-0.0555586, 0.020735202, -0.22091338, -0.11788585, -0.14045359, -0.15254262, -0.17051321, 0.23920953, 0.2872632, -0.7729107, -0.099254005, 0.043104045, 0.2971124, -0.3167675, -0.011155576, -0.21374625, 
0.021794844, -0.00070176, 0.06682602, 0.08158858, -0.059416596, 0.04517249, 0.023504939, 0.25559962, -0.19154686, -0.124727055, 0.0653021, -0.11180961, 0.11119734, 0.20195913, 0.16789784, -0.022064656, 
-0.20584635, 0.06550701, -0.07530248, 0.22145468, 0.018478042, 0.09192561, 0.037076414, 0.014443553, -0.09324195, 0.13433558, -0.08928511, -0.032394607, 0.0397214, 0.12657848, 0.04202953, 0.047474734, 
-0.057118665, -0.62164354, 0.06884036, -0.13185786, -0.2621593, -0.034832418, 0.12041682, -0.07256863, 0.0024481846, 0.020555804, -0.05124597, 0.060442705, -0.1770266, -0.07525279, 0.091570884, 0.09865693, 
0.051954426, -0.40851158, -0.06563197, -0.5877249, -0.3354226, 0.18014131, -0.060209494, -0.22127344, 0.17671077, 0.028666846, -0.08381316, -0.22749856, -0.5526986, 0.22146808, -0.009907171, 0.24361949, 
0.13261154, 0.14818265, -0.049951304, 0.1288108, -0.23492783, -0.035106473, -0.034003753, -0.03516921, -0.070568, 0.13756508, 0.09182836, 0.05012245, 0.067977704, 0.06858181, 0.12649891, -0.015104464, 
-0.12513252, 0.23847589, 0.11209394, 0.001031244, -0.057328727, -0.083977476, -0.08004074, 0.049708962, -0.10377056, 0.013814875, -0.07290525, -0.099622644, 0.08635675, 0.07572008, 0.16673045, -0.14191167, 
-0.20361419, 0.10917975, 0.21551423, -0.016729359, -0.045883328, 0.09133801, -0.122518525, 0.30818686, -0.20484318, 0.09065207, 0.12535542, 0.008592969, -0.13269001, 0.037056684, 0.039671138, -0.088197194, 
0.06501598, 0.062647186, 0.23591001, -0.020120531, -0.4120867, 0.21139462, 0.16085197, 0.0643555, -0.106014945, -0.058109783, -0.0028724128, 0.07397074, -0.06906982, -0.0132416915, 0.04822568, -0.056038383, 
0.2570488, -0.052829176, -0.1653081, -0.02932683, -0.10244188, 0.16178037, -0.015590327, -0.26694232, -0.015147694, -0.062364396, 0.064901985, 0.030716898, 0.15971258, -0.06445126, -0.04826599, -0.11758486, 
0.13390677, -0.16520399, -0.14010224, 0.14150062, 0.08017286, -0.041776422, -0.11089814, 0.003839773, -0.16529118, -0.08060303, 0.18687642, 0.064181924, 0.120718285, -0.032002527, 0.08005072, -0.04036271, 
0.018422736, 0.05878704, -0.3098422, 0.31722108, -0.08999843, -0.17063665, -0.049418498, -0.1211771, -0.39402452, -0.24158005, 0.18104714, -0.015667904, 0.09487778, -0.039706286, -0.036798086, 0.051414408, 
0.020180402, 0.09236809, -0.5965564, 0.119180374, -0.08837874, -0.14281826, -0.20392993, -0.06683045, 0.027802324, -0.07203516, -0.18537632, -0.04904771, -0.1654554, -0.2984001, -0.23422891, -0.16680877, 
0.122224435, -0.0019469662, 0.050592378, -0.15272209, 0.16637751, -0.010084922, 0.10455604, -0.089148596, 0.107512735, 0.048711028, -0.0669168, 0.1673019, 0.038998988, -0.17114262, -0.010513923, -0.24125727, 
0.1775276, 0.09619504, 0.006926483, -0.19522165, -0.11141082, 0.07052792, 0.21306816, -0.10833533, 0.122070454, -0.0889205, -0.17288178, 0.3438933, -0.13987498, 0.024638038, 0.04153485, 0.09570775, 
-0.069028944, 0.18964058, 0.09546953, -0.092570595, -0.23188496, 0.12794822, 0.23152742, 0.08288519, 0.118840046, -0.1579489, 0.08389045, 0.12549314, -0.1443972, 0.21684714, -0.015993994, 0.07510719, 
0.06735406, 0.04723008, -0.07121437, 0.27506253, -0.15414536, -0.056902044, 0.18339284, -0.1810889, 0.07024262, 0.017902138, -0.086416475, 0.12550136, 0.061336737, -0.06938516, -0.1444604, 0.17434017, 
-0.12506536, -0.07705269, 0.02093422, 0.110820085, -0.17806347, 0.03410366, 0.12323215, 0.059883185, -0.07526058, -0.034713555, -0.075986296, -0.09584992, 0.069697775, -0.15799002, -0.19310012, 0.0002917319, 
-0.09047233, -0.45742676, -0.021987295, 0.16828759, 0.0661115, -0.05719941, 0.06436218, -0.18419875, 0.05718523, 0.010639734, -0.13129643, -0.11506133, 0.100020096, -0.036623254, -0.13514161, 0.28398654, 
-0.005351085, -0.33988857, -0.2851256, -0.1369337, -0.10772545, -0.35739157, -0.063015126, -0.028408874, -0.045254037, 0.23605645, -0.19911593, -0.09061336, 0.0352708, -0.28520814, 0.21436755, 0.31944624, 
0.11133512, -0.2795329, -0.17756596, -0.2500071, -0.027479213, -0.45000458, 0.080845706, 0.05523611, 0.15813753, 0.052600287, -0.41297248, 0.052526113, -0.033943523, 0.14051558, 0.058015298, 0.18083175, 
0.013215898, 0.12704152, -0.0013001157, 0.040156778, 0.0189299, 0.1002977, 0.024936855, -0.100287005, -0.037729964, -0.13608615, 0.08456889, -0.047346238, 0.21471277, 0.060103916, 0.04961558, 0.053201664, 
-0.058848128, 0.115437835, 0.028230032, -0.06567095, 0.0074281334, -0.16032226, 0.13248354, 0.09818971, -0.20668921, 0.051261242, 0.14663784, -0.088661976, 0.12519139, -0.0398609, -0.015765592, 0.12657934, 
-0.07029781, 0.2851109, 0.0018556477, 0.03377749, -0.06540234, 0.047410723, -0.088994704, 0.117022485, 0.08731702, -0.29581672, -0.20708962, -0.15359968, 0.13894562, 0.13685353, 0.18406734, -0.10401047, 
-0.042806264, -0.3049485, -0.19017078, -0.014946404, 0.1362039, -0.28520274, 0.06111993, -0.27848092, 0.2131456, 0.09831651, -0.0070336806, -0.16909505, -0.1563766, 0.090130664, -0.08787305, -0.021497086, 
0.4277794, 0.06510404, -0.17858079, -0.2122825, 0.15121864, 0.34550703, -0.014445371, -0.26550135, -0.031041218, 0.12923157, 0.29651716, -0.014203539, 0.0469667, -0.12527262, 0.19646287, -0.009928545, 
-0.16901974, 0.0059031053, 0.09065046, 0.05140578, 0.07270836, -0.01570685, -0.12785114, 0.009658961, -0.025726443, -0.27868447, -0.17232828, -0.028257996, 0.0805546, -0.15882939, -0.12100435, 0.5569151, 
-0.1298517, -0.09093591, 0.20183681, -0.3522404, -0.13035424, -0.0996391, -0.2437384, 0.1387722, -0.117442876, -0.018998198, -0.07100594, 0.06192548, 0.07400693, -0.44816604, -0.06407934, -0.15500923, 
0.034066666, 0.12740295, 0.32243884, -0.10147477, -0.08279996, 0.010519742, 0.20481008, 0.06265896, 0.19171555, 0.3716923, -0.025685282, 0.24001688, 0.3102396, -0.29012132, -0.05345596, 0.28162923, 
0.011515001, 0.14303039, -0.01827321, 0.10949846, 0.025990786, 0.0332203, -0.01577602, -0.0043695555, -0.015197879, 0.106797785, 0.082700156, 0.0484799, -0.029852614, 0.004021069, -0.012995595, -0.06512398, 
0.019205391, 0.12936881, -0.12553988, 0.055180214, -0.017889934, -0.037021976, -0.055572487, -0.15607569, 0.07389847, 0.018311681, 0.032553326, 0.05563398, 0.013574653, 0.03742252, 0.022549482, 0.1530913, 
0.18559977, -0.09831468, -0.28058967, -0.26891464, -0.017706065, -0.14875868, -0.0045659, -0.15457496, 0.0996776, -0.08843468, 0.20062117, -0.12159573, -0.026346913, -0.18724734, -0.089131765, 0.04806183, 
-0.0046455367, 0.015844027, 0.16254087, 0.22048041, -0.17104115, -0.0200696, 0.3543376, 0.23230971, -0.3238364, -0.25543687, -0.027265063, -0.035352577, -0.12671591, -0.22047375, -0.014874251, -0.2078444, 
-0.45563242, 0.33872607, 0.26934594, 0.45273876, -0.00696628, 0.0035493113, -0.25370663, 0.027614657, -0.4213908, 0.111720726, -0.41233873, -0.10852669, -0.24806982, 0.016815832, -0.5075205, 0.30615255, 
0.02723994, 0.35016608, -0.10662715, -0.3640836, -0.023353556, -0.36964357, -0.31401166, -0.16656087, 0.1598845, 0.32869285, 0.06653111, -0.07192323, -0.10477614, 0.01711039, 0.101257026, -0.23586637, 
0.25025105, -0.15184504, -0.28015116, -0.40368405, -0.06125515, 0.25232166, 0.0057384996, -0.14973858, 0.2013776, -0.1486336, 0.1198427, -0.2953049, 0.28422773, -0.08006203, 0.14536114, 0.07536026, 
-0.1525639, -0.06853228, 0.16213481, 0.21207604, -0.09477341, -0.006615195, 0.13959807, 0.16525021, 0.098444946, -0.123063765, 0.0015616125, -0.062040918, -0.10571638, -0.03761502, 0.01891249, 0.17547219, 
0.06477998, 0.061457165, -0.11683022, -0.08292232, -0.109035276, 0.004599123, 0.26096618, -0.14544763, -0.06622287, 0.10368882, 0.044184938, 0.10342046, 0.010090128, -0.030611198, -0.013266703, -0.16195771, 
0.09856426, -0.06669881, -0.16634637, -0.12702927, -0.05821516, 0.17931627, 0.09099699, -0.108889125, 0.095751025, -0.16692692, -0.29594082, 0.16752885, -0.14201026, -0.059274044, -0.08526608, 0.002450966, 
-0.24810806, -0.08442528, -0.013076713, -0.10929386, -0.07277961, -0.022834426, -0.018929616, -0.12559453, 0.11129033, 0.19526772, -0.15460359, 0.17689532, 0.109269984, -0.024690084, -0.18342568, 0.13776205, 
0.27373227, 0.035144705, -0.16256496, -0.2055906, 0.00839128, 0.1478175, -0.04686688, -0.12507187, 0.019172775, 0.28502098, 0.080680445, 0.14339541, -0.13622843, -0.072865754, 0.018418074, 0.038460903, 
0.033982635, -0.17741643, -0.10826689, 0.16412273, -0.06973528, 0.030035773, 0.23446956, 0.3353719, -0.046780128, -0.32770395, -0.091640726, -0.16647175, 0.53043276, -0.067063786, -0.101743326, -0.02740318, 
-0.35106885, -0.2216685, 0.070611216, 0.039112803, -0.055865586, -0.0072927577, -0.020369643, 0.10570852, -0.04522648, 0.27067325, -0.06795645, 0.0098723415, -0.20118052, 0.1268463, -0.016766507, 0.1746512, 
0.20678346, -0.09805588, -0.17073485, -0.12700114, 0.08573118, 0.30639198, 0.100903586, -0.17439792, 0.04758124, 0.2373591, 0.25590798, 0.07203462, -0.6718773, 0.08710982, 0.117350176, 0.05389677, 
-0.12370756, -0.45509708, 0.06461484, 0.033933762, 0.011332386, 0.39944804, -0.07155167, -0.17679846, 0.09981666, -0.12569878, 0.19261281, -0.101436354, 0.22349142, 0.15546733, 0.015134013, 0.21721338, 
-0.01179142, -0.24682383, -0.22152013, 0.024457362, -0.11072112, -0.037905436, -0.45587036, 0.05028122, 0.24883832, -0.17670825, 0.23836441, -0.12046554, 0.020553824, -0.0137151955, -0.3976241, -0.1414752, 
-0.13308051, -0.022129185, 0.34373423, 0.15929912, 0.14687537, -0.08411874, -0.11609306, -0.003745372, 0.06665649, -0.058198527, -0.07127429, -0.07812115, 0.1911242, 0.08199523, -0.18798403, -0.14781162, 
0.041566588, 0.10237107, 0.08041633, 0.077846274, 0.11433636, -0.04259166, 0.002004181, -0.24489959, -0.12117783, 0.04220518, 0.0014812006, -0.016477862, 0.025411712, -0.041583505, -0.02925539, -0.008702642, 
0.28100038, -0.20228127, -0.14637364, -0.15351449, 0.051357087, 0.026284775, 0.06346342, -0.14207551, -0.1308707, 0.01921614, 0.08330624, -0.0023625256, -0.09222958, -0.04832654, 0.087376654, -0.21603371, 
0.07734574, -0.0022675137, -0.014089333, 0.11967096, -0.029550228, 0.1910624, -0.06221696, -0.12710708, -0.07425182, -0.024895992, -0.09972154, 0.17245601, -0.13215964, 0.24387148, -0.16886522, 0.2501735, 
0.11786202, -0.010821175, -0.051801383, -0.29158717, 0.016547909, 0.08120771, -0.010659392, -0.16698465, -0.07669556, 0.13119335, 0.21554263, 0.29767236, -0.25082445, 0.032997724, 0.028845761, -0.09431862, 
0.24813233, -0.07482956, -0.04114803, -0.13373274, -0.17286912, 0.13961074, 0.09465978, -0.031113593, -0.12687252, -0.2474785, 0.020900011, 0.3330885, -0.18159543, -0.011549875, 0.14824703, -0.13864155, 
-0.21166715, -0.10193335, -5.028235e-06, 0.24105401, -0.3373568, -0.15163314, -0.3573362, 0.21814784, -0.06022062, -0.5475639, -0.26137787, 0.051370043, 0.12008497, -0.14426647, -0.011810046, 0.016245225, 
0.12759624, -0.077395126, -0.16637734, 0.19130349, 0.205442, -0.02823662, -0.029065823, 0.0490881, -0.07656013, 0.022473585, 0.05155, -0.112138554, -0.019457482, -0.21374723, 0.03440756, -0.04450781, 
0.004929041, -0.06926159, 0.078928575, 0.21535061, 0.0029248823, -0.22464561, 0.04516689, -0.02602711, -0.14434513, -0.034787886, -0.08363376, -0.20399347, 0.09130784, -0.3536055, 0.14071749, -0.0070977546, 
0.04628694, -0.13730666, -0.16797979, 0.24219014, 0.048767507, -0.33936518, 0.00018052469, -0.07364101, 0.06695492, -0.08379538, 0.012337403, -0.004985177, -0.058133207, -0.24760884, 0.15208489, -0.030417372, 
-0.10298928, -0.19074342, -0.22091648, 0.20650737, 0.05038648, -0.2762017, -0.20294736, 0.013791351, -0.09649688, -0.024505302, 0.21952648, -0.014820238, 0.049754817, -0.062078927, 0.22018579, -0.018944744, 
-0.041499462, 0.017052066, 0.22615738, 0.0455956, -0.06937368, -0.09241086, -0.42076272, -0.10844661, -0.021337705, -0.073409066, 0.06915398, -0.061930563, 0.1554849, 0.037446424, -0.14249168, -0.052251447, 
-0.009341102, -0.0017171763, -0.24049412, -0.043940663, 0.060743164, -0.178781, -0.19104342, -0.25150698, 0.0201575, 0.033671565, 0.1634431, 0.07167352, -0.22826761, -0.16045241, -0.48153114, 0.006234916, 
-0.062061645, -0.60202694, -0.78424156, -0.25606203, -0.07034006, -0.11484382, -0.025389334, -0.15529263, -0.09751733, 0.09952067, -0.025646195, 0.013202454, 0.110225834, -0.12962542, -0.28355965, -0.07712846, 
-0.07140621, -0.45520884, -0.44684383, -0.2731606, -0.07765744, -0.10487402, -0.04251933, -0.15962344, -0.24697785, -0.03956542, -0.08196406, 0.16736689, -0.045595843, -0.0017779701, -0.21215351, 0.30239168, 
0.19950758, 0.1565151, 0.030510245, -0.334911, -0.117338836, 0.24725965, 0.0045587905, -0.19202502, -0.08068756, 0.06972613, 0.056158923, 0.16864324, -0.20975246, -0.15138213, 0.108323894, 0.44394162, 
0.11758024, 0.015764708, 0.0045411345, -0.16409722, -0.09277762, 0.07781563, 0.02100636, -0.12257595, 0.13033266, 0.07464485, 0.10699374, 0.052947305, -0.050710842, -0.27432892, 0.15414281, 0.13340692, 
0.007349651, -0.048122987, -0.02545543, -0.08039656, -0.0065355175, -0.027272014, -0.054393735, 0.085284665, -0.039943736, 0.039312683, 0.084679134, 0.006076995, 0.12670697, -0.15758066, 0.1374586, 0.1507037, 
-0.08477384, -0.12243706, 0.061659656, 0.20989774, -0.08897277, -0.04574756, -0.08359746, -0.1022864, -0.16408102, 0.07692404, 0.078597195, -0.023325697, 0.024250302, -0.3182239, 0.093201235, -0.14127652, 
-0.08410041, -0.13948528, 0.10588855, 0.18462306, 0.023838343, 0.017282227, 0.028374285, -0.010451749, -0.16467601, -0.09525405, 0.05007896, -0.010064883, 0.030358555, -0.15154327, 0.052183505, -0.12001789, 
-0.14652726, 0.06489264, 0.1903885, 0.046801616, 0.14746888, 0.018792888, -0.031699084, -0.0028636004, -0.18238403, -0.10743303, 0.21544556, 0.028680611, 0.043430146, -0.10171524, -0.00827536, 0.06586461, 
-0.19296077, 0.19714662, 0.065195, -0.111350566, -0.02066864, -0.08178586, -0.06888539, -0.09088357, -0.26941863, -0.12470248, 0.04440174, -0.26159173, 0.13619821, -0.26084894, -0.106934786, -0.1372954, 
-0.17064154, -0.0630148, -0.47546592, 0.3175024, -0.07738983, -0.5303408, -0.45723268, 0.34376514, 0.18222535, -0.19149207, -0.0010764934, -0.46193677, -0.47218516, -0.91360664, -0.47686857, -0.6783091, 
-0.12748176, -0.06654254, 0.10972925, -0.0064001125, 0.18965237, 0.15364757, -0.47657248, 0.112331875, 0.037334092, 0.0763887, -0.12078185, 0.043281704, -0.44356614, -0.10294358, -0.0404626, -0.2010046, 
0.054649435, -0.52539736, -0.65063363, 0.02952195, 0.008547137, -0.22243735, -0.7023772, -0.0042999866, -0.07901204, 0.054581985, 0.05331744, -0.15553702, -0.44104123, -0.067987695, -0.37486082, 0.082828835, 
-0.053564887, -0.63689244, -1.318837, -0.046884302, 0.055917893, -0.31423974, -1.3183917, 0.07742308, 0.001588739, -0.11471958, 0.017163632, -0.25223917, -0.0070600533, -0.08641431, -0.593191, 0.18395205, 
-0.080494836, -0.22706346, -1.3884304, 0.0787062, -0.056303248, -0.951518, -1.573621, 0.08689602, 0.034627732, -0.074488945, 0.032290526, -0.33895275, -0.13010637, -0.00016079548, -0.47301355, -0.04095278, 
-0.043775655, -0.30340534, -0.7226555, 0.06159508, -0.16006221, -0.19991966, -1.4916054, 0.1622292, 0.059364803, -0.16693509, 3.819994e-05, -0.2525628, -0.054871343, -0.054632697, -0.40330547, -0.40119588, 
0.1096261, -0.27216068, -0.07610136, 0.08291578, -0.07443055, -0.18251401, -0.64640945, 0.024261646, -0.057338744, -0.09870048, -0.0483675, -0.11744896, -0.027861513, -0.113103315, -0.32130927, -0.27604905, 
0.029607425, 0.32891178, 0.0017404743, 0.13251212, 0.038918637, -0.25814238, -0.18916428, 0.017843535, -0.1644299, -0.047102537, -0.101154245, -0.045497168, 0.1740829, -0.14605068, -0.2313457, 0.6689944, 
-0.011597554, 0.28245336, 0.30974483, 0.2589432, 0.023972766, 0.051619772, -0.21042255, 0.020510018, -0.19737077, -0.027117966, -0.106830575, -0.16668515, 0.010037551, 0.04304819, -0.026253577, 0.12672783, 
-0.12471691, 0.19667068, 0.19642484, -0.013922141, -0.26273173, -0.12366376, 0.17157811, 0.11376031, 0.07597183, 0.054095875, -0.07648763, 0.16457759, -0.24386477, 0.14671956, -0.1483599, -0.2836871, 
0.10060117, 0.08905038, -0.11930931, 0.0928422, 0.025492366, 0.0501336, 0.16050003, 0.06823576, 0.07348893, 0.23350069, -0.4941122, -0.02445, 0.05602822, -0.16017443, -0.31549835, 0.072241426, 
0.13306962, -0.77516913, -0.021079931, 0.19080552, -0.13828196, 0.020855753, 0.005402069, -0.11402328, 0.12559432, 0.19358373, -0.41441977, -0.120429814, 0.3144446, -0.07053195, -0.02115511, 0.01671089, 
0.239554, -0.04679389, -0.18847951, -0.037339125, -0.04720389, -0.22392184, 0.12628737, -0.68564326, 0.06727887, 0.051159784, -0.07935502, -0.4447734, -0.07432188, 0.11609926, 0.08087153, -0.11286704, 
0.067699045, -0.12728672, -0.2307344, -0.19781828, -0.0044973623, -0.11168392, 0.08462994, -0.33640933, 0.0651315, -0.03883488, 0.089877635, -0.00744518, 0.060519192, -0.21267247, 0.011833849, 0.013765745, 
-0.21995685, 0.0023014303, 0.06481586, -0.11031231, -0.0037753882, -0.18993421, 0.038123768, 0.18510313, -0.05874027, -0.019278005, -0.07012581, 0.38405532, -0.08981325, -0.29062808, 0.034141865, -0.03891434, 
-0.3591055, 0.071526356, 0.077672474, 0.14169127, -0.021687688, -0.21960145, -0.33223206, 0.41419896, -0.18677786, 0.032430507, 0.072415754, -0.2920974, 0.06137625, -0.7323735, 0.0070157363, -0.010123347, 
-0.3000961, -0.006935666, -0.4286646, 0.27720308, 0.21606694, -0.48191392, -1.2248634, 0.47735044, -0.18871245, -0.4087697, 0.13690986, -0.32198057, -0.057886526, -0.5304541, 0.017313162, -0.054526325, 
-0.17102936, -0.025285421, 0.19609374, -0.107099675, 0.12752374, 0.09520257, 0.21759422, 0.009552964, -0.0062457984, 0.030557746, 0.06329092, -0.029250333, -0.013440989, -0.10526926, 0.1927284, 0.011396506, 
-0.09030583, 0.09323285, 0.22142231, 0.033103973, -0.005731372, 0.09244018, 0.16842985, 0.018344535, -0.09865506, 0.118983276, 0.17278682, -0.111170225, -0.2103687, -0.19843033, -0.041511726, -0.061221655, 
-0.15094681, -0.17079861, 0.07475812, 0.10288978, -0.07698463, 0.16076066, -0.14275432, 0.13734858, -0.11405022, -0.18764232, 0.28269085, -0.14417927, -0.15264697, 0.029609675, -0.008115626, 0.03872291, 
0.08598562, 0.033430204, -0.29028022, -0.050550118, -0.22279769, 0.07225587, -0.29761916, 0.21993633, 0.049795184, -0.043127842, -0.1581495, -0.23729019, -0.123216994, 0.07583462, -0.1044411, 0.092513435, 
0.1943557, -0.7576764, -0.16384077, -0.38855556, -0.04480636, -0.2532044, -0.42681915, 0.25909707, -0.092311904, -0.13550118, -0.69850856, -0.17685886, 0.15215278, -0.0019298745, -0.26696023, -0.015651893, 
0.2757787, -0.31876677, 0.09967053, -0.09377622, -0.30090007, -0.29783872, -0.035937835, -0.12896946, 0.27148136, -0.0073449714, -0.26541424, 0.0074601746, 0.41832903, 0.14086147, -0.06765845, 0.063616365, 
0.15867959, 0.051786866, 0.04039954, 0.11496749, -0.03883716, -0.07483984, 0.020534152, -0.479159, -0.060204085, 0.061652575, 0.11335237, 0.048428986, 0.0043989024, -0.0668022, -0.08246595, 0.11909606, 
0.07314769, 0.16028477, 0.03539949, 0.07418689, 0.20515701, -0.16317159, 0.056688685, -0.24709563, 0.022365363, 0.17627104, 0.16005313, -0.12589853, -0.16578746, -0.36107454, 0.1138432, 0.093493275, 
-0.13636847, -0.5183542, -0.73926, -0.5122321, -0.24719393, -0.3671311, -0.3220141, 0.052738488, 0.110157184, -0.070425995, 0.13779856, -0.03233023, 0.15304568, -0.23570044, -0.08076835, -0.3215424, 
0.19484851, -0.35294327, -0.5284245, -0.44844484, -0.25613725, -0.03849674, -0.26462302, -0.095348656, -0.0073609687, 0.00031201955, 0.21307957, 0.12559798, -0.0050895754, -0.19885404, -0.12341618, -0.28183186, 
0.16825895, -0.3064381, -0.57072955, -0.22511718, -0.033698417, 0.22298379, -0.44859305, 0.05433998, -0.09239192, 0.08615999, 0.12899739, -0.008959756, 0.08366104, -0.122404926, 0.100768976, -0.271205, 
0.10499358, -0.36728355, -0.2869311, 0.09171334, -0.15736471, 0.20441568, -0.23068929, -0.047013305, -0.04809973, 0.009140504, 0.092177846, 0.0656601, 0.13407743, -0.056896646, 0.1132015, -0.11316054, 
0.053422768, 0.07397206, -0.16942374, 0.21225448, -0.094228484, 0.08785233, -0.24634524, -0.10183773, -0.04610529, -0.17178306, -0.0020583307, -0.020441512, 0.12457072, 0.07055853, 0.22171402, -0.0047009233, 
0.020901557, 0.1900714, -0.10455499, 0.26485258, -0.0134278275, 0.0010697076, -0.10371855, -0.0036085777, -0.023355918, 0.07454887, 0.08473063, -0.08161495, 0.06255911, 0.03503187, 0.205749, 0.04429164, 
0.009469428, 0.28819612, -0.033372723, 0.078746825, 0.05394008, 0.0045781485, -0.0889724, 0.095534295, 0.073719494, 0.06803049, -0.021478884, -0.09075598, 0.063213795, 0.05781287, 0.019182188, 0.12111712, 
-0.028780188, 0.40007365, -0.021449571, 0.035005223, 0.05346299, 0.046055727, 0.021525988, 0.07582284, -0.012012579, 0.14344789, -0.17774028, -0.08886519, 0.19985376, 0.01097891, -0.023833927, -0.0013907613, 
0.22961588, -0.15160613, -0.013707821, -0.10394584, -0.08067436, -0.23457271, 0.05790746, -0.3743429, -0.018708333, 0.13866475, -0.41127354, -0.08269661, -0.017260723, -0.050091233, -0.01445999, -0.08949503, 
0.27634633, 0.25320202, 0.017359994, -0.21194458, 0.07402036, -0.09635583, 0.11325667, -0.42033523, 0.02266239, 0.2362965, -0.18813838, 0.07011642, -0.029247224, -0.17440434, 0.023991521, 0.15774493, 
0.16040862, 0.15508407, -0.20381537, -0.20637396, -0.090609156, -0.034034826, 0.070620395, -0.054764375, 0.053570203, 0.11785312, -0.031037627, 0.09855746, 0.06543392, -0.27011436, 0.04940465, -0.023990756, 
-0.18562633, 0.20449303, -0.041541412, -0.052181438, -0.07954853, -0.26974872, 0.029682409, 0.103211574, -0.15041578, 0.014195076, 0.0012111887, 0.08459519, 0.15914851, -0.30318013, 0.072447315, 0.025110027, 
-0.13183509, 0.037638728, 0.08589597, -0.039583925, -0.0756106, -0.40413678, 0.24226189, 0.59933084, -0.21669415, -0.18271564, 0.024999812, 0.15770909, -0.26692614, -0.32878065, 0.13053538, 0.12168842, 
-0.24242929, -0.29336995, 0.032965004, 0.19031778, -0.027888441, -0.3797726, -0.07584409, 0.28538263, -0.35655844, -0.24991281, 0.04590682, -0.30640057, -0.034445837, -0.7530687, -0.07805795, -0.15067251, 
-0.3729133, -0.4563988, -0.5331074, 0.19963926, -0.007873199, -0.4340858, -0.44380325, 0.019043477, -0.002214661, -0.38697287, 0.22893631, -0.17833588, 0.036077626, -0.5479505, -0.097248845, -0.044413067, 
-0.5110603, -0.47407657, -0.87604374, 0.036356207, -0.27927643, -0.36842525, -0.4459078, 0.009792977, -0.13295993, -0.770683, 0.3929036, -0.30425757, 0.2917764, -0.28660712, -0.26379707, 0.010935017, 
-0.13468696, -0.07253394, 0.088445075, -0.029899662, -0.09744129, -0.27025267, 0.08673533, 0.3244517, -0.025909543, 0.0882668, -0.3615851, -0.05429548, -0.027582712, -0.3129344, -0.44339293, -0.53376037, 
0.108143315, 0.3194341, -0.041429322, 0.091735296, 0.019433498, 0.0797585, 0.26841995, 0.22102353, -0.07900486, 0.15294972, -0.49399474, 0.14401875, 0.107973054, -0.036170974, -0.05441055, -0.075281814, 
0.09727346, 0.20246217, -0.029642697, 0.089686014, 0.094048865, -0.16882186, 0.14339858, 0.15934983, -0.08154638, -0.17732704, -0.53491896, 0.03173444, 0.2525736, -0.39839283, 0.1031891, 0.46131903, 
-0.17178153, -0.11257354, 0.14512414, 0.12466307, 0.17245412, -0.31582505, -0.05942953, 0.24371313, -0.024137082, -0.25148097, -0.6617029, -0.071104676, -0.080985285, -0.10448786, -0.012918648, 0.41719916, 
0.0076685855, -0.09104456, -0.04353062, -0.26488724, -0.037198648, 0.006848809, -0.007274156, -0.014340155, -0.10262027, -0.005840334, -0.48073018, 0.15535857, -0.5665971, 0.09691968, 0.23049572, 0.20919076, 
0.08321694, -0.1814016, -0.05277265, -0.5521191, -0.0052317516, 0.060235783, 0.08144523, -0.39376283, -0.12533309, 0.05924213, 0.0108588645, 0.092709616, 0.1565101, -0.0066726874, 0.17966856, 0.24245943, 
0.027636446, -0.13080893, -0.29991165, -0.2358578, 0.03021096, -0.27611667, -0.25112724, -0.2622748, 0.22659676, -0.15012956, 0.21886525, -0.12640685, -0.17369205, -0.21184674, -0.072762005, 0.1712884, 
-0.12970465, -0.30957684, 0.097297564, 0.14476155, -0.363517, -0.24150789, -0.0839302, -0.19648275, -0.07618261, 0.113906905, -0.01813585, 0.12318213, -0.41701156, 0.0008349371, -0.056752782, -0.057562247, 
-0.02125623, -0.07461581, 0.14872311, 0.07115586, -0.014877675, 0.1002009, -0.029445186, 0.0060703675, 0.080969974, 0.017219903, -0.00068988936, -0.26477703, 0.034460273, 0.0044272924, -0.17302282, 0.011592737, 
-0.065619774, -0.052189786, -0.07491893, 0.22022113, 0.1569937, -0.04447777, -0.014567582, 0.11902986, 0.035951436, -0.0434154, 0.029366031, -0.11271593, 0.112575024, -0.15851401, 0.016073084, -0.17989114, 
0.110719085, 0.019468566, -0.2087797, -0.101463154, -0.10397766, -0.09710202, -0.059844475, -0.1425121, 0.06280809, 0.061975185, -0.0006570511, -0.23780519, -0.12879321, 0.01611679, 0.13909519, 0.014417499, 
0.25427604, -0.18765777, -0.37992874, -0.22516748, -0.11140245, 0.116558895, 0.15392546, -0.04702921, 0.11210623, -0.22100264, 0.31978777, -0.04211437, -0.30290926, -0.0018562522, 0.14721723, -0.014925433, 
-0.051280398, -0.13267834, 0.15643919, 0.11422924, -0.25826108, -0.11722903, 0.13800953, 0.07538008, -0.3618869, -0.4212866, 0.093015835, 0.26701215, -0.10647323, 0.0036318859, -0.07515997, 0.14863972, 
-0.4807431, 0.43031865, 0.55314237, 0.3958302, -0.001086065, -0.30036333, -0.21299277, 0.08486142, -0.40974197, -0.016132977, -0.2170201, -0.04007987, 0.009923477, -0.10668188, -0.41515282, 0.2603578, 
-0.15645836, 0.03715407, 0.2167309, -0.0627034, 0.12427771, -0.21314466, -0.113641776, -0.09816533, -0.0062841764, 0.4103157, -0.21423207, 0.00075580936, -0.07408622, 0.01166465, 0.002369254, -0.19578856, 
0.23227371, 0.11400967, -0.32927522, -0.41617477, -0.056915216, -0.1704923, 0.03795117, -0.05540725, 0.16916072, 0.14542434, -0.032653987, -0.08651447, 0.44542378, -0.10752969, 0.0406159, -0.11351626, 
-0.1923623, -0.08411005, 0.38050398, 0.1490342, -0.19626099, 0.19584237, -0.077973366, -0.95269024, -0.04754146, -0.16083656, 0.07428878, -0.06359, 0.13094285, 0.11603718, -0.2263323, 0.21535924, 
0.024119992, -0.028501712, 0.08765091, -0.23004827, -0.16830976, 0.111839674, -0.08221281, 0.2297508, -0.26476473, -0.2055336, 0.070860855, -0.28070632, 0.033378627, -0.030767897, 0.012515569, 0.13781323, 
0.20526065, -0.07929092, -0.30655986, 0.07992193, -0.057881013, -0.021620106, -0.35929307, 0.19134605, -0.1471223, -0.19810724, 0.36887097, 0.06649315, 0.0203877, -0.1208043, 0.08787469, -0.16031554, 
0.012212104, -0.090475954, -0.06959904, 0.06764816, -0.064948946, 0.005680206, -0.035866257, 0.031866327, 0.07760692, -0.37281018, -0.15796857, 0.017599033, -0.2947316, 0.10350022, 0.22354382, -0.18961754, 
-0.2634475, 0.2480256, 0.022496449, 0.13762228, 0.16240664, -0.07863439, -0.27144083, -0.13162388, -0.023752687, -0.057149872, -0.2555412, -0.034898534, -0.28256616, 0.030661197, 0.14543857, 0.17157374, 
0.26192448, -0.13563722, -0.24815403, -0.3052618, 0.07844476, 0.08883863, -0.07188385, -0.16982558, -0.024384107, -0.024941012, 0.15495248, 0.09585451, -0.07028578, 0.31615987, 0.123678036, -0.4946482, 
-0.0050615068, 0.070224345, -0.050535318, 0.0007128995, -0.2640801, 0.12118489, -0.13391463, -0.09311064, -0.057347056, -0.023139268, 0.005530773, 0.35778156, 0.5255979, -0.1340362, 0.01585424, 0.19097401, 
0.26942825, -0.23775549, -0.03351054, -0.40301472, -0.1637803, -0.035814628, 0.14240626, -0.63601476, -0.30954972, 0.34050286, 0.26141673, 0.35302272, -0.40669066, 0.07334431, 0.08966791, -0.10272764, 
0.08643353, -0.013341308, -0.0062031173, -0.09555543, 0.14636564, -0.55460715, -0.2423703, 0.17409228, -0.17891735, 0.013685879, -0.39592344, -0.29160264, 0.013319286, -0.1585409, -0.031936545, -0.14391935, 
0.07714523, 0.17106722, -0.040351707, -0.017267402, 0.11647514, -0.8025102, -0.04242524, 0.05350782, -0.11649694, 0.07238173, 0.05556241, -0.2942816, -0.07155955, -0.05626759, 0.023894822, 0.0068851025, 
-0.00010891837, 0.28297085, 0.09572901, 0.12951894, -0.049106162, -0.4941072, 0.16814612, -0.007027486, -0.22594671, 0.104904145, -0.14971574, -0.6413244, -0.029471174, 0.042606067, 0.13904624, -0.05162666, 
-0.03390238, 0.14082557, -0.09254476, -0.09626085, -0.13436788, -0.40328652, -0.5187834, -0.18510792, -0.05709455, -0.17075245, -0.17005883, -0.0134789925, 0.17000243, -0.116689995, 0.02568115, -0.0956487, 
-0.11049981, -0.4256572, -0.12935439, 0.013620046, -0.008785326, -0.29569042, -0.03985044, 0.030831082, -0.180544, -0.15225701, 0.102297604, 0.046643656, -0.05157583, -0.1835717, -0.08026047, -0.0045741964, 
-0.17118712, -0.33325347, 0.09598356, -0.064278975, 0.03107473, -0.1362541, -0.05317035, -0.24129623, -0.095232956, -0.20955975, 0.033915803, -0.055900723, 0.052391537, 0.026963642, 0.07474796, -0.027402136, 
0.14726464, 0.013293866, -0.04858106, -0.0784859, 0.09829088, 0.039231233, 0.113670096, -0.3942788, -0.046183795, -0.017672494, 0.18566364, 0.13785091, -0.013332367, 0.0009787331, 0.032245878, 0.17829584, 
0.16596214, 0.04343797, -0.109408006, 0.05979668, 0.17063096, 0.010687256, 0.17378823, -0.6248709, -0.1047574, -0.020596031, 0.22446623, 0.04761677, -0.32486665, 0.0018571508, 0.19241409, 0.14516915, 
-0.022478541, 0.17985484, -0.3111178, -0.3130529, -0.21000023, -0.12546605, -0.405266, 0.5165403, 0.11351882, -0.027206836, -0.5178876, -0.19492863, 0.088655464, 0.01591663, -0.3076539, -0.108965866, 
0.23155029, -0.13654874, 0.0060983016, -0.06846718, -0.029089533, -0.11633349, -0.08244982, 0.0067447238, -0.0792133, 0.04365572, -0.1709333, -0.051324632, 0.14568701, 0.009756346, 0.036711074, 0.029169405, 
0.14003044, -0.13481481, -0.08902639, -0.25816956, 0.07753189, 0.052337565, 0.014779921, -0.36672112, -0.12079012, 0.027035058, 0.23768464, 0.12541711, 0.11509078, -0.033698767, 0.14805563, -0.012814599, 
-0.07563938, 0.19228502, -0.036988933, -0.12902164, -0.1415513, 0.0003484012, -0.0332269, -0.7644836, -0.003816409, 0.07491181, 0.082338326, 0.3210246, -0.04833898, -0.17059582, 0.15363911, -0.064687476, 
-0.17956038, 0.055086702, 0.03623744, -0.06357107, -0.10615445, 0.17144254, -0.25670415, -0.045677606, -0.16149658, -0.017283922, -0.032470077, 0.25655657, 0.06743333, -0.17021555, 0.1644434, -0.030983288, 
-0.013545817, 0.18602435, 0.19725454, 0.13365601, -0.1737602, 0.09937307, -0.053756345, 0.3511455, -0.14817466, -0.2612154, -0.021417433, -0.007404275, 0.11754231, -0.07935535, -0.038920294, -0.07082783, 
-0.07852646, 0.12758781, -0.37784216, 0.13615832, 0.056417435, -0.01502242, -0.01992493, 0.19162638, -0.09638212, 0.04703427, -0.039976463, -0.36433828, -0.4261718, -0.42560124, -0.44054088, -0.14440662, 
0.059896395, -0.04933791, -0.92154074, 0.4867527, -0.33360368, -0.30685648, -0.31605047, 0.14532065, 0.30043364, 0.044833854, -0.39444745, -0.19493139, -0.32417002, -0.97511834, -1.3124131, -0.29543296, 
-0.13962269, 0.18824422, -0.060122013, 0.06924729, -0.15301056, -0.18387616, -0.21928775, -0.007991627, 0.32136092, 0.23674753, 0.051596247, 0.35084784, -0.11127102, 0.09434657, 0.13414791, -0.0028336607, 
-0.24430768, 0.25500795, -0.15966521, 0.05187497, -0.21083595, -0.16358559, -0.29348624, -0.039968066, 0.29359022, 0.3499963, 0.1085773, 0.17202634, 0.111020334, 0.28341717, -0.05300242, -0.07463708, 
-0.26423407, 0.15675582, -0.48582542, -0.007157532, -0.04727371, -0.18950203, -0.25993085, 0.08709213, 0.1629085, 0.15194948, 0.0043471414, 0.070523396, -0.155456, 0.4242896, -0.16286288, 0.012976446, 
-0.10312145, -0.122690454, -0.5629531, 0.08552233, 0.073258094, -0.069319956, -0.13576536, -0.10297468, -0.20842253, -0.06404851, 0.069066964, 0.047220856, -0.11090132, 0.42345375, -0.2314148, 0.1150172, 
0.06736763, -0.19589972, -0.6138512, 0.060681686, -0.052077863, 0.034188755, -0.3011653, -0.13607247, -0.37948468, -0.1427828, -0.17995484, -0.08316515, -0.22089602, 0.11042364, -0.36095276, 0.061466377, 
0.08845074, -0.2029209, -0.75475305, 0.031266887, -0.046929054, 0.12707078, -0.32165375, 0.05721701, -0.28699145, -0.21426001, -0.13365228, -0.061496876, -0.17294714, 0.041755512, -0.24455932, 0.16256776, 
0.32202896, -0.12765138, -1.1646554, 0.011256494, -0.012243223, 0.13170373, -0.38030168, -0.052716337, -0.30422333, -0.35396808, -0.061359644, -0.17289083, 0.09673678, -0.16617203, -0.33712852, 0.28911462, 
0.3603645, 0.001070464, -1.1967545, -0.2349157, 7.997782e-05, -0.17498581, -0.50959784, 0.14216459, -0.090056755, -0.06408144, -0.07136115, -0.3094142, 0.33419064, -0.47335044, -0.2599236, 0.06856328, 
-0.10063396, 0.070924036, -0.53422374, -0.019954357, 0.097235024, 0.19690637, -0.04778531, -0.15025349, -0.19945416, 0.09951537, 0.033709385, 0.2718382, 0.35283616, -0.20526962, 0.22791703, -0.11628966, 
0.009387095, -0.34803477, -0.33711585, 0.04687355, 0.0831263, 0.22361696, -0.06753761, 0.23434493, -0.037354685, -0.25749904, -0.1448879, 0.12707072, -0.060725186, 0.08323242, 0.15056963, -0.26852015, 
0.07917899, -0.37277308, 0.12557232, 0.09922754, 0.043466978, 0.38541895, -0.06688701, 0.027764777, 0.0008316999, -0.037072442, -0.1986232, 0.14737146, 0.009461962, 0.06475361, 0.01201725, -0.17514388, 
0.17170353, -0.16265027, 0.058809977, 0.013660909, 0.07326238, 0.15627643, -0.13615282, -0.2987896, -0.113631554, 0.019723507, -0.10653547, 0.2879813, 0.0028469989, -0.10319997, 0.02702674, 0.22986463, 
0.078060694, 0.09268883, -0.098741785, -0.1172614, 0.15249658, 0.0021897564, -0.27494738, -0.050402053, -0.040319785, 0.14895469, 0.15053548, 0.20132364, 0.026044406, 0.04072605, 0.03217965, 0.20806149, 
-0.28630278, 0.2525569, -0.07769342, -0.0724919, -0.022646425, 0.12708762, 0.06007893, 0.09226961, 0.03941755, 0.060839854, -0.049515333, -0.053739045, -0.23793666, 0.21470574, -0.11845798, 0.06758177, 
-0.12846048, 0.15983249, -0.26862425, -0.061230235, -0.17618605, -0.14649217, 0.059082493, 0.011787314, -0.011782386, -0.09803709, 0.10614773, -0.106254555, -0.15480225, 0.11526544, -0.29598197, -0.00083563814, 
-0.19605076, -0.27816662, -0.3418125, 0.31059402, -0.56397814, -0.23954904, -0.43534923, 0.28185204, 0.17500825, 0.007445914, -0.120298445, -0.5105516, -0.075462125, -0.02849399, -0.405408, -0.17769827, 
0.037976123, 0.119621485, 0.10592716, 0.25700665, -0.11852885, -0.46501008, -0.18618481, -0.19058609, 0.011427517, 0.16273066, -0.31722787, -0.43369922, -0.24074394, -0.47157535, 0.0730739, -0.005051483, 
0.022567457, 0.02135631, -0.07057782, -0.036111396, 0.06771425, -0.4332294, -0.49890077, -0.13340238, 0.20090918, 0.13938913, 0.010489923, -0.48520803, -0.04435133, 0.042255487, -0.025420645, 0.31245098, 
0.20491005, -0.089982145, -0.18741961, -0.19529076, 0.058336087, -0.14219782, -0.78741884, -0.03370559, -0.0061572124, -0.24536389, 0.4220238, -0.14288077, -0.005918563, -0.13404076, -0.00090927846, -0.13463031, 
0.047345985, -0.07274318, -0.38601446, 0.08987519, 0.075752206, 0.053064007, 0.2355297, -0.15601002, -0.4337912, -0.14553398, 0.03358069, -0.05594075, -0.15301538, 0.09215139, -0.1632908, 0.21114695, 
-0.27056193, 0.1831994, -0.2676101, 0.14584966, 0.09151035, -0.0075387484, 0.18747407, -0.044075586, -0.11674809, 0.011541079, 0.040373206, 0.01778337, 0.1965115, -0.035463233, 0.25953105, -0.03206435, 
0.12893245, -0.01351688, -0.22062711, 0.06448598, 0.15525752, -0.24499397, -0.09676201, -0.21448953, 0.014861104, -0.044615775, -0.1010973, 0.015836317, -0.011783419, -0.2338844, -0.03001699, 0.008475123, 
0.00019670092, -0.27923366, 0.03092764, -0.19445649, 0.006205465, 0.14081196, -0.05913038, -0.042739633, 0.20709373, -0.12987493, -0.17105551, -0.3757508, -0.07467098, 0.0766381, 0.055157896, -0.21749933, 
-0.009413656, -0.20460618, 0.060811132, -0.041974016, -0.34499523, -0.031403884, 0.08267964, 0.024265647, 0.29686162, -0.15718758, 0.19750214, 0.056822482, 0.057285096, 0.08267307, -0.024598354, 0.26030487, 
0.22113018, 0.03185595, -0.032044105, 0.2395225, -0.041692663, -0.15287493, 0.009858029, 0.06868264, -0.105442606, 0.15263842, -0.2869722, -0.17329502, 0.23486517, -0.39022964, 0.09550778, 0.009891775, 
-0.178228, 0.0015254504, 0.12402512, 0.21582876, -0.08655789, -0.17060702, 0.041798405, 0.034209177, 0.1629116, -0.060702223, -0.2029533, -0.14104801, -0.25060862, -0.20654005, -0.04483933, 0.0072834375, 
-0.23590541, 0.055697616, 0.30382267, 0.20776501, 0.15467793, -0.28348216, -0.08225798, 0.032483917, 0.0018075237, -0.1289433, -0.33508384, 0.009804377, 0.04181001, -0.27624458, 0.060299728, -0.02847565, 
-0.18145952, 0.12536295, 0.42263067, -0.07444897, -0.021451222, -0.021531977, -0.1300676, -0.15440354, -0.10130965, 0.037288383, -0.090629734, 0.04950676, 0.2768541, -0.04341012, -0.055157058, 0.13308826, 
0.04016308, 0.069210775, 0.16016804, -0.56790555, 0.040307943, 0.13480486, -0.068747535, -0.4037888, 0.03613811, 0.095836945, 0.2241216, -0.07693487, -0.0982429, -0.109687515, 0.04004167, 0.09067606, 
0.07493348, -0.29684728, 0.061961368, -0.3720622, -0.14754446, 0.123421475, -0.038072962, 0.11093326, 0.21137062, -0.095828675, 0.25836775, -0.27754512, 0.07163958, -0.11298825, 0.03211123, 0.18053104, 
-0.015892044, -0.17268312, 0.23261878, -0.008916199, -0.12635113, 0.10910713, 0.09015719, 0.1695593, -0.19051872, -0.18340269, 0.20131946, 0.019642707, 0.078100316, -0.060285542, -0.115945615, -0.005811653, 
0.054052323, 0.14785457, 0.045647196, 0.32694724, 0.0013864157, -0.1337575, 0.060750112, -0.1837292, -0.01955613, 0.28904873, 0.13357916, -0.048357014, -0.2673111, -0.052143384, -0.25333408, 0.02730505, 
0.21569048, -0.22253652, -0.82158995, -0.22873484, -0.139047, -0.33500448, -0.25044146, -0.09729815, -0.15413998, -0.2759411, 0.055012826, -0.102311455, -0.03645847, 0.05462071, 0.06679924, -0.41537142, 
0.16119774, -0.16015121, -0.6257269, -0.20873947, -0.10076279, -0.46802118, -0.27754062, -0.022195114, -0.08633256, -0.10761235, -0.00065769587, -0.010975672, 0.034120165, -0.036042646, 0.12917314, 0.01748769, 
0.14502098, -0.47743636, -0.826038, -0.17980926, -0.09143006, -0.8202848, -0.29075938, -0.025613466, -0.07934708, 0.13963242, 0.07670568, -0.15104605, 0.1305648, -0.00021851675, 0.23035347, -0.001928094, 
0.089661896, -0.4164649, -0.93742603, -0.105486125, 0.16464067, -0.9152033, -0.047381423, 0.023203991, -0.091616474, 0.16720983, 0.11397507, -0.087079056, 0.10177706, 0.05050949, 0.35527882, -0.11159845, 
-0.10137551, -0.4830476, -0.75585705, 0.010594767, 0.16634865, -1.1070836, -0.3566683, 0.0643097, 0.1135191, 0.24989298, -0.0670928, -0.084392294, 0.08913984, 0.17029206, 0.19794945, -0.17377946, 
-0.2068586, -0.4435286, -0.96529025, 0.09059781, 0.06521281, -0.66445225, -0.3113253, 0.029622814, 0.12839745, 0.17575891, -0.059486367, -0.039608043, 0.08483943, 0.2474825, 0.04553943, -0.12689182, 
-0.16996874, -0.29413432, -0.72350323, 0.14736415, -2.6326432e-05, -0.46520007, -0.25109273, -0.028371403, 0.23261984, 0.07048726, -0.050184943, 0.0097234985, 0.013080323, 0.2640025, -0.09066649, 0.059146635, 
-0.1221651, -0.20894599, -1.1754959, 0.22981754, -0.14194784, -0.40053016, -0.7203198, -0.02055038, 0.29133168, -0.10900989, -0.11527703, -0.032417446, -0.18628806, 0.116577305, -0.38308337, 0.1070385, 
0.03259164, 0.01867003, 0.0009923775, -0.07835044, -0.16452968, 0.081496134, -0.023788067, -0.077400744, 0.0034046257, 0.099726185, -0.07029239, 0.091160364, -0.0021845263, 0.10720504, -0.04748051, -0.04318226, 
0.055003777, 0.008768167, -0.18735328, -0.03702012, -0.108905226, 0.099209815, -0.07451547, -0.17176777, 0.21636513, -0.08391119, 0.09337488, -0.029985026, -0.4312182, 0.010340476, -0.1794005, 0.039496306, 
0.39224175, -0.25328892, -0.39587262, -0.31313157, 0.034148864, 0.026179314, 0.059600342, 0.014259119, -0.00394114, -0.06964971, 0.18082845, -0.09268767, -0.03711307, 0.084025405, 0.0854965, -0.16194068, 
-0.26237562, 0.024040557, 0.23139241, 0.22816104, -0.06759694, 0.16712452, -0.125881, 0.16033685, 0.040192124, -0.033384994, -0.16865112, 0.20047195, 0.25571662, 0.05409364, -0.2139863, 0.2737395, 
-0.057691626, -0.12643489, -0.0893518, -0.22791946, -0.016777037, 0.1323199, 0.020056129, -0.1418133, -0.015103339, 0.21685141, 0.11149963, 0.12391262, -0.4527018, -0.085291356, 0.09529511, -0.1264195, 
0.41647512, 0.12859167, -0.11403414, -0.07135811, 0.01153094, 0.42421082, 0.25484627, -0.118584566, 0.036236905, -0.13553546, -0.06957644, -0.015612528, 0.10204204, -0.19695885, 0.16240308, -0.18993239, 
-0.31827354, 0.032987483, -0.04086331, 0.3262697, -0.24972272, -0.0073824152, -0.27238283, 0.03224058, 0.18275453, 0.09293975, -0.29318324, 0.043889217, -0.121940754, 0.0077976175, -0.073771834, 0.3418627, 
0.0051860404, 0.24824527, -0.026363, -0.23014385, -0.065659784, 0.19684269, -0.20622064, -0.079234935, -0.25080106, 0.14187987, -0.14373706, -0.003196993, 0.14596376, 0.104624435, 0.14408092, -0.038802117, 
0.20605788, -0.05647486, -0.31114814, 0.06679376, -0.19668458, -0.38178164, -0.23002551, 0.15145805, 0.0335929, 0.09600895, 0.13141567, -0.23593433, -0.43231133, 0.058949426, 0.08936168, 0.35474944, 
0.03414276, -0.14246914, -0.3699616, -0.11427218, -0.1594465, -0.048475467, -0.08220684, 0.011468721, -0.24653214, -0.42655528, 0.13174637, 0.1691894, 0.07622026, 0.10650708, 0.18070087, -0.20229588, 
-0.69519556, -0.08619209, 0.5630744, 0.2338883, -0.019990262, -0.009636551, 0.14531708, -0.019426461, -0.25965044, -0.07352074, -0.055966467, 0.024470074, 0.024838308, 0.021042578, -0.10273369, 0.30562615, 
-0.08214061, 0.108150914, 0.12692274, 0.18680248, 0.13511525, -0.1881709, 0.050066337, -0.21343705, -0.027801724, 0.24782348, -0.13930547, 0.062391873, 0.054737933, 0.091579065, 0.07881445, -0.118775524, 
0.27648076, -0.14187764, -0.29607373, -0.25945613, 0.16091238, -0.6538533, -0.19191845, -0.32605007, 0.05865312, -0.0525141, 0.010686864, -0.09171621, -0.060013186, -0.010928236, 0.111552574, -0.073393054, 
-0.0024682702, -0.059516437, -0.052656118, -0.1321391, -0.12808576, 0.10114128, 0.0030294587, 0.14755088, 0.07176994, -0.09406249, 0.21074899, 0.13171671, 0.16260442, -0.2187195, 0.023363048, -0.02302486, 
-0.047761537, 0.2800302, 0.2556825, 0.12947486, 0.022333479, -0.11359811, 0.10950936, -0.07859325, -0.0384863, 0.0292014, -0.038514584, -0.020780914, -0.2744364, -0.079276696, -0.05047934, 0.119419165, 
-0.14100668, -0.18611512, 0.09979742, -0.052145675, -0.060984787, -0.52104026, -0.054644383, 0.03500888, 0.058747265, -0.07922037, 0.017342784, -0.44226322, 0.05047894, 0.022355601, -0.014966413, 0.14918351, 
0.10618587, 0.008219745, 0.14154832, -0.39577, 0.1302355, -0.13351494, 0.084694, 0.18332055, -0.2550383, 0.12208331, -0.11696483, 0.09877748, -0.45968753, -0.6551119, 0.07124369, 0.053747647, 
-0.07749352, 0.16756748, -0.112536944, -0.063871466, -0.04466581, -0.20317815, -0.08555383, 0.5960863, -0.28572148, 0.1706298, -0.51358896, 0.0783963, -0.5130623, -0.45570844, -0.10987734, -0.1570024, 
0.0068523055, -0.011271644, 0.32964733, 0.47118178, -0.13668267, -0.25955018, -0.26518983, 0.10120757, -0.06206588, 0.056159366, -0.3442029, 0.31625798, -0.46172732, 0.018897913, -0.041463334, -0.16919948, 
0.1295987, 0.19939958, 0.12544477, -0.11609778, -0.22076336, -0.14605284, -0.21592742, -0.07196692, 0.04854131, -0.12650616, -0.09852187, 0.09518674, -0.37911814, -0.033118393, -0.3214523, -0.14244093, 
-0.053296484, -0.44680607, 0.10072546, -0.18537822, -0.10875593, 0.124686226, -0.028673006, -0.39807218, 0.14456318, 0.33495045, 0.014927321, -0.12923831, -0.0152258845, -0.031207709, -0.10307507, 0.4269577, 
-0.036052044, -0.10541626, -0.08264769, -0.3443052, 0.07758181, 0.17586617, -0.14058436, -0.26378277, 0.06736203, 0.09267823, -0.04169111, -0.2880628, -0.690281, -0.048767976, 0.06603851, 0.16470076, 
0.107814826, -0.07858958, 0.10453766, -0.2605346, -0.27003273, 0.087363124, -0.49367696, -0.27855846, -0.01764891, -0.16622058, 0.070578106, 0.2839587, -0.32996553, -0.45667875, -0.044541415, -0.12130203, 
-0.2094778, 0.005026856, -0.29971364, 0.03226702, -0.40669096, 0.02464076, -0.1415621, 0.28736973, 0.34741485, -0.17388561, -0.42904046, 0.13241026, -0.44474038, 0.12587121, -0.69124115, 2.0672196e-05, 
0.16851015, 0.39095813, -0.095427975, 0.09065956, 0.3389607, 0.049101673, -0.02802731, -0.27353954, -0.14248037, 0.26283044, -0.050177775, -0.22608277, 0.2440587, -0.17772429, 0.29886013, 0.14832538, 
-0.006928352, 0.15535489, -0.10366631, -0.120427355, 0.12028682, -0.14711544, -0.09073197, -0.3255201, -0.2690315, 0.118422896, 0.064869456, -0.21124345, 0.16063973, -0.34623036, 0.10820155, 0.034101516, 
-0.05270149, 0.019002263, 0.046511687, -0.08420328, 0.06343586, 0.07211032, 0.15146583, -0.16332227, -0.06636, 0.0857874, 0.14530516, -0.18963473, 0.052241914, -0.48759052, 0.054853357, -0.0067383084, 
0.077181995, 0.053711906, -0.06175444, -0.071910135, -0.12612738, -0.10573708, 0.2995794, 0.20737916, -0.0056984755, 0.03537072, 0.12415523, -0.18175957, -0.15864754, -0.33727348, 0.15325224, -0.050075438, 
-0.1089802, -0.10768904, -0.032966163, 0.07773119, -0.043187894, -0.5270326, -0.12167938, 0.020856548, 0.059531648, -0.13593993, -0.020137336, -0.10531593, -0.17251137, -0.47141895, -0.075534366, 0.19883882, 
-0.16619432, 0.0378685, -0.26315057, 0.18526722, -0.020315506, -0.51977515, -0.13448793, 0.04167518, -0.048411272, -0.27105087, 0.059904117, 0.0054175984, -0.073784776, -0.1250527, 0.15035497, 0.12878999, 
-0.19474515, -0.05649597, -0.5411946, -0.022617351, -0.2487263, -0.48821676, -0.019196413, 0.18135057, -0.078216605, -0.20046295, -0.1135285, -0.14010948, 0.22394599, -0.16932185, -0.007837369, -0.0135793425, 
-0.10645516, -0.24298796, -0.30311924, -0.16457365, -0.20695439, -0.6023816, 0.07956613, 0.1082988, -0.07172686, 0.033204462, -0.3269399, -0.21632323, -0.0006342032, -0.14361037, -0.21845402, 0.0066950903, 
0.21254092, -0.1847947, -0.26225325, 0.0809868, -0.3868982, -0.15126505, 0.061664116, -0.11578919, -0.102164656, -0.14462018, 0.13806337, -0.21866639, -0.023032939, -0.12799254, 0.15444843, 0.053714283, 
-0.08536614, 0.0007824808, -0.04024686, 0.0040845936, 0.00022036408, -0.20433643, 0.21323448, 0.112722576, 0.05207468, -0.064221464, 0.06237919, -0.37593785, -0.08533667, -0.34106663, -0.08017097, 0.018911539, 
-0.32088354, 0.12737387, 0.049224015, 0.13224632, -0.04487043, -0.06525528, -0.086603895, 0.2781404, -0.12605071, -0.06903006, 0.006315705, -0.09923912, 0.117454335, -0.54805, -0.3094709, -0.0965931, 
-0.39504808, 0.07587616, 0.12007369, 0.0037276812, 0.05220582, -0.020054376, -0.07605843, 0.38838673, -0.22280471, -0.03546113, -0.03272924, 0.104074635, 0.1770149, -0.19842225, -0.013278492, -0.15971632, 
-0.0011456785, 0.24117297, -0.185627, 0.040184487, 0.20783526, 0.27450967, 0.16943991, -0.04959866, -0.12552331, 0.043671295, -0.06895626, 0.103810206, 0.21887535, -0.043172758, 0.2733579, -0.06684845, 
0.25976452, 0.10957224, -0.15297262, -0.14773916, 0.060017437, 0.26729324, 0.15274392, -0.4154095, -0.019492062, 0.05118701, 0.049407713, 0.0837456, 0.24195941, -0.06464965, 0.03064214, 0.12940264, 
0.12641221, -0.033125285, -0.100891426, -0.1463068, -0.13193262, 0.18683006, -0.028201675, -0.15355092, 0.011085266, 0.081926614, -0.104938656, -0.04391815, -0.22513452, -0.101588786, 0.07946275, 0.3481895, 
0.051221248, -0.09970464, -0.14484389, -0.3049246, -0.024050692, 0.0010089545, -0.10473996, -0.12720485, -0.03583953, 0.105134964, 0.0151561815, 0.011419379, -0.39374533, -0.080897264, -0.046641357, 0.13122305, 
-0.20985459, -0.010491526, -0.16772187, 0.07444711, -0.19964264, -0.09834431, -0.25377798, -0.078362316, -0.1229321, -0.09709394, 0.11662858, -0.061683413, -0.04393677, -0.06034177, -0.16704161, -0.088815965, 
-0.042312406, -0.17666578, -0.79566133, 0.055826906, -0.0886296, -0.058896944, -0.2776387, -0.043106128, -0.05393735, -0.0577364, 0.050175942, -0.12409831, 0.13265821, 0.058320377, -0.0511914, -0.10135278, 
-0.06900394, 0.009265627, 0.032957055, 0.12947902, 0.013884615, -0.103058524, -0.29979005, 0.016405182, 0.009974766, -0.08109513, -0.028344965, 0.01815985, -0.059923686, 0.073636256, -0.053360708, -0.041691422, 
-0.09221306, 0.13208234, 0.043841906, 0.027890615, -0.17667153, -0.108094156, 0.08530603, -0.10764799, 0.09702161, -0.16308133, -0.11153955, 0.05162132, 0.049084324, 0.06314588, -0.24431503, 0.02108335, 
0.016215155, 0.057736382, -1.0132955, 0.035096265, 0.0053553456, -0.30138394, 0.061182864, -0.037087493, -0.016766664, -0.48355684, -0.027657427, -0.04991567, 0.08335688, 0.0026549082, -0.16806293, 0.15562677, 
0.13554808, 0.054335397, -0.35439813, 0.02374974, 0.0024035573, -0.31200603, -0.17248672, 0.049327627, 0.024153156, -0.46679324, -0.09918912, 0.00033857825, 0.057920024, -0.0846192, -0.07340606, 0.20644958, 
0.13773035, 0.035253096, -0.38939705, -0.055358555, -0.022046423, -0.24681573, -0.038470294, -0.019342573, -0.044774346, -0.46115243, 0.042926613, -0.004527563, 0.07887192, -0.12504782, -0.09610382, 0.07384127, 
0.30499178, -0.47166178, -0.5014715, -0.21549849, 0.11850419, -0.26671878, -0.41038397, -0.11840309, -0.019692108, -0.3733818, 0.068680294, 0.07893442, 0.31803626, -0.15667598, 0.19483177, -0.31454954, 
-0.03139728, -0.17721902, 0.07215397, 0.1887255, -0.08484166, 0.12997761, -0.105239555, 0.24701142, 0.09748399, -0.0026876484, -0.0072576744, -0.15315276, -0.35048264, -0.16894783, -0.046150457, 0.019974552, 
-0.059977263, -0.039957795, 0.048660196, 0.18900377, -0.16724516, 0.03812943, -0.16437602, -0.06458559, 0.25828084, -0.031017177, -0.021606313, -0.40857401, -0.22712946, 0.006423851, -0.19294794, 0.00021507873, 
-0.046367865, -0.057368025, -0.04331498, -0.09334036, -0.24116457, -0.09122815, 0.020622145, 0.020473126, 0.21989173, -0.063409336, -0.11407668, -0.08694872, 0.16940814, -0.0802609, -0.103436, -0.18271115, 
0.13578941, -0.17256369, -0.14641728, -0.034916215, -0.11606843, 0.14074735, 0.060636416, 0.120236665, -0.12713149, -0.007905125, -0.08418366, 0.30004457, 0.17796251, 0.07005599, 0.13723929, 0.09447266, 
0.1472253, -0.027230544, -0.15667248, 0.11490511, -0.06362831, 0.3357453, 0.1832021, -0.12460752, -0.10119682, 0.08891231, -0.0053169546, 0.14224622, -0.015407808, -0.082302585, 0.25156823, 0.14433353, 
-0.011022019, 0.19529064, 0.060904328, 0.21489127, -0.2628722, 0.21192458, 0.21141185, -0.18653764, 0.12090534, 0.19917232, -0.18247476, 0.040163793, 0.11006065, -0.27086568, 0.13251823, 0.31178182, 
-0.2458422, 0.097459875, -0.09718022, -0.13717991, 0.019124199, 0.11108076, -0.052407376, -0.14436245, 0.24458474, 0.22803615, -0.27954832, 0.054127734, 0.043624315, -0.060953736, 0.05295404, 0.07707567, 
0.021121036, 0.056690335, -0.23508586, -0.2781266, -0.046053678, 0.16927218, -0.09057459, -0.23748441, 0.07713069, 0.1427789, -0.07630165, -0.07522655, 0.1597879, -0.559857, 0.1719144, -0.19925141, 
-0.05633536, -0.12594761, -0.027514659, -0.03832567, -0.29219446, -0.63152134, -0.0014669308, -0.08706346, -0.52591884, -0.1105708, -0.12715554, -0.2489531, -0.33483636, 0.0803765, -0.16384208, -0.09266002, 
0.009564484, 0.26972076, -0.28821895, 0.14531542, -0.19269273, -0.14335588, -0.2661422, -0.10679974, -0.32573378, 0.010972452, -0.26068452, 0.060517862, -0.2379202, -0.07770176, -0.3163813, 0.037121072, 
-0.18026996, -0.28834438, 0.25591403, -0.02564664, -0.16254537, -0.1128028, -0.19211589, -0.16234119, -0.08988703, 0.0013175101, -0.15064985, -0.15050744, -0.030128095, -0.074088976, 0.05799882, 0.14500657, 
0.052759215, 0.033055283, 0.26790187, 0.102561645, -0.0070971716, 0.074365154, 0.10605214, -0.3014295, -0.16406277, 0.17300291, -0.06909877, -0.06341354, -0.048029732, 0.05715609, 0.23772518, 0.16317788, 
0.1800166, -0.091342084, 0.05347019, -0.073984474, 0.16175872, -0.07147564, 0.19589967, -0.04830439, -0.040015496, 0.16559193, 0.112982005, 0.008869511, 0.21246552, -0.026488427, 0.22276647, -0.042965617, 
0.080301024, -0.15208851, 0.07598646, -0.17922878, -0.097117625, 0.28630513, 0.1744137, -0.1425585, 0.05719414, -0.11987751, -0.0119253, -0.32656145, 0.19235717, 0.108126774, 0.2752198, -0.06035758, 
0.057638396, -0.07429795, 0.00557552, -0.08643003, -0.2590777, 0.07674783, -0.14673203, -0.016561229, 0.26287222, 0.022248665, -0.0050952933, 0.23664661, 0.15319921, -0.25147218, 0.21384543, 0.18042803, 
-0.20473254, -0.24130444, 0.0034759527, -0.082170784, 0.097324364, 0.0075480915, -0.018290984, -0.035127547, -0.13288032, 0.33213267, 0.2848904, 0.2605428, -0.14329353, -0.13474633, -0.19900425, 0.27592334, 
};

const float MyModel_layer_4_bias[] = {
0.054290365, 0.13791423, -0.012810231, 0.02965014, -0.011173066, -0.0069169453, 0.2637429, 0.39084283, 8.135684e-05, 0.22688593, 0.10618799, -0.019162152, 0.20115745, 0.14942482, 0.1542164, 0.11395544, 0.067426994, 0.20602955, 0.096422225, 0.18257907, 0.020070981, 0.08992209, 0.05631743, 0.30287287, 0.0463686, 0.08762573, 0.13429855, 0.26375064, 0.16308606, 0.4998184, -0.19966863, -0.20683163, };


const float MyModel_layer_8_weights[] = {
-0.10597282, 0.0046162633, -0.0045483815, 0.0006137642, 0.0035983888, -0.012117262, 0.009237118, -0.07295622, -0.044020724, -0.005844133, -0.0043637846, 0.0054693446, -0.013605699, 0.005887606, 0.019117525, 0.0025115637, -0.0011983039, -0.006641807, -0.015619713, 0.025792059, -0.0052226675, -0.008011169, -0.005277301, 0.0069859466, 0.035544902, -0.011564983, -0.00418906, -0.0067202635, 0.003187198, -0.002733638, -0.05218288, 0.00441655, 0.0009264198, -0.0017140398, -0.0070009516, -0.005001316, 0.008187869, 0.021850964, -0.0024131022, -0.002827804, -0.0029111046, -0.011952089, -0.018124677, -0.0022022936, -0.034392525, -0.0056676595, 0.0065124654, -0.022190243, 0.0008180138, -0.012443175, 0.001014793, -0.021431597, 0.004650295, 0.00942575, -0.013395842, -0.014578975, -0.104987144, 0.9068815, -0.0532969, -0.08380027, -0.032054603, -0.03674845, -0.062610075, -0.050240736, -0.0057299384, -0.0104715815, -0.02023372, 0.014024104, -0.013181898, 0.0022409433, 0.0032894942, 0.0088470625, -0.0044188164, 0.011885002, -0.0092262635, -0.01905824, -0.020079147, 3.107188e-05, 0.014766641, 0.08457689, 0.012066623, -0.029449673, -0.015221929, -0.005307786, -0.085764535, -0.02164186, -0.022701357, -0.00853105, -0.013420385, -0.052325334, -0.030246943, -0.036602445, -0.018129246, -0.02581979, -0.021130677, -0.0052803685, 0.013572854, 0.023299964, 0.0067989486, 0.007860522, 0.0042188517, 0.00047261448, -0.0030957821, 0.006501041, 0.0139807435, -0.026491798, -0.0026883478, 0.035370234, 0.008847487, -0.09515066, -0.058540177, -0.04002147, -0.019960498, -0.019612247, 0.048622202, 0.21867934, 0.7651674, 0.22132938, 0.03598224, 0.021786759, -0.02704558, 0.01617552, -0.02699979, -0.015092075, 0.002579852, 0.0005786306, -0.031466056, -0.027249068, -0.020532044, -0.009303684, -0.005948116, -0.016710347, -0.06642598, -0.038051, -0.024114314, -0.013151421, -0.015968496, -0.0139383795, 0.013419964, 0.014639584, 0.4311179, 0.8440605, 0.43959913, 0.07473523, 0.0045820437, 0.021781446, -0.0024836373, -0.00013531437, -0.009393628, 7.237356e-05, 0.01487752, -0.013915201, -0.014126641, -0.01801731, -0.014913314, -0.020014351, -0.005777693, -0.03590751, -0.021991046, -0.05908894, -0.0471631, 0.008356976, -0.012796063, -0.018628024, -0.05565162, -0.016511451, 0.005818209, -0.019395959, -0.016023362, -0.010541437, -0.0058411392, -0.01036377, -0.013991772, -0.0037282994, -0.03419431, -0.019445112, 0.08133494, 0.18036701, 0.13204102, 0.045835726, 0.069118954, -0.013882865, 0.00028773438, 0.0057887076, -0.0048840903, 0.0147692235, 0.091991566, 0.03679734, 0.0056472467, 0.00631189, 0.007074754, 0.02768162, 
-0.15936098, -0.054290697, 0.033077996, 0.0113683855, -0.07491986, -0.123512305, 0.12666509, -0.01949451, -0.09687628, 0.109256424, -0.0418867, -0.031199908, -0.05452821, 0.028520463, 0.074627176, 0.062339745, -0.03993611, -0.043460563, 0.008396503, -0.004902042, -0.06101392, -0.020945385, -0.06547137, -0.012667609, 0.080020145, -0.08284698, -0.058916915, -0.023242624, -0.13350855, -0.08152167, -0.027804883, -0.054917052, -0.08950824, -0.017893104, 0.00803855, 0.001798866, -0.107994944, -0.04709264, -0.038045894, 0.044243313, 2.8380253e-05, 0.029788109, 0.031016435, 0.03906718, -0.0010230383, 0.03598483, -0.009592873, 0.14484629, 0.00023307925, 0.17147885, 0.23364383, -0.053094104, 0.0048122196, 0.024035493, -0.16506495, -0.06485207, 0.25775516, -0.5748854, 0.4714073, -0.14046004, -0.011636613, -0.0599667, 0.1107766, 0.3492469, 0.03571862, -0.008149857, 0.07220335, -0.08408429, -0.10500616, 0.010277214, -0.07993753, -0.0211845, -0.13551907, 0.05658895, 0.24479271, 0.1441654, -0.02355136, 0.021998178, -0.0021655401, 0.11497098, 0.13032913, 0.45128614, 0.35286674, -0.07841978, -0.15905386, -0.072179765, -0.15415712, -0.057202265, 0.0165023, -0.005048508, -0.11930304, -0.13457912, 0.0098211905, -0.041381404, -0.13119256, -0.096727386, 0.04422163, -0.05856461, -0.025204327, 0.041539103, 0.059297733, 0.03813309, -0.033266578, -0.02926243, 0.030598737, -0.079345495, -0.06333089, 0.02625873, -0.007246839, 0.052330256, 0.025351943, 0.4235461, -0.024123441, -0.009374749, 0.19596034, -0.025751496, -0.17869835, -0.12727538, 0.16815615, -0.052792523, 0.0146629475, 0.099927254, 0.10050507, 0.14368512, 0.02343652, -0.018506952, -0.093781635, -0.04788964, -0.023728289, 0.013804713, 0.010197493, -0.057892524, -0.15753774, -0.16005953, -0.030435806, -0.018516267, -0.03341991, -0.04885035, 0.009952705, -0.032032, -0.2444634, -0.4392215, -0.03795962, 0.22701049, 0.026734577, 0.018132122, -0.038136553, -0.012155145, -0.056881435, -0.012614378, -0.04725329, -0.16932365, -0.008082251, 0.0051352056, -0.052681863, -0.08250421, -0.1781932, 0.06680654, 0.089823894, 0.20637025, 0.07867847, -0.12908676, 0.09718755, -0.043837648, -0.09347512, -0.04956347, 0.14517139, 0.063864745, -0.07142414, -0.1114114, -0.020459054, 0.002785606, -0.13613185, -0.07043323, 0.13447812, 0.002345845, -0.14336957, -0.22682194, -0.10747074, 0.44559273, 0.0038323002, -0.035155375, 0.029686406, 0.018969871, 0.12829784, 0.07348142, 0.15152246, 0.028713947, -0.0064906976, 0.06332253, 0.04581713, 0.046768047, 
0.16383442, -0.025782513, 0.10515201, -0.09100166, 0.13103332, 0.012095737, 0.10421893, -0.07931517, -0.10407061, 0.055644736, -0.031610385, 0.050033137, -0.03246793, -0.09546817, -0.12999488, -0.026666157, 0.06819698, -0.00913894, -0.025878595, -0.00180972, 0.028141038, 0.014172787, -0.09326546, -0.1569237, -0.1454237, -0.18503289, -0.099022314, -0.04324877, -0.09423305, -0.17927898, 0.110383034, -0.11352675, 0.017069902, 0.063375905, -0.042929668, -0.03430958, -0.03170816, 0.015846997, 0.083115436, 0.02622264, -0.05150239, -0.069506295, 0.032093644, 0.046906002, -0.24613218, 0.088298604, -0.07688978, 0.20576471, -0.034460135, 0.27261838, 0.019476464, 0.14111972, 0.075301096, 0.07262666, -0.087493, 0.08136377, -0.26102602, -0.004202988, -0.1401272, 0.2189309, 0.056982733, 0.2532893, 0.07430939, -0.25002962, 0.019478723, -0.060820457, 0.046676848, -0.09677746, -0.009318098, -0.19303533, -0.030919151, -0.07820613, 0.06192073, 0.022516178, -0.051366545, -0.13959092, 0.07068743, 0.11089862, 0.09586511, 0.14971241, 0.11164943, -0.404942, -0.16782048, 0.0064187953, -0.125293, -0.03879769, 0.39708412, 0.16038631, -0.023160098, -0.04881964, -0.1518302, -0.057818767, 0.07564036, 0.022434644, -0.15845707, -0.23352484, 0.14852163, 0.040696822, 0.009901735, 0.019428812, -0.032414347, 0.018260239, -0.12116213, 0.10251098, -0.069482066, 0.4000612, 0.05441656, 0.009917465, 0.06377434, -0.011713881, 0.069163784, -0.16998811, 0.26723814, 0.061694294, -0.18250936, -0.045045324, -0.25001583, 0.057830073, -0.0057599517, 0.23982173, -0.024299959, 0.064817846, -0.0542714, -0.10191328, -0.13002054, -0.001602514, -0.06720797, -0.052006487, 0.039484933, 0.006781076, -0.032800376, 0.012165316, -0.16111603, -0.13101079, -0.041028798, -0.014383363, 0.0731682, -0.03048116, -0.056021154, 0.019679027, -0.10773701, -0.14488794, -0.13384968, -0.002494467, 0.18519585, -0.047188193, -0.00947075, 0.03423619, -0.13996539, -0.12300064, -0.0030553828, -0.12350291, -0.18154164, 0.0052835015, -0.07818142, -0.045177367, 0.3097393, -0.14227827, -0.2682081, -0.1564754, 0.011694429, 0.20911187, -0.09964922, -0.22566009, 0.26880434, 0.33509952, 0.05565532, 0.13136496, -0.14172071, -0.018226646, 0.051390138, -0.00020769535, -0.022334768, -0.15930402, -0.11473874, 0.08139286, 0.05414259, -0.12540582, 0.04384614, -0.12587523, 0.006038275, -0.043275397, -0.07576217, -0.035960846, 0.043538414, 0.21089788, -0.0445292, 0.052730802, -0.014781485, -0.015229216, -0.022617511, 0.039591063, 
0.1928488, 0.10516863, -0.19982825, -0.2023157, -0.16874677, 0.2408821, -0.13266817, 0.028193237, 0.012430081, -0.15040119, 0.1266455, 0.06473765, 0.1563236, 0.3034629, -0.04079982, -0.0444374, -0.03826426, -0.16005479, -0.02758023, 0.01659666, 0.011478008, 0.02708957, 0.11751094, -0.21393214, -0.110578515, -0.23792739, -0.019503146, 0.07904036, 0.1709256, -0.023071554, -0.04301628, 0.01720963, 0.016049314, 0.035213992, 0.012691013, -0.2716847, 0.1758565, 0.07278047, -0.05244291, -0.06278748, -0.13758555, -0.19235402, -0.07711735, -0.06710495, 0.35483953, -0.06809079, 0.23220415, -0.18209623, 0.0011546535, -0.32656756, 0.07461194, 0.19564728, -0.0053129713, 0.059886012, 0.09986243, -0.042201906, 0.15059254, -0.25422016, -0.19779684, 0.03996199, -0.012527813, -0.114751734, -0.12020132, -0.02185855, 0.055348933, 0.20413604, -0.17451972, 0.26551783, 0.118161865, 0.2627286, 0.059837975, 0.07531577, 0.03748243, 0.070056394, -0.06014718, 0.0073084785, 0.007815742, -0.1468499, -0.0509495, -0.2737491, -0.25810462, -0.055614743, -0.1645774, 0.16197388, -0.061514378, 0.07509071, -0.23394443, -0.06039006, 0.030967683, 0.28372607, -0.008336235, -0.0012393377, -0.018548647, 0.021336872, 0.31572732, -0.020206127, -0.1828511, -0.07605219, 0.046200816, -0.2921195, -0.35871673, -0.15538847, 0.019087167, 0.020810664, 0.07107475, -0.22230427, 0.23160496, 0.09112534, 0.039914623, 0.056424163, 0.02040227, -0.17437519, -0.22471757, -0.06483757, -0.025923897, -0.011887355, -0.20645879, -0.043123253, -0.15729685, -0.10304492, 0.10416743, -0.06753372, 0.028009094, -0.027499007, 0.21576151, 0.14897124, 0.16842656, 0.051718634, -0.12240354, -0.18553787, -0.0047311606, 0.032841794, 0.056603726, -0.22891076, 0.038515806, 0.0039953017, -0.04802141, -0.11156578, 0.009202976, 0.0013236866, -0.12960593, -0.15529436, -0.16829985, -0.06066194, -0.15402019, -0.1575155, -0.022897627, 0.019124068, 0.003920282, -0.31993437, -0.039489627, -0.032605127, 0.13442849, -0.1443106, 0.09605123, 0.09640416, -0.043568213, -0.044633903, 0.3574913, 0.118130855, -0.232894, -0.0863845, -0.0028208995, 0.27368614, 0.07830171, -0.23808852, -0.11959343, -0.14597963, 0.071472436, 0.034185506, 0.006954219, -0.04360216, 0.37322092, 0.09680288, 0.0063337525, -0.024374284, -0.111950785, 0.07485207, 0.10895186, -0.18959914, -0.23851742, -0.114126764, -0.041781433, -0.023993494, -0.21313171, 0.11527131, 0.11345035, 0.106565304, -0.007194743, 0.04217315, 0.28913346, 0.2620616, 
-0.1010449, -0.03488193, 0.07353644, 0.27834338, 0.113484055, -0.1266169, -0.10336975, 0.14268401, 0.23465827, -0.011123078, -0.048572935, -0.08486314, -0.06465672, -0.24205577, 0.07209855, 0.009127757, 0.007851849, 0.2186286, 0.06050095, -0.023492241, 0.023553206, -0.017202646, 0.04782242, 0.38226286, 0.13729139, 0.5068285, 0.18289663, -0.0010752962, 0.06107699, 0.28629398, 0.008276526, 0.14762948, 0.05663113, -0.07567036, 0.027497135, 0.30597457, -0.037866224, -0.05999342, 0.008930662, -0.005672697, 0.19696128, 0.24492168, 0.02548972, -0.019438902, -0.074168086, -0.04732814, -0.15171978, -0.14505947, 0.021783927, -0.10267685, -0.32666087, -0.2642382, -0.076279975, -0.17159808, 0.16199626, 0.04036528, -0.045566734, -0.06994569, -0.07946823, -0.036071785, -0.006476683, -0.040307224, -0.00084612955, -0.02594453, -0.103355356, -0.120257065, 0.073363565, -0.09837905, 0.0086230235, -0.080514506, 0.051391307, 0.024774875, 0.038960636, -0.16110179, -0.12417081, 0.0044495366, -0.03384138, 0.0134895, -0.049347263, -0.07073959, -0.00094112346, 0.067818694, -0.0051155076, -0.08990746, 0.44283694, 0.07200869, 0.015457493, -0.03899809, -0.012116782, -0.18894437, 0.30962837, 0.22417523, -0.0467688, 0.027728388, -0.00048156508, 0.35567355, -0.030056125, 0.0725574, -0.03690063, 0.22277932, 0.32493597, 0.09507725, 0.14396483, -0.09830791, -0.04379637, -0.072713956, -0.21383545, -0.15127386, -0.099386334, -0.0077335453, -0.050077412, -0.03435748, 0.0037686029, 0.03507583, -0.028861828, -0.13815606, -0.12838484, -0.10176237, -0.038555205, -0.093738005, -0.07254505, -0.10942657, -0.05049733, 0.0029870712, -0.107470326, -0.13673131, 0.01687961, 0.06375615, 0.12176313, 0.172614, 0.027464734, 0.029656237, 0.3253021, 0.56082356, 0.0551961, 0.03984131, 0.02285845, 0.2069064, 0.025433015, -0.0003540872, 0.040141854, -0.101914935, -0.099814646, -0.2390939, -0.060509052, 0.16338225, 0.07264433, -0.03784109, 0.19268163, 0.46610492, 0.07654232, 0.34489337, 0.06524135, 0.1540869, 0.050678514, 0.04991791, -0.079744294, 0.15807417, -0.14989167, -0.10467888, 0.18869096, 0.0047683376, 0.013164572, 0.018458525, -0.194974, -0.03136958, -0.08496863, -0.034948893, 0.16470666, 0.10596791, -0.02819716, 0.048360277, -0.19815819, 0.13880505, 0.011597149, -0.04042377, 0.12157875, 0.09263762, -0.17466861, -0.17752814, 0.15682952, 0.20614341, 0.08691646, 0.038408734, 0.049427114, -0.41630578, -0.31652406, -0.22032306, 0.024744444, -0.0917545, -0.321151, -0.3751727, 
};

const float MyModel_layer_8_bias[] = {
0.060004964, 0.15903108, 0.21793126, 0.29877424, 0.26424757, };




MyModel::MyModel()
	: ModelInterface()
{
	init_buffer(2048);
	total_macs = 103965;
	input_channels = 4;
	input_height = 1;
	input_width = 512;
	output_channels = 5;
	output_height = 1;
	output_width = 1;
}

void MyModel::forward()
{
	Conv1d<512, 4, 8, 8, 4, 0, float, float, float, 0, 1024>(
		output_buffer(), input_buffer(), 
		MyModel_layer_0_weights, MyModel_layer_0_bias);
	swap_buffer();

	ReLU<float, 1016>(output_buffer(), input_buffer());
	swap_buffer();

	Conv1d<127, 8, 16, 8, 4, 0, float, float, float, 0, 1024>(
		output_buffer(), input_buffer(), 
		MyModel_layer_2_weights, MyModel_layer_2_bias);
	swap_buffer();

	ReLU<float, 480>(output_buffer(), input_buffer());
	swap_buffer();

	Conv1d<30, 16, 32, 8, 4, 0, float, float, float, 0, 1024>(
		output_buffer(), input_buffer(), 
		MyModel_layer_4_weights, MyModel_layer_4_bias);
	swap_buffer();

	ReLU<float, 192>(output_buffer(), input_buffer());
	swap_buffer();

	ChannelReorder<float, 32, 1, 6>(output_buffer(), input_buffer());
	swap_buffer();

	Linear<192, 5, float, float, float, 0, 1024>(
		output_buffer(), input_buffer(), 
		MyModel_layer_8_weights, MyModel_layer_8_bias);
	swap_buffer();

	swap_buffer();
}
