#include <MagnetometetNetworkInt8.h>


const int8_t MagnetometetNetworkInt8_layer_0_weights[] = {
44, -60, 55, 23, 
44, 47, 72, 78, 
90, 97, 27, 68, 
58, 68, 71, 61, 
66, 127, 74, 65, 
15, -66, 54, 27, 
9, 95, 0, -63, 
19, 17, 16, -9, 
1, 74, -26, -47, 
-48, 97, -45, 79, 
-86, 59, 61, 36, 
-92, 57, 0, 37, 
21, 31, 17, 66, 
112, -15, 66, -12, 
104, -61, -69, 64, 
-62, 12, 55, -29, 
93, 79, 101, -57, 
37, 8, 33, -19, 
51, 5, -22, 65, 
18, 51, -70, -30, 
-48, -20, 30, 52, 
40, -4, 25, 22, 
32, 33, 89, -22, 
-31, 53, 23, 61, 
118, 81, 41, 28, 
-29, 16, -103, -17, 
-71, -32, -84, -4, 
-18, -62, -35, -83, 
-6, -4, -109, -31, 
-21, -127, 7, -60, 
96, -56, 18, -26, 
54, 1, 84, -104, 
21, -39, 25, -21, 
-44, 18, 52, 64, 
-98, 52, 99, 63, 
-2, 127, -9, 28, 
87, 53, -31, -26, 
75, 30, -14, 56, 
-57, -77, -16, -15, 
-28, -127, 53, -19, 
-127, 10, -52, 34, 
-42, 113, 35, 66, 
127, 62, 50, -70, 
85, -105, -19, -43, 
-58, -97, -17, -29, 
-35, -89, -127, 36, 
-127, -79, -63, 42, 
-46, 40, -14, -95, 
14, -37, 26, -82, 
-2, -79, 51, -86, 
-44, 64, 40, 2, 
-31, 5, -27, 9, 
-42, 26, 18, 23, 
-56, 76, -60, -1, 
24, -26, 11, -54, 
116, 81, -69, -95, 
73, 30, 18, 54, 
35, -127, -37, -40, 
-110, -119, -30, -60, 
-127, -5, 107, -17, 
-11, -125, 65, -33, 
-102, -4, 31, -11, 
-33, 58, 6, 68, 
91, 75, 9, -47, 
99, 36, -98, 55, 
-29, 2, -57, 91, 
-38, 9, -37, -74, 
-34, 70, -38, 1, 
98, 81, 0, 45, 
71, -52, -43, 12, 
15, -71, -102, -1, 
32, -85, -30, -77, 
53, -34, 39, 47, 
112, -39, 67, 62, 
25, -2, 48, -5, 
-24, -1, 35, -27, 
-106, -94, -39, 46, 
-86, -49, 69, -28, 
39, 32, -11, 26, 
-48, -52, -19, 56, 
};

const int8_t MagnetometetNetworkInt8_layer_0_bias[] = {
-6, 117, 38, -5, 4, -28, -127, 85, 64, 41, 127, -28, 73, -9, -127, -51, };


const int8_t MagnetometetNetworkInt8_layer_3_weights[] = {
-127, -55, 7, -46, 85, -76, 0, -67, 45, -16, -38, 42, 43, -47, -36, -21, 
-127, 4, 65, 22, 127, -96, 33, -35, 38, -62, -30, 2, 54, 0, 15, -9, 
-127, 20, 49, 23, 95, -68, -9, 28, 0, -47, 2, 11, 127, -6, -12, -34, 
-127, 1, 86, 19, 118, -68, -49, 44, 42, -82, -13, -56, 127, 31, 8, -4, 
-127, 3, 41, -3, 12, -49, -48, 99, -22, -85, -15, -11, 127, 35, 35, 19, 
17, 23, 52, 99, 126, -98, 40, 70, 45, -35, 42, -23, 57, 66, -80, -73, 
-47, 10, -59, 42, 72, -39, -20, 78, 74, -58, -3, -35, 93, -22, -59, -52, 
-62, -13, -45, -54, -18, -29, -22, 39, 61, -6, 20, 19, 42, 4, -13, -15, 
-87, -30, -50, -75, -3, -19, -2, -10, 54, 0, 0, 24, 50, -53, 3, -1, 
-126, -66, -106, -92, -24, 14, -71, -12, 72, -2, -58, -18, 72, -96, 11, -6, 
-40, 117, 6, 42, -104, 127, -127, 127, -7, -43, 67, -47, -4, 127, -13, -95, 
-37, 12, 0, 1, -69, 82, -89, 87, -21, -9, -25, -5, -57, 84, 5, -63, 
-22, -46, -10, 11, -42, -4, -25, 25, -9, 6, -28, 41, -97, -15, 41, -8, 
11, -55, 3, -16, 32, -80, 63, -46, 12, 13, -46, 47, -82, -86, 50, 58, 
69, -31, 25, -13, 127, -115, 127, -79, 5, 50, -29, 16, -56, -120, -27, 125, 
-20, 14, -21, -54, 12, -95, 18, -65, -11, 20, 58, 4, -47, -46, -28, 15, 
16, 2, 48, 33, 42, 1, 29, -92, 32, 11, -26, 10, -13, 28, 36, 22, 
20, 19, -11, -11, -25, -18, -24, -50, -24, 44, -73, 25, 19, -17, 26, -3, 
18, 23, -21, -7, 28, 31, -42, 10, 6, 35, -92, -3, 8, 17, 54, 19, 
-10, -7, 23, 27, 19, 51, -42, 54, 20, -15, -120, 15, 44, 113, 72, -15, 
-46, 63, -12, 63, 32, -31, -17, 88, 30, -58, 121, -116, 17, 105, -127, -43, 
-9, -15, -26, 6, -6, -4, -44, 52, 51, -7, 0, -70, -24, -2, -10, -29, 
-13, -23, 17, 22, 37, 5, 39, 17, 78, 5, -56, -2, -31, -9, 42, -55, 
-16, -5, -10, 17, 45, -12, 48, -12, 53, 7, -109, 67, 52, -70, 69, 49, 
42, -18, -63, 18, 8, -17, 12, -25, -11, 20, -111, 38, 70, -61, 127, 29, 
19, -85, 33, 2, 59, -4, 43, -57, -9, 106, -73, 127, 31, -43, 127, 43, 
26, -43, -7, -25, 18, -45, 70, -68, -8, 62, -17, 34, 42, 0, 40, 51, 
8, 32, -2, -19, 3, -23, 34, -62, -24, -18, 9, -42, 27, -8, -45, 9, 
-11, 12, -35, 36, -2, 13, -50, 1, -45, -31, 17, -57, 47, -4, -91, -50, 
-38, 96, -23, -5, -87, 54, -116, 76, 58, -86, 54, -101, 51, 65, -100, -58, 
-20, -32, -5, -48, -52, -29, -37, 20, -7, -36, -48, -41, -62, 0, -66, -9, 
21, -6, 65, 0, -45, 35, 5, 31, -3, 33, 5, 37, -94, 5, 20, 16, 
23, 4, 61, -33, -11, 71, -25, 2, 7, 56, -11, 52, -45, 18, -5, -19, 
51, -13, 64, -29, -10, 26, 27, 33, 3, 73, 49, 25, -11, 37, 28, 30, 
87, 29, 76, 31, 28, -3, 58, 2, -33, -4, 92, 38, -3, 32, 58, -1, 
-15, -15, -19, -14, -9, 60, 7, -95, 75, 15, 2, -28, -48, -78, -26, -36, 
-24, -43, -49, 8, 28, 1, 34, -57, 56, 17, 15, -37, -19, -46, -35, -16, 
-8, 30, -23, 17, 12, -44, 41, -79, 5, 19, 23, -42, -48, -16, -23, 6, 
23, 13, -9, 43, 12, -51, 28, -83, 0, 51, 8, 6, -55, -29, -7, -5, 
19, 40, -8, 68, 7, -73, 0, 29, 96, 51, 26, 6, 8, 84, 33, 21, 
-19, -32, 97, -88, -14, 60, -22, 8, -98, 28, -102, -44, 29, -27, 92, 42, 
-3, -39, 111, -84, 15, 19, -28, -36, -127, -16, -70, -127, 11, -50, 54, 43, 
-9, 1, 114, -127, 45, 19, 12, -31, -127, 36, -50, -127, 36, 0, 14, -3, 
71, 53, 106, -127, -13, -43, -4, -16, -122, -3, -35, -127, -7, 2, -71, -37, 
47, 96, 124, -127, 35, -127, -36, -64, -127, -17, 40, -114, 38, 33, -122, -127, 
-33, 20, 29, 26, -113, 13, -117, 91, -2, -79, -9, -81, 24, 37, -31, -49, 
-64, -34, 34, -20, -111, 46, -54, 58, -5, 20, -21, -12, -80, -16, -10, -33, 
-10, -49, 15, -33, -67, 33, 1, 31, -18, 37, 0, 63, -112, 1, 1, -31, 
-20, 18, 20, -39, 66, 14, 66, -1, 15, 40, 23, 46, -117, -34, -2, 35, 
80, 10, 7, 35, 31, -70, 127, 1, -41, 36, 76, 57, -83, -30, -3, 35, 
45, 56, 63, 20, 127, -31, 127, -75, -38, -16, 49, -93, -3, -53, -37, 16, 
42, 60, 53, 46, 97, -18, 25, -3, -28, -28, 54, -127, 89, -41, -71, 41, 
-14, -20, 23, 59, 0, 58, -71, 18, 41, -23, -5, -45, 67, 29, -7, -1, 
-14, -22, -13, -35, -74, 17, -101, 44, 39, 8, -49, 38, -12, 40, 32, -23, 
-80, -116, -60, -100, -127, 39, -108, 36, 49, 74, -102, 102, -21, 30, 119, -36, 
-4, -10, -60, -14, 33, -56, 38, -29, -40, -7, -71, -60, 2, 7, 87, 47, 
14, 28, -40, 66, 0, 17, 2, 16, -61, -62, -85, -40, 21, 20, 34, -77, 
8, 91, -35, 55, 24, 52, 4, 75, -50, -40, -73, -62, 33, 59, 68, -44, 
2, 24, -87, 49, -32, 37, -41, 8, -18, -11, -60, -32, -24, 83, 106, 3, 
-23, 32, -116, -4, -8, 36, -21, 18, -121, 10, 20, -12, -83, 22, 37, -46, 
89, -24, 83, 32, 60, -81, 68, 11, 31, -35, -28, 34, 49, -46, 67, 20, 
52, -4, 40, 57, 53, -74, 20, 37, 49, -51, -4, -36, 127, -4, 65, -10, 
29, 10, -27, -4, -18, -36, -10, 38, 4, -47, -28, -8, 50, 10, -18, -41, 
-28, 23, -76, -42, -63, 0, -20, 46, 2, -24, 5, 20, -27, -14, -31, -31, 
-94, 8, -74, -104, -48, 58, -13, -11, 61, 53, -19, 38, -53, -4, -69, 22, 
-127, -6, 8, -27, -105, 60, -52, 27, 18, 7, 55, 44, -64, 46, -41, 0, 
-127, 28, 20, 5, -110, 0, 0, -50, 31, 98, 23, -10, -77, -10, -33, 8, 
-127, -21, 8, -29, -44, -38, -4, -94, 0, 64, 42, 13, -24, -50, -43, -53, 
-127, -37, 24, -22, -18, 33, -51, -61, -3, 27, -41, 65, -12, -34, -31, -36, 
-37, -14, 16, 23, -24, -67, -6, -13, 94, -6, -22, 25, 7, 33, -18, -16, 
-31, -55, 42, -45, 35, 14, 14, -85, 42, 56, -31, 74, -44, -64, -62, 32, 
-34, 18, -4, -26, 28, -37, 8, -33, 0, -30, 54, 29, 41, -23, 7, 25, 
-36, 39, 20, -26, 0, -29, 0, -31, -54, -2, 44, 34, 64, 2, 14, 18, 
-48, 36, 46, 11, 0, -6, 21, 2, -5, -20, 87, 0, 13, 94, -74, -15, 
-18, 63, 31, 21, -18, 66, 18, 82, 2, -24, 33, -7, 21, 127, -49, -31, 
-46, -36, -72, -22, -53, 109, 0, 39, -24, 44, -38, -16, 19, 25, 56, 85, 
26, 0, 5, 8, -21, 85, 60, 44, -45, 9, -33, 9, -41, 27, 19, 29, 
42, 24, 1, 23, 52, 33, 53, 27, -43, -33, -20, 2, -18, -31, 68, 35, 
53, 21, 3, 33, 42, -50, 37, 19, -39, -61, -4, -20, -9, -60, 20, -8, 
6, 125, 29, 0, 3, -106, 43, -42, -92, -86, 43, -34, -52, -72, -2, -44, 
-1, 68, -8, 47, -20, -45, -16, 69, -17, -41, 53, -25, 35, 58, -32, 4, 
-29, 13, 10, -27, -69, 21, -47, 87, 9, -30, -3, -46, 29, 84, 6, -33, 
-4, -12, 32, 13, 26, 32, -15, 91, 15, -5, 28, -48, -9, 38, -12, 5, 
-2, -46, 8, -20, -57, 39, -1, 87, 20, 15, -16, -36, -31, 56, -2, -30, 
-40, -120, 32, -82, 29, 10, 68, -11, 14, 34, -29, 36, -7, -73, 21, 4, 
-51, 41, 127, -55, -8, 25, 15, 21, -123, -21, -26, 8, -44, 45, 27, 73, 
13, 11, 96, 8, -43, -7, 2, -11, -127, -25, -23, -14, 17, 28, 28, 72, 
-42, -16, 108, -31, -65, 6, -78, 2, -92, -88, -58, -87, 15, 60, 82, 34, 
-61, -19, 114, 73, 1, -72, -83, -24, -127, -23, -40, -75, -22, 37, 5, 42, 
-107, 38, 127, 80, -127, -32, -90, -65, -101, -60, -58, 11, -32, 82, -29, -27, 
-50, 26, -9, -36, -23, -9, -11, 35, -6, 4, -41, 4, 23, 79, -5, 49, 
-56, 10, -17, -38, 9, 9, 8, -6, -3, 70, -46, 106, -57, -5, 41, 6, 
-3, 0, 4, -5, 53, -16, 31, -29, 22, 75, 14, 47, -45, 29, 13, 44, 
-40, -31, -22, -25, 0, -40, 47, -25, 34, 2, -25, 12, 63, -55, 13, -16, 
-2, 35, 35, 55, 65, -106, 7, 6, -34, -119, -7, -100, 58, -26, -29, -38, 
-51, 45, 68, -40, -26, -66, -20, -59, 21, -14, 126, -32, 1, -2, -127, -19, 
-51, -23, 82, -21, -41, -22, -15, -4, 56, -19, 60, -30, -15, 5, -66, -25, 
-16, -3, 65, 2, -17, -27, -34, -13, 72, -11, 32, 8, 14, 26, -27, 0, 
13, -69, 10, 31, -3, -18, -13, 34, 57, 33, -22, -2, 18, 19, 50, 8, 
82, -53, 52, 17, 30, -5, 47, 36, 64, 45, -83, 65, -5, 33, 124, 22, 
-127, 6, -4, -10, 82, -30, 98, -54, 75, 17, 7, -23, -24, -7, 22, -22, 
-127, -13, 17, 57, 68, 13, 15, -14, -17, 11, 25, 2, 98, 6, 15, 36, 
-127, 16, 60, 13, 57, 0, 40, -18, -51, -51, -2, -34, 21, 28, 15, -2, 
-127, 45, -47, -13, 36, 0, -19, 26, -34, -44, 13, 7, -16, -21, -13, -36, 
-127, -47, 25, 32, -2, 12, -40, 51, 59, -12, -36, 5, 28, -51, -48, -57, 
-33, -12, -62, -16, -75, -24, -12, 0, -7, -51, -72, 50, -19, -96, 67, -66, 
-13, 31, -13, -4, 6, 39, 0, -29, -21, -51, -108, 71, -9, -22, 45, -12, 
-9, 16, 31, 70, -22, 36, 64, 25, -38, -33, -48, 37, -39, 60, 45, 53, 
-22, 36, -59, 80, 11, -7, 82, 29, -44, -28, 16, -20, -66, 58, 39, 79, 
15, 79, 35, 66, 4, 18, 49, 16, -47, 15, 41, -11, -64, 7, 8, 75, 
-77, -62, -28, 16, -59, 28, 8, 15, 39, 19, -64, 56, 110, -49, 31, -9, 
-66, -33, -70, 21, -36, -19, 21, 47, 17, -10, -86, 47, 11, -31, 25, -2, 
-32, 19, -65, 2, -38, 51, -4, 18, 51, -30, -81, 34, 44, 0, 13, 26, 
-18, 9, -110, 62, 7, -37, -38, 31, 23, 15, -23, 29, 54, 33, 20, -94, 
-13, 66, -55, 127, 30, -127, -20, 45, 10, -3, 57, -48, 0, 39, -36, -68, 
-77, -38, 55, -54, 17, -52, -12, -98, 13, 46, -38, 9, 81, -39, -43, -14, 
-127, -31, 3, -62, -52, -26, 14, -37, 83, -4, 12, 37, 20, -9, -27, -11, 
-127, 20, -28, -36, -11, 31, -37, 8, 90, -13, -7, -2, 23, -1, -57, 15, 
-67, -5, 38, -39, -67, -24, -48, 15, 61, 41, 26, -11, 105, -23, -33, -18, 
9, -5, -23, -39, -36, 94, -102, 24, 9, 10, 5, -47, 91, -13, -5, -20, 
-77, -52, 69, 1, -94, 75, -100, -21, 2, 58, 45, -54, 34, -10, -63, -27, 
-48, -42, 62, -86, -66, 72, -36, -25, -68, 29, -12, -22, 32, 10, -45, 27, 
-23, 5, 71, -23, -60, 13, -52, 1, -41, 34, 6, -15, 18, 22, 17, 33, 
31, -6, 119, -97, -38, -28, -38, 31, -24, 13, 35, 27, -93, -28, -9, 52, 
-5, 3, 87, -30, 9, -67, 88, 40, -48, -50, 12, 11, 18, 42, 32, 68, 
34, 94, 102, 89, 80, -99, -46, 36, -3, -127, 127, -117, -8, -22, -66, -127, 
10, 20, 49, 52, 24, -31, -28, 65, 17, -58, 16, 11, -12, 27, -25, -99, 
13, 8, -29, -9, -44, -20, -30, 52, 35, 10, -5, 14, -51, 25, -13, -18, 
-42, -43, -82, -40, -53, 46, -10, 10, 54, 66, -76, 66, -60, 3, 26, 26, 
-13, -94, -84, -60, -24, 84, 127, -25, 42, 127, -100, 126, -40, -8, 88, 127, 
-38, -59, -12, -77, 97, -51, 54, -127, 70, 18, 0, 15, 36, -100, -26, 31, 
15, 27, 8, -9, 47, -90, 17, -90, 58, -26, 20, -41, 77, -33, -17, -26, 
-1, -7, 15, 13, 58, -31, -20, -19, 110, -49, 35, -72, 87, -31, -42, -46, 
-16, 30, 23, 22, -1, 14, -55, 38, 74, -52, 24, -87, 127, 74, -25, -41, 
-45, -67, -23, -6, -47, 36, -71, 114, 31, -12, -38, -52, 127, 30, 19, -51, 
-127, 12, 117, -127, -42, -27, -1, -122, 63, -50, -26, 8, 18, 23, -12, 17, 
-127, 52, 127, -127, -62, 17, 42, -25, -24, -6, 38, 7, 3, 76, 55, 58, 
-127, 37, 127, -127, -124, 11, -34, -44, 8, -20, -7, -29, -2, 49, 49, -7, 
-127, -67, 105, -71, -116, -47, 33, -38, 0, 20, -49, -37, -26, 10, -26, 37, 
-127, -61, 127, 65, -105, 32, -43, 7, -8, 19, -27, -17, -29, -59, 2, -33, 
-58, -23, -84, -70, -69, 127, -14, -31, 13, 116, -30, 85, -30, -19, 30, -1, 
-41, -29, -57, -46, -22, 65, -1, -67, -17, 24, -43, 36, -6, -42, 49, 7, 
-4, -23, -15, -1, 22, -63, 2, -48, -45, 7, -28, 11, 84, -39, -1, 27, 
41, 40, 31, 38, 63, -114, 16, 17, -28, -51, -6, -58, 101, 9, -13, 30, 
93, 81, 24, 127, 59, -127, 12, 88, -28, -102, 55, -91, 114, 114, -26, 4, 
30, 32, -13, 10, 29, -31, -11, 35, -127, -31, -22, 127, 55, 3, 18, -40, 
22, -5, 24, 3, 38, -52, 64, 35, -24, 0, 0, 25, -43, -9, 2, -27, 
24, 18, -12, -20, 1, -77, 21, 13, -17, 91, 13, -13, 3, 22, 5, 31, 
31, 30, -6, 21, 19, 24, -42, 12, -41, 119, 6, -118, 50, 16, -47, -17, 
17, -4, 25, -41, -6, -59, -60, -46, -127, -14, 24, -86, 43, 24, -7, -9, 
-58, -103, -72, -77, 26, 89, 18, -127, 15, 78, -121, 68, 45, -118, 28, 127, 
6, -1, -50, -8, 27, 1, 48, -75, 28, 48, -38, -12, 42, -68, 19, 24, 
33, -4, -51, 50, 39, 6, 13, -57, -26, -17, -6, -22, 62, -25, 42, -26, 
13, 38, -78, 65, 38, -8, -5, -5, -2, -14, 3, -53, 85, 66, 14, -47, 
-23, 127, -73, 51, 24, 14, -58, 55, -43, -35, 55, -69, 71, 87, -42, -112, 
7, -22, 75, -12, -4, -11, -7, -11, 127, 22, -38, -41, 75, 37, 67, -20, 
-12, 1, 40, -37, 19, 15, -16, -30, -2, 49, 6, -53, 127, 37, -12, 63, 
0, 1, -37, -36, -8, 20, 3, -47, -127, 1, 45, -24, 94, -14, -10, 5, 
-11, -10, -64, 6, -2, -17, 28, -2, -127, -41, 0, 37, -87, -38, -29, -13, 
2, 26, -34, 71, -1, -8, -10, 46, 71, -43, -4, 112, -127, -12, -23, -23, 
};

const int8_t MagnetometetNetworkInt8_layer_3_bias[] = {
83, 127, -53, 37, -46, 11, -127, 61, 34, 84, -59, -127, 58, 127, -46, -102, 127, -29, 67, 22, 116, -127, 29, 127, -40, -49, 127, 66, -42, -36, -50, -31, };


const int8_t MagnetometetNetworkInt8_layer_6_weights[] = {
-108, -83, -1, 77, 31, -1, 28, 22, 78, -16, -12, 8, 17, -113, -33, 0, 4, -15, 38, -29, -127, 11, 23, -127, -99, -61, 44, -57, 22, -38, 88, -2, 
-10, 79, 63, 24, 23, 16, 88, 10, -24, -31, 6, 14, 56, -10, 8, 22, 22, -23, 19, -51, -80, 11, -11, -58, 23, -113, -43, 32, 14, -4, 23, -24, 
48, 44, -30, -1, 46, 71, 41, 2, -43, -25, -25, 30, 5, 10, -6, 10, 1, 22, 12, -54, -9, -15, 41, -10, 5, -64, -49, 72, -29, 4, 29, -12, 
27, 9, -84, -45, -25, -27, -3, 8, 1, -1, -74, 36, -17, -49, 18, -57, -14, 43, -10, 54, 69, -61, 47, 39, 16, -44, -8, 27, -127, 28, -11, -1, 
-27, -13, -127, -27, -64, -127, -47, 22, 109, -123, -106, -127, -12, -106, 47, -61, -18, -66, 32, -19, 43, -36, 127, -64, -12, -127, 32, 70, -127, 48, -108, 0, 
25, -80, 50, -2, -28, -59, -1, -10, -4, 57, 11, 20, 44, -16, 80, -11, -8, -25, -15, 32, -103, -15, -60, -13, -5, 67, 85, 24, -3, 36, -5, 28, 
45, 28, 29, -15, -22, -35, -13, -30, 84, 44, -15, -24, -36, 61, -50, -27, 9, -10, -15, 25, -43, -11, 41, 9, 17, 29, 60, 5, 25, 5, 4, -63, 
-81, -24, 2, -29, 39, -19, -40, -31, -98, -59, -62, 21, 30, 20, -27, 21, -31, 46, -73, -25, 50, 0, -32, 48, 3, -73, 56, -52, 15, -64, -27, -46, 
-92, -72, -99, 1, 0, -28, -33, -1, -23, 43, -83, -70, 17, -7, -51, -25, 43, 32, -54, 39, 12, -25, -109, -39, -36, -3, 87, -15, 38, -4, -67, -50, 
-1, -84, -23, 52, 103, -108, 21, 22, 29, 8, -22, -5, 72, 28, -37, 22, -5, 47, 74, -15, -23, 64, -3, -120, -22, 33, -28, -14, 80, -11, 22, -51, 
-127, -20, -5, 9, -26, -3, -15, 4, 26, 9, 33, -127, -95, 39, -11, -105, 19, -127, -19, -18, -20, -63, 3, 50, -18, -41, -38, -2, -62, -62, -1, -42, 
-95, -69, 73, 41, 40, -30, 18, 8, 76, 17, 40, -41, 10, 67, -43, -80, 7, -123, 13, 17, -95, 22, 86, 16, 13, 5, -11, -57, 70, 5, 62, -80, 
32, -117, -70, 3, -27, -33, -18, 0, 52, 7, -69, 44, 86, 58, -25, -43, -63, 79, 7, -33, -102, -10, -13, -51, -15, -14, 89, -59, 33, 20, 47, -84, 
127, 65, -29, -12, 4, -117, 3, -18, -9, -8, -23, -34, 77, -26, 55, -28, -12, 26, 31, -46, -58, 15, -4, -95, 16, -61, 5, -29, 30, -6, 2, -102, 
114, 67, -27, -24, -4, -20, 43, 29, 111, -72, -11, -27, 24, 32, 52, 6, 82, -101, 0, -63, 15, 48, 72, -72, 37, -4, 100, -64, -22, -40, 0, -76, 
-23, 60, 39, -21, -15, 14, 70, 7, 36, 0, 8, 4, 46, -48, -30, 61, 31, -43, -32, 56, 14, -20, 34, -49, 90, -14, 19, -66, -26, 25, 34, -71, 
-127, 20, -20, -1, -40, 91, 17, 44, 22, 35, 75, 2, -19, 47, -21, -26, 17, -57, 56, -22, -27, -51, 18, -15, -22, 2, -60, 44, -16, -36, -23, -127, 
46, -31, 57, 48, 24, 49, -14, 39, -65, 40, -70, -13, -99, 62, 61, -5, -70, 25, 101, -80, -7, -23, 22, 8, -6, -48, -16, -19, -18, -39, -49, -127, 
94, -62, 49, 14, -5, 45, -73, 17, 44, -127, -7, 53, 44, -78, 22, 21, -49, -37, -11, 40, -19, -30, -14, -101, -37, 11, 125, -41, 36, -6, -19, -127, 
-74, 3, 0, 0, -15, 20, -40, -100, 41, 8, 100, -27, 40, 12, 0, -10, 44, -25, -117, -14, -48, -34, -34, 34, 6, 110, -101, 116, -7, 33, -119, -127, 
5, 32, -49, 30, -7, 13, 0, 1, 27, 48, 35, -108, -29, -30, -3, -127, 20, -17, -14, -8, -3, -76, 34, 30, -1, -62, 42, -11, -127, -15, -48, -22, 
25, 8, -27, 28, -10, 14, -25, -13, -13, 61, 45, -14, -27, -26, 5, -127, 3, 7, 31, -13, -9, -11, 20, 33, -10, -46, 21, 14, -104, -41, -2, -63, 
38, 22, -127, -25, 13, 21, -43, 0, 15, 66, 31, 5, -19, -30, 34, -127, 8, -14, 98, 2, -6, 51, 113, 3, -3, -25, -45, 24, -127, -11, 36, -40, 
25, -12, -127, -20, -47, 18, -37, 8, 0, 25, 34, -123, -42, -22, 18, -127, -10, -8, 54, -1, 9, 18, 55, 33, -14, -107, -19, -4, -127, -15, 39, -55, 
43, 16, -127, -105, -123, 86, -59, -45, -49, 15, -36, -49, -46, 1, 16, -127, 6, -18, 43, -22, -18, -127, 29, 91, -20, -121, 11, 31, -127, -88, -52, -44, 
-127, -2, 43, -10, -42, 0, 7, 63, -64, 36, 90, 43, -25, 126, 21, 6, -1, 127, -29, 43, -20, -63, -4, -6, -38, -26, -127, 55, 21, -30, 42, -127, 
-127, -127, 0, 44, -21, -15, -20, 61, 10, 58, 58, 0, -7, 75, -28, 5, -36, 76, 55, 66, 88, 3, 62, -15, -56, 51, -51, 81, 55, -54, 55, -127, 
-127, -101, 15, 30, 28, 30, 45, 58, 25, 82, 36, 54, 73, 47, 60, -34, -33, 10, 80, -44, -48, -17, 26, -73, 15, 14, 8, -41, 21, -11, 73, -127, 
-42, 105, -53, -39, -25, 110, -18, -44, -27, -24, -11, -3, 2, -127, 51, -59, -15, 35, -48, -44, -127, -11, 56, -127, -19, 67, 19, -127, -1, -7, 16, -127, 
-29, 28, -6, -29, -61, 127, 52, -127, -20, -76, -41, -23, 1, -44, 9, -116, 11, 14, -89, -49, -39, 20, 48, -127, 73, 20, -34, 0, -127, -33, -6, -127, 
-127, -127, -49, 2, -20, -56, -17, 50, 12, -92, -49, 3, 39, -61, 100, -3, -22, -60, -41, -60, -41, 0, -62, -89, 127, -34, -126, -127, -17, -9, -81, -127, 
-63, 0, -26, 39, 24, -32, 3, 7, 79, -20, -33, -18, 13, 15, 50, 6, -37, -41, 55, -37, -49, -12, 57, 4, 67, -13, -57, -60, -23, -14, -4, -127, 
80, -13, -27, 43, 13, 54, 1, 28, 56, 56, 57, -2, -2, -17, -13, 24, -34, -11, 16, -8, 8, 23, 0, 100, -127, 39, 17, -18, 30, -5, 16, -38, 
9, 94, 27, 95, -56, 75, 47, 47, 14, 28, 56, 10, -2, -22, -40, -7, 19, -30, 9, -11, -86, 9, 55, 42, -114, 56, 4, -9, -21, 1, 38, -124, 
36, 88, -35, 10, -58, 48, -65, -1, 66, -6, 29, -64, -56, -65, -25, -127, 80, 65, -27, -58, 11, -56, 7, -13, -127, -92, 22, -36, -111, -41, 46, -127, 
10, 81, 100, 37, -13, 72, -30, 1, 62, 40, 90, -107, 6, 35, 7, 18, 20, 24, -17, -20, -11, 16, 78, -13, -106, 16, -32, 16, 91, -45, 38, -127, 
40, 0, 12, -35, -89, -20, -22, 28, 80, 67, 84, 9, 27, 16, 16, -5, -39, 48, 12, -23, 40, 25, -6, -10, -40, -18, -7, 102, 13, 41, 31, -127, 
-19, 32, -8, -20, -56, 26, -127, 17, -43, 31, -5, 49, -14, -64, 28, -43, 12, 23, 12, -37, 58, -35, -15, -78, 32, 25, 56, 66, -9, -16, -8, -127, 
-45, -29, -45, -5, 6, -51, -106, 5, 13, -77, -62, -29, -26, -53, -44, -29, -23, -21, -38, -25, -46, -28, -26, -88, 114, 6, -10, 126, -16, -34, -49, -127, 
-47, -109, -33, 33, 109, 23, 35, 16, 63, -32, -99, 21, -17, -127, 15, 8, -46, -97, 28, 1, 54, 54, 10, -127, -51, 31, -57, -127, -24, -56, -50, -127, 
-5, 58, 98, 73, 17, 26, -14, -17, 20, 52, -13, -4, 33, 18, -71, 15, 24, 34, -18, -51, -1, -27, 2, -6, -2, 21, 47, -104, 77, -68, 37, -62, 
18, 30, 87, 0, 11, 7, 34, -1, -83, -24, -26, 13, 54, -7, -16, -16, -11, 64, 14, -75, 79, 2, 9, -33, -17, -27, 27, -34, 76, -52, 2, -107, 
-63, 24, -5, -15, 6, 18, 45, 6, -84, -17, -63, 38, 18, -16, -18, 15, 9, 108, -9, -16, 30, -28, -39, 10, -66, -28, 17, -69, 7, 0, 10, -70, 
-51, -44, -22, 9, -18, -8, 4, 23, 41, 8, -88, 86, 17, 54, 30, 45, -8, 127, 12, -20, -21, -115, -24, 44, -26, -36, -8, -62, -23, 4, -75, -66, 
-11, -83, -34, -22, -30, -32, -100, -26, -42, -7, -127, -127, -52, 51, -49, -22, -7, -108, -5, -27, -35, -127, -22, -24, 29, -32, 19, -21, -127, 21, -64, -37, 
15, -49, 32, -3, 67, -127, -11, -21, 16, -13, 14, 75, -95, 55, 84, -49, 70, 46, 18, -9, 17, -3, 7, 6, 24, 30, -17, 43, -72, 80, -127, -32, 
53, -47, 4, 26, 62, -127, 50, 33, -45, -18, -92, 17, -24, 8, 21, -29, -15, 0, -63, 22, 74, 44, -14, -7, -23, -8, -16, 15, -63, 50, 0, -109, 
13, -31, -30, -2, 31, -127, 36, 24, -84, -27, -76, -28, 32, 54, 23, -12, -3, 2, -37, -15, 109, 2, -4, 22, -51, 6, -11, 18, -64, -40, 0, -127, 
-90, -90, -32, 1, -5, -126, 21, 21, -3, 11, -72, -25, -46, 22, -41, 18, 3, -8, 0, -22, 75, -2, 0, 29, -29, 27, -90, 35, -40, -38, 24, -124, 
-127, -127, 14, 38, 50, -98, 21, 43, 91, -38, -51, -9, -41, -47, -94, 33, -45, -37, -2, -24, -109, 43, -28, -16, 8, 70, 32, -118, 16, -38, -7, -49, 
-127, -29, 9, -32, -12, -127, 13, -31, 10, -3, -35, 5, -11, -62, 63, -56, 56, -107, -65, 56, 26, -127, -36, -34, -86, -2, 3, -120, -127, 11, -107, -109, 
34, -24, -4, 0, 28, -113, -27, -3, 36, -13, -45, -33, -44, -47, -16, -17, 16, 113, 8, 15, 13, -61, -36, -25, -3, 0, 1, 0, -85, -19, -73, -68, 
-33, -46, 1, 12, 7, -20, -30, 16, 17, 0, 30, -50, -26, -7, -21, -66, -33, -27, 31, 46, -59, -15, -13, -43, 41, 19, -20, -18, -30, 62, -14, -67, 
-32, -18, 40, 35, 10, 80, -26, 25, -50, 49, 29, -38, -52, -5, -40, -26, -14, -40, 6, -2, -31, -41, -5, 38, -15, 76, -36, 11, 65, -9, 67, -88, 
-80, 78, 21, 70, 60, 127, 8, -44, 17, 58, 51, 11, 45, 27, -49, -43, -6, -109, 25, 50, -3, -16, -2, -42, -70, 47, 38, 103, 67, -51, 51, -28, 
-82, -33, 45, 19, -65, -27, -15, 25, 51, 26, 70, -70, -127, 51, -62, -127, -34, -94, 39, -4, -41, -13, 74, -20, -25, 21, -35, -8, 75, -90, 67, -25, 
87, -113, 7, 8, -22, -50, 46, 25, 52, 0, 70, 54, -125, 15, -16, -37, -15, -127, 21, 6, -3, -46, 45, -7, -30, -62, -20, 53, 45, 31, 71, 22, 
-65, 94, -21, 49, 11, -69, -35, 11, 4, 1, -7, 37, -6, -24, 65, 28, 46, -127, 24, -48, -45, -10, 52, -27, 10, -72, 7, 71, 94, 63, 20, 66, 
-47, 61, -66, 15, 25, -44, -23, -33, 9, 17, -19, 19, 10, 7, 51, 26, 9, 9, 5, 3, -33, -15, -16, -21, -30, -54, -7, 41, 31, -22, -14, 42, 
-16, 58, -40, -61, -87, -25, -60, -8, 6, 15, 0, -84, 25, 16, 8, 44, 49, 68, 7, -123, -74, -82, -42, -9, 21, -11, -44, -6, 32, -30, 23, 28, 
-127, -1, -22, -3, 24, 8, -18, 34, 41, 42, -72, 4, -17, 88, -12, -24, 12, 10, -99, -50, -86, -109, -24, 14, 89, 24, 11, -36, -64, -25, -67, -28, 
-30, -8, 7, -22, -29, -106, 6, 71, -54, 10, -29, -18, 7, -29, -17, -27, -10, 21, -54, -21, -49, 88, 19, -38, -14, -88, 41, 13, -89, 53, -72, -6, 
10, 27, -22, 23, 49, -127, -25, 24, -41, -21, -72, -22, 34, -37, -34, -52, 0, 5, 25, -18, -34, 114, 29, -31, 52, -74, 14, -43, -127, 4, 9, 28, 
0, -17, -19, 17, 38, -86, -60, 5, -60, -60, -127, -29, 24, -24, -12, -85, 12, 31, -14, 0, -20, 28, -55, -13, -55, -18, 14, 40, -65, 38, -127, 5, 
-127, 37, 4, 104, -17, 51, -38, 18, 66, -23, -26, 48, 52, 66, 22, -42, 30, -39, -7, 29, -57, 40, 11, 5, -13, 84, 22, 24, -127, -40, -127, 10, 
-127, -56, 39, 82, 0, 36, -58, 63, 73, -71, -57, -29, 60, -111, 2, 50, -80, 11, 0, -37, -119, 11, -100, -127, -25, 95, 24, 15, 22, 11, 9, -107, 
-34, 28, 53, -2, -25, 7, -9, 49, 38, 43, 1, 6, 3, -118, 4, 28, 17, 67, 68, -17, -9, -48, -64, -75, -23, 22, -17, -77, -4, -6, -8, -127, 
-54, -50, -7, 25, 44, 52, 8, 64, -70, 42, 38, 8, 1, -71, 5, -5, 59, 36, -3, -21, 41, -91, -74, 57, 0, -5, -28, -64, -37, 31, -21, -127, 
46, -45, -30, -1, 71, -24, 48, -11, -6, 13, -22, 61, 18, 28, 29, -1, -7, 26, -33, -65, 28, -127, 17, 66, 14, -5, -35, -11, -38, -34, -82, -113, 
120, -77, -10, -110, 55, -13, 28, -65, 36, -124, -127, 51, -3, -97, 3, -95, 0, 17, 0, 64, 43, -66, 127, -51, 6, -23, 8, -41, -14, -2, -18, -37, 
-86, 51, 55, -2, -31, 3, 53, 42, 10, 63, 64, 53, 36, 61, 28, 23, 18, 15, -8, 9, 116, 34, 6, -5, -32, -28, 20, 87, 2, 78, 72, -127, 
-50, 32, -2, 37, -1, -71, 49, -3, 15, -34, 19, -25, 60, 8, -13, 4, -13, -36, -46, -28, 2, 19, -4, -46, -2, -11, -15, 87, 29, 40, 52, -115, 
-60, 54, 9, 48, 6, -44, 41, -22, 61, -4, 5, -11, 1, 66, 18, 22, 18, -41, -12, 37, -22, -4, -30, -24, 16, 36, -19, -9, 3, 12, -10, -100, 
20, 28, 29, -5, 15, -72, -43, 25, 101, 26, -73, 7, 20, -24, -30, 28, 24, 24, 30, -20, -33, -34, 42, -91, 47, -85, -65, -20, -12, 11, 28, -117, 
6, 28, -127, -30, -24, -91, -127, 40, -1, -9, -115, -35, 2, -75, -91, 17, -19, -10, 4, -55, 92, -77, -30, -122, -81, -127, -71, 74, -39, -24, 6, -20, 
0, 0, 0, 0, 0, 0, 0, 0, 0, 0, 0, 0, 0, 0, 0, 0, 0, 0, 0, 0, 0, 0, 0, 0, 0, 0, 0, 0, 0, 0, 0, 0, 
0, 0, 0, 0, 0, 0, 0, 0, 0, 0, 0, 0, 0, 0, 0, 0, 0, 0, 0, 0, 0, 0, 0, 0, 0, 0, 0, 0, 0, 0, 0, 0, 
0, 0, 0, 0, 0, 0, 0, 0, 0, 0, 0, 0, 0, 0, 0, 0, 0, 0, 0, 0, 0, 0, 0, 0, 0, 0, 0, 0, 0, 0, 0, 0, 
0, 0, 0, 0, 0, 0, 0, 0, 0, 0, 0, 0, 0, 0, 0, 0, 0, 0, 0, 0, 0, 0, 0, 0, 0, 0, 0, 0, 0, 0, 0, 0, 
0, 0, 0, 0, 0, 0, 0, 0, 0, 0, 0, 0, 0, 0, 0, 0, 0, 0, 0, 0, 0, 0, 0, 0, 0, 0, 0, 0, 0, 0, 0, 0, 
6, -35, -127, 9, 37, -4, 17, -3, -127, -70, -7, -23, 8, 30, 67, 33, 43, 47, -8, 22, 77, -39, 16, -20, -28, 0, 41, 60, -43, -5, 31, -51, 
-108, 37, -63, 23, 76, -80, 22, -54, 74, -51, -19, -16, 35, -37, -76, 24, 62, 60, -73, 4, 66, -5, 5, -9, -86, -37, -59, -24, -52, 0, -13, -72, 
-14, 42, -11, 36, 9, -3, -6, -2, 73, -20, -86, 19, 36, -24, -81, 5, 15, 12, -2, -42, 13, 19, 22, -3, -28, -61, -55, 3, -35, -46, -52, -67, 
9, 10, 25, -20, -41, -7, 1, 37, 24, -15, -39, -27, 2, 31, -4, 38, -10, -127, 43, -70, -47, 16, 48, -18, 52, -21, -27, 103, 36, -24, 0, -58, 
-77, 14, 94, -82, -101, -45, 76, 63, -32, 16, -90, -15, 2, -7, 63, 11, -80, -127, 25, -30, -65, 27, -41, 0, 127, -74, 34, -16, 25, 15, -37, -29, 
1, -20, -8, 6, -86, -66, 19, 41, -3, 1, -15, -29, -63, 4, -4, -36, -80, 84, -17, 6, -127, -44, 20, 55, -27, 13, 4, -50, 40, -86, -16, 34, 
74, -78, -3, 7, 10, 29, -26, 4, 16, -20, -21, -50, -11, -60, 57, 8, -84, 101, 18, 7, -14, 3, -2, -50, -52, 6, 49, -127, 2, -23, 12, 10, 
-16, -12, -19, 10, 28, 48, -93, -59, 2, -17, 35, -37, 21, -127, 9, 10, 8, -42, -28, 67, -90, -2, 36, -90, -127, 43, 37, 85, 92, -29, -22, 42, 
-75, -30, 67, -3, -21, 8, -18, -30, -11, 53, 107, 30, 7, 21, 36, -17, 64, 10, 36, -5, -2, 16, 50, -32, -1, 45, -57, -31, -23, -28, 12, 4, 
86, -127, 71, 13, 44, 99, -56, 65, 40, 106, 111, -24, -11, 25, -7, 7, 20, -44, 76, -44, -9, 27, -6, 66, 21, 81, -127, -44, -9, -10, 57, 42, 
-125, -3, 63, 60, 26, 8, -75, -7, 71, 87, 84, -28, -62, 52, -26, 0, 25, -12, 19, -77, 15, -64, 15, 25, -12, -33, 20, -82, 45, 9, 127, 24, 
-34, -1, -58, 11, 62, -10, -127, 9, -125, 67, 0, 50, 5, -17, 38, -18, 80, 72, 3, -58, -52, -118, 2, 8, -4, -18, -14, -7, 28, -5, 84, -29, 
-6, -48, -23, 45, 19, -105, -120, -22, -1, 33, -102, 19, 27, -41, -50, 24, -26, 99, 0, 62, 0, -28, 7, -15, -60, -77, 22, 89, -87, -51, -75, -28, 
-56, 0, -63, 28, -29, -11, 19, -14, -70, -37, -123, -35, -38, 22, 17, -5, 32, -41, 53, -18, 41, 20, 6, -22, -24, -23, -45, 23, 6, -51, -33, -6, 
-48, -36, -70, -59, -18, -47, -98, 45, -127, -42, -95, -85, 59, 38, -3, -12, -10, -35, 32, 9, -7, 11, 14, -6, 4, -127, 91, 88, 35, 38, -20, -25, 
-7, 83, -72, -10, -26, -127, -25, -36, -96, 10, 5, -127, -109, -14, 11, -82, 41, -64, -39, 41, 38, -69, 14, 35, -30, -43, -12, 83, 69, -72, -15, 3, 
-62, -28, 27, 73, 40, -61, 1, -53, 111, 64, 0, 49, 57, -14, -47, 14, 35, 27, 19, 31, -7, 22, 19, -65, -13, 23, -12, -25, 38, 13, 111, -36, 
-49, -16, 9, 20, 21, 70, 10, -37, 46, 43, -111, 46, 93, -31, -33, 23, -25, 88, -14, -18, -74, 32, 0, -71, -8, -15, -37, -90, 63, -4, 13, -26, 
-61, -67, 2, -43, -31, 57, 7, 51, -12, 69, -97, 20, 19, -48, 8, -35, -48, -13, 3, -62, 30, -13, 19, -22, 23, -44, 41, -53, -40, -14, -33, -36, 
45, -48, 69, -38, -67, 13, 26, 71, 10, -7, -20, -24, -26, 29, 22, -12, -68, -58, 15, -1, 49, 7, -10, 94, -2, 7, 56, -10, -44, -17, -39, 17, 
-55, 12, 59, -40, 15, 24, -4, 4, 86, 4, 13, 17, 35, 29, -25, 68, -5, 62, 8, -6, -26, 79, 65, 15, 9, 69, 14, -127, 0, 6, 23, 87, 
-20, -20, -127, 8, -32, -53, -77, -16, -12, 11, -53, -71, -4, 2, -19, 9, 9, -49, 32, 40, -43, 81, 9, -19, -19, -26, 27, 8, -112, 7, -23, 115, 
-35, 0, -127, -14, -11, -62, -43, 5, -5, -7, -73, -62, -19, -7, -32, 2, 23, 4, -44, 21, -32, -71, -35, -17, -15, -21, 26, 3, -100, -36, 1, 88, 
-25, -11, -127, 14, -71, -66, -34, 3, 20, 23, -105, -127, -1, -18, -31, -79, 24, -10, -9, -23, 29, -72, 18, 4, 4, -60, -16, 5, -127, 41, -49, 126, 
-126, -60, -121, 37, 9, -42, -71, 19, 50, -5, -66, -18, -9, 12, -10, -109, 63, -35, 14, -24, 6, -5, 42, 32, -35, -108, 14, -29, -127, 100, -81, 62, 
49, -52, -106, -31, -43, 49, -16, 68, 101, -87, -28, 37, 66, -48, 1, -31, -6, 16, 31, -54, 98, -32, 25, -69, -78, -1, 74, 27, -24, 19, -39, -127, 
-9, 4, -26, 30, 19, -88, 10, 6, -37, 1, -47, -94, 5, -32, -17, -45, -4, 46, -31, 2, 121, -17, -18, -39, 65, -70, 27, 45, 4, 2, 24, -127, 
-127, -75, -63, 69, 54, -46, 2, -17, -59, -66, -11, 22, -3, 37, 0, 5, 28, 73, 20, 18, -28, 54, -15, -17, 24, -12, -63, -64, 14, 52, 52, -65, 
-127, -68, 44, 42, -8, 77, 17, -36, 59, -66, -56, 54, 25, -3, -27, 43, -17, -44, 81, 55, -84, 23, -12, 34, -15, -57, -47, -83, 0, -1, 29, -90, 
18, 111, 52, -71, -74, 25, -88, -15, 30, -62, -4, -55, 53, 30, 42, -5, 39, -11, -66, -69, 5, -38, 6, 70, 32, -30, 43, -28, -40, 0, -48, -107, 
72, 62, -36, 45, 2, 70, 7, -86, 0, -122, 25, 25, 8, -87, 0, -18, 53, 0, -52, -108, 31, 30, 46, -22, 65, 2, -127, 51, -25, -32, -11, -127, 
68, 18, 21, -7, 96, 29, -8, -33, 29, -14, 34, 44, 25, -68, 4, 6, 32, 9, -20, -52, 39, 1, 61, -43, 5, 60, -122, 12, -42, 22, 11, -127, 
97, -48, -33, 42, 69, 20, -47, 24, -27, 41, -89, 10, 16, -26, 3, -28, -15, 28, -32, -44, 48, -41, 9, -22, 24, -20, -43, 26, 17, 46, 68, -127, 
112, 7, 11, -53, -54, -14, 25, 86, -24, 16, -100, -26, -20, -67, 12, -34, -44, 2, 0, -33, 78, 72, -76, -54, 15, -116, -17, 34, -50, -3, 14, -127, 
127, 47, -22, -34, -34, -7, 8, 65, -8, -6, 30, -85, -77, -30, -10, -119, -27, -9, 46, -23, 78, 13, -93, -34, 6, -11, 61, 39, -89, -4, -13, -127, 
6, -97, -127, -39, -26, -53, 35, -127, 16, -78, -74, 85, -84, 60, 29, -63, 94, 15, -127, -39, -81, -37, 127, -31, 25, -127, -72, -61, 55, 21, -114, 76, 
28, 12, -127, -49, 5, -127, 52, -11, 3, -14, -32, -12, -28, -86, 32, 1, 48, 42, -93, -12, -30, 4, 13, 57, -8, -109, -62, -10, 1, 30, -93, 81, 
-39, -43, -127, -10, 71, -127, 26, 44, -3, -52, 28, -22, 2, -127, 29, 61, -14, 3, -12, -13, -104, -4, -44, -60, -26, -63, -21, 34, -48, 23, -127, 77, 
-51, 25, -127, 16, 47, -127, -5, 89, 5, -29, -7, -51, 6, -127, -20, 21, -65, -4, 18, 27, -41, 21, -71, -33, 1, -46, -3, -2, -63, 12, -127, 69, 
-4, 62, -127, 127, 79, -127, -23, 87, -11, -49, -65, -76, 31, -5, -90, -3, -79, -7, 127, 29, 20, -38, -27, 9, -2, -59, 28, -27, -127, -13, -116, 37, 
-127, 8, -14, -21, -7, -115, 15, 14, -44, 36, 94, -25, 87, 91, 24, 22, 47, -73, -35, 30, 14, -17, -115, -105, -37, 23, 49, 35, -80, 1, -2, -36, 
-115, 3, -32, 18, 35, -60, -57, 7, -39, 10, -28, -1, -101, 112, 11, -23, 24, 4, 20, 0, 52, 1, 17, 45, 53, 31, -127, 47, 7, -89, 1, -30, 
-20, -68, 2, 31, 22, -12, -20, 13, -63, 15, -48, -20, -14, 30, -53, -15, -21, 77, 0, -33, 6, 3, -15, -20, 15, -50, 35, -62, 6, 6, 15, -1, 
80, 45, -14, 37, 17, -15, 14, -15, 29, -52, 19, 10, 14, -75, -55, 17, -36, 103, 14, 7, -56, -47, 10, -85, 24, -30, 40, -73, 14, 49, 41, 21, 
69, 71, -114, -20, 6, 0, -127, -59, -9, -55, -24, -23, 18, -39, -1, 62, 22, 28, -11, -11, 51, -38, 23, -45, 63, -61, 37, -26, -45, 3, -38, -14, 
-6, -97, -121, 29, 34, -64, 42, 39, -8, -44, -58, -16, -127, -17, 50, -127, -18, 13, 60, -64, 116, 69, -14, 10, 37, -127, -58, 6, -127, 12, -19, -127, 
36, -26, 2, 12, 26, -127, 48, -1, -28, -31, -10, 52, -50, -8, 24, -127, 0, 14, 5, -7, 105, 66, 16, -22, 8, -127, -11, 9, -110, 37, -14, -127, 
10, -16, -23, 35, 36, -90, -8, 1, -21, -36, 0, 9, -17, 23, -12, -109, 6, 23, 11, 2, 50, 30, 29, -45, 4, -127, 9, 14, -11, 39, -31, -127, 
20, -6, -67, -4, 76, -51, 1, 37, -46, -17, 64, -4, 43, -20, -36, -44, 19, 23, -1, 2, 39, 30, 50, -59, -1, -127, -24, 45, 4, -44, 35, -127, 
50, 66, -9, -4, -37, -40, -6, 53, 36, -22, 55, 48, 109, -23, -46, 21, -2, 10, 39, -40, 53, 10, 62, -78, 6, -31, -35, 67, 48, 58, 21, -127, 
-127, -100, 76, 4, 10, -23, 8, 0, 122, -39, -7, 19, 68, 42, -22, 36, -46, -127, -44, 32, 19, 0, 37, 5, -117, -15, 10, -35, -50, 20, -13, -93, 
-55, -81, -5, 0, -5, 25, -29, 3, 112, -1, 7, 18, 7, -15, 23, -33, -18, 17, -31, -3, -63, -15, 48, 10, -54, 10, -77, -20, -67, 6, -49, -101, 
-37, -105, -48, -20, -39, -44, -67, 29, 1, 21, -59, -32, -30, 0, 34, -41, -47, -51, 0, -8, 15, -1, 9, -27, 55, -30, 5, 68, -33, 5, -35, -127, 
-127, 27, -60, 28, -24, -56, -10, 45, 17, 61, 15, -95, -41, -17, -21, -29, -41, 61, -14, -43, -71, -23, -4, -40, -19, 30, 69, 5, 57, 9, -27, -127, 
-127, 96, 64, 33, 36, -45, 83, 47, 17, 71, 45, 102, 31, -27, -38, 55, 40, -124, 23, -23, 36, 43, -30, -9, -13, 33, 12, -104, 96, 4, 44, -107, 
-127, 36, -99, 14, -36, -127, -22, 25, 15, 10, -127, -44, -127, 79, 49, -2, -18, 24, 30, 79, 111, -21, -23, 41, -11, -85, -87, -15, 15, -124, 47, -20, 
-127, -76, -99, 59, -10, -127, -65, 13, 0, 26, -2, -3, -91, 92, 18, 21, -22, 88, -11, 1, 28, 15, 0, 90, -29, -42, -57, 17, 9, 11, 49, -33, 
-70, -127, 80, 42, 6, -127, -12, 2, 50, 53, -80, 8, 53, 45, -40, -29, -58, 18, 12, -72, -127, -17, 44, -71, -18, -127, 5, 62, 6, -13, 84, -11, 
66, 116, -53, -3, -25, -127, -46, -4, 5, -110, -127, -35, 9, -127, -19, 19, 56, 51, -44, -76, -127, 44, 31, -127, 21, 31, -2, -46, 32, -1, 8, 7, 
44, -35, -46, 14, 7, -127, 31, 0, 53, -32, -127, -2, 19, 2, 18, 1, 85, -55, -25, -66, 38, 22, -23, -9, 15, 23, 39, 66, -95, 1, -116, 6, 
-127, -48, 53, -26, 23, -3, -71, -61, 45, 33, 80, -25, -9, 22, 77, -40, 59, 78, -32, 1, -127, -1, 97, -72, 17, -16, 29, 43, 79, 34, 2, -104, 
-127, -85, -13, -9, 16, 60, -54, -49, -37, 26, 2, 4, 19, 21, 53, -23, 17, 86, -40, -30, -45, -5, 19, -9, 33, 8, -45, 49, 1, -14, -30, -127, 
-120, -36, 26, -18, -6, -28, -34, 38, -35, -2, 29, -8, -6, -16, 45, -32, 25, 14, 1, -78, -21, -44, 22, -111, 7, 5, -33, 56, -7, -44, -30, -127, 
-71, 11, 32, -16, 44, -9, 17, 78, 6, 7, 77, -25, 7, 0, -42, 29, -21, 8, 23, -95, -76, -7, 2, -127, -19, -45, -18, -44, 8, -43, -40, -104, 
-123, -9, -35, 75, 83, -48, -54, 98, 72, -22, 15, -5, 32, 35, 7, -6, -125, -82, 58, -49, -8, 28, -9, 39, 44, 73, -57, -96, 34, -25, -34, -93, 
49, 11, -15, -15, -7, -51, -63, 76, 127, -31, -30, -2, -42, 6, 0, 14, 12, -42, -18, 7, 8, -108, -32, -13, 2, -26, 48, -73, -5, -102, -10, -127, 
-6, 10, 35, 0, 37, 52, 0, 62, 45, -6, 49, -45, 8, -3, 6, 3, -22, 32, 30, -34, 31, -12, 2, -19, -49, -2, -42, -18, -12, -48, -19, -127, 
-6, 16, -18, 70, -45, 55, -6, 12, -36, -74, 79, 18, 5, -11, 29, 12, -23, -2, 8, 32, -14, 17, 28, -32, 97, -56, 82, 0, 111, -4, 44, -127, 
-68, 9, 45, -11, 39, -36, -6, -44, -98, -41, -10, 35, 54, -8, 8, -12, 71, -52, -79, -40, 22, -14, 39, -43, 65, 73, -46, -46, -116, -48, -86, -127, 
-127, 6, 78, 37, -17, 127, -32, 16, -127, 95, 73, -43, -59, 51, -49, 0, -16, 29, 50, 10, -33, -49, 19, -41, 85, 28, -82, 20, 116, -47, 55, -101, 
70, -30, -110, -27, 42, -29, -46, 18, 104, -75, -26, 38, 82, -127, -1, -13, 12, -3, 46, -59, -40, 58, 38, -39, 15, -8, 30, -120, -59, 53, -48, -18, 
-84, 50, -41, 30, 40, -39, -5, -22, -38, 46, -2, -62, -1, 14, -37, -60, 16, 44, -118, 1, 43, 19, -33, 40, 10, 0, -25, 0, -77, 89, 34, -43, 
-72, 16, 32, 0, -6, -34, 23, -34, 5, 19, 35, 30, -39, 74, 30, -54, 24, 26, -1, 8, 2, -7, -2, 61, -26, 58, -97, 44, -87, -38, -127, -19, 
-53, 7, 15, 35, 39, -24, 36, 72, 4, 24, 21, -25, -72, 32, -70, -15, -53, -51, 48, 14, -46, 7, 42, -58, -36, -31, 38, 53, 68, 31, 8, -32, 
95, 47, -10, -16, 2, -7, 9, 43, -58, -42, -37, -3, 82, -23, 46, -29, -69, -23, -10, 55, 23, -17, -35, -95, 5, -30, 32, -8, 16, 28, 3, -44, 
-17, 64, -123, 19, -34, -57, -14, 67, -46, -47, 24, 14, 19, -3, 34, -20, -12, 70, 37, 23, 30, -31, -36, -1, 30, 14, 1, 34, -6, 41, -27, -127, 
-42, 50, -84, -4, -5, -22, 10, 40, -31, -82, -27, 15, 2, 10, 0, -55, 37, 52, 19, -3, -16, 29, -31, -15, 15, 20, 7, 8, -115, 1, 6, -127, 
-67, -14, -36, 49, 15, -50, -41, 2, 9, -83, -32, 16, 12, 11, 12, -71, 11, -5, -12, 2, -13, 83, -23, -12, -12, -7, -18, 17, -127, 53, -127, -127, 
-63, 30, -62, 35, 34, -84, 22, 29, -13, -98, -26, 56, 39, -2, -14, -64, 6, 2, 3, 12, -5, 56, -6, -37, 9, -11, -38, 8, -127, 8, -127, -127, 
20, 40, -43, 50, 31, -46, -9, -18, 23, -10, -67, 9, 50, -18, -30, -41, 4, -2, -1, 28, 7, 17, -15, -17, -8, 27, -49, -29, -127, -61, 28, -127, 
73, -26, 46, 10, -2, 101, -22, -14, -1, -46, -31, -16, -23, -71, 17, -17, -38, 124, 64, 101, 3, 13, -21, -47, -29, -97, 70, -42, 50, 12, -3, -61, 
-50, 61, 74, -15, 12, 52, -32, -19, -43, -9, 83, 39, 73, -4, 6, 20, 121, -16, -79, -5, -31, -35, -33, -37, 44, 30, 8, 15, -61, 16, -13, -102, 
-81, 5, -5, 18, 4, 32, -28, -3, -39, 88, 9, -31, -63, 56, -33, -53, 74, -31, -11, -24, -32, -3, 15, -1, 38, 63, -127, 42, 15, -17, -2, -127, 
14, -36, 73, 62, 75, 19, 24, 60, 8, 60, -81, -8, -72, 58, -1, -22, -51, -17, -4, -75, -34, 34, 34, 8, 3, -85, -55, -22, 26, -38, 10, -88, 
15, 6, -26, -7, -14, -41, -38, 29, 110, -82, -65, 66, 99, -9, 44, -5, -71, -46, -17, -24, -5, 19, -12, -56, -49, -39, 78, -5, -15, -3, -23, -55, 
-105, 49, -48, -49, -127, -40, 0, 43, -117, -3, -50, -120, -70, 33, 127, -127, 9, 41, -37, -20, 127, 6, -83, 5, -44, -3, -46, 34, -109, -127, -62, -127, 
-86, 32, -31, -8, -43, 71, 53, 10, -127, 21, -51, -127, -49, 25, 5, -107, 8, -4, 1, 35, 106, -40, -38, 58, 12, -15, -54, 18, -22, 0, -44, -127, 
-127, 14, 6, 34, 47, 30, 39, 3, 33, -34, 45, 29, -5, 32, -43, 32, -15, -42, -8, -15, 67, 32, 28, 8, 43, 29, -2, 20, 59, 51, 67, -127, 
-79, -47, -33, 8, 53, -45, -14, -40, 29, 21, -26, -3, 101, -3, -7, 4, -35, 4, -10, -44, -17, -18, 5, -35, -43, -6, -52, -10, 37, -51, 36, -127, 
35, -127, -80, 65, 40, -127, -30, -1, 66, -46, -78, 8, -17, -19, -87, 8, -35, 127, -5, -10, -73, 14, 30, -40, -19, -52, -33, -110, -6, -28, -29, -127, 
-127, -14, 64, 33, 47, 18, 77, 39, -7, -51, -24, 76, 8, -127, -10, -13, 25, 52, -47, -116, -104, 46, -44, -98, 90, 45, -22, -82, 30, 44, -4, 24, 
7, 51, 35, -20, -42, -60, 23, 33, 19, 3, 20, -22, -6, -18, 0, 24, 0, 5, 2, -94, 60, 54, -53, -16, -23, 28, 37, -49, -25, 59, 50, 69, 
55, 45, 24, 9, -22, -113, 3, 12, 45, 27, -28, -7, -12, -29, -11, -1, 32, 15, 10, -30, 83, 22, -17, 5, -68, 42, 4, -38, -127, 15, -8, 90, 
48, 5, -56, 67, 26, -127, -19, -21, 0, 8, 1, -13, -38, 0, 9, -33, 4, 2, 22, -14, 15, 12, -25, 13, 63, -17, -40, -28, -127, -17, -22, 65, 
98, 87, -127, 48, -67, -127, -127, -68, -65, -33, -52, -127, -7, -34, -1, -127, -11, 67, -20, -35, 6, -127, 32, -24, -49, -108, -40, 58, -127, -95, -59, 55, 
19, -28, -105, 66, 38, -80, -46, -11, -75, 9, -127, 47, -26, 76, -59, -43, -2, 67, -46, 70, 19, -11, 22, 45, -39, -23, -17, 19, -23, 5, -8, 123, 
-15, -10, 11, 27, 23, 1, 19, 31, 35, -7, -48, 50, 55, -14, -44, 39, -7, 20, 60, 20, -13, 34, 17, -17, 21, -65, 34, -20, -43, 27, 19, 127, 
-55, 6, -98, -35, -21, -33, -60, 7, -51, -16, -55, 0, 21, -67, -4, 42, 50, 15, 0, -40, 29, 71, -29, 2, -42, -12, 40, -27, -4, 25, -1, 107, 
5, -22, -56, -33, 22, -127, -38, -2, 4, -47, -107, -53, 8, -41, -20, -40, -1, -51, -26, -1, 16, -18, -5, -14, 24, -17, 23, -17, -106, 40, -118, 127, 
-127, -10, 36, 23, 30, -47, 78, 37, 23, 0, -37, 2, -52, 10, 45, 3, 19, -37, 0, 0, -19, 46, -5, -8, -32, 25, -18, 8, 57, 36, -3, 127, 
-69, -34, -14, 0, -1, -127, -47, 45, -127, -12, -59, -88, 19, 50, 43, -53, -9, -34, -18, -41, -28, -61, -25, -59, 31, -33, 58, -78, -24, 14, -42, -113, 
-125, -16, 10, 66, 44, -61, 21, 33, -33, -24, 2, -10, -13, 56, -11, 22, -45, -53, 20, -70, 4, 35, 15, 33, 49, 31, -11, -23, 16, -17, -35, -55, 
-45, -4, -45, 54, 2, 48, -35, -3, 127, 21, -25, 38, 63, 20, -5, 64, 5, 67, 26, 33, -18, 17, 5, -57, -11, 5, -2, -41, 67, 46, 38, -86, 
-26, 38, 21, -10, 33, -36, 13, -24, 68, 16, -4, 30, 50, 16, -41, -78, 12, 33, -44, -44, 15, -104, 5, -12, -13, 15, -3, 17, -56, -10, -24, -88, 
-5, 41, -117, -2, -16, -127, -80, -6, -43, -3, -89, -101, -30, 4, 55, -12, 33, -15, -39, -38, 47, -33, 51, 42, -15, -51, -125, 101, -16, -30, -68, -107, 
4, 7, -52, 0, 28, 91, -30, 68, 25, 24, 53, 59, 44, -43, 26, 92, -13, 124, -2, -17, 34, -82, 65, -14, -20, -21, -7, -50, 67, -14, -29, -40, 
70, -48, 26, -14, -20, 127, -52, -18, -20, 9, 19, -2, -3, 31, -1, 16, -2, 36, -49, 31, 28, -47, 21, 17, 15, 5, -75, -37, 44, -57, -75, -90, 
51, 4, -2, 2, -57, 43, -12, 5, -127, 1, 1, -7, -73, 40, 29, -65, -17, 32, -76, -3, 47, -33, -82, -1, 11, -22, 0, 30, -5, -59, 12, -57, 
-64, 65, 39, 30, -7, -67, 9, 1, -26, -22, 49, -17, -38, 37, 19, -54, 0, -11, -23, 5, 49, 20, -58, 25, -30, 24, 0, 16, 44, -89, -22, -68, 
-123, 56, 27, 61, 74, -40, -22, -53, -23, -31, 76, 2, 36, 59, -48, -43, 7, -59, -2, 4, 24, 43, -11, 5, -3, 38, -34, 25, 72, -66, 47, -18, 
127, 95, -127, -50, 3, -127, -56, 42, -10, 39, -79, -65, -3, -46, 7, 8, -24, -51, -2, -20, -33, 20, -51, -26, -25, -21, 56, -7, -31, 52, -21, -7, 
-88, -18, -89, 13, 18, -127, -26, 31, -14, 91, -127, -5, -6, 73, 48, 20, -1, 50, -81, 18, -60, -16, -31, -24, -29, -14, 42, -4, -70, 61, -23, 56, 
-127, -90, 12, 60, 34, -115, -28, 14, 113, 13, -127, 51, 21, 127, 22, -19, -17, 81, 3, -11, 21, -23, 50, 22, 16, -15, 7, 50, -13, 53, -17, 34, 
-127, -27, -35, 29, 38, -97, -3, -11, 44, 8, -5, 76, 58, 0, 20, 43, -6, 60, 45, -127, -1, 30, 87, -19, 42, -60, -20, 94, -2, 55, -29, 31, 
-100, 18, -99, -32, 29, -46, -14, -41, 29, -31, -69, 49, 33, -127, -73, 5, 0, 44, 7, -127, 29, 28, 61, -127, -4, -76, -31, -42, -58, -27, -13, 39, 
1, 15, 5, -18, 9, 101, -37, -39, -15, 0, 84, 27, 9, -127, 47, 25, 14, 84, -63, 75, -34, -58, 22, -127, 11, 35, 59, 97, 68, 4, -23, -127, 
34, 16, 43, -19, 23, 53, -62, -49, -52, 72, 109, -2, 6, 10, 9, 26, 19, 17, 0, -11, -53, -44, -5, -2, 21, 37, -30, -14, 19, 14, -76, -80, 
-127, -15, 32, 9, -24, 95, -21, 22, -73, 82, -54, 45, -10, 18, 10, -23, -12, 107, 47, -29, 2, -15, 4, 28, 20, 100, -72, -38, 42, -40, -4, -127, 
-36, -84, 68, 21, 12, 89, 27, 45, 55, 57, 39, 43, 65, 14, -13, 23, -48, -105, 42, 7, 35, 11, 34, -16, 24, -2, 38, -36, 38, -28, 20, -127, 
-67, -7, 27, -37, 25, 0, -37, -28, 99, -114, 30, 57, 27, -14, 75, 11, -62, -12, -39, -83, 35, -19, -28, -55, -48, -38, 1, -49, -41, -15, -19, -126, 
-23, -21, 34, 34, 127, 101, 0, -73, 127, 56, 35, 31, 54, -13, -9, -63, 38, 16, -41, -100, 21, 38, 90, -18, -32, 16, -127, 7, -127, 26, -83, -17, 
-97, -52, 56, 40, -64, 17, 36, 58, -36, 49, -81, 41, -20, 18, -16, -121, -81, 23, 18, -91, -47, 21, 64, 31, -38, 21, -23, -1, 21, 32, 22, 0, 
20, -70, -3, 19, -103, -10, 31, 50, -11, 34, 32, -97, 34, 20, 63, -69, -86, 30, 1, -28, -54, -10, -40, 25, -24, -20, 108, -20, -7, 8, 7, -36, 
-32, 33, 37, -22, 42, -16, 12, 33, 58, -68, 21, 60, 26, 19, 15, 6, -5, 7, 16, 26, -85, -69, -84, -18, -21, -61, 22, -56, -4, -35, 22, -2, 
-44, 66, -127, -47, 18, 2, -64, 12, 39, -48, -56, 98, 5, -1, 22, 63, 46, 8, -14, -27, -9, -127, 41, -1, -114, 2, 5, -66, -83, -4, -11, -3, 
24, -54, -97, 38, -22, -42, 17, 25, -98, 24, -127, -9, -48, 112, -17, -3, -3, 98, 9, 3, -16, -2, -19, 81, 57, -83, -57, 6, -8, -43, -27, -20, 
-53, -26, -96, 16, -26, -11, 32, 37, 8, -37, -60, -28, 51, 22, -56, 8, -74, 23, -4, -2, -22, -31, -42, 27, 35, -112, 11, -68, -35, 19, -78, -27, 
-1, 36, -127, -13, 11, 19, -13, 14, 62, -100, -32, 22, 43, 3, -12, 23, -24, 24, -10, -23, 11, -47, -28, -8, -33, -37, 21, -95, 33, 23, -18, -46, 
12, 61, 20, 11, 38, -10, -38, -43, -40, -34, -8, 23, 20, -16, 10, 50, 41, -26, -87, -51, 60, 48, 2, 7, -93, -30, -6, -38, -3, 34, -1, -36, 
-2, 59, -50, 42, 17, -116, -109, -28, -127, 48, 23, 2, -11, 12, 44, 36, 80, 93, -27, -40, 38, 57, 10, -5, -22, -21, -35, 108, -81, -55, -33, -19, 
-127, -108, 13, 71, 68, -16, 26, 17, 78, -100, -31, 30, -10, -30, 44, 9, -70, -71, 15, -127, -119, -30, 10, -38, 23, 61, -8, -47, 46, -53, -10, -75, 
-34, -58, 68, -8, 19, 17, 24, -2, 55, -59, 42, -19, 38, -68, -23, 57, -2, -90, 39, 0, 35, 48, 0, 27, 58, -30, 48, 89, 71, 5, -5, -71, 
-127, 38, 49, -13, -22, 37, -31, -36, 39, 67, 33, -39, 49, 46, -46, 23, 46, -36, -81, 87, 35, 104, -15, 17, -107, 19, 3, -88, 109, -39, -13, -127, 
-92, 38, -118, 9, -50, -127, -63, -21, -72, 28, 32, -67, -17, 15, 25, -127, 1, 2, 77, 61, 78, -127, 35, 27, -40, -87, -81, 15, -127, -111, -88, -127, 
-20, -1, -127, -37, -83, -127, -127, 14, -22, 2, -79, -87, -55, -10, 111, -127, 1, 127, 19, 13, 92, 0, 71, -14, -31, -127, -24, -34, -127, 9, 5, -127, 
-127, -5, -11, 5, -55, 103, -56, 28, 68, 24, 23, 16, -60, -35, -10, -7, -44, -27, -12, -63, 104, -16, 75, -97, 9, -21, -55, 26, -14, -78, 78, -127, 
-127, -40, -4, 16, -32, 67, 31, 28, 24, 12, -52, -44, 11, 39, 99, 6, -127, -55, 50, -4, 83, -9, -1, -65, -15, -24, -20, 82, 43, -21, -8, -127, 
-127, -106, 53, 2, 32, -15, 36, 70, -33, 43, 67, -14, 73, -47, 56, 4, -56, -13, 52, 8, -6, -43, -3, -68, 35, 36, 27, -15, 9, -20, 26, -127, 
-127, -65, -38, 17, -6, -4, 42, 8, 9, -41, -5, -23, 0, -57, 56, -46, -40, 71, 45, 3, -68, 42, 45, 67, 47, 0, -44, -127, 4, -14, -26, -127, 
63, -127, -46, 11, -30, -64, 57, 42, 52, -88, -17, 53, -35, -127, 55, 8, 53, 127, -9, -20, -37, 19, 97, -73, 28, -24, 3, -127, -30, 36, -6, -127, 
-84, -4, 52, -6, 39, -5, 40, 45, 48, 44, -11, -84, 6, 73, 21, -19, -19, 127, 3, -106, -61, 19, -34, -55, -30, 70, 29, -52, -6, 8, -23, -127, 
-20, -44, 113, -4, 4, 118, -46, 7, 105, 30, 16, -90, -6, 2, 84, -29, -9, -127, -14, -44, -31, 30, 5, -10, -102, 68, 69, -29, 60, -3, 47, -127, 
-48, 42, 49, 13, 4, -30, -36, -32, 44, -48, 5, -88, -21, -36, 18, -33, -27, 38, -49, -54, -21, -12, 28, 14, -58, 29, 51, -17, 30, -25, 9, -127, 
-33, 21, 16, -8, 13, 42, -45, -12, 7, -82, -68, 8, -20, -63, -38, -4, -9, 18, -20, -61, 50, -22, 60, 13, 73, -45, -28, 75, -10, 11, 17, -127, 
-120, -65, -31, 48, -14, 63, -107, -7, -109, 19, 10, 75, 41, -40, 27, 21, 28, 105, 80, -82, 16, 12, -2, -83, 126, -23, -33, 18, -5, 55, 14, -127, 
86, 30, 1, 1, -57, 127, 11, 63, 43, 109, 44, 88, 70, 50, -45, 38, -17, 6, 46, -12, 88, -3, 34, -105, 57, 50, 18, -4, 56, 4, 72, -55, 
23, 78, 39, 12, -65, 89, 20, 29, 38, 55, 66, -23, 41, -78, 40, 23, -6, 3, 28, 9, 41, 15, -32, -127, 56, -2, 38, -54, 44, 30, 25, -23, 
24, 66, -18, 13, 80, 12, 39, -31, 17, -18, 35, -61, -32, -114, 31, -38, -2, 41, -23, -15, -8, -13, -34, -95, 0, 50, -39, -30, -75, -18, -12, 49, 
12, 0, 40, -17, -38, 1, 18, -30, 16, -3, -12, -60, -49, -38, -12, -56, -14, 14, 69, 14, 51, 29, 67, -46, 9, -6, -33, -9, 4, -2, 37, 56, 
-9, 46, -58, 13, -127, 20, 21, 9, -60, -50, 121, -4, -62, -10, -9, -79, 8, 16, -56, -52, 2, -14, -28, -33, 34, -48, -68, 17, -50, -8, 87, -22, 
-73, 17, 22, 17, 14, 6, 0, 18, 5, -50, -65, -6, 5, 52, -21, -13, -62, -14, 19, -15, -75, 13, 4, 0, 69, -44, -55, -32, -64, 5, -21, 64, 
12, -14, 25, 40, -33, 3, -48, 16, 11, -92, -50, -54, -30, -6, 29, -24, -52, 5, 68, 30, 25, 63, 13, -26, -3, -113, 78, -64, -8, 50, 0, 53, 
31, 27, -47, 17, 28, -93, -27, -20, -18, -73, -21, 9, 8, -65, 14, -7, 26, 67, -91, 28, 42, 1, -7, -26, -30, -18, 109, 9, -70, 10, 50, 66, 
-36, 7, -34, 3, 23, -108, -47, -17, -107, 94, 7, 14, 35, -42, 23, 21, 88, 41, -54, -37, 4, 31, 15, -11, -16, 56, -48, 65, -17, 9, -58, 74, 
-89, -41, 73, -4, -7, 3, 18, 43, 73, 127, 14, -55, -24, 52, -28, 2, 2, 55, 74, -101, -39, 0, -9, -3, -20, 78, -53, -3, 30, 16, 15, 6, 
86, 63, -31, -12, -114, -127, 44, 95, -19, 37, -52, -127, -95, 50, 37, -36, 12, -14, -21, 53, 53, -51, -48, 9, -28, -66, 79, 127, -39, -2, -44, -84, 
-11, -3, -7, -13, 17, -114, 35, -7, 28, 6, 99, 48, 74, 6, -18, 21, 14, -39, -25, 60, -18, 9, -46, -8, -83, -20, 0, 9, 20, -70, 72, -52, 
-37, 34, 10, 16, -2, -77, 49, -64, 10, -8, -22, 55, -26, 25, 29, 21, 0, -8, -34, 23, 38, -1, -2, 43, -127, -47, -53, 24, 1, -33, 10, -67, 
-93, 4, 32, 19, -29, -58, 17, -15, 18, -24, -92, 35, -24, 95, -51, 34, -35, -7, -55, -12, -26, 12, -15, 13, -78, -68, -21, -32, -5, -12, -3, -17, 
103, -127, 42, -13, -22, -56, -13, 44, 26, 41, 26, 0, 53, -77, -60, 27, -35, -81, 64, -41, -127, 18, 73, -101, -27, -32, -7, -66, 60, -27, 66, -64, 
-115, -8, 13, -8, -15, -47, 25, 47, -7, 127, 58, 43, -35, 50, 5, -41, -1, 32, 34, -6, -28, -9, 0, 34, -65, 16, -47, 3, -53, -82, -29, -91, 
127, -69, 23, -17, 28, 39, 42, 20, -35, -44, 10, -39, -58, -79, -19, -20, -32, 18, 41, 27, -13, 12, 0, -59, -10, -101, 122, -99, 80, -11, 63, -127, 
88, -2, 57, 3, 84, -57, -43, -45, -44, -66, 21, 27, 99, -127, 1, 9, 29, 71, -15, 37, -61, -14, 33, -127, -106, 66, -38, -99, -89, -32, -50, -123, 
-127, -33, 15, 6, -57, 127, -6, -7, 1, 43, 114, 0, -40, 71, 24, -5, 15, 55, 35, 31, -93, -14, 17, -1, -10, 0, -74, 75, 46, 2, 6, -127, 
-50, 1, 23, 23, -10, 86, -27, -3, 55, 45, -56, -45, -30, 81, 44, -55, 6, -56, 4, -16, -41, -12, 2, 24, 10, 1, 20, -31, -14, 30, 14, -114, 
-20, 38, 29, 60, 6, -28, -17, -1, -11, -39, 22, -14, 8, -16, -60, -22, 127, 77, -58, -27, -51, 3, 104, -92, -21, -60, -25, 22, 73, -37, 19, -13, 
-111, 26, 56, 25, 29, 1, -1, 6, 12, 96, -7, -8, 2, -3, -18, -28, -19, -26, -10, -73, -51, -10, 74, 24, 4, -11, -106, -41, 49, -40, -1, -33, 
32, -121, 26, 0, -30, 80, -2, 46, 54, -18, -46, -26, -10, 20, -9, -55, -115, -24, 72, -36, -97, 16, -12, -46, 37, -91, 80, -15, 69, 39, -37, -44, 
55, -15, 60, 4, 22, 69, 0, 48, 0, -51, 10, 36, 61, -51, 72, -23, -35, 11, 14, -16, -9, 11, -9, -66, 17, -8, 55, -70, 11, -17, -59, -72, 
-11, 22, -9, -47, -26, 23, 34, -61, -46, 81, -26, -9, 7, 38, 78, -23, -20, -19, -13, 12, 48, 13, -40, 22, 37, -84, 11, 37, 46, -9, -58, -89, 
-74, -58, 59, 23, 19, 14, 25, 7, 12, -3, -9, 23, 9, 12, 34, -30, -20, -49, -8, -5, 11, -61, -68, -36, 30, 50, 36, -63, -3, -62, -102, -127, 
-76, 72, 10, 12, -11, 16, -3, 30, -16, -16, 101, -29, -65, 31, 23, -32, -9, 101, 39, -4, 57, -1, -33, 14, 12, 5, -2, -53, -9, -63, -29, -127, 
-51, 11, -24, 48, 35, -8, 8, 37, 30, 57, 41, -40, -54, 58, -2, -29, -7, 35, 21, 2, -46, 0, 10, -36, 52, 36, -21, -38, 0, 4, -22, -127, 
112, -112, -10, -16, 70, -55, -61, 22, -2, -52, -30, 0, 21, -37, 2, -34, -41, -9, 57, -19, -15, 11, 37, -54, 67, -127, 10, -56, -14, 11, 11, -127, 
57, 53, -37, 18, 4, 2, 4, 27, -58, 39, 84, 108, 60, -126, 43, 26, 68, 60, -8, -63, -4, -53, 32, -66, -23, 111, -36, 18, -31, 87, 26, -103, 
10, 28, 115, 17, 37, -31, 11, -6, -26, -2, 3, 93, -15, -2, -55, 44, 18, 109, -35, -93, -12, 11, -16, -3, 18, -21, -3, 88, 33, -38, 67, -127, 
-87, -9, 80, -2, -13, 2, 0, 30, 116, -7, -114, 45, 101, 9, -3, 37, -34, -10, -30, -53, 0, 37, 8, 17, 17, -43, -2, 41, 15, -20, -22, -127, 
-58, 48, -98, -64, -39, 17, -23, 33, 34, 8, -45, 0, 0, 15, 36, -11, 2, -76, -27, -17, 0, 3, -73, 37, 14, -46, -8, 19, -31, 13, -12, -127, 
-16, 6, -24, 11, 9, 39, 13, -21, -36, -10, 32, 3, -60, 57, 90, -2, -1, -109, 16, -25, 76, 28, -7, 58, -33, -30, -21, -5, -3, 4, -29, -127, 
46, -28, 56, 18, -20, 1, 49, 6, 56, 28, 37, 55, -11, 43, -50, 23, 18, -127, 6, 82, -44, 3, 4, -8, -76, -9, 30, -95, 47, 2, 26, -127, 
-127, 41, 101, 46, 79, -37, -11, 7, -127, -37, -105, 118, 45, -106, -56, 26, 16, -55, 11, -127, 4, 4, 10, -39, 61, 28, -58, 40, 75, -1, 75, 7, 
-95, -44, 48, 11, 36, -35, 39, -14, 23, -4, -75, 49, 7, -86, 24, -30, -27, -45, -16, -78, -111, 9, 47, -82, 13, -9, 16, 5, 5, 17, -2, 7, 
-42, 14, 31, -6, 1, 35, 42, 14, 48, -90, -99, -55, -14, 22, 41, -3, 30, 16, -3, -127, 28, -59, 103, -72, 46, 9, -4, -127, 26, 1, -19, 60, 
-16, -54, 7, -3, -12, 43, 2, 36, 11, -55, -22, -22, -1, -35, 54, -1, -46, -50, -23, -115, 1, -24, -2, -127, -39, 44, 57, -13, -5, 17, 21, 24, 
113, -110, 18, -51, -33, -120, 40, 50, 127, 46, -26, -55, -7, -39, 115, 33, -27, -127, 34, -57, -51, 41, -27, -127, 43, 1, 60, 107, -69, 1, -19, 32, 
-127, -48, -2, -7, -25, 4, 18, 28, -83, -31, 31, 24, -86, 71, -61, 8, 19, 127, 0, -6, 19, -88, -8, 117, 7, -66, 5, 78, -31, 34, -41, -10, 
-127, 6, 26, 30, 21, -38, 23, 11, 98, -25, 16, -13, -3, 15, -53, 9, -19, 17, -7, -78, -80, 20, 18, 25, -30, -13, -22, -23, -26, 6, -3, -34, 
41, 76, 59, 65, 6, 100, 126, -38, 72, 11, 35, 13, 14, -2, -36, 72, -38, -5, 0, -55, 21, 41, 27, -47, -4, -6, 6, -98, 29, 38, 5, -18, 
102, 99, 58, -10, 10, -2, -22, 2, 1, -67, -12, 52, 9, 5, 12, 30, 8, 7, -21, 14, -12, 7, -9, -56, -51, -99, 15, -78, -9, 1, 46, 4, 
108, 45, -41, -61, -32, -7, -61, 20, -127, -21, -97, -15, -49, -51, 79, -66, 3, 43, -41, 73, 19, -44, 0, -47, 46, -70, -6, 28, -18, 22, -23, 2, 
-127, -110, 45, -9, 56, 40, 8, 47, 50, 45, 58, 14, 15, -44, -25, 36, -35, -127, 55, -90, 36, 32, 44, -119, 33, 126, -56, 24, 47, -13, 47, -57, 
-39, -49, -76, 7, 43, -47, -82, 27, 7, 2, -15, -3, 12, -83, -5, 23, 2, 7, -40, 53, 36, -52, -17, -12, 4, 5, -21, 9, 9, 19, 24, -27, 
23, -15, 82, 8, -17, 44, 16, 13, 13, -41, -38, 54, 20, -127, -4, 41, -37, 107, 40, 19, 105, -29, 1, 17, -44, -1, -39, -86, 52, -44, -2, -37, 
54, 37, 82, -24, -103, 62, 42, 2, 72, -127, 26, -36, 23, -39, 31, 14, -56, -127, 9, 0, 32, 42, 43, 70, 8, 38, 15, -17, 23, -37, 26, -127, 
-81, 36, -127, 23, 9, -12, -45, -75, -44, -68, -33, -34, -6, -32, 4, -46, 22, -106, -61, 86, -99, -113, 56, -48, -59, -66, 52, -24, -119, -14, -31, -127, 
-14, -113, 12, 26, 17, 14, 3, 0, 127, 17, -17, 44, 56, 127, -72, 33, -17, -124, 31, -127, -27, -32, 50, 53, -13, -102, -11, -15, -29, 21, -26, -22, 
-98, -24, -15, 20, 50, 51, 8, -6, -18, -77, -62, 9, 10, 39, 0, 0, 0, -83, -14, -127, -127, -13, -9, -70, -66, -88, 4, 41, -8, -6, -15, 3, 
91, 19, -127, 8, -15, -36, -26, 57, -3, -65, -68, -15, -11, 5, 38, 13, 23, -34, -55, -29, -3, -11, 12, 2, -58, -53, 26, 33, -64, 30, -24, -45, 
32, -20, -127, 4, -7, -104, 39, 39, -30, 61, -73, 27, 20, -41, -19, 18, 31, -127, -31, 31, 22, -127, 20, -40, 14, -87, 44, 50, -127, 39, -127, -21, 
-28, -25, -127, -64, -11, -113, -23, -90, -96, -6, -89, -51, 65, -62, -34, -127, 16, 84, -4, 15, -33, -127, 51, 3, -100, -127, 34, -9, -127, 88, -127, 11, 
15, -17, -127, 94, 10, 44, -20, 32, 2, 11, -52, -29, -14, -15, -66, -13, -9, 7, 34, -46, 58, -39, 15, -22, -103, -110, 26, 45, -127, -32, -21, 13, 
-57, -28, -127, 78, 7, 54, 57, -19, -11, -5, -29, -48, 0, -23, -37, -125, 22, 47, -40, -62, 51, -127, 34, -53, -77, -127, 20, 35, -127, 45, -93, 51, 
-10, -13, -105, 8, -4, 70, 51, -27, -34, -45, -48, -9, 11, -47, -10, -127, 28, 93, 37, -20, 62, -127, 32, -39, -93, -88, -17, -12, -22, 31, -64, 51, 
23, -3, -117, 29, 11, -3, 8, -19, 6, -45, -77, 19, 22, -46, -13, -127, 52, 22, 33, -30, 65, -55, 51, -56, -90, -58, -19, 0, 8, 95, -30, 50, 
11, 40, -103, -13, 16, -127, -54, 13, -71, -54, -127, -32, -1, -30, 18, -127, 21, -27, 18, 17, 28, -77, 16, -31, -22, -127, -1, -53, 4, 126, 7, 96, 
-127, 9, 86, -5, 15, 2, -2, 55, 0, 87, 0, 1, 5, -58, 45, -20, -22, -12, -2, 26, -63, 22, 63, -101, -15, 24, 32, 15, 19, -53, 21, -121, 
-68, -40, 44, 15, -16, -4, -17, 22, 3, 0, 79, 6, 22, -9, 23, -25, -46, -24, -4, 46, -80, -52, 22, 0, 12, 0, 53, 38, -17, -25, 15, -127, 
-73, 0, 127, 4, -17, 18, -19, 33, -74, 31, 13, -14, -9, -6, 53, -64, -24, 71, -3, 9, -15, -86, -10, 24, 26, 82, 4, -22, 15, -49, -25, -127, 
-73, 7, 49, 12, 4, 21, -1, 16, 45, 0, 0, -12, -1, 3, 63, -32, -2, -18, 35, 7, -8, -4, 30, 4, -33, 40, 43, -87, 88, 2, -26, -116, 
-112, 23, -8, 0, -13, 55, 36, -4, 2, -16, -14, -87, -55, 24, -43, -110, 10, -36, -7, -40, 26, -15, 80, 46, -40, 22, 13, -24, -99, -81, -88, -116, 
-127, -127, 60, -34, 21, 60, -3, 62, 56, 24, 48, 5, 10, 54, 83, 18, -86, 105, 40, -77, -38, -46, -28, 60, 10, 27, 1, 57, 37, -22, -15, -74, 
-33, -63, 19, -32, 3, 12, -1, 24, 38, -117, -34, -1, 10, -23, 60, -24, -127, -15, 10, -85, -32, -29, 0, 33, 56, 23, 2, -91, -12, -26, -14, -9, 
3, -22, -6, 9, -85, -9, -29, -17, -31, -93, -95, 6, 8, -67, 30, -30, 23, -1, -35, 3, 43, 2, 9, -17, 25, -61, 59, -72, -28, -11, 0, -29, 
68, 8, 9, 6, 1, -4, -11, -11, -3, -23, 14, 2, -54, 5, -57, 0, 95, -4, -29, 73, 68, 15, 21, -60, -15, -29, -50, -49, -34, 18, 8, -18, 
-127, -37, -26, 41, 26, 72, -79, 33, -33, -3, 61, 69, 54, -25, -43, 38, -5, 93, 69, -50, -51, 29, 27, -96, -77, -113, -19, -106, 34, 64, 47, 26, 
-127, 21, 4, 50, -4, 67, 4, -1, 47, 11, 7, -127, 41, -24, -38, -44, 23, 1, -46, 19, -81, -119, 81, -21, 2, -38, 0, -84, 127, 18, -82, -127, 
-127, -11, -51, 49, -6, -5, -53, -10, -6, 3, -33, -38, -21, 18, -4, -77, 1, -16, 15, 1, 8, -63, 86, -31, 11, -88, -33, 23, 53, 4, -49, -127, 
-68, -7, -19, 17, -16, -80, -44, 29, -85, 31, -10, 25, 11, 34, 34, -30, -1, -1, 10, -4, 60, -34, 58, 11, 10, -127, -41, 22, -114, -11, -46, -127, 
13, 4, -127, -12, 37, -39, -42, 3, -83, -3, -13, -10, -14, 24, 22, -127, -9, 21, 19, 0, 83, 23, 17, -5, -9, -127, -12, 43, -127, -70, -100, -127, 
104, 7, -84, -20, -64, 10, -71, 0, -64, 16, 2, -34, 20, 32, 3, 3, 12, 23, -36, 6, 73, -53, -27, 14, 30, -127, -16, 45, -122, -27, -34, -127, 
4, -38, -127, 55, 71, -127, 0, 105, -14, 21, -19, -69, -8, -22, -6, -77, -54, 9, 103, 99, 27, 111, -17, -34, -24, 5, -2, -2, -104, -4, -38, 72, 
-3, -22, -127, 84, 98, -81, 3, 29, -24, -5, -8, -21, -43, -13, -22, -12, -23, -13, 35, 35, 30, 46, -10, 1, 17, -40, -4, -16, -127, 17, 65, 119, 
10, -24, -127, 86, 22, -66, 12, -10, -22, 5, -8, 54, -39, -23, -28, 8, -3, -5, -18, 0, 35, 41, 34, 35, 7, -56, 12, -31, -127, 4, 53, 89, 
24, 13, -127, 57, -38, -39, 1, -58, -8, 36, -36, 49, -55, -3, 5, -25, 19, 5, 9, 0, 9, 38, 35, 35, 1, -64, -9, -26, -117, -8, 62, 116, 
15, 0, -127, -68, -127, 11, -20, -102, 1, 24, -37, 51, -89, 17, 36, -36, 62, 47, -115, -27, 9, -57, -11, 42, 26, -127, -49, -61, -10, 50, 24, 77, 
-127, 29, -56, 46, 66, -77, -1, 15, -24, -1, -18, 59, -2, 60, 43, -1, 25, -9, -31, -15, -108, -97, -91, -21, -63, 8, 0, -33, -74, 57, 19, 42, 
-127, -3, 50, 57, 26, -127, 12, 7, -22, 20, -44, -19, -1, 19, -14, -2, -45, 6, -58, -45, -52, 20, -4, -27, -22, 25, 48, -58, -50, 6, 22, 66, 
-127, -47, 42, 29, 22, -47, -7, 49, 12, -8, 34, -25, -10, -25, 13, -21, 6, 112, 44, -62, 12, 11, 65, -5, 39, 24, -39, -53, 14, -10, -2, 1, 
-54, -40, 72, 10, 6, -24, -35, 39, 81, 34, -12, 1, 15, -48, 11, -34, 28, 7, 34, -89, -27, -81, 54, -33, 16, 56, 7, -27, -24, 42, 58, -28, 
11, -71, 21, 26, -73, -26, 7, 8, -51, 31, 70, -97, 35, 6, 80, -33, 40, 97, 43, -65, -34, -48, 46, -87, 66, 66, -80, 93, -13, 12, -32, -11, 
7, -127, 46, 0, -12, 24, 68, 7, 84, -45, -99, 77, 0, 35, -33, 12, -79, 76, 31, -74, 49, 74, 50, -30, -59, -101, 39, -53, 21, -19, -20, -12, 
7, 41, 72, -8, -23, -58, -2, 3, 4, -36, 34, 31, 10, -79, -12, 21, 7, 10, -54, -68, 31, 51, 3, -30, -20, 20, 54, -37, -15, -12, -30, 31, 
-111, 6, -18, -26, -62, -24, -55, 49, -100, 35, 4, -9, -30, 4, 38, -12, 15, -85, -4, -28, -8, 3, -48, -1, 73, 5, 19, 95, -27, 38, -28, 12, 
-7, -49, 0, -15, 50, 0, -24, 23, 63, 38, 88, -1, -9, 50, 3, 31, 37, -63, 61, 16, 56, -15, -50, 43, -36, 52, -4, 24, -64, 15, -60, 43, 
-30, -127, -64, 51, 127, -73, -80, -27, -102, -38, 24, 45, -16, -67, -38, -60, -5, 49, 45, 40, -52, -38, 127, -22, 30, 71, -39, 10, -12, -8, -102, 59, 
15, -60, -89, 0, -12, 16, -47, 6, -82, -22, -59, 54, 100, -4, -37, 14, -15, 19, 17, -88, -75, 45, -12, -48, 64, -74, -23, 2, -17, -54, 24, -127, 
-103, 14, -49, 0, 10, -3, 25, 57, -59, 53, 37, -1, -1, 18, 52, 11, -48, -63, 13, -55, 12, -28, -23, -75, 43, -36, -5, -23, 19, -46, -36, -118, 
-80, -15, 11, 2, 72, 56, 12, 10, 31, -15, 43, -1, -25, 30, 30, 51, 2, -25, 28, -20, -21, -9, 7, 4, 0, -19, -14, -37, 34, -38, 17, -95, 
-32, 36, 13, -9, 35, 60, 12, -17, 67, 23, 82, 45, 48, 18, -6, 51, 49, -86, -49, -60, 3, 28, -28, 42, 82, -8, -50, -8, 13, -51, 47, -127, 
-103, 7, -24, -6, 17, 56, -14, -19, 85, 24, 3, 26, -42, 49, 11, 0, 33, -17, -61, 10, -7, -56, 39, 50, 15, 9, -87, 16, -55, -11, -34, -87, 
};

const int8_t MagnetometetNetworkInt8_layer_6_bias[] = {
11, 31, -22, 30, 84, -86, -19, 52, 80, 81, 50, 0, 68, 49, 0, 0, 74, -100, 29, 35, 99, 32, -18, 127, 58, -19, 19, 59, 69, -31, 15, 89, 16, 30, 44, 38, 54, -2, 3, -127, 20, 36, -35, -12, 12, -36, -10, -15, 28, 32, 0, -28, -4, 17, -1, 81, 74, 10, 52, 34, 82, -14, 32, -21, };


const int8_t MagnetometetNetworkInt8_layer_10_weights[] = {
-11, 19, -37, -33, -2, -6, 0, -23, -11, 15, -10, 8, 0, 2, -22, -22, 0, 17, 0, 2, -9, -21, -32, -13, -1, -3, 0, -6, -11, -14, -2, 127, 127, 4, -10, 35, 32, 23, 4, 13, 9, 26, -17, 0, -16, 11, 1, 10, 8, 34, 40, -15, 12, 2, 12, 10, 6, 17, 19, 13, -6, 9, 13, -29, -43, -22, -20, -18, -34, -39, 8, 8, 8, 4, 10, 14, 7, 0, -5, -11, -4, 3, 7, 9, 12, 19, 1, 7, 37, 16, 16, -46, -26, -15, -16, -3, -12, -13, 0, 5, -13, 2, 1, 7, 4, 0, 0, 0, 0, 0, 0, 0, -2, -25, -9, -5, -19, -6, -3, 28, 0, 0, 8, 7, 6, 10, 0, 3, -5, -4, -1, 1, -5, 11, 25, -5, -12, -13, -16, 4, -11, -19, -27, 93, 0, -16, -22, -10, -10, -24, -14, 0, -9, 1, -16, -6, -31, 127, 7, -5, -9, 36, 1, 127, 127, 127, 127, 50, -5, 8, -4, -16, -10, -5, 0, -11, -49, -17, 0, 127, -39, -53, 54, 18, -1, 5, -7, 0, 34, -9, -14, -22, -9, -77, -61, -14, -35, 0, 12, 2, 12, -9, -15, 23, 13, 8, 0, 0, 3, 0, 60, 25, 2, -2, 0, -6, 0, -37, -19, -11, -18, -15, -9, -19, -53, -45, -17, -15, -13, -11, -25, 33, 29, -1, 9, -37, -2, 24, -11, 9, -6, -35, -17, -2, -1, -19, -31, -15, -1, -15, -14, -23, -5, 3, 3, -7, 3, 3, 6, -15, -9, -6, 5, -2, -13, -11, -22, 2, 13, -1, -2, 10, -4, 6, 22, 16, 15, 17, 13, 30, 2, 12, 13, 2, -1, -4, 4, 0, 1, -5, -24, -25, -11, -21, -18, -88, -11, -13, 0, -9, -3, -111, -51, -16, -9, -15, -26, -44, -2, 0, 6, 9, 11, 5, 14, 26, 35, 19, -1, -4, 4, 7, -14, -9, -6, -13, -15, -16, -14, 18, 18, -2, -2, -24, 16, 65, -33, -27, -9, -7, -8, -8, -22, -50, -47, -23, -21, -18, -14, -32, 20, 5, 6, -10, -12, -10, -9, -19, 0, 12, 3, -1, 2, 13, 17, -7, -16, -13, -1, -13, -22, 13, 10, -3, -3, -12, -13, 11, -2, -6, 19, -1, -7, -2, 0, 23, 7, -21, -20, -14, -5, -3, 2, -9, -8, 127, 127, 3, -14, -2, 1, -7, -5, -4, 0, 0, -30, 2, -5, -10, -11, -5, -15, 3, -1, -19, -120, -127, -16, -10, -7, 4, 28, 127, 127, 49, 17, -26, -14, -2, -4, -3, 0, -36, 34, -10, 1, -2, 8, 11, 15, 32, -21, -10, 7, -1, -4, 4, 
108, 78, 37, 49, 99, -41, 15, -4, -22, 21, 21, 30, -34, 3, 14, 1, 26, -62, 6, 23, 10, 40, -41, -31, -30, -57, -30, -13, 5, 8, -7, -127, -72, 65, 3, 11, 61, 39, 54, 14, 51, 47, 37, 4, 42, -68, -71, 11, 23, 119, 21, 30, 74, -5, 34, 25, -2, -38, 32, 111, 67, -1, -28, -43, -20, -2, 87, -8, -14, 27, -41, -75, -48, 4, 25, 42, 17, -53, -17, -41, 33, 9, -15, 4, 27, 14, -24, -21, -111, 75, 43, 20, 126, -48, 3, -26, -26, -16, 5, -59, 45, -28, 4, -5, -18, 0, 0, 0, 0, 0, 0, 0, 12, -45, -22, 25, -21, -30, -7, 40, 20, 35, 30, 23, 77, 18, -29, 16, 56, 46, 17, 8, -19, -42, -59, -69, -72, 41, -13, -42, 47, 38, -57, -57, 49, 127, 52, 36, 3, -49, 21, -84, -10, 21, 34, 65, 115, -127, 0, 54, 52, 60, 8, -64, -127, -127, 46, 97, 6, 5, -4, 35, 8, -70, -1, -48, -40, -3, 19, -127, 127, -32, -38, 5, -6, 34, 50, 33, -6, -80, -77, -32, -21, 31, 66, 24, 41, 19, -26, -13, 25, 36, 44, 6, -28, -38, -20, 23, 39, -10, 78, -8, -22, -19, 3, 3, -19, -38, -8, 43, 16, 110, 14, 0, -54, -46, -55, 7, 3, -91, -27, 25, 28, -49, -90, -6, -38, -39, 94, 62, 127, 65, 127, 81, 1, 20, 12, 7, -87, -11, -60, 57, -6, 41, 15, 52, -124, 13, -13, -8, 21, -28, 25, 2, -44, -1, -66, 6, -41, -33, -3, -13, -33, -19, 31, 27, 27, -20, 114, 54, -27, -6, -3, -16, -12, -19, -15, -82, -50, -18, 68, 59, -96, -93, -79, -93, 127, 39, -81, -82, 22, 79, -82, -12, -42, -26, -34, -26, 47, -11, -4, -5, -28, 13, 26, -35, 15, -22, 41, 14, -11, -42, 17, -12, -25, 22, -39, -107, -52, 14, 9, -34, -43, 23, 31, 56, -35, -25, -38, -25, 14, -23, 14, -25, -54, -34, 35, 8, -53, -32, -35, -22, -18, 22, 26, 1, -15, 75, 41, -83, -80, -25, 6, 26, -65, 0, -17, 7, -12, -8, -36, 67, 17, -47, 47, 77, 2, 42, 8, -12, 38, 8, -3, -38, -21, -24, -12, 65, -4, 127, 127, 17, -47, 17, 66, -100, -127, 127, 10, 23, 41, 24, -31, -30, 4, 34, -4, -34, -43, -30, -10, -27, -6, -68, -102, -19, 127, 127, -127, -94, 16, 25, 15, -127, -101, 36, 68, 12, 28, 59, 7, -16, -62, -32, -27, -73, -40, -7, 12, -47, 1, 36, 23, 5, -37, 32, 4, 52, 
-127, -41, -38, -127, -78, 17, 31, 30, 5, -17, -13, 59, 36, 17, 4, 122, 40, 126, 52, -24, 16, 14, 0, -51, 33, 8, -48, -18, -12, 14, 0, -25, -17, 2, 0, -26, 28, -10, -52, 20, 22, 18, -76, 52, 23, 127, 127, 12, -31, -82, -85, -127, -127, -30, -21, -14, 39, 73, 36, -49, -5, 48, 76, 12, 43, 46, 20, -52, 7, 24, -32, -11, 24, 16, 54, 28, 17, 24, -52, 96, 16, -17, -9, -16, -38, -17, -3, 53, -23, -92, -2, -10, -67, 35, 78, -3, 64, -21, -78, 33, -127, 114, 38, 10, 19, 0, 0, 0, 0, 0, 0, 0, -16, -56, -72, -30, 86, 53, 37, -7, 55, -17, -24, 127, 119, 127, 42, 16, -8, -46, -42, -44, -37, 50, -43, -36, 80, -101, -45, -65, -11, -45, 65, -25, 52, -63, 33, -7, -73, -32, -86, 8, -61, 29, -37, -73, -115, 47, 46, -47, -50, -49, 11, -79, -68, -94, -1, 32, 29, 26, 10, 29, -77, -60, -64, 60, 87, 87, -57, -22, -68, 75, 19, 77, -3, -82, -127, -89, -22, -45, 4, 96, 127, 127, -47, 25, -90, -90, -42, -20, -35, -4, -45, -22, -34, 3, 13, -90, -61, -20, -26, -17, 7, 112, -40, -31, -47, -13, -9, 11, 1, -14, 42, 54, 76, -28, 1, -22, -22, -72, -80, -127, -127, 39, 127, 34, 9, 58, -35, -69, -25, -67, -12, 85, 82, -22, 31, -3, 96, -1, 13, -60, 67, 10, -59, -110, 63, -20, 92, -9, -27, 84, 30, 66, 65, 12, 127, -90, 127, 33, 127, -8, -19, -40, 127, -6, -50, 34, 49, 126, 44, -127, -117, -58, 8, -36, -38, -14, -32, -99, -25, -17, 34, 1, 35, 127, -1, 33, 72, -124, -120, 25, 6, -86, -30, 35, 0, -31, -127, -57, -9, 2, 16, -24, -32, 40, 16, 62, -69, -34, 19, 48, 40, -47, -48, 6, -33, -49, -87, -4, -4, 90, 85, -12, -8, -39, 73, -21, 12, 16, -39, -56, -9, 23, -39, 14, -35, -18, 44, 25, -49, 6, 42, -27, -94, 39, 17, -35, -34, 29, 58, 0, -59, -48, 29, 19, -3, 25, 19, 48, 82, 13, -6, 3, -44, -5, -42, -31, 25, -12, -9, 23, -13, 4, -52, 76, -127, 28, 94, -49, 61, 67, 27, 64, -107, 0, -7, -12, -31, -8, -22, -8, 24, 37, 34, 0, 30, 19, 13, 20, -24, 8, 36, 59, 78, 33, -50, 73, 110, 46, -36, -35, -13, -28, -44, 12, 0, -7, 17, 35, 13, 39, -2, -85, 71, 45, 32, 31, -65, -44, -32, -100, 7, -26, -23, -17, -44, -84, 
-4, -67, -82, 100, -87, 97, 39, 32, 18, -21, 14, -127, -8, -101, -1, 8, -64, -48, -60, -96, -17, 0, -5, -112, 1, 49, -3, -127, -5, 8, 15, -63, 14, 37, 22, 70, 80, 127, 59, -7, -32, 38, 127, -27, -127, -94, -74, -45, -86, -18, 41, 127, 108, 37, -90, 34, -41, -3, -105, -116, -21, -31, 56, 62, 12, 2, -63, 127, 127, 18, 76, 91, 45, 63, -127, -62, 60, -7, 79, -64, -46, 15, 98, 127, 26, -46, 85, -121, 127, 25, 22, 69, -29, -127, -50, 40, 59, 24, 55, -30, 84, -109, -35, -7, 15, 0, 0, 0, 0, 0, 0, 0, 17, 50, 77, 17, 25, 53, -108, 24, 74, 29, -11, -127, 20, 118, 5, -30, -56, 127, 56, 105, 36, -61, -67, -63, -18, 10, 31, 104, -21, 18, 40, -17, -69, 0, -79, -2, 44, 91, 96, 47, 54, -127, 47, 18, 0, -80, -83, -112, 13, -54, -11, -40, -49, -76, -93, -32, -34, -68, 10, -40, 127, 123, 117, -22, 54, -5, 53, 37, -84, 60, -8, -70, 35, 2, 74, 54, 93, 127, 0, -46, -127, -127, -29, -92, 44, 122, 46, 78, -72, -114, -127, -41, -68, -58, -25, 53, -127, -91, -39, -55, -89, -121, 29, 53, -50, -21, 26, -30, 32, -30, 30, 46, 4, 1, -3, 30, -12, 63, 25, 77, 101, 2, -70, 33, 127, -4, -25, -35, -22, 127, -115, -127, -86, 29, 0, -6, 30, 65, 51, -17, -41, 3, 29, 96, 82, 64, -113, 17, -8, 22, -97, -73, 75, 0, -77, 59, -57, 31, -127, 0, 127, 54, -24, 25, -6, -3, -41, 30, -58, 92, -91, 8, -6, 119, 56, 57, 27, 44, -63, -46, 22, 92, 63, 32, 104, -127, -11, 127, 77, -97, -6, 63, 109, -15, 72, 55, 91, 127, 47, 11, 4, 120, -127, -21, 3, -4, 71, 55, 14, 40, -61, -40, 21, -27, 109, 127, 49, 44, 57, -20, -21, -41, -127, 13, -40, -1, -104, -31, 11, -78, -127, 67, 53, -38, -7, 20, -44, -105, 14, -52, -12, -43, -19, -127, -31, -65, -52, 31, -29, 45, -36, 4, 40, -82, 127, 43, 10, 79, 40, -101, 19, 127, 20, -15, 66, -87, -40, -103, -127, -47, 18, 35, 88, -56, 127, 62, 77, -37, -127, 65, 9, -12, 46, -77, -36, -109, 57, 23, 47, 59, -22, 18, -113, -33, 22, -88, -114, 44, -91, -38, -69, -4, -8, -26, 45, -127, 36, -14, 26, 11, -5, -57, -53, -87, -51, -28, 5, -4, 28, -26, 127, 91, -86, 92, 3, -17, 39, 109, -127, 27, -24, -52, 56, -62, 15, 49, 
62, 9, 122, 8, 68, -67, -82, -32, 11, 3, -10, 94, 7, 78, 4, -110, -2, -33, 0, 95, 1, -31, 79, 127, -2, 2, 81, 127, 28, -13, -3, -27, -50, -108, -12, -94, -127, -127, -65, -40, -53, -127, -96, -26, 92, 6, 16, 8, 86, -53, -17, -21, -13, -6, 64, -58, -2, -48, 16, 39, -32, -24, -117, 0, 9, -22, -21, -56, -97, -27, -13, -15, -31, -89, 94, -23, -104, 38, -4, 22, 2, -11, -79, -127, -25, 29, -58, 82, -117, -23, -77, -32, 0, 127, -14, -4, -83, 26, 19, 50, 21, 22, -9, -3, -21, 0, 0, 0, 0, 0, 0, 0, -8, 75, 28, -6, -71, -70, 82, -91, -127, -45, -4, 2, -127, -127, -21, -6, 15, -127, -29, -70, 25, 39, 127, 127, 23, 63, 43, -1, -3, 10, -21, 8, -30, -56, 15, -15, 37, 15, -16, 28, 26, 83, -26, -3, 32, 54, 29, 109, -6, 8, -8, -43, -18, -41, -115, -127, 6, 34, -9, -6, -48, 16, -48, 21, -52, -60, -16, 23, 14, -49, -29, -29, -25, 40, 11, 3, -100, -45, 90, 3, 0, -10, 81, 56, 38, -53, 10, -47, 70, 88, 127, 37, 114, 84, 31, 13, 127, 123, -70, 58, 104, 30, 8, -18, 118, 112, 13, -12, -31, -49, -76, -81, 33, 122, 75, 1, 46, 114, 109, 3, -3, 8, 16, -29, -127, -39, -24, 32, -127, -127, -6, 14, 5, -7, -9, 17, -39, -36, 8, 45, -14, -57, 12, -31, -26, -60, 28, 18, 27, -72, 35, 5, -81, 4, -25, 19, -46, -29, -37, 14, -113, -9, -127, -65, 12, -29, -127, -127, 38, 46, 127, 64, 11, -60, -9, 38, 50, 78, 44, 30, 52, 19, -5, -60, -127, 114, 21, -67, 23, 101, 127, 55, -26, 22, -11, 48, -1, -116, -41, -18, -5, -117, 127, -9, -73, -54, -39, -30, -27, -54, 21, 106, 58, 13, -20, 33, 108, -74, -84, -35, -17, 54, 125, -96, 39, 77, 127, 49, 24, 127, 127, -8, 89, 84, 30, 10, 72, 127, 48, 61, -17, 58, 101, 105, 41, 44, 47, 10, 47, -19, 86, 3, -24, 71, -114, -61, -14, -105, -62, 8, -39, -83, -20, -43, -13, 65, 10, 127, 127, 16, 6, 1, -13, -16, -16, -127, -127, -31, 17, -127, 8, -60, 1, 45, 33, -28, -21, -37, -67, -64, 35, -21, 74, 0, -16, 104, 127, -22, 127, 65, 56, 9, 31, 32, -11, -12, 0, 70, 4, -3, -22, 0, -13, -9, -34, 54, -37, -85, -44, 7, -63, 62, 9, -51, 3, -2, 4, -30, 127, 4, 13, 82, -1, 51, 30, -20, 
};

const int8_t MagnetometetNetworkInt8_layer_10_bias[] = {
109, 96, 65, 61, 103, };




MagnetometetNetworkInt8::MagnetometetNetworkInt8()
	: ModelInterface()
{
	init_buffer(2048);
	total_macs = 211285;
	input_channels = 4;
	input_height = 1;
	input_width = 512;
	output_channels = 5;
	output_height = 1;
	output_width = 1;
}

void MagnetometetNetworkInt8::forward()
{
	Conv1d<512, 4, 16, 5, 4, int8_t, int8_t, int8_t, 127, 127>(
		output_buffer(), input_buffer(), 
		MagnetometetNetworkInt8_layer_0_weights, MagnetometetNetworkInt8_layer_0_bias, 364);
	swap_buffer();

	ReLU<int8_t>(	output_buffer(), input_buffer(), 2032);
	swap_buffer();

	Conv1d<127, 16, 32, 5, 4, int8_t, int8_t, int8_t, 127, 127>(
		output_buffer(), input_buffer(), 
		MagnetometetNetworkInt8_layer_3_weights, MagnetometetNetworkInt8_layer_3_bias, 294);
	swap_buffer();

	ReLU<int8_t>(	output_buffer(), input_buffer(), 992);
	swap_buffer();

	Conv1d<31, 32, 64, 5, 4, int8_t, int8_t, int8_t, 127, 127>(
		output_buffer(), input_buffer(), 
		MagnetometetNetworkInt8_layer_6_weights, MagnetometetNetworkInt8_layer_6_bias, 255);
	swap_buffer();

	ReLU<int8_t>(	output_buffer(), input_buffer(), 448);
	swap_buffer();

	ChannelReoder<int8_t, 64, 1, 7>(output_buffer(), input_buffer());
	swap_buffer();

	Linear<448, 5, int8_t, int8_t, int8_t, 127, 127>(
		output_buffer(), input_buffer(), MagnetometetNetworkInt8_layer_10_weights, MagnetometetNetworkInt8_layer_10_bias, 288);
	swap_buffer();

	swap_buffer();
}
