#include <MagnetometetNetwork.h>
#include <Linear.h>
#include <Conv1d.h>
#include <Conv2d.h>
#include <ReLU.h>
#include <GlobalAveragePooling.h>


const int8_t MagnetometetNetwork_layer_0_weights[] = {
-47, 3, 44, 76, 
119, -96, 29, 64, 
32, 88, -58, 70, 
-34, 100, -92, -20, 
-23, 5, -85, 106, 
100, 22, -85, -72, 
-4, -85, -40, 3, 
-79, 61, -59, -75, 
-23, -1, 3, -34, 
36, -76, 14, 62, 
-91, -103, -32, 37, 
-33, -4, 35, -71, 
-63, -127, 26, 79, 
85, 77, 81, 35, 
-122, 91, -60, 33, 
-61, -98, -63, 0, 
61, -105, -85, -34, 
16, 16, 5, -85, 
12, 29, 83, 59, 
74, 19, 108, 74, 
8, 98, -35, 22, 
-32, 93, 50, -82, 
71, 21, -9, 91, 
73, -45, 20, -52, 
-84, 0, -93, 23, 
-40, -107, -67, -23, 
-43, -25, -6, -91, 
61, -21, -70, 8, 
0, -51, 72, 74, 
94, 87, 57, 42, 
-82, -66, 50, -10, 
-28, -6, 62, -51, 
-70, 39, -75, -43, 
120, 6, 55, 35, 
80, -50, 36, 53, 
-127, 94, -27, -28, 
97, -51, -98, 61, 
24, 26, 48, -83, 
-113, -45, 73, -71, 
5, -61, 35, 59, 
-25, -39, -54, -77, 
7, 60, 62, -68, 
-108, 70, 59, -40, 
39, 49, 18, 32, 
42, 50, -12, 35, 
-107, -53, 33, -73, 
-24, 7, 59, 65, 
127, 103, -64, 51, 
};

const int8_t MagnetometetNetwork_layer_0_bias[] = {
-90, -13, 30, -42, 24, -109, -6, -57, -3, -110, -93, 11, -98, 12, -38, 43, };


const int8_t MagnetometetNetwork_layer_3_weights[] = {
-85, 62, 3, -5, -3, 64, -32, 41, -96, 75, 14, -31, 55, -36, -27, 27, 
-83, -16, -51, -11, -92, 44, 38, 28, -64, 108, 57, 27, 106, -20, -1, -64, 
-21, 2, -44, 22, -25, 8, 27, 21, -78, 68, 0, 55, 12, 80, -13, -21, 
-27, -32, -88, -44, 91, -93, 47, -28, 2, -46, -53, 44, -75, 18, 73, 70, 
-34, 20, -11, -69, 68, -24, 34, 58, 0, 19, 1, 16, -127, 6, 25, 26, 
-73, -24, -19, -74, -3, -30, 46, 32, -9, 2, 13, -14, -127, -39, 64, -22, 
12, -62, -30, -15, 61, -15, 55, -73, 28, 27, 67, 61, 43, -27, 13, -49, 
-25, 89, 5, 50, 21, -18, -20, 32, -34, -35, 95, -30, 119, -36, 98, 0, 
-4, 113, -38, -27, 16, 14, -33, 39, -34, 3, 94, -77, 41, 37, 21, 11, 
67, 4, -30, -59, -68, 30, -24, -14, 51, -20, -127, 0, 101, 55, -34, -63, 
1, -1, -14, -77, -119, 8, -8, 79, 67, 73, -127, 26, 49, -10, -30, -68, 
107, -59, 15, -61, -69, 45, 42, -32, 17, 38, -127, 22, 56, -30, -27, -34, 
-20, -25, 20, 21, 52, -43, -17, 44, 4, -81, 28, -15, -98, 27, -32, 72, 
28, 0, -7, 32, 51, -32, 38, -51, 47, -127, 41, -27, 21, -78, 107, -27, 
-23, 51, 1, 85, 50, -54, -29, -25, 53, -127, -18, -127, 8, -35, -6, 39, 
20, 13, -5, 57, 74, -98, 35, -2, 19, -8, 22, -28, -127, -42, -42, 13, 
31, -24, -85, 27, 64, -75, -19, -33, -23, 78, -32, 68, -127, -123, -6, -34, 
-12, -32, -49, -47, 35, -65, 37, 24, 49, 9, -35, 34, -127, -112, -21, -17, 
21, 50, -21, -1, 55, 5, -127, 66, -28, -44, -25, -42, 80, 23, -78, -127, 
10, 63, -14, 0, -16, 89, -127, 12, 37, 22, -38, -103, 32, 61, -9, -127, 
45, -49, 77, 29, 24, 19, -119, 87, -29, 22, -31, -58, 27, 77, -127, -45, 
57, -45, 11, -3, 72, -10, 76, -20, -74, -25, -44, 84, 41, 64, 18, -60, 
5, -15, -47, -1, -28, -24, 92, -65, 0, 27, -9, 39, 33, 57, -42, 42, 
54, 27, -13, 2, 4, -12, -33, -49, -56, -79, -64, 23, 69, -5, -19, -33, 
-64, -57, -36, -19, -105, -28, 58, 47, -94, 18, -15, 21, 4, 14, -66, 95, 
-28, -19, -29, -7, -125, -39, 59, 98, 26, 33, 0, 63, 31, -12, -34, 89, 
-33, 35, -15, -18, -75, -71, -8, 71, -56, 98, 14, 42, -5, 19, -34, 70, 
-48, -62, -57, 52, 4, 51, 28, 31, -33, 92, -8, 24, 23, -20, -57, -61, 
-48, -82, -127, 13, -83, -70, 84, -42, -127, 75, 25, 114, 70, -32, 25, 87, 
-47, -11, -100, 12, -56, 20, 81, 53, -85, 37, -4, 32, 4, 14, -25, 17, 
-28, -25, 19, -46, 20, -36, -34, 18, 43, -127, 87, 9, -12, -18, 18, 4, 
-70, -3, 78, 82, 26, 0, 24, -127, 59, -127, 54, 17, -27, -3, -15, -9, 
24, 13, 52, 38, -8, 9, -48, -127, 122, -83, -84, -127, 65, -30, -20, 4, 
86, -83, 28, 16, -6, -43, 0, 0, 10, 59, 39, -28, 39, 39, 16, 57, 
21, -70, 31, -4, 49, -127, 38, 39, -33, 15, 22, 8, -72, 16, 92, 90, 
-28, -25, 84, -53, -20, -78, -8, -40, -6, 3, 34, 49, -52, -39, 91, 108, 
51, -7, 55, 58, -36, 43, -61, -34, 76, -20, 11, -56, 30, -36, 0, -94, 
-20, -79, -22, 29, -5, 18, 42, 13, 77, 50, 19, 44, 82, 70, -16, -76, 
50, -49, 2, 0, 78, -51, 88, 52, -42, 27, -18, 58, 51, 64, 31, 83, 
48, -34, -60, 16, -55, 1, -46, -41, 18, 63, -127, 78, -90, -10, -109, 11, 
58, 31, -127, 22, -59, -19, -56, 12, -103, 58, -102, 89, -60, -62, -127, -16, 
42, -46, -2, 52, -54, 4, 50, 39, -120, 57, -127, -30, -48, -73, 55, 43, 
34, 75, 19, -99, -35, 38, 28, 85, 53, -9, -20, -1, 65, 34, 32, -29, 
72, -10, 25, 53, -83, 23, -15, 38, 82, -18, 107, 15, 127, 19, 7, -79, 
36, 2, 21, 80, 0, 36, -10, -21, 2, 34, 68, -2, 108, -10, -17, -51, 
-19, 127, 1, -57, 35, -48, -20, 9, 24, -33, -124, 32, -78, -43, -3, -31, 
-2, -59, 12, -6, 1, 111, 16, 9, -14, -4, -127, 16, 37, 43, 43, -84, 
-30, -29, -19, 103, 8, -60, -38, -20, 23, 89, -9, -52, 89, 64, -66, -68, 
18, -2, 2, 65, -10, 17, -50, 20, 84, 3, 63, 8, 99, 7, -45, -41, 
10, -6, -16, 81, -21, -49, -20, -10, -31, 34, 17, 7, 122, 44, -21, -17, 
-78, 4, -87, -3, 19, -72, 109, 17, -1, 17, 61, 5, 72, 42, 22, 25, 
103, -17, -8, -47, -7, -35, 84, 61, 35, -10, 49, -16, -43, 26, 18, 37, 
81, 21, 23, -58, -81, 4, -3, 0, -4, 70, 63, -47, -27, 39, 65, 39, 
89, 40, 33, -59, -48, -8, -57, 25, 20, 48, 7, -2, -26, 2, -72, 22, 
-74, 70, 41, -30, -97, 13, -85, 24, 29, 24, -64, -76, -102, -126, -101, -33, 
0, 5, -69, 0, -65, 71, 24, -11, 11, 80, 15, -35, -123, -127, 52, 54, 
46, -42, -53, -10, -102, 84, 47, -28, -39, 92, -61, 61, -91, -126, 14, -57, 
6, 4, 27, 24, 54, 11, 82, 62, -30, 76, 57, -9, -45, -1, 96, 58, 
7, -24, 15, -6, 17, -3, 94, -22, -77, 4, -8, 68, -44, -38, 39, 85, 
-12, 53, 56, 7, -78, -12, -72, -83, -60, -65, -19, -46, -55, -5, 5, 59, 
31, 35, 11, -22, -18, 127, -127, -44, -3, 91, 46, -77, 24, -32, -25, -101, 
47, 20, -23, 65, 56, 3, -85, -46, 13, 82, -20, 5, 90, -36, -13, -120, 
9, -35, -34, 6, 0, -47, -24, -53, 0, 72, 105, 54, 67, 18, 96, -72, 
-36, 99, 58, 39, 28, -69, -14, 78, -33, 2, -31, -41, -66, -80, 50, 8, 
-1, -30, 29, -14, -33, -110, -26, 104, 49, -35, -48, -53, -95, -39, 27, -28, 
21, -58, -2, 45, 9, -106, 2, 94, 72, 0, -39, 37, -23, -47, -37, -35, 
-127, -57, -2, 29, -127, 11, -59, -32, -75, -45, 10, -127, 0, 32, 73, -33, 
-104, 29, 77, 12, -127, 11, -127, -71, -39, 32, 13, -127, 3, -2, 61, -65, 
-127, 28, 87, -19, -68, 9, -127, -127, 11, 31, 23, -127, -29, 5, -72, -12, 
5, -127, -52, -2, -39, -13, 18, -82, -51, 46, 46, 53, -16, 9, -39, -4, 
41, -127, -4, 58, 87, -8, 76, -125, -71, 8, 34, -9, 9, 5, 54, -27, 
-2, -127, 26, 92, 70, 7, 26, -98, -61, 34, 53, -33, -67, 3, 4, -40, 
-127, -11, 45, -25, -58, 80, -68, 26, -51, 1, 30, 24, 50, 22, 44, -116, 
-127, 8, 79, -21, -43, -51, 16, -14, -14, -67, 80, -21, 50, 11, 35, 12, 
-127, 46, 31, 57, -68, 6, 34, 60, -46, -37, 63, 66, 7, -11, 68, 0, 
78, -21, -6, -127, -38, -33, 32, 44, 2, -35, -127, 84, -85, -24, 45, -10, 
-1, 102, -43, -127, -22, -7, 9, 74, -10, -16, -127, -1, -75, 1, -85, 62, 
-56, 24, 6, -127, -107, 90, -61, 47, 53, 28, -100, -29, 22, -23, -22, -78, 
-44, -3, 16, 35, 16, 93, -78, -72, -27, 26, -21, -117, -87, -1, -75, 113, 
-32, -25, -38, 0, 34, 55, 63, -30, -127, -23, -10, 102, 5, 12, -21, 113, 
-56, 11, 51, 5, 16, -62, 37, -44, -49, -65, -42, 114, -52, -32, -73, 6, 
15, -27, 31, 40, 62, -2, 9, -25, 35, -61, 6, 127, 127, -12, -40, -127, 
-23, 40, 87, -11, -16, 4, -31, -25, 35, 3, 33, -127, -127, -14, 27, 127, 
-14, -9, -78, -17, -43, -2, 14, 11, -91, -14, -39, 34, 18, -11, 5, -12, 
-7, 37, -57, -20, 23, -121, 62, -31, -30, 34, 36, 8, -127, -77, -10, 68, 
20, 4, 28, 41, 42, -127, 18, -53, -101, 29, -19, 2, -79, -81, -22, 33, 
27, 12, 12, 14, 55, -88, -49, -62, -49, 71, 1, 0, -84, -99, 40, -2, 
40, 16, 98, -20, -7, 2, 42, 77, 33, -2, -31, -85, -54, -10, 26, 125, 
-49, 13, 70, -35, 55, -62, -24, -58, 62, 0, -23, -27, 37, -19, -41, -127, 
24, -58, 15, 7, -28, 109, -43, -14, -32, 46, 37, -127, 14, 19, -29, 40, 
4, -10, -127, 64, 2, -12, 20, -28, 37, 47, -127, 49, -53, -73, -8, 18, 
17, 9, -127, -24, 8, -92, 84, -79, -23, -22, -127, 0, -101, -127, 32, 22, 
41, 44, -103, -17, 8, -81, 92, -50, -20, 52, -127, 22, -127, -127, -13, 24, 
7, 11, 21, 7, -48, 59, -103, -73, 43, -25, -9, -127, 20, 0, 12, -65, 
60, 17, -10, 11, -21, 22, -74, -92, 2, -105, 113, -127, 22, -38, -31, -57, 
29, 18, -53, 81, 32, 55, -117, -2, 57, -88, 39, -127, 22, -7, -25, -105, 
};

const int8_t MagnetometetNetwork_layer_3_bias[] = {
-55, 1, -107, -19, 27, -14, -25, 0, 9, -7, -33, -22, -73, -16, -118, -14, -35, -26, -13, -11, -9, 31, 70, -118, 8, -1, 35, -4, 5, 35, -50, 29, };


const int8_t MagnetometetNetwork_layer_6_weights[] = {
60, -24, 31, 70, -64, -101, -18, 2, -4, -30, -67, 9, 2, -16, 63, 29, 47, -1, -33, 10, 107, -27, 14, -127, 44, -5, 10, -2, -63, -10, 6, 0, 
74, -15, -3, 127, -35, -127, 58, 34, 20, 50, -90, -34, 57, -74, 47, 6, 43, 10, -94, -7, 45, 34, 27, -127, 21, -1, -3, -52, -56, 12, 14, 42, 
74, 34, 11, 43, -58, -127, 15, 9, 27, 56, -31, 22, 22, 36, 28, 43, 24, 28, -76, -6, 13, 46, 43, -127, -4, 1, -9, -45, -18, -32, -14, -40, 
-2, -19, -99, 96, -82, -10, 84, -54, -44, 32, 16, -33, 45, -1, 10, 70, -45, -12, -23, 0, 5, -24, 30, -37, 7, 59, -34, -127, 20, -5, 10, -23, 
8, -48, -69, 112, -100, 75, 84, -19, 32, -34, 22, -18, 89, 36, 91, 38, 40, 70, -51, 30, -30, -40, 40, 77, 53, -15, -41, -127, 64, -1, 51, -49, 
-17, 17, -89, 87, -29, 23, -19, 86, 79, -24, -14, 87, 6, 29, 39, -70, -19, 74, -9, -7, -35, 2, 37, 34, 34, -24, -26, -120, 62, 50, -22, 13, 
-12, 28, -22, -48, 3, -6, -77, 105, -32, -23, -57, 28, -29, 57, -43, -83, 3, 46, 34, 62, 78, 1, -106, -5, -127, -21, -6, 85, 38, -38, 100, -69, 
-8, -6, -37, -56, 6, 20, -31, 39, -66, -35, -40, -12, -39, -21, -117, -48, 6, 88, 32, 63, -7, -49, 27, 78, -127, 23, -92, -34, 67, -5, 78, -22, 
-21, -7, -7, 16, 7, 23, -39, 20, -29, -90, -43, -78, -55, -65, -74, 46, -89, 29, 0, -10, 70, -6, -73, 56, -127, 53, -98, -109, 78, 29, 2, 17, 
-48, 24, -20, 12, -14, -27, 20, 76, -23, -29, 52, 26, 59, -98, 3, -44, 75, -70, -19, 16, -51, -105, -31, 67, 88, -41, 48, -111, -37, -54, 20, 60, 
-31, -7, 52, -78, 18, 0, 65, 48, -46, -42, 86, 34, -5, -127, 26, -98, 71, 10, -53, -4, -71, -89, 23, 15, 78, -37, 55, -127, -48, -23, -11, -24, 
-49, -15, 11, -97, 8, -57, 26, -21, 1, -42, 29, 22, 3, -97, -2, -72, 13, 37, -84, -2, -53, -69, 30, -45, 65, 0, 8, -120, -30, 39, 5, -40, 
31, 68, 105, -49, 22, 1, -35, 33, 10, 12, -29, 24, -39, 27, 30, 14, -127, 36, -28, 80, -60, -9, 65, 28, 20, -22, 4, 43, 36, -9, 83, -18, 
-34, -8, 127, -37, 23, -1, -32, 25, 51, 3, 30, -15, -102, -19, 20, 107, -127, 29, -12, 56, -70, 32, 66, -69, -59, 13, 10, 110, 36, 10, 11, 40, 
-15, 5, 127, -22, -50, -11, 47, -46, 15, -17, -3, -66, -72, -4, 46, 127, -127, 6, 11, -6, 2, 16, 54, -45, -52, 18, 23, 15, 15, 32, -19, 83, 
0, 49, -11, -34, -32, -82, 14, 8, 43, 33, 100, 41, 64, -108, -8, 1, 9, 40, -127, -33, -10, -40, -127, 127, 1, -44, 38, -23, -84, -29, 26, 13, 
64, 31, 27, 9, 0, -73, 48, 33, 23, -9, 39, 41, 64, -54, -35, -53, 7, -24, -127, 1, 14, 24, -127, 114, 17, 21, 13, -52, -61, -41, -82, -4, 
10, 31, 67, 51, 15, -23, 13, 44, 40, 61, -6, 24, 8, 42, 21, -51, -2, 33, -127, 57, 60, 60, -127, 86, -46, -5, 38, -127, -96, -127, -32, 5, 
34, -15, -63, 63, -4, -13, 5, 16, 23, 22, -127, 13, 70, 26, -39, -87, 77, -47, -98, -26, 0, -35, -75, -9, 21, 59, -73, -17, 20, -127, -22, -69, 
46, 53, -14, 19, -95, 6, -85, 21, 60, 50, -117, 47, -3, 6, -66, -127, 8, 7, -59, 24, -18, 35, -127, -107, -39, 42, -29, -127, -38, -127, -73, -127, 
-2, -22, -33, -41, -62, 27, -70, 37, -23, -40, -127, -21, -60, -47, -127, -60, -7, 10, -74, 22, -48, 56, -127, -91, 44, 47, 2, -55, 39, -77, -28, -127, 
-90, 46, -80, 23, 8, 33, -18, -3, -127, -127, 77, 46, 19, 12, 12, -16, 42, 31, -62, 61, -8, -60, 53, -90, 17, -27, -4, 127, 46, 20, -64, -30, 
-97, 6, -89, 31, 43, 1, 1, -22, -127, -127, 75, 24, -7, 67, -10, -25, 23, 14, -74, 27, 32, -84, 56, -70, 36, -65, 6, 127, 71, 35, -43, 33, 
-16, -22, -45, 48, 23, 44, -11, -22, -127, -127, 32, -32, -3, 47, 45, -21, -20, -37, -1, -26, -1, -39, 93, -124, -15, -33, -47, 127, 56, 1, -2, -22, 
38, 32, 65, 43, 25, -65, 25, -71, 27, -27, 6, -39, -12, 37, 22, 107, -9, 29, 87, 25, 27, 53, -44, -72, -70, 41, 2, 48, -22, 69, -6, -35, 
50, 80, 64, 52, 29, -33, 34, -32, -16, -42, -6, 30, 21, 69, 80, 77, -33, 23, 127, 6, -29, 48, -56, -77, -83, 32, 100, 127, -13, 101, -7, -19, 
-42, 20, 31, 1, 0, -13, 22, 7, 29, 25, 21, 39, 55, 50, 84, 13, -23, 24, 96, 33, -52, -20, 10, -28, -42, 28, 58, 83, 53, 70, 6, 37, 
-108, -19, 27, -96, 9, 40, -58, 66, 18, -8, -21, 39, 3, 15, -121, -20, -77, -62, -67, 54, -33, 67, -2, 87, -11, -8, 42, 65, 2, 16, -16, -40, 
-127, 79, 27, -89, 40, 61, -81, 12, -41, -28, 1, 22, -32, -15, -127, -69, -119, 0, -4, 96, -60, 81, -21, 13, 18, 3, 97, 127, 33, -10, -5, -64, 
-127, 7, -11, -113, 77, 29, -46, -3, -38, -28, -40, 52, -35, -30, -127, -74, -89, 7, -13, 65, 12, 46, 33, 0, 5, 17, 67, 90, 12, 45, -64, -70, 
14, 51, 56, 4, 25, -4, -6, -10, 28, -7, -69, 80, -79, -35, -58, -11, -31, 41, -40, 107, -81, 66, -28, 19, 59, -18, -15, -27, 4, -5, 70, -127, 
37, -9, 66, -19, 17, -7, 55, -30, -5, -47, -48, -10, -127, -88, -26, 59, -75, 38, -6, 58, -83, 63, 1, -33, 102, 85, -74, -53, -4, 14, 38, -41, 
-1, -75, 10, -21, -36, 17, 68, -32, -35, -49, 37, -43, -127, -97, 12, 127, -51, 33, -3, -21, 11, -17, 64, 4, 57, 82, -45, 40, -7, 59, 48, 28, 
111, -20, 28, -16, -2, 82, 40, -62, -67, -49, -73, 55, 54, -26, 81, -53, -12, 13, -79, -2, 85, 27, -127, 101, -127, -39, -4, -127, -28, 40, 50, 45, 
88, -50, -42, -10, 17, 63, -51, 21, -27, -68, -87, -16, 13, 41, 43, -91, -17, 59, 21, 19, 103, -7, -127, 12, -127, 17, 35, -127, 60, -63, 42, -40, 
21, -17, 21, -32, 50, 55, 11, -21, -12, -25, -85, -21, -5, 7, -11, -1, -32, 83, -36, 25, 34, -40, -121, 15, -127, 85, 23, -61, 67, -61, 39, -70, 
47, -65, 3, 57, 41, -89, 60, -2, 6, 45, -50, -16, -1, 29, 15, 127, 9, -53, -6, -60, 118, 7, 38, 9, 4, -34, 3, 62, -127, 4, -114, 34, 
39, -72, 26, 15, 54, -68, -21, 28, -6, 62, 57, -3, 78, 8, 60, 121, 49, -21, -47, -52, 91, -35, -100, 51, 17, -17, 22, -1, -127, 11, -87, 44, 
-71, -14, 35, -83, 25, -35, -99, 84, 23, 8, 32, 54, 61, -16, 5, 0, -61, -67, 13, 24, 31, -11, -102, 56, -4, -7, 57, 87, -116, -59, 73, 30, 
-69, -48, 116, -76, 7, -23, 19, -12, -75, -15, -42, 27, 51, 54, 99, -28, 60, -40, 27, 3, 55, -93, -112, 108, -1, -120, 80, 87, 10, -127, -79, -4, 
-80, 24, 119, -120, 43, 3, -58, 24, -25, -32, 55, 29, 96, 7, 49, -27, 80, -26, 66, 35, 17, -120, -127, 111, 17, -86, 31, 32, 19, -37, -19, -19, 
-60, 73, 126, -50, 8, -36, -87, -38, -29, -15, 33, 46, 51, -71, 12, -44, -13, 41, -74, 25, -49, -43, -127, 81, 44, -98, -1, -43, 18, -10, 9, -38, 
30, -46, 98, -20, 82, -117, -84, 25, 12, 25, 64, 24, 14, 81, 55, -8, -2, 71, -37, -34, -90, 68, -75, -1, -7, -33, -74, -53, -36, -1, -14, -56, 
-9, -39, 109, 46, 23, -78, -83, 77, 4, 28, 68, -3, 36, -14, 110, 95, 69, 62, -50, 11, -24, 72, -96, -54, 44, 2, -92, 40, -51, -5, 21, -98, 
-6, -28, 49, -7, 0, -70, 4, -6, -87, -52, 14, 27, -2, -76, 126, 89, 92, -44, -7, 2, -12, 9, -67, -28, 10, -75, -108, 42, -92, -15, -11, -50, 
-40, -107, 7, -24, 1, 18, 32, -40, -91, -18, -21, -127, 20, -31, -41, 37, -44, -41, -29, -19, -5, 87, 34, 125, -30, 9, 16, 44, -64, 78, -127, 24, 
-13, -127, 39, 40, 27, -22, 60, -30, -127, -47, 19, -127, -21, 17, 0, 74, -37, -98, 31, -36, 82, 98, -58, 58, -59, 37, 29, -20, -85, 86, -127, 114, 
-29, -78, -17, 43, -16, -42, -7, 10, -127, -2, -7, -127, 26, -39, 73, 112, -44, -45, 54, -29, 57, 6, -29, 35, -93, 17, 21, -89, 16, 29, -79, 97, 
21, -12, 55, -25, 47, -35, 43, -43, -86, 3, 59, -67, 65, -48, 80, 35, -17, 52, 23, 22, 65, -29, 5, -105, -45, -30, -2, 127, 33, 2, -9, 82, 
-13, -40, 18, -5, 74, -31, 26, -62, -101, -20, 86, -55, 27, 31, 104, 117, 25, 25, -4, -11, 7, 8, 19, -116, -25, 59, -7, 127, 36, 87, -8, 16, 
2, 29, 46, 32, 79, -30, 50, -14, -62, -13, 64, -43, 1, 21, 85, 44, 23, 30, -49, -16, 5, 3, -20, -27, -5, 34, -34, 95, -11, 73, -17, 16, 
6, 6, 4, 53, -78, 45, 21, 54, -35, -4, -127, 19, -1, 27, 30, 46, 3, 73, 127, 20, 10, 2, -127, 0, -64, 21, 40, -9, -15, 7, 50, -44, 
-17, 11, 58, 61, -127, -29, -8, 38, 28, 54, -116, 22, 2, 46, 56, 90, 85, 34, 36, 46, 28, 47, -112, 24, -56, 33, 31, 71, -15, 67, 44, -25, 
14, 10, 30, 6, -104, -29, 39, -9, -15, 8, -81, 12, 88, 18, 82, 78, 99, -46, 0, 19, -17, 27, -17, 109, 49, -42, 10, 46, -3, 14, 35, 22, 
44, -6, 26, 12, -5, -8, 1, -24, 0, -5, -127, -18, 36, 35, -50, -75, -10, 81, 77, 47, -36, -4, -127, 61, -30, -17, 8, 127, -1, 59, -37, -117, 
11, -57, 46, 74, -11, -27, 26, -28, 50, 47, -111, -41, 7, 109, -48, 40, -13, 54, 69, 58, 12, 51, -127, 38, -63, 49, 57, 127, -11, 73, -90, -64, 
-28, -62, -3, 41, 29, -45, 55, -23, -45, 2, -58, -59, -2, 16, 86, 24, 7, -27, 17, 33, 69, 8, -72, 58, -37, -25, 48, 127, -21, -4, -90, -38, 
39, -33, -69, -34, -31, 21, 86, 64, -27, 15, 22, -127, 5, 111, 46, 24, -15, -114, 23, -77, 27, 0, 78, 95, 18, -127, -21, -16, -51, -21, -37, -57, 
-32, -75, -59, -91, -53, 42, 63, 77, -34, -4, 15, -127, 31, 123, -5, 101, 41, -127, 33, -50, 42, -38, 69, 85, 65, -127, 48, -108, 26, 30, -17, -27, 
10, -84, -31, -84, -30, 68, 45, 49, -42, 0, 67, -74, -13, 91, -10, 40, 44, -94, 26, -1, 33, -16, 4, 49, 57, -100, 17, -95, 44, 72, -28, -13, 
-13, -51, -80, -5, 17, -8, 57, -47, -63, -94, 4, -13, -79, -42, -33, 68, -41, 3, -125, 8, 26, -27, 67, -60, 2, -38, 52, 127, -36, 87, -44, 2, 
8, -28, -92, -17, 15, 70, -9, -17, -22, -37, -71, 66, 61, -5, 40, -48, -18, -18, -1, 4, 16, -14, -37, 0, -11, -23, 76, 127, -42, -53, -36, -26, 
13, 51, -98, 52, -37, 28, -31, 38, 105, 55, -4, 3, 106, 70, -23, -127, 82, 69, 61, 44, 7, 17, -50, 19, 30, 0, 57, 127, 67, -47, 28, -103, 
29, -23, 71, 46, -17, -1, -39, 28, 34, 48, -112, 43, 33, 100, 89, 30, 27, 60, 51, 63, 66, 25, -127, -88, -37, 48, 11, -81, 50, -124, -3, -127, 
24, 28, 19, 1, 4, 49, -75, 85, -55, 15, -114, 43, 32, 77, 32, 3, 15, 18, -2, -13, 31, -26, -127, -109, -10, 9, -21, -109, 82, -94, 26, -127, 
43, -27, 21, 38, 12, 27, -56, -8, -56, -34, -61, -50, -40, 7, -48, 24, 66, 1, 2, -11, -40, -70, -115, -89, -22, 79, 10, -79, 0, -90, 16, -127, 
-121, -35, 11, -5, 35, -18, 41, -14, -127, -127, -18, 12, -3, -4, 39, 57, -4, 82, -13, -26, 57, 54, 19, 35, -26, -36, -79, -127, -8, -21, -7, 44, 
-127, 16, 26, 7, 34, 43, 61, 7, -127, -127, 47, 17, 40, -33, 54, 3, 16, 23, -54, -55, 30, 42, 70, 12, 25, -101, -127, -64, -9, -24, -79, 70, 
-127, 35, 28, 64, 2, 51, 5, 8, -127, -127, 55, 48, 21, 13, 12, -45, 32, -20, -36, -42, 70, 75, 62, 75, 31, -85, -76, -127, 11, 38, -14, 28, 
-18, -127, 56, 23, 0, -88, 68, -99, -35, -53, 19, -47, 6, -49, 34, 83, 14, 30, -10, -14, -31, 13, 52, 4, 36, 77, -9, -96, 36, 86, 5, 48, 
41, -81, 40, 56, -55, -5, 106, -114, -15, -21, -23, -69, 0, -23, 80, 104, 19, 67, 76, -86, 40, 22, 115, -32, 70, 19, -77, -127, 44, 56, -7, -22, 
102, -127, -36, 35, -47, 8, 6, -26, 38, 25, -7, -22, 20, 12, 60, -3, -20, 40, 20, -113, 30, 11, 4, 35, 2, -50, 0, -127, 40, 19, -40, -22, 
-25, 9, 14, -77, 36, 20, -22, -3, -33, 18, -38, 5, 23, -74, 55, -24, -8, 10, 93, -5, 26, -50, -56, -23, 49, 3, 101, 127, -44, -77, -53, -39, 
-41, 56, 60, -77, 82, 23, -106, 26, 13, 56, -56, 88, 1, -54, 2, -52, -11, 65, 87, 92, -102, 33, -93, 1, 55, -47, 76, 127, 5, -26, 8, -79, 
7, 69, 35, -87, 3, 26, -62, -52, -30, 16, -83, 22, -17, -24, -22, -6, -35, 66, 62, 66, -75, 84, -21, -25, 50, -4, 53, 73, -8, 14, 38, -11, 
-58, 44, 15, 19, -9, 72, 29, 29, -38, 2, -44, 48, -11, -17, -2, -65, -10, 38, -68, 16, 33, 50, 27, -30, 27, -25, 24, -127, -28, -76, -54, 21, 
4, -3, 3, -1, 33, 63, -31, -1, 24, 8, -63, 10, -43, 1, 2, -51, 16, 11, -36, -16, 10, 66, 26, -33, -23, 46, 2, -127, 8, -51, -77, 21, 
51, -59, 5, 70, 14, -10, -2, -69, 66, 17, -65, -77, -29, -32, -42, -53, 20, 84, -51, -65, -26, 79, 31, -27, -6, 30, -77, -127, 18, -38, -23, -15, 
29, 31, 25, 45, -11, 77, -50, -32, -12, -22, 30, 29, -64, 15, 17, 61, -35, -17, 22, -32, -43, 26, -34, -54, 71, 13, -14, 87, 5, 0, -50, -37, 
76, 3, 6, 27, 13, 12, 61, -9, -4, -7, 80, 17, 59, -50, 120, 127, -19, -32, 9, -65, 79, -15, 52, -99, -32, -81, -2, 109, 21, 77, -43, 80, 
-3, -55, 9, -5, 8, 63, 41, -3, -4, -12, 22, -11, 77, -21, 31, 57, 66, -25, -5, -61, 82, -10, 31, -35, 10, -98, 38, 55, -14, 43, -68, 45, 
-6, -118, -40, 2, -21, 34, 72, -84, -11, -11, 0, -95, 42, -7, 61, 16, 26, -34, -127, -127, 118, 37, 47, -69, 11, -35, 50, -46, 13, -11, -15, 65, 
66, -98, -43, -9, 28, 14, -12, -37, 12, 9, -27, -9, 41, 8, 32, -16, 20, -38, -127, -127, 109, 78, -55, 40, 35, -31, 75, -4, -3, -10, -67, 6, 
68, -11, -3, -15, 64, 15, -14, 32, 45, 71, -66, 12, 64, -48, 49, 20, 46, 22, -127, -66, -50, 71, -30, 60, 54, -9, -24, -36, 9, -57, 14, -66, 
32, -10, -107, 7, 23, 74, -23, 56, -69, -15, -18, -34, 59, 2, 8, 10, 46, -34, -56, -16, -22, -101, -62, 99, -127, -78, 77, -49, 16, -41, 20, -55, 
25, -5, -111, -37, -4, -34, 19, 57, -46, 55, -114, 36, -7, 21, -1, 47, -10, -53, 27, -1, -31, -127, -105, 80, -127, 74, 127, -120, 37, -61, 96, -127, 
1, 15, 37, -1, -45, 32, 7, 53, -51, 70, -102, 16, -41, 1, 25, 46, -1, -61, 4, -23, 4, -127, -100, -7, -127, 45, 69, -127, 43, -6, 97, -127, 
81, 77, 3, -55, 25, 90, -87, 27, 46, 31, -74, 99, -33, 51, 0, -51, -69, 21, 82, -9, -12, 122, -66, -22, -2, 76, -10, -28, 9, -3, -12, -54, 
44, -1, 99, 41, 8, 99, 18, -31, -1, -5, -70, -3, -46, -12, 40, 52, -88, 10, 53, 33, 4, 51, 11, -49, 18, 88, -70, -10, 12, -30, 32, -62, 
-13, -59, 40, 12, 10, -4, 8, 22, -8, -13, -45, -76, -48, -51, 2, 71, -96, -56, 52, -25, 57, 15, 47, -126, 31, 58, -76, 13, -10, -58, -47, -43, 
31, 16, -25, -64, -5, -19, -15, -22, -11, 11, -127, -10, -38, -35, -81, -56, 21, -71, 54, -16, -73, -76, 13, -8, 22, -67, -14, -1, -41, 48, -6, -127, 
25, 65, -79, -47, -21, 32, -98, -36, 35, 40, -127, 69, 28, 43, -127, -127, -1, 53, 127, 43, -127, 11, 9, -44, 30, 5, 29, -2, -49, 6, 72, -99, 
-18, 60, -22, -19, -11, 23, -56, -16, 59, 18, -95, 84, -20, 56, -94, -127, -50, 34, 51, 38, -127, 24, -50, -38, -12, 10, -33, -8, -6, 87, -17, -127, 
-23, -34, -28, 56, -16, -87, -29, -51, 34, 52, 46, -103, -20, -106, 0, -2, -34, -102, 37, -49, 0, 9, -62, -111, 27, 56, 127, 127, 62, -48, -93, -34, 
69, -80, -5, 50, -71, -61, 24, -69, -51, 40, -2, -127, -43, -127, -7, 83, -47, -122, 44, -74, 8, -97, -53, -127, 20, -4, 127, 127, -23, -29, -83, 22, 
60, -127, -97, 8, -6, -127, 57, -71, -66, 52, 5, -127, -14, -110, 48, 80, -14, -112, 47, -104, 22, -79, -66, -127, 35, 41, 40, 127, 95, -7, -114, 66, 
};

const int8_t MagnetometetNetwork_layer_6_bias[] = {
-28, -55, 14, 30, -17, -65, 49, 53, -109, 32, -4, -70, -24, -15, -22, 47, -57, -127, 17, 13, -1, 15, -30, -18, -24, 64, -21, 3, -2, -4, 46, 44, };


const int8_t MagnetometetNetwork_layer_9_weights[] = {
41, 20, -32, -12, -109, -6, 35, -123, -59, -84, -127, 28, 126, -25, 93, 37, -127, -7, 81, 43, 15, 50, -11, 0, -71, -33, -27, 88, -38, -118, -29, 59, 
6, -5, -3, 21, -32, -17, 62, -83, -35, -15, -79, -17, -33, 54, -25, 18, -127, -49, -7, 5, 40, 38, -127, -127, 7, -10, -127, -51, -18, -36, 37, -6, 
-85, -72, 50, -4, 75, 9, 41, -55, 73, 81, 35, -20, -86, 69, -55, -25, -127, -44, -56, -47, 31, -1, -34, -76, 113, -4, -127, -127, -11, 37, 57, -125, 
-105, -127, 15, -13, -42, 100, -36, 51, 11, -38, -68, -17, 26, 44, -39, 14, 55, -61, 56, -20, 25, -79, 92, -57, -7, -65, 45, 14, -54, 11, -13, -75, 
-127, -127, 26, -16, 2, 85, -73, 73, 40, 12, -15, 33, 60, 90, 40, 2, 42, -55, 76, -18, 36, -44, 94, -47, 11, -55, 29, 49, -46, 34, -59, -74, 
-93, -57, 30, 28, 25, 62, -94, 31, 75, 27, 9, 28, 18, 96, 92, 10, 2, 0, 22, -43, 57, 39, 68, -42, 9, -46, 23, 19, 57, 60, -57, -6, 
-127, 33, 40, 6, 20, -14, 8, -12, -43, -15, -17, 5, -127, 11, 0, -80, -117, -9, -51, -2, 70, -8, -127, -121, 5, -2, -127, -2, 52, -6, 26, -20, 
-127, 43, 35, 62, -9, -6, 4, 7, -80, 32, 14, 75, -127, -33, 53, -127, -7, 12, 25, -127, 63, 27, -127, -127, 18, 34, -127, 27, -24, -13, 39, -28, 
-127, 40, 3, 8, 23, -26, -73, 26, -3, 25, 29, 43, -127, 35, 68, -38, 97, -60, 1, -114, -24, 53, -91, 17, 20, 72, -118, -35, -49, -73, 21, -50, 
-27, -58, -3, -109, 42, -127, -4, 39, 31, 93, 75, 5, -25, 7, 10, -24, -46, -27, 48, -1, -4, -32, -87, -16, 38, -39, -32, -127, -45, 32, -73, 36, 
0, 0, -37, -55, 79, -127, -127, 58, 42, -24, -11, 31, 20, -70, 10, 49, 5, -32, 3, 43, 30, -64, -16, 16, 44, -95, 54, -79, -34, 32, -127, 83, 
21, 7, -90, 2, -13, -12, -127, 43, 28, -8, -52, 8, 41, 23, 40, 63, 20, 92, 53, 94, -30, 32, -17, 44, 26, -127, 52, -3, 22, -82, -127, 3, 
9, -118, -15, 2, 6, -49, -94, 56, 47, -36, -41, -1, 30, -15, 30, 44, 60, -89, -69, -19, 23, -127, 62, 27, 9, -7, 35, 15, -127, -8, 4, 28, 
-25, -106, 22, 68, 0, -24, -127, 51, -42, -24, -42, 86, 36, 12, 53, 2, -7, -66, -50, 5, 127, -127, 28, 14, 23, -16, 42, 53, -127, -43, -63, 36, 
-16, -90, 109, 74, -31, -40, -127, 21, -28, 30, -9, 127, -15, -9, 82, -69, -17, 47, -70, -28, 69, 4, -15, -13, 20, -35, -64, 11, -19, -27, -67, -2, 
65, 51, 74, 29, -23, -16, 41, -77, -21, 24, -39, -28, 70, 17, 79, -127, -71, -24, -22, -44, 32, 51, -75, -105, 13, -11, -110, 24, -84, 30, -27, -1, 
-15, 3, -7, -13, 29, 33, 49, -97, -51, 9, 46, 35, 10, 10, 116, -127, 35, -30, -36, -127, 4, 41, -57, -113, 1, 11, -127, -42, -52, 72, 38, 93, 
-7, -56, -13, -6, 0, 50, -7, -28, -64, -10, 68, -30, -53, -37, 31, 27, 127, -85, 19, -63, -39, -68, 84, -1, 41, 25, -4, -95, -9, 60, 10, 111, 
-55, -19, -20, 18, 9, -56, -14, 55, -31, -3, 33, -1, 4, -38, -64, -3, 25, -29, -68, 6, 25, -71, -38, -8, 4, 28, 30, -13, -37, 26, 0, 47, 
20, 39, 6, -38, -36, 38, -1, -13, -14, -15, 0, 50, 61, -18, -45, -50, -35, 18, -28, 25, 74, 36, -90, 11, -12, -11, 36, 54, 0, 37, 19, -56, 
37, 39, -9, -11, -37, 45, 27, -32, 5, -36, -15, 51, 86, 70, 79, -113, -92, 63, -8, 55, 123, 92, -127, -98, 3, -22, -14, 30, 41, 8, -10, -54, 
38, 24, -86, 10, -48, 57, -15, -9, 44, 23, -51, -3, 57, 15, 2, -61, -127, 58, 21, -9, -10, 14, -54, -56, 13, 6, -111, 64, 40, -11, -18, 16, 
-20, -39, -97, 36, -23, 16, -26, 32, 33, 32, -20, 36, -50, -37, -111, -110, -127, -47, 44, -25, -75, -18, 0, -24, 35, 50, -116, -1, 1, 54, 9, 16, 
-42, -76, 30, 63, -24, -21, 6, 70, -58, 27, 25, -15, -12, -34, -127, -9, -127, -92, -15, 40, -6, -27, 57, 36, -32, 33, -62, -31, -16, 34, -33, 73, 
-13, 17, -3, 34, -94, -47, -127, 34, -8, -39, -87, 65, 5, 86, 3, -42, 22, -60, 12, 44, 58, -17, -35, -45, -40, -12, 17, 38, -83, 57, -127, 58, 
38, -50, 35, -3, -32, -60, -127, 53, -13, -30, -120, 55, 30, 103, 19, -19, 4, -75, 44, 22, 38, -11, -86, -2, 21, -123, -21, 15, -46, 43, -110, 72, 
49, 15, 96, -45, -32, -77, -127, 48, 16, 1, -98, -20, 15, 14, 28, -21, -26, -73, 3, 37, -13, 35, -52, 11, 67, -126, 37, -18, 38, 52, -28, 110, 
24, 31, 11, -123, -7, -20, -40, -52, 65, -36, 31, 43, -10, -97, 120, -66, 66, -44, 62, -34, -7, 35, -112, -34, 19, 43, 7, 30, -23, 25, -16, -34, 
-5, 31, -32, -127, -8, -64, 1, -102, 95, -52, 3, 67, 38, -58, 127, -70, 45, 48, 58, -101, -7, 74, -105, -47, 43, 22, -30, -46, -12, 62, 12, -124, 
-32, -33, 35, -114, 21, -58, 43, -82, 20, 2, -41, -57, 17, -110, 87, -23, -28, -18, 63, -127, 0, 56, -83, -21, -28, -24, -79, -45, 32, 95, 0, -50, 
-71, -93, -11, 68, 79, 53, 55, 20, -19, 68, 57, -52, -117, 55, -2, -10, -57, -41, -36, -50, 18, -15, 25, -76, 45, 15, -127, -127, 83, -50, 39, -18, 
29, -38, -98, -6, -21, 58, 73, -57, 34, 19, -49, -127, -54, -47, -18, 32, -29, 18, 35, -100, -18, 55, 40, 20, 21, 77, -85, -83, 40, 64, -32, 46, 
111, 31, -127, -25, -48, 31, 28, -40, 46, -127, -50, -127, 63, -126, -16, 33, 57, 43, 78, 23, -25, 3, 56, 34, -37, 24, 45, 37, -12, 5, -88, -15, 
-16, 14, -114, 79, -123, -8, -58, -113, 18, -91, -108, 51, 35, 10, 40, 15, 29, 11, 64, 16, 94, -88, 63, -13, 13, -21, -13, 18, -39, -64, 36, 4, 
-30, 44, -62, -26, -36, 31, -70, -120, 63, -85, 16, 45, 7, 31, 15, -19, -2, 48, 88, -15, 127, -66, -33, -35, 35, -32, -16, -4, -29, 29, 37, 62, 
-45, 42, 22, -28, 7, -48, -73, -127, 44, -83, 18, 36, -41, -16, -8, -42, -51, 4, 117, -15, 97, -53, -123, 49, 1, 13, -27, -7, 14, 27, 24, 19, 
-81, 1, -69, -1, -7, -127, -123, 16, -1, 67, 46, 41, -91, 31, 74, 18, -40, -127, -88, 0, -13, -127, 49, 21, -45, 82, 8, -13, -107, 18, -85, 9, 
-60, -10, -73, -1, 42, -127, -127, 4, -24, 19, 12, 0, -106, 22, 34, 95, -13, -127, -115, 2, -53, -127, 62, 73, -30, 81, 59, -54, 12, -33, -75, -22, 
6, 4, -80, -37, 53, -107, -127, -48, 0, 25, -10, 21, -67, 24, 42, 72, 20, -127, -124, 27, -27, -127, -15, 59, -60, 70, 26, -43, -127, -30, -7, 42, 
-83, -24, -13, -105, 8, -74, -38, 14, -10, 95, 28, 17, -74, -5, -109, 1, 11, 1, -14, -127, 7, -47, -83, -2, -4, 32, -21, -28, 49, 10, -58, 82, 
-80, -44, -14, -127, 64, -85, -69, 15, -38, 58, 56, 55, -127, 14, -127, 19, 12, -18, 5, -126, -51, -6, -40, 59, 31, -28, 10, -70, -16, 22, -30, 25, 
18, -5, 45, -127, -8, -50, 2, -57, 21, 64, 51, 37, -36, -14, -88, -30, -56, 3, 57, -97, 59, 64, -89, 28, 42, -7, -55, -24, -60, 91, -13, 24, 
16, 44, -20, -87, 64, -55, -62, 9, 48, -9, 82, 61, 76, 56, 61, -88, 54, 15, 16, -13, -10, 38, -2, 26, -15, 12, 36, 54, -24, 31, -78, 33, 
40, 49, -10, -85, 39, -23, -37, -19, 17, 46, 74, 41, -6, 12, -29, -97, 74, 10, 19, -74, -49, 14, -33, 33, 19, -96, -1, -5, -25, 94, -36, 44, 
7, 26, -36, -99, 36, 12, 11, -33, 16, 28, 81, 23, -64, 48, -42, -64, 27, 57, -50, -82, -51, -28, -122, 20, 52, -72, 3, -56, -10, 62, 8, 38, 
-54, -104, 21, -9, -83, -127, -127, 38, -68, 37, -21, 27, 15, 25, -127, 7, -15, -48, -23, 75, 119, 10, -62, -58, -43, -31, -25, 19, 34, -127, -45, -2, 
-82, -101, 14, 31, -68, -77, -95, 44, -23, -8, 48, 42, 28, -36, -127, 12, 2, -5, 52, 23, 127, 57, -84, -46, -2, -55, -12, 3, 81, -122, -51, 28, 
-70, -70, 29, 51, -46, -127, -80, 48, 18, -12, 62, 43, -61, -85, -127, -76, -36, 15, 118, 13, 107, 0, -76, -12, -16, 12, 18, -53, 18, 28, -18, 91, 
-21, 7, 26, 9, -66, 95, 91, -127, -35, -22, -19, 28, 31, 127, -8, -23, 27, -19, 8, 19, -63, 53, -51, -52, 21, 38, 18, -17, 93, 13, 61, -4, 
19, 34, -15, 52, -24, 43, 80, -127, -28, -37, -15, 45, 26, 15, 33, 33, 20, -27, -38, 60, -34, -14, -39, -63, 51, 40, -10, 28, 31, 2, 61, -43, 
-23, 29, -30, 46, -43, -24, 0, -127, -77, -67, 26, 17, 47, -66, -32, 37, 9, 34, -67, 69, -6, 25, 11, -35, -45, -9, 16, -18, -26, 27, -8, -65, 
-52, 28, 1, 21, 69, -127, -127, 30, 12, -56, 127, -8, -45, -120, -76, -30, 1, 15, -3, 23, -42, -10, 65, 27, -98, 5, -19, -70, 23, 41, -127, 57, 
28, 17, -14, 39, -18, -127, -127, -6, 66, -49, 14, 6, -1, -63, -122, 8, -4, 2, 64, 52, -12, 35, 50, 65, -127, 3, 69, -1, -50, -15, -38, 24, 
35, 6, -64, 12, -84, 0, -93, -19, 25, -42, -43, 4, 35, 26, -30, 0, -9, 17, 82, 42, 33, 10, 17, 7, -127, 52, 20, 67, -16, -26, -42, 59, 
35, 70, 9, 19, -127, 0, -4, 45, -62, -28, -127, 29, -9, -33, -72, 92, 94, 9, -40, 70, -56, -57, 62, 100, -68, 0, 88, 48, -1, -102, -56, 81, 
6, 46, 58, 19, -127, 50, 60, -48, -57, -42, -95, 19, 60, 33, 36, -20, -62, -26, 2, -24, -11, 18, -108, 38, 14, 25, -45, 35, 12, -56, -36, 34, 
24, 57, 67, 3, -42, 33, 55, -89, -5, 23, -25, 36, -19, 23, 47, -127, -127, -28, 0, -95, 35, 8, -127, -59, 76, 48, -111, -3, 4, 24, 45, -72, 
-16, -35, -40, -3, -127, 29, 41, 46, -33, -127, -68, -20, -16, -117, 1, -99, -19, -1, 21, -20, -41, 14, 21, 2, -41, 12, 35, 10, 40, -4, 21, -30, 
43, 71, -127, -12, -127, 30, -25, 25, -13, -127, -51, -67, 31, -35, -22, -47, 33, -33, -5, 9, 25, -8, 7, 76, 12, -8, 54, 19, -10, -25, 2, 27, 
53, 70, -127, -40, -69, 40, 17, -1, 25, -67, 52, -68, -3, 47, 65, -50, 40, 49, 0, -12, 29, 20, 1, 62, -2, -57, -5, 53, 42, -47, -14, 15, 
-62, -56, 1, 75, -26, 5, -4, -17, -108, -60, -56, 89, -24, 38, -36, -5, -78, -127, -66, 73, -60, -74, 0, 19, 22, -3, -24, 83, -34, -67, -13, 49, 
-97, -123, 62, 10, 52, -108, 11, 20, 7, 55, -15, 62, -92, 2, 27, -45, -66, -127, 0, -14, 8, -56, 17, 22, 35, 52, -28, 22, 0, -13, 36, 11, 
-86, -127, 53, -32, 96, -127, -43, -2, 36, 39, 51, 51, -127, -12, 27, -27, -5, -127, 58, -21, -30, -53, -2, -27, 81, 78, -26, 15, -40, 81, 12, 47, 
33, 51, 85, -24, 11, -14, 60, -63, 42, -127, 61, -68, 49, -120, -89, 48, -24, 26, 91, -27, 31, 88, -15, -42, -87, 26, -21, 16, -97, 71, -19, 64, 
14, -26, 2, -59, -127, 19, 19, -100, -33, -127, -79, -111, 85, -34, -73, 59, -15, 58, 75, -14, -44, 47, 7, -22, -127, -19, 14, 27, -37, 3, -25, 23, 
-21, -53, -35, -27, -127, 38, 43, -93, -54, -20, -112, -127, 13, 38, -92, 29, -11, 4, 37, 37, 33, -27, 34, -4, 7, -5, -6, -23, 16, -23, 3, 25, 
21, 61, -29, -48, 116, 47, 25, -16, 93, 24, 84, -62, -36, -9, -5, 3, 87, 77, 27, -68, 9, 37, -113, -108, 56, -10, -127, -21, -28, 18, 55, -85, 
-29, 31, -31, -94, 62, 25, 23, -59, -24, 2, 39, -71, -91, 17, -119, 47, -58, 36, 30, -22, 40, 21, -115, -108, 7, -100, -127, -127, 0, -4, 2, -79, 
-37, -26, 60, -59, -91, 45, -3, -127, -65, 1, -42, -19, 59, 54, -127, -36, -112, -2, 86, 76, 67, 2, -96, -127, -9, -95, -127, -85, 44, -86, 36, 95, 
25, 32, 31, -5, 5, -37, 77, -2, 21, -101, -23, -19, -80, 43, 50, -13, -9, 85, 22, 12, -35, 64, -71, 16, -49, 0, 27, -104, -38, 55, -10, -6, 
-10, -58, 16, -17, 54, -38, 3, 51, 41, -3, 26, -21, -79, -11, -32, -35, 39, 21, 7, 33, 4, 54, -3, 26, 31, -52, 43, -69, -25, 58, -12, 38, 
-31, -49, 18, 60, 86, 5, -12, 69, -11, -7, 59, 5, -82, -10, -37, -20, 87, -54, -56, 27, -81, -18, 45, 39, 33, -19, 71, -76, -57, -21, -5, 15, 
10, 10, -116, -8, 44, 0, 0, 0, -10, 7, 72, 51, 59, -120, -122, 9, -3, 63, 81, 55, -80, 55, 11, 3, -35, 17, -18, -39, 8, 36, -4, -55, 
-9, 7, -127, 0, 26, 23, 24, -31, -21, -50, 61, -35, -18, -101, -127, -4, -4, 39, 93, 25, -123, -27, 7, 3, -83, 14, -47, -40, 71, 13, -49, -107, 
-58, -35, -58, -23, 36, -4, -14, -46, 10, -67, 112, -79, -44, -73, -78, 0, 41, -51, -6, -26, -59, 27, -32, 44, -43, 35, -73, -32, 61, 19, -55, -36, 
-127, 81, 49, -44, -22, -40, -54, -13, -127, 44, -69, 33, -20, 27, -127, 45, -23, 55, -127, 27, 76, 1, -127, 127, 16, -107, -63, 16, 70, -86, -1, -25, 
-127, 88, 57, 0, 32, -35, -26, 7, -58, 13, -6, 41, -38, 14, -127, -17, -127, 62, -96, 17, 29, 64, -127, -127, 17, -40, -127, -78, 85, -64, -19, 43, 
-105, 32, 61, 44, 40, 16, -12, -8, 0, -14, 58, 43, -66, 75, -25, -1, -20, 39, 11, 64, 21, 10, -127, -127, -13, -13, -127, -30, 79, 7, -1, -27, 
-5, 5, -127, -67, -26, 0, -51, 4, -13, -88, -21, -101, 18, -77, -59, 85, 74, -19, -22, -48, 19, -63, 100, 35, -81, -47, 28, -11, -35, -30, -81, 54, 
-19, -26, -127, -122, 26, 37, 10, 14, 79, -60, -21, -74, -16, -99, -44, 81, 44, 18, -6, -36, -10, -49, -7, 61, 0, 40, 3, 49, 22, -36, -28, 55, 
22, 0, -117, -108, -15, 30, 7, 14, 40, 30, 57, -31, -21, -105, -41, 6, -38, 74, -4, -60, 85, -1, -66, -49, 40, 5, -24, 3, -50, 41, 64, -12, 
20, 52, 1, 13, 13, 40, 47, 4, 5, 48, -42, -14, 21, 30, 88, -33, -127, 80, -23, -56, 47, 17, -19, -58, 17, 30, -91, -27, 35, 8, -9, -109, 
26, -7, -12, -9, 60, 44, 56, 0, -19, 23, 7, -34, 56, -12, 89, -52, -127, 57, 7, -38, 36, 60, -127, -94, 70, -14, -67, -12, 89, 55, 19, -4, 
-6, -37, 30, -4, 20, -52, -41, 31, -39, -34, 22, -34, 109, -42, 32, 15, 0, -20, -2, 38, -28, 5, -22, 20, -44, -7, 40, 3, -17, 81, -99, 127, 
-122, -10, -1, 4, -14, 40, 22, -17, 13, 15, 16, -3, -126, 5, 109, 11, -13, 49, -40, -50, -27, 43, -49, -92, 30, 24, -25, -93, 47, -35, 74, -32, 
-97, -51, 21, 19, 30, -15, -68, -17, 14, 6, 10, 6, -68, -14, 127, 58, 29, -32, -54, -96, 36, -3, -22, -68, -2, -9, -15, -67, 50, 44, -43, 4, 
-71, -90, 16, 17, 48, -127, -125, -47, 30, -72, 19, -22, 8, -51, 127, 60, 82, -52, 21, -60, 35, -17, 23, 15, -72, -5, 13, -38, 19, -5, -97, -31, 
-8, -22, -34, -35, 7, -30, -59, 42, 0, -40, 8, -40, 67, -47, -34, 115, -3, -13, 4, 26, 19, 0, -54, 89, -15, -34, 10, 5, 0, -28, -38, 13, 
-39, -27, -19, -33, -13, -47, 3, -11, 17, 0, -20, -9, 76, -3, -16, -3, -85, 43, 66, -5, 127, 25, -127, -17, 48, -84, -68, -49, -16, -19, 35, -17, 
-45, -46, -65, -23, 109, 45, 26, 0, 20, 39, 0, -45, 10, 32, 22, -45, -58, 33, 25, -52, 80, 45, -116, -32, 49, -75, -96, -110, 53, 34, 43, -127, 
0, -19, 4, 41, 24, -127, -118, 62, -3, 16, -64, -73, 35, -21, -9, -30, 65, -19, -27, 60, 35, -65, 42, -56, -10, 55, 0, -12, -51, -57, -22, -111, 
8, 78, -44, 13, 18, -127, -113, 53, -7, 53, -53, -126, 14, -16, -24, 20, 91, 29, 1, 36, 23, -127, 115, -24, -29, 40, -9, 4, -82, -49, 7, -78, 
18, 46, -49, 47, 24, -127, -58, 49, 12, 54, -44, -93, 15, -20, -14, 5, 43, 102, 16, 34, -64, -107, 112, -18, 21, 91, 16, 8, -122, 2, 20, -79, 
9, 81, -127, -6, 12, 44, 56, -34, 76, -37, 22, 40, 19, -127, -44, -37, 10, 71, 26, -11, -89, 61, -7, 43, 37, 15, 20, -2, 45, 26, 45, 1, 
29, 96, -127, -2, 12, -33, -27, 49, 19, -84, 38, -19, -17, -127, -37, -7, 34, 42, -18, -13, -76, 54, 94, 18, -25, 32, 21, -20, 7, 61, 1, 9, 
-34, -10, -127, 45, -19, -39, -66, 82, 7, -127, -3, -1, -24, -127, -38, -2, -44, -89, 0, 17, -87, -8, 100, 5, -84, 29, 3, 14, -115, -41, -52, 1, 
-45, 23, 18, 46, -70, -1, -57, -51, -82, 20, -72, 29, -20, 75, 127, -19, -96, 0, 80, -43, 49, 16, -117, -49, 29, 45, -73, -6, 75, -17, -104, -116, 
-53, 27, 30, 34, -25, 13, -70, -20, -56, -9, -61, 1, 16, 127, 127, 30, -84, -22, -4, 47, 44, -15, -121, -11, 24, -50, 24, -9, 71, -95, -101, -118, 
-46, 10, -19, 56, 15, 11, -17, 35, -46, 28, 1, -6, 93, 63, 127, 94, -6, -58, 35, 37, 28, -1, -75, 33, 9, -75, 55, 75, -33, 0, -96, -25, 
34, -2, -127, 34, -127, 2, -7, -2, -113, -127, -66, -57, 47, 15, 71, 15, -33, -47, -17, 45, -31, 11, -44, -45, -32, 23, 0, -9, -98, -57, -62, 23, 
-2, 9, -89, 45, -127, -22, -24, -46, -127, -93, -42, -20, 82, 122, 86, -17, -9, 9, -111, 5, -5, -19, -77, -104, 17, 30, -33, 2, 20, -115, -15, -43, 
-4, -23, 64, 55, -76, 31, 42, -51, -127, -5, 12, 3, 18, 90, 60, -9, 22, 53, -127, -50, -37, -23, 7, -123, 26, 0, -28, -2, 22, -127, 98, -15, 
32, 76, 25, -15, 5, 72, 33, -127, -14, -7, 15, 25, 56, 54, 42, -61, -70, 54, 0, 82, -80, 127, -127, 16, 24, -52, -117, 5, 1, 53, 43, -127, 
-69, -37, 43, 41, 23, 1, 19, -33, -68, 22, 83, -22, -90, 43, -10, -49, -86, -85, 21, 79, -110, 44, -127, 11, 9, 2, -74, -127, 22, -51, 0, -24, 
-86, -99, 8, 50, -52, -93, -32, 44, -98, 0, -3, 15, -91, 3, -42, 103, 52, -127, 58, 127, -120, -35, -33, 92, -15, 13, 0, -8, 0, -39, -28, -96, 
26, 26, 91, -43, 29, 97, -48, 21, 1, 29, -100, 28, -19, 31, 78, -119, -56, 66, 100, 0, 45, 33, 17, -56, 6, 0, -19, -14, 30, -35, 12, -69, 
17, -5, 91, -11, 4, 5, -113, 9, 0, 28, -127, 52, -38, -9, 68, -93, -38, -27, 68, 53, 48, 17, 18, -30, -26, 22, 2, 24, 29, -27, -108, 0, 
45, -19, 74, 16, 4, -31, -127, -24, -7, 18, -94, 56, -24, -10, 26, 9, -18, 2, 43, 73, -7, -63, -8, 18, -23, 6, 23, 19, 25, -45, -127, 35, 
-41, -50, -121, 83, -68, -64, -52, 18, -127, -7, -27, -127, -3, 26, -2, -33, 7, -114, -45, -6, 28, -96, 4, 16, 12, -49, 5, -48, 49, -102, -26, -1, 
-3, -45, -74, 88, -24, -5, -3, -42, -89, 37, -9, -127, -19, 42, 9, -16, 33, -50, -77, 0, 9, -9, 11, 19, 21, 6, -10, 17, 23, -56, 28, -51, 
80, 6, -72, -36, 36, 73, 27, -74, 51, -21, -27, -127, 17, -17, 19, -16, 5, 34, 73, 1, 100, 98, -50, 7, 30, 49, -28, 54, 18, 41, 46, 6, 
-35, -61, -6, -16, -9, -88, -46, -28, 4, 28, 38, -72, -126, -18, 37, -127, -127, -50, 26, -80, 67, -6, -9, 29, 10, -9, -79, -71, 43, 86, 24, -10, 
14, 12, -80, 17, -26, -45, 0, -31, 22, 27, 16, -42, -63, -16, 37, -96, -121, -63, 78, 0, 10, 20, -28, 58, -14, 82, -24, -15, -54, 80, 29, 14, 
67, 43, -100, 32, -38, -26, 3, -74, 2, -59, -29, 33, 6, -7, 35, 35, -17, -52, 32, 7, 0, 60, -55, 85, -43, 55, 66, 82, -29, -14, -32, -2, 
37, 12, -37, 4, -58, -51, 45, 24, 14, -61, -58, 23, 59, -19, 65, 63, 4, -20, 40, 104, -11, 25, 2, -69, -69, 83, -12, 127, 20, 0, 5, -102, 
35, -9, -38, -25, 27, -39, 102, -40, -40, -21, 38, 97, -8, 21, 59, -52, -127, -28, -11, -54, -35, 83, -127, -127, 7, 31, -127, -13, 27, 32, -8, 45, 
-9, -15, 19, 32, 121, -64, -5, 36, -20, 13, 93, 0, -78, -50, 6, 29, -37, -116, -64, -50, -86, -29, -69, -108, 0, 30, -122, -42, 0, -19, -17, -1, 
-59, -18, -74, -8, 16, 45, 50, 54, 11, 93, 60, -15, -127, -55, 54, -83, -72, 12, -13, -72, -1, 53, -88, -116, 65, 77, -119, -119, -38, 68, 42, -39, 
12, -43, -25, -10, 12, -1, 11, 65, 31, -65, 73, 19, 17, -127, 14, -14, -15, -30, 67, 29, -50, 84, 42, 27, -127, -16, 54, -6, -23, 27, -42, -40, 
63, -14, -72, -6, -12, -45, 2, 24, -29, -127, -58, 51, 89, 24, 1, 20, 41, 41, -6, 26, -37, 30, 42, 64, -127, -57, 81, 18, 21, 0, -127, 59, 
86, 43, 85, 32, 49, 62, 20, -13, -10, 44, 20, 69, 53, 44, 10, 3, 2, 79, -46, 72, -1, 78, -91, 29, 67, 6, 23, 33, 91, -31, 10, 31, 
-35, -29, 66, 39, 32, 46, 50, -12, -53, -12, 41, -17, 27, 31, 70, 47, 38, -24, -48, 64, -88, 71, -17, 20, -35, -26, 0, -2, -9, 12, -37, 33, 
-39, -43, -53, 0, 11, -57, 58, -18, -40, -68, 31, -15, 49, -14, 36, 2, 44, -72, -28, 67, -104, -31, -20, 29, -49, -7, -16, 34, -86, 8, -121, 5, 
68, -13, -78, 1, -127, -18, 43, -23, 64, -24, -127, 71, 56, -41, -1, 91, 77, 0, 30, 74, 11, 2, 40, 96, 6, -54, 59, 29, 29, -90, -16, 14, 
10, -30, -76, 57, -75, -20, 10, -5, 56, 16, -55, 57, 46, -15, -30, 0, 19, 54, -22, 56, 1, 29, 31, 11, 58, -19, 26, 29, 82, -13, 32, -43, 
-50, -43, 5, 83, 26, -40, 21, -19, 41, 15, 6, -45, -76, 7, -32, -41, -24, -8, -27, 1, 35, -66, -35, -30, 39, 11, -30, 4, 63, 75, 59, -68, 
-127, -127, -95, -78, -4, -127, -127, -53, 35, -58, -9, 69, 1, -25, -13, 17, 31, 9, 39, -80, 66, -63, 0, 76, 5, -38, 33, -127, -127, 25, -127, 9, 
-103, -120, -25, -118, 6, -90, -127, -56, 10, -42, 100, 23, -6, -30, -45, 63, 22, 24, 94, 11, 48, -10, -36, 60, 12, -119, -39, -127, -99, 46, -127, 30, 
-75, -47, 8, -125, 46, 12, -70, -13, 52, -36, 17, 112, -30, 105, -78, -19, 11, 32, 40, 22, 120, 43, -54, 33, 88, -40, -15, -127, 25, 99, -36, 2, 
-127, -95, 35, 11, 21, -54, -1, 24, -49, 45, 59, 18, -11, 78, 75, -11, 22, -75, -66, -57, 66, -65, 9, 30, 12, -47, 33, -27, 75, 34, -42, -36, 
-114, -127, 25, 20, 25, -23, -47, 47, -8, 15, 62, 2, -1, 53, 101, 7, 67, -127, -118, -57, 9, -101, 44, 21, 16, -32, -7, -29, -26, 39, -25, -37, 
-127, -127, 15, -5, 20, -33, -48, 18, 49, 31, 77, -53, 49, 8, 61, -2, 50, -127, -40, -22, -8, -114, 10, 15, 20, 26, 54, 29, -96, 52, 16, -76, 
11, 36, 95, 48, -64, -78, 23, -74, -22, 66, -5, 7, 10, -6, 69, -64, -59, 34, 19, -64, 0, 99, -19, -22, -23, 28, -39, 32, 97, 66, -25, -25, 
16, 1, -39, 65, -21, -47, -74, -30, -101, -26, 7, -73, 38, -10, 55, -17, -14, 14, -25, 9, -100, -23, 18, -21, -40, 14, 23, 31, -13, -30, -127, 30, 
-1, -18, -127, 44, 49, -22, -60, 0, -82, -80, -22, -115, 54, 1, 36, 49, 68, 62, -74, 53, -69, -36, 9, 1, -85, 24, 41, 94, -8, -127, -127, -41, 
-28, 34, -40, 83, -23, -127, -127, 64, 17, -127, 0, -127, 78, -19, 35, 49, -6, -127, -53, -39, -22, -127, 107, 41, -7, -20, 41, -26, -127, 3, -116, 8, 
-56, 9, -127, 18, -35, -79, -98, 50, -12, -127, -55, -127, 102, 30, 80, 27, 58, -127, -56, -20, 40, -91, 64, -14, 100, -49, -19, -20, -127, -59, -49, 80, 
-45, 3, -104, 22, -63, 11, -74, -29, 10, -80, 12, -98, 39, 65, 44, 8, -36, -93, -13, -13, -26, 8, 45, -7, 98, -4, 13, -15, -48, -125, -28, 55, 
-127, -14, -45, -127, -64, -41, -47, 8, -127, -55, -100, 31, -14, 0, -127, 64, -17, -37, -88, 64, -23, -37, 127, -2, -25, 12, -6, -7, -34, -51, -60, -9, 
-127, 75, 23, -127, -50, 72, 18, 33, -127, 19, 11, 81, 5, 59, -96, -30, -79, 96, -109, 93, 3, -6, -6, 9, 1, 19, -91, -40, 41, -48, -52, 71, 
-127, 127, 65, -121, 43, 88, 36, 7, -118, 27, 76, 109, 6, 72, -127, -28, -8, 113, -60, 78, 3, 99, -88, 1, 1, -47, -71, -41, 25, -40, -4, 30, 
-14, 2, -92, 11, -125, 30, -36, 30, 13, -40, -5, -66, 47, -52, 37, -5, -8, 18, 10, 23, 127, -51, -49, -66, -10, -108, -56, 21, -66, -127, -101, 30, 
42, 18, -127, 37, -127, 21, -8, 70, 81, -85, 4, -76, 76, -56, 63, -7, 21, 66, -4, -7, 127, -35, 2, -42, -2, -127, 40, 1, 11, -127, -55, -37, 
-2, 7, -43, -16, -39, 44, -16, 23, 6, -39, 13, -48, 73, -68, 57, 61, 69, 40, -38, -33, 127, 11, 81, -36, 76, -127, 47, -29, 67, -127, 36, 23, 
0, -43, 11, -55, -26, -51, -26, 22, -25, -32, -38, 39, 58, -40, -9, -71, -31, -44, -21, 56, 74, 4, 88, 10, -21, 2, -35, 94, -32, 8, -52, 67, 
24, 74, 17, -127, 44, -26, 0, -81, 49, 0, -14, 22, -29, -63, 0, -127, -127, 8, 39, -127, -9, 32, -65, -58, -8, 36, -127, 23, 34, -12, 71, -39, 
12, 24, 17, -104, 15, -6, -18, -7, 66, 19, 5, 76, -2, -74, 10, -127, -86, 49, -4, -100, -42, -15, -55, 10, 1, 9, -127, -65, 33, 44, 74, 1, 
-20, -48, -96, 43, -74, -27, -18, -67, -25, -40, 25, -99, -62, 18, 49, -29, -40, -65, -71, -8, -27, -33, -63, 94, 40, 29, -23, 0, -127, 2, 10, 54, 
43, 20, -7, 1, -72, -28, 13, -122, -13, -114, 30, -127, 6, -27, 113, -76, -114, 37, -16, -97, 28, 15, -122, 41, 20, 38, -6, 52, -127, 4, 16, 70, 
53, 19, -87, -14, -32, 38, 12, -127, 20, -127, 21, -127, 71, -54, 127, -46, -74, 72, 7, -91, 17, 9, -121, -21, 23, 111, 24, 84, -125, 7, 45, 41, 
-16, 14, -26, 21, -89, 50, -29, -21, -71, -42, -32, -32, 46, -34, -20, 93, 97, -12, -46, 14, 20, -57, 94, 114, -46, 55, 89, 83, 29, -27, -2, 100, 
-13, 102, 1, 52, -18, 50, 38, -83, -27, 27, 19, -3, 0, 6, -48, -31, -12, -5, -65, -3, 79, -35, 36, -20, 8, 43, -60, 29, 16, 41, 27, -83, 
-14, 66, -44, 0, 57, 13, 31, -78, 60, 118, 91, 22, -93, 59, 23, -127, -127, -20, -47, -51, 44, 31, -73, -127, 27, 34, -127, -42, 11, 44, 34, -78, 
15, 77, -127, -38, -8, 68, -15, -127, 45, -17, -92, -23, 72, -6, 13, 56, -16, 112, 46, -12, 23, 113, -105, 15, 12, -59, 17, 20, -127, -41, -8, -38, 
44, 24, -127, -28, 0, 42, -51, -127, 28, 40, -46, -46, 6, 31, 59, -36, -61, 87, 65, -16, 19, 51, -127, 70, 27, -68, 46, 5, -127, 13, 0, -102, 
24, -67, -127, 8, 24, 44, -23, -127, 5, 62, 28, -127, 8, 20, 37, -43, -7, -34, -95, -54, -48, 3, -127, -20, 25, -77, -10, -3, -127, -40, -14, -100, 
-22, -87, -111, 68, 33, 71, 18, 97, -16, 13, 24, -78, -127, 8, 29, -21, -11, -54, -65, -10, -72, -2, 66, 23, 41, 45, -36, -92, -127, 57, 0, -102, 
-86, -107, -108, 77, -15, 29, 21, 108, -34, 19, 64, -84, -127, 23, -66, -21, 9, -38, -88, 25, -43, -61, 42, 41, 37, 22, 26, -127, -53, 60, 18, -53, 
-51, -32, -72, 58, -22, 7, 21, 69, -13, -8, 16, -60, -121, 13, -42, -25, -11, -29, -57, 53, -127, -71, 23, -1, -12, 31, 41, -46, -111, 76, 12, -55, 
-8, -12, 54, -88, 70, 26, -1, -26, 4, 17, 32, 50, -39, -4, 69, -48, -31, 17, 22, -24, 49, -9, -114, 42, 56, -23, 19, -54, 12, 5, 41, -67, 
41, 11, 15, -127, 0, 39, 48, -37, 36, -43, 44, 32, -25, -93, 93, 39, 8, 48, 10, -53, 26, -30, -40, 27, -17, -11, 45, -7, 33, -23, 27, 41, 
49, 10, -46, -120, -52, 17, 29, 75, 21, -72, -13, 56, 55, -100, 16, 75, 15, 48, -12, 17, 40, 22, -1, 14, 20, -19, 12, 41, -31, -24, 34, 74, 
-17, 33, 36, -11, -35, 10, -46, 17, -8, -67, -110, 54, 8, -5, -35, 31, -41, -49, 57, 37, 12, -41, 22, 42, -127, -80, 7, 15, -81, -99, -97, -59, 
-26, 48, 26, -4, -83, -37, 56, -63, -59, -49, -127, 53, -36, -9, 43, 45, 4, -21, -21, 78, 54, 37, 14, 35, -127, -10, 4, 36, -33, -127, -87, -23, 
-6, 0, -13, -5, -61, 14, 104, -46, -83, -2, -127, 41, -5, -7, 58, 17, 13, -9, -50, 19, 60, 76, -22, 21, -53, 34, -13, -15, 47, -127, 35, -22, 
66, 38, -127, -8, -26, -115, -47, 10, -32, -5, -52, -127, 81, -78, 52, 7, 43, -45, 13, 85, 8, 30, -2, 70, -87, -37, 80, 75, -40, 26, -104, 57, 
64, -11, -127, 16, -82, -76, -18, 45, -47, 24, -59, -127, 33, -97, 54, -50, 19, -47, 35, -2, 42, 34, 27, 3, -61, 40, 0, 21, -127, -16, -22, -31, 
-42, -17, -121, 13, -62, 18, 44, 37, -56, 127, 16, -72, -26, -17, 58, -80, -111, -57, 41, -103, 57, 26, 33, -56, 53, 95, -78, -44, -36, -7, 51, -107, 
-127, -70, -21, 71, 22, -49, -127, 23, -37, 36, -68, -28, 30, 88, -23, -28, 2, -29, 0, 74, 41, -11, 63, -71, -19, -127, 59, 47, 24, -92, -32, 70, 
-127, -9, -41, 18, 36, -27, -39, -24, 36, 13, -9, -78, -18, 114, 54, -92, 7, 13, -52, 15, 17, 19, 7, -52, 16, -127, -9, 13, 101, 39, 25, 67, 
-127, 36, 9, -14, 105, 48, -3, -64, 127, -25, 52, -16, -34, 32, 68, -127, 46, 36, 8, -30, -52, 92, -18, -106, 26, -54, 6, -6, 53, 41, -4, 56, 
32, -54, 14, -111, 71, 70, 61, -42, 24, 21, -8, 85, 10, -39, -23, 103, 40, -26, -43, -13, 11, -24, -2, 35, 72, -24, 55, 4, -5, 40, 16, -50, 
-12, -66, -7, -127, 23, 19, -13, -56, 0, -20, 62, 34, -5, -98, -71, 27, 7, -90, 33, -101, 23, -4, -12, 13, -3, 41, 16, 36, -80, 47, -5, 37, 
-7, -13, -4, -127, 26, -4, -20, -46, -43, -28, 3, -18, 8, -127, 48, 4, -11, -18, 29, -114, 3, -22, -19, -35, -31, 51, -14, 12, -105, 26, -28, -26, 
-57, -11, -52, -20, 1, 32, 44, -10, -38, -11, 22, 15, -127, 70, 92, -11, 18, 16, -12, -127, 47, 27, 12, -31, 38, 33, -71, -108, 95, 11, 75, 41, 
-50, 0, 41, -20, 54, -15, 17, -42, -55, -43, 54, 4, -77, -125, 116, -27, 55, 17, -21, -112, -127, -4, -44, -12, 2, 41, 21, -88, 27, -11, 11, 110, 
-6, -5, 74, -34, 25, -56, -24, 20, -7, -69, 58, 29, 75, -127, -22, 82, 32, 39, -20, 53, -55, 30, 17, 25, -62, 1, 92, 25, -68, 45, -87, 127, 
33, 56, -13, -24, -67, -73, -28, -117, 13, -27, -29, -32, -52, 8, -34, -23, 0, 21, 77, 90, 7, 23, -30, -4, -83, 18, -20, -43, 110, 48, -70, -10, 
-16, 87, -40, 0, -59, -11, -12, -83, 62, -41, -72, -16, 32, 9, 7, 48, -8, 56, 45, 90, 38, 58, -3, 54, -68, 65, 54, 13, 58, -2, -37, -57, 
-33, 68, -52, 43, 48, 78, -14, -15, 72, -17, 23, -90, 20, 78, 37, -3, 30, 85, 0, 40, 0, 29, 36, -25, 15, 67, 35, -34, 10, 22, 3, -86, 
43, 13, -58, -60, 79, 24, 43, -17, 66, -127, -51, 20, 34, -127, 34, 63, 44, -26, -48, -53, -1, 40, 18, 107, -46, -3, -16, 15, -18, -10, 46, 8, 
36, 31, -34, -50, -37, 9, 73, 8, 6, -76, -96, 127, 46, -127, 7, 10, 7, 24, -18, 45, 116, 77, -42, -10, -13, 37, -28, 36, 6, -22, -3, 52, 
-18, -37, 20, 23, -29, -3, 52, 18, -97, -39, -41, 116, 1, -51, 2, -35, -32, -10, 11, 5, 105, 41, -54, -41, 48, 31, -54, -15, 50, -49, -23, -28, 
-9, 20, -81, -108, 27, 46, 12, -58, 88, -26, 16, -102, -41, -94, 105, -13, -30, 26, 54, -76, -5, 23, 17, 19, -4, 62, -5, 31, -94, 100, 64, -35, 
-10, -3, -91, -105, -29, 21, 70, -35, 12, -62, -57, -60, 13, -102, 115, -13, 33, 49, 66, 26, 26, 36, 71, 5, -65, -29, 5, 64, 7, 87, -14, 38, 
-22, -24, -105, 9, -48, 29, -33, -20, -73, -61, -49, -2, 14, 10, 107, -7, 43, -13, 12, 32, 33, -82, 37, 19, -98, -52, 91, 57, -28, -3, -60, 93, 
8, -64, 56, 46, 9, -2, -17, 41, 18, 26, 1, 2, -95, -52, 15, -120, -37, 5, -43, -95, -34, -14, 49, -64, 3, 25, -35, -4, -43, -2, 20, -64, 
-10, -62, 31, 54, 48, -18, -2, 25, 62, 28, 43, 4, -127, -13, 36, -61, -36, 62, -3, -127, -48, -34, 18, -65, 46, 66, -31, -57, -40, 33, 50, -3, 
25, -5, -12, 12, 29, -36, -4, -10, 54, 21, -88, 30, -77, -50, 39, 11, -32, 57, 29, -127, -42, -39, 81, -11, -13, 40, 40, 3, -52, 11, 2, 80, 
16, 32, -4, 33, -50, -16, 15, 12, 29, -6, -47, 63, 59, 82, -26, 35, 61, 55, 48, -10, 20, 16, -44, -127, 1, -16, -28, 12, 40, 47, -15, -99, 
1, 10, -11, 30, -34, 46, -1, 6, 87, 26, -43, 0, -13, 65, 57, 15, 35, 87, 8, -127, 46, 33, 20, -127, 26, -3, -40, -17, 25, 10, 5, -86, 
-5, -65, 15, -13, -25, -17, 17, 6, 1, 1, -45, -27, 18, -9, 41, 1, 34, 19, -53, -127, 49, -70, -25, -127, 22, -17, -5, -35, 47, -14, 9, -65, 
};

const int8_t MagnetometetNetwork_layer_9_bias[] = {
67, -49, 97, -27, 30, -2, 41, 78, 58, 2, 32, 91, 73, 48, -104, 101, 8, -54, -20, 4, 81, 70, 42, 14, 105, -71, 41, -38, 104, 96, -8, -42, 4, 102, 56, 39, 78, 67, 75, -3, -89, -70, 37, -22, 66, -5, 0, -25, 106, 36, -27, -51, -8, -87, 105, 37, -74, 66, -10, -81, -15, -42, 51, 46, };


const int8_t MagnetometetNetwork_layer_12_weights[] = {
19, -63, -127, 34, -11, -9, 0, 0, 18, 46, -57, 1, 41, -66, 44, -127, -19, 82, 7, 30, -127, 73, -91, 18, 32, -127, 127, -10, -56, -40, 33, 94, 32, -22, -4, -127, -39, -54, 11, -4, 8, 42, 96, -72, -42, 39, -32, 35, 38, 13, 9, -45, -117, 33, 26, 25, -90, 65, -26, -5, 3, 51, -124, -39, 
45, -8, -28, -19, -28, 59, -30, 41, -2, 72, 2, -9, -2, -56, 23, -16, -13, 32, 13, 16, -7, 44, -10, -17, 16, 49, 43, 4, -68, 31, 32, 55, -21, -7, 14, -65, -90, -52, 23, -93, -5, 48, 13, -51, -50, 35, 47, 40, 41, -8, 2, 39, -1, 10, -13, -14, 47, 71, -67, -21, 54, 46, -19, -3, 
31, 24, 51, -92, 7, 61, -8, 83, -44, -32, -36, -25, 28, -35, -4, 13, -29, -39, 49, -18, -1, 16, 14, 58, -100, 28, -15, -4, 32, 36, 58, -38, 49, -13, 30, -75, -87, -112, -72, -127, -25, 1, -11, 42, -46, 42, 19, -12, -27, 31, 15, 82, 112, -6, 41, 49, 56, -2, -100, -54, 26, -39, -1, 43, 
56, 5, 45, 45, 76, 27, -10, -37, -87, 8, -25, 4, -6, 30, 79, 4, 20, 6, 51, -25, -58, -28, -5, -7, 39, 83, 8, 25, 2, -17, 58, 56, 35, 88, 33, 10, 69, -11, -45, 39, 23, 17, -8, 3, -17, 127, -4, -43, -59, -13, -6, -1, 17, -26, -54, 2, 62, 8, 32, 21, -81, 27, -18, 15, 
41, -49, 1, -3, 101, 33, -36, -45, -127, 58, 49, -18, -127, 36, 65, -32, 47, -28, -17, -44, -29, -127, 32, -3, 11, 58, -52, 48, -36, 15, 90, -16, -61, -14, -15, 7, 58, -25, -36, -14, -111, 31, 9, -85, -127, -96, -31, 18, 22, 23, 62, -43, 1, -34, -127, -36, -13, 34, 45, -76, -30, -47, 23, -4, 
38, -125, -1, 28, -127, 51, 45, -33, 6, 75, 37, -5, -12, 46, 43, 49, 68, -90, -4, -92, -11, -127, 23, 37, 9, 26, -35, 14, -12, -7, -122, -57, -69, -79, -10, 18, -11, -25, -28, -30, -51, 36, -11, -23, -127, -80, -20, -82, 80, 83, 61, 3, -30, -10, -127, -127, -84, -10, -1, -30, -23, -105, -2, -4, 
90, -11, -95, 31, -28, 10, -30, -34, -70, -28, -68, 56, 33, -127, -127, -107, 9, 25, 21, 0, -91, -51, -127, 41, 3, -5, -39, -71, 74, -54, -6, 16, 27, 110, -6, -97, 6, -58, 72, 57, -81, -58, 77, 28, 30, -20, 57, -29, -127, -28, -13, -89, 21, -76, -13, 22, -16, -7, 66, 0, -22, -44, -127, -16, 
74, 19, 15, -41, 6, 50, -39, 6, -63, -127, -102, -20, 10, -62, -114, 2, 11, 32, 19, 10, -36, -82, -77, 33, 5, 18, -11, -89, 13, 28, 11, 32, -45, 70, 20, -127, 43, -102, 68, 127, -46, 12, -8, 18, -13, -7, 39, 56, -105, -67, 80, -62, 20, -41, 21, 60, 39, -127, 37, 3, -91, 22, -67, 13, 
125, -6, 107, -67, 13, 68, -20, -42, -61, 20, -67, 57, -42, -6, -26, -12, 4, -8, 14, -12, -12, -73, 15, 9, -96, 63, -23, -33, 36, 70, 16, 65, -47, 23, 26, -74, 46, 7, 80, 127, -18, 69, 31, 42, -33, -9, 100, 36, -18, -46, 106, -127, 59, -66, 20, 30, 31, -118, 7, 0, -68, -69, -10, 51, 
-39, -6, 12, -13, 55, -38, 38, -13, 20, -38, 9, -104, 81, 32, -114, 14, 3, 0, 35, 31, -73, -22, 3, -93, -97, 37, -76, 29, 18, -20, 127, -127, 36, -24, 13, -7, 98, -127, -35, -94, 70, 49, -127, -34, 75, 87, -42, -6, -17, -6, 48, 1, -25, -6, 21, 0, 34, -8, 29, -29, 13, -111, -54, 18, 
-46, 25, 14, -42, -65, 31, 61, -37, -35, 40, 21, -26, -127, 30, -78, 14, 52, -4, 66, 2, -22, 41, -10, -16, -17, -8, -52, 81, 5, -27, -127, -48, 20, 18, -56, -16, 41, -96, 47, -127, 32, -45, -127, -24, -70, 68, 23, -44, 39, 55, 39, 9, -29, 44, -33, 15, 32, 43, 63, -42, 26, -20, -22, 63, 
9, -109, 19, -127, -59, 62, 20, 34, -127, 62, -51, -34, 21, -4, -39, -43, 18, -66, 70, 66, -3, 45, 30, 13, 118, -15, 13, 30, 44, -16, -83, 11, -36, 5, 15, 7, -77, -9, 23, -12, -3, -101, -77, 23, -63, 36, 43, -50, 43, 41, -18, -26, -5, 54, -102, -22, -33, 88, 23, 0, 49, 43, 36, -32, 
4, -120, -48, -34, 5, -37, 0, 47, -73, -24, -11, -29, 33, -17, -40, -38, -11, 26, -50, -38, 105, -20, -27, -57, 55, -127, 52, -46, -73, 29, 63, 5, -1, 0, -127, -31, 48, -29, 4, -45, -27, 49, -31, -24, 26, -28, -127, 71, 20, -5, 37, -34, -59, -20, 69, 57, -38, -3, -34, -8, -37, -53, 3, -28, 
-3, -127, -18, -8, 36, 48, 5, 37, -69, 57, -7, 28, 6, 20, -7, -33, 19, -1, -36, 8, 49, 10, -7, -22, 100, -76, 37, 11, -67, 40, -10, 15, -96, -97, -78, -59, -88, 32, 76, -73, 0, 39, -66, -53, -37, -127, -127, -14, 84, -43, -3, 22, 18, 42, 8, -4, -20, 42, -9, 127, 46, 22, 20, -8, 
9, -83, -62, 7, -82, 74, 19, 46, -127, 32, -19, -66, -11, 10, -3, 15, 48, -78, 7, -42, 10, 10, 26, 5, 79, -73, -71, -7, 37, 57, -93, -22, -121, -25, 20, -75, -45, 2, 33, -5, 0, 48, -26, -92, -127, -127, -127, 13, 11, -47, 37, 48, -27, 21, -42, 38, -20, 8, -17, 52, 53, -43, 45, 64, 
7, -16, 0, -21, -16, -4, -24, -59, -4, -79, -77, -39, 51, -14, -39, -64, 12, 52, -48, 1, -54, -10, -11, 61, -36, 30, 0, -19, 14, -45, 22, 36, 54, 23, 82, -4, 15, -37, 57, 48, 25, -1, 38, -35, 60, 50, -11, -4, 6, -20, -95, -37, 60, -50, 8, 58, -127, 23, 42, -2, -34, -29, 5, -66, 
35, -70, -31, -1, -45, -42, -17, -47, 0, -127, -88, 34, 48, 11, -26, -32, -7, 101, -1, -14, -37, 24, -48, -53, -80, -18, 65, -71, -127, 16, 3, -34, 41, 38, -61, -23, 43, -40, 15, 60, 19, 13, 72, -68, -22, 52, 34, 11, -25, 25, -6, -22, -5, -70, 46, 60, -127, 23, 74, 5, -9, -81, -94, -59, 
42, -127, 75, -122, -96, 71, 44, 71, -7, -28, 61, 81, -89, 98, -64, 8, 20, -50, 34, -51, 53, 53, -9, -114, -25, 50, 26, -6, -123, 60, -127, -127, -61, -11, 43, -61, 43, 49, 51, -127, 2, -36, 36, -41, -116, -67, 101, -78, 84, 78, 52, -66, 8, -56, 28, 40, -66, 89, -56, -107, 46, -48, 46, -2, 
0, -96, -38, 37, -47, -24, 3, -45, 14, -25, -14, 71, 28, -52, -22, -27, 48, 64, 18, 25, -127, -5, 15, 62, 30, 0, 64, -8, 9, 43, -40, 7, 14, -20, -107, 28, 17, -26, -60, -31, 12, 13, 37, -48, 18, -6, -127, 38, -7, 63, 6, 15, -127, 7, 32, 55, 7, 46, 74, -9, -12, 3, 13, -6, 
-20, -127, 37, 87, -24, 11, 22, 4, -5, 25, -57, 60, 4, -36, -5, -73, -4, 34, 52, 3, -94, 42, 40, 50, 60, -112, 57, 35, 30, 48, -28, 10, -113, -63, 82, -92, -80, 16, -25, -14, 37, 15, 22, -70, -20, 41, -127, 64, 47, 58, 30, 26, -63, 12, 36, 28, -84, 32, 66, 24, 2, 0, 17, -21, 
42, 21, 9, -20, -53, 14, -49, 68, 54, -23, -19, 12, 42, 22, -81, -7, 1, 3, -46, -29, 1, 40, 78, 14, 11, -108, 11, 0, -30, 8, 39, 3, -97, -43, 21, -127, -59, -4, -15, -93, 7, -49, -18, -11, -41, 11, -127, 14, -8, -43, -69, -27, -20, -55, -38, -72, -37, -48, -51, -56, -19, -13, -39, 50, 
-1, -1, -127, 8, 82, -23, -15, -85, 20, -12, -19, 5, 61, -79, -23, 7, -36, 14, 16, 29, -48, -26, -76, 48, -29, -127, 113, -30, 48, -20, 81, 43, -127, -43, -127, -58, -9, -1, -91, 90, -26, 63, -17, 7, 72, 92, -19, 33, -42, 14, -24, 48, -10, 12, 66, 48, -84, -51, -21, 15, 10, 8, -89, -73, 
-66, -26, 69, -81, 35, 18, 22, -10, 67, 45, 0, -6, -16, 10, 35, 75, -16, -35, 9, -2, -13, 13, -17, 6, 7, -10, 41, 11, -30, -12, -1, 22, -84, -61, -7, -36, -18, -47, 45, -17, -14, 50, -36, -21, -13, 1, 64, -60, 39, 24, 74, 28, -15, 61, 49, 117, -127, -23, -15, 35, 20, -37, -2, 17, 
-84, -91, 60, -127, -66, -20, -12, 104, -21, 18, 33, -34, -32, 78, 48, 92, -51, -102, 0, -77, 37, 28, 48, -30, 117, 39, -48, 26, 59, 52, -47, -6, 10, -31, 127, -34, -22, 4, 117, -14, -95, -60, 1, -6, -117, -59, 24, -127, 61, 21, 2, -51, 19, -15, -62, 32, -64, 37, -29, -51, -49, -100, 15, 19, 
9, -127, 84, 21, -127, 76, -26, 20, -70, 96, 24, 34, -112, 72, -5, -41, 9, -13, 6, -1, 16, 13, -33, 13, 13, 73, 28, 38, -5, 33, -79, 26, -39, -56, 80, -13, -26, 32, 73, 62, 0, -75, 68, -127, -43, -127, -15, 11, 0, 14, 41, 33, -17, -27, -51, -53, -93, -56, 75, -9, -8, 36, -9, 13, 
12, -5, 43, 28, 29, 51, 1, -6, 8, -14, -59, 9, -78, -79, 24, 70, 26, 7, 28, 13, 27, 30, -58, 6, -1, -36, -39, -31, -26, -21, 36, 91, -56, 13, 16, -20, 0, 38, -17, 127, 44, 5, 51, -48, 19, -127, -54, -12, -57, 38, 39, 59, 35, 16, 44, 63, -117, -105, -2, 29, -4, 72, 17, -5, 
75, -4, 70, -67, -21, 65, 0, 49, -6, -120, -79, -27, -14, -64, -96, 41, 27, 58, 13, -12, 53, 5, -40, -18, -110, -20, 8, -47, -79, 21, 9, -2, 5, 83, -18, -83, 69, -115, 0, -3, 46, 37, -51, 36, -5, -21, -3, -15, -48, -17, 64, 73, 112, -13, 14, 35, -45, -127, -41, -53, -19, -39, 39, 29, 
-7, -21, -65, 56, -5, 15, -19, -26, 127, 41, 12, 47, -127, -1, 27, -127, 18, 48, 1, 70, -9, 18, -12, 43, 35, -127, 81, -14, -32, 2, -91, 45, -5, -62, -3, -71, -86, 42, 14, 2, 7, 37, 77, 60, -114, 43, -127, 0, 0, -8, -5, -57, -32, 3, -26, 53, -42, 41, -2, 42, 57, 48, -21, 46, 
94, -12, 5, 34, -59, 81, -43, 41, 36, 9, 35, 28, -127, 53, 27, -57, 29, 67, -36, -30, -8, -31, 0, -12, 59, -121, 25, -18, 15, 20, -127, -6, -73, -97, 17, -50, -99, 88, 127, 40, -68, -22, 48, 17, -127, -127, -127, -76, 8, -20, -29, -43, -50, -8, -68, -80, 41, 49, -2, -21, -7, -22, 0, 61, 
20, -15, -105, -22, -76, 28, -36, 58, 96, -17, 0, 2, -57, -36, 27, 127, 31, 0, -34, -52, -120, -69, 0, 4, 7, 38, -80, -54, -79, -13, -76, -13, -55, -127, 9, 2, -57, 39, 46, -34, -127, -12, -4, -12, 0, -58, -61, -127, -20, -55, 0, 11, 12, -19, 11, -117, -11, 12, -33, -23, -52, -18, -39, -63, 
-31, -22, -117, 4, 7, 80, 0, 3, -57, 1, 66, 44, 7, -65, 13, -127, -3, 81, 50, 7, -55, 46, 64, 24, 1, -127, 1, 44, -89, 8, 24, 88, -106, -58, 24, 72, -20, 28, 9, -56, -1, 64, -100, -79, -11, 45, -127, 2, 46, 16, 93, -12, -28, 28, -44, -5, -127, 20, 35, 47, 63, 14, -14, 9, 
-36, 5, -117, -32, 56, 62, -28, 70, -41, 35, 48, -83, 12, -31, 1, -125, 9, 31, -31, -22, -74, 41, 48, 9, 38, -127, -2, 108, -35, -38, 4, 66, -61, -110, 43, 6, -36, 49, -25, -13, -1, 42, -105, -30, 11, 36, -117, -25, 21, -57, -69, 14, 35, -7, 11, -6, -95, 14, 35, -16, 52, 46, -22, -44, 
-127, -27, -113, -50, 46, -40, -69, 71, -87, 5, 10, -52, 36, 58, -10, -16, -14, 7, -115, -92, -54, -11, -47, 37, 94, 96, -15, 13, -45, -127, 0, 53, -105, -47, 46, 19, -18, 58, 17, 15, 19, -1, -51, -46, 54, 0, 0, -37, -127, -41, -127, -92, 68, -116, -10, 17, -57, -5, 23, -89, -50, -42, -70, -127, 
121, 16, -127, -39, 4, 3, 44, 7, 10, -127, -120, 27, 6, -127, -50, -25, -19, 21, 29, -5, -127, 3, -65, 7, -115, -127, 13, -100, 1, 48, 33, -55, -12, 17, 118, -67, 116, -116, -50, -10, 26, 75, 0, 77, 23, 60, -65, 76, -81, -30, 38, -27, 19, -62, 43, 93, -89, -115, -66, -7, -34, -48, -127, 19, 
25, -2, -127, 36, -11, -6, 20, 6, -40, 6, 15, 11, 32, -127, 6, -38, -10, 44, 11, 10, -115, -55, -46, 34, -51, -127, 33, 22, 7, 52, 36, -1, -41, -35, -127, -68, 36, -62, -48, -82, 4, 4, 22, 68, -47, 77, -126, 13, 71, -24, 6, -19, 18, 1, -36, 59, -127, -15, -80, 39, -4, -25, 59, 3, 
-14, 21, 23, 10, -10, -10, 48, -48, -49, 126, 35, 44, 3, -71, 79, -60, -19, 5, 34, 5, -16, -13, -10, 8, 87, 14, 27, 54, 3, 32, -29, 72, 29, -37, -66, -22, -57, 73, 29, 68, -7, -22, -99, 45, -73, -42, -37, -26, 69, 2, 5, 11, -21, 32, -45, -18, 0, 67, 53, 33, 71, -16, 2, 28, 
-66, 40, 12, -36, -31, -8, 5, 14, -24, 1, 53, 0, -127, 22, 20, -8, -6, -123, -93, -94, 62, -3, 8, 35, -6, -25, -127, -16, 49, 49, -107, -4, 90, 6, 27, 25, 71, 57, -70, -52, -41, -81, -30, 99, 60, -127, -29, -92, -25, 15, -30, -34, 77, -12, -71, -35, 77, 37, -35, 0, -59, -24, 63, -4, 
-43, -20, -3, 21, -107, -39, 43, 20, -78, 22, 46, 60, -10, -18, -57, 11, 23, 5, -27, 8, 28, -31, 41, -25, -16, 4, -121, -27, -17, 24, -73, 26, 41, 33, -81, 36, 88, -2, -67, 43, -19, -21, 63, 21, 1, -58, 48, 0, 17, 39, 46, -9, -62, 6, 0, -14, 19, -6, -7, 69, 1, -12, 31, 2, 
-13, -26, 0, -4, -107, -36, 124, 3, -74, -12, 54, 98, -9, -48, -112, 38, 80, -19, 51, 27, -52, 23, 81, -45, -54, 6, 14, 7, -88, 32, -64, 52, 23, -1, 45, 31, 69, 35, -19, 68, 54, 66, 29, -65, -39, 46, 55, 29, 47, 17, 43, 20, -103, 23, 64, 55, -69, 0, 58, 104, 23, 84, -28, 18, 
17, 19, -126, 38, -10, 33, 38, -22, 30, -7, -83, 26, 16, -44, 9, 0, -1, 8, 37, -14, -8, -37, -16, -11, 2, -127, 3, -7, -41, -8, -8, 12, -76, -78, -28, -23, -21, -37, -5, -26, -10, 37, 0, 64, -30, -20, -127, 61, -58, 22, 43, 12, 9, 6, -45, -70, 39, 0, -7, -17, 39, 19, -32, 25, 
-10, -2, -123, 45, 24, 33, 29, -26, 67, 57, -18, 3, 37, -74, 7, 29, 8, 49, -49, -37, -63, -67, 13, 33, 35, -119, 3, 59, -36, 13, 21, 46, -127, -127, -22, -73, -105, -23, 91, -3, 63, 30, -14, 10, 29, 35, -127, 48, -14, -50, 32, -11, -1, 40, 30, -91, 17, -1, 23, -25, -11, 15, -42, 23, 
-22, -28, -35, 11, -8, 71, -8, 45, 58, 73, 34, -49, 26, -61, 0, 97, -34, 47, -31, -20, -63, -51, -10, 38, 51, 10, 9, 64, 1, 21, 14, 63, -62, -73, 89, -86, 10, 9, 107, 33, 79, 60, -63, -33, 10, -11, 56, 35, -39, -52, 16, 2, -25, 20, 59, -25, 34, 31, 52, -21, 6, 0, -5, -40, 
-80, 27, 3, 5, -17, -53, -6, -38, -8, -33, 41, -78, 4, 78, -35, 15, 21, -45, 21, 13, 55, 87, -80, -22, -16, 11, 8, 22, 76, -38, -26, 15, 32, 54, 47, 30, -14, -28, 35, 17, 31, -29, -43, 18, 30, 63, -36, 48, -19, 36, 57, -1, -25, 21, 7, -12, -37, -90, -12, -4, -47, 50, -19, 25, 
-60, -16, 47, -39, -7, 10, -18, -13, 12, -68, -54, -39, -101, 31, 0, 34, 57, -11, -12, 44, 13, 62, -127, -63, -51, 60, 92, 66, 40, -43, -28, 14, 35, 18, 8, 18, 0, -38, 56, -58, 53, -11, 60, 14, 44, 42, 9, 104, -59, 0, -35, -8, -16, -36, 12, 6, 26, -92, -127, 47, 39, 90, -14, 20, 
-64, -38, 35, -89, -30, 63, 27, -3, -56, 7, -12, 33, -113, 52, 44, -42, 15, -74, -39, 10, 23, 13, -127, -33, 87, 11, -35, 50, 72, -95, -27, -117, 5, 55, 37, 15, -33, 127, 70, 7, 81, -3, 1, 5, 2, -8, -20, 28, -77, -24, -38, -52, 4, -48, 45, -19, -11, 81, -4, -34, 27, -27, -13, -39, 
59, -127, 18, -32, -127, -109, 39, 23, 10, -35, -46, 81, -77, 21, -19, -3, -3, 67, 49, 22, -4, 77, -4, -82, 41, 44, -21, -1, -2, 49, -103, -32, 55, 29, 63, 127, -29, 69, -24, -40, 79, 58, -19, -127, -59, -127, -27, 85, 31, 3, 16, 27, -127, 8, 0, 20, -45, -61, 48, 51, 14, -15, -58, 17, 
70, 8, -6, -88, -120, -40, -26, 33, 32, 7, -36, 53, -108, 37, -9, -30, -65, 1, -16, 33, 58, 64, 19, -11, 29, -55, 51, -10, -27, 50, -49, -36, 15, -22, -71, 43, -11, 27, -69, -25, 39, 25, 6, 20, -7, -102, -127, -54, 8, -49, -2, 22, -46, -8, -18, -1, -44, -25, -59, -8, -2, 30, -54, 9, 
103, 95, -16, -39, -127, -20, -88, -26, -32, 63, 81, 42, -12, 71, 0, -44, -22, -5, 7, -63, 89, 22, 23, 4, -11, -127, -30, -6, 2, 103, 21, -60, 2, -68, -108, -47, -62, 45, -65, -61, -127, -21, 45, 127, -127, 66, -127, -127, 20, -50, 50, -1, 20, -40, -85, -112, 25, 34, -127, 22, -52, -33, 67, 50, 
-13, -127, -7, -10, 63, -9, -10, 1, 66, 1, 43, 39, -11, -30, -4, -127, 23, -60, 2, -16, 26, -127, -22, 35, -127, -1, -54, -116, 10, -10, -20, -43, -4, 60, -16, 40, 33, 67, 106, -127, -54, -65, 0, -61, 48, 9, 0, -127, -100, 118, 14, -127, -15, -3, 53, 95, -127, -127, -7, -127, -127, -75, 54, -31, 
-43, -127, 55, 0, 52, -69, -88, -35, -16, -6, -11, -44, -26, -14, 4, -127, -23, -59, -82, -53, 36, -67, -127, 66, -127, 0, -9, -125, 58, -68, -7, -127, 3, 46, -26, 58, 41, 67, 54, -127, -41, -100, 1, -55, 56, -47, -1, -127, -127, 74, -108, -127, 19, 4, 11, 6, -55, -58, 41, -127, -127, -121, 62, -34, 
-80, -127, 107, 3, 22, -108, 7, -21, -75, 1, 29, -31, -27, -21, -1, -113, 29, -101, -35, -14, 16, -125, -127, 21, -127, 0, -24, -69, 16, -54, -16, -16, 25, 26, -34, 27, 35, 118, 39, -9, -15, -127, 0, -60, 53, -12, -3, 3, -127, 40, 0, -127, 51, -48, 27, 67, 10, -127, -127, 9, -70, -54, 58, -80, 
49, -82, -127, 8, -127, -8, 41, 23, -80, -15, 12, 66, -127, -58, -10, -127, 45, -4, 57, 39, -92, 20, -52, -74, 38, -94, 31, -40, -59, 25, 12, -9, -7, 58, -25, -22, -13, -47, 97, -102, 41, 47, -34, -127, -31, -85, -56, 18, -11, 58, 33, 3, 4, -66, 65, 117, -46, 31, -54, 10, 34, -23, 0, 43, 
-5, -33, -47, -127, -127, -8, -20, 50, -127, 0, 25, 37, -127, -98, 5, -127, 12, -127, 2, -22, -15, -16, 16, -4, 20, 15, -80, 35, -78, 58, -127, 15, -122, 0, 22, -81, -51, -1, 127, -124, -9, -75, -70, -108, -65, -127, 22, -73, 58, 41, -31, 0, 40, -17, -44, 5, -2, -1, -36, -3, 15, -2, 12, 36, 
-43, -127, 16, -127, 39, -41, -39, 18, 8, -9, -8, -22, 57, 4, -7, -8, -61, -49, -37, 60, 0, 50, 1, -3, 0, 61, -108, -1, -2, -40, 87, 13, -110, -63, 102, 53, -69, 43, 22, 22, -17, -77, -27, 14, 39, -48, 35, -127, -37, -6, -60, -15, 48, -25, 8, -120, 8, 36, -31, 33, -28, 38, -44, -73, 
-20, -104, 77, 33, -79, 80, 26, 36, -27, 25, 79, -4, -61, 24, 26, -89, 30, 26, -3, 13, -24, 61, 18, -8, 6, 3, 79, 65, 59, 15, 27, -33, -127, -56, 111, 3, -126, 20, 60, -74, 81, 91, -48, -59, 23, -75, -8, 43, -24, -58, -23, -66, 51, 58, 23, -50, -1, 80, 44, 8, 36, 44, 77, -65, 
-9, -101, -51, -61, -44, 4, 4, 28, -8, -1, 12, 29, 27, -10, -15, -10, 4, -18, -6, -30, -47, 27, -15, -34, 75, -8, 25, -62, -31, -65, 37, -15, -127, 25, -32, -4, 6, 28, 45, -26, 45, 50, -52, -41, -21, -84, -127, 42, 39, -38, -75, -59, -7, -46, 48, -1, -127, 18, -44, -11, 25, -51, -10, -127, 
35, 9, -88, -29, -17, -23, -16, 73, -3, -11, 9, 9, -12, -27, 39, -38, 17, -70, -12, -52, -50, -27, -64, 0, 76, -80, -18, -69, 27, -42, -17, -41, -30, 53, -84, 51, -4, 95, 37, 20, 8, -13, -24, 18, 35, 11, -115, -37, -39, 36, -14, -44, 39, -127, 35, 65, 16, -4, -41, -71, -32, -79, 0, -36, 
-127, -7, -115, 8, 71, 0, 12, -112, 0, -14, -28, 1, 40, 111, 68, -127, -93, 69, -43, -18, -63, -41, -3, 127, 103, -123, -12, -79, 89, -40, 54, 68, -65, -16, 67, -25, -73, 52, -127, 36, -79, -29, 26, 22, -16, 55, -66, -44, -91, -58, -25, 18, 97, -39, -45, -55, -127, 125, 57, 7, -13, -22, 123, -126, 
42, -25, -33, -93, 22, -72, 11, -127, 64, -22, -51, 33, -35, 67, -10, -37, -18, 43, 2, 32, -41, 11, -58, -86, -14, 2, 6, -15, -119, -12, 57, -11, 23, -5, -127, 29, 9, 26, -101, 7, -32, 12, -15, -100, 13, 34, 13, 2, -55, -1, -74, 57, -53, -44, 53, 8, 14, -20, -127, -25, -21, -24, -104, -35, 
95, -42, 38, -127, -31, 50, 86, 45, 26, -7, 17, 71, -127, 2, -63, 29, 76, 7, 86, 44, 38, 75, -36, -127, -35, 71, -10, 96, -59, 27, -110, -9, 92, 72, -19, 16, 85, 7, 45, -52, 5, 12, -52, -125, -51, -77, 14, 11, 50, 50, 1, 47, -90, -27, -14, 29, -25, -97, -95, -17, 8, 6, -67, 81, 
-8, -39, 121, -67, -50, 38, 67, 90, 10, -116, 0, -22, 15, 19, 46, 35, 17, 2, 20, 25, -32, 17, -4, -32, 10, 51, 31, 0, -63, 87, -3, 31, 22, -44, 119, 35, -50, 127, -73, 39, 21, 29, 8, -62, 9, -27, 26, 80, -14, -4, -127, 42, -108, -50, 16, 58, -25, -4, 7, 68, -6, -1, -73, -2, 
37, -20, -99, -55, 23, -79, 21, 22, -1, -127, -127, -8, -11, -110, -114, 34, -6, 19, 23, 33, -64, -48, -15, 8, -94, -35, -24, -33, -93, 47, 7, -18, 35, -12, -54, -16, 60, -39, -38, 93, 1, 6, -127, -58, 45, 18, -34, 40, -18, -37, -72, -30, -64, -127, 48, 86, -73, -117, -85, 70, -14, -27, -127, -27, 
18, -2, -32, -70, 38, 0, -16, 23, 5, -108, 75, 17, 31, -71, -101, 9, 31, 13, -20, -19, -20, -127, -28, 9, -8, 26, -78, 32, -77, 66, 8, -40, 17, 10, -68, -37, -9, -48, -2, -1, -34, 21, -127, -16, 3, 39, 32, 6, -49, -98, -17, -77, -24, -127, 32, 33, -39, -109, -33, -11, -127, -94, 14, 30, 
-127, -41, 70, 35, -18, -89, 11, -101, -85, -127, -127, -100, 45, 127, -37, -47, -127, -47, 21, -44, -40, -44, -109, 0, -27, 96, 88, -127, 127, -115, -29, -77, -21, -15, 94, -14, -39, -44, -79, -60, 3, -78, 91, 22, 1, -28, -118, 25, -65, 66, 25, -5, 127, 50, -62, 46, -127, -3, 127, 5, -40, -6, 29, -127, 
32, 11, -24, 69, -1, -71, 56, -119, -11, -85, -72, 2, 28, 30, -53, -46, 42, 6, 6, -12, -35, 35, -127, 19, -61, -3, 16, -40, -62, -36, -36, -33, -1, 29, -90, -7, 55, -19, -124, 13, 24, -20, -12, -27, -15, -20, 21, 77, -20, 10, 33, 0, 0, 32, 46, -7, -63, 8, 14, 19, 52, 35, -51, -123, 
15, 38, 47, 41, -11, 23, 47, 25, 18, -24, 46, 51, -41, -6, -37, -16, 101, 13, -12, 35, 3, -35, -64, -105, -76, -1, -34, 11, -127, 60, -45, -41, 86, 53, -71, 64, 32, 35, 6, 10, 55, 43, -114, -32, 24, 47, 52, 78, 21, 9, 40, 8, -104, 35, 26, -18, -2, -38, -114, 79, 24, 38, 0, -7, 
77, -67, 39, 50, -87, 25, -14, 75, -15, -34, 56, 44, -9, 38, -37, 82, -14, -22, 19, -91, 54, -59, -4, -7, -30, -127, -75, -73, 7, 1, -9, -76, -10, 64, -42, -101, 89, 41, 72, 53, -127, -65, -29, -14, -6, -58, -127, -44, 10, -22, -8, -38, 10, -76, -42, -70, -121, -76, -61, -127, -52, -127, 16, 3, 
38, 31, 40, 25, -16, -6, -12, -26, 13, 34, 122, 32, 6, -24, 10, -43, 22, 37, -89, -14, 18, -23, 23, 12, 21, -86, 14, 8, -11, 35, 22, 42, -127, -121, -73, -56, 41, 52, 46, 80, -36, -35, -19, -13, 41, 48, 43, -3, 67, -10, -4, -14, -8, -19, -5, -115, -72, -30, -9, -7, -19, 53, 29, 30, 
-11, 25, -76, 67, -10, 32, 13, -81, 104, 24, 33, 4, 42, -25, -7, -107, 16, 30, -29, 59, -116, 43, 65, 23, 11, 26, 11, -2, 9, -9, 35, 35, -89, -12, -60, 21, -37, -20, 66, 36, 81, 54, 23, -23, 74, 34, -97, 99, 48, 29, 2, 71, -34, 20, 67, -29, 46, -6, 14, -15, 0, 26, -3, -19, 
-69, 27, -64, -94, 3, -127, 26, 68, 5, 103, -127, 39, 31, -127, 10, -11, -107, -49, 13, 40, -127, 44, -127, -18, -67, -25, 24, -47, -28, -127, 14, -10, -21, -41, -127, 74, 4, -43, -105, -98, 39, -49, -127, -46, 33, -7, -92, 70, 71, 99, -62, 51, -59, 8, 80, 79, 84, -14, -71, -38, 18, 21, -19, -80, 
-6, 38, -127, -29, -23, -33, -10, -127, 29, 55, -96, 17, 25, -62, 31, -44, -112, -3, 18, 38, -127, 9, -127, 21, 13, -24, 36, 36, -32, -110, -12, 12, -39, -127, -127, -46, -61, 76, -56, -28, -20, -35, -63, 0, -16, 5, -26, 49, 59, 54, -35, 17, -43, 11, 17, 60, 104, 15, 23, -13, 21, 50, -92, -57, 
7, 28, 101, 71, 3, 44, -46, -6, 46, -15, -32, 36, 24, 87, 34, -51, -29, 17, -26, 49, -86, -22, -27, 86, 30, -103, 48, 13, 4, 58, 9, 45, -47, -102, -127, -77, -91, 40, 10, 30, -33, -7, -73, 36, -47, 14, 125, 22, 6, 29, 0, 2, -75, 12, -29, -17, -87, 28, 67, -50, 0, 20, -29, -65, 
7, -33, -24, 18, -71, 64, -43, 27, -117, 13, 86, -56, 27, 35, 8, -116, 63, 57, -64, -81, 3, -117, 32, 62, 21, 42, 0, 50, 95, 23, -45, -55, -10, 13, 33, -112, -14, 12, 75, 56, -67, -64, 55, 80, -107, -70, 127, -113, -14, -49, 39, -8, 81, 31, -94, -127, 87, 23, 44, -91, -45, -7, 92, 38, 
-58, -52, -127, 23, 22, -23, 58, 53, -5, -11, 89, 8, 25, -59, 30, -24, 71, 56, -5, -9, -83, -7, -30, -33, -12, -127, 5, -29, 0, -38, 5, 49, -127, -32, -96, 3, -21, -18, -48, 90, 25, -18, 77, -19, 56, 14, -127, -73, -50, 42, 39, 0, -6, 45, 41, -5, -79, 15, 12, -19, 75, 52, -13, -79, 
-78, 4, -127, -58, 72, -78, 24, 7, 28, 44, -5, 40, -56, -127, -63, 41, 63, -24, 67, 9, -46, 46, -17, -84, -73, -73, -17, 19, -127, -25, -15, 29, -5, 44, -52, 96, 24, 25, 34, 48, -52, -52, -57, -106, 90, -25, 112, -22, -18, 102, -9, 20, -73, -1, 31, 97, -98, -16, -46, -50, 42, 33, -63, -66, 
106, -24, -54, -102, 50, -32, -15, 31, 92, -45, 8, 40, 2, -57, -89, 19, 49, 24, 37, 44, -4, -15, -55, -117, -67, -5, 4, 12, -115, -15, -52, -32, 65, 41, -67, 18, 71, -91, 10, -116, -69, -18, -33, -80, 68, 48, 73, 58, -15, 54, 25, -36, -71, -14, 68, -49, 0, -52, -112, 16, 39, 19, -65, 14, 
38, -51, 23, -84, -50, 13, 12, 0, 10, -3, 17, 47, -127, -21, -36, -14, -18, -28, 80, 46, 32, -39, -16, -18, -2, -11, 2, 31, -25, 20, -127, 19, 12, 17, 0, -17, 21, -14, 56, -47, 37, 34, -127, -31, -16, -65, 49, 60, 36, 7, 36, 22, 27, -9, 13, 79, 22, -19, 22, 57, 19, 66, 44, 13, 
16, 4, 34, 107, -79, 66, -74, 41, -86, 12, 10, -50, 74, 38, 56, -32, -55, -127, -2, -34, 41, -80, -24, 104, 120, -14, -46, 0, 113, -15, 28, -4, -62, 0, 22, -48, -69, 59, 31, 69, 15, 11, -36, 49, -87, -42, -16, -7, 12, -55, 14, 16, 37, -26, -80, 20, 36, 70, 127, -18, -45, -3, 51, -30, 
42, -19, 54, -82, -32, 65, -5, 37, -29, -5, 27, 91, -43, -120, -67, -17, 65, 34, -69, -3, -29, 2, 13, 20, -17, -127, -27, 38, -4, 16, -127, -127, -8, -1, -37, -103, -5, -12, 4, 58, -7, -17, -111, 6, -53, -47, -3, -14, 33, -29, 36, 38, 3, -7, 41, -127, -45, 31, -127, -88, -46, -62, -10, 32, 
-85, 18, 26, -34, -81, 37, 30, 18, 60, -33, 7, 79, -114, -30, -36, -5, 39, 52, -127, 4, 21, -8, 36, -29, 33, -118, -19, 31, -8, 8, -127, -103, -8, -11, -27, -2, -37, 53, -66, -14, 38, -27, -121, 65, 64, -82, 25, 0, -1, -5, -31, 11, 47, 20, 34, -127, -24, 10, -104, -1, -86, 28, -6, -13, 
-127, -56, 34, -3, -46, 6, 38, 87, 75, -68, -52, 56, -127, 0, -52, 6, -42, 18, -126, 43, -7, 41, -6, -76, -9, -60, 29, -26, -42, 23, -127, -39, 25, -31, 20, 44, 0, 41, -126, -82, 54, 9, 73, 29, 67, -111, 104, 92, -91, 18, -79, -22, 32, 42, 22, -44, 0, -9, -88, 32, -31, 66, 5, -62, 
45, 32, -127, -67, 63, -15, 31, 22, -89, 14, -127, 91, -20, -84, 55, 46, -45, 16, -26, 31, -5, 0, -127, -33, -36, -105, 74, -47, 8, 0, 13, -11, 91, 67, -4, 6, 62, 60, -99, -6, -36, 47, 27, 4, 22, 19, -104, 78, -37, -11, 14, 28, -19, 18, -16, 73, 3, -42, -33, 77, 5, 50, -53, -32, 
50, 3, -57, 13, -16, 7, -14, 24, -121, 73, -65, 58, -34, -47, 61, 6, -17, 30, 31, -127, 21, -20, -43, 24, -8, -63, 29, 46, 61, 61, -31, 60, 64, 23, 55, -127, 88, 79, -15, 75, 71, 42, 46, -22, -19, -43, -49, 65, 19, -127, 66, 34, 85, -4, -80, 63, 11, -43, 83, 95, -32, 34, -25, 35, 
24, -31, -1, 81, -49, 43, -120, 68, -41, 17, -35, 28, -29, 19, 91, 127, -61, 69, -127, -127, 86, -64, 18, 36, -26, -78, 54, 44, -41, 7, -21, 48, 16, -40, 116, -127, 20, -2, 18, 36, 15, 12, 13, -48, -106, -110, -24, -52, -12, -127, 21, -56, -5, 10, -127, -53, 42, 2, 17, -2, -88, 19, 20, -13, 
-1, 31, -38, -15, 50, 7, -125, 21, -46, -127, 40, -127, 15, -51, -14, -55, -14, -86, -127, 36, 23, -127, 39, -32, -127, -55, -104, 17, 65, 2, 0, -47, 20, -53, -40, -17, 20, -107, -44, -28, -49, -21, 22, 89, 22, -7, 69, 31, -62, -127, 10, -40, 59, -41, -83, 16, 42, -7, 37, -95, -127, -50, 34, 58, 
-127, 0, 2, 27, 12, -31, -103, 30, -59, -68, 54, -57, -4, -32, -33, 16, 3, -3, -39, 19, 26, -127, -12, -19, -117, -51, 18, 0, 66, 25, 7, 1, 21, -73, 0, 24, 70, -19, -43, 44, -16, -37, -15, 24, 31, 45, -68, 46, 8, -74, -26, -127, 43, -26, -42, 60, 38, -42, 69, 3, -54, -34, 46, 11, 
-88, -7, -53, 15, 32, -93, 59, 97, -9, 16, 127, 78, -62, -54, 0, 35, 38, -16, 72, 49, 7, 12, -104, -2, -34, -127, 14, -31, 17, 34, -34, 23, 51, -18, -17, 55, 33, 81, 75, 76, 34, 16, -13, 37, 38, 33, -2, 91, 127, -1, 68, 6, -4, 127, -34, 21, -82, -25, 63, 118, 56, 41, 31, 22, 
66, -64, 37, 18, -53, -24, -1, 23, 67, 38, -7, 61, -2, -69, -39, 52, 3, 11, 22, 6, -26, 6, 0, 6, 24, -1, 4, 24, -44, -12, -72, 29, -83, 13, 2, 18, -19, 6, 73, 13, 38, 9, -42, -44, 90, -38, -35, -26, 17, -2, -19, 127, -66, 54, -28, 77, -68, -60, -21, -4, 82, 84, -45, 29, 
6, 17, 42, 33, -56, 12, -127, -24, -4, 22, -34, 20, 56, -34, 14, -56, -2, 75, -60, -71, -20, -4, 25, 67, 45, -73, 2, -2, 61, -17, -19, 7, -101, 49, 57, -56, -89, -52, 70, 17, 23, -127, -18, 28, -46, -43, -127, -68, -10, -127, -30, 48, 55, -72, 1, 63, -1, 1, 18, -67, 14, -22, 2, -2, 
6, 60, 51, 11, 3, 6, -127, -24, 62, -17, -85, 2, 19, 44, 42, -69, -46, 35, -99, 41, -28, 48, -26, 40, 24, -127, 59, -51, 88, -19, -22, 7, -82, 125, 85, -29, -32, -26, 55, 6, -5, -124, -2, 64, -111, 29, -127, -14, -40, -121, -127, -61, 27, -103, -21, -17, 7, 35, 17, -41, -52, -31, -30, -8, 
16, 14, 51, 38, -61, 65, -7, 62, 27, 51, 79, -58, -47, 34, 10, 4, 2, -1, -60, -7, 20, -21, 33, 43, 25, -1, -19, 13, 52, 25, 10, 39, -23, -127, 5, -45, -127, 40, 57, 35, -53, -18, -52, 86, -39, 42, -4, 12, 17, 17, 5, 17, 13, 21, -105, -61, -4, 35, 13, -11, -18, 65, 62, 37, 
-18, 47, 66, -26, -44, 50, 4, 45, -45, 12, -19, -69, -75, 42, 64, 56, 0, -6, -1, 41, 53, 15, 71, 17, -52, -11, 10, 31, -3, -28, -38, -16, -26, -90, -2, -23, -91, -56, 0, -71, -20, 12, -118, 42, -67, -42, -25, 56, -12, 15, 27, 39, 34, 34, -44, -2, 5, -25, -25, 17, 13, 53, 19, 12, 
88, 35, -29, -36, -14, 45, 27, -22, 48, -15, 0, 21, -39, 11, 30, 52, -3, -118, 36, -9, -37, 22, 65, -42, -66, 16, -19, 17, -81, 52, -56, -122, 23, 39, -3, -31, 8, -86, 46, -127, -49, 54, -119, -34, -127, -90, 59, 40, 46, 21, 78, 48, -18, 12, -49, -16, -40, -31, -66, -66, 43, -65, -65, 50, 
-7, -50, 78, -68, -101, 7, -3, -17, -17, -37, 19, -38, -126, 28, 0, 59, 11, 114, -31, -27, -19, -127, 43, -34, -15, 19, -127, 85, 46, 47, -116, -127, 22, -10, 90, 14, -49, 82, 6, 41, 97, -6, -127, 34, 5, -113, -43, 1, 11, 112, 25, -101, 8, -44, -52, 40, 31, 61, 27, -54, -127, -127, 13, 29, 
8, 11, 23, 2, -61, 28, -55, -39, -90, 46, 35, -66, -71, 6, -10, 15, 28, -69, -50, 3, 21, -127, -11, 23, -11, -17, 2, 19, 37, 18, -108, -127, 38, 32, 51, -3, 54, 28, 7, -29, 24, 0, -127, 30, 61, -72, -24, -4, -127, 90, -36, -69, 4, -40, 9, 64, -19, -4, -29, -105, -127, -127, -40, 16, 
4, 62, 31, 42, 82, -9, -30, -91, -18, -27, -72, -104, -5, -63, -4, 34, -57, -127, -60, -11, 6, -127, -73, -18, -45, -47, -17, 7, 25, -30, -49, -127, 53, 52, 25, -3, 62, 41, 46, -64, 16, -53, 15, 21, 57, -127, 17, -3, -73, 70, -52, 49, 15, -84, 104, 36, 4, -47, -44, -35, 45, -127, -19, 53, 
-58, 25, 62, -58, 44, -87, -12, -53, 61, -12, -53, 5, 61, -10, -114, -87, -65, -17, -35, -56, 17, -23, 30, -17, 16, 13, -12, 30, -40, 54, 23, -20, 5, -28, -40, -50, 32, -9, -44, -8, 58, 38, -127, -29, 29, 41, -101, 54, 26, -71, 10, -59, -73, -67, 70, 46, -38, -76, 13, -21, -27, -127, -28, -10, 
-4, 53, 49, -39, 80, -19, 11, -19, 7, 24, -87, 33, -9, 19, -23, -39, -4, 30, -7, -68, 19, -62, 21, 14, 58, -46, -30, 50, -8, 57, -1, -3, 48, 3, -52, -104, 25, -61, -8, -85, 63, 18, -52, -15, -40, -37, -77, 4, 9, -31, 0, -12, -42, -12, 65, 33, 1, -22, -40, -35, 0, -125, 14, 11, 
61, 59, 31, 45, 1, 101, 7, -33, 19, 52, 48, 40, -21, 7, 44, 44, -10, -57, 33, -71, 0, -121, 2, 71, 57, -86, -35, 28, 68, 63, -50, -46, 30, -10, 23, -59, 38, -51, 5, -22, -1, 19, 114, 8, -75, -26, -62, -49, 5, 6, 31, -1, -3, 10, 7, -23, 2, 54, 21, -48, -3, -114, 42, 38, 
-127, -9, -122, 47, 25, -122, -127, -73, 33, -117, -127, 52, 26, 10, 12, -40, -90, -100, -127, -127, 20, -124, -61, -5, -20, -127, -53, -127, -9, -24, -36, -110, 19, 15, -127, 127, 6, 0, -32, -31, -104, -53, 90, 34, -22, -21, -94, 100, -31, 127, -127, -102, -5, -66, -6, -47, 37, 5, 15, 54, -107, -117, 53, 127, 
-127, 7, -78, -2, 37, -127, -51, -77, 73, -10, -127, -76, 31, 17, 33, -29, -119, -113, -127, -112, 54, -127, -65, 44, 1, -109, -23, -48, 34, -51, -8, -99, -21, 24, -95, 99, -12, 12, 36, -67, -124, -127, 75, 6, -26, 21, -14, 117, 0, 127, -127, -127, -29, -111, 50, -70, -55, 5, 39, -96, -111, -127, 76, 80, 
-127, 5, 27, -1, 52, -43, 49, -48, 43, 127, -82, -38, -13, 68, 72, 33, -127, -30, -40, -99, 53, -124, 38, 3, -11, 40, -4, 122, 48, -26, -27, -9, -2, 52, -57, 104, 12, 33, 127, -11, -127, -127, 29, -36, -21, 29, 65, 115, 106, 127, -86, -127, -6, -14, 66, -16, -32, 23, -8, -116, -17, -78, 67, 62, 
-124, -55, 42, -62, 109, -37, 51, 5, 5, 55, -31, 53, -11, 31, 86, 103, -127, -2, -65, -127, 39, -7, -88, 19, 35, -10, -51, -7, 27, -61, -21, 60, -30, -124, -34, -9, 66, 81, 18, 103, -12, -3, -17, -81, 4, 71, 41, -46, 81, -12, -57, -45, -107, 31, 81, 127, -35, -46, 61, -7, -35, -19, -32, -24, 
-56, -47, 64, -15, -84, -36, -2, 56, 1, -1, 14, 51, -80, 27, 41, 55, -127, -34, -54, -68, 66, -4, -127, 37, 1, 16, 9, -2, -28, -68, -127, -16, -30, -119, 32, 13, 42, 80, -22, 76, 46, -78, 47, -27, -47, -71, 57, -127, 26, 0, -56, 40, -127, -22, -33, 25, 0, 73, 45, -38, -27, 55, -33, -30, 
56, -23, 62, 1, -117, 39, -31, 11, 36, -99, -60, 27, -127, 63, 0, -7, -107, 32, -123, 2, 99, 69, -81, -34, 16, 70, -2, -9, -44, 7, -127, 4, -8, -127, 23, 13, 43, 41, 31, -9, -4, -21, -19, 36, -16, -127, -27, -45, -35, 77, 28, -93, -73, -57, -77, -17, 55, 51, 8, -55, -18, 49, 0, 41, 
-127, -1, 35, -17, -52, -127, 5, -27, 24, -44, -29, 61, -14, 33, -36, 18, -127, 18, -92, 57, 29, -10, -127, -66, -28, -115, -51, -112, -28, 0, 4, -58, -91, -127, 102, 27, 76, 65, -127, 81, -54, 27, -43, -16, 61, -87, 0, -56, -27, 21, -127, -75, 2, -27, 5, -14, -123, -67, -40, -17, 15, 7, -33, -43, 
-33, -58, 31, -24, -127, -75, 92, -82, 31, 20, 56, 127, -14, -25, 40, -50, -63, 41, 48, 5, -127, -25, -76, 17, 11, -15, -9, -102, 19, 18, -58, 9, 26, -59, 119, 38, 38, 79, -127, 54, -22, -11, 20, 5, -15, -24, 4, 0, -20, 51, -27, -39, -46, 23, 12, 0, -49, 2, 14, 26, 63, -11, -8, -25, 
-32, -5, -9, 7, -126, -15, 8, -24, -35, 104, 8, -29, 63, -4, 55, -16, -10, 21, -42, -36, -127, -24, -30, 72, 48, 12, -16, 16, 79, 0, -83, 73, 21, -70, 108, 54, 24, 5, -80, 127, 44, -42, 43, 70, -30, 25, 2, -99, 4, -16, -14, 36, -31, 20, -11, -13, -40, 8, 62, 34, 19, 4, 27, 44, 
-58, 43, 11, 32, -10, 67, -28, 2, 51, 14, 1, -33, -122, 28, -7, -52, 11, -36, -86, -122, 35, -127, 37, -41, -1, -55, -101, -18, 17, 24, -68, -110, -68, -35, -23, 8, -85, 35, 55, -29, -54, -65, -38, -20, 1, 52, -35, -31, 72, -127, -26, -127, -47, -28, -26, -98, -82, 2, -11, -127, 6, -93, 15, -74, 
-51, -49, 76, 70, -4, 10, 81, -64, 20, 26, 33, -7, -55, -2, 15, 48, -22, -49, 29, -127, 18, -59, 27, -17, 28, 5, -105, -22, 25, 24, -51, -31, 30, -5, -22, 1, -80, 21, 21, 76, -127, 6, 47, -84, -1, 1, 56, -47, 86, -127, -2, 19, -76, 33, 117, -42, -34, -34, -22, 0, 14, -43, 15, -73, 
25, -40, 86, 81, -13, -23, 8, 22, 83, 62, -3, -24, -15, -15, 22, 57, 7, 31, 52, -127, -22, 51, 8, 40, 14, 38, 22, 30, -36, -9, -21, 1, 92, 46, 42, -9, 22, -16, -7, 76, -72, -76, 100, -66, 94, 3, 66, 35, 73, -127, 7, -127, -69, 31, 107, -36, -1, -25, -10, 13, -26, 19, 0, 36, 
-86, -127, -1, 52, -127, 16, 33, 40, 33, 13, 16, 21, -35, -17, 61, -58, -37, -17, 0, 6, -116, 70, -10, -6, 114, -1, 29, -94, 28, -18, -127, 52, -84, -101, 8, 6, -96, 101, -14, -42, -47, -66, 120, -82, -39, -127, -5, -112, 23, 14, -113, 0, -34, 1, -34, 15, -127, 122, 58, 46, 27, 79, -53, -40, 
92, -111, -14, 66, -38, -7, 38, 23, 2, -23, -69, -13, -14, -57, -29, -25, -6, 24, -5, 8, -70, 57, -2, -22, -26, -10, 21, -122, -22, -15, -5, -18, 5, 3, -73, 9, -12, -50, -51, 13, -22, 42, 5, -46, -3, -50, 8, 12, -36, 19, -2, 39, -43, -6, -2, 101, -26, -47, -18, 55, 24, 12, -115, -15, 
127, 62, 80, 7, 51, -2, 48, 38, -30, -27, -58, -92, -6, -10, -88, -91, 28, -32, 19, -6, 40, -21, 70, 18, -127, 18, -14, 7, -69, 86, 85, -89, 92, 74, -48, -82, 47, -121, 59, -127, 31, 81, -116, 94, 30, 29, -22, 59, 27, -42, 70, -13, 93, -61, 11, 77, 56, -111, -45, 3, 18, -48, 41, 77, 
-86, -50, -57, -34, -20, 18, -25, 19, -14, 61, 0, -8, 66, 24, -12, -67, -20, -4, 31, -16, 36, 51, -7, -9, 58, -127, -17, -39, 79, -5, 12, -74, -127, -64, 39, -76, 18, 44, -30, -66, 40, -22, 14, 87, 20, 21, 20, 0, 37, -23, 14, -35, 75, -41, 56, 24, -127, 7, -17, -21, -27, -20, 64, -64, 
-63, -63, -51, 40, 6, -63, 18, -30, 26, 61, 2, -12, 27, 51, -39, -8, -15, -20, -17, 0, -30, 48, -47, 5, 27, 6, -36, -45, 28, -33, -73, -124, -127, -37, -20, -75, 42, -22, 47, -61, -17, -83, 45, 40, 35, -41, 20, -34, 103, 7, 3, 21, 63, 14, 39, 14, -33, 36, -6, -21, -27, 24, 64, 12, 
25, -89, 8, 30, -4, -19, 54, -36, 64, 47, -11, 18, -38, 21, -60, 76, 0, 12, 23, 1, -69, 18, -10, -47, -45, 0, -24, -10, -105, 26, -127, -88, 8, 75, -54, 27, 6, -54, 57, 4, 18, -2, 18, -117, 21, -16, 121, 4, 6, -19, 11, 60, -37, 27, 67, -61, -81, -55, -19, -9, 42, 64, -7, 59, 
-54, -42, -1, 4, 32, 50, -69, -45, -38, -58, -74, -70, 17, -16, -38, -127, -86, 66, -46, -2, 8, -45, -37, 26, -4, -127, 38, -59, -31, -23, 44, -62, 35, 14, -40, -127, 30, 5, -20, 83, -2, -127, -31, 30, -48, -43, -127, -56, -57, 12, -2, -127, 59, -81, -119, 32, -57, -4, -11, -127, -127, -79, -23, -62, 
23, -44, 40, -2, -27, 66, 8, 47, -48, -23, 32, 42, -18, 43, -41, -127, -57, 0, 13, -42, 0, 10, -89, 7, -4, -55, 86, 0, 21, 21, -42, -28, 0, 63, -44, -127, 73, 27, 2, -76, 22, -33, 2, 29, -127, -70, -70, -60, 72, 36, 106, -82, 10, -10, -70, 33, -48, 39, 47, -127, -55, -106, -4, -34, 
27, -4, 35, -35, -106, 63, 28, 53, 9, 26, 93, 61, -44, 48, 17, -127, 22, -12, 48, 59, 13, 68, -18, -9, 37, 39, 85, 30, 37, 22, -104, 71, 4, -73, 70, -51, 45, 54, -13, 14, 78, -7, 41, 16, -127, -106, 24, -90, 6, 53, 104, 45, -5, 12, -73, -4, 66, 80, -26, 21, 54, 67, -4, -7, 
-37, 42, 32, 64, 49, -16, -40, 54, -73, -48, -16, 2, 25, 24, -33, -26, -81, -20, -127, -120, 13, -127, 4, 21, 16, -47, 8, -32, 8, 43, 51, -114, -28, -47, 33, -59, 36, 78, -46, -41, -87, -57, 39, 27, -47, -7, -30, -22, -106, -87, -14, -127, 54, -127, 65, 11, 85, -6, -3, -127, -127, -127, 4, -25, 
-31, 39, 19, -2, 11, -4, 41, 8, -16, 47, 30, 59, -5, 3, -3, 84, -53, 8, -43, 5, 8, -127, 65, -16, 28, -49, 7, -26, 12, 62, -26, -127, -38, -44, 61, -6, 71, 106, -27, -28, -62, 1, 0, -11, -81, 22, 25, -90, 88, -5, -14, 31, -20, -75, 36, -35, 58, -8, -36, -61, -9, -127, -7, 33, 
-72, -34, 6, -38, -18, -74, 117, -25, 27, 59, 18, 127, -6, -23, -22, 74, -22, -47, 59, 7, -15, 19, 27, -28, 0, 1, -6, 33, 3, 22, -60, -64, 22, 2, 65, 2, 11, 100, -19, 39, -62, -47, 41, -9, -15, -59, 14, -36, 79, 98, -49, -14, -72, 39, 24, -22, -32, 30, 37, -9, 69, -29, -39, 6, 
19, 10, 0, 6, 44, -6, 64, -5, -24, -22, -5, -82, 51, -55, 30, -38, -22, 37, 4, -31, -60, -10, 10, 24, 34, 65, 22, -48, -82, -22, 44, 23, -84, 42, -68, -12, -20, -28, -10, -86, -11, -41, -76, -7, 57, 7, 33, -32, -1, -28, -43, -12, 82, -8, 27, 9, 0, 17, 84, -25, 6, -24, 4, -60, 
55, -55, 59, -18, -6, -3, 61, -33, -107, 5, 13, -76, 32, -40, -14, -55, -5, 22, 38, 35, -6, -16, -21, -18, 65, 51, 59, -10, -127, 5, 47, -2, -89, 52, -8, 1, 72, 14, -9, -64, -78, -4, -73, -18, -5, -15, -18, -66, 60, 16, 26, -24, 37, -24, 65, 54, -3, -5, 7, -19, 23, -62, -22, -32, 
25, -25, 1, -116, -21, 45, 33, -12, -40, 60, 79, -28, 12, 35, 16, -127, 54, -10, 22, 17, -57, -18, 12, 20, 55, -5, 34, 44, -108, 11, 10, 9, -38, -42, -2, -48, 110, 84, -10, -19, -11, 36, -11, -66, 21, -85, -28, -127, 87, 12, 49, 30, -25, 30, 8, 67, -27, -1, -33, 4, 51, 45, 3, 6, 
93, -104, 47, -54, -40, 2, 16, 70, 61, -8, -43, 127, -40, 11, 57, 52, 38, 7, 51, 26, -32, 39, -16, 22, 30, 37, -14, -18, -9, 37, -42, 5, 24, -99, 110, 52, -24, 18, 0, 88, 64, 31, 29, 20, 39, -60, 37, -2, -55, -58, 22, 50, -15, 28, 25, -8, -6, -16, -52, 48, 112, 8, 26, 44, 
8, -23, 108, -24, 15, -127, -73, -11, 46, -93, -126, -4, -19, 19, 8, 42, 41, 20, -54, 4, -55, 9, -101, 6, 0, 74, 5, -58, -72, -33, 4, 42, -23, -89, 105, 79, -80, -37, 4, 36, 49, 43, 50, -27, 55, 24, -7, 19, -36, -65, -81, 24, 39, -27, 25, 32, -127, 58, -103, -18, 15, 2, -74, -67, 
-73, -33, -13, -82, -5, -91, -84, -22, 36, -110, -127, -111, -37, -23, -91, 29, -89, -30, -127, 5, 2, 0, -127, 23, 31, -112, -49, -127, -48, -75, 40, 28, -109, -109, 96, -31, 10, -53, -16, -69, 11, 26, -82, 32, 66, -22, -127, -41, -57, -81, -127, -66, 65, -81, 44, 52, -127, 27, -127, -61, 10, 13, -22, -127, 
69, 20, 25, 55, 36, 10, -110, 69, -46, -66, 75, -100, -3, -68, -71, -61, 39, 38, 39, -6, 13, -38, -41, 42, 46, -30, 28, 51, 51, -38, 17, 76, -93, -44, 45, -112, 52, -59, -12, 87, -24, 27, 93, 57, -43, 63, -127, 42, -127, -127, 121, -88, 58, 34, -60, 45, 28, 25, 48, -12, -35, 44, -10, -52, 
3, -13, -9, 65, 20, -127, -122, 10, -19, -68, -34, -77, -20, -35, -69, 23, -110, 37, -4, -5, 8, -76, -127, 42, 47, 127, 35, -4, -5, -45, 26, 25, -127, -37, -44, -36, 86, -12, -37, 30, -60, 32, 60, -2, 25, -33, 96, 49, -100, -127, 93, -127, 14, 0, 4, 19, 83, -42, -16, -16, -30, -9, -55, -124, 
-99, -56, 46, 45, -1, -114, -37, 41, 42, -127, 26, 45, -11, -58, -99, 44, -50, -3, -23, -11, 2, 10, -15, 0, 9, 94, 35, -86, -126, -48, -38, -16, -35, -64, 127, -61, 53, 110, -89, -56, -55, -1, 63, -52, -9, -28, 22, 21, -78, -65, -29, -127, -37, 21, -7, -60, -6, -66, -32, 7, 13, -13, -23, -94, 
63, -21, 5, -108, -84, -5, 61, 86, 61, -30, 18, 79, -127, -36, -13, 19, 68, -60, 68, 99, 14, 51, -16, -50, -82, 5, -127, 50, -37, -24, -115, -8, 70, 127, -15, 21, 75, -33, 37, 32, 82, 47, -103, -5, 31, -94, 104, 53, 66, 86, 46, 67, 1, 37, 50, 80, 7, -24, -14, -34, 35, 68, -18, 58, 
25, 11, 34, 2, -88, 17, -97, 87, -66, -10, 72, 19, -20, -15, 13, -56, -28, 45, -67, -127, 15, -17, 12, 41, 3, 15, -36, 24, 36, -21, -30, 17, -31, -24, 47, -57, -6, 25, 25, 111, 23, -29, -5, 13, -6, -62, 21, -90, -6, -72, -10, -74, 0, 26, -27, -84, 1, 68, 80, -54, -32, 65, 40, -2, 
-88, -13, -56, 53, 32, -13, -127, -21, -32, -8, 55, -29, 34, 18, 24, -40, -81, 111, -127, -94, 2, 18, -54, 33, -11, -22, 23, -28, -10, -90, 34, 58, -68, -59, 2, -57, -38, 85, -33, 71, -9, -27, 40, 6, 31, 72, -29, -17, -52, -91, -75, -127, 31, -26, 79, -83, 5, 28, 46, -11, -84, 57, 19, -80, 
-61, -34, 110, 107, -30, 62, -38, -127, 22, 31, -2, -127, -56, 105, 29, 80, -5, -39, -38, -29, -37, 31, 34, 15, -14, 127, -23, 79, 68, 28, -17, -45, -28, 111, 56, 92, 22, -44, -40, 7, 55, -23, -88, -17, 32, -3, 82, 18, 102, -48, -36, -86, -78, 10, -17, 69, 33, 21, 65, 18, -71, -3, 85, -9, 
-90, 37, -54, -27, 57, 45, 5, -127, 11, -65, -75, -85, -19, -28, -7, -5, -5, -6, -54, 20, -85, -5, 8, 3, -56, -22, -18, -60, 54, -127, 18, -49, -36, 64, 3, 13, 64, -85, -127, 30, 40, 37, 12, 12, 66, 53, 29, 44, -127, 38, -4, -106, -112, -36, 22, 81, -74, 29, 56, 18, -30, -1, 2, -43, 
-8, 29, -127, -68, 48, -55, -20, -127, -56, -127, -86, -75, 3, -127, -127, 29, 20, -26, 27, -26, -122, -7, -112, -65, -58, -127, 20, -3, 32, -115, 24, -69, 12, 79, -112, -116, 70, -27, 43, 57, -1, -5, -81, 18, 37, 59, 5, 74, -127, 71, 45, -38, -87, -58, 11, 66, -53, 73, -18, -41, -62, -5, -110, 36, 
-107, 0, -19, 7, 63, 6, 5, -26, 31, -21, 46, -45, 31, 7, -40, -20, 22, -17, -51, 2, -68, 38, -11, -42, 50, 46, 71, 38, -23, -97, 27, -28, -23, -127, -39, -46, -115, 2, 54, -24, -49, -37, -76, -21, -40, 46, 31, -57, 49, 52, -33, -24, 108, 16, -34, -53, -11, 38, 10, -4, -28, -20, -40, -24, 
5, 50, -45, 15, 38, -11, -14, -39, 46, -45, 40, 73, 11, 3, 60, -17, 0, -18, -24, 20, -82, 41, -40, -45, 43, 27, 53, 21, -36, -51, -44, -8, -30, -127, -126, 15, -127, 5, -7, -50, -102, -23, -20, -62, -113, -5, 71, -65, 8, 81, 3, -30, 2, 63, -15, -6, -2, 47, 49, -28, 13, -12, -107, 21, 
68, -69, -36, -30, -47, 40, 51, 37, 5, -16, 62, 32, 14, -37, 73, -41, 14, -14, 45, 38, -58, -47, 64, 19, 23, 70, 46, -23, -15, -10, -53, 66, 38, -127, 7, 67, -94, -62, -36, -107, -60, 8, 4, -76, -117, -37, 55, -127, 15, 63, 17, -19, 9, 50, 8, 38, 54, 41, 38, -57, 46, -61, 1, -7, 
-113, -44, 55, 28, -5, 5, 0, 46, -90, 24, 59, -38, 19, -24, -73, -38, -27, 10, -127, -47, 52, -39, 47, 32, 29, 127, 6, 55, 34, -21, 9, 24, -98, -127, 108, 34, -111, 70, -10, 52, -53, -64, 49, 6, -38, -36, 5, -79, 47, 48, 53, -26, 54, -28, -41, -111, -11, 30, 69, -55, 12, -5, 27, -27, 
-127, -37, -72, -52, 35, 23, 62, -102, -21, 73, 50, -52, 4, -73, 13, -87, 8, 48, -9, 49, -106, 47, 5, -10, 25, -92, 47, 20, -58, -88, 13, -9, -112, -30, 37, 38, -61, 39, -94, 82, 27, -10, -12, -18, 25, 11, -115, -19, 20, 34, -98, 68, 16, 20, 1, -23, -76, 42, 57, 30, -10, 64, -60, -46, 
-22, 0, -79, -44, 63, -15, 56, 24, 9, -55, 19, -28, -60, -127, -37, -74, 65, -19, 4, 48, -42, 95, -31, -83, -6, -90, -13, -58, -127, -69, -1, -41, 84, 90, -48, 10, 78, -82, 15, -67, -9, 25, -87, -82, 75, 51, 95, 36, 56, 56, 77, -25, 3, 26, 75, 21, 55, -50, 6, 15, 41, 44, -89, 6, 
4, -37, 29, -46, -6, -6, 26, 12, -64, 30, 87, 10, -127, 33, -14, -16, 22, -127, -36, -40, 85, 9, -30, 34, 2, -4, -127, 28, 8, 21, -104, -30, 19, 32, -33, -26, 22, 37, -27, 51, -40, -26, -14, 39, -51, 32, 63, -27, 40, -11, 44, 6, 40, 0, -113, -53, 14, 16, 30, -13, -30, -23, 15, 21, 
-17, 43, 24, -127, -127, 22, 8, -27, -33, 16, 46, 13, -127, 0, 5, 1, -22, -127, -23, -7, 0, 60, -4, -45, -40, -23, -100, 53, 5, 40, -127, 18, 43, 73, -13, -25, 54, 18, 42, 38, 48, -116, -4, -48, -80, -72, -1, -17, 60, 28, -29, 13, -11, 18, -13, 8, -31, 28, 65, -96, -1, 19, 33, -16, 
-18, -5, -27, -127, -71, -43, 42, 1, 22, 10, 4, 20, -127, -31, -40, 20, 25, -127, 54, 3, -79, 100, -40, -88, 20, -30, -69, 13, -61, -38, -127, 100, 41, 84, 13, 49, 50, 42, -41, 67, -27, -127, -44, -67, -26, -48, 49, -10, 71, 54, -61, -39, -127, -50, -18, -10, -93, -17, -15, -81, -6, 5, -62, -15, 
-23, -87, 45, -68, -75, 16, 79, 111, 31, -72, -12, -10, 54, 25, -65, 4, -27, 5, 45, -38, 17, 42, 7, -26, -13, 39, -12, -34, 18, -48, 22, -116, 88, 10, 34, 32, -59, 2, 58, -68, -6, -35, -88, 76, 2, -67, 50, -127, 103, -28, -103, -127, 42, -127, 55, 19, -5, -1, -46, 24, 33, -105, 28, 8, 
-116, -65, 101, -78, -67, -67, -80, 127, -62, -127, -6, -9, 63, 21, -44, 38, -105, -58, -29, -127, 31, -59, -85, -49, 57, 2, 34, -58, 31, -46, 15, -93, 76, -13, 19, -27, -11, 70, -18, -89, -13, -121, 37, 32, 22, -80, 23, -127, 22, -89, -127, -95, 1, -127, 20, 35, -56, -28, 35, -42, -127, -120, 44, -99, 
-127, -51, 8, 17, -58, -47, -64, 88, -18, -119, 82, -3, 74, 29, -30, 46, -127, -8, -127, -52, 0, -22, -127, -25, 83, -127, 57, -103, 28, -28, 27, -30, -41, -74, -24, -37, 24, 39, -35, 88, 19, -33, 21, -15, 125, -55, -83, -127, -59, -79, -127, 3, -9, -25, 44, 13, -127, 11, 79, -26, -127, -66, -53, -127, 
103, -10, -40, -53, 54, 57, 6, -5, -7, -70, -82, 17, -31, -17, -13, 34, 73, 64, 87, 10, 19, -61, -94, -100, -54, 43, -47, -5, -127, -5, 86, 1, 36, 22, -8, -31, 35, -127, 80, -120, 65, 47, -3, -42, -29, 19, 60, -16, -19, 19, 31, -25, -72, -127, 89, 82, 90, -69, -86, 73, -20, -104, -88, 17, 
65, -40, 73, 13, -85, 90, -36, 58, -42, 6, 88, 53, -127, 38, -7, -11, 56, -64, 75, -41, 33, -103, -6, 25, 12, 32, -127, 5, 42, -52, -28, 3, -1, 4, 88, -8, 38, 0, 127, 19, 42, 30, 8, -70, -43, -80, 30, -14, -6, 4, 32, -83, -46, -72, -73, -44, 29, 22, 68, -40, -71, -50, 48, -1, 
-127, -37, -15, 45, -26, -49, -29, 18, -61, -52, -9, -27, 38, -18, -53, -8, -29, 100, -10, -4, -29, 105, -122, 62, -4, 4, -9, -50, 13, -127, 5, 55, 5, 0, 2, 29, -29, 53, -24, 90, 16, -63, 40, 71, 1, -72, -123, -21, -127, 39, -123, -19, 15, 33, -18, 3, -127, -36, 46, 33, 91, 89, 5, -97, 
10, 42, -49, 35, 28, 4, -33, 77, 42, -41, -20, -69, -14, -78, -50, 6, -7, -36, -9, -2, 12, 38, -64, -39, -25, -47, -127, -110, -14, -63, 2, -97, -70, 18, 30, 11, 30, -41, 77, 96, -127, -16, -113, -28, 0, 43, 13, -69, -10, -11, 62, -127, 0, -109, 67, 77, 11, -4, 28, -127, -32, -44, -4, -57, 
0, 12, 55, 12, 10, -48, -15, 118, 5, -24, -97, -107, -45, -20, -3, 30, -13, -53, 57, -30, 48, -48, -66, -20, -72, 2, -127, -98, 48, -10, 5, -126, -4, 9, 66, 33, 51, 17, 121, 15, -127, 0, -98, 7, 1, -42, 16, 36, 4, -10, 52, -127, 5, -19, 25, 66, 4, -90, 13, -127, 24, -104, -3, 4, 
-13, -20, 111, -28, -4, 10, -108, 32, -36, -127, -127, -87, 1, -36, -11, 1, -49, -71, -80, -33, 39, -127, -121, 73, -11, -5, -122, -32, 89, -24, 13, 21, -9, 9, 94, 13, 11, 35, 122, 101, -52, -69, 24, -2, 54, -10, -10, 76, 16, 15, 16, -113, 9, -62, 15, 0, -11, -99, 37, -127, -10, -58, 5, -7, 
-31, -127, -15, -127, -52, -74, 4, -23, 16, 6, -101, 28, -89, -22, -3, 0, -74, -66, -56, -8, -74, 26, -72, 8, 50, -22, -71, -2, -112, 13, -112, 41, 24, 54, -75, 30, 44, 87, 13, -13, -4, -110, 0, -127, 22, 6, 64, 48, 18, 3, -70, 8, -24, -6, 1, 90, -55, 5, -118, 43, -6, 56, -33, -62, 
30, -127, 23, -15, -53, 32, 23, -2, -38, 25, -46, 43, -61, -12, 13, 13, 21, -127, 1, 1, -6, 40, -34, 39, 21, 25, -98, 47, -81, 40, -127, 34, -42, -8, 28, -17, 38, 64, -2, 9, -8, -74, -25, -122, -23, -110, 79, 5, 59, 42, -17, 3, 29, -5, 17, 54, -37, -35, -66, -5, 8, 65, -6, -9, 
-34, -70, -10, 63, -28, 87, 10, -6, -7, -18, -51, -19, -6, -24, -6, 5, 17, -33, -7, 1, 63, -7, -60, 73, 50, -32, -97, -31, 14, -64, -5, 29, 11, 54, 109, -8, 31, 9, -6, 60, 29, -27, 56, 109, -42, -105, 94, 114, -63, 25, -25, -29, 127, -19, 29, 23, -16, -55, -5, -59, 34, 14, -16, -37, 
89, 38, 49, 42, -39, 65, -26, 62, -106, 79, 64, -11, 40, 1, 12, -49, 63, -32, 32, -127, 18, -92, 90, 59, 40, -23, -58, 9, 38, 21, -1, 18, -20, -3, 47, -52, -36, 10, 32, 20, -61, -62, 32, 65, -42, -29, 69, -35, 64, -27, 23, 43, 59, 31, -92, -81, -5, 13, 59, -89, -33, -44, 56, 62, 
-127, -46, 66, 59, -85, -19, -50, 58, 10, 17, -14, -25, 24, 7, -10, -13, -27, 9, -127, -84, -38, -32, 25, -1, -18, 25, 20, 36, 10, -55, -30, 48, -39, -55, 40, -28, -22, 19, -120, 72, 6, -114, 6, -19, 54, -68, 94, -41, -51, 11, -89, -58, 27, -4, 14, -127, -25, 2, 59, -81, -127, -10, 37, -95, 
-127, -5, -25, 20, 16, -127, 66, -49, 59, -26, -11, 29, -8, -21, -14, -15, -93, 55, 19, 45, -127, 79, -127, -62, -71, -36, 34, -93, -90, -122, -14, 5, 17, 77, -116, 0, 114, 24, -127, 121, -23, 39, -35, -55, 44, 5, -60, -6, -67, 83, 14, -11, -71, 49, 114, 17, -94, -60, 9, 16, 37, 46, -127, -126, 
-29, 32, 84, -48, 0, -8, -11, 18, -57, -6, 17, -107, -33, 29, -90, 11, 60, 25, 3, 17, 56, -20, 34, -72, -24, 43, -88, 45, -127, -4, 53, -35, 24, 61, 35, -27, 6, 5, -6, -55, 15, 19, -77, -36, 17, -19, 9, -19, -64, 7, -12, 13, 61, -40, 30, 16, 102, -12, -127, -8, 9, -22, -2, 20, 
-34, -44, 34, -34, -18, -30, 3, -127, 10, 0, 4, -47, -65, 0, -92, 21, 39, 13, 13, 48, -100, 43, -31, -104, 31, 17, -17, -6, -24, -62, 46, -21, -62, 25, 45, -48, 44, 57, -49, 32, 48, 43, 9, 8, 0, -72, 48, -16, 6, 45, -8, -26, -54, 14, 70, -26, 15, 27, -44, 28, -4, -28, -21, -42, 
-25, -12, 8, 58, -18, -3, 17, -127, 42, 7, 33, 68, -32, -64, -61, -78, 25, 83, 33, 33, -127, 73, 6, -18, -35, 49, 45, -48, -79, 1, 27, 27, -36, -77, -112, -8, -25, 64, -121, 76, 6, 84, 16, -77, 18, 21, 59, -4, 57, 95, 67, -26, -23, 29, 11, -36, 12, -37, 42, 84, -31, 9, -27, -41, 
35, -53, 16, 77, 17, 101, -3, -72, 41, 24, -43, -8, 3, -28, 36, -67, 55, 87, 12, 19, -116, -19, 98, 43, -10, -7, 97, 51, 28, 45, -41, 26, -47, -4, 30, -90, -46, -65, -1, 67, 30, 41, 58, -42, -37, -3, 13, 9, -26, -19, 36, -17, -60, 41, 4, -66, -16, -19, -9, -7, 33, 19, 9, 60, 
-10, -20, 22, -67, -82, 19, 44, 3, 19, -4, 17, 24, -120, -56, 40, -10, 30, 8, 56, 22, -101, -42, 58, 14, -4, 53, -25, -25, 12, 37, -30, 48, 62, 21, 62, 11, -24, -73, -23, 10, 5, 52, 51, 31, 21, 11, 29, 4, -41, -24, 38, -20, 36, -12, 1, 10, -40, -26, -18, 38, 5, -11, 0, 32, 
-26, 58, 8, -71, -44, 2, 4, 21, -22, -40, 61, -7, -127, -67, -22, 43, 43, -127, 43, -24, -103, 4, -19, 5, 32, 23, -111, -4, -8, -37, -39, -5, 104, 81, 68, 23, 8, -22, -13, -84, -22, -21, -18, 23, 57, 72, 0, -33, -11, 16, 10, 25, 45, -81, -67, -16, 17, -72, -55, -2, 9, -19, -41, 25, 
-127, -8, 45, -31, 44, -45, -79, -54, 31, 3, -64, 52, 1, -11, -30, 37, -109, -40, -127, 63, -1, -53, 49, 13, 16, 37, -60, -84, 35, -16, 8, -48, -11, 79, 22, 5, 42, -71, 8, -53, -34, -7, -6, -52, 89, 42, 60, 9, 57, -7, -127, -127, -2, -127, 55, 81, 6, -13, -7, -30, -127, -79, 29, 10, 
-127, 28, 18, 0, 17, -127, -127, 61, -30, -18, -105, 24, 44, -19, -37, 78, -127, -54, -127, -69, 46, -99, 0, 13, -11, -19, -24, -127, 34, 60, 55, -47, 10, -14, -17, 27, 28, -80, -103, -80, -127, -99, 7, 7, 41, 5, -102, -69, -127, -75, -127, 35, 23, -127, 0, 29, -40, -2, -39, -49, -127, -65, -11, 41, 
-98, 8, -11, 20, 0, -127, -127, 2, -19, -16, 92, 107, 31, 0, -44, 6, -127, -44, -127, -10, 71, -81, 94, 25, 71, 31, 28, -91, 29, 127, 2, 76, -43, -92, 15, 5, -33, -30, -115, -64, -127, -37, 75, 33, -5, -27, -127, -105, -58, -18, -111, -42, 49, -96, -13, -51, 31, 51, 12, -31, -127, -18, -8, 32, 
32, -10, -74, -96, -48, -24, 22, -20, 83, -35, -14, 57, -41, -36, -38, -10, -20, 70, 28, 22, -28, 46, 38, -1, 10, -40, 10, -8, -127, 44, 25, -49, -53, -5, -82, -43, -58, -88, 93, -122, 42, 109, -57, -55, 20, 29, -53, 45, -18, 16, 7, 27, -72, 20, 127, 96, -17, 28, -12, -27, 26, 8, 17, -17, 
