#include <MagnetometetNetworkFloat.h>


const float MagnetometetNetworkFloat_layer_0_weights[] = {
-0.14944652, 0.01047246, 0.14129058, 0.24150883, 
0.3792814, -0.30681103, 0.09257019, 0.20427664, 
0.101886295, 0.2812185, -0.18513197, 0.22414242, 
-0.109739296, 0.3172768, -0.29271504, -0.06489275, 
-0.07437601, 0.016243145, -0.27055034, 0.33679208, 
0.3181165, 0.07119851, -0.2707884, -0.2289385, 
-0.014534509, -0.2711218, -0.12765557, 0.011098264, 
-0.2511577, 0.19462985, -0.18754779, -0.24075916, 
-0.074266575, -0.0057301866, 0.010016144, -0.110370815, 
0.11617834, -0.24246247, 0.04543681, 0.19786322, 
-0.28938672, -0.32770997, -0.10367514, 0.11761621, 
-0.106736615, -0.012891913, 0.11350678, -0.22567317, 
-0.2015201, -0.43019107, 0.08302016, 0.2521488, 
0.27244148, 0.24638349, 0.25806347, 0.11210598, 
-0.38961768, 0.28928193, -0.1930905, 0.10488829, 
-0.19589421, -0.31229022, -0.20010889, 0.0014296378, 
0.19365036, -0.3351146, -0.27112097, -0.10882435, 
0.05345571, 0.051513426, 0.018598253, -0.27060756, 
0.03977986, 0.09276092, 0.26402435, 0.18997337, 
0.2370323, 0.06267651, 0.34261236, 0.23507799, 
0.025549553, 0.31277522, -0.11213455, 0.07108417, 
-0.103944466, 0.29597604, 0.16107696, -0.26154953, 
0.22668116, 0.06699271, -0.030341499, 0.2913306, 
0.23206283, -0.14406642, 0.06388106, -0.16578618, 
-0.26703525, 0.0023007502, -0.29562187, 0.074202284, 
-0.12779896, -0.34062245, -0.21527565, -0.07370401, 
-0.1376578, -0.08174465, -0.020296743, -0.28941765, 
0.19635066, -0.06873982, -0.22391886, 0.025754893, 
-0.0011273139, -0.16346209, 0.22914748, 0.23729691, 
0.2992465, 0.27752763, 0.18355556, 0.13393077, 
-0.26172552, -0.21072534, 0.15986893, -0.03220761, 
-0.08967477, -0.021266753, 0.19713116, -0.16474214, 
-0.22392713, 0.12575941, -0.23798178, -0.138524, 
0.38329494, 0.021357886, 0.1765394, 0.112608224, 
0.25565886, -0.16074763, 0.11665294, 0.17006244, 
-0.41856852, 0.2984043, -0.08767434, -0.091381915, 
0.30906454, -0.16213472, -0.3114979, 0.19463159, 
0.078732185, 0.085048884, 0.15399727, -0.26398814, 
-0.36080638, -0.14367388, 0.2338294, -0.22559024, 
0.018903086, -0.19469175, 0.11199839, 0.18925945, 
-0.07956046, -0.12549882, -0.17386176, -0.24474666, 
0.022312403, 0.19037956, 0.1974896, -0.21589456, 
-0.34430373, 0.22291456, 0.18901597, -0.12976085, 
0.12542704, 0.15795241, 0.058683053, 0.10420712, 
0.1333209, 0.1588388, -0.038223173, 0.11275355, 
-0.3409158, -0.1693026, 0.10625974, -0.23160589, 
-0.07655529, 0.023393244, 0.18845169, 0.20909366, 
0.5110851, 0.32730573, -0.20558746, 0.16295739, 
};

const float MagnetometetNetworkFloat_layer_0_bias[] = {
-0.2856139, -0.04370745, 0.09674047, -0.13594154, 0.076597296, -0.3475464, -0.019611798, -0.1826697, -0.009521711, -0.3518291, -0.2979404, 0.036816016, -0.3126247, 0.041099023, -0.12205803, 0.13932884, };


const float MagnetometetNetworkFloat_layer_3_weights[] = {
-0.22625533, 0.16506177, 0.00908607, -0.015439647, -0.010346618, 0.16924042, -0.08467145, 0.110135905, -0.25483117, 0.19999275, 0.038541574, -0.08347448, 0.14645547, -0.09766526, -0.07163575, 0.07187239, 
-0.22014804, -0.04414509, -0.13719147, -0.030476125, -0.2444807, 0.11715776, 0.10213681, 0.075213775, -0.16997619, 0.2872385, 0.15176663, 0.07176465, 0.28201488, -0.054059964, -0.0038961733, -0.17066182, 
-0.05793752, 0.0072001996, -0.11644477, 0.060099825, -0.06616892, 0.02372149, 0.072527796, 0.057323966, -0.2072268, 0.18080837, 0.0018643565, 0.14605968, 0.033665925, 0.21328135, -0.03507053, -0.05589376, 
-0.0729521, -0.084909335, -0.23320569, -0.11861702, 0.24215181, -0.24656469, 0.12530339, -0.07565354, 0.00672755, -0.12323063, -0.14165123, 0.11866478, -0.19891092, 0.04935905, 0.19279349, 0.18509583, 
-0.09124912, 0.053886943, -0.029858977, -0.1848045, 0.18198791, -0.06586237, 0.091671176, 0.15439805, -0.0020110528, 0.051732767, 0.0033767666, 0.04461317, -0.35613543, 0.01748407, 0.06647818, 0.06895592, 
-0.19278306, -0.06389655, -0.05022875, -0.19544639, -0.008947176, -0.08035157, 0.12228111, 0.08476047, -0.025727866, 0.0063418928, 0.034582928, -0.039408036, -0.43398112, -0.104465865, 0.1716056, -0.060511384, 
0.033303853, -0.16552539, -0.08118067, -0.041911867, 0.16173208, -0.039938085, 0.14610499, -0.19379301, 0.07534645, 0.07271049, 0.17765307, 0.16252218, 0.114659004, -0.072608925, 0.035144128, -0.12971595, 
-0.06861332, 0.2354373, 0.01576213, 0.13434708, 0.057534657, -0.0492055, -0.05489923, 0.08496335, -0.09076465, -0.092971005, 0.251037, -0.0813312, 0.31648114, -0.095122285, 0.2600042, 5.2522817e-05, 
-0.013060854, 0.2987394, -0.10097598, -0.07157062, 0.04452254, 0.037958317, -0.08752055, 0.10541093, -0.09211289, 0.009197909, 0.24982168, -0.20449583, 0.11032281, 0.09962325, 0.05764875, 0.0307535, 
0.17694241, 0.011852249, -0.08041209, -0.15692693, -0.18032937, 0.08142461, -0.06381413, -0.039444003, 0.13717781, -0.05540301, -0.49296424, -0.0015543363, 0.26730323, 0.14695776, -0.091086194, -0.16646738, 
0.0042229355, -0.004679243, -0.037764076, -0.20454958, -0.314333, 0.022360248, -0.022063365, 0.20930253, 0.17840818, 0.19381481, -0.48067167, 0.07081983, 0.13129896, -0.028828757, -0.081498645, -0.18187399, 
0.28308243, -0.15832365, 0.04112129, -0.1614182, -0.18455632, 0.119464986, 0.11145318, -0.08528179, 0.045466557, 0.10058255, -0.43598303, 0.058688954, 0.14794576, -0.08116845, -0.07256341, -0.092283994, 
-0.055387344, -0.06688998, 0.053459063, 0.057156026, 0.13868918, -0.114338815, -0.045292895, 0.118667595, 0.01083967, -0.2146969, 0.07457208, -0.041197848, -0.25950563, 0.07357779, -0.0857032, 0.19137597, 
0.075674884, 0.0022856959, -0.02065004, 0.08675257, 0.13624409, -0.0866537, 0.10256337, -0.13659485, 0.12628968, -0.4163674, 0.108919695, -0.07232444, 0.056937613, -0.20755835, 0.2827578, -0.07150274, 
-0.06229595, 0.1352265, 0.004183481, 0.22682166, 0.13306247, -0.14473769, -0.07678498, -0.06719248, 0.14208737, -0.41666454, -0.04770009, -0.3446351, 0.022340117, -0.092586584, -0.017803295, 0.10483416, 
0.05319631, 0.035360534, -0.014450761, 0.15251713, 0.19771637, -0.25987846, 0.0930767, -0.0076632644, 0.050948113, -0.023619166, 0.06035895, -0.07635818, -0.6226127, -0.111234255, -0.11104936, 0.0351433, 
0.08186509, -0.06414754, -0.22543806, 0.073738925, 0.17072268, -0.20002145, -0.052636854, -0.088048644, -0.062300358, 0.20754623, -0.08483839, 0.1810431, -0.6336143, -0.3260688, -0.016080748, -0.09205612, 
-0.032522824, -0.08642685, -0.13152575, -0.12642297, 0.09263206, -0.17167544, 0.09990002, 0.063888125, 0.12986928, 0.024216881, -0.092735305, 0.08981134, -0.76103115, -0.2961302, -0.056973044, -0.046962667, 
0.057232715, 0.13209283, -0.0579355, -0.0033511592, 0.1462298, 0.015026097, -0.7344305, 0.1751243, -0.07410175, -0.11636351, -0.067766905, -0.11277641, 0.21216232, 0.061865296, -0.206148, -0.36065805, 
0.026495619, 0.16681954, -0.038128477, -0.0021489402, -0.04385323, 0.235284, -0.7043999, 0.033301596, 0.09800207, 0.058115736, -0.100674026, -0.2726588, 0.08561435, 0.16205853, -0.025180949, -0.4227627, 
0.118868485, -0.1311203, 0.20373848, 0.07684109, 0.06497103, 0.050762314, -0.31581184, 0.23180477, -0.07868565, 0.059149113, -0.08351795, -0.15361574, 0.07190213, 0.20499195, -0.35436624, -0.120707445, 
0.15163241, -0.119794704, 0.029714966, -0.008047853, 0.19118838, -0.028172653, 0.20186968, -0.055324204, -0.19649361, -0.068071194, -0.11707175, 0.22312176, 0.10873689, 0.16922785, 0.04842145, -0.16084136, 
0.014737122, -0.04069472, -0.12610446, -0.0041108713, -0.076123446, -0.06411182, 0.24437365, -0.1718385, 0.002414573, 0.07183091, -0.024687171, 0.1035632, 0.08739997, 0.15107045, -0.11183654, 0.11274565, 
0.1440872, 0.073192194, -0.034479108, 0.006233295, 0.011474843, -0.03326049, -0.0897217, -0.13167284, -0.14810742, -0.21087518, -0.1710072, 0.06272641, 0.184685, -0.013702646, -0.05042674, -0.08957447, 
-0.17007358, -0.15224679, -0.095700674, -0.051276222, -0.27937022, -0.074634805, 0.15460165, 0.12494501, -0.25012177, 0.04840557, -0.039634332, 0.056412585, 0.0122689, 0.037677288, -0.17434603, 0.25242874, 
-0.074863605, -0.050248083, -0.0766655, -0.018546624, -0.33253694, -0.10532708, 0.15733592, 0.2592569, 0.07064471, 0.08837216, -0.00059660536, 0.16840181, 0.082150474, -0.032378085, -0.09059324, 0.2362531, 
-0.08917611, 0.09466704, -0.04006239, -0.04866303, -0.19841555, -0.18957788, -0.021286657, 0.18955284, -0.14883038, 0.26035032, 0.039230872, 0.11192694, -0.014743934, 0.050713878, -0.09190774, 0.18531516, 
-0.1268578, -0.16592224, -0.1525968, 0.1373716, 0.010687181, 0.13602298, 0.0739373, 0.082235925, -0.089073785, 0.24432498, -0.023564633, 0.06352282, 0.060995985, -0.054006334, -0.15207145, -0.16134697, 
-0.12750149, -0.21655206, -0.34081632, 0.035552688, -0.22115067, -0.18637857, 0.22250265, -0.113210484, -0.3589212, 0.19818199, 0.067629956, 0.30287388, 0.18576542, -0.085624605, 0.068250045, 0.23065594, 
-0.12564951, -0.03086462, -0.26587328, 0.033760402, -0.14995599, 0.053660065, 0.21436608, 0.1401071, -0.22628266, 0.099503554, -0.0126425065, 0.085055366, 0.010742159, 0.03770029, -0.06628082, 0.04491514, 
-0.07550332, -0.06822838, 0.05127373, -0.12179388, 0.052806836, -0.09569523, -0.090121776, 0.04892096, 0.1158876, -0.42476737, 0.23064448, 0.025555592, -0.03299629, -0.048956737, 0.04966622, 0.012240017, 
-0.18576668, -0.010496537, 0.20763488, 0.2183812, 0.0695798, -0.0011731519, 0.06380978, -0.37513414, 0.15803057, -0.64971715, 0.14285773, 0.046886332, -0.07172555, -0.010367508, -0.040679622, -0.02466418, 
0.06369073, 0.03663646, 0.13801637, 0.10053981, -0.022975959, 0.023808116, -0.12708437, -0.38073945, 0.3226093, -0.2206935, -0.22219054, -0.60833234, 0.17329112, -0.07937882, -0.053694542, 0.011789046, 
0.2285856, -0.22044374, 0.075513855, 0.043050587, -0.017525148, -0.11450746, 0.0020461085, -0.0011487291, 0.026876256, 0.15580395, 0.102989465, -0.07651086, 0.10534145, 0.10397553, 0.043400753, 0.15072745, 
0.05649292, -0.18685016, 0.08319271, -0.010728711, 0.12988958, -0.41091573, 0.10243937, 0.10415005, -0.089672156, 0.041250616, 0.060622986, 0.021318156, -0.19131216, 0.0431009, 0.24322502, 0.23982742, 
-0.07406002, -0.06608997, 0.22359475, -0.14009877, -0.054000877, -0.20798467, -0.021716828, -0.10789877, -0.01609379, 0.008078134, 0.09117925, 0.13177623, -0.13797052, -0.10543832, 0.24195138, 0.28663087, 
0.13515508, -0.019214077, 0.14769147, 0.15489574, -0.09615578, 0.114904344, -0.16296314, -0.090216346, 0.20070894, -0.054449786, 0.031039048, -0.14926997, 0.08070726, -0.09519048, -0.0007611383, -0.24954261, 
-0.05349248, -0.21045956, -0.05983193, 0.077947, -0.014902895, 0.047637258, 0.1114585, 0.034549993, 0.20585951, 0.13305774, 0.05064867, 0.11765163, 0.21813878, 0.18673864, -0.044661276, -0.20124027, 
0.13203882, -0.12974477, 0.0071537606, 0.000345798, 0.2071553, -0.13497409, 0.23282208, 0.13843136, -0.11178576, 0.073652245, -0.04996986, 0.15437172, 0.13579765, 0.17019834, 0.08378438, 0.2208238, 
0.1281091, -0.0907423, -0.1596058, 0.0439309, -0.1468086, 0.004133202, -0.12286619, -0.109849356, 0.049913175, 0.16711248, -0.5165502, 0.20692214, -0.23868689, -0.026522242, -0.28806427, 0.029940695, 
0.15454377, 0.08199343, -0.34922215, 0.05959403, -0.15674989, -0.05173098, -0.15021595, 0.033404358, -0.27365375, 0.15324728, -0.2703598, 0.23580399, -0.16009195, -0.16404742, -0.38287607, -0.04350337, 
0.11302962, -0.12204811, -0.007194884, 0.13897964, -0.14298114, 0.010978807, 0.132375, 0.10526567, -0.3170708, 0.15270573, -0.49083114, -0.0799622, -0.12725866, -0.19441791, 0.14777759, 0.11483964, 
0.09188233, 0.19943988, 0.050963677, -0.2616952, -0.09411707, 0.10174297, 0.07617603, 0.22657835, 0.14252062, -0.024149392, -0.0530525, -0.004381167, 0.17335185, 0.089978255, 0.084959835, -0.078134075, 
0.19195798, -0.026796771, 0.068090096, 0.14183676, -0.22113387, 0.062486533, -0.039920874, 0.100857645, 0.21791364, -0.047718983, 0.28315675, 0.040251628, 0.4069276, 0.050463524, 0.020173717, -0.21101975, 
0.09544926, 0.005741312, 0.0567415, 0.21348748, -0.0013107881, 0.0975438, -0.027825758, -0.056158595, 0.006425979, 0.09190392, 0.18105383, -0.007205873, 0.28774953, -0.028239692, -0.046941448, -0.13604099, 
-0.05171572, 0.42216364, 0.0028999103, -0.1530069, 0.094862886, -0.12817998, -0.05421206, 0.024978321, 0.06586552, -0.08949535, -0.32952464, 0.08522106, -0.20607479, -0.11398145, -0.009104311, -0.08419355, 
-0.005705801, -0.15781589, 0.031800143, -0.015870718, 0.004463984, 0.2952218, 0.044542708, 0.024514604, -0.038124654, -0.011906439, -0.33826467, 0.043595146, 0.099193096, 0.114372514, 0.114719875, -0.22408804, 
-0.08016413, -0.07726462, -0.05269714, 0.27434108, 0.02120007, -0.15997984, -0.102814876, -0.055380538, 0.06327105, 0.23675042, -0.024272067, -0.13731612, 0.23665273, 0.16993923, -0.17585482, -0.1818898, 
0.048223972, -0.0074391984, 0.0053132894, 0.1740367, -0.026634732, 0.0450873, -0.13410068, 0.0535907, 0.2240573, 0.009819913, 0.1682523, 0.023686789, 0.26162824, 0.018646741, -0.12034308, -0.10871009, 
0.026636004, -0.016916879, -0.042518605, 0.21466918, -0.057557076, -0.1309211, -0.05406111, -0.027178911, -0.08320863, 0.09029809, 0.046013393, 0.019889174, 0.32249957, 0.11732347, -0.056674354, -0.044914965, 
-0.2079452, 0.012228049, -0.23085971, -0.009257021, 0.050575096, -0.19054581, 0.28954643, 0.045418352, -0.0028104559, 0.045152433, 0.16166742, 0.014224739, 0.19158006, 0.113022506, 0.060512464, 0.06645556, 
0.271994, -0.04526061, -0.021873793, -0.1259823, -0.019417932, -0.0928622, 0.22387137, 0.16350791, 0.09307356, -0.0276802, 0.13111147, -0.04361848, -0.11474876, 0.07096895, 0.04898183, 0.09927543, 
0.21452413, 0.05617574, 0.06235354, -0.15429528, -0.21426746, 0.01306225, -0.008026007, 0.0009787129, -0.0113470405, 0.18741846, 0.16813143, -0.12566, -0.072143614, 0.105044685, 0.17329088, 0.10436569, 
0.23758642, 0.10693128, 0.08797723, -0.1565443, -0.12679598, -0.022091856, -0.15284476, 0.06827511, 0.055374227, 0.12891327, 0.021090627, -0.0063433102, -0.06994812, 0.007788197, -0.19143917, 0.059307683, 
-0.19605394, 0.186177, 0.108806424, -0.07997341, -0.25753814, 0.034727346, -0.22694594, 0.06416142, 0.07794485, 0.06449659, -0.17040476, -0.2014756, -0.26983076, -0.33390442, -0.26722777, -0.08842255, 
-0.0016118877, 0.015325378, -0.18436065, 0.00011010677, -0.17309226, 0.18931913, 0.06439818, -0.030908527, 0.029688511, 0.21252665, 0.042020015, -0.09423525, -0.32626942, -0.44285113, 0.1374962, 0.14259355, 
0.12194724, -0.1121538, -0.14056808, -0.028110191, -0.27166966, 0.22423357, 0.124432385, -0.0740008, -0.10432805, 0.24421255, -0.1615402, 0.16199036, -0.24073301, -0.3334735, 0.038895134, -0.15151581, 
0.016212575, 0.011600826, 0.07352097, 0.064986326, 0.14261167, 0.029121451, 0.21674962, 0.16469781, -0.07995079, 0.20234771, 0.15272257, -0.024074927, -0.11890449, -0.0032234176, 0.25591224, 0.15353058, 
0.020331055, -0.06488683, 0.042027067, -0.017016724, 0.046778537, -0.009534625, 0.2507865, -0.060189657, -0.20444219, 0.013046561, -0.02217598, 0.17972033, -0.116556674, -0.10173141, 0.10324391, 0.22627494, 
-0.03331772, 0.14200746, 0.15025464, 0.019288488, -0.20824984, -0.032512397, -0.19042248, -0.22060743, -0.15980598, -0.17314023, -0.051830396, -0.12238989, -0.14596762, -0.0152327735, 0.014653614, 0.15707539, 
0.084391825, 0.09275377, 0.029046403, -0.06025512, -0.048262805, 0.40475222, -0.33672816, -0.11670747, -0.009367331, 0.24036081, 0.12365799, -0.2041752, 0.06349057, -0.08700469, -0.066446364, -0.26857802, 
0.12456569, 0.055217225, -0.06312324, 0.17263699, 0.14834447, 0.008082388, -0.22667094, -0.12180547, 0.036020625, 0.2175871, -0.05376345, 0.014266939, 0.23819634, -0.0953573, -0.03451677, -0.31769633, 
0.02596849, -0.09497451, -0.092311814, 0.018144326, -0.0019286588, -0.1266336, -0.063887596, -0.14090599, -0.0009815651, 0.19246098, 0.27853847, 0.14431062, 0.17863964, 0.048466455, 0.25508955, -0.19145744, 
-0.09512616, 0.2624985, 0.15397733, 0.10300638, 0.07484523, -0.18375565, -0.039246142, 0.20667021, -0.08931226, 0.006383009, -0.08436965, -0.11044367, -0.17634287, -0.21317314, 0.13267197, 0.02293951, 
-0.004057283, -0.079929896, 0.076808296, -0.03731519, -0.08781444, -0.29056916, -0.06907255, 0.27681562, 0.1312705, -0.09300872, -0.12844762, -0.14233626, -0.2508552, -0.104854934, 0.07174782, -0.07458817, 
0.05638066, -0.15570317, -0.007434787, 0.1199729, 0.025076138, -0.28199598, 0.0069632553, 0.2501096, 0.19039206, -0.0006913007, -0.104783446, 0.09854413, -0.062511556, -0.12460791, -0.09916083, -0.09349122, 
-0.59657276, -0.15116954, -0.0068249414, 0.07712675, -0.4252426, 0.030019723, -0.157984, -0.08458516, -0.19899364, -0.120891735, 0.02873275, -0.5243097, 0.0015340656, 0.08590655, 0.19311406, -0.08887973, 
-0.27479002, 0.076788016, 0.20382397, 0.031849697, -0.50783885, 0.029981425, -0.53432447, -0.19008502, -0.1051206, 0.08556868, 0.034893513, -0.6337104, 0.00903946, -0.006612269, 0.16178754, -0.17201364, 
-0.5905857, 0.07489197, 0.23230551, -0.05137743, -0.17965038, 0.025480187, -0.40069675, -0.38629818, 0.030763976, 0.083487354, 0.062163375, -0.33704543, -0.07898009, 0.013873157, -0.19064657, -0.032135874, 
0.014886501, -0.6774411, -0.13983667, -0.0062854667, -0.103045575, -0.0352746, 0.048622724, -0.21686293, -0.13705374, 0.12168829, 0.12185792, 0.1400762, -0.043072406, 0.024753554, -0.10528694, -0.011740451, 
0.10972002, -0.6302047, -0.011077235, 0.15423506, 0.22970226, -0.022092564, 0.20221817, -0.33139852, -0.18805562, 0.02331075, 0.090700194, -0.025023295, 0.02476938, 0.014301547, 0.14267813, -0.07383669, 
-0.0069212834, -0.4742352, 0.07106657, 0.24324115, 0.18686041, 0.019154366, 0.070877, -0.26060745, -0.16312312, 0.09182669, 0.14014076, -0.08905042, -0.17874013, 0.008495197, 0.012150497, -0.10780642, 
-0.6432551, -0.030434031, 0.11919013, -0.066249795, -0.15433787, 0.21191245, -0.17964779, 0.07006042, -0.13485023, 0.004817999, 0.07932368, 0.06565718, 0.13408783, 0.058891263, 0.116772085, -0.3087525, 
-0.512395, 0.022261914, 0.2089834, -0.057633325, -0.11542564, -0.13664377, 0.04486593, -0.038271386, -0.037651855, -0.17952041, 0.213458, -0.057854813, 0.13331959, 0.031524595, 0.09250917, 0.032857005, 
-0.88091713, 0.12406715, 0.083822764, 0.15273842, -0.18105265, 0.016406376, 0.091200516, 0.16063556, -0.123197384, -0.09982954, 0.16854022, 0.17563404, 0.02037697, -0.031115683, 0.1818978, -0.0019167553, 
0.20831744, -0.05774879, -0.017705305, -0.80461025, -0.10199555, -0.08856536, 0.084788196, 0.11701033, 0.006275821, -0.09335646, -0.37532917, 0.22332454, -0.22569503, -0.06505155, 0.11897142, -0.027065588, 
-0.003625644, 0.26947036, -0.11359596, -0.66656625, -0.058888238, -0.018646799, 0.02495345, 0.19586474, -0.02653298, -0.042892076, -0.37976095, -0.004282117, -0.19984661, 0.0037988792, -0.22670658, 0.16498181, 
-0.14795737, 0.06365231, 0.017412376, -0.801774, -0.28415903, 0.23937324, -0.16169272, 0.12436766, 0.14222984, 0.0748034, -0.26421934, -0.07780814, 0.060381718, -0.062345225, -0.059099976, -0.20773812, 
-0.11730724, -0.01009145, 0.04451389, 0.09251542, 0.044796154, 0.24816085, -0.20676905, -0.19211027, -0.073254675, 0.06899284, -0.0576594, -0.3097224, -0.23020959, -0.0038702546, -0.20059401, 0.30081406, 
-0.08691846, -0.06849665, -0.10230251, -0.0022755598, 0.09222658, 0.14659776, 0.16884641, -0.080316626, -0.34131896, -0.06316028, -0.02902769, 0.2700663, 0.0134373475, 0.033173837, -0.05671522, 0.29943398, 
-0.14890058, 0.030295037, 0.13585933, 0.013411545, 0.04228402, -0.1657894, 0.09816084, -0.11698245, -0.13048565, -0.17259097, -0.11320045, 0.3013882, -0.13900541, -0.086273246, -0.19332644, 0.01804228, 
0.03984451, -0.071817935, 0.08416996, 0.10690558, 0.165941, -0.005825053, 0.026226828, -0.067783035, 0.092948556, -0.1633712, 0.01734971, 0.53752834, 0.4110311, -0.033667102, -0.10712528, -0.5599437, 
-0.061078344, 0.107261606, 0.23058903, -0.031223044, -0.043879975, 0.010621672, -0.08442457, -0.067973755, 0.09396951, 0.009452524, 0.087671466, -0.38772932, -0.35275355, -0.039545707, 0.072517335, 0.42762616, 
-0.037018076, -0.025813755, -0.20813988, -0.046485335, -0.11457802, -0.006557677, 0.038263336, 0.031173617, -0.24029839, -0.037963957, -0.105420485, 0.09037, 0.048168913, -0.030026944, 0.013355642, -0.03257896, 
-0.021060506, 0.09974293, -0.15247571, -0.05343886, 0.06189944, -0.32091114, 0.16525944, -0.083686925, -0.08100829, 0.09193515, 0.096822925, 0.021492923, -0.35007316, -0.20519865, -0.027759425, 0.18027462, 
0.053597152, 0.011203189, 0.07468071, 0.11079099, 0.11340261, -0.436383, 0.047574867, -0.14211586, -0.26678038, 0.079001926, -0.05117859, 0.0077063916, -0.20901752, -0.21553372, -0.059825663, 0.08748402, 
0.07346054, 0.03171638, 0.031976487, 0.03898284, 0.14708534, -0.23334444, -0.1309822, -0.16535185, -0.1314262, 0.18868725, 0.005043944, -0.0026198886, -0.2240021, -0.26191804, 0.10748062, -0.0053340755, 
0.10702129, 0.043392163, 0.2593196, -0.05345134, -0.020840649, 0.0054575996, 0.112827614, 0.20390145, 0.08794117, -0.0062665693, -0.084189445, -0.22538762, -0.14290027, -0.028035304, 0.07043431, 0.3326467, 
-0.1302483, 0.034804694, 0.18544956, -0.093112215, 0.14584075, -0.16516359, -0.0635284, -0.15416022, 0.16466923, 0.0019300949, -0.06290488, -0.07190523, 0.099129446, -0.050895613, -0.10992435, -0.3555413, 
0.06421961, -0.15350245, 0.04220319, 0.01956846, -0.07416186, 0.29038975, -0.11595855, -0.038793337, -0.08704822, 0.1222276, 0.09979662, -0.4004355, 0.038960055, 0.0523487, -0.07662607, 0.108128004, 
0.012871046, -0.026409699, -0.46981543, 0.16977379, 0.0060588326, -0.03362249, 0.05325933, -0.07513737, 0.100015245, 0.1254877, -0.37353083, 0.12943546, -0.14083503, -0.19439168, -0.022248259, 0.04835886, 
0.045624115, 0.024508117, -0.3907766, -0.06383884, 0.023576763, -0.2441615, 0.22270043, -0.210538, -0.060806897, -0.059044037, -0.41280887, -0.0012950115, -0.26824072, -0.4324624, 0.08608701, 0.058209896, 
0.10906178, 0.1167083, -0.27424753, -0.04510944, 0.023177857, -0.21625873, 0.24358535, -0.1336646, -0.052997433, 0.13877432, -0.34134752, 0.058969546, -0.72089237, -0.35619062, -0.034660716, 0.06435716, 
0.020445, 0.031353105, 0.055961, 0.018604716, -0.12790556, 0.15764052, -0.27320492, -0.19309624, 0.11442035, -0.066505186, -0.024433529, -0.5297809, 0.05387103, 0.0021356512, 0.0328215, -0.17271641, 
0.16087207, 0.045390893, -0.029018423, 0.030148784, -0.056597322, 0.059099507, -0.19689341, -0.24392922, 0.0075111724, -0.27982086, 0.30002275, -0.59859854, 0.05845095, -0.10133765, -0.0829391, -0.15071596, 
0.077334106, 0.048674885, -0.1412083, 0.21591547, 0.086648256, 0.14762937, -0.3094607, -0.00674747, 0.15153033, -0.2336795, 0.10377288, -0.4403724, 0.05994992, -0.019410852, -0.066345036, -0.27778515, 
};

const float MagnetometetNetworkFloat_layer_3_bias[] = {
-0.14620516, 0.0040187105, -0.28404683, -0.0510243, 0.071719594, -0.039320927, -0.06843661, 0.00014004637, 0.025134891, -0.018518394, -0.08817957, -0.058974866, -0.19447142, -0.04472809, -0.3130438, -0.038631376, -0.09491371, -0.071183674, -0.035791595, -0.029832397, -0.025152216, 0.08214014, 0.18694444, -0.31213683, 0.021828277, -0.0043593273, 0.09411881, -0.013118879, 0.014568044, 0.09429523, -0.1342524, 0.07703848, };


const float MagnetometetNetworkFloat_layer_6_weights[] = {
0.15210707, -0.06220757, 0.079202674, 0.17817675, -0.16330087, -0.2561911, -0.047122825, 0.0060591106, -0.012100243, -0.075990915, -0.17005643, 0.02322787, 0.007129359, -0.04202748, 0.15909676, 0.073998556, 0.11933845, -0.003724996, -0.08572336, 0.026220048, 0.27205107, -0.06971267, 0.03592946, -0.3993539, 0.11221859, -0.013390005, 0.026317148, -0.0067253, -0.16010952, -0.025732597, 0.01675253, 0.0019104109, 
0.18779053, -0.04035205, -0.009361974, 0.39302346, -0.08995334, -0.44994083, 0.14654246, 0.086023174, 0.05235857, 0.12653333, -0.22801058, -0.08586499, 0.14591701, -0.1876624, 0.12005306, 0.01679245, 0.11015198, 0.025944648, -0.23747936, -0.018731847, 0.113994636, 0.087897256, 0.06819567, -0.6134461, 0.054325994, -0.003234647, -0.008040606, -0.1332246, -0.1430514, 0.03184075, 0.036252853, 0.107702255, 
0.18721794, 0.087820105, 0.030114874, 0.10885535, -0.14779979, -0.35615167, 0.038998466, 0.02504328, 0.06942053, 0.14178935, -0.07902901, 0.056103814, 0.05710175, 0.09183432, 0.07078338, 0.10965061, 0.06083997, 0.071936466, -0.19411598, -0.017360345, 0.034209836, 0.11627772, 0.10937767, -0.37553927, -0.0107288, 0.004026996, -0.02301602, -0.115822665, -0.046075393, -0.08284272, -0.03697709, -0.10224559, 
-0.006260039, -0.050147526, -0.25106782, 0.24276449, -0.20767452, -0.02647905, 0.21407616, -0.13733107, -0.112658106, 0.081616215, 0.04100753, -0.08358276, 0.11478705, -0.0032568441, 0.025627596, 0.17720632, -0.11583235, -0.031576015, -0.059700876, -0.00032080436, 0.013504276, -0.061984472, 0.07783677, -0.0944956, 0.019361652, 0.1495492, -0.08733733, -0.33663598, 0.052668262, -0.01349408, 0.025467549, -0.05928751, 
0.022018684, -0.12331866, -0.17663541, 0.2828884, -0.25363797, 0.19116692, 0.21367651, -0.048380625, 0.082703635, -0.08747216, 0.05590387, -0.04552394, 0.22653776, 0.09225526, 0.23113766, 0.0959879, 0.102938436, 0.17922066, -0.13026565, 0.07637472, -0.07737362, -0.10108394, 0.1034367, 0.19590457, 0.13456927, -0.039540347, -0.10546978, -0.55164933, 0.16333413, -0.002716217, 0.12980106, -0.12481971, 
-0.0443645, 0.04487817, -0.22605354, 0.2208001, -0.07472369, 0.05896177, -0.049570277, 0.21895033, 0.20017615, -0.06084437, -0.035555087, 0.22208698, 0.0168215, 0.074190244, 0.10009571, -0.17850752, -0.048509587, 0.18875039, -0.02483227, -0.018878518, -0.09088458, 0.0065641436, 0.095838584, 0.08659349, 0.087714516, -0.06259675, -0.06693628, -0.3047919, 0.15691999, 0.12688681, -0.057896286, 0.034804348, 
-0.031220324, 0.07280995, -0.05785146, -0.12127946, 0.0076083797, -0.017348835, -0.19677502, 0.26568407, -0.08205088, -0.058496572, -0.1458058, 0.07074601, -0.07334907, 0.14459746, -0.10908923, -0.21032362, 0.009356426, 0.11646102, 0.086227186, 0.15899485, 0.19829825, 0.0033135414, -0.26992705, -0.014869722, -0.3287937, -0.055510733, -0.015595611, 0.2149891, 0.09797967, -0.09724055, 0.2526578, -0.17561732, 
-0.022529908, -0.016494246, -0.09356135, -0.14254247, 0.016082061, 0.052334845, -0.08032749, 0.1009164, -0.16694811, -0.09028814, -0.103259735, -0.031342283, -0.1005922, -0.05390845, -0.29591718, -0.122588515, 0.017645072, 0.22283892, 0.08215798, 0.15986417, -0.019992718, -0.1256319, 0.06978266, 0.19922811, -0.6509406, 0.059959583, -0.23473771, -0.08658623, 0.1693426, -0.014267917, 0.19710526, -0.05726887, 
-0.055012137, -0.01926079, -0.018538075, 0.0411437, 0.018518738, 0.059078872, -0.099538386, 0.051116843, -0.07383858, -0.22843145, -0.11088905, -0.19920877, -0.14037688, -0.16468163, -0.18801278, 0.11752522, -0.22687155, 0.07347125, -0.0021610144, -0.027073668, 0.17686522, -0.017498542, -0.1862507, 0.1428928, -0.6343927, 0.13433172, -0.24844563, -0.27775118, 0.19931912, 0.0743557, 0.0067094043, 0.044326764, 
-0.12233158, 0.062290937, -0.05113464, 0.03101608, -0.037679188, -0.06980333, 0.051547218, 0.19434376, -0.058548585, -0.07481351, 0.13218822, 0.066983916, 0.15002169, -0.24880677, 0.008389792, -0.11112551, 0.18938233, -0.17873496, -0.04964519, 0.04152152, -0.1293924, -0.26564807, -0.08028342, 0.17064628, 0.2242745, -0.10412652, 0.12191102, -0.28253222, -0.09547269, -0.13739704, 0.05238398, 0.15243614, 
-0.08055956, -0.019989014, 0.13216105, -0.19781466, 0.047888618, 0.002373227, 0.16498598, 0.1228236, -0.11763678, -0.107144736, 0.21920563, 0.08666322, -0.015054615, -0.32151288, 0.0658294, -0.24822019, 0.17954084, 0.025704531, -0.1340246, -0.010419118, -0.18093437, -0.22542475, 0.059426527, 0.03810715, 0.19768502, -0.09369439, 0.14053953, -0.50388956, -0.12349759, -0.05826077, -0.029350797, -0.06089519, 
-0.12480811, -0.038687646, 0.029031813, -0.24524896, 0.021485606, -0.14593603, 0.066876575, -0.054078486, 0.0034749433, -0.10709728, 0.07369679, 0.055887353, 0.008444917, -0.2456307, -0.0067564663, -0.18236224, 0.033366766, 0.093883, -0.21402207, -0.007364852, -0.13507044, -0.17512852, 0.07591325, -0.114077725, 0.16623361, -0.0004344294, 0.02127499, -0.304998, -0.07693362, 0.10016189, 0.013388869, -0.10345506, 
0.07960449, 0.17353727, 0.2656385, -0.12517063, 0.05661975, 0.0046113366, -0.088529445, 0.08562358, 0.027223332, 0.030818876, -0.07487477, 0.062725134, -0.09898649, 0.06920869, 0.077356026, 0.03770917, -0.4140893, 0.09110415, -0.07117133, 0.20410754, -0.15381536, -0.023143336, 0.16583127, 0.070736445, 0.052654903, -0.057164658, 0.010568668, 0.10958755, 0.09298631, -0.024408413, 0.21198377, -0.046814762, 
-0.08669075, -0.020500042, 0.36987326, -0.09384859, 0.058184274, -0.0035336982, -0.08177123, 0.06438484, 0.12939551, 0.008228815, 0.078207724, -0.03996465, -0.25783014, -0.04941884, 0.050829165, 0.2725554, -0.7242121, 0.07344653, -0.03140642, 0.14351787, -0.17775321, 0.08324501, 0.16749479, -0.17492183, -0.15111947, 0.034107838, 0.025478272, 0.2786273, 0.091790095, 0.025607256, 0.029742924, 0.10124095, 
-0.039858058, 0.013142159, 0.42828068, -0.056162495, -0.12723349, -0.029981779, 0.119238906, -0.11867652, 0.0399234, -0.043998037, -0.010024003, -0.16916986, -0.18190585, -0.01134946, 0.11631991, 0.46528968, -0.688461, 0.015281212, 0.027959956, -0.015307579, 0.006638281, 0.04170077, 0.13643108, -0.11571345, -0.13175991, 0.046059996, 0.0588741, 0.039933342, 0.038149085, 0.08232658, -0.05016034, 0.21205454, 
-0.0022358622, 0.12484258, -0.028981322, -0.08785617, -0.08277872, -0.2089799, 0.037475962, 0.021031598, 0.11055435, 0.085820474, 0.25403994, 0.10483627, 0.16408566, -0.27360559, -0.020886436, 0.0040989714, 0.023919893, 0.1033574, -0.4066356, -0.08553655, -0.02690885, -0.10231415, -0.3752335, 0.36559734, 0.0050051734, -0.11322687, 0.098241225, -0.059352797, -0.2144596, -0.073811896, 0.06662915, 0.033756852, 
0.16184439, 0.07901756, 0.0682454, 0.023424363, 0.0016951938, -0.18456304, 0.12129145, 0.08495432, 0.059804756, -0.02467023, 0.0996759, 0.103886, 0.16403712, -0.13735352, -0.08881842, -0.13496643, 0.018159034, -0.062105145, -0.6808793, 0.0043930365, 0.035598252, 0.061029732, -0.5142194, 0.28910023, 0.04325533, 0.05312801, 0.03362555, -0.1323752, -0.15502307, -0.10429455, -0.20810872, -0.010486705, 
0.025891779, 0.080559485, 0.16918078, 0.13126034, 0.039419185, -0.05820335, 0.03322914, 0.11323866, 0.10156782, 0.15475895, -0.017644111, 0.06269865, 0.020752404, 0.10683279, 0.05508312, -0.12943529, -0.0050874786, 0.08468166, -0.38069004, 0.1452496, 0.15195101, 0.15238059, -0.44612357, 0.2196727, -0.118334256, -0.013511342, 0.09679607, -0.33635363, -0.24416633, -0.34001216, -0.08197326, 0.013025932, 
0.08639033, -0.038784634, -0.1615941, 0.16003093, -0.01160639, -0.034841217, 0.01426631, 0.04248392, 0.05844873, 0.05579854, -0.40264532, 0.03338567, 0.17867376, 0.066038206, -0.099208176, -0.22133255, 0.19590688, -0.11901719, -0.24928373, -0.06681936, -0.0007219936, -0.09025507, -0.1900828, -0.023686402, 0.05412361, 0.15073654, -0.18646032, -0.04455103, 0.050794397, -0.37016332, -0.057114925, -0.17438713, 
0.11663317, 0.13452925, -0.036990173, 0.04929406, -0.24228218, 0.01646028, -0.21608986, 0.054022625, 0.15155278, 0.1281506, -0.29584685, 0.11879802, -0.009230095, 0.017487874, -0.16867231, -0.41924953, 0.021232743, 0.017875701, -0.15068822, 0.06236057, -0.047410864, 0.08867558, -0.5664083, -0.27199745, -0.09914939, 0.108551264, -0.07571945, -0.3453596, -0.09753257, -0.49629387, -0.18464538, -0.53148746, 
-0.0061099646, -0.056551214, -0.08443567, -0.10384085, -0.1576716, 0.06850874, -0.17923303, 0.09455291, -0.05980271, -0.10342329, -0.61197937, -0.05417461, -0.1527895, -0.12054871, -0.32749727, -0.15402566, -0.018868398, 0.026261156, -0.18727148, 0.057741173, -0.12330552, 0.14175859, -0.39982477, -0.2303157, 0.11206985, 0.11952124, 0.0070395176, -0.13908952, 0.09953477, -0.1945705, -0.07257933, -0.54379326, 
-0.22726828, 0.11629809, -0.20208159, 0.058810547, 0.020976033, 0.08523284, -0.04686734, -0.007970956, -0.41823563, -0.36027303, 0.1964065, 0.11845264, 0.050228883, 0.031378075, 0.031167123, -0.04133014, 0.106251456, 0.08031051, -0.15700625, 0.15528435, -0.020507714, -0.15248808, 0.13564606, -0.22787908, 0.04485067, -0.06946341, -0.01168518, 0.39260098, 0.118213125, 0.051094186, -0.16220036, -0.07645959, 
-0.24560753, 0.017522888, -0.22642687, 0.07918027, 0.108740024, 0.0030765086, 0.0042025745, -0.057654496, -0.44874534, -0.46436697, 0.18993482, 0.060935985, -0.019199556, 0.17077778, -0.026415305, -0.06445294, 0.060295958, 0.03586947, -0.18781053, 0.06959093, 0.082481824, -0.21234374, 0.14258167, -0.17786156, 0.09198708, -0.16529323, 0.015759435, 0.7902593, 0.18045506, 0.09002011, -0.109678745, 0.08496163, 
-0.040838864, -0.05687777, -0.11564372, 0.12187053, 0.058452047, 0.11272947, -0.027936803, -0.05708541, -0.40746224, -0.47465515, 0.08259545, -0.08202736, -0.007739883, 0.118882865, 0.11468579, -0.055287473, -0.05063457, -0.0940351, -0.0040543666, -0.06812978, -0.004332987, -0.09931619, 0.23696782, -0.3135958, -0.038841482, -0.08414618, -0.1191038, 0.4386832, 0.14234711, 0.0049910503, -0.006386479, -0.056167513, 
0.09742116, 0.08318511, 0.16492635, 0.10951321, 0.06511776, -0.1642698, 0.06498901, -0.17933822, 0.068946905, -0.0694892, 0.016008908, -0.10062317, -0.032558583, 0.094592296, 0.056929726, 0.27252367, -0.022741776, 0.07434788, 0.22201885, 0.064728454, 0.069248505, 0.13570735, -0.112506896, -0.18243451, -0.17775084, 0.10585346, 0.0060927444, 0.12312349, -0.057371926, 0.17651112, -0.015661312, -0.089318864, 
0.12756714, 0.20299383, 0.16185194, 0.13319619, 0.07359704, -0.08351258, 0.08709112, -0.08269925, -0.041953355, -0.10609126, -0.016122876, 0.07590727, 0.054297708, 0.17613341, 0.20323856, 0.19521458, -0.08341532, 0.059251837, 0.4842544, 0.016232198, -0.07444927, 0.12303083, -0.14236885, -0.19546533, -0.2106031, 0.08205877, 0.25398436, 0.44677433, -0.03306574, 0.25616974, -0.019935302, -0.049041107, 
-0.10737844, 0.051825196, 0.07908842, 0.0038151713, -0.0014814285, -0.033832595, 0.057719786, 0.020096937, 0.075699106, 0.06365687, 0.055450477, 0.099600405, 0.14062758, 0.12790386, 0.2138218, 0.03458255, -0.058543358, 0.06250669, 0.24285167, 0.083661884, -0.13378428, -0.05273264, 0.02641126, -0.072912455, -0.10818057, 0.07174376, 0.14776312, 0.21129943, 0.13410084, 0.17872158, 0.016854053, 0.09546666, 
-0.27466002, -0.048069686, 0.06843873, -0.24351624, 0.025168298, 0.10217026, -0.14851737, 0.16690026, 0.047246385, -0.020385265, -0.053688288, 0.10045219, 0.008734728, 0.03802184, -0.3072734, -0.05060565, -0.19490328, -0.1579545, -0.1709926, 0.13865754, -0.084679246, 0.16921408, -0.0065735555, 0.21996365, -0.028680326, -0.022395682, 0.10752602, 0.16514045, 0.007504011, 0.041847453, -0.04130459, -0.10303946, 
-0.4865182, 0.20171286, 0.06898639, -0.22552559, 0.10247098, 0.15458675, -0.20606492, 0.03133445, -0.10568, -0.070819706, 0.004856681, 0.05597186, -0.08229483, -0.03952119, -0.53509855, -0.17605595, -0.30080074, 0.0017410704, -0.012306555, 0.24455032, -0.15267266, 0.20529546, -0.053103376, 0.032853577, 0.045679282, 0.0076021147, 0.24673636, 0.5386654, 0.08472557, -0.026954748, -0.014268444, -0.1627909, 
-0.58169603, 0.018067505, -0.027934724, -0.2861635, 0.1949774, 0.07537687, -0.11839124, -0.008469033, -0.096858926, -0.0710691, -0.10333781, 0.1335692, -0.08923982, -0.07818499, -0.40318802, -0.18886748, -0.2272235, 0.018716715, -0.03410872, 0.16628145, 0.0318385, 0.11642443, 0.08491133, -0.0019152508, 0.01376213, 0.04308075, 0.1693616, 0.22853123, 0.031956237, 0.113991626, -0.16338964, -0.17865878, 
0.03692938, 0.12952136, 0.14292201, 0.01154736, 0.06535286, -0.010296434, -0.017335352, -0.0258254, 0.072624885, -0.019154267, -0.17620696, 0.2027464, -0.20112295, -0.088437654, -0.14884205, -0.029353568, -0.07914477, 0.10456167, -0.10237485, 0.27195856, -0.2052463, 0.16688238, -0.0719594, 0.04823709, 0.14952168, -0.046671845, -0.039742377, -0.070549384, 0.010523748, -0.01324103, 0.17881913, -0.36270055, 
0.09447559, -0.02394559, 0.16668093, -0.049959116, 0.04533505, -0.018458227, 0.1401254, -0.07780671, -0.012742163, -0.11983916, -0.12235745, -0.026729183, -0.48457488, -0.22274454, -0.06715459, 0.15147853, -0.1895118, 0.097107224, -0.015774716, 0.14780188, -0.20980324, 0.15997337, 0.002701911, -0.084791556, 0.2595662, 0.21539652, -0.18707216, -0.1349168, -0.01197072, 0.03618217, 0.097181134, -0.10400585, 
-0.0030772577, -0.19033547, 0.026963288, -0.053807434, -0.09235069, 0.04385693, 0.1736543, -0.081788294, -0.090074226, -0.12522112, 0.094137825, -0.108894356, -0.44604042, -0.24493127, 0.031836506, 0.43279305, -0.12893786, 0.08385533, -0.007894014, -0.053133562, 0.029282128, -0.04469395, 0.16260411, 0.012606919, 0.14509085, 0.2081253, -0.1138808, 0.101956554, -0.018571043, 0.15035917, 0.12259455, 0.07146334, 
0.28235355, -0.051402375, 0.07312321, -0.041801397, -0.0072850776, 0.20751975, 0.10118499, -0.15686268, -0.17151028, -0.12609269, -0.18558808, 0.13967271, 0.13762924, -0.06714563, 0.20547844, -0.13520807, -0.03140082, 0.034300383, -0.19948702, -0.0067594023, 0.21680896, 0.06838753, -0.40981287, 0.2572737, -0.6423995, -0.10091901, -0.01042081, -0.36208522, -0.070768334, 0.103512935, 0.12728572, 0.113803595, 
0.22425577, -0.12647714, -0.10792449, -0.026715754, 0.04357084, 0.16051267, -0.13095437, 0.054355852, -0.06826826, -0.17201674, -0.22007006, -0.04212112, 0.033757124, 0.10472772, 0.11102572, -0.23194003, -0.044809468, 0.1502852, 0.05320085, 0.048734, 0.26238865, -0.018076362, -0.58142644, 0.031570043, -0.5338983, 0.04509756, 0.08888864, -0.49273676, 0.1532563, -0.16122963, 0.10739122, -0.10198085, 
0.05430671, -0.04296954, 0.053872492, -0.081903085, 0.1279244, 0.13927458, 0.029594036, -0.054383643, -0.03117217, -0.06451253, -0.21680458, -0.053598803, -0.013204073, 0.017701367, -0.03028998, -0.0027854329, -0.08179975, 0.21047895, -0.0919054, 0.06554993, 0.088010006, -0.10328411, -0.30599725, 0.038334493, -0.48804173, 0.21480699, 0.05940381, -0.15618917, 0.16984968, -0.15522599, 0.10037172, -0.17825863, 
0.12107503, -0.16541176, 0.009817256, 0.14606757, 0.10358016, -0.22722082, 0.1535984, -0.0053760875, 0.01738834, 0.11461663, -0.1279201, -0.042579714, -0.002791164, 0.07326191, 0.03926855, 0.33393216, 0.024571097, -0.13386849, -0.016588485, -0.15380947, 0.29840377, 0.018107645, 0.0978124, 0.024329595, 0.012517024, -0.08825943, 0.0094922595, 0.15833698, -0.45853776, 0.012459709, -0.28937718, 0.08585845, 
0.09978701, -0.18222389, 0.06616895, 0.037896395, 0.13820149, -0.172024, -0.054038297, 0.07206239, -0.015378938, 0.15666716, 0.1439366, -0.007799855, 0.19700964, 0.021660304, 0.15287553, 0.30684578, 0.12495883, -0.05490959, -0.12064228, -0.1330702, 0.22992218, -0.08988442, -0.2528159, 0.13104287, 0.04308958, -0.043717332, 0.056672085, -0.004188713, -0.43323907, 0.027975036, -0.22120981, 0.11119992, 
-0.18080708, -0.035801206, 0.09044697, -0.21048562, 0.06532331, -0.08948433, -0.25111046, 0.21265763, 0.060109682, 0.02256741, 0.08199125, 0.13702007, 0.15643942, -0.041636724, 0.014540161, 0.00091413944, -0.15563332, -0.16926342, 0.034576464, 0.06199714, 0.080793485, -0.028599594, -0.25815204, 0.14296398, -0.012020275, -0.019736191, 0.14619282, 0.22040269, -0.29397455, -0.14977917, 0.18505998, 0.07684605, 
-0.17587894, -0.12275733, 0.29489172, -0.19357017, 0.019567307, -0.06043609, 0.048957158, -0.031091101, -0.19082144, -0.039663635, -0.106651284, 0.068653725, 0.13045694, 0.13834165, 0.2512654, -0.070894204, 0.15190785, -0.103255086, 0.06962632, 0.008132878, 0.1390489, -0.2368436, -0.2834796, 0.27522227, -0.004063097, -0.30370384, 0.20321919, 0.22011128, 0.025290733, -0.3228478, -0.20093219, -0.011054827, 
-0.20326728, 0.061897747, 0.30282408, -0.3040329, 0.1105872, 0.009053529, -0.14887458, 0.062268887, -0.0633006, -0.08187583, 0.13903055, 0.07537925, 0.24371362, 0.017721139, 0.12583166, -0.07046261, 0.20312835, -0.06733282, 0.16771407, 0.09043988, 0.04485977, -0.30477428, -0.36023095, 0.28197876, 0.04508783, -0.21802546, 0.07891013, 0.08274773, 0.050243165, -0.09372793, -0.05012374, -0.05025928, 
-0.15235528, 0.18613315, 0.31894982, -0.1272581, 0.022426518, -0.09142035, -0.21976593, -0.09634928, -0.074253656, -0.03842287, 0.08491672, 0.11833231, 0.1311977, -0.1815531, 0.03128672, -0.11335248, -0.03500452, 0.10491728, -0.18926992, 0.064472444, -0.12529255, -0.111082636, -0.3833187, 0.20538223, 0.11249256, -0.24771827, -0.0029945052, -0.11034987, 0.046307135, -0.027390452, 0.023689734, -0.09696262, 
0.077442, -0.118525386, 0.24763581, -0.052984145, 0.20714982, -0.2960399, -0.21404487, 0.06332833, 0.030357203, 0.06458327, 0.16362122, 0.062202826, 0.036527783, 0.2055019, 0.13974512, -0.021797048, -0.0068399846, 0.18170545, -0.094878815, -0.088276215, -0.22929917, 0.17321491, -0.1915532, -0.0036478604, -0.018800732, -0.08526748, -0.18826364, -0.13424037, -0.093079865, -0.0025328516, -0.03624812, -0.14179915, 
-0.023451736, -0.099977344, 0.2772002, 0.1173038, 0.0588756, -0.19928528, -0.20985596, 0.19633415, 0.012390669, 0.07180973, 0.17338623, -0.009494235, 0.09225985, -0.037479557, 0.27962044, 0.24086918, 0.17479737, 0.15773539, -0.12854154, 0.029180491, -0.0626698, 0.18186249, -0.24476342, -0.13844207, 0.11126486, 0.0057279486, -0.23459435, 0.10118151, -0.13026328, -0.013429983, 0.053260405, -0.24889039, 
-0.017072843, -0.0723894, 0.1262227, -0.020080803, 0.0024032446, -0.17726898, 0.011720122, -0.016588712, -0.22133636, -0.13283835, 0.035773914, 0.06965314, -0.005293032, -0.19332783, 0.31944084, 0.22613075, 0.23281352, -0.11311091, -0.019573415, 0.006725307, -0.031352, 0.023023639, -0.17109448, -0.07075033, 0.025734039, -0.19105625, -0.27372608, 0.10810125, -0.23424399, -0.039006073, -0.02900002, -0.12732255, 
-0.101860955, -0.27200538, 0.018977035, -0.062648885, 0.004384236, 0.04547784, 0.08089795, -0.10130804, -0.23030429, -0.045732837, -0.05516843, -0.54005516, 0.050740916, -0.07894286, -0.10464308, 0.09368889, -0.11263772, -0.10600273, -0.07445948, -0.04885805, -0.01307318, 0.22194187, 0.08608088, 0.3157482, -0.07739662, 0.022765141, 0.042917818, 0.111567914, -0.16225713, 0.19708547, -0.40019742, 0.061927978, 
-0.034703083, -0.38155693, 0.0990621, 0.103252605, 0.069373384, -0.05748519, 0.1533894, -0.075929314, -0.33950204, -0.11952465, 0.04911265, -0.49443367, -0.053918593, 0.043779716, 0.0018392454, 0.1880585, -0.09411483, -0.24942988, 0.07875369, -0.09306707, 0.20832036, 0.24793464, -0.14756976, 0.14818077, -0.15052843, 0.09375521, 0.073524, -0.052948643, -0.21691962, 0.21951173, -0.3360866, 0.2889822, 
-0.07331168, -0.19911648, -0.04449564, 0.109194495, -0.04284634, -0.1076727, -0.019213177, 0.026241492, -0.37388408, -0.006539871, -0.0198547, -0.43653956, 0.06696946, -0.10065953, 0.18447857, 0.28364125, -0.11129749, -0.11551802, 0.13635899, -0.07492662, 0.14448601, 0.017619796, -0.07330475, 0.088487014, -0.23526406, 0.044930067, 0.055141907, -0.22523476, 0.041014615, 0.07451784, -0.19976637, 0.24503973, 
0.054393847, -0.032462273, 0.13942985, -0.06538246, 0.11972721, -0.090608686, 0.10997664, -0.1106821, -0.2188374, 0.009410838, 0.14909333, -0.17047326, 0.16544545, -0.12175908, 0.20218049, 0.08908137, -0.044485357, 0.13349494, 0.060151104, 0.05778435, 0.16618651, -0.07526904, 0.013706752, -0.26559624, -0.11373673, -0.07714265, -0.0072465995, 0.36020252, 0.084254876, 0.0075632026, -0.024635576, 0.20843068, 
-0.033142004, -0.10223481, 0.046288002, -0.012721824, 0.18800922, -0.07910664, 0.067232996, -0.15774104, -0.25513, -0.052745633, 0.21771455, -0.1391375, 0.068880014, 0.07865799, 0.26357397, 0.2954902, 0.0632414, 0.064733595, -0.01262109, -0.027868642, 0.01790825, 0.021406043, 0.049957737, -0.2948473, -0.06420048, 0.15091965, -0.019420784, 0.38840097, 0.09118308, 0.22049142, -0.022649907, 0.042568393, 
0.007106141, 0.07438092, 0.11660644, 0.081047185, 0.20104565, -0.07769298, 0.12866151, -0.037336115, -0.15808035, -0.0345426, 0.16300748, -0.10881058, 0.0040362077, 0.053211536, 0.21548575, 0.11244669, 0.06004313, 0.07815852, -0.12576075, -0.041501008, 0.014351001, 0.00888541, -0.05253712, -0.068533614, -0.014683138, 0.08707437, -0.087102875, 0.24232478, -0.028455973, 0.18512976, -0.044701733, 0.041474458, 
0.016040705, 0.01742486, 0.01075338, 0.13578764, -0.19717449, 0.114128165, 0.055371676, 0.1388199, -0.090406545, -0.0113486275, -0.35566086, 0.04958757, -0.0040696855, 0.07037897, 0.077069215, 0.11859803, 0.008572909, 0.18634847, 0.33292198, 0.05124231, 0.02745446, 0.0072679515, -0.35847372, 0.00094327517, -0.16172813, 0.055522084, 0.102759905, -0.023179764, -0.03843223, 0.018501734, 0.12658739, -0.11282147, 
-0.044838473, 0.029561846, 0.14712512, 0.15594563, -0.43342856, -0.0738903, -0.021612227, 0.09776709, 0.07269547, 0.13822138, -0.29510665, 0.05732199, 0.0065543074, 0.11622835, 0.14280406, 0.22880411, 0.21520504, 0.0868673, 0.09316439, 0.11862502, 0.07137257, 0.12028805, -0.28378743, 0.06141119, -0.14360946, 0.0848268, 0.07991921, 0.17954412, -0.039998587, 0.16964366, 0.11350749, -0.06515526, 
0.036016576, 0.027477907, 0.076841556, 0.015409433, -0.26304066, -0.07433233, 0.09983493, -0.022958599, -0.038074378, 0.020618942, -0.20511878, 0.031567525, 0.22408752, 0.047446135, 0.2076699, 0.19882385, 0.25051108, -0.11665541, 0.00074113655, 0.048350554, -0.044738077, 0.070145816, -0.045372915, 0.27565727, 0.12509218, -0.108047225, 0.027494304, 0.11647365, -0.008934566, 0.037647035, 0.08960976, 0.056429844, 
0.112646796, -0.017526964, 0.06736477, 0.03224696, -0.0147826, -0.020917257, 0.0030568407, -0.061871257, 0.0021444287, -0.014110399, -0.34513927, -0.04708457, 0.09319021, 0.09090064, -0.12840232, -0.18970978, -0.027108839, 0.20531653, 0.19672614, 0.120753914, -0.09265252, -0.011623063, -0.34061888, 0.15505393, -0.076514676, -0.044541173, 0.022123566, 0.3780158, -0.0032768738, 0.14932194, -0.094309114, -0.2970001, 
0.028304255, -0.14473937, 0.11761742, 0.1874455, -0.027808186, -0.06917221, 0.06703383, -0.0717503, 0.1283621, 0.12036094, -0.28028613, -0.106020324, 0.01793657, 0.2757457, -0.121856846, 0.10138763, -0.032875147, 0.13716358, 0.17532061, 0.14670075, 0.031328205, 0.12902609, -0.3278904, 0.09640284, -0.16024888, 0.12417658, 0.1450736, 0.6292204, -0.029174808, 0.1856307, -0.2289126, -0.16379343, 
-0.07208651, -0.15703738, -0.008758508, 0.10493594, 0.07374958, -0.11449053, 0.13938908, -0.059491154, -0.11584682, 0.006775525, -0.14866742, -0.15020157, -0.0050879065, 0.042113338, 0.21840811, 0.061806824, 0.020132694, -0.069514394, 0.045042545, 0.08345492, 0.17529139, 0.021224571, -0.18328463, 0.14878666, -0.09521603, -0.06496637, 0.12126402, 0.46933928, -0.054545466, -0.012471881, -0.22848856, -0.09695801, 
0.09995241, -0.083995156, -0.17580873, -0.0859338, -0.08068689, 0.05415216, 0.21868698, 0.16380118, -0.06979893, 0.03831447, 0.05658349, -0.36413082, 0.012941981, 0.28065878, 0.11624142, 0.06268106, -0.039291523, -0.28991923, 0.058638655, -0.19675168, 0.07052521, 0.0019828323, 0.19813551, 0.240815, 0.04655346, -0.3393833, -0.05376143, -0.041365787, -0.1309068, -0.055027332, -0.095215134, -0.14615168, 
-0.08127062, -0.19109145, -0.15034032, -0.23219849, -0.13529898, 0.10615373, 0.1605373, 0.19569923, -0.08668346, -0.01025464, 0.038777657, -0.37848848, 0.080728054, 0.3126882, -0.014083228, 0.25573725, 0.10430954, -0.33393124, 0.08539235, -0.12736487, 0.107632846, -0.098312765, 0.1751633, 0.21569277, 0.16596586, -0.4074661, 0.12257186, -0.2734511, 0.06723917, 0.07678715, -0.044919837, -0.07064165, 
0.027717922, -0.21382456, -0.07947193, -0.21441007, -0.07635827, 0.17405538, 0.115148574, 0.124270804, -0.10790899, -0.00023478118, 0.1702635, -0.18777297, -0.03530891, 0.2311008, -0.026202358, 0.102476195, 0.112536445, -0.23924132, 0.0665763, -0.0040940293, 0.084155016, -0.042456258, 0.010783562, 0.12435637, 0.14607705, -0.2546725, 0.043627515, -0.24151495, 0.11337554, 0.18310197, -0.0711019, -0.034677066, 
-0.03300394, -0.12982583, -0.20217259, -0.01471335, 0.044845276, -0.021789206, 0.14607114, -0.119178906, -0.1596825, -0.23786858, 0.0115194395, -0.03455734, -0.19976898, -0.10839791, -0.085436806, 0.17252381, -0.10506149, 0.009237129, -0.31642064, 0.021154054, 0.06639179, -0.068386264, 0.17125528, -0.15373497, 0.0064129024, -0.096485436, 0.13306737, 0.40141928, -0.09091362, 0.21983969, -0.11311696, 0.005677373, 
0.02133878, -0.072602496, -0.23434173, -0.044697333, 0.038175855, 0.17759624, -0.024917375, -0.04302052, -0.057235908, -0.09573965, -0.1795763, 0.16758253, 0.15406074, -0.015130868, 0.10248467, -0.12141511, -0.046695128, -0.04586461, -0.0033527825, 0.011835544, 0.041064043, -0.037757486, -0.095245995, 0.0018394956, -0.028205255, -0.058743503, 0.19247495, 0.70773137, -0.1064597, -0.13383897, -0.09091732, -0.06683742, 
0.03317076, 0.13030621, -0.2497209, 0.1333119, -0.0954233, 0.07193394, -0.080164224, 0.09740277, 0.26514134, 0.13913096, -0.0106027825, 0.008057985, 0.26806012, 0.17846476, -0.058557115, -0.39249355, 0.20762594, 0.17568317, 0.15414023, 0.1129126, 0.018694581, 0.044833202, -0.12651472, 0.04805681, 0.07632164, 0.0024939994, 0.14596735, 0.57565296, 0.17154525, -0.12010673, 0.072322406, -0.2625118, 
0.07390817, -0.058734864, 0.17999752, 0.11831707, -0.044101305, -0.00463806, -0.10051062, 0.07082606, 0.08801004, 0.12347303, -0.28423926, 0.11015418, 0.08376982, 0.2529765, 0.22709349, 0.076630205, 0.069927864, 0.15202446, 0.12958701, 0.16119029, 0.16908042, 0.06486619, -0.434488, -0.22323261, -0.09513228, 0.123672605, 0.028177809, -0.20458977, 0.12821354, -0.31362435, -0.008219538, -0.41009066, 
0.062175445, 0.071732804, 0.049540967, 0.003242246, 0.012427572, 0.124971956, -0.19038495, 0.2171102, -0.14127043, 0.040100295, -0.28984502, 0.11097975, 0.08089056, 0.19455397, 0.082222015, 0.009619926, 0.039281476, 0.04583826, -0.0051870854, -0.034337707, 0.07828222, -0.06585587, -0.56928545, -0.27669987, -0.025356615, 0.024990441, -0.053913698, -0.27753082, 0.2091529, -0.239858, 0.06753489, -0.5858764, 
0.10938233, -0.06956807, 0.054722443, 0.097773604, 0.032042947, 0.06987529, -0.14140566, -0.021338135, -0.14263697, -0.08671648, -0.15634583, -0.12681526, -0.10261524, 0.019454537, -0.12331688, 0.06101291, 0.16800272, 0.0050355783, 0.0074048326, -0.030196887, -0.10246385, -0.17854214, -0.2923901, -0.22716264, -0.0570716, 0.20130636, 0.027400581, -0.20097743, -0.001852839, -0.22827819, 0.04233084, -0.38995838, 
-0.3064521, -0.08983823, 0.028640114, -0.013160087, 0.089325435, -0.04575856, 0.10455922, -0.03608256, -0.55460685, -0.51277393, -0.047815263, 0.030642057, -0.008682352, -0.0125019625, 0.1004861, 0.1449408, -0.011578922, 0.20774746, -0.033138286, -0.065758586, 0.14578469, 0.13635391, 0.048148897, 0.08884943, -0.0664341, -0.09194408, -0.199782, -0.34157652, -0.022150442, -0.054175053, -0.017934214, 0.11225224, 
-0.4731257, 0.04272331, 0.06648618, 0.019277483, 0.08772742, 0.11048146, 0.15448506, 0.019624425, -0.6561463, -0.64553875, 0.120075576, 0.045364935, 0.101138994, -0.083575636, 0.13734496, 0.009645605, 0.042731952, 0.05998488, -0.13833854, -0.14015438, 0.07789908, 0.107682064, 0.17684552, 0.03144096, 0.06476349, -0.25747946, -0.42238244, -0.1617085, -0.024177851, -0.061799042, -0.20035583, 0.17721368, 
-0.34206513, 0.08857669, 0.072812185, 0.16383363, 0.0057010157, 0.1311321, 0.012897804, 0.020432834, -0.7403048, -0.4708565, 0.13991006, 0.121251695, 0.055173215, 0.033411242, 0.030682102, -0.11409857, 0.08219462, -0.05190425, -0.093327224, -0.10840148, 0.17788562, 0.18995473, 0.15712348, 0.18956687, 0.07910766, -0.21585941, -0.19349161, -0.4541271, 0.029547231, 0.09833411, -0.035852876, 0.0716314, 
-0.04646202, -0.323834, 0.14339583, 0.06048677, -0.00090738107, -0.22286543, 0.1733458, -0.25002286, -0.090343386, -0.13571076, 0.049172606, -0.119769074, 0.017238593, -0.12395557, 0.08604269, 0.21017103, 0.03615997, 0.0764998, -0.026096283, -0.03690605, -0.079654686, 0.034425408, 0.13159822, 0.012100002, 0.09162711, 0.19636227, -0.023078473, -0.24341482, 0.09206174, 0.21747053, 0.013540271, 0.12340022, 
0.10402268, -0.20491816, 0.10138894, 0.14294004, -0.14111888, -0.013329395, 0.26902315, -0.2883932, -0.0396159, -0.05451977, -0.058310412, -0.17568788, 0.000572581, -0.05989235, 0.20274885, 0.26342094, 0.048173472, 0.1706997, 0.19385377, -0.21804728, 0.10118666, 0.057785828, 0.29248586, -0.08199337, 0.17837194, 0.048970994, -0.19592202, -0.4647981, 0.11139994, 0.1423464, -0.020178514, -0.05669952, 
0.25891674, -0.35602972, -0.09175549, 0.08901016, -0.120038085, 0.021228462, 0.01752362, -0.06599002, 0.097912595, 0.06432752, -0.020118553, -0.05626333, 0.050734524, 0.030439515, 0.15174598, -0.008141244, -0.051317405, 0.10323175, 0.052464038, -0.28626204, 0.07715606, 0.02882847, 0.010465088, 0.090454675, 0.005432492, -0.12669164, 0.0007925061, -0.40803513, 0.10221781, 0.04832589, -0.10279642, -0.055876363, 
-0.063133925, 0.025044616, 0.035704818, -0.19563143, 0.09323773, 0.05151664, -0.058013894, -0.008674403, -0.08565961, 0.045871846, -0.098007984, 0.01461681, 0.059983462, -0.1881456, 0.13932778, -0.06269962, -0.021386284, 0.025850229, 0.23564868, -0.015095002, 0.066517115, -0.12846464, -0.14234868, -0.058278434, 0.12503336, 0.008857043, 0.25594932, 0.35822564, -0.11141169, -0.19527444, -0.13536264, -0.09970243, 
-0.10490757, 0.1429194, 0.15386651, -0.19677594, 0.20819539, 0.059905034, -0.26935786, 0.06766993, 0.033459395, 0.14237735, -0.14284675, 0.2228483, 0.003045752, -0.13820395, 0.0063449508, -0.13162705, -0.028622514, 0.16623518, 0.22144388, 0.23474762, -0.2582259, 0.08513566, -0.23610164, 0.0042884476, 0.13915177, -0.12088432, 0.19246268, 0.37502542, 0.013868203, -0.067939885, 0.02047445, -0.20101868, 
0.017908297, 0.17619762, 0.089178756, -0.22075179, 0.009081165, 0.06802373, -0.15789764, -0.1336754, -0.07632054, 0.042806946, -0.21134618, 0.05701628, -0.044804085, -0.061350938, -0.05622832, -0.015338491, -0.09085308, 0.16721839, 0.15866536, 0.16912608, -0.19123125, 0.21386777, -0.05459403, -0.06465746, 0.12714261, -0.010794753, 0.13590744, 0.18654309, -0.021233046, 0.03564435, 0.09600936, -0.029079704, 
-0.14730364, 0.11207035, 0.038199395, 0.048573148, -0.02445439, 0.18193462, 0.07364916, 0.07383959, -0.0974664, 0.0053603235, -0.11206244, 0.12134377, -0.028389355, -0.04529375, -0.0073425947, -0.16516122, -0.027248897, 0.09625871, -0.17222846, 0.042568397, 0.08478536, 0.12875617, 0.07053104, -0.076894745, 0.069018126, -0.063158795, 0.062060717, -0.61325395, -0.07094245, -0.19370566, -0.13787419, 0.055332478, 
0.012188225, -0.00945584, 0.008057094, -0.00380627, 0.084606886, 0.15920687, -0.07933803, -0.004321174, 0.06242279, 0.021208705, -0.1603017, 0.025362967, -0.11087643, 0.003205134, 0.0063470076, -0.12905462, 0.0412499, 0.028498786, -0.091051616, -0.040423296, 0.026453767, 0.16699183, 0.06675751, -0.08333694, -0.058581155, 0.116225764, 0.0060639, -0.8731816, 0.021018464, -0.12882166, -0.1953835, 0.054357607, 
0.12899297, -0.15121499, 0.013455971, 0.17834894, 0.03653896, -0.02572475, -0.0075101927, -0.17563121, 0.16678077, 0.04359428, -0.16417544, -0.19476083, -0.07404207, -0.08214195, -0.10826245, -0.13452347, 0.05084383, 0.21313736, -0.13058108, -0.16548237, -0.06622652, 0.20196187, 0.07879586, -0.07029864, -0.016202375, 0.07688276, -0.19497377, -0.812163, 0.046549924, -0.096149184, -0.060137697, -0.03803781, 
0.073299445, 0.0788499, 0.065375045, 0.115407415, -0.028191067, 0.19476266, -0.12684806, -0.08253949, -0.032369565, -0.056261487, 0.07818272, 0.07489223, -0.1627175, 0.040061038, 0.04457434, 0.15476234, -0.09042852, -0.04426714, 0.05666806, -0.08178354, -0.10948593, 0.06731632, -0.087327205, -0.13839626, 0.18066896, 0.03366355, -0.03599043, 0.22080769, 0.014630006, 0.0021301832, -0.12799142, -0.095768586, 
0.19255064, 0.0075941533, 0.015722446, 0.06874036, 0.034061164, 0.03123209, 0.15440236, -0.024862424, -0.011164476, -0.020174652, 0.20342447, 0.04465252, 0.15096444, -0.12700944, 0.3053538, 0.4194482, -0.04952906, -0.08248173, 0.025060305, -0.1652779, 0.20124455, -0.038068928, 0.13150665, -0.25164822, -0.08228819, -0.20480654, -0.0065083643, 0.2756406, 0.054268576, 0.19587027, -0.110873125, 0.2020347, 
-0.0082611935, -0.14069493, 0.02405031, -0.013826511, 0.022337412, 0.1611554, 0.105371304, -0.007905863, -0.012438339, -0.03265043, 0.056560505, -0.029914945, 0.19543353, -0.053792525, 0.0803238, 0.14602067, 0.16685478, -0.06313704, -0.013648634, -0.15424289, 0.20862713, -0.026984137, 0.08019746, -0.088410616, 0.026682645, -0.24976313, 0.097117335, 0.13934469, -0.037668444, 0.10945181, -0.17301856, 0.11394291, 
-0.017469032, -0.29809937, -0.10220292, 0.0052711926, -0.053097107, 0.087228425, 0.18299647, -0.21452546, -0.028453903, -0.028810216, 0.0019903916, -0.2407643, 0.10667178, -0.018898176, 0.15535665, 0.040412493, 0.06752966, -0.08673894, -0.36730406, -0.431015, 0.3001051, 0.095923945, 0.121129334, -0.175048, 0.028218845, -0.08980135, 0.12702973, -0.11825198, 0.034604523, -0.02915467, -0.039705567, 0.16594784, 
0.16764577, -0.24913791, -0.109151825, -0.02477218, 0.07186532, 0.035655357, -0.030868124, -0.09386291, 0.032582592, 0.02470204, -0.069342405, -0.023263969, 0.105759665, 0.022550996, 0.08088559, -0.042245694, 0.052736275, -0.098104395, -0.4889049, -0.37886256, 0.2770947, 0.19886647, -0.13893488, 0.10147184, 0.08977197, -0.07937076, 0.18971565, -0.011450196, -0.008667797, -0.026418332, -0.1711038, 0.017005363, 
0.17327559, -0.028274154, -0.007897625, -0.038689367, 0.1623667, 0.039015476, -0.036875203, 0.08117882, 0.11613847, 0.18004754, -0.16895708, 0.031473875, 0.1623044, -0.12153475, 0.12615393, 0.051132463, 0.11858362, 0.056122843, -0.32958174, -0.16687, -0.12684959, 0.1799103, -0.07799756, 0.15367553, 0.13877481, -0.024154497, -0.060620025, -0.092488594, 0.023295851, -0.14482929, 0.0361581, -0.1679985, 
0.0825856, -0.02640989, -0.2708371, 0.019195402, 0.059397433, 0.1870429, -0.059382852, 0.14220244, -0.17609134, -0.038595453, -0.04660434, -0.086737305, 0.14900188, 0.0056769797, 0.020927908, 0.027466409, 0.117134735, -0.08786552, -0.14160731, -0.041385245, -0.056773517, -0.2559118, -0.15792193, 0.2507586, -0.45833272, -0.19919512, 0.19447511, -0.12526254, 0.04065351, -0.10469356, 0.050583787, -0.14092194, 
0.06350193, -0.014006914, -0.28068137, -0.093783736, -0.011306585, -0.08802329, 0.048272777, 0.14496781, -0.11802113, 0.14086863, -0.28814128, 0.09135302, -0.018433142, 0.053474817, -0.0026052974, 0.120769024, -0.025842132, -0.13551834, 0.068456225, -0.004445805, -0.07904557, -0.4357036, -0.26742488, 0.20260456, -0.46586165, 0.18810163, 0.36302483, -0.30308378, 0.094850875, -0.15409656, 0.24341369, -0.35825944, 
0.0026750811, 0.038333163, 0.093629554, -0.0030503357, -0.1160329, 0.08180287, 0.019071503, 0.13586122, -0.13006096, 0.1772481, -0.25871342, 0.042184208, -0.104714714, 0.004838634, 0.06388346, 0.117812134, -0.003946523, -0.15644759, 0.012312587, -0.058745664, 0.010382589, -0.3217509, -0.2533371, -0.01865207, -0.41923052, 0.114244066, 0.17669371, -0.46316567, 0.10989041, -0.01578237, 0.24587344, -0.35218483, 
0.20500249, 0.19526108, 0.007656523, -0.13902913, 0.064453386, 0.22946164, -0.22141135, 0.068381265, 0.11770706, 0.08016361, -0.18780196, 0.25205332, -0.08363805, 0.12976983, 0.0008738616, -0.12939487, -0.17458029, 0.053995285, 0.20866388, -0.022829333, -0.03071374, 0.30849323, -0.16732363, -0.05561034, -0.0052933916, 0.19442682, -0.026340647, -0.07196077, 0.023525778, -0.008152178, -0.03077294, -0.13763912, 
0.11154702, -0.0029258358, 0.25142974, 0.105849795, 0.021989891, 0.251732, 0.046607174, -0.08025777, -0.00275153, -0.014557132, -0.17678623, -0.010023236, -0.11647309, -0.030387305, 0.102016, 0.13135262, -0.22427624, 0.027096622, 0.13444872, 0.084629714, 0.011184544, 0.13068794, 0.02911016, -0.12419772, 0.046275128, 0.22240014, -0.17704289, -0.026359165, 0.030472495, -0.07764238, 0.08139381, -0.15890037, 
-0.03361087, -0.149662, 0.10114568, 0.030927852, 0.026528465, -0.0101215895, 0.022341967, 0.055991817, -0.021339577, -0.0341913, -0.11561875, -0.19351876, -0.1220697, -0.12965046, 0.0050753118, 0.18133423, -0.24294658, -0.1439177, 0.1316274, -0.063341014, 0.14395595, 0.03923866, 0.12056072, -0.3199858, 0.080505215, 0.14769644, -0.19387048, 0.032946765, -0.025971679, -0.14784846, -0.118818164, -0.11002404, 
0.07869485, 0.042298894, -0.06411674, -0.16238421, -0.013648848, -0.049253713, -0.039652888, -0.05755776, -0.028046846, 0.027833525, -0.47231737, -0.02715625, -0.098147094, -0.089360185, -0.20557608, -0.1415731, 0.053605177, -0.18179245, 0.13885379, -0.042011444, -0.18465723, -0.19414228, 0.03436084, -0.022565711, 0.05576993, -0.17019117, -0.03785168, -0.0039731953, -0.10475897, 0.12181326, -0.017599665, -0.36960998, 
0.06405246, 0.16505758, -0.20061623, -0.11971753, -0.055484474, 0.08324972, -0.24785481, -0.092043735, 0.09057854, 0.101768054, -0.37676245, 0.17488247, 0.07077303, 0.10893138, -0.45428392, -0.6566489, -0.0026496777, 0.136076, 0.36206135, 0.10919252, -0.32868704, 0.029261991, 0.025027862, -0.1119931, 0.07666693, 0.013177012, 0.07330388, -0.0065865256, -0.124036714, 0.015945485, 0.18406893, -0.25182435, 
-0.04552581, 0.15196007, -0.057537243, -0.048008636, -0.027848938, 0.058249645, -0.14210756, -0.040653266, 0.15099314, 0.047574326, -0.24037912, 0.21248274, -0.051175922, 0.1429852, -0.23749916, -0.36997527, -0.12654123, 0.08780651, 0.13120927, 0.096086815, -0.39309138, 0.06279035, -0.12791666, -0.09776459, -0.03245597, 0.027431734, -0.084312305, -0.021715524, -0.017459864, 0.22110441, -0.04501331, -0.3274106, 
-0.058634266, -0.08721666, -0.0722309, 0.1430935, -0.042322475, -0.2216284, -0.0754077, -0.12890278, 0.086933926, 0.13175683, 0.1185436, -0.26069835, -0.05173836, -0.27017397, -0.0010242352, -0.0052592293, -0.08612491, -0.25870955, 0.09519771, -0.12580518, 0.0015451477, 0.02457027, -0.15787508, -0.28154856, 0.06853377, 0.14211212, 0.35511816, 0.51973027, 0.15760073, -0.12239327, -0.23586507, -0.08765074, 
0.17587811, -0.20278667, -0.013114959, 0.12741372, -0.18000965, -0.15553597, 0.06125703, -0.17439982, -0.1312411, 0.10344176, -0.005914192, -0.59573275, -0.109087355, -0.37681025, -0.019490277, 0.2099367, -0.12030263, -0.30959395, 0.1113615, -0.18924735, 0.021420555, -0.2470546, -0.13631791, -0.45913294, 0.052792486, -0.011024854, 0.33020228, 0.33050478, -0.06031993, -0.074690014, -0.21103697, 0.057670783, 
0.15173043, -0.4193194, -0.24508993, 0.020894747, -0.016284946, -0.3212038, 0.14543153, -0.18055165, -0.16797914, 0.13304614, 0.0126547, -0.4683623, -0.0354754, -0.27993613, 0.12271678, 0.20247588, -0.036895048, -0.28411368, 0.11880173, -0.2639987, 0.056142725, -0.20114395, -0.16829033, -0.4177213, 0.090272225, 0.10439216, 0.10232215, 0.40434006, 0.24002415, -0.01786299, -0.28966224, 0.16681822, 
};

const float MagnetometetNetworkFloat_layer_6_bias[] = {
-0.07182402, -0.14036499, 0.03733829, 0.07578253, -0.04528942, -0.16578153, 0.12624627, 0.13612112, -0.2775343, 0.08135631, -0.010547504, -0.17684004, -0.061442424, -0.04037979, -0.05640243, 0.12082433, -0.1441999, -0.3324617, 0.04425128, 0.033693254, -0.002885169, 0.037895318, -0.07787995, -0.04687415, -0.060746055, 0.16263306, -0.055303603, 0.009687147, -0.006406476, -0.011067841, 0.11799685, 0.11130084, };


const float MagnetometetNetworkFloat_layer_9_weights[] = {
0.08813735, 0.042810243, -0.067879476, -0.025358003, -0.23091353, -0.0138811385, 0.07507437, -0.25950122, -0.12510033, -0.17777433, -0.37627372, 0.05980562, 0.266764, -0.05381702, 0.19690381, 0.079204835, -0.27898026, -0.015132828, 0.1706344, 0.09146292, 0.032431558, 0.105605856, -0.023998952, -0.00014961521, -0.14979641, -0.07142225, -0.057388276, 0.18688732, -0.08063557, -0.2484461, -0.06262544, 0.124719, 
0.0133239, -0.011659355, -0.006455318, 0.044587567, -0.06762648, -0.037143923, 0.13126294, -0.17676198, -0.07542788, -0.032472275, -0.1672992, -0.036584802, -0.06972663, 0.11482931, -0.053572796, 0.038431805, -0.30011103, -0.10341985, -0.015852569, 0.012110908, 0.0855847, 0.08156899, -0.27715027, -0.31310776, 0.016265536, -0.021763092, -0.28135288, -0.1082575, -0.039137308, -0.0773848, 0.07945948, -0.0137689635, 
-0.1805004, -0.15195481, 0.10669422, -0.010163016, 0.15806517, 0.020754706, 0.08809935, -0.11634265, 0.1556791, 0.17204943, 0.07535424, -0.042865198, -0.18290448, 0.14573058, -0.11647835, -0.052925915, -0.49427056, -0.09277372, -0.11807858, -0.10055179, 0.06637717, -0.00290161, -0.07250704, -0.15999652, 0.23810638, -0.010199405, -0.45706177, -0.3945982, -0.024881719, 0.07963135, 0.12011343, -0.26324576, 
-0.22111072, -0.36573097, 0.033522002, -0.028865412, -0.08920381, 0.2119557, -0.07776674, 0.10868302, 0.024955504, -0.08200782, -0.14437386, -0.035956375, 0.05571244, 0.094022565, -0.08340078, 0.030692684, 0.11701799, -0.12846981, 0.11799269, -0.043638207, 0.054478977, -0.16726254, 0.1944003, -0.1214487, -0.015270434, -0.1379745, 0.096683614, 0.03050649, -0.11462452, 0.023288077, -0.029066548, -0.15888342, 
-0.32436988, -0.38350862, 0.0567124, -0.03386314, 0.00558339, 0.17958395, -0.15557618, 0.15515867, 0.08537814, 0.025882198, -0.031913683, 0.069511436, 0.12806444, 0.19120517, 0.0862385, 0.00573544, 0.09035021, -0.11726578, 0.16135858, -0.039153285, 0.0764669, -0.093804024, 0.19868545, -0.09971498, 0.024016194, -0.11598703, 0.061372403, 0.1032943, -0.09712387, 0.0731081, -0.12430217, -0.15693694, 
-0.19639452, -0.12081874, 0.06344457, 0.059177823, 0.0526686, 0.13087676, -0.19868101, 0.06529845, 0.15939829, 0.057567995, 0.019194039, 0.059119474, 0.039601486, 0.20246743, 0.1943747, 0.02220243, 0.005893825, 0.0020286636, 0.047917653, -0.09117641, 0.121108055, 0.08408792, 0.1438505, -0.090150505, 0.02044393, -0.096880645, 0.048717204, 0.041662917, 0.12187993, 0.12835234, -0.12022318, -0.013521651, 
-0.4204655, 0.071161255, 0.08454831, 0.0139392065, 0.04242069, -0.029938836, 0.018407151, -0.027294891, -0.09055198, -0.033396628, -0.03592547, 0.012173639, -0.31679186, 0.023394521, 0.0017976296, -0.1690573, -0.24651946, -0.020033477, -0.10829193, -0.006083383, 0.14900294, -0.017426142, -0.30206668, -0.255176, 0.011541228, -0.005271315, -0.45196643, -0.0052962475, 0.110492066, -0.013631159, 0.055876527, -0.043326546, 
-0.5171385, 0.09161137, 0.0754296, 0.13224362, -0.019165881, -0.013732188, 0.010399985, 0.016536554, -0.1685104, 0.06849909, 0.030370165, 0.15967058, -0.47300425, -0.07023434, 0.11163927, -0.43781272, -0.01647792, 0.025923135, 0.05293594, -0.28742218, 0.13276349, 0.05805973, -0.40661976, -0.32771203, 0.038601052, 0.07343652, -0.72494817, 0.058314115, -0.051043447, -0.02757142, 0.08284952, -0.059410855, 
-0.39124715, 0.086146206, 0.008093722, 0.016871808, 0.05050279, -0.055046886, -0.15451074, 0.055517823, -0.00839711, 0.052792985, 0.062666066, 0.091439396, -0.52341527, 0.07428065, 0.14309601, -0.08196416, 0.20467481, -0.12698804, 0.0024757264, -0.2399024, -0.051725082, 0.11304964, -0.19205977, 0.036215767, 0.04235877, 0.15224916, -0.24887972, -0.07523704, -0.10316341, -0.15537031, 0.045802142, -0.105444364, 
-0.05729631, -0.123862095, -0.007828667, -0.22944619, 0.08861418, -0.32986215, -0.009062226, 0.082865015, 0.06560016, 0.19675513, 0.15806139, 0.01101183, -0.053625062, 0.015120229, 0.022997875, -0.052431703, -0.09848454, -0.0570424, 0.10219999, -0.0041045034, -0.010480794, -0.06749846, -0.18356556, -0.035668675, 0.08187304, -0.082171135, -0.069224365, -0.28784725, -0.096434675, 0.06821235, -0.15362789, 0.07624873, 
0.00017440421, 7.7986246e-05, -0.07912324, -0.1172644, 0.16682364, -0.33656913, -0.28923017, 0.122617245, 0.09030264, -0.051983252, -0.023687316, 0.0653657, 0.04269697, -0.14862503, 0.021837795, 0.103474006, 0.010768467, -0.068727024, 0.008357603, 0.092401996, 0.0642081, -0.13601294, -0.035294782, 0.03373596, 0.09331832, -0.20048417, 0.114160255, -0.16666877, -0.07193269, 0.06776603, -0.28300393, 0.17595652, 
0.045130122, 0.0148830665, -0.19134484, 0.004537024, -0.028868025, -0.02672798, -0.38144797, 0.090891354, 0.0598271, -0.018080331, -0.11064776, 0.017386526, 0.087077305, 0.04848929, 0.086072326, 0.13371804, 0.043113124, 0.19478673, 0.112995364, 0.19891721, -0.0634194, 0.06847371, -0.03702598, 0.09326366, 0.05557271, -0.3329557, 0.11083327, -0.007933548, 0.047097046, -0.17261207, -0.29524288, 0.0076015717, 
0.01914839, -0.24969746, -0.032697972, 0.0058436873, 0.013222878, -0.10442297, -0.19902603, 0.118652664, 0.099395595, -0.076046474, -0.08819502, -0.0033209773, 0.06426123, -0.032722224, 0.06406711, 0.09350222, 0.12769322, -0.18803026, -0.14595015, -0.04165167, 0.04893199, -0.36355454, 0.1323343, 0.057017352, 0.019716863, -0.015364825, 0.075718, 0.032311298, -0.53685874, -0.017290203, 0.008478116, 0.05943871, 
-0.053197358, -0.22441114, 0.046994302, 0.14372566, 0.0012224432, -0.050945185, -0.33999002, 0.10766469, -0.088905886, -0.050907753, -0.08855309, 0.18117632, 0.076063655, 0.025962168, 0.11309586, 0.005988296, -0.015533429, -0.13932715, -0.10652056, 0.0120279165, 0.3009142, -0.31344074, 0.060213115, 0.031118182, 0.049793966, -0.035486605, 0.0893723, 0.111639306, -0.3877639, -0.09121687, -0.13443099, 0.07686875, 
-0.03549086, -0.18956682, 0.23070289, 0.15697703, -0.06574864, -0.08544088, -0.28146264, 0.045220558, -0.061009105, 0.065042704, -0.01996435, 0.34445196, -0.032874893, -0.019863363, 0.1740639, -0.14677083, -0.03743664, 0.10028059, -0.14793837, -0.05908251, 0.14705513, 0.009793976, -0.032053158, -0.0274815, 0.042834077, -0.07517862, -0.13640608, 0.024548378, -0.040025175, -0.058272682, -0.14286005, -0.004981975, 
0.13786148, 0.10798301, 0.157651, 0.061475232, -0.04942701, -0.034956597, 0.087965816, -0.16297162, -0.044964284, 0.05052206, -0.08218195, -0.060423367, 0.14802325, 0.03639066, 0.1673656, -0.39443424, -0.15091309, -0.05249052, -0.046335474, -0.092713684, 0.06933449, 0.107868, -0.15818416, -0.22226338, 0.027673742, -0.025014747, -0.23160365, 0.052143365, -0.17834121, 0.06476907, -0.057529677, -0.0037811934, 
-0.033307955, 0.007141092, -0.016230315, -0.02920275, 0.06261269, 0.07053148, 0.104794405, -0.20446326, -0.1082509, 0.020431254, 0.098178595, 0.07535749, 0.0214289, 0.021239083, 0.24487655, -0.3933327, 0.07415532, -0.06368605, -0.076415285, -0.487657, 0.010378027, 0.08714457, -0.1199926, -0.23873946, 0.0037701416, 0.025147228, -0.324861, -0.088913776, -0.10995404, 0.15157399, 0.08017292, 0.19657513, 
-0.016666371, -0.11834839, -0.027882904, -0.014368161, 0.0015562888, 0.10584403, -0.01658357, -0.058956765, -0.13669565, -0.021456365, 0.14483081, -0.06485722, -0.112785555, -0.0794714, 0.06654349, 0.05690084, 0.34265825, -0.17897402, 0.040070843, -0.1331431, -0.08388736, -0.1442242, 0.1781543, -0.0025751386, 0.08681238, 0.05327482, -0.009913047, -0.20084777, -0.01926636, 0.12828968, 0.02193763, 0.2338921, 
-0.11717825, -0.04078063, -0.04265759, 0.038050376, 0.020927068, -0.11830745, -0.03127691, 0.11610814, -0.06695321, -0.00781516, 0.07016855, -0.0021240932, 0.008988808, -0.08125005, -0.1360924, -0.0071353707, 0.053944044, -0.06110363, -0.14458118, 0.01391072, 0.053696204, -0.14952366, -0.081729464, -0.018226631, 0.009822032, 0.05903697, 0.06375928, -0.028180439, -0.078291945, 0.054988086, 0.0009038543, 0.09897679, 
0.043637455, 0.083138, 0.013641039, -0.0810308, -0.077779, 0.080725856, -0.0026788956, -0.027997091, -0.031453215, -0.033046708, 0.0006828762, 0.10584752, 0.12845245, -0.038793348, -0.094960555, -0.10637672, -0.07568241, 0.03877533, -0.060311776, 0.05316574, 0.15749311, 0.07600033, -0.19140308, 0.023316406, -0.025406672, -0.024497902, 0.07741743, 0.11409238, 0.0004897447, 0.0788773, 0.041078534, -0.11935749, 
0.0786079, 0.08224544, -0.01971775, -0.025166932, -0.07892859, 0.09614877, 0.057020828, -0.06852347, 0.012052077, -0.07727518, -0.03346764, 0.108404025, 0.18164365, 0.14923677, 0.16795869, -0.23948607, -0.19517869, 0.13288634, -0.018319348, 0.11754504, 0.2595145, 0.19410467, -0.31027544, -0.20659816, 0.0069694878, -0.0467208, -0.031277537, 0.06406567, 0.08755254, 0.017352283, -0.02164817, -0.11455489, 
0.081562676, 0.051166557, -0.18247525, 0.023112603, -0.10123135, 0.120023556, -0.032146145, -0.019968206, 0.09354516, 0.050315652, -0.10891705, -0.0074661784, 0.12136037, 0.032445326, 0.004984088, -0.12929164, -0.5380349, 0.12316955, 0.044618927, -0.019872086, -0.022248304, 0.031093955, -0.11384105, -0.118702464, 0.027716588, 0.0142575, -0.2342129, 0.13609922, 0.08576672, -0.023445785, -0.03845155, 0.03509459, 
-0.042349905, -0.08356806, -0.20616798, 0.077165134, -0.04955148, 0.03472726, -0.056610398, 0.06791339, 0.07088353, 0.06832629, -0.04210481, 0.07677557, -0.10530869, -0.0798989, -0.2339792, -0.2316166, -0.6244607, -0.09912392, 0.09335778, -0.052717708, -0.15937775, -0.03903348, 0.002023189, -0.050575536, 0.07546897, 0.10707307, -0.24505724, -0.0026780553, 0.003617908, 0.11423565, 0.019905234, 0.035445742, 
-0.0885339, -0.15996237, 0.064821295, 0.13306756, -0.052241247, -0.045009095, 0.014495603, 0.1473781, -0.123514466, 0.058201484, 0.053665113, -0.031843126, -0.025709713, -0.072596505, -0.27730253, -0.020970933, -0.3635456, -0.1939687, -0.03218563, 0.08439085, -0.014647384, -0.057388484, 0.120995745, 0.07775786, -0.06763467, 0.07102314, -0.13200186, -0.06585448, -0.035367064, 0.07173742, -0.07053793, 0.15487428, 
-0.02888299, 0.037777916, -0.006470755, 0.07173857, -0.19810866, -0.09938175, -0.5933596, 0.073073074, -0.01760232, -0.083920166, -0.1850381, 0.13809067, 0.0123597365, 0.18302776, 0.008250574, -0.08898723, 0.048324794, -0.12731677, 0.026716435, 0.09417856, 0.12375513, -0.037670836, -0.07432468, -0.09512442, -0.08612026, -0.025774376, 0.03758531, 0.080106586, -0.1747861, 0.12123502, -0.2895277, 0.12351979, 
0.081190646, -0.10616624, 0.07432821, -0.006704748, -0.06777233, -0.12681963, -0.50782686, 0.11259222, -0.027801905, -0.06449351, -0.253654, 0.11634481, 0.065039426, 0.21800564, 0.041682642, -0.042013176, 0.008426148, -0.15802237, 0.0926024, 0.047089655, 0.080674276, -0.024156997, -0.18135436, -0.0052226093, 0.04453056, -0.25973877, -0.04482517, 0.032831214, -0.09879849, 0.090568826, -0.23308983, 0.15264302, 
0.10338697, 0.03195765, 0.20338205, -0.09605854, -0.06788655, -0.16287799, -0.28402126, 0.102055386, 0.035695836, 0.0026169692, -0.20668595, -0.042259526, 0.032700464, 0.03136765, 0.05919969, -0.045384336, -0.056007076, -0.15437324, 0.007065427, 0.077992626, -0.028115284, 0.073898084, -0.10979999, 0.023350282, 0.14139712, -0.26550215, 0.078957945, -0.0393318, 0.08202914, 0.11119083, -0.060246516, 0.23237468, 
0.0525752, 0.06723085, 0.02395373, -0.25974005, -0.015647482, -0.042408384, -0.08624952, -0.11030606, 0.13695112, -0.076880686, 0.06539374, 0.09112322, -0.02294656, -0.20473094, 0.25382528, -0.1409285, 0.14042091, -0.09319874, 0.1306096, -0.07190323, -0.015661644, 0.07465061, -0.23651412, -0.07349551, 0.041780688, 0.09113994, 0.015013463, 0.06445205, -0.04974574, 0.053432867, -0.033957254, -0.07197389, 
-0.011467434, 0.06592671, -0.06839881, -0.439384, -0.018695097, -0.13625689, 0.0023207122, -0.21480559, 0.20190689, -0.1106162, 0.006525468, 0.14144649, 0.080420636, -0.12382901, 0.33925584, -0.1491796, 0.096695855, 0.10242809, 0.12398964, -0.21385486, -0.016014928, 0.1570559, -0.22216764, -0.09912835, 0.091226175, 0.047450516, -0.06413895, -0.09823925, -0.027342927, 0.13246813, 0.025520539, -0.26194975, 
-0.06803756, -0.069975674, 0.07569449, -0.24150859, 0.04536648, -0.12281031, 0.09218461, -0.17408682, 0.04418558, 0.005244039, -0.08657999, -0.12093641, 0.036531862, -0.23197329, 0.18387713, -0.050317235, -0.060079977, -0.039948955, 0.13377386, -0.4127889, 0.0014255383, 0.11919315, -0.17628247, -0.045531984, -0.06032794, -0.051305052, -0.16653532, -0.095564306, 0.067518935, 0.20090853, 0.0013401058, -0.10638013, 
-0.14966995, -0.19738884, -0.02362227, 0.14432377, 0.16807538, 0.11254462, 0.11652364, 0.04369833, -0.04065168, 0.14436924, 0.121287264, -0.11129616, -0.2482896, 0.116500475, -0.006092384, -0.021268953, -0.12077687, -0.08663008, -0.07747462, -0.10706028, 0.037996452, -0.033262715, 0.054471347, -0.16075273, 0.09536004, 0.032059405, -0.34044564, -0.2829072, 0.17636782, -0.10616639, 0.08331058, -0.039823033, 
0.062218416, -0.081274934, -0.20832148, -0.014082735, -0.044653792, 0.122525, 0.1548222, -0.1214753, 0.07318584, 0.041312072, -0.10374279, -0.29864016, -0.114601746, -0.10052579, -0.038907923, 0.06847456, -0.061343003, 0.03854037, 0.07518178, -0.2118624, -0.03839367, 0.11589745, 0.08601337, 0.04297463, 0.045262396, 0.16289558, -0.17901903, -0.17631832, 0.08602345, 0.13535266, -0.06901105, 0.09768689, 
0.23534796, 0.065749966, -0.4766266, -0.05330638, -0.10188358, 0.06562331, 0.060058173, -0.08453855, 0.09714339, -0.3278448, -0.10687761, -0.31442514, 0.13261613, -0.26659772, -0.034515925, 0.0707159, 0.12108497, 0.09070462, 0.16512214, 0.0500784, -0.05303693, 0.0072871484, 0.11921325, 0.07319634, -0.079496786, 0.050632577, 0.09575252, 0.078772634, -0.02586136, 0.011102952, -0.18601273, -0.032795038, 
-0.03459292, 0.03035023, -0.24154724, 0.16820943, -0.26013094, -0.017610291, -0.123845465, -0.23938748, 0.037898604, -0.19289885, -0.22813083, 0.10800313, 0.07421643, 0.021091351, 0.08546756, 0.033609327, 0.061719324, 0.024763573, 0.13658139, 0.03452709, 0.19796586, -0.18679516, 0.1334728, -0.029117534, 0.029420814, -0.044312898, -0.028944416, 0.0398385, -0.08274846, -0.13486494, 0.077050455, 0.008886569, 
-0.06431639, 0.09423403, -0.13245034, -0.056649808, -0.0772125, 0.06531395, -0.1473596, -0.25417218, 0.1328313, -0.17946672, 0.03491779, 0.095826626, 0.015444381, 0.065428644, 0.031760737, -0.040149488, -0.0049008536, 0.10301496, 0.1862781, -0.03342389, 0.39255822, -0.13936985, -0.07137343, -0.073826686, 0.07493442, -0.06768051, -0.035234544, -0.009547034, -0.06274009, 0.06198479, 0.07805265, 0.1313696, 
-0.096316844, 0.088859774, 0.047923364, -0.060791533, 0.015421344, -0.10106697, -0.15366986, -0.321882, 0.09286286, -0.17466453, 0.038635146, 0.07701571, -0.08789504, -0.034439288, -0.017692367, -0.08924213, -0.10921359, 0.0093156425, 0.24654222, -0.032991495, 0.2043153, -0.11312753, -0.2599602, 0.10391607, 0.0027183415, 0.027377969, -0.05848665, -0.016277134, 0.030628126, 0.058434043, 0.051048025, 0.039986916, 
-0.17245165, 0.0037526716, -0.14604262, -0.002712982, -0.015652763, -0.35430738, -0.26041177, 0.035310104, -0.003479487, 0.14164625, 0.09852577, 0.08721619, -0.19193427, 0.065953024, 0.1576769, 0.038700182, -0.08476651, -0.45059457, -0.18637699, -0.0019394095, -0.029375441, -0.50323826, 0.10369435, 0.04419297, -0.09630809, 0.17416985, 0.018189365, -0.02812192, -0.22683802, 0.039566986, -0.18010902, 0.019994123, 
-0.12764497, -0.023103805, -0.15404056, -0.0041178805, 0.08984323, -0.3611492, -0.67034525, 0.010135441, -0.05252913, 0.04126541, 0.025717841, 0.0010007723, -0.22368579, 0.047818802, 0.072389774, 0.20142682, -0.028184272, -0.30762723, -0.24289867, 0.0058557275, -0.111645736, -0.5386448, 0.1309893, 0.15406252, -0.064877875, 0.17099461, 0.12619664, -0.11450418, 0.025527932, -0.07063835, -0.15873294, -0.048350364, 
0.01361142, 0.01004655, -0.16866787, -0.07786303, 0.11303965, -0.2257522, -0.346661, -0.10144036, 0.00019045381, 0.053064227, -0.022247551, 0.046249058, -0.1417288, 0.05212207, 0.08999644, 0.15208669, 0.043458287, -0.29797348, -0.26142293, 0.057176992, -0.05860543, -0.5698457, -0.03255413, 0.125977, -0.12778887, 0.14802656, 0.056676243, -0.09174883, -0.37617242, -0.064926766, -0.015145578, 0.08848151, 
-0.17536727, -0.050862707, -0.029214507, -0.22232506, 0.018677969, -0.15578966, -0.08010039, 0.030432673, -0.023137497, 0.20068249, 0.059228003, 0.037565533, -0.15577659, -0.010792352, -0.22974631, 0.003090879, 0.02437972, 0.004033266, -0.031046296, -0.2793517, 0.01624216, -0.100305356, -0.17485395, -0.004728656, -0.009753071, 0.0678708, -0.04574542, -0.060259074, 0.10379766, 0.022188282, -0.12230958, 0.17394541, 
-0.16924421, -0.09310926, -0.030256981, -0.4949349, 0.13504031, -0.17902577, -0.14645883, 0.032714386, -0.080205195, 0.12402485, 0.119030885, 0.11774303, -0.4406886, 0.030424163, -0.28491068, 0.042050306, 0.026676403, -0.03982627, 0.010728107, -0.2653909, -0.107925884, -0.014151928, -0.08570314, 0.1254548, 0.06558706, -0.058953136, 0.021989021, -0.14925173, -0.0350473, 0.046963625, -0.064800136, 0.052848723, 
0.03928454, -0.0107647795, 0.09621362, -0.41239682, -0.017420476, -0.1065315, 0.005518869, -0.121681504, 0.045424033, 0.13602008, 0.109377414, 0.079921894, -0.076615855, -0.030559722, -0.18655077, -0.06336798, -0.11851773, 0.008023965, 0.12183903, -0.20449217, 0.1248101, 0.13495745, -0.18866678, 0.060812626, 0.09019275, -0.015275599, -0.11686203, -0.051862977, -0.12745279, 0.19358791, -0.02837786, 0.050942723, 
0.034297813, 0.09406144, -0.043470893, -0.18397148, 0.13653255, -0.11778106, -0.13117154, 0.0194679, 0.10222706, -0.019807344, 0.17311011, 0.13026707, 0.1602262, 0.11849795, 0.12913093, -0.18686728, 0.11432568, 0.032264877, 0.0356835, -0.028700868, -0.021248516, 0.08195949, -0.0047134403, 0.054884378, -0.03164753, 0.025693493, 0.07722226, 0.11412384, -0.051837165, 0.06558112, -0.16458428, 0.07043516, 
0.085864946, 0.10506584, -0.022462377, -0.17955232, 0.08319321, -0.0486693, -0.07884565, -0.04044969, 0.03678063, 0.097740985, 0.15602736, 0.087564774, -0.014701189, 0.025501752, -0.06168494, -0.2055932, 0.15666775, 0.022516185, 0.040807933, -0.15734513, -0.103799835, 0.029819535, -0.069487624, 0.07126582, 0.040044624, -0.20408502, -0.0024752333, -0.012464756, -0.05412016, 0.19863228, -0.07654438, 0.092598505, 
0.016506944, 0.056361947, -0.07588241, -0.20939557, 0.076739945, 0.026350543, 0.023576802, -0.07075341, 0.034583528, 0.059307452, 0.17188135, 0.049014337, -0.13586122, 0.10143324, -0.08893611, -0.13484806, 0.057804976, 0.12163012, -0.10682746, -0.17315356, -0.10796198, -0.06051302, -0.2586565, 0.04383165, 0.11068515, -0.1516985, 0.006341809, -0.11796927, -0.02181041, 0.13063046, 0.018910632, 0.08056146, 
-0.11424542, -0.2202088, 0.04612083, -0.020253193, -0.17574224, -0.28351897, -0.36839432, 0.080360785, -0.1450236, 0.07908987, -0.046104576, 0.058111846, 0.03316912, 0.054157358, -0.46982747, 0.016799537, -0.032479916, -0.10276834, -0.04889481, 0.15872297, 0.2512953, 0.022515638, -0.13239433, -0.12343121, -0.09214503, -0.06554085, -0.053807527, 0.0418404, 0.07169254, -0.38126174, -0.09539371, -0.005558856, 
-0.17401448, -0.21386313, 0.030086305, 0.066432685, -0.1446239, -0.1638468, -0.20166625, 0.093878314, -0.049301047, -0.018717738, 0.10103273, 0.08954998, 0.059276138, -0.07585113, -0.41057009, 0.026776975, 0.0051066536, -0.0126148695, 0.11021451, 0.04943086, 0.29356307, 0.120450795, -0.17869468, -0.09705518, -0.0062593212, -0.11694058, -0.02543683, 0.007544231, 0.17203654, -0.25689775, -0.10806775, 0.05957116, 
-0.14834951, -0.14815927, 0.06301154, 0.108786784, -0.09842615, -0.57797277, -0.16903234, 0.1012135, 0.039186936, -0.02555328, 0.13182513, 0.09217525, -0.12895863, -0.18093224, -0.35877103, -0.1607685, -0.07765413, 0.032192774, 0.2499252, 0.028433908, 0.22525592, 0.0005630528, -0.16140717, -0.025761288, -0.034953758, 0.025768254, 0.03929556, -0.112971105, 0.039178323, 0.05945459, -0.039667744, 0.19242127, 
-0.044968907, 0.016486239, 0.055260498, 0.020121891, -0.13938908, 0.20138738, 0.1932515, -0.35340083, -0.07408642, -0.047995288, -0.04063471, 0.059447233, 0.06683066, 0.27011395, -0.018330114, -0.048863996, 0.058221683, -0.041449044, 0.0182285, 0.0401909, -0.13380289, 0.112798534, -0.10896229, -0.11074424, 0.044799015, 0.08028201, 0.038485058, -0.037091494, 0.1976646, 0.028039515, 0.1290304, -0.010013529, 
0.04083555, 0.07364878, -0.03345522, 0.111348145, -0.0517115, 0.09208515, 0.17005195, -0.4131314, -0.060395606, -0.078339495, -0.03252316, 0.09575457, 0.055600807, 0.03294885, 0.07111327, 0.069955185, 0.042969614, -0.0578353, -0.08126699, 0.12656726, -0.072090246, -0.031074494, -0.082606845, -0.13282888, 0.10877681, 0.08529288, -0.021590885, 0.058975488, 0.06626774, 0.005251372, 0.12878396, -0.091285534, 
-0.05036969, 0.0621344, -0.063676655, 0.09698656, -0.09131305, -0.051691514, -0.001601047, -0.3554324, -0.16350938, -0.14099398, 0.05598348, 0.035899453, 0.09982506, -0.1406134, -0.0675653, 0.07949257, 0.019399585, 0.07159592, -0.14289598, 0.1467158, -0.013045955, 0.05372179, 0.025177805, -0.07419134, -0.09637975, -0.020993324, 0.033743713, -0.038984746, -0.0567441, 0.0580874, -0.01684635, -0.13715963, 
-0.11009411, 0.060068972, 0.003323376, 0.04607261, 0.14542967, -0.4420314, -0.42300013, 0.06432658, 0.026298653, -0.11948221, 0.3139479, -0.017618155, -0.095695496, -0.25291893, -0.16004941, -0.06479437, 0.004175908, 0.0333279, -0.0071148374, 0.04898937, -0.090054795, -0.021943102, 0.13838547, 0.057939358, -0.20685433, 0.010610153, -0.0401468, -0.14866827, 0.04926679, 0.08700176, -0.30008292, 0.121749304, 
0.060842913, 0.037499506, -0.03026158, 0.082180455, -0.039906804, -0.29690325, -0.7129935, -0.014659063, 0.1397626, -0.10519142, 0.030911392, 0.014014559, -0.003998976, -0.13455573, -0.25814033, 0.018249694, -0.010185515, 0.005905139, 0.13634063, 0.11075747, -0.025598805, 0.07490626, 0.1053683, 0.13776031, -0.38479662, 0.0065446408, 0.14587061, -0.0031303235, -0.10662248, -0.03280012, -0.0819407, 0.051393252, 
0.07557332, 0.013743713, -0.1351824, 0.027057273, -0.17783515, 0.0013793769, -0.19765921, -0.04164545, 0.05471115, -0.08926677, -0.09162133, 0.010145272, 0.07403765, 0.055753183, -0.064728774, 0.0013901918, -0.020312995, 0.037694126, 0.17380272, 0.08893401, 0.07073383, 0.022016218, 0.03765712, 0.01618437, -0.3424672, 0.11080836, 0.042471267, 0.14268164, -0.0347746, -0.056523267, -0.08946321, 0.12602188, 
0.075426914, 0.14785896, 0.01986421, 0.04111241, -0.44670588, 0.0012125907, -0.009708185, 0.094813086, -0.13159704, -0.06097368, -0.26995695, 0.062057782, -0.019074878, -0.07067017, -0.15342855, 0.19432952, 0.1986742, 0.019060474, -0.0847379, 0.14836171, -0.11832872, -0.12031405, 0.13079526, 0.21245715, -0.14359283, -0.001430907, 0.18639348, 0.10198633, -0.00213182, -0.2166627, -0.11819813, 0.17124824, 
0.013121344, 0.09753845, 0.12208639, 0.041629862, -0.3236218, 0.10557905, 0.12731948, -0.10110254, -0.12018357, -0.08853129, -0.20104174, 0.041647304, 0.12758888, 0.06960957, 0.076511875, -0.043553177, -0.13244992, -0.056523442, 0.004208754, -0.05255952, -0.023673857, 0.039244782, -0.22877824, 0.08064668, 0.030887935, 0.0545927, -0.09527868, 0.07472557, 0.025739763, -0.119230285, -0.07690538, 0.07316568, 
0.051213965, 0.121727005, 0.14177929, 0.007874696, -0.088738926, 0.07063589, 0.11633867, -0.18842378, -0.011874257, 0.050177667, -0.053272642, 0.07731339, -0.04037844, 0.049961723, 0.0989687, -0.4343, -0.43614197, -0.060905118, 0.00033956056, -0.20080344, 0.07505764, 0.017447494, -0.31135052, -0.12446439, 0.16064541, 0.10117499, -0.23545481, -0.008132405, 0.009287103, 0.05213377, 0.096169606, -0.1515865, 
-0.03542162, -0.075244986, -0.085226476, -0.007466869, -0.33238032, 0.06293297, 0.0866004, 0.096999004, -0.069472626, -0.337397, -0.14338553, -0.042094238, -0.03514279, -0.24638782, 0.0031753425, -0.20934245, -0.040082455, -0.002995694, 0.04515122, -0.04250185, -0.08798589, 0.029998658, 0.046123892, 0.006112446, -0.08779802, 0.026069647, 0.07498065, 0.021913664, 0.08439461, -0.009661164, 0.04599681, -0.06320783, 
0.092547245, 0.14949577, -0.30126336, -0.025277471, -0.3490199, 0.06392829, -0.052945588, 0.053060345, -0.02780273, -0.4706603, -0.10858453, -0.14260016, 0.06700848, -0.07469741, -0.047634035, -0.099904984, 0.070057355, -0.07133141, -0.010917169, 0.019769374, 0.05344738, -0.01687657, 0.014750421, 0.16074409, 0.026495753, -0.018516963, 0.11478055, 0.040493432, -0.0228816, -0.053573634, 0.0049102055, 0.058170043, 
0.11313402, 0.14807811, -0.40266868, -0.08571876, -0.14634325, 0.08546571, 0.03737782, -0.0031500077, 0.053482547, -0.14166276, 0.1095888, -0.14319873, -0.0076870034, 0.100784086, 0.13843475, -0.10603115, 0.08554882, 0.105169706, -0.00075961294, -0.025356654, 0.062014446, 0.044159655, 0.002355613, 0.13121527, -0.006057372, -0.12084197, -0.010949595, 0.113395646, 0.08901602, -0.099586576, -0.031430844, 0.03217979, 
-0.1317587, -0.119810306, 0.0025204043, 0.15891421, -0.056601588, 0.012272791, -0.008885892, -0.035961322, -0.22738442, -0.1283635, -0.11945465, 0.18883249, -0.05073621, 0.08008267, -0.07577213, -0.011980834, -0.16489221, -0.33707112, -0.14025673, 0.15443864, -0.12739544, -0.15751158, -0.0015655314, 0.041575383, 0.047102474, -0.00735463, -0.052364334, 0.17671485, -0.07226175, -0.14206001, -0.028751824, 0.10500174, 
-0.20597047, -0.2594838, 0.13207236, 0.021696987, 0.10985393, -0.22837518, 0.023926206, 0.043351524, 0.015227766, 0.1171857, -0.032873597, 0.13194406, -0.19492501, 0.0057804254, 0.057448987, -0.09672196, -0.13941316, -0.2926719, 0.00066515704, -0.030049963, 0.016968163, -0.1198617, 0.03608681, 0.048163295, 0.07390613, 0.10989503, -0.059454072, 0.047138274, 0.0016220214, -0.028467925, 0.07638456, 0.023354879, 
-0.18162361, -0.2844696, 0.11238262, -0.06909286, 0.20206678, -0.30388334, -0.09170765, -0.004524256, 0.07749963, 0.08216194, 0.10768904, 0.107877485, -0.3493003, -0.025565121, 0.057172265, -0.05794634, -0.012583318, -0.4140541, 0.12380284, -0.04506855, -0.063563906, -0.112539, -0.005278697, -0.057049565, 0.17244413, 0.165475, -0.055609, 0.03227496, -0.08474317, 0.17155692, 0.026602626, 0.100908116, 
0.0694676, 0.108713634, 0.1792892, -0.051319316, 0.024877232, -0.030860808, 0.12626083, -0.1326093, 0.09037041, -0.28806165, 0.12985659, -0.14343072, 0.10395886, -0.2530027, -0.1884781, 0.10300487, -0.05095605, 0.056747407, 0.1925819, -0.05681757, 0.06554959, 0.1868054, -0.03356126, -0.09012603, -0.18492274, 0.056814764, -0.04448877, 0.035721026, -0.20523708, 0.14967069, -0.040159833, 0.13574164, 
0.029622266, -0.05581835, 0.0058134985, -0.124907665, -0.363562, 0.040323537, 0.04094551, -0.2106989, -0.0709674, -0.43226698, -0.16660777, -0.23502696, 0.1806897, -0.07246253, -0.15567268, 0.12447775, -0.032422263, 0.122821376, 0.15931767, -0.02973228, -0.09435947, 0.10013129, 0.016583677, -0.047270097, -0.3055963, -0.040988136, 0.031436935, 0.05734195, -0.078604944, 0.006837906, -0.053909555, 0.04896518, 
-0.044344287, -0.1116243, -0.07504069, -0.057256848, -0.4379247, 0.08035745, 0.0921338, -0.19772115, -0.114841, -0.042761955, -0.23767905, -0.27120623, 0.027529797, 0.080589496, -0.19487053, 0.062227733, -0.023540203, 0.009436901, 0.077899635, 0.078282945, 0.07036708, -0.057004437, 0.073440254, -0.008562029, 0.016674835, -0.01150166, -0.014315432, -0.04937273, 0.03473341, -0.048989877, 0.007636045, 0.054527983, 
0.04586675, 0.12985884, -0.061601892, -0.1011482, 0.2450158, 0.09905537, 0.053190924, -0.033795286, 0.1964209, 0.05219042, 0.17882116, -0.13072662, -0.0761045, -0.020863282, -0.012494395, 0.008194403, 0.18405922, 0.16311286, 0.05711211, -0.14380957, 0.019858032, 0.07967097, -0.23831458, -0.2292336, 0.118068874, -0.02288691, -0.48232743, -0.04601262, -0.059943512, 0.037997432, 0.11638808, -0.1789448, 
-0.0624391, 0.06714762, -0.06729066, -0.19929495, 0.13122156, 0.053152867, 0.05023699, -0.1261051, -0.05219334, 0.004546455, 0.08321899, -0.14973976, -0.19197522, 0.036016207, -0.25232944, 0.09933334, -0.122796506, 0.07615752, 0.064577006, -0.047884244, 0.08505918, 0.045862578, -0.24395627, -0.22882064, 0.01653297, -0.21046121, -0.43928218, -0.33273345, 0.0020153513, -0.009008398, 0.0044732546, -0.16661252, 
-0.07913764, -0.05541114, 0.1266793, -0.12416336, -0.1927965, 0.095305115, -0.008130366, -0.37253115, -0.13702278, 0.003260619, -0.089506835, -0.040904716, 0.12425164, 0.11535678, -0.3194871, -0.077107124, -0.23776977, -0.005516068, 0.1811369, 0.15998308, 0.14111753, 0.005070776, -0.2033539, -0.3203891, -0.020888308, -0.20072116, -0.38457114, -0.18077256, 0.0935889, -0.18213066, 0.076889485, 0.20177102, 
0.05424686, 0.06846724, 0.0657213, -0.011273215, 0.012110138, -0.07939285, 0.1629861, -0.004808522, 0.04492701, -0.21404687, -0.050433565, -0.041684188, -0.16900045, 0.09142725, 0.105441935, -0.027620405, -0.019306818, 0.17972478, 0.047560044, 0.025792519, -0.074290164, 0.1362415, -0.15047069, 0.03405165, -0.103403404, 6.6637214e-05, 0.058345966, -0.21943215, -0.08047708, 0.11647208, -0.021324035, -0.0145396935, 
-0.022902718, -0.12285068, 0.03424318, -0.03659505, 0.11557035, -0.08175632, 0.008252165, 0.10810161, 0.08753891, -0.0070581213, 0.05672754, -0.044559754, -0.16672647, -0.024926528, -0.06827343, -0.07454377, 0.082492836, 0.04433631, 0.01547139, 0.0714542, 0.010069876, 0.11394735, -0.0072047072, 0.055358253, 0.065963924, -0.111207426, 0.09243741, -0.14635071, -0.053174887, 0.12239065, -0.025913766, 0.08163377, 
-0.06637958, -0.10423828, 0.037979215, 0.12641895, 0.18265375, 0.012259436, -0.026771745, 0.14674032, -0.024107557, -0.01602313, 0.12607653, 0.012075458, -0.17374426, -0.021601157, -0.07795136, -0.043743372, 0.18462181, -0.11558369, -0.11820666, 0.05763541, -0.17071669, -0.039912898, 0.09471252, 0.083882034, 0.07065922, -0.041421697, 0.15021835, -0.16042368, -0.12145464, -0.044594247, -0.011385221, 0.03193818, 
0.021086264, 0.021479456, -0.24505325, -0.017665477, 0.09316627, 0.0020853751, 0.001544717, -0.0006675873, -0.022993049, 0.014850474, 0.15240753, 0.10840708, 0.12473681, -0.25379395, -0.25743634, 0.020156115, -0.006563853, 0.13333207, 0.17172644, 0.11614535, -0.16975933, 0.11748608, 0.025153838, 0.0076744086, -0.074991055, 0.036970418, -0.039346907, -0.08315297, 0.018395921, 0.077818885, -0.008667532, -0.11687881, 
-0.020759508, 0.015095101, -0.32812154, 0.0019146579, 0.05580078, 0.049730808, 0.052581973, -0.06627055, -0.044501163, -0.10525357, 0.13001834, -0.07517756, -0.038945936, -0.21271044, -0.2926626, -0.009863999, -0.008709461, 0.08268719, 0.19762446, 0.052635204, -0.25890547, -0.057132795, 0.015129962, 0.006789883, -0.17545982, 0.030165128, -0.10024864, -0.08512083, 0.15053007, 0.028397175, -0.103746265, -0.2269911, 
-0.123768166, -0.07520471, -0.12215741, -0.04920151, 0.0768242, -0.008509866, -0.030500004, -0.09696656, 0.021668186, -0.14257878, 0.23749259, -0.16763559, -0.09307757, -0.15512769, -0.16548006, 0.0017076054, 0.08730506, -0.10939688, -0.013974816, -0.05597121, -0.1252643, 0.05745946, -0.06781933, 0.09331274, -0.09138775, 0.07546402, -0.1538972, -0.068970494, 0.13030197, 0.041114755, -0.11739834, -0.07743343, 
-0.3919029, 0.1720032, 0.103867784, -0.0945776, -0.04662411, -0.084735796, -0.11465417, -0.027635863, -0.28928328, 0.09274275, -0.1471419, 0.06992785, -0.043108795, 0.05683174, -0.47770146, 0.095153935, -0.05011081, 0.1169145, -0.28193572, 0.05692967, 0.16155037, 0.0040876754, -0.40104696, 0.3378771, 0.034474615, -0.22669381, -0.13319324, 0.035123464, 0.14836489, -0.18114822, -0.0039229845, -0.05368653, 
-0.45887733, 0.18585248, 0.12199475, 0.001946946, 0.06751709, -0.074414104, -0.056419075, 0.01579509, -0.12320996, 0.027709406, -0.014649715, 0.08718635, -0.080185205, 0.029796144, -0.2784899, -0.03690653, -0.4465598, 0.13256086, -0.2041046, 0.036209177, 0.0625104, 0.13534847, -0.7728323, -0.34044316, 0.037813794, -0.08533692, -0.65766126, -0.1662223, 0.1806692, -0.1347558, -0.041801292, 0.09240951, 
-0.2216643, 0.067644484, 0.13008514, 0.09384588, 0.08609266, 0.03567524, -0.026725924, -0.017323868, 0.0003460492, -0.030646801, 0.12349616, 0.09131338, -0.13888742, 0.15803035, -0.054700065, -0.0030348175, -0.042780302, 0.08283399, 0.025214756, 0.13527353, 0.04456831, 0.021882432, -0.432917, -0.34317645, -0.028565217, -0.028813109, -0.38418335, -0.063847, 0.16695483, 0.015944729, -0.003919167, -0.058687173, 
-0.01178639, 0.011296138, -0.38986647, -0.14232466, -0.05663233, 0.0012177733, -0.1082085, 0.008964877, -0.027721385, -0.18695027, -0.045827854, -0.21327867, 0.038845792, -0.16317159, -0.12524569, 0.1804822, 0.15717237, -0.041419204, -0.04643386, -0.101468, 0.040823918, -0.13438818, 0.21046284, 0.07388661, -0.17151676, -0.10081487, 0.059780713, -0.023251573, -0.075559296, -0.06485448, -0.17047644, 0.11548665, 
-0.041416574, -0.055186626, -0.3264159, -0.25857276, 0.05646298, 0.07862162, 0.023097405, 0.029878505, 0.1666687, -0.12690726, -0.04626622, -0.15689942, -0.035285193, -0.20893764, -0.0935993, 0.1714809, 0.09456242, 0.039978422, -0.0127383955, -0.07757378, -0.022807557, -0.10475895, -0.015231661, 0.1290958, 0.0020540932, 0.08492686, 0.007442588, 0.10440903, 0.047613837, -0.07758467, -0.05973512, 0.116248526, 
0.04824629, 0.0006589698, -0.24709877, -0.22822316, -0.032628324, 0.06394806, 0.016822403, 0.03098556, 0.08457837, 0.06375914, 0.12130624, -0.067262724, -0.044817105, -0.22170232, -0.086358644, 0.01420012, -0.08109831, 0.1574919, -0.008958816, -0.12735407, 0.1794413, -0.0022460595, -0.13943203, -0.10352427, 0.08432628, 0.010725467, -0.05109042, 0.008270244, -0.106010646, 0.08795278, 0.13621032, -0.025632037, 
0.042220958, 0.11148516, 0.00270288, 0.027887836, 0.02802247, 0.08427038, 0.10051075, 0.009194344, 0.012577123, 0.10273921, -0.08877092, -0.031054359, 0.045276813, 0.06465938, 0.18697548, -0.071159974, -0.33778092, 0.17033078, -0.050128527, -0.119009905, 0.09971598, 0.036110092, -0.041863628, -0.12302067, 0.03657823, 0.06322154, -0.19345699, -0.05820803, 0.07528941, 0.018396448, -0.019608004, -0.22953366, 
0.05645614, -0.015570917, -0.02595219, -0.020233722, 0.12817927, 0.0926652, 0.118264996, -0.00138883, -0.041162718, 0.049844064, 0.015869126, -0.07201065, 0.119690076, -0.026471715, 0.18908554, -0.11037647, -0.27606702, 0.120472744, 0.015276264, -0.08041238, 0.07745302, 0.12824886, -0.27246442, -0.19857576, 0.14877658, -0.03125124, -0.1423996, -0.026957244, 0.18777789, 0.11689979, 0.041636698, -0.009305187, 
-0.01360136, -0.078691356, 0.06368836, -0.008799974, 0.042740677, -0.110004775, -0.087156884, 0.06717851, -0.08279747, -0.07347527, 0.04763259, -0.07197438, 0.2304131, -0.09044844, 0.06818248, 0.03233707, -0.0012227468, -0.04413524, -0.0057100295, 0.08063911, -0.059703756, 0.012096298, -0.04770588, 0.04392075, -0.09378289, -0.016227221, 0.08517745, 0.007073878, -0.035817232, 0.17091388, -0.20910735, 0.3535125, 
-0.25854382, -0.022420242, -0.0038818053, 0.01029766, -0.030625356, 0.085118376, 0.046985988, -0.037152704, 0.027821073, 0.032520514, 0.034465913, -0.008381759, -0.26659337, 0.012251962, 0.22955546, 0.024706503, -0.028212644, 0.10374285, -0.085460395, -0.1069623, -0.05765436, 0.09153582, -0.10520828, -0.19414468, 0.06494483, 0.052528266, -0.05347584, -0.19616227, 0.099893674, -0.075324506, 0.15668213, -0.06824823, 
-0.20520368, -0.1093483, 0.044563446, 0.040317938, 0.06380815, -0.032749347, -0.14383435, -0.035915464, 0.029486822, 0.013865333, 0.021179406, 0.0146671375, -0.1446179, -0.031503905, 0.27212998, 0.122094125, 0.06272815, -0.067811415, -0.1137231, -0.20236422, 0.07621222, -0.0074436073, -0.04651037, -0.1434711, -0.0046558403, -0.019526945, -0.032773077, -0.1414183, 0.10602412, 0.092888385, -0.091263756, 0.00899732, 
-0.1512611, -0.19055878, 0.03516748, 0.035975195, 0.10106065, -0.27951935, -0.26313287, -0.09949263, 0.06315507, -0.15237418, 0.041486003, -0.04792537, 0.018420415, -0.10909878, 0.28382322, 0.12833987, 0.17397809, -0.11109189, 0.04619698, -0.12745179, 0.07564639, -0.036129385, 0.049633585, 0.0332308, -0.15295011, -0.011021334, 0.028938835, -0.08159879, 0.04174128, -0.012025002, -0.20547996, -0.06721137, 
-0.018798348, -0.047215253, -0.07329455, -0.07533173, 0.015424338, -0.063677385, -0.12532778, 0.088833824, -0.0015321182, -0.08507056, 0.017554099, -0.085214496, 0.14137535, -0.100232646, -0.07191514, 0.24319407, -0.007869034, -0.027655762, 0.009350831, 0.0558698, 0.040056635, -0.0014240582, -0.11468825, 0.18929878, -0.032204673, -0.07211328, 0.022243861, 0.0109954905, -0.00050419464, -0.06015942, -0.08116424, 0.028009554, 
-0.08260313, -0.05867469, -0.04110128, -0.06946764, -0.027954686, -0.1001364, 0.008401025, -0.024129866, 0.03591142, 0.0009990868, -0.043585245, -0.020932492, 0.16000484, -0.0072237602, -0.03392282, -0.0069092177, -0.17893024, 0.09243494, 0.1392977, -0.011999246, 0.29476577, 0.054095134, -0.3250191, -0.036270298, 0.10132844, -0.17831536, -0.14463428, -0.1039528, -0.034596685, -0.03998747, 0.07487021, -0.037835017, 
