#include <LineNetwork.h>
#include <Linear.h>
#include <Conv1d.h>
#include <Conv2d.h>
#include <ReLU.h>
#include <GlobalAveragePooling.h>


const int8_t LineNetwork_layer_0_weights[] = {
-26, -33, 122, -20, 84, -80, -112, 64, -31, 
89, 77, 37, -4, -60, 1, 91, 86, 102, 
-31, -58, -24, -15, -15, 22, 53, 47, -111, 
8, 44, -80, 89, -71, -6, -53, -60, 80, 
};

const int8_t LineNetwork_layer_0_bias[] = {
-15, -20, -92, 47, };


const int8_t LineNetwork_layer_2_weights[] = {
-58, 118, 35, -127, 
83, 127, 19, 67, 
31, -19, -48, -93, 
98, -29, 12, -16, 
0, -55, 32, 6, 
2, -64, 41, -29, 
85, -3, 80, -67, 
-3, -3, -57, 99, 
12, 34, -16, -45, 
-29, -74, 44, 67, 
-42, -83, 121, 64, 
-45, -7, 0, -25, 
50, -54, 69, -54, 
95, 15, 79, -16, 
-13, 95, -6, 108, 
5, -58, -55, -35, 
50, -29, -9, 64, 
73, 98, -35, 41, 
63, -103, 21, -35, 
-119, 18, -32, -3, 
15, -35, 37, -29, 
60, 86, 114, 41, 
8, -13, 127, -19, 
-127, -19, 66, 60, 
-99, -74, 34, 89, 
92, 121, -61, -93, 
41, -80, -20, 9, 
-39, 102, 16, 31, 
48, 18, -11, 67, 
76, 76, -14, 60, 
95, -45, -41, 80, 
-54, 47, 17, -28, 
-42, -83, 127, 15, 
-20, -42, 127, 35, 
29, 86, 78, 86, 
95, 82, 127, -22, 
-48, -7, 22, -77, 
28, -3, -54, 41, 
-64, 40, -44, -26, 
-26, 53, -51, 98, 
-51, 98, 76, -3, 
-3, -39, -35, -90, 
25, -74, 54, 50, 
38, 69, 16, -86, 
-87, -84, 32, -38, 
-79, 92, 79, 44, 
127, 31, -38, 83, 
31, 63, -45, 92, 
-51, 0, 102, 0, 
-93, -45, 44, -3, 
22, 8, 82, -38, 
127, -90, 105, 76, 
12, -58, 28, 60, 
-64, -10, -90, 12, 
-7, 31, -45, -73, 
15, 85, -47, 32, 
53, 40, 127, 109, 
-36, -100, 50, 54, 
-9, 60, 29, -51, 
95, -16, 22, 22, 
21, 15, 76, 127, 
-6, 44, 29, 51, 
127, 101, 3, 92, 
118, -52, 9, 102, 
-16, 2, -3, 41, 
70, -26, -32, 70, 
111, 69, 105, 76, 
41, -36, 51, -51, 
82, 72, 118, -32, 
60, -55, 83, -73, 
80, -36, 57, -19, 
89, -71, 102, 31, 
};

const int8_t LineNetwork_layer_2_bias[] = {
-45, -42, 40, -56, -21, -65, 19, -28, };


const int8_t LineNetwork_layer_4_weights[] = {
127, 115, -4, 0, 8, 62, 62, 89, 
120, 62, 8, -5, 125, 0, 107, -14, 
-60, -63, -18, 12, -55, 116, 71, 127, 
26, 66, -13, 13, 107, -31, -13, 44, 
17, 94, -22, 44, 127, 67, 31, 94, 
79, 94, 0, 75, -37, 108, -77, 53, 
53, 70, -81, -9, 58, 17, 35, 53, 
112, 85, 85, -14, -22, 58, 40, -45, 
-14, 85, 4, -9, 89, 127, -18, 108, 
-59, -86, 67, -50, 61, 62, -36, -18, 
43, 39, 17, -68, 75, -28, -72, 107, 
-69, -51, -36, -82, -15, 6, 94, -73, 
93, 12, 45, 48, 34, 127, -28, -14, 
-23, -73, -17, -51, -14, 20, 98, 7, 
48, -33, 126, -60, 47, -69, -37, -92, 
66, 84, -13, 93, 39, 57, 16, 53, 
79, 16, 62, 52, 57, 34, -37, -69, 
-82, 38, 71, 20, 61, 15, -41, -56, 
3, -27, 21, 94, 17, 53, -45, -10, 
17, -82, 70, -9, 62, 21, -32, 7, 
80, 70, 31, 12, 35, 79, 0, -6, 
-13, 21, 0, -72, -22, -41, -72, 53, 
85, -82, 16, 44, -63, 89, -50, 3, 
89, -19, -41, 80, 94, 12, 80, 34, 
-63, 94, 57, 89, 81, 44, 4, 102, 
71, 57, -59, 80, 13, -41, -54, -37, 
76, 84, 12, -5, 76, -82, -54, 3, 
-86, 93, 35, 44, 58, -6, -54, 84, 
-68, -86, 4, 80, 89, 71, -9, 21, 
-42, -13, 44, 57, 61, 80, 0, -18, 
-18, 39, -63, -9, 40, 3, 80, -78, 
39, 53, 112, -64, 93, -40, 44, 66, 
66, -32, 63, 3, -37, 85, 53, 103, 
8, 12, 31, -81, -18, -5, 107, -73, 
-50, -14, -49, -50, -82, -45, 71, 107, 
97, -54, 90, 48, 43, 71, 0, 8, 
89, -64, -58, 53, 48, 70, -54, -28, 
48, 93, 40, -86, 17, 84, -72, -41, 
12, 98, 76, 12, 70, -5, 30, 3, 
66, 97, 4, -77, 98, -87, -77, 3, 
-32, -82, -72, 62, 39, 80, 39, -37, 
70, 107, 26, 7, 43, 62, -14, 0, 
-19, 98, 85, 57, 107, -87, 53, -78, 
-59, 79, -45, 75, -55, -41, 44, -73, 
-6, 13, -72, -32, 70, -41, -18, 102, 
127, -4, -99, 58, -36, -13, -95, 127, 
0, 17, 126, -45, 49, -45, 76, -127, 
33, 66, 126, -127, -96, 84, -54, -46, 
26, 94, -13, 85, 8, 45, 44, 22, 
67, 71, 35, 26, 17, -86, -122, -77, 
-114, -123, -127, 127, -56, 7, -45, -55, 
127, 80, 71, 8, -99, -40, -49, 36, 
-54, 39, -95, -9, 35, -41, 125, 58, 
15, -5, 127, 48, -74, -64, -68, 70, 
94, 44, 76, -59, 53, 12, 0, 53, 
12, 35, 94, -54, -82, 121, -77, 12, 
79, 89, 80, 17, 93, 89, -54, -45, 
21, 48, -31, 44, -68, 35, 13, 102, 
-64, 44, 31, 98, 62, 31, 8, 89, 
-15, 12, 80, -50, -82, 39, 4, 84, 
-50, 49, 71, -45, -27, 71, -22, 93, 
16, 71, 85, -54, 53, 76, 35, -36, 
93, -23, 58, 17, 16, -28, -4, 57, 
-55, 4, -27, 21, 102, 58, 30, 48, 
-27, -79, 0, -64, -77, 70, 21, 84, 
83, 21, -50, -28, -28, -65, -78, 43, 
30, 4, 49, 62, 98, -12, 26, 127, 
-55, 101, -22, -19, -14, 116, -41, 93, 
92, -55, -23, 92, 47, -87, 79, 106, 
12, 127, -41, 35, 39, 90, -50, 0, 
21, 25, -13, 48, 35, 57, -68, 62, 
61, 93, -59, -24, 70, -6, -78, -19, 
44, -10, -59, -32, 8, 70, -14, 102, 
-14, 103, 103, 30, 0, 81, -45, 98, 
111, 127, -13, 12, -1, 91, -72, 77, 
-77, -28, 8, -59, 62, -55, -18, 97, 
107, 49, 126, -9, 58, 45, 80, 76, 
21, 36, 58, 93, 21, 127, 98, 127, 
39, -46, 67, 107, 44, 65, -63, -69, 
-50, 0, -4, 89, 94, 36, 67, 26, 
52, 86, 117, 98, -78, -3, 12, 68, 
127, 16, 13, 67, 57, -27, 107, -122, 
-9, 53, -49, 127, 76, 98, 103, 7, 
-28, -36, 53, -127, -69, 16, 98, -32, 
-90, -10, 0, 12, 66, -22, 116, -77, 
62, 75, -58, 3, -4, -27, 26, 71, 
48, -127, 127, 80, 120, 127, -54, -10, 
-18, -37, -108, 107, -27, 30, -41, -5, 
-41, -77, 85, 125, 67, 93, -5, 75, 
66, 127, 94, -77, -32, -55, 76, -19, 
39, -1, 44, 98, -28, -87, -68, 43, 
-27, 21, 76, 49, 4, 111, 49, 84, 
0, 8, -18, 35, 3, -54, 71, 112, 
-32, 34, -45, -73, 7, -82, 31, -37, 
-18, -50, -63, -77, 0, -50, -50, 44, 
66, 117, -36, -14, 98, 94, -45, -31, 
-1, -23, 13, 8, -23, 66, -68, 12, 
-50, 80, -13, -36, 8, -50, 67, -23, 
107, 0, -40, 98, -14, 112, 89, 116, 
16, -38, 44, 78, 11, 2, -37, -42, 
74, 60, -27, -61, -74, -48, -78, 15, 
-1, 38, 58, 92, -73, 15, 75, -79, 
2, -75, -4, -56, 74, 2, 71, -24, 
-56, 6, 54, 33, -29, -57, -73, -79, 
-47, 83, 40, 11, 57, -56, -31, 56, 
-78, -79, 121, -87, 34, 115, 12, 93, 
1, 61, -36, -61, 51, -30, 8, -52, 
15, 3, -49, 61, -19, -24, 94, -38, 
-50, 66, -22, -113, 89, 31, 26, 53, 
25, 102, -49, -9, 48, 127, -59, 39, 
-86, 103, -58, 21, 57, -36, -13, -122, 
127, 3, 127, -18, -82, 76, -4, -41, 
30, -77, 4, -127, -127, -32, 67, 71, 
111, 72, 4, 49, 112, 116, 71, 98, 
-42, 62, 31, -63, -113, 13, 58, 0, 
-28, 94, 85, -32, 127, 21, 53, 67, 
53, -22, 80, 125, -127, 31, -13, 31, 
-82, 35, -13, -18, -27, 0, -13, -36, 
76, -45, 8, 31, -54, -22, 17, 121, 
30, 89, 98, -36, -59, 76, -77, -13, 
84, 44, -86, 58, -45, -36, -18, 62, 
-63, 94, 13, 0, 85, -49, 0, -22, 
84, 98, 53, -41, -55, -4, 58, 80, 
98, 0, -22, 49, 49, -27, 71, 107, 
8, 103, 31, -81, -63, 31, 71, -13, 
-23, -32, 44, 0, 89, 26, 40, 80, 
3, 70, 85, -32, 80, 52, -49, -19, 
57, 2, 127, -1, -19, 29, 89, -69, 
-46, 26, 90, 52, -42, -32, 26, 30, 
-54, 70, 90, -41, 3, 52, 80, 21, 
12, 87, 127, -64, 79, -6, 58, 74, 
-28, 127, -4, -33, -15, 103, 76, -10, 
-68, 25, 13, -18, -72, -78, -22, 17, 
-28, 101, 9, 84, -19, 21, 125, 30, 
2, 127, 31, -24, 7, 67, 71, -14, 
-127, -32, -90, 21, 48, 121, 127, 17, 
17, 39, -49, -18, -49, 0, 71, 34, 
34, 39, 49, 70, -123, 21, 62, -77, 
-127, 16, 26, 35, 35, -72, 4, 0, 
116, 30, 13, -5, -58, 98, 12, -14, 
61, 112, -76, -5, 25, -95, -63, -64, 
125, -28, -40, 12, 102, 17, 17, 80, 
-45, 84, 108, 44, -9, 89, 127, 35, 
120, 85, 85, 102, -69, -41, 103, -32, 
};

const int8_t LineNetwork_layer_4_bias[] = {
-22, 82, -33, 37, 44, 33, 5, 72, -9, 24, -22, 80, -66, -43, 8, -36, };


const int8_t LineNetwork_layer_6_weights[] = {
39, -46, 10, 33, 45, -1, 85, 67, 79, 0, 78, 79, -7, 15, -45, -46, 
79, 102, 77, -23, 22, 45, 127, 28, 39, 56, 33, 39, -52, -40, -51, -57, 
-86, 5, 15, -17, -69, -29, 74, 44, 22, 16, 6, 0, 23, 56, -17, 5, 
62, 56, 79, 33, 10, 60, 67, 55, 22, 39, 90, -69, 49, 38, 45, 44, 
50, 45, -8, -6, 73, 51, 11, 85, 50, -40, -81, -34, 61, -23, -74, 84, 
22, 10, 27, -17, 90, 62, 10, -41, -40, -11, 57, 68, -11, -46, 68, 62, 
84, -17, 5, 39, 22, 32, -1, -64, -12, 96, 101, -51, -24, 84, 16, 84, 
-63, 51, 77, 85, -40, 11, 28, -68, 61, -12, 9, 79, -7, 61, 50, 56, 
-46, 73, -52, 68, 84, 44, 39, -41, -46, 45, -39, 62, 45, -1, 16, -40, 
30, 67, 127, -56, 127, 6, -45, -5, 64, 40, 127, 127, 121, 76, 103, 18, 
40, 63, 61, 90, 11, 34, 127, 86, 16, 85, -29, 67, 27, 74, -63, -11, 
-29, 56, -52, 79, -40, 10, 79, 4, 0, 67, 16, 80, 56, 61, 22, -46, 
-67, 22, 75, -11, -22, 28, -11, -80, -57, -17, 57, 33, 68, 5, -34, 34, 
34, 5, -24, -34, 79, 51, -28, 97, 16, -57, -46, 5, 16, -40, 62, 73, 
50, -34, 22, -23, 39, -69, -23, 33, -52, -63, 39, -85, 27, 10, -80, 73, 
0, 33, 68, 85, 56, 0, 56, -40, 45, 56, 68, 33, 45, 5, 73, -46, 
22, -28, -58, 16, -46, -5, 120, 62, -57, 34, 62, -86, 33, -23, -17, 96, 
-23, 51, 10, -34, 10, 45, 56, -57, -57, -12, -23, -40, 16, 78, -46, -17, 
67, 73, 38, -80, 67, -69, -12, -80, -23, 27, 0, -11, 61, 33, -46, 4, 
90, -6, -46, -6, 56, 0, 62, 73, 79, -29, -11, 0, 56, -57, 79, -57, 
-23, 91, -23, 90, 22, -63, -29, 73, -57, -80, -6, 73, 4, 33, 22, 67, 
-29, -23, 27, -63, 85, -57, 10, -35, 79, -23, 39, 51, -23, 67, 0, 39, 
-57, -63, 4, -74, -11, 10, -17, 16, -17, -11, -40, 27, 73, 96, 62, -34, 
84, 33, 73, -46, 84, 11, 28, -52, 79, 62, 33, -12, -41, 44, -23, -75, 
-35, 45, 50, 73, -23, -52, 84, 10, 33, 39, -6, 33, -46, 10, 10, 56, 
-57, 0, 50, -40, -23, 27, 62, -74, 28, -63, -40, -29, 56, 28, 68, 22, 
-69, 0, 61, -6, 33, -34, -40, 22, -69, -63, 27, -63, 90, 0, 50, -6, 
39, 0, -18, 39, 50, 39, 33, 10, 62, -34, 67, 28, 73, -75, 96, 50, 
-57, 28, 84, -85, 28, 0, -22, 85, -22, -5, -51, -57, -45, -57, -74, 5, 
16, 56, -6, 51, 51, 11, 57, -17, -63, 16, 68, -68, 40, -68, -23, 74, 
62, -68, -35, -40, -23, 0, -34, 4, 62, 79, -51, 0, -23, 0, 11, 56, 
45, 79, -52, 74, 51, 22, -45, 22, 85, -45, 5, 68, 34, 45, -34, -68, 
22, 85, -6, -57, 73, 79, 45, -23, -74, 68, 16, 0, 62, 16, -17, -74, 
84, 11, 4, 39, 28, 33, -74, 67, 45, -29, 45, -57, 45, -29, 28, -11, 
-28, -28, -29, 16, 62, -63, -22, -23, -34, 79, -6, -57, -34, 0, -80, 11, 
68, -11, 0, -80, -6, 85, 74, 51, -23, -11, 39, 5, 0, -34, -34, -23, 
68, -5, 74, 16, 73, -12, -28, 33, 10, -17, -41, -74, -35, 0, 0, 51, 
-57, 108, 38, 11, -57, -51, -46, 45, 16, 5, 74, 16, -40, 22, -46, 28, 
85, 16, 38, -57, 39, -34, 119, -74, 51, 96, 125, 0, 45, 11, -11, 96, 
-29, 39, 91, -23, -46, 16, 16, 73, -46, 74, 27, -40, 67, 0, -28, 39, 
-57, -11, -52, -63, -34, 108, -11, 10, 68, 16, 74, 79, 79, 56, -46, -28, 
28, -23, 21, -45, 74, -62, -28, 45, 114, 85, 127, -45, 127, 85, -28, 56, 
5, 74, -5, -68, 85, -51, 45, 22, -52, -80, 50, 5, -1, 90, -40, -6, 
-34, 22, 55, 85, -46, 11, 22, -34, -23, -57, 74, 74, -28, 4, 68, 5, 
5, 28, 67, 39, -17, 45, 5, 5, 28, 5, 127, -11, 125, 51, -51, -51, 
-6, 74, -1, -6, 85, -6, -46, 90, -46, -68, 61, -68, -41, 22, 16, 85, 
56, -17, 9, 22, 16, -6, 102, -12, 22, 73, -52, -34, -34, -12, 33, 28, 
73, -23, 21, -51, -46, 22, -34, 39, -86, 79, 39, 22, 22, 0, 11, -34, 
85, 45, 4, 5, 0, -23, 50, -6, -52, -28, -35, -46, 10, 4, -46, 96, 
-23, 0, 10, -69, -6, -23, -6, 39, 22, -29, 62, -6, 39, 50, -51, 85, 
-52, -63, 79, 79, 39, 68, -17, -63, 39, -46, -80, -69, 67, 39, 22, -40, 
-29, 39, 56, 45, 73, 91, 90, 90, -46, 33, -18, 16, -29, -63, 85, 5, 
5, -57, -40, 91, -6, 21, 5, -29, -6, -6, -57, -34, 50, 33, -23, 56, 
-74, 16, -52, -51, -75, 68, -46, -29, 28, 85, -52, 45, -23, 27, -11, 16, 
-92, -28, 17, 33, 73, -80, -40, -6, 50, 62, -1, 28, -47, -58, 79, 62, 
68, -28, -12, 16, -80, 80, 73, -69, 85, 62, 40, 0, -74, -17, -68, 73, 
119, -34, -8, 16, -68, -10, 5, -63, 0, 51, 125, -29, 0, 57, 74, 16, 
-6, -74, 114, -51, 0, -75, -45, 73, 79, 5, -7, -80, -29, 27, -34, -6, 
-63, 5, -30, 51, -40, -51, -28, -69, 56, 33, 103, 45, -40, 22, -5, 56, 
114, -68, 60, -68, 56, 28, 40, -80, 0, 16, 74, 79, 45, -39, 56, 22, 
21, 45, 85, 51, 16, -35, 39, 73, -46, -6, 49, -6, -76, 38, -80, -29, 
-12, 91, -12, -34, -17, 62, -6, 4, 22, -46, 74, 79, 45, -57, -74, -6, 
102, 51, -41, 45, 51, -68, -5, -68, 97, 79, 22, -6, 108, 102, -62, 85, 
27, 79, -69, 28, 5, 5, 16, 67, -69, 28, 45, 79, 22, 84, 51, -29, 
62, -28, 4, 102, 79, 62, 91, 10, 73, 68, 90, -68, 16, -51, 56, 56, 
-52, -34, 73, 5, 90, 45, 56, 85, -63, 10, -58, -23, -7, -58, -34, 0, 
4, 16, 61, 28, 96, 90, -74, 79, -74, -74, 84, 22, -46, 16, -23, -63, 
-57, 28, 50, 62, 5, 74, 0, -86, 45, 34, 45, -40, 56, 5, -40, -23, 
10, 5, -64, -63, 16, 51, 0, 28, 90, -17, 21, 45, 50, 101, -63, -29, 
39, -51, 78, 5, 39, -74, -17, 16, -17, -63, 16, -5, -18, -46, 91, 22, 
-28, 51, -58, 96, 73, -68, -23, -6, 68, -17, 90, -46, -57, -40, -28, -40, 
73, -40, 26, -11, 67, -34, 0, 90, -63, 22, 50, 33, 55, -29, 96, -46, 
10, -23, -16, 68, 50, 85, -63, 74, 79, 11, -80, 68, 0, -57, -28, -40, 
4, -23, 83, 56, 45, -40, 67, -23, -46, 5, 10, -46, -12, -63, -74, -74, 
-57, 0, 26, -40, -51, -57, 62, 73, 56, 56, 114, 5, 127, 73, -51, 28, 
0, 16, 46, -28, -74, 45, -51, 85, -29, 16, 50, -74, 44, -46, -23, -6, 
5, 68, 20, 33, 56, 85, 73, 0, 27, -6, 79, 74, 16, -40, 5, -51, 
-46, 0, -7, 11, -51, -45, 22, 16, 56, 33, 97, -57, 28, -40, 16, 5, 
96, 85, 57, 51, -40, -11, 45, 51, -57, 68, 79, 5, 90, 62, -51, 96, 
-23, -11, 44, -80, -28, -51, -6, -63, 62, -69, -74, -51, 79, 50, -40, 16, 
51, 79, 67, 5, -28, 22, -17, -28, 45, -28, -57, -17, 97, 56, 74, -80, 
-23, 11, -41, 79, 127, -12, 16, 27, -17, 91, 33, 108, -63, -23, 85, -52, 
21, 127, -37, 96, 54, 86, 51, 127, 37, 44, 36, 61, -31, 83, 15, 60, 
-48, 16, 72, 16, 107, 88, -18, 88, 95, 49, 127, 29, 34, 54, 16, -36, 
-40, 108, 96, 114, 126, 79, -5, 79, 74, 17, 127, 127, 46, 109, 127, 39, 
3, 103, -14, 56, 33, 115, 127, 46, 127, 127, -37, 119, 106, 96, 127, 113, 
117, 108, 26, 74, 127, 27, 127, 21, 45, 107, 109, 23, 91, 26, 51, 95, 
-51, 120, -22, 68, 69, -39, 68, 45, 127, 0, 81, 68, 52, -10, 51, 74, 
4, 63, 4, 108, 90, -16, 108, 127, 90, 97, -37, 62, 49, 96, 127, 119, 
112, 108, 84, 79, 51, 84, 33, 113, 79, -23, 46, 40, 127, -18, 34, -12, 
64, 109, 104, -67, 18, -4, -22, 87, 1, -27, 46, -5, 29, 116, -62, 7, 
104, 17, 52, 127, 104, -4, -16, 23, 69, 127, 127, 0, 127, 93, 57, 115, 
97, 6, 69, 127, 80, 12, 127, 127, 57, 127, 35, 127, 127, 23, -33, 98, 
41, 17, 81, -4, 63, 6, -4, 30, -21, 7, -62, -5, -56, 87, -27, 35, 
47, 102, 75, -4, 58, -10, 85, -62, 35, -21, 24, 34, 121, 35, -5, 29, 
80, 127, 127, -11, 52, 104, 85, 58, 6, 127, 17, 6, 86, 114, 23, 127, 
-38, 23, 0, 29, 34, 29, 17, 110, -27, 109, -56, 17, 102, -33, 6, -67, 
127, 16, 116, -39, 6, -11, 0, 74, 75, -4, 53, 29, 127, 92, 57, 75, 
1, -16, 127, 57, 121, 127, 34, 110, 109, 127, -10, 120, 115, 126, 103, 13, 
16, -108, 55, -51, 127, 80, 127, -127, 51, -40, 22, 28, 28, 0, -34, -91, 
-22, 33, 39, 91, 57, 85, 127, 113, 127, 5, 75, 16, 11, 127, 102, 40, 
-22, -6, -6, 108, 39, 127, 56, 33, -45, 96, -10, 127, 109, -96, -91, 39, 
-127, -74, 127, 102, -11, 127, -127, 28, 22, -11, 102, 51, 57, 96, -57, 127, 
127, -80, 68, -63, 51, 56, 127, 127, 126, 127, 109, -12, -22, 85, 85, 114, 
103, 127, 51, 16, -127, 120, 28, 11, 40, 39, -21, 127, 127, -16, -34, 63, 
127, -11, 56, -28, -91, 127, -102, 28, 45, -45, 86, -127, 127, 40, -34, 91, 
34, 16, 127, 127, 80, 102, 127, 127, -28, 40, 29, -69, 63, 127, 57, 127, 
-39, 45, -67, -34, -120, 62, -102, 22, 80, 39, 127, -109, 115, -91, 108, 28, 
73, -34, -29, 73, -57, 28, 33, 16, 50, 51, 56, -29, 10, 10, 62, -57, 
-12, -45, 37, 62, 62, -11, 45, -40, 79, 84, 15, 16, 10, -52, -34, 4, 
39, 56, 79, 45, 33, -69, -46, -63, -29, -57, -17, 62, 56, -29, 73, 62, 
90, -51, -63, 91, -11, 56, -34, -23, -74, -63, 79, -23, 79, 28, 22, -40, 
21, -62, -53, 0, 0, -22, 45, -46, -23, -69, 10, -17, -46, 56, 56, -40, 
62, 22, -51, 0, 90, -64, 62, -69, -57, -74, -17, 45, 33, 67, 79, -52, 
-34, 11, 73, 51, 28, 33, -80, 33, -34, 85, 21, 90, -40, -23, 11, 85, 
33, 91, -53, 73, 73, -45, 39, -29, 61, 45, 101, 68, 84, -40, -57, -18, 
-23, 5, -41, -40, -23, 73, -12, -58, 102, 39, 73, 11, 90, 15, 79, 90, 
-40, -34, 45, -51, -23, -80, -63, -28, -11, 16, 27, -40, -80, 16, 79, -40, 
-6, 0, 66, 73, 0, -11, 0, 33, -75, 62, 38, 16, 78, 4, 22, -23, 
73, 5, 49, 90, 90, 16, -6, 61, 61, 16, 90, 39, 44, 55, -40, 79, 
85, 51, 45, -17, -57, 45, 34, 5, -6, 74, 44, 85, 32, 74, -23, 79, 
90, -17, 15, -23, 73, -51, 5, -75, -52, 73, 56, -68, -18, -12, 90, -69, 
73, 51, -70, -6, 79, -17, 21, 44, 16, -52, -1, 68, 10, 4, 73, 22, 
56, 126, 124, 45, -57, 97, 91, 63, -6, 11, -35, 0, -1, 102, -51, -51, 
56, -63, 38, 91, 16, 0, 62, -46, 68, 51, 16, 62, 27, 39, 51, -34, 
44, -23, -13, -17, 56, 51, 39, 85, -57, 45, 27, 5, 39, 27, 22, 39, 
27, -23, -69, 85, 67, 73, 45, 79, -74, 56, 85, 108, 0, -63, -40, 45, 
45, 96, 63, -46, -23, 73, 56, 33, 50, 22, -18, 28, -7, 4, -57, -40, 
16, -34, -6, -28, 16, 62, -40, 33, 50, 85, -17, 91, -81, 33, 0, 62, 
61, 80, 67, 39, 0, 33, 56, 0, 73, 22, -40, 5, 85, 73, 22, 50, 
67, 102, 120, 34, -51, 84, -35, 50, 62, 74, 33, 102, -1, -58, -45, 68, 
-57, 57, -29, 119, 127, 62, 56, 4, 62, -17, -12, 127, 126, -23, 80, 85, 
-46, 108, 39, 62, -6, 68, 50, 33, 50, -17, 45, 85, -63, -41, -23, 33, 
61, 62, 19, -40, 91, 21, -35, -51, -29, 22, 38, 5, -36, 72, 79, -80, 
-28, 97, 115, 5, 17, 85, -17, -35, 17, 17, 0, 125, -39, 39, 127, 17, 
-69, 74, 27, 68, -40, 96, 33, 96, -40, 56, 27, 62, 72, 16, 22, -63, 
-58, -51, 84, 73, -57, 33, -18, 38, -46, 22, 79, 119, 73, -47, -46, 10, 
27, -6, 112, 39, 85, -69, -11, -34, 62, -17, -6, 91, 33, 16, -23, 5, 
73, 62, 0, 56, 85, 79, -63, 34, 10, 11, 32, 22, 67, 84, 0, 45, 
27, -51, 78, 10, 27, 51, 78, -23, 67, -46, 56, 79, 50, 21, 10, -40, 
73, -63, 21, 68, 96, -40, -46, 5, 33, -40, 127, 16, 0, 10, 0, 5, 
10, 28, 0, -34, -29, -39, 10, -6, -80, 0, -12, 90, 15, 27, -74, -63, 
-1, 51, 84, -29, 90, -28, 78, 10, -35, 10, 61, 11, -69, 4, -52, -52, 
96, -46, 10, -51, 22, -23, 33, 27, 125, -69, 45, 74, 127, 56, -68, 73, 
127, 62, -34, 45, 108, 45, 79, 85, 22, -28, -127, 108, -5, 125, 51, -39, 
-45, 127, 21, -34, -69, -127, 85, 16, -11, 0, 4, 62, 61, -97, -57, 127, 
61, -68, -103, 16, -120, -51, -52, -52, 38, 127, 38, 85, 4, 124, -127, 39, 
-51, -108, 113, -23, -74, 127, 127, 56, -46, 102, -127, 50, 39, -51, 125, -62, 
-80, -127, -103, 39, -40, 0, 27, -127, 5, 79, 16, -127, -58, 5, 108, -86, 
-41, 0, 107, 27, 0, 28, 50, 107, -115, -23, 55, 22, -35, -52, 16, -46, 
5, 22, -109, 108, -6, -91, -51, -80, 62, -85, -74, 119, -28, 102, 39, 34, 
127, -23, -98, 119, 45, -40, 127, 113, 102, 22, 10, -127, 56, 39, -127, 50, 
-46, 108, 50, -127, 107, -80, 127, 56, -121, 127, -40, -17, 61, 33, 113, 39, 
107, 127, 61, 127, 56, 127, -11, 102, -12, 127, 55, 29, -52, 102, 91, 79, 
-41, 102, 38, 91, -46, 21, 113, 39, -63, 73, 114, 12, 97, 4, 102, -23, 
79, 127, -27, -80, 78, 66, 72, -29, 66, -45, -31, 50, 14, -75, 0, 85, 
50, 62, 84, 84, 84, 50, 78, 113, 95, -23, 15, -23, -1, 78, -30, 60, 
50, 33, 9, 79, 16, -52, 50, -17, 61, 55, 0, 86, -46, -1, 51, 21, 
-81, 127, -45, -6, 43, 26, -41, -75, -36, 68, 31, 50, 71, -64, 38, 38, 
-7, 68, -70, 33, 84, 28, 43, 61, -24, -12, 50, -45, -12, 72, -1, 61, 
-18, 67, 50, -17, 73, -76, 5, 107, 79, 61, 22, -45, -23, 72, -40, 96, 
-7, 127, 56, 84, 26, 15, 78, 56, -13, 33, -88, 119, 71, -64, 16, -52, 
108, -23, 92, 34, -34, 4, 45, -11, 57, 39, 96, -63, 108, 114, -57, -34, 
27, 11, -24, 0, -34, 102, 96, -28, -80, 62, 73, 68, 45, -11, 79, -69, 
-46, 11, 5, 45, -57, 73, -23, -6, 51, 5, 33, 5, -63, 67, -57, -63, 
34, -34, 127, -51, -23, -34, 127, -28, 74, -45, -46, -69, 96, 91, 11, -23, 
67, 57, 38, 73, -23, 51, 62, 62, -86, 56, 62, -51, 33, -34, 68, 50, 
22, 68, 22, 74, -23, -52, 85, 85, -57, 79, 33, -17, -29, -75, -28, 0, 
108, 45, 92, 85, -51, -69, 108, 51, -34, -22, 56, 73, 96, -5, -23, -28, 
-69, -11, 61, 5, 5, 40, -5, -11, 10, 16, -69, 34, -17, 85, 5, -57, 
-69, 28, 79, -5, 62, 56, 51, -46, -17, -6, 33, -5, 10, 21, -28, -40, 
97, 127, 126, 127, 127, 46, 114, 115, 127, 127, 68, 74, -29, 29, 45, 74, 
91, 127, 56, 45, 127, 34, 34, 79, 108, 34, 51, 127, 80, 91, 127, 5, 
-34, 17, 38, 120, 5, 127, 126, 126, 91, 34, -75, 5, -46, 97, -28, 68, 
0, -10, 34, 91, 74, 6, -40, 17, 51, 23, -11, 63, -69, -28, 68, 22, 
119, 23, 38, 97, 127, 17, 127, 108, 108, 0, 97, 75, 39, 39, 28, 39, 
-28, 127, -58, 63, 11, -34, 109, 35, 5, 51, -12, 108, 78, 51, 40, 45, 
16, 127, 84, -16, 125, 86, -74, 127, -6, 108, -5, 46, 5, 45, 79, 34, 
79, 127, -47, 80, 127, 11, 57, 51, -17, 127, -17, 127, 108, 85, 80, 108, 
0, 127, -51, 57, 28, 79, 40, 97, 51, 23, 4, 17, 61, -6, -22, 23, 
51, 127, 22, 127, 22, 86, 127, 52, 5, 23, -33, 80, 74, 80, 11, 126, 
21, 80, 23, 45, 127, 23, 89, 78, 106, 68, 43, 125, 37, 72, 38, 127, 
66, 127, -29, 44, 22, 27, 127, 127, 20, 89, 89, 127, 95, 101, 127, 3, 
108, 126, -46, 127, 62, 69, 102, 63, -68, 57, 0, 127, 96, -5, 22, 51, 
101, 68, 0, 79, 66, -51, 72, -30, 49, 113, 101, 127, 26, -47, 118, 84, 
61, 57, 61, 124, 120, 127, 107, 96, 84, 118, 127, 127, 16, 78, 127, 118, 
119, 127, 37, -28, 102, 109, 34, 51, 62, 91, 33, 108, 27, 22, -34, 102, 
-35, 62, 33, -12, 16, 22, -82, 26, -13, 79, -1, 35, -30, 49, 124, 84, 
21, 63, 39, 127, 127, 67, 127, 16, 90, 127, 90, 68, 33, 67, 125, 67, 
67, 16, 10, 10, 45, 0, -17, 68, 44, 10, 67, -51, -6, 73, 45, 4, 
44, 91, 44, -51, 85, 85, 22, 22, -52, 39, -29, 90, 21, -57, -29, 33, 
-1, -28, -31, -57, -63, -34, 125, 67, 4, 90, -35, 79, -23, 96, 39, 67, 
90, -57, -63, 39, -57, -34, 119, 96, 5, 90, 10, 16, -6, 10, 79, -63, 
10, 108, 38, 62, -34, -40, 16, -51, 62, -63, -52, 33, -29, -12, -17, -23, 
61, 22, 88, 56, 10, -17, 102, 0, 10, -17, 113, 11, 119, 16, 50, 44, 
27, 50, -29, -34, 22, 90, 62, 62, 16, 22, -6, 39, 10, 16, 39, 39, 
16, 56, -12, -63, -23, 28, 22, 85, 90, 68, 96, -23, 16, 85, 22, 33, 
56, 79, 94, 107, 45, 102, 33, -23, 96, 33, 21, -11, 67, 124, 73, 73, 
-12, -57, -1, 5, 33, -17, -29, 38, 0, -46, 4, 79, 10, -30, -74, -12, 
-28, 33, -28, 79, 51, -46, 68, 16, 56, 39, -29, 10, -23, 0, 85, -28, 
-17, 79, -35, 5, 28, 22, -11, 67, 90, 22, 50, 22, 102, 10, -57, 16, 
-46, 102, 84, -29, -35, 38, 16, 55, 21, 27, -12, 125, -75, -53, 85, -52, 
0, 73, 28, 11, 62, 50, 33, -29, -28, 56, -34, -63, 22, 79, 85, 0, 
-11, 45, 33, 33, -11, -63, -74, 73, -34, 22, 127, 11, -51, 5, -11, 68, 
-35, 45, -13, -46, -46, 90, 84, 44, -6, -12, -17, 39, -23, -64, -46, 62, 
74, -23, 85, 39, -51, 39, 5, 67, 79, -45, 79, 85, -41, -17, -11, -17, 
-11, 45, 55, -57, 79, -28, 28, 50, 73, -57, 68, -46, -23, 0, 5, 22, 
90, 62, -53, -40, 67, 127, 84, 127, -46, 22, 62, 45, 22, -12, 10, 22, 
5, -68, 51, -6, 0, 90, 4, -11, 5, 45, -12, -6, -46, 44, 68, -69, 
-75, -23, 0, -57, 44, -12, 73, -17, 56, -57, 61, -11, 15, -18, 90, 50, 
-29, 127, 54, 57, 57, 127, 127, 103, 127, 68, 17, 127, 127, 92, 127, 80, 
28, 108, 45, -57, -46, 22, -75, 5, -46, 79, -69, 68, 78, 4, -40, 0, 
-75, 108, 0, -6, -58, 50, 38, 10, -64, -57, 84, -74, 43, 44, 73, -23, 
29, 127, 62, 51, 46, 41, 40, 81, 34, 80, 81, 86, 93, 52, 74, 127, 
56, -40, 127, 5, 67, 96, 66, 51, -18, 85, -63, 79, -41, 127, 79, 73, 
10, 57, -63, 67, -12, 27, 9, 84, -29, -17, -41, 73, 21, -41, -23, 27, 
22, -51, 127, -80, 16, 127, -11, 68, 51, -68, 108, 16, 28, -23, 39, 74, 
34, -74, -58, 79, 0, 108, -28, 79, 56, 34, 62, 33, 27, 22, 91, 56, 
84, 28, 8, 73, -12, 68, -12, -63, 84, 84, 39, 45, 102, -35, -51, 33, 
108, 22, 57, 39, -74, -6, 0, 85, 79, 16, 108, 0, 10, -6, 56, 56, 
0, 5, 44, 85, 119, 62, 11, -34, 96, -17, -52, -17, -81, 108, -17, -5, 
84, 62, 36, 73, -17, 34, 96, -23, 102, 67, 127, 28, 127, 67, 28, -69, 
39, -17, 68, -68, -6, 33, -23, -29, 39, -11, 79, 0, 56, 119, -17, 127, 
17, 0, 85, 28, 45, 113, 91, -29, 91, 51, 73, 90, 61, 5, 68, 56, 
62, -28, 32, 68, 68, 127, -34, -57, 73, 22, 119, -40, 97, 113, -11, 79, 
-40, -109, -34, 113, 56, 10, 0, -52, -17, -74, 33, 16, -46, 79, 45, 102, 
4, -17, 127, -29, 56, -68, 44, 79, 0, 56, 73, 28, -92, -127, 10, 22, 
-103, -51, -27, 5, -114, -1, -109, 0, -6, 127, 125, 73, -12, 0, 79, -5, 
127, -40, -6, 125, 56, 56, -86, 67, -57, -57, -6, -127, 127, 67, 91, -114, 
0, 57, 0, -103, -85, 85, -6, 108, -69, -127, 101, 127, 127, 0, -11, -34, 
-127, 16, 29, 56, 22, -69, 56, -11, -97, 56, 73, 39, -115, -23, -51, 79, 
33, 22, -23, 127, 39, 56, -57, 50, 127, 127, -127, -5, 39, -58, -51, -23, 
125, -127, -57, 127, -5, 34, 10, -127, -114, 16, 0, -74, 125, -11, -120, -114, 
-97, -91, -62, 73, -127, 56, 90, 85, 68, -40, -127, -51, 50, 127, 51, 108, 
79, -80, 115, -34, 5, 0, 51, -127, 22, 11, 108, 127, -127, -46, -91, 74, 
-40, 45, 127, 127, -80, 114, 56, 102, -6, 5, 107, 5, 44, -127, -126, 33, 
-63, 127, 55, 62, -12, 127, -80, -57, -126, 62, 127, -68, 33, -52, 56, 67, 
73, -127, 92, -62, 22, -109, 56, -57, -74, -127, 127, 28, -6, 33, 39, 68, 
33, 74, 32, 127, 127, 5, 125, -127, -6, 5, -46, -40, -126, -6, 90, 127, 
-86, 28, 33, 16, 62, 96, -23, -34, 45, -40, 56, 62, 44, 50, 28, 33, 
127, 62, 109, -120, 39, 84, 127, -127, 28, -63, 125, -40, -63, -6, 28, -74, 
127, 125, 4, 22, 5, 68, -17, -97, 16, 16, 127, -126, 107, -57, 85, -6, 
-127, -127, 38, -6, 62, 67, -29, -29, 127, 0, 90, -91, 127, 127, 5, 56, 
-69, 108, 26, 50, 11, 114, 33, 72, 74, 90, 126, 74, 52, 45, 127, 108, 
-58, 86, 74, 56, 107, 68, 16, 62, 72, 113, 9, 127, 101, -29, 39, 127, 
5, -12, 76, 127, 108, 94, 85, -6, 23, 16, 74, 127, 27, -12, 57, 28, 
0, 0, -30, 45, 23, 57, -57, -46, 57, 68, 29, 86, 81, 73, 102, 51, 
10, 127, 50, 102, 33, 109, 34, 5, 4, 16, 26, 46, -1, -41, 10, -6, 
-1, 127, 7, 127, 80, 94, -52, 21, 90, 50, 0, 126, -47, -2, 102, -46, 
85, 120, 3, 114, 17, 51, -63, -28, 0, 11, -16, 127, -45, 103, 62, 23, 
56, 17, 78, 102, 10, -11, 16, 108, 44, 68, -8, 91, 112, 21, 11, 125, 
-47, 79, 57, -63, -35, 14, 78, -58, -24, -63, -7, 109, 54, -71, 5, -18, 
79, 63, 0, 45, -51, 44, 5, 85, 67, -28, 14, 21, -31, 79, -51, 39, 
89, -33, -72, 10, -69, 5, 79, 96, -30, 4, -18, 125, -35, -64, -6, 38, 
-52, 74, 78, 5, 22, 21, 0, 38, 68, -6, -52, 11, 4, 43, 0, 45, 
-45, 103, 85, 114, 80, 119, 86, 35, 62, 35, -2, 127, 101, -50, 114, 91, 
89, 127, 64, 114, 68, 0, 51, -17, 61, 61, -13, 127, 27, 77, 96, -41, 
44, 51, -1, 127, 91, -12, -17, -41, -39, -40, 67, 57, -29, 26, 40, 28, 
-33, 127, -45, 127, 85, 109, 35, 127, 80, 80, 77, 102, -13, 35, -5, 86, 
-30, 115, 24, -17, 39, -4, -5, 22, 26, -51, 9, 109, 101, -36, 22, -35, 
-23, 126, -46, 23, -18, 15, 125, 21, -11, 74, -35, 91, -24, 20, -16, -28, 
-35, 45, -11, -23, -11, 44, 0, -46, 44, 67, 67, 85, -75, -35, 62, -34, 
-17, -17, 21, 62, 79, 50, -40, -74, -28, 45, 28, 22, 125, -63, -63, 22, 
-28, -17, 90, 56, 5, 34, -45, 62, -11, -5, 67, 62, -34, 68, 85, -68, 
-6, -17, -40, 68, -40, 5, 96, 56, -46, 16, -1, -63, 27, 0, -46, -23, 
0, -57, -29, 68, 56, -40, 33, -68, 0, -6, 39, -57, -57, 39, 56, -6, 
28, 28, 16, -28, -34, -23, 39, -57, 0, 56, -57, -74, 28, 39, -68, 85, 
39, -85, -12, 16, 50, -34, 51, 73, -69, 62, 73, 50, 61, 79, 91, -34, 
-23, 34, -53, 79, -46, -23, -34, -40, 62, -6, 62, -11, 50, -29, 85, 45, 
-63, 73, -40, -34, -6, 73, -46, -69, 5, 16, -12, 34, 27, -6, -63, -17, 
16, 121, 16, 67, 96, 87, 120, 28, 90, 127, 90, 33, -23, 127, 101, 107, 
90, 35, -77, -18, -12, 68, 127, 0, 16, 33, -58, 0, -46, -12, 39, 67, 
95, 23, 66, -64, 83, 73, 33, 21, 32, 4, 49, 124, 20, -58, -64, 26, 
127, 68, 56, -6, -6, 86, 39, 5, 4, 10, -40, 118, -69, -6, 33, -29, 
107, 40, 60, 72, -63, -51, 103, 27, 61, -6, -29, 5, -34, 73, 16, 73, 
66, 40, -71, 27, 26, 67, 95, -7, -7, -24, -48, 127, 71, 38, 33, 83, 
127, 63, -7, -29, 96, 127, -51, 10, 44, 90, 95, 33, 4, 113, -64, -52, 
67, 127, -65, -47, 21, 73, 5, 21, 101, 84, 5, 127, -17, 44, 68, -46, 
-13, 127, 48, 4, -70, 28, 95, -12, 38, 21, 37, -6, 54, 27, 39, -7, 
127, 126, 28, 74, 28, 68, 57, 68, 127, 57, 74, 127, 68, 80, 127, 62, 
120, 127, 127, 127, 63, 91, 97, 127, 28, 114, 126, 127, 63, -28, 74, 127, 
103, 40, 52, 97, 103, 17, 127, 127, 127, 127, 80, 127, 127, 127, 63, 127, 
74, 103, 96, 108, 125, 85, 127, 127, 96, 85, -23, 127, 107, 108, 127, 79, 
127, 57, 103, 68, 63, 127, 97, 57, 80, 57, 127, 127, 17, -17, 126, 127, 
29, 63, 46, 127, 127, 125, 109, 34, 114, 68, 127, 57, 63, 127, 127, 51, 
127, 29, 56, 125, 127, 40, 23, 127, 68, 40, -29, 103, 16, 80, 127, 127, 
127, 127, 38, 127, 120, 85, 103, 127, 74, 125, 127, 127, 0, -17, 127, 63, 
127, 108, 22, 108, 109, 127, 127, 108, 127, 114, 127, 114, 69, 34, 29, 80, 
};

const int8_t LineNetwork_layer_6_bias[] = {
-2, -5, -59, -12, -53, -52, 32, -37, -6, 47, 48, -82, 1, -51, 52, -38, 0, 35, -53, 21, 0, -68, 24, -27, -8, 40, -3, -9, 19, 1, 47, 13, };


const int8_t LineNetwork_layer_9_weights[] = {
75, 59, -60, -76, 14, -46, -7, -30, -30, 97, 106, -45, -76, 59, 37, 75, 76, 58, 127, 82, 60, -31, -68, 45, -15, -24, 0, -37, 127, -92, -30, 37, 22, 49, 23, 61, 20, 67, 46, -68, 89, -31, 114, 83, -2, -77, -44, -15, -31, 80, -98, 82, 127, 35, -52, 45, 97, 112, 0, 106, 23, 13, 90, 7, -18, 91, 90, 113, 13, 107, 106, -7, -31, 114, 45, 121, -84, -14, 113, 68, 73, -9, 53, 91, -8, -62, 7, 127, 6, 59, 6, 91, 0, 74, -61, 91, -39, 61, 14, 45, 28, 30, 60, -7, 36, 52, 53, 60, -31, -30, -30, -22, 119, 83, -7, 37, 97, 36, -7, 67, 74, 6, 75, -68, 22, -77, 29, 106, -40, -9, 22, 127, -32, -23, 22, 127, 51, -15, 21, -7, 21, 90, -54, 127, 67, -76, 45, -30, 59, -53, -98, -38, -53, 90, -83, 0, 67, 97, 37, -98, 13, 14, 7, -45, -99, 7, 83, 83, -53, 6, -76, 106, -23, -16, 45, 53, -69, -1, 68, 60, -61, -84, 60, 106, -69, -69, -45, -30, 0, -24, -38, 15, -54, -38, 22, 7, 112, 105, 83, 60, -46, -8, -53, -75, 75, 90, 75, -91, -62, -15, -30, 83, 112, -84, -45, 83, 14, 82, -45, 60, -53, -31, 29, -91, -99, 98, 83, -83, 59, -84, -45, 60, -76, 22, -38, 37, 105, 29, 83, 68, 19, 76, 44, 120, 58, -45, 0, -68, 28, -15, -84, -45, -70, 121, 44, 0, 59, -16, 127, -46, 127, -1, 75, -22, -16, -24, -38, -22, 127, -62, 90, 75, -30, 90, 30, -53, 75, 74, -83, -60, -30, 44, -45, 75, 83, 82, 0, 90, 92, -32, 14, 127, 83, -85, -45, 127, 15, 112, -68, 127, 127, 44, 98, 7, 22, 22, -45, 45, -46, 52, -30, 7, 67, -46, -106, -83, 83, -92, 0, 45, 21, 22, -60, 22, 67, 6, -15, -53, 22, -8, -7, 30, 105, -53, -38, -22, 127, -84, -45, 0, 59, 59, 75, 30, 52, 82, -106, 37, 75, -15, -23, -83, 82, -91, -91, 0, 21, 7, -83, 45, 59, -91, 83, -38, 60, -8, 105, 15, -38, -77, -45, 15, 83, 82, 45, 45, 67, -84, -30, -7, 120, 29, 22, 14, 51, -91, 83, 0, 13, -46, 98, -68, 90, -38, 37, 53, -84, -39, 83, -30, -1, -76, 76, -45, 105, -91, -7, -37, -8, 68, 7, 68, -23, 121, 37, 60, 59, -46, 7, 44, 82, -31, 98, 68, 82, -39, 83, -15, -46, -70, 45, 30, 83, 59, -76, -68, 37, -61, -60, -98, -23, 120, 98, -75, -8, -84, 45, -15, 90, 60, -98, -76, 75, 75, 75, 68, -8, 29, -60, 68, -53, 60, -38, -45, 105, 36, -7, 22, 14, 90, 45, -38, -76, 52, 75, 7, 22, -38, -84, 37, -38, 6, 15, -7, -15, 82, -22, -83, 37, -31, -68, -7, 82, 75, -30, 45, 21, 90, 83, 22, -92, 52, -98, -106, -8, -53, -60, -22, 14, 59, 37, -98, 
83, -83, 90, 14, -23, -38, -15, 98, 105, -69, -38, -61, 98, -46, 52, -83, 49, 104, -54, 82, 16, 44, 21, 0, 127, 59, -15, 60, 0, -92, -76, 60, 75, 69, 14, 26, 84, -54, 74, 83, 127, 66, -54, -68, 83, 89, 105, -29, 127, -38, -46, -39, 120, -91, 29, 74, -60, 36, -23, 105, -37, 13, -54, -7, -7, 74, 79, -15, -30, -54, 127, 76, 29, 44, 53, 127, -9, -61, 127, 99, 100, -30, 127, 0, 37, -92, 29, 98, 99, 82, 98, 31, 127, 97, 15, 76, 68, 6, 120, 38, 98, -31, -23, 83, 29, 97, -76, 7, 82, -31, -75, 45, 7, -16, 44, -30, 90, 66, -23, 15, 52, 44, -45, -7, 82, 105, 84, -68, 90, 106, -8, 29, -31, 22, 120, 127, -55, 13, 127, 127, -70, 28, 127, 31, -91, -15, -99, 37, -45, 6, 67, -91, 14, -31, -23, -83, -31, 21, -83, -106, -53, -54, 52, -76, -68, -38, 75, 83, -68, 97, 0, -7, 97, -38, 127, 113, 75, -1, 21, 75, 15, -77, -15, -37, -76, -77, 106, 106, -8, 74, -53, 83, -53, 105, -23, -60, -31, 105, -15, -30, 36, 82, -15, -68, 29, 6, -15, 30, 76, 21, -53, 30, 30, 113, 98, 30, -31, 0, 37, 106, 67, 14, 60, -60, -30, 7, 67, -7, 7, -8, 75, -99, 22, -76, -23, 90, -84, 21, 83, -60, 22, 74, 80, 104, -69, 52, 44, 91, -85, 60, 37, 7, 28, 98, 23, 83, 55, 89, -91, 75, 24, 67, 75, 83, 85, 82, -7, 83, 76, -69, 0, 53, -83, 7, 98, 52, 98, 29, -46, 45, 22, 52, 22, -45, 60, 21, -61, -45, 22, 90, 51, 13, 121, 113, 82, 74, 127, -69, 97, -23, 46, -85, -54, -75, 68, 6, 82, 37, -68, 14, 37, -23, 90, 90, -83, -38, 67, 120, -60, -15, -68, 113, -23, 60, -38, -31, 22, -91, -69, 113, -45, -68, -92, 105, -53, -45, -83, -61, -16, -38, -99, -38, 37, -38, 74, -23, 75, -38, -24, -16, 90, -91, 22, -8, 29, 22, -68, -76, -83, 75, -61, 0, -60, 37, 75, 113, 22, 22, 98, 52, -53, -68, -84, 0, -46, -23, 83, 90, -61, 7, 105, -16, 37, 113, 0, -69, 29, 7, -38, 90, 29, 52, -91, -54, 7, 75, -8, 36, 22, 7, -44, -75, 52, 97, 83, 113, -8, -99, 52, 75, -46, 106, -91, -16, 29, -60, -76, 51, -39, -22, -83, 104, 74, -38, 98, 89, -38, -53, 60, -61, -76, 14, 37, 52, 82, 60, 52, -31, 6, 14, -23, -8, 0, 14, -76, 75, -68, -7, 14, 22, 60, -76, -91, 37, 60, 60, 75, 14, 67, -60, -8, -69, 14, -91, 127, 97, -38, 22, 127, 29, -15, 30, 91, 52, 52, -45, 37, -61, -15, 38, -22, -15, -8, 75, 60, 105, -84, -7, 44, 52, -84, 0, 67, 112, -76, -15, 22, -53, -31, -91, -98, 0, 29, 30, -91, -23, -38, 22, -31, 90, -106, -83, 
-68, -31, -46, 52, -76, 52, -7, -69, 90, -38, 90, -38, -38, 74, 45, 29, 88, 127, 0, -23, 127, 22, 121, -91, 59, -15, 113, 6, -70, -91, 15, -31, 0, 127, -92, 4, 112, 112, 67, 5, 112, 82, 45, 43, 5, 90, 83, 81, -15, -39, 7, -39, 37, 119, 75, 29, 0, 96, 30, 13, 37, 51, 68, 82, 127, -46, 88, 21, -1, -22, -9, -31, -1, -76, -9, -69, -17, 83, 74, 59, 50, 127, -30, 104, 127, -76, -15, 75, 127, 90, 38, 0, 41, 59, 121, 67, -23, 113, -47, -16, -92, -38, -31, 52, 36, -38, -84, -31, -16, 90, 29, -8, 59, 68, -8, -68, 119, 22, 6, 45, 58, 68, 44, 121, -100, -45, 22, 98, 74, -23, -15, 13, 20, 74, -38, 28, -2, 28, 21, -1, 43, 6, 21, -62, -69, -91, 0, 22, -16, -106, 14, -23, 97, -76, 7, 22, 89, 0, 83, -8, -16, -38, -99, 29, -69, -61, 75, -68, 36, -68, -38, 98, -1, -68, 67, -68, 6, 120, 67, 0, -46, 7, 105, -91, -46, 22, 113, 98, 13, 98, 7, 60, -84, 67, 105, -38, -23, 7, 52, -23, -92, -84, 60, -46, -16, 22, -76, 52, -1, 83, -23, 52, 105, 75, 98, -15, -24, 67, 67, -15, 104, -76, -91, 22, 6, -68, -23, 14, -23, 22, -76, 6, 90, 82, 14, 44, -23, 7, 83, 98, 35, 52, -16, -62, 127, -61, -16, 29, 104, -76, -100, 21, -9, 52, -54, 105, 127, -30, 127, -7, 127, -83, 121, 14, 11, 75, 113, 29, 87, -23, -53, 14, -68, -91, 105, -53, 29, 60, -68, 14, 75, 44, -23, 82, -54, -91, 83, -91, 98, 21, 22, -8, 22, 67, -22, 44, -84, -1, -52, 21, -23, -54, 30, -77, -84, -61, 105, -23, -92, 0, -76, -8, -61, 44, -38, -91, 51, -76, 90, -69, -76, 37, -38, -46, 21, 7, 0, 22, 105, -46, -76, 90, -31, -38, -53, 60, -1, -38, 29, 82, -99, 37, 6, 6, 67, -8, 37, 82, -1, -8, 6, -23, 0, 98, 6, 67, 59, 52, 75, 45, -84, 91, -61, -45, 59, 106, 22, 121, -15, 6, -83, -84, 29, 59, 45, -8, 67, 29, 15, -8, 75, -31, -53, 90, 6, 0, 6, 0, 59, -38, 22, -46, -46, 90, 44, 90, 21, 83, 105, -69, -84, -46, 113, 112, 68, 67, 75, -8, -61, 112, -91, -31, -53, -62, 0, 67, 97, -23, -7, 106, -16, 30, 7, 113, 67, 45, -22, -83, 44, 75, 98, -23, -30, 29, 14, -61, -8, -38, 75, 44, 75, -38, 29, 44, -16, -15, -83, -38, -30, -76, 29, -46, 37, -91, 83, 22, 90, -76, 29, -84, -16, -23, -53, 44, 20, -46, 105, 29, 90, -61, -61, 14, 104, 105, 7, 45, 28, 44, -7, -23, -38, -91, 0, 75, -8, -68, -38, 82, -31, 6, 83, -31, -61, 82, 121, -76, -23, 0, 75, 44, -61, 82, 0, -106, -92, -68, -46, 60, 74, 22, -68, -76, 
-15, 0, 67, 6, -91, 90, -16, 97, 98, -15, -91, 90, 98, -84, -46, -46, 20, 7, 82, 97, -15, 14, 0, 14, -46, 75, -76, 22, 75, 82, -53, 53, 52, -15, -47, -38, 15, -15, 21, 53, 14, -46, -16, 53, 14, 67, 14, 127, -60, 15, 74, 59, -22, 30, 59, -69, -67, 98, 29, 75, 15, 97, -30, 67, 113, 73, 52, 30, -60, -92, 127, -37, -38, 75, 29, 21, 97, 75, 121, 51, 120, 52, 89, 127, -1, -61, -107, 82, 112, -76, -77, -16, -16, 22, -16, 74, 90, 13, 29, -7, -91, 82, 67, -76, 44, -68, -15, -8, 52, 52, 0, 44, 30, 59, 74, 37, -61, 90, -31, -54, 44, -83, -8, -1, 52, 60, -16, 127, -38, -61, -39, 67, -22, 21, -39, 29, 44, -46, -91, -69, 59, 82, 106, 97, -61, -31, 67, -69, 29, 37, -8, 67, -53, -53, 44, 67, -61, -61, 37, 67, 90, 52, -46, 105, 22, 97, -38, -23, -23, -8, -91, -54, 105, -61, -8, -38, 22, -53, -69, -16, 29, -61, 29, 97, -8, 67, -54, -31, -8, 67, 21, -38, -30, -61, 82, -53, 52, 14, 29, 29, 67, -61, 6, 60, 44, 98, 52, 105, -23, -23, -69, -38, 22, 6, -8, -84, 60, -99, 67, -61, 97, -15, -8, 82, -76, 52, -91, -84, -23, -76, -38, 67, -84, 29, 6, -38, -69, -8, 83, -53, -15, 51, -16, 107, 75, 6, 75, 7, 90, 60, 127, 67, -92, -38, 127, -31, 83, 37, 44, 6, 52, 105, -38, -23, 29, 52, -16, -46, -16, 7, 6, -38, -15, 44, 75, 97, 82, -23, 59, -15, -61, -91, -15, 97, -61, -68, -91, 0, -38, 121, 51, 112, 75, 68, -39, 74, -76, 37, -84, 67, 0, -23, 98, 60, -61, 60, 14, -8, -23, -8, -61, 67, -84, -76, 90, 75, 29, 14, -69, -76, 90, -61, 0, 22, -46, 98, -91, -15, 6, 37, 113, 0, 97, -46, 6, -84, -91, 82, 21, 60, 83, -61, 97, 37, -99, -38, 52, -46, -84, 90, 29, 105, -15, -23, -38, -69, 0, 14, -53, -8, -31, 60, 37, -69, 67, 37, 59, 0, 60, -76, 37, -31, 67, 0, 97, -53, -99, -46, 7, 14, -61, 97, -30, 0, 60, 22, 44, 22, -91, 0, 97, -69, 67, 52, 29, 6, -76, 75, -76, 0, -53, 29, -84, -61, -61, 60, -38, 37, -23, -99, 105, -53, 67, -23, 98, 90, 52, -69, -1, -23, 98, -45, -23, 82, -91, -22, 75, 75, 0, -22, -46, -83, -38, -23, -53, -38, -68, -30, 90, 29, -46, -30, 6, -8, 22, -38, 90, 22, 90, -23, -107, -31, -61, 7, -15, -53, 14, -23, -53, 113, -61, -8, -99, -46, -16, -30, -38, 112, -61, -53, -38, -23, 105, 67, 82, 29, -8, 37, -76, 21, 22, 37, 52, 52, -15, 90, -61, -53, -23, -99, 22, 90, -38, -84, -76, 52, -8, -23, 37, -69, -53, 22, -31, -15, 67, -91, 44, 6, 67, 44, -61, -8, 
29, -8, 98, -45, 97, 60, -68, -15, 52, 75, -68, 22, 44, 52, 30, 97, -80, 22, 29, 121, 57, 90, -60, -68, 72, 83, -83, -46, 35, 22, 7, 59, 0, 104, 127, 54, 11, -46, 22, 59, 50, 52, 127, -54, -56, -30, 68, 44, 41, -54, 68, -45, -60, 89, 84, -99, 15, -100, 127, 89, 60, 28, 16, -92, -62, -14, 127, 42, -16, 7, 14, 66, 13, 22, 89, 127, -1, 99, -85, 127, 71, -92, 98, -15, 70, 36, -15, -38, 63, -92, 68, 90, 10, 82, 83, 44, 29, 68, 98, 66, -23, 45, -15, 127, -31, 76, -99, 60, -8, 53, 37, 127, -100, 98, -45, 127, 12, -45, 82, 75, 80, 53, 29, 29, 80, 91, -1, 14, 29, -32, 83, -15, -31, 74, 106, 127, 96, 21, -99, 127, 81, -54, -23, 127, 52, -23, -83, -68, -61, 60, -53, 52, 67, 90, -68, -46, -69, 7, -83, 6, 90, 14, 45, -76, 44, 75, 52, 82, -54, -22, -38, -30, 13, 0, -38, -84, 66, -61, 90, -76, -100, 60, 45, -31, 5, -98, 90, 6, 36, -30, 22, 51, -16, -38, -15, 105, 90, 0, 90, 83, 97, 7, -61, -76, -38, 60, 45, 98, -70, -99, -38, 6, 81, 0, 75, 90, 28, 90, -91, 44, -77, -60, 75, 22, 127, -68, 45, -53, 75, -61, -83, 37, 22, 67, 83, -76, 67, -53, -23, 14, -38, -22, -61, 81, 44, -8, -91, 74, -39, -76, 74, 7, -70, 60, 5, 127, -35, -22, -15, -68, -12, 0, -7, -53, 78, -23, -53, -16, -20, 67, 37, 13, -69, 37, -83, -83, 97, 44, -61, 0, -76, 0, 60, -84, -54, -53, 0, -61, 69, -38, 127, 30, 51, 44, 106, -61, -84, -77, 127, -46, 82, -1, 46, 97, -23, 37, -45, -76, 67, 52, 30, -38, -77, 67, -7, -15, 36, -53, 14, 75, -53, 98, 22, -15, -16, -7, -30, 44, 44, -76, 45, -30, 82, -99, -91, -23, -69, 52, -7, 52, -8, -30, -68, 127, -99, -30, -45, -15, 51, -53, 83, 68, 13, -68, -61, 14, 36, -45, 29, 90, 51, 113, -53, -46, 89, 106, 6, 90, 29, -76, -38, 52, 52, 14, 22, -15, 105, 14, 7, -69, -76, -76, -60, -54, 44, -7, -91, -84, 36, -61, 60, 82, -1, -98, -91, 60, -47, -91, 0, 75, 6, 97, 68, -15, -30, 82, 22, -91, 98, 6, 0, 37, -7, 6, -14, -45, -39, -14, 67, 60, 59, 45, 75, -8, 89, 127, 74, 90, 44, -15, 67, 21, 0, 37, -23, 7, 6, -68, 68, -91, -69, -68, 37, -53, 67, 67, -23, 0, 22, -30, -7, -61, 82, -23, 60, -68, -31, 90, -22, 67, 97, 82, 15, 90, 79, 67, 37, 90, 28, 7, 83, 7, 43, -83, 106, 113, -92, 52, -83, 14, -61, -83, -53, -30, -23, -76, -30, 52, -39, -53, 22, 113, 44, -15, -61, -15, -31, -45, 90, 52, -92, -15, -106, 52, 67, -83, 67, 37, -31, 83, -15, -76, 
};

const int8_t LineNetwork_layer_9_bias[] = {
-32, -11, -32, 10, 4, };




LineNetwork::LineNetwork()
	: ModelInterface()
{
	init_buffer(4096);
	total_macs = 299013;
	input_channels = 1;
	input_height = 64;
	input_width = 64;
	output_channels = 5;
	output_height = 1;
	output_width = 1;
}

void LineNetwork::forward()
{
	Conv2d<64, 64, 1, 4, 3, 2, int8_t, int8_t, int32_t>(
		output_buffer(), input_buffer(), 
		LineNetwork_layer_0_weights, LineNetwork_layer_0_bias, 57);
	swap_buffer();

	ReLU(	output_buffer(), input_buffer(), 4096);
	swap_buffer();

	Conv2d<32, 32, 4, 8, 3, 2, int8_t, int8_t, int32_t>(
		output_buffer(), input_buffer(), 
		LineNetwork_layer_2_weights, LineNetwork_layer_2_bias, 39);
	swap_buffer();

	ReLU(	output_buffer(), input_buffer(), 2048);
	swap_buffer();

	Conv2d<16, 16, 8, 16, 3, 2, int8_t, int8_t, int32_t>(
		output_buffer(), input_buffer(), 
		LineNetwork_layer_4_weights, LineNetwork_layer_4_bias, 28);
	swap_buffer();

	ReLU(	output_buffer(), input_buffer(), 1024);
	swap_buffer();

	Conv2d<8, 8, 16, 32, 3, 2, int8_t, int8_t, int32_t>(
		output_buffer(), input_buffer(), 
		LineNetwork_layer_6_weights, LineNetwork_layer_6_bias, 22);
	swap_buffer();

	ReLU(	output_buffer(), input_buffer(), 512);
	swap_buffer();

	Linear<512, 5, int8_t, int8_t, int32_t>(
		output_buffer(), input_buffer(), LineNetwork_layer_9_weights, LineNetwork_layer_9_bias, 16);
	swap_buffer();

	swap_buffer();
}
