#include <MagnetometetNetwork.h>
#include <Linear.h>
#include <Conv1d.h>
#include <Conv2d.h>
#include <ReLU.h>
#include <GlobalAveragePooling.h>


const int8_t MagnetometetNetwork_layer_0_weights[] = {
71, -71, 88, -12, 
49, 68, 27, -13, 
28, 70, -19, 91, 
76, -59, 67, -24, 
-24, 36, 60, 42, 
30, 102, 23, -15, 
127, 76, 41, -64, 
68, 15, -47, 38, 
-127, -13, 8, 38, 
-71, 3, -4, -32, 
123, 23, -31, 88, 
86, 30, -87, 7, 
67, -108, -97, 27, 
50, -38, 83, 7, 
34, -31, 23, -27, 
31, 77, 32, 93, 
77, -65, 66, -57, 
-6, 90, -67, 91, 
-66, 25, 18, -127, 
-1, -127, -125, -11, 
-85, -24, -72, 34, 
6, 66, 79, 108, 
33, 38, -48, 105, 
-60, -26, 63, -29, 
};

const int8_t MagnetometetNetwork_layer_0_bias[] = {
-100, -4, 61, -94, -71, 6, 4, 39, };


const int8_t MagnetometetNetwork_layer_3_weights[] = {
53, 33, -127, 39, 13, 92, -74, -6, 
9, -79, -127, 18, 65, 42, -73, 85, 
15, 41, -98, 95, 0, 30, -71, 22, 
20, -77, -45, 122, -60, -87, -25, 41, 
84, 68, 127, -32, -127, -119, 68, 10, 
9, 71, -83, 50, -127, -127, 15, -32, 
-46, -91, 85, 40, -25, 18, 82, 37, 
47, -92, -102, 94, 12, 10, 90, 60, 
57, -29, 58, 11, 62, 47, 35, 43, 
-55, -27, -127, 78, -11, -53, 40, 22, 
-104, -11, 87, -67, 0, 28, 40, 61, 
-15, -29, -63, -10, -9, -29, -25, -8, 
100, 70, 127, -54, 4, 10, 74, 80, 
94, -47, -25, -39, -7, 59, -42, 88, 
62, 35, 12, -22, -3, 32, 26, 34, 
-18, -13, -26, -16, 127, -16, 116, -57, 
-33, 119, -25, 23, -47, 13, -3, -1, 
-28, 15, -9, 10, -60, 64, -28, 16, 
-75, 45, 94, 64, 54, -68, -46, -41, 
97, -32, 41, 65, 47, 47, 12, -57, 
127, -13, -16, 33, -19, 11, -22, -25, 
65, -10, 8, -24, -29, 37, -110, 2, 
75, -1, 107, -35, 6, 46, -127, -25, 
27, -67, 23, -7, 50, 127, -77, 44, 
41, 6, 20, -17, -14, -61, 76, -43, 
29, -13, -111, -10, -8, -89, 127, -47, 
22, 22, -82, -62, 53, -57, 127, -13, 
125, -12, -45, 52, -121, 63, 35, -72, 
127, 25, 37, 5, -127, 74, -5, 6, 
102, 15, 56, 50, -91, 51, 55, -30, 
18, -117, 14, -11, 31, 39, -5, 1, 
-32, -125, -68, 27, 86, 18, 18, 45, 
56, -59, -81, -21, 100, 8, 19, 31, 
125, -10, -62, 64, -9, 8, -3, 4, 
75, -127, 11, 53, 0, -2, -19, -19, 
-57, -127, -22, 33, -23, -42, -5, -24, 
117, 0, 20, 17, 3, -17, 45, -33, 
107, 19, 62, 48, 76, -121, 43, -79, 
76, 111, 62, -4, 29, -127, 58, -64, 
-59, 0, 83, -21, 46, -101, -37, -54, 
-92, 1, -6, 25, -17, -3, -25, 85, 
-82, 71, -23, 107, -28, 86, -53, 80, 
-78, -33, -67, -48, 34, 8, -55, 79, 
-106, 87, 0, 35, -9, 127, -65, -25, 
-71, 66, 30, 39, 13, 72, 10, 1, 
-1, -18, 127, -32, -3, 72, -41, -35, 
-85, -50, 127, 48, -33, 2, 53, 8, 
-97, -20, 109, 5, 3, -46, -29, -16, 
};

const int8_t MagnetometetNetwork_layer_3_bias[] = {
-22, -13, -109, 68, -54, -75, -127, 32, 33, 38, -52, 119, -89, -68, -75, 60, };


const int8_t MagnetometetNetwork_layer_6_weights[] = {
-18, 24, -37, -32, -53, -127, 38, 44, 0, -28, 16, 46, 11, -46, -48, 19, 
-65, -57, 1, 36, -110, -127, 41, -20, 16, -28, 14, 42, 7, -98, -40, 42, 
-12, -57, 17, 16, -89, -127, 24, -68, 0, 3, -1, 90, -43, -84, -27, 23, 
-35, -88, 32, -57, 18, 35, 88, 35, -24, 39, -116, 71, 69, -101, -25, -12, 
-65, -29, -10, 4, 0, 99, 105, 34, -8, 60, -94, 42, 64, -127, -41, -30, 
0, -44, 17, 1, -2, 56, 70, -40, -3, 0, -66, 20, 55, -116, -33, -40, 
22, 0, 38, 47, -90, 79, 16, -40, 16, -63, 24, 59, 68, -25, -41, -49, 
27, 38, 22, 31, -27, 127, 44, 16, -30, 28, 16, 15, 14, 68, 77, -33, 
-8, 56, -34, 1, 27, 22, 53, 57, -39, 61, -58, 10, -56, 80, 124, 44, 
30, 56, 16, -70, 70, 78, -123, -16, -49, 76, 26, -41, -7, -3, 127, -72, 
26, 9, -14, 0, 25, 43, -44, -61, -46, 55, 11, -5, 9, -56, 127, -51, 
50, 3, 28, 0, -27, 75, -5, -20, -25, 42, 45, -3, 5, -109, 77, -55, 
31, -76, -36, -34, -127, 37, 68, -29, 11, -16, 10, -22, 16, -22, 100, 41, 
54, -59, 41, -53, -127, 27, 41, -18, 38, 3, 5, 4, 88, -44, 49, 48, 
67, -9, -17, -13, -127, 91, 60, -37, 30, -17, -21, -61, 108, -96, 55, -19, 
-32, 55, 62, 67, 48, -108, 8, 54, -34, 11, -57, 13, -59, 80, 48, 62, 
-56, 52, -17, 62, 11, -127, -36, 16, -64, -10, -12, -20, -86, 19, -37, 30, 
-34, 42, -46, 73, -8, -94, -92, -20, -53, -14, -3, -20, -81, -51, -62, -57, 
47, 30, 22, -6, 0, -55, -22, 54, -88, -62, 11, -71, 14, -15, 42, -12, 
78, -65, -17, -2, -33, -81, 23, 112, -73, -36, 27, -62, 29, -10, 8, -66, 
68, -119, 55, -14, -43, -7, 95, 100, 33, -29, 54, -60, 44, -27, 21, -89, 
5, -1, -27, -6, -29, -43, -99, 13, 4, 5, 54, 53, -52, -17, 16, 38, 
-16, -88, -31, 35, 16, -1, 16, 19, 5, 17, -2, -51, 3, -87, 22, -47, 
8, -76, -4, -41, 71, 60, 30, 110, -36, 48, -73, -79, 55, -71, 29, -33, 
101, 15, -106, 17, 7, 15, -110, 30, -11, -1, 56, -127, -73, 96, 29, -37, 
127, -20, -94, 52, 20, -57, -105, 25, -42, -22, -5, -127, -85, 127, 57, 12, 
95, -18, -42, 22, -10, -80, -77, 4, -52, 0, -43, -127, -67, 127, 32, 25, 
-103, 75, 21, 25, 4, -69, 29, 12, 36, 29, -38, -59, -11, -127, -36, 0, 
-74, 17, 46, 31, -24, 4, 0, 12, 80, -1, -19, -36, 30, -127, -25, -55, 
-1, 19, 65, -21, -8, 109, 86, 31, 56, 14, -1, -94, 67, -127, 25, -86, 
-11, -20, -50, -13, 19, 92, 14, -36, 5, -14, -56, 5, 9, -11, 32, -3, 
99, 1, 34, -127, 72, 127, -18, -18, 52, -45, 44, -95, -9, -61, -46, 26, 
127, 63, -50, -26, 19, 61, 0, -51, 38, -49, 37, -85, -20, -82, -35, 62, 
49, 13, -42, 19, -21, -127, -26, -50, -41, 20, -25, 59, -84, -111, 24, 49, 
-1, 18, 17, 60, 3, -127, -48, -92, -8, 40, 32, 107, -53, -127, -37, 29, 
22, 40, 0, 7, 15, -127, -89, -93, 0, -25, 9, 79, -16, -127, -66, -22, 
-31, -1, 48, -3, -83, 12, 45, -20, 58, 39, -21, -30, 21, 109, 40, 22, 
-27, -6, 86, 22, 1, 72, 85, 29, 8, 16, -29, -88, 63, 127, 96, 40, 
-53, 87, 12, -41, 10, 103, 70, 42, -25, 39, -6, -54, 50, 103, 64, 28, 
61, 9, 6, 6, 0, 110, 33, -34, -19, -26, 60, 12, -28, -22, 2, 25, 
34, 12, 33, -52, 32, 97, 98, 11, -21, 32, 12, 19, 41, -32, 41, 16, 
10, 16, 63, -20, 5, 50, 21, 35, -26, 21, -2, 26, 16, -3, 71, -19, 
68, 7, 14, -85, 42, 127, 40, -6, 34, -35, 44, -54, 85, -88, 1, -40, 
35, 27, -11, -72, 21, 127, 47, 63, 25, -18, 18, -97, 5, -108, 48, -42, 
-30, 10, -21, -87, 30, 126, 4, 39, 65, 19, -2, -117, -12, -11, 30, 20, 
-28, -41, -48, -14, 25, -67, -44, 106, -34, 35, -14, 14, -33, 13, -58, 19, 
0, -35, -46, 45, 11, -46, 21, 92, 10, -34, 9, 40, 8, -15, -127, -13, 
29, -19, -66, 8, -28, 117, 17, 39, 97, -96, 99, 45, 29, -53, -127, -71, 
-36, 34, 24, 2, -14, -62, -127, -127, 34, 33, 38, -12, -57, -123, -2, -109, 
-5, 18, 65, 0, 7, 61, -28, -127, 34, 25, 57, 12, -20, -62, 56, -116, 
57, -28, 20, 5, 10, 66, 73, -22, -19, 29, 39, -23, 60, -50, 91, -59, 
-5, 30, -127, 22, 59, 127, 56, -5, 81, -3, -10, 32, -5, -13, -2, -42, 
-8, 98, -127, -59, 42, 127, 18, 0, 27, -21, 3, -7, 79, -82, -19, -45, 
-49, 58, -127, -37, -34, 35, -2, -27, 14, -4, -18, -37, 34, -114, -35, 4, 
83, -18, -42, -38, 43, 127, 1, 39, 27, -56, -7, 22, 53, 35, 3, -44, 
52, 82, -91, -1, 73, 55, -80, 50, 34, 35, -58, 11, -25, 62, 14, -1, 
13, 23, -40, 10, -24, -51, -67, 50, 3, 76, -87, 34, -67, 79, 46, 37, 
-65, -127, 61, 84, -12, -65, 35, -66, -10, 28, -43, 0, -78, 56, 10, -11, 
22, -127, 44, 66, 50, 69, 82, -48, -22, -1, -3, 16, 0, 21, 53, -31, 
66, -127, -19, 19, 68, 0, 94, 4, -17, 28, 91, 51, 78, 9, 3, -48, 
-69, 11, -127, -122, 5, 18, 63, 54, -25, 89, -36, -53, 72, 4, 75, 49, 
-124, 10, -127, -109, -11, -59, 10, 15, -36, 48, 0, 9, -13, -63, 2, 71, 
-69, 19, -100, -60, -30, -95, 8, -42, 29, -4, 0, 51, -49, -39, -51, 51, 
64, 33, -14, -11, 16, 127, 82, 30, 0, -55, 50, 30, 39, 54, 58, 60, 
0, 18, -119, 52, -41, 127, 127, -92, 53, -42, 35, -53, 16, 74, 127, -28, 
-77, 66, -89, -23, -49, 45, -37, -99, 11, -5, 24, -57, -13, 15, 72, -48, 
45, 42, -20, 31, 22, -1, -78, 63, 4, 20, -22, -43, -69, 14, 97, 2, 
17, -13, -11, -4, 9, 27, -9, 127, 7, 51, -41, 9, -65, 127, 105, 14, 
-1, -43, -8, -14, 32, 58, 49, 50, -19, 1, -22, 45, -23, 127, 76, 23, 
34, -71, -6, 11, -20, 54, -28, -38, 64, 32, 25, 30, 44, -127, -32, -10, 
18, -72, 44, 9, -66, 21, -28, -117, 56, 13, 7, 18, -4, -127, -119, -41, 
13, -25, -38, 62, -43, -17, -88, -71, -10, 13, -33, -8, -33, -127, -35, -13, 
-3, -16, -21, 3, 32, 46, 39, -9, -49, -60, -32, -22, -18, 80, 7, 38, 
-31, 36, 33, 27, 67, -15, -16, -1, -52, -59, -30, -33, -19, 127, -14, 47, 
-44, -24, 36, -25, 33, -23, -29, 2, -15, 28, -34, 59, 4, 127, -5, 65, 
64, 26, -89, -100, 72, 41, 54, 116, -10, 53, -27, 93, 1, 95, 84, 16, 
53, 10, -92, -88, -1, 0, 25, 72, -35, -27, -11, 95, -12, 66, 50, 16, 
27, -28, -78, -40, -58, -24, -21, -37, 2, -78, 12, 83, -34, 38, 19, -5, 
-65, -57, 3, -60, 19, -26, 38, 54, -35, 13, -13, -48, 34, -111, -22, 69, 
-84, -87, -34, -54, -5, -91, 6, -18, 16, 15, -18, 19, 59, -127, -104, 37, 
-39, -43, 21, 1, -33, -2, -29, 19, 3, -33, 13, -12, 37, -125, -42, 55, 
35, -61, 90, -50, -9, -107, -7, 22, -44, 76, -79, -25, -45, 81, 78, 52, 
20, -10, 110, -2, -62, -57, 56, 27, -31, 75, 6, 28, -31, 100, 46, 52, 
31, -85, 107, -35, -73, -31, 59, -33, 4, 32, 27, 57, 21, 35, -10, 23, 
81, -27, 76, -66, 0, 85, 99, 80, -1, 12, 47, 58, 60, -74, -18, 21, 
36, 44, 45, -98, -16, 120, 67, -9, -16, -34, 87, 92, -22, -16, 8, -27, 
-72, 29, 45, -59, 36, -3, 23, -32, -3, 3, 57, 26, -40, 35, 31, 19, 
69, 27, -127, -47, -35, 42, -54, -52, 34, -17, 7, 27, 17, 3, 32, 20, 
69, -14, -127, -76, -55, 20, -95, -48, 73, -24, -28, 4, 57, 46, 126, 0, 
26, -17, -127, -47, -23, -37, -87, -12, -8, 66, -10, -41, 38, 57, 96, 13, 
26, 66, -26, -58, 56, 19, 56, 23, -60, -14, -96, -37, 65, 79, 36, -17, 
-29, 41, -25, -36, -9, -15, 72, -19, -23, 10, -126, 40, 25, 54, 100, 44, 
-42, 61, 20, 24, -13, -65, 50, -59, -10, -21, -65, 0, -16, 13, -4, 28, 
-127, 29, 60, -3, 0, -127, -97, -127, 14, 81, 17, -12, -109, -127, -34, 32, 
-127, 50, 13, 23, -17, -127, -89, -127, 102, 38, -4, 49, -98, -127, -79, -2, 
-124, -9, 53, 0, -16, -118, -69, -127, 105, 2, 24, -7, -81, -127, -21, 27, 
};

const int8_t MagnetometetNetwork_layer_6_bias[] = {
66, 1, 2, 22, 36, 25, 48, 27, -3, 8, 0, 72, -127, -127, -54, 36, 40, 15, -11, -42, 49, -24, -20, 78, 28, 1, 49, 3, -80, 38, 34, -3, };


const int8_t MagnetometetNetwork_layer_9_weights[] = {
-1, 84, 85, 111, -77, 41, 39, 27, -61, -69, -41, -45, 60, -19, 48, 74, 39, 66, 58, 89, 18, -78, 55, 4, 34, 83, 58, 61, 73, -127, 76, -59, 
-48, 6, -26, 33, -84, 21, 91, 5, 21, -127, -77, 9, -8, -122, -42, -42, 9, 3, -11, 48, 36, -80, 1, -68, 31, 0, 21, 4, -37, -99, -27, -23, 
-74, -95, -26, -65, -1, 63, 29, -79, 45, -127, -124, 5, -93, -127, -127, -82, -19, -73, -31, -7, -9, -119, -20, -87, 32, -21, -43, -5, -63, -126, -67, -49, 
-75, -10, 29, -28, 0, -31, 32, -6, 92, 39, 103, -90, -18, -31, 18, -51, 62, 47, 3, -67, -87, 70, -42, 87, -13, -21, -53, -114, -59, 116, -16, -127, 
61, 16, 59, 1, -45, -16, -5, 10, -2, -14, -13, -17, 47, 27, -5, -26, -76, 28, 26, 0, -16, -2, 13, -71, 27, 17, -55, -3, -26, 31, 33, -127, 
127, 21, 27, 21, -29, 1, -53, -44, -105, -34, -82, 50, 21, 29, -12, 12, -61, -67, -14, 21, 52, -52, 31, -81, 45, -8, 79, 127, 0, -61, 35, -5, 
-72, -127, 34, -10, -21, -43, -11, -24, -102, -80, -88, -44, -38, -127, -127, -56, 54, 55, -21, -40, 14, -83, 17, -20, -2, -81, -46, -1, -69, 94, -14, -127, 
8, -127, 60, 23, -15, -100, 60, -54, -101, -77, -48, -94, 30, -70, -127, -8, 65, 22, 13, 24, 15, -5, 56, -24, 0, -20, 9, 73, -1, 121, 54, -127, 
51, -16, 96, 78, 68, -66, 4, -45, -80, -13, -11, -26, 30, 28, -127, 51, -3, 73, -1, -5, -13, -59, 17, 4, 20, 26, 52, 90, 70, 18, 22, -29, 
61, 80, -6, 14, 29, -47, -22, 0, 9, -66, 97, -85, -41, -57, 21, 52, -127, 29, 15, -75, 29, -8, -39, -61, 41, 97, 54, -17, 87, -26, 127, -127, 
54, 40, -34, 65, 66, -28, -10, -2, 58, -75, 63, -60, -34, -127, -13, 45, -127, 56, 6, -46, 5, -1, -58, 20, -25, -21, -9, -55, -16, -7, 36, -127, 
50, 52, -22, 4, 50, 38, -18, 9, 103, -68, -18, -82, -34, -120, -14, 43, -92, 35, -12, -16, 0, 1, -12, 42, -33, -56, 8, -55, -76, -14, 13, -127, 
13, -76, 6, 13, 127, -5, 0, 4, -51, -127, -1, -115, -81, 32, -17, 6, -30, -67, -30, -34, 54, 127, -18, -124, -11, -18, -20, -19, 6, 104, -32, -127, 
-41, 35, -31, 21, 81, -18, 13, 18, -7, -70, -15, -127, -18, 6, 29, 10, -76, 4, -12, 10, 54, 113, 10, -127, 4, 0, 20, 28, 46, 62, 13, -127, 
-29, 56, 5, -61, -20, 16, -46, 59, -11, -35, 2, -97, -44, 19, 10, 40, -111, 71, 13, -23, 26, 33, 26, -127, 31, -30, 23, -11, 5, 40, 71, 127, 
36, -34, 8, -63, 42, -127, 13, -76, -81, 23, 50, -25, -84, -65, 4, 47, 79, -2, -75, 19, -82, -1, -71, 49, -116, -68, -42, -51, 8, 33, -122, 96, 
18, 17, 68, -16, 0, -97, -6, 1, 17, 24, 24, -115, -59, 14, 2, -4, -16, -9, 17, 22, 10, 2, -31, -8, -44, 16, -31, -26, -31, 21, -32, 62, 
-34, 35, 78, 26, -52, -74, -6, 108, 75, -26, -21, -127, 19, -7, 10, -60, 11, -22, 122, 52, 86, -11, 81, -64, 50, 62, 55, 20, -48, -14, 19, 46, 
34, 23, 17, -1, 38, 20, -85, -24, 33, -42, 16, 40, 9, 65, 39, 50, -90, -96, 5, -9, -18, 127, 15, -39, -10, 28, 3, 38, 36, -127, -31, -8, 
30, -9, -4, 2, -121, 49, -78, 40, 7, -40, 13, 53, -2, 43, 50, 8, -110, -127, 15, 8, -3, 73, 52, 0, 22, 11, -1, -7, -38, -123, -35, 39, 
24, -21, -4, -41, -127, 89, -56, 41, 56, -66, -32, 54, 7, -23, 37, -29, -49, -127, 33, 3, -49, 46, 33, 5, 19, 14, -15, -8, -76, -83, 8, 30, 
-47, 40, 77, 19, 0, -75, 26, -22, -4, 5, 26, -12, -20, 25, 43, 35, 20, 75, -43, -30, -19, 51, -109, 54, -71, -8, -29, -32, 127, 12, 3, -2, 
-41, -21, 11, -30, -13, 4, -3, -21, 26, -71, -22, 6, -52, -39, 1, -67, 4, 28, -17, -30, 18, 85, -97, 22, 14, -62, -25, -37, 3, -8, 13, -30, 
-10, 8, 31, -50, -83, 97, -46, 15, 127, -4, -4, -8, 28, 20, -13, -81, -56, 9, 30, -10, 126, -4, 26, -51, 61, -70, -9, -8, -76, 27, 71, -89, 
8, 40, -58, -25, 17, 19, -81, -86, -93, 43, -104, 45, 8, -24, 57, 5, 19, -66, 4, 22, 50, -110, -95, 37, -10, -127, 49, -8, 2, 33, 23, 116, 
79, 47, -85, 3, 63, 7, -73, -50, -127, 41, -56, 65, -7, -2, 17, 8, -12, -27, -58, 18, 22, -77, -106, 47, -13, -127, 10, 1, 28, -38, 6, 127, 
79, 8, -50, 10, -4, -27, -35, -6, -127, 6, -21, 50, 15, -33, 10, 20, 18, -10, -45, -1, 39, -16, -127, 37, -20, -127, -1, -21, 40, 1, -11, 127, 
114, 9, 7, 73, -31, -42, -33, 6, 71, -92, 63, 40, 5, 12, 13, 11, -31, 57, 45, 44, 70, 105, 9, -111, 68, 41, 0, 41, 26, -96, 38, 18, 
12, -24, 25, 19, 11, -102, 10, 3, -59, -51, 67, -121, -26, -30, 32, 17, 7, 67, -65, -38, 40, 127, 3, -68, -25, 32, -61, -5, -13, 1, -47, -127, 
-17, 16, 5, 62, 12, -94, 31, 32, -111, 17, 90, -127, -56, -42, 35, 0, 102, 74, -63, 3, 11, 112, -20, -54, -68, 47, -46, 7, -11, 60, -60, -127, 
-27, -48, 38, 32, 105, -50, -24, -21, -24, -28, -12, -30, 17, -127, -14, -42, 48, -15, 4, -120, -47, 127, -20, 68, 32, -20, -19, -74, 32, 44, -6, -120, 
6, 20, -1, -48, 75, -49, -52, -15, -14, -74, -28, -39, 19, -127, 18, -92, -10, 47, 18, -126, 25, 59, 27, 18, 40, 5, -13, -37, -68, 57, 52, -124, 
-4, 32, -17, -20, 17, -43, -59, 111, 6, -41, -13, -86, 57, -79, -3, -83, -46, 35, 50, -75, 68, 9, 10, 0, 6, -40, 26, -2, -65, 73, 26, -127, 
-25, 42, 21, 56, -36, -69, 64, 91, 34, -20, -4, -12, -43, 76, 87, 48, -63, 37, 97, 25, 127, 50, 28, -53, -18, 91, -29, -74, 21, -31, 38, -68, 
31, -3, -32, -4, -14, -74, -13, -22, 45, -12, 19, -13, -14, 54, 15, 19, 4, 29, 29, -53, 79, 83, -17, -34, -19, -2, 19, -37, 3, -47, 45, 40, 
56, 1, -54, -49, 53, -65, -52, -80, 69, -7, -9, 58, -40, 3, -33, -36, 16, -21, -33, -76, 58, 113, -18, 38, -27, -76, -7, 12, -4, 0, -9, 101, 
-52, 24, 35, 43, 1, -127, -47, -33, -127, 23, 60, -43, 26, -75, 34, -62, 65, 40, 22, -43, 73, 36, -27, 0, -37, -49, -17, 7, 15, 28, 75, -66, 
-60, 0, 14, 41, -90, -110, -42, 8, -127, 27, 29, -3, 4, -89, 20, -63, -2, 19, 24, -14, 75, 8, -10, 10, -2, -26, -60, -15, 20, 67, 31, -54, 
-98, 3, 52, 27, -127, -16, -1, 31, -88, 38, -47, 62, 14, -12, 22, -22, -30, 30, 57, 7, 49, -127, 15, 18, 5, 3, -61, -5, 9, 21, 6, -3, 
57, -57, -115, -97, -54, -36, -36, -67, -127, 9, -6, -43, -91, -122, -29, 0, 18, -25, -127, -13, 15, -1, -127, 0, -120, -40, 67, -78, -82, -41, -64, 90, 
-31, -63, 20, -74, 30, -127, -2, -24, 24, 71, 75, -78, 23, -9, 19, 32, 107, 26, -63, 53, -16, -5, -21, -17, -52, -95, 55, 24, -15, 50, -81, 6, 
-79, 2, 32, -16, 66, 42, 31, 67, 127, 37, 127, -127, 24, 29, 43, -17, 40, 61, 13, 56, 74, 79, 66, -35, 42, 91, 41, 9, 66, 56, 1, -92, 
7, -82, 5, 50, -127, 32, -75, -3, -51, -5, -23, 29, -111, -127, -127, -48, 30, 26, -26, 71, -17, -42, 31, 34, 44, -66, -28, -4, -103, 61, -4, 33, 
-52, -96, 30, 73, -39, -45, -7, 17, -90, -1, 5, 30, -78, -127, -101, 46, 35, 51, -41, 39, 8, -27, 37, -31, 41, -52, -29, 62, -66, 72, -65, -22, 
-39, -16, 59, 68, 13, -34, 67, 39, -127, 47, 55, 57, 18, 95, 9, 58, -36, 84, -57, 33, -58, -24, -76, 41, -80, -9, -76, -16, 62, 52, -15, -42, 
20, 18, -4, 46, -38, 77, 18, 24, 23, -71, -22, 12, 4, -50, -45, -15, -86, 3, 36, -32, -23, 3, 37, -127, 22, 5, 19, -16, -75, -33, -36, -6, 
42, 29, -8, 74, -36, -20, 48, -38, -16, 5, -38, 11, 11, -62, -17, -22, 2, 14, 49, 36, -39, 13, 33, -68, -24, 30, 32, 41, -27, -74, -20, -124, 
27, 31, 31, 42, 59, -18, 83, -41, -60, 60, 54, -9, 41, -5, 21, 98, 56, 34, -26, 39, -80, 59, -54, 53, -45, 17, 18, -29, 62, 24, 7, 95, 
-127, -117, 12, 22, -127, -110, 61, 35, 37, 107, 47, -16, -105, -45, 10, 0, 120, 43, 18, -25, 12, 45, 0, 26, -12, -68, -127, -91, -44, 37, -3, -60, 
-127, -127, 26, 66, -127, -127, 12, -21, 30, -10, 48, -103, -65, -1, 6, -25, 32, 26, 37, -67, 21, 87, 30, -61, 27, -5, -127, -6, 20, 45, 3, -127, 
-127, -127, 75, 41, -127, -106, -41, -67, -14, -109, 69, -123, 6, 57, -29, -86, -19, 1, 40, -104, 30, 14, 20, -127, 46, 35, -42, 127, 64, 18, 38, -127, 
-127, -52, -37, -11, -43, 9, -28, -13, 17, -75, -73, -39, -16, -127, -50, -35, -56, -43, 28, -51, 119, 54, 46, -62, 2, -45, 67, 114, -57, 34, 11, -127, 
-96, -2, -32, 33, -17, -1, -4, 11, 23, 14, 50, -66, -12, -127, -26, 83, 33, 28, -17, -3, 2, -15, -4, -18, 6, -19, -17, -8, -19, 57, 19, -78, 
-127, 28, -26, 57, 55, -13, 109, 51, 31, 87, 48, -60, -18, -13, 47, 118, -38, 61, -18, 36, -45, -23, -22, -34, -37, -14, -48, -90, -9, 52, -42, -86, 
33, -59, 12, -33, -4, -64, 0, -19, -127, 71, 19, -7, -52, -27, -37, 96, 36, 2, -16, -2, -36, -20, -64, 8, -48, -5, -26, -53, 22, 59, -64, -103, 
-73, -9, 64, 6, -29, -20, 30, 23, -127, 47, 99, -1, 43, 103, 59, 33, -39, 42, 13, 2, -21, -28, 1, 52, -37, 21, -52, 16, 53, -34, -17, -127, 
-14, -18, 29, 0, -31, 13, -2, 92, -127, -49, 22, 37, 5, 94, 12, -17, -3, -30, -31, -47, 35, -71, -24, -8, 71, -31, -23, 15, -22, -79, 37, -90, 
-60, 36, 12, -72, 62, -118, 7, 28, -62, 35, 96, -127, 36, 20, 63, -1, 10, 74, 36, -27, 22, 82, -50, 66, -53, -51, 23, -6, 30, 90, 10, -94, 
-24, 22, 21, -33, 43, -74, -16, 11, 38, -43, 19, -127, 25, 12, 32, -4, -20, 3, 25, -17, -1, 9, -21, -3, -21, 19, 39, 9, 2, -18, 76, -127, 
-41, -9, 7, -36, -2, 1, -28, -1, 80, -53, -14, -127, 41, -62, -2, -27, 19, -47, 0, -58, 57, -2, -5, -103, 7, 23, 10, 37, 25, -58, 56, -127, 
-127, -123, -33, 72, -127, -26, -19, -36, -127, -11, -75, 29, -127, -127, -127, -96, 23, -16, -34, -2, 21, -127, -11, -45, 31, -127, -16, 38, -48, 9, 39, -96, 
-127, -101, 38, 98, -63, -20, 64, -1, -127, 12, 45, 4, -62, -127, -127, -32, 6, -1, 37, 54, 42, -70, 9, 15, -8, -127, -59, 16, 20, 15, 42, -103, 
-127, -7, 9, 91, -81, -42, 80, 54, -24, 18, 81, -35, -89, -21, -12, 45, 6, 62, 22, 27, 55, 36, -2, -18, -21, -25, -103, 44, 54, 4, 27, -127, 
40, 5, 46, -9, 108, -84, 95, 56, 90, -9, -127, 19, -80, -119, -20, 32, 26, 38, -43, -21, 0, -1, -59, -3, -72, 39, 15, -66, 59, -35, -34, 27, 
24, -32, 23, 13, 107, -36, 18, 70, 126, 14, -127, -5, -67, -127, -14, -61, 0, 19, -4, -66, 53, -50, -22, -3, -37, -7, 34, -34, 12, 36, -22, -8, 
-24, -19, 33, 12, 37, 76, -11, 54, 63, -9, -127, -40, 64, -102, -11, -90, -64, -1, 0, -78, 101, -127, 55, -83, 57, 34, 22, -4, -68, -5, 42, -60, 
37, 68, -79, 52, 2, 83, -43, 22, 127, 8, -33, 5, -46, -86, 15, 2, 0, 18, 26, -1, 43, -39, 47, 14, 17, 110, 61, 47, 10, -17, 55, -8, 
64, -10, -67, -8, 25, 7, -19, -41, 84, 12, 9, -16, -98, -127, -25, 11, 1, 26, -24, -8, 65, -16, -49, -3, -36, 27, 57, -26, 10, -70, 9, 39, 
-24, 3, -33, -74, 82, -8, 13, -17, 33, 6, 70, -79, -86, -65, 7, 59, -28, 44, -59, -7, -25, 80, -127, -12, -95, -7, 58, -73, 60, 9, -48, -38, 
-10, -33, 6, 29, -37, 8, 35, -18, -127, -56, -37, 15, -127, 3, -74, -9, -20, 36, -52, -20, -6, -127, -30, -41, -37, 63, 1, -9, 63, -56, -41, -85, 
25, 18, 89, 55, -10, -13, 2, -11, -127, -47, -4, 63, -66, -18, -127, 18, 34, 33, -70, -28, 14, -127, -36, 16, -1, 26, 25, 4, 18, 43, -18, -33, 
34, 125, 44, 29, -23, -22, -56, 0, 71, -30, -25, -40, -43, -27, -119, -12, -25, 0, -40, -23, -23, -112, -26, 32, 9, 69, 76, 30, 13, 50, 56, -33, 
59, 46, 29, 7, -107, 63, -109, -29, -43, 37, 48, -13, -15, -20, -34, -53, -127, 73, 20, -24, 11, -127, 13, 1, 53, -20, -22, 26, -42, -7, 49, 63, 
-6, 8, 58, 44, -127, 54, -38, -21, 41, 54, 16, 23, -9, -66, -36, -17, -115, 36, 69, -31, -3, -127, 11, 34, 0, -45, -42, 12, -40, -6, 26, -32, 
-76, -9, 33, 61, -127, 24, -27, 43, 63, -41, 92, -24, -63, -78, 25, -86, -85, 2, 70, -40, 21, -127, 26, 27, 43, -12, 21, -63, -127, 70, 35, -6, 
-127, 76, 67, -30, -37, -69, -6, -12, -53, 40, 36, -127, 48, 121, -18, -15, -73, 45, 42, 48, 17, -26, 5, -12, -28, 33, 79, 46, 26, 17, 13, -118, 
-127, 42, 29, 3, -15, 48, -1, 22, 50, 33, 3, -127, -11, 127, 6, -1, -37, 33, 36, 65, -4, 28, 14, -25, -31, 26, -10, -7, 33, 41, 20, -127, 
-127, -74, -34, 0, 67, 61, -21, -47, 102, -68, 6, -127, -70, -31, -45, -22, 58, -29, -27, -35, -15, 101, 30, -28, 23, -20, 13, -11, -4, 40, -26, -127, 
21, 41, 41, -9, 59, -127, 32, -34, -52, -26, -12, -57, -35, 14, 45, -35, -8, 38, -19, -31, -45, 54, -80, -3, -101, -61, -25, -89, 43, 22, -83, -4, 
89, -10, 38, 0, 55, -127, 7, -13, 70, -6, -68, -41, -33, -75, -5, -17, -63, 23, 7, -10, 9, 52, -16, 1, -1, -50, 20, -32, 42, 30, -24, 8, 
70, 19, 66, 85, 71, -100, -15, -17, 119, 5, -40, -43, 10, -26, 3, -62, -26, 46, 63, 29, -17, 22, 119, -18, 70, -31, 35, 57, 34, -14, 11, 32, 
44, -122, -32, -127, 81, -60, -35, 15, -127, -69, 38, -17, -127, -48, -127, 4, -50, -20, -127, -121, -117, 21, -127, 21, -51, -67, 44, -69, -47, 13, -15, -58, 
67, 6, 13, -68, 87, -127, 2, -39, 6, -36, 64, 47, 47, -22, -61, 14, -18, -94, -127, 7, -90, 4, 38, -25, 13, -45, 29, -19, 35, -14, 81, -75, 
90, -23, 62, 23, 15, -115, 52, -35, 21, -54, 110, -28, 5, 26, -36, 86, 17, -53, -96, 4, -26, 65, 46, -21, 73, 70, 73, 13, 25, 2, 120, -53, 
-55, 67, 33, 15, -56, 49, 81, 14, 80, 5, 62, 26, 19, -6, 25, -2, -5, 64, 59, 29, -36, 0, -70, 15, 39, 69, 16, -127, 46, 35, 55, -75, 
-50, 18, -31, 51, -27, -16, 50, -26, 7, 18, 15, 63, -61, -63, -36, -12, -6, 55, 7, 4, -68, 10, -127, 84, 13, -78, -23, -127, -16, 19, -4, -49, 
-21, -11, -80, -6, 42, 59, 15, -54, -90, 7, -26, 16, -102, -45, -49, -14, 60, 15, -53, -25, -76, 37, -127, 49, 0, -127, -41, -127, -17, 101, -14, -72, 
-127, -99, -22, -77, 54, -59, -37, -93, -52, -62, -43, 7, -20, -48, -37, -62, 70, -101, -127, -1, -105, 17, -112, 15, -51, -127, -104, 36, -46, 34, -127, 31, 
-51, -26, 57, -3, -17, -67, 34, 61, -70, -45, 50, 50, 48, 90, 4, -26, 66, -25, -23, 34, -89, 28, -14, -24, 1, -56, -31, 13, 12, -14, -33, -71, 
-127, 81, 60, 8, -45, -38, 90, 97, -28, 35, 16, 21, 120, 92, 37, -10, 29, 32, 56, 32, 34, -53, 73, -68, 54, 8, -35, 25, 25, -76, 98, -52, 
-14, 32, 59, 57, 67, 46, 76, 77, -110, -16, 44, 9, -20, 16, -50, 13, 55, -39, -70, -13, -127, 106, -1, 100, -15, 24, -50, 97, 43, -76, -60, -62, 
-23, -14, 26, 66, 38, 55, 30, 61, -65, -11, 51, 4, -123, -54, -57, -10, 87, -51, -105, -13, -127, 97, -104, 100, -11, -30, -90, 42, 47, 37, 1, -44, 
-3, -105, -20, 40, 30, 81, -39, -49, 19, -59, -78, 54, -103, -121, -102, 32, 40, -95, -127, -65, -79, 8, -58, 61, 4, -104, -73, -4, -33, -32, 19, 5, 
-42, -45, 24, -41, -75, 34, 29, 7, 1, -53, 78, -21, -4, 104, 16, -37, 11, 39, -44, -23, 27, 127, -73, -55, 31, -21, -34, 2, 69, -31, 36, 35, 
28, 29, 3, 9, -103, 112, 6, -5, 22, 20, 13, 8, -17, 99, 30, 10, -30, 60, 49, -52, 41, 54, -25, -24, 67, -15, 13, -37, 52, -22, 60, 67, 
5, 10, -87, -47, -98, 17, -48, -61, -10, -4, -4, 31, -33, -29, -42, -41, -66, 5, 11, -127, 0, -17, -90, 38, 27, -74, 4, -41, -40, -48, 16, 61, 
62, 15, -51, 29, 31, 122, -51, 45, 89, 25, -54, 49, -108, -127, -127, -43, 15, 27, -19, 59, 24, 1, 72, -57, 7, 6, -25, 14, 30, -33, -18, 83, 
59, -69, -88, -8, 36, 49, -36, 8, -31, -5, -28, 25, -127, -127, -127, -19, 21, 1, -79, 42, 12, -36, -33, 38, 41, -52, 21, 34, -27, 7, -31, 35, 
-10, -56, -67, 25, 43, 35, 17, 26, -127, -39, -3, 8, -120, -127, -127, -29, -28, 79, -70, 27, 40, -54, -96, 51, -21, -60, 2, -13, 1, 7, -4, 21, 
-26, -46, -97, 1, 35, -18, -42, 35, 122, 0, -117, -121, -44, -127, -80, -35, -29, -50, -11, -103, 34, -114, 78, -39, 58, -27, -36, -17, -127, -49, -5, -64, 
-4, 31, -57, -38, 80, -83, 45, 0, -127, -21, -114, 21, 45, -78, -11, 69, 22, 0, -23, 22, 5, -23, 37, -13, -4, -9, 30, 44, -49, -18, 36, -56, 
40, 105, 11, -74, 71, -127, 51, -7, -127, 38, -21, 12, 82, -103, 46, 114, 57, 83, -28, 63, -44, 53, -25, 56, -91, 14, 13, 43, 34, 57, -7, 105, 
116, -30, -3, -26, -8, -21, -25, -24, -50, -24, 49, 72, -73, 4, -28, 0, 56, -34, -10, -4, -19, -56, -38, 72, 4, -16, -38, -40, -39, 43, -27, 51, 
15, -54, 59, 7, -44, -32, 0, -3, -96, 18, 71, -32, -22, 42, 13, 15, 25, 14, 14, 34, -1, -66, 12, -37, -8, -25, 20, -34, 22, 6, -51, -17, 
-56, 15, 77, 58, -22, -57, 54, 75, -94, -4, 76, -88, 16, 125, 32, 40, 17, 27, 70, 36, 51, -22, 71, -59, 38, 25, 12, 21, 38, -6, 9, -96, 
46, -11, 64, -45, 102, -97, 45, -54, -127, -127, -9, -36, -46, 69, -12, -15, -50, 10, -78, 27, -113, 43, -110, -75, -85, 28, -56, -15, 64, 81, -75, -127, 
79, -17, 77, -1, 50, -9, 14, -32, -98, -74, -45, -47, 15, 85, -10, -56, -34, 15, 19, 48, -32, 29, -39, -127, 38, 31, -14, 62, 51, 51, -3, -4, 
37, -39, 53, 75, 25, 19, -31, -36, -30, -43, -37, 0, 16, 51, -19, -68, -15, -47, 58, 40, 65, -12, 44, -127, 33, 30, -10, 41, 29, 45, 29, 19, 
42, -24, 77, 44, 76, -127, -1, -4, -85, 13, 44, -25, 16, 102, 58, 21, 0, 62, 15, 54, -74, 108, -6, 87, -56, 7, -121, 4, 84, 51, -33, 101, 
42, 18, 50, -8, 10, -96, -5, 14, -61, -84, -38, 33, 37, 82, 33, -27, -52, 7, 33, 44, -6, 50, 16, -16, -33, 1, -95, 10, 42, -40, -1, 10, 
29, 22, 5, -56, -116, -13, -84, -34, -71, -84, -88, -71, 2, 56, -69, -79, -117, 0, -6, -52, 27, -104, -14, -86, 13, 4, -73, 17, 12, -66, 19, -43, 
48, 26, -52, -20, 12, 33, -32, -9, -127, -53, -36, 122, -11, 9, -19, 31, -29, -49, 29, -13, 42, -51, 1, -18, 40, 78, 43, 49, 0, -92, 47, 13, 
-43, -32, -44, -8, 65, -47, -16, 68, -127, -54, 74, 48, -17, -12, -45, 56, 41, -21, 8, 4, 33, 21, -42, 18, -45, 6, 27, -52, 2, -29, -17, 25, 
-97, 8, -10, 41, 74, -73, 20, 109, -127, -14, 102, -22, 79, 82, 57, 65, -8, 13, 9, 56, -49, 89, 7, -26, -63, 20, -17, -61, 12, 5, 2, -56, 
17, 15, -1, 19, 6, -108, 46, 0, -56, -13, -118, 47, 27, 4, -36, -17, 62, 0, -4, 67, -1, -127, -29, -33, -2, 32, 63, -14, 13, 30, -39, -41, 
28, 37, -47, -33, 28, -127, 86, 3, 39, 44, -44, -20, -18, 21, 39, 18, 16, 14, -13, 70, -10, -35, -43, 5, 0, 47, 41, -48, 8, 26, -71, 35, 
-11, -31, -19, -21, -51, -97, 66, 24, 65, 50, -33, -46, -21, -36, -9, -15, -65, 41, 27, 18, 40, -24, 5, -70, 7, 18, 10, -71, -18, 54, -71, 2, 
-53, -13, 27, -63, 24, -30, 64, -6, 42, -54, 127, 19, 19, -17, 28, 78, -21, 58, 31, -62, 34, 127, 23, 78, 1, -8, 1, 12, 126, 18, 15, 1, 
-62, -51, 1, -67, -52, -51, 37, -19, 109, -26, 95, -34, -3, -25, -31, -5, -105, 38, 7, -127, 51, 101, 2, -7, 7, -12, 25, -25, 53, 39, 16, -2, 
-8, -24, -60, -85, -88, -2, -68, -67, 84, -45, 6, -6, -67, -127, -87, -48, -94, -25, 11, -127, 46, -27, -22, 31, -6, 13, 2, -34, -98, -27, 28, 12, 
36, -3, 3, -127, 68, 51, 33, -3, -127, 47, 4, -4, 31, -41, 33, 82, 25, -45, -114, 4, -126, 2, -127, 55, -94, 77, -20, 15, 18, -2, -36, 1, 
-10, 22, 8, -119, 36, 65, -4, 42, -102, 45, -45, 35, 89, -127, 55, 45, 39, 44, -59, -55, -44, 11, -127, 28, -28, -28, 45, -36, -55, 51, -40, 98, 
33, 4, -20, -117, -21, 36, -24, 33, -16, -11, -67, -3, 36, -127, -34, -14, -70, 19, 9, -91, 29, 4, -99, 37, -37, -66, 35, 8, -125, 8, 1, 16, 
28, 39, -37, 65, 3, 14, -39, -20, 74, -16, -5, 1, -52, -127, 25, -6, 25, 89, 31, -13, -33, 127, -75, 40, -53, 41, -15, -44, -113, 32, -20, 2, 
0, 45, -127, 32, -24, 89, -84, -26, -24, 32, -96, 65, -40, -127, 39, -24, -35, 32, 37, -9, 61, -59, -68, -37, 0, 44, 58, -17, -127, 4, -8, -29, 
82, 49, -127, -13, -60, 96, -15, 16, -9, 38, -101, 16, -32, -127, 42, 6, 5, -13, -2, 2, 80, -123, -65, -9, 22, 37, 92, -57, -127, 59, 5, -33, 
81, -32, 102, -3, -45, -54, -25, -107, 50, 83, -18, -12, -127, -127, -127, 69, 127, -44, -65, 50, -38, 32, -59, 84, -26, -58, -11, -16, 18, 14, -52, 127, 
-10, -48, 71, -11, -29, -59, 3, -18, 59, -28, 107, -127, -73, -127, -62, -18, 44, 47, 40, 45, -96, 23, 23, -21, -15, 8, -127, -46, -7, 18, 15, 20, 
-109, -53, 92, -4, -8, -67, 0, 8, 96, -71, 43, -127, 1, -127, -14, -62, -20, 69, 22, -10, -41, 19, 31, -127, 11, 59, -30, -5, -52, 59, 30, -127, 
-3, 33, -84, 42, -127, 74, 20, 47, 56, -15, 20, -13, 23, -118, -28, 50, -94, 60, 47, -16, 78, -127, 11, -118, 62, 68, -2, 19, -55, -74, 95, 11, 
69, -2, -116, 24, -55, -37, 20, 2, 34, -43, -41, 37, -43, -127, -26, 63, -48, -12, -19, -25, 10, -127, -21, -28, -14, 32, -9, 3, -64, -83, 3, -39, 
127, 38, -39, 24, -50, -93, 28, 31, 18, -10, -80, 122, -59, -127, 6, 88, -6, 43, -32, -47, 14, -127, -114, -17, -81, -54, 8, -64, -70, -90, -34, 52, 
-23, 49, 62, -14, -26, -46, 54, 65, -76, 0, 69, -115, 66, 56, 27, 60, -93, 30, 27, 67, 52, -5, 38, -127, 22, 127, 80, 37, 96, -51, 101, -32, 
31, -12, 6, 24, -34, -30, 20, -64, 1, -23, 63, -24, -7, -2, 6, 13, -24, -6, -61, -65, -19, -11, -49, -24, 37, 37, 39, -29, 1, 8, 78, 63, 
44, -57, -42, 37, 6, -11, -4, -98, 56, -96, 9, 88, -41, -61, -23, -40, -16, -11, -78, -88, -51, 60, -81, 19, 4, -12, -10, -70, -69, 59, -34, 54, 
22, -11, 24, -64, -81, 103, 26, 22, 123, 39, 20, 6, -43, -126, 35, 10, -37, -63, 5, -127, -43, -109, 35, -22, -49, 40, -64, -58, 26, -94, 28, -5, 
5, 29, 32, -127, -54, 103, -6, 94, 51, 35, 14, 60, -107, -127, -59, 20, -69, -29, -32, -127, -1, -94, -24, 10, -51, -2, -21, -82, -127, -71, 50, 25, 
29, 8, 38, -127, 33, 39, -4, 127, 4, 43, 5, 22, 91, -102, -20, 72, -10, -57, -102, -127, -50, -95, 0, 11, -5, -11, -15, 8, -79, -39, -51, -3, 
-43, 20, -37, 57, 8, 38, -37, 18, 127, -16, -127, 17, 56, 0, 0, -26, -11, -15, 68, 20, -20, -36, 101, 22, 36, 96, -19, 26, -50, 25, 46, -55, 
16, -15, -56, 8, 19, -24, -27, -72, -80, 15, -127, 57, 64, 31, -127, -18, 50, -112, -34, 29, 7, -80, 14, 81, -24, 71, -1, 33, 35, 16, -14, 45, 
64, -93, -30, -52, 7, -13, -39, -127, -127, -25, -127, 70, -33, -40, -127, 16, 26, -92, -89, -22, 45, -48, -95, 69, -13, -24, -55, 47, 11, 41, -35, 48, 
-4, 39, 3, 69, 17, -16, 114, 49, -49, 6, 62, -60, 10, 42, 96, 53, -95, 104, 48, -24, 52, 2, -10, -39, -7, 127, 21, 24, 80, 42, 81, -5, 
-26, -13, -32, 51, 0, 24, 8, -2, -55, -52, -77, -53, -21, 12, -38, 40, -59, 4, -14, -63, 30, -48, 17, 11, 16, 55, -40, -8, 40, -29, 33, 39, 
52, -61, -68, 24, -18, 39, -54, -59, -34, -107, -109, 60, -61, -105, -56, 25, -28, -33, -8, -61, -25, -105, -5, 38, 23, -45, -13, -7, -29, -42, 15, 63, 
11, 26, 23, -42, -92, -41, 63, 21, -45, -24, -10, -127, -72, -114, -35, -1, -25, 24, 11, -45, 36, -46, 23, 44, -34, 52, -38, -12, -16, -51, 4, -53, 
0, 23, 46, -9, -49, -42, 41, 30, -70, -32, 44, -120, -68, -109, -23, 14, -24, -8, 32, -57, -31, -13, 3, 71, -14, 3, -41, 7, -36, 13, 30, -27, 
17, 58, 26, 29, -52, -68, 49, 10, -16, 21, -16, -49, -21, -42, -35, -34, 6, 2, 48, -60, -70, -44, 43, 0, 51, 6, -37, 72, -16, 48, 44, -47, 
84, -46, -28, -44, 12, 40, -59, -30, 43, -50, -70, 9, -46, -56, -45, -39, 41, -33, -53, -55, 4, -76, -8, -88, 32, -28, -11, 25, 3, -114, -46, 5, 
-29, 43, 1, -33, 1, -90, 10, 75, 81, 68, 27, -51, -9, -27, -34, 27, 16, 25, 3, 32, 5, 36, -4, -35, 4, 23, -1, -14, 21, -64, -10, 105, 
-82, 51, 50, -31, 45, -89, 84, 109, 45, 127, 119, -127, 2, 20, 35, 66, 28, 74, 24, 72, 30, 77, 23, -41, -32, 23, 5, 22, 26, -14, 36, 17, 
42, 77, -27, -48, -67, 37, -22, 44, -70, 13, -70, 57, 86, 65, -2, -2, -65, 39, -39, 1, 83, -127, 24, -5, 0, 88, 16, 35, -7, -10, 51, 50, 
25, 10, -32, -11, 8, 14, 14, 18, -66, 17, -7, 50, 22, 12, -6, -18, -2, -10, -59, 17, 2, -42, -87, 91, -74, 67, 0, 0, 34, 63, -9, 91, 
31, -20, -24, -8, 56, 21, 14, -52, 1, -8, 28, -10, -39, -1, -11, 7, -13, 50, -102, 11, -72, 0, -127, 58, -87, -12, -53, -44, 7, 35, -35, 70, 
62, 12, -70, -87, -37, 16, -40, -1, -127, -34, -33, 75, 4, -56, 25, 63, -92, 23, -2, -56, -54, -100, -44, -13, 27, -16, 93, -45, -47, -44, 21, 23, 
0, 60, -18, -33, 96, 32, -36, 27, -127, 20, 49, -11, 23, -4, 32, 64, -15, 15, 12, -2, -60, 25, 14, 74, 63, -48, 33, -34, -74, -53, 25, 38, 
-81, 62, 35, -20, 51, 81, -54, 41, 4, 24, -34, -60, 40, -20, -8, -24, 17, 3, 68, 17, -60, -13, 74, 11, 105, -30, 36, -36, -63, -57, 33, -40, 
10, -31, 49, -24, 14, -30, 3, -32, 15, 100, -41, -86, -15, -96, -33, 1, 56, 51, -41, 24, -37, 42, -10, 60, -1, -21, -25, -41, -15, -19, -25, 35, 
-66, 15, 4, 49, 15, -14, 75, 47, 8, 3, -53, -92, 85, -11, -10, -14, 27, 73, 11, 78, 18, 80, 27, 22, 63, -1, 16, -20, 36, 7, 21, -37, 
-42, -46, -16, -39, -49, -18, -30, -19, 29, -61, -66, -59, -42, -38, -25, -55, -71, 46, -1, -2, 44, -10, -11, 0, 10, 24, 34, 18, -21, 26, 31, 29, 
4, -20, -25, 78, 93, -44, 24, 19, 127, -103, -67, 11, -104, 8, -15, -11, -122, -5, 54, -79, 34, 66, 67, -48, -35, 83, 27, 47, 36, 62, 2, -22, 
67, -43, -20, 22, 107, -104, 23, -17, 41, -71, -106, -35, -127, -35, -1, 18, -50, 8, 29, -50, 42, 93, 20, 31, -31, 27, -19, 41, 11, 105, -65, -31, 
-10, -110, 0, -30, 91, -81, 8, -26, -97, 32, -118, -36, -127, -22, -77, 0, -59, 38, -15, -22, -32, 32, -28, 68, -62, -6, 2, 63, -11, 127, -70, 2, 
-43, 0, -34, -7, -54, 85, -30, 2, -66, -46, -4, 29, 35, 38, 0, -22, 19, 15, -8, 86, 15, 72, 52, -77, 11, -28, -16, 65, 27, -114, 25, 71, 
-19, 14, 37, 15, -1, -5, -6, -12, -127, 2, -3, 1, 41, 83, 38, -26, -5, 60, -46, 107, -2, 51, 4, -83, -4, -47, -45, 37, 2, -65, 23, 40, 
-29, 31, -20, 68, 49, -55, -29, -34, -127, 42, 14, -4, 20, 34, 30, 2, 14, -14, -36, 116, -38, 10, -39, -47, -46, -67, -38, 3, -3, -74, 4, 16, 
21, -13, 15, 27, -11, -9, 93, -42, 11, -21, -1, -112, -32, 21, 0, 47, -54, -85, -5, -64, -76, -17, 43, -76, 13, 39, 65, 56, 101, -127, -47, -127, 
22, 32, -13, -1, -21, -74, 53, 8, 44, 26, 20, -120, -39, -70, 0, 49, -31, -72, -4, -42, -92, 56, 37, 2, -45, 27, 31, 49, 77, -69, -105, -70, 
-18, -17, -37, 64, 41, -121, -13, 29, 15, 114, 28, -127, -31, -59, 8, 26, 23, -127, 2, 34, -74, 77, 4, 90, -51, -55, 56, -5, 27, -74, -95, 88, 
9, 26, 6, -83, 17, -8, 63, -23, -58, -3, -11, -9, 15, 40, 0, 26, -39, -39, -29, -13, 11, 14, -3, -33, 40, 5, 15, -13, 10, -14, -29, 0, 
-7, 19, -1, -110, 2, 29, 38, -5, -75, -40, -36, 32, 41, 37, -32, 44, -46, -42, 5, -15, 68, -49, 9, -35, 16, -12, 26, 37, 3, -107, 31, 27, 
8, -3, -9, -60, -8, 13, 16, -20, -46, -64, 13, 60, 77, -33, -27, 53, 19, -17, 5, 6, 56, -23, 9, -6, 59, 20, 98, 63, -42, -124, 5, 20, 
-127, -91, -38, 127, 4, -58, -18, 17, 127, -63, 111, -127, 8, 10, 47, -54, 10, 83, 42, -38, -21, 55, 96, -105, 60, -23, -46, -48, -61, -16, 65, -127, 
-114, 25, 19, 63, 16, -107, 8, 20, 27, -5, 50, -99, -3, 14, 5, -13, 56, 35, 30, 14, 25, 44, 33, -71, 0, -9, -18, 15, -12, 3, 43, -127, 
21, 11, -40, -5, 44, -124, 3, -68, -49, 83, 3, 36, 40, 44, 0, 1, 38, -41, -26, 37, -55, 16, -30, -49, -82, -20, 37, 21, -23, 24, 46, 119, 
-63, -44, 25, -13, 23, 90, 29, -27, -127, 44, -51, -22, -47, -127, -77, 2, 105, -43, -68, 67, -43, 38, -32, 51, 24, -116, -43, 29, -28, -4, -87, 51, 
-54, 47, 24, -42, 31, 91, 11, 12, -127, 6, -18, 47, -19, -127, -55, -27, 42, 17, -43, 21, -70, 26, -9, 52, 89, -71, -33, 39, -12, 18, 53, 29, 
7, 83, 19, -49, -8, 65, -5, 47, -127, -7, -75, 55, 19, -102, 5, 7, -30, 56, -21, 6, -44, 20, 18, -38, 114, -92, -39, 29, -58, 8, 37, 39, 
-24, 57, 71, 35, 13, 3, 73, 23, -123, -24, -10, -6, 66, 119, -4, 59, -127, 45, 31, 12, -56, 7, 8, -58, 18, 3, 17, 66, 127, -12, 4, -27, 
-56, 32, 62, 16, -63, -61, -23, -13, -69, -45, -4, 13, -37, -50, -16, 37, -127, -13, 49, -44, 39, -17, -11, -35, 19, 59, -12, 46, 57, -52, -17, 13, 
10, 9, 10, 35, -82, 27, -72, 19, -11, -24, -20, -24, -42, -127, -30, -49, -94, 0, 12, -127, -17, -60, -34, 2, 12, -5, -48, -76, -102, 53, -13, 58, 
-114, -127, 36, 67, -26, 62, 22, -58, 23, -90, -38, 20, 118, -85, -47, -127, 11, 84, 47, 10, -39, 10, 16, 42, 32, 51, -90, 51, 12, 40, 84, -42, 
-127, -127, 41, 80, -89, 61, -9, -33, -10, -42, -50, -15, 29, -127, -52, -127, 19, 58, 56, -38, -52, 26, 38, 1, 23, 40, -127, 21, -2, 47, 5, -10, 
-115, -127, -39, 46, -38, 11, -36, -5, -127, -35, -1, 55, 7, -127, -36, -116, -11, 23, 33, -12, -4, 11, 33, 0, -5, -20, -127, -21, -26, 16, 44, -2, 
9, -55, -19, -68, -9, -14, -5, -33, -60, -60, -127, -32, 50, -15, -127, 0, 64, -122, -52, 7, 65, -35, -29, -33, -37, 9, 13, -4, -13, 28, 63, 0, 
46, 54, 42, -22, -38, 19, -26, -34, 49, 30, -127, -41, 80, 20, -53, 17, 36, -100, 23, 0, 87, 52, 49, -13, 18, 81, 49, 10, -12, -18, 38, 0, 
77, 62, 10, 47, 2, -12, 19, 11, 112, 93, -127, -4, 46, -11, 0, 33, 13, -46, 12, -24, 19, 44, 11, 34, 21, 25, -48, -40, -32, 0, 70, -38, 
-62, 13, 43, 23, 44, -42, 19, 12, -3, 15, 5, -19, -32, 70, 17, -2, 78, -34, -11, 76, 18, 15, -21, 12, 11, 57, 6, -22, 63, 25, 26, -77, 
-98, 7, 65, 41, -55, 8, 53, 14, 118, -52, 11, 9, 1, 124, 30, -17, 45, 30, 29, 17, 47, -95, 13, -25, -36, 42, -10, -60, 44, 0, 18, -68, 
-106, -28, 27, 10, -127, -3, -48, -26, 124, -68, -49, -1, -40, 12, -51, -31, 3, -23, 21, -26, 91, -127, -44, 21, -11, 1, -24, -48, -29, 39, 14, -18, 
-80, 51, -4, -52, -16, -1, 20, -4, -73, 69, 56, -9, 40, 14, 59, 80, 66, 29, 34, -26, 22, -26, -9, -18, 18, -62, 2, -27, 21, 21, 85, -29, 
-30, 25, 40, -48, -20, 27, -72, -11, 16, -25, 68, -9, 12, -43, -2, 11, 41, -17, 28, -61, 65, 39, 11, -14, 51, -61, 23, -6, -52, 25, 63, -12, 
-13, -47, 17, -31, -59, 50, -127, -8, 71, -67, -8, -28, 0, -65, -40, -11, 41, -70, 24, -74, 19, 44, 5, 48, 22, -19, 11, -5, -76, 7, 36, 50, 
};

const int8_t MagnetometetNetwork_layer_9_bias[] = {
-11, 0, 80, 94, 24, 59, 12, 57, -2, -48, 57, -81, 24, 3, 21, -75, -18, 52, 48, -70, 49, 49, 0, 111, 21, -78, 37, 74, 94, -50, 56, -1, 61, -5, -7, -41, -127, -35, 32, 21, 63, 32, 25, 91, 1, 54, -27, 21, 113, 5, 0, -10, 57, -29, -127, 67, -34, -62, 29, 19, 5, 4, 52, 54, };


const int8_t MagnetometetNetwork_layer_12_weights[] = {
-20, 6, 23, -51, -62, -127, 9, 27, -127, -127, 3, -127, -24, -127, 47, -33, -18, 51, 21, -127, 48, -92, -62, 70, -31, -55, 54, -61, 53, 12, 32, 66, 0, -98, 23, 105, 92, -87, -74, 41, -127, -44, -127, -4, 99, -59, 24, -36, -60, -48, -127, 29, -20, -127, -20, 63, 45, -127, 0, 14, -15, 18, 2, 39, 
32, -75, 14, -42, -90, -80, 25, 20, -127, -127, 10, -127, 67, 127, 30, -1, -127, 102, 6, -23, 74, -73, -49, -16, 64, 13, -61, 84, 39, 46, -30, 36, -3, 2, -6, 32, -29, -9, -127, 6, -80, -26, -84, -19, -16, -111, -52, -20, -9, -4, -127, 15, 29, -59, 22, 49, 46, 15, -17, 66, -15, 62, 29, 36, 
64, -97, -19, -62, -1, -127, 28, 4, -127, 4, 22, -32, 50, -17, 5, 6, -127, 32, 24, -41, 15, -7, -54, -11, 45, 82, -109, 89, -35, -21, 2, -5, 5, -41, -19, -31, -70, 71, -8, 46, -127, -30, -127, -11, -72, -66, -35, 2, 48, 55, -127, -53, 7, -65, -19, -3, -52, 51, -30, -10, 36, 18, 7, -8, 
16, 48, -44, 12, 51, -3, 17, 17, -35, 14, 3, 10, -15, 75, -66, -36, 24, -66, 53, 35, -104, -30, -24, 54, -39, 50, 51, 20, -18, 40, -12, 74, -10, -79, 33, 0, 5, 57, 18, 68, 9, 44, 78, 53, 66, -5, 10, 21, -44, -26, 19, -36, -28, 15, 15, 96, -27, 4, -86, 53, -14, 18, 6, -50, 
87, 77, 6, 7, 6, 47, -50, 44, 12, -51, 29, 6, 27, 81, -55, -49, 32, -127, 8, 22, -36, 7, -17, 54, 9, 43, 47, 59, -57, 30, -1, 97, -8, -60, -22, -4, -32, -30, -93, 40, -17, 29, 35, 51, 41, 9, 32, 1, -9, -127, -40, -54, -13, -21, 67, 60, -31, 20, -52, 18, 24, 34, -35, -11, 
39, 3, 28, -23, -17, 30, -65, -77, 29, -127, 51, -20, 47, -127, -14, -127, -14, -108, -127, -86, 12, -18, 35, -3, -23, -27, -77, 65, -35, 2, 51, 85, 3, -127, -127, -64, -62, -110, -127, 8, 55, 15, -35, -8, -29, 19, -13, 3, -44, -127, -23, 60, -12, -107, -9, -51, -38, -30, 7, -11, 57, -37, 2, 63, 
28, -57, 53, 32, -26, -13, -34, -61, 7, -127, -52, 47, -3, 82, 11, -48, 78, -4, -84, -127, 15, -16, 2, -12, -8, -127, -36, 25, 36, 5, -9, 76, 4, 35, -2, 5, 3, 25, -37, 127, 11, -32, 29, 74, 18, 1, 8, 44, 1, 1, -15, -31, -96, -42, 101, 40, -20, -114, 31, 45, 26, -69, 17, -20, 
19, -2, 99, 40, -70, -20, 34, -33, -40, -127, -9, -16, 60, 127, 8, -90, 127, -93, -60, -127, 42, -21, 23, 17, -18, 0, 6, 9, 64, 100, -52, 64, 34, 3, -33, -2, -127, 12, -47, 94, 7, -14, 7, 51, -21, -18, -82, 8, 1, 11, -4, -43, -18, -52, 26, 7, -59, -54, -13, -7, -12, -69, 30, 16, 
-19, -24, 50, 60, -106, 19, -44, -35, -9, -84, -29, 15, 44, 82, 30, -113, 127, -103, -19, -55, 6, -23, 10, 40, -23, -25, 1, 66, -6, -7, -11, 40, 1, 18, -27, -61, -127, 24, 23, 9, -16, 20, 26, 37, -9, 0, -29, 21, 46, -18, -8, 6, -34, 42, 36, 51, -19, 40, -13, 24, -12, -79, 31, 1, 
7, -32, 18, 10, -42, 26, -82, 55, -22, 25, -9, -43, 0, -34, -55, -58, 108, 3, -44, -20, 65, -8, -53, 4, 79, -127, 0, 12, 17, -80, 6, -102, -22, 1, 14, 15, -127, 10, 14, 44, -28, 20, 34, -27, -127, -59, -127, -55, 2, 17, -36, 4, -23, -71, -95, -45, -35, -7, 7, -30, -12, -35, -5, -16, 
-8, -50, 48, 29, -35, -44, -22, 49, -17, 22, -5, -91, -15, -2, -92, 0, 27, -58, 40, -32, 3, -39, -12, 55, 24, -48, 9, 19, -6, -86, 10, 22, -74, 38, -23, 3, -55, 37, 28, 70, 25, 82, -66, -10, -125, -17, -127, -118, 6, 26, -61, 40, 26, 16, -33, 12, -8, 10, -22, -54, 6, 16, 45, -18, 
-44, -3, 55, -46, 13, -8, 89, -1, -11, 53, 5, -1, 106, 37, -44, 27, -24, -36, -7, 31, 37, -33, 29, 12, 0, -9, -4, 64, -50, -44, 5, 114, 1, 15, 7, 53, -21, 53, 24, -96, -5, -14, -112, 59, -52, 8, -61, -8, 74, 45, -90, 86, 13, 19, 1, 22, 53, 4, 12, -26, 49, 41, 74, -78, 
-39, 17, -127, 79, 16, -4, -44, 39, -7, 31, 109, -22, 22, 10, -127, 43, 1, -3, 11, 18, -127, 83, 38, -9, 22, 30, 18, -62, -44, -109, 26, 91, -38, 22, -42, -11, -25, 17, 25, 45, 7, -105, -14, -78, 37, 122, -11, -7, -45, 50, 70, 4, 0, 19, -53, 29, 21, 20, -33, 5, 2, 19, 39, 17, 
-41, -12, -127, 22, 12, 36, 11, 66, -64, -39, 41, 38, 28, -42, -127, 40, 7, -127, -22, -17, -127, 59, -14, -29, -31, -29, 34, -58, -75, -94, 66, 108, 34, 0, 5, -10, -76, 20, -18, 68, -46, -88, -27, -57, 2, 79, -13, 22, -37, 28, 18, 10, 5, 48, -11, 37, 60, 40, -14, -4, -1, 53, -38, 14, 
-29, 7, -127, -36, 44, 25, 6, 105, 4, -9, -35, -41, 2, 12, -127, 15, 32, -127, -41, -5, -127, 69, 7, -99, 20, -39, 67, -127, -105, 29, -10, 114, 50, -33, 8, -30, -24, 34, -67, -11, -11, -75, 36, -61, -38, 127, -18, -64, -24, -5, 5, 12, -16, -2, -5, 47, 42, -12, -53, -60, 70, 30, -39, -26, 
-2, -119, 48, 67, 30, -112, 32, -17, -35, 58, -1, 42, -42, -55, 15, -1, -34, 124, 34, -5, 33, -34, -33, 45, 22, -6, 13, 39, 21, -71, -15, 12, 13, 39, -79, -21, 9, -13, 67, 52, -39, -49, -40, 13, 32, 85, -80, 21, 92, -100, -55, -101, -46, 56, -59, 53, 22, 3, -88, 2, -40, -10, 35, -7, 
18, -94, 96, 84, -67, -79, 43, -63, -2, -64, -30, -36, 58, 22, -2, -60, -15, 94, -4, -127, 42, -63, 16, 13, 51, -45, -16, 49, 19, 5, 34, 23, 5, -28, -94, -68, 77, -89, -16, 37, 3, -16, -127, -29, -2, -16, -72, -15, 54, -127, -36, -83, -34, 4, -57, 1, 15, -12, -17, 36, -29, 11, 7, -26, 
39, -25, 79, 25, -127, -67, -10, -11, 12, -127, -19, -83, -6, 0, -1, -113, -55, -4, -15, -127, 47, -41, -7, 8, 11, -127, 32, 45, 74, 96, 0, 87, -13, -17, -42, -25, -127, -32, -26, 63, 15, -57, -127, -10, -3, 71, -46, -18, 38, -127, -2, -104, -53, -29, -65, 8, 43, -127, 0, 1, -34, -38, 17, 20, 
4, -124, 76, 43, -17, -48, 14, -98, 19, -19, -1, 37, 58, 31, -31, -8, 17, -45, 0, 4, -110, 65, 17, 35, 36, -50, -8, 24, 34, -58, 5, -47, 18, 43, -50, -69, -121, 25, 36, -127, -39, 55, 52, 60, -32, -35, 29, -10, 15, 15, -53, 48, -9, -4, -10, 19, -24, 33, -5, -11, -127, 63, 30, 35, 
-108, -127, 27, 33, -10, -25, 14, -45, -16, -4, 4, -16, 43, -35, 81, -16, 40, 9, 4, 10, -127, -2, 31, -21, 21, -43, 46, -13, 16, -111, 55, -108, 0, 63, -42, -21, -50, 9, -18, -127, 21, 30, -57, 22, -64, -76, -5, -22, -28, 33, 11, 30, 0, 8, 43, -14, 7, 46, 47, -19, -127, 8, 3, -9, 
-127, -112, -25, 2, 43, 25, 27, 11, -38, -42, 38, -25, 18, -53, 15, 38, 127, -14, -3, 40, -127, 5, 15, 22, -6, -7, 55, 42, -2, -46, 10, -14, -20, 62, -44, -10, -57, 13, 16, -25, -30, 63, -15, 36, -20, -72, 23, 0, -34, 24, -42, 39, 10, 30, 46, 27, -30, 51, -4, 14, -20, 16, -3, 13, 
-69, 0, -88, 54, 36, 52, -11, 12, 39, -23, -14, 65, 10, 27, -18, -2, 51, 6, 5, 4, -127, 57, 63, -76, -37, 19, 6, 0, 1, -65, -12, -35, 13, 30, 38, -27, 29, -35, 24, -13, 41, -1, 33, -19, 2, -34, -45, 47, 10, 48, -27, -6, 54, 2, -1, -36, -32, 48, -41, -7, -17, 77, -19, 23, 
-30, -43, 3, 15, 55, 55, -74, -1, 11, -48, 28, 43, -44, 28, 35, 1, 54, -56, -36, 32, -127, 70, 1, -29, 7, -30, 4, 6, 45, -11, -25, -25, 45, 45, 38, 10, 20, 12, 54, 27, -9, 18, -19, -31, 10, -100, 14, 0, 0, 31, -16, 35, -35, 14, -7, -57, -20, 14, 16, 20, -85, 71, 48, 33, 
-96, -32, -11, 3, 26, 34, -15, 35, -29, -72, 9, -13, 9, -51, 38, 21, -98, -3, 20, 17, -127, -15, -7, 8, -49, 11, 14, -68, 21, -12, 4, -3, 39, 3, -42, -56, 23, 10, 23, 30, 26, 36, -71, 1, 30, -23, 28, -30, -3, -2, -9, -31, -40, 28, -9, -96, -40, -23, 3, 0, -20, -30, 27, -14, 
44, -126, -19, 55, -1, 42, -40, 76, -5, -22, 19, -127, -127, 114, -34, 49, -24, -16, 78, -127, -127, 89, -35, 25, 18, -102, -19, 74, 93, -50, 52, -14, 3, -50, -64, -119, -127, 15, 83, -35, 94, 29, -50, -58, -27, -6, -21, -11, 49, 29, 27, -69, 13, 77, -98, 94, 0, -5, 53, 23, 68, -43, 3, -33, 
4, -46, -28, 44, 40, 0, -27, 93, 30, 30, -8, -84, -61, -13, -100, -30, 49, -25, 19, -20, -127, 73, -24, -30, -22, -77, 5, -107, 20, 105, -5, -25, -21, -127, 2, -60, -31, -110, 37, 20, 18, -1, -10, -5, -127, -69, -31, -23, 33, -33, -34, -52, 31, 20, -127, -40, -7, -15, -44, -65, 54, 23, 38, 17, 
0, 9, 61, -45, -54, 23, -28, 47, 20, -11, 29, -48, -72, -81, -111, -31, 45, -28, -78, -14, -127, -1, -31, -5, 53, -5, -2, -112, -14, 127, -63, 31, 24, -71, 15, -45, -95, -121, -49, 7, -19, 48, 21, 80, -31, -45, 39, 20, 20, -29, -11, -95, 18, 0, -45, -74, 61, -9, -80, -35, -7, 62, 19, 43, 
-17, 7, 11, -49, 50, 2, 85, 62, 14, 51, 39, 74, 89, 1, -13, -35, -56, -35, -46, 43, 55, -98, -80, -40, 76, 47, -47, -127, -15, -20, 14, 84, 4, -5, 2, -37, -7, 41, -30, 80, -29, -20, -103, 42, 32, 127, -127, 30, -3, 0, 14, -9, -21, -36, 22, -50, 64, 61, -43, 49, 4, 74, 59, 6, 
-93, -71, 99, 13, 6, -58, -73, 58, -127, 9, -19, 7, 2, -4, 66, -36, -34, -27, 1, 16, 88, 25, -127, 35, -14, 4, -28, -2, 65, -21, 18, 10, -29, 31, 0, -21, -54, -9, -33, 66, 8, -69, -96, -127, 6, 127, -127, -21, -49, -3, 1, 5, -13, -45, 32, -1, 6, 10, -57, -7, 29, 21, -8, -38, 
-127, -15, 52, -37, 30, -25, -127, -11, -127, 12, -5, -19, 6, 63, 42, 13, -127, -16, 55, 33, 82, -34, -127, 43, -62, 25, 40, -108, 74, 28, 37, -22, 44, 34, 13, 45, -75, 68, 14, 30, -63, -63, -127, -127, -5, -38, -127, -28, -17, 29, -16, -29, 20, -26, 37, 47, -14, 20, -30, -35, 14, -51, -18, -65, 
-98, 29, 20, -22, -93, 68, -34, 34, -41, 25, 7, -60, -13, -3, -65, 17, -33, 40, 41, -11, -2, 49, 9, 45, 24, -55, 32, 94, 49, -35, 127, -24, -99, 99, -4, -127, -127, 22, 2, -18, 84, -66, 75, -107, -72, 3, -127, -39, 24, 11, 51, 49, 46, -19, -127, -13, -73, -21, 90, -66, 7, -6, 3, -7, 
-22, 42, 56, 7, 45, -5, -36, 23, -66, 55, 20, -25, -21, -127, -81, 46, -24, -6, 16, 2, -64, -2, -70, -60, 32, 9, -30, -92, 54, -127, 43, 110, -50, -42, 35, -127, -127, -91, -39, 59, 73, -1, 100, -26, -10, -3, 9, 36, 26, 38, -29, -53, 49, -16, -49, -74, 13, 19, -79, 6, -12, 32, 25, 51, 
-32, -33, 5, 11, -93, -95, 25, -27, 5, 6, -84, 32, -24, 2, -34, 16, -20, -2, -116, -26, 57, 0, 2, 60, 23, -18, -83, -85, -32, -1, -94, 113, 72, 22, -52, -44, -127, -26, -9, 59, 15, 64, -100, 96, 35, 48, 3, 103, -28, 21, -68, -92, -95, -9, -127, -53, 99, -6, -72, -7, -31, 1, -9, 21, 
-35, -24, -127, 22, 71, -27, -9, 28, 127, 28, -67, 45, 116, 33, 125, -43, -31, -71, -4, 18, 127, 43, -127, 86, -12, -28, 29, 27, 31, -91, 34, -58, 18, -84, 23, 33, -60, 38, 46, 34, -100, 42, -31, -71, -24, 110, -35, 8, 34, 39, -8, 55, 16, 127, -11, 34, -9, 60, 78, 5, -125, -109, 23, -18, 
-55, 12, -127, 25, 43, -34, -42, 63, 20, 9, 10, -46, 60, -96, 79, 10, 56, -22, -3, -3, 127, 29, -127, 29, -25, -5, 3, -24, -28, -101, 42, -47, -86, -127, -15, 2, -71, -3, 15, 52, -127, 13, -37, -40, -41, 54, -95, -19, 60, 19, -25, 33, 42, 46, -44, 15, 11, -2, 35, -30, 6, 19, 6, -24, 
39, -16, -21, -16, -11, -39, -23, 27, -127, -8, 23, -73, -2, -127, -127, -5, 9, -15, 15, 15, 127, -79, -127, -36, -16, -30, -21, -127, -25, -72, -127, -3, -127, -127, -25, -70, -39, 22, 26, 124, -127, -8, 85, -3, -44, 100, -127, -37, 34, -11, -85, 5, -5, -24, 56, 34, 12, 12, -127, -32, 21, 89, 6, 15, 
-6, 7, -11, -24, -23, 20, 35, 69, -6, -22, 45, -42, 12, 3, 10, -36, 70, 10, -22, -21, -23, -13, -5, -30, 34, -109, 4, -14, 28, -24, -7, -56, 2, 14, 9, -30, -42, 11, -48, -52, 13, 55, -18, -86, -113, -127, 30, -63, 33, -65, -33, -64, 8, -46, 84, -7, -6, 56, -15, 90, 103, -10, -65, 48, 
6, 43, -1, 20, 26, -13, -13, 40, -2, 4, 41, -77, 30, -10, 32, 32, -81, -1, -40, -13, 5, -12, 21, 17, 16, -127, 1, 63, 0, 8, -15, -11, -3, 6, 22, 44, -8, 21, -38, -25, -16, 10, -127, -6, -121, -127, 35, -79, 24, -2, -14, -28, -39, -10, 59, 5, -37, -25, 29, -24, 55, 5, -27, -50, 
-44, 14, -55, 47, 23, 28, -15, -7, 27, -22, 10, -45, 42, 43, 44, 49, -11, -15, 0, -36, 21, 18, -12, -34, -20, -10, 6, 39, -6, 10, -29, -57, -72, 41, 60, 66, -45, 21, 35, -116, -74, -14, -20, 46, -56, -83, -16, -78, 28, 77, 28, 35, 40, 4, 37, 14, 23, 26, 24, 29, -26, 11, 21, 13, 
28, 7, 41, 62, 53, 14, -33, -35, 29, 29, 19, 17, 0, -51, -60, 26, 98, 55, -7, -25, -43, 16, 46, 34, -32, 1, -64, -80, 23, 6, -63, 1, 11, 9, 29, 96, 58, 34, 52, 12, 1, 68, -49, 96, 71, -51, 50, 29, 13, 45, -25, 12, 10, 55, 31, 47, 49, 36, -68, 31, 17, 19, 3, 50, 
21, -70, -24, -33, -48, 13, -45, -3, 19, -22, -10, 6, 18, -127, -6, -22, 46, 10, 44, -56, -10, -55, -1, -8, -32, -22, -12, -42, 11, 64, -31, -43, 33, -90, 8, 14, -32, -9, -16, 16, 27, 63, 15, 3, -16, -30, -1, 33, 38, -32, -11, 4, -17, -59, 77, 29, -41, 5, 3, 16, -15, -12, -7, 33, 
43, -107, -32, -28, -69, 55, -37, 34, -19, -40, 20, 19, -30, -127, 22, -97, 109, 17, 14, -94, 51, -45, 14, 45, -46, 11, -15, 91, 29, 103, -30, -14, 16, -112, 33, -47, -64, -54, -32, -20, -29, 37, 86, -19, -46, 2, -27, -8, -10, -109, -9, -2, 11, -92, 24, -69, -86, 7, 0, -10, -5, -25, 24, 40, 
-19, 11, -29, -7, 16, 23, -71, 67, 17, 49, 6, 50, 59, -56, 43, -19, -17, -11, -24, 41, 12, -37, 18, 13, 48, -15, 46, 3, 51, -7, 65, 75, 16, -68, 21, 1, -118, 0, -21, 44, 8, 58, -7, 13, 27, -31, 58, 2, -94, -31, 10, 15, 10, -1, -97, 20, -14, 25, 64, 33, 0, -33, -48, -16, 
49, -127, 36, -4, -57, -10, -33, 34, 10, 41, -2, -65, 13, -54, -30, 3, 27, 27, -32, 18, 0, 18, -13, 29, -14, -127, -9, 37, 26, -127, 83, -113, -31, -17, 17, 16, -127, 39, -15, 8, -21, 63, 77, 26, -30, -45, 14, -83, 10, -6, -6, -48, -31, 36, -127, 8, 5, 41, -36, -127, 21, 20, -65, -47, 
46, -25, -28, -24, 39, 8, -62, -24, -46, -6, -29, -83, 8, -6, -82, 52, 13, 73, 2, 54, -112, -29, 5, 13, -21, -30, -32, -22, -67, -77, -46, -106, -64, 57, 34, 45, -103, 44, 15, -93, -53, -18, 63, 42, -127, -76, 15, -127, -7, 46, -89, 7, 37, -121, -33, -20, 38, 44, -58, -127, 69, 60, 33, -81, 
-120, 62, 26, 30, -7, 10, -49, -2, -37, -30, 57, -127, -47, 47, 84, -99, 35, -6, 56, -51, -41, 38, -30, 88, 18, -65, -52, 127, 74, 47, 42, 61, -3, -14, -14, 40, 82, 12, 49, -31, 127, 11, -7, -21, -84, 127, 6, -78, 41, -50, 61, 47, 3, -58, 45, 12, -15, 18, 7, -9, 2, 57, 6, 18, 
0, -5, -18, -6, 12, 10, -17, 0, -127, -7, 25, -4, -47, -127, 19, -31, 38, 52, 0, 2, 63, -31, -68, -27, 1, -33, -80, 5, 6, 94, 38, 102, -54, -24, -18, -9, 107, -87, -29, 76, -5, -20, 127, -38, -35, -68, 38, 18, -8, -127, -127, -84, 10, -65, -10, -78, 0, 28, -56, 5, 10, 45, 11, 0, 
7, -18, 10, 32, 15, -127, 0, -41, -127, -53, -33, -26, -28, -127, 2, -119, 35, 21, -62, -25, 23, -2, -30, -4, 20, 43, -127, 108, 7, 77, 21, 81, 12, -120, -46, -12, 40, -58, -54, 61, 32, 26, 8, 78, 63, 51, -21, 40, -11, -127, -127, -127, -21, -52, -12, -72, 44, 67, -63, 9, -10, 2, 36, -2, 
11, 80, 127, -27, 61, -62, -44, 44, -25, -2, 71, 39, 12, 16, -91, 45, 2, -22, 13, -22, 125, 14, -52, 26, -59, -23, 7, -8, -87, 2, -51, 69, -89, 51, 19, 82, -99, 5, 4, 87, -121, -59, 44, -26, 28, -51, -15, 35, 53, 46, -17, -45, -29, 1, 2, 24, 52, -118, -103, 55, -36, 31, 52, 48, 
-81, 119, -1, -38, 38, -9, -107, 36, 8, 48, 72, 47, -45, 37, -127, 12, 53, 24, -26, -23, -79, -84, 25, 12, -96, -9, -21, -56, 18, -78, 16, 48, 28, 7, -61, -12, -127, 35, 8, -21, 21, -6, -18, 41, 57, 0, 48, 21, 2, -4, 51, -40, 10, 63, -75, 20, -18, -72, 15, 3, 52, 45, -17, 65, 
-127, -95, -127, -8, 34, 8, -127, -7, 21, 48, 109, -3, 16, -16, 11, -84, -10, 56, 18, -36, 115, -52, -24, -92, -42, -42, -9, -59, 91, -74, 41, -20, -19, 1, -3, -67, -127, 23, 24, -66, 36, -34, -43, -38, 22, -40, 14, -68, -2, -6, -3, 68, 19, 56, -117, -42, -99, -37, -6, -4, 53, -1, -107, -12, 
38, 5, 28, -33, 19, 0, 3, 22, -2, -1, 20, 43, -21, 25, 0, 82, 9, 35, 43, 53, -38, 47, -12, -3, -20, 16, 0, -63, -2, 15, -25, -53, -49, 47, 14, -34, 9, 37, 21, 30, 2, -10, 0, 29, 32, -25, -18, 49, 62, 49, 20, -27, 8, -30, 55, 63, -5, 56, -5, 58, 10, 31, 47, 31, 
28, 12, 1, 29, -8, 16, -41, 26, -12, 33, -13, -10, 6, -13, -23, 9, 0, 31, 13, 40, 1, 19, -2, 0, 12, -22, -25, -14, 11, -3, 58, -9, 38, 9, 28, -32, -33, 22, 4, -33, 38, 19, 100, -48, 34, -33, 4, -26, -18, -5, 5, 0, 24, 29, 1, 37, 39, 5, -25, 24, 1, -17, 29, -17, 
-9, 3, -2, -2, 71, -40, -23, 38, 37, 15, 5, -36, 9, 9, 25, -63, -21, 16, -39, -26, -3, 2, 3, 4, 58, -25, -12, -85, 9, -55, -69, -38, -15, -35, -30, -70, -79, -16, -23, -14, -22, 43, 127, -50, -19, -20, -18, -29, -6, -32, 17, -9, 35, -30, 18, -56, -9, -15, 9, -16, 26, 4, -38, -28, 
36, -119, 127, 7, 14, -119, 51, -44, 4, -20, -39, -38, -31, -127, -127, 21, -41, 70, 3, 62, -20, -2, -1, -123, 59, -50, -127, -127, 13, 13, -127, -119, -127, -51, -53, -122, -25, 1, -13, -71, -35, -23, -87, 23, 21, 127, -41, -29, 83, -30, -53, -16, -8, -127, -3, 0, 25, -56, -127, -3, 18, 127, -18, 66, 
1, -127, 10, 57, -21, -127, 8, -44, 97, 37, 4, -31, 22, -12, 87, 27, -32, 118, -4, 50, -2, -55, 14, -108, 50, -22, -81, -51, 106, -96, -61, -112, -33, -19, -13, -21, 127, 19, -18, -57, -92, 4, 44, -9, 37, -23, -88, -83, 55, -6, -30, -7, 62, -100, -64, -11, -28, 20, -124, 15, 53, 74, -1, 10, 
-94, -127, -32, 27, -34, -70, -116, -5, 15, 100, 34, -6, -32, 75, 98, 25, -54, 70, 4, -33, 13, -127, 45, -78, -18, 45, 5, 68, 112, -127, 127, -40, -125, 0, -63, 48, 18, 13, -7, -24, -50, 17, 127, -3, -23, -54, -127, -54, 38, 29, -20, -98, 43, 44, -41, 36, -127, 67, -30, 3, 20, -99, 5, -39, 
-127, -55, -55, 11, -3, -22, -127, 74, 40, -48, 42, -127, 26, -6, -104, -74, 23, -8, -16, -10, -61, -44, 22, -37, 23, -120, 20, 51, 41, -21, 11, -127, -95, -67, 0, -6, 8, -22, -53, 53, 16, 20, -127, -71, -127, -23, -117, -127, 81, -30, -6, -21, -58, -6, -47, -26, 0, -19, -77, -80, 59, 16, -69, 15, 
-51, 66, 86, -19, 24, 9, 9, 13, -2, -10, -2, -9, 55, -23, -52, 0, -127, -6, 37, -12, 28, -62, -58, 2, -17, -6, -5, 63, -66, -35, -50, -2, -116, 21, -2, -2, 54, 26, 21, 73, 5, 12, -1, -61, -98, 12, -80, -81, 75, 50, -10, 53, 8, -47, -23, -22, 10, 30, -72, -38, -13, 55, 44, -49, 
-112, 27, 56, 31, 39, 10, -49, 56, 9, 19, 28, 43, 20, 59, -13, 20, -28, -74, 0, 26, -63, -60, 55, -17, -33, 3, 15, 67, -30, -36, -25, 64, -64, 60, -27, 39, -16, 51, 24, 124, 39, 19, 84, 115, 19, 28, -90, 7, 35, 54, 14, 12, 17, -10, 13, 34, 10, 27, 29, 25, -121, 29, 36, 89, 
-26, -75, -5, -67, 42, -75, 44, -127, 25, -41, -96, -57, -56, 1, 27, -19, -37, 15, -23, -109, -56, 50, -9, 32, -24, -66, -21, -1, -21, 12, -37, -17, 38, -36, 27, 100, 93, 14, -7, -36, -66, 39, -127, -8, -34, 14, 12, 40, -3, -20, -12, -60, -103, 34, -6, 10, 2, -33, -2, 10, -33, 60, -23, 40, 
1, -47, 0, 10, 33, -48, -9, -64, 14, -4, -79, -22, 35, 17, 39, -19, -34, 22, -19, -38, 49, 18, -58, 8, 46, -38, -48, 52, -2, 28, -3, 13, 4, -68, 16, 25, -19, 22, -37, 1, -34, 68, -78, 10, 37, 52, -16, 33, 35, -23, -41, -20, 0, -36, 3, -46, -1, 7, -5, 8, 45, 24, -1, 28, 
7, -24, -22, 47, 41, 19, -39, -1, 39, 19, -20, -4, 65, -20, 9, 32, -52, 87, 29, -2, 23, -19, 8, 51, 21, 30, -52, 7, -5, 43, -58, 73, 17, -26, 78, -34, 42, 48, 7, 15, -32, 31, -71, 5, -23, 34, -1, 39, 83, 8, -54, 29, 52, -72, 21, -70, -6, 95, 15, -16, 72, 6, 31, -14, 
14, 28, -26, 64, 52, 4, -26, -69, -34, 30, 32, 34, 21, -32, -34, 19, 71, 9, 33, 44, -127, -2, -19, -41, -65, 2, 28, -4, -2, -80, -55, -127, -11, 30, -39, -28, -47, 28, 46, -39, -7, -22, -76, 21, 16, -126, -17, -13, 36, -8, -43, 9, 59, 76, -1, 11, 2, 41, -25, 14, 64, -34, -7, -55, 
34, -4, 52, 66, 9, 41, -6, -5, -28, 14, 2, -35, 0, 40, 54, 22, -3, 43, 27, 34, -74, 4, -5, 10, -60, -12, -20, 5, 32, -127, -45, -127, -4, 87, -36, -80, -21, -6, -2, 76, -13, 36, -126, 44, 26, -127, 8, -7, 79, 4, -13, -17, -32, -31, 42, 5, 0, -5, 28, 37, 0, 14, 22, -21, 
-39, -108, 37, -10, -14, -46, -44, -49, 35, -39, -62, -52, -12, -73, 73, -35, -127, -18, -52, -24, -16, -48, 10, -1, -5, -45, 28, 77, 40, -127, 29, -61, 49, 1, -37, -50, 4, -6, -43, 11, 28, 44, -127, 27, -29, -127, -12, -24, -2, -89, -28, -9, -42, -24, 96, -32, 42, -85, 49, -49, -11, -16, 49, 2, 
-88, -73, -8, 14, 29, 29, -14, 0, -20, -10, -17, -10, 62, -25, -15, -15, -91, -79, 58, 10, -94, 0, 9, 8, -20, -79, 33, -14, 7, -127, -5, 23, -21, 0, -23, -4, -127, 19, 56, -15, 9, 30, -71, -8, -22, -49, 11, 7, 9, -9, -25, -1, 8, 28, -121, 14, 9, 27, -33, -8, -127, -40, -21, -73, 
-101, -14, 22, 6, -26, 45, 7, 5, 29, -19, -18, 6, 4, -40, 22, 29, 46, -27, 34, -10, -117, 59, -13, 0, 41, -61, 18, -11, 24, -51, -16, -9, 12, -9, -11, 24, -72, -21, 15, -24, 15, 28, -46, -1, -30, 0, 19, 23, 11, -14, -23, 1, -17, -20, 3, 9, 10, -35, 11, -32, 22, -19, 63, 19, 
20, 9, -16, 34, -7, 22, -7, -53, 38, 0, -7, -10, 5, -59, -22, 53, 46, -7, -28, 0, -127, 11, 18, -3, 23, -52, 42, 19, -4, -21, 30, 9, 10, -28, 0, 68, 56, -18, -16, -54, -5, -33, -6, 12, 16, -41, 28, 4, 48, -24, -11, 31, 10, -60, 31, 5, 35, -42, 38, 29, 46, -14, 3, 24, 
1, -29, -54, 23, -52, -23, -3, 43, 18, 0, 38, 35, 41, -127, 34, 9, -30, 0, -6, -30, -127, 35, -5, 68, -37, -33, 23, -10, 21, -127, -14, -72, -36, -98, 12, -4, 21, -16, 44, -48, -38, 41, 31, 5, 36, -40, 3, 32, 28, -4, 42, 39, 15, 24, -29, 23, 5, -42, -55, 46, -127, -46, 14, -59, 
-115, 25, -29, -12, -48, 0, -27, -6, 6, 5, 25, 23, 53, -104, 37, 1, -3, -41, -30, -19, -127, 46, -12, 43, -29, -52, 64, -52, 30, -94, 8, -61, -20, -83, 14, -52, -22, -14, 37, -68, -38, 19, -67, 2, 27, -107, -11, 0, 77, -34, -11, 32, -8, 24, -7, -11, -17, -9, 0, -17, -127, -55, 39, -22, 
-67, 80, -62, -12, 1, 29, -6, -29, 79, -1, 7, 40, 55, -33, 65, -8, 127, -84, -61, 2, -127, 28, -14, 12, 26, -5, 55, -58, 39, -31, 31, -108, 40, -62, 60, -100, 30, 15, -4, -68, -22, 14, -11, -21, -77, -47, 3, -42, 127, -34, 22, 43, 41, 16, 86, -47, -34, 30, 18, -24, -16, -27, 34, -15, 
127, -74, 28, 58, 23, -125, 10, 40, -57, 5, 55, 17, 71, -127, 23, -14, -98, -43, -53, 26, -14, -65, -17, 9, 100, -106, -33, 87, 45, -127, 9, -16, -3, 58, -39, 94, -127, 0, -53, 91, -70, 92, -127, 73, -17, -127, -127, -24, 57, -10, -52, -12, -58, 15, -127, 14, -115, 20, -69, -9, 56, 12, -63, 13, 
1, -76, 35, 12, -5, 0, -10, -5, -25, 13, -30, -127, 20, 14, 77, 33, 40, 2, -25, 33, -48, 22, -5, 111, 25, -64, 7, 64, 22, -111, 32, -127, 8, 26, 15, -51, -103, 6, 31, -49, -79, 7, -27, 35, -127, -52, -127, -127, 25, 0, -63, 7, -55, 27, -68, 38, -59, 61, -24, -127, -28, -28, -48, -62, 
-120, -45, -12, -9, -1, -6, -21, -49, -111, 40, 0, 11, 16, 33, 77, 49, -27, 21, 26, 62, 8, 4, 1, 27, -56, 70, 21, 7, 39, -127, -73, 11, -65, -22, 5, -49, -45, 6, 39, 55, -59, -37, 107, -48, -19, 52, -127, -100, -1, 39, -69, -21, 41, -20, -48, 16, 0, 26, -7, -3, -88, -28, 102, -23, 
-37, -62, -73, 3, -5, -27, -19, -19, 0, 25, -7, -17, 15, 46, -38, -59, -37, -20, -36, 3, 14, -11, 3, -26, 24, 26, -38, 26, -33, -71, 13, -13, 47, -2, -35, -58, -66, 36, 0, 11, 21, 21, 28, 4, 6, 0, -8, 4, -43, -7, 12, 13, -24, 24, -79, -46, 23, -4, -29, -25, 30, 30, 21, 0, 
13, -65, -55, -1, 25, -30, -17, 17, 14, -2, 21, -19, -1, 40, 36, -21, -48, 14, -41, 48, -4, 12, 4, -4, -11, 17, 32, -12, -25, 33, 16, 9, 6, 13, -52, -30, -4, 6, 6, -1, 3, -38, 29, 34, 12, -60, -45, 0, -30, 2, -10, 17, 37, -42, 13, -6, 10, 11, -10, -6, 22, 29, 18, -39, 
-44, -61, -35, 14, -16, -37, -76, 52, 0, -47, 23, 17, -27, -7, 45, 21, 16, 22, 8, 37, 38, -21, 10, 26, 27, 32, 38, 9, 9, 59, 5, 27, -8, 14, -24, -95, 0, -36, 26, -3, 24, 40, 36, -17, -1, 17, -1, -31, -34, -22, 8, 17, -10, 18, 53, 34, -9, -30, 20, -42, 0, 25, 49, 28, 
11, -53, 15, 38, -38, -17, -59, 17, -52, 5, -69, -91, 21, 0, -64, 20, -29, 8, 26, -24, -127, 21, 0, 117, -86, -8, -17, 77, 62, -127, 100, -27, 25, -35, 46, -4, -127, 21, 26, 34, 12, -95, -106, -50, 66, 36, -39, 25, 43, 6, 17, 16, -45, 119, -41, 61, -29, -3, -109, -14, 25, -22, -37, -8, 
-12, 47, -60, 16, -20, 17, -48, 0, 89, -15, 9, -82, 46, -6, -11, -47, -14, 25, 15, 9, -127, 9, -61, -75, 10, -7, 4, -63, -1, -82, -3, -47, -32, -16, 57, -46, -50, 35, -12, -9, 45, -14, -40, -127, -23, -42, 44, -53, 67, 4, 15, 43, -35, 14, -52, 26, -71, -9, -77, -38, 27, -63, 14, 26, 
57, 102, 6, 25, 24, 53, 7, 19, -127, -13, 10, 2, -5, 34, -123, -53, -2, 34, -38, 14, 23, 17, 20, -112, 1, -13, -48, -127, -6, -43, -60, 69, 13, -88, 23, -80, 14, -18, -27, 11, -64, 60, 81, 63, -36, 20, 71, 36, 67, -59, -122, -23, 55, -84, -93, -64, 33, 9, -58, 29, 13, 69, 41, 73, 
81, -121, -22, -17, 54, 8, 65, 20, -78, 20, 63, -35, -91, -114, 39, 37, 22, 43, 3, 18, -127, -18, 39, 19, -23, -49, -3, -64, 10, 48, -87, -37, -30, -34, 31, -38, -91, -66, 30, -28, -50, 60, -84, 51, -27, -45, -26, 43, 11, 19, 19, -127, 57, 0, -127, 11, -32, 37, -37, -51, 21, -16, 79, 0, 
56, -127, 17, 22, -11, -27, 21, 10, -13, -13, 20, -24, -58, -110, 19, 80, -70, -64, 30, -38, -127, -13, 42, -16, -73, 13, 17, 7, 22, -93, -57, -78, 37, 23, 32, 12, 68, -16, 10, -47, 42, 58, -90, 9, -29, -36, 17, -37, 12, 11, 10, -74, -2, 21, -74, 10, -6, 53, 1, -99, -127, -71, 55, -2, 
40, -127, 53, -63, -52, -71, -28, 42, 62, -18, 48, 33, -29, 73, 57, 45, 83, -127, 16, -24, -127, -4, 27, 65, -127, 49, 34, 0, 45, -88, -52, 12, 22, 6, 36, 58, 19, -3, 3, -93, 34, 74, 57, 12, -21, -91, 30, 8, -72, -15, 15, -81, -38, 32, -24, 52, 0, -17, 41, -53, -97, -15, 0, -32, 
3, 75, -27, 24, -14, 58, 29, -15, 12, -15, 18, 16, 18, 45, -45, -25, 36, 0, -26, -13, 43, 12, 0, 15, 1, -70, -25, -94, 43, 48, 16, -27, 9, -53, 35, 30, -12, 6, 3, 7, 19, 27, 1, -2, 23, 33, 24, 36, 7, -43, 40, -38, 32, -4, 84, 14, -12, 53, 25, 2, -29, -2, -25, 14, 
49, -17, 44, -1, -28, -18, 16, -35, -32, -51, -28, 22, -60, -5, -11, -38, 102, 1, 21, -28, 18, -31, 13, 30, 40, -63, 10, -23, 65, 8, 11, -47, 0, -37, -4, 28, -19, -14, -16, 54, 17, 30, 17, 25, 11, 29, -30, 6, 13, 18, 16, -48, 45, 1, 71, -38, -35, 9, -39, -18, -8, -18, -4, -10, 
70, -42, 46, -5, -58, -47, 21, 10, -41, 0, -15, -1, -77, -7, 45, -63, 18, -3, 61, -5, 10, -77, 17, -7, -19, -127, 25, 13, 46, -3, 18, -27, 31, -70, 16, 16, -93, 18, -8, 102, 15, -16, -18, -42, 52, 19, -24, -48, -26, -19, -42, -23, 41, 31, 50, 8, -58, -88, -40, -37, -4, -70, -3, -10, 
88, 25, 117, -17, 119, -100, -6, -33, -19, -54, -20, 7, 5, -59, -44, -16, -70, 33, -70, -10, -127, 12, -59, -73, 64, -102, -39, 17, -31, -127, 29, -3, 25, 37, -42, 28, -62, 17, -57, 59, -34, 37, 25, 23, -33, -18, -12, -5, 88, -51, -80, 5, -26, 20, 39, -45, -14, 7, -127, -36, 61, 55, -29, 2, 
24, -16, 47, -13, 23, 14, -20, 34, -27, 40, -35, 50, -38, -44, -127, 42, 23, 19, -35, -37, -10, -17, 30, 35, -23, 6, -24, -53, 11, -111, 73, -28, -42, -9, -29, -19, -100, 39, 15, 22, 2, -18, -1, 10, 62, -32, 0, 3, 39, 27, 59, 6, 4, 24, -37, 7, -30, -6, -41, -38, 15, 14, 24, -24, 
-23, -27, -7, 5, 7, 60, -118, 67, 57, 28, 45, 25, 10, 20, -127, -32, 79, -7, 4, 38, -44, 22, 34, -56, -56, 57, 24, -100, -10, -70, 36, -127, -51, -34, 21, -84, -45, 19, 48, -66, 4, -105, 127, 28, 16, -31, -19, -49, 14, 25, 39, 38, 95, 70, -19, 29, -127, 67, -28, -6, -48, -22, 62, -60, 
37, 38, 37, 10, -20, -38, -17, 92, -107, -25, 65, -48, 27, -87, -22, 49, 43, 63, -13, -57, 43, 73, -90, -56, -9, -127, 17, 71, 76, -111, 85, -127, -127, -37, -44, -127, -127, -76, -64, 62, 12, 40, -20, -68, -95, -127, -58, -4, 44, -37, -101, -17, 33, 29, -127, 55, -62, 24, -127, -127, 30, -103, -33, 52, 
-63, 43, 31, -25, 28, 2, -50, 28, 6, -21, 51, 10, -21, -127, -80, 61, 88, 19, -25, 13, -67, -6, -70, 37, -59, -84, -69, -32, -22, -117, -1, 35, 5, 12, 82, -127, -127, -78, -12, 22, 11, 62, 58, -16, 17, 45, 50, 48, -12, 39, -8, -23, 42, 24, -9, 14, 26, 23, -10, -23, -5, -9, -44, 2, 
-89, 7, -5, 5, 57, -41, -66, -26, -10, 53, -74, 49, 28, -41, -72, 4, 86, -62, -43, 35, 25, -66, 0, 1, -112, 43, -41, -48, -11, 65, -19, 1, 42, 118, -16, -1, 25, 22, 89, -47, 18, 73, -44, 59, 113, 36, 92, 83, -61, -27, 54, 37, -7, 6, -93, 15, 38, 2, 46, 51, 2, 27, -76, 15, 
-10, 47, -6, -16, 21, 35, -18, 127, 76, -31, 85, 6, 84, 33, 38, 13, -32, -124, 17, 53, -73, 22, -36, -37, 25, -16, 27, 44, -4, -8, 1, 46, 38, -18, 10, -69, -52, -73, -17, 42, 3, 39, -47, -63, -81, 12, 31, 13, 73, -42, -61, 10, 52, -54, -18, -127, -49, 26, 33, 23, -127, -63, -33, 15, 
-5, -16, 73, -29, -55, -78, 13, 92, -16, -17, 30, 9, -20, -7, 14, 24, 127, -43, -56, -7, -46, -15, 50, 60, -56, -31, -26, 6, 17, 7, -41, -12, 44, 21, 14, -46, -104, -3, 6, 13, -45, 60, 18, 36, 33, -4, -11, 42, 1, -14, 2, -42, -39, -69, 26, 10, 3, 4, -12, 28, -58, 33, -16, -39, 
-100, -97, 48, -39, 11, -36, -8, -101, 2, 23, -127, -7, 20, -6, 67, -9, 50, 18, 92, -2, -104, -61, -11, 83, -67, 21, -26, 77, -30, -3, 25, -50, 13, 48, 35, -37, 54, 78, 75, -127, -79, -46, -95, 43, 30, -23, 22, -39, -51, 30, -27, -46, -58, -9, 50, 1, 27, -29, -22, 2, -127, 9, -32, -93, 
-44, -127, -4, 0, -29, -84, 14, 2, -80, -11, 40, -125, 63, -70, 57, -9, -112, 33, 22, -8, -42, -63, -94, 7, 1, -104, -33, -31, 115, 59, 39, -2, 0, -24, -4, 65, -69, -13, 10, -51, -127, 14, -127, -17, -114, -127, -61, -56, 41, -27, -81, -57, -8, 24, 1, 9, 12, -27, 14, -25, -57, -13, -60, 26, 
-14, -102, 2, -32, -8, -4, 43, -7, 14, -7, -58, -62, 56, 40, 76, -6, 43, 35, 11, -14, 9, -96, -17, 13, -97, -8, 27, -22, 2, 34, -10, 66, 9, 87, 6, 56, -10, 19, 18, 19, -127, -19, 40, -19, -96, -122, -21, 3, 20, 4, -21, 56, 10, -64, -15, 2, 27, 7, 12, 44, -24, 5, 31, 31, 
-33, -53, 19, 2, 60, 5, 31, 64, 19, 19, -4, -12, 43, 93, 43, 41, -5, -54, 2, 28, 3, 33, -86, 0, -39, 8, -28, -38, 37, -8, 7, 94, 26, -13, -22, -71, -68, 14, 2, 84, -127, 28, 85, -94, 12, 34, -81, 70, -1, 3, -61, 37, 59, -80, -12, -24, 9, 60, -6, 34, -81, 19, 87, -14, 
12, -23, 68, -86, -73, -127, -23, 52, -63, -127, 0, -121, -39, -127, -31, -46, -69, 44, 68, -127, 47, -89, -52, 56, -38, -23, 103, 49, 37, -20, 11, 121, 4, -99, -8, 118, 15, -121, -56, -19, -127, -18, -76, -32, 31, -18, 2, -24, -28, -51, -116, 23, 25, -85, -94, 70, 60, -127, 34, 4, 17, 15, -19, 9, 
-10, -49, -24, -52, -53, -65, 46, -15, -127, -127, 24, -127, -9, 127, 34, 9, -127, 96, 37, -61, 46, -60, -13, -7, -6, 34, -8, 83, -31, 48, 5, 86, -7, 4, 33, 34, 15, -60, -127, 14, -127, -9, -4, -8, 14, -127, -51, 26, -6, 2, -127, 46, 8, -24, -43, -10, 28, -17, 10, 52, -2, 35, 38, -12, 
38, -42, -30, 22, 23, -127, 29, 54, -106, -17, -23, -63, 14, 40, -16, -5, -127, 69, 37, -54, -4, -16, -41, -23, 73, 83, -19, 99, -19, 16, -33, -21, 1, 10, -8, -7, 37, -2, -109, 18, -127, 19, -73, -41, 19, -97, -39, 51, -11, 2, -127, 20, 36, -8, -50, -23, 0, 65, -39, 3, 18, 42, 19, -47, 
13, -62, 23, 3, 6, -24, 42, -127, -1, -127, -18, -20, -40, 25, 34, -127, -39, -57, -35, -83, -24, 46, 5, 48, -9, -123, 6, 33, 5, 15, 32, 5, -25, 14, -61, -20, -127, -60, -9, -70, -29, 2, 29, 34, -29, 39, -23, -18, 43, 20, -1, -39, -38, -4, -21, -21, -2, -127, 10, 3, -23, 38, -18, -4, 
19, -112, 90, 35, -17, 18, 28, -79, -23, -16, -3, -25, 26, 9, 23, -100, -26, 39, -56, -77, -4, -7, 28, 50, 11, -75, -3, 3, -12, -58, 1, -47, 8, -42, 6, -43, -127, -4, -37, -43, -11, -12, -50, 22, -39, -69, -15, 22, 22, -9, 24, 16, -27, -37, -8, 18, 10, 38, 16, 4, -11, -1, 39, 49, 
1, -34, 54, 92, -39, 17, 5, -103, 9, 62, 15, -55, 57, 20, -26, 60, -39, 123, 29, 5, 14, -15, -11, -19, 17, -21, -2, 52, -11, -64, -1, -26, -17, 46, 54, -75, -88, 13, 7, -31, -25, 6, -45, 10, -8, -6, -51, 0, 38, 23, 0, 20, 28, 0, -47, 4, 42, 40, -2, -1, -13, -17, 35, -29, 
-74, -108, 58, 58, 8, -53, 61, -44, -10, 12, -20, -11, 30, -115, 16, 68, -127, -27, -1, -20, -127, -13, -40, 70, 43, 7, -86, -62, 44, -127, 35, -46, -15, -26, -16, -127, -127, 3, -35, -74, -33, 41, -1, 33, 1, -49, 3, -13, -24, 0, 26, 16, -24, -19, -25, -62, 23, -11, 36, -19, -127, 65, 9, 14, 
-127, -127, 8, 38, -5, -94, 48, 24, 4, 22, 42, -17, -4, 14, 59, 31, -41, -32, 6, 5, -127, 0, -39, 60, 8, 30, -67, -21, 5, -127, -12, -85, 44, -49, -21, -43, -39, 45, -5, -95, -80, 24, 86, -18, 29, -79, -36, 5, 7, 5, 28, -4, 16, -28, 54, -12, -21, -24, 17, -10, -127, 56, -5, -29, 
-127, -79, -63, -7, 37, -12, -63, 95, -28, 20, 62, 17, -38, 52, 27, 17, 127, 8, 39, 62, -127, -23, -7, 44, 23, 17, 22, -16, -40, -48, 41, -3, 66, -56, 49, -63, 2, 29, 6, -2, -105, 40, 76, -8, 52, -84, 17, 53, -2, 30, 17, -6, 75, -109, 54, 15, -6, -4, 7, 72, -21, -38, 30, 16, 
43, -78, 44, 56, -20, -39, -22, 73, -12, 8, 7, 32, 12, 8, -61, 24, -11, -7, -22, -9, 107, 20, -8, 79, 46, -127, 8, -23, 22, 29, -45, 20, -11, -72, -2, 43, -127, -63, -70, 60, -5, 68, -127, 2, -88, 27, -127, -29, 13, -11, -62, -33, -41, 8, -104, 39, -40, 19, -106, -45, -32, -67, -23, 43, 
-65, -19, 80, -6, -6, -2, -28, 42, 24, -15, -7, -35, 33, 38, -85, 46, 93, 15, 14, -3, 59, -24, -3, -3, -3, -40, 13, -82, -59, -2, -127, 66, -32, 13, 5, -18, -23, -28, 13, 34, -29, 0, 25, 60, -100, 63, -34, -34, 67, 38, 5, -12, -19, 62, 3, 31, 1, -3, -75, -121, 50, 21, -44, -20, 
-83, 59, -83, -62, 71, 28, 19, -28, 24, 3, -71, 26, 13, -3, -63, 30, -15, -41, 25, 47, -13, -51, 30, 11, -13, 57, 0, -95, -67, -56, -44, 127, 25, 22, 26, -24, -74, 27, 1, 31, 1, 56, -29, 71, -2, 82, 105, -38, -23, 44, -27, 73, 35, 39, -32, 47, 17, -10, -20, -17, 26, -24, -22, -14, 
-34, 20, 45, -127, -127, -127, 29, 79, -17, -89, 11, -127, 40, -5, 27, 0, -18, 29, -71, -118, 95, -71, -100, 39, 59, 51, -127, 28, 70, 25, 3, 9, 9, -127, 14, 29, 68, -32, -42, 96, -73, 18, 1, 0, -76, 54, -56, -43, 0, -50, -73, -37, 30, -127, 5, 29, 19, -127, 16, 69, -20, 11, -3, -35, 
53, -33, 60, -13, 36, -33, -11, 27, -127, -69, -65, -88, 24, 122, 12, 1, -127, 27, 0, -62, 55, -103, -127, 17, 11, 49, -42, 127, 29, 49, -42, -47, 25, 44, 8, 28, 36, 5, -8, 127, -37, 6, -127, 3, -33, 26, -85, -8, 14, -14, -127, -32, 13, -40, 4, 15, -31, -19, -3, 53, 5, -1, 2, 23, 
19, 22, -23, -83, 0, -1, 22, -10, -127, -22, -53, 1, 35, 54, -4, 21, -127, -36, 53, 10, 4, -80, -127, -32, -55, 6, -47, 109, -5, 44, -43, 85, 21, 61, 43, -16, 67, 8, 16, 45, -127, 23, -127, 24, -48, -76, -67, 23, 62, 25, -127, -46, 31, -76, 25, 9, -24, 1, -32, 39, 25, -57, 1, -4, 
-51, -54, 112, -96, -67, -35, 63, -41, -19, -12, -29, 51, -67, 28, -34, 19, 122, 2, 25, 56, -9, -46, 4, 31, 66, 12, -14, -85, 61, 79, -5, -60, 38, -41, -29, -126, -2, -41, -20, -41, -21, 14, 115, 5, -35, -101, -18, -12, -6, 37, -59, -70, 56, -127, 3, -21, -13, 35, 26, 7, 34, -40, 46, 104, 
-74, -32, 111, -109, -18, -24, 21, -97, 0, 38, -18, 70, -51, 7, -6, 6, 122, 37, -5, 39, -36, -39, -36, 72, -45, 42, 4, -16, 66, 4, 42, -116, 15, 45, 12, -82, -20, 7, -13, -84, 1, 0, 127, -22, 11, -114, 6, -69, -1, 14, 19, -20, 12, 22, -16, 6, 9, 56, -23, -6, -124, -32, 10, 15, 
-127, -34, 38, -77, -30, -45, -12, -65, -18, 17, -21, 32, -47, 24, -47, 28, -12, 13, -4, -29, -101, -67, -2, 24, -127, 35, 41, 60, 79, -89, 35, -100, 34, 52, 25, -65, -7, 16, 22, -32, 7, -9, -57, -113, 5, -127, -21, -81, -20, 14, 37, 31, -22, 11, -20, 24, -2, 37, 15, -44, -127, -75, -32, -78, 
19, -16, -4, -127, 64, -69, -3, -84, -127, -2, 13, -107, -60, 14, -114, 8, -127, 84, -29, 32, 59, -127, -127, -7, -1, -14, 21, 14, -20, 21, 35, -48, -127, -27, -50, 23, 90, -14, 34, 35, -127, -127, -127, -127, -120, -127, -1, -127, -73, -40, -127, -120, -45, -9, -11, 5, -43, -35, -22, -117, 19, -56, -33, -127, 
-1, 26, 17, -72, 26, -11, 30, -40, -127, -1, -6, -11, 16, 79, 75, 27, -127, 82, 8, 25, 65, -23, -17, 12, 22, 36, 34, 127, -119, -8, -69, 47, 6, -25, 37, -37, 31, -12, 2, 45, -127, -6, -94, 32, -65, 40, -6, 13, 53, 6, -115, 13, -14, -37, 33, 16, 9, 11, 54, -29, -53, 53, -3, -29, 
0, 36, 37, 52, -2, 6, 69, 14, -19, -5, -90, 42, 35, 34, -127, -34, 27, -50, 3, 6, -32, -1, 15, -19, 44, 32, 15, 127, -93, 48, -116, 77, -60, -34, 20, -26, -35, -12, -22, 18, -45, 13, 80, 46, -45, 84, 25, 7, 48, 5, -51, -4, 63, 15, 49, 8, 11, 13, -73, 31, 16, 82, 45, 62, 
0, 0, 0, 0, 0, 0, 0, 0, 0, 0, 0, 0, 0, 0, 0, 0, 0, 0, 0, 0, 0, 0, 0, 0, 0, 0, 0, 0, 0, 0, 0, 0, 0, 0, 0, 0, 0, 0, 0, 0, 0, 0, 0, 0, 0, 0, 0, 0, 0, 0, 0, 0, 0, 0, 0, 0, 0, 0, 0, 0, 0, 0, 0, 0, 
0, 0, 0, 0, 0, 0, 0, 0, 0, 0, 0, 0, 0, 0, 0, 0, 0, 0, 0, 0, 0, 0, 0, 0, 0, 0, 0, 0, 0, 0, 0, 0, 0, 0, 0, 0, 0, 0, 0, 0, 0, 0, 0, 0, 0, 0, 0, 0, 0, 0, 0, 0, 0, 0, 0, 0, 0, 0, 0, 0, 0, 0, 0, 0, 
0, 0, 0, 0, 0, 0, 0, 0, 0, 0, 0, 0, 0, 0, 0, 0, 0, 0, 0, 0, 0, 0, 0, 0, 0, 0, 0, 0, 0, 0, 0, 0, 0, 0, 0, 0, 0, 0, 0, 0, 0, 0, 0, 0, 0, 0, 0, 0, 0, 0, 0, 0, 0, 0, 0, 0, 0, 0, 0, 0, 0, 0, 0, 0, 
7, -127, -23, -53, -1, -72, -54, 125, 71, 65, -127, 23, -126, -60, 80, 17, -127, -14, -41, -54, 88, -32, 20, 49, -17, -15, -32, -8, -73, 35, 55, -92, 106, -64, 63, 65, 78, 86, 1, 65, -50, 118, -46, -9, 8, 12, 11, -19, -72, -11, 59, 127, -127, 14, 28, 4, -15, -127, 19, 31, -27, -51, 40, -33, 
-84, -38, 74, 39, 33, -45, -24, 59, 0, 15, -52, -66, -99, 26, 2, -43, 65, 97, -13, -100, 18, 50, 11, 39, 21, -59, 4, 5, 35, 32, -15, -69, -1, 38, 27, -37, 55, -32, -8, 59, -7, -14, -93, -1, 10, -7, -84, -45, 70, 40, 5, -3, -32, 6, 4, 4, -19, -50, -57, -36, 5, -48, 25, -27, 
-89, 24, 39, 89, -15, -48, 73, 49, -32, 17, -64, -31, -127, 60, -120, -7, 84, -4, -18, -66, -127, 7, 45, 21, 72, 51, -18, 17, 63, -122, -25, -91, -123, 39, -40, -60, -127, -62, 11, 23, -14, -64, 51, -50, -24, -127, -101, 9, 67, 24, -6, -39, 33, 51, -108, 22, -20, 32, -53, 11, 0, 77, -50, -11, 
-127, 62, -110, 44, 34, -16, -63, 21, -10, 30, 19, 30, 54, -89, 36, 0, -127, -127, 54, 42, -14, -21, -41, 19, 19, 31, 75, 27, 10, 13, -28, 67, 1, -112, 39, 10, 55, 57, 34, 50, -30, -38, -127, -6, 56, 19, -21, 1, 7, 19, -14, 18, 35, -92, 3, 95, 2, 50, -7, 30, -109, -43, -3, 38, 
-73, -11, -55, -8, -28, -127, -1, -33, 7, -18, -124, -8, 17, -40, 54, -30, -3, -103, 16, 16, 53, 7, 0, -25, 33, -29, 15, 29, 70, 18, 26, 34, 28, -127, -68, 51, -21, 10, -33, -28, 18, -17, 92, 22, 45, -2, -39, 7, 28, -54, 8, -13, -28, -48, -40, 87, 9, 3, 1, 8, -46, 13, -37, 27, 
18, -127, 2, -32, -43, -127, -14, -90, 30, -56, -127, -14, -33, -98, 36, -82, 121, 17, -7, -2, 98, -42, -19, 33, 5, -2, -94, 54, 20, -97, 38, -63, -8, -75, -127, -44, -12, -32, 17, -46, -15, 15, 17, 22, 2, 19, -3, -25, 66, -52, 9, -101, -94, -72, -116, 41, 61, -13, 3, -7, 26, 8, -20, -2, 
32, 22, 42, 27, 11, -12, 14, 33, 24, 0, 32, -5, 24, -41, -35, 57, -8, 38, -91, 12, -10, -18, 50, -45, 58, 29, -109, -48, -43, -43, -76, 77, -50, 4, -50, 15, 25, 23, -36, 6, -27, -70, 94, 10, 1, 1, -19, 19, 79, 65, -17, -4, 31, 13, 20, 30, 13, -22, -38, 27, 49, 70, 20, 26, 
-8, 3, 33, -23, -15, -46, 26, -44, 43, -54, 5, -55, 43, -41, 25, 26, 73, 30, -102, 3, -6, 10, 9, 51, 59, -38, -49, 74, -5, -104, 6, 36, -13, 38, -58, 25, 43, 37, -34, -26, 16, -27, -127, 10, 17, -16, -39, -34, -8, 9, 6, -41, -59, 29, 53, 0, 13, -20, 7, 2, 39, 28, -20, -7, 
-41, -127, 18, -126, -43, -46, 0, -21, 14, -40, -50, -18, -21, -46, 44, -13, -127, 114, 66, -44, 59, 8, -52, 73, 23, -59, 0, 63, 44, -68, 38, 17, -2, 25, 15, 23, 64, -37, 8, -98, -9, -40, -127, -31, 21, -1, -30, -37, -91, 4, 16, -42, -85, 11, -30, -15, -11, -112, -2, -45, 6, -5, -46, -52, 
-56, 15, -125, 25, -4, 7, -42, 80, -24, 45, -8, 48, 1, 41, -127, 35, -31, -2, 70, 61, -119, 50, -76, -4, -42, 19, -1, -127, 29, -45, 121, -67, -127, -88, -12, -6, -32, 26, 54, 49, -34, -15, -22, -32, -6, 28, 80, 3, 53, 25, -65, -10, 51, -1, 54, 36, 13, -1, -123, 38, -89, -8, -28, -22, 
-33, -20, -78, 19, -26, -29, 42, -14, -73, 19, 22, 10, -7, -127, -56, 18, 15, 22, 28, 19, -127, 55, -54, 8, -11, 23, -28, 34, -53, -93, 119, 0, -62, -77, 2, 22, 9, -57, 17, 23, -116, -26, 36, 9, 43, 127, 104, 14, -17, -82, 15, 31, 40, 3, -5, -4, 34, 0, -30, 23, -4, 33, 2, -1, 
9, -45, -86, -71, -79, -15, 25, -77, -36, -48, -24, -61, -26, -127, 105, -103, 84, 60, -110, -39, -127, 83, -67, 15, 60, -48, 0, 127, -127, -127, 68, -75, 31, -62, -127, 46, -9, -127, -28, 31, -127, -107, 35, 0, 12, 73, 35, 31, -34, -127, -12, 34, 9, -61, -20, -99, -49, 26, 57, -1, 83, 17, 1, 0, 
-47, 31, -27, -5, 22, -5, -126, 85, -27, 10, 44, 17, 4, -12, -127, 35, 127, -51, 13, -26, -127, 30, -42, -11, 34, -18, 47, 4, -6, -76, -30, 8, -127, -11, -11, -40, -127, -16, -2, 30, 6, 5, 8, -13, 24, -30, -62, 58, 88, 5, -72, 10, 3, 69, -127, 19, -34, 15, -15, -39, -21, -47, 9, 76, 
-117, 29, -28, 20, 20, 30, -82, 23, 1, 22, 116, -28, -34, -24, -127, 48, 45, -79, -34, -8, -127, 1, -31, 57, 9, -127, 18, -72, -9, -88, 38, -54, 1, -34, 5, 11, -127, -23, -34, 17, 23, 59, 14, 98, -37, 127, 17, -49, 65, -4, -2, 52, -32, 89, -97, -2, -46, 13, 19, -109, -53, 33, -77, -14, 
-127, 71, -54, -32, 26, 12, -102, -102, -24, 22, 33, 25, -10, 14, -63, 49, 53, -28, 51, -5, -127, -18, -25, 63, -37, -9, -3, -57, -67, -72, 13, -45, -56, -1, 65, -4, -44, 33, 4, -58, 4, -65, -79, 5, -127, -22, 0, -102, -25, 84, -19, 52, 31, 1, 36, -10, 28, 60, 60, -84, -113, 66, -19, -69, 
27, -23, -56, 8, -106, -5, -4, 104, 55, 60, 23, 20, 60, 7, -20, -15, 10, -28, 11, 31, -55, 28, -63, -51, -15, 51, 31, 1, 75, -94, 70, 15, -1, -127, -47, -123, -127, -29, -28, -32, 75, 55, -59, -69, -33, 50, -94, 3, 42, -63, -13, 56, 12, 13, -127, 5, -80, 50, 24, -23, 0, -127, 18, -53, 
84, 11, 90, 12, -29, 5, -11, 97, 36, -20, 68, -57, 57, -61, -111, 79, -18, -3, -43, 9, -39, 14, -6, 32, -90, -100, 44, 39, 4, -61, -17, -125, -30, -13, -41, 46, -91, -45, -81, -10, -25, 100, -41, 48, -1, 10, -48, -12, 25, -18, -33, 4, -47, 0, -63, 11, -16, 12, -59, -66, 62, -29, -45, -57, 
-63, 63, -40, -17, -30, 22, -31, -127, -23, 44, -57, -49, 15, 36, -98, 66, 23, 20, -36, 11, -39, -53, 39, 45, -127, -58, 10, 14, -65, -109, -53, -13, -3, 72, 34, -12, -29, -10, 65, -91, -77, -11, 127, 54, 28, 18, 53, -94, 1, 28, 14, -27, -49, -3, -36, 73, 68, 48, -127, -70, -24, 8, -47, -110, 
-68, -68, 15, -28, 47, -4, -8, -27, 12, 46, -12, 13, 0, -4, -2, -12, -62, -45, 35, 5, -127, 29, -41, 8, -24, -64, 13, -75, -86, -127, 41, 111, -57, 59, -42, -34, -120, 20, -4, -45, 8, -84, -68, 21, 2, 127, 94, -9, -42, 62, 6, -4, 25, -19, -47, 52, 50, 9, 23, -8, -92, 23, -19, -86, 
-49, 8, -23, 5, -45, -28, 28, -11, 7, 8, 22, -2, 20, 20, 54, 22, -9, -11, 21, 27, 3, 36, -30, -4, 26, 17, -20, -32, -71, -65, 4, 68, -28, 13, 39, 1, -18, 14, 32, -61, -31, 3, -90, 20, -43, 103, -45, 1, 41, 51, 16, -7, 56, -49, -15, -4, 32, 3, -35, 16, 7, 36, -35, -26, 
-18, 42, -26, 6, -32, -44, -4, -19, -103, -43, 8, -14, 9, -9, -43, 70, 13, 53, -6, 33, -66, 4, -49, -1, 29, -6, -41, 44, -95, 20, 51, -48, -27, 38, 30, 32, 23, 28, 37, -28, -95, -62, -26, 53, 12, -22, -62, 15, 0, 35, -10, -28, 40, -103, 3, -5, 15, 55, -30, 24, 64, -13, 58, -36, 
14, -13, -55, -17, 25, 23, 56, -30, -32, -1, 62, 63, 25, -46, 19, -17, 111, 11, -20, 35, -127, -15, -18, -22, 41, 35, 29, -11, 15, -59, 34, -61, -23, 25, 25, -87, -53, -9, -27, 42, -7, 0, 72, -11, -20, -17, -32, 35, 23, -9, -18, 32, 35, 50, -41, -59, -42, 106, -6, -63, 71, 0, -16, -35, 
-67, -70, 102, 0, 1, 7, 34, -37, 16, -7, -10, 16, 40, -79, 7, 32, 37, -45, -14, -11, -65, -2, 5, -4, -69, 11, 17, -28, 7, -41, 0, -33, 48, 4, 2, 11, -8, -3, 39, 47, 20, 42, 84, -6, -24, -64, -10, 21, -11, 27, 16, -7, -35, 40, 13, -37, 1, 17, 16, -28, -57, -7, 27, -26, 
-127, -125, 107, 20, 26, 15, -97, -15, 12, 43, -64, -3, 11, -72, 63, 41, -127, -127, 27, 1, -120, -50, 26, 34, -88, -2, 70, -27, 4, 49, -19, -2, 5, 38, 24, 32, 1, 18, 49, -15, 35, 79, -98, 14, 48, -57, 49, 52, -83, 43, 0, 41, -21, -1, 53, 42, 12, -58, 24, 11, -122, -60, -4, -47, 
-35, 19, -72, 44, 28, -9, -19, -45, -75, 48, -23, 44, 12, 25, -7, -2, 7, 22, 67, 40, -4, -15, -10, -68, -9, 43, 25, -84, 28, -37, -31, -50, -127, -44, 44, -3, -52, -14, 35, -27, 59, -9, -39, -25, -19, -52, -121, -1, -10, 53, -49, 3, 69, 92, -67, 77, -75, 69, -106, 27, -30, -60, 24, -76, 
33, 23, 25, -9, 11, 1, 19, -17, 41, 28, -21, -12, 35, -11, 46, -11, -38, -4, 2, -5, 18, -14, 5, 70, 0, -5, 11, 39, -2, -82, -74, -39, -32, -9, 10, -44, -51, -8, 24, -29, 50, -36, 37, 25, -56, 31, 14, -1, 58, -10, -35, 0, 18, -12, -18, -11, 5, 0, -18, 2, 32, 20, -4, -23, 
5, -7, 52, -45, 40, 4, 41, 13, -15, -25, 20, -49, 38, -119, 28, 12, -77, -33, -49, -18, 8, -23, 12, 103, 11, -48, -25, -26, -33, -38, -93, 21, -17, 17, -17, -19, -33, 26, -54, 48, -15, -41, -6, 57, -52, 59, 74, 1, 58, -31, -95, 26, -25, -88, 65, -85, 41, -65, 58, 9, 34, 17, -8, 3, 
103, -31, 103, 38, -38, -29, 15, 91, -63, -29, 18, -46, 2, -51, -121, 7, -52, 60, -7, -23, 127, 51, 1, 112, 18, -70, -21, 127, 105, -11, -21, -127, -67, -19, -23, 4, 66, 25, -18, 31, -27, 25, -89, -30, -62, 15, -75, -41, 109, -27, -27, -14, -39, 14, 3, 35, -13, -34, -127, -63, -34, -6, -30, 4, 
-1, 43, 74, -35, 43, 8, -22, 50, -63, 14, -18, 6, 31, -34, -95, 20, -2, 20, 44, 14, -71, -70, -49, -4, -49, 64, -10, -72, -70, -93, -127, 73, -72, 72, 25, 10, 5, 15, 3, 60, -47, -15, 68, -47, -3, 2, 26, -28, 11, 5, -24, 1, 65, -62, 12, 20, -15, -15, -18, -17, 38, 10, 11, 17, 
-53, -52, -111, -4, 2, -50, 37, -31, 109, 3, -84, 64, 5, 32, -49, 29, -22, -127, -26, -25, -50, -49, 8, -37, -7, 30, 0, -122, 11, -18, 62, 78, 69, 43, -57, -47, -127, -21, 1, 88, 46, 70, -45, 52, 44, 9, 63, 1, -62, -9, 36, 24, 0, 13, 7, 27, -36, 11, 43, 37, -25, -8, 0, 54, 
-28, -37, 84, -42, -4, -127, 42, -12, -127, -112, -4, -127, -41, -127, 38, -21, -123, 40, -80, -79, 19, -62, -12, 37, 8, -5, -127, 62, -15, 5, 2, -40, -26, -43, -8, 69, 0, 63, -20, -5, -127, -42, -104, -55, 26, 0, 11, -73, 17, 78, -127, 5, -32, -127, 94, 71, 116, -127, -8, 70, 10, 70, -34, 20, 
17, -112, 29, 82, -38, -127, -6, -5, -127, 45, -21, -127, 42, 83, -4, 48, -127, 121, -106, -76, -20, -52, -43, -5, 36, 63, -127, -94, -7, -106, 37, -94, 0, -84, -47, -18, -127, 60, -21, 21, -121, -9, -50, 12, -21, -127, -37, -57, 43, 65, -127, -32, 40, -25, 15, 55, 3, 15, -8, 8, 24, 25, 41, -39, 
14, -127, -46, 127, -82, -127, -38, 13, -127, 120, 24, -50, 64, -127, 16, 80, -109, 123, -29, 5, -1, -33, -120, -14, 21, 86, -127, -2, 29, -119, -26, -127, 2, -89, -5, -110, -127, 19, 70, -12, -127, 0, 58, 39, -42, -127, -62, -18, 66, 63, -127, -14, 55, 40, -40, 50, -79, 127, -11, -16, 12, 3, 97, -41, 
31, 73, -55, 17, 63, 76, 14, 67, -41, -4, 27, -8, 54, -18, -57, 19, -20, -4, 51, 57, -117, 32, -38, 19, -4, 11, 79, -127, 71, -127, 103, -79, -59, -68, 127, -29, -114, -41, 56, 53, -63, 46, -29, 60, 47, -127, 57, 49, 36, -15, -26, -47, 6, 123, 48, 84, 49, 29, -101, 33, -17, 21, -26, 32, 
-9, -64, -34, -13, 45, 26, 12, -8, 10, -45, 64, -44, 4, -127, -23, -81, -12, -50, -40, 6, -72, 34, 11, 21, -26, -34, 71, -78, 19, -127, -5, -65, -14, -127, -23, 0, -112, -63, 14, 46, -3, -8, -5, 21, 41, -83, 48, 21, 41, -127, 1, -50, 19, -6, 15, 33, -8, 8, 3, 4, -4, 30, -2, 1, 
3, -68, -27, 9, -72, -62, 62, 13, -24, -127, 35, -92, 23, -127, 53, -112, -59, 1, -83, -127, 43, 1, -16, 53, 27, 31, -62, 85, 20, -127, 34, 6, 1, -127, -127, -43, -127, -127, -86, 44, -20, 5, -78, -38, -35, -127, -28, -45, -14, -127, -31, -117, 20, -75, -33, -10, -35, -36, 53, -20, 3, -11, -11, -38, 
-11, 19, -13, -127, 36, 19, -44, -37, 19, -40, 24, -127, -91, 28, 66, -37, -113, -27, -20, -9, 83, -18, 69, -91, 23, 41, 6, -43, -34, 4, 87, -102, 62, 6, 0, -34, 88, -28, -7, -93, 18, -18, 23, -81, 40, -7, 15, -122, -29, -33, -16, -28, -46, -48, 69, -4, 54, -117, 22, -103, -2, 61, -42, 25, 
33, 25, -2, -78, 3, 49, -58, -71, 36, 1, 42, -107, 47, -2, 7, 10, -53, -23, 22, 31, 93, 1, 57, -60, -33, -14, 21, 22, -72, 10, -13, -93, -5, 52, -12, -2, 88, 18, 15, -42, -7, -70, 25, -66, 2, 21, 29, -64, 38, -14, -5, 33, 38, 11, 18, 21, 31, 12, -13, -59, -31, 6, -30, -121, 
32, 52, 73, 5, 10, 71, -48, 29, 12, 37, 47, -29, 75, 7, -124, 34, -18, 21, 46, 10, -10, 114, 22, -62, -17, 5, -14, 16, -33, -33, -73, -116, -127, 63, 9, -24, 7, 37, 10, -88, -18, -16, 1, -65, 9, -68, -12, -29, 99, 33, -17, 14, 61, 57, 22, 39, 8, -9, -124, 3, -4, -34, -16, -126, 
6, -23, -22, -15, -10, 79, -14, -44, 14, 23, -7, 39, 21, 75, -34, 16, -55, 17, 87, 14, -21, 0, 18, 7, -6, 29, 109, 36, 20, 19, 72, -74, 15, -9, 51, -43, 47, 28, 56, -94, 35, -99, 127, -25, 24, -82, -11, 24, -74, 7, 53, -14, 44, 0, 23, 65, 18, 27, 72, -5, -39, -36, 3, -42, 
-7, -48, 22, 41, 0, 4, 41, 58, -10, -30, -11, -1, 27, -60, 12, -27, -28, -2, 33, 20, 37, 35, -15, -35, -3, 33, 40, -50, 28, -118, 13, -43, -8, -127, -14, -75, -52, -47, -31, 3, 47, 22, 127, -11, 8, -28, -40, -24, 7, -61, -37, -40, 30, 0, 11, -5, 5, 3, -5, -9, -24, 29, 11, -1, 
22, -33, 41, 46, -47, -52, 1, -3, -93, -65, 0, -49, -48, 37, 10, -3, 30, 40, -79, 18, 48, 11, -46, 40, -40, 27, -40, -44, -29, -58, -85, -127, 81, -40, -120, 7, -127, -54, -29, -93, -22, 80, 40, 46, -25, -56, 12, 12, 2, -67, -65, -61, -33, -44, -51, -83, 86, -10, -70, -35, 69, 29, 5, -28, 
32, -3, -17, 50, 13, -9, 54, 65, -5, 47, -11, 12, 29, -15, -36, 49, -3, -56, 15, 38, -90, 17, -34, -4, 3, 3, -6, -34, -35, -117, 24, -14, 8, -56, 44, 7, -44, 21, 13, -3, -16, -22, -35, -49, 3, -37, -68, 10, 26, -4, -16, 40, 31, -1, -48, 44, -44, -19, 23, -6, -95, -15, 41, 19, 
-17, 7, -42, -38, -40, -18, -29, 64, -16, 18, 8, -37, 46, -25, -34, -15, 65, -53, 22, -1, -127, 16, -72, 7, -16, -26, 64, 3, 20, -127, 13, 75, -3, -16, -20, 19, -55, 12, 0, -38, 9, 4, 16, -58, -16, -18, 30, -35, 44, -20, 6, 23, -12, 15, -43, 41, -10, 12, 48, -49, -32, 18, -21, -17, 
-98, 93, 1, -70, 0, -26, -40, 64, 46, 8, -8, 12, 6, -23, 0, 46, 81, -40, 29, 8, -94, 19, -67, -1, -2, 10, 44, -6, -36, -58, -2, 40, 2, -53, -18, 51, -40, 42, 7, 15, -21, -18, 38, -55, -76, -51, 36, -25, 28, -4, 14, 0, -32, 38, 56, 32, 17, 46, 54, -45, 0, 31, -20, 42, 
88, -47, 25, 35, 44, -75, 47, -82, -127, -26, -50, -14, -37, 22, -127, -11, 60, 36, -10, 4, -127, -116, 35, -46, -12, -7, 11, -79, 17, 82, -11, -25, -127, -38, -55, 16, -113, -3, -35, 90, -84, 26, -94, 127, 80, -47, 43, 53, -55, -20, -34, -48, -6, -17, -51, 9, -3, 34, -127, 67, 127, -24, -17, -64, 
86, -21, 37, 12, -25, 25, 8, -33, -83, -11, 16, -56, 61, 106, 71, -63, 18, 37, -43, 46, 127, 18, -20, 127, -27, -46, 35, 70, 9, -15, -16, -127, 100, -31, 7, 50, -86, -4, -5, 15, -48, -11, -4, 70, 6, 83, -29, -60, -12, -31, -54, -2, -27, 9, 28, -11, 6, 7, -91, 23, 10, -21, -22, -116, 
-31, -23, 7, 49, 55, 39, -58, 19, -78, 13, 63, -14, 36, 11, -72, 11, 99, 93, 5, 39, 102, 62, -41, 7, 0, -16, 1, -34, -71, -94, -127, -68, -127, 6, 38, -77, -108, -21, 41, 13, 27, -29, 47, -68, -41, -69, -65, -64, 19, 30, -35, -5, 51, -22, 62, 4, -16, 48, -127, -8, -21, -4, 58, -95, 
-10, -23, 17, -127, -4, -28, -27, 5, -7, 13, 34, -28, -61, 42, 113, 1, -116, -19, 70, 2, 127, -99, 26, 14, 41, 18, 6, -32, 54, 51, 72, 74, 43, -70, 29, -14, 9, 6, -17, 3, -66, -45, 4, -127, -45, -127, -9, -50, -30, 27, -52, -55, 5, -127, 6, 11, -19, 0, 69, -1, -16, -21, 19, -94, 
19, 39, -4, 10, 6, -3, -28, 9, -127, 12, -54, 10, 16, -72, 22, -27, -97, -40, 63, 10, 93, 0, -26, -19, 6, 29, -44, -127, 9, 9, 0, 48, -50, -4, 28, -4, 9, 15, -8, 1, -59, -1, 94, -127, 18, -30, -23, 34, 69, 15, -91, -26, 63, -56, 27, 9, 34, 16, -46, 11, -23, -9, 35, -57, 
25, 30, 41, -33, 22, 21, -16, 97, -127, -54, 14, -33, 0, -65, -55, -21, 44, -119, -71, -2, 37, 27, -67, -38, 40, 20, -42, -37, -127, -3, -118, -7, -120, -40, -27, 62, -20, -65, -50, 12, -127, 50, 18, -12, 31, -69, -13, 45, 76, -102, -6, -35, 66, -75, -30, -47, 19, -21, -101, -18, 41, 34, 15, 26, 
41, 13, 96, 23, 37, -33, 19, 122, -96, -1, 94, -40, -6, -33, -17, 11, 41, 0, 30, 42, 123, -17, -127, -64, 36, -2, 2, -114, -37, -59, -87, 54, -127, 33, 33, 46, 2, -35, -33, -3, 15, 27, 127, -69, -7, -127, 12, -41, 67, 29, -56, -15, 31, -52, 28, 39, -11, 25, -122, 0, -35, -6, 44, -1, 
14, 29, 78, -5, 85, -28, -9, -10, 52, -11, -23, -1, -24, -127, -4, 37, 4, -64, -42, 16, 77, -28, 9, 45, 19, 18, -8, 2, -12, -51, -17, 31, 12, 21, -67, 54, -87, 4, -20, -4, 51, 31, -98, 26, 53, 11, -20, 4, -1, 31, 29, -8, 40, 18, 14, -8, 6, 42, -11, 12, -12, 0, 6, -26, 
-23, -106, -12, 20, -37, -83, -5, -47, 28, -8, -127, -30, -28, -32, -16, -7, 50, -38, -89, 10, 111, 10, 43, 15, -26, -39, 0, -15, 53, -28, 50, 37, 47, 48, -82, -52, -88, -4, 52, -46, 37, 52, -13, 41, 27, -36, -8, 9, -24, -3, 55, 18, -107, 63, -18, 53, -25, -11, 18, 3, -35, -13, -27, -58, 
23, -77, 63, 3, -127, -59, -20, 27, -127, -127, 65, -127, 39, 89, 42, -63, -127, 79, -20, -127, 103, -40, -127, 29, 49, -127, -127, -56, 0, 54, -37, -81, -26, -15, 4, -44, -127, -61, -21, 62, -127, 3, -63, -34, -127, -56, 47, -61, 25, -77, -127, -51, -12, -127, 5, -57, -127, -127, 4, 19, -4, -127, 49, 24, 
42, 56, 45, 76, 0, 8, 18, 17, -127, -53, 12, -127, 30, 55, 40, 17, -127, 32, 39, 3, 67, -3, -127, 37, 18, -63, -86, 2, 31, 44, -29, -51, -15, 25, 23, -20, -45, -18, -36, 63, -127, -6, -127, 4, -32, -27, 0, 11, 4, 10, -127, -73, 52, -127, 31, 13, -50, 40, 8, 48, 24, -89, 38, -5, 
36, -52, -7, 15, 25, -74, -28, -8, -127, 30, -38, 29, 8, -5, -29, 75, -127, 9, 38, 11, -11, -9, -3, -36, -29, 42, -58, 45, -32, -8, -33, -76, -41, 91, 1, 24, 95, 39, -11, 123, -127, 41, -127, 9, 70, 78, -20, 47, 53, 19, -68, -102, 11, -127, 68, 54, 37, -56, 5, 22, -4, -50, 45, 1, 
-25, 17, -21, -127, 22, 46, 3, -127, 56, -61, 2, -127, -127, 41, 9, -6, 2, -38, -22, -127, -13, -18, -19, -73, 11, -105, -2, -53, -123, -111, 14, -127, -33, 26, -4, 40, 42, -20, -33, -121, 21, 35, 44, -127, -7, 2, 43, -72, -59, 42, 49, -69, 22, -8, -18, 4, 13, -54, 40, -49, 23, 58, -112, -60, 
-35, 1, 29, -90, 18, 3, 6, -55, 3, 9, 26, -51, -2, 52, 13, 20, -10, -7, -16, -37, 127, 66, -21, 37, 63, -127, -3, 38, -85, -75, 22, -127, -29, -21, 44, 11, -19, 9, -14, -10, 12, 59, -5, -53, -40, -12, -33, -3, 44, 18, -15, 13, -12, 29, -31, 13, 26, 7, -23, -97, -11, 7, -18, -34, 
-37, 56, 73, 63, 28, -16, -11, 3, -89, 19, 74, -30, 116, 0, -120, 47, -50, 57, 40, 38, -25, 71, -44, 19, 28, -87, -27, 16, -13, -73, -27, -26, -79, -23, 41, -52, 2, 47, 57, -45, -6, 127, -30, 47, -29, -35, -53, 17, 127, 38, -81, 54, 64, 51, -19, -1, -4, 26, -127, 35, -34, -19, 33, -42, 
-72, -45, -66, 19, 87, -66, -2, 13, -7, 72, -66, 26, 61, -127, 73, 28, -127, 2, -66, 62, 27, -48, 22, 13, -3, -38, -4, -89, 0, -51, 9, 65, 18, -45, -5, 63, 40, 43, -35, 52, -49, -56, -127, 22, 11, 31, -37, -14, 19, 17, -5, 12, -20, -85, -7, 25, 2, 39, 24, 1, -54, 10, 46, 48, 
-14, -127, -42, -28, -52, -98, 10, -75, 10, -4, -127, -2, -12, 57, 51, -45, 19, 39, -105, -18, 57, 19, 26, 5, 37, -58, -16, -10, 32, 127, -8, 24, 18, -116, -48, 88, -112, -65, -1, 16, -22, -32, -26, -9, 6, 95, -17, 34, 38, -14, 17, -64, -43, -77, -36, 9, 11, -27, -38, 44, -9, -8, 34, 1, 
20, -126, 39, -36, -75, -67, 40, -55, 27, -50, -72, -57, -50, 18, -44, -56, 127, 43, -46, -55, 0, 24, 13, 1, 34, -3, -14, 47, 34, 62, -71, 0, -34, -118, -119, 55, -113, -72, 23, -41, 7, -14, 93, 18, -13, 115, -71, 14, 112, 16, 28, -50, -28, -35, -127, 18, 0, 25, -44, 35, -32, 19, 74, -20, 
-20, -127, -127, 30, -108, 79, 67, -22, 8, -61, 33, -80, -127, 32, -36, 74, -59, -14, 56, -127, -75, 71, 50, 10, 43, -127, 39, 9, 69, 72, 69, -48, 28, -7, 26, -47, -127, 14, 105, -30, -10, 8, 21, 0, -10, -2, 60, 34, -46, 42, -25, -97, -3, -25, -127, 100, -9, -127, 9, 52, -55, -10, -92, -19, 
-5, 12, -127, 54, -11, 15, 48, 53, -16, 34, -7, -93, -127, 36, -99, -36, 54, -33, 98, -83, -51, 82, -43, 11, -5, -104, 29, -66, 12, -1, 42, -80, 16, -97, -50, -69, -127, 10, 78, 61, 47, 56, 69, -31, -29, -25, 12, -8, 35, 33, -5, -62, 50, -44, -127, 43, -18, 0, 17, -55, 67, 26, -72, -26, 
-1, 67, -47, 51, 8, 21, 34, 94, -33, -69, 66, -120, -97, -118, -78, 27, 59, -77, 30, -30, -127, 53, -30, 51, -13, -22, -19, -106, -20, 22, -22, -107, -8, -127, -65, -16, -127, -127, -84, 79, -10, 111, -12, 29, -37, -17, 8, 52, 13, -61, -11, -44, 31, -3, -127, -106, 23, -23, -44, -66, 71, 14, -53, 39, 
3, -127, 21, 6, 11, -3, -3, 34, -9, 28, -20, 21, 32, -77, -3, -18, -102, -84, -33, 18, 36, -66, -11, 76, -49, -118, -15, 31, 6, -19, 34, -127, 22, -60, 11, 78, -127, 70, 2, 73, 14, 84, -80, -12, 35, -66, 10, -127, -111, -5, -43, 13, -39, 9, -20, 8, 62, -54, 24, 7, 24, 51, -63, -54, 
37, -127, 31, 37, 26, 13, -61, 17, 18, 4, -22, -72, 33, -32, -15, -17, 94, -71, -6, -6, 65, -27, -44, 27, -24, -52, 30, -11, 35, -36, -5, -127, -46, -36, 10, 36, -127, 27, -7, -36, 23, -45, 0, -87, -87, -36, -57, -127, 83, -13, -4, -25, 36, 7, -22, 25, -30, -62, 13, -127, 9, 56, -12, -33, 
-19, -53, 56, 23, 33, -19, -18, -15, 28, 0, -4, 68, 6, -35, 19, 54, 83, -9, 22, 41, 12, -30, -20, -39, -22, 67, 10, -43, 26, -55, -31, 40, -86, 9, 49, -48, -62, 52, 14, -28, -16, -58, 75, -24, -10, -81, -92, -53, 64, 6, -47, 19, 45, 64, -3, 0, -14, 60, -12, 19, 11, 45, 19, -41, 
};

const int8_t MagnetometetNetwork_layer_12_bias[] = {
2, 21, 19, 35, -25, 47, -13, 3, 14, -94, -6, 52, 7, -9, 27, -8, 11, 40, 50, -9, 24, 18, 61, -35, 30, 79, 40, 2, 75, 26, -23, -18, 15, 34, 68, -6, 15, -11, 3, 54, 0, -9, 1, -16, -18, 18, -13, 0, -16, 68, 10, 47, 26, -25, -24, 45, 22, -32, 6, 3, 44, 27, -9, 17, };


const int8_t MagnetometetNetwork_layer_15_weights[] = {
100, -10, -4, -8, -15, 7, -6, -20, -2, 18, -28, -29, 2, -44, -39, -6, -22, -29, 92, 23, 32, -41, 31, -5, 8, 13, -25, 17, -11, 44, 15, 3, 8, 104, 26, -4, -3, 38, -5, 15, 0, -29, -7, -96, -30, 17, 6, 10, 21, -59, -10, 127, -25, 2, -31, 30, 40, -41, -37, 65, 2, -33, 12, -32, 
-73, 48, 61, 54, -30, 83, -21, -16, -91, -102, -62, -39, 48, 46, 17, -105, -59, 3, 20, 41, 50, 16, -14, -52, 21, 17, -96, -72, 39, -28, -18, -66, 53, -47, 31, -74, 51, -127, -40, 92, 0, 52, 59, 17, 122, 45, -12, -15, -28, -4, -1, -95, 75, 76, 49, -50, -30, 115, -16, -127, 75, 95, -32, 56, 
-20, 38, -7, -69, 85, 16, 48, 37, -27, 85, -34, 110, -47, 38, -60, 32, -32, 22, 88, -95, -19, 57, 45, 99, -127, 36, 48, 104, 20, -85, -119, -34, -84, -22, 22, 114, -92, 75, 120, -76, 0, -127, -102, 54, -31, -119, -127, 46, 21, 46, -76, -82, 75, -11, -95, 26, -121, -55, -19, 30, 25, -60, -127, -50, 
2, -82, -52, 27, -47, -112, -33, -1, 123, 0, 127, -40, 6, -32, 88, 83, 114, 23, -127, 25, -53, -35, -14, -53, 113, -10, 72, -48, -7, 70, 126, 98, 21, -14, -38, -34, 52, 8, -79, -31, 0, 119, 49, 28, -60, 55, 127, -39, -13, 34, 90, -36, -124, -62, 75, 12, 107, -15, 81, 29, -117, 2, 127, 24, 
};

const int8_t MagnetometetNetwork_layer_15_bias[] = {
32, 21, 23, 33, };




MagnetometetNetwork::MagnetometetNetwork()
	: ModelInterface()
{
	init_buffer(2048);
	total_macs = 615616;
	input_channels = 4;
	input_height = 1;
	input_width = 512;
	output_channels = 1;
	output_height = 1;
	output_width = 4;
}

void MagnetometetNetwork::forward()
{
	Conv1d<512, 4, 8, 3, 2, int8_t, int8_t, int32_t>(
		output_buffer(), input_buffer(), 
		MagnetometetNetwork_layer_0_weights, MagnetometetNetwork_layer_0_bias, 65);
	swap_buffer();

	ReLU(	output_buffer(), input_buffer(), 2048);
	swap_buffer();

	Conv1d<256, 8, 16, 3, 2, int8_t, int8_t, int32_t>(
		output_buffer(), input_buffer(), 
		MagnetometetNetwork_layer_3_weights, MagnetometetNetwork_layer_3_bias, 58);
	swap_buffer();

	ReLU(	output_buffer(), input_buffer(), 2048);
	swap_buffer();

	Conv1d<128, 16, 32, 3, 2, int8_t, int8_t, int32_t>(
		output_buffer(), input_buffer(), 
		MagnetometetNetwork_layer_6_weights, MagnetometetNetwork_layer_6_bias, 56);
	swap_buffer();

	ReLU(	output_buffer(), input_buffer(), 2048);
	swap_buffer();

	Conv1d<64, 32, 64, 3, 2, int8_t, int8_t, int32_t>(
		output_buffer(), input_buffer(), 
		MagnetometetNetwork_layer_9_weights, MagnetometetNetwork_layer_9_bias, 42);
	swap_buffer();

	ReLU(	output_buffer(), input_buffer(), 2048);
	swap_buffer();

	Conv1d<32, 64, 64, 3, 2, int8_t, int8_t, int32_t>(
		output_buffer(), input_buffer(), 
		MagnetometetNetwork_layer_12_weights, MagnetometetNetwork_layer_12_bias, 43);
	swap_buffer();

	ReLU(	output_buffer(), input_buffer(), 1024);
	swap_buffer();

	Conv1d<16, 64, 4, 1, 1, int8_t, int8_t, int32_t>(
		output_buffer(), input_buffer(), 
		MagnetometetNetwork_layer_15_weights, MagnetometetNetwork_layer_15_bias, 97);
	swap_buffer();

	GlobalAveragePooling<1, 16, 4, int8_t, int32_t>(
		output_buffer(), input_buffer());
	swap_buffer();

	swap_buffer();
}
