#include <MagnetometetNetworkInt8.h>


const int8_t MagnetometetNetworkInt8_layer_0_weights[] = {
71, -70, 88, -12, 
49, 68, 27, -13, 
28, 69, -18, 91, 
75, -58, 67, -23, 
-24, 36, 60, 41, 
30, 102, 22, -14, 
127, 76, 41, -63, 
67, 15, -47, 37, 
-127, -13, 8, 38, 
-70, 3, -4, -32, 
122, 22, -31, 88, 
86, 29, -86, 7, 
66, -107, -96, 27, 
49, -38, 83, 7, 
34, -31, 23, -27, 
30, 76, 32, 93, 
76, -65, 65, -56, 
-6, 89, -66, 90, 
-66, 25, 17, -126, 
-1, -127, -124, -11, 
-85, -24, -72, 34, 
6, 65, 78, 107, 
33, 37, -47, 105, 
-59, -25, 62, -29, 
};

const int8_t MagnetometetNetworkInt8_layer_0_bias[] = {
-100, -4, 60, -93, -70, 6, 4, 39, };


const int8_t MagnetometetNetworkInt8_layer_3_weights[] = {
53, 33, -127, 38, 12, 91, -73, -6, 
9, -79, -127, 18, 64, 42, -72, 85, 
15, 41, -97, 94, 0, 29, -70, 22, 
20, -76, -44, 121, -59, -87, -24, 41, 
84, 68, 127, -32, -127, -118, 68, 10, 
9, 71, -82, 50, -127, -127, 15, -32, 
-45, -90, 85, 40, -25, 18, 82, 37, 
47, -91, -101, 94, 11, 10, 89, 59, 
56, -29, 58, 11, 62, 46, 35, 43, 
-55, -27, -127, 78, -10, -52, 40, 21, 
-103, -10, 87, -67, 0, 27, 39, 61, 
-15, -28, -62, -10, -9, -29, -24, -8, 
99, 69, 127, -53, 4, 10, 73, 80, 
93, -47, -24, -38, -7, 59, -42, 87, 
61, 35, 12, -22, -3, 32, 26, 34, 
-18, -13, -26, -16, 127, -16, 115, -57, 
-33, 118, -24, 22, -47, 13, -3, -1, 
-28, 15, -9, 10, -60, 64, -27, 16, 
-75, 44, 93, 64, 53, -67, -45, -41, 
96, -32, 41, 65, 46, 47, 12, -57, 
127, -13, -16, 33, -18, 11, -22, -25, 
65, -10, 8, -24, -29, 36, -109, 2, 
74, -1, 106, -35, 6, 45, -127, -25, 
27, -66, 22, -7, 50, 127, -76, 44, 
41, 6, 20, -16, -14, -60, 75, -43, 
28, -13, -110, -10, -8, -88, 127, -46, 
22, 21, -81, -61, 53, -57, 127, -12, 
124, -12, -45, 52, -120, 62, 35, -71, 
127, 25, 37, 5, -127, 73, -5, 6, 
102, 15, 56, 50, -90, 51, 54, -30, 
18, -116, 14, -11, 31, 38, -5, 1, 
-31, -124, -67, 26, 85, 18, 18, 45, 
56, -59, -81, -21, 99, 8, 19, 31, 
124, -10, -62, 63, -9, 7, -3, 4, 
75, -127, 11, 52, 0, -2, -19, -19, 
-57, -127, -22, 32, -22, -42, -5, -24, 
116, 0, 20, 17, 3, -17, 44, -32, 
106, 19, 62, 48, 75, -120, 43, -79, 
76, 111, 61, -4, 28, -127, 57, -63, 
-59, 0, 82, -20, 46, -101, -37, -54, 
-92, 1, -6, 24, -17, -3, -25, 84, 
-81, 70, -23, 106, -28, 86, -53, 79, 
-78, -33, -67, -48, 33, 8, -54, 78, 
-105, 86, 0, 35, -9, 127, -65, -25, 
-70, 65, 29, 39, 13, 71, 10, 1, 
-1, -18, 127, -32, -2, 71, -41, -35, 
-84, -49, 127, 48, -32, 2, 52, 8, 
-96, -20, 108, 5, 3, -46, -29, -16, 
};

const int8_t MagnetometetNetworkInt8_layer_3_bias[] = {
-22, -13, -108, 68, -54, -74, -127, 32, 32, 38, -52, 118, -88, -68, -74, 60, };


const int8_t MagnetometetNetworkInt8_layer_6_weights[] = {
-18, 24, -37, -31, -53, -127, 38, 43, 0, -28, 16, 45, 11, -46, -47, 19, 
-64, -57, 1, 36, -110, -127, 41, -20, 15, -27, 14, 41, 7, -98, -40, 42, 
-12, -56, 16, 16, -89, -127, 24, -67, 0, 3, -1, 89, -43, -83, -27, 23, 
-34, -87, 32, -57, 18, 35, 88, 35, -24, 39, -115, 71, 69, -101, -24, -12, 
-65, -29, -10, 4, 0, 98, 104, 34, -8, 59, -94, 41, 63, -127, -40, -30, 
0, -44, 17, 1, -2, 55, 69, -39, -3, 0, -66, 20, 55, -115, -32, -40, 
21, 0, 38, 47, -90, 78, 16, -40, 16, -62, 24, 58, 67, -25, -41, -49, 
27, 38, 21, 31, -27, 127, 44, 16, -30, 27, 16, 15, 14, 67, 76, -33, 
-8, 56, -33, 1, 27, 21, 53, 57, -39, 61, -57, 10, -56, 79, 123, 44, 
30, 55, 16, -69, 69, 78, -122, -16, -48, 76, 26, -41, -7, -3, 127, -71, 
26, 9, -14, 0, 25, 43, -44, -60, -46, 54, 11, -5, 9, -55, 127, -51, 
50, 3, 28, 0, -26, 74, -5, -19, -25, 42, 45, -3, 5, -108, 77, -55, 
31, -75, -36, -34, -127, 37, 67, -29, 11, -16, 10, -22, 15, -22, 99, 41, 
53, -58, 40, -52, -127, 27, 41, -18, 38, 3, 5, 4, 87, -43, 49, 48, 
66, -9, -16, -13, -127, 90, 60, -37, 30, -17, -21, -61, 107, -96, 55, -19, 
-31, 55, 62, 66, 47, -107, 8, 53, -34, 11, -56, 12, -58, 80, 48, 62, 
-56, 51, -17, 61, 11, -127, -36, 16, -64, -10, -12, -20, -85, 19, -37, 29, 
-33, 42, -46, 73, -8, -94, -91, -20, -53, -14, -3, -20, -81, -51, -62, -57, 
47, 30, 22, -6, 0, -55, -21, 54, -87, -62, 10, -71, 14, -14, 41, -12, 
77, -64, -17, -2, -33, -80, 23, 111, -73, -36, 27, -62, 28, -10, 8, -65, 
68, -118, 55, -14, -42, -7, 94, 100, 33, -28, 53, -60, 44, -27, 21, -88, 
5, -1, -27, -6, -29, -43, -98, 13, 4, 5, 53, 52, -52, -17, 16, 38, 
-16, -88, -30, 35, 16, -1, 16, 19, 5, 17, -2, -51, 3, -87, 22, -47, 
8, -75, -4, -41, 71, 59, 30, 109, -36, 48, -72, -79, 55, -71, 28, -32, 
100, 15, -105, 16, 7, 15, -110, 30, -11, -1, 56, -127, -73, 95, 29, -36, 
127, -20, -93, 52, 20, -57, -104, 25, -42, -22, -5, -127, -84, 127, 57, 12, 
95, -18, -41, 22, -10, -79, -76, 4, -52, 0, -42, -127, -67, 127, 31, 25, 
-102, 74, 21, 25, 4, -68, 29, 11, 35, 29, -38, -58, -11, -127, -36, 0, 
-73, 17, 46, 31, -24, 4, 0, 12, 80, -1, -19, -35, 30, -127, -24, -55, 
-1, 19, 64, -21, -8, 108, 86, 30, 55, 14, -1, -93, 66, -127, 25, -85, 
-11, -20, -50, -13, 18, 91, 14, -36, 5, -14, -55, 5, 9, -11, 32, -3, 
98, 1, 34, -127, 71, 127, -18, -18, 52, -45, 44, -94, -9, -60, -46, 26, 
127, 62, -50, -26, 19, 60, 0, -51, 37, -48, 37, -84, -20, -81, -35, 61, 
48, 13, -41, 19, -21, -127, -25, -50, -41, 20, -24, 59, -83, -110, 24, 49, 
-1, 18, 17, 60, 3, -127, -48, -91, -8, 39, 32, 106, -53, -127, -37, 29, 
22, 39, 0, 7, 15, -127, -88, -92, 0, -24, 9, 78, -16, -127, -65, -22, 
-31, -1, 47, -3, -83, 12, 44, -20, 57, 38, -21, -30, 21, 108, 40, 22, 
-27, -6, 86, 22, 1, 71, 84, 28, 8, 16, -28, -87, 63, 127, 95, 39, 
-53, 86, 12, -41, 10, 102, 69, 41, -25, 38, -6, -53, 50, 102, 63, 28, 
61, 8, 6, 6, 0, 109, 33, -34, -19, -26, 60, 12, -28, -22, 2, 25, 
34, 12, 33, -52, 31, 96, 98, 11, -20, 32, 12, 19, 41, -32, 41, 16, 
10, 16, 62, -20, 5, 49, 21, 35, -26, 21, -2, 26, 16, -3, 70, -19, 
67, 7, 14, -84, 42, 127, 40, -6, 34, -34, 43, -54, 85, -87, 1, -40, 
34, 27, -11, -72, 21, 127, 47, 62, 24, -18, 18, -97, 5, -108, 48, -42, 
-30, 10, -21, -86, 30, 125, 4, 39, 64, 19, -2, -116, -12, -11, 30, 20, 
-27, -40, -48, -14, 24, -67, -44, 105, -33, 34, -14, 13, -33, 13, -57, 19, 
0, -34, -45, 45, 11, -46, 21, 91, 10, -34, 9, 40, 8, -14, -127, -13, 
29, -18, -65, 8, -27, 116, 17, 39, 96, -95, 98, 45, 29, -53, -127, -70, 
-36, 34, 24, 2, -14, -62, -127, -127, 34, 33, 38, -12, -57, -122, -2, -108, 
-5, 18, 64, 0, 7, 60, -28, -127, 33, 25, 57, 12, -19, -61, 56, -115, 
57, -28, 20, 4, 10, 65, 73, -22, -19, 28, 39, -23, 60, -49, 90, -59, 
-5, 30, -127, 22, 58, 127, 56, -4, 80, -3, -10, 32, -5, -13, -2, -41, 
-8, 97, -127, -59, 42, 127, 18, 0, 27, -20, 3, -7, 78, -81, -19, -45, 
-49, 57, -127, -37, -34, 35, -2, -27, 14, -4, -18, -37, 34, -113, -34, 4, 
82, -18, -42, -38, 42, 127, 1, 39, 26, -55, -7, 21, 52, 34, 3, -44, 
52, 81, -90, -1, 72, 54, -80, 50, 34, 34, -57, 11, -25, 61, 14, -1, 
13, 23, -40, 10, -24, -51, -66, 50, 3, 75, -86, 33, -66, 79, 46, 37, 
-65, -127, 61, 84, -12, -64, 35, -66, -10, 28, -42, 0, -77, 55, 10, -11, 
21, -127, 43, 66, 50, 68, 81, -48, -22, -1, -3, 16, 0, 20, 53, -31, 
66, -127, -18, 18, 67, 0, 93, 4, -16, 28, 91, 50, 77, 9, 3, -47, 
-69, 11, -127, -121, 5, 18, 62, 53, -24, 89, -36, -53, 72, 4, 74, 48, 
-123, 10, -127, -108, -11, -59, 10, 15, -36, 48, 0, 9, -13, -62, 2, 70, 
-69, 19, -100, -60, -30, -94, 8, -41, 28, -4, 0, 51, -48, -39, -50, 51, 
63, 33, -14, -11, 16, 127, 81, 30, 0, -54, 49, 30, 38, 54, 58, 59, 
0, 18, -118, 51, -41, 127, 127, -91, 53, -42, 34, -53, 15, 74, 127, -28, 
-76, 66, -89, -23, -48, 45, -37, -98, 11, -5, 24, -56, -13, 15, 72, -47, 
45, 42, -20, 31, 22, -1, -77, 62, 4, 19, -21, -42, -68, 14, 97, 2, 
17, -13, -11, -4, 9, 27, -8, 126, 6, 51, -41, 9, -65, 127, 104, 14, 
-1, -43, -8, -14, 32, 57, 49, 50, -19, 1, -22, 45, -23, 127, 75, 22, 
33, -71, -6, 11, -20, 54, -27, -38, 64, 32, 25, 30, 43, -127, -31, -10, 
18, -72, 44, 9, -66, 21, -28, -116, 56, 13, 7, 18, -3, -127, -118, -41, 
13, -24, -38, 61, -43, -16, -87, -70, -10, 12, -32, -8, -32, -127, -34, -13, 
-3, -16, -21, 3, 32, 45, 39, -9, -48, -60, -32, -22, -18, 79, 7, 38, 
-31, 36, 33, 27, 66, -15, -16, -1, -51, -58, -30, -33, -19, 127, -14, 47, 
-43, -24, 35, -24, 32, -22, -29, 2, -15, 28, -34, 59, 4, 127, -5, 65, 
63, 26, -89, -99, 71, 40, 53, 115, -9, 53, -27, 92, 1, 94, 84, 16, 
53, 9, -91, -87, -1, 0, 24, 72, -35, -27, -11, 94, -12, 65, 50, 16, 
27, -28, -77, -40, -57, -24, -20, -37, 2, -77, 12, 82, -34, 38, 18, -5, 
-64, -57, 3, -60, 18, -26, 38, 54, -34, 13, -13, -47, 34, -110, -21, 69, 
-83, -86, -33, -54, -5, -90, 6, -17, 16, 15, -18, 19, 58, -127, -103, 36, 
-39, -43, 21, 1, -33, -2, -28, 19, 3, -32, 13, -12, 36, -124, -41, 55, 
35, -60, 90, -50, -9, -106, -7, 22, -44, 75, -78, -25, -45, 81, 78, 52, 
20, -9, 109, -2, -61, -57, 55, 27, -31, 75, 6, 27, -31, 99, 46, 51, 
30, -84, 106, -34, -72, -31, 59, -32, 4, 32, 26, 57, 21, 35, -10, 22, 
81, -26, 75, -66, 0, 84, 98, 80, -1, 12, 47, 58, 59, -73, -18, 20, 
36, 44, 44, -98, -16, 119, 67, -9, -15, -34, 87, 92, -22, -16, 8, -26, 
-71, 28, 45, -58, 35, -3, 23, -32, -3, 3, 56, 25, -40, 35, 31, 19, 
68, 27, -127, -47, -34, 41, -53, -52, 34, -17, 6, 27, 16, 3, 31, 19, 
68, -14, -127, -76, -55, 20, -94, -48, 73, -23, -28, 4, 57, 45, 125, 0, 
25, -17, -127, -47, -23, -37, -86, -12, -8, 66, -10, -40, 38, 57, 95, 13, 
26, 66, -26, -57, 56, 19, 55, 23, -59, -14, -95, -37, 65, 78, 35, -17, 
-28, 41, -25, -36, -9, -15, 71, -19, -23, 10, -125, 40, 25, 54, 99, 44, 
-41, 61, 20, 24, -13, -65, 49, -58, -10, -20, -64, 0, -16, 13, -4, 28, 
-127, 29, 59, -3, 0, -127, -97, -127, 14, 80, 16, -12, -109, -127, -34, 31, 
-127, 49, 13, 23, -16, -127, -88, -127, 101, 38, -4, 49, -97, -127, -78, -2, 
-123, -9, 53, 0, -16, -117, -69, -126, 104, 2, 24, -7, -80, -127, -21, 27, 
};

const int8_t MagnetometetNetworkInt8_layer_6_bias[] = {
66, 1, 2, 22, 36, 25, 47, 27, -3, 8, 0, 72, -127, -127, -54, 36, 40, 15, -11, -42, 48, -24, -20, 77, 28, 1, 48, 3, -80, 37, 33, -3, };


const int8_t MagnetometetNetworkInt8_layer_9_weights[] = {
-1, 83, 84, 110, -76, 41, 39, 26, -61, -69, -41, -44, 59, -19, 48, 73, 38, 66, 58, 88, 18, -77, 54, 4, 34, 82, 58, 61, 72, -127, 75, -58, 
-48, 6, -26, 33, -83, 21, 90, 5, 20, -127, -76, 9, -8, -121, -41, -42, 9, 3, -11, 48, 36, -79, 1, -68, 31, 0, 21, 4, -36, -98, -27, -23, 
-74, -94, -25, -65, -1, 63, 28, -79, 44, -127, -123, 5, -92, -127, -127, -82, -19, -72, -31, -7, -8, -118, -20, -86, 32, -21, -43, -5, -63, -125, -67, -49, 
-74, -10, 29, -28, 0, -31, 32, -6, 91, 39, 103, -90, -18, -31, 18, -51, 61, 46, 3, -67, -87, 69, -42, 86, -13, -21, -52, -114, -59, 115, -16, -127, 
61, 16, 58, 1, -44, -16, -5, 10, -2, -14, -13, -17, 46, 27, -5, -25, -76, 28, 25, 0, -16, -2, 13, -70, 27, 17, -55, -3, -25, 31, 33, -127, 
127, 21, 27, 21, -29, 1, -53, -44, -105, -34, -82, 49, 21, 29, -12, 12, -61, -66, -14, 21, 52, -51, 31, -80, 45, -8, 78, 127, 0, -60, 34, -4, 
-72, -127, 33, -9, -21, -43, -11, -24, -101, -79, -88, -43, -38, -127, -127, -56, 54, 55, -21, -40, 14, -82, 17, -20, -2, -81, -45, -1, -68, 93, -14, -127, 
8, -127, 59, 22, -14, -99, 60, -54, -100, -76, -47, -93, 30, -70, -127, -8, 64, 21, 12, 24, 15, -5, 56, -24, 0, -20, 9, 73, -1, 120, 53, -127, 
50, -15, 95, 78, 68, -65, 4, -45, -79, -13, -11, -26, 30, 28, -127, 51, -3, 72, -1, -5, -13, -58, 17, 4, 20, 25, 51, 90, 69, 18, 22, -29, 
61, 80, -6, 14, 28, -46, -21, 0, 9, -66, 96, -85, -41, -57, 21, 52, -127, 29, 15, -74, 29, -8, -38, -60, 41, 96, 54, -17, 87, -26, 127, -127, 
53, 40, -34, 64, 66, -27, -10, -2, 57, -74, 63, -59, -34, -127, -13, 44, -127, 56, 6, -46, 5, -1, -58, 19, -25, -21, -9, -55, -16, -6, 36, -126, 
50, 52, -22, 3, 50, 38, -18, 9, 102, -67, -18, -81, -34, -119, -14, 43, -91, 34, -12, -16, 0, 1, -12, 42, -32, -55, 8, -55, -75, -14, 13, -127, 
13, -75, 6, 13, 127, -5, 0, 4, -50, -127, -1, -114, -81, 32, -17, 6, -30, -66, -30, -33, 53, 127, -18, -123, -11, -18, -19, -19, 6, 103, -32, -127, 
-40, 35, -31, 21, 80, -18, 13, 18, -7, -69, -15, -127, -18, 6, 28, 10, -75, 4, -12, 10, 54, 112, 10, -127, 4, 0, 19, 28, 46, 62, 13, -127, 
-28, 56, 5, -60, -20, 16, -46, 58, -11, -35, 2, -97, -43, 19, 9, 40, -110, 70, 13, -23, 25, 32, 26, -127, 31, -30, 23, -11, 5, 40, 70, 127, 
35, -34, 8, -63, 42, -126, 13, -75, -80, 22, 49, -24, -84, -64, 4, 46, 79, -2, -74, 19, -81, -1, -71, 48, -115, -67, -42, -50, 8, 32, -121, 96, 
17, 17, 67, -15, 0, -96, -6, 1, 17, 24, 23, -114, -58, 14, 2, -4, -16, -9, 17, 21, 10, 2, -31, -8, -44, 16, -31, -26, -31, 20, -32, 61, 
-34, 35, 78, 25, -52, -73, -6, 107, 75, -26, -21, -127, 19, -7, 10, -59, 11, -22, 121, 52, 86, -11, 80, -64, 50, 62, 55, 20, -48, -14, 18, 45, 
34, 23, 17, -1, 37, 19, -84, -24, 33, -42, 16, 39, 9, 64, 39, 50, -89, -95, 5, -9, -18, 127, 15, -38, -10, 28, 3, 38, 36, -127, -31, -8, 
30, -9, -4, 2, -120, 49, -77, 40, 7, -39, 13, 53, -2, 43, 50, 8, -109, -127, 15, 8, -3, 73, 52, 0, 22, 11, -1, -7, -38, -122, -35, 38, 
24, -21, -4, -40, -127, 88, -56, 40, 56, -66, -32, 54, 7, -23, 37, -29, -49, -127, 32, 3, -48, 46, 33, 4, 19, 13, -15, -8, -75, -82, 8, 30, 
-47, 39, 76, 19, 0, -75, 26, -21, -4, 5, 26, -12, -20, 24, 43, 34, 19, 74, -42, -30, -19, 51, -108, 54, -71, -7, -29, -32, 127, 12, 3, -2, 
-41, -21, 11, -29, -13, 4, -3, -21, 26, -71, -22, 6, -51, -39, 1, -66, 4, 28, -16, -30, 17, 84, -97, 22, 14, -61, -25, -37, 3, -8, 13, -30, 
-10, 8, 31, -50, -82, 96, -45, 15, 127, -4, -4, -8, 28, 19, -13, -80, -56, 9, 30, -10, 125, -4, 26, -50, 61, -69, -9, -8, -75, 27, 71, -88, 
8, 40, -57, -25, 17, 18, -80, -86, -92, 43, -103, 45, 8, -24, 56, 5, 19, -66, 4, 22, 50, -109, -95, 37, -10, -127, 49, -8, 2, 33, 23, 115, 
78, 47, -85, 3, 63, 7, -73, -49, -127, 41, -56, 65, -7, -2, 17, 8, -12, -27, -57, 18, 21, -77, -105, 47, -12, -127, 10, 1, 28, -38, 6, 127, 
78, 8, -49, 10, -4, -27, -35, -6, -127, 6, -21, 50, 15, -33, 10, 20, 18, -9, -44, -1, 39, -16, -126, 37, -20, -127, -1, -21, 40, 1, -11, 127, 
113, 9, 7, 73, -31, -41, -32, 6, 70, -91, 63, 40, 5, 12, 13, 11, -31, 57, 45, 43, 70, 104, 9, -110, 67, 41, 0, 41, 26, -95, 38, 18, 
12, -24, 25, 19, 11, -101, 10, 3, -59, -51, 67, -120, -25, -30, 32, 17, 7, 66, -64, -37, 40, 127, 3, -68, -25, 32, -60, -5, -13, 1, -46, -127, 
-17, 16, 5, 61, 12, -94, 31, 32, -110, 17, 90, -127, -56, -41, 35, 0, 102, 74, -63, 3, 11, 111, -20, -54, -67, 47, -46, 7, -11, 60, -60, -127, 
-26, -48, 38, 31, 104, -50, -24, -21, -24, -28, -12, -30, 17, -127, -14, -41, 48, -15, 4, -119, -47, 127, -20, 67, 32, -20, -19, -74, 32, 44, -6, -119, 
6, 20, -1, -48, 74, -49, -52, -15, -14, -73, -28, -38, 19, -127, 18, -91, -10, 47, 18, -125, 25, 58, 27, 18, 40, 5, -13, -37, -67, 57, 52, -123, 
-4, 31, -17, -20, 17, -42, -59, 110, 6, -41, -13, -85, 57, -79, -3, -83, -46, 35, 50, -75, 68, 9, 10, 0, 6, -40, 26, -1, -65, 72, 26, -127, 
-25, 41, 21, 56, -35, -68, 64, 90, 34, -20, -4, -11, -43, 76, 87, 48, -63, 36, 97, 25, 127, 50, 28, -52, -18, 90, -29, -74, 21, -30, 38, -67, 
30, -3, -31, -4, -14, -73, -13, -22, 45, -12, 19, -13, -13, 53, 15, 19, 4, 29, 29, -53, 78, 82, -16, -34, -19, -2, 19, -36, 3, -46, 45, 40, 
56, 1, -53, -48, 52, -65, -51, -79, 68, -7, -8, 58, -39, 3, -32, -36, 16, -20, -33, -75, 58, 112, -18, 37, -27, -75, -7, 12, -4, 0, -8, 100, 
-51, 24, 34, 43, 1, -127, -47, -33, -127, 23, 60, -43, 25, -75, 33, -61, 64, 39, 22, -42, 72, 36, -27, 0, -36, -49, -17, 7, 14, 27, 74, -66, 
-59, 0, 14, 41, -89, -109, -41, 8, -127, 27, 28, -3, 4, -88, 20, -63, -2, 19, 24, -13, 75, 8, -10, 10, -2, -26, -59, -15, 20, 67, 31, -54, 
-98, 3, 51, 27, -127, -15, -1, 31, -87, 37, -47, 62, 14, -12, 22, -22, -30, 30, 57, 7, 49, -127, 15, 18, 5, 3, -61, -5, 9, 21, 6, -3, 
56, -56, -114, -96, -53, -35, -36, -66, -127, 9, -6, -42, -91, -121, -29, 0, 17, -25, -127, -13, 15, -1, -127, 0, -119, -40, 66, -77, -81, -40, -64, 89, 
-31, -62, 19, -73, 30, -127, -2, -24, 23, 70, 74, -78, 23, -9, 18, 31, 106, 26, -62, 53, -16, -5, -21, -17, -51, -94, 55, 24, -15, 50, -81, 6, 
-79, 2, 31, -16, 66, 42, 31, 67, 127, 37, 127, -127, 24, 29, 43, -17, 40, 61, 13, 56, 73, 78, 65, -34, 42, 90, 41, 9, 66, 55, 1, -91, 
7, -81, 5, 49, -127, 31, -75, -3, -51, -5, -23, 29, -110, -127, -127, -48, 30, 26, -26, 70, -16, -41, 31, 34, 43, -66, -28, -4, -103, 61, -4, 32, 
-51, -95, 29, 72, -39, -45, -7, 17, -89, -1, 5, 30, -77, -127, -101, 46, 35, 51, -41, 39, 8, -26, 37, -31, 40, -51, -29, 61, -65, 72, -65, -21, 
-39, -15, 59, 67, 13, -34, 66, 39, -127, 46, 55, 57, 18, 94, 9, 57, -36, 83, -56, 32, -58, -24, -75, 41, -79, -9, -75, -16, 62, 51, -15, -42, 
20, 18, -4, 46, -38, 76, 18, 24, 22, -70, -22, 12, 4, -49, -44, -15, -85, 3, 36, -32, -23, 3, 36, -127, 21, 5, 19, -16, -75, -33, -35, -6, 
42, 29, -8, 73, -36, -20, 48, -38, -16, 5, -38, 11, 10, -61, -17, -22, 2, 14, 49, 36, -39, 12, 33, -68, -24, 29, 32, 41, -27, -74, -20, -123, 
27, 31, 31, 41, 59, -18, 82, -40, -59, 59, 54, -9, 41, -5, 21, 97, 56, 34, -26, 38, -79, 58, -54, 53, -44, 17, 18, -29, 61, 23, 6, 94, 
-127, -116, 12, 22, -127, -109, 61, 35, 36, 106, 47, -16, -104, -45, 10, 0, 119, 42, 18, -25, 12, 45, 0, 26, -12, -67, -127, -90, -43, 37, -3, -59, 
-127, -127, 25, 65, -127, -127, 12, -21, 29, -10, 47, -102, -65, -1, 6, -25, 32, 26, 37, -66, 20, 87, 30, -61, 26, -5, -127, -6, 20, 44, 3, -127, 
-127, -127, 74, 41, -127, -105, -41, -67, -14, -108, 69, -122, 6, 56, -29, -85, -19, 1, 40, -104, 30, 14, 20, -127, 46, 34, -42, 127, 63, 18, 38, -127, 
-126, -52, -36, -11, -43, 9, -27, -13, 17, -74, -72, -39, -16, -127, -49, -35, -55, -42, 27, -51, 118, 53, 46, -61, 2, -45, 66, 113, -56, 34, 11, -127, 
-96, -2, -32, 33, -17, -1, -4, 11, 22, 14, 49, -66, -12, -127, -26, 83, 33, 28, -17, -3, 2, -15, -4, -18, 6, -19, -17, -8, -19, 56, 19, -77, 
-127, 28, -25, 57, 54, -13, 108, 50, 31, 87, 47, -60, -18, -13, 47, 117, -38, 61, -18, 36, -45, -23, -22, -33, -37, -14, -48, -89, -9, 52, -42, -85, 
33, -59, 12, -33, -3, -63, 0, -19, -127, 70, 19, -7, -52, -27, -37, 95, 35, 2, -16, -2, -35, -20, -64, 8, -48, -5, -26, -53, 22, 58, -64, -103, 
-72, -9, 63, 6, -28, -20, 30, 22, -127, 47, 98, -1, 43, 102, 59, 33, -39, 41, 13, 2, -21, -28, 1, 52, -36, 20, -51, 16, 52, -34, -17, -127, 
-14, -18, 29, 0, -30, 13, -2, 91, -127, -49, 22, 37, 5, 94, 12, -17, -3, -30, -31, -47, 34, -70, -24, -8, 70, -30, -23, 15, -22, -78, 37, -90, 
-59, 36, 12, -72, 62, -117, 7, 27, -62, 35, 96, -127, 36, 20, 63, -1, 10, 73, 36, -27, 22, 81, -49, 66, -53, -51, 23, -6, 30, 90, 10, -93, 
-24, 21, 21, -33, 43, -73, -15, 11, 37, -42, 18, -127, 25, 12, 32, -4, -20, 3, 25, -16, -1, 9, -21, -3, -21, 19, 39, 9, 2, -17, 76, -127, 
-40, -9, 7, -36, -2, 1, -27, -1, 80, -52, -14, -127, 41, -61, -2, -27, 19, -46, 0, -58, 56, -2, -5, -102, 7, 23, 10, 37, 25, -58, 56, -127, 
-127, -122, -32, 72, -127, -26, -19, -36, -127, -11, -74, 29, -127, -127, -127, -95, 22, -16, -34, -2, 21, -127, -10, -44, 31, -127, -16, 38, -48, 9, 39, -95, 
-127, -100, 38, 97, -62, -20, 63, -1, -127, 12, 45, 4, -61, -127, -127, -32, 6, -1, 37, 54, 42, -69, 9, 15, -8, -127, -59, 16, 20, 15, 42, -102, 
-127, -7, 9, 90, -80, -42, 79, 53, -24, 18, 80, -35, -88, -21, -12, 45, 6, 61, 22, 27, 54, 36, -2, -18, -21, -25, -102, 43, 53, 4, 27, -127, 
39, 5, 45, -8, 108, -84, 94, 56, 90, -8, -127, 19, -79, -118, -20, 31, 25, 37, -42, -21, 0, -1, -58, -3, -71, 39, 15, -66, 59, -34, -34, 27, 
24, -32, 23, 13, 107, -36, 18, 69, 125, 14, -127, -5, -67, -127, -14, -61, 0, 19, -4, -66, 52, -49, -22, -3, -37, -7, 34, -34, 12, 36, -22, -8, 
-24, -19, 33, 11, 37, 75, -11, 53, 62, -9, -127, -39, 64, -101, -11, -90, -63, -1, 0, -77, 101, -127, 55, -82, 56, 34, 22, -4, -67, -5, 42, -60, 
37, 67, -79, 51, 2, 83, -42, 22, 127, 8, -33, 5, -46, -85, 15, 2, 0, 17, 26, -1, 43, -39, 46, 14, 17, 109, 61, 47, 10, -17, 55, -8, 
63, -10, -67, -8, 25, 7, -19, -41, 83, 12, 9, -16, -97, -127, -25, 11, 1, 25, -24, -7, 64, -16, -48, -3, -36, 26, 57, -26, 10, -69, 9, 39, 
-23, 3, -33, -73, 82, -8, 13, -16, 32, 6, 69, -78, -86, -64, 7, 58, -28, 43, -59, -7, -25, 79, -127, -11, -94, -7, 58, -72, 60, 9, -47, -38, 
-10, -33, 6, 29, -36, 8, 35, -18, -127, -55, -36, 15, -127, 3, -74, -9, -20, 35, -51, -20, -6, -127, -30, -41, -37, 63, 1, -9, 62, -56, -41, -85, 
25, 18, 88, 54, -10, -13, 2, -11, -127, -47, -4, 63, -65, -18, -127, 18, 34, 33, -70, -28, 14, -127, -35, 16, -1, 26, 25, 4, 18, 43, -18, -33, 
33, 124, 44, 29, -23, -22, -55, 0, 70, -30, -25, -40, -43, -27, -119, -12, -25, 0, -40, -23, -23, -111, -26, 32, 9, 69, 75, 30, 13, 50, 55, -33, 
59, 45, 29, 7, -106, 62, -109, -29, -43, 37, 48, -13, -15, -19, -33, -53, -127, 73, 20, -24, 11, -127, 13, 1, 53, -20, -22, 26, -42, -7, 49, 62, 
-6, 8, 57, 44, -127, 53, -38, -21, 41, 53, 16, 23, -9, -65, -36, -17, -114, 36, 69, -30, -3, -127, 11, 34, 0, -44, -42, 12, -40, -6, 25, -32, 
-75, -9, 32, 60, -127, 23, -26, 43, 63, -41, 91, -24, -63, -78, 25, -85, -84, 2, 69, -40, 21, -127, 26, 27, 42, -12, 21, -63, -127, 70, 34, -6, 
-127, 75, 67, -30, -37, -68, -6, -12, -53, 40, 35, -127, 47, 120, -18, -15, -72, 45, 41, 48, 17, -26, 5, -11, -28, 32, 78, 46, 26, 17, 13, -117, 
-127, 41, 29, 3, -15, 47, -1, 22, 49, 33, 3, -127, -11, 127, 6, -1, -37, 33, 36, 64, -4, 27, 14, -24, -31, 26, -10, -7, 33, 40, 19, -127, 
-127, -73, -33, 0, 67, 61, -21, -47, 101, -68, 6, -127, -70, -30, -45, -22, 58, -28, -26, -35, -15, 100, 30, -28, 23, -20, 13, -11, -4, 40, -26, -127, 
21, 41, 41, -9, 59, -127, 31, -34, -51, -25, -11, -57, -34, 14, 45, -35, -8, 38, -19, -31, -44, 54, -79, -3, -100, -60, -25, -88, 42, 22, -82, -4, 
88, -10, 38, 0, 55, -127, 7, -13, 70, -6, -67, -41, -33, -75, -5, -17, -62, 23, 7, -10, 9, 52, -16, 1, -1, -50, 20, -32, 42, 30, -24, 8, 
70, 19, 66, 84, 70, -99, -15, -16, 118, 5, -40, -43, 10, -26, 3, -61, -26, 46, 62, 28, -17, 22, 118, -17, 69, -31, 34, 56, 34, -14, 11, 32, 
43, -121, -31, -127, 80, -59, -35, 15, -127, -69, 37, -17, -127, -47, -127, 4, -49, -20, -127, -120, -116, 21, -127, 21, -51, -67, 44, -69, -47, 12, -15, -57, 
67, 6, 13, -68, 86, -127, 2, -39, 6, -36, 63, 47, 46, -22, -61, 14, -18, -94, -127, 7, -89, 4, 38, -25, 13, -44, 29, -18, 35, -14, 80, -74, 
89, -23, 62, 23, 15, -114, 51, -34, 21, -54, 109, -28, 5, 25, -36, 86, 17, -53, -95, 4, -26, 65, 45, -21, 72, 70, 73, 13, 25, 2, 119, -53, 
-54, 66, 33, 15, -56, 48, 80, 14, 80, 5, 62, 26, 19, -6, 24, -2, -5, 64, 58, 29, -36, 0, -69, 14, 39, 68, 16, -127, 46, 35, 54, -74, 
-49, 18, -31, 50, -27, -16, 50, -25, 7, 18, 14, 62, -61, -63, -36, -11, -6, 54, 7, 4, -67, 10, -127, 83, 13, -77, -23, -127, -15, 18, -4, -49, 
-20, -11, -80, -6, 42, 59, 15, -53, -90, 7, -26, 16, -101, -44, -49, -14, 60, 15, -53, -25, -76, 37, -127, 48, 0, -127, -41, -127, -17, 100, -14, -71, 
-127, -98, -22, -76, 53, -59, -37, -92, -52, -62, -43, 7, -19, -47, -37, -61, 69, -100, -127, -1, -104, 16, -111, 15, -50, -127, -103, 35, -46, 33, -127, 31, 
-50, -25, 57, -3, -16, -67, 34, 61, -69, -45, 50, 49, 48, 90, 4, -25, 66, -25, -23, 33, -88, 28, -14, -23, 1, -55, -31, 13, 12, -13, -33, -70, 
-127, 80, 59, 8, -45, -37, 90, 96, -28, 35, 16, 21, 119, 92, 37, -10, 29, 32, 56, 31, 34, -53, 73, -68, 53, 8, -35, 25, 25, -76, 97, -51, 
-14, 32, 59, 57, 66, 46, 76, 76, -110, -16, 43, 9, -20, 16, -50, 13, 55, -38, -69, -13, -127, 105, -1, 99, -15, 23, -50, 96, 43, -76, -60, -62, 
-23, -14, 25, 65, 38, 54, 29, 60, -64, -11, 51, 4, -122, -54, -56, -10, 87, -50, -104, -13, -127, 96, -103, 99, -11, -29, -89, 42, 46, 36, 1, -44, 
-3, -104, -20, 39, 29, 81, -38, -49, 19, -59, -78, 53, -102, -120, -102, 32, 40, -94, -127, -64, -78, 8, -58, 61, 4, -103, -73, -4, -33, -32, 19, 5, 
-42, -45, 24, -40, -74, 33, 28, 7, 1, -52, 78, -20, -4, 103, 16, -37, 11, 38, -44, -23, 27, 127, -72, -55, 31, -21, -34, 2, 69, -31, 36, 35, 
28, 29, 3, 9, -103, 111, 6, -5, 22, 20, 13, 8, -16, 98, 29, 9, -29, 60, 49, -52, 41, 54, -25, -23, 67, -15, 13, -37, 51, -22, 59, 66, 
5, 9, -86, -46, -97, 17, -48, -61, -10, -4, -4, 31, -33, -29, -42, -40, -66, 5, 11, -127, 0, -17, -89, 38, 27, -74, 4, -40, -40, -48, 16, 61, 
61, 15, -51, 29, 31, 121, -51, 44, 88, 25, -53, 49, -107, -127, -127, -43, 15, 27, -19, 58, 24, 1, 71, -56, 7, 6, -25, 14, 29, -33, -18, 82, 
59, -68, -87, -8, 36, 49, -36, 8, -31, -5, -28, 24, -127, -127, -127, -19, 21, 1, -78, 42, 11, -36, -33, 38, 41, -51, 20, 34, -26, 7, -31, 35, 
-10, -56, -66, 25, 42, 35, 17, 26, -127, -39, -3, 8, -119, -127, -127, -29, -28, 79, -70, 26, 39, -54, -95, 51, -21, -59, 2, -13, 1, 7, -4, 21, 
-25, -45, -97, 1, 35, -18, -42, 35, 121, 0, -116, -120, -43, -127, -79, -35, -29, -50, -11, -102, 34, -113, 78, -38, 57, -27, -36, -17, -127, -48, -5, -63, 
-4, 30, -57, -38, 79, -82, 44, 0, -127, -21, -114, 20, 44, -78, -11, 68, 22, 0, -23, 22, 5, -22, 36, -13, -4, -9, 30, 44, -48, -18, 36, -55, 
39, 105, 11, -73, 71, -127, 51, -7, -127, 38, -21, 12, 81, -102, 46, 113, 57, 82, -27, 62, -44, 53, -24, 56, -90, 14, 13, 42, 34, 57, -7, 104, 
115, -29, -3, -26, -8, -20, -25, -24, -50, -24, 49, 71, -72, 4, -28, 0, 56, -34, -10, -4, -19, -55, -38, 72, 4, -16, -38, -40, -39, 43, -27, 51, 
14, -53, 59, 7, -44, -32, 0, -3, -96, 18, 71, -32, -21, 41, 12, 14, 25, 13, 14, 33, -1, -65, 12, -37, -8, -25, 20, -33, 22, 6, -51, -17, 
-56, 15, 76, 58, -22, -57, 54, 74, -93, -4, 76, -87, 16, 124, 32, 39, 17, 27, 70, 36, 51, -21, 70, -59, 38, 25, 12, 21, 38, -6, 9, -95, 
46, -11, 63, -45, 102, -96, 45, -54, -127, -127, -9, -35, -46, 69, -12, -15, -50, 10, -77, 27, -112, 43, -109, -74, -85, 27, -55, -14, 64, 81, -74, -127, 
78, -16, 77, -1, 50, -9, 13, -32, -97, -73, -45, -46, 15, 85, -10, -56, -33, 15, 19, 48, -32, 29, -38, -127, 38, 30, -14, 62, 51, 51, -3, -4, 
37, -39, 52, 74, 25, 19, -31, -35, -29, -43, -37, 0, 16, 51, -19, -68, -15, -47, 58, 40, 64, -12, 43, -127, 32, 30, -10, 40, 29, 45, 29, 19, 
42, -24, 77, 44, 76, -127, -1, -4, -84, 13, 44, -25, 16, 101, 58, 20, 0, 61, 15, 54, -73, 107, -6, 86, -55, 6, -120, 4, 84, 50, -33, 100, 
42, 18, 50, -8, 9, -96, -5, 14, -61, -83, -37, 32, 37, 81, 33, -27, -51, 7, 33, 44, -6, 49, 16, -16, -33, 1, -94, 10, 42, -40, -1, 9, 
28, 21, 5, -55, -115, -13, -84, -34, -70, -84, -87, -70, 1, 56, -69, -78, -116, 0, -6, -51, 27, -103, -14, -85, 13, 4, -73, 17, 12, -65, 19, -43, 
47, 26, -51, -20, 12, 33, -32, -9, -127, -53, -36, 121, -11, 9, -19, 31, -29, -48, 29, -13, 42, -50, 1, -18, 40, 77, 42, 48, 0, -91, 47, 13, 
-43, -31, -43, -8, 64, -46, -16, 67, -127, -53, 73, 48, -17, -12, -44, 56, 41, -20, 8, 4, 32, 20, -42, 18, -44, 6, 27, -51, 2, -29, -17, 25, 
-96, 8, -10, 41, 73, -72, 20, 109, -127, -14, 101, -22, 78, 81, 56, 65, -8, 13, 8, 55, -48, 89, 7, -26, -63, 20, -17, -61, 12, 5, 2, -56, 
17, 15, -1, 19, 6, -107, 46, 0, -56, -13, -117, 47, 26, 4, -36, -17, 62, 0, -4, 67, -1, -127, -29, -32, -2, 32, 63, -14, 12, 30, -39, -40, 
28, 36, -47, -33, 27, -127, 85, 3, 39, 44, -44, -20, -18, 21, 39, 18, 16, 14, -13, 69, -10, -34, -43, 5, 0, 46, 41, -48, 8, 26, -70, 35, 
-11, -31, -18, -20, -51, -97, 66, 23, 64, 49, -33, -46, -21, -35, -9, -15, -65, 41, 27, 18, 40, -24, 5, -70, 7, 17, 9, -70, -18, 54, -70, 2, 
-52, -13, 26, -63, 23, -29, 64, -6, 42, -53, 127, 19, 19, -16, 27, 77, -21, 57, 30, -62, 34, 127, 23, 77, 1, -8, 1, 12, 125, 18, 15, 1, 
-61, -51, 1, -66, -51, -51, 36, -19, 108, -26, 95, -33, -3, -25, -31, -5, -105, 37, 7, -127, 50, 101, 2, -7, 7, -12, 25, -25, 52, 38, 16, -2, 
-8, -24, -60, -84, -88, -2, -67, -66, 83, -45, 6, -6, -66, -127, -87, -47, -93, -25, 11, -127, 45, -27, -22, 31, -6, 13, 2, -34, -97, -27, 28, 12, 
36, -3, 3, -127, 67, 50, 32, -2, -127, 47, 4, -4, 31, -40, 33, 81, 25, -45, -113, 4, -125, 2, -127, 55, -93, 76, -20, 15, 18, -2, -36, 1, 
-9, 22, 8, -118, 35, 64, -4, 42, -102, 45, -45, 35, 89, -127, 55, 45, 39, 44, -58, -54, -44, 11, -127, 27, -27, -28, 45, -36, -55, 51, -40, 97, 
33, 4, -20, -116, -21, 36, -23, 33, -16, -11, -67, -3, 35, -127, -34, -14, -70, 19, 9, -90, 29, 4, -98, 37, -37, -66, 34, 8, -124, 8, 1, 16, 
28, 39, -37, 65, 3, 13, -39, -20, 73, -16, -5, 1, -52, -127, 25, -6, 25, 88, 31, -13, -33, 127, -75, 40, -52, 41, -14, -44, -112, 31, -20, 2, 
0, 45, -127, 31, -24, 88, -84, -25, -24, 31, -95, 65, -39, -127, 38, -24, -34, 31, 37, -9, 60, -59, -67, -36, 0, 44, 58, -16, -127, 4, -8, -29, 
81, 48, -127, -13, -60, 95, -15, 16, -9, 38, -100, 16, -32, -127, 42, 6, 5, -13, -2, 2, 80, -122, -65, -9, 22, 37, 91, -56, -127, 58, 5, -33, 
80, -32, 101, -2, -45, -53, -24, -106, 49, 82, -18, -12, -127, -127, -127, 69, 127, -44, -64, 50, -37, 32, -59, 84, -26, -58, -11, -16, 18, 13, -51, 127, 
-10, -48, 71, -11, -29, -58, 3, -18, 59, -27, 106, -127, -72, -127, -61, -18, 44, 47, 40, 44, -95, 23, 23, -21, -15, 8, -127, -46, -7, 18, 14, 19, 
-108, -53, 91, -4, -8, -66, 0, 7, 95, -71, 43, -127, 1, -127, -14, -62, -20, 69, 22, -10, -41, 18, 30, -127, 10, 58, -30, -5, -52, 59, 29, -127, 
-3, 32, -83, 42, -127, 74, 20, 46, 56, -15, 20, -12, 23, -117, -28, 50, -93, 59, 46, -15, 77, -127, 11, -117, 62, 67, -2, 19, -55, -74, 95, 11, 
69, -2, -115, 24, -55, -36, 20, 2, 34, -43, -41, 37, -43, -127, -25, 62, -48, -12, -19, -25, 10, -127, -21, -28, -13, 31, -9, 3, -63, -82, 3, -39, 
127, 38, -38, 24, -49, -93, 28, 31, 18, -10, -79, 121, -59, -127, 6, 88, -6, 43, -32, -46, 14, -127, -113, -17, -80, -53, 8, -64, -69, -89, -33, 52, 
-22, 49, 61, -14, -26, -45, 54, 65, -75, 0, 69, -114, 66, 56, 27, 60, -92, 30, 27, 66, 51, -5, 37, -127, 21, 127, 79, 37, 95, -50, 100, -32, 
30, -12, 6, 24, -33, -29, 20, -63, 1, -23, 62, -24, -7, -2, 6, 13, -24, -6, -60, -65, -19, -11, -49, -24, 37, 37, 39, -29, 1, 8, 78, 62, 
43, -56, -41, 37, 6, -11, -4, -97, 56, -96, 9, 88, -41, -61, -23, -39, -16, -11, -77, -88, -50, 59, -81, 19, 4, -11, -9, -70, -69, 59, -33, 54, 
22, -11, 24, -64, -80, 102, 26, 22, 122, 38, 20, 6, -43, -125, 34, 10, -37, -62, 5, -127, -43, -108, 35, -22, -48, 40, -64, -57, 26, -93, 27, -5, 
5, 29, 32, -127, -53, 102, -6, 93, 51, 34, 14, 59, -107, -127, -58, 20, -68, -28, -32, -127, -1, -93, -24, 10, -51, -2, -20, -81, -127, -71, 50, 25, 
29, 8, 37, -127, 33, 39, -4, 127, 4, 43, 5, 21, 90, -101, -20, 71, -10, -56, -101, -127, -49, -94, 0, 10, -5, -11, -15, 8, -78, -38, -51, -3, 
-43, 19, -37, 57, 8, 38, -37, 18, 127, -16, -127, 17, 56, 0, 0, -25, -11, -14, 68, 20, -19, -36, 101, 21, 36, 96, -19, 26, -49, 25, 45, -55, 
16, -15, -56, 8, 19, -24, -27, -71, -79, 15, -127, 57, 64, 31, -127, -17, 50, -111, -34, 29, 7, -79, 14, 80, -24, 70, -1, 32, 35, 16, -14, 45, 
64, -93, -29, -52, 7, -13, -39, -127, -127, -25, -127, 70, -33, -39, -127, 16, 26, -91, -88, -22, 44, -48, -95, 68, -13, -24, -54, 47, 11, 41, -34, 48, 
-4, 39, 3, 69, 17, -16, 114, 48, -49, 6, 62, -60, 10, 42, 96, 53, -94, 103, 48, -24, 51, 2, -10, -38, -7, 126, 21, 24, 79, 42, 80, -5, 
-26, -12, -32, 51, 0, 24, 8, -2, -55, -52, -77, -53, -20, 12, -38, 39, -59, 3, -14, -62, 30, -47, 16, 11, 15, 54, -40, -8, 40, -29, 33, 38, 
52, -60, -68, 24, -18, 39, -53, -59, -34, -106, -108, 59, -60, -104, -56, 25, -28, -33, -8, -60, -25, -105, -5, 38, 23, -45, -13, -7, -28, -41, 15, 62, 
11, 26, 23, -42, -91, -40, 63, 20, -45, -23, -10, -127, -71, -113, -34, -1, -25, 24, 11, -45, 36, -46, 23, 43, -33, 52, -37, -12, -16, -51, 3, -52, 
0, 23, 46, -9, -48, -42, 40, 30, -70, -32, 44, -119, -67, -108, -22, 14, -24, -8, 32, -56, -31, -12, 3, 70, -14, 3, -41, 7, -36, 12, 29, -27, 
17, 58, 26, 29, -52, -67, 49, 10, -15, 21, -16, -49, -21, -42, -35, -34, 6, 2, 48, -59, -69, -44, 43, 0, 51, 6, -36, 71, -16, 48, 44, -46, 
83, -46, -28, -43, 11, 39, -58, -30, 42, -50, -69, 9, -46, -55, -45, -38, 40, -33, -53, -55, 4, -75, -8, -87, 32, -28, -11, 25, 3, -113, -45, 5, 
-29, 43, 1, -33, 1, -89, 9, 74, 80, 68, 27, -51, -9, -27, -33, 27, 16, 25, 3, 32, 5, 36, -4, -35, 4, 22, -1, -14, 21, -64, -10, 104, 
-81, 51, 50, -31, 45, -89, 83, 108, 44, 127, 119, -127, 2, 20, 34, 65, 28, 74, 24, 72, 30, 77, 23, -41, -32, 22, 5, 22, 26, -14, 36, 17, 
42, 77, -27, -48, -67, 37, -22, 44, -69, 13, -70, 56, 86, 64, -2, -2, -65, 39, -39, 1, 83, -127, 24, -5, 0, 87, 16, 35, -7, -10, 51, 50, 
25, 10, -32, -11, 8, 13, 14, 18, -65, 17, -7, 50, 21, 12, -6, -18, -2, -10, -59, 17, 2, -41, -86, 90, -73, 67, 0, 0, 34, 63, -9, 90, 
30, -20, -23, -8, 56, 21, 14, -52, 1, -8, 28, -10, -39, -1, -11, 7, -13, 49, -101, 11, -71, 0, -127, 57, -87, -12, -52, -43, 7, 34, -34, 69, 
61, 12, -70, -87, -36, 16, -40, -1, -127, -34, -32, 74, 4, -56, 25, 63, -92, 23, -2, -56, -53, -99, -44, -13, 27, -15, 92, -45, -47, -44, 20, 23, 
0, 60, -18, -33, 95, 32, -36, 27, -127, 20, 49, -11, 23, -4, 31, 63, -15, 15, 11, -2, -59, 24, 14, 73, 63, -48, 33, -34, -74, -52, 25, 38, 
-80, 62, 34, -20, 50, 80, -54, 40, 4, 24, -34, -60, 40, -20, -8, -24, 17, 3, 67, 17, -60, -13, 73, 11, 104, -30, 36, -36, -62, -57, 33, -40, 
10, -30, 49, -23, 14, -30, 3, -32, 15, 99, -41, -85, -15, -95, -32, 1, 56, 51, -41, 24, -37, 42, -10, 60, -1, -21, -25, -40, -15, -19, -25, 35, 
-66, 15, 4, 48, 15, -14, 75, 47, 8, 3, -52, -91, 85, -11, -10, -13, 27, 72, 11, 77, 18, 79, 27, 22, 63, 0, 16, -20, 36, 7, 21, -36, 
-42, -46, -16, -39, -49, -18, -30, -19, 29, -60, -66, -59, -41, -38, -25, -55, -71, 46, -1, -2, 44, -10, -11, 0, 10, 24, 34, 18, -21, 25, 31, 29, 
4, -19, -25, 77, 92, -43, 24, 19, 127, -102, -66, 10, -103, 8, -15, -11, -121, -5, 54, -78, 33, 66, 67, -47, -34, 82, 27, 46, 35, 61, 2, -22, 
67, -43, -20, 21, 106, -104, 22, -17, 41, -71, -105, -35, -127, -35, -1, 18, -49, 8, 29, -50, 42, 92, 20, 31, -30, 27, -19, 41, 11, 104, -65, -30, 
-9, -109, 0, -29, 90, -81, 8, -26, -96, 32, -117, -35, -127, -21, -77, 0, -58, 38, -15, -22, -32, 31, -27, 68, -61, -6, 2, 62, -11, 127, -70, 2, 
-43, 0, -33, -6, -54, 84, -30, 2, -66, -45, -4, 29, 35, 38, 0, -22, 19, 15, -8, 86, 15, 71, 52, -77, 11, -28, -16, 65, 27, -113, 24, 70, 
-19, 14, 37, 15, -1, -5, -6, -12, -127, 2, -3, 1, 41, 82, 38, -25, -5, 60, -46, 106, -2, 50, 4, -83, -4, -47, -44, 37, 2, -64, 23, 40, 
-28, 30, -20, 67, 49, -55, -28, -34, -127, 42, 14, -4, 20, 34, 30, 2, 14, -14, -36, 115, -38, 10, -38, -46, -46, -67, -38, 3, -3, -73, 4, 15, 
21, -13, 15, 27, -11, -9, 93, -42, 11, -21, -1, -111, -32, 21, 0, 47, -54, -84, -5, -64, -76, -17, 42, -76, 13, 38, 64, 56, 100, -127, -47, -127, 
22, 32, -13, -1, -21, -74, 53, 8, 43, 26, 20, -119, -39, -69, 0, 49, -30, -71, -4, -42, -92, 55, 37, 2, -45, 27, 31, 49, 77, -68, -104, -69, 
-18, -17, -36, 64, 41, -120, -13, 29, 15, 114, 28, -127, -31, -59, 8, 26, 23, -127, 2, 34, -73, 76, 4, 89, -50, -54, 56, -5, 27, -73, -95, 87, 
9, 26, 6, -83, 17, -7, 63, -23, -58, -3, -10, -9, 15, 39, 0, 26, -39, -39, -29, -13, 11, 14, -3, -33, 40, 5, 15, -13, 10, -14, -28, 0, 
-6, 19, -1, -109, 2, 28, 38, -5, -75, -39, -36, 31, 41, 36, -31, 44, -45, -41, 5, -15, 67, -48, 9, -34, 16, -12, 26, 37, 3, -106, 31, 27, 
8, -3, -9, -59, -8, 13, 16, -20, -46, -63, 13, 60, 76, -33, -26, 52, 19, -17, 5, 6, 55, -23, 9, -6, 59, 20, 97, 62, -42, -123, 5, 20, 
-127, -91, -37, 127, 4, -58, -17, 17, 127, -63, 110, -127, 8, 10, 47, -53, 10, 82, 42, -38, -21, 54, 95, -104, 59, -23, -46, -48, -61, -16, 64, -127, 
-113, 25, 18, 62, 16, -106, 8, 20, 27, -5, 49, -98, -3, 14, 5, -12, 56, 35, 30, 14, 25, 44, 33, -70, 0, -9, -17, 15, -12, 3, 42, -127, 
21, 11, -40, -5, 44, -123, 3, -68, -49, 82, 3, 35, 39, 44, 0, 1, 37, -41, -26, 36, -55, 15, -29, -49, -81, -20, 36, 21, -23, 24, 46, 118, 
-62, -44, 25, -13, 23, 89, 28, -26, -127, 44, -51, -21, -47, -127, -77, 2, 104, -43, -68, 66, -42, 37, -32, 51, 24, -115, -43, 29, -28, -4, -86, 50, 
-53, 47, 24, -42, 30, 91, 11, 12, -127, 6, -17, 46, -19, -127, -54, -27, 42, 17, -42, 21, -70, 26, -9, 52, 88, -70, -33, 39, -12, 18, 52, 28, 
7, 82, 19, -48, -8, 64, -5, 47, -127, -7, -75, 55, 19, -101, 4, 6, -30, 55, -21, 6, -44, 20, 18, -38, 113, -91, -39, 29, -58, 8, 37, 38, 
-24, 56, 71, 35, 13, 3, 73, 23, -122, -24, -10, -6, 65, 119, -4, 59, -127, 44, 31, 12, -55, 7, 7, -58, 18, 3, 17, 66, 127, -12, 4, -27, 
-55, 32, 62, 16, -62, -61, -22, -13, -68, -45, -4, 13, -37, -50, -16, 37, -127, -13, 49, -44, 39, -17, -11, -34, 18, 59, -12, 45, 57, -51, -17, 13, 
9, 9, 10, 35, -82, 26, -72, 19, -11, -24, -20, -24, -41, -127, -30, -49, -93, 0, 12, -127, -17, -59, -34, 2, 12, -5, -47, -76, -101, 53, -13, 57, 
-113, -127, 36, 67, -26, 62, 22, -58, 23, -90, -38, 19, 117, -84, -47, -127, 10, 83, 47, 10, -39, 10, 16, 42, 32, 51, -89, 51, 12, 40, 83, -41, 
-127, -127, 40, 79, -89, 60, -9, -33, -10, -42, -49, -15, 29, -127, -51, -127, 19, 58, 56, -38, -51, 26, 37, 1, 23, 39, -127, 21, -2, 46, 5, -10, 
-114, -127, -39, 45, -38, 11, -35, -5, -127, -35, -1, 55, 7, -127, -35, -115, -11, 23, 33, -12, -4, 11, 33, 0, -5, -19, -127, -21, -26, 16, 44, -1, 
9, -55, -19, -67, -9, -14, -5, -32, -59, -59, -127, -32, 49, -15, -127, 0, 63, -121, -51, 6, 65, -35, -29, -33, -37, 9, 13, -4, -12, 28, 62, 0, 
45, 54, 41, -22, -37, 18, -26, -34, 49, 30, -127, -40, 80, 20, -53, 16, 36, -99, 23, 0, 86, 51, 48, -13, 18, 80, 48, 10, -12, -18, 37, 0, 
76, 62, 9, 46, 2, -12, 19, 11, 111, 92, -127, -4, 45, -11, 0, 32, 13, -46, 12, -24, 19, 44, 11, 34, 21, 24, -48, -40, -31, 0, 69, -38, 
-62, 13, 42, 22, 44, -42, 19, 12, -3, 15, 5, -19, -32, 70, 17, -2, 77, -34, -11, 75, 18, 15, -21, 12, 11, 56, 6, -22, 62, 25, 25, -76, 
-98, 7, 64, 41, -54, 8, 53, 14, 117, -52, 11, 9, 1, 123, 30, -17, 45, 30, 29, 17, 47, -94, 13, -24, -36, 41, -10, -59, 44, 0, 18, -68, 
-106, -28, 27, 10, -127, -3, -48, -26, 123, -67, -49, -1, -39, 12, -51, -31, 3, -22, 21, -25, 91, -127, -44, 21, -11, 1, -24, -48, -29, 39, 14, -18, 
-80, 51, -4, -51, -16, -1, 20, -4, -73, 68, 56, -9, 39, 14, 59, 79, 65, 29, 34, -26, 22, -26, -9, -18, 18, -62, 2, -27, 20, 21, 84, -29, 
-30, 25, 40, -47, -20, 27, -72, -11, 16, -25, 67, -9, 12, -43, -2, 11, 41, -17, 28, -60, 64, 39, 10, -14, 50, -60, 22, -6, -52, 25, 63, -12, 
-13, -47, 17, -31, -59, 50, -127, -8, 71, -66, -8, -28, 0, -65, -40, -11, 41, -69, 24, -73, 19, 44, 5, 48, 22, -19, 11, -5, -75, 7, 35, 49, 
};

const int8_t MagnetometetNetworkInt8_layer_9_bias[] = {
-11, 0, 79, 93, 24, 59, 12, 56, -2, -47, 56, -81, 24, 3, 21, -74, -18, 51, 48, -70, 49, 48, 0, 110, 21, -77, 37, 74, 94, -50, 55, -1, 60, -5, -7, -41, -127, -34, 32, 20, 62, 31, 25, 90, 1, 53, -26, 21, 112, 5, 0, -9, 57, -29, -127, 67, -34, -61, 29, 19, 5, 4, 51, 54, };


const int8_t MagnetometetNetworkInt8_layer_12_weights[] = {
-20, 6, 23, -51, -61, -127, 9, 27, -127, -127, 3, -127, -24, -127, 47, -33, -18, 51, 21, -127, 48, -91, -62, 70, -31, -55, 53, -60, 53, 12, 32, 66, 0, -97, 23, 104, 91, -87, -73, 41, -127, -43, -127, -4, 98, -58, 24, -36, -60, -47, -127, 29, -19, -127, -20, 62, 45, -127, 0, 14, -15, 18, 2, 39, 
31, -74, 14, -42, -90, -79, 25, 20, -127, -127, 10, -127, 66, 127, 29, -1, -127, 101, 5, -23, 73, -73, -48, -16, 64, 13, -61, 83, 38, 46, -30, 36, -3, 2, -6, 32, -28, -9, -127, 6, -79, -26, -83, -19, -15, -110, -52, -20, -9, -4, -127, 15, 29, -58, 22, 49, 45, 15, -17, 65, -15, 62, 29, 35, 
63, -96, -18, -61, -1, -127, 28, 4, -127, 4, 22, -32, 49, -16, 5, 6, -127, 32, 23, -40, 14, -7, -53, -11, 45, 81, -108, 89, -34, -20, 2, -5, 5, -41, -19, -31, -69, 71, -8, 45, -127, -30, -127, -11, -71, -65, -34, 2, 48, 54, -127, -53, 7, -65, -19, -3, -52, 51, -29, -10, 36, 18, 7, -8, 
15, 47, -44, 12, 51, -3, 17, 17, -35, 14, 3, 10, -15, 75, -66, -35, 24, -66, 52, 35, -103, -30, -24, 54, -38, 49, 50, 20, -17, 40, -12, 74, -10, -79, 33, 0, 5, 57, 18, 67, 9, 44, 78, 53, 66, -5, 10, 21, -44, -26, 19, -36, -27, 15, 15, 95, -27, 4, -86, 53, -14, 18, 6, -49, 
86, 77, 6, 7, 6, 46, -49, 44, 12, -50, 28, 6, 27, 81, -55, -49, 32, -127, 8, 21, -36, 7, -17, 54, 9, 43, 47, 59, -56, 29, -1, 96, -8, -60, -22, -4, -32, -30, -93, 39, -16, 29, 35, 50, 40, 9, 32, 1, -9, -127, -40, -54, -13, -21, 67, 59, -31, 20, -52, 18, 24, 33, -34, -11, 
39, 3, 28, -23, -17, 30, -65, -76, 29, -127, 51, -20, 47, -127, -14, -127, -14, -108, -127, -86, 12, -18, 35, -3, -23, -26, -77, 65, -35, 2, 50, 84, 3, -127, -127, -64, -61, -109, -127, 8, 55, 15, -35, -8, -29, 19, -13, 2, -43, -127, -23, 59, -12, -106, -9, -51, -38, -30, 7, -11, 57, -37, 2, 62, 
28, -56, 53, 32, -26, -13, -33, -61, 7, -127, -51, 46, -3, 82, 11, -47, 77, -4, -83, -127, 15, -16, 2, -12, -8, -127, -36, 25, 36, 5, -9, 76, 4, 35, -2, 5, 3, 25, -37, 127, 11, -32, 29, 73, 18, 1, 8, 44, 1, 1, -15, -30, -95, -42, 100, 40, -20, -113, 30, 44, 26, -68, 17, -20, 
19, -2, 98, 40, -70, -20, 34, -33, -40, -127, -9, -16, 60, 127, 8, -90, 127, -92, -60, -127, 41, -21, 23, 16, -18, 0, 6, 8, 63, 99, -52, 64, 33, 3, -32, -2, -127, 12, -46, 93, 7, -14, 7, 51, -21, -18, -81, 8, 1, 11, -4, -43, -17, -51, 25, 7, -59, -53, -12, -7, -12, -69, 30, 16, 
-19, -24, 49, 59, -105, 19, -43, -35, -9, -83, -29, 15, 44, 81, 30, -112, 127, -102, -19, -55, 6, -23, 10, 40, -22, -25, 1, 66, -6, -7, -11, 39, 1, 18, -26, -61, -127, 24, 23, 9, -16, 20, 26, 37, -9, 0, -28, 20, 45, -18, -8, 6, -34, 42, 35, 51, -19, 40, -13, 23, -12, -79, 30, 1, 
7, -32, 18, 10, -42, 25, -81, 54, -22, 25, -9, -43, 0, -34, -55, -58, 107, 3, -44, -20, 65, -8, -53, 3, 78, -127, 0, 12, 17, -80, 6, -101, -22, 1, 14, 15, -127, 10, 14, 43, -28, 20, 34, -27, -127, -59, -127, -55, 2, 17, -36, 4, -23, -70, -94, -44, -34, -7, 7, -30, -12, -35, -5, -16, 
-8, -50, 48, 28, -34, -43, -22, 49, -17, 22, -5, -90, -15, -2, -91, 0, 27, -58, 40, -32, 3, -39, -12, 55, 24, -48, 9, 19, -6, -85, 10, 22, -74, 38, -22, 3, -54, 37, 28, 70, 24, 81, -66, -10, -124, -17, -127, -117, 6, 26, -61, 39, 26, 16, -33, 12, -8, 10, -22, -53, 6, 16, 45, -18, 
-44, -3, 54, -46, 13, -8, 88, -1, -11, 53, 5, -1, 105, 36, -44, 26, -24, -36, -7, 31, 37, -32, 29, 12, 0, -9, -3, 64, -49, -44, 5, 113, 1, 15, 7, 53, -21, 53, 23, -95, -5, -14, -111, 59, -52, 8, -61, -8, 73, 45, -90, 85, 12, 19, 1, 22, 53, 4, 12, -26, 48, 40, 74, -78, 
-38, 17, -127, 79, 16, -4, -44, 39, -6, 30, 108, -22, 22, 10, -127, 42, 1, -3, 11, 18, -127, 83, 37, -9, 22, 30, 18, -62, -43, -108, 25, 90, -38, 22, -42, -11, -24, 17, 24, 44, 7, -104, -14, -78, 37, 122, -11, -7, -45, 50, 69, 4, 0, 18, -53, 29, 21, 20, -33, 5, 2, 19, 39, 17, 
-41, -12, -127, 22, 12, 36, 11, 66, -64, -39, 40, 38, 28, -42, -127, 40, 7, -127, -21, -17, -127, 59, -14, -28, -31, -28, 34, -58, -74, -94, 65, 108, 34, 0, 5, -10, -76, 20, -18, 68, -46, -87, -27, -56, 2, 79, -13, 22, -37, 28, 18, 10, 5, 47, -11, 37, 60, 40, -14, -4, -1, 53, -38, 14, 
-29, 7, -127, -35, 44, 25, 6, 104, 4, -9, -35, -40, 2, 12, -127, 15, 32, -127, -40, -4, -127, 69, 7, -98, 20, -38, 67, -127, -104, 28, -10, 113, 49, -33, 8, -30, -24, 34, -66, -11, -11, -75, 36, -61, -38, 127, -18, -63, -24, -5, 5, 12, -16, -2, -5, 47, 42, -12, -52, -60, 69, 30, -39, -25, 
-2, -118, 48, 66, 29, -111, 31, -17, -35, 58, -1, 41, -41, -55, 15, -1, -34, 123, 34, -5, 33, -33, -32, 44, 22, -6, 13, 39, 20, -70, -15, 11, 13, 38, -78, -21, 9, -13, 67, 52, -39, -48, -40, 13, 31, 84, -79, 21, 91, -99, -55, -100, -46, 56, -58, 53, 21, 3, -87, 2, -39, -10, 35, -7, 
18, -93, 95, 83, -66, -79, 42, -62, -2, -64, -30, -36, 58, 22, -2, -59, -15, 93, -4, -127, 42, -62, 16, 13, 50, -45, -16, 49, 19, 5, 34, 23, 5, -28, -93, -67, 76, -89, -16, 36, 3, -16, -127, -29, -2, -16, -71, -15, 54, -127, -36, -83, -33, 4, -57, 1, 15, -12, -17, 36, -29, 11, 7, -26, 
39, -25, 79, 25, -127, -67, -10, -11, 12, -127, -19, -82, -6, 0, -1, -112, -54, -4, -15, -127, 46, -40, -7, 8, 11, -127, 32, 45, 73, 95, 0, 86, -13, -17, -42, -25, -127, -32, -26, 63, 15, -57, -127, -10, -3, 70, -45, -17, 37, -127, -2, -104, -53, -29, -64, 8, 43, -127, 0, 1, -33, -37, 17, 20, 
4, -123, 75, 43, -17, -48, 14, -97, 19, -19, -1, 37, 57, 30, -31, -7, 17, -44, 0, 4, -109, 64, 17, 34, 36, -50, -8, 24, 33, -58, 5, -46, 18, 43, -50, -68, -120, 24, 35, -127, -39, 55, 52, 60, -31, -35, 29, -10, 14, 15, -52, 48, -9, -4, -9, 19, -23, 33, -5, -11, -127, 62, 30, 35, 
-107, -127, 27, 33, -10, -25, 14, -45, -16, -4, 4, -16, 42, -35, 80, -16, 40, 9, 4, 10, -127, -2, 30, -21, 21, -43, 45, -13, 16, -110, 55, -107, 0, 63, -41, -21, -50, 9, -18, -127, 21, 30, -57, 21, -64, -76, -5, -22, -28, 33, 10, 30, 0, 7, 42, -13, 7, 46, 47, -19, -127, 8, 3, -9, 
-127, -111, -25, 2, 42, 25, 26, 11, -38, -41, 38, -25, 18, -52, 15, 38, 127, -14, -3, 40, -127, 5, 15, 22, -6, -7, 54, 42, -2, -45, 10, -14, -20, 61, -44, -10, -56, 13, 16, -25, -29, 63, -15, 35, -20, -72, 23, 0, -34, 23, -42, 39, 10, 30, 46, 27, -30, 51, -4, 14, -20, 16, -3, 12, 
-68, 0, -88, 54, 36, 52, -11, 12, 38, -23, -14, 65, 10, 27, -18, -2, 51, 6, 5, 3, -127, 57, 63, -76, -37, 19, 6, 0, 1, -65, -12, -34, 13, 30, 38, -26, 29, -34, 24, -13, 41, -1, 33, -18, 2, -34, -45, 47, 10, 48, -27, -6, 54, 2, -1, -36, -31, 47, -40, -7, -16, 77, -19, 23, 
-30, -43, 3, 15, 55, 54, -73, -1, 11, -48, 28, 43, -43, 27, 35, 1, 54, -56, -36, 31, -127, 69, 1, -29, 6, -30, 4, 6, 44, -11, -24, -25, 44, 45, 38, 10, 20, 12, 54, 26, -9, 18, -18, -31, 9, -99, 14, 0, 0, 31, -16, 34, -35, 14, -7, -56, -20, 14, 16, 20, -84, 71, 47, 33, 
-95, -32, -11, 3, 26, 34, -15, 34, -29, -72, 9, -13, 9, -51, 37, 21, -97, -3, 20, 17, -127, -15, -7, 8, -48, 11, 14, -67, 21, -11, 4, -3, 38, 3, -41, -56, 23, 10, 23, 29, 25, 36, -71, 1, 29, -23, 28, -30, -3, -2, -9, -31, -40, 28, -9, -95, -40, -23, 3, 0, -20, -29, 26, -14, 
43, -125, -19, 55, -1, 42, -40, 76, -5, -21, 19, -127, -127, 113, -34, 48, -24, -16, 77, -127, -127, 88, -35, 25, 17, -101, -19, 74, 92, -50, 52, -14, 3, -50, -63, -118, -127, 15, 82, -35, 93, 28, -50, -57, -26, -5, -21, -11, 48, 28, 27, -69, 13, 76, -97, 93, 0, -5, 53, 23, 68, -43, 3, -33, 
4, -46, -28, 43, 40, 0, -27, 93, 29, 30, -8, -83, -60, -13, -99, -30, 49, -25, 19, -20, -127, 73, -24, -30, -22, -77, 5, -106, 20, 104, -5, -25, -21, -127, 2, -59, -30, -110, 36, 19, 18, -1, -10, -5, -127, -69, -30, -23, 33, -33, -34, -52, 30, 20, -127, -40, -6, -15, -43, -64, 54, 23, 37, 17, 
0, 9, 61, -45, -54, 23, -28, 47, 20, -11, 29, -48, -72, -81, -110, -31, 45, -28, -77, -14, -127, -1, -31, -5, 53, -5, -2, -111, -14, 127, -62, 30, 24, -71, 15, -45, -94, -120, -48, 7, -18, 47, 20, 79, -31, -45, 39, 20, 20, -29, -11, -94, 18, 0, -45, -74, 61, -9, -80, -35, -7, 62, 19, 43, 
-17, 7, 11, -49, 50, 2, 84, 62, 14, 51, 39, 74, 89, 1, -12, -35, -56, -34, -46, 43, 55, -97, -79, -39, 75, 46, -46, -127, -15, -20, 13, 83, 4, -5, 2, -37, -7, 41, -30, 80, -29, -20, -102, 42, 32, 127, -127, 30, -3, 0, 14, -9, -21, -36, 22, -50, 64, 61, -42, 49, 4, 73, 58, 6, 
-93, -71, 98, 13, 6, -58, -72, 58, -127, 9, -19, 7, 2, -4, 65, -36, -34, -27, 1, 16, 88, 25, -127, 35, -14, 4, -27, -2, 65, -20, 18, 10, -29, 30, 0, -21, -54, -9, -33, 66, 8, -69, -95, -127, 6, 127, -127, -21, -49, -3, 1, 5, -13, -44, 32, -1, 6, 10, -56, -7, 29, 21, -8, -38, 
-127, -15, 52, -37, 30, -25, -127, -11, -127, 12, -5, -19, 6, 62, 42, 13, -127, -16, 55, 33, 82, -34, -127, 43, -62, 25, 40, -107, 73, 27, 37, -22, 44, 34, 12, 44, -74, 68, 14, 30, -62, -63, -127, -127, -5, -38, -127, -28, -17, 28, -16, -28, 19, -26, 36, 47, -14, 19, -29, -35, 14, -51, -18, -64, 
-97, 29, 20, -22, -92, 67, -33, 34, -41, 24, 6, -60, -13, -3, -65, 17, -32, 40, 41, -11, -2, 49, 9, 44, 24, -54, 32, 93, 48, -35, 127, -24, -98, 98, -4, -127, -127, 21, 2, -18, 84, -65, 75, -106, -72, 3, -127, -39, 24, 11, 51, 49, 45, -19, -127, -12, -72, -21, 90, -65, 7, -6, 3, -7, 
-22, 41, 55, 7, 45, -4, -36, 23, -65, 54, 20, -25, -21, -127, -81, 45, -24, -6, 16, 2, -63, -2, -69, -59, 32, 9, -30, -91, 54, -127, 42, 109, -50, -42, 34, -127, -127, -91, -39, 58, 72, -1, 99, -26, -10, -3, 9, 36, 25, 38, -29, -52, 49, -16, -48, -73, 13, 19, -78, 6, -12, 31, 25, 51, 
-32, -33, 5, 11, -92, -95, 25, -27, 5, 6, -83, 32, -24, 2, -34, 16, -19, -2, -115, -26, 56, 0, 2, 60, 23, -18, -82, -85, -31, -1, -93, 112, 71, 22, -52, -43, -127, -26, -9, 58, 15, 63, -99, 95, 35, 48, 3, 102, -28, 21, -67, -91, -94, -9, -127, -53, 98, -6, -71, -7, -31, 1, -9, 21, 
-35, -24, -127, 21, 70, -27, -9, 27, 127, 28, -67, 45, 115, 33, 124, -42, -30, -70, -4, 18, 127, 43, -127, 86, -12, -28, 28, 27, 30, -90, 34, -57, 18, -84, 23, 33, -59, 38, 46, 33, -99, 41, -31, -71, -24, 109, -35, 8, 33, 38, -8, 54, 16, 127, -11, 34, -9, 60, 77, 5, -124, -109, 23, -18, 
-55, 11, -127, 25, 42, -34, -42, 63, 20, 9, 10, -46, 60, -96, 79, 10, 55, -22, -3, -3, 127, 28, -127, 29, -25, -5, 3, -23, -28, -100, 42, -46, -86, -127, -14, 2, -70, -3, 15, 52, -127, 12, -37, -40, -41, 54, -95, -19, 59, 19, -25, 33, 41, 46, -43, 14, 11, -2, 35, -30, 6, 19, 6, -24, 
39, -16, -21, -16, -11, -39, -22, 27, -127, -8, 23, -73, -2, -127, -127, -5, 9, -15, 15, 15, 127, -78, -127, -35, -16, -30, -21, -127, -25, -72, -127, -3, -127, -127, -25, -69, -38, 22, 25, 123, -127, -8, 84, -3, -43, 99, -127, -36, 34, -11, -85, 5, -5, -24, 55, 34, 12, 12, -127, -32, 21, 88, 5, 15, 
-6, 7, -11, -23, -23, 20, 34, 69, -6, -22, 45, -42, 11, 3, 10, -35, 69, 10, -22, -21, -23, -13, -5, -30, 33, -108, 4, -14, 28, -24, -7, -55, 2, 14, 9, -30, -42, 10, -48, -51, 13, 55, -17, -85, -112, -127, 30, -62, 33, -65, -32, -63, 8, -46, 84, -7, -6, 56, -15, 89, 102, -10, -65, 48, 
6, 43, -1, 20, 26, -13, -13, 40, -2, 4, 40, -77, 30, -10, 32, 32, -81, -1, -39, -13, 5, -12, 21, 17, 16, -127, 1, 62, 0, 8, -14, -11, -3, 6, 22, 44, -8, 21, -37, -25, -16, 10, -127, -6, -120, -126, 34, -79, 24, -2, -14, -27, -38, -10, 58, 5, -37, -25, 29, -23, 55, 4, -27, -50, 
-43, 13, -55, 47, 22, 28, -15, -7, 27, -22, 10, -45, 42, 43, 44, 49, -11, -15, 0, -36, 21, 18, -12, -34, -20, -10, 6, 38, -6, 10, -28, -57, -71, 41, 59, 66, -44, 20, 34, -115, -73, -14, -20, 46, -56, -82, -16, -78, 28, 77, 28, 35, 40, 4, 36, 14, 22, 26, 24, 29, -25, 10, 21, 12, 
28, 6, 41, 62, 53, 14, -33, -35, 29, 28, 19, 17, 0, -51, -60, 25, 98, 55, -7, -25, -43, 16, 46, 34, -32, 1, -63, -80, 23, 6, -63, 1, 11, 9, 29, 95, 57, 34, 52, 12, 1, 67, -49, 96, 70, -50, 49, 29, 13, 44, -24, 12, 10, 54, 30, 46, 49, 35, -67, 31, 16, 19, 3, 50, 
21, -69, -24, -33, -48, 13, -45, -3, 19, -22, -10, 6, 17, -127, -6, -22, 46, 10, 44, -55, -10, -54, -1, -8, -31, -22, -12, -41, 11, 63, -31, -43, 33, -90, 8, 14, -32, -9, -16, 16, 27, 62, 15, 3, -16, -30, -1, 32, 38, -31, -11, 4, -17, -58, 76, 28, -40, 5, 3, 16, -15, -12, -7, 33, 
42, -106, -32, -27, -68, 54, -36, 34, -18, -40, 20, 19, -30, -127, 22, -96, 108, 17, 14, -93, 51, -44, 14, 45, -45, 10, -15, 91, 29, 102, -30, -14, 16, -111, 33, -46, -64, -54, -32, -20, -29, 36, 85, -19, -45, 2, -27, -8, -10, -108, -9, -2, 10, -92, 24, -69, -86, 7, 0, -10, -5, -25, 24, 40, 
-19, 11, -29, -7, 16, 23, -71, 66, 17, 49, 6, 50, 59, -56, 42, -18, -16, -11, -24, 41, 12, -37, 18, 13, 47, -15, 46, 3, 51, -6, 65, 74, 16, -68, 21, 1, -117, 0, -21, 43, 8, 57, -7, 13, 27, -31, 57, 2, -93, -31, 10, 15, 10, -1, -96, 20, -14, 25, 64, 32, 0, -33, -48, -15, 
48, -127, 35, -4, -57, -10, -33, 33, 10, 41, -2, -64, 13, -54, -30, 3, 27, 27, -32, 18, 0, 18, -13, 29, -14, -127, -9, 37, 26, -127, 83, -112, -30, -17, 17, 15, -127, 38, -15, 8, -21, 62, 77, 26, -30, -45, 14, -82, 10, -6, -6, -48, -31, 36, -127, 7, 5, 40, -36, -127, 21, 19, -65, -47, 
46, -25, -28, -24, 39, 8, -61, -23, -46, -6, -29, -82, 8, -6, -81, 52, 13, 73, 2, 54, -111, -29, 4, 13, -20, -30, -31, -22, -66, -77, -45, -105, -64, 57, 34, 44, -102, 44, 15, -93, -53, -18, 62, 42, -127, -75, 15, -127, -7, 46, -89, 7, 37, -120, -33, -20, 37, 43, -58, -127, 69, 60, 32, -80, 
-119, 62, 26, 30, -7, 9, -49, -2, -37, -30, 56, -127, -47, 47, 84, -98, 35, -6, 56, -50, -41, 37, -30, 88, 17, -64, -52, 127, 73, 47, 42, 61, -3, -14, -14, 40, 81, 12, 49, -31, 127, 11, -7, -20, -83, 127, 6, -77, 40, -50, 61, 47, 3, -57, 45, 12, -15, 18, 7, -9, 2, 57, 6, 18, 
0, -5, -18, -6, 11, 9, -17, 0, -127, -7, 25, -4, -47, -127, 19, -31, 38, 51, 0, 2, 63, -30, -67, -27, 1, -33, -79, 5, 6, 93, 37, 102, -53, -24, -18, -9, 106, -87, -29, 75, -5, -20, 127, -38, -34, -67, 37, 18, -8, -126, -127, -84, 10, -64, -10, -77, 0, 28, -56, 5, 10, 44, 11, 0, 
7, -18, 10, 32, 14, -127, 0, -40, -127, -52, -32, -26, -28, -127, 2, -118, 35, 21, -62, -25, 23, -2, -29, -4, 20, 43, -127, 107, 6, 77, 21, 80, 12, -119, -46, -12, 40, -58, -53, 61, 32, 26, 8, 78, 62, 50, -20, 39, -11, -127, -127, -127, -21, -51, -12, -71, 44, 66, -62, 8, -10, 2, 36, -2, 
11, 80, 127, -27, 61, -61, -44, 44, -24, -2, 70, 39, 12, 16, -90, 44, 2, -22, 13, -22, 124, 14, -52, 25, -58, -23, 7, -8, -86, 2, -51, 69, -88, 50, 19, 82, -98, 5, 4, 87, -120, -59, 43, -26, 28, -50, -15, 35, 52, 46, -17, -44, -29, 1, 2, 23, 52, -117, -102, 54, -36, 31, 52, 47, 
-80, 118, -1, -37, 38, -9, -106, 35, 7, 48, 71, 47, -45, 37, -127, 12, 52, 24, -26, -22, -79, -83, 25, 12, -95, -9, -21, -56, 18, -78, 16, 48, 28, 7, -61, -12, -127, 35, 8, -21, 20, -6, -18, 41, 57, 0, 48, 21, 2, -4, 51, -40, 10, 62, -75, 20, -18, -72, 15, 3, 51, 44, -17, 65, 
-127, -94, -127, -8, 34, 8, -127, -7, 21, 48, 108, -3, 16, -16, 11, -84, -9, 55, 18, -36, 114, -51, -23, -91, -42, -41, -9, -59, 90, -74, 41, -20, -19, 1, -3, -66, -127, 22, 24, -65, 35, -34, -43, -38, 22, -40, 14, -67, -2, -6, -3, 68, 19, 55, -116, -42, -98, -37, -6, -4, 53, -1, -106, -12, 
38, 5, 27, -32, 19, 0, 3, 22, -2, -1, 19, 43, -21, 25, 0, 81, 9, 35, 43, 53, -38, 47, -11, -3, -20, 16, 0, -62, -2, 15, -24, -53, -49, 46, 14, -33, 9, 37, 21, 29, 2, -10, 0, 29, 32, -25, -18, 48, 62, 49, 20, -27, 8, -29, 54, 63, -5, 56, -5, 58, 10, 31, 46, 31, 
28, 12, 1, 29, -8, 16, -41, 26, -12, 33, -13, -10, 6, -12, -23, 8, 0, 31, 13, 40, 1, 18, -2, 0, 12, -22, -25, -14, 11, -3, 57, -9, 37, 9, 28, -32, -33, 22, 4, -33, 38, 19, 99, -48, 33, -32, 4, -25, -18, -5, 5, 0, 24, 28, 1, 36, 39, 5, -25, 24, 1, -17, 28, -17, 
-9, 3, -2, -2, 71, -40, -23, 38, 37, 15, 5, -36, 9, 9, 25, -63, -21, 16, -38, -26, -2, 2, 3, 3, 58, -25, -12, -84, 9, -54, -68, -37, -15, -35, -30, -69, -79, -16, -23, -14, -22, 42, 127, -50, -18, -20, -18, -29, -5, -32, 16, -9, 35, -30, 18, -56, -9, -15, 9, -16, 26, 4, -37, -28, 
36, -118, 126, 7, 14, -119, 51, -43, 4, -20, -39, -38, -31, -127, -127, 21, -40, 69, 3, 62, -20, -2, -1, -122, 58, -50, -127, -127, 13, 13, -127, -118, -127, -50, -53, -121, -25, 1, -13, -71, -35, -23, -86, 23, 21, 127, -41, -29, 82, -30, -53, -16, -8, -127, -3, 0, 25, -56, -127, -3, 18, 127, -18, 66, 
1, -127, 10, 57, -21, -127, 8, -44, 96, 37, 4, -31, 22, -11, 86, 26, -32, 117, -4, 50, -2, -54, 14, -107, 49, -21, -81, -50, 106, -95, -61, -111, -33, -19, -13, -21, 127, 19, -18, -56, -92, 4, 44, -9, 37, -23, -87, -82, 55, -6, -30, -7, 61, -99, -64, -11, -28, 20, -123, 15, 53, 73, -1, 10, 
-93, -127, -32, 26, -34, -69, -115, -5, 15, 99, 34, -6, -31, 75, 97, 25, -53, 70, 4, -33, 13, -127, 45, -77, -18, 45, 5, 68, 112, -126, 127, -39, -124, 0, -62, 48, 18, 13, -7, -24, -49, 17, 127, -3, -23, -53, -127, -53, 37, 29, -20, -97, 43, 44, -41, 35, -127, 66, -30, 3, 19, -98, 5, -38, 
-127, -55, -54, 11, -3, -22, -126, 73, 39, -47, 42, -127, 26, -6, -103, -73, 23, -7, -16, -10, -61, -44, 22, -37, 23, -119, 20, 50, 41, -21, 10, -127, -94, -67, 0, -6, 8, -22, -53, 52, 16, 20, -127, -70, -127, -22, -116, -127, 80, -29, -6, -20, -57, -6, -46, -26, 0, -19, -76, -79, 58, 16, -68, 15, 
-51, 66, 85, -19, 23, 9, 9, 13, -2, -10, -2, -9, 55, -23, -51, 0, -127, -6, 36, -12, 28, -61, -58, 2, -17, -6, -5, 62, -65, -35, -50, -2, -115, 21, -2, -2, 53, 26, 21, 73, 5, 12, -1, -60, -97, 12, -80, -80, 74, 50, -10, 53, 8, -47, -23, -22, 10, 30, -72, -38, -13, 55, 43, -49, 
-111, 27, 56, 31, 39, 10, -49, 55, 8, 19, 28, 43, 20, 59, -13, 20, -27, -74, 0, 25, -63, -60, 55, -17, -33, 3, 15, 67, -30, -36, -25, 63, -64, 60, -26, 39, -16, 51, 24, 123, 38, 19, 84, 114, 19, 28, -89, 7, 35, 53, 14, 12, 17, -10, 13, 34, 10, 27, 28, 25, -120, 28, 36, 89, 
-26, -74, -5, -67, 42, -74, 44, -127, 25, -41, -96, -56, -56, 1, 26, -18, -37, 15, -22, -108, -56, 49, -9, 32, -24, -66, -21, -1, -21, 11, -37, -17, 38, -35, 27, 99, 92, 14, -7, -36, -65, 39, -127, -8, -34, 14, 12, 40, -3, -20, -12, -60, -102, 34, -6, 10, 2, -33, -2, 10, -32, 59, -23, 39, 
1, -47, 0, 10, 32, -48, -9, -63, 14, -4, -78, -22, 35, 17, 39, -19, -34, 22, -18, -38, 48, 18, -58, 8, 45, -38, -48, 52, -2, 28, -3, 13, 4, -68, 16, 25, -19, 22, -36, 1, -34, 67, -77, 10, 37, 51, -15, 33, 34, -23, -41, -20, 0, -36, 3, -46, -1, 7, -5, 7, 45, 24, -1, 27, 
7, -23, -21, 46, 40, 19, -38, -1, 39, 19, -20, -4, 64, -20, 9, 32, -52, 87, 28, -2, 23, -19, 8, 51, 21, 30, -51, 7, -5, 42, -57, 73, 17, -26, 78, -34, 41, 48, 7, 15, -31, 31, -70, 5, -23, 34, -1, 38, 82, 8, -53, 29, 51, -71, 21, -70, -6, 94, 15, -16, 72, 6, 31, -14, 
14, 27, -26, 64, 51, 4, -26, -68, -34, 29, 32, 34, 21, -31, -34, 19, 70, 9, 32, 43, -127, -2, -19, -41, -64, 2, 28, -4, -2, -80, -54, -127, -11, 30, -39, -28, -47, 28, 45, -39, -7, -22, -75, 21, 16, -125, -17, -13, 36, -8, -43, 9, 59, 75, -1, 11, 2, 40, -24, 14, 64, -34, -6, -55, 
34, -4, 51, 65, 9, 41, -5, -5, -28, 13, 2, -35, 0, 40, 53, 22, -3, 42, 27, 34, -73, 4, -5, 10, -59, -12, -19, 5, 32, -127, -44, -127, -4, 87, -35, -80, -21, -6, -2, 76, -13, 36, -125, 43, 26, -127, 8, -7, 78, 4, -13, -17, -32, -30, 41, 5, 0, -5, 28, 37, 0, 14, 22, -21, 
-39, -107, 37, -10, -14, -46, -44, -49, 35, -39, -61, -52, -11, -72, 72, -34, -127, -18, -52, -24, -16, -48, 10, -1, -5, -44, 27, 76, 39, -127, 29, -61, 48, 1, -37, -49, 4, -6, -42, 11, 27, 43, -127, 26, -29, -127, -12, -23, -2, -89, -28, -9, -42, -24, 95, -32, 42, -84, 49, -48, -11, -16, 49, 2, 
-87, -72, -8, 14, 29, 29, -13, 0, -20, -9, -17, -10, 61, -24, -15, -15, -91, -78, 57, 10, -93, 0, 9, 8, -20, -79, 32, -14, 7, -127, -5, 23, -21, 0, -22, -4, -127, 19, 56, -15, 9, 30, -70, -8, -22, -48, 11, 7, 9, -9, -24, -1, 8, 28, -120, 14, 9, 27, -33, -8, -127, -40, -21, -72, 
-100, -14, 22, 6, -26, 44, 7, 5, 28, -18, -18, 6, 4, -40, 22, 29, 46, -27, 34, -10, -116, 58, -13, 0, 40, -60, 18, -11, 24, -50, -16, -9, 11, -9, -11, 24, -71, -21, 15, -24, 15, 28, -46, -1, -30, 0, 19, 23, 11, -14, -23, 1, -17, -20, 3, 9, 10, -35, 11, -31, 22, -19, 62, 19, 
20, 9, -16, 33, -7, 22, -7, -53, 38, 0, -6, -10, 5, -59, -21, 53, 46, -7, -27, 0, -127, 11, 18, -3, 23, -52, 41, 19, -4, -21, 29, 9, 10, -27, 0, 67, 56, -18, -16, -54, -5, -33, -6, 12, 16, -40, 28, 4, 48, -24, -11, 31, 10, -60, 31, 5, 34, -42, 37, 29, 46, -14, 3, 24, 
1, -29, -53, 23, -51, -23, -3, 43, 17, 0, 37, 34, 40, -127, 34, 9, -30, 0, -6, -30, -127, 34, -5, 68, -37, -32, 23, -10, 21, -127, -14, -71, -36, -98, 12, -4, 21, -16, 43, -48, -38, 41, 30, 5, 36, -40, 3, 32, 28, -4, 42, 38, 14, 24, -29, 23, 5, -42, -54, 46, -127, -45, 14, -58, 
-114, 25, -29, -12, -48, 0, -27, -6, 6, 5, 25, 23, 52, -103, 36, 1, -3, -41, -29, -19, -127, 45, -12, 43, -28, -51, 63, -52, 29, -93, 8, -60, -20, -83, 14, -51, -21, -13, 36, -68, -37, 18, -66, 2, 27, -106, -11, 0, 77, -34, -11, 32, -8, 24, -7, -11, -17, -9, 0, -17, -126, -55, 39, -21, 
-67, 80, -62, -12, 1, 29, -6, -28, 79, -1, 7, 39, 55, -33, 64, -8, 127, -84, -61, 2, -127, 28, -14, 12, 26, -5, 55, -58, 39, -31, 31, -107, 39, -62, 59, -99, 30, 15, -4, -67, -22, 14, -11, -21, -77, -47, 3, -42, 127, -33, 22, 43, 41, 16, 85, -47, -34, 30, 18, -24, -15, -27, 34, -15, 
127, -73, 27, 57, 23, -124, 10, 40, -56, 5, 55, 17, 71, -127, 23, -14, -98, -42, -53, 25, -14, -65, -16, 9, 99, -105, -33, 86, 45, -127, 8, -16, -3, 57, -39, 94, -127, 0, -53, 91, -70, 92, -127, 72, -17, -127, -127, -24, 57, -10, -51, -12, -58, 15, -127, 14, -114, 20, -68, -9, 55, 12, -63, 13, 
1, -75, 35, 12, -5, 0, -10, -5, -25, 13, -30, -127, 20, 14, 77, 33, 39, 2, -25, 32, -47, 22, -5, 110, 25, -64, 7, 63, 22, -111, 32, -127, 8, 26, 15, -51, -102, 6, 31, -49, -79, 7, -27, 35, -127, -51, -127, -127, 25, 0, -62, 7, -54, 27, -67, 37, -58, 60, -24, -127, -27, -28, -48, -61, 
-119, -45, -12, -8, -1, -6, -20, -48, -110, 40, 0, 11, 16, 32, 76, 48, -26, 20, 26, 61, 8, 4, 1, 27, -55, 70, 21, 7, 39, -127, -72, 11, -64, -22, 5, -48, -45, 5, 39, 54, -59, -37, 106, -48, -19, 52, -127, -100, -1, 39, -68, -20, 40, -20, -47, 16, 0, 26, -7, -3, -87, -28, 101, -23, 
-37, -62, -73, 3, -5, -27, -19, -19, 0, 25, -7, -17, 15, 46, -37, -59, -37, -20, -36, 3, 14, -11, 3, -26, 24, 26, -37, 26, -32, -71, 13, -13, 47, -2, -35, -58, -66, 35, 0, 11, 20, 21, 28, 4, 6, 0, -8, 4, -42, -7, 12, 12, -24, 24, -78, -46, 22, -4, -29, -25, 30, 29, 20, 0, 
13, -64, -54, -1, 25, -30, -17, 17, 14, -2, 21, -19, -1, 40, 36, -21, -48, 14, -41, 48, -4, 12, 4, -4, -11, 17, 31, -12, -25, 33, 16, 9, 6, 13, -51, -30, -3, 6, 6, -1, 3, -38, 29, 34, 12, -59, -45, 0, -30, 2, -10, 17, 37, -42, 13, -6, 9, 11, -10, -6, 22, 28, 17, -38, 
-43, -60, -35, 14, -16, -37, -76, 52, 0, -46, 23, 17, -27, -7, 45, 20, 16, 21, 8, 37, 38, -21, 10, 25, 27, 32, 38, 9, 9, 59, 5, 27, -8, 14, -24, -95, 0, -35, 26, -3, 24, 40, 35, -17, -1, 17, -1, -31, -33, -22, 8, 16, -10, 18, 53, 34, -9, -30, 20, -42, 0, 25, 49, 28, 
11, -53, 15, 38, -38, -16, -59, 17, -52, 4, -68, -90, 21, 0, -64, 20, -29, 8, 25, -24, -127, 20, 0, 116, -86, -8, -17, 76, 61, -127, 99, -27, 24, -35, 46, -4, -127, 21, 26, 34, 11, -94, -105, -49, 66, 36, -38, 25, 43, 6, 17, 16, -45, 118, -40, 61, -29, -3, -108, -14, 25, -22, -37, -8, 
-12, 47, -60, 16, -20, 17, -48, 0, 89, -14, 9, -81, 46, -6, -10, -47, -14, 24, 15, 9, -127, 8, -61, -74, 10, -7, 4, -62, -1, -81, -3, -47, -32, -16, 57, -45, -49, 34, -12, -9, 44, -14, -40, -127, -23, -42, 44, -52, 67, 4, 15, 42, -35, 14, -52, 26, -70, -9, -76, -37, 27, -63, 14, 25, 
57, 101, 6, 24, 24, 53, 7, 18, -127, -13, 10, 2, -5, 34, -122, -52, -2, 34, -38, 14, 23, 17, 20, -112, 1, -13, -47, -127, -6, -43, -59, 68, 12, -87, 23, -79, 14, -18, -26, 11, -64, 60, 80, 63, -36, 20, 70, 36, 67, -58, -121, -23, 55, -83, -92, -63, 33, 9, -57, 29, 12, 68, 41, 73, 
81, -120, -22, -17, 53, 8, 65, 20, -78, 20, 62, -35, -90, -113, 38, 36, 22, 43, 3, 18, -127, -17, 39, 19, -23, -49, -3, -63, 10, 47, -87, -36, -29, -34, 31, -38, -90, -65, 30, -28, -49, 60, -83, 51, -27, -44, -26, 42, 11, 19, 19, -127, 56, 0, -127, 11, -32, 37, -36, -51, 20, -16, 79, 0, 
56, -127, 17, 22, -11, -27, 21, 10, -13, -13, 20, -24, -58, -109, 19, 79, -69, -64, 29, -37, -127, -13, 42, -16, -73, 13, 17, 7, 22, -92, -56, -77, 36, 23, 32, 12, 67, -15, 10, -47, 42, 58, -90, 9, -28, -36, 17, -37, 12, 11, 10, -73, -2, 21, -74, 10, -6, 53, 1, -98, -127, -71, 54, -2, 
40, -127, 52, -62, -52, -70, -28, 42, 62, -18, 47, 32, -29, 73, 56, 44, 82, -127, 15, -24, -127, -4, 27, 65, -126, 48, 34, 0, 45, -87, -51, 12, 22, 6, 36, 58, 19, -3, 3, -93, 34, 74, 56, 12, -21, -90, 30, 8, -72, -15, 14, -81, -38, 31, -24, 52, 0, -17, 41, -53, -96, -15, 0, -32, 
3, 74, -26, 24, -14, 57, 29, -15, 12, -15, 18, 16, 18, 44, -45, -25, 35, 0, -26, -13, 43, 12, 0, 15, 1, -69, -25, -94, 42, 48, 16, -27, 8, -53, 35, 30, -12, 6, 2, 7, 19, 27, 1, -2, 22, 33, 24, 35, 7, -43, 40, -38, 31, -4, 84, 14, -12, 52, 25, 2, -29, -2, -25, 14, 
49, -16, 44, -1, -28, -18, 16, -35, -31, -51, -28, 22, -59, -5, -11, -37, 102, 1, 21, -28, 18, -31, 13, 30, 40, -62, 10, -22, 64, 8, 11, -46, 0, -37, -4, 28, -19, -14, -16, 54, 17, 30, 17, 25, 11, 29, -30, 6, 13, 18, 16, -47, 44, 1, 71, -38, -35, 9, -39, -18, -8, -18, -4, -10, 
70, -42, 46, -5, -58, -46, 21, 10, -40, 0, -15, -1, -76, -7, 44, -62, 18, -3, 61, -5, 10, -77, 17, -7, -19, -127, 25, 13, 46, -3, 18, -27, 31, -69, 16, 16, -92, 18, -8, 101, 15, -16, -18, -41, 52, 19, -24, -47, -26, -19, -42, -23, 41, 30, 50, 8, -58, -87, -40, -37, -4, -69, -3, -10, 
88, 25, 116, -17, 118, -99, -6, -33, -19, -54, -20, 7, 4, -59, -43, -16, -69, 32, -70, -10, -127, 12, -59, -72, 63, -101, -39, 16, -31, -127, 29, -3, 25, 37, -41, 28, -61, 17, -56, 58, -34, 37, 25, 23, -32, -18, -12, -5, 87, -51, -79, 5, -26, 20, 39, -45, -14, 7, -127, -36, 60, 54, -28, 2, 
24, -16, 46, -13, 22, 14, -20, 34, -27, 40, -34, 49, -38, -44, -127, 41, 23, 19, -35, -36, -10, -17, 30, 34, -23, 6, -24, -52, 11, -110, 72, -28, -42, -9, -29, -19, -99, 39, 15, 22, 2, -18, -1, 10, 61, -31, 0, 3, 38, 27, 59, 6, 4, 24, -36, 7, -30, -6, -40, -38, 15, 14, 24, -24, 
-22, -27, -6, 5, 7, 60, -117, 67, 57, 28, 45, 24, 9, 20, -127, -32, 78, -7, 4, 37, -43, 21, 34, -55, -56, 56, 24, -99, -10, -70, 36, -127, -51, -34, 21, -83, -45, 19, 47, -65, 4, -105, 127, 27, 16, -31, -19, -49, 14, 25, 39, 38, 94, 69, -18, 29, -127, 67, -28, -6, -48, -22, 62, -60, 
37, 38, 36, 10, -20, -38, -17, 92, -107, -25, 64, -48, 26, -87, -22, 49, 42, 62, -13, -56, 42, 72, -89, -55, -9, -127, 16, 71, 76, -110, 84, -127, -127, -36, -44, -127, -127, -75, -64, 61, 12, 39, -20, -68, -94, -127, -57, -4, 44, -37, -100, -16, 33, 29, -127, 54, -61, 23, -127, -126, 30, -102, -33, 51, 
-63, 42, 31, -24, 28, 2, -49, 28, 6, -21, 51, 10, -21, -127, -80, 60, 87, 18, -25, 13, -66, -6, -70, 36, -59, -83, -69, -32, -21, -116, -1, 35, 5, 12, 81, -127, -127, -77, -12, 22, 11, 62, 57, -16, 16, 45, 50, 48, -12, 38, -8, -22, 42, 24, -9, 14, 26, 23, -10, -23, -5, -9, -43, 2, 
-88, 7, -5, 5, 56, -41, -65, -26, -10, 52, -73, 49, 27, -41, -72, 4, 85, -61, -43, 35, 25, -66, 0, 1, -111, 43, -41, -47, -11, 64, -19, 1, 42, 117, -16, -1, 25, 22, 88, -47, 17, 72, -44, 59, 112, 35, 91, 82, -61, -27, 53, 36, -7, 6, -92, 15, 38, 2, 45, 51, 2, 26, -76, 15, 
-10, 47, -6, -16, 21, 35, -18, 127, 76, -31, 85, 6, 83, 33, 38, 13, -32, -123, 17, 53, -73, 21, -36, -37, 24, -16, 26, 44, -4, -8, 1, 46, 37, -18, 10, -69, -52, -72, -17, 42, 3, 39, -47, -62, -81, 12, 30, 13, 72, -42, -61, 10, 51, -53, -18, -127, -48, 26, 32, 23, -127, -63, -33, 15, 
-5, -16, 73, -29, -54, -77, 13, 92, -16, -16, 30, 9, -19, -7, 14, 23, 127, -42, -56, -6, -46, -15, 50, 60, -56, -31, -25, 5, 17, 7, -41, -12, 44, 21, 14, -45, -103, -3, 6, 13, -45, 60, 18, 35, 33, -4, -11, 41, 1, -14, 2, -42, -39, -69, 26, 10, 3, 4, -12, 28, -57, 33, -16, -39, 
-99, -96, 47, -38, 11, -36, -8, -100, 2, 22, -127, -7, 20, -6, 67, -9, 49, 18, 91, -2, -103, -60, -10, 82, -66, 21, -26, 76, -30, -3, 25, -50, 13, 48, 35, -37, 53, 78, 75, -127, -78, -46, -94, 43, 30, -23, 22, -39, -50, 30, -27, -45, -57, -9, 50, 1, 27, -29, -21, 2, -127, 9, -31, -92, 
-44, -127, -4, 0, -28, -83, 14, 2, -79, -11, 39, -124, 62, -70, 57, -9, -111, 33, 22, -8, -41, -62, -94, 7, 1, -103, -32, -31, 114, 59, 39, -2, 0, -24, -4, 65, -69, -12, 10, -51, -127, 13, -127, -17, -113, -127, -60, -55, 40, -27, -81, -57, -8, 24, 1, 9, 11, -27, 14, -25, -56, -13, -59, 26, 
-14, -102, 2, -32, -8, -4, 43, -7, 14, -7, -58, -61, 55, 40, 75, -6, 43, 35, 11, -14, 9, -95, -17, 13, -96, -7, 27, -22, 2, 33, -10, 66, 9, 87, 6, 56, -10, 19, 17, 19, -127, -18, 39, -19, -95, -121, -21, 3, 20, 4, -21, 56, 10, -64, -14, 2, 26, 6, 12, 44, -24, 5, 31, 31, 
-32, -53, 19, 2, 60, 5, 31, 63, 18, 19, -4, -12, 43, 93, 43, 41, -5, -54, 2, 27, 3, 32, -85, 0, -38, 8, -28, -37, 37, -8, 7, 93, 25, -13, -22, -70, -67, 14, 2, 84, -127, 27, 85, -93, 12, 33, -80, 70, -1, 3, -61, 37, 59, -80, -12, -24, 9, 60, -6, 33, -80, 19, 86, -14, 
12, -23, 67, -86, -72, -127, -23, 52, -62, -127, 0, -120, -39, -127, -30, -45, -69, 43, 68, -127, 46, -88, -51, 55, -38, -22, 102, 49, 37, -20, 11, 120, 4, -98, -8, 117, 15, -120, -56, -18, -127, -17, -75, -32, 31, -18, 2, -23, -28, -51, -115, 22, 25, -84, -93, 70, 59, -127, 34, 4, 16, 15, -19, 9, 
-10, -48, -24, -51, -53, -65, 45, -15, -127, -127, 24, -127, -9, 127, 34, 9, -127, 95, 37, -61, 46, -60, -13, -7, -6, 34, -8, 83, -30, 48, 5, 85, -7, 4, 33, 34, 15, -59, -127, 14, -126, -9, -4, -8, 14, -127, -50, 26, -6, 2, -127, 46, 8, -24, -42, -10, 28, -17, 10, 51, -2, 34, 38, -12, 
37, -41, -30, 22, 23, -127, 28, 53, -105, -17, -23, -63, 14, 39, -16, -5, -127, 68, 37, -54, -4, -16, -41, -23, 72, 83, -19, 98, -18, 16, -32, -20, 1, 10, -8, -7, 37, -2, -109, 18, -127, 19, -72, -40, 19, -96, -38, 50, -11, 2, -127, 20, 36, -8, -49, -23, 0, 64, -39, 3, 18, 42, 19, -47, 
13, -62, 22, 2, 6, -24, 42, -127, -1, -127, -17, -20, -40, 25, 33, -127, -38, -57, -35, -82, -23, 46, 5, 48, -9, -122, 6, 33, 5, 15, 32, 5, -25, 14, -61, -20, -127, -60, -9, -70, -28, 2, 28, 33, -29, 39, -23, -18, 43, 20, -1, -38, -38, -4, -21, -21, -2, -127, 10, 3, -23, 37, -18, -4, 
19, -111, 89, 34, -17, 18, 28, -78, -23, -16, -3, -25, 25, 9, 23, -99, -25, 39, -55, -76, -3, -6, 28, 50, 11, -74, -3, 3, -12, -58, 1, -47, 8, -41, 6, -43, -127, -4, -37, -43, -11, -12, -50, 22, -38, -68, -15, 22, 21, -9, 24, 16, -27, -37, -8, 18, 10, 37, 16, 4, -11, -1, 39, 48, 
1, -34, 54, 91, -39, 17, 5, -102, 9, 61, 15, -54, 57, 20, -25, 59, -39, 122, 28, 5, 14, -15, -11, -19, 17, -21, -2, 52, -11, -64, -1, -26, -17, 46, 53, -75, -87, 13, 7, -31, -25, 6, -45, 10, -8, -6, -51, 0, 38, 23, 0, 20, 28, 0, -46, 4, 41, 40, -2, -1, -13, -17, 34, -29, 
-74, -107, 58, 58, 8, -53, 60, -43, -10, 12, -19, -11, 30, -114, 16, 67, -127, -27, -1, -19, -127, -13, -39, 70, 43, 7, -86, -62, 44, -127, 34, -46, -15, -26, -16, -127, -126, 3, -34, -73, -33, 41, -1, 33, 1, -49, 3, -13, -24, 0, 26, 16, -24, -19, -25, -62, 22, -11, 36, -19, -127, 65, 9, 14, 
-127, -127, 8, 37, -5, -93, 48, 24, 4, 22, 42, -17, -4, 13, 58, 31, -41, -32, 6, 5, -127, 0, -39, 59, 8, 30, -66, -21, 5, -127, -12, -85, 43, -49, -21, -42, -39, 45, -5, -94, -80, 24, 85, -18, 29, -79, -36, 5, 7, 5, 28, -4, 16, -28, 53, -11, -21, -23, 16, -10, -127, 56, -5, -28, 
-127, -78, -62, -7, 37, -12, -63, 94, -28, 20, 62, 16, -38, 52, 27, 17, 127, 8, 39, 62, -127, -23, -7, 44, 23, 16, 21, -16, -39, -48, 41, -3, 65, -55, 49, -63, 2, 28, 6, -2, -104, 40, 75, -8, 52, -84, 17, 52, -2, 30, 17, -6, 75, -108, 53, 15, -6, -4, 7, 71, -21, -37, 30, 16, 
42, -77, 44, 55, -19, -39, -22, 72, -12, 8, 7, 32, 12, 8, -60, 24, -11, -7, -22, -9, 106, 20, -8, 78, 46, -127, 8, -22, 22, 29, -45, 20, -11, -72, -2, 42, -127, -63, -69, 60, -4, 68, -127, 2, -88, 27, -127, -28, 13, -11, -62, -33, -41, 8, -103, 38, -40, 19, -105, -45, -31, -66, -23, 43, 
-64, -19, 80, -5, -6, -2, -28, 42, 24, -15, -7, -35, 33, 38, -84, 46, 92, 15, 14, -3, 58, -24, -2, -3, -3, -40, 12, -81, -59, -2, -126, 66, -32, 12, 5, -18, -22, -28, 13, 34, -28, 0, 25, 60, -99, 62, -34, -34, 66, 37, 5, -12, -19, 61, 3, 31, 1, -3, -74, -120, 49, 21, -43, -19, 
-82, 59, -82, -62, 71, 27, 19, -28, 24, 3, -70, 26, 13, -3, -62, 30, -15, -40, 25, 47, -13, -50, 30, 11, -13, 56, 0, -94, -66, -55, -43, 127, 24, 22, 26, -24, -73, 27, 1, 31, 1, 55, -29, 70, -2, 82, 104, -37, -23, 43, -26, 73, 34, 38, -32, 46, 17, -10, -20, -17, 26, -24, -22, -14, 
-34, 20, 44, -127, -127, -127, 29, 78, -17, -88, 10, -127, 40, -5, 26, 0, -18, 29, -71, -118, 95, -71, -100, 39, 59, 51, -127, 28, 70, 25, 3, 9, 8, -126, 14, 29, 67, -32, -41, 95, -72, 18, 1, 0, -75, 53, -56, -43, 0, -49, -72, -37, 30, -127, 5, 29, 18, -127, 16, 68, -20, 11, -3, -35, 
53, -33, 59, -13, 36, -33, -11, 27, -127, -69, -64, -88, 23, 121, 12, 1, -127, 27, 0, -61, 54, -102, -127, 17, 11, 48, -42, 127, 29, 49, -41, -47, 24, 44, 8, 28, 36, 5, -8, 127, -37, 6, -127, 3, -33, 25, -85, -8, 14, -14, -127, -32, 13, -40, 4, 15, -30, -19, -3, 52, 5, -1, 2, 23, 
18, 22, -22, -82, 0, -1, 22, -10, -127, -22, -53, 1, 35, 53, -4, 21, -127, -35, 53, 10, 4, -80, -127, -32, -55, 6, -47, 108, -5, 43, -42, 84, 20, 61, 42, -16, 66, 8, 16, 45, -127, 22, -127, 24, -48, -75, -66, 23, 61, 25, -127, -45, 31, -75, 25, 9, -23, 1, -32, 39, 24, -57, 1, -4, 
-51, -54, 111, -96, -66, -35, 63, -41, -18, -12, -28, 51, -66, 28, -34, 19, 121, 2, 25, 56, -9, -46, 4, 31, 66, 12, -14, -84, 60, 78, -5, -60, 38, -41, -29, -125, -2, -41, -20, -41, -21, 14, 114, 5, -35, -101, -17, -12, -6, 37, -58, -69, 56, -127, 3, -21, -13, 35, 26, 7, 34, -40, 46, 103, 
-74, -31, 110, -108, -18, -24, 21, -97, 0, 38, -18, 70, -50, 7, -6, 6, 121, 37, -5, 39, -36, -39, -36, 71, -44, 41, 4, -16, 66, 4, 42, -115, 15, 45, 12, -81, -20, 7, -12, -83, 1, 0, 127, -22, 11, -113, 6, -69, -1, 14, 18, -20, 12, 22, -16, 6, 8, 55, -23, -6, -123, -32, 10, 15, 
-127, -34, 37, -77, -30, -45, -12, -65, -18, 17, -21, 31, -47, 23, -47, 28, -12, 13, -4, -29, -100, -67, -2, 24, -127, 34, 41, 60, 79, -88, 34, -99, 33, 52, 25, -65, -7, 16, 22, -32, 6, -9, -56, -112, 5, -127, -20, -80, -20, 14, 37, 30, -22, 11, -20, 24, -2, 37, 15, -43, -127, -74, -32, -77, 
19, -16, -4, -127, 63, -68, -3, -84, -127, -2, 13, -106, -59, 14, -113, 8, -127, 83, -28, 31, 59, -127, -127, -7, -1, -14, 21, 14, -20, 21, 34, -48, -127, -26, -49, 23, 90, -14, 34, 35, -127, -127, -127, -127, -119, -127, -1, -127, -72, -39, -127, -119, -45, -9, -11, 5, -43, -35, -22, -116, 19, -56, -33, -127, 
-1, 26, 17, -71, 26, -11, 30, -40, -127, -1, -6, -11, 16, 78, 74, 27, -127, 82, 7, 24, 65, -23, -17, 12, 22, 36, 34, 127, -118, -8, -68, 47, 6, -25, 37, -37, 30, -12, 2, 45, -127, -6, -93, 32, -64, 40, -6, 13, 53, 6, -114, 13, -14, -37, 32, 16, 9, 11, 54, -29, -53, 53, -3, -28, 
0, 36, 37, 52, -2, 6, 69, 14, -19, -5, -89, 41, 35, 34, -127, -34, 27, -49, 3, 6, -31, -1, 15, -18, 43, 32, 15, 127, -93, 47, -115, 77, -60, -34, 20, -26, -34, -12, -22, 18, -44, 13, 80, 46, -45, 83, 25, 7, 47, 5, -50, -4, 62, 15, 49, 8, 11, 12, -72, 31, 15, 81, 45, 62, 
0, 0, 0, 0, 0, 0, 0, 0, 0, 0, 0, 0, 0, 0, 0, 0, 0, 0, 0, 0, 0, 0, 0, 0, 0, 0, 0, 0, 0, 0, 0, 0, 0, 0, 0, 0, 0, 0, 0, 0, 0, 0, 0, 0, 0, 0, 0, 0, 0, 0, 0, 0, 0, 0, 0, 0, 0, 0, 0, 0, 0, 0, 0, 0, 
0, 0, 0, 0, 0, 0, 0, 0, 0, 0, 0, 0, 0, 0, 0, 0, 0, 0, 0, 0, 0, 0, 0, 0, 0, 0, 0, 0, 0, 0, 0, 0, 0, 0, 0, 0, 0, 0, 0, 0, 0, 0, 0, 0, 0, 0, 0, 0, 0, 0, 0, 0, 0, 0, 0, 0, 0, 0, 0, 0, 0, 0, 0, 0, 
0, 0, 0, 0, 0, 0, 0, 0, 0, 0, 0, 0, 0, 0, 0, 0, 0, 0, 0, 0, 0, 0, 0, 0, 0, 0, 0, 0, 0, 0, 0, 0, 0, 0, 0, 0, 0, 0, 0, 0, 0, 0, 0, 0, 0, 0, 0, 0, 0, 0, 0, 0, 0, 0, 0, 0, 0, 0, 0, 0, 0, 0, 0, 0, 
7, -127, -23, -52, -1, -71, -54, 124, 70, 65, -127, 23, -125, -59, 80, 16, -127, -14, -40, -54, 87, -32, 20, 49, -17, -15, -32, -8, -73, 34, 55, -91, 105, -64, 62, 64, 78, 85, 1, 65, -50, 117, -46, -9, 8, 12, 11, -18, -72, -11, 59, 127, -127, 14, 28, 4, -15, -127, 19, 31, -27, -50, 40, -33, 
-84, -38, 73, 39, 33, -44, -24, 58, 0, 14, -52, -66, -98, 26, 2, -43, 64, 97, -13, -99, 18, 49, 11, 39, 21, -58, 4, 5, 35, 32, -15, -68, -1, 38, 27, -37, 54, -32, -8, 59, -6, -14, -92, -1, 10, -7, -83, -44, 69, 39, 5, -3, -31, 6, 4, 4, -19, -50, -57, -36, 5, -48, 25, -27, 
-89, 24, 38, 88, -15, -47, 73, 48, -32, 17, -63, -31, -127, 59, -119, -7, 83, -4, -17, -65, -127, 7, 45, 21, 71, 51, -18, 17, 62, -121, -25, -90, -122, 39, -39, -59, -127, -61, 11, 23, -14, -63, 51, -49, -23, -127, -100, 8, 66, 23, -6, -39, 33, 51, -107, 21, -20, 32, -53, 11, 0, 76, -50, -11, 
-127, 61, -109, 44, 34, -16, -62, 21, -10, 30, 19, 30, 53, -89, 36, 0, -127, -127, 53, 42, -14, -21, -41, 19, 19, 31, 75, 26, 10, 13, -28, 66, 1, -112, 39, 10, 54, 57, 33, 49, -30, -38, -127, -6, 56, 19, -21, 1, 7, 19, -14, 18, 35, -91, 3, 94, 2, 49, -7, 30, -109, -42, -3, 38, 
-73, -11, -55, -8, -28, -127, -1, -33, 7, -18, -123, -8, 17, -40, 53, -29, -3, -102, 16, 16, 53, 7, 0, -25, 33, -29, 15, 29, 70, 18, 26, 34, 28, -127, -68, 50, -21, 10, -32, -28, 18, -17, 91, 22, 44, -2, -38, 7, 28, -53, 7, -13, -28, -47, -40, 87, 9, 3, 1, 8, -46, 13, -37, 27, 
17, -127, 2, -32, -42, -127, -14, -89, 30, -56, -127, -14, -33, -97, 36, -82, 120, 17, -7, -2, 97, -41, -19, 33, 5, -2, -93, 53, 20, -96, 38, -62, -8, -74, -127, -44, -12, -32, 17, -45, -15, 15, 17, 22, 2, 19, -3, -25, 66, -51, 9, -101, -93, -71, -116, 41, 60, -13, 3, -7, 26, 8, -20, -2, 
31, 22, 42, 26, 11, -12, 14, 33, 24, 0, 32, -5, 24, -41, -34, 57, -8, 38, -90, 12, -10, -18, 50, -45, 58, 29, -108, -47, -43, -42, -76, 76, -50, 4, -50, 15, 25, 22, -35, 6, -26, -70, 93, 9, 1, 1, -19, 19, 78, 64, -17, -4, 31, 13, 20, 30, 13, -22, -37, 27, 49, 69, 20, 26, 
-8, 3, 33, -23, -15, -46, 26, -44, 43, -54, 5, -55, 43, -41, 24, 26, 73, 30, -101, 3, -6, 10, 9, 50, 58, -38, -48, 73, -5, -103, 6, 36, -13, 38, -58, 24, 42, 36, -34, -26, 16, -27, -127, 9, 17, -16, -38, -34, -8, 9, 6, -40, -59, 29, 53, 0, 12, -19, 7, 2, 38, 28, -20, -7, 
-40, -127, 18, -125, -42, -46, 0, -21, 14, -39, -50, -18, -21, -45, 44, -13, -127, 113, 66, -43, 58, 8, -52, 73, 23, -59, 0, 62, 43, -68, 37, 17, -2, 25, 15, 22, 64, -37, 8, -97, -9, -39, -127, -30, 21, -1, -30, -36, -90, 4, 16, -41, -85, 11, -30, -15, -11, -111, -2, -45, 6, -5, -46, -52, 
-55, 15, -124, 25, -4, 7, -41, 80, -24, 45, -8, 47, 1, 41, -127, 35, -30, -2, 70, 60, -118, 50, -75, -4, -41, 19, -1, -127, 29, -45, 120, -66, -127, -87, -12, -6, -32, 26, 54, 49, -33, -15, -22, -32, -6, 28, 80, 3, 53, 25, -65, -10, 51, -1, 53, 36, 13, -1, -122, 38, -88, -8, -28, -22, 
-33, -20, -77, 19, -26, -29, 42, -14, -73, 19, 22, 10, -7, -127, -55, 17, 15, 22, 28, 18, -127, 55, -53, 8, -11, 23, -28, 34, -53, -92, 118, 0, -62, -76, 2, 22, 9, -56, 17, 23, -115, -26, 36, 9, 43, 127, 104, 14, -17, -81, 15, 31, 40, 3, -5, -4, 34, 0, -30, 22, -4, 33, 2, -1, 
9, -44, -86, -70, -78, -15, 24, -76, -35, -48, -24, -61, -26, -127, 104, -102, 84, 60, -109, -39, -127, 83, -67, 15, 59, -48, 0, 127, -127, -127, 68, -74, 31, -61, -127, 46, -9, -127, -28, 30, -127, -106, 35, 0, 12, 73, 35, 31, -34, -127, -12, 34, 9, -60, -19, -98, -49, 25, 56, -1, 82, 17, 1, 0, 
-47, 31, -27, -5, 22, -5, -125, 84, -27, 10, 43, 17, 4, -12, -127, 35, 127, -51, 13, -25, -127, 30, -42, -10, 33, -18, 46, 4, -6, -75, -30, 8, -127, -11, -11, -40, -127, -16, -2, 30, 6, 5, 8, -13, 24, -30, -61, 58, 88, 5, -71, 10, 3, 68, -127, 19, -34, 15, -15, -39, -21, -47, 9, 75, 
-116, 29, -28, 20, 19, 29, -81, 23, 1, 22, 116, -28, -34, -24, -127, 47, 45, -78, -34, -8, -127, 1, -31, 57, 9, -127, 18, -71, -9, -87, 38, -54, 1, -33, 5, 11, -127, -23, -33, 17, 23, 59, 14, 97, -37, 127, 17, -49, 65, -3, -2, 52, -32, 89, -97, -2, -46, 12, 18, -108, -53, 33, -76, -14, 
-127, 70, -53, -32, 26, 12, -101, -101, -24, 22, 32, 25, -10, 14, -63, 48, 52, -28, 51, -5, -127, -18, -25, 63, -37, -9, -3, -56, -66, -71, 13, -45, -56, -1, 65, -4, -43, 33, 4, -57, 4, -64, -79, 5, -127, -21, 0, -101, -25, 83, -19, 52, 31, 1, 36, -10, 28, 60, 60, -83, -112, 66, -18, -68, 
27, -23, -56, 8, -105, -5, -4, 103, 54, 60, 23, 20, 60, 7, -20, -14, 10, -27, 11, 31, -55, 28, -63, -51, -15, 51, 31, 1, 74, -93, 69, 15, -1, -127, -47, -122, -127, -29, -28, -32, 75, 55, -58, -68, -32, 50, -94, 3, 42, -63, -13, 56, 11, 13, -127, 5, -80, 50, 24, -22, 0, -127, 18, -52, 
83, 11, 89, 12, -29, 5, -11, 96, 36, -20, 68, -56, 56, -61, -110, 79, -18, -3, -43, 9, -39, 14, -6, 32, -89, -99, 44, 38, 4, -60, -17, -124, -30, -13, -41, 45, -90, -44, -81, -10, -25, 99, -41, 48, 0, 10, -48, -12, 25, -18, -32, 4, -46, 0, -63, 11, -16, 12, -58, -65, 62, -28, -45, -57, 
-63, 62, -40, -17, -30, 22, -30, -127, -22, 44, -57, -49, 15, 35, -97, 66, 23, 19, -36, 11, -39, -53, 39, 45, -127, -57, 10, 14, -65, -108, -53, -13, -3, 72, 34, -12, -28, -10, 65, -90, -76, -10, 127, 53, 28, 18, 53, -94, 1, 28, 14, -27, -49, -3, -36, 72, 68, 47, -127, -69, -24, 8, -47, -109, 
-67, -68, 15, -28, 46, -4, -8, -26, 12, 45, -12, 13, 0, -4, -2, -11, -61, -45, 35, 5, -127, 29, -41, 8, -24, -63, 13, -75, -86, -127, 41, 110, -57, 58, -41, -33, -119, 19, -4, -45, 8, -83, -67, 21, 2, 127, 93, -9, -41, 62, 6, -4, 25, -18, -47, 52, 49, 9, 23, -8, -92, 23, -18, -85, 
-48, 8, -23, 5, -44, -28, 28, -11, 7, 8, 22, -2, 20, 20, 53, 22, -9, -11, 21, 27, 3, 36, -30, -4, 25, 17, -20, -31, -70, -64, 4, 67, -28, 13, 39, 1, -18, 14, 32, -60, -31, 3, -89, 20, -42, 102, -45, 1, 41, 51, 16, -7, 56, -49, -15, -4, 32, 3, -34, 15, 7, 36, -35, -26, 
-18, 41, -26, 6, -32, -44, -4, -19, -102, -43, 8, -14, 9, -9, -43, 70, 13, 52, -6, 33, -66, 4, -49, -1, 29, -6, -40, 44, -94, 20, 51, -48, -27, 38, 30, 32, 23, 28, 36, -28, -95, -62, -26, 52, 12, -21, -62, 15, 0, 35, -10, -28, 39, -102, 3, -5, 15, 54, -30, 23, 63, -13, 58, -35, 
14, -13, -55, -17, 25, 23, 56, -30, -32, -1, 61, 63, 25, -46, 19, -17, 110, 11, -20, 35, -127, -15, -18, -22, 41, 35, 29, -11, 15, -59, 33, -60, -22, 25, 25, -87, -52, -9, -27, 42, -7, 0, 72, -11, -19, -17, -32, 34, 23, -9, -18, 32, 35, 49, -40, -58, -41, 105, -6, -62, 70, 0, -16, -34, 
-67, -70, 101, 0, 1, 7, 34, -37, 16, -7, -9, 16, 39, -78, 7, 32, 37, -45, -14, -11, -65, -2, 5, -4, -68, 11, 17, -28, 7, -41, 0, -33, 48, 4, 2, 11, -8, -3, 38, 47, 20, 42, 83, -6, -23, -63, -10, 21, -10, 27, 16, -7, -35, 40, 13, -37, 1, 17, 16, -27, -57, -7, 26, -26, 
-127, -124, 106, 20, 26, 15, -96, -14, 12, 42, -63, -3, 10, -72, 62, 41, -127, -127, 27, 1, -119, -49, 26, 33, -87, -2, 69, -27, 4, 49, -19, -2, 5, 38, 24, 31, 1, 18, 48, -15, 34, 78, -97, 14, 48, -57, 49, 52, -83, 43, 0, 40, -21, -1, 52, 42, 12, -57, 24, 11, -121, -60, -4, -47, 
-35, 18, -72, 44, 28, -9, -19, -44, -74, 47, -23, 43, 12, 25, -7, -2, 7, 22, 66, 40, -4, -15, -10, -68, -9, 42, 25, -83, 28, -37, -31, -50, -127, -44, 44, -3, -51, -14, 34, -27, 58, -9, -39, -24, -19, -52, -120, -1, -10, 52, -48, 3, 68, 91, -66, 76, -74, 68, -105, 27, -30, -59, 24, -76, 
33, 23, 25, -8, 11, 1, 19, -17, 40, 27, -21, -12, 35, -11, 46, -11, -38, -4, 2, -5, 18, -14, 5, 69, 0, -5, 10, 39, -2, -81, -73, -39, -31, -9, 10, -44, -50, -8, 24, -28, 50, -35, 37, 24, -56, 30, 14, -1, 58, -10, -35, 0, 18, -12, -18, -11, 5, 0, -18, 2, 32, 20, -4, -23, 
5, -7, 51, -45, 40, 4, 40, 13, -15, -25, 20, -49, 38, -118, 27, 12, -76, -33, -49, -18, 8, -23, 12, 103, 11, -48, -25, -26, -33, -38, -92, 21, -17, 17, -17, -19, -33, 26, -53, 47, -15, -40, -6, 56, -52, 59, 74, 1, 58, -30, -94, 25, -25, -87, 64, -84, 41, -64, 57, 8, 34, 17, -8, 3, 
103, -31, 103, 38, -38, -28, 15, 91, -63, -29, 18, -45, 2, -51, -120, 7, -52, 59, -7, -23, 127, 50, 1, 111, 18, -69, -21, 127, 104, -11, -21, -127, -66, -19, -23, 4, 65, 25, -18, 31, -27, 25, -88, -29, -62, 14, -74, -41, 108, -27, -27, -14, -39, 14, 3, 35, -13, -34, -127, -62, -34, -6, -29, 4, 
-1, 43, 74, -35, 42, 8, -22, 49, -63, 14, -18, 6, 31, -34, -94, 20, -2, 20, 44, 14, -71, -69, -48, -4, -49, 63, -9, -72, -69, -92, -127, 73, -72, 72, 25, 10, 5, 15, 3, 59, -46, -15, 68, -47, -3, 2, 26, -28, 11, 5, -24, 1, 64, -61, 12, 20, -15, -15, -18, -17, 38, 10, 10, 17, 
-52, -51, -110, -4, 2, -50, 37, -31, 108, 3, -84, 63, 5, 32, -49, 28, -22, -127, -25, -25, -49, -49, 8, -37, -6, 29, 0, -121, 11, -17, 61, 77, 68, 42, -57, -46, -127, -21, 1, 87, 45, 69, -44, 51, 44, 9, 62, 1, -62, -9, 36, 24, 0, 13, 7, 27, -36, 11, 42, 37, -25, -8, 0, 54, 
-27, -37, 83, -41, -4, -127, 41, -12, -127, -111, -4, -127, -41, -127, 38, -20, -122, 39, -79, -78, 19, -61, -12, 37, 7, -5, -127, 62, -15, 5, 2, -40, -26, -42, -8, 68, 0, 62, -20, -5, -127, -42, -103, -55, 26, 0, 11, -72, 17, 78, -127, 5, -32, -127, 93, 70, 115, -127, -8, 70, 9, 69, -33, 20, 
17, -111, 29, 82, -38, -127, -6, -5, -127, 45, -21, -127, 41, 82, -4, 48, -127, 120, -105, -75, -20, -52, -42, -5, 35, 63, -127, -94, -7, -105, 37, -93, 0, -83, -46, -18, -127, 59, -20, 21, -120, -9, -49, 12, -21, -127, -37, -57, 43, 65, -127, -32, 40, -25, 15, 54, 3, 15, -8, 8, 24, 25, 41, -38, 
14, -127, -46, 127, -81, -127, -38, 13, -127, 119, 24, -50, 64, -127, 16, 80, -108, 122, -29, 5, -1, -33, -119, -14, 21, 85, -127, -2, 28, -118, -25, -126, 2, -89, -5, -109, -127, 18, 69, -12, -127, 0, 58, 38, -42, -127, -62, -18, 66, 63, -127, -13, 54, 40, -40, 50, -78, 127, -11, -16, 12, 3, 97, -41, 
31, 72, -55, 16, 62, 76, 14, 66, -40, -4, 27, -8, 53, -18, -57, 19, -20, -4, 50, 57, -116, 32, -38, 18, -4, 11, 79, -127, 71, -127, 103, -78, -59, -68, 127, -29, -113, -41, 55, 52, -62, 45, -29, 60, 47, -127, 56, 49, 35, -15, -25, -47, 6, 122, 48, 83, 48, 29, -100, 32, -17, 21, -26, 32, 
-9, -63, -34, -13, 45, 26, 12, -7, 10, -45, 63, -44, 4, -127, -23, -80, -12, -50, -40, 6, -71, 33, 11, 21, -26, -34, 70, -77, 19, -127, -5, -65, -14, -127, -23, 0, -111, -63, 14, 46, -3, -8, -5, 21, 41, -82, 47, 21, 40, -127, 1, -50, 19, -6, 15, 32, -7, 8, 3, 4, -4, 30, -2, 1, 
3, -67, -27, 9, -71, -62, 61, 13, -23, -127, 35, -91, 22, -127, 52, -111, -59, 1, -82, -127, 43, 1, -16, 53, 27, 31, -62, 85, 20, -127, 33, 6, 1, -127, -127, -43, -127, -127, -86, 44, -19, 5, -77, -38, -35, -127, -27, -44, -13, -127, -30, -116, 20, -75, -33, -10, -35, -36, 53, -20, 3, -11, -11, -37, 
-11, 19, -13, -127, 36, 19, -44, -37, 19, -40, 24, -127, -90, 28, 65, -36, -112, -26, -20, -9, 83, -18, 68, -90, 22, 41, 6, -43, -33, 4, 87, -101, 61, 6, 0, -33, 87, -28, -7, -92, 18, -18, 23, -81, 40, -7, 14, -121, -29, -33, -15, -28, -46, -47, 68, -4, 53, -116, 21, -102, -2, 60, -42, 25, 
33, 25, -2, -77, 3, 49, -58, -71, 35, 1, 42, -106, 47, -2, 7, 10, -53, -23, 22, 31, 93, 1, 56, -59, -32, -14, 21, 22, -71, 10, -13, -92, -5, 51, -12, -2, 87, 18, 15, -41, -7, -70, 24, -66, 2, 21, 29, -64, 38, -14, -5, 33, 38, 11, 18, 21, 31, 12, -13, -58, -31, 6, -29, -120, 
32, 52, 73, 5, 10, 71, -48, 29, 12, 37, 47, -28, 74, 7, -123, 33, -17, 21, 46, 10, -10, 113, 22, -62, -17, 5, -14, 16, -33, -32, -73, -115, -127, 63, 8, -24, 7, 36, 10, -87, -18, -16, 1, -64, 8, -67, -12, -29, 98, 32, -17, 14, 61, 56, 22, 39, 8, -9, -123, 3, -4, -34, -16, -125, 
6, -23, -22, -15, -9, 79, -14, -44, 13, 22, -7, 39, 21, 75, -33, 16, -55, 17, 86, 14, -21, 0, 18, 7, -6, 28, 108, 36, 20, 18, 72, -73, 15, -9, 51, -43, 47, 28, 55, -93, 35, -98, 127, -25, 24, -81, -10, 24, -73, 7, 52, -14, 44, 0, 23, 64, 17, 27, 71, -5, -38, -35, 3, -42, 
-7, -48, 22, 41, 0, 4, 41, 58, -10, -30, -11, -1, 27, -60, 12, -26, -27, -2, 32, 19, 37, 35, -14, -34, -3, 33, 40, -50, 27, -117, 13, -42, -8, -127, -14, -74, -52, -47, -31, 3, 46, 22, 127, -11, 8, -28, -40, -23, 6, -61, -37, -40, 30, 0, 11, -5, 5, 3, -5, -9, -24, 29, 11, -1, 
22, -32, 41, 45, -46, -51, 1, -3, -93, -65, 0, -49, -48, 37, 10, -3, 30, 40, -78, 18, 48, 11, -45, 39, -39, 27, -40, -43, -29, -57, -84, -127, 80, -40, -119, 7, -127, -54, -29, -92, -22, 80, 40, 45, -24, -55, 12, 12, 2, -67, -65, -60, -33, -44, -51, -82, 85, -10, -69, -35, 69, 28, 5, -27, 
31, -3, -17, 49, 13, -9, 54, 64, -5, 46, -10, 12, 29, -15, -36, 49, -3, -56, 15, 38, -89, 17, -33, -4, 3, 3, -6, -34, -35, -116, 24, -14, 8, -56, 43, 7, -43, 21, 13, -3, -16, -22, -34, -49, 3, -37, -67, 10, 26, -4, -16, 40, 31, -1, -48, 43, -44, -19, 22, -5, -94, -15, 41, 19, 
-17, 6, -41, -38, -40, -18, -29, 63, -15, 18, 8, -37, 46, -25, -33, -15, 64, -52, 22, -1, -127, 16, -71, 7, -16, -26, 64, 3, 20, -127, 13, 74, -3, -16, -20, 18, -55, 12, 0, -37, 9, 4, 16, -58, -15, -18, 30, -35, 43, -19, 6, 22, -12, 15, -42, 41, -10, 12, 48, -49, -32, 18, -21, -17, 
-97, 92, 1, -69, 0, -26, -40, 64, 45, 8, -8, 12, 6, -22, 0, 46, 81, -40, 29, 8, -93, 19, -67, -1, -2, 10, 43, -6, -36, -57, -2, 40, 2, -53, -18, 50, -40, 42, 7, 15, -21, -18, 37, -55, -75, -50, 36, -25, 28, -4, 14, 0, -31, 37, 56, 31, 17, 46, 53, -45, 0, 31, -20, 41, 
87, -47, 24, 35, 43, -74, 46, -81, -127, -26, -49, -14, -36, 21, -127, -11, 60, 36, -10, 4, -127, -115, 35, -45, -12, -6, 11, -79, 17, 81, -11, -24, -127, -38, -55, 16, -112, -3, -35, 89, -83, 26, -93, 127, 80, -47, 43, 53, -54, -20, -34, -48, -6, -17, -51, 9, -3, 34, -127, 66, 127, -24, -16, -63, 
85, -21, 37, 12, -24, 25, 8, -32, -82, -11, 16, -56, 61, 105, 70, -62, 18, 37, -42, 46, 127, 17, -19, 127, -26, -46, 35, 70, 8, -15, -16, -127, 99, -31, 7, 49, -85, -4, -5, 15, -47, -11, -4, 69, 6, 82, -28, -59, -12, -31, -54, -2, -26, 9, 27, -11, 6, 7, -90, 23, 10, -21, -22, -115, 
-31, -23, 7, 49, 55, 39, -57, 19, -78, 12, 63, -14, 36, 11, -72, 11, 98, 92, 5, 39, 101, 62, -40, 7, 0, -16, 1, -34, -70, -93, -127, -68, -127, 6, 37, -76, -108, -21, 40, 13, 27, -29, 47, -67, -40, -69, -65, -63, 19, 30, -35, -5, 51, -22, 61, 4, -16, 48, -127, -8, -21, -4, 57, -94, 
-10, -22, 16, -127, -4, -28, -27, 5, -7, 13, 34, -28, -61, 41, 112, 1, -115, -19, 70, 2, 127, -98, 26, 14, 40, 18, 6, -32, 54, 51, 72, 73, 43, -70, 29, -14, 9, 6, -17, 3, -65, -44, 4, -127, -45, -127, -9, -50, -30, 26, -52, -54, 5, -127, 6, 11, -19, 0, 68, -1, -16, -21, 19, -94, 
18, 39, -4, 10, 6, -3, -28, 9, -127, 12, -54, 10, 16, -71, 22, -27, -96, -40, 62, 10, 92, 0, -25, -19, 6, 29, -44, -127, 9, 9, 0, 48, -50, -4, 27, -4, 9, 15, -8, 1, -59, -1, 93, -127, 17, -30, -22, 33, 68, 15, -91, -26, 62, -55, 27, 9, 34, 15, -45, 11, -23, -9, 34, -56, 
25, 30, 40, -32, 22, 21, -16, 97, -127, -54, 14, -33, 0, -64, -55, -21, 44, -119, -70, -2, 36, 26, -66, -38, 39, 20, -42, -37, -127, -3, -117, -7, -119, -40, -27, 62, -19, -64, -49, 12, -127, 50, 18, -12, 31, -68, -12, 45, 75, -101, -6, -35, 66, -75, -30, -47, 19, -21, -100, -18, 41, 34, 14, 25, 
40, 13, 95, 23, 37, -33, 19, 121, -95, -1, 93, -39, -6, -33, -17, 11, 41, 0, 30, 41, 122, -16, -127, -64, 36, -2, 2, -113, -37, -59, -87, 54, -127, 33, 33, 46, 2, -34, -33, -3, 15, 27, 127, -68, -7, -127, 12, -41, 66, 29, -56, -15, 31, -52, 27, 38, -11, 24, -121, 0, -35, -6, 44, -1, 
14, 29, 78, -5, 84, -28, -9, -10, 51, -11, -23, -1, -24, -127, -4, 37, 4, -63, -41, 16, 76, -27, 9, 45, 19, 18, -8, 2, -12, -51, -17, 31, 12, 21, -67, 54, -86, 4, -20, -4, 51, 30, -97, 26, 53, 11, -20, 4, -1, 31, 29, -8, 40, 18, 14, -8, 6, 42, -11, 12, -12, 0, 6, -26, 
-23, -105, -12, 20, -37, -82, -5, -47, 28, -8, -127, -30, -28, -31, -16, -7, 50, -38, -89, 10, 111, 10, 43, 15, -26, -38, 0, -15, 52, -28, 50, 37, 46, 48, -81, -52, -87, -4, 51, -46, 37, 51, -13, 40, 26, -36, -8, 9, -24, -3, 54, 17, -106, 63, -17, 52, -25, -11, 18, 3, -35, -13, -27, -57, 
23, -77, 63, 3, -127, -58, -20, 27, -127, -127, 65, -127, 39, 88, 42, -62, -127, 79, -20, -127, 102, -39, -127, 29, 48, -127, -127, -56, 0, 54, -36, -80, -25, -15, 4, -44, -127, -60, -21, 62, -127, 3, -62, -34, -127, -55, 47, -61, 25, -77, -127, -51, -12, -127, 5, -57, -127, -127, 4, 19, -4, -127, 49, 23, 
42, 55, 45, 75, 0, 7, 17, 17, -127, -52, 12, -127, 30, 54, 39, 17, -127, 31, 38, 3, 67, -3, -127, 36, 18, -62, -85, 2, 31, 44, -29, -51, -15, 25, 23, -20, -45, -17, -36, 62, -127, -6, -127, 4, -31, -27, 0, 10, 4, 10, -127, -73, 52, -127, 31, 13, -50, 40, 8, 47, 23, -88, 37, -5, 
36, -51, -7, 15, 25, -73, -28, -8, -127, 29, -38, 29, 7, -5, -28, 74, -127, 9, 38, 11, -11, -9, -3, -36, -29, 42, -57, 44, -32, -8, -33, -75, -40, 90, 1, 24, 94, 39, -11, 122, -127, 40, -127, 9, 70, 78, -20, 46, 53, 19, -67, -102, 10, -127, 67, 53, 36, -55, 5, 21, -4, -50, 45, 1, 
-25, 17, -21, -127, 22, 45, 3, -127, 56, -61, 2, -127, -127, 41, 9, -6, 2, -38, -22, -127, -13, -18, -19, -72, 11, -104, -2, -52, -122, -110, 14, -127, -32, 26, -4, 40, 41, -20, -32, -120, 21, 35, 43, -127, -7, 2, 43, -71, -58, 42, 49, -69, 22, -8, -18, 4, 13, -53, 39, -49, 23, 57, -111, -60, 
-35, 1, 28, -89, 18, 3, 6, -54, 3, 9, 25, -51, -2, 51, 13, 20, -10, -7, -16, -37, 127, 66, -21, 36, 63, -127, -3, 38, -84, -74, 22, -127, -29, -21, 43, 11, -19, 9, -13, -10, 12, 59, -5, -52, -40, -12, -33, -3, 43, 18, -15, 13, -12, 29, -31, 13, 26, 7, -23, -96, -11, 7, -18, -34, 
-37, 56, 72, 63, 27, -16, -10, 3, -88, 19, 74, -30, 115, 0, -119, 47, -50, 57, 39, 38, -25, 71, -43, 18, 28, -87, -27, 16, -13, -73, -27, -26, -78, -23, 40, -52, 2, 47, 57, -45, -6, 127, -30, 46, -29, -35, -52, 17, 127, 37, -80, 54, 64, 50, -19, -1, -4, 26, -127, 35, -33, -19, 33, -41, 
-71, -44, -66, 19, 86, -66, -2, 13, -7, 71, -66, 26, 60, -127, 72, 28, -127, 2, -65, 61, 26, -48, 22, 13, -3, -38, -4, -89, 0, -51, 9, 64, 18, -45, -5, 63, 39, 43, -35, 51, -49, -55, -127, 22, 11, 30, -37, -14, 19, 17, -5, 12, -20, -85, -6, 24, 2, 39, 24, 1, -53, 10, 46, 48, 
-13, -127, -41, -28, -52, -97, 10, -74, 10, -4, -127, -2, -12, 57, 50, -44, 19, 39, -104, -18, 56, 18, 25, 5, 36, -58, -16, -10, 32, 127, -8, 24, 18, -115, -48, 88, -111, -64, -1, 16, -22, -32, -26, -9, 6, 94, -17, 34, 37, -14, 17, -63, -42, -76, -36, 9, 11, -26, -38, 44, -9, -8, 34, 1, 
20, -125, 39, -36, -74, -67, 40, -55, 27, -50, -71, -57, -50, 18, -44, -56, 127, 43, -46, -55, 0, 24, 13, 1, 34, -3, -14, 47, 33, 62, -71, 0, -33, -117, -118, 54, -112, -72, 23, -40, 7, -14, 93, 18, -13, 114, -71, 14, 111, 16, 28, -50, -28, -35, -127, 18, 0, 25, -44, 35, -32, 19, 74, -20, 
-20, -127, -127, 30, -107, 78, 66, -22, 8, -60, 33, -79, -127, 32, -36, 73, -59, -14, 56, -127, -74, 71, 50, 10, 43, -127, 39, 9, 68, 71, 69, -47, 28, -7, 26, -47, -127, 14, 104, -29, -10, 8, 20, 0, -10, -2, 59, 34, -45, 42, -25, -96, -3, -25, -127, 99, -9, -127, 9, 52, -55, -10, -91, -19, 
-5, 12, -127, 54, -11, 15, 47, 53, -16, 34, -7, -92, -127, 36, -98, -36, 53, -33, 97, -82, -51, 81, -42, 11, -5, -103, 29, -66, 11, -1, 41, -79, 16, -96, -50, -69, -127, 10, 77, 60, 47, 56, 69, -30, -28, -25, 12, -8, 34, 33, -5, -62, 50, -43, -127, 43, -18, 0, 17, -55, 66, 26, -72, -26, 
-1, 67, -47, 51, 8, 21, 34, 93, -33, -68, 65, -119, -96, -117, -77, 26, 58, -77, 29, -30, -127, 53, -29, 50, -13, -21, -19, -106, -20, 22, -21, -106, -8, -127, -65, -16, -127, -127, -83, 78, -10, 110, -12, 29, -37, -17, 8, 52, 13, -60, -11, -44, 31, -3, -127, -106, 23, -23, -43, -66, 71, 14, -53, 38, 
2, -127, 20, 6, 10, -3, -3, 33, -9, 28, -20, 21, 32, -76, -3, -18, -101, -84, -33, 17, 36, -66, -10, 76, -49, -118, -14, 31, 6, -19, 34, -127, 22, -59, 11, 77, -127, 70, 2, 73, 14, 83, -80, -12, 34, -66, 9, -127, -110, -5, -42, 13, -39, 9, -20, 8, 61, -54, 23, 7, 24, 51, -63, -54, 
36, -127, 31, 37, 26, 13, -61, 16, 18, 4, -22, -71, 32, -31, -15, -17, 94, -70, -6, -6, 65, -27, -44, 26, -24, -52, 30, -11, 35, -36, -5, -127, -46, -35, 10, 36, -127, 27, -7, -36, 23, -44, 0, -87, -86, -36, -57, -127, 82, -13, -4, -25, 35, 7, -22, 25, -30, -61, 13, -127, 9, 56, -12, -33, 
-19, -53, 56, 23, 33, -19, -17, -15, 28, 0, -4, 68, 6, -35, 18, 53, 83, -9, 22, 41, 12, -30, -20, -38, -22, 67, 10, -42, 26, -54, -31, 40, -86, 9, 48, -48, -61, 52, 14, -28, -16, -58, 74, -23, -10, -80, -92, -52, 64, 5, -47, 19, 45, 64, -3, 0, -14, 60, -12, 19, 10, 45, 19, -41, 
};

const int8_t MagnetometetNetworkInt8_layer_12_bias[] = {
2, 20, 19, 35, -25, 47, -13, 3, 14, -93, -6, 52, 7, -9, 27, -8, 11, 40, 49, -9, 23, 18, 61, -35, 30, 78, 40, 2, 74, 26, -23, -18, 15, 34, 67, -6, 15, -11, 3, 53, 0, -9, 1, -16, -18, 18, -13, 0, -16, 67, 10, 47, 25, -25, -24, 44, 22, -31, 6, 3, 44, 27, -9, 17, };


const int8_t MagnetometetNetworkInt8_layer_15_weights[] = {
99, -10, -4, -8, -14, 7, -6, -20, -2, 17, -27, -29, 2, -44, -39, -6, -21, -29, 92, 23, 32, -41, 31, -5, 8, 13, -25, 17, -11, 43, 15, 3, 8, 103, 25, -4, -3, 38, -5, 15, 0, -29, -7, -96, -30, 17, 6, 10, 21, -59, -10, 127, -25, 2, -31, 30, 40, -41, -37, 64, 2, -33, 12, -31, 
-73, 48, 60, 53, -29, 82, -21, -16, -91, -102, -61, -39, 48, 45, 17, -104, -58, 3, 19, 41, 49, 16, -14, -51, 21, 16, -95, -71, 39, -27, -18, -66, 53, -46, 31, -73, 50, -127, -40, 91, 0, 52, 59, 17, 121, 45, -12, -15, -28, -4, -1, -94, 75, 76, 49, -49, -30, 114, -16, -127, 74, 95, -32, 56, 
-19, 38, -7, -69, 84, 16, 48, 37, -27, 84, -34, 109, -47, 37, -59, 32, -32, 21, 88, -94, -19, 57, 44, 98, -127, 36, 48, 103, 20, -84, -118, -34, -83, -22, 21, 113, -92, 75, 119, -75, 0, -127, -101, 54, -30, -118, -127, 45, 20, 46, -75, -81, 75, -11, -94, 26, -120, -55, -19, 30, 25, -60, -127, -50, 
2, -81, -52, 27, -47, -111, -33, -1, 122, 0, 127, -39, 6, -32, 87, 83, 113, 22, -127, 24, -52, -35, -14, -53, 112, -10, 71, -47, -7, 69, 125, 97, 21, -14, -37, -34, 52, 8, -78, -31, 0, 118, 48, 28, -60, 54, 127, -39, -13, 33, 89, -36, -123, -61, 74, 12, 106, -15, 80, 28, -116, 2, 127, 24, 
};

const int8_t MagnetometetNetworkInt8_layer_15_bias[] = {
32, 21, 23, 33, };




MagnetometetNetworkInt8::MagnetometetNetworkInt8()
	: ModelInterface()
{
	init_buffer(2048);
	total_macs = 615616;
	input_channels = 4;
	input_height = 1;
	input_width = 512;
	output_channels = 1;
	output_height = 1;
	output_width = 4;
}

void MagnetometetNetworkInt8::forward()
{
	Conv1d<512, 4, 8, 3, 2, int8_t, int8_t, int32_t, 127, 127>(
		output_buffer(), input_buffer(), 
		MagnetometetNetworkInt8_layer_0_weights, MagnetometetNetworkInt8_layer_0_bias, 65);
	swap_buffer();

	ReLU<int8_t>(	output_buffer(), input_buffer(), 2048);
	swap_buffer();

	Conv1d<256, 8, 16, 3, 2, int8_t, int8_t, int32_t, 127, 127>(
		output_buffer(), input_buffer(), 
		MagnetometetNetworkInt8_layer_3_weights, MagnetometetNetworkInt8_layer_3_bias, 58);
	swap_buffer();

	ReLU<int8_t>(	output_buffer(), input_buffer(), 2048);
	swap_buffer();

	Conv1d<128, 16, 32, 3, 2, int8_t, int8_t, int32_t, 127, 127>(
		output_buffer(), input_buffer(), 
		MagnetometetNetworkInt8_layer_6_weights, MagnetometetNetworkInt8_layer_6_bias, 56);
	swap_buffer();

	ReLU<int8_t>(	output_buffer(), input_buffer(), 2048);
	swap_buffer();

	Conv1d<64, 32, 64, 3, 2, int8_t, int8_t, int32_t, 127, 127>(
		output_buffer(), input_buffer(), 
		MagnetometetNetworkInt8_layer_9_weights, MagnetometetNetworkInt8_layer_9_bias, 42);
	swap_buffer();

	ReLU<int8_t>(	output_buffer(), input_buffer(), 2048);
	swap_buffer();

	Conv1d<32, 64, 64, 3, 2, int8_t, int8_t, int32_t, 127, 127>(
		output_buffer(), input_buffer(), 
		MagnetometetNetworkInt8_layer_12_weights, MagnetometetNetworkInt8_layer_12_bias, 43);
	swap_buffer();

	ReLU<int8_t>(	output_buffer(), input_buffer(), 1024);
	swap_buffer();

	Conv1d<16, 64, 4, 1, 1, int8_t, int8_t, int32_t, 127, 127>(
		output_buffer(), input_buffer(), 
		MagnetometetNetworkInt8_layer_15_weights, MagnetometetNetworkInt8_layer_15_bias, 97);
	swap_buffer();

	GlobalAveragePooling1d<1, 16, 4, int8_t, int32_t, 127>(
		output_buffer(), input_buffer());
	swap_buffer();

	swap_buffer();
}
