#include <MagnetometetNetworkFloat.h>


const float MagnetometetNetworkFloat_layer_0_weights[] = {
-0.3351061, 0.20459563, 0.15590447, 0.23336507, 
0.15783662, 0.3803928, 0.23193556, -0.057059962, 
0.027447779, -0.17270924, 0.0033227506, 0.035081644, 
0.37484255, -0.05963953, 0.15873742, 0.24864624, 
0.075732976, 0.1249667, 0.14616308, -0.006911488, 
-0.23632203, -0.2128616, 0.27007464, 0.0008596345, 
-0.2132533, -0.14107981, -0.15643279, -0.30959103, 
0.24609208, -0.10671936, -0.16174462, -0.0006454917, 
0.27006626, 0.2032498, 0.29308447, -0.23018649, 
-0.6219331, -0.112518586, 0.06461854, -0.02340672, 
0.02513042, -0.011777638, -0.04583836, 0.0034214621, 
0.58834004, 0.11384159, -0.01621938, 0.014566932, 
0.16791777, -0.019711515, 0.33628446, 0.18690316, 
0.21170223, 0.15830477, 0.10618406, 0.3258357, 
-0.09577348, 0.24815227, -0.31363502, -0.29763013, 
-0.3644023, -0.102879345, -0.34477243, 0.006825599, 
0.103389785, -0.14651844, 0.054302935, -0.11348633, 
-0.30115166, -0.20126982, 0.014676227, -0.0995958, 
0.05057504, 0.24265243, -0.012114052, 0.040536813, 
-0.32586053, 0.13635883, -0.27238786, -0.06846279, 
0.2519037, -0.22607437, -0.16301332, -0.09475163, 
0.022692895, -0.1935252, -0.18797691, 0.26309764, 
0.30657563, 0.029243251, -0.014117318, -0.31425363, 
-0.16454108, -0.28255683, -0.11630025, -0.090720825, 
0.14018694, 0.021323109, 0.24851474, 0.1664994, 
0.0030321868, -0.08667452, 0.28627136, -0.20787175, 
0.03282976, 0.31573778, -0.14323382, -0.1468565, 
0.27074513, -0.2180571, -0.19811235, 0.2356712, 
-0.14623292, -0.04398402, 0.30393645, 0.0048040804, 
-0.043268252, 0.2168785, -0.14928557, 0.069294065, 
0.22005664, -0.3191635, -0.07033795, 0.32925287, 
0.34222642, 0.18849511, 0.21585917, 0.2440264, 
-0.09691275, 0.30952418, -0.06859501, -0.08903656, 
-0.10347212, 0.23369412, -0.14231032, -0.022048796, 
0.09770612, -0.21248731, -0.16207674, -0.14883001, 
0.31412253, 0.017011335, 0.41535613, 0.19252256, 
-0.26629597, 0.035238788, -0.35433704, -0.17976646, 
-0.24107946, -0.018225178, -0.16993949, -0.34162363, 
0.038714115, -0.3491758, 0.08925477, 0.15426897, 
-0.21311562, -0.18985021, -0.37338364, -0.07334572, 
-0.31034672, 0.004807605, 0.22150046, -0.25023243, 
0.23130332, -0.2716526, -0.31516245, -0.14709987, 
0.18291521, -0.27434313, -0.11447477, -0.15278074, 
-0.019909138, 0.30163705, 0.04471063, -0.07412109, 
0.46121946, 0.24734774, 0.22409566, 0.34750217, 
0.08709743, 0.1228237, 0.0934339, 0.08414734, 
0.054816056, -0.16949299, 0.05007539, 0.22074784, 
-0.30695078, 0.05646806, -0.0724603, 0.24490835, 
};

const float MagnetometetNetworkFloat_layer_0_bias[] = {
0.11061235, -0.37270474, 0.022077035, -0.022306541, 0.2694719, -0.07009566, 0.1819172, -0.38788447, -0.4008392, 0.18423195, -0.31469002, 0.036991745, 0.103496596, 0.14676608, -0.2949947, -0.27683225, };


const float MagnetometetNetworkFloat_layer_3_weights[] = {
-0.039350532, 0.16979112, 0.13687716, 0.2527299, 0.17938483, -0.11559263, -0.15416288, -0.26261005, 0.13485715, -0.009384253, 0.13554594, 0.107382216, -0.6831549, -0.22785375, 0.34591797, -0.1998287, 
-0.032461263, -0.1231088, 0.17461172, 0.40945378, 0.4212896, 0.07913728, -0.1344838, -0.08399124, -0.02359727, 0.11041308, 0.088142686, -0.0754012, -0.6630231, -0.33648786, 0.29612654, 0.1237609, 
-0.025314344, -0.17464283, 0.10653669, -0.12190919, 0.24663304, -0.15640211, 0.008145093, -0.18560153, -0.095672935, 0.092825666, -0.004021739, 0.073176146, -0.36343777, -0.12263352, 0.1950541, 0.22807176, 
0.14030121, 0.14329618, 0.01920031, 0.2178772, -0.1273113, -0.100929126, 0.19619685, 0.26045614, -0.13952576, -0.021844666, 0.23254988, -0.003659629, -0.10235989, 0.17231108, 0.1413126, 0.04992731, 
-0.11069417, 0.29452384, 0.082558155, -0.032280747, -0.20633705, 0.19967724, -0.1971623, 0.44652432, 0.112196654, 0.06146986, 0.36792034, -0.08689847, -0.113359585, 0.001346711, -0.04918657, 0.24298155, 
0.024387933, 0.11344011, 0.028951976, 0.46628305, -0.22139435, 0.15323144, -0.11844183, -0.26460236, 0.4187109, -0.21844697, 0.33687744, -0.03886578, 0.033702392, 0.15026025, 0.12728965, 0.23188977, 
0.3708486, -0.019636253, -0.12327657, 0.048515514, 0.37311584, -0.14438245, 0.20065014, -0.15257138, -0.15847951, 0.025075132, 0.25579587, -0.15762138, 0.036503833, -0.092738494, -0.14449923, -0.18823986, 
-0.015780535, -0.15779285, -0.008925871, 0.23574673, 0.15773115, -0.22182846, 0.37741274, -0.1119385, -0.33811536, 0.19811657, 0.23945877, -0.027380235, -0.07157353, 0.12156844, -0.04473367, 0.05844922, 
-0.05553794, -0.124822244, -0.05856745, -0.013721592, 0.15120038, -0.086730406, 0.29642618, 0.067835554, -0.1940823, 0.06964924, 0.08040434, -0.036442082, -0.03664269, 0.18966846, 0.069233365, -0.04968729, 
0.015616731, 0.08017801, 0.1071661, -1.1649237, 0.12303778, -0.1123768, -0.11082838, -0.08985766, 0.15450121, -0.25264195, -0.16261686, 0.33349463, 0.19753624, -0.15580127, 0.036746982, -1.6376024, 
-0.10088125, 0.05493763, 0.1655668, -1.4343488, -0.17599195, 0.10549285, -0.15113471, -0.03432157, -0.011002042, -0.33822313, -0.25366598, 0.24055281, 0.107797034, 0.20693724, 0.108094655, -1.4027295, 
-0.054387342, -0.077554345, 0.06508359, -0.69885576, 0.11202578, 0.009460491, -0.1268024, -0.15816097, 0.20508115, -0.55117255, -0.095088266, -0.13836806, 0.01504206, 0.10506305, 0.27299505, -1.3788922, 
0.069431774, -0.06514551, -0.053187564, 0.07765336, -0.13023786, 0.091911405, 0.2119842, 0.1929426, 0.53930455, -0.044495214, 0.24339889, -0.12765047, 0.31638148, 0.08713742, -0.03849147, -0.008025913, 
-0.31249553, -0.14925349, 0.0030438376, -0.02075165, 0.21011022, 0.39272854, 0.15575154, 0.2566833, 0.094909124, -0.15677346, 0.47206208, -0.071679935, 0.49149656, 0.09108323, 0.043176763, -0.09485373, 
-0.4001575, -0.12503374, 0.08879609, -0.46968198, 0.13429613, 0.27294496, 0.08195751, 0.081716456, 0.18983999, -0.13380642, 0.20532525, 0.16119348, 0.11241017, -0.07709078, 0.15766706, 0.05625924, 
0.011676017, 0.03090337, 0.21935228, -0.9375915, -0.10193399, 0.06705945, -0.027921166, 0.38134205, 0.2554221, 0.09983408, 0.27434126, 0.008369461, -0.27426416, -0.20688649, -0.006487315, 0.019579286, 
0.101086944, 0.2670271, 0.0038752866, -1.756164, -0.083403215, -0.07526968, -0.061200228, -0.080247186, 0.26346323, 0.21645655, 0.15283792, -0.28166136, -0.1657028, -0.1397636, -0.13479881, 0.15202029, 
0.03647671, 0.12199995, -0.06193421, -1.0565953, 0.17045993, -0.18401617, -0.09372401, -0.17617913, 0.24187645, 0.24033102, 0.31737873, -0.33810583, -0.20939817, -0.27436513, 0.1146297, 0.023764925, 
-0.0048995228, -0.121148676, 0.24244562, -0.3124378, -0.03951386, 0.040670607, -0.058573086, 0.07888838, -0.38144344, 0.19397438, -0.072887614, -0.19326171, -0.15128545, 0.05334821, -0.26717928, 0.2961494, 
0.084886014, 0.27294862, -0.0071610515, -0.53573346, -0.038364515, 0.08002736, -0.031360816, -0.022628224, 0.10243897, 0.13530561, 0.15345883, -0.16009971, 0.067021765, -0.07596216, 0.60287, 0.15802662, 
0.034976237, -0.14971901, -0.067010604, -0.30160317, -0.1794032, -0.059429068, 0.37148592, 0.02924407, 0.31792772, -0.10915144, -0.07591608, 0.083142675, 0.04620025, -0.24931389, 0.00580962, 0.0624409, 
-0.09856091, -0.1424478, -0.020544093, -1.0212163, -0.033258993, -0.009666246, 0.104767084, 0.15437914, 0.009318371, 0.24009992, 0.14119343, 0.09031792, 0.09871106, 0.22337744, -0.5808869, -0.15098117, 
-0.095584266, -0.031886373, 0.12767623, -1.1233114, -0.42401034, 0.09101411, 0.014045741, 0.17726393, -0.28716046, 0.21209148, -0.027569817, -0.09182734, 0.31611872, 0.047440488, -0.595408, -0.018167049, 
-0.13676734, 0.18519562, 0.02749324, -0.9260674, -0.2960596, 0.12017508, -0.06722655, 0.26958576, 0.02515524, 0.0015021716, 0.07928508, -0.23363768, 0.2593578, 0.17031302, -0.4090834, 0.20414668, 
-0.013912933, 0.15545188, 0.047918193, -1.7672905, -0.09009494, 0.11890049, 0.17414261, 0.18716109, 0.1264251, -0.09346743, -0.022962928, 0.12163776, -0.00633826, -0.0023591372, -0.1792634, -0.050906025, 
0.08143299, -0.0602428, 0.009100188, -1.8491501, 0.11166552, 0.19459724, 0.08003174, -0.0666611, 0.08909837, 0.026918286, -0.024800317, -0.00083416986, -0.056137603, 0.18682945, -0.093325526, -0.20273921, 
0.08650327, 0.08380698, -0.03650289, -1.3505965, 0.025038166, 0.08774666, -0.08155118, -0.13519092, 0.24098217, 0.21775271, -0.1589098, 0.17271143, -0.035731077, -0.040463306, -0.1549962, -0.22814643, 
0.28215995, 0.038750052, -0.16842173, 0.21090528, -0.057204638, 0.029798532, -0.5071408, 0.08491615, -0.16688903, 0.013565659, 0.06639743, 0.18600819, -0.31666768, -0.35551384, 0.13957112, 0.087428235, 
0.016256776, 0.093711294, -0.17743157, 0.17154816, 0.32357302, -0.14598799, -0.46548167, -0.11955997, 0.042927798, 0.19336742, 0.22772989, 0.19145043, -0.42912558, -0.5673153, 0.0750976, -0.25444007, 
0.031516466, 0.0035660411, -0.029532596, 0.011210553, 0.17934132, -0.04125058, -0.23458077, -0.24942099, 0.23401354, -0.09219786, 0.3493491, 0.0929233, -0.4047359, -0.27727658, 0.4664281, 0.09726388, 
0.1363109, 0.06694581, -0.13908115, 0.35479897, 0.17657597, -0.11230113, -0.23360589, -0.21758883, 0.121025495, -0.19821511, 0.1492315, -0.0892053, -0.320986, -0.30517122, 0.03179319, 0.12806407, 
0.2749813, -0.08282372, 0.02367207, 0.073076114, 0.10385898, -0.30940348, 0.28837875, -0.43192327, -0.008531376, -0.23466565, 0.4364659, 0.07538141, -0.35667863, -0.26029062, 0.1834162, 0.1673796, 
-0.09544944, -0.008070561, 0.07922331, 0.09263226, 0.056240853, -0.0572486, 0.4128955, -0.3132921, -0.14003192, -0.00089896104, 0.20682201, 0.061236024, -0.11917933, 0.061424118, -0.0099370945, -0.05385918, 
0.21109763, 0.22230375, -0.2416929, 0.040389415, -0.09505278, 0.14700499, 0.1455626, 0.31094426, -0.20551914, 0.17932524, -0.008871851, -0.35828176, 0.15436053, 0.026999503, -0.07719797, -0.045829453, 
0.25914127, 0.13860817, -0.382149, 0.20021677, -0.03682575, 0.30351177, 0.11079323, 0.10291696, 0.09205381, 0.11681473, 0.25825942, -0.5414262, 0.108694695, -0.21554649, -0.067486085, -0.2852178, 
0.12407278, -0.045079272, -0.30801582, 0.30470204, 0.053248085, 0.10829001, 0.04855387, 0.098202534, 0.030615628, 0.0704192, 0.28287753, -0.3245671, -0.07688041, -0.10194306, -0.14074469, -0.039674114, 
-0.35669476, -0.036777534, 0.20034067, 0.35395843, 0.011656821, -0.33418974, 0.18974976, 0.14284271, -0.18998553, -0.13977413, 0.31646487, 0.21024717, -0.142164, 0.046531152, 0.11253959, 0.03617619, 
-0.30591905, -0.12091466, 0.18651372, 0.4228088, -0.17407404, -0.06445328, 0.30865544, 0.27475357, -0.07602432, -0.12502448, 0.05079511, 0.2023912, -0.08119091, 0.2813067, -0.1343716, 0.31907815, 
-0.85036594, 0.28829834, 0.0051129335, 0.095809385, -0.21242513, -0.1099728, 0.095570855, 0.29721156, 0.0128002, -0.07901267, 0.15073092, 0.0931804, 0.077749, 0.2346214, -0.10459515, 0.14617585, 
-0.107408494, 0.01857851, 0.052183654, -0.078056365, 0.18383, -0.24139738, 0.07832341, 0.25612, 0.071821965, 0.1985123, 0.23620635, 0.077265434, -0.029087909, -0.013523155, 0.21788122, -0.1021112, 
-0.24098791, 0.18537916, -0.08234255, -0.37497234, -0.117108926, -0.1778037, 0.20671725, 0.30888677, 0.10967646, 0.10726621, 0.29427406, 0.29237685, -0.036735818, 0.041483227, 0.10336001, -0.07904356, 
-0.20745696, 0.08043867, -0.13038985, -0.5383489, -0.13250007, 0.11324886, -0.14208281, 0.31287968, 0.030321745, 0.2365575, -0.06319071, 0.16313152, 0.3069131, -0.17516182, -0.040311173, 0.018333884, 
-0.15738373, -0.021820633, 0.06504217, 0.72278875, -0.017946182, 0.2807044, 0.18200693, 0.11510602, 0.082818136, 0.20820831, -0.10100634, 0.35212067, -0.0311593, 0.3289114, 0.138881, -0.5939106, 
0.03173711, 0.007434016, 0.03804697, 1.1598979, 0.09783479, -0.09409558, -0.075190686, -0.00025388785, 0.10947043, -0.028997893, -0.024063107, 0.015776603, 0.005479809, -0.005903896, 0.21355891, -0.6651757, 
0.1546883, 0.31865507, -0.22043343, 0.4263704, 0.04529569, 0.06275949, -0.15928665, -0.012084134, 0.049124718, 0.024796393, 0.08752916, -0.3650743, -0.021214413, -0.2193586, -0.4423257, -0.5139473, 
0.018062627, 0.17398345, 0.16337791, -1.3066888, -0.035445537, 0.012853461, -0.24605675, 0.15207155, -0.045185618, 0.07687802, 0.1802313, 0.18563983, -0.75385875, 0.011740796, 0.100506775, -0.10790407, 
-0.033866264, 0.06155395, 0.15913291, -1.3690879, -0.0014380455, -0.21951209, -0.3057413, 0.039148744, -0.021906123, 0.10019249, 0.2638748, 0.22980785, -1.0206919, -0.34247926, -0.1465037, 0.08272892, 
-0.06159821, 0.12941353, 0.04507053, -1.1061016, 0.20414843, -0.3702599, 0.012768179, -0.24487185, -0.17246023, 0.14049208, 0.18206885, -0.03766025, -1.3124353, -0.22800823, -0.17740162, -0.13640334, 
};

const float MagnetometetNetworkFloat_layer_3_bias[] = {
0.12537697, -0.32203, 0.22290319, 0.001275933, -0.29787388, -0.08139453, -0.054793186, -0.13241787, 0.107775636, -0.02686851, -0.032186344, 0.013584935, -0.3414453, -0.2597958, -0.12772341, 0.032289725, };


const float MagnetometetNetworkFloat_layer_6_weights[] = {
0.08727895, -0.02735828, -0.067215264, 0.15039907, -0.051359974, 0.17482994, 0.22879954, 0.03525721, -0.113398984, 0.045242924, 0.2663741, 0.1387766, -0.34529498, -0.003699389, 0.17523114, -0.5853545, 
0.12031753, 0.061092265, -0.08660964, -0.05929298, -0.027036717, 0.11972396, 0.25228524, -0.09231778, -0.07868674, 0.017153557, 0.38463396, 0.20475699, -0.26352614, -0.08103312, 0.046866372, -0.9962124, 
0.06968014, 0.021507058, 0.043394335, -0.03545087, -0.16585428, 0.20808055, 0.12057821, 0.12534736, -0.016299743, -0.14522068, 0.18544766, 0.2217383, -0.07277121, -0.18466863, 0.24683893, -0.9778045, 
-0.18049817, 0.144495, -0.15606184, -0.37628382, -0.1050837, -0.16084588, -0.48725232, -0.067399554, 0.038562264, -0.05425233, -0.22708122, 0.1512062, 0.108883515, -0.07424449, 0.42630973, 0.12286185, 
-0.07462631, -0.028436206, -0.008198729, -0.33424938, -0.02931016, -0.049579445, -0.5905596, -0.10956727, -0.07217743, 0.14644748, -0.09465615, 0.32226387, 0.11982538, -0.037598353, 0.62481713, 0.06537093, 
0.044217933, -0.17400709, 0.26952553, -0.100462414, 0.22224498, 0.038838852, -0.23534878, -0.12896594, 0.0556932, 0.19412865, 0.015912669, 0.3289121, 0.14250939, -0.13001622, 0.30520916, 0.09906372, 
0.19275178, -0.054483153, -0.1406666, 0.31785446, 0.021197142, -0.06284009, 0.13967815, -0.12841746, 0.020290582, -0.12079258, -0.014263786, -0.10084377, 0.09225237, 0.14791271, 0.14475584, 0.16951743, 
0.35899606, 0.11192863, -0.17242053, 0.23894833, -0.0051523075, -0.04727535, 0.13322406, -0.04707309, -0.042382717, 0.059148576, 0.059685793, -0.17513119, 0.05004223, 0.17864949, 0.1918077, 0.19750276, 
0.16909678, -0.102138765, -0.14615443, 0.27851602, -0.061920177, -0.08758994, 0.1549517, 0.09021911, 0.1246988, 0.2056441, 0.1359698, -0.17787331, -0.09779395, 0.23008741, 0.011446631, 0.028171435, 
-0.044982012, 0.15859447, -0.12455288, 0.024250153, -0.20225076, 0.16986603, 0.0144292535, 0.0006034677, 0.35207757, 0.074847974, 0.10285843, 0.09800111, -0.05427441, 0.022808112, -0.14474228, 0.17846292, 
-0.0759742, -0.061011273, 0.01532745, 0.16889042, -0.19449459, 0.23047441, 0.06531562, -0.05782094, 0.19744892, 0.02656458, 0.03610847, 0.0078003756, -0.32611242, 0.077901386, -0.13665445, 0.3318931, 
0.06547767, -0.1744113, 0.08894159, -0.021312188, -0.15238419, 0.1433835, 0.18756454, -0.12682506, 0.28686485, 0.101983525, 0.027531499, -0.013727952, -0.18325678, -0.103608675, -0.10203813, 0.19509354, 
-0.12834057, 0.065035276, 0.36787367, 0.12836026, 0.117617734, 0.050544307, -0.0040466865, -0.24758375, -0.30098787, -0.082584, 0.09747003, 0.10033136, 0.058179114, 0.025075607, 0.1936397, -0.057884216, 
-0.07664169, 0.2155467, 0.14387596, 0.020605348, 0.10720001, -0.044439826, 0.07418466, 0.16856898, -0.35210848, 0.022477431, -0.0429917, -0.012794358, 0.36777908, 0.13658132, 0.16016668, -0.24518414, 
0.08615062, 0.23467843, -0.22136693, 0.2896268, -0.08721147, 0.060986742, 0.05196057, 0.14123958, -0.069687955, 0.17704621, -0.06305094, -0.040481366, 0.14750788, 0.20139247, 0.11900659, -0.121451855, 
-0.35309526, 0.11535987, -0.013439105, -0.00822929, 0.16633035, 0.10816097, -0.03185702, 0.1820801, 0.12618917, 0.21763611, 0.03879159, -0.5635516, 0.24262439, -0.11747842, -0.17517808, -0.26507205, 
-0.4157082, 0.18796751, 0.11998411, 0.2865739, 0.06235478, 0.10484319, 0.28218412, 0.09341721, 0.14969024, 0.2129015, 0.1423228, -0.62309253, 0.15641138, 0.15380059, 0.091470025, -0.1701996, 
-0.3343151, 0.013725645, 0.03746128, 0.035092935, -0.08166185, 0.17074378, 0.15938751, 0.11909548, 0.13760024, 0.16702858, 0.1503994, -0.4640259, 0.21645738, -0.07742142, 0.089915715, 0.077766374, 
-0.09877045, 0.12841797, -0.1547789, -0.07288335, -0.088990085, 0.15670256, 0.2254926, -0.012155067, -0.060739323, -0.020694187, 0.08223936, 0.03128529, -0.4087871, -0.06427093, 0.046227485, 0.24394675, 
0.09712278, 0.21239713, -0.1166636, 0.07124016, -0.061240505, 0.29874328, 0.21192473, -0.6536383, -0.10103599, 0.1338061, 0.24471639, -0.017764224, -0.5549182, -0.11852783, -0.1849755, 0.21175043, 
0.15554586, 0.2438157, -0.027963534, 0.08438699, 0.29615438, 0.14339238, 0.19084664, -0.77968156, -0.09423849, 0.19120814, 0.17241842, 0.08594686, -0.3676154, 0.16610764, -0.15150745, 0.091021895, 
-0.050481856, 0.07824486, -0.06273534, 0.14969255, 0.03391883, -0.15935838, 0.21201716, 0.10168698, -0.083886445, 0.15755165, 0.19766198, -0.02773494, -0.060701013, 0.16316004, -0.10876856, 0.34369013, 
-0.040566545, -0.1329325, -0.17032349, 0.3424956, 0.20209135, -0.17359255, 0.028016293, 0.3245639, -0.111831844, 0.21244791, 0.1038622, -0.048953313, 0.07443768, 0.2510494, -0.19595493, 0.26819497, 
-0.08179788, -0.15257451, -0.11179209, 0.25212696, 0.24846901, 0.010940838, 0.06636973, 0.08706059, -0.06615756, 0.10823379, 0.23268035, 0.07031318, -0.125424, -0.056698494, -0.27871495, 0.19046155, 
-0.13754955, 0.27743092, -0.09677388, -0.04849802, 0.18465453, 0.07128911, 0.20298253, 0.1840913, -0.105510674, -0.11930708, -0.24739125, 0.048967123, 0.10642977, 0.23315726, 0.27755332, -0.06059919, 
0.03341231, 0.22493906, -0.037228942, 0.094306216, 0.008106251, 0.31399268, 0.3310008, 0.14188153, 0.20113002, -0.0066358466, 0.004321569, 0.054950867, 0.009708091, -0.05423503, 0.37840375, -0.26230094, 
0.31448936, -0.10157995, 0.08119883, 0.14163119, -0.09275993, 0.09358267, 0.0029956708, -0.18124034, 0.09972401, 0.1336572, 0.064882405, 0.14920717, -0.2020068, -0.19505124, 0.11044243, -0.3731807, 
-0.046085928, -0.038014907, -0.066195264, -0.19114815, -0.22191496, 0.117632434, 0.050029747, -0.35154632, -0.20826659, 0.09522339, -0.030004298, -0.029415572, -0.12489216, -0.032651313, 0.008029487, -0.13267906, 
0.12218311, 0.07766434, 0.013204198, 0.07984174, -0.057479993, 0.08773226, 0.22181457, -0.7693679, -0.09528079, 0.24461904, 0.24147035, -0.17021307, -0.11613643, 0.048300326, -0.030880775, 0.12938899, 
0.3003593, 0.03684546, 0.07549221, 0.014461113, 0.28093955, 0.25321257, 0.13525103, -0.19668475, -0.06926, 0.27214596, 0.15020683, -0.15120438, 0.23721139, 0.32435307, -0.187043, 0.03923204, 
-0.14010333, -0.16487828, -0.052862402, 0.06667094, -0.20354843, 0.042890664, -0.08425148, -0.5618943, 0.042738006, 0.27008915, 0.003255993, -0.0942153, -0.25753704, 0.055593096, 0.03933918, 0.17577952, 
0.095364906, -0.38385117, 0.08146114, -0.041305397, -0.070056275, -0.23156449, -0.21843919, -0.47831407, 0.049548052, 0.3126119, 0.011708381, -0.1844612, -0.26146656, -0.02850914, -0.14060405, 0.28447622, 
0.14433067, -0.3450121, 0.2406277, 0.06495438, 0.16283609, -0.3101846, -0.12854415, -0.05054599, -0.014192005, -0.14457484, 0.04233588, -0.21717304, -0.10670612, 0.047705144, -0.16890846, 0.07047801, 
-0.06831341, -0.042266894, -0.25544026, -0.090880014, -0.116941966, 0.061801534, -0.12298058, -0.1826855, -0.0589024, 0.01875904, 0.1147958, -0.13218823, -0.06152366, -0.082177885, 0.19879337, -0.10413841, 
0.15178084, 0.021843249, 0.032271273, -0.13282083, 0.2934994, -0.037742786, 0.15624076, -0.1382614, -0.13938616, 0.03672235, 0.41737968, 0.11318604, 0.07465351, -0.21444087, 0.072758764, 0.09735249, 
0.22486666, 0.115611956, 0.14749274, -0.08646391, 0.3868034, -0.10151989, 0.14045748, -0.031641874, -0.014908274, 0.033563368, 0.21663125, 0.044871952, 0.11288615, -0.14036395, 0.18216363, 0.035979208, 
-0.22306068, -0.28902948, -0.08065827, 0.01874245, 0.21839173, 0.013486227, 0.068936, 0.3026659, 0.1342445, -0.10081536, -0.10194016, 0.15716667, -0.02546922, -0.21813887, -0.0047581256, -0.24073203, 
-0.286171, -0.319413, -0.12886977, 0.3213879, 0.23626709, -0.081509635, 0.08160341, 0.42832702, 0.032242846, -0.112134844, 0.013816837, 0.14395589, 0.07661798, -0.22531755, -0.12721026, -0.29805553, 
-0.263487, -0.23409368, 0.074177176, 0.1361378, 0.22282122, -0.12599872, 0.048436005, 0.28215134, -0.08059139, 0.037023857, 0.0053147334, 0.18197387, -0.06035954, -0.15785027, -0.10167321, -0.24858424, 
0.29323596, 0.13328841, 0.24600117, 0.080247775, 0.0920004, -0.06080139, 0.205736, -0.19144927, -0.24387702, 0.3871029, 0.17992842, 0.0746333, -0.117757306, -0.04989864, 0.35503614, 0.024211662, 
0.06358894, -0.16326365, 0.050224233, 0.107797444, 0.1317389, 0.0610317, 0.16630653, -0.040060006, -0.2517358, -0.085302, -0.05478054, -0.009162104, -0.10751494, 0.27345204, 0.429418, -0.11295201, 
-0.24279076, -0.13539484, -0.2209384, -0.10437807, -0.07605197, 0.044308074, -0.05737891, 0.06550229, -0.14537652, -0.22005229, -0.26822814, 0.05242722, -0.010722543, 0.101799875, 0.25415325, -0.07457349, 
-0.05933779, 0.12536402, -0.3325677, 0.07832264, -0.15940554, -0.31710404, -0.21081026, 0.10733282, -0.12332274, -0.054675903, -0.2010436, -0.38261828, 0.26810724, 0.021207875, 0.2661527, -0.14694367, 
0.09766114, 0.12888613, -0.49159244, 0.022725046, 0.03797049, -0.15716918, 0.31532848, 0.12510052, -0.11197948, 0.11433294, -0.07632103, -0.59067285, 0.23514894, 0.030934291, 0.4752133, 0.058164563, 
0.31958207, 0.1839223, -0.45325258, -0.052109607, -0.11952523, -0.22035748, 0.15234147, 0.16204973, -0.048080266, 0.34472308, 0.23518254, -0.4786346, -0.05211538, -0.06481443, 0.37496722, 0.034092687, 
0.14711806, 0.22625007, -0.009905683, -0.5110417, -0.03182749, 0.17455783, 0.23302846, -0.021950006, -0.354496, 0.0625682, 0.041726537, 0.17664336, -0.15487877, 0.18715921, -0.30514535, 0.14310524, 
-0.012746534, 0.074494466, 0.17968358, -0.3431766, 0.027367014, -0.1349635, 0.256758, -0.1664393, -0.48706755, -0.08747536, 0.1797589, 0.19887994, 0.26485834, 0.025871849, -0.13385256, -0.13098389, 
0.04641435, -0.07251465, 0.15771729, -0.45443177, 0.23980813, -0.23178492, 0.20488985, -0.16368937, -0.39356178, -0.0063300673, 0.0110819265, 0.107635476, 0.32947797, 0.059929945, -0.1571896, -0.0851824, 
0.015313575, -0.39592564, 0.19778475, 0.0019027798, -0.16432221, 0.19858721, 0.08704588, 0.098741025, 0.18548538, -0.4427402, -0.09564527, -0.2003187, 0.14527944, 0.052437477, -0.46539763, -0.06717438, 
-0.17385417, -0.43074134, 0.16734256, 0.1074253, -0.00800591, 0.047265004, -0.004594933, -0.019800838, 0.28145954, -0.43813455, -0.1686293, -0.17230414, 0.03983208, -0.033117726, -0.39033607, -0.22345558, 
-0.18751472, -0.27019224, -0.022351192, -0.08023549, 0.09084945, 0.1026079, -0.05097402, 0.15721181, 0.18537559, -0.367122, -0.25211546, -0.21124502, 0.08435175, -0.07669664, -0.59759617, -0.3663661, 
-0.81582755, 0.014428697, -0.0048135975, 0.13990177, 0.10019355, -0.35814583, -0.027878046, 0.27089658, 0.27580866, -0.6609639, -0.18823114, 0.038735673, -0.08089276, 0.022269279, 0.11164055, -1.0884697, 
-1.2122674, 0.051340014, 0.06272012, -0.016783686, 0.15719104, -0.30139524, 0.0645564, 0.38151255, 0.28248507, -0.8183626, -0.41733384, -0.01973132, -0.11650416, -0.083797656, -0.0064177834, -0.32976848, 
-0.27129602, 0.1160485, -0.08227891, 0.01756148, -0.030452622, -0.1583072, -0.12686123, 0.16907366, 0.17695716, -0.38110146, -0.16770542, 0.06498724, 0.09919573, 0.10041909, 0.13657187, 0.10968474, 
-0.08562447, -0.1240257, -0.16101894, 0.059207615, -0.04292142, -0.29844734, -0.032837547, -0.085029125, 0.10224047, -0.23448828, -0.45699885, -0.014398336, 0.082484655, 0.036070906, 0.13922676, 0.052632865, 
-0.2466614, -0.10290618, -0.06586932, -0.12133383, 0.15264033, -0.25872904, -0.050193336, 0.10426681, 0.08874928, -0.802819, -0.7915917, -0.037823793, 0.15435395, 0.20792574, 0.20240535, 0.15561365, 
-0.27415302, -0.16228278, 0.035870396, 0.12248194, -0.025613116, -0.24510953, -0.11221176, 0.08502301, 0.029448703, -0.75220734, -0.70856833, 0.039434176, -0.046356272, 0.16451678, 0.11326255, 0.09748484, 
-0.02750413, -0.053975776, 0.06839717, 0.14133583, 0.23278779, 0.071519725, 0.3348522, -0.2255122, 0.08192329, -0.025154235, 0.0958331, -0.09896079, 0.025683248, 0.043043643, 0.07377532, -0.074898906, 
0.2087563, -0.12224995, 0.11625528, 0.14693254, 0.39775008, -0.0056411503, 0.55716425, -0.40619117, 0.06619992, 0.08558748, 0.25414425, -0.22414146, 0.070569746, 0.013376203, 0.27265507, -0.051296093, 
-0.029843435, -0.091945186, 0.11745031, -0.03354746, 0.1220806, -0.079463296, 0.19879808, -0.2680062, 0.28620127, -0.074589826, 0.09262664, -0.173788, -0.015992241, 0.04326639, -0.045219347, 0.019536557, 
0.10132284, -0.02385924, -0.07023588, 0.027178615, 0.26087254, -0.26046273, 0.10251649, -0.08273692, -0.10199057, -0.0846046, -0.25298434, -0.5688809, 0.40342698, 0.114654936, 0.056453545, 0.02478881, 
0.17150779, 0.15195867, -0.20617959, 0.29036558, 0.11324756, -0.26414675, 0.14512621, -0.18623562, -0.03256524, -0.07874077, -0.2544538, -0.6611697, 0.11013163, 0.0295874, 0.25350836, 0.066065244, 
-0.07565492, 0.15603167, -0.14140269, 0.102309965, 0.10073538, 0.03588295, 0.2464308, -0.18067847, 0.0061717774, -0.09407051, -0.25589132, -0.5538885, 0.029279044, -0.1491174, 0.13809898, 0.15889746, 
0.26350322, 0.245709, 0.04038613, -0.029784085, 0.026336187, 0.25530744, 0.14829218, 0.037874483, 0.13050508, 0.110794924, 0.086268835, -0.21051538, -0.006091772, 0.10138486, 0.23955126, 0.22927852, 
0.048784457, 0.15563603, -0.13748677, -0.07823787, -0.1584431, 0.23839834, 0.16484544, -0.058161978, 0.07209888, 0.2233489, 0.071139194, 0.097915426, -0.08132496, -0.03683001, 0.27001825, -0.07908248, 
-0.11353855, -0.018950995, -0.061252024, 0.018881973, -0.25463894, 0.16612943, 0.061449625, 0.06015547, 0.016776172, 0.069021076, 0.0088137835, 0.053705864, -0.08835255, -0.08633658, 0.12458991, -0.117204405, 
0.01778748, -0.10921583, 0.09745987, -0.101009026, -0.19651413, -0.12369468, 0.14694889, 0.25402707, 0.015223265, -0.032204222, -0.119444326, -0.19641079, 0.024101129, 0.04749584, 0.003813399, -0.16653636, 
-0.03952047, 0.13513245, -0.109653115, -0.08050297, -0.39353952, -0.14115576, 0.14264396, 0.03104385, 0.021527579, 0.010789601, -0.12836471, -0.15357828, 0.21132089, 0.45086262, 0.052062344, 0.0044234972, 
0.068118915, 0.2210296, -0.06887604, -0.1406029, -0.13869847, -0.03153748, 0.14987867, 0.031807173, -0.08083552, 0.25257653, 0.051331814, -0.20857368, 0.18401568, 0.45620593, -0.002180804, 0.24530478, 
0.021039253, 0.24392423, -0.3941828, 0.3133342, 0.049020346, 0.030084554, 0.2141703, -0.09921104, -0.05772582, -0.15982948, -0.27476045, -0.023606045, 0.028371667, 0.30356696, 0.090494424, 0.048932165, 
-0.10519903, 0.32312295, -0.7779117, 0.21187311, 0.00038758086, -0.061413325, 0.25785986, 0.12102666, 0.013529997, -0.30513036, -0.34663254, -0.037547354, 0.07281737, 0.07156029, 0.22741012, 0.32268012, 
-0.2537635, 0.3376718, -0.82182574, 0.048911482, -0.04129617, 0.058503084, 0.12200532, -0.012591779, 0.2485938, -0.28707838, -0.23845135, 0.10878173, -0.020013357, -0.14890963, 0.31370485, 0.20560162, 
0.23822515, -0.3552397, -0.116055936, -0.059417076, -0.10809692, 0.102705546, -0.00020719648, -0.18247084, -0.09218398, 0.11274989, 0.15914237, -0.0644389, -0.013500808, -0.13433181, -0.21759185, -0.023541281, 
0.05770722, -0.46379414, 0.13370025, -0.011601156, -0.059435442, -0.075336486, 0.04519083, -0.051248215, 0.031447057, -0.17530149, 0.040353674, -0.14377558, 0.011478483, -0.011685121, -0.6438026, -0.05256268, 
-0.07875087, -0.38384342, 0.158391, 0.074274264, 0.1175624, -0.2341626, 0.07738297, 0.015592379, -0.017182494, -0.23546569, 0.038954653, -0.034771957, 0.09817224, 0.16027667, -0.37351322, -0.096057385, 
-0.056865185, -0.13409543, -0.2681746, 0.169675, 0.0015771822, 0.11530369, 0.08537621, 0.18144391, -0.009292914, -0.23384345, -0.25008816, -0.2071789, 0.11126934, 0.104736365, -0.12447516, -0.12808052, 
0.07014293, 0.18819246, -0.22201855, 0.26290372, -0.0416239, 0.43425328, 0.22352795, 0.12089952, 0.31777588, -0.011434576, -0.0825477, -0.032333948, -0.18748353, 0.07451399, 0.0969201, 0.14916304, 
0.06387532, 0.05204262, -0.1578614, 0.19984686, 0.18762377, 0.28165257, 0.19095005, 0.08003276, 0.26010513, -0.013783157, 0.079209656, -0.09537032, -0.23745784, -0.034905944, 0.17618126, 0.08057307, 
0.089495264, -0.027007846, -0.028557267, 0.06752948, 0.08850073, 0.09677835, 0.18024309, -0.05159243, 0.14676219, 0.076470695, 0.14170451, 0.14552408, 0.12628853, 0.19924854, -0.3935398, 0.04800178, 
-0.14185874, 0.03676031, 0.113021836, 0.039020628, -0.112584986, 0.3005807, 0.24039155, 0.1666032, 0.29661953, 0.004435456, -0.004307008, 0.0053504277, 0.12286155, 0.30059004, -0.48668656, 0.26647505, 
-0.25289378, 0.067596905, 0.05357048, 0.051683236, -0.21546876, 0.1207712, -0.025049059, -0.0059918454, 0.25783086, -0.0699172, 0.0016377361, 0.041934498, 0.053392667, 0.23866051, -0.14681484, 0.24663658, 
-0.47256476, 0.02855833, -0.024091046, 0.013802454, 0.29879588, 0.07903205, 0.1152363, 0.049246002, 0.03792947, -0.20016895, -0.20856823, 0.060186464, -0.3003619, -0.13178076, 0.2243947, -0.61574847, 
-0.5470114, 0.016819656, 0.02577092, -0.13621423, 0.0093547385, 0.025277773, 0.30974886, 0.12411993, 0.054213926, -0.2615005, -0.29107407, 0.16651836, -0.32169247, -0.088458516, 0.23976526, -0.31218672, 
-0.15644251, 0.19786648, -0.0059898575, 0.2058401, -0.12889501, 0.16319913, 0.23428702, -0.08555792, 0.08346582, -0.11797312, -0.08480691, 0.06109759, -0.31966704, -0.072064586, 0.15168343, -0.18648331, 
-0.00059684395, 0.053788546, 0.07629017, 0.14514989, 0.25624844, 0.11833276, 0.15283322, 0.088515766, -0.0033970233, -0.11435028, 0.34454256, -0.1017975, 0.15682252, 0.07038031, -0.1534085, 0.11218563, 
-0.16637962, 0.022549307, 0.026916673, 0.07788438, 0.42670557, 0.1317876, 0.06360957, 0.11850463, -0.016256707, 0.019198915, 0.293328, -0.0069452496, -0.07168922, 0.20454247, 0.096421264, 0.20614982, 
-0.013554243, -0.16145776, -0.045254517, 0.1002038, 0.24205917, 0.0059756925, 0.1585311, 0.049086366, -0.05482735, -0.27995095, 0.08428771, 0.06697541, 0.0037285185, -0.037716083, 0.05680792, 0.33908984, 
-0.12760237, -0.044467025, 0.16439834, -0.15191573, 0.23163252, -0.048412822, 0.11611884, 0.101636335, -0.021418463, 0.00026334132, 0.16312307, 0.11935383, -0.05356824, -0.18973188, -0.17227522, 0.03765648, 
-0.11663142, -0.14125845, 0.06903617, -0.090271086, 0.16035543, 0.25082934, -0.0412016, 0.12795426, 0.065613195, -0.116337, 0.2173226, 0.14761658, -0.16964957, -0.25335622, -0.00466389, -0.044938937, 
-0.17384335, -0.13175994, 0.13926253, -0.2628771, 0.045585148, 0.17762707, 0.099081576, 0.08833007, -0.024770094, -0.062073693, 0.19210893, -0.15049264, -0.050544765, -0.16831936, 0.05607186, 0.048959922, 
0.09673126, 0.08874043, 0.098227814, -0.27131605, 0.12431852, 0.01907968, -0.005156662, -0.038899664, 0.19556288, 0.12664403, 0.21716423, -0.15874885, 0.29660788, 0.1628652, 0.14362404, -0.15398261, 
0.020169873, 0.22111881, -0.014061741, -0.3012914, 0.08122388, 0.1639595, -0.16375495, -0.2114243, 0.0676007, 0.1968923, 0.010648377, -0.078616396, 0.06767801, 0.008005293, 0.17261048, 0.051520105, 
-0.13599642, 0.2949419, 0.13348205, -0.24731712, 0.17917046, 0.21442822, -0.09439788, -0.14830427, 0.03160962, 0.16185628, -0.08199466, -0.07159616, -0.1216737, 0.08204979, 0.13184145, 0.03446401, 
-0.061978288, 0.14260876, -0.0265992, -0.07699388, 0.0323567, 0.13468613, 0.006972571, -0.11600113, 0.06365541, 0.23551495, 0.23051788, 0.29275638, -0.25530958, -0.23979922, 0.034043197, -0.11782875, 
-0.056329448, -0.05934889, 0.0451119, -0.27362043, 0.08818201, 0.16091487, -0.27836987, -0.1655456, 0.13617887, 0.25920638, 0.20420793, 0.35919413, -0.18245444, -0.355292, -0.071334, -0.25441903, 
0.0017116588, -0.09316655, -0.13931207, -0.27519804, 0.115783766, 0.026890961, -0.22615442, -0.1509039, 0.11268083, 0.16294609, 0.20105194, 0.1997833, 0.015464558, -0.2765848, -0.07740956, -0.14412332, 
};

const float MagnetometetNetworkFloat_layer_6_bias[] = {
-0.02348897, -0.016241804, -0.27473125, -0.09587064, -0.23764221, -0.28203896, -0.20574212, -0.18611427, -0.17711549, -0.080950476, 0.19582212, 0.008028415, 0.043370716, 0.08293514, 0.11346331, -0.21920602, 0.1579756, 0.011620398, 0.27538046, -0.2778283, 0.030764997, -0.025998669, 0.16956018, -0.018846955, 0.3276215, -0.11679395, -0.22167559, 0.17441466, -0.52769375, 0.10771251, -0.54057395, -0.08001445, };


const float MagnetometetNetworkFloat_layer_9_weights[] = {
-0.1743194, -0.0785376, -0.22688648, 0.00037320668, -0.11101887, -0.8098329, 0.0721271, -0.011352395, 0.14269885, 0.043280944, 0.082936525, -0.06928981, 0.028330054, -0.29794052, -0.64366126, -0.042540826, -0.0061073187, 0.19587204, -0.14750151, -0.25798184, -0.6632497, -0.013714615, 0.23828605, -0.07680529, -0.1774223, 0.060265835, 0.15674996, -0.044406276, 0.13827078, 0.13226877, -0.12887734, 0.06798558, 
-0.14016023, -0.075736925, -0.28856358, 0.23387629, -0.23714744, -0.9237961, 0.15364093, -0.05861857, 0.12559646, 0.12161696, 0.11414268, -0.043984946, -0.079066545, -0.24105792, -0.7558572, -0.043914583, -0.03300276, 0.21470399, -0.08033975, -0.0976377, -0.82706815, 0.037182167, 0.10334912, 0.0013688081, -0.14908272, 0.0109920055, 0.35076556, -0.19427939, 0.14073215, 0.13655093, 0.02783008, 0.1118595, 
-0.1376653, 0.09652197, -0.23452245, 0.25342295, -0.13340189, -0.6547469, 0.1141264, 0.08734109, 0.03400248, 0.14216477, 0.17216814, -0.0011732401, -0.059179503, -0.24080695, -0.66576606, 0.06149421, 0.0385654, 0.037689216, -0.100574836, -0.029054172, -0.80795854, 0.19104853, 0.04369757, 0.038427174, -0.05701349, -0.009310519, 0.36456397, -0.14291513, 0.07934289, 0.23143792, 0.19252054, 0.0998993, 
-0.07729021, -0.6322902, 0.10124425, 0.23498118, -0.12584877, 0.36630732, 0.13566092, 0.057242274, 0.029840307, -0.044527087, 0.07988461, -0.12884377, -0.06646541, -0.03611219, -0.0009243497, -0.07399912, -0.13101223, 0.13110003, -0.11671468, 0.063255295, -0.27613494, 0.037168026, -0.13343215, -0.19405797, -0.25530183, 0.1934382, 0.14985107, -0.52257705, -0.12874657, 0.10092657, -0.027097102, -0.20823532, 
-0.11248702, -0.4617722, 0.07106767, 0.18014109, -0.15104905, 0.3640677, 0.14608608, 0.07787514, -0.04588751, 0.08362719, 0.2103689, -0.10788935, -0.12823501, 0.22462663, 0.07477265, 0.07800119, -0.49517283, 0.09964437, 0.09022715, 0.107048444, -0.14944546, 0.14198251, 0.014301331, 0.027697861, -0.049300876, 0.3510768, 0.23858443, -0.44080606, -0.12742223, 0.21876872, -0.22687866, -0.31919762, 
-0.13576831, -0.5119376, -0.09835235, 0.20118041, -0.18671574, 0.31732813, 0.014169484, -0.096295714, 0.012338766, -0.006973126, 0.0059189294, -0.04735284, -0.2891387, 0.12372106, 0.053108722, 0.20311643, -0.2914973, 0.040473666, -0.11617395, -0.12935634, -0.08020331, 0.08434392, 0.11350052, 0.10843755, -0.041150033, 0.22352049, 0.19099516, -0.45134217, -0.13650377, 0.11613263, -0.23621614, -0.21808887, 
0.2824638, -0.15131025, -0.4999153, 0.047611926, -0.06743627, -0.06810888, -0.5115292, -0.18392693, 0.08028654, -0.40281236, -0.34893408, -0.07139883, 0.06140958, 0.034862157, -0.003438215, 0.12857297, -0.05065108, 0.041645873, -0.3049803, -0.048302785, -0.030772703, 0.03634837, -0.047553685, -0.25039217, -0.038071375, 0.16435345, 0.13447116, 0.32255456, -0.31064555, 0.04742244, 0.12417192, 0.14128673, 
0.3097454, -0.101725735, -0.7416389, 0.18151365, -0.08639412, -0.16149671, -0.74225146, -0.31412834, 0.15986326, -0.6278361, -0.31382445, -0.1762902, -0.042891487, 0.14284287, -0.2649955, 0.18082349, -0.03499243, -0.10417045, -0.2257073, -0.08960499, 0.0048199585, 0.15458295, 0.0061311875, -0.25075012, -0.10211258, 0.10801413, 0.20940894, 0.2921874, -0.28509718, 0.011372874, 0.13907512, 0.15411238, 
0.3460813, -0.21769896, -1.1993096, 0.096435174, 0.0633404, 0.07072106, -0.5797709, -0.15074664, 0.21836697, -0.54960436, -0.31626043, -0.25173753, 0.04143988, -0.034118503, -0.09739099, 0.10340719, 0.012473153, -0.028725838, -0.11898846, -0.11312075, 0.16238402, 0.096134014, 0.052872844, -0.23141886, -0.024214434, 0.019931225, 0.16679789, 0.10022841, -0.28180036, 0.016333716, 0.23106211, 0.096556984, 
0.1670913, -0.32377085, -0.109751426, -0.06449614, -0.03535318, 0.03481793, -0.10287236, -0.15609834, -0.060694512, -0.081804104, -0.30205685, -0.198646, 0.03300528, -0.19028814, -0.28579274, 0.21242586, 0.26239938, 0.16114905, 0.08039558, 0.22874026, 0.064850084, -0.14924012, 0.10194838, 0.01216128, -0.13222848, -0.116533145, 0.15357722, 0.106079094, 0.10446443, -0.060273543, -0.1431175, -0.30851993, 
0.0031638446, -0.22895494, -0.09724805, 0.03991107, -0.053378224, 0.07857132, -0.012187429, -0.17093568, -0.055448398, -0.12829256, -0.17243265, -0.28068724, -0.121896416, -0.26471534, -0.09249575, -0.012169738, 0.08528902, -0.034237627, 0.24189094, 0.1532457, 0.03054819, -0.024525627, 0.17462212, 0.20071022, 0.028990174, 0.10014431, 0.30137482, 0.12538506, -0.15451816, -0.029461436, -0.17905773, -0.1402665, 
-0.0360276, -0.06751374, 0.03798646, 0.3337034, -0.084682055, 0.0143150855, 0.17803366, -0.0747738, -0.0874521, 0.0074260053, 0.09258706, -0.10629292, -0.32624632, -0.20289806, 0.009891539, -0.10684862, -0.1465556, -0.15729624, 0.13849926, 0.20961633, -0.048375648, 0.11312436, 0.20474689, 0.2581066, -0.07326011, 0.29883718, 0.28522596, -0.030017614, -0.21480887, -0.028830899, -0.053204313, 0.028140135, 
-0.031267684, 0.1558444, -0.24853261, -0.19551675, 0.016566413, -0.066559754, -0.26384798, -0.087698296, -0.10212354, -0.33778542, 0.028164841, 0.20589966, 0.043838665, 0.29754692, 0.06960167, -0.13366963, 0.024641395, -0.0113140065, 0.27693886, 0.14727594, 0.111671515, -0.061748933, 0.04233479, 0.042385224, 0.06527228, -0.07279703, 0.042466678, 0.24577454, -0.10750509, 0.18001308, -0.20323043, -0.23400128, 
-0.07647483, 0.034090023, -0.56227046, -0.028906988, 0.012278076, -0.0037040503, -0.5730658, -0.10152718, -0.1820803, -0.61029893, -0.29506385, 0.08073561, 0.07190677, 0.30031216, 0.0019411409, 0.0069212536, 0.08699335, 0.11472889, 0.20330356, 0.074398175, 0.055958178, -0.2665178, 0.014592025, -0.14099684, 0.04841344, -0.2475476, -0.1299887, 0.12105201, -0.10700531, 0.10521462, -0.16565129, -0.17726666, 
0.0716579, -0.040767964, -0.7615193, -0.09115809, -0.04073681, 0.025684576, -0.48151857, -0.008030375, -0.36126447, -0.7448927, -0.118577726, -0.07225371, 0.070903055, 0.038774166, 0.015797345, 0.043265667, -0.011175873, -0.093622744, 0.116280854, 0.038437538, 0.022624502, -0.19288814, -0.07348486, -0.055973656, 0.16138609, -0.18251108, -0.18119414, 0.10946403, -0.05726222, 0.17891905, -0.4590984, -0.24789591, 
0.075682364, -0.043330796, -0.30374482, 0.25705293, 0.16607766, -0.36613473, -0.6555038, -0.011464414, 0.06349156, -0.21830682, -0.0260781, 0.035130568, -0.01611969, 0.17529614, -0.31945056, -0.04542163, 0.061209675, -0.060232192, -0.11170383, -0.16789824, -0.49553335, 0.06837268, -0.11096043, -0.24384587, 0.011762978, 0.16617781, 0.18316999, -0.03035192, 0.09945214, 0.10664776, -0.34140953, -0.14918217, 
0.07993583, -0.1041835, -0.4847467, 0.14897946, 0.29272425, -0.6841282, -0.6287703, -0.1305152, -0.06388492, -0.44775328, -0.16342893, 0.16546017, 0.019985555, 0.22407508, -0.0322728, 0.186482, -0.002998288, -0.16673487, -0.21384445, -0.086338244, -0.20131546, 0.06453256, -0.13776009, -0.30502078, -0.01664787, 0.24726677, 0.16973169, 0.038360227, -0.038750995, 0.16837287, -0.12440308, -0.16665597, 
-0.13344525, -0.00649284, -0.09662032, 0.18891121, -0.004968927, -0.7576336, -0.39333805, -0.035745423, -0.05359164, -0.17885143, -0.12108019, 0.07566018, 0.03828925, 0.33479288, -0.4640092, 0.23826125, -0.049966447, -0.10020786, -0.0867171, 0.046151128, -0.23428027, 0.06836718, -0.22373138, -0.2034493, -0.0429173, 0.25224474, 0.18516777, -0.07601289, 0.057284802, 0.14902914, -0.027382221, -0.30572385, 
-0.15458977, 0.16960838, 0.057017747, 0.039137535, -0.6374622, -0.14517957, 0.05442643, -0.03393834, -0.08883742, -0.18900567, 0.20281428, -0.15257652, 0.06984437, -0.45608088, -0.08282594, -0.6400689, -0.18037608, 0.25101224, 0.1765014, -0.38174215, 0.11909562, -0.07386264, 0.1851063, 0.16390543, 0.010085613, 0.12471206, -0.12105228, 0.14776507, -0.2589123, -0.15219319, -0.48541784, 0.047434665, 
-0.022260187, 0.37119758, 0.046233736, 0.08807728, -0.735515, -0.17198993, -0.002894193, -0.037229348, -0.09345896, -0.0014983717, 0.24831374, 0.10849806, -0.12858106, -0.5569646, -0.1324059, -0.3427038, -0.33996943, -0.069815435, -0.013228786, -0.22876933, -0.055968333, -0.094608806, -0.019284591, 0.077403456, 0.115888804, 0.014321411, -0.102464214, -0.04487122, -0.29158965, -0.011590449, -0.20510772, 0.17432672, 
0.12538469, 0.3531592, 0.1060185, 0.115779154, -0.17339149, -0.093235195, 0.18008731, 0.032038026, 0.013801962, 0.14080825, 0.12724838, 0.29854771, -0.18496157, -0.23720023, -0.14156117, -0.02759039, -0.14377417, -0.2901242, -0.17394009, 0.15094139, 0.06813531, -0.021656068, -0.04925094, -0.120133266, 0.2508523, -0.027867293, 0.09041672, -0.31706518, 0.22874169, 0.19570492, -0.16038081, 0.112660736, 
-0.108706735, 0.15437731, -0.14227247, -0.0109471865, -0.24723515, 0.21404143, -0.097546026, -0.17343912, 0.14990933, -0.19994418, -0.08208321, -0.13657935, 0.21320301, -0.3453271, 0.07266034, -0.20854811, 0.014318354, 0.29299137, 0.34201315, -0.2731574, 0.09434258, -0.08778871, 0.06529802, 0.2916255, -0.1306289, 0.009570738, -0.09950524, 0.71329, -0.29814997, -0.08584393, -0.42493123, 0.02834678, 
-0.020662777, 0.004569052, 0.069706075, 0.016300736, -0.19008398, 0.093705215, 0.19158216, 0.15152864, 0.22951499, 0.13040432, 0.15685575, 0.21636073, -0.0893634, -0.06086977, 0.22265387, -0.041530967, -0.38003185, -0.36866483, -0.15157218, 0.10497552, 0.095692575, 0.003556555, 0.16443183, -0.18347664, -0.08621985, 0.15713805, 0.06638857, -0.10844967, 0.014798319, -0.06139062, -0.29141435, 0.13628304, 
0.07848965, -0.1438341, 0.10200679, -0.04845936, -0.005780163, -0.36886233, 0.23553719, 0.3956034, 0.08736569, 0.23558109, 0.22574304, 0.24837485, -0.7229432, 0.12646566, 0.22115172, 0.2074553, -0.27064523, -0.794834, -0.6920237, 0.31632605, 0.05054683, -0.027062852, 0.027318884, -0.45522767, 0.17345981, 0.08036995, 0.03509936, -0.5479414, 0.3432062, 0.038119905, -0.13184498, -0.009684708, 
-0.03375701, -0.014819631, 0.024181068, 0.15654638, -0.009145654, 0.089048766, 0.20116067, 0.33323562, 0.09524677, 0.11178839, -0.15850218, -0.06407779, 0.22560877, 0.18515076, 0.1528336, -0.33242217, -0.02646968, 0.25527546, 0.09196903, -0.04604293, 0.11362512, -0.045812257, 0.07389183, 0.24028076, -0.110905245, 0.1456374, 0.08050553, 0.0629551, 0.09831101, 0.09511926, -0.19602089, -0.17238864, 
-0.18480654, -0.0871509, -0.004901453, 0.08087898, -0.026417509, -0.070621446, 0.25283962, 0.28900024, 0.14810522, 0.0034494235, -0.11598837, -0.02199234, 0.2504971, 0.011631378, 0.089333415, -0.38690218, -0.058706373, 0.08530612, -0.07477245, -0.03406076, 0.21142647, -0.08898561, -0.182411, 0.07419422, -0.14549999, 0.18796857, -0.05519311, 0.0405008, 0.32545084, 0.05422223, -0.18993595, -0.1598307, 
-0.19686605, -0.059668228, 0.0030784197, 0.007952099, -0.16853662, -0.17490909, 0.104889005, 0.112987995, 0.05668048, -0.004497967, -0.06843534, 0.117171094, 0.17327471, 0.038363, -0.17739043, -0.35268652, -0.123311944, 0.11271002, -0.064604364, -0.028700184, 0.13121401, 0.025592042, -0.21236321, -0.040809255, -0.0242265, 0.03150411, -0.097504415, 0.11750624, 0.30229428, 0.09732515, -0.21214452, -0.15487118, 
-0.039059035, 0.48395067, -0.08038614, -0.25739795, 0.021101495, -0.01952714, -0.07743026, -0.08986065, 0.014007661, 0.059548613, 0.21043746, 0.08080143, 0.19604973, 0.068311155, -0.094425194, 0.04089901, -0.16309631, 0.116124965, 0.011365819, -0.19212855, -0.16384381, -0.13151962, -0.08640216, 0.13815738, -0.009825146, -0.26271468, -0.30183387, -0.05364578, 0.12511097, 0.17394765, 0.08709468, 0.015761321, 
0.024720779, 0.40240437, 0.02615528, -0.26767173, -0.0056595537, 0.0951585, 0.035336606, 0.10137879, -0.03330767, 0.06634842, 0.3575584, 0.22550459, 0.12687898, -0.0030976676, -0.1029082, 0.04633673, -0.077233724, -0.031718303, -0.13761395, 0.05521783, -0.1894356, 0.0031714065, 0.0020604664, 0.13652441, 0.14101152, -0.29398516, -0.19236931, -0.2840918, 0.022500947, 0.093022846, 0.25362518, 0.1324092, 
-0.16119552, 0.2624536, 0.053981278, -0.038946193, 0.029791337, 0.00011961021, 0.14429875, -0.02499628, -0.03307505, 0.14706187, 0.27943432, 0.19366951, -0.0011534833, 0.10880144, -0.0770219, 0.21018352, -0.1005716, 0.08818835, -0.046633113, 0.037212957, 0.038055394, 0.06338465, 0.12801264, 0.019334195, 0.1080964, -0.24880032, -0.098839454, -0.32828403, -0.0017594787, -0.12297979, 0.19139889, 0.010576952, 
0.1445465, -0.0018808306, -0.108544506, -0.15493643, -0.0809425, 0.05799902, -0.05461769, -0.23063394, 0.18668328, -0.06476497, 0.0048908317, -0.04301909, -0.37657258, -0.015343937, 0.09236786, -0.084170036, -0.20164977, 0.12083313, 0.12861238, 0.004227323, 0.1455193, -0.001140818, 0.24776207, 0.044156935, -0.018672567, -0.011705491, -0.106168434, 0.0019936117, -0.16685309, -0.13065615, -0.19601288, -0.2048935, 
0.07071703, -0.25275087, -0.018715626, 0.11383014, -0.11281254, 0.065807626, -0.06635291, -0.08954291, 0.21482396, 0.06497031, 0.24243397, 0.12934075, -0.73331183, 0.28977188, 0.13880546, 0.11495693, -0.3544339, -0.3554179, -0.21711576, 0.15997905, 0.0015536692, 0.2061916, 0.04489255, -0.18489657, -0.024484437, 0.098289244, -0.15321034, -0.24900962, 0.020761358, -0.07346266, -0.18994208, -0.09755851, 
0.066588975, -0.18947275, -0.042524103, -0.020973405, -0.0817087, -0.019491142, -0.062141698, 0.017695632, 0.12080988, 0.09964952, 0.17982323, 0.22099397, -0.299893, 0.23307592, -0.10308123, -0.046351984, -0.11342905, -0.062035672, -0.31400302, 0.1294299, -0.068031356, 0.14555837, -0.11474848, -0.1106481, 0.12054844, -0.17470784, -0.12032643, -0.18010674, -0.017994128, 0.035706006, -0.15335545, -0.03506086, 
-0.1512565, 0.12600857, -0.036745854, -0.13913187, -0.1152223, 0.12684889, -0.1415569, -0.009664085, -0.06745106, -0.08011722, 0.058678776, -0.12611924, 0.06104955, -0.090621226, -0.07473504, -0.05916656, -0.04467085, 0.42694244, 0.11831897, -0.11640828, 0.17675942, 0.002958445, 0.013119883, 0.25920737, -0.33959964, 0.04782508, -0.13636476, 0.24503939, -0.051005293, -0.08387413, -0.34950122, -0.1781569, 
-0.12259475, 0.08859352, -0.0095968805, -0.017544232, -0.15054199, 0.26612133, 0.03534988, 0.018254967, 0.14755772, 0.06962147, -0.07450854, -0.07699574, -0.0649557, -0.117533654, 0.1000482, -0.0068479995, -0.010433411, 0.15077084, 0.15612163, -0.23546134, 0.058324397, 0.10672089, 0.1449296, 0.25702748, -0.2768158, 0.06474527, -0.019743977, 0.09528258, -0.11509607, -0.03286061, -0.19732729, -0.021020234, 
-0.030249985, 0.17402846, 0.121615425, 0.103559636, 0.0121946735, 0.10574199, 0.1844825, 0.17950045, 0.21959664, 0.29801983, -0.006098216, 0.20132264, -0.041150507, 0.14937046, 0.20064195, 0.0086157145, -0.22863851, 0.022652673, -0.09340117, 0.1416417, -0.08595858, 0.21067418, 0.11875726, 0.0047775046, -0.3034539, 0.32447428, 0.031953465, -0.1457571, 0.09461033, 0.08767891, 0.01743033, 0.23372382, 
-0.06952745, -0.002081883, 0.17441717, 0.16101474, 0.10999274, 0.015269917, 0.26653856, 0.1328532, 0.10900981, 0.17612927, 0.018156711, 0.007948405, 0.09727601, -0.020352159, -0.62290615, -0.09303451, 0.13603106, 0.1869866, 0.09868096, -0.058014415, -0.045666795, 0.16611382, -0.17808227, -0.18900843, -0.07565738, -0.120352015, 0.15265399, -0.12091716, -0.038819846, -0.025738351, 0.060679372, 0.05720252, 
-0.036517635, -0.06997075, 0.017469283, -0.019993609, 0.022815892, 0.16490605, 0.017833913, 0.06589283, -0.12768154, -0.011953326, 0.18860961, 0.021732045, 0.1724617, -0.08426846, -0.73713636, -0.121532656, 0.11134316, 0.2662743, 0.18681243, -0.042228334, -0.066058464, -0.03227541, -0.13607588, -0.067021966, 0.13628623, -0.24459957, 0.020055773, 0.01097086, -0.01789513, 0.064392515, -0.2115109, 0.09197556, 
0.10986159, -0.15607463, -0.15852448, -0.070965126, -0.092137456, 0.15876952, -0.26788324, 0.00962173, -0.08089415, -0.2275171, 0.2219398, -0.017315144, 0.14837223, -0.070504375, -0.69546896, 0.041154295, 0.24128273, 0.20207708, 0.052834418, -0.14775729, -0.07277788, -0.2049216, -0.15494259, -0.18297434, 0.117518835, -0.30334985, -0.057680137, 0.120490395, -0.0951444, 0.06689329, -0.30649418, -0.09798936, 
0.3450036, 0.018967986, -0.13003051, 0.14465883, 0.100393735, 0.28104663, 0.111053936, 0.019312682, 0.30514324, -0.10045202, 0.1669389, 0.10762129, -0.31559458, 0.08478468, -0.14107361, 0.0082073575, -0.26179838, -0.05907712, -0.13732809, 0.094856575, -0.019620568, 0.14736786, 0.05090841, 0.21996379, -0.1466776, 0.045906726, 0.12937297, -0.37111822, 0.099527135, -0.13361043, 0.2963545, 0.19415136, 
0.16220187, 0.18971914, 0.10048764, -0.013563008, 0.19502166, 0.3037549, 0.12076913, 0.0038574615, 0.20100527, 0.05661048, 0.047987368, 0.049550813, -0.25825185, 0.060063425, 0.009972599, -0.18318662, -0.21917906, -0.1664974, 0.025766164, 0.22305498, -0.01276982, -0.0052645374, -0.044770457, 0.1170987, -0.10912459, 0.14379346, 0.050228823, -0.54308414, 0.24386294, -0.3294882, 0.42923984, 0.094098754, 
-0.031289298, 0.30444288, -0.016740149, -0.047943454, 0.08707153, 0.3075643, 0.03499631, -0.039478697, 0.2680059, -0.069773294, -0.0977696, 0.037360236, -0.26658633, -0.022173654, -0.1322031, -0.22914755, -0.13746202, -0.0427332, -0.27264988, 0.10849297, -0.063106395, -0.1072241, -0.0026797594, 0.054635793, -0.2058418, -0.03296441, 0.04921391, -0.46607447, 0.11550811, -0.34411922, 0.2992043, 0.053734645, 
-0.24738157, 0.25316238, 0.1702459, -0.055726133, 0.16872703, 0.22429258, -0.09732127, 0.009037869, 0.17400599, -0.03248246, -0.14509684, 0.0014342159, 0.16368476, -0.085934505, 0.29299176, 0.021166284, 0.11868498, 0.018366577, 0.2795562, -0.08991705, 0.46303675, -0.053762496, 0.3625046, 0.1566045, -0.3121147, 0.10265957, 0.23553953, -0.14884305, 0.08506638, -0.07422121, 0.0025009036, -0.15619057, 
0.085635096, 0.24172683, 0.09593303, 0.059369996, -0.104813136, 0.020301798, 0.048074678, 0.08867899, 0.23477493, 0.03654875, -0.022994464, -0.007702624, -0.014142972, -0.04908345, -0.006554426, 0.102711484, -0.1921508, -0.044570036, 0.035783544, 0.14650995, 0.11587046, 0.14647046, -0.060298067, 0.2645586, -0.26780114, 0.060090426, 0.20428984, -0.26939714, 0.16989203, 0.039752513, -0.02570047, -0.016746774, 
0.24799629, 0.01242842, -0.15007135, 0.05852798, -0.35038668, -0.29438037, -0.15537447, -0.17910291, 0.19033124, -0.1400206, 0.18745464, -0.06319361, -0.05749556, -0.002931426, -0.13393153, 0.28410003, -0.14697239, -0.12724695, -0.28444844, 0.09724485, -0.18176226, -0.053866107, -0.3460933, 0.15509798, 0.068727344, -0.06767854, -0.023253107, 0.093001574, -0.028614389, 0.07093408, -0.107621014, 0.18869463, 
0.02432822, 0.03854195, -0.008774801, 0.055511754, 0.009497999, -0.3654729, 0.30924886, 0.2162922, -0.28545374, 0.062158983, 0.35628942, 0.15809587, -0.5452713, 0.37540862, -0.07029482, -0.05388658, -0.17834793, -0.66426486, -0.061450552, 0.10671469, -0.04231356, 0.21293218, 0.065371774, -0.025274012, 0.05416766, -0.032318465, 0.192946, -0.46339142, 0.055770975, -0.03379309, -0.101404704, -0.017755356, 
0.047500808, 0.07407924, -0.07959627, 0.058262285, -0.085926786, -0.42112324, 0.17351793, 0.064409226, -0.34451634, -0.04492467, 0.12803456, -0.012366272, -0.069769524, 0.10205693, -0.10020749, -0.13099581, -0.064395346, -0.2514048, 0.080088235, -0.04678546, 0.027206602, -0.06091055, 0.11402574, 0.100426786, 0.12819958, -0.08810776, 0.03428068, -0.23095441, -0.05008955, 0.06842442, -0.14407824, 0.08691617, 
-0.10040187, 0.20156847, -0.05615351, -0.0031443066, -0.06864887, -0.0808338, -0.06791998, -0.06475078, -0.17585717, -0.08000769, -0.044780914, -0.13985787, 0.13267325, 0.033029575, -0.009274971, -0.06942568, -0.08262229, 0.09986949, 0.33862764, -0.012766923, 0.13744804, -0.106493875, 0.18480618, 0.12829195, -0.0634946, 0.021598259, 0.023175286, 0.11432751, -0.026310125, 0.073029004, -0.17298959, -0.05633388, 
-0.15037826, 0.051214226, 0.06282343, -0.18557724, 0.38991046, -0.046282075, -0.114596345, 0.051011357, 0.11510594, 0.06715278, -0.0029886877, 0.16539384, -0.01662681, 0.28401875, -0.21311507, 0.062446453, -0.15242848, -0.18269, -0.018884653, 0.23730631, 0.07523104, -0.080777824, -0.01412641, -0.07206556, 0.19341336, -0.012806205, -0.10216338, -0.030680649, 0.16690783, -0.13001113, -0.017744202, -0.21081054, 
-0.21886295, 0.12890825, 0.0123313395, -0.087931655, 0.36963445, -0.0009287876, 0.12666297, 0.010248646, 0.0641162, 0.011036826, -0.17272589, 0.11608639, 0.057143785, 0.34143656, 0.026185686, 0.090005234, -0.08104333, -0.1860286, -0.09294567, 0.2374448, 0.17429698, -0.015269126, 0.11521208, -0.16294877, 0.038306486, -0.050967343, 0.105276965, -0.04714237, 0.19615641, -0.16680245, 0.15982872, -0.31235433, 
-0.20229478, 0.167814, -0.05804955, -0.026604611, 0.07566967, 0.16813058, -0.012166654, -0.027040826, 0.22070439, -0.103004016, -0.12625577, 0.019871196, 0.02420959, 0.13775538, -0.014066479, 0.012678118, -0.17958705, 0.020630557, 0.1770838, -0.039980017, 0.24736185, 0.07804097, 0.064857736, -0.045673914, -0.050653357, 0.15966375, -0.052773174, -0.1089657, -0.03582528, 0.01391888, -0.09964303, -0.30049762, 
-0.074769825, 0.0748115, -0.18693349, 0.23208281, -0.026265519, 0.12211556, -0.07747901, -0.15230425, 0.13606557, -0.18570207, -0.0017465077, 0.053845942, 0.113994025, -0.1392472, -0.040575646, -0.011493745, 0.07598208, -0.12250639, -0.12731615, -0.016691014, 0.29989207, 0.21925212, -0.22808567, 0.21726584, -0.042083707, 0.19354431, 0.21648826, -0.08928703, 0.01647753, 0.060429584, -0.1798799, 0.13670512, 
0.123217076, 0.013922177, -0.4225278, 0.28464714, -0.03952443, 0.10258232, -0.07388519, -0.34674817, 0.26266167, -0.29863065, 0.030078394, 0.022265818, 0.013835795, -0.15659586, -0.2508878, 0.063624494, 0.11314996, -0.13240643, -0.25542882, 0.17024982, 0.29790083, 0.21960057, -0.22873966, 0.17635062, -0.13353597, 0.26827022, 0.0539221, -0.14357221, 0.24811476, 0.03902312, -0.24822116, 0.1942658, 
0.29666576, -0.034226846, -0.5092929, 0.07751827, 0.018859133, 0.13132939, -0.18183781, -0.40150255, 0.12671997, -0.31305063, -0.12727068, 0.116308026, -0.037592538, -0.12036508, -0.21004196, 0.08109254, 0.13849191, -0.120283864, -0.08935377, 0.17045002, 0.03067034, 0.11670272, -0.23310913, 0.2290885, -0.051103104, 0.18008718, -0.103503294, 0.07240685, 0.18787962, -0.031592183, -0.18958753, 0.13110638, 
0.12400786, 0.15907086, -0.1492365, 0.039678376, 0.05283416, 0.06505602, 0.16418666, -0.068507664, 0.041378684, 0.046402194, -0.02487421, 0.030330455, -0.11482817, 0.11465118, -0.1322659, 0.113721326, 0.08778122, -0.26259804, 0.09738301, -0.022488607, -0.009982539, 0.032091178, -0.004102956, 0.11504339, 0.13251579, -0.22035953, 0.068708755, 0.06489006, 0.00819978, 0.18449727, 0.2997213, 0.18937051, 
0.11402019, 0.28814885, -0.2508177, -0.12028861, 0.01725321, 0.10127481, 0.038795054, -0.334758, -0.0907058, -0.045290932, -0.044959046, -0.007860941, -0.13458042, 0.21401459, -0.119706705, 0.18003225, -0.13562104, -0.26173905, -0.02111339, -0.06553164, -0.00866573, 0.019324219, 0.05701192, 0.017485108, 0.08954867, -0.073793404, 0.0058254693, 0.02126452, -0.21891221, 0.0626267, 0.19233546, 0.18971597, 
0.051388375, 0.19944671, -0.17570072, -0.1504337, 0.10662764, 0.15315853, -0.06903097, -0.37354296, 0.12751669, -0.10466737, 0.13854602, 0.019970987, -0.1805001, 0.23499934, 0.0052676685, 0.04564284, -0.155258, -0.2662647, -0.05574605, 0.08635374, 0.07296619, -0.05165609, 0.20283796, 0.06991693, -0.014027079, -0.03404127, -0.043742813, 0.029545145, -0.24065425, -0.12555592, 0.16816047, 0.1766502, 
-0.18753313, 0.20961587, 0.11255885, 0.046488743, 0.04325273, 0.3541169, 0.061882876, 0.020291192, 0.057452884, 0.025000889, 0.03808685, 0.03836612, -0.1953222, -0.01607147, 0.14339368, -0.22392419, -0.15628405, 0.0755984, -0.03621773, 0.03340802, -0.020638887, 0.095987104, 0.08391488, -0.061963923, -0.27165464, -0.0651052, -0.10242583, -0.37772232, 0.15147173, -0.3324776, 0.22430496, -0.100694746, 
-0.10421782, 0.087296195, 0.09200891, 0.15333031, 0.055110876, 0.36333874, 0.18144937, 0.1700424, 0.12974626, -0.0020755043, 0.13059148, 0.2885405, -0.28040433, 0.06394652, -0.054239288, -0.20703931, -0.14163296, -0.09529586, -0.3082426, 0.010946021, -0.18808609, 0.13199002, 0.13793334, -0.0826113, -0.34202832, 0.0010314385, 0.025177822, -0.5397645, 0.2413385, -0.22860299, 0.37418202, -0.03148611, 
-0.042922042, 0.10617573, 0.115669705, 0.1250432, 0.1455174, 0.12628248, 0.09384789, 0.15945409, -0.0033214309, 0.063795745, 0.092940226, 0.045459196, -0.42223594, -0.0526351, -0.09129163, -0.25255623, -0.008132128, -0.05178487, -0.38789457, -0.019197097, -0.10708195, 0.11552712, -0.010896754, -0.053920243, -0.10798147, -0.007395224, 0.16692875, -0.5023603, 0.04101244, -0.18787393, 0.21871185, 0.040867653, 
-0.07544421, -0.09727276, -0.10184326, -0.2516957, 0.18906295, -0.003511472, -0.09453711, -0.06937195, -0.029737843, -0.028453037, -0.21705145, -0.0023651817, -0.0029263485, 0.07216635, -0.023008212, -0.013154643, 0.15595262, 0.03506144, -0.049968284, 0.02184906, 0.28453606, -0.09381471, 0.073154815, -0.3452137, 0.12265276, -0.10993602, 0.1549953, -0.35694876, -0.042228818, -0.031490784, 0.014980955, -0.6188352, 
-0.051584523, 0.027574286, 0.08603563, -0.2987851, 0.30600867, -0.085417636, -0.20519358, -0.025898231, -0.100568354, -0.0008625897, -0.15092121, -0.01599924, -0.12459225, 0.17534168, 0.0888934, -0.00011905849, 0.02094644, -0.028065514, 0.029818071, 0.058518488, 0.4225527, -0.093114495, 0.34627515, -0.093791984, -0.10752255, -0.043834846, 0.2377792, -0.13866472, -0.0282793, -0.1758545, -0.028978432, -0.4622921, 
-0.08799667, 0.0015386179, 0.08683707, 0.034789313, 0.22143118, -0.15552045, -0.036106087, -0.029135447, -0.2110132, 0.13400564, -0.097569935, 0.038735997, -0.14148685, 0.13515837, 0.09846949, -0.083331056, -0.05362962, 0.05238791, -0.088062145, 0.02959267, 0.36107415, 0.113504164, 0.3051121, 0.2819381, -0.13403383, 0.0058396077, 0.18194744, -0.05480301, -0.15068959, -0.09885261, 0.044807002, -0.13403907, 
-0.09882598, -0.11604459, 0.054273784, 0.15916832, -0.11965377, -0.09302959, -0.045943126, -0.11089524, -0.30492687, -0.0032605515, 0.1707984, 0.14000274, 0.02040436, -0.13344605, -0.09978065, 0.044736754, 0.13374113, 0.18051212, -0.009661574, 0.11406809, -0.015741577, -0.085371256, 0.09162738, -0.000110463734, 0.0337866, -0.026879452, 0.104783915, -0.028078474, -0.010216871, 0.11734133, -0.040745784, 0.11070697, 
-0.30952883, -0.29771683, 0.08667086, 0.14842993, -0.12587151, -0.21490638, 0.13163672, 0.0964893, -0.32218453, 0.11718241, 0.24022578, 0.12198549, 0.03545936, -0.054114696, -0.03966137, 0.13074398, 0.22060792, 0.124693185, 0.014310276, 0.25864357, -0.047645055, -0.01239064, -0.00457762, -0.18762697, 0.061273046, -0.12757073, 0.21130668, -0.21412075, 0.09829962, 0.013291216, -0.053005546, -0.22985566, 
-0.44485375, -0.21995673, 0.13119516, 0.021238098, -0.09131301, -0.041080426, -0.028435625, 0.059341967, -0.29036903, 0.115030944, 0.20866059, 0.057032835, 0.12402421, -0.09812119, 0.1157675, 0.035671744, 0.049457423, 0.005885614, 0.03188017, 0.18672282, 0.10357424, -0.104147464, 0.12408859, 0.03367318, 0.088161625, 0.013055853, 0.2013079, -0.2068584, 0.094701305, 0.076286666, -0.15669268, -0.27606425, 
0.13888788, -0.0854039, 0.20254125, -0.14018051, 0.08736688, -0.13889134, 0.03852487, 0.031848673, -0.12505713, 0.1191899, -0.002184969, 0.17597829, -0.2530959, 0.34086922, 0.2722888, 0.007059639, 0.04294484, -0.35829565, -0.12572385, 0.053829346, 0.23423016, 0.093220666, 0.06552135, -0.0052414373, 0.16309536, -0.23651998, 0.082435116, -0.44297332, 0.015374256, -0.02776113, 0.017035637, 0.17308353, 
-0.16182563, -0.025283849, 0.10631092, -0.040790334, 0.07219434, -0.13179775, -0.1452615, 0.01657238, -0.2767971, -0.013104434, -0.05278989, 0.09555522, 0.15005094, 0.08926502, 0.27191988, -0.10298495, 0.04692036, 0.031145742, 0.03354764, -0.07627324, 0.3666511, 0.10238323, 0.17672046, 0.31732833, -0.046433795, -0.05075838, -0.0012366622, -0.18600793, -0.1641455, -0.00784297, -0.15240203, -0.16945511, 
-0.16826142, 0.009067413, -0.049622416, -0.2297334, 0.021994978, 0.15244685, -0.15938401, -0.024253953, -0.1274445, 0.0054538716, -0.19651437, -0.14930342, 0.18350822, -0.13408038, 0.28992337, -0.037118718, -0.035025615, 0.29861832, -0.0042419257, -0.34109494, 0.2595664, -0.09167762, 0.15942746, 0.3553898, -0.23596823, 0.13290937, -0.028202936, 0.11751526, 0.028083842, 0.0035060977, -0.092096575, -0.22059539, 
0.10367567, -0.05205826, -0.123417, -0.03619492, 0.047682878, 0.034314528, -0.156243, -0.07160709, -0.014422017, -0.16082935, -0.053014033, -0.13412054, 0.044922993, -0.23919624, 0.103082284, 0.19529559, -0.14217061, 0.08154383, -0.04780997, -0.16714434, 0.049628634, -0.14652556, 0.08448788, 0.018503007, -0.22484319, 0.068377286, 0.037233204, 0.062013023, -0.106126204, -0.08875545, 0.046380673, -0.28972864, 
0.11381667, -0.007635043, -0.018946487, -0.038321175, 0.22187443, 0.08568989, 0.02688204, 0.15940374, 0.09964666, 0.15323205, 0.020814937, 0.06183391, -0.029096821, 0.0773054, 0.09686753, 0.15070914, -0.2277027, -0.0772504, -0.1261812, 0.016211418, 0.1422262, -0.077189505, 0.11899891, -0.08981965, -0.12324388, 0.08286796, 0.087193236, -0.052795965, 0.2896258, -0.14178145, 0.29703906, -0.36481264, 
-0.051555976, -0.13485758, 0.033525225, 0.03799443, 0.19135374, -0.007662582, 0.12383725, 0.17851916, -0.057230096, 0.13607062, 0.12453117, 0.16148196, 0.0694137, 0.27463803, 0.054402176, 0.29651344, -0.16419436, -0.08785386, -0.10580895, 0.17141938, -0.016562097, 0.0012947313, 0.14808941, -0.050302066, -0.11463079, -0.16838565, 0.20076303, -0.24755126, 0.32946432, -0.106929086, 0.27479282, -0.2672536, 
0.14122978, -0.36550194, -0.2668074, -0.4752127, 0.24049427, 0.16877514, -0.39712834, 0.03786737, 0.0156219145, -0.18697135, -0.39528647, -0.073826745, 0.20885864, -0.10876641, -0.06361876, 0.25374964, -0.047805272, -0.024942044, 0.025993576, 0.099576995, 0.09491501, -0.5645773, -0.052069597, 0.097668, -0.15703759, -0.06501325, 0.046049997, 0.016431957, 0.020196207, 0.07038344, -0.12560096, -0.036603794, 
-0.121985935, -0.43727773, -0.081121095, -0.4624285, 0.2361294, 0.32307085, -0.08302077, 0.28277576, 0.12712802, -0.0988525, -0.29398975, 0.031124499, 0.30147558, 0.027457926, 0.119595364, 0.023555176, -0.027387662, 0.2934082, 0.03589969, -0.060161147, 0.07070552, -0.34749785, 0.070679314, -0.101996474, -0.26038873, 0.24092247, 0.104702465, 0.08002253, 0.03410783, 0.06192487, -0.024497392, -0.7778525, 
-0.0614324, -0.41124704, 0.13460259, 0.0041980445, 0.14918132, 0.115076356, 0.25004736, 0.22075489, 0.16534328, 0.08284804, -0.03455617, -0.055707652, 0.115172885, -0.036058974, 0.21475606, -0.120207086, -0.12179492, 0.101034015, -0.035186872, 0.022198034, 0.10737185, 0.071742244, 0.069432005, -0.07862844, -0.10999913, 0.2616442, 0.04387659, 0.13954751, 0.0597339, -0.21526292, 0.13957542, -0.56322926, 
-0.18773988, 0.04388644, 0.049580134, -0.021190269, 0.22663157, 0.067506194, -0.014316267, 0.08525422, 0.13568597, -0.003958214, -0.23420495, -0.18885061, -0.063611805, -0.0012241044, 0.13252114, -0.2456993, -0.033759315, 0.027934076, 0.26714173, 0.0127108935, 0.20522957, 0.09967797, 0.12005612, 0.14853807, -0.3307082, 0.039972592, 0.13704997, -0.21574898, 0.20320344, 0.05408708, -0.06031774, -0.13683726, 
-0.052120425, 0.23680009, -0.05402107, -0.018360052, 0.04747247, -0.20000614, -0.18612489, -0.02214401, 0.38117367, -0.1585478, -0.30992875, -0.18969163, 0.025365593, -0.02358847, 0.20580123, -0.17699139, -0.4770254, 0.16174766, 0.21380576, -0.26202413, 0.20891204, -0.00044050076, 0.1549469, 0.40076458, -0.5280684, 0.08423371, -0.07812183, -0.039141905, 0.17240876, -0.027043846, -0.114369325, 0.049358867, 
0.2346251, 0.16300897, 0.0114361495, 0.007870481, -0.0020022304, -0.18543066, -0.098838605, -0.09208302, 0.27959558, -0.07504674, -0.14863063, -0.017251976, -0.10266367, -0.07823093, -0.048918184, -0.19412509, -0.40251303, 0.06562757, 0.0858709, -0.27719054, 0.16261427, 0.13374485, 0.0060740155, 0.38711, -0.36138043, 0.06756372, -0.01702708, -0.0027118847, -0.07104936, -0.09826364, 0.02781047, 0.047578465, 
0.008549831, -0.11940522, 0.2706558, 0.090420365, 0.117397256, 0.021674408, 0.15873255, 0.41395685, 0.14523299, 0.2141274, 0.27250433, 0.16893782, -0.108830355, 0.25172737, 0.19125624, -0.007982503, 0.020418612, -0.13011304, -0.1396756, 0.21973021, 0.14967765, 0.22872609, 0.16695884, 0.20803249, 0.017917057, 0.044273548, 0.2171606, -0.33448166, 0.45152962, -0.09081676, 0.29350418, -0.03550647, 
0.17344525, 0.022035401, 0.028736833, -0.056595005, -0.07961417, -0.038454626, -0.21655129, 0.014074452, 0.13733599, -0.052113388, 0.09177354, -0.0221895, -0.07753106, 0.1737707, -0.026870856, -0.0076164524, -0.010776257, -0.051451445, -0.14049366, 0.1550329, 0.0466549, 0.045532823, 0.10256365, 0.108042985, 0.030415561, 0.07056395, 0.120996475, -0.08320929, 0.009277375, 0.027895711, -0.008612368, 0.026527777, 
0.19637607, 0.15857, -0.13644892, -0.023612868, -0.16098826, -0.17456548, -0.31620404, -0.27103972, -0.07668827, -0.21206506, -0.19737408, -0.20848745, -0.023466412, -0.24666776, -0.24821235, -0.024061795, 0.17802365, 0.05918994, 0.041177038, -0.10946166, -0.095272616, -0.048399612, -0.119310915, 0.12694907, 0.053836055, 0.11968185, -0.14254722, 0.12564823, -0.18843637, 0.031239629, -0.29286045, 0.114629395, 
0.15646937, -0.3397995, 0.07169797, 0.038151864, -0.18533573, -0.27094176, -0.0780811, 0.17091776, -0.10130766, 0.039628744, 0.252217, 0.07770701, 0.09191336, 0.06910393, 0.014158015, -0.28958598, -0.08719928, -0.016376873, -0.0034281644, 0.0024735783, 0.11362989, 0.15369858, -0.08669899, 0.18844052, 0.14016935, 0.17608148, -0.011928341, -0.0071527055, -0.09795855, -0.04215811, -0.25907055, 0.075303584, 
0.0041933493, -0.22327049, 0.09630758, 0.0030561546, -0.17391375, -0.34147966, -0.21746741, 0.15671611, -0.19467406, -0.068321735, 0.2174326, -0.091237806, -0.05765259, -0.04115568, 0.13585398, -0.2787831, -0.049405657, 0.042871494, 0.01713402, -0.10855256, 0.27954772, 0.0023324273, -0.14974332, 0.08388611, 0.27195477, -0.036960702, -0.17443699, 0.12141396, -0.18331133, -0.07896775, -0.46050495, -0.14791039, 
-0.09588063, -0.31654653, 0.044899248, -0.011278462, -0.096553825, -0.23775485, -0.19749449, 0.07068544, -0.1576986, -0.17858174, 0.16878708, -0.22578761, 0.046822168, -0.14480962, 0.2480332, -0.44606122, 0.06239266, 0.002615621, 0.004120565, -0.08648313, 0.14056852, -0.034538202, -0.041960455, 0.18888779, 0.3047888, -0.048447102, -0.24826944, 0.14514978, -0.098905474, -0.14333548, -0.54990613, -0.23911034, 
0.06036883, 0.25115198, 0.14984523, 0.06381965, -0.23103265, 0.45297077, -0.036026634, 0.08018539, 0.14557612, 0.02875942, -0.12202946, -0.073603764, -0.36418417, 0.13403177, 0.012145988, 0.09165422, -0.22319438, -0.5274838, -0.26195884, 0.035251677, -0.07387575, 0.10457408, -0.041540068, -0.34079066, -0.10301964, 0.1783244, 0.061526224, -0.086083256, 0.113527924, -0.08046242, -0.081779726, -0.12202139, 
0.090029255, 0.0053590145, 0.06684331, 0.013007584, -0.1665343, 0.16968739, 0.13270979, 0.10202777, 0.24958417, 0.07720616, 0.13810512, 0.09975399, -0.3828288, 0.2530233, -0.25846428, 0.07139871, -0.103390686, -0.6892983, -0.354857, 0.002690905, -0.15110996, 0.13632801, -0.33532965, -0.4739055, 0.21774404, -0.1251243, -0.012051441, -0.19706899, 0.05496268, 0.03554392, -0.1847184, 0.1903497, 
0.34758106, 0.05886544, -0.039826624, -0.080783054, -0.094592646, 0.10432613, -0.053491022, 0.028507445, 0.09414739, -0.014103678, 0.22257917, 0.057412673, -0.25248355, 0.1507039, -0.27187428, 0.24436355, -0.076450184, -0.40847138, -0.13855791, -0.088619806, -0.11943933, -0.1029241, -0.39232552, -0.53954554, 0.3281873, -0.08894037, -0.09445916, -0.040533673, -0.08590781, 0.058663663, -0.3984256, 0.17146815, 
0.15855558, -0.07469992, -0.23065211, -0.30249903, 0.042232364, 0.11339598, 0.05342197, -0.005399398, -0.06417183, 0.019549156, -0.103609666, -0.008695948, -0.09999126, 0.06707846, -0.04112554, 0.30330157, -0.11308867, 0.10782162, -0.044313386, 0.031310845, -0.12646239, -0.10903054, -0.101859644, -0.22990094, -0.17997354, -0.12644942, 0.100067765, 0.0014343924, 0.1422988, -0.02166003, 0.19674811, 0.06851376, 
0.118485175, 0.050412502, -0.36704275, -0.45511386, 0.2692797, 0.23762146, -0.16708753, -0.05172117, 0.048631214, -0.081515774, -0.30940506, 0.17147952, -0.065618485, 0.1644648, -0.24217331, 0.341196, 0.013358838, 0.09305881, 0.26890743, 0.1328443, -0.12845108, -0.30629995, -0.010356081, -0.0017089791, -0.19950481, -0.27474052, 0.14492191, -0.14014807, 0.3160826, 0.075114585, 0.12959233, 0.003174268, 
-0.008107313, 0.1748997, -0.3362475, -0.2962, 0.28973594, 0.34030926, -0.023407027, -0.116014674, 0.016611397, -0.13007268, -0.44603518, 0.19147803, 0.055716086, 0.042860065, -0.15211773, 0.32981128, 0.04967039, 0.115398996, 0.34620023, 0.17003398, 0.018862354, -0.31468835, 0.17056142, 0.026718225, -0.17585665, -0.1741459, 0.20592509, -0.19877832, 0.3432451, 0.12533319, 0.28539577, 0.07697318, 
0.111944415, -0.075762235, -0.023913307, 0.07131989, -0.06384806, -0.5054421, -0.023966592, -0.13879147, -0.05611912, -0.09787656, 0.15418431, 0.017457062, -0.41583386, -0.048344173, -0.12761748, -0.11157859, 0.013022607, -0.4124518, -0.40153074, 0.095630266, -0.04725116, -0.021787556, -0.1714048, -0.019327478, 0.064874366, -0.081338055, -0.006393122, -0.14242917, -0.021948481, 0.009041827, -0.18841493, 0.08669328, 
0.18953095, -0.15520233, -0.0055144522, -0.015604936, 0.10157299, -0.2892978, -0.04756123, -0.06737691, -0.028977068, 0.09754636, -0.055067617, 0.16888642, -0.090449624, 0.03832046, -0.066902764, 0.15384863, 0.20469168, -0.19449206, -0.36332804, 0.24969515, 0.022076242, -0.088220134, -0.1596839, 0.013156941, 0.28682494, -0.11119019, 0.12955874, -0.1856088, 0.29258677, 0.038671553, -0.15290722, -0.003762698, 
0.07260882, -0.062257424, 0.0028762256, -0.122951396, 0.29164204, -0.08687289, -0.16224705, -0.052254062, 0.04257348, -0.0016167993, -0.20778279, 0.12419448, 0.2683021, -0.091243096, 0.022235548, 0.2304932, 0.37718427, 0.28290707, -0.061993033, 0.20260723, 0.025631208, -0.115833946, 0.09797172, 0.23266071, 0.30587858, -0.09186505, 0.1030823, -0.12530434, 0.48299533, 0.11086054, -0.08418108, -0.040433023, 
0.10009167, -0.21653597, -0.058420632, 0.1782402, 0.071102925, -0.082910776, 0.074502364, 0.017526168, 0.069808505, 0.17584436, -0.05270913, 0.1890936, -0.6143537, 0.2940667, -0.026642356, 0.18207109, -0.5609747, -0.25189483, -0.30237138, 0.07664066, 0.049267597, 0.20827758, -0.09574796, -0.16490704, -0.023528969, 0.059131306, 0.07997442, -0.5226559, 0.2597816, 0.04745591, 0.10996987, 0.41179717, 
-0.08220332, -0.16968091, 0.08109703, 0.18050073, 0.16601309, -0.17460413, -0.06614396, 0.09358634, -0.1982022, 0.11026145, 0.08822946, 0.06321287, -0.34005862, 0.23368303, 0.03149547, 0.17483245, -0.41709858, -0.22746423, -0.21695665, -0.0051941643, 0.1087147, 0.16945271, -0.043966465, 0.009933648, -0.11574141, -0.024129657, 0.20193735, -0.51203924, 0.30127767, 0.052446418, 0.16882795, 0.11229514, 
-0.19601789, -0.092506625, -0.014977533, 0.073757924, 0.2438059, -0.12618637, -0.20543289, -0.23241085, -0.26601633, -0.21929145, -0.012006992, -0.2571106, 0.4358668, 0.06319481, 0.12498214, 0.109342545, 0.08805983, 0.13840966, 0.075703114, -0.16432942, 0.17478108, -0.01834114, 0.07555893, 0.07764596, -0.164877, -0.027224557, 0.10662907, 0.03162606, -0.1357802, -0.024372706, -0.08749015, -0.2881639, 
};

const float MagnetometetNetworkFloat_layer_9_bias[] = {
0.053595953, 0.1923105, -0.08034571, 0.20007382, 0.2948408, 0.20308936, 0.14301126, -0.07608755, -0.09414456, 0.11755508, 0.5657792, -0.10038312, 0.06797265, -0.5760586, -0.28135708, 0.34741813, -0.082657576, 0.011452382, 0.19583309, -0.42799544, 0.313958, -0.008460593, 0.064799935, -0.15967233, -0.22140466, 0.18562543, -0.1529607, 0.28081605, 0.2820165, -0.16893436, 0.11735868, 0.015837178, };


const float MagnetometetNetworkFloat_layer_12_weights[] = {
0.02054492, -0.030014832, 0.25840193, 0.23562342, 0.13413887, 0.19209576, -0.32054546, -0.48110536, 0.02098593, 0.012214122, 0.04208108, -0.2918841, -0.13228475, -0.15606861, -0.23659115, -0.27300298, 0.20291482, 0.03324333, 0.06816479, -0.081472754, 0.07267791, -0.1694687, -0.2382947, 0.1617638, -0.035704456, 0.053637616, -0.28401637, -0.07559207, -0.075384095, 0.12314297, -0.035373475, -0.30408973, 
0.036010776, 0.34301263, 0.103508115, 0.15880375, -0.06300828, 0.14320001, -0.4908315, -0.5148957, -0.10147565, 0.0065311096, 0.06170327, -0.45230404, -0.16196136, -0.0033898966, -0.26778328, -0.10891461, 0.25988483, 0.08888038, 0.02140238, 0.008613782, 0.03153251, -0.14230832, -0.23413312, 0.15166841, -0.15794718, -0.040467594, -0.07369805, -0.12657587, 0.0956536, 0.025806457, 0.004742228, -0.21217221, 
0.07247969, 0.33480412, 0.10415344, 0.054913756, -0.115455516, 0.2105601, -0.30523783, -0.27720863, -0.21459311, 0.10118504, 0.35431248, -0.4309293, -0.23844618, 0.08137386, -0.22507426, -0.082551666, 0.14705314, 0.100557335, 0.19606702, -0.21397987, -0.08825109, -0.061205667, -0.3294888, -0.07796098, -0.29277682, -0.22219226, 0.0808528, -0.0853879, 0.21314271, -0.0070140124, -0.01507467, -0.17582709, 
-0.00016890916, 0.0003631431, -0.14620696, -0.021136153, -0.101305075, -0.060656328, -0.16705874, 0.14887887, -0.0075016874, -0.14829628, -0.021728221, 0.06806578, -0.054083318, 0.0015175741, 0.092500165, -0.00416909, 0.05135857, -0.22498642, -0.16742334, -0.068759255, 0.10084312, -0.08413891, 0.08433777, 0.054717187, 0.09471685, 0.007462521, 0.047092464, -0.23464258, 0.00015431314, 0.045797884, -0.09343477, 0.05626184, 
-0.015829155, -0.008855766, 0.06635121, -0.23483396, -0.0063943085, 0.06091437, -0.23082808, 0.012355007, 0.034662366, -0.05796216, 0.02478279, -9.638269e-05, 0.059598517, 0.09210491, 0.1380659, -0.005508163, 0.11561345, -0.041658126, -0.024630092, 0.0092637865, 0.004062318, 0.039778817, 0.06708412, 0.08331175, 0.08189498, -0.039576467, 0.19815442, -0.013901994, 0.105553545, 0.032103747, 0.04788092, 0.10683477, 
-0.012373886, -0.07079797, 0.15462944, -0.44279125, 0.19170766, 0.23421109, -0.16618265, -0.06323704, 0.012781776, -0.16728015, -0.06209801, -0.032722827, 0.23557688, -0.003993537, 0.0017351237, -0.03794646, -0.11331983, 0.22211164, 0.18301615, -0.011544643, -0.15951544, -0.035445526, -0.103364564, -0.087136135, 0.040772233, -0.08712643, 0.085784376, -0.037536502, 0.054023165, -0.09710033, -0.15531883, -0.07900636, 
0.002928187, 0.09805724, -0.62230873, 0.0023955335, -0.04406417, -0.09164897, -0.09158978, -0.0041487007, 0.010441178, 0.00784129, -0.007372541, -0.0024077173, -0.087309286, -0.13020949, -0.08285317, 0.2823821, 0.1556505, 0.0018983679, -0.21189742, 0.0144509915, 0.12667562, 0.20379066, 0.2081706, 0.046555765, 0.17882554, 0.006099973, -0.013895236, 0.09387075, -0.15668245, 0.11928633, -0.036322787, 0.07618226, 
0.007515752, 0.113595426, -0.25055575, 0.11524345, -0.0516921, 0.017863272, 0.07023965, -0.016757527, 0.019593831, -0.066437945, 0.08301559, 0.05531288, -0.043726902, 0.018168753, 0.16394435, -5.8221958e-05, 0.00785511, 0.041068275, -0.017381031, 0.007327088, 0.0022299443, 0.06586097, -0.109014034, -0.019872582, 0.08586183, 0.13028203, 0.11238884, -0.06467193, -0.07658361, -0.007881753, -0.1295067, 0.0067820093, 
0.050765764, -0.03228567, 0.071958885, 0.02313956, -0.048646748, 0.13199243, 0.3280845, -0.07816037, -0.09717994, -0.09100153, 0.16402917, -0.21959288, 0.018320102, -0.059718635, 0.0673184, 0.027409174, -0.35988095, 0.12089533, 0.06340995, -0.07414128, -0.3710578, -0.044488553, -0.38476977, -0.4999916, -0.11076312, -0.21135733, 0.15854289, 0.008499328, 0.17917162, -0.098102495, 0.03296147, -0.056718934, 
0.2632909, 0.12516275, 0.048683096, -0.0351741, -0.11630901, 0.09339572, 0.16801526, 0.13685805, 0.12510285, -0.24522997, 0.062057994, -0.12354312, 0.033509165, -0.39276215, -0.22807999, -0.09650725, 0.2817002, 0.12829457, -0.14889131, -0.49775898, -0.1756849, -0.17850378, -0.44911945, 0.005350767, 0.18396834, -0.105980046, 0.05910906, -0.25631273, 0.09394753, -0.0768491, -0.09591879, 0.06696144, 
0.22070217, 0.21772134, 0.0020989312, 0.06039433, -0.30621028, 0.09234907, -0.06103493, 0.07430769, -0.16271287, -0.15389818, 0.20027126, -0.07760294, 0.019598959, -0.6650714, -0.16941294, 0.039190788, -0.0081215445, 0.19120769, 0.017258842, -0.8885207, -0.019604387, -0.20343488, -0.33263966, -0.0453624, -0.03502765, -0.18843392, 0.040375948, -0.16654721, 0.08550628, -0.15608764, 0.07411976, 0.16253677, 
0.13493817, 0.11065603, -0.018446388, 0.036341097, -0.09840197, 0.11123509, 0.020978136, 0.045370724, -0.0962783, -0.36619148, 0.124530725, 0.14492849, -0.103489555, -0.4166109, -0.066961534, -0.0039981324, 0.06451941, 0.1942017, -0.014767999, -0.712563, -0.03305518, -0.032381084, 0.05480824, 0.10299692, 0.160309, 0.17751731, 0.18927312, -0.18699078, 0.06665537, -0.07412006, 0.09012311, 0.14496133, 
0.09056033, 0.09976419, -0.09326767, -0.06749487, -0.24493755, -0.2759427, 0.011430902, 0.040924475, -0.082330644, -0.018976247, 0.15947655, 0.04579451, -0.06719004, -0.014819303, -0.08802579, 0.10376649, -0.35094276, -0.123727955, -0.024752883, -0.024246752, -0.12481119, 0.14961024, -0.06795332, -0.31011355, -0.13740271, -0.0022339397, -0.07206375, 0.06150893, 0.09527422, -0.14861773, -0.06042332, 0.052298486, 
0.036644097, 0.14995578, -0.06656894, -0.1465287, -0.03767452, -0.08608269, 0.00019638453, 0.124969415, -0.05344892, -0.048381895, 0.09952194, 0.16123994, -0.15305316, -0.035876047, 0.026125198, 0.10876129, -0.060499918, -0.24468341, 0.05781191, 0.00072210515, -0.039967053, 0.15804857, 0.040098753, -0.11364353, -0.12188737, 0.08361508, 0.03470786, 0.07853357, 0.06964888, 0.05932116, -0.0324209, 0.09984752, 
-0.11467376, 0.03763167, -0.21665215, -0.15502349, -0.003247081, 0.018786054, -0.1402157, 0.11163743, 0.0467238, -0.055704594, 0.05814045, 0.12144323, -0.030892482, -0.05246035, 0.17112194, 0.040792886, 0.0725048, -0.15978749, 0.06626931, -0.02130308, -0.10635893, 0.015326829, 0.078192025, -0.16707346, 0.12133736, -0.045571808, 0.08546007, -0.10456178, -0.04377732, 0.25592285, 0.0034516088, 0.025322324, 
-0.3558023, 0.121726364, -0.053515006, 0.0900897, 0.06392169, -0.07685469, -0.11586585, 0.042058673, -0.021655852, 0.051309556, 0.0904267, 0.06701139, 0.07627407, 0.01979187, 0.18221647, -0.066080265, 0.049415577, -0.15627569, 0.042933185, 0.069106705, 0.14647438, 0.06514196, 0.07928755, 0.12613611, 0.092893735, 0.12598737, 0.1292296, -0.2638196, -0.09909745, 0.22637932, 0.049107544, 0.07529147, 
-0.37766606, 0.031769484, 0.11221939, -0.11306814, 0.08280962, -0.0019544596, -0.18859908, -0.0068677403, -0.02990669, 0.039123103, 0.071949735, 0.019404002, -0.013172389, 0.016874444, 0.09456152, -0.032778468, -0.025710257, -0.17907663, 0.06333462, 0.034418315, -0.08644396, -0.05607814, -0.15363783, 0.10797848, -0.012645528, -0.042243347, 0.040956248, -0.4516628, 0.11671446, -0.0024043224, 0.027139323, -0.048236843, 
-0.1363063, -0.0638404, 0.07278522, -0.31496528, 0.0857591, -0.021473756, -0.0033308498, 0.012041099, -0.08687625, 0.13900803, 0.12522775, -0.10142107, -0.025025435, 0.08847525, -0.023148596, -0.054769304, -0.09298064, -0.025368018, 0.06704146, 0.05046411, -0.4197537, -0.101475656, -0.39179415, -0.030466963, -0.3856851, -0.18900032, 0.032468352, -0.6096339, 0.13911115, -0.2864615, 0.07300332, -0.09770603, 
0.121460356, 0.28961316, -0.28747076, -0.17558119, -0.40339303, -0.16688344, -0.04865419, 0.054622192, 0.0679275, -0.040719878, 0.113229424, 0.0680853, -0.26147205, 0.0014828298, 0.23212588, 0.101641, -0.08056548, 0.10336952, -0.10395136, 0.08499729, -0.24104114, -0.033739958, 0.07460057, 0.065656945, -0.48309988, -0.10729485, 0.11688681, 0.12663797, 0.13726448, -0.18479863, -0.106507, 0.026893374, 
-0.0100316685, 0.038194012, -0.123164006, -0.2425513, -0.056206394, -0.030075362, -0.18346976, -0.036064923, -0.06651742, 0.022236006, 0.009790058, -0.4346111, 0.10309969, -0.043004498, 0.020471958, 0.07933225, 0.033841472, 0.08721601, -0.019929236, 0.017461456, -0.054093625, 0.008915004, 0.09478557, -0.022818064, -0.1245805, -0.72355884, 0.050830398, 0.12243049, 0.09420003, 0.031966906, 0.08396516, 0.10122828, 
-0.06565324, -0.26467288, 0.13844675, 0.07238901, 0.29430228, 0.13612545, -0.113278106, -0.4873485, -0.20884827, -0.07407496, -0.2517702, -0.6227853, 0.22761051, -0.15627195, -0.38709918, -0.040744323, 0.019502414, -0.01108195, -0.06854807, -0.24827577, 0.031559445, -0.039543636, 0.06224766, -0.12747557, 0.24144644, -0.41576022, -0.03290335, 0.08441384, -0.1586886, 0.33554265, 0.09378818, -0.08309308, 
0.3154787, 0.12694387, -0.4159119, -0.073772825, -0.3231741, -0.24251688, 0.3103125, 0.05821499, -0.10653355, 0.09548732, -0.0150697725, -0.025384605, -0.3720464, -0.02307268, 0.041703884, 0.16982509, -0.15308239, 0.10817096, 0.06739647, -0.03262061, 0.14423086, -0.08342672, -0.12979463, 0.055985224, -0.105694555, -0.004263871, 0.106541894, 0.23632565, 0.06914094, 0.015798813, -0.09071541, 0.066577114, 
0.16763851, 0.0982899, -0.024207668, -0.1355868, -0.30829003, -0.07179682, 0.18444686, -0.16075395, 0.04727091, 0.06058937, -0.122252315, -0.024790466, -0.22682297, -0.037420377, -0.025819045, 0.10486712, -0.25713718, 0.17953353, 0.07557, 0.013172919, -0.5627693, -0.15917255, -0.14637284, -0.3140746, 0.12844327, 0.030183073, -0.0057157925, -0.1178722, 0.06566998, 0.19365661, -0.199072, 0.07080041, 
0.041531425, 0.08600122, 0.19547592, -0.018815184, -0.118750036, 0.022477996, 0.041689273, -0.13824083, 0.06872743, 0.0362963, -0.11890836, 0.044722043, -0.22120452, -0.052312966, 0.09916803, 0.04732278, -0.46254647, 0.1278862, 0.029156035, -0.034926984, -0.11188524, -0.08916532, -0.35746738, -0.14976485, 0.096365444, 0.20487326, 0.0030214216, -0.082913555, -0.018674301, -0.17258151, -0.4957814, 0.02430812, 
-0.17609192, -0.39638007, -0.12013927, -0.14259608, 0.081505835, 0.01108865, -0.2596984, -0.34230018, -0.23031671, 0.021679193, -0.015456491, -1.0092976, -0.07708319, -0.31908756, -0.19688135, -0.06268141, 0.0882978, -0.08790772, -0.032616377, -0.47053102, -0.12683226, -0.0110509135, 0.030407295, 0.031152925, -0.14032854, -0.5451306, -0.22439727, 0.028809039, -0.07021363, 0.14874528, 0.11665333, -0.14203447, 
0.19095002, 0.027585197, 0.033537734, 0.059678458, 0.0034508153, 0.027095716, 0.060343053, 0.014040095, 0.17746152, -0.104724, 0.13983396, 0.10718489, -0.033426486, -0.17799635, -0.13206027, -0.07089514, 0.19452319, -0.0059051407, 0.04423755, -0.15242635, -0.09764687, 0.017523019, 0.07378282, -0.073114365, 0.20384979, 0.06167634, -0.14729282, -0.07915453, 0.047443863, 0.062126666, -0.039174125, -0.3337977, 
0.06927169, 0.078034125, 0.0074982583, -0.06230147, -0.17592835, 0.057537578, 0.05345247, -0.027405236, -0.024727458, -0.025987247, 0.4600114, -0.21617885, -0.15712127, -0.24388248, -0.0020521577, 0.181365, -0.26579106, 0.26804587, 0.12779726, -0.18866985, -0.3490692, -0.13254493, -0.470654, -0.2526942, -0.03723389, 0.06973042, 0.027958939, 0.20510514, 0.32532895, -0.204935, 0.051662963, 0.04194866, 
0.17944871, 0.079583995, 0.11556697, -0.09858824, -0.055666845, 0.042573024, -0.008007217, 0.08026427, -0.010449708, 0.03192038, -0.032666124, 0.04826317, -0.0030526435, -0.02513285, -0.08597088, 0.11335879, -0.23652251, -0.033184502, 0.04940828, 0.009322325, -0.17338957, -0.039838713, -0.04369349, -0.09044854, -0.09464431, 0.10288666, -0.048898812, 0.10949121, 0.058030307, -0.13017818, -0.14299119, 0.013286363, 
0.08896003, 0.078853466, -0.068349674, -0.088443264, 0.038072225, 0.0149773015, -0.019426567, 0.17844221, 0.008574315, -0.036935214, -0.041378908, 0.08086588, 0.11164732, 0.014351587, -0.26673248, -0.025626222, -0.121053755, -0.07645014, -0.081534296, 0.025190799, -0.15595078, 0.10585613, -0.047752716, 0.010134067, -0.10809378, -0.10087453, -0.07216085, -0.064071745, -0.070349656, -0.011437257, -0.011825009, 0.05759012, 
0.045894418, 0.023904031, -0.084714085, -0.03163093, 0.08795929, -0.07814788, -0.30252305, 0.17996909, 0.07889726, -0.0281663, -0.10244125, 0.10887376, 0.13252254, 0.03879531, -0.2577187, 0.017317023, 0.06891893, -0.1112124, -0.12941909, 0.01798534, 0.09549199, 0.21478029, 0.057184722, 0.21508329, 0.16256972, -0.10685533, -0.06240192, -0.16983192, -0.1768679, 0.2631541, 0.01864149, 0.06821007, 
0.04302278, -0.048946846, -0.07112603, 0.03293418, 0.05890906, -0.07422439, 0.24455702, -0.05390404, 0.046343517, 0.098104015, 0.015992803, 0.062412925, 0.048445776, -0.21472298, 0.10556611, 0.0180013, -0.07483644, 0.10227837, 0.019423332, -0.56684476, 0.16062346, -0.062807135, 0.13245486, -0.117361374, 0.10304353, 0.09576365, -0.0255308, 0.2103544, 0.014392163, 0.031642504, -0.13799667, -0.2952843, 
-0.16151272, -0.17235233, -0.044964474, 0.039289404, 0.0752267, -0.20970345, 0.21438418, -0.031302024, 0.1010055, 0.03610405, -0.20775807, -0.018032363, 0.07611295, -0.23523733, 0.098025635, 0.068967864, -0.2627172, 0.16881694, 0.08769373, -0.4846273, -0.047054723, -0.090042755, 0.030037602, -0.32951996, 0.029787738, 0.024927797, 0.004405766, 0.256173, 0.0034506696, 0.07548809, 0.06403895, -0.2540749, 
-0.21572173, -0.12568621, 0.052565057, 0.059373368, 0.14726187, -0.07804704, 0.20020439, -0.038261402, 0.035904776, 0.032850757, -0.052258056, -0.10617855, -0.06075111, -0.20915236, -0.053782184, 0.031655774, -0.13209791, 0.10504689, 0.08927997, -0.23960313, 0.03572198, -0.0047427076, -0.06948943, -0.24552089, -0.12274489, -0.094349466, -0.022223882, 0.014755515, -0.049829457, 0.20674047, 0.155412, -0.22869362, 
0.045746967, 0.017805276, -0.08520966, 0.1843309, -0.20308425, -0.102621354, 0.29504898, -0.007999307, 0.011433783, -0.19730899, -0.043398317, 0.13782066, -0.3640776, -0.049694724, 0.17848794, -0.17437413, -0.11146423, -0.01651066, -0.2273811, 0.03904232, 0.061855223, -0.058193363, -0.0057957596, 0.23635931, 0.103938684, 0.19315006, -0.16333075, 0.077422954, -0.1760647, -0.51019996, -0.35476747, -0.13611321, 
0.08437195, 0.024944233, -0.18229447, 0.0066289683, -0.14749007, -0.18003285, 0.16652912, 0.081611946, 0.03574611, 0.04353285, 0.09667682, 0.005766895, 0.026346995, 0.052585613, 0.2548455, -0.023162784, 0.04487983, -0.041618362, -0.09093143, 0.019216778, -0.04807057, 0.058813255, -0.016880464, 0.06550385, -0.17389882, -0.0061651003, -0.03593567, -0.018426357, 0.117728315, -0.37814468, -0.06098444, 0.05532413, 
-0.05198772, -0.08285361, 0.031264424, -0.16188508, 0.048927054, 0.14917451, -0.089968316, -0.033455737, -0.09729372, 0.07945363, 0.030862005, -0.13665216, 0.5322695, -0.084100895, 0.13574693, 0.026293486, -0.038913038, -0.045981117, 0.12916002, -0.09861034, -0.1949788, 0.009169085, -0.06653832, -0.097381316, -0.3348859, -0.1223886, 0.09183848, 0.037562475, 0.13035698, 0.10938368, 0.46178707, -0.020784788, 
-0.027162274, -0.24617332, -0.09770463, 0.16656022, 0.027707322, 0.26919597, -0.3884727, 0.037676115, -0.01947033, -0.2440209, -0.27266306, 0.052019443, -0.08104096, -0.3639503, -0.048496373, -0.15334669, 0.0017853907, -0.05584334, -0.1696303, -0.2341036, 0.14664344, -0.025334304, 0.14846623, 0.0026780455, 0.10439177, 0.07131265, -0.13799532, -0.075401284, -0.32581225, 0.14418486, 0.054940283, -0.2701389, 
0.09040877, 0.112043664, -0.14300053, 0.14847836, 0.0068963305, -0.019923251, -0.064818166, 0.12517442, 0.09743162, -0.11156772, 0.19044568, 0.074779406, -0.067698434, -0.13377278, -0.030934855, -0.30553716, -0.13924935, -0.07038729, -0.26659033, -0.08045999, 0.03937036, 0.09714719, 0.018819407, 0.045420453, -0.052028682, 0.24369241, -0.26501477, -0.14677034, -0.053019643, 0.098707296, -0.18623883, -0.052402157, 
0.050238784, 0.18400659, -0.1510852, -0.047404554, 0.047496222, -0.023620225, -0.098518655, 0.14540648, 0.058075756, 0.017383648, 0.09196605, -0.051382322, -0.027228018, -0.11235622, -0.16362971, 0.12556432, -0.18233734, -0.12133976, -0.18550976, -0.021321887, -0.08704514, 0.04634499, -0.06299586, 0.030230993, -0.15631819, 0.022189781, 0.05182348, 0.11663857, 0.16528606, -0.13969116, 0.065099806, 0.15483001, 
0.10365234, -0.12989593, -0.3290526, -0.05598468, 0.014684731, -0.0044060093, -0.12074466, -0.06907261, -0.034331456, 0.1019573, 0.09798924, -0.062383637, 0.037752833, -0.045605276, 0.022147343, 0.0900787, 0.1214705, -0.15188736, 0.045041095, -0.058539152, 0.18916623, 0.063624404, 0.04605353, 0.039335877, -0.07104009, -0.058125015, -0.037814006, -0.16076274, -0.014789831, -0.44248965, 0.17186084, -0.06461569, 
-0.019895112, -0.007761134, -0.011079282, -0.17357682, -0.10253445, -0.019540535, -0.22198044, -0.057591405, -0.058763985, 0.024496604, 0.17440253, 0.002403306, -0.1239701, -0.16272932, 0.11275527, 0.1605065, 0.06172887, -0.1415764, -0.049700566, -0.10887259, 0.19823147, 0.10241871, 0.094581254, 0.053436495, -0.052440178, 0.028892327, 0.057306793, -0.03858619, -0.03952133, -0.5470778, 0.14731635, -0.026030203, 
-0.115492955, -0.04168105, 0.0579115, -0.060992807, -0.06724729, 0.08889439, -0.16920727, 0.05288829, -0.11461646, 0.03346335, 0.110540785, 0.02903938, -0.0632448, -0.3091244, 0.08389678, 0.12409271, 0.02126507, 0.042146463, -0.042338867, -0.085150585, 0.017330747, 0.049046114, 0.10852265, -0.07630979, -0.20283294, 0.00629169, 0.08672369, 0.07247259, 0.0060752467, -0.22496289, 0.13886888, -0.07219173, 
0.11185366, 0.07920099, 0.07862768, -0.0392183, -0.0010401107, -0.14178532, 0.07779779, -0.09371678, 0.05668643, -0.22340763, -0.2561407, 0.10867099, -0.059820235, 0.08435229, 0.22068278, 0.086957365, 0.0005396694, 0.17682421, 0.13933003, -0.012774945, 0.03408986, -0.22049728, 0.110964596, 0.088479266, 0.019522717, 0.19967084, 0.061462216, -0.03953802, -0.37340122, -0.16322085, -0.32551032, -0.021806667, 
-0.2528565, -0.22883765, -0.024804851, -0.04436809, 0.03657593, -0.29899108, -0.30527753, -0.33864135, 0.024087599, -0.19686976, -0.40984815, 0.039728858, -0.07884467, 0.09406932, 0.13500652, -0.018322183, 0.0044951453, 0.030116359, 0.17925622, -0.062800884, 0.05596381, -0.14921395, 0.10389746, 0.14110184, 0.009822109, 0.16848312, 0.10261796, 0.006563905, -0.4393244, -0.08266681, -0.012657187, -0.03135589, 
-0.7163706, -0.2967563, -0.1455617, -0.11902842, 0.18711527, -0.23682286, -0.2839877, -0.38809535, -0.025926769, -0.09138357, -0.38155472, -0.034331612, 0.034791354, -0.17370492, 0.080238, -0.012892017, 0.13781218, 0.051421326, -0.08932297, -0.23111519, 0.049447726, -0.028320823, 0.09541196, 0.18505268, -0.0040384713, -0.010181401, 0.008160784, -0.0843788, -0.63463193, 0.10089095, 0.14037149, 0.112521134, 
0.028861165, -0.13437389, 0.15163977, 0.07203485, 0.15112342, 0.0682626, -0.36315757, -0.18938836, -0.27458492, -0.02874974, 0.01146117, -0.24216378, -0.057737917, 0.11590594, -0.05719666, 0.0718214, 0.097617626, 0.019310886, 0.0738208, -0.011243836, 0.06885728, 0.095810026, 0.033736434, 0.21805872, 0.11794624, -0.18859124, 0.124623656, -0.07897897, 0.035499062, 0.10275221, 0.03259661, 0.075994514, 
0.079606965, -0.02948476, -0.13374405, 0.06697931, -0.116625, -0.05238514, -0.09724457, -0.19470702, -0.4137096, -0.008323451, -0.010742958, -0.17953072, -0.35064515, -0.037293456, -0.16414873, 0.0029898405, 0.14660159, 0.1310201, 0.09647503, -0.12639381, 0.04063779, -0.020432496, -0.008629395, 0.1907884, -0.06749413, -0.08575485, 0.055025082, -0.21360719, -0.078681484, 0.045362256, 0.118117124, 0.15439962, 
0.2571565, -0.04134559, -0.2672761, 0.035318006, -0.36602673, -0.22490121, 0.30766174, 0.0019411909, -0.2731781, -0.046384413, -0.042011052, -0.08001332, -0.4409345, -0.074613355, -0.09620161, 0.090146996, 0.06824141, 0.07286178, 0.04731546, -0.027137967, 0.06046608, 0.06311753, -0.02663442, 0.1601774, -0.22065672, 0.048291072, -0.10122585, -0.20638652, -0.15479366, -0.16196479, 0.057946328, 0.13484994, 
0.0027151187, 0.06468875, -0.16292466, 0.22795159, -0.05471253, 0.10875725, -0.060670886, -0.3661382, -0.07535211, -0.11416448, 0.13285145, 0.08502519, -0.17181972, -0.13263488, -0.011068752, 0.10148833, 0.15624182, 0.29311383, 0.06201237, -0.15299709, 0.14587052, -0.019725522, 0.094164506, 0.15275365, 0.04707736, 0.03382644, 0.09696388, 0.09756897, 0.09964338, 0.08656076, 0.03570442, 0.02984931, 
0.04245692, -0.051194593, -0.03804951, 0.2660359, -0.04767825, 0.02116811, -0.1757527, -0.8147152, -0.086477116, -0.22559266, 0.068124674, 0.11429999, -0.17005497, 0.07453337, -0.22875777, -0.08678166, 0.070145816, 0.2732553, -0.16977833, -0.11167174, 0.04776649, -0.16551417, 0.06683553, -0.06599148, 0.058991898, 0.034569733, -0.21609189, 0.1216851, -0.2916886, 0.048872706, -0.083505355, -0.3166366, 
-0.0976492, -0.1090552, -0.081130475, 0.06481426, -0.18225299, 0.020723045, -0.37189865, -0.74219793, -0.043191224, -0.19271933, -0.106803775, 0.052610032, -0.13462502, -0.10367044, -0.044206295, -0.10097701, 0.0011393011, 0.1720005, -0.15202248, -0.34456095, -0.06885138, -0.20094794, -0.027604518, -0.14548486, 0.050897706, 0.081875764, -0.15840778, 0.10925426, -0.2519585, 0.05287425, 0.013596521, -0.64556944, 
-0.07065166, 0.010590031, 0.14785102, 0.22455291, -0.15324962, 0.20605947, -0.4266054, -0.065813944, 0.023395754, 0.095312074, 0.010146535, -0.08809556, -0.0812059, 0.10409581, 0.090683, 0.23390003, 0.13107644, -0.3373983, 0.0450406, 0.1562696, 0.09603531, 0.2285501, 0.10212362, 0.13714062, 0.010086986, 0.02719029, 0.19911127, -0.059208654, -0.023369463, 0.0059717703, 0.24338701, 0.15503466, 
-0.052238405, 0.119561724, -0.016114872, 0.09643406, -0.10837499, -0.09186357, -0.111164354, -0.15324563, 0.09946546, -0.12969, -0.17738084, -0.0012024671, -0.43452582, -0.0594101, -0.02158906, 0.1578726, 0.06353145, -0.22078541, 0.012345958, 0.015303095, 0.01780763, -0.081249185, 0.063684925, -0.037704498, -0.0107893385, 0.057968985, 0.15086547, -0.16071203, -0.08169875, -0.09760107, -0.035427198, 0.11207685, 
0.038456604, 0.08024988, 0.16802782, 0.0016457062, 0.0013754923, -0.1436649, 0.059683092, -0.078135766, 0.08417437, -0.2303704, -0.036874294, 0.0128024, -0.44194192, -0.13253188, 0.06472726, -0.00872712, -0.13110282, 0.031157397, 0.029081514, -0.0174944, -0.1488632, -0.17032672, -0.12175301, -0.21215603, -0.03628198, 0.050488815, -0.023855207, 0.063484095, 0.034521252, -0.15972081, -0.27931118, -0.08382489, 
-0.08016055, 0.0885563, 0.094790965, 0.11397346, -0.19828475, 0.38787374, 0.2761536, 0.048470095, -0.27924603, -0.08755739, 0.14795206, -0.14973876, -0.28597865, -0.42792797, 0.062253714, -0.17023076, -0.08356024, -0.008920356, -0.09440585, -0.2677922, 0.02166975, 0.026545653, -0.21736315, 0.1606864, -0.39168954, 0.028072456, -0.2495452, -0.032758314, -0.14519048, -0.11118276, -0.07041827, -0.20049727, 
-0.11935334, 0.22920306, -0.18355204, -0.05890576, -0.18231797, 0.15426251, 0.34496012, -0.025730195, -0.23859823, 0.08183175, 0.29093537, -0.047226045, -0.16991828, -0.30191112, -0.2561243, 0.10436205, 0.05048661, -0.11618835, -0.065282114, -0.19660802, -0.0776974, 0.11332385, -0.16710964, -0.05111246, -0.19621995, -0.29456165, -0.18604702, 0.06980294, 0.23231249, 0.11649897, 0.18054922, 0.038964894, 
0.0067892848, 0.14573799, -0.2726772, 0.07074756, 0.0023658813, 0.07577734, 0.18587536, 0.068046734, 0.07773288, 0.08410556, 0.10736848, 0.06181875, 0.08002962, -0.18523593, -0.2317165, 0.036909096, 0.14944917, -0.26749054, -0.16155855, -0.10628021, 0.08040197, 0.04376826, 0.07870871, 0.03584877, 0.16810057, -0.1096589, -0.096778356, 0.20541288, 0.03493169, 0.29527363, 0.09004465, 0.11552336, 
-0.20295188, -0.18250577, -0.57498354, -0.076651245, 0.07065851, -0.3169745, 0.17618154, -0.0058543854, -0.2135377, 0.18841627, 0.017244453, -0.2193677, -0.05472652, -0.015001908, -0.452936, 0.07938539, 0.043898165, -0.17377368, 0.36146915, -0.12251361, -0.13702036, 0.02706047, -0.10311116, -0.08916879, -0.25635237, -0.22401007, -0.118340656, 0.09723182, -0.03589136, 0.08831348, 0.01658813, -0.11840683, 
-0.16323161, -0.030291175, -0.28819376, 0.05333588, 0.124066055, -0.2674739, 0.11273, 0.04961225, -0.17632262, 0.1597662, -0.0506546, 0.0612873, 0.17015833, -0.105425425, -0.32859048, -0.061702374, 0.010286646, -0.2958967, 0.27134255, -0.07136517, 0.008250884, 0.03394792, -0.063200176, -0.051568054, -0.052615665, 0.07561262, -0.29607925, 0.07158715, -0.15341288, -0.024960838, -0.07344993, -0.08854501, 
-0.3997812, 0.056055654, -0.61577445, -0.029962914, 0.089823045, -0.28707936, -0.15519907, 0.22115882, -0.03214054, 0.035161264, 9.5519035e-06, 0.12188359, 0.14811489, 0.10169431, 0.012915765, -0.010180943, 0.120444365, -0.52581596, 0.06838026, 0.051382005, 0.17033742, 0.07072831, 0.054030035, 0.20016338, -0.13604093, 0.052297123, -0.13629419, 0.02671101, -0.11354535, -0.10774713, -0.14587656, 0.17847408, 
0.14043808, 0.077218644, -0.044191077, 0.18374842, 0.120448366, -0.036636844, -0.1832907, -0.09150678, 0.2455683, -0.04092005, -0.14031199, 0.18277803, 0.018979825, -0.2812532, 0.20371561, -0.18332353, -0.36955163, 0.052100234, -0.01786951, -0.4057588, -0.0921157, -0.26214954, -0.28345114, -0.27177984, 0.13304412, 0.17497334, -0.11414145, -0.1640239, -0.06518214, -0.09819788, -0.17993154, -0.26420188, 
0.06266777, -0.013608831, -0.035735887, 0.024184894, 0.053542886, -0.123839594, 0.09177893, 0.19535032, -0.05989209, 0.057119746, 0.16633661, -0.013479693, -0.016743518, -0.31976095, 0.2523206, 0.07565899, -0.3183661, -0.03993084, 0.065285735, -0.26972455, 0.0023545413, -0.023667166, -0.22454001, -0.054462377, -0.21707712, -0.20533668, -0.15482959, -0.10050986, 0.04303185, -0.14568374, 0.12262135, -0.018806506, 
-0.12185142, 0.03731851, -0.111008465, 0.0031629715, -0.009065035, -0.15217455, 0.03390505, 0.106620416, -0.15169024, 0.07003672, 0.14004356, -0.07584813, 0.14475717, -0.3712316, -0.3001115, 0.22121534, -0.016153133, -0.2621922, 0.056846086, -0.16441014, 0.11481619, 0.16953473, 0.07879993, 0.16134013, -0.14337464, -0.30024728, 0.06987058, 0.09871282, 0.010790728, -0.037656248, 0.23077725, 0.16390511, 
-0.027138762, -0.103499606, -0.09586149, -0.11856268, -0.109791465, 0.06577352, -0.35059094, -0.15276924, -0.2396251, -0.15819372, -0.043020725, -0.21704943, -0.03441679, -0.04121466, -0.15073529, 0.20772138, 0.18537958, -0.085277, -0.0077208946, -0.09585751, 0.16186027, 0.122267276, 0.12581587, 0.11704101, -0.06605442, -0.18041259, 0.15882914, 0.06445506, -0.0012758657, -0.0775931, 0.3793293, 0.22908224, 
-0.09373602, -0.029441213, -0.036473792, 0.13992421, 0.13085647, 0.03744014, 0.06970801, -0.07893562, -0.08845696, -0.34641486, -0.18160476, 0.004812371, 0.03445151, -0.10564208, 0.06273654, -0.058657717, 0.04690848, -0.06537539, -0.12091779, -0.07717026, 0.09961401, -0.098217994, 0.1161512, 0.0334415, 0.14065821, 0.055869203, -0.0074234437, 0.045360778, -0.32551977, -0.116698705, -0.10460725, -0.012290074, 
0.32171017, 0.15064617, -0.05634683, 0.098467834, 0.017621, -0.0737117, 0.33446023, 0.070779525, 0.13809206, 0.004547035, 0.08718046, 0.11068775, 0.048468515, 0.115681395, 0.23886107, -0.2647006, -0.11564265, -0.0053870906, 0.059442855, 0.095897175, -0.1790575, -0.1696455, -0.052053757, -0.13170426, 0.046803635, 0.06087583, -0.08140056, -0.037371535, 0.10642531, -0.29400557, -0.18046632, -0.058687437, 
-0.027641702, -0.1817068, -0.06105821, -0.0032307669, -0.13764635, 0.23472844, -0.28961417, -0.029859921, -0.10319721, -0.07288988, 0.19133665, -0.20299153, -0.13654922, 0.00037970324, -0.3260045, 0.20682375, 0.099786624, -0.013568724, -0.13575819, -0.033561647, 0.15066265, 0.005350665, 0.16136809, 0.012020469, -0.15597546, -0.2981151, -0.060711853, 0.2961049, 0.10605566, -0.19117758, 0.090637654, 0.022116214, 
