#include <MagnetometetNetworkInt8.h>


const int8_t MagnetometetNetworkInt8_layer_0_weights[] = {
-100, 61, 46, 70, 
47, 114, 69, -17, 
8, -51, 0, 10, 
112, -17, 47, 74, 
22, 37, 43, -2, 
-71, -64, 81, 0, 
-64, -42, -47, -93, 
73, -32, -48, 0, 
81, 61, 88, -69, 
-127, -33, 19, -7, 
7, -3, -13, 1, 
127, 34, -4, 4, 
50, -5, 101, 56, 
63, 47, 31, 97, 
-28, 74, -94, -89, 
-109, -30, -103, 2, 
31, -44, 16, -34, 
-90, -60, 4, -29, 
15, 72, -3, 12, 
-97, 41, -81, -20, 
75, -67, -49, -28, 
6, -58, -56, 79, 
92, 8, -4, -94, 
-49, -84, -34, -27, 
42, 6, 74, 50, 
0, -26, 86, -62, 
9, 94, -43, -44, 
81, -65, -59, 70, 
-43, -13, 91, 1, 
-13, 65, -44, 20, 
66, -95, -21, 98, 
102, 56, 64, 73, 
-29, 93, -20, -26, 
-31, 70, -42, -6, 
29, -63, -48, -44, 
94, 5, 124, 57, 
-80, 10, -106, -54, 
-72, -5, -51, -102, 
11, -104, 26, 46, 
-64, -57, -112, -22, 
-93, 1, 66, -75, 
69, -81, -94, -44, 
54, -82, -34, -45, 
-5, 90, 13, -22, 
127, 74, 67, 104, 
26, 36, 28, 25, 
16, -50, 15, 66, 
-92, 16, -21, 73, 
};

const int8_t MagnetometetNetworkInt8_layer_0_bias[] = {
33, -112, 6, -6, 81, -21, 54, -116, -120, 55, -94, 11, 31, 44, -88, -83, };


const int8_t MagnetometetNetworkInt8_layer_3_weights[] = {
-8, 36, 29, 54, 38, -25, -33, -57, 29, -2, 29, 23, -127, -49, 75, -43, 
-7, -26, 37, 89, 91, 17, -29, -18, -5, 24, 19, -16, -127, -73, 64, 26, 
-5, -37, 23, -26, 53, -33, 1, -40, -20, 20, 0, 15, -78, -26, 42, 49, 
30, 31, 4, 47, -27, -21, 42, 56, -30, -4, 50, 0, -22, 37, 30, 10, 
-24, 64, 17, -7, -44, 43, -42, 97, 24, 13, 79, -18, -24, 0, -10, 52, 
5, 24, 6, 101, -48, 33, -25, -57, 91, -47, 73, -8, 7, 32, 27, 50, 
80, -4, -26, 10, 81, -31, 43, -33, -34, 5, 55, -34, 7, -20, -31, -40, 
-3, -34, -1, 51, 34, -48, 82, -24, -73, 43, 52, -5, -15, 26, -9, 12, 
-12, -27, -12, -2, 32, -18, 64, 14, -42, 15, 17, -7, -7, 41, 15, -10, 
3, 17, 23, -127, 26, -24, -24, -19, 33, -54, -35, 72, 42, -33, 7, -127, 
-21, 11, 35, -127, -38, 22, -32, -7, -2, -73, -55, 52, 23, 44, 23, -127, 
-11, -16, 14, -127, 24, 2, -27, -34, 44, -119, -20, -30, 3, 22, 59, -127, 
15, -14, -11, 16, -28, 19, 46, 41, 117, -9, 52, -27, 68, 18, -8, -1, 
-67, -32, 0, -4, 45, 85, 33, 55, 20, -34, 102, -15, 106, 19, 9, -20, 
-86, -27, 19, -102, 29, 59, 17, 17, 41, -29, 44, 35, 24, -16, 34, 12, 
2, 6, 47, -127, -22, 14, -6, 82, 55, 21, 59, 1, -59, -44, -1, 4, 
21, 58, 0, -127, -18, -16, -13, -17, 57, 47, 33, -61, -36, -30, -29, 33, 
7, 26, -13, -127, 37, -39, -20, -38, 52, 52, 68, -73, -45, -59, 24, 5, 
-1, -26, 52, -67, -8, 8, -12, 17, -82, 42, -15, -42, -32, 11, -58, 64, 
18, 59, -1, -116, -8, 17, -6, -4, 22, 29, 33, -34, 14, -16, 127, 34, 
7, -32, -14, -65, -38, -12, 80, 6, 69, -23, -16, 18, 10, -54, 1, 13, 
-21, -30, -4, -127, -7, -2, 22, 33, 2, 52, 30, 19, 21, 48, -126, -32, 
-20, -6, 27, -127, -92, 19, 3, 38, -62, 46, -5, -19, 68, 10, -127, -3, 
-29, 40, 5, -127, -64, 26, -14, 58, 5, 0, 17, -50, 56, 37, -88, 44, 
-3, 33, 10, -127, -19, 25, 37, 40, 27, -20, -4, 26, -1, 0, -38, -11, 
17, -13, 1, -127, 24, 42, 17, -14, 19, 5, -5, 0, -12, 40, -20, -44, 
18, 18, -7, -127, 5, 19, -17, -29, 52, 47, -34, 37, -7, -8, -33, -49, 
61, 8, -36, 45, -12, 6, -110, 18, -36, 2, 14, 40, -68, -77, 30, 19, 
3, 20, -38, 37, 70, -31, -101, -25, 9, 42, 49, 41, -93, -123, 16, -55, 
6, 0, -6, 2, 38, -8, -50, -54, 50, -20, 75, 20, -87, -60, 101, 21, 
29, 14, -30, 77, 38, -24, -50, -47, 26, -43, 32, -19, -69, -66, 6, 27, 
59, -18, 5, 15, 22, -67, 62, -93, -1, -51, 94, 16, -77, -56, 39, 36, 
-20, -1, 17, 20, 12, -12, 89, -68, -30, 0, 44, 13, -25, 13, -2, -11, 
45, 48, -52, 8, -20, 31, 31, 67, -44, 38, -1, -77, 33, 5, -16, -9, 
56, 30, -83, 43, -8, 65, 24, 22, 20, 25, 56, -117, 23, -46, -14, -61, 
26, -9, -66, 66, 11, 23, 10, 21, 6, 15, 61, -70, -16, -22, -30, -8, 
-77, -7, 43, 76, 2, -72, 41, 31, -41, -30, 68, 45, -30, 10, 24, 7, 
-66, -26, 40, 91, -37, -14, 67, 59, -16, -27, 11, 43, -17, 61, -29, 69, 
-127, 62, 1, 20, -46, -23, 20, 64, 2, -17, 32, 20, 16, 50, -22, 31, 
-23, 4, 11, -16, 39, -52, 17, 55, 15, 43, 51, 16, -6, -2, 47, -22, 
-52, 40, -17, -81, -25, -38, 44, 67, 23, 23, 63, 63, -7, 9, 22, -17, 
-45, 17, -28, -117, -28, 24, -30, 68, 6, 51, -13, 35, 66, -38, -8, 3, 
-34, -4, 14, 127, -3, 61, 39, 25, 18, 45, -21, 76, -6, 71, 30, -127, 
6, 1, 8, 127, 21, -20, -16, 0, 23, -6, -5, 3, 1, -1, 46, -127, 
33, 69, -47, 92, 9, 13, -34, -2, 10, 5, 19, -79, -4, -47, -96, -111, 
3, 37, 35, -127, -7, 2, -53, 33, -9, 16, 39, 40, -127, 2, 21, -23, 
-7, 13, 34, -127, 0, -47, -66, 8, -4, 21, 57, 49, -127, -74, -31, 17, 
-13, 28, 9, -127, 44, -80, 2, -53, -37, 30, 39, -8, -127, -49, -38, -29, 
};

const int8_t MagnetometetNetworkInt8_layer_3_bias[] = {
27, -69, 48, 0, -64, -17, -11, -28, 23, -5, -6, 2, -74, -56, -27, 7, };


const int8_t MagnetometetNetworkInt8_layer_6_weights[] = {
27, -8, -21, 47, -16, 55, 72, 11, -35, 14, 84, 43, -109, -1, 55, -127, 
38, 19, -27, -18, -8, 37, 79, -29, -24, 5, 121, 64, -83, -25, 14, -127, 
22, 6, 13, -11, -52, 65, 38, 39, -5, -45, 58, 70, -22, -58, 78, -127, 
-57, 45, -49, -118, -33, -50, -127, -21, 12, -17, -71, 47, 34, -23, 127, 38, 
-23, -8, -2, -105, -9, -15, -127, -34, -22, 46, -29, 101, 37, -11, 127, 20, 
13, -54, 85, -31, 70, 12, -74, -40, 17, 61, 5, 103, 45, -41, 96, 31, 
60, -17, -44, 100, 6, -19, 44, -40, 6, -38, -4, -31, 29, 46, 45, 53, 
113, 35, -54, 75, -1, -14, 42, -14, -13, 18, 18, -55, 15, 56, 60, 62, 
53, -32, -46, 88, -19, -27, 48, 28, 39, 64, 42, -56, -30, 72, 3, 8, 
-14, 50, -39, 7, -63, 53, 4, 0, 111, 23, 32, 30, -17, 7, -45, 56, 
-24, -19, 4, 53, -61, 72, 20, -18, 62, 8, 11, 2, -103, 24, -43, 104, 
20, -55, 28, -6, -48, 45, 59, -40, 90, 32, 8, -4, -57, -32, -32, 61, 
-40, 20, 116, 40, 37, 15, -1, -78, -95, -26, 30, 31, 18, 7, 61, -18, 
-24, 68, 45, 6, 33, -14, 23, 53, -111, 7, -13, -4, 116, 43, 50, -77, 
27, 74, -69, 91, -27, 19, 16, 44, -22, 55, -19, -12, 46, 63, 37, -38, 
-111, 36, -4, -2, 52, 34, -10, 57, 39, 68, 12, -127, 76, -37, -55, -83, 
-127, 59, 37, 90, 19, 33, 89, 29, 47, 67, 44, -127, 49, 48, 28, -53, 
-105, 4, 11, 11, -25, 53, 50, 37, 43, 52, 47, -127, 68, -24, 28, 24, 
-31, 40, -48, -23, -28, 49, 71, -3, -19, -6, 25, 9, -127, -20, 14, 77, 
30, 67, -36, 22, -19, 94, 66, -127, -31, 42, 77, -5, -127, -37, -58, 66, 
49, 77, -8, 26, 93, 45, 60, -127, -29, 60, 54, 27, -116, 52, -47, 28, 
-15, 24, -19, 47, 10, -50, 67, 32, -26, 49, 62, -8, -19, 51, -34, 108, 
-12, -42, -53, 108, 63, -54, 8, 102, -35, 67, 32, -15, 23, 79, -61, 84, 
-25, -48, -35, 79, 78, 3, 20, 27, -20, 34, 73, 22, -39, -17, -88, 60, 
-43, 87, -30, -15, 58, 22, 64, 58, -33, -37, -78, 15, 33, 73, 87, -19, 
10, 71, -11, 29, 2, 99, 104, 44, 63, -2, 1, 17, 3, -17, 119, -82, 
99, -32, 25, 44, -29, 29, 0, -57, 31, 42, 20, 47, -63, -61, 34, -117, 
-14, -12, -20, -60, -70, 37, 15, -111, -65, 30, -9, -9, -39, -10, 2, -41, 
38, 24, 4, 25, -18, 27, 70, -127, -30, 77, 76, -53, -36, 15, -9, 40, 
94, 11, 23, 4, 88, 80, 42, -62, -21, 86, 47, -47, 74, 102, -59, 12, 
-44, -52, -16, 21, -64, 13, -26, -127, 13, 85, 1, -29, -81, 17, 12, 55, 
30, -121, 25, -13, -22, -73, -69, -127, 15, 98, 3, -58, -82, -9, -44, 89, 
45, -109, 76, 20, 51, -98, -40, -15, -4, -45, 13, -68, -33, 15, -53, 22, 
-21, -13, -80, -28, -36, 19, -38, -57, -18, 5, 36, -41, -19, -25, 62, -32, 
47, 6, 10, -41, 92, -11, 49, -43, -44, 11, 127, 35, 23, -67, 22, 30, 
71, 36, 46, -27, 122, -32, 44, -10, -4, 10, 68, 14, 35, -44, 57, 11, 
-70, -91, -25, 5, 69, 4, 21, 95, 42, -31, -32, 49, -8, -68, -1, -76, 
-90, -100, -40, 101, 74, -25, 25, 127, 10, -35, 4, 45, 24, -71, -40, -94, 
-83, -73, 23, 43, 70, -39, 15, 89, -25, 11, 1, 57, -19, -49, -32, -78, 
92, 42, 77, 25, 29, -19, 65, -60, -77, 122, 56, 23, -37, -15, 112, 7, 
20, -51, 15, 34, 41, 19, 52, -12, -79, -26, -17, -2, -33, 86, 127, -35, 
-76, -42, -69, -32, -24, 14, -18, 20, -45, -69, -84, 16, -3, 32, 80, -23, 
-18, 39, -105, 24, -50, -100, -66, 33, -38, -17, -63, -120, 84, 6, 84, -46, 
30, 40, -127, 7, 12, -49, 99, 39, -35, 36, -24, -127, 74, 9, 127, 18, 
101, 58, -127, -16, -37, -69, 48, 51, -15, 108, 74, -127, -16, -20, 118, 10, 
46, 71, -3, -127, -10, 55, 73, -6, -112, 19, 13, 55, -48, 59, -96, 45, 
-4, 23, 56, -108, 8, -42, 81, -52, -127, -27, 56, 62, 83, 8, -42, -41, 
14, -22, 49, -127, 75, -73, 64, -51, -124, -2, 3, 34, 104, 18, -49, -26, 
4, -125, 62, 0, -51, 62, 27, 31, 58, -127, -30, -63, 45, 16, -127, -21, 
-54, -127, 52, 33, -2, 14, -1, -6, 88, -127, -53, -54, 12, -10, -123, -70, 
-59, -85, -7, -25, 28, 32, -16, 49, 58, -116, -79, -66, 26, -24, -127, -115, 
-127, 4, -1, 44, 31, -113, -8, 85, 87, -127, -59, 12, -25, 7, 35, -127, 
-127, 16, 19, -5, 49, -95, 20, 120, 89, -127, -127, -6, -36, -26, -2, -104, 
-85, 36, -26, 5, -9, -50, -40, 53, 55, -120, -53, 20, 31, 31, 43, 34, 
-27, -39, -50, 18, -13, -94, -10, -26, 32, -74, -127, -4, 26, 11, 44, 16, 
-77, -32, -20, -38, 48, -81, -15, 32, 28, -127, -127, -11, 48, 65, 63, 49, 
-86, -51, 11, 38, -8, -77, -35, 26, 9, -127, -127, 12, -14, 51, 35, 30, 
-8, -17, 21, 44, 73, 22, 105, -71, 25, -7, 30, -31, 8, 13, 23, -23, 
65, -38, 36, 46, 125, -1, 127, -127, 20, 27, 80, -70, 22, 4, 86, -16, 
-9, -29, 37, -10, 38, -25, 62, -84, 90, -23, 29, -54, -5, 13, -14, 6, 
32, -7, -22, 8, 82, -82, 32, -26, -32, -26, -79, -127, 127, 36, 17, 7, 
54, 48, -65, 91, 35, -83, 45, -58, -10, -24, -80, -127, 34, 9, 80, 20, 
-23, 49, -44, 32, 31, 11, 77, -57, 1, -29, -80, -127, 9, -47, 43, 50, 
83, 77, 12, -9, 8, 80, 46, 11, 41, 35, 27, -66, -1, 32, 75, 72, 
15, 49, -43, -24, -50, 75, 52, -18, 22, 70, 22, 30, -25, -11, 85, -24, 
-35, -5, -19, 5, -80, 52, 19, 19, 5, 21, 2, 16, -27, -27, 39, -37, 
5, -34, 30, -31, -62, -39, 46, 80, 4, -10, -37, -62, 7, 15, 1, -52, 
-12, 42, -34, -25, -124, -44, 45, 9, 6, 3, -40, -48, 66, 127, 16, 1, 
21, 69, -21, -44, -43, -9, 47, 10, -25, 79, 16, -65, 58, 127, 0, 77, 
6, 77, -124, 99, 15, 9, 67, -31, -18, -50, -86, -7, 8, 95, 28, 15, 
-33, 102, -127, 66, 0, -19, 81, 38, 4, -96, -109, -11, 23, 22, 71, 101, 
-80, 106, -127, 15, -13, 18, 38, -3, 78, -90, -75, 34, -6, -47, 99, 64, 
75, -112, -36, -18, -34, 32, 0, -57, -29, 35, 50, -20, -4, -42, -68, -7, 
18, -127, 42, -3, -18, -23, 14, -16, 9, -55, 12, -45, 3, -3, -127, -16, 
-24, -121, 50, 23, 37, -74, 24, 4, -5, -74, 12, -10, 31, 50, -118, -30, 
-17, -42, -84, 53, 0, 36, 26, 57, -2, -73, -79, -65, 35, 33, -39, -40, 
22, 59, -70, 83, -13, 127, 70, 38, 100, -3, -26, -10, -59, 23, 30, 47, 
20, 16, -49, 63, 59, 89, 60, 25, 82, -4, 25, -30, -75, -11, 55, 25, 
28, -8, -9, 21, 27, 30, 56, -16, 46, 24, 44, 45, 39, 62, -124, 15, 
-44, 11, 35, 12, -35, 95, 75, 52, 93, 1, -1, 1, 38, 95, -127, 84, 
-79, 21, 16, 16, -68, 38, -7, -1, 81, -22, 0, 13, 16, 75, -46, 77, 
-127, 9, -7, 4, 94, 24, 36, 15, 11, -63, -65, 19, -94, -41, 70, -127, 
-127, 5, 8, -43, 2, 7, 97, 39, 17, -82, -91, 52, -101, -27, 75, -98, 
-49, 62, -1, 65, -40, 51, 74, -27, 26, -37, -26, 19, -101, -22, 47, -58, 
0, 17, 24, 45, 80, 37, 48, 27, -1, -36, 108, -32, 49, 22, -48, 35, 
-52, 7, 8, 24, 127, 41, 20, 37, -5, 6, 92, -2, -22, 64, 30, 65, 
-4, -51, -14, 31, 76, 1, 50, 15, -17, -88, 26, 21, 1, -11, 17, 107, 
-40, -14, 51, -48, 73, -15, 36, 32, -6, 0, 51, 37, -16, -59, -54, 11, 
-36, -44, 21, -28, 50, 79, -13, 40, 20, -36, 68, 46, -53, -80, -1, -14, 
-54, -41, 44, -83, 14, 56, 31, 27, -7, -19, 60, -47, -15, -53, 17, 15, 
30, 28, 31, -85, 39, 6, -1, -12, 61, 40, 68, -50, 93, 51, 45, -48, 
6, 69, -4, -95, 25, 51, -51, -66, 21, 62, 3, -24, 21, 2, 54, 16, 
-42, 93, 42, -78, 56, 67, -29, -46, 9, 51, -25, -22, -38, 25, 41, 10, 
-19, 45, -8, -24, 10, 42, 2, -36, 20, 74, 72, 92, -80, -75, 10, -37, 
-17, -18, 14, -86, 27, 50, -87, -52, 43, 81, 64, 113, -57, -112, -22, -80, 
0, -29, -44, -86, 36, 8, -71, -47, 35, 51, 63, 63, 4, -87, -24, -45, 
};

const int8_t MagnetometetNetworkInt8_layer_6_bias[] = {
-7, -5, -86, -30, -75, -89, -65, -58, -55, -25, 61, 2, 13, 26, 35, -69, 49, 3, 87, -87, 9, -8, 53, -5, 103, -36, -70, 55, -127, 34, -127, -25, };


const int8_t MagnetometetNetworkInt8_layer_9_weights[] = {
-59, -26, -77, 0, -37, -127, 24, -3, 48, 14, 28, -23, 9, -101, -127, -14, -2, 66, -50, -87, -127, -4, 80, -26, -60, 20, 53, -15, 46, 44, -43, 23, 
-47, -25, -98, 79, -80, -127, 52, -19, 42, 41, 38, -14, -26, -81, -127, -14, -11, 72, -27, -33, -127, 12, 35, 0, -50, 3, 119, -65, 47, 46, 9, 37, 
-46, 32, -79, 86, -45, -127, 38, 29, 11, 48, 58, 0, -20, -81, -127, 20, 13, 12, -34, -9, -127, 64, 14, 13, -19, -3, 123, -48, 26, 78, 65, 33, 
-26, -127, 34, 79, -42, 124, 46, 19, 10, -15, 27, -43, -22, -12, 0, -25, -44, 44, -39, 21, -93, 12, -45, -65, -86, 65, 50, -127, -43, 34, -9, -70, 
-38, -127, 24, 61, -51, 123, 49, 26, -15, 28, 71, -36, -43, 76, 25, 26, -127, 33, 30, 36, -50, 48, 4, 9, -16, 119, 81, -127, -43, 74, -77, -108, 
-46, -127, -33, 68, -63, 107, 4, -32, 4, -2, 2, -16, -98, 42, 18, 68, -99, 13, -39, -43, -27, 28, 38, 36, -13, 75, 64, -127, -46, 39, -80, -74, 
95, -51, -127, 16, -22, -23, -127, -62, 27, -127, -118, -24, 20, 11, -1, 43, -17, 14, -103, -16, -10, 12, -16, -85, -12, 55, 45, 109, -105, 16, 42, 47, 
105, -34, -127, 61, -29, -54, -127, -106, 54, -127, -106, -59, -14, 48, -90, 61, -11, -35, -76, -30, 1, 52, 2, -85, -34, 36, 71, 99, -96, 3, 47, 52, 
117, -73, -127, 32, 21, 24, -127, -51, 74, -127, -107, -85, 14, -11, -33, 35, 4, -9, -40, -38, 55, 32, 17, -78, -8, 6, 56, 34, -95, 5, 78, 32, 
56, -109, -37, -21, -12, 11, -34, -53, -20, -27, -102, -67, 11, -64, -97, 72, 89, 54, 27, 77, 22, -50, 34, 4, -44, -39, 52, 36, 35, -20, -48, -104, 
1, -77, -33, 13, -18, 26, -4, -58, -18, -43, -58, -95, -41, -89, -31, -4, 28, -11, 82, 52, 10, -8, 59, 68, 9, 34, 102, 42, -52, -10, -60, -47, 
-12, -22, 12, 113, -28, 4, 60, -25, -29, 2, 31, -36, -110, -68, 3, -36, -49, -53, 47, 71, -16, 38, 69, 87, -24, 101, 96, -10, -72, -9, -18, 9, 
-10, 52, -84, -66, 5, -22, -89, -29, -34, -114, 9, 69, 14, 101, 23, -45, 8, -3, 94, 50, 37, -20, 14, 14, 22, -24, 14, 83, -36, 61, -69, -79, 
-25, 11, -127, -9, 4, -1, -127, -34, -61, -127, -100, 27, 24, 102, 0, 2, 29, 38, 69, 25, 19, -90, 4, -47, 16, -84, -44, 41, -36, 35, -56, -60, 
24, -13, -127, -30, -13, 8, -127, -2, -122, -127, -40, -24, 24, 13, 5, 14, -3, -31, 39, 13, 7, -65, -24, -19, 54, -61, -61, 37, -19, 60, -127, -84, 
25, -14, -103, 87, 56, -124, -127, -3, 21, -74, -8, 11, -5, 59, -108, -15, 20, -20, -37, -57, -127, 23, -37, -82, 3, 56, 62, -10, 33, 36, -115, -50, 
27, -35, -127, 50, 99, -127, -127, -44, -21, -127, -55, 56, 6, 76, -10, 63, -1, -56, -72, -29, -68, 21, -46, -103, -5, 83, 57, 13, -13, 57, -42, -56, 
-45, -2, -32, 64, -1, -127, -127, -12, -18, -60, -41, 25, 13, 113, -127, 80, -16, -34, -29, 15, -79, 23, -75, -69, -14, 85, 62, -25, 19, 50, -9, -103, 
-52, 57, 19, 13, -127, -49, 18, -11, -30, -64, 68, -51, 23, -127, -28, -127, -61, 85, 59, -127, 40, -25, 62, 55, 3, 42, -41, 50, -87, -51, -127, 16, 
-7, 126, 15, 29, -127, -58, 0, -12, -31, 0, 84, 36, -43, -127, -44, -116, -115, -23, -4, -77, -19, -32, -6, 26, 39, 4, -34, -15, -99, -3, -69, 59, 
42, 119, 36, 39, -58, -31, 61, 10, 4, 47, 43, 101, -62, -80, -48, -9, -48, -98, -59, 51, 23, -7, -16, -40, 85, -9, 30, -107, 77, 66, -54, 38, 
-36, 52, -48, -3, -83, 72, -33, -58, 50, -67, -27, -46, 72, -117, 24, -70, 4, 99, 116, -92, 32, -29, 22, 99, -44, 3, -33, 127, -101, -29, -127, 9, 
-7, 1, 23, 5, -64, 31, 65, 51, 77, 44, 53, 73, -30, -20, 75, -14, -127, -125, -51, 35, 32, 1, 55, -62, -29, 53, 22, -36, 5, -20, -98, 46, 
26, -48, 34, -16, -1, -125, 80, 127, 29, 80, 76, 84, -127, 42, 75, 70, -91, -127, -127, 107, 17, -9, 9, -127, 58, 27, 11, -127, 116, 12, -44, -3, 
-11, -5, 8, 53, -3, 30, 68, 113, 32, 37, -53, -21, 76, 62, 51, -112, -8, 86, 31, -15, 38, -15, 25, 81, -37, 49, 27, 21, 33, 32, -66, -58, 
-62, -29, -1, 27, -8, -23, 85, 98, 50, 1, -39, -7, 85, 3, 30, -127, -19, 28, -25, -11, 71, -30, -61, 25, -49, 63, -18, 13, 110, 18, -64, -54, 
-66, -20, 1, 2, -57, -59, 35, 38, 19, -1, -23, 39, 58, 13, -60, -119, -41, 38, -21, -9, 44, 8, -72, -13, -8, 10, -33, 39, 102, 33, -72, -52, 
-13, 127, -27, -87, 7, -6, -26, -30, 4, 20, 71, 27, 66, 23, -32, 13, -55, 39, 3, -65, -55, -44, -29, 46, -3, -89, -102, -18, 42, 59, 29, 5, 
8, 127, 8, -90, -1, 32, 12, 34, -11, 22, 121, 76, 43, -1, -34, 15, -26, -10, -46, 18, -64, 1, 0, 46, 47, -99, -65, -96, 7, 31, 86, 44, 
-54, 89, 18, -13, 10, 0, 49, -8, -11, 49, 94, 65, 0, 36, -26, 71, -34, 29, -15, 12, 12, 21, 43, 6, 36, -84, -33, -111, 0, -41, 65, 3, 
49, 0, -36, -52, -27, 19, -18, -78, 63, -21, 1, -14, -127, -5, 31, -28, -68, 41, 43, 1, 49, 0, 84, 14, -6, -3, -36, 0, -56, -44, -66, -69, 
24, -85, -6, 38, -38, 22, -22, -30, 72, 22, 82, 43, -127, 98, 47, 39, -120, -120, -73, 54, 0, 70, 15, -62, -8, 33, -52, -84, 7, -24, -64, -33, 
22, -64, -14, -7, -27, -6, -21, 6, 41, 33, 61, 75, -101, 79, -35, -15, -38, -21, -106, 43, -23, 49, -38, -37, 40, -59, -40, -61, -6, 12, -52, -11, 
-51, 42, -12, -47, -39, 43, -48, -3, -22, -27, 19, -42, 20, -30, -25, -20, -15, 127, 40, -39, 60, 1, 4, 88, -115, 16, -46, 83, -17, -28, -118, -60, 
-41, 30, -3, -5, -51, 90, 12, 6, 50, 23, -25, -26, -22, -39, 33, -2, -3, 51, 53, -79, 19, 36, 49, 87, -94, 21, -6, 32, -39, -11, -67, -7, 
-10, 59, 41, 35, 4, 35, 62, 60, 74, 101, -2, 68, -13, 50, 68, 2, -77, 7, -31, 48, -29, 71, 40, 1, -103, 110, 10, -49, 32, 29, 5, 79, 
-23, 0, 59, 54, 37, 5, 90, 45, 37, 59, 6, 2, 33, -6, -127, -31, 46, 63, 33, -19, -15, 56, -60, -64, -25, -40, 51, -41, -13, -8, 20, 19, 
-12, -23, 5, -6, 7, 56, 6, 22, -43, -4, 64, 7, 58, -28, -127, -41, 37, 90, 63, -14, -22, -10, -46, -22, 46, -83, 6, 3, -6, 21, -71, 31, 
37, -53, -53, -24, -31, 53, -90, 3, -27, -77, 75, -5, 50, -23, -127, 13, 81, 68, 17, -50, -24, -69, -52, -62, 39, -103, -19, 40, -32, 22, -104, -33, 
117, 6, -44, 49, 34, 95, 37, 6, 103, -34, 56, 36, -107, 28, -47, 2, -88, -20, -46, 32, -6, 50, 17, 74, -49, 15, 43, -126, 33, -45, 100, 65, 
55, 64, 34, -4, 66, 103, 41, 1, 68, 19, 16, 16, -87, 20, 3, -62, -74, -56, 8, 75, -4, -1, -15, 39, -37, 48, 17, -127, 82, -111, 127, 31, 
-10, 103, -5, -16, 29, 104, 11, -13, 91, -23, -33, 12, -90, -7, -44, -77, -46, -14, -92, 36, -21, -36, 0, 18, -69, -11, 16, -127, 39, -116, 101, 18, 
-84, 85, 57, -18, 57, 76, -33, 3, 59, -11, -49, 0, 55, -29, 99, 7, 40, 6, 94, -30, 127, -18, 123, 53, -106, 34, 80, -50, 28, -25, 0, -53, 
29, 82, 32, 20, -35, 6, 16, 30, 79, 12, -7, -2, -4, -16, -2, 34, -65, -15, 12, 49, 39, 49, -20, 89, -90, 20, 69, -91, 57, 13, -8, -5, 
84, 4, -50, 19, -119, -99, -52, -60, 64, -47, 63, -21, -19, 0, -45, 96, -49, -43, -96, 33, -61, -18, -117, 52, 23, -22, -7, 31, -9, 24, -36, 64, 
8, 13, -2, 18, 3, -124, 105, 73, -96, 21, 121, 53, -127, 127, -23, -18, -60, -127, -20, 36, -14, 72, 22, -8, 18, -10, 65, -127, 18, -11, -34, -6, 
16, 25, -27, 19, -29, -127, 58, 21, -117, -15, 43, -4, -23, 34, -34, -44, -21, -85, 27, -15, 9, -20, 38, 34, 43, -29, 11, -78, -17, 23, -48, 29, 
-34, 68, -19, -1, -23, -27, -23, -21, -59, -27, -15, -47, 45, 11, -3, -23, -28, 33, 115, -4, 46, -36, 62, 43, -21, 7, 7, 38, -8, 24, -58, -19, 
-51, 17, 21, -63, 127, -15, -38, 17, 39, 22, -1, 56, -5, 96, -72, 21, -51, -62, -6, 80, 25, -27, -4, -24, 65, -4, -34, -10, 56, -44, -6, -71, 
-74, 43, 4, -29, 125, 0, 43, 3, 21, 3, -58, 39, 19, 115, 8, 30, -27, -63, -31, 80, 59, -5, 39, -55, 13, -17, 35, -16, 66, -56, 54, -106, 
-68, 56, -19, -9, 25, 57, -4, -9, 74, -34, -42, 6, 8, 46, -4, 4, -60, 7, 60, -13, 84, 26, 22, -15, -17, 54, -17, -37, -12, 4, -33, -102, 
-25, 25, -63, 78, -8, 41, -26, -51, 46, -63, 0, 18, 38, -47, -13, -3, 25, -41, -43, -5, 101, 74, -77, 73, -14, 65, 73, -30, 5, 20, -61, 46, 
41, 4, -127, 96, -13, 34, -25, -117, 89, -101, 10, 7, 4, -53, -85, 21, 38, -44, -86, 57, 101, 74, -77, 59, -45, 91, 18, -48, 84, 13, -84, 65, 
100, -11, -127, 26, 6, 44, -61, -127, 43, -106, -43, 39, -12, -40, -71, 27, 47, -40, -30, 57, 10, 39, -79, 77, -17, 61, -35, 24, 63, -10, -64, 44, 
42, 54, -50, 13, 17, 22, 55, -23, 14, 15, -8, 10, -39, 38, -44, 38, 29, -89, 33, -7, -3, 10, -1, 39, 45, -74, 23, 22, 2, 62, 101, 64, 
38, 97, -85, -40, 5, 34, 13, -113, -30, -15, -15, -2, -45, 72, -40, 61, -46, -88, -7, -22, -2, 6, 19, 5, 30, -25, 1, 7, -74, 21, 65, 64, 
17, 67, -59, -51, 36, 52, -23, -126, 43, -35, 47, 6, -61, 79, 1, 15, -52, -90, -18, 29, 24, -17, 68, 23, -4, -11, -14, 10, -81, -42, 57, 59, 
-63, 71, 38, 15, 14, 120, 21, 6, 19, 8, 12, 13, -66, -5, 48, -76, -53, 25, -12, 11, -7, 32, 28, -21, -92, -22, -34, -127, 51, -112, 76, -34, 
-35, 29, 31, 52, 18, 123, 61, 57, 44, 0, 44, 98, -95, 21, -18, -70, -48, -32, -104, 3, -63, 44, 46, -28, -116, 0, 8, -127, 81, -77, 127, -10, 
-14, 36, 39, 42, 49, 42, 31, 54, -1, 21, 31, 15, -127, -17, -31, -85, -2, -17, -127, -6, -36, 39, -3, -18, -36, -2, 56, -127, 13, -63, 74, 13, 
-25, -33, -34, -85, 64, -1, -32, -23, -10, -9, -73, 0, 0, 24, -7, -4, 52, 11, -16, 7, 96, -31, 24, -117, 41, -37, 52, -121, -14, -10, 5, -127, 
-17, 9, 29, -101, 103, -29, -69, -8, -34, 0, -51, -5, -42, 59, 30, 0, 7, -9, 10, 19, 127, -31, 117, -31, -36, -14, 80, -47, -9, -59, -9, -127, 
-29, 0, 29, 11, 75, -52, -12, -9, -71, 45, -33, 13, -48, 45, 33, -28, -18, 17, -29, 10, 122, 38, 103, 95, -45, 1, 61, -18, -51, -33, 15, -45, 
-33, -39, 18, 54, -40, -31, -15, -37, -103, -1, 58, 47, 6, -45, -33, 15, 45, 61, -3, 38, -5, -28, 31, 0, 11, -9, 35, -9, -3, 39, -13, 37, 
-105, -101, 29, 50, -42, -72, 44, 32, -109, 39, 81, 41, 12, -18, -13, 44, 74, 42, 4, 87, -16, -4, -1, -63, 20, -43, 71, -72, 33, 4, -18, -78, 
-127, -74, 44, 7, -31, -13, -9, 20, -98, 39, 70, 19, 42, -33, 39, 12, 16, 1, 10, 63, 35, -35, 42, 11, 29, 4, 68, -70, 32, 25, -53, -93, 
47, -29, 68, -47, 29, -47, 13, 10, -42, 40, 0, 59, -85, 115, 92, 2, 14, -121, -42, 18, 79, 31, 22, -1, 55, -80, 27, -127, 5, -9, 5, 58, 
-54, -8, 36, -13, 24, -44, -49, 5, -94, -4, -17, 32, 50, 30, 92, -34, 15, 10, 11, -25, 124, 34, 60, 107, -15, -17, 0, -63, -55, -2, -51, -57, 
-57, 3, -16, -78, 7, 51, -54, -8, -43, 1, -66, -50, 62, -45, 98, -12, -11, 101, -1, -115, 88, -31, 54, 120, -80, 45, -9, 39, 9, 1, -31, -74, 
35, -17, -41, -12, 16, 11, -53, -24, -4, -54, -18, -45, 15, -81, 35, 66, -48, 27, -16, -56, 16, -49, 28, 6, -76, 23, 12, 21, -36, -30, 15, -98, 
38, -2, -6, -13, 75, 29, 9, 54, 33, 52, 7, 21, -9, 26, 32, 51, -77, -26, -42, 5, 48, -26, 40, -30, -41, 28, 29, -17, 98, -48, 100, -123, 
-17, -45, 11, 12, 64, -2, 42, 60, -19, 46, 42, 54, 23, 93, 18, 100, -55, -29, -35, 58, -5, 0, 50, -17, -38, -57, 68, -84, 111, -36, 93, -90, 
47, -124, -90, -127, 81, 57, -127, 12, 5, -63, -127, -25, 70, -36, -21, 86, -16, -8, 8, 33, 32, -127, -17, 33, -53, -22, 15, 5, 6, 23, -42, -12, 
-41, -127, -27, -127, 80, 109, -28, 96, 43, -33, -99, 10, 102, 9, 40, 8, -9, 99, 12, -20, 24, -118, 24, -34, -88, 81, 35, 27, 11, 21, -8, -127, 
-20, -127, 45, 1, 50, 39, 84, 74, 56, 28, -11, -18, 39, -12, 72, -40, -41, 34, -11, 7, 36, 24, 23, -26, -37, 88, 14, 47, 20, -73, 47, -127, 
-63, 14, 16, -7, 76, 22, -4, 28, 46, -1, -79, -64, -21, 0, 45, -83, -11, 9, 90, 4, 69, 33, 40, 50, -112, 13, 46, -73, 69, 18, -20, -46, 
-17, 80, -18, -6, 16, -67, -63, -7, 127, -53, -105, -64, 8, -8, 69, -60, -127, 54, 72, -88, 70, 0, 52, 127, -127, 28, -26, -13, 58, -9, -38, 16, 
79, 55, 3, 2, 0, -62, -33, -31, 94, -25, -50, -5, -34, -26, -16, -65, -127, 22, 29, -94, 55, 45, 2, 127, -122, 22, -5, 0, -24, -33, 9, 16, 
2, -40, 91, 30, 39, 7, 53, 127, 49, 72, 92, 57, -36, 85, 64, -2, 6, -44, -47, 74, 50, 77, 56, 70, 6, 15, 73, -113, 127, -30, 99, -12, 
58, 7, 9, -19, -27, -13, -73, 4, 46, -17, 31, -7, -26, 59, -9, -2, -3, -17, -47, 52, 15, 15, 34, 36, 10, 23, 41, -28, 3, 9, -2, 9, 
66, 53, -46, -8, -54, -59, -107, -92, -26, -72, -67, -70, -7, -83, -84, -8, 60, 20, 13, -37, -32, -16, -40, 43, 18, 40, -48, 42, -64, 10, -99, 38, 
53, -115, 24, 12, -62, -92, -26, 58, -34, 13, 85, 26, 31, 23, 4, -98, -29, -5, -1, 0, 38, 52, -29, 64, 47, 59, -4, -2, -33, -14, -87, 25, 
1, -75, 32, 1, -59, -115, -73, 53, -66, -23, 73, -30, -19, -13, 46, -94, -16, 14, 5, -36, 94, 0, -50, 28, 92, -12, -59, 41, -62, -26, -127, -50, 
-32, -107, 15, -3, -32, -80, -67, 24, -53, -60, 57, -76, 15, -49, 84, -127, 21, 0, 1, -29, 47, -11, -14, 64, 103, -16, -84, 49, -33, -48, -127, -81, 
20, 85, 50, 21, -78, 127, -12, 27, 49, 9, -41, -24, -123, 45, 4, 31, -75, -127, -88, 11, -25, 35, -14, -115, -34, 60, 20, -29, 38, -27, -27, -41, 
30, 1, 22, 4, -56, 57, 45, 34, 84, 26, 46, 33, -127, 85, -87, 24, -35, -127, -120, 0, -51, 46, -113, -127, 73, -42, -4, -66, 18, 12, -62, 64, 
118, 19, -13, -27, -32, 35, -18, 9, 31, -4, 75, 19, -85, 51, -92, 82, -25, -127, -47, -30, -40, -34, -127, -127, 111, -30, -32, -13, -29, 19, -127, 58, 
53, -25, -78, -102, 14, 38, 18, -1, -21, 6, -35, -2, -33, 22, -13, 103, -38, 36, -15, 10, -42, -37, -34, -78, -61, -42, 33, 0, 48, -7, 66, 23, 
40, 17, -124, -127, 91, 80, -56, -17, 16, -27, -105, 58, -22, 55, -82, 115, 4, 31, 91, 45, -43, -104, -3, 0, -67, -93, 49, -47, 107, 25, 44, 1, 
-2, 59, -114, -100, 98, 115, -7, -39, 5, -44, -127, 65, 18, 14, -51, 112, 16, 39, 117, 57, 6, -106, 57, 9, -59, -59, 69, -67, 116, 42, 96, 26, 
38, -25, -8, 24, -21, -127, -8, -47, -19, -33, 52, 5, -127, -16, -43, -37, 4, -127, -127, 32, -16, -7, -58, -6, 22, -27, -2, -48, -7, 3, -63, 29, 
64, -52, -1, -5, 34, -98, -16, -22, -9, 33, -18, 57, -30, 13, -22, 52, 69, -66, -123, 84, 7, -29, -54, 4, 97, -37, 44, -63, 99, 13, -51, -1, 
24, -21, 0, -41, 99, -29, -55, -17, 14, 0, -70, 42, 91, -30, 7, 78, 127, 96, -21, 68, 8, -39, 33, 79, 103, -31, 35, -42, 127, 37, -28, -13, 
33, -73, -19, 60, 24, -28, 25, 5, 23, 59, -17, 64, -127, 99, -9, 61, -127, -85, -102, 26, 16, 70, -32, -56, -7, 20, 27, -127, 88, 16, 37, 127, 
-27, -57, 27, 61, 56, -59, -22, 31, -67, 37, 29, 21, -115, 79, 10, 59, -127, -77, -73, -1, 36, 57, -14, 3, -39, -8, 68, -127, 102, 17, 57, 38, 
-66, -31, -5, 25, 82, -42, -69, -78, -90, -74, -4, -87, 127, 21, 42, 37, 29, 47, 25, -55, 59, -6, 25, 26, -56, -9, 36, 10, -46, -8, -29, -97, 
};

const int8_t MagnetometetNetworkInt8_layer_9_bias[] = {
18, 65, -27, 67, 100, 68, 48, -25, -31, 39, 127, -34, 23, -127, -95, 118, -28, 3, 66, -127, 106, -2, 22, -54, -75, 63, -51, 95, 95, -57, 39, 5, };


const int8_t MagnetometetNetworkInt8_layer_12_weights[] = {
8, -12, 104, 95, 54, 77, -127, -127, 8, 4, 16, -117, -53, -63, -95, -110, 81, 13, 27, -32, 29, -68, -96, 65, -14, 21, -114, -30, -30, 49, -14, -122, 
14, 127, 41, 64, -25, 57, -127, -127, -40, 2, 24, -127, -65, -1, -108, -43, 104, 35, 8, 3, 12, -57, -94, 61, -63, -16, -29, -51, 38, 10, 1, -85, 
29, 127, 42, 22, -46, 85, -123, -111, -86, 40, 127, -127, -96, 32, -90, -33, 59, 40, 79, -86, -35, -24, -127, -31, -118, -89, 32, -34, 86, -2, -6, -71, 
0, 0, -59, -8, -40, -24, -67, 60, -3, -59, -8, 27, -21, 0, 37, -1, 20, -90, -67, -27, 40, -33, 34, 22, 38, 3, 19, -94, 0, 18, -37, 22, 
-6, -3, 26, -94, -2, 24, -93, 4, 13, -23, 10, 0, 24, 37, 55, -2, 46, -16, -9, 3, 1, 16, 27, 33, 33, -15, 80, -5, 42, 12, 19, 43, 
-4, -28, 62, -127, 77, 94, -67, -25, 5, -67, -25, -13, 95, -1, 0, -15, -45, 89, 73, -4, -64, -14, -41, -35, 16, -35, 34, -15, 21, -39, -62, -31, 
1, 39, -127, 0, -17, -37, -36, -1, 4, 3, -2, 0, -35, -52, -33, 114, 62, 0, -85, 5, 51, 82, 84, 18, 72, 2, -5, 37, -63, 48, -14, 30, 
3, 45, -101, 46, -20, 7, 28, -6, 7, -26, 33, 22, -17, 7, 66, 0, 3, 16, -7, 2, 0, 26, -44, -8, 34, 52, 45, -26, -30, -3, -52, 2, 
20, -13, 29, 9, -19, 53, 127, -31, -39, -36, 66, -88, 7, -24, 27, 11, -127, 48, 25, -29, -127, -17, -127, -127, -44, -85, 64, 3, 72, -39, 13, -22, 
106, 50, 19, -14, -46, 37, 67, 55, 50, -99, 25, -49, 13, -127, -92, -38, 113, 51, -60, -127, -70, -72, -127, 2, 74, -42, 23, -103, 37, -31, -38, 27, 
89, 87, 0, 24, -123, 37, -24, 30, -65, -62, 80, -31, 7, -127, -68, 15, -3, 77, 6, -127, -7, -82, -127, -18, -14, -76, 16, -67, 34, -63, 29, 65, 
54, 44, -7, 14, -39, 44, 8, 18, -38, -127, 50, 58, -41, -127, -27, -1, 26, 78, -5, -127, -13, -13, 22, 41, 64, 71, 76, -75, 26, -29, 36, 58, 
36, 40, -37, -27, -98, -111, 4, 16, -33, -7, 64, 18, -27, -5, -35, 41, -127, -49, -9, -9, -50, 60, -27, -125, -55, 0, -29, 24, 38, -60, -24, 21, 
14, 60, -26, -59, -15, -34, 0, 50, -21, -19, 40, 65, -61, -14, 10, 43, -24, -98, 23, 0, -16, 63, 16, -45, -49, 33, 14, 31, 28, 23, -13, 40, 
-46, 15, -87, -62, -1, 7, -56, 45, 18, -22, 23, 49, -12, -21, 69, 16, 29, -64, 26, -8, -42, 6, 31, -67, 49, -18, 34, -42, -17, 103, 1, 10, 
-127, 49, -21, 36, 25, -31, -46, 16, -8, 20, 36, 27, 30, 7, 73, -26, 19, -63, 17, 27, 59, 26, 32, 50, 37, 50, 52, -106, -40, 91, 19, 30, 
-127, 12, 45, -45, 33, 0, -76, -2, -12, 15, 29, 7, -5, 6, 38, -13, -10, -72, 25, 13, -34, -22, -62, 43, -5, -17, 16, -127, 47, 0, 10, -19, 
-55, -25, 29, -127, 34, -8, -1, 4, -35, 56, 50, -40, -10, 35, -9, -22, -37, -10, 27, 20, -127, -40, -127, -12, -127, -76, 13, -127, 56, -115, 29, -39, 
49, 116, -116, -70, -127, -67, -19, 22, 27, -16, 45, 27, -105, 0, 93, 41, -32, 41, -41, 34, -97, -13, 30, 26, -127, -43, 47, 51, 55, -74, -43, 10, 
-4, 15, -49, -97, -22, -12, -74, -14, -26, 8, 3, -127, 41, -17, 8, 32, 13, 35, -8, 7, -21, 3, 38, -9, -50, -127, 20, 49, 38, 12, 33, 40, 
-26, -106, 55, 29, 118, 54, -45, -127, -84, -29, -101, -127, 91, -63, -127, -16, 7, -4, -27, -100, 12, -15, 25, -51, 97, -127, -13, 34, -64, 127, 37, -33, 
127, 51, -127, -29, -127, -97, 125, 23, -43, 38, -6, -10, -127, -9, 16, 68, -61, 43, 27, -13, 58, -33, -52, 22, -42, -1, 43, 95, 27, 6, -36, 26, 
67, 39, -9, -54, -124, -28, 74, -64, 19, 24, -49, -10, -91, -15, -10, 42, -103, 72, 30, 5, -127, -64, -59, -126, 51, 12, -2, -47, 26, 78, -80, 28, 
16, 34, 78, -7, -47, 9, 16, -55, 27, 14, -48, 18, -89, -21, 40, 19, -127, 51, 11, -14, -45, -36, -127, -60, 38, 82, 1, -33, -7, -69, -127, 9, 
-71, -127, -48, -57, 32, 4, -104, -127, -93, 8, -6, -127, -31, -127, -79, -25, 35, -35, -13, -127, -51, -4, 12, 12, -56, -127, -90, 11, -28, 60, 47, -57, 
77, 11, 13, 24, 1, 10, 24, 5, 71, -42, 56, 43, -13, -71, -53, -28, 78, -2, 17, -61, -39, 7, 29, -29, 82, 24, -59, -31, 19, 25, -15, -127, 
27, 31, 3, -25, -71, 23, 21, -11, -9, -10, 127, -87, -63, -98, 0, 73, -107, 108, 51, -76, -127, -53, -127, -102, -15, 28, 11, 82, 127, -82, 20, 16, 
72, 32, 46, -39, -22, 17, -3, 32, -4, 12, -13, 19, -1, -10, -34, 45, -95, -13, 19, 3, -70, -16, -17, -36, -38, 41, -19, 44, 23, -52, -57, 5, 
35, 31, -27, -35, 15, 6, -7, 72, 3, -14, -16, 32, 45, 5, -107, -10, -48, -30, -32, 10, -62, 42, -19, 4, -43, -40, -29, -25, -28, -4, -4, 23, 
18, 9, -34, -12, 35, -31, -122, 72, 31, -11, -41, 43, 53, 15, -104, 6, 27, -44, -52, 7, 38, 86, 23, 86, 65, -43, -25, -68, -71, 106, 7, 27, 
17, -19, -28, 13, 23, -29, 98, -21, 18, 39, 6, 25, 19, -86, 42, 7, -30, 41, 7, -127, 64, -25, 53, -47, 41, 38, -10, 84, 5, 12, -55, -119, 
-65, -69, -18, 15, 30, -84, 86, -12, 40, 14, -83, -7, 30, -95, 39, 27, -106, 68, 35, -127, -19, -36, 12, -127, 12, 10, 1, 103, 1, 30, 25, -102, 
-87, -50, 21, 23, 59, -31, 80, -15, 14, 13, -21, -42, -24, -84, -21, 12, -53, 42, 36, -96, 14, -1, -28, -99, -49, -38, -8, 5, -20, 83, 62, -92, 
18, 7, -34, 74, -82, -41, 119, -3, 4, -79, -17, 55, -127, -20, 72, -70, -45, -6, -91, 15, 24, -23, -2, 95, 41, 78, -65, 31, -71, -127, -127, -54, 
34, 10, -73, 2, -59, -72, 67, 32, 14, 17, 39, 2, 10, 21, 102, -9, 18, -16, -36, 7, -19, 23, -6, 26, -70, -2, -14, -7, 47, -127, -24, 22, 
-20, -33, 12, -65, 19, 60, -36, -13, -39, 32, 12, -55, 127, -33, 54, 10, -15, -18, 52, -39, -78, 3, -26, -39, -127, -49, 37, 15, 52, 44, 127, -8, 
-10, -99, -39, 67, 11, 108, -127, 15, -7, -98, -110, 21, -32, -127, -19, -61, 0, -22, -68, -94, 59, -10, 59, 1, 42, 28, -55, -30, -127, 58, 22, -109, 
36, 45, -57, 59, 2, -8, -26, 50, 39, -45, 76, 30, -27, -54, -12, -123, -56, -28, -107, -32, 15, 39, 7, 18, -21, 98, -107, -59, -21, 39, -75, -21, 
20, 74, -61, -19, 19, -9, -39, 58, 23, 7, 37, -20, -10, -45, -66, 50, -73, -49, -74, -8, -35, 18, -25, 12, -63, 8, 20, 47, 66, -56, 26, 62, 
41, -52, -127, -22, 5, -1, -48, -27, -13, 41, 39, -25, 15, -18, 8, 36, 49, -61, 18, -23, 76, 25, 18, 15, -28, -23, -15, -64, -5, -127, 69, -26, 
-8, -3, -4, -70, -41, -7, -89, -23, -23, 9, 70, 0, -50, -65, 45, 64, 24, -57, -20, -43, 80, 41, 38, 21, -21, 11, 23, -15, -15, -127, 59, -10, 
-46, -16, 23, -24, -27, 35, -68, 21, -46, 13, 44, 11, -25, -124, 33, 50, 8, 17, -17, -34, 6, 19, 43, -30, -81, 2, 35, 29, 2, -90, 56, -29, 
45, 31, 31, -15, 0, -57, 31, -37, 22, -90, -103, 43, -24, 34, 89, 35, 0, 71, 56, -5, 13, -89, 44, 35, 7, 80, 24, -15, -127, -65, -127, -8, 
-102, -92, -10, -17, 14, -120, -123, -127, 9, -79, -127, 16, -31, 37, 54, -7, 1, 12, 72, -25, 22, -60, 41, 56, 3, 68, 41, 2, -127, -33, -5, -12, 
-127, -119, -58, -48, 75, -95, -114, -127, -10, -36, -127, -13, 14, -70, 32, -5, 55, 20, -36, -93, 19, -11, 38, 74, -1, -4, 3, -34, -127, 40, 56, 45, 
11, -54, 61, 29, 61, 27, -127, -76, -110, -11, 4, -97, -23, 46, -23, 29, 39, 7, 29, -4, 27, 38, 13, 88, 47, -76, 50, -31, 14, 41, 13, 30, 
32, -11, -54, 27, -47, -21, -39, -78, -127, -3, -4, -72, -127, -15, -66, 1, 59, 52, 38, -51, 16, -8, -3, 77, -27, -34, 22, -86, -31, 18, 47, 62, 
103, -16, -107, 14, -127, -90, 124, 0, -110, -18, -16, -32, -127, -30, -38, 36, 27, 29, 19, -10, 24, 25, -10, 64, -89, 19, -40, -83, -62, -65, 23, 54, 
1, 26, -65, 92, -22, 43, -24, -127, -30, -46, 53, 34, -69, -53, -4, 40, 63, 118, 25, -61, 58, -7, 38, 61, 19, 13, 39, 39, 40, 34, 14, 12, 
17, -20, -15, 107, -19, 8, -70, -127, -34, -91, 27, 46, -68, 30, -92, -35, 28, 110, -68, -45, 19, -66, 26, -26, 23, 13, -87, 49, -117, 19, -33, -127, 
-39, -44, -32, 26, -73, 8, -127, -127, -17, -77, -43, 21, -54, -41, -17, -40, 0, 69, -61, -127, -27, -81, -11, -58, 20, 33, -63, 44, -101, 21, 5, -127, 
-28, 4, 59, 90, -61, 83, -127, -26, 9, 38, 4, -35, -32, 42, 36, 94, 52, -127, 18, 63, 38, 92, 41, 55, 4, 10, 80, -23, -9, 2, 98, 62, 
-21, 48, -6, 38, -43, -37, -44, -61, 40, -52, -71, 0, -127, -23, -8, 63, 25, -89, 4, 6, 7, -32, 25, -15, -4, 23, 60, -64, -32, -39, -14, 45, 
15, 32, 67, 0, 0, -58, 24, -31, 33, -93, -14, 5, -127, -53, 26, -3, -52, 12, 11, -7, -60, -68, -49, -85, -14, 20, -9, 25, 13, -64, -112, -33, 
-32, 35, 38, 46, -80, 127, 111, 19, -112, -35, 59, -60, -115, -127, 25, -68, -33, -3, -38, -108, 8, 10, -87, 64, -127, 11, -100, -13, -58, -44, -28, -80, 
-48, 92, -74, -23, -73, 62, 127, -10, -96, 33, 117, -19, -68, -121, -103, 42, 20, -46, -26, -79, -31, 45, -67, -20, -79, -118, -75, 28, 93, 47, 72, 15, 
2, 58, -110, 28, 0, 30, 75, 27, 31, 33, 43, 24, 32, -74, -93, 14, 60, -108, -65, -42, 32, 17, 31, 14, 67, -44, -39, 82, 14, 119, 36, 46, 
-81, -73, -127, -30, 28, -127, 71, -2, -86, 76, 6, -88, -22, -6, -127, 32, 17, -70, 127, -49, -55, 10, -41, -36, -103, -90, -47, 39, -14, 35, 6, -47, 
-65, -12, -116, 21, 50, -108, 45, 20, -71, 64, -20, 24, 68, -42, -127, -24, 4, -119, 109, -28, 3, 13, -25, -20, -21, 30, -119, 28, -61, -10, -29, -35, 
-127, 22, -127, -12, 36, -115, -62, 89, -12, 14, 0, 49, 59, 41, 5, -4, 48, -127, 27, 20, 68, 28, 21, 80, -54, 21, -55, 10, -45, -43, -58, 72, 
56, 31, -17, 74, 48, -14, -74, -36, 99, -16, -56, 73, 7, -113, 82, -74, -127, 21, -7, -127, -37, -105, -114, -109, 53, 70, -46, -66, -26, -39, -72, -106, 
25, -5, -14, 9, 21, -50, 37, 78, -24, 23, 67, -5, -6, -127, 101, 30, -127, -16, 26, -108, 0, -9, -90, -21, -87, -82, -62, -40, 17, -58, 49, -7, 
-49, 15, -44, 1, -3, -61, 13, 43, -61, 28, 56, -30, 58, -127, -121, 89, -6, -105, 22, -66, 46, 68, 31, 65, -57, -121, 28, 39, 4, -15, 93, 66, 
-10, -41, -38, -47, -44, 26, -127, -61, -96, -63, -17, -87, -13, -16, -60, 83, 74, -34, -3, -38, 65, 49, 50, 47, -26, -72, 64, 26, 0, -31, 127, 92, 
-37, -11, -14, 56, 52, 15, 28, -31, -35, -127, -73, 1, 13, -42, 25, -23, 18, -26, -48, -31, 40, -39, 46, 13, 56, 22, -2, 18, -127, -47, -42, -4, 
127, 60, -22, 39, 7, -29, 127, 28, 55, 1, 35, 44, 19, 46, 96, -106, -46, -2, 24, 38, -72, -68, -21, -53, 18, 24, -32, -15, 42, -118, -72, -23, 
-11, -73, -24, -1, -55, 94, -116, -12, -41, -29, 77, -81, -55, 0, -127, 83, 40, -5, -54, -13, 60, 2, 65, 4, -62, -120, -24, 119, 42, -77, 36, 8, 
21, -64, -82, -42, 13, 99, 0, 6, -6, 7, 14, -17, 20, -7, -49, 7, 48, -24, -85, -14, 31, -2, 28, -15, -10, -58, -21, 55, 7, -4, -10, -5, 
1, 2, -71, -69, 13, 57, -33, 32, 65, 16, 6, 21, 48, -37, -14, -12, 17, -41, -90, 3, -13, 33, 12, -20, 52, -52, 31, -35, 5, 71, -4, 16, 
30, -59, 40, -7, -57, 93, 71, -127, 29, 10, -20, 10, 4, -127, 1, 14, 111, 70, -34, -127, -69, -127, 5, -59, 16, 30, 19, -39, -25, 53, 75, -94, 
38, -127, 74, -32, -25, 66, 118, -10, -17, 31, -19, 6, -51, -66, 3, -54, 46, 91, 4, -54, 11, -127, -84, 7, -36, 19, 30, -62, -30, -29, 24, -127, 
52, -127, 76, 4, -70, 62, 35, 2, -111, 23, -3, -85, -46, -7, -24, -17, 67, 96, 17, -60, -27, -127, -127, -127, -56, -42, 35, -44, 31, -3, 32, -101, 
7, 77, 127, 2, -3, 127, -6, -127, 47, 14, -30, 33, -96, -41, -49, 11, -63, 97, 34, -36, -8, -127, 41, -41, -46, 42, -63, 38, -14, -84, -66, -120, 
-51, 66, 5, -38, 9, 66, -127, -127, 37, -21, -28, 31, -26, 80, -58, 24, -63, 8, 21, 80, 4, -120, 5, -60, 6, 50, -62, 15, -22, -45, -11, -127, 
60, -54, -35, -12, 23, 57, -106, -127, 21, 6, -101, 21, 34, -29, -50, -80, 3, -10, -21, 42, 9, -20, 28, 59, 47, 40, -58, 29, -53, 38, -23, -127, 
34, -41, 85, -30, -118, 45, 80, -45, -127, 24, -25, -100, 23, -70, -31, 52, -45, 42, 58, -107, -1, 17, -43, -55, -30, -71, -63, -58, 21, -38, -1, -41, 
22, -36, -16, 35, -127, 57, 66, -39, -127, 60, -7, -3, -59, -15, 40, -4, 3, 74, 116, -106, 45, 0, 5, -31, 29, -3, 20, -45, 64, 1, 33, -12, 
24, 41, -63, 105, -127, 69, -7, -25, -55, 39, -13, 22, -127, 38, 77, 27, 23, 15, 78, -41, 8, -10, 55, -24, 69, 82, 31, -32, 9, -28, 27, 38, 
-127, -67, -127, -50, 6, -42, -77, -27, -19, 71, -64, -11, -48, -72, -13, -127, 8, -88, -53, -56, -13, -17, -18, 8, -11, 5, -71, 32, -127, 11, 20, -59, 
-52, -3, -74, 34, -25, 84, -16, 9, -34, 11, -16, 33, -106, 4, 49, -127, 34, 1, -16, 3, 6, 14, 6, 26, -7, 43, -20, -90, -40, 37, 73, -12, 
81, 23, -10, 24, -26, -20, 47, 32, 6, -10, -58, 48, -52, 57, 66, -114, 41, 89, 38, 47, 16, -5, 17, 9, 23, 30, 49, -127, 3, 72, 110, -17, 
107, -53, 62, 35, -18, 111, -6, -106, 4, -71, -47, -36, 29, -127, -127, -127, -34, 72, -9, -127, -62, -74, -64, 16, -37, -10, -127, 72, -39, -21, -90, -127, 
112, 22, -45, 31, -38, 84, -44, 10, 7, -65, 9, -26, -28, -127, -108, 29, -14, 40, -7, -127, -12, 15, 27, 2, -8, 7, -127, 62, 8, 1, 0, -17, 
53, 93, -101, 22, -65, 41, -1, 14, -12, -13, 93, 44, 15, -83, -28, 65, 65, -12, 10, -44, 30, 30, 67, 48, 30, 89, -100, 35, 66, -36, -2, 48, 
28, 32, -52, -43, -8, -80, 108, -58, -127, 51, 44, -47, -38, -97, -123, 33, 40, -76, -74, -40, 75, 59, -5, 75, -127, -60, -90, 14, -14, 10, 29, -19, 
11, 14, 14, 39, 22, -47, 68, -23, -63, 21, 20, -11, 5, -1, -5, 6, 25, -25, 21, 38, 14, 22, -37, 12, -66, 23, -99, 23, -17, 3, -23, -13, 
42, 31, -23, 81, 8, -91, 107, 1, -31, 68, 49, -4, -11, 56, 55, -1, -25, -5, 44, 34, -53, 13, -91, -32, -127, 50, -27, -9, 69, -69, -27, -34, 
70, 82, -127, 32, 38, -127, -28, -15, -11, -34, 1, 9, 23, -29, -27, 56, -39, -92, 40, 8, -32, 39, 10, -17, 25, -43, 41, 39, 35, 0, -11, 97, 
14, -9, -127, -24, -23, -73, 49, -72, -61, -41, 1, -93, 33, -127, -127, 40, -49, -75, 56, -114, 45, 7, 20, -3, -117, 27, -18, 40, 30, 9, -10, 16, 
-40, -64, 15, -70, -2, -22, 81, -79, -71, 24, 93, -119, -39, -127, -100, 5, -62, -75, 52, -127, -3, -10, -28, 66, -67, -49, -3, 6, 56, 9, 59, -50, 
13, 15, -20, -13, -19, -46, 67, 73, 81, -42, 21, 70, -35, 65, 127, -5, 6, 12, -31, 32, 15, -22, 90, 12, -13, 115, 30, 62, -23, -92, -74, 14, 
-11, -22, 18, -127, 9, 3, 46, -5, 9, 5, 14, -67, -16, -22, 11, 28, -34, 46, 0, 9, -104, 15, -21, -36, -7, -106, 4, 34, -3, -30, 18, 5, 
-14, -42, -14, -70, 15, 29, 72, -24, -20, 30, 9, -103, 4, -51, -127, 32, 0, 34, -35, -21, -24, 78, -2, -37, 7, -127, -4, -13, 8, -30, 21, -2, 
-17, 7, -101, -29, -94, -97, -81, -13, 66, -3, 31, 86, 6, -3, 37, 20, 11, 15, 12, 3, -12, 13, -2, 39, 92, 127, -10, 31, -4, 90, 55, -21, 
1, 3, -31, -117, -64, -42, -18, -13, -16, -2, 54, -24, -1, -41, 40, 47, -72, 51, 41, -9, -86, 25, -85, -127, 22, 17, 0, -36, 57, 57, 78, 0, 
-5, 0, 65, 1, -45, 13, 72, -51, -76, 9, 17, -58, 12, -65, 1, 29, -127, 43, 41, -67, -127, -8, -127, -127, -41, -46, -8, -56, 2, -24, 6, 0, 
-85, -102, 63, -1, 33, 24, 26, -5, -8, -10, 15, 26, 26, -127, -51, -100, -4, 6, -3, -115, 38, -3, 26, 3, -52, -8, -127, 56, -122, -25, -53, -64, 
-48, -32, 53, -21, -8, 39, -60, 21, -14, 35, 51, 19, 7, -39, -18, -40, -1, -27, -25, -34, 39, 37, 27, 36, -11, 2, -127, 76, -92, -14, -10, 1, 
13, 90, -85, 0, -46, -14, 47, -7, 3, 60, 106, -10, 15, -14, 42, -21, 40, -34, -6, 1, 49, 37, 51, 19, 4, -14, -71, -31, -43, -1, 59, 93, 
40, -31, -31, 5, -37, -41, 28, 27, -54, 16, 7, -9, 48, 40, -50, 3, -49, -69, 92, 18, -63, 21, -41, 21, -127, -127, 7, 51, 0, -56, 79, 39, 
-13, 5, -25, 21, -12, -22, 18, -3, -37, -44, -51, -18, 126, 11, -65, 58, 8, -20, 5, 11, -20, 42, 3, 51, -72, -90, -8, 10, -53, -7, 18, 46, 
-40, 34, -68, 110, 60, 10, 12, -15, 3, -47, -75, 24, 37, 3, -55, 14, 18, 41, -56, 13, 35, 54, 22, 40, -75, -23, -8, 92, -102, -71, -45, 22, 
125, -10, -13, 46, -10, 61, 127, 14, 24, 31, 34, -71, 40, 0, -79, -8, 16, 84, 32, -17, -85, 11, -67, -32, 21, -98, -15, -25, 54, 45, 21, -11, 
35, -27, -75, -28, 8, -12, 16, -59, 29, 7, 4, -63, 25, -2, -76, -10, 59, -29, -36, -49, -1, 30, 41, 15, 102, 25, 4, 49, -12, 41, 25, 36, 
-38, -7, -75, 38, -20, -119, -62, -68, 25, -67, -70, 29, -5, -47, 6, -59, 41, -127, -102, -31, 39, -27, 46, 20, 89, 77, -43, 117, -127, 10, -55, 20, 
-125, -54, 35, 26, -56, 37, -14, 12, -4, -4, 36, -10, 1, 7, 10, -106, -17, -127, -46, -10, -12, -19, -20, -30, 49, 7, -21, -8, 0, 48, 66, -31, 
-28, 27, -42, 61, -127, -24, -93, 65, 33, 11, 60, 36, -64, 45, 35, -22, 58, -127, -111, 24, 42, 34, -1, 52, 4, 0, 23, -126, -47, 4, 46, 52, 
3, 34, 95, -89, -109, 114, -86, -9, 14, -91, -9, -58, -71, -28, 47, 71, 66, 71, -35, -17, -4, -19, -6, 20, -66, -67, 31, -69, 0, 23, -47, 47, 
-85, 1, -29, 25, -11, 39, -127, -11, 15, 66, 12, 0, 72, 21, 97, -9, 54, -73, 0, 8, 36, -1, 67, 76, -2, 16, 55, 8, -5, -46, -6, 48, 
-54, 13, 22, 49, 19, 62, 10, -121, -18, 53, 6, -74, -26, 47, 66, 6, -6, -25, 24, 17, -16, -18, 24, -36, -66, -28, 49, 38, -6, -34, -46, 26, 
19, -35, 71, 75, 25, 76, 94, -127, -127, 6, -34, -78, -60, -57, 31, 23, -52, 69, 32, -56, 35, -86, 35, -109, -37, -11, 19, 22, -36, 10, -57, -3, 
2, 25, -38, -51, -27, 38, -46, -50, -1, -35, -53, -22, -29, -11, -9, 7, -127, 1, -6, -32, -127, 6, -61, -107, -27, 5, -6, 69, 7, -35, 29, 39, 
52, -3, -35, 9, -15, -60, 17, -3, 43, 19, -48, 41, -33, -12, 7, -26, -90, 40, -8, -50, -103, -10, -28, -94, 49, 36, -53, 36, -27, 46, 50, -33, 
108, 6, -92, 42, -66, -127, 19, 127, 39, 25, 35, 35, -42, 6, 36, -26, 54, 34, 2, -46, 31, 93, 64, 18, 72, 27, -8, -64, 17, 77, 92, 30, 
5, -47, -51, 101, 111, -107, 22, -74, -72, 16, 19, -14, 64, -43, 103, 34, 22, -105, 0, -58, 74, -24, 94, 50, -92, 25, -2, -38, -106, -80, -60, 5, 
-9, -89, -4, 0, 54, -46, 127, -35, -21, 35, 14, -19, 23, 0, 48, 88, -60, -45, -14, -54, -8, 15, 0, -44, -115, 29, -19, -32, -56, -59, -69, -100, 
-7, -114, -99, -112, 46, -93, 108, -8, -20, 95, 21, 27, 56, 5, 43, 83, -95, 13, 22, -55, -86, -1, -17, -61, -58, 28, -17, 12, -22, -26, 21, -80, 
-65, 2, 19, 66, -52, -15, 11, -23, -1, -105, -51, 29, -1, -56, 24, -54, 35, -20, -68, -43, 127, -44, 46, 41, 47, 44, -93, -41, -127, 8, -119, -77, 
24, 34, -11, 15, -21, -34, 23, 44, 11, -9, 29, 56, 39, 44, 111, -14, -18, -14, -56, 31, -3, -89, 1, 21, 4, 41, -48, -36, 10, -127, -98, -30, 
42, 23, 2, -92, -17, -20, 85, -24, -7, 46, 53, -6, 114, -12, 29, 73, -59, 19, 31, -5, -106, -41, -69, -12, -113, -24, 34, -11, 66, -127, 53, 20, 
22, -52, -96, 68, 23, 123, -38, -3, -105, -19, -32, -56, -28, 14, -86, -127, -90, -51, -51, -3, -127, -83, -127, -12, 39, -127, -127, 18, 0, 55, 38, -61, 
45, 13, -127, 77, -5, 60, -34, 25, -26, 23, 36, 0, -81, 67, -81, -45, -35, -48, -14, 17, -47, -34, -78, -19, 16, -94, -12, 22, 58, 36, 22, 36, 
48, 89, -127, 109, -127, 39, -7, 24, 16, -29, 55, 58, -113, 60, 6, -6, -3, 40, -29, 16, 17, -9, -10, 23, 24, 3, 51, 8, 57, 45, -30, 30, 
-68, -51, 33, 28, 39, 13, -13, -50, 6, -60, -29, -2, -42, 7, -12, 5, 14, -7, -25, 20, -5, -4, 30, -71, 12, -31, 16, 2, -6, 5, -109, -12, 
-57, -47, 32, 50, -103, 14, 3, -12, 21, -12, -11, 24, -73, 64, 22, 0, -56, 20, 8, 30, 0, -12, 0, -48, 2, 74, -45, -62, 40, -3, -49, -64, 
-41, -38, 4, 25, -127, 2, 127, 24, -87, 88, 95, 20, -86, 42, 53, 30, -25, 40, 30, -25, 12, 30, 13, 26, -66, 35, 28, -50, 54, 33, 127, 28, 
0, -14, 8, 41, -5, 23, -39, -127, -74, 30, 7, -127, -57, -25, -54, -23, 17, -9, 6, -108, 29, 39, -14, -117, -127, -68, 2, -50, 0, 11, 47, -7, 
31, 62, 17, 127, -4, 70, 32, -127, -124, -18, 56, -127, -16, -52, -127, 56, -1, -37, 32, -127, 23, 8, 33, -127, -127, -85, 0, 40, 25, -14, 16, -30, 
51, 32, -5, 72, -38, 19, 40, -127, -127, 7, 52, -127, 35, 127, -127, 79, -41, -26, -8, -127, 3, -14, -65, -127, -127, -24, -3, 107, 21, -123, -20, -88, 
69, 15, 21, 44, 26, 11, -101, 17, 18, 27, -4, 5, 33, 17, 0, -42, -18, -33, 15, 8, -14, -26, -13, -12, -1, 4, 39, -126, -11, 5, -69, 17, 
104, 16, 29, 54, -91, -70, 59, 22, -22, 3, 35, 0, -24, -4, -9, -39, -4, 2, 50, -3, 9, -22, 0, -20, -62, -11, 19, -51, -9, -100, -108, 35, 
106, 20, 49, 20, -60, -47, -33, 14, -2, -35, -11, 22, -36, -9, 56, 1, -23, -14, -23, 18, 84, 10, 95, 4, -89, 30, -18, -39, -48, -94, -52, 42, 
69, 25, 13, -33, -7, 65, 56, -127, -69, -19, 99, -127, -40, -113, -127, 89, -28, 76, 78, -127, -34, 30, -39, -56, -62, -127, 8, 8, 44, 10, 63, 16, 
-10, -113, 2, -2, 15, 57, -26, -127, -11, 39, -34, -57, 0, -127, -127, -18, -23, 58, 40, -96, -38, 31, -120, -59, -56, -127, -42, 52, -40, 19, 51, -68, 
20, -36, -35, -16, 33, -9, -18, -127, 10, -22, -103, 4, 13, 70, -127, -47, 77, -26, -64, -43, -38, 63, -35, -56, 12, -19, -127, 54, -122, 56, -2, -100, 
-7, 50, -113, -31, -127, -26, 99, 70, -49, -48, 72, 20, -79, -19, 52, 12, -9, -27, -92, -31, 13, 9, 11, 44, -100, 0, 30, 19, 8, -30, 19, -22, 
-33, 57, -87, -25, -58, -2, 27, -39, -17, -99, -13, -36, 54, 15, 94, 84, 58, 22, -55, 0, -1, 13, 22, 41, -17, 25, 107, 20, 4, 7, 101, 46, 
-39, -68, 6, 19, 98, 10, -127, -127, 20, -127, -127, -18, 99, -4, 47, 18, -44, 28, -73, -65, -14, -90, 11, -73, 31, 63, 44, 28, -127, 66, -12, -32, 
-23, -103, 10, 34, 44, -19, -21, 99, 55, 49, -11, 11, 115, -127, 15, -100, 54, 1, -8, -127, 55, -48, 30, 24, 68, 31, -56, -94, -127, 71, -37, -53, 
45, 0, -4, 24, -57, -73, 27, 22, 25, 10, 105, -16, -1, -127, 42, 2, 18, 20, 38, -127, 34, -83, 25, -67, -10, 19, 45, -9, 15, -44, -65, 48, 
18, -54, 21, 27, -63, -38, 24, -32, -44, -43, 119, -30, -54, -127, 99, 114, -24, 0, 27, -127, 23, -113, -6, -59, -56, 18, -1, 61, 23, -118, 36, -28, 
13, 93, -73, -34, -16, -18, -47, 13, 43, -83, 50, 7, 74, 22, 23, 75, 82, 3, 30, 16, 30, 49, 20, 33, 8, 4, 67, 26, 33, 89, 64, 69, 
-31, 37, -27, -51, 20, 13, 15, -10, 37, -127, -31, -2, 27, -42, -18, -17, -17, -23, -21, -9, -2, -11, -4, -49, -59, -5, -8, 115, -68, -12, -36, -28, 
-54, 1, -8, -47, -8, 10, -18, -4, 13, -127, -3, 20, 4, -40, -23, -65, -22, 1, -40, -13, -10, -15, 5, -29, -1, -4, -69, 118, -71, -48, -9, -56, 
-43, -59, -2, 10, 25, -43, -51, -127, -17, 55, -22, 16, 2, -127, -127, -79, 77, 23, 0, -127, 19, 14, 6, -82, -46, -10, -127, -92, -60, -15, 21, -127, 
59, -123, 34, 8, 37, 0, 5, -93, -26, 41, -50, -7, -11, -120, -79, -56, 43, 41, 34, -127, 63, 16, 25, -97, -50, 3, -106, -6, -27, -21, 17, -127, 
83, -39, 83, 46, -24, 4, 116, 17, -29, 34, 13, 20, -22, 0, -37, -14, 34, 30, 24, -22, 39, -5, 42, -70, 8, 42, -98, 18, -9, 23, 11, -74, 
-75, -125, -26, 3, 40, 19, -127, -59, 24, -16, -127, 19, 0, -116, -57, -127, -5, -13, -15, -92, -27, -98, 0, -38, 33, 39, -127, 42, -127, 16, -31, -127, 
-53, -43, -5, 70, 15, 39, -73, 5, -10, -40, -27, 35, 1, -37, -71, -96, 7, -37, -34, -20, 72, -57, -6, -20, 20, 37, -127, 89, -127, -73, -11, -66, 
27, 5, 19, 80, 17, -1, -89, 107, -28, -9, 85, 45, 1, 56, -28, -92, 41, -20, -30, 27, 25, 21, -9, 52, -48, -30, -36, 46, -102, -109, -27, 53, 
-10, -127, 34, -4, 44, 57, 56, -24, -61, 68, -26, -24, 0, -34, -48, -52, -11, 10, 33, -23, -1, -60, -6, 54, 9, 38, -127, -33, -68, 106, 33, -71, 
-92, -59, -79, -12, 40, -123, 2, 25, 7, 40, 59, 14, -9, 81, 31, -77, 28, -94, -29, 45, -23, -35, 8, 41, 45, 32, -94, 31, -2, 9, -25, 10, 
-94, -30, -57, -101, -11, -123, -3, -38, 6, 11, 90, 32, 14, 49, 37, -45, 13, -67, -32, 15, -47, -22, -8, -20, 28, 46, -6, 87, 24, -43, -52, 2, 
-7, 28, 14, -7, -11, -16, -89, -93, -58, 30, 90, -80, 53, 33, -96, 46, 9, 17, 14, 0, -3, 23, -1, -3, -91, -64, 0, 6, 27, -67, 7, 22, 
-11, 38, -9, 37, 22, -59, 22, -127, -114, -19, -5, -6, -41, -58, -93, 24, 31, 0, 54, -83, 13, 29, 14, -1, -86, 7, 30, 27, -4, -28, -30, 27, 
-35, 36, 25, 75, -28, -95, 47, -97, -98, -99, -40, 6, -100, -5, -31, 32, 8, 0, 74, -40, 49, -64, 12, 65, -15, 46, 15, 14, -54, -2, -47, 30, 
-127, 10, 5, 10, 8, -127, 105, 1, 22, -20, -34, 42, 69, -69, -12, -85, -126, -64, -67, -41, -29, -47, -50, -14, 40, 14, -120, 17, -84, 32, -49, -127, 
-127, 4, 14, 25, -3, -127, 37, 41, 12, 24, 40, 9, 35, 14, 8, -40, -39, -120, -35, 1, -19, 9, -29, 52, 1, 16, -73, -23, -10, 32, -10, -43, 
-127, 10, -35, 12, 0, -97, 4, 1, 21, 43, 70, -27, -59, -10, -13, 91, 36, -127, -24, 8, 38, 58, 46, 60, 10, 31, -10, 32, 32, 23, 32, 7, 
21, 0, -18, 14, -127, 5, -4, 23, -16, -45, 25, 29, -104, -21, -8, 61, -4, 59, 107, -4, -49, -11, -22, -12, -127, -5, 10, -15, 24, -55, 65, 25, 
-33, 16, 10, 97, -91, -22, -47, -5, -5, -23, 14, 56, -48, 4, 41, 27, -15, 34, -4, 9, -16, -25, -2, -10, -127, 83, -11, -127, 7, -80, -38, 31, 
-87, 46, 0, 36, -111, -28, -117, -3, 27, 0, 11, 44, 50, 29, 25, -24, -11, -44, -92, 18, -17, -1, -15, 19, -27, 123, 15, -127, -45, -102, -40, -8, 
55, 3, 75, -4, 32, 52, -12, -89, -7, 7, 3, -48, 39, 24, -5, 49, 8, -3, 34, 0, -1, -64, 8, -75, -64, 14, 61, -21, 36, 11, 11, 43, 
69, -43, -63, -15, 12, -54, 59, -25, -49, 38, -22, -15, -29, -62, -70, 42, -62, -67, 110, -53, 26, -85, 15, -46, -37, 27, -43, -11, -19, -21, -16, -51, 
72, 9, -108, -48, -24, -127, 1, 111, 29, 45, 72, 57, -63, 24, -45, 32, 27, -127, 6, 36, 16, -18, 73, 89, 41, 20, -127, -9, -18, -18, -51, -27, 
91, 30, 5, 13, 17, 113, 3, -1, -20, 18, 10, -18, 30, -7, 21, 27, -35, 118, 51, -7, -6, 1, -17, -5, -20, 12, 16, -36, 53, 27, 27, 9, 
14, 39, -75, 11, -22, -54, 39, 8, -4, -46, -41, 18, 18, -55, 2, 1, 3, 38, -13, -17, 9, 4, 12, -20, -4, -9, -3, 24, -79, 43, -29, -7, 
7, 86, -114, 68, -82, -78, 60, 58, 24, -127, -33, 64, -84, -23, -8, -1, 37, -22, -114, 17, 68, 37, 80, 42, -52, 43, -89, 30, -127, -16, -54, 29, 
-94, 9, -76, 101, -7, -127, 14, 56, 42, -53, 35, 51, -63, -67, -1, -23, -88, -57, -90, -14, -7, -4, 10, 4, -127, 20, -34, -1, -45, -127, -97, -49, 
-55, 31, -31, 48, -37, -115, 81, 64, 15, -1, 47, 5, -27, -57, -60, 50, -44, -5, 1, 11, -75, 0, -59, 50, -127, -61, -68, -22, 14, -94, 47, -37, 
31, 0, 105, 36, 41, 14, 53, 6, 58, 60, -9, -34, 27, -35, 26, 20, 58, 49, 27, 42, -58, 17, -39, 40, -43, -72, -6, -43, 32, 55, 127, 8, 
-84, 97, -49, -33, 30, -56, -108, 8, 48, 30, 15, -31, -46, 28, 64, 8, 46, -127, -3, 36, 46, 31, 17, -6, 10, -25, 7, -2, -1, 125, 10, 75, 
-121, 69, -38, -3, 80, -45, -127, -71, -23, 0, -7, -94, -22, -58, -55, 32, 52, -108, -32, -9, 2, 47, -4, -25, -11, -6, 39, -15, -66, 127, 29, 14, 
-88, -62, 13, 61, 6, 38, -26, -106, -70, 25, -17, -126, 6, -127, -127, -5, 13, -50, -15, -108, -25, -10, -70, -58, -36, -66, -53, 44, -88, 36, 39, -48, 
-114, 33, -50, -3, -105, 22, 23, -14, -78, -94, 76, 5, -127, -127, -49, 105, -7, -31, 45, -88, 5, -8, 45, -5, -24, 56, -43, 96, -1, -53, 53, -7, 
-90, 8, 0, 48, -124, -8, 28, -4, -36, -34, 65, 3, -127, -101, -56, 64, 17, -6, -7, 2, 40, 4, 15, -45, -75, 33, -88, 87, -25, -36, 0, -28, 
-55, 19, -27, 54, -25, -60, 71, 23, -42, -14, 42, -4, -127, 3, -43, 39, -33, 0, 84, 4, 10, 17, 0, -18, -61, -6, -56, 35, 8, -25, -31, 34, 
-10, -76, 54, -37, 70, -1, -124, -74, 86, 74, 3, -31, 78, 17, -40, -57, 38, -28, 2, -24, -41, -27, -17, -16, 105, -1, 6, -57, 14, 40, -3, -2, 
-11, -83, 60, -42, 29, 90, -124, -127, -8, 26, 18, -50, 51, 6, -54, -30, 42, -33, 43, -37, 7, -17, -44, -8, 64, 12, -10, -35, 11, 32, 2, -28, 
-8, -52, 52, 45, -4, 87, -8, -5, -92, -3, 7, -59, 3, 26, -36, -46, -22, -37, 28, 67, 30, -21, -63, -5, 5, -58, -22, -29, 28, -31, -11, -77, 
16, -38, -13, 112, 35, -14, -30, -34, -1, -36, -127, 26, 73, 22, 25, -86, 0, 0, 27, -26, 39, 67, -2, 60, 106, 20, 0, -24, -123, 0, 20, -7, 
28, 11, -45, 98, 61, -20, -20, 34, -3, -74, -71, 8, 57, -20, -11, -51, -13, 24, -27, 9, 20, 65, 8, 51, 75, -33, -14, -67, -44, -41, -56, 41, 
32, 47, -47, 42, 47, -17, 31, 60, -18, -25, -33, -10, 74, -25, -61, -28, -56, 16, -40, -8, -37, 40, -53, -57, 32, -72, -50, -49, -41, -70, -19, 24, 
66, -23, -47, 76, 36, 28, 76, -2, -91, -16, -55, -26, -11, -21, -62, -56, -123, 106, 121, -45, -6, -53, -64, -127, -127, -25, -127, -26, -7, -9, 19, -67, 
32, 30, -127, 16, -40, -60, 12, 39, -11, -24, 18, 31, 28, 8, -7, -25, 49, 23, 16, 20, 44, 20, 35, 30, 1, -36, -86, -5, 17, 16, -7, 18, 
-43, 38, -127, -61, -3, -25, -7, 68, 14, -23, 0, 43, 42, 14, 21, 4, 47, -57, -29, 49, 24, 75, 29, 7, -8, -64, -2, 77, 20, -14, 6, 32, 
-40, -12, -72, -84, -10, 110, -36, 29, -43, 60, 19, -64, -81, -27, -58, -16, -17, 28, -1, -15, -77, -19, -68, -69, -49, -127, -12, -15, 27, 11, 90, -7, 
30, 50, -44, -95, -22, 13, -118, 41, 11, 54, 67, -41, -17, 20, -38, 2, 21, -21, -78, 33, -28, 16, 37, -16, -4, 2, 25, -23, 54, 4, 49, 60, 
-10, 64, -60, -38, -37, -86, -25, -9, -9, -2, 60, 20, 5, -22, -43, 30, 2, -125, -127, -31, 30, -9, 97, 6, 51, 127, 33, 93, 45, -66, -43, 42, 
-56, 30, 68, -8, -21, 55, -92, -1, 25, -109, -4, -17, -8, -21, -3, 67, 23, -17, 9, -11, 13, -4, 35, 17, -36, -5, 7, 109, -80, -66, -45, 16, 
-20, 12, 10, 5, -21, 6, 73, -18, 40, -7, 0, 44, -52, -45, -21, -65, -36, 15, -70, -8, -6, -33, 2, -23, 41, 46, -31, -17, -76, -39, -127, -57, 
17, 31, -47, -29, -84, -80, 127, 48, -3, 89, 96, 76, -37, 51, 20, -46, -4, 32, -31, 17, -35, 0, -48, 31, 71, 56, -25, -105, 122, -18, 48, -12, 
};

const int8_t MagnetometetNetworkInt8_layer_12_bias[] = {
49, 2, -11, 10, -18, -42, -62, 91, 67, -51, 80, -22, 64, 10, 29, 72, 110, -66, 15, 52, 28, -46, 59, -42, 127, -50, -127, 57, 118, 116, -65, 42, 102, 17, -87, -100, 0, -27, 107, -40, 63, -91, 125, -16, 127, 0, -34, 11, 127, 107, 45, 127, -29, 28, 14, -56, 18, 11, 127, 62, -5, 28, -24, -90, };


const int8_t MagnetometetNetworkInt8_layer_15_weights[] = {
15, -36, 96, -21, 21, -92, -82, 12, -84, 45, -111, -40, -32, 26, 43, 8, 49, 5, 46, -60, -21, -30, -127, -91, -127, -25, -127, -116, 18, 118, -1, 25, -113, -70, -59, -36, -45, -34, -91, 35, 11, -78, -49, 36, -116, -27, -2, 37, -73, -91, -27, -49, -75, 39, 4, 44, 89, -127, 72, -79, -11, -69, -95, 55, 
-87, -26, 30, 7, 11, -26, 78, -32, -26, 10, 13, 6, 23, 3, -38, -67, -47, 30, -38, -23, -39, 12, 2, -74, -30, -26, -5, -38, 0, 60, 5, -69, -29, 80, 13, 14, 1, 14, 29, 15, 23, 36, -127, 46, 49, 94, 15, -24, -72, 34, 51, -62, 29, -9, -45, 19, 16, -52, -9, -1, -69, 1, -22, 17, 
-127, -60, 4, 68, -13, -18, -91, -30, -32, 5, -11, 35, 29, -48, -17, -127, -20, -11, 7, -31, 30, 59, 34, -23, -12, -4, -76, -21, -31, -127, -17, -27, -31, 20, 40, -29, -26, 59, 41, 31, 63, 32, -127, 49, -45, -12, -87, 7, 18, -10, -13, -70, 33, 2, -105, 71, 31, -98, -61, -37, -4, 0, 33, 22, 
-17, 24, 36, -10, 38, -75, 67, 32, -77, -49, -16, 30, 11, -1, 46, 25, 2, -47, -42, -74, -42, 79, -14, 9, 0, -51, 5, 8, -34, 42, 35, 15, -45, 7, 27, -14, -1, 1, 3, -2, 11, 13, -18, 2, 84, 12, -10, -40, 19, 14, 1, -61, 0, -6, -40, 16, -76, 53, 8, 4, -18, 32, -29, 20, 
40, -47, -26, 26, 42, -122, -126, -27, 97, 34, -14, -25, -23, -6, 50, 66, 23, -51, -42, -28, 36, 12, -3, 54, -22, -13, -8, 39, 5, 15, -58, -26, 6, -22, 31, -70, -38, 2, 66, 12, -44, -26, 18, 6, -26, -76, 40, -3, 43, -14, 19, -3, -19, 56, 14, 16, 75, -11, 31, 6, 17, 44, -56, -25, 
-74, 24, 13, -51, 32, -3, 83, -6, -123, 6, -13, -30, 14, -10, -13, 14, -24, 9, 14, -31, 54, -31, 14, 28, -40, 8, -38, -12, -66, -18, -33, 15, -11, -4, -23, -35, -48, -9, 67, 2, -15, -16, -34, 18, -26, 75, 65, 43, -3, 6, -46, 43, -15, 58, -3, -11, -21, -62, -15, -95, -26, 8, 21, 22, 
-121, 17, -26, 1, -9, 12, -18, -71, 13, -27, 47, -9, 23, 0, -28, -12, -1, 13, -127, 53, -30, 15, 43, -127, 66, -127, -3, 82, -49, -43, -1, 12, -51, 3, 59, 8, -1, -17, 26, 21, 85, -12, -43, 48, 38, 27, -39, 19, 66, -16, -19, 63, -47, 20, 0, 39, 12, 27, -127, -20, 3, -68, -23, 94, 
23, -26, 18, 4, 53, 42, 27, -45, 1, 0, -53, -10, -8, -12, 51, 56, 12, -16, 22, -15, -40, -93, -35, 26, -46, 26, 42, 25, -48, 1, -3, -15, 18, -29, -49, -29, 26, 2, -39, 12, 15, -5, 98, 65, 45, -5, 38, 9, 0, -11, -86, 7, 37, 8, -102, -22, -11, 24, -44, -47, -38, 47, 14, -20, 
-70, -127, -127, 81, 60, -69, -58, -67, 9, 4, -119, -71, -6, -11, 38, 22, -92, -127, 18, -28, 49, -49, 21, -127, -81, 43, -19, 47, -24, -44, -94, -120, -13, 5, 4, -1, -127, 50, -3, -127, 10, 62, -102, -4, 57, -13, -2, 18, -68, -23, -43, 26, -29, 23, 6, 28, 79, 25, 35, -10, -50, -30, 0, 51, 
-127, -41, -16, 66, -47, 24, -36, -40, -112, -74, -40, -25, 14, -1, 0, 33, 1, 30, -23, -124, -64, 2, 76, -29, -124, 2, 11, -127, -20, 45, -3, 2, -127, -18, -37, 34, 7, -127, -19, 23, -85, -7, 6, 44, 56, 9, -116, 26, -90, -96, 1, 42, -127, 21, 70, -3, 10, -31, -17, 45, -17, -127, 31, 14, 
9, 1, -9, 34, 32, -3, -58, 37, -9, -127, 23, -7, -20, 2, -61, 25, 27, 5, 48, -35, -108, -55, 14, -41, 70, 24, -118, -49, 29, -21, 3, 9, -78, -64, -127, -6, -4, -127, 0, -99, -38, -75, 26, 93, 2, -33, -103, -4, 58, 6, -107, 1, -127, -51, 11, -101, -89, -32, -14, -31, 0, -43, -9, -127, 
34, -70, 25, 31, 23, 4, -20, 29, -6, -115, 5, -127, 17, 32, -67, 59, -7, 17, 55, 31, -7, -127, -48, -57, 41, -16, 35, 18, 59, -4, 38, -32, 8, -36, -127, -127, 7, -127, 31, -127, -57, -106, 33, 62, -61, -106, 71, -66, 31, -28, -5, 40, 127, 56, 48, -89, -127, -12, 61, -75, -96, 1, 45, -127, 
25, -32, 18, 44, 0, 5, -16, -12, 32, -119, -17, -127, -125, -36, -35, 48, 35, -1, 83, -55, -109, -127, 8, 1, -24, 14, -9, 11, 81, 46, -127, 21, -127, -34, -121, 14, -32, -91, 4, -127, 92, -72, 13, 21, 28, -118, -63, -127, 2, -91, -79, -14, 0, 11, -24, 68, -127, 63, 5, 32, -127, -58, 6, -127, 
12, -28, 63, 40, -19, 13, -44, 25, -19, -117, -16, -127, -127, 9, -49, 2, -15, 62, -30, -101, -73, -127, -20, -26, -21, -22, -26, 55, -4, 82, -66, 40, 5, -56, -127, -45, 11, -74, -57, -127, -16, -66, 1, 26, 21, -127, -72, -67, 13, 27, -45, 23, -6, 121, 8, 80, -127, 35, 18, 0, -32, -58, 44, -127, 
-60, 4, 99, 36, -98, 12, 66, -6, -85, -127, 0, -127, 20, 46, -127, -127, 1, 106, -75, -127, -127, -43, 19, -14, -39, -6, 3, 17, -127, 49, -127, 39, 96, -105, -127, -59, 56, -127, -69, -47, -52, -84, -25, 30, 26, -127, -27, 0, -55, 127, -99, 14, -8, 1, -9, -7, -77, -4, -2, -9, 127, -123, -44, -100, 
-22, 8, -25, 118, 11, -14, -25, 0, -62, -19, -40, 29, 108, 11, -22, 37, 57, 17, -127, 31, 78, 15, 38, -50, 27, 20, -76, 57, -67, -32, 14, 30, 21, 0, -18, 23, 16, 33, 13, 36, 46, 14, 0, 50, 67, 9, -53, -14, 21, -24, -56, 29, -60, 83, 47, 13, -12, 21, -41, -41, -20, 27, -32, 76, 
-84, -30, -59, 65, -1, -46, 0, -30, -102, 14, -13, 28, -21, 11, -35, 56, 52, 57, -127, 24, 20, 60, -32, 17, 1, -39, -114, 17, -76, -16, -17, 4, 70, -1, -4, 29, -10, -46, 21, -92, -114, -4, 6, -73, 23, -17, -56, 0, 39, 54, -27, 28, 37, 123, -20, -14, -127, 28, -34, -14, 16, 76, -56, 3, 
-96, 2, -69, -124, -37, -72, 0, -81, -127, -48, -6, -88, -22, -127, 43, -30, 49, -46, -127, -6, -84, -20, -52, -24, 4, -65, -27, -21, -33, -12, -68, -28, -20, -6, 53, -127, -42, -12, 21, -127, -127, -127, 1, -91, -19, -21, -84, 0, 10, -11, 21, -14, 46, -78, -25, -57, -127, 46, -17, 13, -12, 21, -127, -50, 
58, 12, -4, 72, -33, 5, 16, -2, 57, 34, -119, -19, 98, 7, -33, 20, -83, 30, 4, -127, -17, -67, -22, -91, -127, -23, -32, 114, 42, -27, 10, -57, -96, -18, -21, 27, -4, -5, -52, -16, 89, -29, -40, 22, -127, -19, 13, -62, -75, 96, -16, -41, 72, -70, 4, -89, 34, 10, -26, -61, 31, 9, -25, 30, 
-52, 14, 4, 26, 9, -5, 10, 3, -2, -37, 34, 21, -29, -28, -6, -17, -9, 3, -2, -90, 35, 3, 22, -58, -45, 22, 41, 25, 48, 6, 0, 13, -88, 8, 32, -11, 12, -25, 44, 0, -46, -73, 25, -35, -17, 7, 63, -6, -9, -57, -71, 36, 46, -91, 61, -14, -17, -32, 59, 39, -127, 36, 6, 87, 
16, 35, -79, -23, -99, -57, -51, -70, 42, -127, 55, -87, -39, -42, 127, 35, 86, -21, -33, 2, -33, -48, -20, -18, -14, 12, 49, 0, 5, -90, -96, -46, -3, -56, 22, -20, 40, -98, 20, -79, -39, -127, 28, -127, 8, -12, 59, -49, 39, -40, -21, 77, -63, -127, 73, -37, -16, -7, 2, -5, -2, 18, -127, -110, 
-97, 38, -7, -6, 27, -5, 4, 27, -14, -2, -30, 28, 49, 15, 49, 48, 101, 12, 88, -127, 49, -47, 16, -127, 127, 21, 43, 127, 7, 32, -6, 25, -28, -11, 7, 3, -5, -44, -81, 23, -26, 60, -71, 1, 24, 2, 89, -4, -127, 127, -8, -33, -46, -47, 5, -40, 29, -21, -21, -35, 65, -23, -5, 7, 
-127, 23, -13, 0, -1, -37, 8, 22, -127, -127, -6, -4, -22, 81, 0, 11, 38, 0, 31, -60, 1, -6, 14, 26, -74, 17, -70, 47, 22, 3, 16, 48, -127, 35, -54, -4, -19, -127, 47, 27, -91, -44, 5, 16, 73, 0, 76, 27, -127, -127, -16, -52, -127, -27, -41, -63, -92, 0, -1, 15, 49, -95, -13, -127, 
70, -45, -4, -98, -78, -127, -21, 54, -80, -83, -6, -78, -83, 51, -54, -10, -79, -42, -12, -35, 42, -65, -46, 34, -6, 20, -127, -114, 74, 43, 24, -9, -76, 3, -95, -127, -12, -127, 48, -127, -33, -127, 104, -86, 32, -34, -94, 8, -15, 42, 37, -15, -38, -72, -123, -127, -127, -20, 13, -47, -2, 13, -70, -127, 
-127, -19, 8, 19, 71, 0, -57, -22, -22, 8, -127, -19, -16, -44, 127, 20, -79, -7, 47, -44, 49, -60, -127, -4, -127, 56, -100, 48, 18, -105, -23, -99, -15, -90, 40, -19, 24, 7, 27, 22, 27, 9, -67, 30, -91, -59, -58, -16, -127, -50, -13, 4, 0, 14, -84, -7, 39, -41, 20, -127, -34, 25, -23, 19, 
-17, -39, 6, -72, 47, -24, 8, -8, 18, -43, -127, 21, -2, -93, -127, 38, -32, 38, -2, -127, 115, -30, -84, -127, -120, -29, -107, 2, 8, 20, -26, -24, -29, 27, 19, -12, -31, 38, 44, 0, 46, -29, 33, 46, -127, -14, 127, -34, -39, -121, -2, -1, -90, -17, -21, 30, 56, 12, -16, 14, -22, -69, -13, -73, 
-127, -18, -4, -24, 2, -30, 30, 22, -127, 5, 15, -15, 0, -84, 122, -5, 127, -46, 73, -36, -16, -43, 24, -127, 127, 3, 21, -31, 42, -26, -7, 73, -127, 17, 8, -24, -127, -29, -21, -104, -127, -15, 8, -75, 66, -20, -56, -22, -102, 34, 11, -118, -7, -43, -5, -46, -34, -11, 32, 17, -9, -127, 3, 15, 
-10, -19, 84, 18, 16, 52, -58, 47, 127, 14, 53, -2, -127, -29, -80, 13, -74, -3, 39, 38, 8, -112, 28, 37, -53, -13, 15, -61, 14, 0, 63, 0, -8, 13, -6, -36, -63, 8, 52, -55, -4, -25, -8, -19, -37, -75, -103, 21, 20, -38, -122, -21, -25, 83, 59, -23, -78, -45, 48, -22, -92, 17, 22, 56, 
-66, 61, -127, -60, -5, -44, 48, 26, -62, -51, -43, -8, 46, 16, -65, 56, 27, -77, 24, 43, 56, -68, 29, 32, -17, 19, -50, -10, -14, 23, 27, -54, 8, 9, 6, 23, -54, -5, -110, -32, -1, 25, -72, -9, 34, 7, 0, -45, 26, 54, 21, 83, 26, -111, 42, 12, 30, 22, 11, -27, 27, 31, -10, -56, 
-102, 9, -1, -85, -11, -56, -127, -111, 104, -1, -6, -94, 35, 80, 66, -32, 4, -12, 25, -44, -1, -46, 24, -41, 26, -73, -79, -41, 46, -125, -31, -99, 3, -27, 16, -36, -68, -26, -45, -88, -21, -14, -100, 34, -52, 1, 80, 9, 36, -66, 6, -49, -40, 41, -40, -7, -31, 1, 81, 0, 36, -37, 14, -84, 
-20, -30, -73, 12, -70, -37, 9, -59, -44, -4, 44, -127, 11, 19, -20, -27, 47, -28, -20, -52, 21, 46, 89, -72, 38, -127, 23, 50, -127, 44, 4, -57, 22, -43, -12, -26, 43, -33, -13, -53, 127, 6, -9, -24, -60, 32, -44, 40, 27, 73, 7, -46, 17, -23, 52, -9, -127, 60, -6, 25, 0, -40, -87, 9, 
-37, 26, -103, 46, 53, -102, 50, 3, -71, -16, 15, -16, 0, -39, 14, -32, 32, -95, -30, -9, -23, -40, 23, -127, -48, -127, -22, 28, -46, -127, -70, -127, 24, 27, -32, 32, -67, 17, -11, -3, 111, -18, 6, 32, -19, -92, -9, -1, 42, 21, 38, -74, -9, -33, 26, 12, -8, 28, -80, 27, 10, 13, -48, 8, 
-43, -6, -44, -84, 25, -29, -127, 47, 31, -4, -8, -67, -2, -14, -32, 7, -84, 10, -7, -11, -49, -48, -6, -127, -22, -8, -48, -35, 14, -127, -68, -127, -1, -20, -24, 8, -23, -8, -65, -31, 25, 24, 127, 95, 22, -5, -81, 0, -41, 4, -5, -127, -19, 23, -71, 6, -30, -65, 16, -23, -28, 29, 3, -24, 
20, -10, 60, -2, -46, -17, -41, -37, 62, 22, 8, -127, -123, -21, -39, 97, -49, -28, 36, -19, -25, -124, 16, 1, -7, 19, 22, 2, 74, -11, -127, 13, -50, 2, -127, -30, 0, -4, -22, -127, 45, -29, 12, 42, 29, -55, 37, -127, 13, -125, -18, 14, -60, 100, 37, 28, -14, 24, -22, 18, -95, 32, -57, -112, 
-6, 11, 39, 28, -62, -23, -61, -6, -16, 9, -16, -127, -60, -26, -42, 59, -23, -38, 16, -23, 27, -127, 2, 19, -25, 32, 20, -17, 33, 12, -124, 4, -18, -20, -127, -13, -28, 24, -23, -127, -26, 32, -9, 43, -12, -127, 59, -97, 16, -127, -53, 30, -127, 74, -6, -16, -41, -34, -34, 16, -127, -30, -1, -127, 
-39, -20, 38, -2, -38, 14, -107, 53, -26, -64, -43, -127, -80, 18, -71, 10, 10, 81, -46, -25, -11, -127, -31, -20, 13, 15, 22, -32, -26, -5, -30, -36, -40, -5, -127, -6, -4, 22, 18, -127, -43, 38, 6, 19, -15, -127, 78, -127, -40, -79, 7, 53, -39, 92, -12, -19, 49, -21, -23, 1, -85, -71, 0, -127, 
-125, 5, -14, -127, -3, 15, -2, -42, -22, -6, -29, 22, -14, 16, -40, -87, 24, -30, -16, 85, 1, 25, -73, -6, 63, -1, 38, -127, -3, -29, 10, 59, 44, -62, -2, -19, -86, 0, -3, 39, -108, 23, -70, -2, -91, -55, 91, -9, 31, 79, 27, -35, -85, -24, -53, 3, 11, -6, 2, -19, 42, -35, -68, 19, 
-48, -17, -28, -58, 18, 4, 22, -20, -26, -21, 1, -46, -74, 7, -33, 39, 122, -24, -17, -6, 20, -41, 4, -127, 43, 21, -4, -4, 68, -2, -11, 11, -7, 8, -6, -41, 40, 107, 1, -6, -13, -86, 60, 11, 38, 49, -2, -4, 21, 55, -28, 38, -127, -4, -4, -75, -12, 25, 40, 7, -9, -45, -4, 1, 
-117, -86, 60, 125, -126, -127, -10, 25, -62, -123, -5, -41, -91, 19, -64, 20, 87, -56, 36, 60, -4, -30, -80, -102, -82, -25, 86, 25, 15, 28, -117, -13, -15, 12, -54, -127, -14, -19, 30, 14, 13, -65, 4, -8, 14, -61, -34, -6, 54, -51, -103, 45, -113, -41, -32, -6, 51, 70, 91, -3, 6, -3, -34, -45, 
-1, -2, 34, 22, -17, -11, -6, -9, 20, 0, 17, -127, -127, 5, 46, 61, -45, -32, 55, 37, 31, -95, 14, 29, -14, -9, -8, 0, 49, -54, -127, -14, -20, 42, -127, -9, 0, 22, -75, -127, 53, 19, -20, -55, 9, -62, 87, -127, 24, -127, 12, -36, -9, -5, 37, 20, -40, -39, 3, -4, -127, 34, 31, -67, 
22, -8, -77, -15, 56, 2, -74, 38, 0, 39, -7, -127, -54, 25, 17, 6, -1, -15, 14, 26, -2, -127, -12, 0, -10, 2, -83, -6, -6, -17, -127, 4, -23, 15, -127, -19, 5, 21, -112, -127, 1, -36, 18, 10, 4, -127, 20, 13, -8, -127, -2, -8, -44, 66, 23, 26, -57, -56, 30, -17, -127, 7, 40, -127, 
8, 6, -58, 13, 74, -22, -105, 29, -28, 55, -22, -127, -40, -16, -39, 17, -19, 2, -43, -29, 25, -127, -7, -12, -5, 1, -18, -42, -37, 3, -18, -43, -31, 13, -127, 24, -20, -108, -120, -127, -46, -4, 7, 68, -9, -95, 15, 32, -19, -127, 35, 11, -97, 6, -8, 12, 18, -73, -9, -9, -98, 0, 22, -111, 
-113, -57, 12, 39, -40, -24, -23, -122, -127, 5, 6, 0, 18, 27, -44, -104, 35, -127, -74, -13, -127, 7, 25, -127, 58, -17, 4, -1, -80, -106, -117, -13, 21, -92, -4, 3, -117, -14, -127, 22, -61, -48, -15, -5, -4, -127, -127, -127, -8, -1, 7, -40, 18, 78, -50, -7, -9, 7, 114, 10, -1, 2, -35, 17, 
-90, 24, 15, -18, -42, -17, -14, -113, 96, 8, 1, -28, 54, -47, 39, -38, -18, 45, -72, -13, -34, -4, 1, -44, 28, -18, 62, 63, -12, 21, -1, -120, -30, -18, -120, 27, -10, 5, 29, 22, 2, -12, -89, 24, 69, 15, -127, -127, 28, 48, -12, 12, -7, 1, -79, -24, 1, 88, 0, -30, 38, 16, -4, 5, 
55, -13, 36, 22, -21, -21, 8, 68, 87, -127, -80, 0, 120, 62, -127, 23, 6, -9, -127, -67, 49, -40, 23, -55, -34, -7, 34, -19, 23, 43, 5, 45, -6, 35, -1, -38, -31, 40, -11, 31, -6, -7, -6, 27, 11, 20, 0, 2, 0, -65, -41, 61, -127, -14, -111, -127, -5, 17, -127, -61, -13, -41, -4, -42, 
-36, -28, -5, -25, -36, -24, -127, 36, 43, -29, 43, 8, -37, 60, 68, 3, -5, -52, -116, 7, 48, 92, -103, -127, 22, -60, -31, 2, -8, 10, -27, -38, -33, -127, 10, -18, 3, -4, 21, -40, -15, 81, -16, 4, -10, -127, 65, -55, 106, 34, 1, 1, 31, 9, 14, 17, 127, -127, -11, 51, 13, -40, -24, -19, 
-47, -26, -25, 95, -106, -127, -32, 58, 127, 0, -12, -55, 63, 24, -41, -49, -3, 4, -56, 15, 51, -125, 18, -103, -40, -45, -58, -68, 6, -7, -84, 36, 55, -23, -70, 28, 0, -97, 7, -25, -98, -109, 38, -7, -74, 11, 35, 33, -7, 25, -6, -4, -17, 27, 38, -8, 26, -93, -26, -41, 7, 30, -54, -33, 
-64, 20, -4, -20, -78, -78, 4, 0, 41, -77, 0, -54, -17, 20, 17, -31, 51, 11, 0, -46, 99, 24, -25, -114, 14, 10, -60, 16, -32, -66, -46, -114, -12, 25, -25, 4, 36, -16, -40, -77, -88, 0, -34, -22, 8, 68, -19, 62, -34, 10, -58, 75, -42, 16, -14, -50, 46, 24, -82, -73, -67, 44, 16, -127, 
0, -60, 46, 18, 38, -18, -51, 2, -51, 4, -1, -61, -24, 22, -127, -6, 53, -52, 38, 18, 0, -51, 2, 15, -1, 36, 21, -127, -9, 25, -62, 28, -54, -13, 19, -22, -91, -9, -7, -29, -115, -40, -46, 0, 12, -11, 36, -46, 53, -55, -26, -51, -33, 18, -65, 7, -21, 11, 14, 18, -4, -61, 5, -20, 
-53, 8, 10, 40, -4, 1, 0, 45, -30, -42, -3, 14, 50, 13, -11, -20, 19, 22, 2, -63, 20, 15, -4, -91, 37, -8, -70, -11, -32, -1, 23, 32, -13, -56, 2, -13, 15, -58, -26, -1, -90, 18, -57, 20, 12, 15, 18, -5, 6, 52, 86, 8, 8, -11, -72, 52, 0, 13, -46, 32, 18, -53, 4, -11, 
-95, -2, 59, 44, -33, -117, 47, 21, -127, -59, -13, -127, 56, 46, 20, -57, 74, -5, -91, 0, -79, -33, 0, -127, 53, -82, -127, -6, -17, 43, 46, 70, -28, 55, -12, -105, 37, -93, -4, 8, -63, -127, 105, -65, 68, 41, -66, -18, -15, 4, 34, 110, -12, -66, 30, -113, -42, 30, -17, 16, 2, 6, -2, -62, 
-127, -121, -26, 76, 62, 30, 70, 49, -2, -2, 10, -116, 7, 50, 4, -69, -25, -61, -21, -114, -73, -39, 11, 43, -12, 64, -74, 68, 4, -10, -34, 34, -42, -37, -11, 4, -126, 37, 39, -127, 31, 77, 122, -65, 52, 33, -30, 23, -76, -127, -122, -74, -127, -32, -57, -6, -31, -127, -36, -103, -18, -105, 72, 4, 
-78, -127, 3, -33, 19, -127, -127, 54, -26, 19, -4, -113, -54, 44, 17, 9, 29, 16, 19, -10, -88, -17, 54, -28, 73, -7, 44, -47, 39, -127, 13, 3, -48, -9, 21, -10, -124, -6, 46, -127, -90, -17, 8, -66, -86, -27, 38, 19, 7, -80, -9, -22, -14, -47, -69, 10, -39, -75, 2, -55, -37, -67, 42, -10, 
75, 11, -3, -15, 16, -64, -115, 27, 102, -15, -6, 14, 50, 46, 62, -18, 13, -2, 53, -9, -18, 49, -11, -9, -35, -45, -39, 72, 67, -68, 29, 8, 3, 53, 33, -20, -88, -28, -39, 17, -30, 10, -34, 30, -60, 27, 14, 55, -56, -4, 15, -9, -46, -6, 25, 97, 41, -3, 73, -67, -3, 16, 30, -25, 
-28, -92, -30, -20, -34, -42, -3, -11, -11, -127, -127, -13, -127, -21, -19, -18, -3, -6, -32, -127, -127, -4, -127, -8, -127, -45, -7, -56, -119, -127, -37, -70, -127, -127, -127, -7, -127, -127, -127, -2, -11, -17, -24, -18, -127, 0, -92, -127, -127, -127, -127, -103, -127, -21, -127, -6, -10, -127, -19, -127, -127, -127, -35, 0, 
-58, 66, -40, 107, -15, 55, 112, -127, 14, -25, 54, 2, -30, 119, -45, -23, -127, -127, 31, 40, -4, -27, -30, -111, -83, 41, 6, 60, 18, 10, -33, -41, 34, -46, 26, 6, 38, -14, 14, -4, 17, -30, 56, -39, 32, -84, -32, -127, -86, 46, 28, 15, 40, -35, 26, -48, 5, -3, 34, -58, 49, 7, -2, -34, 
-80, -3, -29, 127, -40, 81, 35, 114, -127, -2, -100, -21, 92, -16, -6, -18, -97, 14, 78, 4, 127, 35, 10, -52, -127, 2, 77, 127, -94, 61, -12, 27, 6, -53, 6, 53, 39, -88, -83, -1, 67, 76, -120, -31, 43, 27, -127, -61, 50, 70, 83, 53, 93, -1, 64, -11, 8, -64, -69, -53, -11, -6, -30, -17, 
23, 36, 46, -15, 3, 61, -71, -103, -88, 4, -31, 26, 21, -10, -20, -127, -94, -95, 24, -2, -54, -34, -48, 127, -8, 79, 47, 57, -27, -127, -78, -52, 37, -86, 20, -3, -127, -34, -36, 69, 30, 22, 58, -5, -116, -59, -57, -120, -3, 52, 23, -46, 55, 15, -18, 15, 27, -127, 34, 15, -14, 16, 24, 37, 
-127, -16, -122, -97, 18, -9, 28, -127, 115, 4, 3, 34, 30, 25, 35, -37, -11, 0, 56, -55, -127, 49, -46, -77, 27, -127, -3, -47, 53, -42, 56, -80, -57, -55, -10, 18, -52, -17, -69, -9, 43, 48, 127, -11, 14, 0, -122, -18, 1, -21, -8, 127, 16, 49, -127, 2, -4, -28, 11, 15, 11, -25, 31, -4, 
-127, -34, -109, -63, -31, -39, -127, 13, -59, 45, -8, -53, 6, 7, -22, -56, 81, -33, 10, 9, -112, 32, -62, -127, 32, -127, 45, 22, 122, -127, -17, -127, -9, -13, -20, 13, -127, -8, 45, 14, -2, -13, -127, -66, -88, -97, -23, -39, 1, 47, -59, -127, -27, 2, -78, 6, 64, -7, 40, 5, -7, -70, -56, 14, 
9, 2, 20, 66, -31, 13, 95, 18, 13, 2, -21, -2, -4, -10, -38, 86, -31, -29, 21, -17, 5, -101, 24, -41, -12, 2, 31, 20, 17, 0, 58, -9, -14, 15, -13, 33, 15, -14, -2, 24, 41, -1, -27, 3, -20, -4, -51, 30, 0, 9, 28, 15, 18, 51, -3, 23, 25, -2, -38, 20, 9, 33, -44, 0, 
24, -19, 8, 34, -4, 34, 85, 18, -5, -17, -37, 55, -1, 8, -66, 18, -22, -23, -2, -5, 30, 2, 18, -9, -18, 8, 3, 18, 21, 9, 6, 34, 62, -32, -22, 8, -12, -1, -15, -38, 17, 12, -88, 22, 7, -26, 32, -6, 10, 31, -20, 9, -4, -41, 44, 5, 31, 52, -14, 0, -25, 21, -14, -8, 
1, -46, -38, 39, -26, 32, 18, 25, -44, -8, -12, 32, 38, 24, -63, 5, 51, -8, -16, -3, -37, -52, 43, -28, -16, 35, -58, 19, 49, -72, -36, 19, -11, -87, -13, -36, -17, -1, -41, -2, -42, 2, -15, -2, -22, -24, 66, -27, -4, 21, -40, 30, -15, -19, 6, 8, 1, 8, 36, -33, 31, -3, -18, 39, 
44, 21, -17, 114, 64, 16, -21, 36, 92, 14, 5, 24, 24, 26, 6, 27, -13, -10, -127, -16, 14, 13, -28, -8, -35, -58, 0, 24, 47, 60, 25, 32, 24, 2, 35, -33, 8, 27, 15, -7, -22, -14, -122, 72, 5, 6, -127, 1, -39, 3, 45, 27, 31, 127, -7, 40, -86, 66, -35, 13, 0, -4, 36, -33, 
11, 1, -41, 72, 96, -70, 28, 50, -127, -31, -16, -127, 6, -60, 20, -8, 50, 14, -25, 18, -24, 10, 26, -60, 63, -127, 10, -72, -97, 16, -29, -58, -10, 13, -4, -12, -24, -35, -5, -89, -114, 21, 44, -28, -28, -41, 50, 22, 5, 30, 4, -17, 8, -6, -28, 19, -127, 4, 4, -12, 13, -85, -109, 54, 
-47, -56, -127, -127, 6, -82, 67, -127, 82, 10, -5, -110, 34, 17, -8, 85, -40, 9, -71, 22, 6, -56, 16, 56, 19, -114, -11, -76, 19, -41, -127, -101, -24, -40, 2, -13, -65, 6, 19, -38, -78, 70, -62, 54, 4, -45, 17, 57, -22, 21, -7, -127, 18, -35, -32, 26, -127, -50, -21, 0, -12, -69, -48, -25, 
-116, 5, 45, -77, 38, -42, -9, -31, 65, 70, -72, 10, -16, 56, -17, -96, 63, -23, 14, -127, -17, 18, 39, -112, 85, 63, 21, -99, 38, 79, -31, 4, -127, 31, -10, 1, -29, -94, -30, -63, 43, 21, -65, 18, -15, 17, -18, -7, -78, -5, -45, 46, 17, 23, -45, 12, 6, -34, 0, -127, -4, -104, -57, 39, 
-16, -26, 5, -33, 29, -26, 18, 20, -31, 38, -75, -41, -8, 1, 23, -24, 8, 8, 12, -96, -82, -32, -11, -24, 19, 73, 62, 15, 20, 27, -27, 47, -100, 12, -127, -22, -14, -71, 109, -15, -37, 39, 3, 8, 42, -20, 14, 19, -30, 59, -64, 12, -127, 27, -106, 15, 7, 25, -9, 82, 45, -105, 18, 10, 
-79, -5, -13, 11, 15, -39, -29, 29, -1, -83, -12, -36, -42, -8, -127, 69, 54, 3, 0, -127, -72, -38, -25, 56, -1, 7, -127, 74, -5, -13, -15, 0, -29, 7, -127, 46, -101, -16, -2, 39, 8, 6, 40, -9, -15, -49, -44, 35, 34, 36, -127, 44, -127, -10, -48, 31, -9, 35, 61, -42, -34, -127, -27, 14, 
-127, -34, -74, -91, -72, -127, 44, -127, -79, -5, 3, -127, -5, -108, -45, 61, -63, -127, -13, -42, -48, -4, 26, -127, -11, -8, -64, -20, 33, -91, -127, -19, -81, -59, -3, -104, -127, 60, -127, -127, 13, -67, -127, -127, -2, -127, 43, 37, -35, -1, 12, 10, -35, -127, -14, 6, -121, -31, -43, 48, 0, -106, -90, 1, 
58, -25, 95, 90, 28, -122, -75, 78, 72, -3, -43, -27, 8, 7, -12, 20, -42, -95, 16, -3, 17, 33, 57, -57, -32, -11, 7, 26, 20, -54, 25, 16, 4, 15, -7, -8, -125, 16, 12, 6, -35, -25, -127, 7, -127, 11, 6, -20, 29, -23, 28, -127, 15, 54, -23, -15, 6, 89, 73, 5, 12, -43, 39, 35, 
27, 0, 57, 59, 4, -49, 122, 9, 73, -7, -31, -31, 18, 2, -17, 6, -36, 31, -24, -1, 49, 22, 38, -4, -18, -59, -38, 7, -48, 86, -3, 2, 44, 74, -2, 19, -45, 2, -17, 27, -11, 77, 35, -4, 86, 75, 69, 94, -45, -30, 21, 80, -48, 38, 40, -1, 9, -22, -28, -2, -27, 17, 15, 20, 
-44, 19, -56, -10, -23, 22, 54, 4, -10, 21, 10, -14, -101, -50, -127, -90, -91, 35, 33, 7, 0, -97, -28, -42, 10, 43, 3, -40, -43, -26, 18, -46, -69, -18, -57, 14, 26, -3, -13, 2, 30, 0, -54, -25, 1, -5, -114, 19, -28, 87, -52, 0, 6, -44, -15, -127, -13, 2, -50, 6, 24, -66, 29, -48, 
6, -43, -5, -4, -38, 14, 19, -14, -55, -50, -4, -48, 0, -8, 5, 58, -47, 6, -35, 4, -39, -28, -6, 11, -5, 17, 15, 7, 38, -16, 18, -29, 22, 7, -30, -35, -1, 13, 14, 21, 67, -4, -47, 57, 33, -17, -59, -24, -8, 35, 42, 30, 41, -13, 15, -11, -14, 26, 26, 39, 19, 0, -27, -27, 
-16, -3, -8, -40, 75, 7, -69, 14, 5, -20, -69, 50, -52, 65, 82, -18, 56, 8, 17, -15, -6, 37, 4, -1, 31, -11, 24, 21, 40, 34, -23, 54, -2, -13, 20, -57, -6, 33, -19, 5, 36, 14, -3, -8, -85, 25, 24, -35, 57, -48, -21, 9, -12, 33, 5, -39, -15, 13, 77, 6, -22, 4, 11, -21, 
-35, 2, 8, 66, -42, 0, 53, -40, -74, 5, -73, 16, -4, -22, 7, 9, -16, 14, 37, 15, 52, 50, 5, -14, -22, 27, 52, 22, -23, 40, -3, 17, -8, 33, -9, 41, -4, 24, -38, 15, 21, 42, -65, 18, 33, 17, -32, 20, -71, -61, -7, 0, 12, 10, 8, -1, 9, -11, -19, -51, -42, 3, -25, 27, 
-2, 1, -23, 73, -11, -32, 29, 19, -7, -6, -41, 24, -9, -3, 3, -4, -7, -5, -15, 21, -6, -20, -1, -1, -44, -24, 1, 29, -32, 11, -2, -20, 3, -20, -8, 12, -22, -17, -17, 0, 17, -5, -29, -23, 19, -2, -5, -2, -15, -20, 7, 20, 26, -2, -27, 0, 2, 29, 6, -8, 14, 5, -14, 16, 
11, -15, 0, -22, 15, 6, -19, 31, -8, -4, 11, -11, -16, 40, 13, -25, -6, -1, 10, -18, 15, -40, -28, 22, 12, -12, -33, -4, 0, 0, -14, 1, -16, -42, -16, -11, 20, -19, 32, -27, -53, 1, 31, -48, -22, -4, 56, -12, 32, -25, 17, 44, 17, 11, -36, -10, -44, -17, 75, 45, 30, -1, 1, 35, 
-118, -39, -6, -29, 52, -53, 1, -21, -61, -32, -50, 4, -22, 34, 45, 28, 74, -32, -10, -52, -73, 36, 30, 8, 3, 48, 127, -96, 5, 0, -16, 63, -4, -13, 1, 6, -98, -76, 1, -17, -111, -6, -48, 38, 2, -26, -13, 71, -66, -91, -62, 35, -102, 32, -115, 57, -8, 45, 50, -35, 1, -127, -16, 18, 
-127, 17, -20, -108, 23, -44, -116, 28, -91, 20, 20, 0, -54, 4, 4, -33, 51, -56, 54, -103, -69, -52, -3, -69, -90, 0, 17, 54, 52, -1, -62, 29, -17, 48, -100, -20, -122, -65, 17, 4, -48, 44, 23, 31, 36, -58, -37, 15, 2, 0, -79, 12, -127, -29, -120, 61, -46, -53, 4, 40, 22, -77, -38, -11, 
-127, 64, 12, 58, 0, 25, -89, 55, 94, -26, -11, -68, 29, 26, -71, 26, -12, -17, 46, -71, -90, -58, -13, -104, -72, 73, -88, 127, -14, 27, -29, 12, 23, -26, -114, 59, -127, -4, -46, -77, -44, -20, 1, 21, -95, -52, -45, 2, 79, 36, -127, 36, -78, -10, -50, 18, 38, -48, 21, -49, 5, -81, 10, -12, 
-46, -63, 40, 15, 35, -96, 43, 18, 3, -13, -91, 47, -25, 48, 50, -56, 12, -10, -44, 54, -23, 44, 17, 24, 26, -39, 0, -127, 62, -29, -24, -8, -127, -17, 105, -82, -62, -9, 36, 35, -5, 25, -56, 13, -66, 30, 21, 15, 23, 89, -40, -127, -103, 10, -41, 58, 27, 50, -24, -11, -6, 72, -47, 5, 
-25, -38, 10, -10, -2, -83, 13, -40, -93, 9, 18, 7, -2, 12, -22, 23, -127, 0, 17, 36, 37, 67, 26, -33, -40, -71, -111, 22, -81, 4, 13, -30, -127, 43, 70, -72, 12, -80, 58, -7, 116, -78, -4, -27, -11, -4, -5, -5, -48, 20, 42, 0, -127, -70, -32, 9, -11, -1, 25, -21, 18, 10, 36, -4, 
-127, -48, -13, 127, -42, 8, 11, 40, -125, -127, -5, -127, -25, 0, -53, -28, 35, -34, 39, 26, -51, -17, -27, -127, -6, -52, -113, 38, 3, 23, -127, -11, -99, 4, -87, -127, -26, -127, 34, -127, -48, -127, 45, -11, 19, 31, -49, -14, -16, 127, -127, 41, -36, 12, -8, -10, -22, 86, -5, -23, -1, -56, -87, -127, 
-50, 10, -21, -15, 20, -10, 10, -13, -7, -52, -29, -11, -40, -4, -11, -8, -5, 34, 60, -65, -10, -25, -24, -16, -127, 8, -39, 52, -16, -50, -32, -7, 56, -9, 11, -32, -4, 39, 34, 7, -14, 51, -127, 39, -127, -26, 81, -3, -22, 23, 15, -85, 24, 22, -36, 1, 1, -15, -32, -80, 27, 34, -17, -24, 
-43, 13, 17, -20, -17, -1, -10, -31, -29, 20, -36, -73, -11, 27, -127, -39, 120, 23, 36, -46, 45, -4, 8, 0, -49, 34, 11, 9, -33, -11, -17, -6, 7, 11, 12, -2, 33, 8, -21, -56, 8, 27, -11, 17, 46, 3, 83, 48, -70, -80, -124, -1, 28, -8, 1, -10, -19, 2, -2, 3, -60, 5, -18, -127, 
40, -31, 41, 28, 31, -17, -57, 15, 1, -46, 25, -127, -127, 31, -54, 53, 27, 21, 24, 3, 15, -124, -11, 23, 32, 24, 14, 59, 32, -31, -53, -36, -36, -18, -97, -17, 17, -67, -56, -101, 36, -41, 38, -61, 7, -62, 12, -40, 25, -62, -125, 23, -90, -18, -21, -83, 61, 34, 45, 92, -29, -18, -4, -127, 
-33, 40, 9, -71, -79, 9, -7, -77, -116, -8, -45, 48, -127, 42, -69, -33, -87, -90, 26, -47, -92, -12, 34, 127, -17, -127, -60, -95, -59, -26, 37, -37, -98, -7, -48, -23, 47, 32, 104, 106, 18, -9, -68, 21, 65, -29, -127, -124, 12, -127, -54, 50, -66, 16, -37, 32, 7, -23, -127, -62, -103, -39, 21, 23, 
-119, -9, -2, -127, -4, 33, -24, -127, -127, 29, 25, -121, 25, -63, 20, 4, -10, 31, 4, 30, -15, 82, 21, -11, 13, -3, 6, 19, -82, -51, -39, -127, 5, 54, 0, 13, -127, -22, 57, 5, -51, 24, -127, -3, -24, 19, 31, -16, 31, 21, 1, 15, -20, 29, -2, 34, 22, -74, -127, 32, -53, -36, 4, 15, 
-20, 23, -22, -127, -57, -22, 89, -83, -81, -7, 30, 29, -5, 33, -60, -17, 9, 37, 78, 52, 9, 24, 13, -34, -31, -32, 92, -31, -36, -71, 27, -12, 57, 75, -54, 78, 11, 6, -5, 25, -42, -78, -127, 22, -16, -8, -46, 36, 32, 7, -10, -13, -35, 28, -50, 20, -65, 25, -127, 4, 17, 32, -2, -27, 
-4, 0, 43, -55, 31, -12, -42, 68, -25, -5, -31, 21, -9, -127, 31, -127, 19, -127, -51, -68, 0, -33, -72, -127, 20, -127, -127, 32, -43, -38, -31, -1, 75, 0, -4, 5, -12, -26, -24, -127, 70, -127, -53, -12, -40, -38, -127, 2, 29, 18, -73, -23, -46, 2, -127, -28, 16, -52, -25, -2, 12, 4, -24, -127, 
-35, -18, 10, -63, -23, -127, -19, -56, 50, 31, -2, 13, 5, -127, -14, -35, 12, -127, -15, -4, -11, 39, 39, -127, 7, -127, 20, 28, 1, -7, 16, 29, 43, 60, -2, -12, 34, 69, -1, -40, 42, -57, 20, -26, 15, -49, -96, 62, 52, 56, -43, -13, -38, -127, 36, 5, -19, 15, -110, 13, -8, 51, -53, 7, 
1, 20, -127, -122, -18, -70, 108, -127, 31, 14, 10, 23, 21, -127, -68, -1, 17, -127, 9, -55, -60, -17, -1, -127, -44, 55, 14, -28, 9, 12, -12, -127, -4, 8, 10, 62, 5, -2, 8, -94, -2, 11, 124, -7, 85, -127, -63, -7, -5, 11, -27, 48, -10, 40, -63, 29, 3, 12, 16, 1, -3, 32, 40, -35, 
-127, 31, -27, 5, 30, 12, -2, -27, -25, 57, 4, -17, 5, 66, -9, -17, -73, 0, -59, -70, -127, 17, 45, -60, -15, -20, -93, -74, 116, 9, -31, 27, -44, -19, -2, -40, -43, -41, -54, 11, 60, 8, 8, 30, 26, -12, 127, 2, -18, -127, -8, -1, -127, -24, -56, 45, -11, 4, 73, 7, -61, -8, 11, -33, 
-127, 30, -25, 10, -6, -11, 0, 36, -93, -7, 27, -18, -21, 54, 66, -57, 18, -21, -116, -15, -94, -24, 22, 9, -127, -22, -127, 56, -4, 0, 3, 43, 30, 9, 11, 58, 17, -55, -24, -127, 7, 76, 64, 72, 10, 12, -44, 0, 17, 15, -30, 5, -127, 33, -17, -4, -127, 40, 48, 38, -7, -77, 28, -74, 
-115, 25, -64, -18, -7, -14, 17, 12, -127, -26, 19, -43, -100, -29, -127, -79, 67, -68, -81, -92, -127, -3, 9, 57, -37, 28, -127, -6, 4, 29, -44, 72, 4, 35, -3, -127, 1, -127, -24, -127, 10, -127, -22, 2, 11, 6, -127, 49, 19, -24, 28, -33, 60, -50, -127, -86, -127, 49, -9, 3, -22, -9, -127, -120, 
18, -25, 13, -127, -6, 6, 21, -15, 112, 2, -38, 7, -12, 13, -13, -33, -50, 7, -127, -127, -127, 6, -49, -82, 73, -127, -26, -127, -33, 63, -4, -36, -127, 10, 10, -6, 13, -104, 77, -24, 81, 77, -18, -5, -64, -37, 29, 58, -127, -127, 8, 120, 42, 32, -15, 3, -44, 31, -45, -122, 77, -37, -53, 1, 
-72, 0, 13, -62, -13, -19, -85, -37, -127, 33, 41, -54, -36, -16, 103, -13, -32, 6, 20, -127, 22, -26, 68, -127, 35, 95, 46, -115, -95, -121, -16, 9, -127, 15, 72, -8, -35, -127, 95, 36, -11, -25, -59, -10, 18, -42, 21, 0, -22, -47, 69, -83, -61, -8, -127, -20, 33, -105, -82, 20, -32, -70, 47, 61, 
-127, -9, -11, -109, 7, 12, 5, 108, 5, -63, -29, 2, -77, -10, -31, -28, -127, 19, 58, -24, 83, -27, 45, -34, -20, -29, -127, -69, 98, 8, 16, 13, 12, -16, -66, 19, 34, 53, 44, 49, 50, 10, -46, -7, 27, 6, -73, 2, 24, -31, -19, -20, -113, -13, -127, -107, 20, 52, -63, -94, -3, -127, 50, -45, 
-127, 20, -14, 115, 7, -9, 4, 4, -39, 32, -30, 21, -19, 14, 34, -28, -7, 7, 17, -68, 13, -15, -31, -92, -36, -24, -49, -81, -94, -40, 4, 49, -36, 31, 2, 22, 4, 67, -50, -2, -22, -25, -63, 38, 52, 35, -27, 26, -127, 7, -7, -7, 25, 22, -8, 3, -29, -10, -81, -57, -52, 17, 13, 57, 
50, -13, 83, 19, 6, 10, -20, 0, -14, 11, 16, -18, -38, 0, -41, 6, -36, 0, -51, -33, -23, -58, 0, 24, -9, -73, -37, -21, 7, 3, 13, 30, 2, 48, -3, 2, -28, 26, 5, 28, 4, 4, 37, -2, 0, -32, 9, -10, 26, -29, -41, 2, 68, -38, -17, 36, -55, -37, -25, 12, 3, 58, 59, -28, 
18, -11, -34, 20, 18, -7, -6, -75, 62, -13, 25, 23, -61, -23, -33, -30, 29, -24, 16, 7, -67, -7, 17, 58, 47, -66, -23, 33, 54, -101, 17, 0, -7, 11, 9, -9, -7, -10, 14, 8, -34, -7, -8, -24, 37, -17, 3, -11, 70, -55, 15, -56, 14, 1, 48, 31, 32, -2, 47, -22, 27, 50, 29, -103, 
6, -28, 7, 0, 38, 1, -67, 80, -65, -15, -88, -9, 8, 8, 78, 37, -11, 6, 6, -43, -3, 5, 42, 27, 17, -6, -18, -12, -36, 9, -10, 18, -13, -57, -66, -2, 8, -34, -88, 45, 34, -11, -127, 2, -127, 6, -18, 52, -123, -33, -16, 42, 30, 17, -6, 3, 3, -6, 39, -18, -77, 30, 48, 28, 
-33, 14, -7, 60, -18, -1, -46, 74, -52, -3, -6, -44, 32, 5, -9, -2, -16, 41, -15, -14, -26, -3, 11, -34, 28, -36, -29, -25, 18, 24, -4, 11, 24, 37, -30, 6, -21, 7, -51, -12, 53, -7, -4, -14, 31, 12, -59, -3, 57, -76, -56, 8, -15, 25, 27, 0, -34, -17, 3, -4, -79, -11, 0, -29, 
-72, -7, 2, 127, -21, 17, -84, 11, 127, -5, -29, -18, 52, 6, 12, 5, -72, 16, 33, 15, -63, -20, -2, -59, -63, -70, -11, 90, -26, -87, 18, -64, 10, -10, 22, 12, 5, 36, -91, 22, 17, 77, -127, -40, -82, 56, 62, 0, -29, 8, 78, -112, 55, -48, -3, 17, 14, -50, -22, -10, -37, 8, 35, -35, 
-127, -43, 38, -49, -21, -7, 10, -39, -38, 18, 20, -36, 69, -124, -127, -86, -23, 0, 3, 39, 66, 32, -122, -127, -87, -127, -49, -8, 57, 83, -3, 7, 46, 19, -127, -25, 62, 34, 20, -22, -69, -14, 30, -77, -10, 11, -35, 7, 33, 73, -63, 23, 35, -28, -62, -85, 90, -29, -10, -76, 0, -36, -75, 28, 
-127, -10, 6, -30, -48, 56, -67, 14, -54, 42, 19, -5, -127, -46, -79, -35, -58, 10, -18, -34, -31, 30, -36, -59, -127, 10, 4, 17, 0, 14, -28, 2, 12, 9, -24, -127, 17, -4, 6, -100, 58, -37, 50, -17, -1, 39, -61, 39, 9, -81, -127, -8, -47, 2, 4, 0, 6, -5, 52, 5, 14, 5, -113, -38, 
-127, 31, 35, 81, -23, -59, 88, 66, -50, -47, 2, 24, -5, 59, -42, 35, 65, -108, -20, -19, -73, 8, 2, -76, 1, 34, 47, 29, -57, 27, -9, 127, 19, -41, -5, -43, 18, 46, -47, 61, 39, -14, -21, 27, 7, -127, -13, -25, 13, -33, -20, 46, -6, -24, -61, 3, -54, 57, 57, 13, -61, 28, 1, -4, 
9, 9, 4, 20, 50, -66, -47, 75, -13, 37, -3, -8, -17, 1, 35, 24, 6, 24, -45, -127, 84, -28, -78, -38, 10, -39, -127, 88, -95, -35, 13, 37, -82, 17, 4, -10, 40, 53, -118, -74, 3, -8, -127, 16, -127, 9, 48, 7, -16, -6, -50, -86, 24, 40, 14, 25, -26, -19, -18, 20, -4, -15, -39, -35, 
-54, -102, -19, 23, 31, 11, -39, -11, -42, 14, -38, -11, 10, 36, -21, 97, -55, 5, 23, -56, -36, 19, -47, -44, -23, -9, -42, 0, 63, -40, -13, -8, -15, -17, 6, -7, 4, -22, -8, -36, 36, 3, -21, 7, -12, 1, 32, -37, -5, -3, -98, -16, 11, 51, 18, 12, 1, 14, 5, 7, -51, -34, 0, 7, 
-45, -3, 8, 116, 29, -55, 42, -69, -47, -16, -105, 33, 58, -62, 1, 51, 6, -18, 70, -48, -23, 25, -33, 4, 2, 71, 18, 29, -11, -48, 34, -70, 21, 27, 43, -4, -11, -16, -18, 40, -4, -53, -127, 26, -80, 32, -1, 29, 10, -27, -14, 22, 39, -40, 2, 73, 28, 94, -3, -107, 51, 37, 6, -3, 
-12, 17, -29, -43, -48, -8, -58, 2, 70, 7, 24, 21, -28, -39, 52, 21, -68, 26, -99, -74, 74, -73, -127, -127, -7, 16, -15, -60, 11, 61, 21, -95, -17, -71, 26, -60, 54, 11, 27, 76, -71, 57, 2, 78, -68, 4, 49, -9, 27, -38, -22, -23, -12, -20, -17, 22, -44, 70, -44, 68, 37, 75, -114, 3, 
22, -59, -95, 70, 62, -62, -33, 25, 127, -4, -39, -56, -71, -31, 17, 0, 24, -45, 67, -17, -80, 65, -11, -127, -2, -30, 2, -7, -38, 25, -11, 98, 12, -26, -20, -26, -45, -58, -5, -35, 32, -5, -21, 31, 9, -18, 16, -112, 64, -58, -10, -105, 11, 28, -9, 19, 0, -25, 20, 54, -125, 25, 40, -26, 
-127, -12, -71, -42, 31, -8, -82, 7, 57, -68, -127, 3, 23, -28, 32, 0, 0, 26, 8, -44, -60, -5, -20, -57, 19, 36, -1, 40, 24, -127, -49, -30, -18, 0, -1, 13, -113, -1, -127, 23, -16, 42, -127, 46, -101, -8, 27, -19, 79, -13, -14, 0, -18, 75, -13, 19, -3, -127, -38, -127, 51, -7, 34, -6, 
-127, -7, 29, 78, 17, -2, 1, 20, -3, -5, -68, -3, 44, -2, 18, 18, 0, -22, 4, 7, 5, 27, -30, -118, -120, 25, 34, 29, 17, -48, -45, 18, 44, 40, 23, 1, 5, 49, -26, -18, 69, 17, -95, 41, -72, 22, 101, 32, -57, 21, 33, -26, 23, 8, -1, 12, 0, 9, -65, -48, -45, 62, 9, 35, 
-29, -10, -25, -42, -4, 0, -10, 16, -54, -8, -13, -40, 71, -17, 40, -23, 1, 6, -32, -12, -7, 24, -6, -4, -5, 2, 3, 13, 0, -3, -29, 18, 8, 8, -14, -9, 28, -47, -11, 11, 18, 41, 15, 14, 64, 32, -3, 13, -59, 53, -20, 3, -4, -9, 18, 6, -27, 7, -37, -18, -45, 34, 2, -21, 
65, -33, -66, -59, 48, -4, -117, 13, 55, 35, 60, -51, 23, 23, 17, 29, 30, -7, -25, -10, 22, -92, 4, 82, 69, -7, -60, 52, 76, -9, -12, 6, -35, -20, -49, -53, 44, -12, 32, -7, -6, -49, 53, -81, 20, -62, -66, -21, 47, -28, -23, -27, -7, 0, 10, -67, -15, 6, -1, 15, 22, -1, 31, -76, 
-96, 3, 43, 127, -37, -26, -10, -15, -47, -42, -36, 26, -32, 23, -51, -32, -48, 10, 92, 16, 78, 31, 28, -65, -67, -25, -71, -57, 43, -110, -30, 16, 16, 12, 0, -3, -6, 72, -59, 33, -34, 17, -127, 28, -96, -40, 3, -8, -80, -69, 35, -75, 31, 38, -46, 10, 28, -48, 12, -82, 5, -52, -63, 38, 
64, -11, 65, 3, -2, 6, 11, 14, 62, -52, -59, 43, -32, 6, -109, -56, -21, 14, 29, -127, 61, 22, 23, 13, -62, -1, -94, -127, -20, -31, 2, 18, -127, -3, 58, -127, 33, -34, -3, 64, -51, 34, -68, 21, 19, 6, 79, 22, -11, -119, -45, 40, -66, 0, 56, 38, 60, -48, 0, -17, -22, -48, -22, 32, 
-127, -70, 5, 71, -32, -102, 11, 8, -127, 25, -1, -27, -21, -64, 45, -127, 112, -66, -13, -127, -75, 39, 23, -75, 100, 43, 6, 37, -34, -19, -38, 9, -127, -70, 104, -127, -59, -57, 104, -34, -127, 35, -127, -14, -63, -74, 74, 3, 59, 2, -14, -94, -116, -22, 42, -31, 20, -127, -48, -50, 67, -127, -46, -32, 
-5, -67, -127, 91, -112, -43, 32, -89, 93, -2, -13, -127, -6, 7, -17, -8, -34, -127, 24, -10, -12, -47, 84, 54, 86, 60, 1, 12, 25, -104, -127, -74, 32, -8, 15, 14, -127, -2, 58, -23, -43, 29, 100, -40, 123, -27, -45, -127, 64, -32, 42, -16, -14, 37, 27, -7, -12, 47, 127, 50, -23, -5, -7, 10, 
-18, 9, -50, 40, -29, 26, 43, -89, 9, 16, -127, 24, 19, -30, 56, 12, -74, -17, 33, -35, -38, -47, 31, -100, -33, 52, -18, -17, 26, -49, 9, -80, 18, 33, -31, 9, -85, -31, -87, -13, -15, 55, -122, 4, 5, 7, 33, -68, -127, 31, -16, -105, -6, 12, -41, -6, 2, 21, 5, -42, 25, -3, -2, 11, 
-43, 23, 60, 95, 29, 10, -3, 61, -7, -125, -11, -7, 4, 1, -66, -17, -38, -23, -18, -39, -24, 8, 8, 3, -101, -18, -15, -15, -48, 38, -11, 61, -13, -19, -62, 13, -30, 23, 18, -19, -50, 52, -117, -40, -2, -12, 124, -16, -127, -65, -66, -13, -127, -33, -127, -127, 27, -5, -105, -19, -48, -64, 29, -55, 
-127, -22, -127, -15, -127, -127, 96, -62, 81, -15, 9, -127, 3, -56, -31, -74, 36, -127, -69, -60, -20, 12, -3, 17, 34, -127, -31, 76, 17, -1, -79, -127, 8, -78, 40, -65, -82, 12, 16, -97, 19, 16, 127, 11, 55, -24, 73, 31, 21, 45, 56, -111, 55, -127, -11, 7, -1, -1, 7, -28, 30, 0, -127, 0, 
-127, -38, -42, 68, 10, -123, -37, 15, 101, 20, 10, -11, 18, 62, 10, 69, -4, -89, 17, -81, -31, -36, 82, -127, -37, -127, 2, 11, 24, -46, -127, -73, -24, 6, 18, -27, -8, -27, -56, 23, -64, -59, 127, 27, 22, 12, 14, 26, -26, -25, -25, 7, 22, 11, -55, -4, 14, 31, 21, -6, -12, -8, 1, 7, 
-127, -37, 0, 32, -15, -67, -20, 29, 23, -32, -58, -29, -24, 26, 34, 13, -17, 47, 58, -109, -18, 42, -15, -127, -44, -127, -2, -21, 81, 8, -16, -27, -41, -25, 23, -28, -1, -37, -112, -29, -31, 31, 13, 46, 22, 35, -41, -14, 4, 4, -40, -77, -7, 48, -17, 7, -14, -53, 39, -19, 24, 36, 87, 34, 
-127, 2, 33, 83, 9, -21, -35, 50, -38, 27, -68, -34, -8, 51, 40, -24, 31, 8, 1, -57, 16, 12, -1, -38, -90, 27, -30, -122, -9, 46, 2, 37, -96, -33, 8, -28, -20, 33, -111, -19, 30, 9, -27, 6, 1, 18, 34, 13, -41, -91, -28, -9, -50, -7, 11, 18, -35, -23, -21, -8, 7, -13, 7, 22, 
-55, -9, 28, 91, 12, -26, -5, 54, 4, 41, -24, -20, -1, 17, 79, 8, 18, 21, -31, -40, -38, -24, 24, -101, -21, -15, -10, -28, -36, -35, -2, 60, -16, 23, -7, 17, -2, -18, -66, -8, 26, 24, 26, 29, 26, -7, 18, 0, 0, 8, -29, 22, -33, -5, -60, 23, 12, 1, -22, -13, 30, 7, 40, -28, 
-127, 24, 21, 127, -23, 0, -11, -53, 61, 24, 21, 3, -49, -27, 13, 47, 72, -10, 32, -7, 34, -23, 19, -127, 20, 33, 18, 58, -20, -41, 10, 88, -43, 79, -10, 26, -57, -43, -11, -20, 54, 35, -127, 0, -33, 46, 74, 31, -10, -52, 14, -10, 2, 37, 66, -9, 21, 19, -66, -35, 42, 22, 10, 15, 
8, 41, -5, -26, 26, -2, -47, -124, -127, 15, -7, 16, 97, -1, 33, 51, -20, 5, -54, -127, -116, -24, -84, 47, 32, -38, -35, 20, -14, -127, 55, 0, -33, -45, -6, 33, -4, 16, 7, 25, -74, 13, 16, 34, -56, -22, -49, 2, -70, 27, 25, -50, -28, 2, 15, -65, 32, -37, 60, -15, 21, -30, -14, 15, 
21, -19, -20, 46, -41, -32, 14, -4, -63, -57, 56, -75, -16, 44, 26, 8, 0, 17, -55, 43, -113, 12, 44, 43, 25, 81, -98, -29, 28, -50, 17, 0, -32, -16, -18, -68, -12, 42, 31, -92, 32, -54, -18, 24, 67, -41, -25, 22, 13, 2, -78, 34, 39, -9, -47, -4, -127, 6, -19, 17, 24, -107, -20, -37, 
-41, -50, 56, -127, -1, -16, -30, 41, 46, -60, -30, 1, 13, 49, 18, 127, -127, 13, 95, 9, 35, -47, 52, -60, -64, -62, -91, -12, 37, 26, 5, -12, 54, -113, -36, -19, -74, 37, 14, 91, 39, -62, -79, 43, -47, -94, -55, -45, 33, -6, -85, 37, 3, -28, -47, -20, -10, 21, 39, -29, 1, 54, 32, -81, 
0, -7, -18, 61, -7, -23, 51, 8, -7, -39, 0, 0, -65, 1, -127, 17, 3, -37, 62, 10, -23, -10, 27, -58, -99, 80, 33, -23, 60, -15, -40, 32, -20, 43, 27, 9, 2, 10, -127, -37, 81, 25, -33, -29, -25, 16, 58, 39, -127, -16, 26, 6, -13, 48, -18, -7, -25, 31, 27, -35, 0, 19, 40, 7, 
-27, -24, 2, 30, 17, -77, -21, 43, 44, -5, -11, -35, -25, -13, -12, 15, 0, -33, 14, -119, -43, 25, 14, -37, 6, -2, -2, -3, -14, -61, -77, 14, -54, 11, -11, 8, -5, 19, -127, -40, 90, -23, 35, 49, 41, 24, -87, -11, -57, -8, -34, -27, -15, 0, -54, 1, 22, -22, 13, 37, 21, 6, 38, 42, 
24, -11, 24, 15, -17, -60, -127, 36, -26, 16, -25, -76, -46, 25, 6, -6, 69, 21, 0, 16, -67, 34, 37, 15, 64, -40, -35, 16, 63, -64, -52, -18, -127, 6, 26, -45, -6, 6, -84, -6, 47, 12, 26, 20, 23, -38, -60, 18, 9, -51, -39, -1, 5, 26, 16, 45, -27, 4, 36, 44, 6, -22, -1, -33, 
-60, -27, 6, -57, 1, -11, -41, -2, -37, 44, -24, -8, 55, 25, -28, -19, -22, -40, -90, -112, -4, 51, 9, -127, 10, -127, 47, -113, -60, -114, -2, 26, 44, -51, -57, -11, -91, -8, -1, -14, -48, 12, -36, 23, -31, 3, 81, 14, -7, 51, -112, -74, -44, -20, -80, -43, -2, -77, 10, 62, -8, -127, 38, -40, 
-37, -81, 35, -7, -25, 18, 6, 35, -34, -72, -17, -7, -16, 0, 1, 45, -4, -50, -86, -24, -13, 30, 10, -127, 10, -55, -6, 6, -43, 29, 28, 59, 55, -42, 7, -27, -16, 36, -22, -127, -15, -127, -5, -28, -110, 43, 9, 13, 21, -3, -126, 38, -118, -71, 49, -11, -127, -23, 10, 43, -47, -89, 50, -127, 
-127, 37, -5, 127, -24, -127, 62, -14, -127, -127, 21, -127, -10, 2, 19, 28, 35, 30, 24, -101, 49, 6, -73, -125, 36, -52, 42, 12, -16, 32, -36, 59, -6, 24, -75, 10, 61, -127, 33, -43, 127, 8, 59, 37, 2, 23, -39, -7, -12, 42, 57, 45, -102, 109, -53, -3, -43, -42, 24, -27, 11, 1, -32, -77, 
-127, -9, -34, 48, 34, -9, -14, 3, -43, -27, -64, 26, 9, 9, -28, -58, -127, -16, 1, 42, 65, -127, 43, -66, -127, -57, -65, -127, -20, 41, 15, -11, -127, -35, 29, 0, -11, -81, 75, -2, -54, 40, -19, 72, 25, -9, -115, -11, -127, -127, -32, 9, -113, 20, -91, -2, 14, -23, -61, -78, 7, -127, 19, -1, 
-127, 20, -14, 64, 50, -30, -51, -2, -58, -33, -31, 20, -30, 0, 49, -127, 116, 5, 41, 67, -56, 15, -23, -4, 6, 32, -14, 43, -3, 12, 2, -81, -42, -27, -71, 6, -60, -41, 17, -6, 28, 48, -32, 1, -58, 3, 76, 1, -12, 31, -49, 55, -123, 40, 26, 23, 12, -67, -15, -112, -99, -120, 10, -16, 
-114, -52, -10, -2, 17, 29, 49, 59, -52, -103, 57, -26, 25, -36, 30, -17, 46, -11, -43, 51, -59, -33, 4, -63, 65, 12, 13, 120, 51, -52, 48, 7, -14, 78, -90, -40, -13, -15, 16, 10, 78, 23, -5, 9, 37, -10, 88, 21, 72, 106, 55, 16, -24, -41, -63, -62, -54, 45, 8, -127, -29, -127, 7, 37, 
0, 0, 0, 0, 0, 0, 0, 0, 0, 0, 0, 0, 0, 0, 0, 0, 0, 0, 0, 0, 0, 0, 0, 0, 0, 0, 0, 0, 0, 0, 0, 0, 0, 0, 0, 0, 0, 0, 0, 0, 0, 0, 0, 0, 0, 0, 0, 0, 0, 0, 0, 0, 0, 0, 0, 0, 0, 0, 0, 0, 0, 0, 0, 0, 
0, 0, 0, 0, 0, 0, 0, 0, 0, 0, 0, 0, 0, 0, 0, 0, 0, 0, 0, 0, 0, 0, 0, 0, 0, 0, 0, 0, 0, 0, 0, 0, 0, 0, 0, 0, 0, 0, 0, 0, 0, 0, 0, 0, 0, 0, 0, 0, 0, 0, 0, 0, 0, 0, 0, 0, 0, 0, 0, 0, 0, 0, 0, 0, 
0, 0, 0, 0, 0, 0, 0, 0, 0, 0, 0, 0, 0, 0, 0, 0, 0, 0, 0, 0, 0, 0, 0, 0, 0, 0, 0, 0, 0, 0, 0, 0, 0, 0, 0, 0, 0, 0, 0, 0, 0, 0, 0, 0, 0, 0, 0, 0, 0, 0, 0, 0, 0, 0, 0, 0, 0, 0, 0, 0, 0, 0, 0, 0, 
-3, -35, 20, -49, 2, 8, 25, 0, 10, 44, 27, -42, -33, -75, -8, -63, 28, -1, -49, 37, -42, -12, 20, -10, 0, 2, 7, 32, 14, 42, -83, -38, 12, 24, -3, 60, -50, -97, -9, -34, 11, -34, 35, 8, -19, -23, -64, 6, -33, 16, -25, 42, -29, 2, 0, 27, -16, 4, -57, 32, 42, 35, -55, -73, 
-1, -10, -31, -17, 22, 45, -118, 24, -12, 9, 16, 44, -5, -32, 50, -80, 10, -5, -21, -25, 50, -15, -127, -4, -22, -24, -39, 49, 14, 23, 67, -3, 33, -110, 16, -15, 45, -3, -34, 9, 54, 29, 16, 43, -16, 45, 9, -22, 18, 10, -39, 33, -29, 6, -18, 3, 38, -82, 59, -17, -18, 7, -72, 5, 
6, -17, -36, -1, 50, -32, -32, 90, -14, 2, -14, -12, 12, 26, 76, 45, -30, -60, -5, 10, -2, 7, -5, 32, -17, -32, -9, -42, -7, -78, -6, -24, -27, 19, -19, 15, 10, 15, -33, 13, -17, -1, -8, 25, -5, -103, 49, -57, 23, 0, 26, 9, 32, -42, 22, 43, 12, -35, -22, -24, -28, -44, 55, 61, 
-17, -3, 109, 66, 15, -85, 2, 20, -50, -23, 7, -127, 0, -5, 44, -44, 15, 10, 5, -39, -71, 13, 97, -40, 0, 19, 54, -6, -23, 37, -15, 31, -25, 34, -29, -127, 6, -39, 63, -127, -86, -88, -3, 20, -10, -17, -67, 15, 19, 19, -32, 31, -8, 0, 36, 22, -63, 9, 42, -11, 36, -85, -19, 43, 
-29, -31, -83, 69, 32, -15, -61, 50, -50, 5, 44, -127, 11, -35, 3, 13, 30, -127, -25, -61, -18, -77, -3, 20, 9, 10, 73, 37, 34, -10, -127, 10, -37, -8, -35, -73, -3, 44, -8, -127, 55, -54, 24, -21, 15, -20, -26, 0, 11, 5, 29, 14, 27, 60, 37, -30, -127, 1, -24, 6, 12, -56, -71, 16, 
-75, -59, -92, 53, 127, 6, -119, 12, 40, 9, 7, -45, 46, -28, 30, 56, 3, -127, 13, -14, 36, 18, -39, 4, -4, -16, -21, -4, 85, 103, -127, 6, 13, 26, 34, -42, -62, 61, 5, -88, -45, 36, -58, -16, -33, 3, -97, -24, -23, -38, 25, 42, -25, -26, -2, 38, -17, -10, 18, -8, -6, -14, 49, 36, 
-35, -46, -19, 25, -24, -127, -8, 0, -63, -29, -40, 11, 82, 16, -16, -41, 48, -38, 31, -36, 1, 15, 44, 0, 43, 16, 41, 14, 50, 68, -72, -105, -37, -76, 40, -127, 4, 25, -14, -66, -37, 3, -29, 21, -14, -11, 9, 53, 103, 29, 64, 111, 72, -58, -51, 3, -21, 50, 65, -26, 60, 38, -62, 16, 
-42, -58, 6, 9, 4, -109, 7, 35, -67, 6, -15, -21, 33, 5, 26, -127, -58, -68, 28, -109, 19, -28, -76, 19, -35, -49, -33, -86, -74, 45, -4, 15, 12, -66, -45, -127, 102, 42, 3, -22, -21, 32, -67, 26, -127, -7, 53, 68, -58, -19, 12, -49, -18, 9, -53, -27, -25, 24, -12, -26, 17, -23, -56, 62, 
-111, -47, -26, -20, 13, -127, 35, -22, 1, 10, 21, -98, -43, -38, -33, -13, -68, -127, 16, -8, -71, 31, -12, 34, -11, 39, 0, -79, 30, 13, -76, 99, -15, 44, -77, 23, -110, 7, 32, -46, 35, -49, 65, -14, 121, -34, -39, -102, -17, -76, -36, 26, 9, 8, -21, 43, -15, -51, -22, -8, -127, -62, -12, 40, 
-33, -24, -127, 30, -127, -126, -11, 55, -100, -40, 16, -61, -54, -25, 85, -60, 97, -127, -23, 7, 71, -50, -1, 5, 40, -13, -11, 60, 7, 8, -77, 8, 13, -19, -67, -66, -18, -31, 34, -127, -127, 36, 15, -18, -46, -122, 40, -82, 0, 15, -3, 19, -9, -46, 46, -21, -21, -67, -76, -38, -52, -6, -58, 12, 
-27, 34, -4, -76, -62, -4, 52, -13, -1, 2, 11, -8, 0, -20, 43, -24, 42, -27, -27, 24, 48, -44, -9, 22, 37, -17, 49, 17, -18, -45, 88, -40, 50, -22, -55, 28, -27, 3, 39, 48, 17, -7, -14, -38, -7, 8, -13, -22, -3, 40, -29, -16, 9, -49, -16, -63, -43, 45, -99, -28, 15, 34, 18, -10, 
23, 56, 50, 8, -127, 38, 49, 53, 13, -90, -18, 20, 34, -5, -37, 62, -16, 31, 50, -60, 75, -39, 46, -86, -6, -2, 29, -3, 56, 18, 49, 50, -13, 0, -33, 31, -11, -127, -9, -53, 18, 13, 67, -84, 32, -20, -6, -79, -20, 45, -40, 2, -127, -68, -30, -127, -127, 16, -17, 18, 43, 19, -119, -71, 
-127, -1, -67, 42, 14, -49, 15, 90, 101, -26, 9, 7, 31, 7, -14, 53, 105, -34, -67, 16, -14, 56, -5, -27, 73, -90, -124, -66, -5, 38, 22, 28, -71, -11, 4, -127, -7, -22, 25, 18, -99, 15, -37, 62, 47, 19, -5, 3, 43, -7, -33, 77, -89, 48, -48, -6, 0, 33, 3, -75, 44, -52, -16, 4, 
16, -77, -33, 36, 45, -49, -74, -31, 85, 46, -2, -49, -16, 52, -30, -29, -33, -118, 9, 9, 15, 4, 1, 81, -68, -3, 0, -12, -30, -35, -47, -21, 66, -20, -26, 11, -91, -22, 62, -5, -98, -6, -80, -1, -100, -127, 54, -40, 36, -63, 22, -46, 11, 40, 15, 0, 3, -41, 48, -25, 28, -25, 45, -27, 
-111, 3, 15, 36, 34, 5, 55, 8, -115, -97, -63, 8, -123, -39, -127, 2, 59, 26, -79, -50, 57, 52, 55, -2, 54, -127, -1, 15, 30, -13, -51, 40, -111, 25, -20, -2, -93, -101, 32, 70, 64, -5, 62, -85, 71, 10, 49, 15, -65, -127, -41, 23, -125, -11, -2, -77, -5, 72, -25, -26, -81, -43, -42, 51, 
-36, 5, -27, -38, 30, 16, 35, -32, -73, -78, -15, 5, 19, -31, -7, -26, 36, 23, -82, -37, -27, 3, -19, 5, -37, 49, 36, 13, 46, 40, -18, -16, -43, 32, -23, 51, 54, -127, 43, -40, -125, 16, 50, -39, 83, -18, 30, -28, 33, 9, -54, 25, -117, -1, 48, -4, -127, 24, -30, -29, 2, -25, -35, 1, 
-51, -26, -3, -64, 27, 2, -41, 54, -56, -83, -5, -16, -32, -31, 16, 2, 7, 28, -33, -57, -127, 5, -3, 59, 15, -27, 83, -10, 6, 2, -14, 64, -58, 35, 26, -91, -32, -35, 20, -127, -127, -127, -25, -83, -21, -36, -79, 5, 11, 31, 0, 7, 77, -53, 27, 17, -127, 52, -6, -5, -39, -23, -44, -93, 
-106, -55, 34, -88, 46, -127, -56, 127, -62, -88, -11, -127, -20, -6, 33, -10, 16, -127, -23, -20, -45, -32, -70, 8, -37, -113, 3, -16, 14, 16, -41, -22, 20, 28, 14, -127, 17, -45, 7, -127, -88, -127, 29, -71, 23, 25, 23, 8, 16, 13, -3, 60, 19, -127, 46, 67, -127, 23, 103, -9, -24, 0, -110, -116, 
