#include <MyModel.h>


const float MyModel_layer_0_weights[] = {
0.009592183, 0.0679486, -0.060216937, 5.268714e-39, 
-0.1816918, 0.027677301, -0.027858838, -2.951814e-39, 
-0.07817733, 0.0666362, -0.066622704, -4.779201e-39, 
-0.2140764, -0.011074449, -0.12848121, 4.391832e-39, 
-0.12251246, -0.03588396, -0.10603336, -3.981027e-39, 
-0.08426465, -0.15381393, -0.10868856, -4.889308e-39, 
-0.075773016, -0.14807843, -0.094058074, -5.973953e-39, 
-0.08216271, -0.126238, 0.08203165, 2.924137e-39, 
-0.006633908, -0.2530371, 0.18577152, -8.3974e-41, 
0.025832053, -0.18949953, 0.26325977, 4.318147e-39, 
0.031182306, -0.15862729, 0.19928472, -1.2323e-40, 
0.049571197, -0.1709433, 0.21615252, -3.705724e-39, 
0.08039719, 0.22832245, 0.07499432, -8.02134e-40, 
0.008769376, 0.20797385, -0.0020284888, -4.95645e-40, 
0.040453464, 0.25192627, -0.022251325, 2.13426e-40, 
0.020712359, 0.27666265, -0.0013652791, 8.74098e-40, 
-0.083409734, -0.21071818, -0.03057441, 2.17771e-39, 
-0.11236414, -0.19066869, -0.0031229325, -7.40895e-40, 
-0.20643857, -0.14329875, 0.038540993, 1.50914e-40, 
-0.15950891, -0.16160549, 0.017329704, -2.58268e-39, 
-0.05282472, 0.21114558, 0.018597148, -1.034423e-39, 
-0.027386073, 0.2495536, -0.027980054, 5.115443e-39, 
0.09217107, 0.22143649, -0.0005379143, 4.916166e-39, 
0.04842705, 0.22561796, -0.0011312473, -5.121718e-39, 
0.2246342, 0.40409365, -0.03591671, -4.73385e-39, 
0.21316557, 0.29617253, -0.010020614, 6.202125e-39, 
0.2050847, 0.2675388, -0.062994346, -3.664746e-39, 
0.22966985, 0.25873375, -0.073560715, -5.850183e-39, 
-0.06689679, -0.33955574, -0.038497146, -2.57743e-39, 
-0.1138411, -0.2793974, -0.050923344, 1.3466e-41, 
-0.15303226, -0.35048273, 0.013972278, 5.29524e-39, 
-0.21658769, -0.3647501, 0.06554146, -2.487968e-39, 
-0.009673854, 0.31891432, -0.17306066, -6.5798e-41, 
-0.053811934, 0.23705225, -0.21776126, 3.7402e-40, 
0.03166207, 0.2530145, -0.16828288, 6.34299e-40, 
-0.009111182, 0.21894987, -0.17207396, -4.04423e-40, 
-0.018604869, -0.28330982, -0.10695948, -3.57624e-40, 
0.04119507, -0.28640288, -0.061586384, -3.042523e-39, 
-0.0960024, -0.3630096, -0.031548847, -4.04116e-39, 
-0.08167332, -0.30372885, -0.04413414, 2.378522e-39, 
0.164098, -0.13332614, -0.21987997, 3.032441e-39, 
0.116582036, -0.08307039, -0.2538813, -4.285454e-39, 
0.11841259, -0.106361076, -0.28559762, 7.14993e-40, 
0.11922486, -0.18051463, -0.16594258, -5.8344e-40, 
-0.14083442, -0.053160697, 0.2060921, -3.465376e-39, 
-0.14305161, 0.02555453, 0.26516804, -2.991163e-39, 
-0.13835277, -0.024127863, 0.39374807, -6.96155e-40, 
-0.16265325, 0.047575828, 0.3178529, -4.14793e-40, 
0.52893794, -0.42273554, -0.074094966, 1.92646e-40, 
-0.17686255, -0.48838463, -0.072825134, -1.290998e-39, 
-0.65460014, 0.3453809, 0.19169845, 1.68823e-39, 
0.024747161, 0.8784058, -0.17147183, -3.1347e-41, 
0.1872911, 0.73384106, 0.18800507, -1.595404e-39, 
0.50146973, -0.104055315, -0.030932628, -1.630611e-39, 
0.123893835, -0.7113901, -0.24413708, -2.518529e-39, 
-0.62530994, -0.2667808, 0.20563547, -4.87066e-40, 
0.01089668, -0.010822563, 0.32806653, -3.637816e-39, 
-0.00022862313, 0.07407799, 0.23198906, 3.442695e-39, 
0.048293646, 0.076444864, 0.3215411, 5.457e-42, 
0.0233297, 0.15856321, 0.21724126, 2.38515e-40, 
0.025326995, 0.14747638, -0.2871896, 5.30543e-39, 
0.05430227, 0.12355793, -0.27472076, -2.619463e-39, 
-0.042281814, 0.07149841, -0.41210702, -2.64405e-40, 
-0.023179343, -0.05587013, -0.37931693, 2.965894e-39, 
};

const float MyModel_layer_0_bias[] = {
-0.3849263, 0.040089928, 0.098911226, 0.21417515, -0.14281492, -0.058299884, -0.21360086, 0.028296176, };


const float MyModel_layer_2_weights[] = {
0.2196404, 0.30564794, -0.2448974, -0.058092877, 0.22817342, 0.07796674, 0.06568978, -0.13366573, 
0.12616786, 0.21242909, -0.26674062, -0.16140978, 0.3782918, 0.1053815, -0.0066291206, 0.11353637, 
-0.08386191, -0.022198483, -0.07966994, -0.18556905, 0.07369125, 0.0677688, -0.0351738, 0.00911544, 
-0.01176188, -0.033294372, 0.14530629, -0.25417918, -0.1519311, -0.05413256, -0.12618521, -0.11814497, 
-0.15702218, 0.047347672, 0.11686093, -0.4069015, -0.2856215, 0.08530393, -0.0029366156, -0.19089347, 
-0.27795437, 0.010841375, 0.24840194, -0.27736956, -0.47369483, -0.04536264, -0.16001537, -0.52348197, 
-0.04272496, 0.11644442, 0.45817062, -0.20971265, -0.34232795, -0.07413851, -0.015228328, -0.3511744, 
0.16366994, 0.16793212, 0.20290273, -0.029109055, -0.890361, -0.029894944, -0.038915165, -0.2626339, 
-0.01699834, 0.06468788, -0.47990415, -0.008076157, 0.083328545, 0.36017662, -0.30685946, -0.4062358, 
0.012581636, 0.06195872, -0.3398341, 0.13489711, 0.14957604, 0.37146363, -0.25235838, -0.43860742, 
0.009189124, 0.20485859, -0.07301328, 0.34029788, 0.022916552, 0.24996082, -0.46055233, -0.3639049, 
-0.03162496, 0.18240656, 0.062044933, 0.27944782, -0.08197422, 0.26207757, -0.36771393, -0.11743893, 
0.095822334, 0.10937632, 0.2737527, 0.117151685, -0.29468292, -0.04483485, -0.43905497, 0.1546427, 
0.24472654, 0.05298928, 0.23424073, -0.18651068, -0.19244415, -0.19068058, -0.34079087, 0.36527124, 
0.132845, -0.11399775, 0.19752637, -0.32096732, -0.03006222, -0.39063752, -0.2961279, 0.5848234, 
0.18562116, -0.10335916, 0.3177439, -0.21118048, -0.02418492, -0.5735159, -0.44045177, 0.49613756, 
-1.0130844, 0.67765343, 0.25594822, 0.105269514, -0.64255303, 0.15172583, 0.0319183, 0.19023418, 
0.09399402, 0.6321549, 0.31027293, -0.12534355, -0.14879274, 0.10436403, -0.00049221463, 0.14510167, 
-0.28947693, 0.439538, 0.18243647, -0.04460731, 0.047633797, -0.12325165, 0.050663978, 0.17026569, 
-0.18768054, 0.08669376, 0.014753109, -0.039206956, 0.2890546, -0.2238258, 0.016057385, 0.062218357, 
0.04692938, -0.3516236, -0.34035167, -0.026994674, 0.3558134, -0.36535394, 0.01971435, -0.13654394, 
0.18210988, -0.5207637, -0.5032202, 0.0774374, -0.036753263, -0.28087753, -0.106418416, -0.37882385, 
-0.3980049, -0.63410145, -0.26828974, 0.054706424, -0.33463573, 0.14166619, -0.04952347, -0.59761274, 
0.096786015, -0.5296967, -0.05902981, 0.025535876, -0.45412278, 0.27112627, -0.005275061, -0.6086747, 
-0.38235706, -0.5557188, 0.32153568, -0.14867567, 0.29156822, -0.18510568, 0.82390946, 0.28186017, 
-0.30163497, -0.17750965, 0.20920339, -0.0023147177, -0.36738932, -0.2339729, 0.8022048, 0.36318478, 
-0.3307932, -0.021738976, -0.015361412, -0.19550942, -0.48796555, -0.29408348, 0.9552882, 0.41248417, 
0.15164046, -0.044612844, 0.058933377, -0.10796221, -0.66576964, -0.049282752, 0.9849939, 0.37658837, 
0.107895724, 0.22420838, -0.049036525, 0.039469812, -0.32143295, -0.047729835, 0.897529, 0.08838584, 
0.0015987785, 0.23821473, -0.006555865, 0.032849558, 0.18496355, -0.06453612, 0.90376234, -0.11655598, 
0.12352611, 0.17699547, 0.07565342, 0.16660672, 0.2656222, 0.14556712, 0.79608923, -0.3813406, 
0.24167643, 0.19784452, -0.18646602, 0.13550882, 0.3589328, 0.09024923, 0.7302775, -0.33844507, 
-0.028500594, -0.61494267, -0.00020869926, -0.026244102, 0.38488218, -0.029696163, -0.21388863, -0.21975088, 
-0.08250206, -0.48020527, -0.066076, 0.20378844, 0.35795152, -0.085741945, -0.24731976, -0.09544798, 
0.13075225, -0.29790875, -0.28171825, 0.22104931, 0.24777704, -0.0955434, -0.17833088, -0.15998425, 
0.09785325, -0.20543338, -0.22253692, 0.18840083, 0.08747017, -0.07389736, -0.2474031, -0.42101756, 
-0.20084667, 0.16792277, -0.22045055, 0.020623155, -0.06908664, -0.05376949, -0.19804564, -0.9406151, 
-0.054638475, 0.27839422, -0.009219005, -0.18000083, -0.1693509, 0.13223247, -0.22311702, -0.7263565, 
0.1285179, 0.49036273, 0.17157514, -0.2039084, -0.4307562, 0.2757246, -0.15273625, -0.53447336, 
0.0049191257, 0.45066595, 0.023021147, -0.15151322, -0.49698296, 0.3171815, -0.086951256, -0.56467265, 
-0.079054445, -0.18571946, 0.09761936, -0.44126073, 0.41346657, -0.032450184, 0.06735132, 0.02296885, 
-0.13830161, -0.08701379, 0.08950245, -0.31786576, 0.314719, -0.07154103, 0.04108708, 0.03286343, 
-0.10717238, 0.07163273, -0.025760079, -0.15168914, 0.18005535, -0.096046425, 0.18182164, 0.100282654, 
0.3186804, 0.19331244, -0.09862176, 0.13797522, -0.0808659, 0.048345033, 0.21265894, 0.08649606, 
0.46680406, 0.22616708, -0.119023934, 0.37553844, -0.28644535, -0.035293315, 0.26025262, 0.17269091, 
0.022557557, 0.20919076, 0.09428148, 0.3612497, -0.4311347, 0.035616558, 0.22536515, 0.021529324, 
0.15155615, 0.3505363, 0.0930208, 0.35583848, -0.38825202, 0.12470022, 0.18356217, -0.08914085, 
-0.25221977, 0.3564593, 0.09630898, 0.29711875, -0.50222456, 0.16061409, 0.29276127, -0.26934272, 
0.57864386, 0.30455157, 0.7527293, 0.16155209, 0.7962739, -0.119006164, -0.22990829, 0.09039721, 
0.30177763, -0.41307074, 0.07595684, 0.28107578, 0.6428104, 0.023458708, -0.15722047, 0.12088888, 
0.03299427, -0.58410394, -0.63081825, 0.013326318, 0.30802837, 0.15207565, -0.4519958, -0.34525362, 
-0.19285999, -0.34952042, -0.36074278, -0.1244899, 0.3171759, 0.20341995, -0.4004711, -0.51941913, 
-0.42506528, -0.2911143, -0.42838326, -0.36608276, -0.41813472, -0.029188212, -0.65508986, -0.21819334, 
0.07351531, -0.08985572, -0.19486411, -0.45368066, -0.63658756, -0.2555006, -0.48939535, 0.14767018, 
0.16823186, 0.08918126, -0.33407134, -0.2703483, -0.6907894, -0.5855489, -0.2761813, 0.5256789, 
-0.21023668, 0.437101, -0.27053317, 0.11361241, -0.6819202, -0.93740034, -0.20236056, 0.62821364, 
0.54217124, 0.91458106, 0.38422838, 0.23141308, -0.6669211, 0.076085165, 0.005869918, -0.10944332, 
0.45417324, 0.74415076, 0.35694146, -0.03746077, -0.537662, 0.29420763, -0.022780275, -0.05181288, 
0.37498713, 0.3799362, 0.35798317, 0.15407395, -0.27253872, 0.43994972, -0.016871454, -0.13209397, 
0.4482957, 0.20890804, -0.09290673, 0.11398566, -0.006002087, 0.2995308, 0.0335283, -0.25864992, 
-0.05020261, -0.5127424, -0.44620493, 0.07846887, 0.27310878, 0.1564364, -0.03493579, -0.34210488, 
-0.16305237, -0.82717997, -0.5682819, 0.066562966, 0.402808, -0.025475923, -0.14601389, -0.087876916, 
-0.19561626, -0.7741523, -0.62066567, -0.00790252, 0.26840124, -0.06835333, -0.0009984125, 0.03421948, 
-0.2736033, -0.59845376, -0.40158325, -0.2300814, 0.254438, -0.058257077, -0.07267484, 0.15717018, 
-0.05684561, 0.31200388, 0.23614278, -0.26157293, -0.5301778, -0.25844976, -0.04583988, -0.57378745, 
-0.059350524, 0.299822, 0.32703933, -0.27769473, -0.4277095, -0.24336307, -0.07911302, -0.42174807, 
-0.26017532, 0.26117766, 0.08975566, -0.17980798, -0.42219728, -0.16245075, -0.13237137, -0.035151325, 
-0.018409558, 0.05875809, -0.13340443, 0.0028880013, -0.30844924, -0.068446554, -0.1479898, -0.059559222, 
0.1787521, -0.28333294, -0.28523955, 0.24275517, 0.25660786, 0.27899992, -0.13665447, 0.0145891765, 
-0.06244517, -0.28975403, -0.24132495, 0.2862231, 0.37367812, 0.4125395, -0.17289138, -0.019567892, 
0.18384774, -0.12311988, 0.09374167, 0.46684867, 0.38345015, 0.43610984, -0.0686227, -0.5109814, 
-0.099556774, 0.015076973, 0.5461651, 0.45604646, 0.16831012, 0.39698318, -0.05400515, -0.3910243, 
0.08516223, -0.31672305, 0.28483844, 0.13410695, 0.32791328, 0.15246491, -0.050525833, -0.23457211, 
-0.2476041, -0.36314064, 0.1416855, -0.12570605, 0.4368442, 0.036303468, -0.020952318, -0.28672707, 
0.26932886, -0.33536622, -0.067326225, -0.36737862, 0.15867433, -0.015418312, -0.011291784, -0.42540687, 
0.27231812, -0.4696699, -0.1282383, -0.50865525, 0.13080704, -0.07457149, -0.042839725, -0.14379488, 
0.12696835, -0.07912755, -0.019686654, -0.3359952, -0.35469443, -0.08888417, -0.056304287, 0.003570402, 
0.048450366, 0.09589716, 0.036441185, -0.24385907, -0.24939887, -0.013374945, -0.21531609, 0.21236564, 
-0.26052502, 0.23034722, -0.052257776, -0.09723832, -0.45917007, 0.043104567, -0.026295302, 0.2188765, 
-0.62527376, 0.28055885, 0.10438684, 0.1751685, -0.36015832, 0.18048865, -0.13067676, 0.030651454, 
0.39023238, 0.07568691, -0.42108792, -0.39782745, -0.18391785, -0.06216052, -0.069836184, 0.098324135, 
0.13667168, -0.112404816, -0.26074573, -0.48147455, -0.019215, -0.12323571, -0.16173112, 0.008129428, 
0.1502122, -0.12730624, -0.062346775, -0.66512126, -0.01012704, -0.07283805, -0.09113186, 0.124797665, 
0.12253742, -0.009214694, 0.026551899, -0.6644774, -0.105960146, -0.28208613, -0.23464644, -0.19635904, 
0.021466881, -0.15614586, 0.3920945, -0.4370436, -0.032573946, -0.10639616, -0.1651545, -0.14965305, 
0.07547916, -0.09413277, 0.35816813, -0.3379221, -0.07574423, -0.09102429, -0.23194163, -0.07473815, 
0.25594547, 0.12261257, 0.32854792, -0.31225756, -0.0053489753, -0.07415774, -0.16088687, -0.1626336, 
0.2919646, 0.1327993, 0.48047736, -0.051836997, -0.009479216, 0.029333878, -0.0021034004, 0.06770575, 
-0.044048786, 0.2745273, -0.49293593, 0.01050341, -0.21457884, -0.19235875, -0.10364055, -0.0011844292, 
-0.16168094, 0.12476305, -0.35930797, 0.010529008, -0.1354261, -0.27305397, -0.06713527, 0.13989013, 
-0.04731879, -0.16843836, -0.29215732, -0.13049512, -0.008715789, -0.258823, -0.029062942, 0.21497032, 
0.028279021, -0.09310596, -0.09610732, -0.20928514, 0.13044173, -0.31061128, -0.27912694, 0.10862529, 
-0.019769244, -0.18181162, 0.1947965, -0.08606071, 0.24678269, -0.3288503, -0.059293408, 0.19228114, 
0.07835417, 0.03045852, 0.27992755, 0.004666491, 0.14813866, -0.021461882, -0.089464635, 0.11776478, 
0.06321062, -0.042918533, 0.36900207, -0.06936116, 0.43048945, -0.06677156, -0.1341, 0.0836794, 
0.10991455, 0.09223752, 0.50773704, 0.09244685, 0.30351168, -0.12512156, -0.06730968, 0.12398906, 
-0.029607683, -0.75971323, -0.26248118, -0.2719187, 0.44368568, 0.17016329, 0.05705468, -0.3296889, 
0.3678757, -0.41484118, -0.24612707, -0.33335778, -0.060278986, 0.24285729, -0.06315837, -0.6514429, 
-0.07296033, -0.22661859, 0.14876442, -0.44633943, -0.36298877, 0.29675797, -0.13290241, -0.4730296, 
0.16993822, 0.2302336, -0.03250767, -0.4468521, -0.6577056, 0.13992722, -0.044733107, -0.40321904, 
-0.38999417, 0.45103604, -0.03028695, -0.10909492, -0.32113463, 0.036558602, -0.096694574, 0.02307388, 
-0.65559864, 0.24787793, 0.0882524, 0.30095932, 0.13255635, -0.26663253, -0.20502031, 0.29096287, 
-0.41521153, 0.21820906, -0.07000798, 0.52227885, 0.428921, -0.38359427, -0.15467842, 0.5817876, 
0.5183177, 0.047639154, 0.043344893, 0.41189694, 0.35321566, -0.30603132, -0.11600834, 0.6306408, 
0.3408352, 0.28606054, 0.19942115, -0.3911388, -0.32130376, -0.45790324, -0.43098125, 0.19551755, 
0.24425802, 0.29891953, 0.45084667, -0.41562346, -0.3866865, -0.89574826, -0.44136494, 0.2224276, 
-0.11797302, 0.25028414, 0.45837614, -0.2537977, -0.337727, -2.0110416, -0.54654884, 0.12198336, 
-0.47629294, 0.1198815, 0.25901762, -0.036558855, -0.02037706, -1.8285803, -0.5355814, 0.082269706, 
-0.20780063, -0.043164447, -0.22350277, 0.27541792, 0.16148956, -0.9818486, -0.61935866, 0.012876332, 
-0.025494188, -0.2871205, -0.44005466, 0.38635463, 0.28762877, -0.09816693, -0.5227811, -0.08276957, 
-0.08597206, -0.30294615, -0.63104373, 0.39695844, 0.31291148, 0.0004234097, -0.4549489, -0.22557239, 
0.49746794, -0.4887064, -0.34766978, 0.30641901, 0.20976913, -0.20809549, -0.4047409, -0.21634938, 
-0.3987862, 0.056558423, -0.015816927, 0.33431968, 0.37378109, -0.79291314, -0.11889813, 0.34285554, 
-0.10221449, -0.089556724, -0.44805303, 0.38916808, 0.23299621, -0.6212567, -0.31979498, 0.26155534, 
-0.046837788, -0.2676157, -0.5147457, 0.19761586, 0.11045397, -0.2843627, -0.5397647, 0.07929077, 
0.07334013, -0.22304958, -0.1482571, 0.10160863, 0.109081894, 0.084394194, -0.5264234, -0.24848455, 
0.22037214, 0.07587355, 0.13761559, -0.17300573, -0.16490291, 0.34825274, -0.6174285, -0.39317444, 
0.07856908, 0.13801198, 0.44221035, -0.3520999, -0.20869799, 0.26635513, -0.46791694, -0.20153812, 
0.033522245, 0.34671155, 0.37693003, -0.43888178, -0.30101573, -0.004407764, -0.28474802, 0.005533655, 
-0.13223678, 0.21350613, 0.29797688, -0.33055043, -0.18784364, -0.11727298, -0.23832837, 0.25155216, 
0.14193924, -0.5009319, -0.02255857, 0.020466752, 0.19501856, -0.3087884, -0.14684474, -0.0048061037, 
0.05414027, -0.6683449, -0.10543913, 0.05608248, 0.12173964, -0.42282325, -0.23759192, 0.03832606, 
0.064569995, -0.35451552, -0.10450306, -0.040669315, 0.09247094, -0.23212068, -0.20047072, 0.031368278, 
0.006509302, -0.30371764, -0.07067198, -0.1197797, 0.075643584, -0.062170405, -0.22465308, -0.05631036, 
0.095789336, -0.04989218, 0.04924756, -0.17709564, 0.07885558, 0.19180985, -0.20113061, -0.033449996, 
0.11267747, 0.22678123, 0.06805517, -0.10245088, 0.033233456, 0.24858439, -0.18277742, -0.05096402, 
-0.031132197, 0.2980784, 0.09457307, -0.08110138, 0.10811041, 0.13050877, -0.04517538, 0.016657319, 
0.022472749, 0.4045871, 0.14889516, -0.09792878, 0.21018921, 0.12778598, -0.14116503, 0.13442197, 
};

const float MyModel_layer_2_bias[] = {
0.10485719, -0.26948154, 0.39271966, -0.18996383, 0.04510635, -0.2871658, 0.2656384, -0.21338785, -0.06695919, 0.49042583, 0.06426109, -0.31285614, 0.21565144, -0.11645629, 0.20631897, 0.25448737, };


const float MyModel_layer_4_weights[] = {
-0.19009921, -0.4133495, 0.16320385, -0.47774413, -0.17185529, -0.19948217, -0.24742079, -0.30693495, -0.17189571, -0.3277888, -0.009866889, -0.14601009, -0.36728665, 0.062151454, -0.2031242, 0.10331467, 
-0.2670244, -0.22822957, 0.9422155, 0.03430473, 0.35014918, -0.21834576, -0.15671818, -0.010776525, -0.5111743, -0.28937927, -0.27780697, 0.7749251, 0.042491212, -0.18750374, -0.028307725, -0.019926459, 
-0.03385533, 0.23053157, 0.52594125, -0.032641083, 0.07634358, 0.10972278, -0.05555177, 0.14191267, -0.522297, -0.40006444, -0.6140323, -0.20401938, 0.08151501, -0.2617416, -0.44934332, 0.47515684, 
0.11189986, 0.09833802, 0.021752698, -0.03970159, 0.35335374, 0.3557433, -0.48659799, -0.22702073, -0.63107187, 0.14501412, -0.32682645, 0.34983966, 0.10665393, 0.49522245, -0.2465814, -0.09677445, 
0.17475837, 0.21892862, -0.33023405, 0.048290618, 0.4912596, 0.16542785, 0.11386808, 0.45375544, -0.22955064, 0.1185803, -0.24044454, 0.2432385, -0.2285966, 0.44229227, -0.17595385, -0.28659275, 
0.33812466, -0.13640809, -0.07934561, 0.027068589, 0.41927028, -0.44415635, -0.009792698, 0.16754174, 0.098887235, 0.8833451, 0.52064157, 0.020556372, -0.01518019, 0.020771323, -0.49479246, -0.5171336, 
0.09842171, -0.035620004, -0.11150367, 0.2035612, -0.27727017, -0.66608167, -0.0459367, 0.66082484, -0.59917754, -1.070014, 0.051023573, -0.31484506, 0.14389221, 0.030924898, -0.018417979, -0.29442704, 
-0.115937166, -0.05436613, -0.7887438, -0.19063447, -0.7211667, -0.3675103, -0.18677916, 0.54273075, 0.035058863, -0.5077352, -0.82027733, 0.48308632, -1.541831, -0.45112947, -0.33345097, 0.20874104, 
-0.02587902, 0.13101535, -0.21340604, -0.2569272, 0.35021815, -0.25689334, -0.029066188, 0.01717251, -0.19288032, 0.068974264, 0.5175869, -0.28109917, -0.12175969, 0.06646403, -0.112184554, 0.10956518, 
0.35251394, -0.031163417, 0.15201004, -0.06542838, -0.09388095, -0.5129377, -0.24445517, -0.5254938, -0.133308, 0.14312689, 0.124219365, 0.3396806, -0.12236122, 0.21329693, -0.011066431, 0.3585587, 
0.068553165, -0.06922621, 0.40326318, -0.030924981, -0.23280975, -0.18055625, -0.03995232, -0.40002435, -0.035866782, 0.24812418, -0.21010752, -0.28904995, -0.2190495, 0.04197805, 0.15403047, 0.016242225, 
-0.65467143, 0.31037387, -0.1511353, -0.4725952, -0.0967302, 0.19184941, -0.22733283, 0.43411678, 0.09815028, 0.07514626, -0.020569151, -0.05937042, 0.03698232, 0.1273051, 0.18589117, -0.3626571, 
0.033175394, 0.006511152, -0.39328387, -0.51175183, -0.14556803, 0.08005175, 0.09722563, 0.3456064, -0.050416946, -0.34862363, -0.731564, 0.17541175, 0.144835, -0.38398495, 0.09333505, -0.27436855, 
-0.13569088, 0.056242984, 0.012302905, -0.1214096, 0.017610427, 0.29231745, 0.25007614, -0.11121792, 0.048560515, -0.31178862, 0.043899324, 0.21190357, -0.03236659, -0.11853964, 0.021840403, -0.34218946, 
0.25105605, 0.08623542, 0.049449816, -0.32495204, 0.11089183, 0.24243486, -0.5726172, -0.567325, 0.46149513, 0.13365668, 0.26844785, -0.020441197, -0.35097033, 0.19610067, -0.09724523, 0.39195883, 
0.051384907, 0.32633707, -0.33210787, -0.13515198, 0.47953752, -0.28892076, -0.25391847, -0.07392109, -0.07484854, 0.24615674, 0.038299035, -0.16625899, -0.14792481, 1.0347264, 0.1902341, -0.080334134, 
-0.1287496, 0.17681834, 0.53325987, -0.210461, 0.54567724, -0.3961902, -0.37914747, 0.22573152, 0.049232256, 0.21479352, -0.3597946, 0.3120496, 0.3850084, 0.047017284, -0.17652032, 0.10997373, 
0.02461536, 0.1308996, 0.25036967, -0.1738703, 0.38612857, -0.4230904, -0.099960595, 0.04887945, -0.31666392, 0.08500148, -0.54251486, -0.01702522, 0.17877151, 0.022157922, 0.053473495, 0.07352551, 
0.07593171, -0.16931482, -0.27502847, -0.1691324, -0.054098062, -0.40672395, 0.008710397, -0.13073741, -0.45463336, 0.19206251, -0.2617358, 0.3188071, -0.20724924, 0.02927352, -0.11793663, 0.43293306, 
0.16091995, 0.009405673, 0.14778459, -0.22511466, 0.12690017, -0.15383278, -0.16368076, -0.33844683, 0.11848651, -0.10048238, -0.29245895, 0.1744101, -0.1703948, 0.08943557, -0.08783994, 0.40381974, 
0.31491852, 0.19380593, 0.3036146, -0.71409756, 0.21015841, -0.61993706, -0.10118336, -0.7276758, 0.111857146, 0.007859279, -0.42781776, -0.0410714, -0.220222, 0.36991036, 0.23668583, -0.4721464, 
-0.070434235, 0.1153217, 0.6179193, -0.77702594, 0.27357554, -0.82141995, -0.10394339, -0.7656229, 0.39840448, -0.09737811, 0.22341451, 0.45335764, -0.14736657, 0.13909775, 0.06483686, -0.46818802, 
-0.8351021, 0.2296751, 0.60200006, -0.07218015, 0.05321711, 0.21986903, 0.10687666, 0.059552785, -0.0107436655, -0.2869302, 0.2908277, 0.42793545, -0.47760755, -0.34546006, -0.16849343, -0.6032455, 
-2.4767175, -0.49459898, 0.2000983, -0.4929851, -0.52193165, 0.052316226, -0.18431884, -0.16709432, -0.36753923, -0.54384655, -1.2089561, -0.38955435, -0.27558565, -0.045367118, 0.21718013, -0.9269586, 
0.08561278, 0.28811806, -0.38424924, 0.059990313, 0.27956137, -0.41204876, -0.3098046, 0.3288339, 0.1468418, -0.013769605, 0.47330567, -0.49407595, -0.1715491, 0.42330882, 0.5701128, -1.1037545, 
0.23188326, 0.104238085, -0.110614225, -0.10945213, 0.0077922908, 0.6077608, -0.2858309, 0.26665977, 0.16992849, -0.03889907, -0.53603876, 0.096305296, -0.03879203, -0.10387455, 0.46261823, -0.36695334, 
0.24655682, -0.4864032, -0.28759876, -0.1218615, -0.15552887, -0.14662766, -0.11823719, -0.08768328, 0.15638342, 0.12635185, 0.22041942, 0.10593875, -0.37354186, -0.03856742, 0.19199361, -0.30128837, 
-0.29928738, -0.31589636, 0.20286277, -0.49303833, 0.24171352, -0.33213112, -0.21938795, -0.14292257, 0.21201728, 0.6625892, 0.078736186, 0.35005918, -0.43447244, -0.09071514, -0.0046198433, -0.14340152, 
-1.0519415, 0.3643125, -0.15934046, -0.18536237, -0.23688452, -0.24998909, -0.21626483, -0.09434384, -0.39514256, 0.361006, -0.08147338, -0.23837484, -0.28632578, 0.049918737, -0.07710143, 0.074009635, 
-0.24196616, 0.13306291, 0.07396249, -0.38493648, -0.028896783, -0.24776144, 0.17137526, -0.54054236, -0.28107718, 0.03243095, -0.009582201, -0.17504826, -0.13200893, 0.26500112, 0.061552357, -0.038106803, 
-0.42877692, 0.22785464, 0.22986998, 0.21474728, -0.4518247, -0.25728112, 0.38497952, -0.30211788, 0.08858001, 0.34776893, 0.38821024, -0.048019383, 0.083091855, 0.035674673, 0.33028895, -0.6249425, 
0.31844178, 0.616311, 0.021055084, -0.24540412, 0.13143528, -0.34300828, 0.55189973, -0.8641874, -0.17223956, -0.1864921, -0.29646367, -0.1983053, 0.3228377, 0.5987426, 0.31443268, -0.2701203, 
-0.01979526, -0.12037222, 0.22610451, -0.58431053, 0.30728227, -0.39497057, -0.19203402, -0.6427818, 0.31526023, 0.02384342, 0.050529927, 0.34481347, 0.110508226, 0.13244627, 0.14121437, -0.7565875, 
0.09337987, -0.11916031, 0.3818778, 0.19241937, -0.25683877, -0.3216376, -0.16767628, -0.55225086, -0.58951426, -0.3665424, -0.08872341, -0.25996292, 0.17808817, -0.015093222, -0.12551822, -0.027085735, 
0.19569461, -0.20049638, 0.20429073, -0.4343804, 0.15888277, 0.24903741, -0.020151574, -0.173711, -0.24079712, 0.1568001, 0.36138248, 0.28565657, 0.01070417, -0.29338136, -0.40538764, -0.023397014, 
0.46645656, -0.2479553, 0.040322248, 0.080273755, -0.06553669, 0.057502124, -0.8343045, -0.1242699, -0.035532936, 0.09299876, 0.004061122, 0.14102845, 0.010573892, 0.34493598, -0.28554377, 0.109116025, 
-0.10639225, 0.3932062, -0.07268067, 0.079654515, 0.16186173, -0.15760818, -0.639069, -0.029078472, 0.3694093, 0.2205469, -0.027130717, -0.2001154, 0.2037107, 0.037871905, -0.044792995, 0.051354036, 
-0.6366438, 0.6571605, -0.6715887, -0.013418105, 0.38520247, -0.2696492, 0.02732298, 0.30447617, -0.24660583, -0.108414225, -0.8000175, 0.19976564, 0.280789, 0.3427085, -0.12149494, 0.415368, 
0.16141461, -0.39471486, -0.95866793, -0.4452269, -0.2764161, -0.17397383, 0.15824002, 0.5011277, -0.123961814, -0.01346385, -0.13517976, -0.00471593, -0.3488056, 0.18086438, 0.33540866, 0.1436203, 
0.48525017, -0.21687356, -0.0040969155, -0.9167495, -0.005600947, 0.26912677, -0.682919, -0.01670603, 0.57941604, 0.14230457, -0.20488343, -0.6570603, -0.034656577, 0.08171217, 0.609571, -0.29405624, 
0.3179892, -0.30883107, -0.04591621, 0.24798332, -0.040907808, 0.10423506, -0.62237614, -0.31077367, -0.15767209, -0.73841256, 0.5263963, -0.14848529, -0.5853538, -0.3297448, 0.44427708, -0.23025219, 
-0.36689544, 0.06501241, -0.24926323, -0.38449818, -0.6308346, 0.08351557, -0.43788671, 0.68754, 0.16217236, -0.75222534, 0.34008825, 0.14657292, -0.42190656, -0.61064476, 0.445246, -0.26102403, 
-0.13145255, 0.61475533, 0.020412423, -0.53649247, 0.1942436, -0.51646674, 0.16975835, 0.39850223, 0.011143053, 0.039638698, 0.35106015, -0.66244715, -0.0088361055, -0.005480993, -0.10056582, -0.1068142, 
-0.06254969, 0.3278175, -0.34364986, -0.4638691, 0.2613224, 0.315154, -0.024295578, -0.20123741, -0.7393593, -0.11810813, -0.39860094, 0.47171137, 0.42071348, 0.73310715, -0.55536103, 0.46372646, 
-0.12115684, 0.24064757, -0.17224674, -0.058000468, 0.35721466, 0.16959417, 0.323102, -0.34523797, -0.015898975, 0.464149, -0.07206155, -0.27841824, 0.19683272, 0.3925367, -0.07715894, -0.34579873, 
-0.009411284, 0.1745129, -0.017143311, -0.0312489, 0.118171334, 0.59612155, 0.050703805, -0.34857416, -0.20008625, 0.3100679, -0.3742206, -0.52494824, -0.085656874, 0.12966116, 0.06388182, -0.5095173, 
0.18675354, 0.028987093, 0.17722495, 0.19621763, -0.020374076, -0.21351781, -0.3812363, -0.6323029, -0.16629972, 0.09457146, -0.15059194, -0.17433012, -0.32032344, 0.09973437, 0.08226814, -0.024936056, 
0.17519183, 0.35358465, -0.28815895, -0.3224792, 0.39719695, -0.29028133, -0.1450998, -0.24372406, -0.16432998, 0.42847267, 0.6942674, 0.112794764, -0.25694203, 0.41166526, -0.33508384, 0.42134586, 
0.18198085, 0.2913303, -0.0062128888, -0.08051176, 0.4937477, -0.010094463, -0.6942772, 0.21359977, -0.74411654, -0.10357834, 0.06331494, 0.19917065, -0.18630993, 0.2614409, -0.91461676, -0.11793087, 
0.37266853, 0.056828633, -0.06904862, -0.07396687, 0.07603682, -0.32149753, -1.2644784, 0.11408502, -0.30182594, -0.4369329, 0.016127307, -0.06153652, -0.17085661, -0.17077474, -0.7183306, 0.1567066, 
0.00024431397, 0.09167156, 0.23817886, -0.058848653, 0.18760179, -0.07309184, 0.083704494, -0.17985608, -0.17666279, -0.5701471, -0.53801084, 0.25197837, -0.2769628, 0.105316274, -0.20591491, -0.051180255, 
0.03614491, -0.17140016, 0.2943789, -0.14783421, 0.4591656, -0.40385094, 0.48654878, -0.118062586, 0.28511357, -0.020067604, 0.10725763, 0.09463196, -0.58405536, -0.051223207, -0.220124, -0.494159, 
-0.24516135, 0.032578804, 0.3122385, 0.10868176, 0.23481002, -0.9037987, 0.6346757, -0.25945964, -0.33547348, -0.034305297, -0.11237582, -0.11005304, -0.3132371, -0.15454507, -0.6073879, -0.1445805, 
-1.2663673, 0.083192185, -0.018775191, -0.33004904, 0.2369173, 0.024493802, 0.11105047, 0.1778152, -0.08629977, 0.5624202, -0.3456552, 0.024988582, -0.080673546, -0.11659345, -0.13055724, -0.24755007, 
-0.7789095, 0.22074148, 0.14561409, -0.23213091, -0.6672299, -0.3042453, -0.12692007, 0.27127814, 0.15243424, 0.06694723, -0.45528257, -0.34450853, -0.4667063, 0.054670434, -0.2659086, 0.40716365, 
0.5922126, -0.24823202, 0.54904824, -0.64359045, -0.93086755, 0.49992856, -0.18452835, -0.7914078, 0.35359123, -0.3648783, 0.4707137, 0.2777872, -0.20864965, -0.53776306, 0.009835731, 0.2072563, 
0.07269252, 0.21821962, -0.24770384, -0.03374113, 0.18374065, 0.37909728, -0.058619764, -0.678735, 0.4566525, 0.30062196, -0.3186768, -0.9030754, 0.008793421, 0.29556438, -0.09545501, 0.24925473, 
0.22092149, 0.34740075, -0.08416776, -0.24376388, 0.19629443, 0.19428296, -0.48200008, -0.5655062, 0.15129739, 0.011265537, -0.23404647, 0.33663875, -0.16462402, 0.18553977, 0.18500401, -0.2412869, 
-0.07612234, 0.07946865, -0.20941794, 0.22048095, 0.043204773, -0.15623432, 0.3266225, -0.6700969, -0.5204138, 0.2769578, 0.4927362, -0.69413424, -0.18526445, -0.1344967, -0.0065408633, -0.51206225, 
0.11344523, 0.5765296, -0.006887439, -0.12247698, -0.058718197, -0.34958658, 0.14161153, -0.11016745, -0.28505203, 0.41790736, 0.1615963, -0.2771647, -0.37105703, -0.12920128, -0.3194892, 0.40207303, 
-0.08350887, 0.35782114, 0.3883448, -0.10039882, 0.10738022, -0.12881859, 0.7434191, -0.13271739, -0.10501719, -0.5550138, 0.32728338, 0.22930284, 0.029160732, -0.30167398, -0.13012382, -0.0076420764, 
-0.30385223, -0.029340558, 0.5118518, -0.14429048, 0.37320745, -0.09949931, 0.23439907, -0.11723798, -0.031321228, -0.57724756, 0.4637064, -0.18487123, 0.13355276, -0.3369068, 0.00954569, -0.061682988, 
0.18286993, -0.30530542, -0.35225862, -0.31048942, 0.23359242, 0.17419599, 0.24720061, 0.12755983, -0.17526005, -0.30573404, 0.13625601, -0.28208014, 0.15093002, 0.1430251, -0.082692854, -0.6041135, 
0.15666556, -0.01966675, -0.12860422, -0.4127826, 0.4371107, 0.09415288, 0.28874195, 0.264847, -0.19642794, 0.3966449, -1.4806484, -0.5862846, -0.070882894, 0.3318681, -0.047673397, -1.1395394, 
-0.14595424, -0.13600473, -0.15648596, 0.015119962, -0.060205445, 0.118766926, -0.36728594, 0.1143061, -0.6262318, 0.10183008, 0.54901624, 0.2759455, -0.031106027, 0.41903025, -0.5451379, 0.15071854, 
-0.39950162, 0.44268844, 0.0053620175, -0.008396351, 0.22761959, 0.32392603, 0.11316372, 0.06479297, -0.7045349, 0.24198093, -0.5782245, -0.08921265, 0.039016563, 0.5881439, -0.62539184, 0.6657299, 
-0.12729843, 0.12178061, -0.27252197, -0.060247984, 0.0360958, 0.5402488, 0.08534435, -0.54386234, -0.60353446, 0.010240231, -0.021689158, 0.13005735, 0.22214027, 0.41725522, -0.41327876, 0.08006586, 
0.0051487857, 0.16454378, -0.3186436, -0.5157374, 0.044026848, -0.029973349, -0.15695514, 0.109678365, -0.4027758, 0.1588146, 0.4244377, 0.3313539, -0.10709797, 0.3150768, -0.051112436, -0.24434255, 
0.2928177, 0.15444823, -0.23641764, -0.2954846, 0.18274492, -0.27600756, -0.38415504, -0.26889953, -0.46907473, -0.3012758, 0.18067189, -0.031611618, -0.058733188, 0.22095816, -0.14722636, -0.09388978, 
0.38799983, 0.13903849, -0.4695076, -0.29857627, 0.0744937, 0.08392378, -0.41546738, -0.054234292, -0.22797558, 0.17936309, 0.5963028, -0.08371828, -0.13597435, 0.4974475, -0.13439754, -0.39158309, 
0.36043257, -0.47064885, -0.49465033, -0.10262507, -0.23990977, 0.012089133, -1.4740206, 0.49976683, -0.18982188, 0.22704148, -0.3602354, -0.3568548, -0.3254644, 0.08799728, 0.1883929, -0.74805707, 
0.4250104, -0.41218647, -1.0282286, -0.28132862, -0.79188675, 0.55813575, -0.9406678, 0.8723344, -0.22144377, -1.3469229, -0.5570253, -0.4528745, -0.6590277, 0.19672659, 0.1495055, -0.29429218, 
0.22063284, -0.31538486, -0.08589509, -0.24546997, -0.037274625, 0.21544912, -0.6140712, 0.20160872, -0.7292044, -0.12922265, -0.5035297, -0.07455621, 0.22713651, 0.17886357, -0.48644248, 0.42527923, 
-0.62691003, -0.25498593, 0.027906958, -0.2981543, 0.36412993, 0.0082983, -0.5026113, -0.21396719, -0.11658314, 0.14725617, 0.36084476, -0.3250094, -0.33540082, 0.045465957, -0.19320107, -0.008968997, 
-0.5478775, -0.025981698, -0.20273148, -0.14230923, -0.16913971, -0.85671157, -0.6619005, -0.043736666, 0.13626744, 0.23272356, 0.31047186, 0.004431717, -0.32692286, -0.657005, 0.36514264, -0.60664225, 
-0.33725947, -0.44456446, 0.36176768, 0.03131254, -0.44770598, -0.3414419, -0.5576151, -0.47816488, 0.18722454, 0.28932908, -0.19549859, 0.49907646, 0.027155157, -0.0693831, 0.512933, -0.46524745, 
0.32050008, -0.3950091, 0.27192578, -0.065022856, -0.07385038, 0.15149827, -0.23401788, 0.23211448, -0.20125903, -0.15770392, -0.40832093, -0.05802392, 0.22089827, 0.48279947, -0.068004705, 0.149703, 
0.010245081, 0.11168341, 0.3265808, -0.03048384, -0.28812635, -0.251707, -0.7439432, 0.052464347, 0.13568306, 0.15701744, -0.3134806, -0.46157256, 0.23282611, 0.23597367, 0.031896297, 0.19159287, 
-0.13951808, 0.2534757, 0.38819683, -0.16627647, -0.32484633, 0.2262948, -0.2616237, -0.34109864, 0.2530163, 0.11299498, -0.2214541, 0.34509116, 0.35004815, 0.18546726, -0.093257174, 0.12833051, 
0.34618077, 0.13932735, -0.089700095, -0.57296026, -0.0103693865, 0.13373406, 0.029297337, -0.3897144, 0.35283425, -0.12285118, 0.24831724, -0.08423637, 0.28915024, 0.4482759, -0.11221845, 0.22152087, 
-0.08205468, -0.12563798, 0.029270416, 0.0072508827, -0.48160723, -0.07923398, -0.032558322, -0.109748356, 0.038315345, 0.056669746, -0.05881169, -0.2500814, -0.011958654, -0.55847096, -0.040578593, -0.035624344, 
-0.09776391, -0.14307272, 0.01826712, 0.009570785, -0.5684382, -0.0823816, -0.054972537, -0.052290127, 0.041010153, -0.06205107, -0.10044459, 0.017397482, 0.0046431986, -0.48119634, 0.031631406, 0.029706791, 
-0.13531727, -0.06668355, -0.011607128, 0.017520139, -0.6471617, -0.057707503, 0.007761715, 0.0672557, 0.06917004, -0.07113341, 0.016526124, -0.09537403, 0.03371814, -0.64456373, 0.06789377, 0.090270594, 
-0.07845593, -0.021921283, -0.025627095, 0.010126733, -0.56236404, -0.04802692, 0.11941067, 0.038661078, 0.119456366, -0.103040725, 0.07786868, -0.037248522, 0.04461574, -0.9032266, -0.0034645575, 0.073080204, 
0.030624093, -0.3747747, -0.011010355, -0.0044867513, -0.7861435, 0.03164132, 0.061281834, 0.12672433, 0.08954536, -0.1029885, 0.045762375, 0.037672184, 0.061648987, -0.82791924, 0.085317574, 0.03963048, 
0.048770048, -0.26434776, -0.0041204626, -0.005202495, -0.6337264, 0.03620342, 0.06040917, 0.134855, 0.080236696, -0.026488125, 0.008808744, 0.09372216, 0.024457594, -0.87570643, 0.04027046, -0.1202251, 
0.018495724, -0.37330604, 0.0353615, -0.0126875695, -0.6316304, 0.022808852, -0.08218122, 0.07438067, 0.051237293, -0.014276983, 0.046780568, 0.11987244, -0.0033866044, -0.8346343, 0.10966254, -0.123531535, 
0.0027720565, -0.4956659, 0.03025491, -0.0043557594, -1.0005099, 0.024875296, -0.15412624, 0.11038601, -0.023564639, 0.022471206, 0.14821286, -0.015495429, -0.021171767, -0.85127294, 0.14397153, -0.08261229, 
0.10369459, -0.4187921, -0.9937578, -0.46294498, -0.044952888, 0.27011868, -0.23517749, -0.45685235, -0.24828902, 0.1523737, -0.07422643, 0.2102095, -0.18090427, -0.09791819, -0.6411899, -0.25740826, 
-0.022697935, 0.45665923, -0.32819465, -0.13544156, 0.3536059, -0.02320214, -0.24082685, 0.3560317, -0.24507076, 0.41168863, -0.19781406, 0.38324463, -0.15455106, -0.07797859, -0.52329665, -0.11224119, 
-0.041038178, 0.55302674, -0.2216104, -0.2782581, 0.36199436, -0.0044720992, -0.5020108, 0.14878395, -0.62454164, 0.26265007, -0.39732015, -0.33408198, 0.009569341, 0.3785669, -0.22766832, -0.07654456, 
-0.5397963, 0.35843608, 0.30007538, 0.16985883, 0.38194486, -0.39820156, -1.1537788, -0.14784984, -0.16606115, 0.38647136, 0.024275012, -0.55801827, 0.0687691, 0.03579443, 0.22626245, -0.053155374, 
-0.5544179, 0.05827522, 0.38886636, -0.095718354, 0.04603597, -0.29777217, -0.42765835, -0.2415125, 0.42484257, -0.391538, 0.046512514, -0.73768294, -0.013475163, -0.3031371, -0.06723053, 0.19110441, 
-0.27933237, 0.22533828, 0.29308948, -0.26259696, -0.35142878, 0.13005732, -0.4519391, -0.0036813286, 0.12956618, -0.3389639, 0.11883268, 0.69908285, -0.44346103, -0.57022625, -0.25225165, 0.1241628, 
-0.03129441, -0.13599434, 0.059532918, -0.12415783, -0.15250672, 0.1686027, -0.17044309, -0.20217314, 0.20153166, -0.23156565, -0.30645818, 0.057015587, -0.02682025, -0.23085746, -0.059723474, -0.24156332, 
0.4678712, -0.072292365, -0.28017193, -0.08060078, 0.27368486, 0.45388046, -0.8901384, 0.032037105, 0.49794933, 0.31551194, 0.19927372, -0.3487542, -0.13105972, 0.111813776, 0.059146825, -0.045789916, 
-0.32034895, -0.19134113, -0.06644859, -0.8381388, -0.43335164, -0.010103777, 0.3308738, -1.763181, 0.039825924, -0.07639893, 0.2551629, -0.9071289, -0.016287243, -0.06419305, 0.13860442, -0.21687669, 
0.4108302, -0.9715423, -0.32521477, -0.41724098, -0.6611031, 0.2465665, 0.19963482, -1.0257393, -0.06282463, -0.6732739, 0.24383451, 0.51804906, -0.21926601, -0.3640069, 0.11447246, -0.40927407, 
0.11668956, -0.3935814, -0.11088003, -0.09137512, -0.058920443, -0.18280423, -0.19112764, -0.5961019, -0.050867107, -0.34420967, 0.032227434, -0.063126326, -0.52181894, -0.21373141, -0.025129512, -0.5542675, 
-0.45722064, 0.6940698, 0.05985121, -0.35396782, -0.019182874, -0.12499296, -0.09240712, -0.18322714, -0.14971322, -0.13201979, -0.13858652, -0.028058682, -0.3442557, -0.24483825, -0.15572108, -0.89216846, 
-0.21271054, 0.5797169, 0.5325248, -0.1442833, -0.006621998, -0.028486593, -0.11377804, -0.65479636, -0.12566012, -0.034450267, -0.3375957, -0.27966332, 0.046026018, 0.10533192, -0.13857508, 0.7103015, 
-0.14655761, 0.44185776, 0.370218, -0.08990309, 0.27104014, -0.17521907, -0.09484462, -0.35220847, -0.11308238, -0.102663, -0.5249983, -0.1706243, 0.24092852, 0.2098366, -0.23904967, 0.6629195, 
-0.24586557, 0.12112915, 0.28186855, -0.3097225, -0.016736748, 0.3180102, -0.08222427, 0.095010445, -0.052451532, -0.0664642, -0.1243945, -0.55284, 0.36775398, -0.124913774, -0.089180306, 0.27941394, 
0.28382948, -0.07018681, -0.32327628, -0.30026004, 0.366178, 0.11099747, -0.4959779, 0.08311384, -0.04071448, -0.23892856, 0.011516781, -0.917102, -0.0934782, -0.28077236, -0.0464242, -0.3175502, 
0.057448734, -0.025840823, 0.29474548, -0.03455497, -1.4535834, -0.27012807, -0.6745161, -0.4535893, -0.07854462, 0.26106668, -0.010425039, 0.24190347, -0.022624968, 0.09978865, 0.042876255, 0.14011285, 
-0.29201567, -0.2268937, -0.12747224, 0.018348143, -0.91065663, 0.06616104, 0.12640515, -0.050883062, -0.20217913, -0.042634696, 0.1340459, 0.30764246, -0.24798872, 0.14339939, -0.34420744, 0.047566563, 
0.21202168, -0.24771109, -0.6523548, -0.031749077, 0.40647542, -0.0896362, 0.32279643, -0.188488, 0.2134787, -0.34449136, 0.2844762, 0.28965774, -0.21740043, 0.060812227, -0.40657648, -0.39755565, 
0.03455126, 0.2291777, -0.09059302, 0.14714207, 0.22660986, 0.12242423, 0.21149746, 0.37353623, -0.0716083, -0.19344275, -0.37549344, 0.33341235, -0.12688589, 0.28667274, -0.22041506, 0.07605367, 
0.21484824, 0.2530836, -0.10567412, -0.15143758, 0.29760695, -0.2686059, -0.097752534, -0.09374564, 0.35697383, 0.05398994, -0.2404051, -0.2301129, -0.4747712, 0.37376285, -0.12980285, -0.03609417, 
-0.070127815, -0.32646942, -0.17201072, -0.4083456, -0.20553984, -0.2231048, -0.41146502, -0.27542406, 0.27105036, -0.067694016, 0.12749726, -1.039703, -0.8307604, 0.09402171, 0.37881944, 0.0047556767, 
0.22492327, -0.43187422, 0.015938178, -0.43169618, -0.44241577, -0.15468924, -0.2535639, 0.5574246, 0.07612055, -0.16260108, 0.39319974, 0.32857564, -0.3485269, -0.22914453, 0.19191262, -0.0043833745, 
-0.07696893, -0.06958356, -0.34156018, -0.6840459, -0.047021333, 0.29598686, 0.11220761, -0.13588364, 0.059990287, 0.19554292, 0.02679314, -0.018985802, -0.01260653, 0.45479786, 0.036765818, -0.41602454, 
0.3388824, 0.079267554, 0.21929437, -0.18600152, 0.53095776, 0.4238071, 0.20387067, -0.4939176, -0.17813705, -0.47940275, -0.36177412, 0.21313152, -0.1770211, -0.10122734, -0.0496768, -0.2385132, 
0.56881225, 0.195846, -0.25004023, -0.15863225, 0.9789289, 0.37154737, 0.4681324, -0.17930527, -1.1841573, -0.34891018, -0.0026754204, 0.22085825, -0.5018099, -0.69094324, -0.31215873, -0.106699064, 
-0.9618643, -0.22699094, -0.18739952, -0.3908824, 0.1201112, -0.47030076, 0.28228498, 0.08113137, -0.14239553, 0.41424865, 0.026103778, 0.018497864, -0.93907285, -0.936621, -0.6472146, 0.08284843, 
-0.4644044, -0.54635537, -0.37377173, -0.60884756, -0.1300487, -0.525126, 0.22149776, 0.07715127, 0.021594573, 0.087027974, 0.28420612, -0.08159355, -1.0292889, -0.54358256, -0.515158, -0.021593066, 
-0.15459724, 0.1913243, -0.26435828, 0.059889838, 0.41518444, -0.36456344, 0.15127993, 0.15622625, -0.07709743, -0.19763498, 0.22542699, 0.03629029, 0.27115014, -0.014388032, -0.22819337, 0.0052414336, 
-0.55338913, 0.05562023, -0.20104903, -0.35940838, 0.24437682, 0.047346253, 0.15341014, 0.3536922, 0.004307519, 0.0026360052, -0.22768745, -0.02868164, 0.46746978, -0.13209143, 0.07550909, -0.09271084, 
-0.45823532, 0.05628255, -0.40269244, -0.6807795, 0.22013932, 0.1494062, 0.21510457, -0.4676907, 0.50199854, 0.45661682, -0.37242422, 0.19014248, 0.069154404, -0.22733635, 0.08043941, -0.19665793, 
-0.0689457, -0.3667884, -0.10800502, -0.42698267, -0.7099979, 0.18262544, -0.42864895, -0.6547691, 0.30924037, 0.10731516, 0.2025107, 0.61549586, -0.25907668, -0.26138097, 0.11911795, 0.27242386, 
0.05279136, 0.07445771, 0.343778, -0.42393136, 0.19499786, -0.5060753, 0.20118876, -0.2344141, -0.13100909, -0.01874391, 0.2953945, 0.17468023, 0.21523342, 0.0648982, 0.26660725, -0.96180177, 
-0.056693174, -0.38601825, -0.27115178, -0.28395015, 0.024708174, 0.1378736, -0.0034330606, 0.11242494, 0.03147138, 0.6296119, 0.053707667, -0.5391508, 5.5962346e-06, 0.03382145, 0.28963315, -0.97229064, 
-0.022581555, 0.27306345, 0.2114232, -0.2824051, 0.060873568, 0.12952176, 0.023907756, -0.33158842, -0.09798192, 0.31283286, 0.048545405, 0.22664653, -0.12349793, -0.047200277, 0.08914932, -0.008344726, 
0.04589885, -0.36741465, 0.29995176, -0.005703301, -0.49288568, -0.39547256, 0.48463097, -0.79065335, 0.21555625, -0.49482524, 0.2697729, 0.12611605, -0.010770376, -0.2901051, -0.08028186, 0.32905823, 
-0.16294771, 0.31375054, -0.10045898, -0.19096339, 0.29167455, 0.21816641, 0.15348178, -0.3776679, 0.08170263, -0.6830822, 0.16247556, 0.03772823, 0.18248223, 0.4581444, 0.092487164, -0.44551513, 
0.02998929, 0.20344692, 0.20182899, -0.08164432, 0.107161075, 0.00043072918, 0.074298166, 0.035547305, -0.2071225, -0.089239985, -0.37978852, -0.1016317, 0.48294792, 0.35290694, 0.18265255, 0.07796786, 
-0.13147426, -0.43575555, 0.13072099, -0.09556597, -0.4314816, 0.043437503, -0.3132794, 0.061006054, 0.13368115, 0.36878428, -0.37488797, -0.7701515, 0.35017955, -0.102143906, 0.13092189, 0.28663194, 
0.073624186, 0.27816826, 0.26581743, -0.3256098, 0.030940633, 0.0065128864, -0.25176868, -0.34118325, -0.104328014, -0.4789303, 0.09320545, 0.25449696, 0.19870436, 0.14323811, 0.3118071, 0.21211445, 
0.16366981, -0.9109587, 0.101639315, 0.003071735, -0.6446727, 0.19335803, 0.15405867, 0.043206774, -0.25415733, 0.2956617, 0.28197327, 0.12201159, -0.13226104, 0.09745148, -0.010621553, -0.07543513, 
0.22668713, -0.051608253, 0.3974555, -0.25698093, -0.6270399, -0.01047581, -0.0059280386, 0.006885725, -0.25669196, 0.20796497, 0.21167842, 0.025882652, 0.2952623, -0.14206257, -0.1728496, 0.5237115, 
-0.3462047, -0.10949849, 0.20649046, -0.37484103, 0.014812299, -0.2614858, -0.02076513, -0.047156833, -0.3342943, -0.096425965, -0.32106793, -0.12733954, 0.35860673, 0.0004400489, -0.0955337, 0.0028076144, 
-0.34737766, -0.13208538, -0.11325874, -0.13522999, -0.0114408545, -0.3266741, 0.11526253, -0.12323125, -0.15436915, -0.13475804, -0.30802158, 0.038344163, 0.3441742, -0.0066616167, 0.29419827, -0.2863677, 
0.16331472, 0.14433646, 0.031145098, -0.26188493, -0.16564535, 0.38825107, 0.10211417, -0.569098, 0.27339166, 0.03939386, -0.2034323, -0.63379145, 0.16127583, 0.41409147, 0.5967405, -0.13669603, 
0.08714095, 0.086210094, -0.088158056, -0.3526381, -0.3969817, -0.06791663, 0.13663101, -0.2966746, 0.55084765, 0.11041085, 0.0016482747, -0.20138714, 0.13683076, 0.10447918, 0.48009714, -0.1250891, 
0.064496905, 0.08311708, -0.30761778, -0.13082914, -0.10942009, -0.13289683, 0.22279048, 0.13717942, -0.0841435, 0.09482381, -0.35393685, 0.20579699, 0.093286, 0.09743734, -0.086948425, -0.12251722, 
0.008084566, 0.501583, -0.26632556, -0.25175464, 0.1410909, -0.12928331, -0.13921301, -0.040023062, 0.19567679, 0.033243485, 0.5614801, 0.090648845, -0.22699699, 0.17745711, -0.13370384, 0.34434035, 
0.5686635, -0.3478664, 0.20152198, -0.18461199, 0.23217379, 0.028282883, 0.28892532, -0.14257178, -0.66035324, -0.3147677, 0.31529507, -0.11972908, -0.6842684, 0.3147675, -0.08070014, 0.2743604, 
0.11829879, -0.23889194, 0.27301347, -0.3794877, -0.08227602, -0.32582602, 0.27519837, 0.17061646, -0.67784137, 0.03897626, 0.030028783, 0.04172671, 0.22101595, -0.053785566, 0.24905036, 0.1067212, 
-0.04738031, -0.2773809, -0.26527083, -0.19285391, 0.3450773, -0.24730596, 0.19954796, 0.11275922, 0.3504767, 0.012844265, 0.06569132, 0.14455156, 0.4029313, -0.07979339, 0.07770111, 0.05736324, 
-0.01781333, 0.035135917, -0.17405646, 0.05520301, 0.2789072, 0.20122178, 0.14984626, -0.0030193531, -0.034306366, 0.38422614, 0.2548523, 0.10237559, 0.17135048, 0.16299121, -0.20403056, -0.11332027, 
0.7276973, -0.011249179, 0.2190232, 0.14898676, 0.8283715, -0.8539935, -0.29098296, -0.29414794, -0.3890182, 0.079922676, -0.08840464, -0.28730726, 0.016890265, 0.5698311, -0.4426903, -0.04112487, 
0.5358738, -0.14684615, 0.45958596, 0.29398674, 0.54679304, -0.055562, -0.2288185, -0.021322578, -0.57453084, -0.4650865, -0.36167294, -0.18004636, 0.12739624, 0.23217541, -0.3485522, 0.04958632, 
-0.686225, -0.31554726, 0.09002459, -0.104864135, 0.24481183, -0.061636165, -0.16250491, 0.21622688, -0.077004805, 0.13325578, -0.026408177, 0.2844565, -0.9185165, -0.097710125, -0.3444697, 0.17853351, 
0.06122263, -0.26268297, -0.26194197, -0.19377165, 0.58647203, -0.4743344, -0.27864766, -0.3132914, 0.1584707, -0.3025226, -0.7773076, -0.48391852, -0.07056786, -0.15496293, -0.075909995, -0.23498441, 
0.22051914, 0.030564561, 0.24761099, -0.099482454, -0.07497288, 0.18120956, -0.66398716, -0.3389226, -0.21126875, 0.5764932, -0.20341869, 0.14529015, -1.1011089, -0.10945638, 0.04499669, -0.07394335, 
0.10999106, 0.0063435477, 0.11054305, 0.10013943, 0.10053279, -0.3855371, -0.3872101, -0.5504786, -0.5320018, 0.27446994, 0.046561662, 0.027199171, -0.6486691, -0.13492633, -0.025234101, -0.04764983, 
-0.021977434, 0.04490725, -0.13588047, -0.09800148, 0.35484287, -0.4564642, -0.1473422, -0.06413023, -0.59387344, 0.26393276, 0.0872841, 0.12218738, -0.22235975, -0.4509505, -0.120920576, -0.122004084, 
0.20593369, 0.28570655, -0.38467014, -0.27081355, 0.11716413, -0.14845158, 0.026509278, 0.49830636, -0.49781647, 0.17850175, 0.21638498, -0.09247401, -0.460365, -0.18232381, -0.17659645, -0.03891548, 
-0.69898045, 0.29485348, 0.080579735, -0.42209843, -0.2898608, 0.2632798, 0.10970479, -0.02006326, -0.6984463, 0.09763019, 0.14158188, -0.08650189, -0.54774535, -0.44248194, 0.12590055, -0.29201, 
-0.32197922, 0.6288369, 0.17649731, -0.48065355, 0.13800618, 0.61272055, 0.4659885, -0.12296658, -0.17809677, 0.048108935, -0.3516738, 0.05422199, -0.3274722, -0.16213678, 0.044063933, -0.14207506, 
-0.052744433, 0.45213488, -0.23749562, -0.0860981, 0.09671854, 0.43576217, 0.5132327, -0.078799345, 0.09047081, -0.2237644, -0.0070495596, 0.10886648, -0.372129, -0.17755163, 0.14911115, -0.08240889, 
0.49318215, 0.23675409, 0.2774093, -0.05382367, 0.31159914, -0.5634785, 0.270377, -0.48766735, -0.2427389, -0.5860836, -0.040466987, 0.17918666, -0.19775611, -0.42647082, 0.088460594, 0.25041482, 
-0.4302579, 0.06318783, 0.0656391, 0.084718056, -0.36181846, -0.24993531, 0.1264627, 0.32251066, -0.515638, 0.6399342, 0.14193991, 0.33085302, -0.034403194, -0.18537197, 0.1451665, 0.28667134, 
0.084526986, 0.18671918, -0.026540576, 0.08899395, -0.30288666, -0.3876779, -0.03147414, -0.112041906, -0.055431366, 0.5108058, -0.09944433, 0.033450495, -0.08844858, 0.030996969, 0.1230893, 0.11500068, 
0.16980834, 0.31741047, -0.4758564, -0.12943311, -0.14240585, -0.002868788, 0.24186784, 0.103857175, -0.16070956, 0.47437468, 0.09878632, -0.3480019, 0.11276816, 0.3486313, 0.046535384, -0.30688813, 
0.4988713, 0.08838684, -0.15522592, -0.06563023, 0.0037628862, -0.11809932, 0.3268626, -0.015737306, 0.0027688297, 0.22997981, -0.5575323, -0.43604305, 0.2966212, 0.012966238, 0.16520394, -0.38227805, 
0.26521304, -0.01634397, 0.4070895, 0.050443005, -0.018975278, -1.1909542, 0.22409965, -0.55976546, 0.36526734, 0.06637467, -0.77326286, -0.18315852, 0.33332336, -0.31435865, 0.18457772, 0.15664256, 
0.25090092, -0.035173517, 0.46396545, -0.22039954, -0.58059675, -1.0626491, -0.22428736, -0.7147493, 0.23626696, -0.23008996, -0.023549126, 0.027817046, 0.013944147, -0.07189379, 0.24382952, 0.17205296, 
-0.2153931, -0.06674463, 0.04619875, -0.23199427, -0.5707135, -0.4378411, -0.16499837, -0.22655977, -0.12283336, 0.35640287, -0.14181496, 0.03605094, -0.8603137, -0.2598072, 0.11249983, 0.0022445756, 
-0.31453878, -0.24564014, -0.6211424, -0.48471966, -0.032956257, -0.13405187, -0.6061406, 0.5782336, -0.970645, 0.102301784, 0.46352664, 0.5939229, -1.1239005, -0.5891575, -0.40285027, 0.009470808, 
-0.17754996, -0.025977463, -0.62113744, -1.2306702, 0.19016644, 0.47418576, -0.036439337, -0.22853734, -0.6429096, 0.18167624, 0.31940928, 0.22727937, 0.0072235013, -0.55643487, -0.61808157, -0.36007914, 
0.31794697, 0.28553453, -0.7355872, -0.22727416, 0.4255374, -0.027850734, 0.2356797, 0.3230877, -0.54909885, -0.2280348, 0.31137908, -0.27376077, -0.1312518, 0.06016927, -0.83433706, 0.22417356, 
-0.044958852, 0.32759482, -0.43532553, -0.323844, 0.08514215, 0.36414108, 0.32578835, 0.33136195, -0.5428806, -0.17129192, 0.24822132, 0.034074277, -0.024552038, 0.03626223, -0.7518931, 0.27874124, 
-0.004116185, -0.038192574, -0.22343908, -0.25071505, 0.26510563, -0.108794816, 0.49082914, 0.0053634215, -0.03002582, 0.20168142, 0.23760922, -0.12510495, 0.3112391, -0.046368677, -0.57259464, -0.36448148, 
-0.49934542, -0.32442, -0.09036266, -0.12719408, -0.10023489, -0.17340565, 0.3290587, -0.41166982, 0.08997224, -0.33316097, -0.6298282, -0.47639224, 0.2760153, -0.14786398, -0.06883191, -0.31649026, 
-0.36505693, -0.14143, 0.10840714, -0.13496374, -0.12659061, -0.42496777, -1.0547372, -0.6308822, 0.38673523, 0.15424214, -0.837059, 0.543524, -0.29990366, -0.34627423, 0.027700717, 0.048784498, 
-0.26416755, 0.22237578, 0.4497797, 0.3060201, -0.44214717, -0.19329968, -0.8620433, -0.14890796, 0.1581089, 0.21361446, 0.33985522, -0.8819135, -0.31403208, -0.35128984, 0.030567843, 0.09857334, 
0.19314368, 0.8524505, 0.21462645, -0.64621264, 0.3381957, 0.09326713, -0.64852107, -0.211733, 0.00501902, 0.08707133, -0.15679614, -0.5351877, -0.45107707, 0.573468, -0.110504165, -0.24227597, 
0.39092207, 0.035735797, -0.27449152, 0.043894097, 0.066588216, -0.19339374, -0.76416016, 0.15723872, 0.07817552, -0.13615654, 0.11603722, 0.14196007, -0.5649357, -0.021695297, 0.1718946, -0.69845945, 
0.5473975, -0.0197018, -0.11011568, -0.048958126, 0.19979945, -0.043830004, -0.39962563, 0.16962303, 0.05543185, -0.12623912, -0.18622215, -0.18834671, -0.23543312, 0.24669993, 0.26283184, -0.52919483, 
0.3047665, -0.26604897, 0.20792235, 0.034202773, -0.035579436, 0.06598701, 0.0705832, -0.18359488, -0.16352528, -0.12221281, 0.3204744, -0.024387687, 0.013281355, 0.22348255, 0.109236, 0.09141428, 
-0.13443051, -0.276031, 0.12593503, 0.028842185, -0.21809745, 0.06556162, 0.021129634, 0.06195573, -0.35520616, -0.2284619, 0.16118097, -0.25275856, -0.1370992, 0.13045971, 0.09371627, 0.24627247, 
0.22580409, -0.10815605, 0.16727252, -0.11349805, 0.560327, -0.11624177, -0.19671047, -0.21519119, -0.1477381, -0.023083972, 0.06790517, -0.011947678, 0.04124387, 0.020073472, -0.05821455, 0.025900273, 
-0.20620574, 0.013778003, -0.006742066, -0.07571467, 0.0026186176, -0.11637608, -0.67815125, -0.39480722, -0.13870278, 0.037178416, -0.08633245, -0.016124157, -0.010584015, 0.09895088, 0.1442416, 0.072360985, 
-0.36563435, -0.17729193, -0.43211797, -0.06383861, -0.013121115, 0.43470457, -0.34987146, 0.33066633, -0.5886995, 0.14722508, -0.40147996, -0.02552511, -0.12820396, 0.15386115, -0.0128709925, 0.19597772, 
-1.0849335, -0.25431252, -1.7266502, -0.062183037, -0.37426317, -0.9724856, -1.1207541, 0.289469, -0.36785823, 0.06361004, 0.032310396, 0.33005852, -0.10520803, 0.021946687, -0.2761529, 0.46434042, 
0.05667633, 0.10144655, 0.13177866, 0.0089735575, -0.8447646, 0.43718433, -0.38757697, 0.25877124, -0.28584433, -0.004008066, -0.08562839, -0.15742178, -0.6486436, -0.314574, 0.18028687, 0.34067225, 
-0.29055452, -0.061527118, 0.4325109, -0.1252531, -0.7534613, -0.0014554012, -0.29227284, -0.11097734, -0.11549865, 0.023911573, 0.050573952, -0.3175307, 0.20140325, 0.020277018, 0.20148358, 0.5846791, 
0.1264774, 0.011332618, -0.03617779, 0.0868318, -0.08992954, -0.30923212, -0.53284323, -0.016415447, 0.37440044, 0.0748974, 0.14396133, -0.3115904, 0.10462131, 0.24483815, -0.12454427, -0.8534301, 
-0.18408874, 0.06426743, -0.1445305, -0.2560409, -0.1818204, 0.18871228, -0.6078286, -0.08438489, 0.24313088, 0.089734994, 0.07937804, 0.5372088, 0.3068754, 0.2780757, -0.08332236, -0.71324164, 
0.0412936, -0.1523801, -0.3666863, -0.047285, -0.048995536, 0.40269592, -0.01864687, 0.073248096, -0.17111054, 0.38676456, 0.58262074, 0.033940468, 0.08686937, 0.35498843, -0.04178925, -0.94450253, 
0.5213444, 0.04136141, -0.40600732, -0.051037986, 0.01987787, 0.106175244, -0.08361636, 0.3938621, -0.27377468, 0.06787568, 0.20531934, -0.3694617, -0.09400411, 0.3414232, -0.13118914, -0.49847004, 
0.2214754, -0.21423845, -0.29078144, -0.22950725, 0.26611093, 0.31370506, 0.0664971, -0.11165413, -0.5258722, -0.06720211, 0.108633816, 0.020393247, 0.068677425, 0.33400172, -0.40182203, -0.5508868, 
0.13483737, -0.0018727868, -0.31455007, -0.14114048, 0.60458905, 0.06750898, -0.40837905, 0.4596866, -0.37816298, 0.30753112, -0.28030196, 0.33088297, 0.098747455, 0.029188087, -0.50986445, -0.4651036, 
0.42457598, -0.033203702, -0.06697176, -0.5690468, 0.13647456, 0.11094271, 0.08601889, 0.07550464, -0.21458976, -0.13990584, -0.14406182, 0.22645691, -0.17943543, 0.2167328, -0.20632108, -0.16356868, 
0.23983508, -0.12020545, -0.3561512, -0.12096381, -0.023960697, 0.11701843, 0.36773297, -0.45979366, -0.1662192, -0.020276591, -0.26988357, -0.11231669, -0.21228996, 0.18079382, -0.025523936, -0.71322936, 
0.10921248, 0.06653986, -0.5947086, -0.43913063, -0.09823062, 0.22685681, 0.047417264, 0.4534678, -0.015683845, -0.24498457, 0.10642123, -0.39296624, -0.18528526, 0.21999761, -0.27704862, -1.010251, 
0.17364809, -0.08361834, 0.20978242, -0.2444924, 0.098750874, 0.15772742, 0.24759507, -0.15236197, 0.052755043, -0.7898708, -0.023769164, 0.3266515, 0.111320555, -0.12038221, -0.0062140175, -0.3250678, 
-0.19632673, 0.27227768, -0.034284495, -0.20620431, -0.6526083, 0.0688334, -0.3992595, -0.3659, 0.4671123, -0.7865633, -0.3030024, -0.077076614, -0.08727994, 0.3951205, -0.15689903, 0.70343745, 
-0.4884203, 0.3141326, 0.038847275, -0.24063213, 0.7538717, 0.011882934, -0.3732426, 0.003779927, -0.05700658, 0.3957077, -0.15540667, -0.33245543, -0.1181657, 0.26544878, 0.04109819, -0.3375058, 
0.7123296, -0.05792536, 0.22073388, -0.12809737, 0.2707978, 0.26007295, 0.1874759, 0.07213657, -0.8197441, 0.19111758, -0.2557897, -0.3785712, -0.63808405, 0.08508888, 0.09168868, -0.002556068, 
-1.0760113, -0.5288221, -1.281229, -0.08592774, -0.74663454, 0.094067045, -1.1988885, 0.4031567, -0.60826343, -0.36805862, 0.2884758, 0.30285102, -1.6999754, -0.33452427, -0.025079438, 0.7401373, 
0.20226449, 0.33571896, -0.08111834, -0.11543846, 0.19533269, -0.004069516, -0.43376765, -0.33105713, 0.37936664, 0.2756365, -0.81577754, 0.06577979, -0.044833064, 0.1575519, -0.25321907, 0.21572442, 
-0.2530202, -0.11071507, -0.13288842, 0.020032214, -0.15940446, -0.08359316, 0.2579053, -0.21073875, 0.070964634, -0.26914087, 0.39451748, -0.1560172, -0.097217634, 0.14095798, -0.24170724, 0.14985885, 
0.15270191, -0.13040951, -0.029097646, -0.07238195, 0.1541605, -0.27403277, 0.15073346, 0.20070902, 0.089604504, -0.13747665, 0.3602855, -0.31549427, 0.5172279, -0.064444035, 0.41299862, -0.49431893, 
-0.25444734, -0.5491137, 0.48771444, -0.37448663, -0.26242137, 0.27159983, 0.04167256, -0.1905419, -0.42686987, 0.2667899, -0.8928044, 0.25780275, 0.36151946, 0.17050035, 0.26247805, -0.6558228, 
-0.587165, 0.47613543, 0.11352526, -0.38743556, -0.43553048, 0.35306463, -0.11838494, -0.21408637, -0.25234097, 0.29797825, 0.026313722, 0.14362355, -0.083173715, 0.19253154, -0.19334261, 0.5085011, 
0.10510325, -0.34474757, -0.40827322, -0.35183075, -0.59407073, -0.023971507, -0.15774608, -0.38107273, -0.09261919, 0.6186574, -0.3001782, -0.41578433, -0.17244102, 0.17245518, -0.11855908, 0.07366816, 
-0.34967124, 0.8241567, 0.36263186, -0.19868393, 0.11809915, -0.2027175, 0.2932575, -0.3806119, -0.19275928, -0.33635116, 0.15578926, 0.27377668, 0.09472831, 0.6294002, 0.28932357, 0.077924505, 
-0.2977392, 0.1097485, 0.52696353, 0.21825413, -0.05164274, -0.15573469, 0.1927329, -0.47454524, -0.32012233, 0.06749634, 0.27359977, -0.26207677, 0.03213481, 0.09108132, -0.014837108, 0.12633327, 
0.03873852, 0.7086767, -1.2455882, -1.065651, -0.33406505, 0.5472604, 0.42880234, 0.0958361, -0.012928225, -0.059789315, -0.014609437, 0.20181613, -1.8008847, 0.4021227, -0.50582594, 0.734016, 
0.1372992, 0.38497066, -0.2680553, -1.0751295, -0.19134985, -0.05371702, 0.39349502, 0.19745968, 0.1969081, 0.017671037, -0.310424, -0.47553837, -0.271122, -0.008593463, -0.012173676, 0.08106452, 
0.059137393, 0.1767129, -0.2680835, -0.7580416, -0.1350172, 0.26123473, 0.13519122, 0.00030571857, -0.21355918, -0.53403, -0.5261632, 0.16060473, -0.3134156, -0.1685006, 0.29808435, -0.7583853, 
0.46343905, 0.29599315, -0.020284994, -0.81856143, -0.018223781, -0.059411824, -0.4120202, -0.043262325, -0.08858318, -0.9900161, -0.044824224, -0.15119153, -0.1274437, 0.33331957, 0.28595814, 0.066661745, 
-0.08141863, -0.13998242, -0.008319506, -0.262959, -0.033371594, -0.24562232, -0.002487431, -0.0969069, 0.20075259, -0.6873909, 0.19216403, -0.2828524, 0.053091343, 0.20426893, -0.22536096, 0.38886514, 
-0.066146225, 0.17631449, -0.28001365, -0.16831045, 0.66346157, -0.08542284, -0.29795086, 0.4136662, 0.10647843, -0.15145887, -0.40872237, -0.19817105, 0.25197253, 0.16944593, -0.38515496, 0.068972506, 
-0.43563133, 0.19169292, 0.17982328, -0.13199197, 0.562438, 0.086294845, -0.11996134, 0.043191426, -0.25297946, -0.5712891, 0.40582272, 0.23229232, -0.08179246, -0.123140536, 0.051093124, -0.34769177, 
-0.36980277, -0.20439532, 0.13079512, 0.10269142, -0.38276282, -0.19127877, -0.7310297, 0.09187716, -0.2128339, 0.19438927, -0.22287746, 0.42179963, -0.116490945, -0.5372422, 0.21293381, -0.32034624, 
0.50567, 0.06714436, -0.36903036, -0.14016026, 0.32087964, 0.49678433, 0.047943544, -0.10388192, 0.080986075, 0.10414104, -0.48146746, 0.030763213, 0.18196407, -0.03780072, -0.36674502, 0.168762, 
0.0855595, -0.13369204, -0.14290844, -0.03498493, 0.15188749, 0.2064415, -0.019921182, -0.40569404, 0.13445248, 0.13230485, -0.009480511, 0.21746567, 0.21667545, 0.15623687, 0.1638767, -0.16885014, 
0.15927495, -0.14782278, -0.020398272, 0.13307324, 0.175892, -0.16901666, -0.3198067, -0.3074054, -0.1137963, 0.63686806, 0.079022564, 0.2979649, 0.0994748, 0.209534, -0.005119448, -0.15853013, 
-0.050196018, -0.16531406, -0.08092345, 0.009785476, 0.012673601, 0.05150655, -0.52515215, -0.08343661, -0.2002753, 0.33328864, 0.1533426, -0.07806696, -0.117266074, 0.21107396, -0.104344875, -0.031590894, 
0.10350374, -0.07952878, 0.22639078, -0.13905674, 0.3056784, 0.15224005, -0.7515902, -0.60730916, -0.21164393, -0.005467052, -0.066263266, 0.08166886, -0.27437782, -0.14113037, -0.31548554, -0.27169716, 
-0.11754057, -0.11428936, -0.16240153, -0.06146689, -0.21163194, 0.023797002, -0.4708652, -0.70020854, -0.23603256, -0.8818812, -0.1958814, 0.0972115, -0.53022736, -0.38260418, -0.5964219, -0.08029339, 
-0.15103246, -0.25029984, -0.9864366, -0.13484433, 0.3478813, 0.026569108, -1.0820974, -0.09819072, 0.041535635, -0.38898218, -0.20458491, 0.118064374, -0.5089759, -0.41429344, -0.51956314, -0.114302695, 
-0.34732687, -0.29951426, -1.4410874, -0.10549117, -0.98323303, -0.087728105, -1.3975428, -0.07089485, 0.25445315, -0.5925777, 0.15529908, -0.052958228, -1.7455324, -0.40850884, -0.43502203, -0.16356362, 
-1.1589596, -0.44472453, 0.1928463, 0.20558158, 0.0038194426, 0.1764154, 0.220416, -0.006054304, 0.013908277, -0.23877344, -0.63121986, 0.031756274, 0.2857232, -0.47409144, -0.05201413, 0.2988875, 
0.22189091, -0.48408312, -0.10941825, -0.34119698, -0.03987511, 0.14910594, -0.0059303483, -0.27603713, 0.26745316, -0.17560653, -0.059546273, -0.5717478, -0.025568966, 0.08769465, 0.23023443, -0.3092287, 
-0.24463889, -0.02922615, -0.22645746, -0.4939879, 0.15762252, 0.13695864, 0.27210596, -0.65301037, 0.33942685, 0.29646102, 0.10949785, -0.12650785, 0.23163116, -0.16473475, 0.22310422, -0.25265318, 
-0.14858894, 0.08751869, -0.056688536, -0.38329908, 0.2917115, -0.41297182, 0.660709, -1.1729506, -0.13493834, -0.0056277337, 0.37223223, 0.5129786, -0.0934913, -0.5422821, -0.11661215, -0.52936053, 
-0.009316595, -0.016434925, 0.04172779, -0.7805922, -0.2966296, -0.013150948, 0.13481544, -0.55127174, -0.032811865, 0.61216503, -0.19044939, 0.3038769, 0.017946431, -0.57872707, 0.32833397, -0.30475935, 
-0.41692334, 0.15091398, 0.21658368, -0.5542974, -0.06533125, 0.17980288, -0.5739226, -0.13534236, 0.047153007, 0.44316933, -0.1403676, 0.16943704, 0.04005656, -0.21674521, 0.39693642, 0.20253804, 
-0.21814218, 0.35312682, -0.31404328, -0.13263226, 0.6866792, -0.054285277, -0.22293925, 0.17387016, 0.29541805, -0.05559105, 0.47281343, 0.31542662, -0.16248906, -0.06019542, -0.08461523, -0.28024444, 
0.2032664, 0.07681569, -1.013282, -0.7839793, -0.14523068, -0.1896263, 0.50145334, 0.20181422, 0.06491367, -0.2723329, -0.32157072, -0.35268322, 0.2159459, 0.42408353, -0.39136857, 0.41309786, 
-0.24004398, 0.15006909, 0.09387433, -0.060476243, 0.19645901, 0.34888133, -0.029986124, 0.13259682, -0.13208947, -0.071669355, 0.2210642, 0.2492699, 0.054917116, 0.1839254, -0.18400708, -0.0074051796, 
0.05945046, 0.17766874, 0.020076271, -0.095203765, 0.26440364, 0.0068583237, -0.11805979, 0.3879141, -0.29892945, 0.17213447, 0.10629622, 0.3030553, -0.13617976, -0.12881127, -0.26599014, -0.11377212, 
0.07172763, 0.08886214, 0.37699178, -0.07637836, 0.40006256, -0.009612562, -0.29488596, -0.032592576, -0.4542826, -0.094738446, 0.031171087, 0.08224199, -0.50166714, -0.40841073, -0.3347257, -0.33049664, 
0.29306066, 0.09327557, 0.12799326, -0.16245408, 0.26202548, 0.20114763, -0.7284481, 0.035545785, -0.7108312, -0.0052790097, -0.14131661, -0.27168447, -0.8947826, -0.44869, -0.2156674, -0.1322726, 
0.43104646, -0.23627813, -0.24699411, -0.006365304, 0.4542617, -0.10626216, -1.5075227, -0.21773854, -0.2807445, -0.13908201, -0.13858804, 0.1489294, -0.98511624, -0.6735814, -0.20262644, 0.03176104, 
0.3324193, -0.44289643, -0.35203132, -0.030962786, 0.19808955, -0.021083107, -1.0291114, -0.23037548, -0.07162186, -0.09915027, -0.049878124, -0.057296533, -1.3097359, -0.6722711, -0.19865192, 0.06350073, 
0.30865523, -0.37117437, -0.58885413, 0.01574791, -0.24039097, -0.15560743, -0.2443339, 0.020447083, 0.29061952, 0.14042298, -0.06849328, -0.11590762, -1.3547199, -1.3600816, -0.23370577, 0.09741528, 
-0.014136985, -0.4559154, -0.3461518, 0.004360463, -1.3333418, -0.23270783, 0.07068726, 0.253531, 0.060073663, -0.03305521, 0.10346921, -0.011869906, -1.4044739, -1.2613186, -0.24548191, -0.09525684, 
0.32973924, -0.108096085, -0.051947225, -0.14731039, 0.15923907, 0.49269077, 0.059171986, 0.22084096, -0.25172755, -0.40242794, -0.095758446, -0.42380494, 0.079576835, -0.13708948, -0.07693087, 0.23255424, 
0.060092922, -9.967637e-05, -0.026429689, -0.17460528, 0.12832958, -0.28776678, 0.1366333, 0.14572076, 0.07640897, 0.045606248, 0.24341778, 0.5044616, 0.0912527, -0.23170526, 0.34900552, -0.2917816, 
-0.35846555, -0.07590568, 0.04592052, -0.11081718, -0.15688428, -0.36776757, -0.18853645, -0.07515653, -0.31377843, -0.2996729, 0.0012719774, 0.33624756, -0.16313474, 0.34205312, -0.013753394, -0.028593335, 
0.24666831, 0.19944249, -0.22837387, -0.446041, -0.2461198, -0.03610563, -0.009304118, -0.045592565, 0.29902285, -0.7455161, 0.16951144, -0.09830422, 0.04554563, -0.021803576, -0.1676994, 0.22022668, 
0.19362393, -0.18617927, -0.014264377, 0.050082296, 0.17508097, 0.10809173, -0.23077314, -0.4050661, 0.3434903, 0.16317278, -0.23416595, -0.1443115, 0.23760723, 0.34809256, -0.19743375, 0.0012918238, 
-0.16344541, 0.45837644, 0.19269472, -0.1657282, 0.4120682, 0.009826206, -0.2835616, 0.10592764, 0.14129291, 0.45697328, -0.2728214, -0.50412416, 0.22088374, 0.17978786, 0.119225085, -0.46230876, 
0.08118231, -0.04375851, 0.37179938, 0.066175036, -0.15025172, 0.30912682, -0.4807634, -0.617817, -0.78903097, 0.39748454, -0.33782983, 0.06148677, 0.1000263, 0.31183252, 0.25963956, 0.010414715, 
-0.0801136, -0.2332039, 0.4364096, -0.31328177, -0.25377107, -0.05015528, -0.14191145, -0.3827385, -0.11236238, -0.040242232, 0.24137737, 0.44786173, 0.17975175, -0.47547448, 0.08930275, 0.5891988, 
-0.21902977, 0.1308997, -0.0047112517, -0.26101044, 0.43898416, 0.22603211, -0.28553447, -0.17773235, -0.009696664, 0.35122445, -0.102533594, -0.1043803, 0.09099274, 0.71104777, -0.29187986, 0.037522376, 
0.31419787, -0.22750443, 0.02579248, 0.0021766692, 0.10152699, 0.2300941, -0.2500843, 0.15981978, -0.23798937, 0.2890644, -0.39912137, 0.37285146, 0.31665853, 0.14228073, -0.19474602, -0.105460174, 
0.078395665, -0.1431204, -0.21142718, -0.23788169, 0.122225806, -0.28171846, -0.31097454, 0.2643953, -0.41446593, 0.5105328, -0.3640261, 0.022004295, -0.19679776, -0.11733649, -0.29490533, 0.008184318, 
-0.1698623, 0.08724195, -2.1241696, -0.1608947, 0.49833667, -0.22697912, -0.3517517, 0.18533513, 0.040271148, 0.10429404, 0.058183163, -0.17691822, -0.14199176, -0.014349967, -0.3364366, 0.1591358, 
0.016268024, 0.18847704, -0.24953438, -0.09212408, 0.3302292, 0.0609994, 0.053472802, 0.41746947, -0.10058645, 0.07074748, 0.19639122, 0.08657007, -0.632511, -0.56439185, -0.3399506, -0.026607122, 
-0.19367677, 0.067455135, 0.16968943, -0.36051804, 0.02423512, 0.4807885, 0.6373416, 0.2141914, -0.1258956, 0.016356517, 0.14753862, 0.2251329, -0.68697506, -0.13619915, -0.21952751, -0.30916622, 
0.4633777, -0.03461929, 0.25120163, -0.37883687, -0.27814007, 0.13331825, -0.384782, -0.48126927, 0.24015246, 0.19395351, 0.21160896, 0.19286098, -0.7255502, 0.18006846, -0.002282559, -0.30140886, 
-0.76532185, 0.011953497, 0.23476952, -0.11933348, -0.47904053, -0.036873348, -0.40208665, -0.37948605, 0.15674749, -0.66045386, -0.29489923, 0.07198261, -0.016162647, -0.06480896, -0.0083271405, 0.52322286, 
-0.102022566, 0.05521547, 0.16530499, -0.09230071, 0.11316737, 0.092938274, -0.17312512, -0.29140347, -0.1640463, 0.28688672, -0.1724172, 0.22665876, 0.2118674, 0.23185258, 0.2718834, -0.2652754, 
-0.15072054, 0.14620371, 0.08087282, -0.083585896, 0.20633337, -0.029109525, 0.08010358, -0.11016036, -0.1338093, 0.15914775, 0.014417569, -0.2078102, 0.20685841, 0.14271595, 0.18225591, -0.24278797, 
0.067998655, -0.008011902, -0.021388464, -0.07219109, 0.30037662, 0.11487696, -0.19395688, 0.11772358, -0.06779088, -0.024438852, 0.102564976, -0.07858556, 0.24092215, -0.17815201, 0.038266238, -0.015934208, 
0.015531262, 0.24427465, 0.11419495, -0.07457602, 0.2868219, 0.18634248, -0.36941612, 0.108864814, -0.1408578, 0.23700336, -0.0070684664, 0.40138507, -0.026959497, -0.2455676, 0.05115562, 0.051362142, 
-0.325494, 0.03568543, 0.12688662, 0.112941496, 0.27452165, -0.38174906, -0.3627951, -0.052452717, -0.10934011, 0.08847961, 0.0533958, 0.19778077, -0.11990306, -0.42257273, -0.08898634, 0.24311069, 
0.279878, -0.060029693, -0.06880301, 0.028726209, 0.39793137, 0.07660043, -0.5162428, 0.038633592, 0.028988808, -0.26328275, 0.12226599, -0.006360384, -0.78646594, -0.57884955, -0.09421077, 0.1443569, 
0.6300306, -0.08544998, -0.6301668, -0.04825462, -0.25344592, -0.12819172, -1.1343428, -0.0296516, 0.17134579, -0.20658726, -0.12199148, -0.36324698, -1.7923175, -0.78406143, 0.015184778, -0.025245072, 
-0.2757411, -0.88896227, -0.47050652, 0.0045190486, -0.8731782, -0.9465348, -1.2128944, -0.16637379, 0.21768108, -0.06957732, 0.038235147, -0.14676426, -1.2138515, -1.0820653, 0.16746792, -0.0728926, 
};

const float MyModel_layer_4_bias[] = {
-0.23308176, 0.016957125, 0.03226261, 0.2580196, -0.098975286, -0.67088807, 0.26764455, 0.13700882, -0.414362, 0.06591322, 0.87794816, 0.23242459, 0.58150816, 0.27077484, 0.17825942, 0.1415318, -0.13538216, -0.6641526, 0.3965762, -0.0048682033, 0.4186029, 0.10651869, -0.0011406576, -0.23834796, -0.14490055, -0.30618936, 0.46515906, 0.035531394, 0.7079357, -0.40021402, -0.048367266, 0.22411664, };


const float MyModel_layer_8_weights[] = {
-0.005120685, 0.017473657, -0.00058091624, -0.00691274, -0.006021657, 0.030699788, -0.0078083756, 0.0069325357, -0.006106869, -0.006122341, -0.01091061, 0.00041519615, -0.078224175, 0.03766704, 0.015734352, 0.0042486987, -0.0022550642, 0.013635262, -0.025654964, 0.001532877, 0.0021185696, 0.00037426624, -0.008503443, 0.0019725575, 0.007882649, -0.014937647, -0.003274499, 0.0011408129, -0.01795362, -0.0052676983, 0.028842868, -0.012578187, 0.00481332, 0.007929537, -0.00072222797, 0.015675649, 0.03413342, -0.008593882, -0.00077484216, -0.029211063, 0.013726008, 0.013502004, -0.043956302, -0.011826547, 0.0006967171, 0.0017916515, 0.0008357731, -0.022891227, -0.0030990173, 0.0014799454, -0.0032256756, -0.0010739184, 0.0025894647, 0.011322221, -0.023369633, -0.01096099, -0.008862221, 0.00034936794, -0.004102338, 0.002529202, 0.010123571, 0.042809118, 0.36730078, 0.45454174, 0.1361567, 0.037887763, 0.0069462066, -0.0002558565, -0.0009997026, -0.009093722, -0.0048728315, 0.0027328928, -0.040653702, -0.008061786, -0.020809654, -0.041326642, -0.04429717, -0.051584236, 0.0011008708, -0.010326246, -0.0057070353, -0.010478012, -0.0004527509, 0.009124648, 0.023237256, 0.021026563, 0.0051269275, 0.033157915, 0.009281235, 0.0046324274, 0.006529218, 0.0043682256, -0.0020552822, -0.0018211157, -0.007752857, -0.015068081, 0.026356133, 0.003349706, -0.0041884296, -0.011121403, -0.006504399, -0.007459052, -0.017605022, -0.00021625674, -0.0064589283, -0.0013325595, -0.004288979, 0.0029549815, 0.0069730943, -0.013734244, -0.003511563, -0.0050590346, -0.008818175, -0.00720417, -0.008204469, -0.016128676, 0.022569, -0.03496654, -0.0028482955, 0.007074331, -0.005725372, -0.000504345, -0.005646298, -0.00562746, -0.005046142, 0.0004890467, -0.00918623, 0.031660613, 0.009812939, -0.024445333, -0.015374476, -0.005846854, 0.02960277, -0.0068983766, -0.00025925436, 0.0023679303, -0.010663278, -0.010687479, -0.12483833, -0.14144677, -0.006837458, 0.0015768798, 0.00040885236, -0.0044413237, 0.03486829, -0.0078812055, -0.0021496508, -0.009672324, -0.013277404, 0.0027980073, -0.10521424, -0.0863763, -0.014232312, -0.017489566, -0.00035916432, -0.0072067124, 0.055623796, -0.034408487, -0.037058838, -0.022657027, -0.015667377, -0.009015332, -0.041818082, 3.9448343e-05, 0.0027531923, -0.011947438, -0.017787138, -0.0063814213, -0.034903362, -0.047887087, 0.17003399, -0.006779394, -0.027620962, -0.019619277, -0.03636474, -0.007394219, -0.0067613125, -0.0023435152, -0.006250456, -4.282205e-06, -0.05443792, -0.014736651, -0.0067115566, -0.0045441766, 0.009566404, 0.0054793097, -0.028520837, 0.0002970476, 0.14837696, -0.038175516, -0.02144213, -0.016099688, 
-0.05320358, -0.021508874, 0.040236216, 0.26478586, -0.008048635, 0.012295096, -0.06744074, -0.010888354, -0.02816537, -0.04426814, -0.021295916, 0.0036697343, 0.06326222, -0.012021207, 0.0026499697, -0.050088935, 0.039309137, 0.07139385, 0.054587338, 0.02016377, 0.009459354, 0.047732428, 0.006231201, -0.017443728, -0.0048145014, -0.0337586, 0.019870955, 0.006791159, -0.02283451, -0.046504457, -0.020414377, -0.010175415, -0.1326879, -0.06574517, 0.024323571, 0.032007325, 0.06566533, -0.0020441464, -0.0066185687, -0.067049645, 0.07674219, 0.048240103, 0.04729165, -0.039440125, 0.008474283, 0.015214119, -0.0026978937, 0.0054683965, -0.021265028, -0.031998206, -0.08757007, -0.19444945, 0.11199593, 0.06251324, -0.0946621, -0.012160852, 0.06759432, 0.0034086097, -0.019099383, -0.013073198, 0.062265255, -0.007347268, -0.13260038, -0.22165051, 0.022512838, 0.15429391, -0.09376309, -0.038167167, -0.057070076, -0.038020127, -0.015494632, 0.024040751, 0.0329532, 0.014807434, -0.028013986, -0.02474537, 0.0011641956, -0.0046471194, 0.03364521, -0.059907075, -0.053319115, -0.06303112, -0.078065276, -0.057470582, 0.009459522, -0.007993556, -0.061430216, 0.013865517, -0.027039928, -0.12055085, -0.022152208, -0.049472086, -0.025223974, -0.008797005, 0.00073631876, -0.012894509, -0.015430323, -0.058158554, -0.06448549, 0.034357917, 0.02949309, -0.0064978115, -0.0071744695, -0.01561494, 0.0050175283, -0.020946117, -0.0075218417, -0.004488079, -0.092020296, -0.063244596, -0.0027609344, 0.13996422, -0.012144539, -0.014403868, -0.050138492, -0.050497375, 0.015779112, 0.25396675, -0.08357774, -0.02450705, -0.008730693, 0.01840831, -0.035163753, -0.045798413, -0.06609618, -0.041220717, 0.2167987, 0.24703035, -0.008178389, -0.13799271, 0.014655868, -0.009291456, 0.11971379, 0.11948823, 0.1525151, -0.026354678, 0.0021806299, -0.014661058, -0.050363433, 0.007132225, -0.008058226, -0.08138737, -0.042906042, -0.019407429, 0.03138785, -0.109010674, -0.012935953, -0.03370842, -0.017675987, -0.015379518, -0.08551464, -0.084138624, -0.039128482, -0.11657231, 0.011415142, 0.024057962, 0.086633675, 0.005031395, 0.017043673, 0.111055665, 0.2363699, 0.009055989, 0.057811555, 0.014489039, -0.026355136, -0.028442701, 0.013472899, 0.015840042, 0.04807734, -0.026928999, -0.05917101, -0.07778323, 0.33374035, 0.12548983, -0.06396674, -0.03614281, -0.03751787, -0.050185442, -0.04221694, 0.00086724, -0.08007905, -0.053678766, -0.027078088, 0.024370767, -0.053723592, -0.028783219, -0.031208634, 0.08591622, 0.3405209, 0.26927918, 0.05725645, -0.025450256, 
-0.043365326, -0.088136956, -0.1267828, -0.15714143, -0.25331122, 0.044740077, -0.10252734, -0.07800712, 0.025935749, -0.030384129, -0.069612935, -0.058720175, -0.07766643, 0.093081355, -0.14404885, -0.033881217, 0.012325051, 0.024602387, -0.16395368, 0.047279056, 0.023001071, 0.026879974, 0.055343293, -0.033057023, -0.0073948726, 0.0019726532, 0.013915728, 0.017395902, 0.0046013054, -0.04175597, 0.093384616, 0.039697554, 0.1919763, -0.015341056, -0.13262667, 0.008134593, -0.01617141, 0.03800713, 0.13414928, 0.37210116, -0.113673195, 0.27048212, -0.08571857, -0.09173118, -0.10482339, -0.061015323, -0.05979313, -0.043600757, -0.07258706, -0.05219847, 0.3083339, 0.24015349, -0.08073693, -0.06692361, 0.05291335, 0.10257324, -0.02943557, -0.08101851, 0.029735323, -0.002870453, -0.048404243, -0.029021911, -0.060482573, -0.063829586, -0.05114874, 0.0537064, -0.030264268, -0.06779193, -0.09978862, -0.010739662, -0.007515974, -0.004844184, -0.05119056, -0.020353379, 0.09311045, 0.2282047, -0.021624936, -0.009410576, 0.075648256, 0.06998977, 0.021215146, -0.13242754, -0.2101736, -0.011553189, -0.03246689, 0.05523561, 0.3403299, -0.19642432, 0.010712651, 0.17606023, 0.20301662, -0.044187754, -0.06158552, -0.06851664, -0.07398389, -0.034131084, -0.1258858, 0.029148584, 0.016848259, 0.027936172, 0.05152079, 0.0005834105, -0.21230745, -0.21469119, -0.05301789, -0.01926236, -0.015703034, 0.06840572, 0.100622475, 0.08541752, -0.04549181, -0.09672715, 0.12684439, 0.16393268, 0.05681622, 0.123102166, 0.0050439616, -0.13558294, -0.106816754, -0.06473213, -0.005979481, -0.13890357, 0.18956888, 0.3418158, 0.016601674, -0.086052686, -0.14447147, -0.22629058, -0.04327005, 0.014473776, 0.059437517, 0.06635484, 0.10079889, 0.04705405, -0.1702319, -0.049722247, 0.25460848, -0.0876765, 0.20514943, -0.09970192, 0.07070681, 0.028373117, 0.3542408, -0.07127963, -0.051763993, -0.11058499, -0.0159697, 0.07387775, -0.07405233, -0.07754646, 0.20429245, 0.0243087, -0.077111855, 0.28870177, -0.04255237, 0.25692552, -0.05886471, 0.1742889, -0.06747113, 0.045656092, -0.061473586, 0.07811244, 0.014649315, -0.052639633, -0.072822504, 0.09818165, -0.040510587, -0.013127089, -0.08487458, -0.057954136, 0.0019987659, -0.005407296, -0.098408975, 0.041991025, -0.011049478, -0.10764596, -0.03160516, 0.020241186, -0.083289444, -0.11903513, 0.13516863, 0.10464844, 0.28221402, 0.024318652, 0.13061188, -0.06691176, 0.12604937, 0.017069392, -0.08866867, -0.08732135, 0.04815915, 0.040112156, 
0.29389283, -0.017829733, 0.10810289, -0.12273281, 0.30621508, -0.106839575, -0.13179263, 0.0032582653, -0.0148418285, 0.12638564, -0.07384742, -0.15160139, 0.056039028, -0.17177546, 0.38598248, 0.2352082, 0.1811106, 0.26148802, 0.29314253, -0.044025853, -0.047165263, -0.32671893, -0.099317886, -0.07158617, -0.197565, -0.028806092, -0.048933797, -0.22885247, -0.1422882, 0.062601894, 0.089208215, -0.11349249, -0.011878057, 0.0046850755, 0.11030074, 0.48970655, -0.19049634, 0.34830382, -0.09989468, -0.20899199, 0.03098161, -0.19344178, -0.029583352, 0.00041571615, 0.12801374, -0.19619699, 0.00023820091, -0.24584979, 0.037109967, 0.045679603, -0.21081541, -0.011686213, -0.0080371285, -0.2933684, -0.064052925, -0.013636466, -0.07563092, 0.2573146, 0.11477455, 0.21227863, 0.019838449, 0.06098125, -0.13708843, -0.096212424, -0.043513555, -0.14858337, 0.11096959, 0.24308354, 0.2757234, 0.14496088, -0.030288508, -0.35221452, 0.020339496, 0.026942123, -0.05861074, -0.17874926, 0.51554, 0.5016634, -0.06235093, 0.037979677, 0.088141814, 0.17057993, 0.38475022, 0.15542737, 0.043105137, -0.096082784, -0.26511738, 0.087632455, 0.008772013, -0.100206405, -0.020364055, -0.14403935, 0.0752127, 0.04250051, -0.010916716, -0.1874881, 0.067202024, -0.26353514, 0.022837458, -0.056519866, -0.20589016, -0.13445668, 0.43419436, 0.16311856, 0.09268821, 0.08882252, -0.15149462, -0.19435765, -0.044146564, 0.009221653, 0.09983565, -0.03522767, 0.08275049, 0.02722445, 0.04176246, 0.16424157, -0.009054836, -0.08331853, 0.22386262, 0.079121605, -0.12410632, 0.08588723, -0.12703888, -0.24771722, 0.37413612, 0.424048, 0.0098497635, -0.016498728, -0.0905384, 0.30415174, -0.031057084, -0.010159106, -0.08299035, -0.080163784, 0.110633396, -0.06816853, -0.12647393, 0.15909028, 0.10312539, -0.044178776, 0.25854746, 0.08518832, -0.3016611, 0.12928426, 0.019263918, -0.07591193, -0.06401782, -0.022496505, 0.10550383, -0.17514838, 0.011097705, -0.21166821, 0.12549411, -0.1689924, 0.08242101, -0.29027125, -0.036559343, -0.14263521, 0.13619147, -0.10809095, -0.17869195, 0.13958067, -0.09988809, -0.045655865, 0.11940951, -0.0875465, -0.10374139, -0.3683877, 0.08998354, 0.03651939, -0.10748472, 0.03595152, -0.16465268, -0.10077462, 0.026910063, 0.048158996, 0.054789554, -0.010356613, 0.20035051, -0.121031865, -0.0049214666, -0.09847821, -0.20278625, -0.052152477, -0.07886611, 0.1957957, -0.053528473, -0.074007586, 0.0204678, -0.09233883, 0.05165349, 0.029447375, 
-0.19710736, 0.10970617, -0.014755939, 0.019288555, -0.035042785, 0.031708866, 0.3096996, 0.07914345, 0.022347286, -0.043975472, 0.17924695, 0.2027984, 0.033865947, 0.05550331, -0.2578438, -0.15601678, -0.2326909, -0.366913, -0.15981835, -0.021020565, 0.016994596, 0.2510277, 0.048231974, 0.12590219, 0.2105866, 0.07239781, 0.018173136, 0.20368117, 0.17419758, 0.03381416, -0.19088489, 0.09994878, -0.04797511, 0.069857165, -0.0063437666, -0.53249854, 0.10700255, -0.37786627, -0.02331565, -0.06751104, -0.005991619, -0.13955249, 0.11053153, 0.14239614, -0.04003957, 0.23810025, 0.06506648, 0.30895323, 0.06572701, 0.03499078, -0.008340747, -0.032870036, -0.024121929, 0.29611525, 0.12315162, -0.06562855, 0.04425629, -0.17330666, -0.121052004, -0.20193844, -0.043793842, -0.067038015, -0.04051861, -0.0744994, -0.066401996, -0.09650132, 0.01141101, -0.13474084, -0.11700805, -0.092272855, 0.062436108, 0.33881298, 0.031812776, -0.007890096, 0.010462092, 0.012819759, -0.4497583, -0.4396489, -0.043030694, -0.038259193, -0.04195189, 0.043205943, -0.09354615, -0.08854513, -0.035523515, 0.027969822, -0.017629715, 0.06435031, -0.0031660828, 0.037339173, -0.16081232, 0.23448063, 0.011616405, 0.036531087, 0.08974556, 0.24981056, 0.04736799, 0.28858534, 0.028660484, 0.0038217304, 0.13249561, 0.14567545, -0.19678639, 0.06486559, -0.040256985, -0.048385, 0.17223877, 0.13603559, 0.028261853, -0.016836178, -0.04623913, -0.005026699, -0.19148451, -0.17004043, -0.044205517, -0.21989866, -0.03959903, 0.0018219918, -0.030785851, 0.005233885, 0.14062138, 0.03606564, -0.024373576, -0.047087446, -0.31565127, -0.2953728, -0.07989865, -0.031016532, 0.13042077, -0.15859288, -0.027810734, -0.04250265, -0.16623463, -0.078521065, -0.090333305, 0.14189427, -0.1172181, -0.046591487, -0.14219435, 0.27157056, -0.3208217, -0.036515508, -0.005353014, -0.04058836, -0.03060488, 0.30475372, 0.090978116, -0.0035611806, -0.005196506, 0.26585957, -0.03309838, 0.35006133, 0.0005449973, 0.0065202224, -0.05216961, 0.019737724, -0.046689816, -0.004804079, -0.048623424, -0.026787432, 0.013677335, -0.21939182, 0.06622317, 0.08583935, -0.01978721, 0.030492205, 0.1472196, 0.37051496, -0.019385856, 0.1022771, -0.0065475246, 0.056264106, -0.04445518, -0.04635576, 0.08376251, 0.10722478, 0.015868414, 0.043500416, -0.07145593, 0.23936765, 0.0029797477, 0.0636443, -0.046499576, 0.00439318, -0.008451203, -0.110594064, -0.0100504765, -0.027669808, -0.41794124, -0.053969696, -0.13690972, -0.031818748, 
};

const float MyModel_layer_8_bias[] = {
0.04983069, 0.11960748, 0.17822906, 0.30459937, 0.3500691, };




MyModel::MyModel()
	: ModelInterface()
{
	init_buffer(2048);
	total_macs = 103965;
	input_channels = 4;
	input_height = 1;
	input_width = 512;
	output_channels = 5;
	output_height = 1;
	output_width = 1;
}

void MyModel::forward()
{
	Conv1d<512, 4, 8, 8, 4, 0, float, float, float, 0, 1024>(
		output_buffer(), input_buffer(), 
		MyModel_layer_0_weights, MyModel_layer_0_bias);
	swap_buffer();

	ReLU<float, 1016>(output_buffer(), input_buffer());
	swap_buffer();

	Conv1d<127, 8, 16, 8, 4, 0, float, float, float, 0, 1024>(
		output_buffer(), input_buffer(), 
		MyModel_layer_2_weights, MyModel_layer_2_bias);
	swap_buffer();

	ReLU<float, 480>(output_buffer(), input_buffer());
	swap_buffer();

	Conv1d<30, 16, 32, 8, 4, 0, float, float, float, 0, 1024>(
		output_buffer(), input_buffer(), 
		MyModel_layer_4_weights, MyModel_layer_4_bias);
	swap_buffer();

	ReLU<float, 192>(output_buffer(), input_buffer());
	swap_buffer();

	ChannelReorder<float, 32, 1, 6>(output_buffer(), input_buffer());
	swap_buffer();

	Linear<192, 5, float, float, float, 0, 1024>(
		output_buffer(), input_buffer(), 
		MyModel_layer_8_weights, MyModel_layer_8_bias);
	swap_buffer();

	swap_buffer();
}
