#include <MyModel.h>


const float MyModel_layer_0_weights[] = {
-0.22793981, 0.012439014, 0.14539652, 3.066773e-39, 
-0.08157128, 0.061759096, 0.15240891, -2.612942e-39, 
0.059884347, -0.010623506, 0.08326438, 4.789406e-39, 
0.016923202, -0.12166648, 0.086054586, 1.22371e-40, 
0.040503368, -0.04308154, -0.01770211, 1.8347e-40, 
-0.04409431, 0.07608299, 0.044563714, -1.221111e-39, 
0.050611924, 0.17470916, 0.029335978, -1.46175e-40, 
0.16369276, 0.17268027, -0.03676838, -5.359272e-39, 
0.07732355, -0.0620294, 0.057525244, -1.854022e-39, 
-0.0922074, -0.07978506, -0.028920742, -2.599098e-39, 
-0.1576117, 0.057267744, -0.021102732, -4.590299e-39, 
-0.13239115, 0.1493643, 0.0073500224, -4.73769e-40, 
-0.02538718, 0.1942179, -0.0815057, 4.18146e-40, 
0.082053974, 0.08398488, -0.035811014, -5.225595e-39, 
0.008295597, 0.012203035, -0.07749395, -5.771252e-39, 
-0.112171315, 0.029753502, -0.09435765, -3.815999e-39, 
-0.30447608, -0.04413111, 0.013735477, 6.091698e-39, 
-0.20183928, 0.13571553, 0.0051798807, 4.69277e-39, 
0.061104357, 0.12398643, 0.042435437, 6.45839e-40, 
0.068361826, -0.042863995, 0.021831825, -1.891017e-39, 
-0.04368329, -0.100250475, -0.034253072, -3.0993e-41, 
-0.25189912, -0.08240632, 0.01997766, -6.80252e-40, 
-0.1918347, 0.050402157, -0.003333795, 7.89838e-40, 
0.10275297, 0.065682665, -0.057419587, 1.914883e-39, 
-0.0598062, 0.1984387, 0.070543066, -4.274189e-39, 
-0.021843383, 0.21095054, 0.10737641, -3.87243e-40, 
0.0043708705, 0.16004507, 0.053588253, -5.72154e-39, 
0.029441366, 0.15497603, 0.025470508, 8.0655e-41, 
0.101337105, -0.04928696, -0.11267067, -4.04448e-40, 
0.14541763, -0.047779866, -0.19718522, -2.83892e-40, 
0.13329974, -0.08398989, -0.14941743, -6.02313e-40, 
0.123524345, -0.16177526, -0.16744477, -5.83719e-40, 
0.052037463, 0.019032268, -0.026806766, 2.047654e-39, 
-0.12899862, 0.14685787, -0.08715795, 2.798785e-39, 
-0.039773364, 0.32182565, -0.092796244, 3.03963e-40, 
0.14033887, 0.32136443, -0.044582423, 5.16639e-40, 
0.11058574, -0.054824375, -0.07802429, -1.703406e-39, 
0.10605294, -0.25675812, 0.0034632175, 9.49761e-40, 
-0.076996386, -0.32921854, -0.027036414, 4.042242e-39, 
-0.20530991, -0.2511068, -0.013897514, 2.14662e-40, 
-0.056877434, -0.045908924, -0.2779603, -3.40884e-40, 
0.4102313, 0.0774962, -0.38948864, 2.449416e-39, 
0.12707613, -0.09166206, 0.025415048, -3.9201e-39, 
-0.0021061918, 0.038944315, -0.33000124, -6.8976e-41, 
-0.20233974, 0.19268067, 0.19513029, 4.662774e-39, 
-0.3685673, 0.21811081, 0.27764857, 1.897e-40, 
-0.0039037631, 0.11135259, 0.10979257, 2.09832e-40, 
0.14591661, -0.32054582, 0.31444734, -3.164272e-39, 
0.013100717, -0.3381987, 0.077057466, 5.30555e-39, 
-0.12108882, -0.32813045, 0.068400785, 4.204043e-39, 
-0.20110509, -0.13167985, 0.094360605, 4.09785e-40, 
-0.062867455, -0.06026717, 0.13633358, 6.179901e-39, 
0.05625851, 0.28450045, 0.043426994, 2.007212e-39, 
0.07919226, 0.22710899, 0.0008493598, -1.034157e-39, 
0.014683057, 0.13395941, 0.0028999357, -5.399664e-39, 
-0.14217845, 0.21309441, -0.055223867, -8.58466e-40, 
0.11011124, -0.08074297, -0.043143023, 4.357734e-39, 
0.07599328, -0.06776365, -0.042573188, -1.86915e-39, 
0.035309408, -0.053948946, 0.036354236, -1.62022e-40, 
0.06220454, -0.019182723, 0.026984314, 4.300275e-39, 
0.044389702, 0.025559977, 0.12284996, 3.057273e-39, 
0.028618092, 0.024681106, 0.14908578, -4.835528e-39, 
-0.0063962387, -0.01567094, 0.116382174, -5.10825e-39, 
-0.0016396443, -0.00067750044, 0.17978534, -4.71549e-39, 
};

const float MyModel_layer_0_bias[] = {
0.10939669, 0.28052363, -0.16008478, 0.35988483, 0.1391677, -0.34471557, 0.36565042, -0.0587575, };


const float MyModel_layer_2_weights[] = {
-0.450616, -0.3570286, -0.23724036, -0.2718475, 0.34763777, -0.05892592, -0.10513212, -0.38355222, 
-0.18093573, -0.4154846, -0.045196492, -0.027956404, 0.33856425, -0.075216584, -0.109249234, -0.26586923, 
-0.16761096, -0.5439369, -0.048253074, -0.052309155, 0.27442232, -0.15841097, -0.040084388, -0.20682214, 
-0.09052617, -0.35719773, -0.06727092, -0.101465836, 0.12526654, -0.20446663, -0.08584452, -0.015066418, 
0.15393539, -0.3135013, 0.025377031, 0.03063535, -0.08373105, -0.12581936, 0.10750058, 0.16463801, 
0.17402591, 0.0125048375, -0.037042897, -0.004323181, -0.3062379, -0.12452261, 0.11251811, 0.13985024, 
0.1108116, 0.10528463, 0.031712748, 0.088272, -0.4493461, -0.22713558, 0.19364978, 0.28108412, 
0.26362485, 0.03070194, -0.00812158, 0.01311515, -0.41334167, -0.21528992, 0.1548205, 0.23343669, 
0.28028056, 0.0035877412, 0.018431699, 0.12980811, 0.07022048, -0.07829059, 0.08683544, 0.2983238, 
0.2769248, 0.0410778, 0.047180425, 0.017776463, 0.10319998, -0.107681125, 0.11768864, 0.30542597, 
0.18852697, -0.03563982, -0.087697275, 0.008787391, 0.0163172, -0.11808139, 0.193088, 0.17365527, 
0.17331648, -0.090735964, -0.111989886, -0.04113577, -0.04144029, -0.17255823, 0.1442632, 0.15852179, 
-0.09776371, -0.05905104, 0.066972695, -0.13559157, -0.083823286, -0.23670495, -0.054384585, -0.0200648, 
-0.2042521, -0.13974944, 0.089241385, -0.12701258, -0.04886726, -0.20920183, -0.11969829, -0.28427896, 
-0.45521626, -0.10989412, 0.05073284, -0.108058155, -0.054024797, -0.22693509, -0.20642418, -0.38968354, 
-0.31720987, 0.036503598, 0.00411851, 0.07348321, -0.09294866, -0.061481733, -0.17665577, -0.34810776, 
-0.047121122, -0.008533894, 0.21085948, 0.17987157, -0.0071782465, 0.09016544, -0.024539491, 0.032956142, 
0.010206453, -0.027957538, 0.006508086, 0.13866372, 0.04909626, -0.0026417146, -0.060503814, 0.15351422, 
-0.04833349, 0.0024613177, -0.1824943, -0.04140686, -0.023397718, 0.007844058, -0.12297818, 0.061109327, 
0.04833611, 0.017590452, 0.037422955, 0.052827038, -0.02430307, -0.084560625, -0.1078475, 0.2052682, 
0.06540013, -0.058174077, -0.06690127, 0.002411009, -0.03649345, -0.16740036, -0.1346784, 0.15703759, 
0.118637614, 0.038443554, -0.049449414, 0.032386385, -0.049511105, -0.056742676, -0.07642112, -0.0152963195, 
0.07989173, 0.061648987, 0.05937004, 0.12944984, -0.059895013, -0.18294504, -0.081807904, 0.11634088, 
-0.018868826, 0.0739967, 0.19900432, 0.11760781, -0.08803704, -0.11913701, -0.09509354, -0.05066599, 
0.0912702, 0.25443175, 0.0207892, -0.022296976, -0.07509008, -0.29587787, -0.02201869, -0.25592735, 
0.08028479, 0.2971157, -0.062139735, 0.027572544, -0.09682963, -0.33983076, -0.09988243, -0.18510158, 
0.03787099, 0.29582733, -0.07917537, 0.05330397, -0.014464304, -0.30945766, -0.17541814, -0.05082485, 
0.050702997, 0.16715895, -0.1190612, 0.1776905, -0.04872122, -0.4740848, -0.19674568, -0.10900925, 
0.08068296, -0.08177348, -0.414141, -0.03429489, -0.0153720975, -0.17628273, -0.20175543, 0.016662855, 
-0.031198038, -0.24926484, -0.2491712, -0.08537854, -0.022302968, -0.23467326, -0.0062921243, 0.095402576, 
0.1250651, -0.39527676, -0.28892148, -0.10105231, -0.107722424, -0.08898398, 0.04042298, 0.17478745, 
0.08970697, -0.33311054, -0.27508864, -0.17555134, -0.11024149, -0.17905238, 0.06406072, 0.21861106, 
-0.1172086, 0.089862935, 0.062198333, -0.20165661, -0.02253165, -0.54284763, -0.06545253, -0.24043293, 
-0.009981139, 0.065598376, -0.01080173, -0.06827442, -0.13909326, -0.43241054, -0.08388363, -0.0624131, 
0.034330197, 0.00013619536, -0.09494296, 0.03779845, -0.15362829, -0.56651896, -0.016043352, 0.010229489, 
-0.02844676, -0.061267268, -0.06458385, 0.07112091, -0.15715472, -0.64517903, 0.04104982, -0.06179358, 
-0.021168146, -0.15840815, -0.104898684, 0.21523601, -0.1347971, -0.4451339, 0.13285181, 0.141281, 
-0.027900886, -0.12899053, -0.089436285, 0.18823273, -0.10547598, -0.50264716, 0.069435745, 0.023604361, 
-0.12569602, -0.094051816, -0.072913915, 0.15567015, -0.06453901, -0.3315944, 0.050006308, 0.08244527, 
-0.19834314, -0.12143617, 0.14697917, 0.17385219, -0.039217584, -0.31054035, 0.10002058, 0.04340374, 
0.20316157, -0.21903954, -0.110120535, -0.045010995, -0.12909393, 0.18809825, 0.47379687, 0.0044700103, 
0.29270712, -0.06027973, 0.13837855, -0.006533715, -0.30779448, 0.49756113, 0.23174624, -0.008300249, 
0.061697133, -0.15442084, 0.17570214, -0.08270817, -0.09780233, 0.31183907, 0.29293934, -0.10657288, 
0.0044572386, 0.027370036, 0.19550815, -0.11404068, 0.111557506, 0.24829987, 0.20098893, -0.18963788, 
-0.046851296, 0.0849077, 0.11258116, -0.054257754, 0.0722715, 0.1962797, -0.17054491, -0.0973909, 
-0.25792488, -0.020732207, -0.12636124, -0.044831872, -0.12725697, 0.13116282, -0.27888063, -0.1797894, 
-0.1483831, -0.4403569, -0.118675545, 0.095268905, -0.16195932, 0.2013141, -0.44780824, 0.0716756, 
-0.20659892, -0.8856139, -0.055887308, 0.00962215, -0.08363628, 0.11848611, -0.564532, 0.2317735, 
-0.118845835, 0.077808335, -0.13028486, -0.06811011, -0.00564605, 0.08039844, -0.2055689, -0.5015374, 
-0.16408685, 0.114431, -0.11460565, 0.044222806, 0.035588812, 0.09522587, -0.11274076, -0.30433625, 
-0.1258092, 0.13162702, -0.064014174, 0.066495135, 0.030541884, 0.013365967, -0.094066575, -0.20003608, 
0.029835794, 0.12702505, -0.122409396, 0.16741784, 0.094502404, -0.00014704483, 0.032177027, -0.25069693, 
0.16191581, -0.016354589, -0.032779206, 0.11175778, 0.16360497, -0.09342049, 0.09477536, 0.06746502, 
0.17104991, 0.028223513, 0.004948452, 0.10740414, 0.14173594, -0.28224644, 0.038149603, 0.090086155, 
0.096067175, -0.09404274, -0.07686529, 0.052864898, 0.15067708, -0.17237642, 0.097319, 0.13591927, 
0.14655566, -0.25048748, 0.04095799, -0.038088776, 0.06592077, -0.16206661, 0.100351036, 0.23723161, 
-0.00441821, 0.013527225, 0.215268, -0.31340986, -0.04064622, -0.2863222, -0.038946476, -0.070260406, 
-0.28446972, -0.05491473, -0.038413953, -0.22030278, -0.05321467, -0.20528889, -0.13406695, -0.02535402, 
-0.30728295, 0.05029685, -0.11437383, -0.09651905, -0.10809564, -0.14589861, -0.20077479, 0.07309915, 
-0.21448466, 0.0022660054, -0.1840095, -0.08339267, -0.04248738, 0.008683095, -0.1455469, -0.13543622, 
-0.09270899, -0.088193886, 0.1327006, -0.042293787, 0.10732099, -0.10188031, -0.17303912, -0.040347, 
0.028406354, -0.017536279, 0.10908382, 0.11516548, 0.16840671, -0.02740554, -0.18784028, 0.17278355, 
0.11888108, -0.0485708, -0.052868836, 0.115467004, 0.22310904, 0.059501056, -0.14499803, -0.03736138, 
0.116651475, -0.014305387, -0.008291523, 0.19257042, 0.07512987, -0.14510894, -0.0774291, 0.21673183, 
-0.26306617, -0.13445283, -0.069112465, 0.03404043, -0.25492373, -0.21569443, -0.1980653, -0.18937452, 
-0.1480633, -0.116433896, 0.05622202, -0.053382464, -0.2822609, -0.41322163, -0.0371038, 0.05968648, 
-0.10005496, -0.08415444, 0.10681953, -0.19426873, -0.41360798, -0.41054642, 0.055504188, 0.16322286, 
0.027886085, 0.050310433, 0.09909413, -0.18472172, -0.48155245, -0.5263966, 0.112201154, 0.07123841, 
0.114465415, 0.008734203, 0.07054088, 0.06312779, -0.16299254, -0.4221854, 0.22850542, 0.14964789, 
0.062470865, 0.15903349, 0.07263723, 0.21858169, -0.07668028, -0.46488947, 0.15424536, 0.07317409, 
0.13237163, 0.089288495, -0.021352684, 0.2464352, 0.14185451, -0.38251126, 0.04751021, 0.036615398, 
0.04013995, 0.22798443, -0.069927484, 0.31253836, 0.110387035, -0.19014715, -0.016970137, -0.13355187, 
-0.34250364, 0.23448858, 0.25348198, -0.2794209, -0.00067662826, -0.33357418, -0.05434721, -0.6583303, 
-0.24725187, 0.16729416, 0.20834434, -0.18758735, -0.09273594, -0.1881344, -0.096021056, -0.4245942, 
-0.35312232, 0.06710004, 0.16076294, -0.235553, -0.07811546, -0.15322714, -0.124190114, -0.30025923, 
-0.21339184, -0.0039750654, 0.0414199, -0.09916108, -0.027921462, -0.32950693, -0.06760878, -0.35224953, 
-0.18008019, 0.035407227, 0.017768547, -0.038869407, -0.006855224, -0.1972516, -0.034871917, -0.0007364154, 
-0.09325831, -0.07852943, -0.037630953, 0.00024484954, 0.093251176, -0.40919784, -0.012650923, 0.07569924, 
0.054304987, -0.021945462, -0.05053876, 0.0953878, 0.068389274, -0.34338498, -0.03276047, 0.1764727, 
0.22834781, 0.14595275, 0.05021046, 0.13335578, 0.043360975, -0.26553214, -0.03031812, 0.52098715, 
-0.037345804, -0.24907362, 0.032927763, -0.016469667, -0.19200528, -0.20811224, 0.32149684, 0.19720924, 
0.12047464, -0.05926943, -0.028840654, 0.09495597, -0.3199805, -0.25898686, 0.25169727, 0.056765728, 
0.18132798, -0.17038205, -0.008707251, 0.209081, -0.25215772, -0.30418444, 0.19093047, 0.026282318, 
0.11015132, 0.027071437, -0.016727338, 0.035364706, -0.2004385, -0.3097825, -0.1362537, -0.063456655, 
-0.20799705, 0.17010163, 0.047369804, 0.038650922, -0.12601283, -0.32951504, -0.31934336, 0.07527794, 
-0.17574878, 0.040973987, -0.041423224, -0.0730123, -0.0667388, -0.36840507, -0.39925885, -0.1572422, 
-0.23881419, 0.18508908, 0.015252596, -0.220285, -0.027594721, -0.34449124, -0.30668733, -0.06876009, 
-0.25890747, 0.039034694, 0.14238401, -0.32471725, 0.13662492, -0.4880331, -0.16946784, 0.15929145, 
0.10148181, 0.15564159, 0.12171266, 0.15502724, -0.13195412, -0.40053934, 0.021550098, -0.0648049, 
0.07137942, 0.1045835, 0.13645008, 0.29735288, -0.060683228, -0.35125616, -0.009113356, 0.13637047, 
-0.069204964, 0.07385747, 0.21937464, 0.26648578, 0.02720509, -0.38290176, -0.17534275, 0.055534735, 
-0.15618673, 0.007495108, 0.19972499, 0.2700956, 0.109696716, -0.17789492, -0.43639886, 0.09340041, 
-0.409387, -0.14072943, 0.055624273, 0.11993275, 0.10015573, -0.21792266, -0.36238953, 0.059008364, 
-0.5208355, -0.06807004, 0.035170484, -0.11691977, 0.056688353, -0.2841891, -0.2511687, -0.082866386, 
-0.22149046, -0.034906585, 0.05740382, -0.31872833, 0.031772707, -0.20813641, -0.1493545, -0.026838714, 
-0.14932388, -0.1742686, -0.023065535, -0.5241423, 0.076711476, -0.2792016, -0.0764328, -0.024034802, 
0.29946402, 0.117952466, 0.14232902, 0.29024118, 0.19548345, 0.12255787, -0.07252519, -0.016779538, 
0.044527225, -0.027759464, 0.07946567, 0.14178678, 0.21354052, 0.03374556, -0.30715612, 0.03015606, 
-0.07046528, -0.1325417, -0.023236498, 0.021419141, 0.14775911, -0.055544335, -0.39511445, -0.114361115, 
-0.16093227, -0.37882096, -0.0450071, -0.18857035, 0.06732159, -0.10632686, -0.16972367, 0.122681715, 
-0.083279245, -0.15886259, -0.18759567, -0.32156092, -0.1022794, -0.011723787, 0.013476091, -0.03718058, 
0.098267466, -0.031111056, -0.12020539, -0.21183865, -0.22627519, 0.09503993, 0.18578774, -0.09053614, 
0.037320048, 0.1717444, 0.08856973, 0.025297828, -0.28529027, 0.15257627, 0.2823404, 0.07755771, 
0.18969418, 0.26362184, 0.13995494, 0.19849516, -0.13962011, 0.26809195, 0.27128708, -0.15618166, 
-0.11905436, 0.102837205, -0.39312145, 0.111352794, -0.21946278, 0.19599834, -0.10551721, -0.19212995, 
0.08390488, -0.021434125, 0.22044604, 0.076730035, -0.25692713, 0.30999544, -0.14513306, -0.20577821, 
0.22516496, -0.091596015, 0.3422084, -0.09105861, 0.048219237, 0.29194006, -0.077726975, -0.002940446, 
-0.07092606, 0.14460748, 0.06470623, -0.1454185, 0.35734162, 0.3418573, 0.13781573, 0.08881222, 
-0.16455425, 0.055693034, -0.13704686, -0.11677595, 0.43026474, 0.49388188, 0.31152585, -0.0022604556, 
-0.071859464, 0.1920559, -0.3991411, -0.0020286592, 0.02262334, 0.5614441, 0.06069167, 0.022608982, 
0.07868659, -0.0413037, -0.07282766, 0.068422824, -0.3326425, 0.2512401, -0.055549715, 0.07949993, 
0.240672, -0.29192457, 0.36471635, -0.11941278, -0.26734975, 0.4066146, -0.17723428, -0.10985393, 
-0.19317178, -0.25685054, 0.0015565115, -0.31434968, -0.24465144, -0.2608767, -0.013104619, -0.14124219, 
-0.07224846, -0.28794408, -0.0954185, -0.13860588, -0.2130446, -0.19831622, 0.0033202681, 0.035003126, 
0.007302145, -0.03876252, -0.049631394, -0.14263621, -0.36045352, -0.25159153, -0.03630858, 0.033038557, 
0.031834938, -0.02666196, -0.10680233, -0.014006758, -0.45643502, -0.18187985, -0.018240545, 0.050945062, 
0.06638102, -0.00689253, -0.18296453, 0.068055466, -0.29486468, -0.34709388, 0.030605331, 0.034380767, 
0.124179445, 0.19420771, -0.17989448, 0.09809552, -0.20375966, -0.28484762, -0.019557357, 0.06302765, 
0.13322365, 0.27776507, -0.16512987, 0.10449558, -0.20028089, -0.26897767, 0.006035962, -0.08859579, 
0.17166442, 0.34381956, -0.050177503, 0.13613424, -0.18980747, -0.18361257, 0.039360788, -0.08884386, 
-0.018585877, -0.15648012, -0.032509025, 0.068985626, 0.0122987395, -0.31058267, 0.06129489, 0.1521731, 
0.063156836, -0.08030145, -0.057429288, 0.15456216, -0.05797451, -0.04520516, 0.12649071, -0.043379866, 
-0.028766094, 0.008782188, -0.027356755, 0.054009892, -0.1299203, -0.1509774, 0.09918795, 0.020428434, 
0.08235176, 0.079529166, -0.07826743, -0.013513597, -0.16871789, -0.09195115, 0.10295013, -0.07296547, 
0.03898091, 0.1437605, 0.019892603, -0.06835686, -0.33855355, -0.18410537, 0.061763614, 0.052858602, 
0.019874642, 0.11758546, -0.02703802, -0.1579167, -0.45648643, -0.07454122, 0.052896526, 0.030263802, 
-0.058720373, 0.069671795, 0.08807613, 0.040023208, -0.64382094, -0.13390714, 0.09342304, 0.0995124, 
0.020287374, -0.10762439, 0.028973253, -0.083805405, -0.35765988, -0.3211594, 0.035606705, 0.062167205, 
};

const float MyModel_layer_2_bias[] = {
-0.18136813, 0.22311904, -0.50690234, 0.29721764, 0.25225458, 0.17925489, -0.32404536, 0.5105328, -0.51104015, 0.1060584, 0.36970136, -0.30889785, -0.071034744, -0.023539364, 0.11926662, -0.098565124, };


const float MyModel_layer_4_weights[] = {
0.037012037, -0.6802576, 0.12523548, 0.03278265, 0.027819747, -0.026336703, -0.0020370258, 0.15826875, -0.10756319, -0.093764104, -0.10635205, 0.03556622, -0.83160496, -0.090224944, -0.006802419, -0.049686056, 
0.054210436, -0.4228662, 0.10062035, 0.07549681, 0.19250478, 0.0077320226, -0.25648892, -0.029523501, -0.008319161, -0.16031267, -0.07677319, -0.17518972, -0.28818727, -0.097272746, 0.0788756, -0.0045493008, 
-0.067944236, -0.20163663, 0.1457236, -0.020018354, -0.059957907, -0.46652684, -0.23448585, -0.16658844, -0.04658752, -0.39099717, -0.35000548, -0.29299286, -0.035072803, -0.033885006, 0.063935764, -0.022020746, 
-0.15038106, -0.13361374, -0.065080225, -0.1088667, -0.15075459, 0.1551679, 0.053039014, -0.21674585, 0.21260713, -1.0207671, 0.059148584, -0.27721786, -0.024187326, -0.035484344, -0.16534922, 0.009776278, 
0.059407555, -0.030809429, -0.100920886, 0.008133136, 0.19700581, 0.04604793, -0.121380806, 0.25437647, 0.05978932, -1.1769131, -0.016814737, 0.2801806, -0.048736863, 0.021784902, -0.056223396, 0.0057929275, 
0.14000405, -0.09683245, -0.12761119, 0.13127312, 0.18901962, -0.09200046, -0.24766514, -0.052613635, 0.0719254, -0.6581371, -0.0055058864, 0.26015037, 0.007667866, 0.014801475, 0.0865796, -0.006872653, 
-0.0066604232, -0.20997591, 0.1342474, 0.22932863, 0.18248865, -0.16991608, -0.1370369, -0.047700558, 0.07565603, -0.5049962, 0.20841694, -0.04771308, 0.07213662, 0.05511503, -0.12393553, -0.04664904, 
0.24038503, 0.005643452, 0.26597148, 0.10472677, 0.18812396, -0.15084273, -0.055438682, 0.32556883, -0.064664975, -0.4208661, 0.11899668, 0.19719137, 0.016264979, -0.0934644, 0.18024457, 0.18352596, 
-0.13949893, -0.04403131, 0.009860983, 0.14169005, -0.063004054, 0.19685104, 0.2503093, -0.59027153, -0.019362092, 0.21245429, 0.10443932, -0.021697454, -0.10061284, -0.08078577, 0.12528786, 0.2033364, 
0.06390772, -0.036696948, 0.01504262, -0.18615568, 0.05556832, 0.13784052, 0.02691428, -0.36380985, -0.05339648, 0.09602757, -0.29597464, -0.010510769, -0.13863528, -0.21370248, 0.054015454, 0.25304157, 
0.11439707, -0.12390608, 0.0036089185, 0.094090834, 0.04373227, 0.22898474, 0.014831277, -0.15626964, 0.0034545225, -0.016376877, -0.05162084, -0.07127226, -0.117683, -0.060712993, 0.12129812, 0.06305317, 
-0.2308847, -0.2961978, -0.025404204, -0.039879926, 0.10372695, -0.04489536, -0.054777518, -0.03940436, -0.04151144, 0.016008906, -0.0832973, -0.10702938, 0.014577109, -0.23380099, -0.2924409, -0.012355078, 
-0.09267107, -0.13211237, -0.16245319, 0.020336507, 0.37656048, -0.37934795, 0.07776929, 0.0038784188, 0.20424747, 0.14940956, 0.021278206, -0.03135474, -0.1296589, -0.21396944, 0.20804691, -0.023068948, 
-0.25428632, 0.025656333, -0.07738488, 0.15875833, -0.010888877, -0.016468639, -0.021380387, -0.25015473, 0.04879049, 0.061797675, 0.37043118, 0.1060969, 0.18290935, -0.20110199, 0.14189371, -0.07919743, 
-0.34638998, 0.08493794, -0.17179847, 0.12940547, -0.08984066, 0.07500398, 0.0832813, -0.054106057, 0.027899088, -0.07648579, 0.22255886, 0.03739879, 0.30233148, -0.30633703, 0.12675545, -0.09682928, 
-0.60820466, 0.07609319, -0.062605545, 0.10297154, 0.2083664, 0.027831007, 0.0068638446, -0.031898785, 0.022936307, -0.079459205, 0.27656314, -0.097366035, 0.37837753, -0.11499416, 0.028489225, -0.052936852, 
-0.3520319, 0.05952425, -0.22036849, 0.0032363234, -0.09366841, -0.0020938995, 0.02594595, 0.010571469, -0.22763298, -0.32568306, -0.31365559, -0.3836613, -0.013858414, 0.0004859942, -0.16352086, -0.029303817, 
-0.21757217, -0.030204998, -0.052637402, -0.010472871, -0.007940388, 0.0006565675, -0.004558287, -0.012813475, -0.252225, -0.17702219, -0.08230057, -0.46431267, -0.008993097, 0.0022780935, -0.15525411, 0.0068048434, 
-0.3307458, -0.017667973, -0.027054556, 0.013718958, -0.053540427, 0.001165817, 0.042620275, -0.058300424, -0.311814, 0.017397763, 0.009299376, -0.4663865, 0.0016464855, -0.007830894, -0.24872085, 0.033066325, 
-0.50787127, -0.024599453, -0.10208456, 0.030966243, -0.099934235, 0.0057067024, 0.046473965, -0.10140118, -0.31779674, 0.060392477, 0.068020366, -0.8638118, -0.0027522764, -0.0009270588, -0.20131452, 0.10978062, 
-0.10576887, 0.14553373, 0.15814859, 0.12714209, -0.12831886, -0.005377054, 0.006582827, -0.010537782, -0.24183871, -0.0031518084, 0.046836276, -0.60955185, 0.011988158, -0.0020314052, -0.34977087, 0.17572331, 
-0.2580313, 0.10601057, 0.004262235, 0.1531389, -0.09906859, -0.014151247, -0.049393952, 0.008186401, -0.3142691, -0.10959968, -0.05000967, -0.36760303, 0.020605009, 0.013586877, -0.4877629, 0.10905298, 
-0.51294196, 0.12667641, 0.04337178, 0.033388406, -0.10331989, -0.014027341, -0.033198215, -0.03159131, -0.23033738, -0.07811079, -0.10764421, -0.24796948, 0.008988242, 0.008287539, -0.4748978, 0.06634669, 
-0.23145205, 0.16795479, 0.16516191, 0.05579018, -0.22880855, -0.003497472, -0.017817352, -0.05296638, -0.25304258, -0.036383137, -0.15038003, -0.21593815, -0.030495359, 0.004760316, -0.57826334, -0.018380841, 
-0.24351203, -0.21763748, 0.22843261, -0.10309118, -0.1991631, -0.21118772, -0.9593702, 0.009479914, -0.39931682, 0.4119283, 0.1153275, -0.011526801, -0.21709137, -0.24291034, -0.12898019, 0.30727512, 
-0.6242193, -0.3710467, -0.21228065, -0.26890722, 0.19770682, -0.5274201, -0.4863617, 0.016103016, -0.2327261, -0.04897921, 0.035362866, -0.10344449, -0.35598165, -0.88803846, -0.0640034, 0.18664636, 
0.0783136, -0.27175128, -0.097388744, 0.067023434, -0.05388265, -0.28289336, -0.11185126, 0.27684274, 0.16062097, -0.15233336, 0.114153475, -0.048703756, 0.116475336, -0.113147594, 0.03562283, 0.04982585, 
0.07786348, 0.057232812, 0.088970594, -0.07911206, 0.009053903, -0.050678197, -0.012349307, 0.31202772, 0.19188794, -0.13360552, 0.34001365, 0.00959488, 0.10540009, 0.014326365, -0.03576331, 0.000300347, 
0.09758295, -0.13465355, 0.11239085, -0.10160287, 0.14895587, -0.10545384, -0.14767955, 0.2471731, 0.014181035, -0.21710888, 0.1417589, 0.24542399, 0.081079304, -0.024769371, 0.12183872, -0.11810926, 
0.178752, 0.0126600405, -0.07481805, -0.06093333, -0.16569166, 0.14683652, 0.050749086, -0.001135166, -0.06697891, -0.29228643, -0.24150893, -0.3649606, -0.17879362, -0.25555328, 0.09539509, 0.1285087, 
-0.28399828, 0.086639345, -0.03823095, -0.21471526, -0.31967744, -0.044440545, -0.19014892, -0.28018764, -0.11778191, -0.49947682, 0.13766582, -0.34036344, 0.1018329, -0.057716347, 0.023528568, 0.0841774, 
0.17042777, -0.1515936, -0.2685081, 0.25089958, -0.04297566, 0.030404659, -0.45797563, -0.15459798, -0.29591984, 0.2037636, 0.2389575, -0.24685799, 0.034712337, -0.0334142, -0.09537367, 0.123444304, 
0.45031187, -0.90217865, 0.3343624, -0.33051965, -0.02347689, -0.48818746, 0.1528544, -0.11434904, -0.3550911, 0.13402024, 0.32016632, 0.057730123, -0.7069502, -0.32868743, 0.14688948, -0.17112996, 
0.16637544, -0.58570147, 0.052249618, -0.21080878, 0.038963813, -0.24847405, 0.068971224, -0.021578256, -0.33850908, 0.091534935, 0.4213015, -0.20929384, -0.39251822, -0.2220616, 0.18477443, 0.05009005, 
0.20166999, -0.35162464, 0.21752039, 0.113367505, -0.04994202, -0.33260223, -0.2285951, -0.12627378, -0.45137015, -0.015920663, 0.15547302, -0.12755558, -0.10785611, -0.3088873, -0.11407997, -0.08826856, 
0.19765142, -0.55342466, 0.0036244565, 0.16353339, -0.05335889, -0.45620888, -0.18849823, -0.04681604, 0.07928805, -0.07199063, -0.1993637, -0.0574442, 0.028280532, -0.4268321, -0.20590024, -0.06307818, 
0.3248827, -0.57549274, -0.035868503, -0.17711017, 0.085824534, -0.0071304603, -0.15707925, 0.12296544, 0.0722486, -0.06364275, -0.14616887, 0.08315519, 0.12784064, -0.19018024, 0.0014372786, -0.041289244, 
0.17454071, -0.23957802, 0.026453853, 0.08745676, 0.15477948, -0.14522868, 0.13650194, -0.04194651, 0.004454606, -0.00091246556, -0.08789599, 0.11503959, -0.26910803, -0.3016464, 0.04811699, -0.05497001, 
0.061479203, -0.55950224, -0.1016601, 0.09976839, 0.05596262, -0.37334788, 0.0881587, 0.07580717, 0.05215276, 0.024449782, 0.24981013, 0.05267893, -0.060012452, -0.10792161, 0.12853993, -0.06080963, 
0.14646433, -0.57810897, -0.002351264, 0.012318591, 0.014638656, 0.10652578, -0.052840542, 0.007829522, -0.12688236, -0.0066113295, 0.17707853, 0.16638778, -0.08802897, -0.31726202, 0.21314944, 0.026215326, 
0.002629731, -0.14798015, -0.15658978, 0.1318055, -0.026239052, 0.0635131, -0.052513942, -0.18129164, -0.005923644, -0.11792499, -0.05698415, 0.07489399, -0.08958654, -0.16419348, 0.14652783, -0.09155488, 
0.07006299, -0.033351675, -0.017376497, 0.07105152, 0.020034116, -0.14468679, 0.08515137, 0.04990595, 0.15117152, 0.017415795, 0.10151961, 0.22214283, -0.07878463, -0.11223914, 0.0768094, 0.08432292, 
0.09576573, 0.068987, 0.055672888, -0.050367177, 0.114073545, -0.039761946, 0.060518987, 0.18515198, 0.116786435, 0.118538395, -0.00010233688, 0.170313, -0.017340237, -0.0053210948, 0.09747556, 0.15278487, 
0.070684284, 0.08801389, 0.0019885115, 0.01907917, -0.08770363, -0.023535954, -0.020059705, 0.013863345, 0.13104752, 0.09406766, 0.070039205, 0.05390755, -0.0125502655, -0.09510882, 0.22110462, -0.031819552, 
-0.10896569, 0.08574896, -0.08486163, -0.07490547, 0.10592908, -0.010540783, 0.01570071, -0.10261318, 0.0501283, 0.050710514, -0.11615127, -0.03717219, 0.0076897475, -0.055361275, -0.08336394, -0.12787476, 
-0.07430677, 0.050391804, -0.16683231, -0.380995, 0.10359984, -0.21773735, 0.19701256, -0.071908586, -0.24215002, 0.007927549, -0.09118381, -0.26697505, -0.14406908, 0.058707017, 0.07856904, -0.015313746, 
-0.0839254, 0.08426918, -0.22878094, -0.13727465, -0.17976804, -0.23902805, 0.17945637, -0.046483863, -0.7745698, -0.07813353, 0.01414305, -0.37611753, -0.27960688, -0.015049492, -0.029693449, 0.016062899, 
0.34387442, 0.27319095, -0.21003193, -0.22976694, -0.41437188, -0.48209354, -0.38256085, 0.019516427, -1.3162993, -0.024644107, -0.24264415, -0.3820255, -0.6904979, -0.014228754, 0.020285636, -0.046819247, 
0.29847682, 0.16626808, -0.056627277, 0.118014745, -0.03903601, 0.011250462, 0.1095782, 0.08165289, 0.060576774, -0.1570694, -0.095968604, 0.12853917, -0.13928264, -0.044210557, -0.022763789, 0.100235306, 
0.23935379, 0.066350564, -0.13942036, 0.108736515, 0.03253975, -0.06309131, -0.009341931, 0.07711892, -0.047730554, 0.06972746, -0.13798547, -0.017542394, 0.072475016, -0.0067084776, 0.0045447936, -0.04661795, 
-0.016293786, -0.010224645, -0.17741589, -0.024088807, 0.11848188, -0.056352478, 0.18615493, 0.036627144, 0.03781725, 0.2560068, 0.036982995, -0.22351544, 0.037802856, -0.0134450365, -0.02606931, 0.015285752, 
-0.108201586, -0.065279074, 0.09005647, -0.1108866, 0.05046182, -0.21648572, 0.062037922, -0.04840827, -0.032444842, 0.16257694, -4.7675526e-06, -0.16387628, 0.041188687, -0.12398848, 0.059377667, -0.023428956, 
-0.12359118, -0.2597936, 0.020294778, 0.026889628, 0.22925615, -0.24229392, 0.0054830867, -0.27462777, 0.036334973, 0.16333033, 0.011654568, -0.36145726, 0.022463858, -0.27793425, -0.08592712, -0.06681029, 
0.14055596, -0.10489066, -0.11546745, 0.13272268, -0.040580064, 0.13598311, -0.10912509, -0.10621527, 0.16352049, 0.14764471, 0.2464615, -0.2404825, 0.09179716, -0.12128579, 0.04590538, -0.10537575, 
0.021545703, 0.075376995, -0.17059344, 0.055044465, 0.102413, -0.13443701, -0.1255735, 0.058237627, 0.08373667, -0.3918421, 0.31164664, -0.028957006, -0.02775881, -0.13108379, -0.03230148, 0.03735193, 
0.02338222, 0.02737758, -0.0609354, -0.18475243, 0.10842753, -0.2611456, -0.07625367, -0.14331925, -0.3409402, -0.57833284, -0.029499609, 0.11458083, -0.052350886, -0.1128887, -0.032527827, 0.06814646, 
0.036579594, 0.0977348, -0.06832416, -0.009294979, -0.16568185, -0.7402736, -0.39776158, 0.22837967, 0.12927137, 0.22344872, -0.20480043, 0.16733098, -0.061659575, -0.106628954, 0.080575615, 0.12541948, 
0.17492343, 0.028723024, -0.038255252, -0.16618755, -0.21444073, -0.2324731, -0.2673037, 0.34762257, -0.17061043, 0.16112916, -0.28376198, 0.17722118, -0.13241495, -0.13252153, 0.018844048, 0.10297713, 
0.10724885, -0.23577295, 0.18338339, -0.24779306, 0.16263036, -0.11328071, -0.2699083, 0.17075077, -0.26332578, -0.13760604, -0.5067499, -0.3580953, -0.25754052, -0.0023854766, 0.055791922, 0.104979075, 
-0.23469529, -0.19317949, 0.06237197, -0.18059027, 0.1575059, -0.04561393, -0.2811902, 0.010619748, -0.09394937, 0.012694379, -0.17845698, 0.35933146, -0.62824667, -0.077814095, 0.11804117, 0.02704595, 
-0.24505708, -0.45201102, 0.17602848, -0.048378464, -0.044454847, 0.06905066, -0.14326721, -0.2971296, -0.31675982, -0.075038366, 0.15511335, 0.010866913, -0.42579952, 0.001650912, -0.040009074, 0.101357765, 
-0.018058892, -0.39174595, -0.087869, 0.11393088, 0.11636476, -0.29064268, -0.2864701, 0.1501715, -0.26480448, -0.38711065, 0.12827203, 0.03962293, -0.38334972, 0.061462533, -0.017939415, 0.15201479, 
-0.024041288, -0.23192215, -0.06460983, 0.16681643, 0.11348774, -0.27130866, -0.27871704, -0.10786985, -0.2476978, -0.1460355, -0.078029886, 0.013347864, -0.45733744, 0.025074601, 0.042568773, 0.21727253, 
0.09444283, -0.6349801, 0.035077125, 0.035092603, 0.34404737, 0.111922026, 0.022411468, 0.09807406, -0.2700345, -0.4751419, 0.06084422, -0.008733632, -0.25158367, -0.018458938, -0.11030861, 0.32199642, 
-0.27992144, -0.12645264, -0.18036017, 0.012020929, -0.08029755, -0.2169222, 0.26808858, 0.016921459, -0.21737795, -0.29756328, 0.16822858, -0.33304724, -0.31318367, -0.31432205, 0.28104, -0.12239054, 
-0.39895132, -0.09286531, 0.26729804, 0.01936045, 0.11122117, -0.6661092, 0.05811769, -0.102867626, -0.1560702, -0.21566993, 0.34967303, -0.18116502, -0.13826896, -0.48922712, 0.14189811, -0.14913285, 
0.05172417, 0.02543996, 0.09881337, -0.21442813, 0.1420515, 0.29462564, 0.064922646, -0.0035488452, 0.16027234, 0.07892129, 0.11974231, 0.014272655, 0.1101533, -0.5163685, 0.19268818, -0.023915622, 
0.0066476744, 0.17825322, 0.15192142, 0.009033914, -0.1146415, -0.37604195, 0.13699016, -0.06614048, 0.27227342, 0.16956146, -0.09212807, -0.064835235, 0.05115777, -0.5266286, -0.3235745, 0.07862332, 
-0.031773053, 0.12492675, 0.019312093, -0.008608026, -0.27382714, -0.14746282, 0.0013989192, -0.08983424, 0.043828625, -0.009358501, 0.052282456, -0.122284606, -0.15608244, -0.70109946, 0.10501792, 0.0056911577, 
-0.03086499, -0.046643965, -0.08624762, -0.28190547, -0.024489552, -0.15963385, -0.18330616, -0.09774877, 0.029098831, -0.023670724, -0.037122928, -0.1060513, -0.17801166, -0.65746796, -0.24018514, -0.054389607, 
0.23721705, -0.24381393, -0.11645597, -0.07149368, 0.069293536, -0.46795794, -0.1365704, -0.07935241, -0.05584611, 0.013443802, -0.17987089, -0.08455918, -0.48763683, -0.6175017, 0.011507723, -0.055405553, 
0.15267074, 0.054088105, -0.20828953, 0.16186213, 0.1555415, -0.00072039955, 0.13218397, 0.33156022, -0.008693104, 0.19255118, -0.27890962, 0.43139645, -0.17279686, -0.16713353, 0.25815383, 0.06827104, 
0.19352603, 0.023830846, -0.002976287, 0.10872888, 0.01997325, -0.57324886, 0.03847717, -0.17642318, 0.024461469, -0.27018648, -0.09940662, 0.20340182, -0.32895282, -0.25145763, 0.25599605, 0.06951306, 
0.40908796, 0.22692959, -0.22383617, 0.05586802, -0.008768791, -0.30742568, -0.20604034, -6.917948e-06, 0.027977716, 0.025517376, 0.16223949, 0.029663756, -0.26864243, -0.1899505, 0.05102842, -0.03486577, 
0.118924595, 0.2135457, -0.1010119, 0.17574313, -0.1097787, -0.75114626, -0.12039141, -0.032200977, 0.010032197, 0.32842162, -0.08370271, -0.07375805, -0.30072486, -0.07244204, -0.1376603, -0.0056583127, 
0.06971171, 0.04371929, 0.020420479, -0.047546405, -0.17018333, -0.038541097, -0.18957531, 0.09538248, -0.07261131, 0.18847044, -0.13967578, -0.3277742, -0.27584535, -0.28294745, 0.0337084, -0.08455431, 
0.10062711, 0.012974273, 0.24130782, -0.026909787, -0.09918529, -0.33180398, -0.2333017, 0.13264363, 0.008907021, 0.18694411, 0.072094895, -0.28089133, -0.065519996, 0.08128364, 0.14921834, 0.0901394, 
0.027882827, 0.069990225, 0.12164857, -0.018474078, -0.07198447, -0.29396272, 0.08283916, -0.112908855, -0.020670434, 0.07420055, -0.14828634, -0.53817356, -0.16041522, -0.1437879, 0.10077182, 0.2366123, 
-0.07196744, -0.16054565, -0.06414704, 0.081138946, 0.041751456, -0.15288152, 0.24980004, -0.2210775, -0.14437203, -0.20595227, -0.31783476, -0.17045806, -0.2776961, -0.09063448, 0.06774138, 0.23876329, 
0.01820113, -0.2988751, -0.086329795, -0.096824914, 0.07157888, 0.0053354795, -0.1263692, 0.14040191, -0.32633853, -0.61623377, -0.39318532, -0.22350875, -0.3067242, -0.09106158, 0.1926371, 0.20972486, 
-0.05233627, -0.08018622, 0.1339989, 0.10765489, -0.08913308, 0.11210019, -0.03708795, -0.05896963, 0.026379552, -0.7645745, 0.08188134, 0.069392085, -0.020965641, -0.055235654, -0.0529315, 0.22940013, 
-0.40031666, -0.083360516, 0.0013095496, 0.0362418, 0.18044698, 0.0065789786, -0.09023318, -0.051698506, -0.098357, -0.22716485, -0.3349294, 0.055385713, -0.2466214, -0.037996113, -0.0130706215, 0.082575396, 
-0.5360224, -0.015323914, 0.18466046, 0.005181614, 0.2264365, -0.026600482, -0.06487852, 0.013081863, -0.34247097, -0.19993636, -0.20255247, -0.061177038, -0.27575648, -0.02780643, -0.08687337, 0.18042998, 
-0.24223374, -0.28711084, 0.15539633, 0.056693044, 0.050423507, -0.4801248, 0.016930848, -0.111794546, 0.08023759, -0.017625125, -0.029750131, -0.16172789, -0.21529612, -0.05434399, -0.005756813, 0.0993379, 
-0.7059132, -0.27699527, -0.024183214, 0.071670905, 0.16014977, 0.09212224, 0.118698955, -0.09121325, 0.12428878, 0.06900732, -0.2789619, -0.4908481, -0.1853893, -0.20360924, 0.059323765, 0.05438602, 
-0.24424501, -0.23124693, 0.017574364, -0.20658095, 0.1733561, -0.4503485, -0.15124789, -0.07741021, 0.03345041, 0.04617548, 0.24575107, -0.4871423, -0.15988755, -0.15334149, 0.080547795, -0.0952819, 
-0.71236265, -0.37974307, 0.021962121, -0.2189548, 0.038297303, 0.090056844, -0.060867764, -0.076535575, -0.0037830046, 0.032266144, 0.13407752, -0.02991631, -0.30628127, -0.16311188, 0.110261455, 0.009711501, 
-0.02072335, -0.2849886, -0.1440615, -0.2737876, -0.29668993, -0.25452915, 0.07453551, -0.016106257, -0.094897576, 0.13490961, -0.040380746, -0.15183139, -0.21378814, -0.22845756, 0.30020735, -0.21391802, 
0.07006214, 0.03424931, 0.15043652, -0.16521138, 0.061910026, -0.33509994, -0.113630645, -0.20340802, -0.0650689, 0.0030074315, -0.08318443, 0.19476339, -0.2063628, -0.034134343, 0.13686672, 0.19826761, 
-0.10378376, 0.14391024, 0.12508248, -0.03636231, -0.07021975, -0.07716069, 0.18748105, -0.5341469, 0.0047483663, 0.0847941, -0.26788232, -0.19408879, -0.1515493, -0.14089851, -0.01776555, 0.13125892, 
0.0101168, 0.13233137, -0.11799514, 0.09669162, -0.075360544, -0.071302384, 0.057644974, -0.2991661, -0.11247146, 0.09885114, -0.3640348, 0.12954515, -0.42469957, -0.10617682, -0.10741356, 0.17230663, 
-0.2742999, 0.18578634, 0.024252381, 0.12973987, 0.08477183, 0.12996216, -0.0763147, 0.15857495, -0.6070712, 0.053352308, -0.10634528, 0.12300306, -0.6217743, -0.00064210955, 0.03148512, -0.06683005, 
0.16348101, 0.25674623, 0.19182831, 0.003680996, -0.030992625, -0.30259877, -0.13560103, 0.08967962, -0.5527161, -0.06704414, 0.007321284, 0.05417131, -0.5379018, -0.06266875, 0.18226373, -0.39369705, 
0.19162102, 0.29597598, -0.055253126, -0.1362431, 0.055830956, -0.5735396, -0.15093553, -0.075394146, -0.17043164, -0.19849908, -0.05437581, 0.013453385, -0.4563434, -0.06470734, 0.035084452, -0.04845725, 
-0.46476802, 0.21948943, 0.14511575, -0.04962241, 0.06928232, -0.37337404, 0.16737957, -0.037565988, 0.17098258, 0.0045382637, -0.14521275, -0.38925466, -0.46211663, -0.022558637, -0.59206265, -0.041366477, 
-0.0031695443, 0.24585405, 0.19349164, 0.14557837, -0.49960324, -0.32401857, -0.23742074, 0.12584949, -0.4140606, 0.13162704, -0.013013608, -0.48042545, -0.4173786, -0.07944586, -0.36721826, -0.10977827, 
-0.24748799, -0.13977365, -0.04081166, 0.011717367, -0.2947067, -0.3196807, -0.049193803, -0.31722158, -0.05419596, -0.07088497, 0.02998602, 0.14685202, 0.07216904, -0.1286055, -0.021879397, -0.15587029, 
-0.057782337, -0.04338396, -0.012392134, -0.18652639, 0.07723322, -0.07334849, -0.09512796, 0.13925071, 0.018564167, 0.060697712, -0.46514234, -0.21311942, 0.0022001239, -0.38574266, 0.059447236, 0.13222346, 
-0.20931827, -0.072697714, 0.001206842, 0.08843448, 0.18224673, -0.21357785, -0.18379623, 0.24090295, 0.060268383, 0.0002359416, -0.2691675, 0.085052185, 0.34501734, -0.037278213, -0.19358602, 0.11528925, 
0.107038274, 0.1139426, 0.04316249, 0.12818865, 0.1580385, -0.32314113, 0.120056875, 0.20661372, -0.038851693, -0.23234005, 0.1199602, 0.20232248, 0.36939076, -0.2416929, -0.07677541, -0.055208385, 
0.017351585, -0.26061875, -0.36629394, 0.06462403, 0.17002894, -0.17470542, 0.10039584, 0.100623, -0.029032543, -0.21030334, 0.36618832, 0.030071935, 0.12252755, -0.2564002, -0.09614365, 0.10874661, 
-0.1270553, -0.17366943, -0.42130616, 0.084908746, -0.013028234, -0.44558778, 0.08387212, -0.18113995, -0.31566676, -0.23301634, 0.19761355, -0.014249643, -0.04130011, -0.41658822, -0.031588815, 0.005432915, 
-0.025448648, -0.15926424, -0.4723543, -0.16823006, -0.0007661602, -0.1573757, -0.06364543, -0.252088, -0.13037826, -0.25885, 0.23866141, 0.062996864, -0.0578759, -0.4462223, -0.032827895, 0.2176083, 
-0.00049874396, -0.37635317, 0.18930681, 0.1447897, -0.017292485, 0.036963645, -0.15903838, -0.025188118, 0.008951223, 0.4227952, 0.1897474, -0.11008135, 0.037732303, -0.40047127, 0.13509472, 0.144788, 
-0.2001768, -0.14907864, -0.23979032, -0.060722176, -0.15222208, -0.023000604, 0.06540563, 0.46730843, 0.0668048, 0.23847328, 0.039549105, -0.1609525, 0.10673949, -0.24358504, 0.13968071, 0.30672926, 
-0.2943754, -0.26264855, 0.13664791, -0.05726624, -0.03309276, -0.15034312, -0.07829953, 0.09490291, -0.017424999, -0.101237446, -0.083709404, 0.29345596, 0.13946116, -0.02335121, -0.026643146, 0.19981505, 
-0.38516703, -0.121761695, -0.008889673, -0.10699614, 0.077281594, 0.036696877, 0.015171683, 0.085266, 0.009365436, -0.34406585, -0.1639709, 0.27799335, 0.066170275, 0.011811019, 0.05821716, 0.15404144, 
-0.44369364, -0.118509516, 0.002035966, -0.0036044444, 0.023775812, 3.819782e-06, 0.054057695, 0.3356554, 0.15974182, -0.031052195, 0.073830634, 0.15069704, -0.020833958, -0.22911076, -0.011298521, -0.005041703, 
-0.26890498, -0.030633045, 0.14536558, 0.009469639, -0.086483076, 0.12072698, 0.052885085, -0.34377337, 0.12563953, 0.22613639, 0.22073635, 0.12372558, -0.1783352, -0.07796485, 0.1722161, 0.08427761, 
0.0006329541, 0.095563546, 0.025698705, -0.0005295149, -0.06498443, 0.329826, 0.061031632, -0.016734524, 0.06883162, 0.10262115, 0.061510094, 0.14086634, -0.082952745, -0.15818119, 0.036320854, 0.09381707, 
0.11416458, 0.33919808, 0.23428175, -0.06552135, 0.19193947, 0.03133908, 0.03322503, -0.13569966, -0.11855735, 0.23718134, -0.135791, 0.07639333, -0.24276456, -0.15545245, 0.110227875, -0.35522333, 
-0.2850549, 0.0919996, -0.15824066, -0.5863141, -0.19687888, -0.48928517, -0.22716281, -0.9263448, -0.43396094, 0.035767432, -0.4303419, -0.24747857, -0.7670795, -0.08006357, 0.21477476, -0.800462, 
0.11650108, -0.1079188, 0.23417276, 0.019377101, -0.45868716, 0.19643223, -0.42312413, -0.2630173, 0.028287677, -0.40829748, -0.16418059, -0.17091645, -0.25632837, -0.09717126, 0.25818038, -0.12981454, 
-0.26521417, -0.0767473, -0.04050716, -0.027679516, -0.14264144, 0.005026129, -0.90450746, -0.53055954, 0.24865575, 0.042663813, 0.07560017, -0.10315608, 0.0056550545, -0.28564173, 0.053155098, -0.09597276, 
-0.18431228, 0.0877536, -0.1967038, 0.12854064, -0.082981296, 0.055324446, -0.021349013, 0.037170198, 0.24437235, -0.08969039, 0.02191829, -0.12786466, 0.06336552, -0.30106574, -0.0024825656, -0.13861589, 
-0.022818588, -0.24532028, 0.10704219, 0.085148, 0.04137704, -0.019249659, -0.12239739, 0.067368746, 0.092839696, -0.26154584, 0.048677802, -0.076983064, 0.06610414, -0.16978146, 0.18477611, 0.044812746, 
0.13419662, -0.4678409, 0.16066225, 0.21080874, 0.19128098, -0.93011546, -0.33534434, 0.076981105, 0.20504591, 0.092078775, 0.27684835, -0.05581523, 0.14288521, 0.12669009, 0.068573266, 0.18761565, 
0.12648122, -0.26622382, 0.05232171, 0.32442838, 0.12349881, -0.21713212, -0.03622996, 0.22035271, 0.14827293, -0.082113974, 0.1563932, -0.06981709, 0.24470614, -0.14332408, -0.024959225, 0.026251791, 
0.04279204, -0.039181937, -0.18786837, -0.13215193, 0.032866046, 0.033246014, 0.11004794, 0.1604275, 0.054746915, 0.17856672, 0.08842087, 0.01493658, 0.121812575, -0.25687337, 0.0913934, -0.013226616, 
0.10264142, -0.026662402, -0.0153799625, -0.4028494, 0.32265115, 0.031635787, 0.22959578, -0.1856705, 0.061634533, 0.117561735, 0.07338731, 0.0040729414, 0.0377133, -0.32876274, 0.0627919, -0.02970339, 
0.21737131, 0.0032170445, 0.09089994, -0.0735305, 0.06439497, 0.14635304, 0.06835199, -0.11690065, -0.00069473626, 0.1679985, -0.12048606, -0.013871748, 0.11487716, -0.36865324, 0.12254312, 0.3112509, 
-0.026337024, -0.028626423, 0.042549606, -0.04946082, 0.033531375, 0.10682129, -0.10226007, 0.22604805, -0.05839354, 0.039357714, -0.13847429, 0.29846296, 0.086500496, -0.20147796, 0.07394582, 0.14153287, 
0.058829993, 0.06784405, -0.048021797, -0.17209154, -0.09790033, -0.05233791, -0.09445863, -0.016242934, -0.027118588, -0.049557477, -0.04400379, 0.40254036, 0.024416192, -0.05154617, -0.051592775, 0.08402062, 
0.0854797, -0.014669912, -0.090577595, 0.05203348, -0.19876994, 0.1436535, -0.004700003, 0.12008607, -0.10027417, -0.20379615, 0.07483609, 0.28049502, -0.12230691, -0.14357992, -0.047803458, 0.03668477, 
-0.06684555, -0.09629857, 0.10406148, -0.036373653, -0.063262776, -0.088750556, 0.065470286, -0.005979821, -0.17070813, 0.032612428, 0.28520468, 0.19270569, 0.06949786, -0.25730914, 0.14055876, -0.08464274, 
-0.23550925, -0.0037833285, 0.08633458, -0.024062715, 0.06817776, -0.007853625, 0.046721097, 0.006075652, -0.06279819, 0.089809395, 0.15618774, 0.1093869, 0.17064486, -0.089186326, -0.10489837, -0.006380299, 
-0.15884559, 0.023786724, 0.009506587, -0.043068066, 0.13532189, -0.0019802873, 0.08137597, -0.3543545, 0.12462599, -0.06571941, 0.0118750315, 0.10686887, 0.06472207, -0.14677444, -0.04979699, 0.015199512, 
-0.027472818, -0.10887384, -0.15201464, -0.17322364, 0.09563503, -0.16335014, -0.064605094, -0.19180436, 0.039188094, 0.021582609, -0.34258178, 0.00671334, -0.016014056, -0.14367422, -0.09077465, 0.28215104, 
-0.10043645, -0.24303378, -0.101849355, 0.025620474, 0.12279052, 0.10040474, -0.016719028, -0.50137407, 0.148215, 0.007862825, 0.096326485, 0.14793147, 0.033031292, -0.2291073, -0.15522416, -0.085315555, 
-0.2055092, -0.29815742, -0.24879634, 0.17902836, 0.039055716, -0.13516103, -0.087331116, -0.16845132, 0.13890794, -0.0076302374, -0.052579626, -0.035805423, -0.09406105, -0.24147718, -0.0032475493, -0.08851195, 
0.07218948, -0.019702101, -0.2972157, 0.06815461, 0.12614088, -0.28169155, -0.17500669, -0.06072649, 0.18252811, 0.03215413, 0.008993247, 0.08436341, 0.017000936, -0.37893918, -0.07846908, -0.17649774, 
0.037320927, -0.13328923, -0.07237479, -0.1000023, 0.035515055, -0.27170768, -0.060025718, 0.05912881, 0.056356467, -0.063515745, -0.029807476, 0.17750561, 0.18245855, -0.2963108, 0.0072302246, -0.16229752, 
0.06752692, -0.07579976, -0.005710475, 0.29660523, 0.2229499, -0.43874216, 0.05514391, 0.20750698, -0.066831425, -0.21542732, 0.106734976, 0.29140553, 0.32554695, -0.15553708, 0.122675665, 0.06421145, 
-0.058981482, 0.078910366, -0.13783894, 0.10462591, 0.12016049, -0.22342938, -0.13517931, -0.1379073, -0.12318616, -0.3897278, 0.20087363, 0.17636018, 0.37266514, -0.28844917, -0.041982733, -0.07186089, 
-0.16345738, 0.12793322, 0.10877383, 0.18566541, -0.020200118, -0.12015119, 0.08252872, -0.3331486, 0.08078992, -0.13200527, 0.21657489, -0.005727321, 0.1822358, -0.15976758, 0.06891889, -0.3235407, 
-0.021297863, 0.18628532, -0.21237728, -0.13326848, 0.04870788, -0.25464395, 0.21181963, -0.13439831, 0.18680395, -0.039386462, -0.09107878, 0.15825026, 0.20988655, -0.23785058, 0.088569105, -0.14190407, 
0.15215671, 0.12310991, -0.11625321, 0.14284882, 0.20021668, 0.1876027, 0.16260555, -0.15167661, 0.0044825105, 0.05136248, 0.01833575, 0.30816498, 0.13517943, -0.12941496, 0.057322796, 0.07408543, 
-0.2629667, 0.10617044, 0.105612725, -0.05432905, 0.20843191, -0.08001734, 0.17627653, -0.1635014, -0.23669285, -0.07186389, 0.12653044, 0.16936623, 0.020543767, 0.045812987, -0.06728761, -0.014516268, 
0.13408323, -0.16682164, -0.001487285, 0.07392144, -0.09343234, -0.0553015, -0.07493862, -0.0048287073, -0.04264379, -0.11193896, -0.08124763, 0.117270246, -0.0003296515, -0.118964754, 0.03726447, 0.06014548, 
0.19841573, 0.0022662717, 0.11098286, 0.036623497, -0.20212473, 0.19283576, -0.3869849, -0.14599103, 0.03600095, -0.13627982, -0.3449234, 0.1732404, -0.023405971, -0.029443968, 0.12285357, 0.15293531, 
0.19560772, 0.096700415, -0.10449634, 0.09090697, -0.05781151, -0.22384161, 0.15651903, -0.04209949, -0.14320162, 0.23925996, -0.07308974, -0.042633943, 0.119347006, -0.15542613, -0.019739125, 0.045639016, 
0.007098248, 0.08751662, 0.028607242, -0.036862217, -0.114923224, -0.36076814, 0.21430853, -0.1398978, -0.066163145, 0.100545004, -0.0061853956, -0.08899925, 0.035320565, -0.15828988, -0.10333874, 0.16077265, 
-0.19649288, -0.60555923, 0.29831916, -0.02966235, -0.051747534, 0.12660171, 0.23160711, -0.089367, -0.15890339, 0.00019637196, 0.08625305, -0.23522359, -0.17011179, -0.19951056, 0.020939207, -0.044310436, 
-1.7547599, -0.21368366, 0.43268964, -0.26456058, -0.15703918, -0.2882457, -0.28463498, 0.19492556, -0.19872878, 0.06364673, 0.019679176, -0.43883, -0.41660687, -0.1496028, 0.09407494, -0.2634612, 
-0.4816994, 0.014983192, 0.015645161, -0.3026536, 0.067904785, -0.089146025, -0.019868368, -0.030899664, 0.007263667, -0.08309395, -0.20111093, -0.045051694, -0.08879447, -0.06634002, -0.06823906, 0.16170801, 
-0.6358703, -0.13762039, -0.18706723, -0.19571994, -0.21923955, -0.26064152, 0.12541406, -0.017792933, -0.2782458, 0.055921763, -0.17341168, 0.039195217, 0.066452734, -0.0013543289, 0.1688981, 0.1319671, 
0.19470242, -0.15751055, 0.07348308, -0.23822841, -0.088219486, -1.0138664, 0.051683877, -0.05817445, -0.15250765, 0.23991376, -0.19181968, 0.09678739, -0.064819254, 0.03499014, 0.4009473, -0.0955241, 
0.24036966, -0.22186059, -0.3872555, -0.11419535, 0.11229546, -0.1402873, 0.04460232, 0.14272399, -0.07938647, 0.19277225, -0.10872822, -0.025772505, 0.049335092, 0.004257223, 0.24684633, -0.25132793, 
0.1516421, -0.021089649, -0.26106694, -0.012973361, -0.004166427, -0.3399113, 0.03600648, 0.16960704, 0.13567148, -0.010524156, 0.15888624, 0.2660953, 0.13529626, 0.065551974, -0.11299845, -0.12295602, 
-0.067523874, 0.16736642, -0.09179512, 0.19042172, 0.4431441, -0.28159544, 0.109099105, 0.009812703, -0.5673494, -0.010373214, -0.01029003, 0.34479606, 0.22073595, -0.008748363, -0.5751396, -0.39335093, 
-0.081207134, 0.17001799, -0.03449018, -0.40995064, 0.46087006, -0.62978756, -0.3191831, -0.039937697, -0.5797589, 0.09172312, -0.25235614, 0.17082788, -0.1727457, -0.044652555, -0.8594215, -0.18706612, 
0.12726153, -0.29747814, 0.22007765, -0.18922399, 0.27386573, -0.56295234, -0.6143837, 0.055651292, -0.13241363, 0.08584314, 0.17110656, -0.5262132, -0.16387711, 0.013823127, 0.3129889, -0.22915168, 
0.22119668, 0.09414731, 0.07397603, -0.15919706, -0.015302065, -0.020074073, 0.0053522214, 0.019281799, -0.10513838, 0.036882102, -0.10399588, 0.065175034, 0.009472893, -0.0033673807, -0.09384104, 0.082376696, 
0.14432418, 0.0023739806, -0.018588167, -0.064760745, -0.06686746, 0.00041384154, 0.03799949, -0.023843886, -0.20563957, 0.093502335, -0.1810999, -0.0119127985, 0.021415127, -0.008346909, -0.0573337, -0.006257302, 
0.028268136, -0.051283695, 0.07216659, 0.038998414, 0.03806736, 0.000269688, -0.0015964066, -0.019800525, -0.09201086, 0.091686346, -0.07190414, -0.11641566, -0.023265248, 0.0028523784, -0.029083284, -0.06052088, 
0.04609183, 0.10075152, 0.024694232, 0.1426454, 0.15179159, 0.008699799, 0.04296274, -0.04204232, -0.23502837, -0.17085049, -0.25916514, -0.17646514, -0.06125973, 0.0027576168, -0.1484911, -0.011439054, 
-0.23262835, 0.093139224, -0.03333241, -0.046428878, 0.12734845, -0.0015515741, 0.016698312, -0.03273243, -0.604384, -0.073293604, -0.29914212, -0.5370393, -0.011789116, 0.005722097, -0.109359115, 0.13982159, 
-0.6035543, 0.02813609, -0.37323767, 3.4365803e-05, 0.11256661, -0.009094631, -0.020728545, 0.07887547, -1.336272, 0.019130003, -0.12923172, -0.15958755, -0.008309428, 0.011321153, -0.29563895, 0.0998293, 
-0.62522304, 0.06494143, -0.12236294, 0.0661605, -0.008934744, -0.015116483, -0.0374557, 0.09308636, -0.79028106, 0.03818876, 0.012400553, -0.16698249, -0.013521896, 0.016024688, -0.25575703, 0.18693446, 
-0.22966197, 0.14487933, 0.22271596, 0.26388454, 0.23062702, -0.016204791, -0.058520194, 0.057346147, -0.26975664, 0.0870631, 0.06341238, -0.3793847, -0.014375785, 0.010860012, -0.37024125, 0.019469712, 
-0.22460616, 0.19227771, 0.11443645, 0.12163873, -0.09032125, -0.008760274, -0.23825783, -0.29093295, -0.15433353, -0.2942964, -0.049993623, 0.3019968, 0.05455395, -0.06911063, -0.1407021, 0.29173318, 
-0.34955165, -0.22940262, 0.10435789, -0.059734214, -0.01138595, -0.19365647, -0.19310988, -0.12211947, -0.09592809, 0.035952568, -0.15623878, 0.30228773, -0.21104144, -0.08861667, 0.005407061, 0.099178515, 
-0.35640523, -0.11377316, 0.08138933, -0.10128054, 0.2088479, -0.1429629, -0.31985924, -0.3665474, -0.12107232, 0.03389068, -0.21709645, 0.22746946, -0.2846069, -0.023985388, -0.1512102, -0.0054626064, 
-0.52126324, 0.06751284, 0.09953493, -0.0962643, 0.13521004, -0.039190978, -0.1973931, 0.0808211, -0.05663184, -0.0015672299, -0.17384814, -0.20098604, -0.10163992, -0.04660803, -0.006551061, 0.17732611, 
-0.26287416, 0.049831633, 0.112191975, 0.04427454, 0.17422026, -0.012908402, 0.112672865, 0.011833542, 0.22543046, 0.021953978, -0.011630958, 0.26691097, 0.124534436, 0.010742591, 0.14318871, 0.29181856, 
-0.27454484, 0.013771341, 0.004954252, 0.05810841, 0.08681388, -0.38919657, -0.16063823, 0.007527982, 0.08769255, 0.07017717, 0.10004793, -0.021661349, 0.1712526, -0.029731251, 0.0184496, 0.011297173, 
-0.055643942, -0.08962325, 0.08827997, 0.12372145, 0.2136103, -0.05482222, -0.10181403, 0.10646922, -0.039781068, 0.19854216, -0.11189936, 0.051617444, 0.20316005, -0.038019147, 0.018437479, -0.12106962, 
-0.017272333, 0.14684442, -0.05528403, 0.17290525, 0.003299606, -0.30521578, -0.06684094, -0.39100814, -0.14686492, 0.20638211, 0.08603692, -0.02348709, 0.21157181, -0.10188679, 0.19730723, -0.11752166, 
0.22148754, 0.12914182, 0.14789061, -0.0046469653, -0.0289846, -0.0027161574, 0.15994242, 0.1759179, 0.011681144, 0.14171945, 0.11425231, 0.050465766, -0.05557419, 0.0028095976, 0.20677781, 0.18281052, 
0.12008979, -0.015622721, 0.19941399, -0.065104105, -0.17231545, 0.12704161, 0.049537808, -0.020287003, 0.044154927, 0.17704506, 0.1226859, 0.123662464, -0.08500203, -0.10940849, 0.065267496, 0.13863686, 
-0.008478452, -0.053023215, 0.11260855, -0.2322642, -0.05581256, 0.13090385, 0.0092598265, -0.023827005, 0.058564585, -0.028970392, -0.17675684, -0.0019162165, -0.11405365, -0.1362355, 0.061035782, -0.0072283032, 
0.18106094, -0.06814563, -0.044430982, -0.1812148, 0.020476723, 0.077142775, -0.03555888, -0.3431938, -0.20753767, -0.5954336, -0.44319373, 0.014250305, -0.15034121, -0.08099411, -0.11055293, 0.102648206, 
-0.028111933, -0.038514443, 0.17833073, -0.26549745, -0.18259932, 0.039536443, 0.01713782, -0.0827073, -0.7178725, -0.25021648, -0.47782332, -0.2913998, -0.44128737, -0.0011281669, -0.13830985, 0.1702712, 
-0.068640925, -0.15763046, 0.07539349, -0.37069783, 0.09387107, -0.21638753, 0.035651013, -0.13284782, -1.4274364, -0.056501914, -0.35994643, -0.6167443, -0.5173998, 0.050509136, 0.23061334, 0.107952096, 
0.07494089, -0.0054520783, -0.31202313, -0.469246, -0.00079971435, -0.20146339, 0.014306157, 0.035794288, -1.235603, -0.24847656, -0.6175143, -0.7218011, -0.3863486, 0.066530876, -0.048409328, -0.062859155, 
-0.42119482, 0.08387379, -0.5310672, -0.89266884, -0.12642641, -0.5303831, -0.27797228, 0.46439084, -1.114977, -0.39966863, -0.48743555, -1.985443, -0.41675022, 0.13475947, -0.93240374, 0.077099934, 
-0.8731678, 0.056202393, -0.3429475, -0.58463764, 0.39036593, -0.057312794, -0.12936927, 0.078319035, -0.57664186, -0.039212205, -0.13348655, -0.08211269, -0.39074117, 0.018119482, -1.120944, -0.09621891, 
-0.5897754, 0.13189203, 0.033020075, -1.7876035, 0.2938267, -0.12704597, -0.04957614, 0.08988017, -0.19593273, 0.041368853, -0.20199247, -0.21109377, -0.47352105, 0.05640864, -0.47169763, -0.011510628, 
-0.2664102, 0.14104824, 0.05132336, -1.2601638, 0.02048489, -0.11807527, -0.08248628, 0.068976715, -0.12275239, 0.057891134, -0.26995838, -1.010061, -0.22246633, 0.053267833, -0.3606067, -0.12274515, 
-0.09100473, 0.072978735, 0.16545817, -0.41849694, 0.1316995, -0.1914562, -0.033785548, 0.10507317, -0.29308668, -0.069297664, -0.41832396, -0.843208, -0.3009885, 0.03247586, 0.29153186, -0.0767201, 
-0.09101859, -0.053875316, -0.05260488, -0.3394229, 0.11545221, -0.13684961, 0.09324577, -0.14985855, -0.23122092, -0.021206945, -0.52038705, -0.41535816, -0.18745543, -0.0048577185, 0.43978435, 0.034570515, 
-0.1525149, -0.29229558, -0.06980811, -0.12325915, 0.02471858, -0.15445365, 0.02513945, -0.06449915, -0.08628449, -0.099999525, -0.22148189, -0.13141324, -0.16164477, 0.01484556, 0.27710736, 0.072305806, 
0.051187903, -0.045302708, -0.21514478, -0.105734184, -0.07379129, -0.69917285, -0.07687961, -0.006818617, 0.016492967, 0.0251532, 0.11332925, -0.02858544, -0.17063388, 0.021800699, 0.28677145, 0.10899013, 
0.08554557, -0.06973171, 0.10810929, 0.032468885, -0.022514299, -0.4872818, 0.010801088, -0.132876, -0.07341568, 0.10007533, 0.100276284, 0.23101738, -0.08391561, -0.00082057505, 0.16023065, 0.091005884, 
-0.12512852, -0.18469729, -0.28521958, 0.012741705, 0.040345393, 0.016785635, -0.020168172, -0.06660728, 0.09234314, 0.1355409, 0.22153233, -0.47325134, -0.018362079, -0.006755714, -0.33408448, -0.26361006, 
-0.18813795, -0.030526837, -0.006367732, -0.15923211, -0.11238175, 0.007903327, 0.030583967, -0.016176153, 0.08141764, 0.077010676, 0.27734876, -0.5764022, -0.021375753, -0.0042323573, -0.54445505, -0.04402194, 
-0.18709296, 0.038178556, 0.07581406, -0.24440047, -0.038092468, 0.01595317, 0.0055532283, 0.07415034, 0.08879236, -0.047530193, 0.22070344, -0.46929902, 0.013084266, -0.0016087685, -0.3849457, -0.033876006, 
-0.35282356, -0.015232496, 0.094036914, -0.24417596, -0.000720072, 0.00190769, -0.012076097, 0.08830809, 0.09182358, 0.023583004, 0.022781424, -0.5243389, 0.040494516, -0.0010861014, -0.56050843, -0.058235038, 
-0.12104184, 0.012004424, 0.14644814, -0.02548571, -0.032264903, 0.0046635685, -0.017801424, 0.054565817, 0.08053694, 0.023241393, -0.021645077, -0.6522447, 0.022597315, -0.00048126688, -0.34977168, -0.13156335, 
0.032127764, 0.034442864, 0.107032776, 0.029125331, -0.062990114, 0.0137558235, 0.044164214, -0.055231452, 0.06513692, 0.054770898, -0.18083115, -0.49114132, 0.015944755, -0.009661983, -0.054907344, -0.15050457, 
0.0497437, -0.0060690707, 0.08969524, 0.14200142, -0.035114452, 0.009507542, 0.03412061, -0.015791504, 0.12904973, -0.08050171, -0.15570143, -0.5719568, 0.03209988, -0.005891033, 0.04473643, -0.18446645, 
0.14301956, -0.039996784, -0.3361316, 0.11145902, -0.09629158, 0.013267064, 0.0041849655, 0.03053792, 0.1396959, -0.18784432, -0.053876307, -0.066759996, 0.025213644, -0.00406924, -0.03696629, -0.21147594, 
0.04435669, -0.17936169, 0.011328732, 0.2521219, 0.03626351, -0.031683028, -0.22165513, -0.058132865, -0.124979965, -0.019318445, 0.35799894, 0.021007484, -0.13332963, -0.64605397, 0.13418105, 0.11381246, 
0.16884197, 0.049976066, -0.104297124, 0.30804417, 0.054329444, 0.016187865, -0.07708836, 0.0026682892, 0.04419373, -0.0004092769, -0.12350133, -0.009010406, -0.13384992, -0.6518197, 0.04925677, 0.0998968, 
0.1535039, 0.008156142, 0.073861614, 0.10806463, -0.08524487, 0.16940895, 0.03084089, 0.07821094, 0.11929209, 0.058966096, 0.049902834, -0.02515263, -0.11071179, -0.25827023, -0.019571539, 0.05741163, 
-0.16293347, -0.10630774, -0.093173966, -0.01752403, -0.044602253, 0.023552114, -0.16981964, -0.06774846, 0.15018089, -0.5086199, 0.15591522, 0.057679076, -0.08296761, -0.5302148, -0.111687966, 0.028285932, 
-0.35479355, -0.1414055, -0.25124785, -0.097354285, 0.041831255, 0.08764686, -0.14319792, 0.13768046, 0.1477499, -0.005421808, -0.09184785, -0.09724635, -0.11146165, 0.022727944, -0.12673853, 0.08566498, 
-0.009218101, -0.25799006, -0.12618496, 0.056969773, -0.00044099116, 0.039616905, -0.2038542, 0.1770518, 0.094097294, -0.23680301, -0.14381279, -0.33627516, 0.13472922, -0.045893095, 0.057331372, 0.28916705, 
0.17915107, -0.1911045, 0.05907872, 0.30784318, 0.060496625, 0.10939805, -0.21012917, -0.011360755, -0.05809105, -0.45462736, -0.12912281, -0.40214434, 0.054505393, 0.03789154, 0.059242267, 0.10795149, 
-0.06905039, 0.0145274745, -0.112782285, -0.07695392, 0.09307425, -0.05217475, -0.20352446, 0.18453182, -0.2213199, -0.20209453, 0.0937915, -0.22679935, 0.19043432, 0.11672794, 0.050264593, 0.09719683, 
-0.06531244, 0.21685275, 0.06028007, 0.22178951, -0.2835677, -0.19957623, 0.19033049, -0.21774237, -0.42787042, -0.25538415, -0.20608322, -0.45767492, 0.10895268, -0.4980873, -0.14903869, -0.05461024, 
0.21320876, 0.045803107, -0.058336325, -0.05090299, -0.27435213, -0.23085088, -0.19078313, -0.4503749, -0.65848374, -0.1461281, -0.1866895, -0.43880537, -0.19765358, -0.38794607, -0.06680252, 0.07615179, 
-0.40801445, -0.16046488, -0.19626343, -0.26707485, -0.25269973, -0.41523883, -0.2544687, -0.18429159, -0.26688638, -0.07614114, -0.07575119, -0.18177986, -0.273733, -0.5140491, -0.17204058, -0.029396717, 
0.22040859, -0.09202334, -0.38004985, -0.2279408, -0.33253926, -0.26449868, 0.053236295, -0.029369203, 0.13857502, -0.022987606, -0.27559355, -0.5585292, -0.10214472, -0.6113236, -0.2676699, -0.006848165, 
0.2855411, -0.5437079, -0.073745064, 0.1220095, -0.01601843, -0.1086653, 0.19432421, 0.058225762, 0.24269238, -0.028618362, -0.2962056, -0.19662535, 0.14882211, -0.66242003, 0.08086322, -0.08834882, 
0.18410237, -0.23838572, 0.053426534, -0.114092104, -0.08245386, -0.35240588, 0.18973836, 0.08201158, -0.04346876, 0.12523228, 0.23791416, -0.20972341, 0.10136606, -0.53142095, -0.023967594, -0.14036591, 
-0.20725685, -0.30158916, 0.12083577, -0.05798674, -0.16772385, -0.20146365, -0.04573665, -0.00031102504, -0.21728854, -0.022307457, 0.1071571, -0.11032105, 0.02243705, -0.49114084, 0.03058072, -0.09803926, 
-0.09494404, -0.29771394, 0.13524665, 0.14465058, -0.012556193, -0.07962894, -0.45860183, -0.09570121, -0.009064793, -0.10258588, 0.032544665, -0.14794874, -0.066416964, -0.5727511, 0.05823188, 0.08696367, 
-0.25258648, 0.058360502, -0.23230122, -0.04687267, 0.059691396, -0.21762928, 0.06694612, -0.15852176, -0.045697544, 0.16616653, -0.15816912, 0.055420153, 0.005351774, -0.14596832, -0.049287587, -0.03743655, 
-0.033078436, -0.15242863, 0.13181663, 0.11857739, -0.10060998, 0.056688312, 0.14966889, 0.3617457, 0.21244152, -0.046576705, 0.2273918, 0.20738663, 0.13150378, -0.0855003, -0.02462452, 0.13394006, 
-0.08049002, -0.17907242, -0.051022936, 0.026069863, 0.075200886, 0.029128306, -0.3832549, 0.12112327, 0.14262956, 0.11472535, 0.3189453, 0.192658, 0.036884565, -0.23232588, 0.13387361, -0.050867338, 
-0.11855122, -0.24131982, 0.21909444, -0.051596567, 0.24697648, 0.10482107, -0.1341833, -0.41293746, 0.18726544, -0.00057637045, 0.05763184, 0.16361237, -0.022229414, -0.36472267, 0.10650843, 0.089596264, 
-0.112601675, 0.011061954, 0.09160241, -0.22486928, 0.033183713, 0.021935105, -0.082721904, 0.103352174, -0.02435673, -0.09887228, 0.09269399, -0.08267213, -0.10649022, -0.28831714, 0.11301632, 0.08837084, 
-0.020989515, -0.25831622, -0.23095445, 0.08043145, 0.037515316, 0.0075957454, -0.0785551, 0.08277388, 0.06838639, 0.15093674, 0.057055037, -0.12632824, -0.19646691, -0.39192745, -0.06303477, -0.005101573, 
-0.11140824, -0.32419106, -0.089830436, 0.102706455, 0.022379646, -0.1886233, -0.14275998, 0.0024575735, -0.049037255, -0.048252475, -0.064900465, -0.08254883, 0.07214159, -0.083224945, -0.091675796, -0.057902783, 
-0.08257595, -0.21407849, -0.25231063, 0.26668817, -0.16581498, -0.048430786, 0.0025048854, 0.06472677, 0.0061165877, -0.19495197, 0.12150509, 0.56701934, 0.15187259, -0.19731317, -0.10922625, 0.2027295, 
0.35402864, -0.702296, 0.23755346, -0.36893746, -0.05758169, -1.0184646, -0.45451266, 0.0020550208, -0.2646782, 0.026484028, -0.20931125, -0.38849157, -0.68458694, -0.12687755, 0.2802317, 0.22079517, 
0.3154997, -0.33211958, 0.122382194, -0.13824323, -0.17303383, -1.0822444, -0.27932367, -0.09561583, 0.029494517, 0.13353975, 0.06221511, -0.20906155, -0.14245412, -0.27773076, -0.08228969, 0.019980848, 
0.41941205, -0.35161826, 0.19077985, 0.012311858, -0.0022012563, -0.92055035, -0.13188276, 0.012166393, -0.020971127, 0.29985762, 0.12723304, -0.057456944, 0.19955032, -0.07460657, -0.09316722, -0.18726069, 
0.003987755, -0.5405512, -0.008223458, -0.05837254, -0.050989877, -0.5586698, -0.022800997, 0.0961184, -0.1276166, 0.13813546, 0.18831766, -0.025546283, 0.119373955, -0.24258028, -0.039897215, -0.032944925, 
-0.120709725, -0.60517216, 0.21932006, 0.037662547, 0.06033279, -0.3718841, -0.00456114, 0.03301217, -0.09809459, -0.3004833, 0.2217416, -0.11194859, 0.08504177, 0.02806538, -0.0018198726, 0.06414728, 
-0.15569691, -0.4003026, 0.0035798491, 0.01056008, 0.14300227, -0.5875448, -0.4005571, 0.27172223, -0.014129368, -0.52948713, 0.28698084, 0.013284616, -0.030786155, -0.12894158, -0.036069926, -0.084651306, 
-0.120626785, -0.19536304, -0.009567473, 0.091181286, 0.19845964, 0.12533857, -0.2748633, -0.052531593, 0.06928292, -0.6701262, 0.055581514, 0.21003368, 0.14206304, -0.03018303, -0.038603406, 0.2462893, 
-0.068930045, 0.024805872, -0.042851225, 0.17953615, -0.04017945, 0.068104856, -0.47070968, 0.35574374, 0.107437134, -0.40008375, 0.105649985, -0.026642464, 0.047684897, -0.032103453, 0.00663274, 0.20401856, 
0.21995881, 0.30659413, -0.10743997, -0.42870572, -0.3361314, -0.031297684, -0.24987029, 0.3599742, 0.007927169, -0.22867931, -0.24509387, 0.14828397, 0.033643465, -0.09319236, -0.07750898, -0.36894363, 
0.11914799, -0.31704018, 0.14195204, -0.044154607, 0.050948907, -0.8909309, -0.1554229, -0.0046975412, -0.03762968, -0.14804316, -0.09617908, -0.0035534333, 0.01213769, -0.08930105, -0.14599642, -0.29015163, 
-0.0032241119, -0.049026925, 0.08561042, 0.06962306, 0.097763605, -0.21516812, -0.19095245, -0.14061332, -0.102972396, -0.015799966, -0.52272403, 0.071927056, 0.13081051, -0.09859581, 0.09874362, 0.0545995, 
0.23197843, -0.114453465, 0.26328397, -0.39046758, 0.082627825, 0.25022858, 0.054547943, -0.11173626, -0.060055505, 0.09277076, 0.20920868, -0.38763285, -0.14449339, -0.146767, 0.20276295, -0.12457904, 
0.20207931, -0.03597939, 0.11652466, -0.036471058, 0.20316489, 0.40316486, 0.22727482, -0.12336811, -0.005716939, 0.15152371, -0.05635328, 0.14110662, -0.16043068, -0.15676805, 0.22623937, -0.16363627, 
0.035076577, 0.11302597, -0.10993345, 0.056957394, 0.03914803, 0.25926968, 0.26056293, -0.15395668, -0.17337331, 0.25453272, 0.042126782, 0.15005058, 0.15891309, -0.07871975, 0.31664133, -0.8968409, 
-0.078912854, -0.06755397, 0.044416275, 0.09644321, 0.101268455, -0.093722194, 0.11929422, 0.1048572, -0.56795067, 0.103565425, 0.33665046, 0.040502634, -0.23271932, -0.2828639, 0.3792772, -0.28944117, 
0.006353748, -0.1984844, 0.03006614, -0.07770723, 0.22590856, -0.46914473, 0.005605456, -0.24208713, -0.09000966, -0.075022854, -0.16265655, -0.10401937, -0.2514262, -0.7397331, -0.04645117, -0.014676544, 
-0.13856359, -0.42581862, -0.2089947, 0.054356143, 0.15974432, -0.7976214, -0.09171903, -0.20584838, 0.04635889, -0.32336217, 0.0033688317, 0.06745098, 0.10196608, -0.40500465, -0.35023147, -0.03223425, 
0.024497699, -0.19842954, -0.02396013, -0.1064697, 0.21974377, -0.23413864, -0.22641985, -0.012228761, -0.35742858, -0.08509679, 0.15134506, -0.029557792, -0.11345394, -0.3779868, 0.04052967, -0.116645314, 
-0.9205826, -0.17839453, -0.06724208, -0.22980319, 0.099154726, -0.1776928, -0.1347849, -0.1194361, -0.6369024, -0.030904783, -0.022898242, 0.17911303, -0.14196052, -0.41094854, -0.042260237, 0.071977824, 
-0.85409206, -0.075529, 0.031592116, -0.13790117, -0.042363238, -0.83966756, 0.13848858, -0.06690298, -0.27093834, -0.08026437, -0.34682202, -0.054502115, -0.21774714, -0.3918348, 0.10865296, -0.046251997, 
-0.1554878, -0.0071140975, -0.004260636, 0.24595663, 0.04130146, -0.082610145, 0.14851823, -0.0082235765, -0.10617706, -0.06603092, 0.13222374, -0.08032684, -0.23080687, -0.1463756, 0.0006845112, 0.113940455, 
0.06968857, 0.008360837, -0.2566509, 0.21130745, 0.028945917, 0.36444032, 0.0012529016, 0.014450302, 0.18430316, 0.013494206, -0.07984797, 0.036359422, 0.0658653, -0.013040352, -0.1565538, -0.017285978, 
0.09333867, -0.035828464, -0.12620674, 0.0063803424, -0.013896199, -0.10546975, -0.082398444, 0.024384446, 0.3568807, 0.03421251, 0.16290176, -0.009178227, 0.039678633, -0.14980924, -0.3209983, -0.03350052, 
-0.005551146, -0.0068444605, 0.11037409, 0.0041212128, -0.11974927, -0.12964347, -0.045244243, -0.14082044, 0.018342199, 0.15808274, 0.14396417, -0.20672852, 0.09746597, -0.1225264, 0.048232667, -0.075102374, 
0.10273745, 0.06419983, -0.68114156, -0.123854555, 0.18601148, -0.17929107, 0.30443746, 0.06816343, 0.12406554, -0.0063230903, -0.14017567, 0.056978926, -0.3811576, -0.061523788, 0.33292598, -0.3435961, 
-0.021212436, 0.1510732, 0.008350893, -0.0018696946, 0.010318586, -0.19875915, 0.08287433, 0.09381849, -0.01201433, 0.08060429, 0.114105955, -0.05818014, -0.28830504, -0.101655036, 0.086751886, -0.27918467, 
0.15973864, -0.09439087, -0.061004076, -0.046916492, 0.038090758, 0.10525339, -0.07976749, 0.06832597, -0.24142939, -0.19189872, 0.12937857, -0.14681885, -0.4282934, -0.2784703, 0.19519666, -0.1326295, 
0.16578606, -0.37838084, 0.01149643, 0.016297393, -0.02992408, 0.2914505, -0.19511153, 0.073529705, -0.008951865, -0.42433798, 0.27218795, 0.041819595, -0.19619364, -0.3470989, 0.116034605, -0.14980923, 
0.06332732, -0.10767942, 0.13601288, 0.263745, 0.14899589, 0.33357534, -0.1459674, -0.16693752, -0.12689328, -0.27506927, -0.0020995764, -0.03821149, -0.16895494, -0.13270213, 0.049971856, -0.08732095, 
-0.17902237, -0.123965286, 0.090489365, -0.14343183, -0.032041505, 0.26835763, -0.71715975, -0.2739706, -0.056212883, -0.6640494, 0.15574977, -0.11821582, -0.15128903, -0.27642456, -0.031768106, -0.051906433, 
-0.34785444, -0.14454693, -0.07731065, 0.045894567, -0.036140263, 0.18810497, -0.7948812, -0.23837957, 0.072786145, -0.42360088, 0.17209175, -0.1680889, -0.08788763, -0.02168084, -0.15228991, 0.01463161, 
0.12410519, -0.2958268, -0.09919231, 0.06480553, 0.26996702, -0.15815517, -0.49725828, 0.07176099, -0.004117504, -0.29166058, -0.0421316, -0.11985211, -0.04527487, 0.04884508, 0.025316903, 0.1500695, 
0.16945606, -0.07469696, 0.0459505, -0.10497496, 0.19811706, 0.0033272952, -0.06685053, -0.10052577, 0.119914174, -0.08001019, 0.03279096, -0.21353781, 0.08640536, -0.29706615, -0.13269648, -0.06527535, 
-0.067927256, -0.10831144, -0.13469695, 0.06563143, 0.22369027, -0.23328008, 0.12931493, -0.08896085, -0.15639257, -0.0056332396, 0.17612478, 0.003331868, 0.18132918, -0.032542627, -0.1276566, -0.004857741, 
0.07920091, -0.08751336, -0.058407076, 0.11861968, -0.014318762, -0.28006214, -0.13097113, 0.13839893, -0.022224298, -0.011420588, 0.30792487, 0.07468132, 0.19988735, -0.13766386, -0.10282338, 0.038314983, 
0.18377244, 0.0865426, 0.09748429, 0.069744565, 0.06388256, 0.047982838, -0.13010119, -0.0011067683, 0.13938813, 0.009926292, 0.22733583, 0.035024844, 0.1400676, -0.20103408, 0.15225284, -0.02295767, 
-0.10880195, 0.010026482, 0.033773832, 0.19371136, -0.1756544, -0.0061311205, 0.075970285, -0.04137953, 0.029903686, 0.080508135, 0.14778861, 0.08666851, 0.46116993, -0.3300749, -0.06136394, -0.13490361, 
0.019006154, -0.016532533, 0.09994233, -0.057989404, 0.11498065, 0.123012856, 0.0014514618, -0.15083912, 0.058052767, 0.052296404, 0.009663816, -0.18770692, 0.2882609, -0.41001797, 0.17503211, 0.13802455, 
0.026645247, -0.06533124, 0.026772104, -0.07414031, 0.05106811, -0.0018942691, 0.010274318, 0.103358895, 0.18292572, 0.22010389, 0.06867925, -0.0901789, 0.021417862, -0.29272726, 0.037089933, -0.14915578, 
0.27782995, -0.043287493, 0.066310674, -0.2243575, 0.0098104, -0.17746201, 0.20014612, 0.10414673, 0.19447793, 0.23086628, -0.0073785298, -0.16561642, -0.10516447, -0.28357816, 0.12226906, -0.13651069, 
};

const float MyModel_layer_4_bias[] = {
0.038996153, -0.09306508, 0.4375184, -0.09921844, 0.053727098, 0.21243657, 0.14084665, -0.07266647, -0.025658363, -0.11410541, 0.24657865, 0.011246848, 0.065179914, -0.3912799, -0.44003212, 0.03144583, 0.105501175, -0.23216842, -0.24190667, 0.22348316, -0.10992666, 0.003841178, 0.076703325, 0.34842816, -0.22886011, 0.3189038, 0.027965931, -0.33050358, -0.10835396, 0.35948902, 0.2302062, -0.15604983, };


const float MyModel_layer_8_weights[] = {
-0.0034537036, -0.004420016, -0.0010764329, 0.0028716295, -0.014834875, -0.020031238, -0.03491791, 0.0016801335, -0.013174802, 0.0050910222, 0.0020500713, -0.00384347, -0.008700877, 0.066549525, 0.46790776, 0.48559877, 0.30063105, 0.05980431, 0.0107572675, 0.014163106, 0.0041338284, 0.0055400543, -0.013151971, -0.0006976314, -0.0031096488, -0.0064775394, 0.00461409, -0.014050064, 0.009226699, 0.03492961, 0.012420581, -0.0281895, 0.0060332576, -0.022235418, -0.00814217, 0.006644746, -0.0069046333, 0.0133222025, 0.0019359011, -0.013518091, -0.0033507869, -0.0019248988, -0.013912162, 0.032978285, -0.022435127, -0.007093335, -0.043188274, -0.020936335, -0.019958911, -0.000837571, 0.0053920522, 0.003833537, 0.013606096, 0.030447884, 0.018462883, -0.009770374, -0.017345117, 0.004335194, 0.003770897, -0.016808238, -0.024736283, 0.0018862766, 0.012520985, -0.020084053, -0.019687906, -0.0026373148, 0.0018144369, 0.035187263, 0.0051345765, 0.020178188, -0.0031039515, 0.013940496, -0.018706543, 0.015886571, -0.0020706523, -0.009691314, 0.0014637916, -0.008571655, -0.2920715, -0.37504068, -0.011287681, -0.01354865, -0.0024911177, 0.0020847027, -0.09082086, -0.02259321, -0.0008429741, 0.003133168, -0.013729951, 0.033455692, -0.016496805, -0.022028767, -0.019758431, -0.008634962, -0.009215785, -0.0059823757, 0.06942209, 0.020088118, -0.0011310215, -0.00028302506, 0.0059483587, 0.00901549, -0.09568988, 0.011421319, 0.001539012, -0.0011368273, 0.00045216052, 0.0037941039, -0.0028152438, -0.015673446, 0.0023242012, -0.005749407, -0.008177344, 0.007937711, 0.0066016023, 0.016692428, -0.0025174923, 0.10979015, 0.013009874, 0.01346284, 0.07799873, 0.029510286, 0.021174863, 0.0154637415, -0.000750481, -0.005008352, -0.0071078246, -0.064637505, 0.08295608, -0.0610169, -0.036577873, -0.006247078, -0.027534172, -0.023572939, -0.0056165233, 0.5757376, 0.16726683, 0.032071453, 0.0034221804, -0.0031544066, 0.021877958, 0.5873913, 0.3537709, 0.018493602, -0.05680748, -0.021368977, -0.025483025, -0.0048655807, -0.00030593984, -0.00532363, 0.02496321, -0.013181516, -0.0075437897, 0.06640299, -0.13793021, -0.008083253, -0.011090888, 0.01852564, 0.002970111, 0.00047590488, -0.0023834885, -0.0032655904, -0.0006212185, 0.0064597125, 0.003787688, 0.0017805041, -0.0049774894, -0.050781738, -0.0036988112, 0.0037540228, 0.0053951154, 0.0007551511, -0.0046855267, -0.004404877, -0.020253126, 0.0007535527, -0.0074696266, -0.00599725, -0.05996988, 0.0014005121, -0.013313033, -0.05064081, -0.0155577725, -0.005898471, -0.051530298, -0.043668192, 0.02739602, 0.007868346, -0.0008488747, -0.0007999967, -0.0043543587, -0.0050802836, 
0.03237766, 0.094002835, 0.04712521, -0.05492147, -0.01324441, -0.0796703, 0.06776119, -0.051470306, -0.013786057, -0.027220953, 0.004549021, -0.0063203014, 0.20063382, -0.024058597, -0.2256199, -0.25879854, -0.2770998, 0.28166604, -0.07165378, -0.120553985, 0.030285973, 0.08280216, 0.01756732, -0.074901134, -0.014784968, -0.11757541, -0.04622794, -0.049296964, 0.016202891, 0.338029, -0.021013094, 0.06346192, 0.24834408, 0.302416, 0.060251705, 0.0127274785, 0.042035095, 0.036044803, -0.08482482, 0.02449791, -0.036747973, -0.074958414, 0.023771457, 0.15067424, -0.03725157, -0.0017148018, -0.02233815, 0.30012822, 0.07426498, -0.30449906, -0.023911629, -0.14581026, -0.015936662, 0.02464456, -0.09623006, -0.081740156, -0.104024984, 0.04695045, -0.010208622, -0.048510205, 0.27342403, 0.23046073, -0.03778341, -0.030226244, 0.009444186, 0.03495987, 0.14228915, 0.08001193, 0.0032762727, -0.19572455, 0.16479604, 0.02265197, 0.06614937, 0.09085575, 0.04803137, 0.0024752046, 0.0032819826, -0.01035655, -0.19160761, 0.18284214, -0.03170598, -0.1692687, 0.0059480816, 0.022345567, 0.26985255, -0.055876434, 0.011129852, 0.019328138, 0.008963689, 0.039046858, 0.0062780636, -0.10999912, -0.052831378, 0.008222508, -0.06223131, -0.07054683, -0.07309014, -0.100601494, 0.03339668, 0.0021264646, 0.07938696, 0.022472607, -0.027826276, 0.11889801, 0.09591578, -0.12617198, -0.02519037, -0.0559965, -0.13372488, -0.05471217, -0.009648049, 0.008441914, -0.01837131, -0.040564656, 0.05342909, -0.06648661, 0.021083724, -0.06559068, 0.19959603, 0.23056485, 0.017051512, -0.054123484, -0.07178595, -0.01141369, -0.050874993, -0.0026970685, 0.17839095, 0.32702878, 0.41340008, 0.46884936, 0.43610168, 0.07786544, 0.017676847, 0.31307036, 0.20797977, -0.46004948, -0.08331084, -0.15298812, -0.059369866, 0.031559095, 0.06442181, -0.36909515, -0.050260678, 0.081751786, -0.20709975, -0.098259695, -0.08134044, -0.053251196, -0.054376498, -0.033860236, -0.16809948, -0.0050308607, -0.28569752, 0.4549681, 0.17954174, -0.613585, 0.0494417, -0.044369366, -0.03269027, 0.03955951, -0.014804203, 0.0053333724, -0.17985792, -0.069640554, -0.11036278, -0.036288917, 0.038793534, 0.17069206, -0.018220685, -0.198754, 0.009830986, 0.08454097, 0.0440057, -0.009056765, -0.22930808, -0.20923229, -0.07173749, 0.029469138, 0.02723758, -0.010907343, -0.24224548, -0.07803127, -0.054968685, -0.05120658, -0.05290472, -0.20271309, 0.07823812, -0.037984226, -0.049904156, -0.011128758, 0.0022559038, 0.015332928, 
-0.07024138, -0.050406963, -0.049721505, 0.042948596, -0.07791657, -0.06881431, -0.058256622, 0.08520916, -0.00016562636, -0.035628557, -0.11914411, -0.025937958, -0.022243755, 0.09436984, -0.16547655, -0.11695264, -0.04922181, -0.013462096, -0.16008285, -0.25484592, -0.23674533, -0.075832754, -0.23928824, 0.07048497, -0.29234308, 0.113133125, 0.053514037, 0.45777792, -0.0037797075, 0.1400899, 0.075131916, 0.15229073, -0.011033163, -0.07914185, 0.009992036, 0.10784991, 0.10780774, -0.14943792, 0.098835014, 0.14923842, -0.0795376, -0.10327991, 0.23609981, 0.004743142, -0.066571586, 0.5244588, 0.28240666, -0.08130104, -0.07076655, 0.31932247, 0.054787237, -0.042073313, 0.13765825, -0.20779626, 0.20988157, 0.22211798, 0.2518777, -0.24626486, 0.008382286, -0.06349838, -0.20105815, -0.1055903, 0.0018113514, 0.19437985, 0.052640427, 0.18011017, -0.2540647, -0.2614336, -0.052775454, 0.41459182, 0.002246549, 0.24680287, -0.057424553, -0.07495997, -0.0705976, -0.083692245, -0.0638356, -0.15386583, 0.48100737, -0.024665507, 0.00056470034, 0.20395209, 0.32704392, 0.08945007, 0.07531686, -0.13253933, -0.007722898, -0.12983784, 0.044180717, 0.002045693, 0.023148254, -0.053107012, -0.041507654, 0.007051531, 0.026583936, -0.048715312, -0.002315236, -0.011971933, -0.017257292, 0.079458795, 0.09620676, 0.079208806, -0.11824642, 0.13743195, -0.1658696, 0.20061713, -0.019391354, -0.13425647, -0.1265228, 0.49480143, 0.053093072, -0.061857942, -0.12200477, 0.037584856, -0.051561784, -0.028587563, -0.14802475, 0.1245406, -0.10794183, 0.14939223, 0.12556355, -0.059202746, -0.068309255, -0.0984044, 0.08683042, -0.12477848, -0.14046438, -0.077701166, -0.2557143, -0.30022877, -0.116659656, 0.0437247, -0.012613853, 0.052075908, -0.09901889, -0.09632663, -0.17964494, 0.08801653, -0.10988841, 0.052050326, -0.09916317, 0.07458423, -0.0015728823, 0.045218144, -0.120832026, -0.16942114, 0.077182494, -0.029704832, 0.1260066, 0.099229604, 0.22204837, -0.1636936, 0.47616076, -0.38063234, -0.11928895, 0.44953895, -0.013331858, -0.20383509, -0.006142618, -0.12242706, -0.06143127, 0.044554763, 0.12672235, 0.020051999, 0.32371336, 0.5135831, 0.08739477, -0.09384301, -0.20596337, 0.057059836, -0.129548, 0.035496265, -0.02298241, -0.02362538, 0.11339136, 0.037987206, 0.11231063, 0.108148, -0.11069258, -0.016065154, -0.06825938, 0.10644955, -0.0075579598, -0.07888475, 0.04907502, 0.110981435, 0.0046848822, -0.011000884, -0.023695376, -0.031237578, -0.09816144, -0.04246077, 
0.08587589, -0.018276764, 0.039242968, 0.12529904, 0.51136184, 0.19293264, -0.07756732, -0.09939439, -0.16094103, 0.035276227, 0.06807584, -0.30792704, -0.12187367, -0.051729638, -0.1217643, -0.044092666, -0.033103608, -0.22330514, 0.320623, 0.20320633, 0.29451242, -0.10523162, 0.30083677, 0.30728295, 0.028494513, -0.10046052, -0.041488916, -0.32358798, 0.07826672, -0.118039064, 0.018098552, -0.11110326, -0.159332, -0.17309922, 0.0016412729, -0.039004102, -0.17351636, -0.0765302, -0.0017174159, -0.17436393, 0.11390504, 0.17718452, -0.02098415, -0.12510367, 0.31647944, -0.33056223, -0.41070676, -0.58222914, -0.18204097, 0.038960174, 0.044227976, 0.2791127, -0.1486084, 0.42111066, -0.15900165, 0.21628107, -0.11153435, 0.2595865, -0.0076857116, 0.37977323, 0.040533375, 0.18356647, -0.21983804, -0.10709102, -0.12134643, 0.15461485, 0.04737484, 0.103297055, 0.16218843, -0.1549396, -0.13945249, -0.2889162, -0.24456653, -0.18190272, -0.0033334391, -0.14888538, -0.10435756, -0.33052644, 0.028455054, -0.014137526, 0.47375405, 0.13571008, -0.30414155, 0.027719362, -0.0411822, 0.68432313, 0.05580754, 0.114522755, 0.3033281, 0.22508207, -0.048203528, 0.1806019, -0.22728628, -0.0029020947, 0.10117239, 0.07004615, 0.044770245, -0.21755114, -0.033330675, -0.118667945, -0.42152604, -0.00033186915, 0.2271956, -0.11721662, 0.037853077, -0.07395582, 0.07757676, 0.465532, 0.2030178, -0.46873948, -0.16498674, -0.022190351, 0.24979316, 0.65048903, -0.046723325, 0.11374468, 0.1828935, -0.16653237, 0.10831276, -0.048717696, -0.16258699, -0.24383515, 0.22843581, -0.08017769, -0.077440396, -0.015791321, -0.027447397, -0.2969668, 0.12051473, -0.030725861, -0.33153853, 0.08605816, 0.22100398, -0.112713546, 0.04982162, -0.016744541, -0.0035000173, 0.1521209, 0.1065372, -0.056324236, 0.11291408, -0.21715441, -0.1636549, 0.08963453, -0.021389248, 0.23248866, 0.21107931, 0.1404371, 0.04413593, -0.12896286, 0.038645662, 0.16441438, -0.14125137, -0.261131, -0.013547329, 0.116721034, 0.07299578, 0.1570707, -0.09456351, 0.11150289, 0.016103303, -0.35242867, -0.24357077, -0.007991871, -0.23171736, -0.45758343, -0.61749125, 0.054218534, 0.34899133, 0.6200834, 0.19374806, -0.18673167, -0.20460881, -0.11615848, -0.111110665, 0.17183565, -0.053964358, -0.2530883, 0.5862894, 0.056298837, 0.21051617, 0.022303889, 0.42773253, 0.26861322, -0.06658203, 0.2781573, -0.14224403, -0.06340968, 0.03597491, 0.07166827, 0.058141768, -0.3655402, 
-0.05036905, -0.025083546, -0.03830262, -0.1126694, -0.40729105, -0.032227676, 0.09943008, 0.06370417, 0.18520615, 0.023720143, 0.04321337, 0.3440719, -0.048275884, -0.082023926, 0.038056396, -0.06375277, 0.058933165, -0.10271618, -0.111043856, 0.16668178, -0.085099384, 0.0938661, -0.07121532, -0.3055683, 0.2747226, 0.10772145, 0.03271542, -0.0675687, -0.09521969, -0.39259577, -0.08547751, -0.07254113, -0.08857681, -0.030074034, -0.061297003, -0.08772691, 0.032591872, 0.17742679, -0.01468672, 0.0102203805, 0.004222177, 0.0047270656, -0.22822611, -0.06415958, -0.18816677, -0.183089, 0.19240063, 0.3866748, 0.20134062, -0.05554103, -0.07775029, -0.094217636, 0.010981361, -0.26560345, 0.027414177, -0.33768222, -0.02905174, -0.0634984, 0.00928123, -0.25975493, -0.09149131, -0.31630048, 0.24923618, -0.036286816, 0.07523731, -0.36952424, 0.05881214, 0.03782596, -0.118220314, -0.07135491, -0.023622222, 0.00226367, 0.25150317, 0.1451373, 0.02463204, 0.24068838, 0.16502145, 0.5005581, -0.038910363, 0.21267733, -0.43338904, -0.16630971, -0.025121711, -0.1394149, -0.21575256, -0.48117256, -0.060386315, -0.0004771032, -0.34273392, -0.28327757, 0.03788529, 0.008642107, 0.33860934, -0.0039052544, -0.05854811, 0.05790045, -0.033843927, 0.31495684, 0.01665595, 0.03939731, 0.24153526, -0.10199497, 0.016747411, -0.15001455, 0.033975836, 0.0047632805, -0.033242658, -0.2768904, 0.061274126, 0.041732542, 0.12529181, 0.08205615, -0.09455324, -0.6467055, 0.038308598, -0.032947965, -0.055324852, -0.0038728877, -0.21535817, -0.33683068, -0.04978951, 0.33560887, -0.1060563, 0.1760882, 0.0364997, 0.14316274, 0.0017150649, 0.10635853, -0.37322456, -0.07533764, 0.044463873, -0.19866483, -0.19565102, -0.23347405, -0.15489013, -0.0065345354, 0.09482374, -0.11857383, 0.06489208, -0.025841057, -0.10491038, -0.07129785, -0.13797717, -0.23662828, 0.39767724, 0.05542737, -0.18453604, -0.051277466, -0.11518696, 0.0786481, -0.1090954, 0.011941874, -0.04418255, 0.10290671, 0.08894944, 0.060640477, -0.10169643, 0.07356816, 0.13659842, -0.030147329, 0.05858482, 0.3086533, 0.28475395, 0.054075476, 0.020209743, -0.013615286, 0.49084407, -0.08443731, -0.12384888, -0.49160257, -0.07922567, 0.06287433, 0.1817012, 0.15745035, 0.24181508, 0.0039160317, 0.021647876, 0.13105984, -0.44315755, -0.024774387, 0.109202534, -0.0068601253, -0.34294146, -0.13277164, 0.11933481, -0.13916644, 0.035374306, 0.10470242, 0.040229023, -0.026012458, 0.047271118, 0.40215978, 
};

const float MyModel_layer_8_bias[] = {
0.014831161, 0.16154744, 0.14117225, 0.27614164, 0.4019753, };




MyModel::MyModel()
	: ModelInterface()
{
	init_buffer(2048);
	total_macs = 103965;
	input_channels = 4;
	input_height = 1;
	input_width = 512;
	output_channels = 5;
	output_height = 1;
	output_width = 1;
}

void MyModel::forward()
{
	Conv1d<512, 4, 8, 8, 4, 0, float, float, float, 0, 1024>(
		output_buffer(), input_buffer(), 
		MyModel_layer_0_weights, MyModel_layer_0_bias);
	swap_buffer();

	ReLU<float, 1016>(output_buffer(), input_buffer());
	swap_buffer();

	Conv1d<127, 8, 16, 8, 4, 0, float, float, float, 0, 1024>(
		output_buffer(), input_buffer(), 
		MyModel_layer_2_weights, MyModel_layer_2_bias);
	swap_buffer();

	ReLU<float, 480>(output_buffer(), input_buffer());
	swap_buffer();

	Conv1d<30, 16, 32, 8, 4, 0, float, float, float, 0, 1024>(
		output_buffer(), input_buffer(), 
		MyModel_layer_4_weights, MyModel_layer_4_bias);
	swap_buffer();

	ReLU<float, 192>(output_buffer(), input_buffer());
	swap_buffer();

	ChannelReorder<float, 32, 1, 6>(output_buffer(), input_buffer());
	swap_buffer();

	Linear<192, 5, float, float, float, 0, 1024>(
		output_buffer(), input_buffer(), 
		MyModel_layer_8_weights, MyModel_layer_8_bias);
	swap_buffer();

	swap_buffer();
}
