#include <MyModel.h>


const float MyModel_layer_0_weights[] = {
-0.06273254, -0.27577215, -0.020584632, -0.09685595, 
-0.14456089, -0.20355397, 0.17069387, -0.091769785, 
-0.04240268, -0.16312756, -0.028365828, -0.12752867, 
0.13381349, -0.16617922, -0.09018632, 0.059214935, 
0.080654845, 0.16185264, -0.04578775, -0.113289185, 
0.11522196, 0.12993847, -0.034041885, 0.02207689, 
0.0214155, 0.076856636, 0.17893803, 0.168583, 
0.01225756, 0.13565794, 0.16701628, -0.08454993, 
0.05045308, 0.0076458994, -0.3341713, 0.029245986, 
-0.14606504, -0.09896488, -0.24967128, -0.0038952704, 
0.13965093, 0.18843018, -0.0842206, -0.0658861, 
-0.008439202, 0.41237482, 0.23787601, 0.09859155, 
0.0629319, -0.08865389, 0.31722626, 0.122225195, 
0.23438144, -0.16591305, 0.1163897, -0.090854995, 
0.09043871, -0.3217783, 0.11028141, -0.108306475, 
0.011840284, -0.19500113, -0.12794557, 0.015367694, 
-0.12366686, -0.8383291, 0.25967446, -0.031098781, 
0.027412431, -0.65999573, 0.0026727582, -0.11513386, 
-0.052869353, -0.9106221, 0.26380184, -0.17013802, 
0.04041165, -0.64612097, 0.42750794, 0.094083585, 
-0.11985751, 1.0465819, -0.28873774, -0.04883517, 
0.103901386, 0.8715838, -0.013434347, 0.034147855, 
0.20589234, 0.6765158, -0.3025522, 0.14044382, 
-0.12310086, 0.43822753, -0.3758809, 0.12245926, 
-0.008178841, 0.8861772, -0.23991834, -0.054859456, 
0.07527918, 0.57534164, -0.4075818, -0.086308815, 
0.07348624, 0.36797544, -0.10520686, -0.021576574, 
-0.08325765, 0.31474793, -0.5727276, 0.1129891, 
-0.13663562, -0.61240405, 0.14855576, -0.09775288, 
-0.019901117, -0.3328109, 0.519056, -0.05480111, 
0.06757474, -0.53777844, 0.13721696, -0.0051385625, 
0.0137258945, -0.7557899, 0.45757374, 0.10206493, 
-0.022451015, 0.148744, -0.16715367, 0.09049719, 
0.010563584, 0.2473921, -0.02532563, -0.012264995, 
-0.061732884, 0.07080763, -0.03492223, 0.11239091, 
0.018941464, 0.12538841, 0.10578208, -0.16098337, 
0.013177099, -0.12685564, 0.13549562, 0.05100139, 
-0.0043102237, -0.17374723, -0.058114134, 0.08658862, 
0.033064295, 0.022855649, -0.11131004, 0.11738003, 
-0.061974306, -0.090467975, -0.13494956, -0.044915564, 
-0.085602134, -0.65078396, -0.1259885, 0.07582953, 
-1.0388856, -0.007093903, 0.123231135, -0.13436836, 
-0.24540201, 0.5365802, 0.08433426, 0.18172652, 
1.3911202, 0.47501206, -0.118460566, 0.1431369, 
0.9850773, 0.09634874, 0.13631515, -0.13614492, 
0.586207, -0.60069937, -0.22478664, -0.025057252, 
-0.58895063, -0.2432241, -0.13616887, -0.042982932, 
-1.0647138, 0.40609613, 0.24994668, -0.058987256, 
0.11138442, -0.41087103, -0.35812193, 0.06447995, 
-0.08008321, 0.1947065, -0.11123382, -0.122871816, 
-0.4316844, -0.12859692, -0.1161493, 0.020479295, 
-0.24326994, -0.037256993, -0.24124782, -0.19151811, 
0.07881798, 0.3351085, 0.41161302, -0.13373311, 
-0.23722652, 0.11061686, -0.12508392, -0.16525419, 
0.23209238, -0.031615097, 0.1460522, -0.17624141, 
0.21446829, 0.2589739, 0.18901467, 0.10960717, 
0.09350999, 0.015285921, -0.3974381, -0.20372958, 
-0.09216812, 0.105442174, -0.37276578, 0.007045291, 
0.1720046, 0.24602962, -0.37452516, -0.056202784, 
0.13598387, 0.051102843, -0.2460651, -0.17546134, 
-0.10852419, -0.29805413, 0.19614105, 0.068992734, 
-0.2451111, -0.4438243, 0.12716553, -0.032159142, 
-0.47302148, -0.33817387, 0.21454002, -0.15880038, 
-0.25977558, -0.07352308, 0.123917975, -0.14775006, 
0.28673786, -0.096473955, -0.11014085, 0.00014822905, 
0.09890591, -0.50365466, -0.5396775, -0.046489596, 
-0.25014138, -0.16785713, -0.23635882, 0.015666265, 
0.13668022, -0.5909161, 0.40093777, 0.12138865, 
-0.037152875, -0.14656235, 0.086719796, 0.069356196, 
0.031886294, -0.0017849844, 0.45263937, -0.027429432, 
0.053644657, 0.28789198, 0.08561384, 0.094628245, 
-0.4513583, 0.72220814, 0.09639268, -0.12999526, 
-0.20108002, 0.08420634, 0.19371356, -0.029700318, 
-0.14237417, 0.13902977, 0.062104017, -0.0012335718, 
-0.02622685, -0.08125849, -0.51834255, -0.19852298, 
0.04877687, 0.30030066, -0.11588715, -0.12817821, 
0.0767149, 0.39554536, -0.12650938, -0.17274958, 
0.23323002, -0.14681688, -0.041124664, -0.05136967, 
0.081049204, -0.3806857, 0.20603734, 0.0661897, 
0.1767734, -0.37877232, -0.18627377, 0.039471913, 
-0.2709933, 0.025511812, -0.03261752, -0.05133471, 
0.03319422, -0.28517848, -0.11423122, 0.020064687, 
-0.037314624, 0.06401548, 0.16900045, -0.1732543, 
-0.15185176, -0.15775126, -0.11871573, -0.06389006, 
0.4991132, 0.05839042, 0.24159348, -0.011277268, 
-0.078030914, 0.08381569, 0.31041616, -0.0054169227, 
-0.33752772, 0.12362953, -0.29546002, 0.07064525, 
-0.13993555, -0.006381686, 0.12958118, -0.037545495, 
-0.026577817, 0.41106123, -0.43357232, -0.033419795, 
-0.08725587, 0.2704367, -0.19194098, 0.14267805, 
-0.34657598, 0.16741095, -0.16198146, 0.103635825, 
-0.30258456, 0.29499495, -0.21915947, 0.013470108, 
-0.07704708, -0.31990424, 0.21453263, -0.10624955, 
0.17263854, -0.06828783, 0.13398331, 0.21543415, 
0.14917243, -0.3016649, 0.17036395, 0.16349293, 
0.35190874, -0.53299546, 0.38501582, 0.16430888, 
-0.63470215, -0.032508053, 0.579187, 0.1747885, 
-0.571452, 0.32868877, 0.6182179, -0.147855, 
-0.41583022, 0.49881536, 0.5578032, 0.01852688, 
-0.316277, 0.32128966, 0.3657979, -0.1832124, 
0.56823987, -0.10872487, -0.49844024, 0.121659964, 
0.46256247, -0.31518674, -0.65881574, -0.07700815, 
0.39428124, -0.38391724, -0.54816824, -0.047317933, 
0.50628364, -0.27350435, -0.4232664, 0.16887061, 
-0.2454176, -0.3509254, -0.02444389, -0.15913634, 
-0.23160037, -0.29875538, 0.16950226, -0.05555352, 
-0.045354106, -0.18792282, 0.14558057, -0.053703465, 
-0.14092189, -0.16863102, 0.19430168, 0.08752454, 
0.20900115, 0.2819671, 0.10782372, 0.15917167, 
0.20574048, 0.18896906, -0.08433123, -0.108426034, 
0.15756464, 0.36706293, -0.18988514, -0.06236395, 
0.3410707, 0.30579466, -0.13379681, -0.17824234, 
0.63776237, -0.23448694, -0.54626304, 0.20015198, 
0.5352428, -0.15318054, -0.5903351, -0.047068078, 
0.46378663, -0.3531249, -0.4541381, -0.12773721, 
0.5392518, -0.34822732, -0.3281076, 0.04562477, 
-0.4288079, -0.07389367, 0.43774998, -0.12268783, 
-0.67054576, 0.14992033, 0.3782151, -0.056035187, 
-0.57300436, 0.4528455, 0.6086361, 0.18051644, 
-0.5250817, 0.5314894, 0.51556134, -0.08151284, 
-0.18023667, -0.035439298, 0.29660046, 0.1739331, 
-0.0026586556, 0.057267927, 0.38025343, -0.052049223, 
0.004483594, 0.047238287, 0.2688608, 0.02952244, 
0.029173132, -0.046744153, 0.18138415, 0.17726837, 
0.23365882, 0.17327224, -0.07661607, 0.092155986, 
0.17866635, 0.11902133, -0.09446912, 0.19254036, 
0.18729842, 0.16206457, -0.16580263, -0.036886647, 
0.22353365, 0.18673545, -0.11361771, 0.08049753, 
};

const float MyModel_layer_0_bias[] = {
-0.360461, -0.5126678, 0.02107901, 0.12832949, 0.30724463, -0.10250298, -0.5301148, 0.19499435, -0.8246083, -0.6827744, -0.49665853, -0.011311337, 0.20810723, -0.33323586, 0.09778808, -0.039236933, };


const float MyModel_layer_2_weights[] = {
-0.43843094, -0.10223974, -0.5224163, 0.3219448, 0.059803613, -0.32063046, 0.023516675, 0.3633696, -0.25025946, -0.16681644, -0.33469164, -0.14720686, 0.26412, 0.27722445, -0.36700043, 0.30936807, 
-0.1110331, 0.21221532, -0.7255714, 0.40013704, 0.43337828, -0.37694442, -0.15787998, 0.17122434, -0.0031131473, -0.10437437, -0.31419903, -0.41121653, 0.40066975, 0.028988684, -0.24981259, -0.2584641, 
-0.11917721, 0.18310474, -0.54675657, 0.41720685, 0.34652802, -0.37579355, -0.36311153, 0.10276037, -0.16725585, -0.023974491, -0.11593877, -0.028633982, 0.28484774, -0.074810766, 0.089211784, -0.1315256, 
0.03925695, 0.13519001, -0.3345301, 0.26160863, 0.0728463, -0.5116931, -0.11305748, -0.00031194612, -0.25639945, 0.0354902, 0.089626096, 0.16719313, -0.2386447, 0.03658469, 0.20958266, -0.38424417, 
0.1353268, -0.06635262, 0.042011287, -0.09840201, 0.007296981, -0.4764656, 0.19022998, 0.044460494, -0.009851733, -0.013935386, 0.054004915, 0.24847734, -0.3606841, -0.12705335, 0.30582678, -0.42878017, 
0.18324827, -0.06324983, 0.19374235, -0.41884714, -0.3609057, -0.5905478, -0.19091386, -0.040900663, -0.16587275, -0.062282804, 0.18928106, 0.29312903, -0.5158157, 0.13654992, 0.25886872, 0.059483327, 
0.105731815, -0.17788446, 0.28113264, -0.6128131, -0.39343646, -0.44658172, 0.20370018, -0.13784488, 0.1074912, -0.03347349, 0.26706654, 0.02798405, -0.4254195, -0.12345252, 0.06383865, 0.4545123, 
0.14820223, -0.20410046, 0.20700808, -0.4555883, -0.17057532, -0.19616923, 0.41735145, -0.37836334, 0.45256296, 0.109804265, 0.1392364, -0.11350063, -0.30079293, -0.27654538, -0.15790544, 0.41747186, 
0.28548378, -0.028427828, -0.12617414, 0.1430577, -0.3242942, 0.11741861, 0.058572322, 0.20595309, 0.042565946, -0.26707974, 0.11226759, 0.00039737337, -0.13846964, 0.26841605, -0.004808823, -0.434155, 
0.31653735, -0.074053116, -0.2599537, 0.05590434, -0.07851916, -0.101043, -0.145196, 0.22822012, -0.072703674, -0.037284832, -0.09928303, -0.28188974, -0.26845717, 0.28224418, 0.015111067, -0.35735846, 
-0.18169405, 0.077333465, -0.19172674, -0.064723335, 0.045087412, -0.0008573379, 0.040617015, 0.24193865, -0.1832912, 0.04814129, -0.06010698, -0.009071975, -0.16740222, 0.2731153, 0.045758486, -0.48016325, 
-0.08618649, -0.0092083635, -0.12594688, -0.08102092, -0.32697088, -0.071772374, -0.1919618, 0.23877138, -0.016071951, -0.12152452, -0.24601582, -0.0030676425, -0.20796014, 0.0491562, -0.19993456, -0.06321205, 
-0.22596136, 0.22512175, -0.068500735, -0.26789477, 0.15081532, -0.08123753, -0.5126047, -0.053880356, -0.13514273, 0.08678958, -0.077467024, 0.09306606, -0.2365781, -0.11232304, -0.09701791, 0.24103983, 
0.026229465, 0.013863285, -0.06169361, -0.56669456, 0.06386823, -0.03151862, 0.1989115, -0.027013354, -0.03536003, -0.049581874, 0.13111545, 0.20773402, -0.0996876, -0.40985215, -0.18713498, 0.23681067, 
-0.10529499, -0.33936417, -0.018675657, -0.2938143, 0.01716695, -0.0025216017, 0.16490607, -0.819848, -0.10667263, -0.0035365627, 0.09458879, 0.049099077, -0.1096791, -0.18294348, -0.09098981, 0.40558618, 
0.07970984, 0.070615746, -0.030439679, -0.295459, 0.5013977, -0.17769822, 0.48874614, -1.1076578, 0.17966832, 0.22875045, -0.08978237, -0.17756607, -0.1636371, -0.09721172, -0.0436123, 0.3754228, 
0.1753351, -0.2235308, 0.0009619534, -0.09123816, -0.046293143, 0.017552119, 0.073331006, -0.08003565, 0.3567413, -0.042493027, 0.15395528, 0.19428982, -0.10317044, 0.04991587, -0.18601023, -0.93517464, 
-0.07169775, -0.21761805, -0.109964676, -0.23986371, -0.10363356, 0.119565934, 0.15754981, -0.008147221, -0.16761088, -0.20395176, -0.053182684, 0.16856626, -0.03442594, -0.19650072, -0.20277144, -0.6494497, 
0.18400678, -0.2874986, -0.13186337, -0.25881362, -0.1283439, 0.053212136, 0.15232033, 0.100400776, -0.1063172, 0.29574054, 0.031476013, -0.032753002, -0.13979492, 0.052218165, -0.23927724, -0.21412948, 
-0.15876761, -0.3279668, -0.08344489, -0.027206859, -0.32994062, -0.022322271, 0.15311526, -0.15157351, -0.24219032, -0.14241004, 0.025589734, -0.056591436, 0.015210271, 0.060456876, -0.08272233, 0.2477237, 
-0.18377985, 0.20849288, -0.13224997, -0.030172898, 0.03524585, 0.058465168, -0.14697407, -0.1492792, -0.094375335, -0.034238372, -0.12828106, -0.09585285, 0.012044975, -0.30161646, -0.23273876, 0.08362063, 
0.15027423, 0.11405076, -0.014582964, 0.17855999, 0.075388834, 0.117409974, -0.070328355, 0.030937763, -0.114262454, 0.061815336, -0.022939736, 0.16934793, 0.0838989, 0.06955714, -0.3012905, -0.094285235, 
-0.17141809, -0.109333925, -0.101426296, 0.224303, -0.1968874, -0.054754205, -0.104531474, 0.20646162, -0.341731, -0.20310868, -0.22857971, -0.47502, 0.11809348, 0.11166041, -0.3708798, -0.11578235, 
-0.08432357, 0.090892546, -0.03323058, 0.23253852, 0.3487416, -0.059136543, -0.17279957, 0.06594655, -0.43514428, -0.096070915, -0.19140533, -0.4495842, 0.097234525, -0.27329853, -0.26336858, -0.75724924, 
0.45793644, -0.41321015, 0.13743567, -0.30168733, -0.22274216, -0.19022723, 0.1816792, 0.18570715, -0.16091685, -0.50074553, 0.27245635, 0.33913243, -0.43080962, -0.82316875, 0.1799544, 0.4130151, 
0.13250104, -0.47484955, 0.29440013, 0.017469237, -0.2326126, 0.21601078, 0.34499738, 0.0340067, -0.30689055, -0.46660683, 0.28549266, -0.13842133, -0.30365258, -0.36638018, 0.1519316, -0.054821894, 
0.014998597, 0.16236907, 0.21217886, -0.2118774, -0.058733586, -0.117117286, -0.16616939, 0.32961354, -0.10541079, -0.5934102, -0.0032073788, -0.61047155, 0.09109122, -0.5272471, 0.23364957, 0.022359457, 
0.1982705, -0.3863461, 0.3359782, -0.06933382, -0.60770667, -0.34410354, 0.059436068, 0.09371976, 0.36209747, 0.42388162, -0.1258233, -0.33119768, 0.30980292, -0.43199402, -0.06795364, -0.15028676, 
-0.28226104, -0.3027841, 0.18818764, 0.050296806, 0.16763628, -0.013035978, 0.20996416, -0.3796718, 0.23086426, 0.04105329, -0.0047486755, -0.21104075, 0.3484258, -0.5343814, -0.0687003, 0.08165311, 
-0.091934, -0.15452172, 0.08509499, 0.108338386, 0.2969543, -0.10603474, 0.21533576, -0.31716958, 0.41349193, 0.17369615, 0.060819987, -0.15982622, 0.41839787, -0.06610237, 0.06717673, 0.23822287, 
-0.4118821, -0.14928962, 0.15626112, -0.2862867, 0.13043755, -0.13151816, -0.018520711, 0.13557234, -0.30314356, 0.041729596, -0.078454286, 0.69148314, 0.026845204, -0.26824075, -0.23488589, 0.12144252, 
-0.61295193, -1.2700595, 0.042564485, -0.12120801, 0.32311982, 0.112007566, -0.27986047, 0.10999176, -0.684802, -0.55015945, -0.10849812, 0.25184324, -0.024992133, -0.35301858, -0.1284484, -0.21026197, 
0.4983283, 0.0976081, 0.08272201, 0.029819233, -0.36159885, -0.12542328, -0.07086456, 0.4568072, 0.19263485, 0.059856363, 0.08981134, 0.04066902, -0.007576165, 0.027269918, 0.053218223, -0.16543093, 
0.30013078, 0.06818397, -0.064886436, -0.00047799104, -0.2963722, -0.12463751, 0.00023360692, 0.37863663, -0.11462104, 0.021048076, -0.0145615665, -0.089136556, -0.08852265, 0.14894316, 0.06773122, -0.23034748, 
-0.16151544, -0.20785806, -0.08279843, -0.066632785, -0.42283645, -0.110449, 0.067218825, 0.4064077, -0.088973254, 0.014652466, 0.041765276, -0.056951992, -0.19623528, 0.112824716, -0.09082193, -0.2947681, 
0.15864572, -0.24302538, -0.03120713, -0.039080936, 0.25649536, -0.22720696, -0.091361746, 0.08339446, -0.24528961, 0.1718105, -0.06285168, -0.23463224, -0.23757377, 0.009605652, 0.04976267, 0.15694115, 
-0.27853683, -0.09100158, -0.039181262, -0.15437506, 0.1512074, -0.008432062, -0.30597082, -0.17238218, 0.007945329, 0.07287955, 0.050149184, -0.024291951, -0.27373543, -0.2714324, -0.06452431, -0.17773896, 
-0.40274635, -0.047826946, 0.16228746, 0.026147364, 0.081186205, 0.12458559, -0.24138448, -0.18350828, -0.29240948, -0.017623352, -0.21421608, 0.17036249, -0.1484783, 0.13012853, -0.05539606, -0.29071927, 
-0.24926196, 0.11554347, -0.00745154, -0.009017089, 0.26795754, -0.06686804, -0.0073740366, -0.17819004, 0.0630286, -0.24029005, -0.008127935, -0.099011995, 0.07698531, 0.060945854, -0.06155332, -0.9653281, 
-0.20658343, 0.05488121, -0.0031426754, -0.0012105971, 0.15563074, 0.07566511, 0.19073458, -0.21083859, 0.13906792, -0.23746003, -0.16853325, 0.10393366, -0.0067752763, -0.21709707, -0.040873423, -0.8354629, 
-0.39645877, -0.20551088, -0.17722064, -0.2388249, 0.40234032, -0.33549407, 0.16875023, -0.24379356, 0.15060525, -0.42002252, -0.0010891692, -0.43945825, -0.03503676, -0.2697614, -0.13213402, 0.2480678, 
-0.36483696, -0.441761, -0.15802354, -0.12322027, 0.47036782, -0.2766382, 0.18406859, 0.14812326, 0.30198318, -0.044314273, 0.08162945, 0.014246772, 0.042507514, 0.22957738, -0.23902586, 0.09268313, 
-0.38942733, -0.32987916, -0.08163261, -0.05902208, -0.4390692, -0.341064, 0.18265118, -0.009477629, 0.07909806, 0.066783614, 0.10037185, -0.030018993, 0.15279616, -0.20497745, -0.27074036, -0.2143062, 
-0.082568884, -0.35151622, -0.55597085, 0.035382558, -0.0005941108, -0.37580004, 0.009644708, -0.06044573, 0.6303118, -0.045381512, -0.036925312, 0.26417083, 0.0762036, -0.12784697, -0.06615316, -0.33960646, 
-0.33721405, -0.037320558, -0.2194844, 0.2120132, -0.2936018, -0.16861157, 0.04039451, 0.18042421, -0.21956414, 0.099006936, -0.30069575, -0.37780294, 0.16436875, -0.2040318, -0.34457293, 0.06945882, 
0.23574619, 0.2992112, -0.16181718, 0.08250127, 0.15028423, -0.1648793, -0.06859699, 0.25332132, -0.3377745, 0.24537694, 0.11286499, -0.08417759, 0.1883712, 0.30546683, -0.4947702, -0.13268194, 
0.30194873, -0.008650124, -0.53586066, 0.20095187, -0.5249831, -0.2717323, -0.3719102, -0.11724565, -0.5411132, 0.012538996, -0.10368937, -0.2682686, 0.16310649, 0.2678164, -0.24453005, 0.095257126, 
0.71998525, 0.20472485, 0.10768492, 0.33985093, -0.034540255, -0.1606437, -0.08702389, 0.12908246, -0.48630765, 0.27005398, -0.059888758, -0.8310822, -0.018696088, 0.3647916, -0.12552008, -0.01854185, 
0.5372937, 0.17316093, -0.010147899, -0.040113274, -0.8211272, -0.17204858, -0.18494341, -0.13043915, -0.045659203, -0.22641765, -0.014644588, -0.22587745, 0.022130832, -0.071328, 0.119239606, 0.4003222, 
0.51567173, 0.13125917, 0.07195568, -0.10827247, -0.6341833, 0.013680678, 0.12387591, -0.26371834, -0.09875396, -0.17608018, -0.038712356, -0.11831068, -0.055213626, 0.036156807, 0.010720522, 0.059639506, 
0.44243914, -0.052627113, 0.0024936798, -0.22728984, -0.54248077, -0.042241815, -0.034978904, -0.25923675, 0.22772034, 0.014454047, 0.025682474, -0.08249731, 0.071083024, -0.063679464, -0.10488762, -0.05336494, 
0.19561586, -0.13735807, -0.08263775, -0.18909483, -0.24420112, -0.04002523, 0.033143815, -0.282104, 0.013307034, 0.13864382, 0.18596628, -0.15211159, 0.031191412, -0.03853816, -0.13430648, 0.050735053, 
-0.042864624, -0.11076759, -0.06191472, -0.2554087, 0.22472192, -0.09563899, 0.0677797, -0.58008647, -0.012409749, 0.042262383, -0.055630993, 0.022329167, -0.036809165, -0.052910518, -0.1966497, -0.018039748, 
-0.14092547, -0.15273665, -0.012809681, -0.1567603, 0.5299033, -0.1646672, 0.024859017, -0.25063327, 0.19159962, 0.24075606, 0.09667523, 0.18536857, 0.10426537, -0.026740273, -0.20026207, -0.13195607, 
-0.83754104, -0.05885858, 0.050734963, -0.22372682, 0.7840545, -0.017581135, 0.08765134, -0.25191057, 0.074498445, 0.17027295, -0.16748126, 0.14487511, 0.13606474, 0.08873219, -0.09386791, -0.16584353, 
-0.6301849, 0.1896965, 0.12201247, -0.09573731, 0.48972663, -0.002572816, 0.02077201, -0.24894102, 0.014067509, -0.1368332, -0.07506432, 0.02216271, 0.035834078, 0.1816046, -0.15892065, -0.09615372, 
0.2392665, 0.26863396, -0.0013454114, -0.020361386, -0.015002754, -0.2117051, -0.1786523, 0.39935416, -0.277429, -0.10849566, 0.33544508, 0.17143326, -0.24271931, -0.21858588, 0.38467002, -0.15418865, 
0.39832875, -0.16535836, 0.15405071, -0.22365025, -0.28169206, -0.26116467, -0.2509481, 0.5379561, 0.006537754, -0.3765347, -0.1363361, 0.16662648, -0.4965823, -0.27375287, 0.22646874, -0.537757, 
-0.1519212, -0.31408107, 0.124103926, -0.44474456, -0.33065787, -0.31647614, -0.07545033, 0.46062177, -0.018243922, -0.5560334, -0.12699673, 0.1196686, -0.1532308, 0.076393634, 0.13235146, -0.18278661, 
0.003085952, -0.3834125, 0.07400667, -0.47453, -0.40410888, -0.4468188, 0.12298613, 0.26788223, 0.11612813, -0.07796631, 0.06562622, -0.05880673, 0.24025455, 0.20669882, 0.029768731, 0.0031176065, 
0.050158147, -0.33796534, 0.028796518, -0.2390997, 0.17254831, -0.504658, 0.386071, -0.16632245, 0.10159937, 0.38451967, 0.08601211, -0.24825436, 0.36923426, 0.21868074, -0.33528, 0.4279136, 
-0.33711815, -0.06840308, -0.15735456, 0.047552902, -0.15468206, -0.4390044, 0.069282055, -0.40639812, -0.03799767, -0.044577193, 0.13993283, -0.12482766, 0.43072838, 0.23915352, -0.54414123, 0.35881698, 
-0.14064501, 0.26080096, -0.4616279, 0.17969336, 0.37799054, -0.23971081, 0.11306772, -0.64939845, 0.18081094, -0.08362831, -0.23462634, -0.038500138, 0.28762043, 0.04957297, -0.46681812, 0.1723248, 
0.068058744, 0.3852112, -0.16405314, 0.40311053, 0.5300473, -0.11437743, -0.14340957, -0.5577074, 0.28904784, 0.25296345, 0.043955073, -0.12828682, 0.21374547, -0.2944577, -0.32552055, -0.3676524, 
0.06903999, 0.009306391, -0.0142367445, 0.09280835, -0.009094271, 0.18369642, 0.0698215, -0.55554706, -0.23099917, 0.18873513, -0.021796187, -0.091826916, -0.10178429, 0.111377195, 0.31663105, 0.4397786, 
-0.0888209, -0.023098797, 0.15792018, -0.03801755, 0.12145977, 0.15560731, 0.1321751, -0.22703278, -0.17913711, 0.23501419, -0.006369532, -0.0012926398, -0.15169317, -0.07865176, 0.057066314, 0.23517321, 
0.11480511, 0.11702023, 0.054758057, -0.022557069, -0.12694739, 0.06198744, -0.119329855, -0.21319854, -0.041512217, 0.07830094, 0.13876167, -0.075112, -0.04109472, 0.050807722, 0.06615827, 0.29119962, 
-0.016706964, -0.043740653, 0.22030398, -0.027326694, -0.098731056, 0.10166961, 0.042497575, -0.015353763, -0.22566985, -0.15290004, -0.24880436, -0.026523735, 0.016509358, -0.02130195, -0.10435895, -0.3221067, 
-0.07609361, -0.19475922, 0.10509255, -0.037581634, -0.024921091, -0.0020995545, -0.04249294, 0.016789682, 0.10684532, -0.2918539, -0.0687775, 0.18653058, 0.029010653, -0.0473837, -0.09234326, -0.30640683, 
-0.011240403, -0.17585523, 0.09861337, -0.11900689, -0.089832485, -0.056395367, 0.023640843, 0.32457638, -0.10648489, -0.18955374, 0.23525895, -0.0014378293, 0.10195896, -0.036714822, -0.13441771, -0.44050393, 
-0.16171476, -0.29582113, -0.026382975, -0.12979749, -0.09031188, -0.029849771, 0.01788499, 0.15645179, -0.48712024, -0.1998449, -0.10081406, -0.038341362, 0.10645301, 0.017927097, -0.116948225, -0.49405044, 
-0.32346183, -0.23460823, -0.10361897, -0.09553841, 0.13836552, 0.02221976, -0.13519083, 0.01357021, 0.021370972, -0.07991248, -0.18819669, 0.020679038, -0.07157907, 0.07933809, -0.17365797, -0.28792995, 
0.11846407, 0.007482667, -0.10371903, 0.19983956, -0.32351038, -0.009074254, -0.61105734, -0.5231711, 0.4060506, -0.006162639, -0.10197159, 0.16584098, -0.17603183, 0.33653283, -0.14911911, 0.21975932, 
-0.12427069, 0.2599848, -0.22616878, 0.07404057, 0.030491544, -0.12993775, 0.0703527, -0.34711808, -0.001307024, 0.2615335, 0.3580528, 0.29549217, -0.07745343, 0.54333663, 0.06707971, 0.23946631, 
0.42778543, 0.30075908, -0.085096546, 0.08181216, -0.11841381, -0.14349882, -0.1656992, -0.10807446, -0.2267749, -0.07019775, -0.044594035, -0.20581862, -0.32448977, 0.08594699, 0.025225624, 0.26318786, 
0.17678478, 0.024618417, -0.28758317, 0.023760682, -0.19864514, -0.021115812, 0.03227903, -0.10737278, -0.010955416, 0.1690925, 0.026994687, -0.2665688, -0.21039319, 0.1435968, 0.23633668, 0.15561913, 
0.0177564, 0.07318435, 0.13134934, -0.06454677, 0.33107024, -0.17406657, 0.19070473, -0.090650424, 0.0035689059, -0.17498443, -0.3598026, 0.26614505, -0.2563052, -0.4581415, 0.30267653, 0.22569211, 
-0.26642242, -0.115886636, -0.17357604, -0.29702052, -0.014683261, -0.09141432, 0.35568872, 0.21522035, -0.10793899, 0.011061398, -0.08116658, -0.5822632, -0.2934672, -0.27611455, 0.19890334, -0.40750042, 
-0.10181892, -0.23465955, 0.09198309, -0.28733748, 0.10761638, -0.15517445, 0.13916689, 0.36035588, 0.067917764, -0.05676417, -0.16278824, -0.17081228, -0.30076197, -0.42409694, -0.021864345, -0.5880881, 
-0.33727822, -0.31302136, 0.06520652, -0.15780336, 0.08627772, -0.09826964, -0.0013593175, 0.31192625, -0.16152313, -0.27730396, 0.24085921, -0.4274268, -0.080151506, -0.1593911, 0.018340347, -0.42082345, 
-0.23106278, 0.12007027, -0.38458198, 0.08803362, 0.3971373, -0.60164595, 0.11452443, -0.0035743758, 0.20704156, -0.38642618, 0.28883153, -0.20064102, 0.16694757, -0.20563558, 0.087003894, -0.32194778, 
-0.3037269, -0.6193887, -0.63916284, -0.14883284, 0.21014817, -0.506917, 0.39860225, 0.040862534, -0.10003334, -0.29300898, 0.21561989, 0.023361536, -0.095471516, -0.13331766, -0.08288819, 0.050250452, 
0.10733682, -0.09967308, -0.5311093, -0.06349996, 0.2608906, -0.56421673, 0.44890496, -0.0007778609, 0.22577707, -0.15658689, 0.17793074, 0.24733119, 0.025000619, -0.32117057, -0.1055596, -0.066670395, 
-0.010030846, -0.26758972, -0.6429147, -0.07775248, 0.2335864, -0.660713, 0.03319408, -0.0013834363, -0.09187317, 0.19345747, 0.05430838, 0.12754552, -0.32653207, 0.03317952, -0.27452606, -0.3027057, 
0.14197448, -0.28233936, -0.32330424, -0.070370965, -0.27811632, -0.56654525, -0.03188803, -0.13492917, 0.15259717, -0.16946141, 0.046730835, 0.118601486, -0.34136593, -0.03626575, -0.12143038, -0.25521335, 
0.022452118, 0.50130147, -0.36059636, -0.19859263, -0.27462173, -0.6103635, -0.26564673, -0.14837715, -0.36604905, -0.18425135, 0.1150103, 0.35197067, -0.10480093, 0.11341584, 0.26521882, -0.905942, 
0.20200235, -0.22042146, -0.22772647, 0.029491952, -0.33056355, -0.7214014, -0.21876122, 0.14531282, -0.07995177, 0.27807757, 0.18165383, 0.3856763, -0.3201205, 0.41707325, -0.28654674, 0.12926066, 
0.18837449, 0.5269327, 0.004622177, 0.09018063, -0.18042761, -0.71153736, -0.34380075, -0.09456348, 0.06681489, -0.25566053, -0.19865523, 0.17661095, -0.08598924, 0.4899727, -0.16708933, -0.7217832, 
-0.6948352, -0.34395447, 0.0053238343, 0.21748531, 0.69000304, -0.427367, 0.027345914, -1.4224421, -0.29595283, 0.10814888, -0.065634914, -0.35372418, 0.24598277, -0.22433634, -0.07685102, 0.120893486, 
-0.5265436, -0.12165285, -0.2655075, 0.09284079, 0.1744126, -0.11486585, 0.40292153, -1.1460015, 0.17504694, -0.5667534, -0.07031716, -0.13658933, 0.1344197, -0.22316605, -0.094284505, 0.18999311, 
0.2611957, 0.5487449, -0.175179, 0.13004522, 0.26972553, -0.10387467, 0.037357446, 0.2606037, 0.11154181, -0.024720643, 0.38771912, -0.018761497, 0.08586166, -0.21013045, -0.27870253, -0.0058359937, 
-0.23676474, -0.5617684, -0.12587859, 0.26318198, 0.08931022, -0.0004491215, 0.04313154, -0.34618446, -0.21831073, -0.48088092, -0.43487602, 0.14250052, -0.13587339, 0.0941744, -0.14131694, 0.14173964, 
0.07161137, -0.2595363, -0.48285028, 0.060621444, -0.23008032, -0.25698856, -0.59451663, -0.42596996, 0.0870812, -0.9280266, 0.610537, -0.1077415, -0.18390892, -0.08446207, -0.06752781, -0.08427405, 
0.22977601, 0.047622558, -0.14339519, -0.43789354, -0.20998262, 0.13052212, 0.65179086, -0.42254692, 0.12956522, 0.411518, -0.6956664, 0.5158584, -0.16884701, -0.36792627, 0.034935355, -0.07939642, 
0.07135832, -0.29793742, 0.19969547, -0.23050617, -0.34987152, 0.1172492, -0.5650156, -0.5571493, -0.3186384, -0.29890394, -0.399781, 0.041599706, -0.33556545, 0.11366152, 0.009123507, -0.22412407, 
0.5021112, 0.29318896, -0.030824682, -0.27352718, -0.70349, 0.0075920625, 0.1006296, -0.41106805, -0.14344516, 0.16446657, 0.25930458, 0.18155073, 0.077273004, -0.16646066, 0.22447701, 0.24003953, 
-0.36594644, 0.10145911, 0.19123946, -0.7439059, 0.21354578, -0.004664515, -0.19745319, -0.8806025, 0.011608714, -0.5034251, 0.3715929, -0.50856495, 0.16632047, -0.6487058, -0.23618492, -0.43456128, 
-0.0784727, -0.51375425, 0.18488882, -0.18219346, 0.0010807824, 0.17575917, -0.18417044, 0.13836817, -0.68898785, 0.065814056, -0.03431397, -0.19142321, 0.2516325, 0.31591225, -0.48336288, -0.3197306, 
-0.29785353, -0.3634669, 0.24420354, 0.48297957, 0.42946142, 0.14521672, 0.4583548, -0.5272141, 0.67161196, 0.122248776, -0.48477566, -0.047158595, 0.08457249, 0.34413585, -0.11899273, 0.29329643, 
-0.69501156, -0.18607871, 0.2556892, 0.3670955, -0.18324749, -0.22377779, -0.13303329, -0.09510158, -0.56612843, -0.078856975, -0.15781704, 0.33433512, 0.40535808, 0.34232184, 0.31538463, -0.14326592, 
0.30445188, 0.17924245, -0.71410197, 0.2298072, -0.3493238, -0.5243262, 0.34051123, 0.044898506, -0.03990111, 0.48410767, 0.58830816, 0.11497566, 0.17798162, -0.09397049, 0.3344479, 0.84809834, 
0.03056133, 0.43859035, 0.5106202, 0.25386608, 0.048560087, -0.13125393, -0.31260732, -0.10182541, 0.30045247, -0.090201385, -0.26234457, 0.57736266, -0.079044454, -0.086228125, 0.5110264, -0.09933917, 
0.37702966, 0.30340546, 0.2281528, 0.2438747, -0.35477465, -0.030079417, -0.5593443, 0.24240407, -0.09985908, -0.303971, 0.4232672, -0.22243509, -0.03667202, 0.09703885, 0.29419658, -0.321239, 
0.6834265, -0.12030555, 0.06196844, 0.21134351, -0.10825127, -0.022389881, 0.8540491, 0.65170807, -0.072115116, 0.45862162, 0.41766396, -0.30156046, -0.4856665, -0.012774404, 0.40790927, -0.07282268, 
0.1848682, -0.016232302, -0.2520285, -0.0068822936, -0.0027778642, -0.048007913, -0.2773024, -1.4794924, 0.5050502, -0.15545288, -0.22254866, -0.28713995, -0.07083967, -0.6477568, -0.31723663, 0.3469438, 
-0.1365861, -0.35013115, 0.003607331, -0.034313314, -0.06111973, 0.17106009, 0.4251486, -0.41758725, -0.8281157, -0.29563478, -0.6343852, 0.045100443, -0.19558024, -0.22331756, -0.18776849, 0.008980034, 
-0.17769657, -0.2901173, 0.09666708, -0.18065457, 0.11071567, -0.06353045, -0.26388896, -0.27254865, -0.10748708, -0.3155659, 0.06268116, -0.047630873, -0.4399905, -0.40327194, -0.30727074, -0.2795398, 
-0.37444142, -0.20736815, 0.058011454, -0.22168872, 0.20120212, -0.025234403, -0.34669268, 0.13459328, 0.3657207, -0.11039165, -0.276144, -0.36381978, -0.16188073, -0.09701568, -0.13890052, -0.30394483, 
-0.5756642, -0.13497797, 0.13114019, 0.05936123, -0.060044732, 0.17978317, 0.40379936, -0.046185564, -0.21372268, 0.067929424, 0.004856777, -0.13607776, -0.041588143, 0.135584, -0.12287083, -0.1161806, 
0.22758862, 0.3018907, 0.07315838, -0.06431004, -0.12270331, -0.088055074, 0.10442864, -0.28144673, -0.022814633, 0.0155048305, 0.37621763, 0.03897111, 0.35732132, 0.053699996, -0.17922132, -0.19530086, 
0.010348875, 0.20569588, -0.06965016, 0.088618286, 0.034668613, 0.11370328, -0.071962856, -0.26109734, 0.013573867, 0.5714838, 0.013985516, 0.015138229, 0.3975797, 0.117023356, 0.10075399, 0.3236523, 
0.23094934, 0.5391124, 0.14134847, 0.11698239, 0.11145028, -0.09046023, -0.07782154, -0.3224497, 0.35178217, 0.47941947, 0.30343193, 0.04006296, 0.39561668, 0.2938835, 0.21664485, 0.54561484, 
0.4591303, 0.113013364, -0.39559287, 0.066198625, -0.30568126, 0.23488455, -0.9786521, -0.3731076, 0.29004914, -0.37567866, -0.5430608, 0.6318507, -0.17752871, 0.61630094, 0.27324167, 0.43290654, 
-0.16028579, 0.090225644, -0.4865397, -0.03850626, 0.0708974, -0.024143474, 0.41194284, 0.1594916, 0.49724406, 0.1862648, -0.60945016, -0.14091955, -0.06469889, -0.35043907, 0.15249072, -0.078434415, 
0.19497183, -0.22176619, -0.6757207, 0.14891742, 0.14798677, -0.09478351, -1.1333392, 0.08430187, 0.68069524, 0.02083829, 0.12522829, -0.18132849, -0.082446516, -0.53535014, -0.06327558, -0.1992841, 
0.16555029, -0.23580389, -0.5273441, 0.18670744, 0.02922805, -0.18809971, -0.7592282, 0.44667873, -0.39472285, 0.33638912, -0.42676297, -1.1061119, 0.043264892, -0.6331523, -0.18386129, -0.52492553, 
-0.0024054372, 0.026031282, -0.14801206, -0.17591196, 0.48604998, -0.41420683, -0.18242168, 0.53739953, -0.191229, 0.1639525, 0.570358, 0.21849762, 0.1040741, -0.8067211, -0.3597722, -0.16047476, 
0.15725282, 0.21778221, -0.2942698, 0.061922293, -0.3447518, -0.12756202, -0.30586523, 0.02811299, -0.009749844, -0.09658135, -0.024865143, -0.27289194, -0.054863136, -0.2905324, -0.29256418, 0.045883533, 
-0.116056934, 0.3612312, -0.3537233, -0.039703656, -0.14308587, -0.5860383, -0.16480799, -0.15630083, -0.042166587, 0.22018075, -0.19157219, -0.042386506, -0.033802688, 0.5611579, -0.16702731, -0.32460177, 
0.119115576, 0.6360761, -0.3892788, -0.24853064, -0.03279016, -0.37821838, -0.06072745, -0.18384634, -0.058673218, -0.087807074, 0.036519855, 0.9003804, -0.048722807, 0.41663447, 0.088330664, 0.1335861, 
-0.22137846, 0.080557644, -0.3417462, -0.13219693, 0.42752257, -0.040660173, 0.050114278, -0.13161275, -0.17903733, 0.30962303, -0.13338794, 0.21907222, 0.13903534, 0.20245333, -0.18349025, 0.31747252, 
-0.29781005, 0.04585557, -0.28799072, 0.052349355, 0.26564795, -0.032176312, 0.14185649, 0.044129796, -0.19360925, -0.10719156, -0.1023267, 0.17427643, 0.19027016, 0.0771118, -0.23692113, 0.09663868, 
-0.47569156, 0.15661599, -0.6753101, 0.00089893444, 0.41257384, 0.051138617, 0.13932703, 0.01718347, 0.38522214, 0.12805599, -0.012050978, 0.12921056, 0.12922648, 0.22455066, -0.2078775, 0.032875158, 
-0.1845579, 0.013451673, -0.4509372, 0.21474105, 0.39435527, -0.09378332, -0.0640287, 0.12956627, -0.3486082, -0.017106555, 0.025227118, 0.011936109, 0.094020486, 0.11841998, -0.13260135, 0.16262269, 
-0.05516938, 0.24495973, -0.4109707, 0.20391603, -0.10451743, -0.017563576, 0.013064783, 0.04482967, 0.38119382, -0.074719615, -0.057519473, -0.170572, -0.17324114, -0.1013867, 0.040755447, 0.09358986, 
0.35845053, 0.055541147, -0.42927876, 0.15145439, -0.16161299, 0.05207368, -0.032606546, -0.07231923, 0.17171396, 0.095424235, 0.18420562, -0.10978446, -0.21892688, -0.22919823, 0.22507872, -0.48870528, 
0.41311774, -0.077842124, -0.43724802, 0.1547251, -0.42497957, -0.010666794, -0.18963261, 0.17050481, -0.18455738, -0.14995277, -0.42130607, -0.015304139, -0.20174843, -0.20982522, 0.24574277, -0.273247, 
0.5347786, -0.021069922, -0.37280706, 0.17834903, -0.5948905, -0.037783105, -0.08330905, -0.18003812, -0.573934, -0.013967249, 0.18051279, -0.15056258, -0.38333988, -0.1360703, 0.1575912, -0.157575, 
0.12740524, -0.037265204, 0.13436493, -0.15418532, 0.1712785, 0.05570454, -0.26630402, -0.26848212, -0.15408342, -0.099291034, 0.04443176, -0.3689585, -0.035750974, 0.15655923, -0.060847796, 0.013342731, 
0.09794707, 0.24642849, -0.31403962, -0.123589575, -0.08791989, 0.09302189, 0.023563111, -0.2864457, 0.023161376, 0.19044217, 0.100401394, 0.12834014, -0.15137239, 0.2868581, -0.35667098, 0.12970527, 
-0.05017159, 0.08425546, -0.3972194, 0.026411979, -0.25745344, 0.122296415, 0.18804127, -0.13800865, 0.42738715, 0.31150985, -0.043794207, -0.3282731, 0.031951595, -0.019567803, -0.20648512, 0.2657959, 
-0.1803142, -0.08830386, -0.54646415, 0.056110345, 0.044875998, 0.08174347, 0.22645295, -0.1744286, 0.3375678, -0.019009162, 0.11476841, -0.14425194, -0.011750812, -0.07619773, -0.22833304, -0.036542345, 
-0.165191, -0.21515314, -0.6325434, -0.14166678, 0.37499422, 0.15790337, -0.08645671, 0.38166595, -0.11236963, 0.10365285, 0.05691749, -0.13914905, -0.1407092, -0.13787048, -0.13644463, -0.088404715, 
-0.12258745, -0.14855461, -0.10659965, 0.14803675, -0.561162, 0.015563539, 0.25471437, -0.1294161, 0.06728565, -0.2572979, 0.45686486, -0.004242335, -0.19023275, -0.09828487, -0.13695027, -0.08636244, 
0.5005529, 0.10396748, -0.17045255, -0.05263187, 0.09833134, -0.17684026, -0.025315892, -0.043541644, 0.013326492, 0.40976027, 0.076409206, 0.47474855, -0.13901758, 0.0034325004, -0.02159942, -0.08238948, 
0.5512042, 0.40872478, -0.14632662, 0.024687584, -0.13168786, 0.002894419, 0.25238764, -0.2089764, -0.0059801377, -0.086577885, 0.25252363, -0.32527825, -0.12847099, 0.34547737, 0.073145196, 0.059060942, 
-0.5522922, -0.30470452, 0.07090711, -0.21109746, 0.5148233, 0.10347517, 0.3087246, 0.22567427, 0.00017297253, 0.00980874, 0.06337537, -0.06431065, 0.01577228, -0.17163882, -0.2296388, -0.60326713, 
-0.50048435, -0.17595151, -0.0041135303, -0.088134244, 0.29401597, 0.15413316, 0.01957722, 0.15931152, 0.1124731, 0.0055123307, -0.21274604, -0.056642618, 0.025866333, -0.20365447, -0.23627229, -0.30862156, 
-0.32587022, -0.2643938, 0.072804324, 0.088094845, 0.45061573, 0.21083038, -0.17440294, 0.013872614, -0.3532546, -0.13285385, -0.0032539025, 0.042416736, 0.16406666, -0.12451064, -0.044854205, 0.03362936, 
-0.27542493, 0.17625746, 0.053392004, -0.011175215, 0.2500993, 0.16661446, -0.14794326, 0.120896146, 0.15312847, 0.12821603, -0.12483821, 0.22448203, 0.08828014, -0.2941502, -0.2126334, -0.025789868, 
0.29468262, -0.058052316, -0.11590124, 0.1894591, -0.14993751, 0.19825275, -0.19229175, -0.05941297, 0.0031340774, -0.13119498, -0.22440775, -0.06756999, 0.12534328, 0.23853952, -0.00039042337, 0.08875771, 
0.3475179, 0.38085565, -0.08311306, 0.039127618, -0.30678722, 0.10859321, -0.14667542, -0.04998816, -0.0951058, 0.038882017, 0.23823562, 0.19177163, 0.15514573, 0.09072055, 0.121733695, 0.25372824, 
0.5272552, 0.22604631, -0.022875227, 0.14410941, -0.48418158, 0.06288727, -0.20024596, -0.13567159, 0.06698764, 0.11782562, 0.14584695, 0.091027506, 0.0645694, 0.19558237, 0.14972916, 0.14407031, 
0.38335285, -0.13140143, -0.010736436, 0.031562615, -0.4393148, 0.09545093, 0.06570284, 0.04452841, 0.0033685504, -0.000115661926, 0.07569887, 0.047429204, 0.07774283, 0.15038015, 0.14800608, 0.15149389, 
-0.35875222, -0.42259404, 0.057923876, 0.086975954, -0.77519584, -0.20511456, 0.08739071, -0.444079, -0.13258496, -0.5242049, 0.5580156, -0.42636958, -0.33522752, 0.14686519, 0.05997848, -0.7320521, 
0.16660674, 0.3816294, 0.1222481, -0.4484558, -0.47708496, 0.16975205, -0.20072477, -0.40047565, -0.1617674, 0.005920019, -0.20698117, -0.12061206, -0.18522161, -0.38505834, 0.22546002, 0.14958622, 
-0.02069375, 0.11743951, 0.23731117, -0.46939996, -0.3560095, -0.24381281, -0.35652834, -0.008908533, -0.3938721, -0.63319564, -0.1336152, 0.121266946, -0.10305492, -0.716691, -0.1089994, 0.39125645, 
0.41779274, 0.20778185, 0.21088268, -0.55150354, -0.20462361, -0.32918218, -0.29626432, -0.275665, 0.66441965, 0.49496236, -0.128124, 0.28260422, -0.058031198, -0.34305367, 0.017816186, -0.06165265, 
-0.18636021, -0.42121977, 0.24626379, -0.16001122, 0.43721485, -0.16300797, 0.038387068, -0.2158328, 0.27960035, 0.2356882, -0.7604965, 0.10321841, 0.24217631, 0.099909715, -0.2270458, 0.055630002, 
-0.3347489, 0.045778703, -0.17224666, -0.15041287, 0.037975147, -0.12812975, -0.66121584, 0.015984338, -0.49893558, 0.2865416, -0.12027631, 0.12197533, 0.039301608, -0.29437825, -0.31302828, 0.05755545, 
-0.6042065, 0.30432162, 0.062378023, -0.09476373, 0.95367754, -0.3173425, -0.38464877, 0.22687085, -0.21017766, -0.14728315, -0.38241187, 0.23361383, 0.09352454, 0.27852112, -0.23200619, -0.37145606, 
0.50443596, -0.31100342, -0.12492577, -0.003412063, 0.43665597, -0.36519748, 0.23000059, 0.27975786, -0.2600362, 0.12435224, 0.33726013, 0.054106213, 0.24157125, 0.5856146, -0.17786184, -0.78334033, 
0.4074589, 0.04171154, 0.12122235, -0.2290536, -0.61543274, 0.007599535, 0.034766782, -0.35933265, -0.3060502, 0.15219505, 0.11856457, -0.18684418, -0.040176343, 0.23267157, 0.12610374, -0.20793208, 
0.7594624, 0.34137407, 0.17410342, -0.5340813, -0.6597012, 0.008494653, 0.055304646, -0.51581436, 0.037430678, -0.2404545, 0.28191358, -0.29409435, -0.13950674, 0.15074435, 0.06360139, -0.049532045, 
0.46673048, 0.08580193, 0.11882639, -0.47461134, -0.13060631, -0.016369432, 0.0829254, -0.37202868, -0.07967383, -0.13879369, -0.15204193, -0.3927715, -0.11638801, 0.06062389, 0.12350372, 0.24524792, 
-0.1853963, 0.19778354, -0.00238103, -0.3390992, 0.020707676, 0.03970022, -0.009460096, -0.3347911, 0.12192681, -0.021115305, 0.041486852, -0.27088296, -0.056727506, 0.10487707, 0.18732774, 0.469932, 
0.16003168, -0.096245766, -0.13274439, -0.084106036, -0.036640424, 0.03672061, 0.09877783, 0.17119294, 0.4238671, 0.1439615, 0.030782443, -0.072804295, 0.031448625, 0.1368826, -0.10090242, 0.048276287, 
-0.60329664, -0.2064482, -0.19698705, 0.091288924, 0.10702259, 0.046988517, 0.00010152945, 0.2713229, 0.1353828, -0.045906115, -0.28874958, 0.12627059, 0.124819726, -0.067067616, -0.23258416, 0.0073063048, 
-0.54648626, -0.22411698, -0.2456041, 0.14051229, 0.5399678, -0.054118697, -0.090452746, 0.55948675, -0.31325415, 0.07775584, -0.11664817, -0.14190231, 0.24074775, -0.17566614, -0.24324109, -0.10718707, 
-0.46536452, -0.14820132, -0.15161444, 0.0038450796, 0.74807906, -0.12065568, -0.11737875, 0.43445808, -0.060731567, 0.2068366, 0.03620421, -0.04144351, 0.07878415, -0.26545435, -0.3514025, -0.6386681, 
0.10749106, -0.21292686, 0.21764901, -0.64435333, 0.24316789, -0.1688552, 0.26621827, -0.36851048, 0.3524533, -0.0325449, 0.5722394, -0.08896441, 0.14085075, -0.23588175, -0.2127575, -0.43039194, 
-0.00969881, -0.28056976, 0.15091425, -0.51281655, 0.21010973, -0.1402177, 0.114039294, -0.42644018, -0.16989125, 0.1392503, 0.27119213, 0.124813445, 0.33035645, -0.11285406, -0.5671196, 0.021310458, 
-0.26826146, -0.037346046, 0.033562288, -0.1308589, -0.17534229, -0.14941514, 0.35057843, -0.11099357, -0.016665302, 0.07407801, -0.22786573, -0.02848605, 0.43969092, 0.18986163, -0.7487361, 0.16077596, 
-0.6518397, -0.00861613, -0.3265871, 0.23196088, 0.135019, -0.10253632, 0.18150046, -0.13558215, 0.27197593, 0.04698645, -0.44646692, -0.15908279, 0.4268207, 0.43910846, -0.3977654, 0.29432404, 
-0.07785218, -0.012141297, -0.63267326, 0.3194401, 0.088987865, -0.21026435, -0.21994694, 0.15237245, -0.09436482, -0.10923757, -0.41142654, -0.22261354, 0.14799897, 0.041188676, 0.18047357, -0.08699855, 
0.2375853, 0.2134806, -0.28532618, 0.48450562, 0.13797884, -0.16602276, -0.4549569, 0.13436174, 0.1920944, -0.067008324, -0.12835227, -0.034525096, -0.4161452, -0.24019735, 0.40627712, 0.050790943, 
0.33149827, 0.27478474, -0.116474226, 0.19127612, -0.33605936, -0.17378041, -0.31503323, -0.030018363, -0.24120995, 0.020349873, 0.21019302, 0.18028975, -0.8288288, -0.09722441, 0.43919, -0.027457986, 
0.29695082, -0.09363417, -0.011278322, -0.16337112, -0.47153556, -0.17445873, -0.09611896, 0.38623548, 0.020746408, -0.23362257, 0.39766812, 0.2000634, -0.5228249, -0.022764444, 0.37969658, -0.13447522, 
-0.38352543, -0.030698698, -0.13766569, -0.046890825, 0.3319542, -0.19973645, -0.25306377, -0.2230522, 0.31082824, 0.10903171, -0.13428381, -0.024686417, 0.30085874, -0.21394773, 0.0026510537, 0.3372936, 
-0.2740442, 0.0905049, 0.21629888, 0.16100739, 0.51903546, -0.0014906388, 0.2581566, -0.6443078, 0.5758463, -0.23622933, 0.013276921, -0.037688978, 0.11423341, 0.22742644, -0.2400213, 0.03266094, 
0.025124852, 0.85152334, 0.31474164, 0.41647002, 0.25460345, 0.03753683, 0.017747696, -0.07358806, 0.7219643, -0.16862977, 0.43222612, 0.12034748, 0.09865767, -0.36863163, 0.320155, 0.23088132, 
0.12736028, 0.16907515, 0.25695005, 0.14673905, 0.25207317, 0.13234988, 0.15507999, -0.2950169, 0.1670954, 0.009506068, -0.6827029, 0.14916106, 0.27396742, -1.1440138, 0.2734717, 0.10580362, 
-0.48262653, -0.07991136, 0.15446664, 0.1752213, 0.07983717, -0.025480786, -0.035211, 0.40626392, -0.18162449, -0.1142666, -0.31332105, 0.3888947, -0.11820815, -0.14598759, 0.01631882, -0.060583867, 
-0.60111433, -0.12072526, -1.0390943, -0.16473132, -0.043947056, 0.097513124, -0.0363441, 0.48582032, 0.3518167, 0.3077091, -0.19169676, -0.15798545, 0.024529416, 0.10991244, 0.22263266, 0.10821376, 
-1.1498816, -0.44738492, -0.060728803, -0.2912808, -0.1921026, -0.1299795, -0.9209512, -0.5135515, -0.23597237, 0.039243966, -0.20291843, -0.28206727, -0.16412726, -0.24732068, -0.5831073, -0.3249204, 
-0.91995674, -0.06960648, -0.32680365, -0.13625713, -0.37923166, 0.10805612, 0.58453536, 0.35254505, 0.19084042, 0.108255245, 0.4301774, -0.7256166, -0.26129353, 0.4340254, -0.8551376, 0.18626311, 
-0.265722, 0.093787774, -0.21709557, 0.100488774, -0.27936783, 0.004175432, -0.5185404, -0.41101247, 0.019479629, 0.13108438, 0.537433, -0.11737715, -0.33401245, 0.1737776, -0.0024375152, -0.075276904, 
-0.029472636, -0.23822495, 0.04335289, -0.0344967, -0.2688689, -0.1090647, 0.34174126, 0.057693392, -0.04358839, 0.4236961, 0.120108895, -0.14281629, -0.22453149, -0.059711695, 0.15229781, 0.32742307, 
0.2470792, -0.20427905, 0.02829123, -0.28137735, -0.3267625, -0.079556294, 0.41862568, 0.22335815, -0.4328436, -0.24198204, -0.31823543, -0.06969763, -0.15833405, -0.2928157, 0.115933605, 0.45634902, 
0.2556927, -0.45743543, 0.083982244, 0.17528038, 0.19217756, -0.30160892, 0.07787522, 0.15628825, 0.026994541, -0.22606246, 0.100777596, -0.3628054, -0.08177057, 0.11007308, 0.058128674, -0.7105074, 
-0.016888928, -0.16775559, 0.16804734, -0.08496776, -0.17221941, -0.2853931, -0.14493102, 0.4656059, -0.352353, -0.59306717, -0.14539865, 0.15606247, 0.2275427, -0.22687148, 0.123734586, -0.82007664, 
-0.13000238, -0.08313167, -0.0041080974, 0.13571756, -0.2687711, -0.24441205, -0.40315035, 0.24389601, -0.12604305, -0.8602634, -0.31288773, -0.12550825, 0.4382315, -0.41976225, 0.07834648, 0.05053937, 
-0.4087791, -0.29423243, 0.061493926, 0.2099071, 0.35679328, -0.09498387, -0.20965761, 0.25840563, -0.038946774, 0.18909685, -0.25607127, -0.15660062, 0.18889618, 0.16535817, -0.18238099, -0.209651, 
-0.1925273, -0.026603056, -0.07365594, -0.1361521, 0.389232, -0.1047727, 0.3112535, -0.053553008, -0.0046153986, 0.4631987, -0.45914656, 0.11414685, 0.23339497, -0.12531339, -0.08650411, 0.52967876, 
0.32026944, 0.20888768, -0.20135526, 0.001822705, -0.53534365, -0.046337433, -0.3040359, 0.3427571, 0.27720752, -0.06513267, -0.036949918, -0.04900808, -0.32079557, -0.22500944, 0.053642515, -0.23634906, 
0.33038184, 0.0750601, -0.3262425, 0.11008375, -0.45410144, -0.0495795, -0.46090367, 0.341243, -0.22472303, 0.0821545, -0.113283396, -0.10537641, -0.40628925, -0.06756255, 0.31476322, -0.16609259, 
0.17215481, -0.08941191, -0.17450167, 0.19127625, -0.70554334, 0.015520462, -0.44506222, 0.08855844, 0.054944664, 0.16441058, 0.10926616, -0.02323435, -0.55943453, 0.064512484, 0.16705756, -0.16499929, 
0.20946711, 0.07773595, -0.063962236, -0.14378819, -0.15013577, 0.10264409, 0.003521263, -0.075084366, -0.05158984, 0.15233806, -0.23586714, 0.20357998, -0.31146774, -0.054306574, 0.15838484, -0.08613924, 
0.07323078, -0.05267277, 0.10446899, -0.11455912, 0.021973997, 0.02900302, -0.30514196, -0.1330178, -0.104269855, 0.054587, 0.21768351, 0.021981325, -0.0838816, 0.18727444, 0.005531834, -0.007863661, 
-0.4015352, -0.13548638, 0.10489212, -0.2167657, 0.29100412, 0.0959003, 0.31372353, -0.38780427, 0.07402638, -0.008297868, 0.019403854, -0.11604398, 0.12538007, 0.11044923, -0.08423014, 0.12736166, 
-0.062714316, -0.0013878136, 0.18540657, -0.38689134, 0.36299774, 0.09754835, 0.6185365, -0.27128103, 0.05907204, 0.031835403, 0.09747012, -0.38681197, 0.3376183, 0.014670586, -0.03623671, 0.21640518, 
-0.32472906, 0.18703336, 0.16911721, -0.4402716, 0.8094443, 0.053667404, 0.43098688, -0.5186747, 0.15038916, -0.05491012, 0.18212822, -0.085738905, 0.1822822, 0.09366122, -0.059218276, 0.3240486, 
0.8217439, 0.07639201, -0.015156109, -0.17947583, -0.3323516, -0.5049974, -0.076181285, 0.15807295, -0.010484907, -0.07448628, 0.78597516, 0.07035425, 0.03263442, 0.4521005, 0.5833679, -1.3409495, 
0.55051625, -0.37678415, -0.21657628, -0.58801293, -0.4322492, -0.62923324, -0.0114373695, 0.37198687, -0.36770415, -0.2740652, 0.45554754, 0.123053394, -0.11829165, 0.31107518, 0.082822055, -1.3160039, 
0.24984324, -0.095421925, -0.7639905, -0.22972825, -0.14603035, -0.58248055, 0.25305182, -0.44160363, -0.34642288, -0.72128737, 0.4883648, 0.1408822, -0.19091664, -0.3590955, 0.15136437, -0.8641586, 
0.3085034, -0.035031583, -0.68933177, -0.5351407, 0.11092153, -0.44520262, -0.2638159, -0.53855187, 0.42049825, -0.9625617, -0.5385223, 0.2515892, -0.60548586, 0.2784748, -0.4273796, -0.7714619, 
-0.21314384, 0.28784257, -0.44063362, -0.09936288, -0.011700782, -0.4613182, -0.08521984, -0.4323568, 0.31815675, 0.18723123, -0.1071861, 0.16047603, -0.01049448, 0.1897004, -0.66543823, -0.8482764, 
-0.6103254, -0.039270036, -0.8844062, -0.027348747, -0.009797793, -0.39005068, 0.18117675, -0.5100074, -0.031942252, -0.40165034, 0.32535186, 0.29922777, 0.0048038145, -0.23132333, -0.32350418, -0.55293363, 
-0.42069831, 0.07500764, -0.40102026, -0.12402085, 0.54531634, -0.84444064, -0.058150392, 0.02674488, 0.017157251, -0.117937386, -0.4108588, 0.3986091, 0.029592115, -0.021125494, -0.4610198, -1.3872905, 
-0.33236486, -0.117266506, -0.08177235, 0.29007155, 0.31431952, -0.28234535, 0.6403767, -0.13523524, 0.14509183, 0.9032869, 0.062349595, 0.430656, 0.5026324, 0.13299197, 0.21285054, -1.094226, 
-0.3540956, 0.124027625, 0.053191867, 0.028376259, 0.3855425, -0.07341186, -0.2942608, -0.13868794, -0.33759454, 0.50042945, -0.032852277, 0.061584037, -0.1637334, 0.39947975, 0.18017593, 0.17825055, 
-0.275945, 0.15123057, 0.09729564, -0.0606051, 0.16487674, -0.04275846, 0.040147368, -0.013870681, 0.39936417, -0.008922101, -0.06594018, 0.26737016, -0.10138465, 0.060210746, 0.12247906, 0.08716454, 
-0.21512471, -0.08174538, -0.07171189, -0.09965421, -0.052043512, -0.1566115, -0.021599157, 0.049092755, 0.09839444, -0.11560626, 0.29374507, 0.012363138, -0.09128861, -0.042954464, 0.3309515, 0.11310841, 
0.31731826, -0.11179184, 0.034057315, 0.15697311, -0.029080385, -0.16289482, -0.030457677, 0.08165404, 0.1564868, 0.015453414, 0.12624367, -0.076234154, -0.26078779, -0.08340862, 0.19801629, 0.1762273, 
0.117249265, 0.18601233, 0.0017526797, -0.036130857, 0.18743478, -0.09652915, 0.2596556, -0.10600898, 0.22114822, -0.25729284, 0.018361429, 0.045691486, -0.22801071, 0.015040145, 0.09189026, -0.047262307, 
0.41152975, -0.14782989, 0.06291542, 0.06697948, 0.025550522, 0.01596106, 0.1899978, 0.038722694, -0.15270257, -0.006811133, -0.07596032, 0.15496624, -0.2447495, -0.23715876, 0.0061759003, 0.123814926, 
-0.23573335, -0.020967243, -0.03363869, -0.06037816, -0.3036541, -0.070158675, -0.02581437, 0.2721911, -0.00018815084, -0.006991706, -0.19431557, -0.18580696, -0.18937933, -0.09736614, -0.07700942, 0.08736639, 
-0.074057885, 0.053784546, -0.14440171, -0.073671095, -0.12985064, 0.044303473, 0.22449028, -0.29692495, 0.05357627, -0.1764439, -0.23386768, -0.1746613, 0.016271172, 0.031976722, 0.040987466, -0.03167887, 
0.3786216, 0.20236082, 0.09639974, 0.4093889, -0.29802057, 0.012809702, -0.46099138, -0.1729662, 0.3666894, 0.08724439, -0.33364704, -0.11437951, 0.28299186, 0.3242958, -0.06843454, -0.65706444, 
0.05869338, 0.18728967, 0.036872957, 0.34836572, -0.24122615, 0.09545257, -0.025454693, -0.020054441, 0.068966955, 0.0029275375, 0.004425029, -0.04920105, 0.15488829, 0.2934406, -0.057216544, -0.15432802, 
0.0072947494, 0.4218836, 0.04097688, -0.097942285, 0.0073701157, 0.22109273, 0.12244279, -0.013157995, 0.16273329, -0.062228423, 0.38387826, 0.12758166, -0.15797739, 0.00093852985, -0.11695893, 0.027989496, 
-0.04598317, -0.006564485, -0.13167453, 0.019618787, -0.092943296, 0.0035185504, -0.4736204, -0.0688344, -0.15429401, -0.20510973, -0.5376958, -0.070199214, -0.16247655, 0.1940556, 0.19435106, 0.3382556, 
0.07613791, 0.010969254, -0.011774439, -0.13265425, 0.042346418, 0.06805628, -0.123740904, 0.08813082, -0.27089462, 0.16950624, 0.20382653, -0.45610344, -0.41162878, -0.052415922, 0.018071441, 0.29280236, 
-0.06406139, 0.13383193, -0.23068626, -0.35968316, 0.36129615, 8.982046e-05, -0.16335446, -0.07867925, -0.2887845, 0.35880312, 0.32451886, -0.017251045, -0.4748861, -0.37504846, 0.15899992, -0.1966016, 
-0.25848767, 0.025583193, 0.05711513, -0.03343788, -0.07138233, 0.09865704, 0.11433819, -0.05072121, -0.08281986, 0.053914584, -0.12931864, 0.19232312, -0.41628504, -0.050932653, 0.050698496, 0.009515951, 
-0.0135996165, -0.22574972, -0.19993252, -0.17861126, 0.06747777, 0.042606436, 0.6058164, -0.21707234, 0.29768497, 0.22392035, 0.12533298, 0.059124436, -0.5833964, -0.3240681, 0.016029028, 0.12592535, 
-0.07655604, -0.585167, 0.05950092, -0.14301836, -0.20068611, -0.02673935, -0.018338917, 0.2425087, -0.14929223, 0.02855489, 0.22641923, 0.169937, 0.037859768, 0.105395295, -0.0024367499, -0.32473427, 
0.327682, -0.28068033, 0.05327202, -0.18860917, 0.11541012, -0.07283179, 0.030724859, 0.15402576, -0.08039955, -0.48051143, 0.49245912, -0.31133237, 0.19535807, -0.21457191, 0.08931485, -0.15262038, 
-0.04504846, 0.105126254, 0.028786417, 0.07314435, -0.12784529, 0.05265036, 0.16267776, -0.32150444, 0.12632975, -0.76826346, 0.20013347, -0.16623168, 0.25180438, 0.16790943, 0.018569993, 0.03798324, 
-0.2631101, -0.010796906, 0.026753655, 0.019636707, 0.008567441, -0.06340106, 0.24283911, -0.29651254, -0.021335121, -0.44167304, 0.11032139, -0.09717132, 0.34514844, 0.1253996, -0.10249588, -0.20794515, 
0.20418155, 0.07878677, -0.23682004, -0.04696411, 0.003772137, 0.07623012, 0.13028684, -0.08258381, -0.40945312, 0.010785972, -0.42917165, 0.0460733, 0.24728145, -0.062493548, -0.45060575, 0.10519322, 
0.06576142, 0.12568942, -0.20993738, 0.21023846, 0.022020033, -0.040090244, -0.032426246, -0.27588278, 0.21022074, -0.48658857, -0.12564693, 0.022264905, 0.20158273, 0.120191224, -0.2132268, 0.21477593, 
-0.26762384, 0.04537521, -0.13178366, -0.17840184, 0.3044336, 0.017391717, -0.094296485, -0.14358222, -0.18990566, 0.12540738, -0.4275173, -0.50019366, -0.19577979, -0.30799028, -0.3885428, 0.09160921, 
-0.35395288, -0.10474528, -0.18385065, -0.20825458, -0.3784012, 0.02450724, -0.65704924, 0.025163041, -0.35721904, 0.5766179, -0.40980306, -0.6593354, -0.0931419, 0.122308545, -0.42594856, 0.21788052, 
-0.03897811, 0.061573464, -0.15418757, 0.083296336, 0.13921997, -0.0041635167, -0.190568, -0.64384025, 0.0043495866, -0.4102368, -0.5217012, 0.2573084, -0.39258096, 0.11021916, 0.16098791, -0.46677926, 
0.118803434, -0.03313985, 0.20586951, 0.11942627, -0.040467028, 0.18715818, -0.3543045, -0.12531398, 0.23551023, 0.38664553, -0.04715864, 0.12971853, -0.40690225, -0.33934462, 0.12239276, 0.3724206, 
0.02184415, 0.15697734, 0.041462153, -0.034094043, -0.20825142, 0.06308969, 0.52163553, 0.044351473, -0.11325514, 0.022456907, -0.12581147, -0.3364068, -0.5445527, -0.09959653, 0.24266534, 0.51263154, 
-0.14817832, -0.048021186, 0.07384385, -0.087947644, -0.09309018, -0.044455223, -0.54368854, 0.03661637, -0.17702231, 0.44675353, 0.17446671, 0.08379547, -0.6433773, 0.06496983, 0.4652908, 0.20161949, 
0.112331085, -0.13115333, -0.06019706, -0.22368881, 0.33354464, -0.056022484, 0.12375721, 0.34402007, -0.08561328, 0.24861956, 0.3988677, -0.018246004, -0.7972286, 0.07314116, 0.33993137, -0.116369516, 
0.30563232, -0.25004983, -0.10510174, 0.13334766, 0.021614531, 0.028204085, -0.03731303, 0.35256213, -0.0180366, -0.8084092, 0.41753066, -0.16878618, -0.75184053, 0.28363195, 0.30034727, -0.28397712, 
-0.33551753, -0.24662867, 0.099233955, -0.08778075, -0.42405248, -0.006852197, -0.55324894, 0.1805062, 0.06502918, -0.055459447, 0.19524989, 0.26563933, -0.27481046, -0.075717844, 0.27320093, -0.53748727, 
0.12672363, -0.28816226, -0.08028878, -0.2616706, -0.014372145, -0.02309807, 0.63523597, 0.23729019, 0.036677472, -0.7610806, -0.13878205, 0.19110627, -0.30750358, 0.07774044, 0.1345089, -0.1263786, 
0.79724354, -0.14860423, 0.22632234, 0.09862186, -0.41802385, -0.35321817, 0.35926816, -0.85629255, 0.09301643, -0.458639, 0.14719854, -0.5380563, 0.2154967, 0.32981145, -0.039402176, -0.15729885, 
-0.089586325, 0.3300861, 0.12929869, -0.263058, -0.23218504, -0.4809127, -0.012265045, -1.2019321, -0.30907428, 0.3648732, 0.22309339, -0.3615543, 0.1544471, 0.32129934, -0.03298369, 0.39638165, 
-0.0022559045, -0.16114335, 0.28170896, -0.1622526, 0.3718132, -0.6415396, 0.16207117, -0.35017285, -0.20551932, 0.15516822, -0.0057947556, -0.17460552, 0.04682613, -0.016852533, -0.19713645, 0.5180453, 
-0.3333197, -0.060728192, 0.27654174, 0.020468239, 0.03660712, -0.8088635, 0.4059269, 0.1413525, -0.59807336, -0.10217733, -0.1348802, 0.14983578, 0.12710187, 0.053815868, -0.19964598, 0.63281125, 
-0.20062314, 0.078410335, -0.13105948, -0.03593133, 0.21539317, -0.68605447, -0.18344793, 0.34414968, 0.05591772, 0.04344583, -0.27652127, 0.29220736, 0.10255969, -0.10665039, 0.15122396, 0.13838369, 
0.18793863, -0.09868733, -0.30018055, -0.011143691, 0.23962586, -0.98271805, 0.23762015, 0.31119847, 0.11898117, 0.03342627, -0.13491191, 0.26896685, -0.12498148, -0.21426243, 0.18717949, -0.4412239, 
-0.27787468, 0.078587055, -0.18432857, -0.019732844, -0.30329898, -0.62926584, -0.05226826, 0.29670832, -0.08391396, 0.1212438, 0.0462941, 0.49052694, -0.23219538, -0.3904276, 0.24292378, -0.7664601, 
-0.23278897, -0.090018295, -0.16660273, -0.14756662, 0.020663394, -0.4300717, -0.6619312, 0.18600433, -0.0027438563, -0.029012386, -0.28280443, 0.1848449, -0.19756086, -0.27729252, -0.031026296, -1.4945354, 
-0.72661805, -0.013395337, -0.1567019, -0.02697215, 0.39932528, 0.043017186, -0.006493243, -0.08735622, -0.2583183, 0.07949169, 0.0735813, -0.24312574, -0.12341716, 0.06461391, -0.11329766, 0.27582294, 
-0.48748827, -0.13079567, -0.05879711, 0.050698362, -0.019067304, 0.029563988, 0.4042027, -0.10912351, -0.3824829, 0.127899, -0.10661253, -0.008512823, -0.06177759, -0.13066232, 0.025249097, -0.37608522, 
-0.28660572, 0.24949427, -0.11871574, 0.0048352215, 0.4063565, -0.014776677, 0.20357385, -0.009536178, 0.38040385, -0.19138655, 0.06055832, -0.14512175, -0.12676369, -0.08043257, -0.0549541, -0.29718024, 
-0.3452164, -0.08249163, -0.12923598, 0.107897386, -0.059009183, -0.043128386, 0.1356482, 0.060138296, -0.01852078, -0.26121297, -0.4330489, -0.22671898, -0.13406141, -0.04821633, 0.18977904, 0.31399393, 
0.21823715, -0.16960077, -0.24214874, 0.13721727, 0.056974437, 0.051285386, -0.05280924, -0.0011923709, 0.09767187, -0.08262352, -0.08700796, 0.1126319, -0.29983526, 0.17304836, 0.10109881, -0.28855428, 
0.42884237, -0.11917284, -0.043879107, 0.12224841, -0.1283871, -0.05998315, -0.28366634, 0.21038401, 0.01638594, -0.14918342, -0.012180509, -0.25259405, -0.22236024, 0.093728945, 0.04139632, -0.0647275, 
0.5659104, -0.0050031147, -0.07839743, 0.19156252, -0.5426914, -0.036933064, -0.27323228, 0.0508788, 0.00849256, -0.07041377, -0.13641287, -0.35204887, -0.20392972, -0.036152236, 0.059969284, -0.119871154, 
0.4858231, 0.07163813, -0.18540984, 0.23542956, -0.6442039, -0.026135644, 0.013919408, -0.14769623, -0.15036482, 0.2683433, 0.21607067, -0.13698965, -0.09475323, -0.014367547, -0.014497167, 0.15916926, 
0.11623647, 0.785978, 0.1151935, -0.050821435, 0.07493534, 0.5317805, -0.07141943, 0.46777663, 0.32792374, -0.59956914, 0.16097361, -0.12756823, 0.43145174, -0.24697189, 0.21039203, -0.31317312, 
-0.017700607, 0.74760675, 0.08752355, -0.060378417, -0.32823512, 0.44406328, 0.28727528, 0.37060133, 0.1954615, 0.47294858, 0.44607726, -0.116411105, 0.09033524, 0.03837921, -0.15331188, -0.47819364, 
-0.0916401, -0.3678782, -0.008216876, 0.34359694, -0.2846985, -0.10598651, 0.09040972, -0.5205343, 0.084505714, 0.44046196, 0.008270475, -0.048178747, -0.34651938, 0.1282248, -0.27957314, 0.17694527, 
0.27737096, -0.98419154, -0.08079014, 0.5086597, -0.30665347, -0.9714266, 0.098124154, -0.9320403, -0.32039216, 0.18065324, -0.42345083, 0.01659105, -0.4033845, -0.022251537, -0.018170321, 0.5363064, 
-0.060971823, -1.1753275, -0.10265319, 0.21776412, -0.17473678, -0.4938541, 0.33030587, -0.26135582, -0.560214, -0.21512799, -0.15937299, 0.041417375, -0.111526385, 0.19504376, 0.025733491, 0.20691957, 
0.09165689, -0.0099236565, -0.35721755, -0.5260988, 0.19938242, -0.009671417, -0.15741616, 0.6928361, -0.36882356, -0.7223717, -0.16541696, -0.1998819, 0.36861646, 0.17322066, 0.117548965, 0.11279718, 
-0.21617675, 0.54482484, -0.20030335, -0.44903052, 0.5307986, 0.36568856, -0.42156753, 0.358879, -0.10425582, 0.022893257, 0.12724805, 0.09676843, 0.31077158, 0.08463298, 0.003651395, -0.26930788, 
0.020848399, 0.46484467, 0.099123515, -0.13216902, 0.26891166, 0.3154233, -0.20843364, -0.20093746, 0.45679736, 0.47017622, 0.116435945, 0.32580963, -0.2540232, -0.43772525, -0.49252212, -0.6033039, 
};

const float MyModel_layer_2_bias[] = {
0.050334305, 0.86994964, 1.070152, -0.3363919, 0.5548087, 0.22231391, 0.45411178, -0.024924021, 0.77192277, 0.40646175, 0.69352293, 0.672078, -1.7856814, 0.23866303, -0.30664873, -0.38398254, -0.03768029, -0.07910543, 0.754976, -0.017894456, 0.121492356, -0.7872463, -0.019571608, -0.25998837, 0.7397722, -0.14273226, 0.089330405, 0.47674167, -0.41165444, -0.2799735, 0.50527054, -0.035672322, };


const float MyModel_layer_4_weights[] = {
0.14222774, -0.019165095, -0.23919894, 0.02517208, -0.04838963, -0.15195565, -0.15015215, 0.16743045, -0.11066056, 0.11103811, -0.02370683, -0.1532788, -0.06887904, -0.113408804, 0.09521801, 0.023139348, -0.31935483, -0.012038029, -0.043693412, 0.08036491, 0.12597264, 0.33729094, 0.082083575, -0.12526773, -0.40356603, 0.023839368, 0.1699809, -0.30919543, 0.11618479, 0.054848522, 0.17279533, -0.04228919, 
-0.056230087, -0.14157024, -0.45210457, -0.14183153, 0.33534217, 0.08992546, -0.079387166, -0.19208013, -0.035371576, 0.40222934, -0.399924, -0.28702426, -0.22986235, 0.10341515, -0.097426936, -0.25113913, -0.131767, -0.37965295, 0.49271673, 0.00531352, 0.004552786, -0.3311967, 0.092440695, -0.24998571, 0.086199686, -0.03900619, 0.31339914, 0.098936126, -0.38210827, -0.11091012, -0.05893785, -0.08214574, 
0.3116714, -0.2691749, -0.18602978, 0.12136925, -0.066542566, 0.031213608, -0.20877308, 0.15535276, -0.018510148, 0.34575132, 0.16841482, 0.071636885, -0.012481671, -0.21013093, 0.30948544, 0.19438055, 0.15919788, -0.16009156, 0.09663706, 0.12266368, 0.117045775, -0.20575494, 0.2250083, 0.17407963, -0.022101397, -0.007046661, 0.043493964, 0.29382154, 0.01987452, 0.30065838, 0.04447892, -0.27691942, 
-0.13702984, 0.1700972, 0.041534524, -0.33193064, 0.26443005, 0.2762201, 0.36863765, -0.053892057, -0.015921153, -0.447319, 0.57510304, -0.21719594, -0.2638181, 0.30917668, -0.2870618, 0.2120773, -0.14141761, -0.2010301, -0.085804425, -0.15208434, 0.09476562, -0.27692187, -0.20352572, 0.26615673, -0.3677516, -0.06854894, -0.75050247, -0.30781356, -0.15915285, 0.12883165, 0.021113167, -0.07395716, 
-0.015335612, -0.3323053, 0.3753423, 0.3829805, -0.25928986, 0.034376264, 0.28275204, 0.113488026, 0.35454488, -0.039167576, -0.21379884, 0.09309817, -0.18343408, 0.14736937, 0.5313961, -0.20438519, -0.025814999, 0.07387443, -0.050007, -0.27434337, -0.011607369, 0.12468492, 0.17790867, -0.09370667, -0.2254521, -0.12200788, -0.13760638, -0.13065925, 0.003627013, 0.2775007, -0.001423736, -0.5083664, 
0.10919664, -0.28245807, -0.077540584, -0.086443834, 0.13316524, -0.1681388, 0.1031101, 0.16467157, -0.09461305, -0.1842606, -0.12904496, -2.5294596e-05, -0.06414006, 0.04163343, -0.045121677, -0.080737405, 0.33026084, 0.1003957, 0.08433085, -0.41526002, -0.30207738, -0.0038328453, -0.110354215, 0.26183683, 0.069663405, 0.35256183, 0.21023, -0.7779402, 0.11099834, 0.12581511, 0.16804466, -0.80699474, 
0.19769578, 0.4680909, 0.20661567, 0.15134446, 0.004137149, -0.047540102, 0.19823138, -0.021007081, -0.34666854, -0.3587316, 0.14834769, -0.11601851, -0.25402555, 0.22633971, -0.07623383, -0.16914561, -0.62723637, -0.28870392, 0.45732784, -0.44090226, -0.17670245, 0.4277009, -0.49866727, -0.3560706, 0.10831351, 0.029542852, -0.1251915, 0.16587377, 0.2496794, -0.050003152, 0.2924455, -0.11347818, 
-0.20279725, -0.1575963, 0.09269271, -0.023272801, 0.12834437, 0.13229784, 0.3010071, -0.052098848, 0.2655536, 0.35890806, 0.07213027, 0.0068914387, -0.40172803, -0.30586535, 0.11376408, -0.29575828, 0.46373075, -0.281856, 0.12237295, 0.040537823, 0.29762864, 0.38142034, -0.016454479, 0.042958736, -0.21832111, -0.2984543, 0.14015877, 0.21747544, 0.1481644, -0.2096382, -1.2704461, -0.3444495, 
-0.18104716, 0.1660065, -0.48843592, 0.05616168, 0.12896082, -0.27387723, -0.8061643, -0.13017562, -0.17742313, -0.29026583, -0.15829688, -0.032007076, -0.0027778996, 0.15585425, -0.612276, -0.17962015, 0.009431096, -0.093889445, 0.015983399, -0.32072422, -0.083080865, -0.15749511, -0.37404996, -0.6248105, 0.014142846, 0.2247556, -0.106687896, -0.15269144, 0.13810803, -0.17546062, 0.038835622, -0.0097821755, 
-0.15588999, -0.13225326, -0.2430894, 0.08658949, -0.6144197, -0.12076678, -0.6313061, -0.3958501, -0.306165, -0.13579647, -0.01477542, -0.08699052, -0.20517187, 0.102239914, -0.28829077, -0.13026555, 0.13651726, 0.006642792, -0.018206045, -0.4211306, -0.23514013, -0.07432267, -0.24541941, -0.55559367, 0.07846252, 0.14479102, -0.17066513, 0.026031652, 0.111586966, -0.07586447, 0.3348723, -0.064993024, 
-0.013496356, -0.310913, -0.19607952, 0.10313042, -0.6605756, 0.032852437, -0.56595117, -0.17610478, -0.33639267, -0.16866836, 0.059129525, 0.018569013, -0.118379526, 0.068836525, 0.07952042, -0.090382166, 0.15760489, 0.08151622, 0.04294077, -0.21889174, -0.2456669, -0.005741513, -0.025149772, -0.74400294, -0.10772725, 0.1978826, -0.11169409, 0.17105116, 0.09081745, -0.16221526, 0.20501879, -0.036309052, 
-0.117469825, -0.3794669, -0.11108855, 0.05656241, -0.9750332, -0.19558722, -0.16438486, -0.194271, -0.14809905, 0.06613696, 0.18377888, 0.087804586, 0.09945528, 0.12979335, -0.0020903633, 0.08988947, -0.041256268, 0.09549915, 0.00644998, -0.1801416, -0.21251464, -0.05329135, -0.0128541365, -0.8288221, -0.04377438, 0.1604185, -0.29798594, 0.2573492, -0.042572647, -0.06354884, 0.24584943, -0.06994936, 
-0.1706633, -0.3433873, 0.28338477, -0.09775224, -0.39418226, 0.051987186, -0.008620492, -0.031408016, -0.016133992, -0.03999278, 0.26505986, 0.11216218, 0.20555256, -0.050260667, -0.05998623, 0.016422141, 0.30076456, 0.039527994, -0.0124951005, -0.6547857, 0.07129944, 0.016030243, 0.40071177, -0.61776286, -0.21515176, -0.17483364, -0.18408188, 0.14301597, -0.18605116, -0.09157928, 0.023414481, -0.0014427024, 
-0.65094197, -0.4023517, 0.06803466, -0.2475463, -0.48501405, 0.095250264, 0.28490987, -0.24569173, -0.034737177, 0.05948386, 0.122001246, 0.016947143, -0.10134217, -0.11644895, 0.06297806, -0.25710228, -0.025042055, -0.02784708, -0.06940465, -0.38689634, -0.06713319, -0.04621978, 0.18845408, -0.45769894, -0.10195749, -0.242135, -0.08589041, -0.04107962, -0.011089179, 0.06768849, -0.18874241, 0.0018782974, 
-0.6642426, -0.3816498, 0.30562136, -0.04296378, -0.3357563, 0.004394935, 0.24779512, 0.012417658, -0.08959019, 0.09648522, -0.0666759, -0.076314405, -0.0209601, -0.018187014, 0.09853757, -0.05727682, -0.06257763, -0.17373824, 0.04377504, -0.14146933, -0.06916169, -0.022122301, -0.13399494, -0.37708253, 0.06161842, -0.22893736, 0.056486957, -0.12019958, -0.29744887, -0.13128121, -0.26052812, 0.018798836, 
-0.3768354, -0.037636817, 0.19917567, -0.0665149, -0.105526336, -0.30442888, 0.12610653, -0.17218857, -0.17875282, -0.1550859, -0.24062176, -0.18507013, -0.011663571, -0.29683805, 0.15122622, -0.752295, -0.04519624, -0.30984724, 0.006491014, -0.29791978, -0.03302339, -0.004151623, 0.22161172, -0.38667542, -0.019045766, 0.20312707, 0.27370453, -0.26721057, -0.19752349, -0.003623117, -0.48763204, 0.06277872, 
-0.15706977, 0.21168113, 0.083872505, -0.060235266, -0.39639807, 0.5646208, -0.02819262, 0.15121901, -0.33820453, -0.095985904, -0.24657665, 0.28758523, -0.13641179, -0.3189788, -0.20402509, -0.104009025, -0.3438494, -0.20484515, 0.6347215, 0.016263103, 0.12742293, -0.068337314, -0.39627844, 0.24278627, -0.026848419, -0.23159024, 0.05493938, 0.22929429, 0.0675408, -0.031934787, -0.2087338, -0.26481092, 
0.27754852, -0.30220243, 0.042201668, -0.22262672, 0.095131785, 0.2723989, -0.038815334, 0.2303159, 0.38251197, 0.14641044, 0.24762665, -0.54250485, -0.14875634, -0.13241312, -0.23459405, 0.0857296, -0.24425256, -0.20350645, 0.00016301697, -0.050331675, 0.27270082, -0.24185678, -0.112907775, 0.35685533, 0.34891716, 0.19667998, 0.052219003, 0.023109242, 0.47944912, -0.15197945, 0.13515654, -0.35648122, 
0.24264602, 0.3684195, -0.016922997, 0.331163, 0.2872825, -0.098163426, 0.2313643, 0.06901018, 0.11839317, 0.01653034, 0.39990032, 0.067176364, -0.2545779, -0.53112614, -0.045352213, 0.27580234, -0.08068871, -0.3301147, 0.17895801, -0.21431695, 0.33356047, 0.121412866, -0.41162476, -0.36442876, -0.7600773, -0.18607576, 0.0044913865, -0.07941222, 0.1137117, 0.010152644, 0.22321124, -0.22588076, 
0.21398324, 0.042532142, 0.027351093, -0.58362776, -0.11998244, -0.28185266, 0.26383817, 0.00029123516, -0.040262863, -0.28166503, 0.26973146, -0.05922848, -0.76150054, 0.50314313, -0.4821318, -0.44887438, -0.5182749, -0.45538074, -0.4116952, -0.2674627, 0.08698632, -0.38390258, 0.07136798, -0.61858547, 0.13626255, 0.4572667, 0.16379039, -0.0011250821, -0.102441326, -0.058248676, -0.29543945, -0.29162455, 
0.21051344, -0.42098638, 0.36752915, -0.75904465, 0.2641155, -0.35387835, 0.01538714, -0.2558697, -0.34335837, -0.052335203, -0.026809832, 0.0750253, 0.39424637, -0.22446978, 0.041497592, 0.18443601, 0.64139533, 0.24313192, 0.11371057, -0.37365395, -0.29638273, -0.21013726, 0.06542488, -0.20925185, -0.35942224, -0.12613493, 0.8459683, -0.5408052, -0.87737644, -0.1534701, -0.057141386, -0.08261567, 
0.049843147, -0.25490695, -0.17081532, -0.9425579, -0.123557694, 0.16906911, -0.14973794, -0.14499402, -0.11505316, -0.19431138, -0.19347025, -0.13652743, -0.11787911, 0.008143242, 0.02951276, -0.4208185, -0.2533853, 0.5618419, 0.14734364, 0.21760292, 0.423308, -0.02274793, -0.0015563807, -0.08981282, 0.2039993, -0.16128467, -0.37737682, 0.29320568, 0.2793652, -0.2977706, -0.19542387, -0.044181425, 
-0.041543737, 0.34578723, 0.006889312, 0.050869133, 0.10152794, -0.04101107, -0.11619276, 0.019200766, 0.09777523, -0.08853556, -0.099285856, 0.60503423, -0.23620455, -0.45136866, -0.07688019, -0.1351434, -0.08979389, 0.12347554, -0.82494336, 0.0701312, 0.3961163, -0.30424955, 0.2301239, -0.0062998175, -0.05058789, -0.19952674, -0.09016967, -0.7807845, -0.12793088, -0.095669284, 0.2299909, 0.1532559, 
0.08131518, 0.29770714, 0.089934826, 0.09237501, -0.06770962, -0.5903195, -0.3521108, 0.16449416, -1.3463743, -0.10928384, 0.05685859, -0.28673553, -0.50319993, 0.5593274, 0.19253486, 0.34577084, 0.104200885, -0.06317321, -0.18242915, 0.07904127, 0.15521729, -0.34030455, -0.022389045, -0.18148696, 0.035000045, -0.23663476, 0.15270014, -0.54266685, -0.23258203, -0.24149616, -0.32286465, -0.366639, 
0.28308764, 0.04833589, -0.21551323, 0.004831081, -0.030842343, 0.059502352, 0.19434641, 0.18541503, -0.14922802, -0.07446092, 0.043594316, 0.10405508, 0.07749432, -0.17057395, -0.361126, 0.12251657, 0.2137288, -0.16795619, -0.24328357, 0.095084436, 0.17126344, -0.11016577, 0.21939273, 0.12712234, -0.3682373, 0.11512093, 0.08177346, -0.18990658, 0.16170199, 0.009647233, 0.09452272, -0.1580116, 
0.030071098, 0.35824588, -0.12831587, -0.5101978, 0.13100564, 0.2257012, 0.068672694, -0.13778462, 0.13689546, 0.054802295, 0.58715063, -0.18214431, -0.46390924, -0.5403856, 0.05496736, 0.049315784, 0.058538605, 0.26417598, -0.018650342, 0.15818396, 0.28946042, -0.29810205, 0.15289514, -0.3358928, -0.4501826, 0.2432435, -0.20084357, -0.0015568029, -0.1146648, -0.07927842, -0.0674911, -0.06943199, 
0.264397, -0.441353, 0.10623294, 0.5288402, -0.58739626, -0.30628017, -0.52480507, -0.85357654, -0.1045225, -0.027324632, 0.2642442, -0.09626411, -0.23770605, 0.3691845, 0.062492874, -0.20468286, 0.34354156, -0.10769719, -0.19724716, 0.12661187, 0.022249682, -0.046837766, 0.014946567, -0.9833911, -0.053054336, -0.23611644, -0.3116468, -0.18728164, 0.008833375, 0.016535267, 0.18098421, -0.10652095, 
-0.06421529, 0.0914501, -0.27518612, -0.29701152, 0.18208121, -0.38771847, 0.37452355, -1.5277537, -0.0986093, 0.019587768, 0.30560115, -0.21084225, -0.34886912, -0.33228514, -0.106355414, 0.053551838, -0.19845854, 0.22185877, 0.330131, -0.14162216, -0.3065628, 0.18580778, 0.13999249, -0.55960405, -0.09501092, -0.46140873, -0.18366075, -0.48982787, -0.18114074, -0.039683107, 0.15909815, -0.0378342, 
-0.35831124, 0.4456562, -0.12682982, 0.25123215, 0.5190873, 0.14490113, 0.21427652, -0.98335814, 0.13997865, 0.20715915, -0.2066135, 0.07685279, 0.6309421, 0.105377786, 0.25699753, -0.30879134, 0.05793928, 0.19101804, 0.03479746, 0.21637057, -0.5735784, -0.6210467, -0.28970703, -0.054837808, 0.15776767, -0.104226224, 0.45550144, 0.077687345, 0.16684978, 0.24185558, 0.53856814, -0.4433239, 
-0.36795676, 0.8006296, -0.13363789, 0.02501959, 0.20095181, 0.03362654, 0.13135992, -0.38475156, 0.22695908, -0.17637758, -0.1546802, 0.26721865, 0.37286484, 0.2596167, -0.2561703, -0.87365067, -0.16360974, -0.09823515, -0.0879571, -0.0073915757, -0.34248757, 0.011929565, 0.05080114, -0.6376462, -0.097891875, 0.3109736, 0.08962836, -0.3219652, -0.35562032, -0.34739545, -0.07689683, -0.06487109, 
0.089816265, 0.11278635, 0.29037777, -0.44457906, 0.104527816, 0.31637424, 0.19768035, 0.029448926, -0.25758612, -0.33614764, 0.048338585, -0.084245384, -0.4948407, 0.2686446, 0.04056513, -0.17939164, -0.8119774, -0.21248108, 0.26392877, 0.009878391, 0.08460648, 0.053482585, -0.29755607, -0.24242175, -0.13785982, -0.9751997, -0.24411759, 0.21368338, 0.17005369, 0.00029540053, -0.3045947, -0.026719425, 
-0.025829505, -0.06321227, 0.30454555, -0.7639284, -0.4410441, -0.5736092, -0.13809036, 0.021882866, -0.015264255, -0.316353, 0.17253704, -0.33693826, 0.38497144, -0.68496084, -0.5283066, -0.68911093, -0.053824488, -0.063567884, -0.14675099, -0.13831088, -0.18256155, -0.11656873, 0.017204331, 0.28552413, 0.14474235, 0.07435064, -0.093115464, 0.0014221563, -0.02411299, -0.2208969, -0.8522204, -0.16219254, 
-0.15282789, 0.29281187, 0.11654722, -0.0131083485, -0.19907421, 0.26768717, 0.21636799, 0.15841009, -0.24732724, 0.13408235, -0.6728409, -0.005926369, 0.27248105, 0.43690047, 0.081201, -0.56500834, 0.31734172, -0.41635132, -0.12630527, -0.14278293, -0.23896857, -0.07428895, 0.108108446, 0.06339072, -0.7201569, -0.138251, -0.20879239, 0.17447385, 0.03899133, 0.25227663, 0.0780797, 0.12145312, 
-0.22493047, -0.00033813578, -0.035900142, -0.046349674, 0.2792432, -0.18193662, -0.07103869, -0.096968986, 0.19742392, -0.1329058, 0.15645383, -0.087198675, -0.114086464, 0.10219722, 0.24432805, 0.33387908, -0.19808537, 0.26212192, -0.21396272, -0.11287652, -0.34215987, -0.45449972, 0.12475307, 0.2218972, -0.22479324, -0.07226466, 0.06166679, 0.2483832, -0.29662663, 0.24453683, 0.16937438, -0.65023464, 
0.10119121, 0.27700987, -0.008936696, 0.25857496, -0.22020283, -0.17032498, 0.30992037, -0.037352774, -0.31211492, -0.14211258, 0.22376883, 0.08693609, -0.0061858185, -0.19417892, -0.19343892, 0.203, 0.07521187, 0.07855095, -0.48218763, -0.085638754, -0.18341285, 0.18477301, 0.12260435, -0.060851492, -0.6920477, 0.3265547, 0.20251222, -0.11318994, 0.08202774, -0.08572925, -0.29946902, -0.9788958, 
0.2109647, -0.05685853, 0.16623855, 0.2746711, -0.035009142, 0.6538353, 0.09052735, 0.03390124, -0.35467833, -0.037602495, 0.06170857, -0.36220196, -0.43883386, 0.053404897, 0.16786417, -0.118653655, 0.17481594, -0.028879656, 0.22348274, -0.060607545, -0.12397636, -0.117589734, -0.07593972, -0.17636389, -0.17331618, 0.06839306, 0.029624874, -0.14885381, 0.23529801, 0.41302428, 0.33921903, -0.04906415, 
-0.23835061, 0.029294914, 0.4287212, -0.17118302, -0.19701354, -0.13872513, 0.0662556, 0.34639114, 0.42590946, -0.33306074, -0.24699281, 0.13033544, -0.074854076, 0.16410506, -0.32794982, -0.4658263, 0.16928323, -0.0395161, 0.22401294, -0.4520712, -0.2920231, 0.102320336, -0.15059952, -0.19766179, 0.46824518, -0.11590906, -0.48678482, 0.254216, -0.16911471, 0.09214101, -0.0044105486, -0.42448193, 
0.023428297, 0.10277759, 0.07644581, 0.12125851, -0.5484201, 0.25953865, -0.2993653, 0.019618822, -0.49468875, -0.28436977, 0.41563365, -0.19147103, 0.120553784, -0.06967957, 0.53012806, -0.84611577, -0.10040383, -0.3949695, 0.25011542, -0.098854125, -0.75432575, -0.1264605, 0.14925526, -0.0013134062, -0.24787271, 0.17240061, -0.009292518, -0.08919294, -0.6033907, 0.14319873, 0.3058747, -0.4873003, 
-0.32885644, -0.047501337, -0.09914401, 0.12098099, -0.48721, -0.3530333, -0.3771244, 0.0843817, -0.13542253, 0.17175102, 0.12862547, -0.23061164, -0.17525043, -0.19058782, 0.023483511, -0.07132918, -0.31011155, 0.0039452896, 0.18900819, -0.19889475, -0.097215675, -0.24089935, 0.15392406, -0.11851752, 0.24442457, 0.11222176, 0.22569488, 0.22230765, 0.36656, 0.17772919, -0.10535659, 0.12060784, 
-0.087593384, -0.29512468, -0.03162244, 0.1148799, -0.004703907, 0.30995864, -0.18341173, 0.19454837, 0.059191804, 0.20850226, -0.120979965, -0.18263747, -0.14316368, -0.08073437, -0.20731318, 0.1934073, -0.15331846, -0.040443845, -0.11809941, 0.18939698, -0.07902366, 0.27803695, 0.0043369457, -0.73212034, 0.16764666, -0.28761804, -0.38815975, -0.13445346, -0.3218902, 0.16335876, 0.15087509, -0.34022835, 
-0.33074972, 0.083971985, 0.20197316, 0.06885562, -0.5018783, -0.18212369, 0.4876922, 0.41313162, 0.007243497, 0.1318794, -0.12991364, 0.036511496, -0.23477155, 0.23923983, -0.17322977, -0.35976875, -0.007352131, -0.56623346, -0.029490905, -0.4618691, 0.13132556, -0.35319376, 0.27614155, -0.3654076, 0.31858584, -0.1149234, -0.17532188, -0.08802338, -0.0059506563, 0.09359848, -0.5399905, -0.70074916, 
-0.3268338, 0.01418461, 0.28214836, 0.22350411, 0.030329151, 0.43411216, -0.16505043, 0.28835735, 0.28962585, -0.27498874, 0.16695774, -0.29409057, 0.15683232, -0.06528356, 0.42672434, -0.2496815, 0.06037033, -0.31335956, -0.039523877, -0.026297627, -0.08219091, 0.16058333, 0.021704646, 0.046102043, -0.06506241, 0.22574605, 0.42829162, -0.025431246, -0.09584164, 0.22469498, -0.5802744, -0.43421715, 
-1.1116418, 0.093290806, -0.3243009, 0.0629087, -0.22322844, 0.094991595, -0.046961434, 0.2455651, -0.0850872, 0.28996044, 0.30948657, 0.114985414, 0.011361268, -0.2265152, -0.07583362, -0.22356337, -0.1434044, -0.23830424, 0.0010391723, -0.15144065, -0.44506708, 0.42237633, 0.61058617, -0.11776826, 0.23335789, -0.26834378, -0.095942385, 0.12631217, -0.5917867, 0.1536821, -0.91968596, 0.15034212, 
-0.85466355, 0.38696557, -0.33918905, 0.20043682, -0.04719569, 0.072724156, 0.17119427, -0.030379217, -0.03173839, 0.14291017, -0.25593206, -0.22811878, -0.0020300979, -0.55928123, -0.1392566, 0.2854004, -0.19878942, 0.08666952, 0.03699762, 0.03360895, -0.5859761, 0.062234066, -0.13340122, -0.5370314, 0.24574901, -0.22335635, -0.6492961, -0.1085582, -0.46496424, 0.354249, 0.27684182, -0.061338544, 
-0.17397559, -0.1864406, -0.116355106, -0.21919696, -0.074281834, 0.101917446, 0.1780306, -0.22316416, 0.003021872, -0.18745278, -0.12574261, -0.071063645, 0.047333315, -0.18862319, -0.12619457, -0.016034137, 0.07313135, -0.13053043, -0.21707648, 0.1562523, -0.2059898, 0.06870033, 0.20394056, -0.026589904, -0.18759695, -0.107562184, 0.21100932, 0.055625122, 0.15511832, 0.06253439, 0.56963515, 0.06656733, 
-0.16312803, -0.35179242, 0.062298726, 0.11325693, 0.13370903, -0.36365494, -0.17773537, -0.44942945, -0.14881589, 0.21045528, -0.49797735, 0.07139353, -0.072863646, -0.09864507, -0.088825986, -0.0070654727, 0.117540464, -0.028582739, -0.35930058, -0.12705351, -0.17660737, 0.016570192, -0.09229657, -0.77268034, 0.14996009, 0.059180755, 0.4316795, 0.2862735, 0.24639839, 0.40702808, 0.047902513, 0.11620912, 
0.23471186, -0.123215556, -0.013525071, 0.1628526, -0.04210085, 0.22174463, -0.2084902, -0.8090798, -0.26791072, 0.4120941, 0.46015733, 0.004444056, 0.0068234466, 0.37443164, 0.10912164, -0.23345682, -0.2045032, -0.102081, -0.093262546, -0.09397412, 0.20774706, 0.19938637, -0.41104308, 0.016264578, 0.13321261, -0.5915776, 0.05692237, 0.37243304, 0.029460933, -0.17875746, 0.15682359, -0.18850148, 
-0.45052156, -0.60193646, 0.45941585, -0.29497936, 0.007775725, 0.028459348, -0.05444248, -0.7974315, 0.0011950743, 0.20368513, 0.22645758, -0.7413352, -0.09518103, 0.4078099, 0.036360513, -0.5134392, 0.81543654, 0.08095996, -0.46223867, 0.0015711836, -0.18686667, 0.55506444, 0.09220489, -0.82537574, -1.4556956, 0.19843097, -0.51211625, -0.10557201, -0.75246763, -0.2691619, 0.26994374, -0.09809804, 
0.012652051, 0.063741654, -1.1750977, 0.28791004, -0.22897674, -0.2870272, -0.009338088, -0.078837946, 0.23585202, 0.030440584, -0.24171086, 0.5737305, -0.08455503, 0.08243752, 0.012098302, -0.29638287, -0.04447201, -0.021498501, 0.06820504, -0.013341801, 0.21642157, 0.19515781, 0.023669826, 0.036667135, -0.9196203, -0.06780549, -0.057082508, 0.15824099, 0.0008853403, 0.05452806, 0.010595771, 0.11420175, 
0.10869972, 0.062876865, -0.4994104, 0.39838487, 0.062791176, 0.024063393, -0.20419961, 0.004701251, -0.01892855, -0.27903622, -0.3691323, 0.16568337, -0.04551177, -0.27933997, 0.10236908, -0.1055082, -0.09086917, -0.05709129, 0.08121298, 0.15385771, -0.066653326, 0.14077064, -0.36601153, 0.15338439, 0.23955545, -0.011281636, 0.14871405, -0.12375369, -0.07769339, 0.22845498, -0.04174747, -0.17481847, 
0.07827471, 0.042161874, -0.11696634, -0.03904827, 0.59137666, -0.40335518, 0.30791813, -0.022787005, -0.09079043, -0.23094198, -0.06787422, -0.4184418, 0.14828157, -0.062247105, -0.12058681, 0.26687798, -0.16897845, -0.6929053, -0.2513294, 0.017762238, 0.035369683, -0.012464582, 0.13740838, 0.11006509, -0.31928575, 0.03943157, 0.18320711, -0.05993303, 0.19092903, 0.08112218, 0.26264876, -0.36501807, 
-0.09238034, -0.2716125, 0.22219372, -0.40503433, 0.11603652, 0.08984982, -0.061212473, -0.40755552, -0.21849582, -0.4306977, 0.110235535, -0.50392616, -0.1780465, 0.005493074, -0.15920639, -0.473325, -0.090359464, -0.5639732, -0.23470141, 0.09884126, -0.18509807, -0.5607061, -0.07968392, 0.10480137, -0.0027954506, 0.03892245, 0.52875376, 0.027649578, -0.045370866, -0.0374223, -0.15532266, -0.7139843, 
-0.38297307, -0.062472798, -0.01092884, -0.10852373, 0.24601114, 0.14313646, 0.36190498, -0.17055501, 0.11840832, 0.22694889, 0.057453178, 0.12050003, 0.34027237, -0.12503257, -0.7848775, -0.25385174, 0.43333808, -0.2687614, 0.08775107, -1.8342569, -0.32594702, -0.646756, 0.26039863, 0.004460088, -0.94119674, -0.4643414, -0.2085913, 0.023807839, 0.08418294, -0.24650295, 0.32089776, -0.7614597, 
-0.03963579, -0.14445835, -0.23892112, -0.34502822, -0.38055608, -0.040609766, -0.47118074, -0.13942602, 0.193834, 0.07343753, 0.31001315, 0.16502734, -0.53837156, -0.30767155, 0.034611646, 0.024186399, 0.02299734, 0.15061525, 0.052041043, -0.3874096, -0.4239665, -0.64712435, 0.11392269, -0.24427472, -0.13863428, 0.024661586, -0.12963682, 0.42011222, -0.53389525, -0.4627782, -0.2879823, -0.073598936, 
-0.08758716, -0.11909885, 0.22845139, -0.11359027, -0.4253423, -0.60499966, 0.0049048904, -0.26888198, -0.29792, -0.2860471, 0.36570635, -0.3989805, -0.35284382, 0.42311856, 0.31804413, -0.07237117, -0.26516154, -0.024357231, 0.38008165, -0.055192128, -0.10420107, -0.5525096, -1.2345914, -0.15738615, -0.38338375, 0.24745643, -0.026901852, 0.31034103, -0.28188205, -0.364625, 0.10449224, -0.098953545, 
-0.051578403, 0.5329956, 0.0017242011, 0.040578883, 0.021572543, -0.43364516, 0.10967175, -0.43967274, -0.21558931, -0.08927491, 0.6237256, -0.116376005, 0.3514738, 0.06262604, 0.0193023, -0.26444793, 0.65215814, -0.18940851, -0.091748565, -0.15831396, -0.15150641, -0.03002612, -0.7427031, -0.034386177, 0.23084718, 0.2316773, 0.38739365, -0.05142838, -0.20811132, -0.5473498, -0.48980495, -0.08656838, 
-0.006065981, -0.22194189, 0.1220864, -0.10693931, 0.1021308, 0.2837428, -1.3777741, -0.7796833, -0.382006, -0.4374804, -0.38128254, -0.36979178, -0.14788967, -0.108082704, 0.07623765, 0.0045449003, -0.18633206, 0.15446642, -0.06785521, 0.05122352, 0.008265085, 0.15127406, 0.08577536, 0.018713005, -0.19402486, -0.7653753, -0.11469152, -0.5416032, 0.06004541, -0.17142685, 0.068060935, -0.09045471, 
0.07793731, 0.16429691, 0.01169758, -0.2040579, 0.35054606, 0.10531415, -0.67766964, -0.16829503, 0.4093783, -0.67625403, 0.03996272, -0.2874601, 0.056501094, 0.06418276, 0.17110224, -0.12204338, 0.044980746, -0.24047674, -0.65452623, 0.44279608, 0.19418688, -0.29827166, 0.06665635, 0.060171664, -0.57627344, -0.0621554, 0.029936075, -0.46037546, 0.2169784, 0.33030316, 0.24597067, -0.14959335, 
-0.12798604, 0.34046936, -0.3493534, 0.07364037, 0.17063779, -0.3223126, -0.004173173, -0.17409165, -0.7854471, -0.08167544, -0.045868676, -0.28261542, 0.053346932, 0.3311988, 0.049286216, -0.31512377, 0.010959717, -0.1039967, 0.44033498, -0.23528062, -0.2950453, -0.07220959, -0.21262215, -0.1803187, -0.37680954, 0.33139855, -0.06672836, 0.053197447, 0.21495116, -0.21740931, -0.21402088, 0.12159151, 
-0.13981995, 0.09565829, 0.2515463, -0.41661072, 0.2524852, -0.11553931, 0.52602667, -0.11463076, -0.14550744, -0.46667898, -0.19824442, -0.18969125, -0.18377638, -0.14641306, 0.18202583, 0.09585423, 0.2881085, -0.3188351, 0.2871444, -0.38961217, -0.68591326, 0.46862087, 0.088941105, -0.038742717, -0.119498305, -0.041948054, 0.08748724, -0.03536993, 0.21450819, 0.46831596, -0.00037630924, -0.056426227, 
0.020933285, 0.14637956, 0.17049062, -0.44289213, 0.069649644, -0.033851724, -0.0062651546, 0.08606111, 0.07640036, -0.01759676, 0.0679356, 0.3610216, -0.3033538, -0.10377857, -0.11999723, -0.30522507, 0.064994335, -0.26810855, 0.57858884, -0.20113644, -0.33739665, -0.14054342, -0.29441556, -0.031939358, 0.25075024, -0.058002077, 0.25345433, -0.23188038, 0.30208954, 0.312657, 0.34020767, -0.10676348, 
0.076987214, -0.4258439, -0.035203565, 0.342268, -0.3755, 0.0070084133, -0.03629043, -0.22134803, 0.4498651, 0.21123613, 0.5879012, -0.24710026, 0.046051435, -0.39170933, -0.060690332, -0.42123362, 0.054645088, -0.7751653, 0.08317101, 0.045055065, -0.70835793, 0.019881956, -0.19777916, 0.36056, -0.34090748, -0.070689924, 0.008685659, -0.044337, -0.10889544, -0.19334477, -0.16958827, -0.03332244, 
-0.016231943, -0.25583476, 0.64892393, 0.16327573, -0.2689304, 0.12245978, 0.044565037, -0.20091559, -0.06154108, 0.14770783, 0.1846256, -0.26647878, -0.075729415, 0.10583175, 0.11263508, -0.13723738, 0.19124049, -0.54303515, -0.11204537, -0.013159131, -0.44401672, -0.2630196, -0.5145579, -0.015361652, 0.36875162, 0.052897807, 0.24142206, -0.17869915, 0.24362974, -0.17927486, -0.18924811, -0.22068422, 
-0.4600885, -0.22053628, -0.2946392, -0.037667874, -0.27043778, 0.019825941, 0.12233167, -0.7077456, 0.10188269, -0.084905304, -0.22357263, -0.23922321, -0.003743412, 0.23304541, 0.053469498, -0.07480652, -0.19986159, -0.030118758, -0.5815886, -0.40669838, -0.19720131, 0.12006356, -0.3500364, -0.28426403, 0.3757641, 0.12165014, -0.18018559, -0.003636823, -0.954117, -0.257303, -0.11498932, -0.05880936, 
0.08001563, 0.015451475, -0.4130422, 0.16606165, -0.31205153, -0.088077664, -0.013946396, 0.12321881, -0.084046744, -0.043124728, -0.17926641, 0.10610427, -0.17405789, 0.19543545, 0.1749779, -0.46362472, 0.3106195, -1.3998891, -0.029438967, -0.044189744, 0.3560557, -0.060046643, 0.20889626, 0.012045196, 0.40107536, -0.07916465, 0.26834568, -0.32524282, -0.3477224, 0.15841793, -0.29613462, -0.4765256, 
-0.21956131, 0.036493972, -0.30175352, -0.008327124, 0.24050713, -0.133842, -0.40418097, 0.052236468, 0.16107187, -0.2560813, -0.19713715, 0.08774838, 0.17684263, 0.09456995, -0.53112197, -0.4257215, -0.07148524, -0.18159634, 0.33760327, -0.11030661, -0.14541078, -0.40590677, 0.04740918, -0.25593457, 0.045638002, 0.005001248, 0.09368281, -0.07098985, -0.34158045, 0.08869959, -0.6375887, -0.14320111, 
-0.32952976, 0.6415302, 0.03591724, 0.06343214, -0.8001612, 0.028196124, -0.22952256, -5.1717565e-05, 0.23124373, 0.029516228, -0.5151939, 0.18146792, -0.15788534, -0.025505207, 0.10844883, 0.005483391, -0.2778425, -0.12302654, -0.11339972, 0.13805686, 0.43925172, -0.1147833, 0.43662396, -0.15657623, 0.5260704, -0.2434486, -0.26556233, -0.034330584, 0.3996598, 0.10451311, -0.7260238, -0.5069559, 
0.21745169, -0.6266308, 0.05275042, -0.024382511, -0.30637398, -0.131202, -0.41444468, 0.14529063, -0.057012156, 0.23716705, -0.5799402, -0.2263005, -0.14319256, 0.13215756, -0.12276723, 0.041475832, 0.26504678, 0.00491912, 0.036155928, 0.15136878, 0.34915695, 0.16154157, -0.07475708, -0.6058424, 0.34960788, -0.4020349, 0.032936037, 0.06652759, 0.18381774, 0.18363765, 0.15242752, -0.2774251, 
0.084856026, 0.47341308, -0.29013845, -0.012017017, -0.10465475, -0.17230633, 0.0679519, -0.030885532, 0.14482315, -0.17703107, 0.10792734, 0.13461478, 0.015516981, 0.038925312, -0.16404124, -0.077339746, -0.35502866, 0.17718138, 0.00657564, 0.012364017, 0.14964125, 0.07904754, -0.18924458, -0.42926207, -0.44379014, -0.08233964, 0.04905679, -0.12720478, 0.046657797, 0.18594281, 0.23169653, -0.39126486, 
0.030129889, 0.12033777, -0.094118275, -0.20501314, -0.11145175, -0.0019688497, 0.26756242, 0.0646972, 0.19353324, 0.5807145, -0.0122320745, -0.047991347, -0.121911526, -0.36035192, -0.06920319, 0.32935706, -0.069954865, -0.124682374, 0.23008372, -0.1990279, 0.21640526, -0.2719045, 0.31953588, -0.20616469, -0.5986393, -0.3011946, 0.107678145, -0.04456638, -0.023127545, -0.0581723, 0.26384315, -0.4734954, 
0.056978807, -0.056330297, -0.07186393, 0.22739013, 0.09706173, 0.08954917, -0.38699144, 0.10711632, -0.31681216, -0.047068242, 0.15243721, -1.5615249, -0.5135985, -0.11617418, -0.096679136, 0.14902715, -0.12242057, 0.12626325, 0.2657012, 0.044923447, 0.5927522, -0.24700421, -0.08265929, -0.09688414, -0.038658857, -0.38524058, 0.079198726, -0.2932514, 0.1295813, -0.27433646, -0.16285327, -0.080963634, 
0.21164805, 0.0696026, -0.026800364, -0.0940997, -0.16949104, 0.0003922546, 0.035032306, 0.225591, 0.046222016, 0.113187596, 0.22888745, 0.28643677, -0.34679604, 0.16400555, 0.22040045, 0.33308446, 0.26373038, -0.10526197, -0.02609193, 0.11178202, 0.30508295, 0.26489288, 0.30315116, 0.0016202118, -0.4070832, -0.042718332, -0.17848344, -0.44127202, 0.032905526, 0.21048398, 0.24011058, 0.08310808, 
-0.2935748, 0.35272276, 0.15795614, -0.47378883, 0.060418833, 0.16583213, -0.07225252, -0.13640144, -0.06375566, -0.03334543, 0.3012887, -0.8739776, 0.022328822, -0.23942634, -0.6239703, 0.159951, -0.13409662, -0.30540958, -0.8161518, 0.28030393, -0.14071207, 0.0024377361, -0.07403998, -0.055765014, 0.3717487, -0.17008379, -0.14965762, -0.18420196, -0.5677816, 0.01752005, 0.22996104, -0.27918616, 
-0.460212, -0.28389993, 0.08783835, -0.19942077, -0.06167788, -0.29186627, 0.030528912, 0.25109264, 0.13978124, 0.27535635, 0.3294955, 0.22236177, -0.18189654, -0.07518052, -0.6885575, 0.16054448, -0.3892517, -0.41349992, -0.27974433, -0.16106394, 0.08236569, -0.12425686, -0.7012055, 0.1699053, -0.33730683, 0.1689115, 0.21124822, 0.1649018, 0.025994005, -0.04558318, 0.18830477, -0.25386083, 
0.27265692, -0.34361422, 0.34679428, 0.35992995, -0.03845785, -0.31466642, 0.56316173, 0.21886712, -0.33185214, -0.1070696, -0.00046325484, -0.3590848, -0.012225619, 0.21850237, -0.40544078, 0.4138583, -0.09250512, -0.17965943, 0.18792315, -0.4400328, 0.18324067, 0.07488961, 0.1786668, -0.11270743, 0.0992378, 0.22794496, 0.40110135, -0.2914431, -0.23036918, -0.22654569, -0.7356115, -0.40806872, 
0.086382695, 0.6740509, -0.044823807, -0.21898167, 0.36742884, -0.1425928, -0.019101748, -0.2785602, -0.36897564, -0.073281415, -0.06234893, 0.1510871, -0.06314065, 0.3812329, 0.4297679, -0.78222996, 0.057077575, -0.2650461, -0.4389804, -0.31798157, -0.061639223, -0.09829446, 0.22363015, -0.030847393, 0.05596476, -0.008785953, -0.16876888, -0.1310091, -0.43327218, -0.03593431, 0.015267049, 0.07779551, 
0.33905518, 0.05332554, 0.02448367, -0.17994936, -0.10905306, 0.5692333, -0.37450355, -0.43525705, 0.27131993, -0.29651177, -0.30331013, -0.45525426, -0.19836007, 0.25699878, 0.6759361, -0.010238175, 0.34297296, -0.21385498, -0.0322815, 0.49283022, -0.06050885, -0.2364763, 0.083995044, -0.46281934, -0.12473956, -0.264564, -0.22952753, -0.17206743, -1.0718209, 0.1865684, -0.04644762, -0.037363112, 
-0.025363289, -0.45699528, 0.14430714, 0.0013212875, -0.4101315, 0.407196, 0.2772237, 0.18583748, 0.1841199, 0.43625143, 0.41245028, -0.20289671, -0.019926144, 0.066149436, 0.055423006, -0.1743085, 0.10713718, -0.21537113, 0.050828177, 0.155644, 0.32271856, 0.097378135, 0.13382559, 0.21971852, -0.42128393, 0.1256313, 0.19136637, -0.22386064, -0.5710162, -0.1610143, -0.07994829, -0.20339899, 
-0.26370853, -0.40201515, -0.44410723, 0.13875632, 0.28971988, 0.23126917, -0.046529632, -0.14971326, -0.09913196, -0.05822056, 0.38592702, -0.040177766, -0.041286863, -0.13892233, -0.15107684, -0.22970887, -0.21576744, 0.20303623, -0.4673742, 0.1470387, -0.02100925, 0.28170055, -0.3942092, -0.13580118, -0.62721044, -0.5216289, 0.6287818, 0.15703622, -0.0560557, -0.16004588, 0.07511402, -0.08837789, 
-0.22886342, 0.4279177, -0.09309683, -0.8329795, -0.00615577, 0.11201064, 0.023099737, 0.079192534, -0.42550936, -0.09475832, -0.01736456, -0.02477189, -0.323468, -0.099251986, -0.04240023, 0.026081495, 0.08576673, 0.12949114, 0.11285971, -0.4085764, -0.04601925, 0.33317852, -0.261159, 0.029390221, -0.571219, -0.21946709, -0.35945043, 0.21693917, 0.0546763, 0.3116463, -0.040532183, 0.00850048, 
0.44601265, -0.5366129, 0.102632105, -0.64549124, -0.07958515, 0.3281974, -0.24832128, 0.35568094, -0.05306169, -0.35825393, -0.29038686, -0.9120294, 0.033437587, -0.980449, 0.1977401, -0.34916675, -0.8502205, 0.23406316, 0.78618526, 0.025287628, -0.3340328, 0.7885757, 0.5365383, 0.026385464, 0.28534836, -0.275587, 0.6338897, -0.31613144, -0.1364091, 0.27908823, -0.09753369, -0.59333545, 
-0.11826856, 0.64401495, 0.27743295, -0.36835724, 0.4790953, 0.21166241, 0.13424738, -0.41169685, 0.5196866, -0.5206104, -0.5954852, 0.4657074, -0.1684254, -0.6810054, -0.13836774, -0.21620326, 0.3502199, -0.32347307, 0.30520508, -0.5564783, -0.1738696, -0.5717221, -0.122995995, -0.13838267, -0.2429039, 0.17164534, -0.16146773, -0.24055545, -0.3867413, 0.4473081, 0.21205807, -0.086342975, 
-0.035159666, 0.074164234, 0.0004844367, 0.35855898, -0.05869446, -0.00022067685, 0.31598282, -0.057625175, -0.570969, -1.2682709, 0.5647917, 0.3703798, -0.06450303, -0.5057421, 0.45644298, 0.18457688, -0.34442243, -0.261692, -0.40375465, -0.47837013, -0.42333144, 0.03507204, 0.028097989, -0.20635147, -0.26880458, 0.24756399, -0.08029438, -0.54152554, -0.13137253, 0.4007669, -0.17087267, -0.5131212, 
-0.029716346, 0.24096273, -0.17111802, -0.4607635, -0.076740034, -0.10713227, -0.07516654, 0.079728715, -0.08745742, 0.089321986, 0.39738455, -0.44297728, -0.012024153, -0.023569373, -0.12236336, 0.07862015, -0.69850975, -0.30254507, -0.35184002, -0.2914813, -0.060473654, 0.47849074, 0.61391497, -0.02215605, -0.3462149, 0.093756795, -0.13277368, 0.14023837, 0.17452835, -0.6496661, -0.044429682, -0.5506496, 
-0.04334611, 0.10387667, -1.1364803, -0.1845395, -0.17919011, 0.30327547, -0.098305084, 0.08813652, 0.01093652, -0.06005827, 0.09170418, 0.004326831, -0.54434216, -0.029214969, -0.15460616, 0.15328884, 0.22834793, -0.17239957, 0.6913517, 0.12552364, -0.03445873, 0.026293332, -0.22180507, 0.09356633, -0.5327476, -0.45028988, 0.15582839, 0.09993709, 0.108434826, 0.3883435, 0.07536123, -0.4914936, 
0.13622592, 0.24988642, -0.08272233, 0.3138787, -0.16684848, -0.19999644, 0.2740151, 0.09222845, 0.21323611, 0.24610262, 0.73981214, -0.18029699, -0.0052835853, -0.12127662, -0.3434417, 0.5616783, 0.16066483, 0.021678252, -0.011481485, 0.2242074, 0.03845941, -0.3052797, 0.3506499, 0.222626, 0.45454472, -0.1457329, 0.12277938, -0.07406614, 0.35970238, -0.2580726, -0.8640661, -0.3058147, 
-0.058984254, -0.1565247, 0.70626104, 0.39859182, -0.88811445, 0.24660118, 0.21367319, -0.052478194, -0.1912782, 0.50093293, -1.0856558, 0.67296904, -0.25428978, -0.07583963, 0.2750653, -0.014045375, -0.29996464, -0.11093694, -0.11808238, 0.14282675, 0.049730536, 0.091840066, 0.042806312, 0.029035838, 0.1994599, -0.4886582, -0.2723124, -0.25098836, -0.15946159, -0.0860329, 0.27023432, -0.08916334, 
-0.06756262, 0.18364385, -0.21371593, -0.09565698, -0.46021008, -0.42109337, -0.044690553, -0.91842264, -0.031845517, 0.3009798, -0.3737334, -0.31094095, 0.17056344, 0.049609005, -0.26549137, -0.06578649, 0.030584702, -0.45394814, -0.3498707, 0.05263836, -0.16232648, -0.0027190973, -0.31920403, -0.8762227, -0.55233556, -0.72645444, 0.21396235, 0.14937331, -0.34826082, -0.18578301, 0.5368259, -0.7813644, 
0.09295531, -0.51704574, -0.36802134, 0.030882547, 0.3653967, 0.14720704, -0.079270326, -0.12730388, 0.4981305, 0.40234828, 0.05525573, 0.22427705, 0.122578315, 0.30691886, 0.0064367354, 0.0428175, 0.24677244, -0.69647574, 0.09523964, 0.10589419, 0.10031592, -0.14972973, -0.20462549, 0.07732863, -0.37047434, -0.4865593, -0.02245331, 0.30926368, -0.040208057, -0.30476072, -0.31418967, 0.15034793, 
0.09309208, -0.012436692, 0.06649734, 0.120500736, 0.4198071, -0.13301595, 0.22148557, 0.032462742, 0.3023099, 0.04090811, 0.07011855, 0.31640288, 0.23469883, -0.6335687, 0.055652544, -0.04079878, -0.13230252, 0.097961046, -0.6673073, -0.13471223, 0.038450774, 0.023941424, -0.041524366, -0.42445028, 0.035602704, 0.14524695, 0.26975885, 0.14086182, -0.20961316, -0.05153356, 0.25740874, -0.19113632, 
-0.16221566, 0.1783108, 0.5321458, 0.05337041, -0.002133866, -0.4625906, 0.057247728, -0.42194885, -0.17510296, -0.1997282, 0.31918484, 0.2806667, -0.15448706, -0.17454715, -0.36549065, 0.21023649, -0.10588775, 0.06400007, -0.2668463, 0.17989461, -0.2120936, 0.16501093, 0.18245554, -0.3820888, -0.24379382, -0.2925829, -0.13465649, 0.03643001, 0.33868146, -0.117058925, -0.39721185, 0.06401267, 
0.09238979, -0.13235193, 0.46985388, -0.07306805, 0.3039679, 0.23100026, 0.041743997, -0.09278343, 0.20178422, -0.29849818, -0.26305872, -0.21546733, 0.08462792, -0.15444985, 0.045293365, -0.19145699, -0.22037335, 0.38048762, 0.1632944, 0.16731934, -0.2470552, 0.2650188, -0.06957961, -0.07572008, -0.62901807, 0.03353619, 0.0937164, -0.10562453, -0.3903795, 0.24701378, -0.72958773, -0.20908661, 
0.2840081, -0.2210691, -0.19518022, 0.15552643, -1.0550873, -0.10754525, 0.31083098, -0.24184507, -0.051822774, 0.09236915, 0.22517866, 0.05154825, -0.2118629, -0.18494067, -0.05235972, 0.09552219, 0.3310137, -0.1013736, 0.093073726, 0.08137872, 0.3411977, -0.44795072, 0.34854695, 0.11219397, 0.28797185, 0.27234775, -0.07431287, -0.59211856, -0.08718508, -0.1268195, 0.19567123, -0.4466808, 
0.115242325, 0.328549, -0.5519708, 0.057380747, 0.17100112, 0.4645901, -0.1080229, 0.064853586, -0.78468186, -0.55652785, 0.21236962, -0.13809606, -0.454413, -0.35144272, 0.13385898, 0.0032564406, 0.21271138, -0.32945564, -0.31413388, 0.27566788, 0.3012322, -0.12789845, -0.26971474, 0.09094172, -0.54282874, -0.23543441, -0.22847669, 0.124035075, -0.023819175, 0.2786227, 0.40981233, -0.34770352, 
0.033223055, 0.038776487, -0.10718683, 0.15340765, -0.03711667, 0.097982414, -0.18030003, -0.26954597, -0.44836238, 0.27672985, 0.17459248, 0.09277179, -0.44286677, 0.17540024, -0.2594976, 0.06719564, -0.29310256, -0.27682516, 0.36443523, -0.113930665, 0.25355488, 0.057786603, -0.39107144, -0.06482883, -0.49226856, -0.38201052, 0.5137876, 0.15352619, 0.022337776, 0.040618185, 0.17566332, -0.16271384, 
0.042174365, 0.07792845, 0.15511893, -0.40393007, -0.7982798, -0.239869, 0.1944154, -0.23800611, 0.4207767, 0.30956966, -0.31174463, -0.25641054, -0.07964716, 0.060852844, -0.06124069, 0.24163099, -0.27121314, 0.04339687, 0.3916224, -0.03676381, 0.30471018, 0.17907372, 0.18613446, 0.19318154, 0.8213345, -0.18914145, -0.0021293715, 0.016453434, -0.27826828, -0.3103931, -0.242778, -0.4055394, 
-0.019208731, 0.32417488, 0.4284174, -0.10222085, -0.18444899, 0.06305394, 0.1654272, -0.23754361, -0.6890822, -0.4514518, -0.13531409, -0.19525081, 0.036001217, 0.18117185, 0.09452092, -0.09184067, 0.33049706, -0.09725247, 0.48440504, -0.50487363, -0.30239087, -0.82451427, 0.0052044, -0.010091394, 0.04740578, -0.24633303, -0.84124327, -0.119964235, -0.20876823, -0.16255638, 0.37402782, 0.1760547, 
0.056006864, -0.18883395, 0.3411162, -0.41020048, 0.31105885, -0.12592945, 0.09112633, 0.048959114, 0.2492453, 0.095417105, -0.08850741, -0.09665253, -0.002378365, 0.033483382, 0.08652129, -0.28419074, -0.28848705, 0.11714327, -0.0002846129, 0.124093935, 0.25717202, 0.010436425, -0.20854665, -0.009278543, 0.33699995, 0.1991065, -0.30081818, 0.021266732, 0.30123442, -0.6359369, 0.17206357, 0.05970214, 
0.05375711, -0.17518443, 0.2801637, -0.31238347, -0.25766653, 0.110198565, -0.0008257359, 0.19883043, -0.44509202, -0.74968857, 0.65116286, -0.12290512, 0.065543674, -0.06864495, -0.045277007, -0.08280983, -0.21524209, 0.29089817, 0.061889462, 0.1670657, -0.23742604, 0.29691494, 0.020074202, -0.15651879, -0.036733344, -0.20913395, 0.0040183417, 0.0153442705, -0.48123077, 0.06638456, -0.05635389, -0.11503539, 
-0.17658757, -0.043401286, -0.30155525, 0.09137913, -0.08891654, 0.41366842, 0.2910476, 0.14720768, -0.44672188, -0.014115833, 0.040230922, -0.0668204, -0.9078776, -0.07527177, -0.3373903, -0.14476655, -0.38898453, 0.12167881, -0.4331078, 0.15705612, -0.07015299, 0.32385314, 0.114613175, -0.3175528, -0.33616883, 0.24667685, 0.11353114, -0.0063979514, 0.24661943, 0.16668682, 0.052115116, 0.15273352, 
0.037382588, 0.27295578, -0.4965695, -0.34222463, 0.19842166, 0.09228172, -0.54188275, 0.10497172, -0.2593973, 0.13187504, 0.19723864, 0.025706429, -0.52384067, -0.0017827505, -0.2628876, -0.02949931, -0.67706496, 0.049221415, -0.59610134, 0.26285157, 0.110976934, -0.18557423, 0.21640095, -0.1625519, -0.15005864, -0.00052715675, -0.18189348, -0.110181995, 0.30398595, 0.035263848, -0.47141933, -0.21766849, 
