#include <MagnetometetNetworkInt8.h>


const int8_t MagnetometetNetworkInt8_layer_1_weights[] = {
-88, -56, 6, -30, -111, 50, -103, 36, -37, 81, 97, 83, 49, -18, 22, -47, 59, 77, -16, 48, 83, 66, 36, 91, 102, 106, -40, -16, 20, 13, 91, -9, -27, 82, -47, 106, 95, -84, -9, -32, 105, 76, -15, 50, 105, 80, -38, -18, -72, -23, -20, -84, 17, -73, -57, 52, 23, 25, 69, 111, 12, -96, 3, 64, 56, -42, 34, 33, -14, -48, 38, -12, 111, -16, -28, -18, -29, -2, 126, 127, 67, -23, 88, 127, 66, -20, 110, 45, 126, 39, -11, 100, 113, -29, 49, 56, 31, 82, 127, 75, 5, 31, 26, -27, 120, -9, 24, 88, 65, 60, 95, -39, -28, -1, 17, -19, 50, 35, 110, -51, 13, -69, -92, -20, -41, 17, 33, 83, 99, 53, -48, -47, 37, 74, 110, 50, 74, 41, 104, 108, -2, 65, -14, 28, 89, 103, 91, 47, -26, 35, 82, -42, 59, 15, 115, 20, 115, -4, 23, 22, -56, 6, -12, -45, 97, 71, 72, -11, -55, 47, -23, 70, 8, 8, 39, 70, -34, -27, 39, -21, -2, -120, 15, -98, 45, -31, -123, -116, 10, -127, 20, -127, 19, -77, -34, 12, 19, 0, -95, -83, -102, -100, -72, -127, -76, -64, -50, 20, 29, 27, 10, 17, 60, 86, -30, -56, 42, -12, 30, -46, 93, 67, -56, 15, 32, 82, 50, -36, 8, 108, 110, 0, -38, 5, -43, 29, 103, -5, -50, 51, 4, -58, 113, 25, -11, -2, -26, -29, -96, -20, 79, 80, -8, -8, -74, 37, 24, -75, 42, -53, -86, -114, 5, 37, 22, -40, 25, -69, -67, -56, 14, -121, -68, -21, -29, -70, 15, -127, -127, -21, 1, -87, -127, -127, -36, -50, -52, -86, -36, -127, 2, 35, 7, -60, -87, -106, -111, -83, 16, -99, 71, 87, 5, 1, -60, 33, 8, -48, 35, 23, 69, 120, 79, 127, 4, 104, -48, 127, -50, -35, -43, 92, -33, 38, -32, -84, 61, 61, 0, 23, -53, -67, 48, 64, -116, -63, -32, 61, -9, -40, -90, 44, -36, -33, -11, 2, -103, 74, -54, -118, 38, 35, 21, -28, 23, -77, -17, 3, -107, 65, -33, -114, -69, 23, -79, -81, -65, 31, 31, 34, 38, -39, -9, -30, 39, 20, -30, -95, 40, 22, 3, 47, 48, 49, 17, -18, 6, 2, 8, -117, -48, -111, -14, -109, -33, -20, 23, -40, 9, 33, 52, -20, -58, 43, 80, 6, 35, 48, 63, -60, -95, 47, -53, -106, 47, 56, -94, -83, 59, 62, -37, -67, 11, -66, 55, -72, 46, 79, -5, -95, -34, -82, -82, 12, 21, -18, 46, -44, 28, 49, -6, 36, -33, -118, -64, -20, -49, 89, 7, -85, -66, -89, 13, 9, -34, 40, -70, -71, -84, -107, -10, 59, -72, -87, 35, -51, -30, -73, -75, 42, 14, -67, 63, -56, -2, -74, -1, -64, 11, 1, -37, 13, -48, -94, 3, -56, 18, 31, 75, 42, 127, -22, 56, -68, -5, 81, 28, 127, 87, 86, -25, 37, 0, 127, 95, 75, 127, 61, 73, 110, 107, 127, 23, 4, 66, 48, 7, -48, 26, -99, -42, -20, 46, -57, 89, 15, 42, -86, 66, 39, 47, -10, 35, 50, -37, 59, -76, 21, -58, -120, -34, 8, -89, 48, -81, 5, -44, -117, -5, 23, 58, -98, 78, 24, -15, 16, 73, -44, -28, 32, 9, 38, 46, -85, -77, -8, -119, 74, 82, -47, 50, 105, -20, -27, -99, 21, 40, -15, 0, -70, -50, 127, 29, 86, 25, 3, -76, 3, 94, -31, 41, 41, 56, 100, 104, 110, 14, 55, 100, -38, 37, 11, 124, 105, 79, 10, 127, 127, -24, 76, 0, 75, 79, 109, 100, 111, 44, -45, 78, 41, 95, 127, 127, -5, 67, 123, 3, -35, 116, 41, 127, 64, 35, 127, 83, 50, 127, 44, 92, -9, 98, 77, 101, 50, 61, 127, -16, 15, 35, 127, 76, 22, 74, -16, 101, 11, 21, 105, 86, 103, 19, 75, 127, 127, 118, 41, 105, 19, 58, 18, -30, 63, 40, -1, 47, -39, -10, 50, -68, 57, -58, 44, -67, 75, -3, -37, -94, 38, -53, -93, -93, -127, -12, 60, -17, -71, 16, -106, -54, 6, -11, 47, -72, -32, -60, -18, -70, -14, -34, 18, -30, -83, 58, -1, 48, -38, 44, 98, 103, 34, 17, 89, 44, -81, 71, -5, 35, -25, -46, -31, -64, -50, 36, -5, 56, 57, 26, 31, -88, -80, -78, 78, 47, -24, -32, -42, -12, -114, -78, 58, 61, -53, -5, -49, -48, -2, 49, -23, -93, 51, -68, -48, -53, -52, -15, 22, 41, 74, 103, 64, -61, 33, 12, -8, 35, -71, -34, 62, -92, -61, -92, 71, -75, -69, 7, 7, -32, 35, 56, 117, -26, 59, -12, 93, -13, 44, 92, 80, -46, -29, -13, 17, 71, 127, 122, 127, 115, 127, 34, 72, 32, 127, 127, 127, 106, 57, 77, 88, 127, 17, 127, 105, 51, 127, 127, -3, 92, 16, 22, -92, -41, -102, -105, 17, -127, -18, 10, -102, -55, -127, -85, -46, -127, -110, -61, -127, -127, -127, -45, -127, -127, -127, -121, -45, -127, -64, -71, -127, -88, -111, -127, -107, -127, -3, -116, 11, -13, -59, -127, -127, -88, -100, -127, -58, -30, -116, -127, -103, -84, -127, -106, -36, -122, 9, -33, 18, -83, -91, -40, -75, -25, -32, -13, -122, -18, -62, -95, -70, -26, -4, -61, -127, 12, -99, -106, -127, 12, 25, 30, -95, -41, -90, -66, -117, 45, -48, 46, 51, -36, -34, 30, -7, -16, 10, 19, -18, -121, 78, 54, 24, 46, 78, -42, 57, -17, 42, -10, 41, -69, -100, -19, -41, 6, 33, -51, -67, -27, 68, -20, -31, -19, -63, -38, 42, 0, -31, -21, 48, -57, -107, -21, 7, 53, 86, -28, -9, 11, 7, 92, -67, -63, 56, -76, 21, -103, -3, -28, 33, -95, 13, -64, 109, 19, -2, 110, 71, -31, 119, -10, 122, 18, 92, -46, 97, 57, -51, -44, 127, -15, 19, 107, 90, 103, 40, 97, 54, -38, -25, 26, 71, -30, 72, -52, 63, 66, 108, 73, 52, -41, -35, 61, -10, 24, 9, 41, 98, 39, -68, -91, -68, -67, 89, 2, 84, 58, -82, 25, -52, 20, -24, -33, 80, 32, 1, 59, -52, -69, 51, -10, 73, 63, -79, -25, -75, -12, -61, 26, 120, -29, -26, 91, -26, 40, 98, -26, 90, -49, 67, 37, -23, 7, -42, 19, 32, 24, -33, -92, -21, -56, -3, 16, -26, 56, 21, -78, -34, 42, 3, -18, -31, -75, 51, -25, 22, 68, 23, 15, -20, 102, 71, -37, 41, -59, 46, 4, -56, -81, 67, 39, -44, 81, 86, 63, -6, 13, -40, 92, 52, 32, 86, -16, -25, -57, -4, 57, 56, 47, -74, 42, -62, 53, -49, -6, -39, -22, -93, 59, 84, -20, 17, 42, 27, -59, -18, 15, -42, 15, -98, 37, -44, 77, -55, 2, 67, 4, 21, 28, 32, -28, 41, -82, 77, 9, 70, -68, -85, -17, 1, -81, -70, -78, -1, 23, -115, -23, -13, -32, 30, -80, 33, -40, -43, -38, 8, -65, -82, 17, 6, -27, -22, -19, -9, 12, -62, -35, 32, -10, -50, -108, 47, 61, 69, 78, 51, -90, -70, -100, 11, -74, 82, 56, 67, 62, 80, 91, 80, 45, 20, 71, 62, 69, -6, -30, 49, -36, 28, 58, 43, 47, 46, -61, -100, 65, 72, -103, -58, -83, 82, 33, -46, -66, 68, 67, 75, -9, 54, 39, 58, -31, 7, -49, 82, -22, -20, -39, -51, -75, 88, 60, 83, -23, 67, 42, -25, 86, -84, -55, -2, -14, -17, 25, 42, -59, -14, -59, 20, 29, 95, 7, 6, -77, -13, 76, -20, 34, -13, -27, -34, 36, 75, -37, -27, 13, -79, 88, 45, 71, -4, -45, 69, 109, -52, -77, -3, 75, 98, 102, 54, 33, -32, 20, 20, -28, -71, -66, 31, -5, -75, -14, 0, -43, 14, 45, -100, -35, -127, -127, -99, -127, -114, -37, -127, -127, -127, -88, -127, -127, -127, -127, -127, -127, -127, -94, -127, -127, -127, -127, -127, -127, -127, -127, -127, -127, -127, -97, -103, -118, -127, -118, -127, -26, -127, -91, -88, -5, -88, 10, -91, 5, 31, -41, 22, 37, -27, 57, -90, 72, 0, -41, -94, -56, -28, -60, -14, -51, -60, -6, 23, -61, 21, 89, 89, 93, -7, 55, -22, 69, 73, -31, 22, 14, 74, -10, 24, 20, 31, 100, 19, -56, 23, 127, -30, 33, 37, 15, 49, 41, 3, 127, 109, -15, 1, 24, 17, -19, 12, 127, 61, 127, 30, 28, 119, 16, 105, 127, 35, -16, 127, 127, 115, -5, 79, 36, 127, 127, 127, 127, 61, 38, 50, 127, -1, 58, -1, 79, 77, 127, -4, 0, 23, 21, 127, 96, 50, -11, -3, 83, -20, 2, 80, 33, -35, 19, -7, 29, 76, 5, -46, 127, 16, 93, 0, 108, -6, -4, 50, 12, -8, 79, 127, 40, 45, 12, 127, -28, 127, 52, 127, 81, 114, 91, 11, 109, 127, 49, 62, 90, 5, 104, -40, 41, 92, 50, -7, 127, 93, 112, 108, -24, 58, 79, 15, 14, 72, 85, -61, -26, 107, -12, 16, 121, 94, -55, 60, -22, -32, 9, -22, -48, 84, 11, 18, 46, -67, -64, -73, -14, -5, -15, 32, 75, -84, -42, -75, 77, 64, 14, -63, 26, -2, -94, -90, 83, 22, 13, -87, -53, 40, -74, -41, -77, -55, -60, -20, 5, -27, -59, 47, 70, 60, 1, 4, -75, -52, 98, 77, 70, -2, 84, 32, 87, 62, 38, 6, -89, 58, 48, 77, -35, -93, -20, -35, -14, 28, 0, 40, -14, 79, -32, -77, 21, 3, -86, 39, -7, -60, -80, 40, 55, 87, 71, -77, 84, 5, 32, 25, 92, 13, 8, 10, 96, -91, 27, 27, -13, -79, 77, -48, -91, -41, 95, 73, 10, 47, 29, -41, -16, -55, 82, 0, 15, -34, -72, -52, 62, -54, 34, 45, -40, 69, -44, 6, 67, -63, -14, 81, 62, 10, 77, -32, -2, -90, -10, 4, 18, -37, 76, -85, -39, 53, -43, -9, -53, -8, -62, 88, 94, 89, 48, -67, -94, 0, -1, 73, -19, 86, -3, 13, -32, 41, 19, -64, 50, -83, 71, 83, 89, 85, 69, -57, 9, 44, 59, 27, -26, 41, 20, 96, 14, -38, 65, 25, 13, -8, -6, -87, 64, 1, -75, -1, 69, 96, 89, -10, 40, 39, 27, 6, 51, 62, -18, -77, -28, -31, 12, 6, -27, 24, -19, -76, 46, -36, 62, 84, -45, -54, -70, -12, 15, 27, 33, 54, -42, 87, 65, 72, -16, 65, 90, 28, -59, -7, -22, 44, 75, -52, -55, -66, -89, 11, -71, -1, 32, -72, -80, -39, 82, -59, 62, 0, -71, -5, 24, -19, -43, 9, -26, -31, 56, 95, 0, -8, -22, 32, -82, 76, 69, -46, -49, 49, 37, 22, 57, 64, -81, 2, -80, 64, -85, 57, -27, 56, 5, -25, 7, -85, -3, -12, 2, 1, 49, 78, 32, 91, -80, -52, -1, 25, 21, -61, 25, 94, 94, 55, 14, -5, -80, 26, 78, 0, 70, 79, -5, 83, -88, 1, 23, -48, 2, 26, -91, 22, 43, -40, 90, 97, 14, -85, 84, -62, 37, -82, 6, -81, -41, 31, -20, -29, 6, -51, -8, -51, 79, 54, -12, 16, 63, -73, -14, 70, 99, 6, 82, -30, -77, -87, 36, -31, 69, -72, 61, 49, -16, -44, -55, -80, 36, 11, -66, 84, -83, 43, 75, 36, -15, 49, 8, 11, -90, 12, -20, 88, -80, 24, -96, 62, -94, 70, 19, -39, 87, -13, -79, 58, -69, -39, 13, -16, -67, 0, 27, 76, -49, -50, -31, 57, -84, 13, 39, 35, -86, -85, -61, -9, 29, -9, -31, 14, -66, -81, -95, 96, 86, 94, -84, -67, 5, -33, 32, -87, -82, 47, 20, 94, 57, 55, 52, 48, 35, -82, -41, -72, -77, -80, 49, 48, -77, 9, -40, -74, 13, 54, 29, -17, -33, -75, 17, 75, -83, 80, -56, -18, -61, 90, -54, 23, 65, 37, 55, -14, 34, 87, 81, 98, 93, -76, 5, 0, -19, -65, -1, -21, -92, -77, 45, 91, 71, -89, 14, -24, -42, -6, -73, -20, -2, 33, 49, 59, 13, 85, 61, -92, 32, 17, -94, -67, 0, -48, 
-93, -25, 78, 24, 74, 39, -48, -22, 67, 50, 35, 41, 42, -84, -50, -52, 59, 53, -32, -13, 19, -52, -42, -24, -80, -25, 62, 58, -1, -13, 8, 11, -81, -68, 85, 94, -8, 51, 42, -60, 69, -49, -65, 122, 26, -57, -63, 26, 24, 27, 91, 10, 57, -48, -71, 38, 15, -12, -23, -33, 18, 19, -74, 37, 92, -5, -24, 95, 10, 19, -38, 23, -63, -14, 117, -15, 11, -39, 72, 76, 14, 19, 18, 31, 89, -73, 26, 27, -7, -26, 17, 91, 48, 89, 37, 92, 57, 4, 13, 63, -42, -50, 49, -18, -13, 34, 35, 0, 45, 86, -11, -12, -38, -47, 80, 14, -18, -35, -60, -68, 5, -64, -12, -36, 9, 61, -13, 91, 95, -87, 28, -86, -64, 75, 27, 7, 91, 37, -39, -32, -74, -35, -85, -42, 46, -50, -5, -19, 93, -40, -51, 95, -43, -29, 80, 31, -50, -105, 12, -14, 27, -8, 8, -25, -21, -60, 9, -8, -19, -10, 36, -84, -62, 38, 37, -77, -56, -78, 1, -101, -37, -54, -31, -92, -43, -77, 66, -49, 11, 4, -36, -37, -16, -39, 38, 0, -5, -62, -87, -87, 84, 28, -56, -39, 70, 42, 19, 52, -11, -63, -77, 48, 63, -62, 89, 67, -5, -28, 71, -73, -8, 22, -38, -77, -64, -87, -38, 49, 28, -24, 29, 77, 72, 22, -2, 61, 24, -24, -83, -57, 47, -86, -68, 86, -64, 72, -78, -78, -17, 28, -27, 108, -44, -75, 45, 88, -67, -58, -64, 19, -55, 39, -85, -36, 76, 1, 2, 16, -79, 21, -78, 59, 49, 82, -67, 3, 55, 47, 76, -59, 93, 4, 36, 56, 86, -45, 53, 49, 75, -8, 71, -68, 44, 25, -46, -84, 0, -67, 2, 68, -38, 44, -12, -117, 50, -55, -87, -97, 58, -101, -54, 64, 50, 82, 67, -65, -71, 73, 86, -73, -42, 51, -39, -38, 32, 13, 92, 93, -20, 39, -60, 76, 98, 99, 104, -62, 95, 15, 101, -74, -19, 1, 19, -86, -51, 43, 25, -52, -1, 40, 43, 21, 70, -10, -53, 72, 47, 7, -1, 3, 85, 71, 28, -7, 127, 103, 39, 7, 80, -37, 114, -30, 65, 32, 34, 77, 127, 98, 107, 97, -11, 84, -19, 28, 61, 60, -49, 78, 72, 4, -56, -35, 48, 89, 46, 55, -61, 65, 29, 0, -73, -61, -53, 78, 91, 127, 47, -18, 74, 67, -18, 48, -53, -41, 86, 11, 66, 1, 44, -118, 27, -45, -18, -105, -115, -101, 68, -17, 13, -76, -6, -27, -9, -57, -72, -20, 2, -72, -89, 84, -11, -80, -12, -56, 41, -19, 69, 13, -77, -23, -63, -22, 30, -51, -30, -47, -81, -4, -104, 43, 70, -31, -85, 29, 77, 86, 13, -86, -105, 20, 43, -56, 50, -22, 29, -88, -29, 0, 23, -53, 22, 13, 34, 73, 53, -21, -56, 53, -127, 19, -65, -68, -31, 52, -52, -127, 19, -74, -66, 61, -60, 23, -1, -97, -16, 19, -89, -126, -59, 33, 3, -127, -35, 9, 47, 63, -17, -75, 9, 12, 84, -13, 88, 70, 74, 35, -51, 44, -85, -90, 81, -40, -74, 11, -52, 25, 63, 107, 16, 1, 68, -55, 82, -70, 9, 82, -57, 59, -29, 0, 60, 80, -57, -17, 92, 44, -69, -61, -51, -45, -86, -18, -22, -18, 61, -21, -79, -5, -56, 16, -94, 52, -36, -4, 17, -54, 66, 40, 32, 56, -38, -72, 45, 22, -6, 50, 103, 89, -31, 12, -62, -30, -96, -48, -72, 90, 51, 51, 25, 9, 35, -112, 38, -47, 31, -14, -75, -54, -32, 35, -72, 2, -13, -102, -11, -13, 51, 36, -79, -40, 40, 19, -48, 18, -15, -21, 62, -116, 64, -80, -83, 44, 53, -33, -35, 29, 52, 10, 40, -82, 14, -57, -69, -45, -84, -19, -1, 95, 82, 25, 62, -16, -26, 101, -31, -46, -6, -43, -92, -2, -47, 2, -85, -83, -12, -57, -59, -6, -65, -42, -52, 14, -94, 69, 74, -34, -90, 12, -73, -52, -15, -2, -41, -96, 36, -36, 40, -71, -110, -54, -75, 61, -36, 23, -88, 45, 20, -85, -58, -96, -126, 31, 23, 15, -110, 1, -92, -94, -3, 15, -34, -73, -10, 38, -5, 43, 31, -16, -89, -51, 47, -4, -75, -45, -45, 34, 13, 10, -36, -1, -25, -36, 100, 5, -34, -87, 87, -66, 1, 2, 23, -97, -26, -65, 35, 49, -3, -44, 2, 60, -86, -109, -28, -70, -81, 12, -102, -110, 0, -51, 26, 17, 11, 22, 70, -48, -115, -87, -82, -110, -57, -55, -21, -82, -36, -24, 17, 25, 1, 44, 34, 65, -68, 17, -30, 55, -11, -57, -1, 21, 65, 122, 91, 59, -24, 75, 64, -27, 66, 127, -26, 98, 40, -7, 55, 71, -10, 62, -45, 93, 101, 91, 79, -52, 77, -21, -37, -92, -50, -95, 69, -46, 36, 0, 12, -20, 14, -16, -70, -49, 45, 77, -61, -40, 48, 13, -127, -49, -85, 52, 45, 50, 110, -90, 60, 75, -17, 117, 127, 34, 62, -13, 114, 127, 19, 127, 47, 56, 19, 20, 118, 127, 19, 65, 127, 98, 82, -13, 104, 72, 80, 27, 34, 81, -21, 109, 69, 50, 3, -37, 76, -69, 69, 28, 80, 14, 72, -68, 14, -6, 84, 25, -85, -51, 81, 74, -12, 33, 52, 98, -33, 35, 127, 33, 97, 94, 43, 127, -9, 127, 115, 127, 1, 45, 55, 11, -9, 60, 17, 51, 45, -47, 44, 27, -58, -65, 76, 1, -9, -110, -22, -50, -84, -39, -10, -78, 49, -69, -2, -23, -30, -29, -32, -44, -84, -81, 36, -92, -41, -79, -37, 3, -93, 37, -63, -20, -90, -49, 0, 25, -23, 61, 40, -60, -121, -112, -82, 0, -78, -15, -20, 3, -15, 51, 47, 46, -98, 86, 24, 3, -86, -32, 24, -119, -11, 63, -26, -8, 35, 8, -23, 0, 8, 109, -36, 16, 80, 90, -40, 30, -51, -12, -45, 84, 97, 53, 101, 77, 36, 23, -51, -8, -62, -68, 67, 71, -5, 50, -26, -37, 14, 65, -78, 61, 17, 81, -74, 71, -27, -63, 28, 55, -66, 2, 72, 19, 3, -58, -68, -101, -42, -87, 26, -113, -35, -12, -91, -42, 33, -83, -14, 41, -4, 41, 73, -23, 19, -82, -52, -75, 33, 25, 5, -75, -80, -59, -35, 52, 36, -30, 36, 47, -117, 0, -92, -14, -89, -34, -89, 36, -18, -6, -18, 39, -77, -79, -101, -29, 18, -39, -86, -60, -77, -119, -54, -46, -127, 18, 5, -8, -35, -111, 11, -69, -29, 53, -36, -48, 16, -72, -76, -27, 21, 43, 57, 40, -8, -34, -33, 45, 22, 77, 65, -56, 30, 32, 41, -57, 9, 56, 51, 38, -44, 84, 77, 96, 90, -64, -97, 88, 42, 14, 9, 29, -39, 21, 59, 36, 77, -51, -100, 26, 52, -55, 51, 85, -68, 21, 19, -21, -26, -68, -29, -31, -41, 11, -19, -35, -55, -76, 50, 48, -73, -19, -76, 57, 84, -92, 44, -38, 51, -79, -54, 52, 63, 54, -117, -63, -30, 28, -106, 16, -67, 41, -78, -60, -94, -14, -13, 76, -90, 17, 94, -24, 19, 11, -102, 50, -37, -56, -39, 64, -7, 39, -76, -13, -112, 48, 77, 57, -69, -9, -20, -33, -105, 47, 4, 20, 73, -11, -40, -18, -26, -63, 0, -119, 49, -55, -115, -21, -54, -88, -111, -68, -85, -6, 44, -8, 38, 33, -33, -116, -20, -97, 47, -1, 47, 68, 60, -8, -10, -84, -70, 72, -54, 101, 25, 67, -59, 66, 82, 46, -30, 36, 7, 28, 100, 21, 109, 99, 58, 106, 127, 56, 95, 119, 127, 8, 109, 5, -37, 127, -8, 113, 80, 81, 10, 25, -67, 31, 9, -44, -54, 70, 60, -82, -15, -10, 84, 37, 8, 55, 17, -19, 33, 10, -16, 1, -18, 4, 56, -100, -23, 62, -17, -89, 46, 76, 78, 75, -16, -40, 47, -98, -55, -2, -3, -62, 15, -62, -43, 17, -6, 12, -8, 77, 91, 12, 78, 126, 94, 33, 58, 78, 120, 78, 127, 66, 79, 5, 127, 67, 51, -18, 127, 21, 127, 59, 127, -7, 100, 127, 125, 50, -3, -53, -8, 117, 82, 11, 6, 94, 105, 59, 63, 105, 114, 35, -80, -22, 20, -5, -65, -95, 71, 58, -21, 62, -19, 55, -55, -87, 39, 28, 64, 36, 37, 98, 38, 66, 57, -31, 103, 81, 46, 0, 59, 100, 63, 22, 38, -82, 52, -9, -15, 9, -39, 21, -29, 3, -11, -97, 9, 48, -39, -36, -110, -66, -94, -23, 53, -96, -10, 40, -63, -103, -9, -13, -6, -92, -57, 67, -33, 0, 39, -34, 7, 20, 35, 32, 28, 44, -41, 40, 15, -12, -56, -95, 15, -30, -16, 18, -43, 43, 18, 72, 10, 62, 3, 97, -42, 1, -60, 97, 42, 3, 88, -35, 30, -75, 44, 32, -60, 2, 81, 5, -69, 97, -61, 44, 24, -31, -26, -69, 65, 37, -29, -61, -111, 5, 19, 18, -94, -100, 57, -109, -61, -24, -72, -5, -95, 39, -27, -15, 25, 33, -127, -91, -4, 6, -71, -94, 33, -73, -53, -71, 49, 30, 76, -69, -12, 68, -16, -8, 96, -66, -64, 20, -30, 5, 77, -11, 19, 76, -46, 65, -6, 45, -79, 64, 67, 58, 83, -78, -69, -44, -79, 89, 23, 52, -97, -86, 7, -5, -37, -55, -16, -10, -57, 48, -43, 63, 60, -74, -30, 26, 78, -74, -87, 11, -94, 10, 0, 54, 42, 45, -98, 56, -68, 2, -42, -60, 95, -43, -65, 85, 30, -20, -17, 95, -37, -15, -5, 82, -26, -34, 34, -38, -7, -83, -24, -42, 49, -74, 47, -39, 59, -51, 46, 61, -49, 37, -40, -89, 85, 53, 65, 91, -6, -16, 81, -90, 39, 65, -83, -85, 80, -48, -66, 74, 58, 47, 70, -82, 67, -44, 66, 86, 33, -53, -11, -88, -39, 20, -22, 59, 22, 8, -46, 33, 21, -22, -21, 92, 89, -52, -65, 21, 6, 87, 3, -94, 54, 35, 72, -59, 51, -58, 95, 26, -52, -23, -54, -77, -46, 41, 56, 81, 84, 23, 71, 16, 37, 73, -61, 12, -61, 55, 86, -92, 94, 44, -76, -75, -13, -19, -84, 92, 79, 42, -22, -68, 23, 0, 26, -26, 17, -28, -89, 91, 19, -39, 93, 8, 28, -59, 33, -14, -93, -71, -66, 36, -93, -57, 18, 47, 17, -55, -35, -68, 62, -25, 74, -31, -34, -60, 33, -40, 70, -12, 88, -6, -75, 56, 63, -47, 17, 24, 70, 1, 7, -97, 73, 75, -76, 38, -95, 52, -96, -18, 10, -95, -16, -56, 15, 71, 38, -26, -23, 82, -7, -64, 60, -26, 6, 47, 86, -69, -18, 65, -16, 20, 47, 57, 26, 76, 34, -30, 41, 93, -59, 12, -24, 64, 39, 28, -62, -25, 60, 42, 75, 81, -62, 38, -9, 30, -92, 74, -26, -53, -64, -57, -26, -19, -16, 18, 57, 54, -23, 50, 24, 3, -29, 6, -91, 75, -98, 23, -58, -45, 60, -29, 42, -93, -21, 42, 88, 21, -7, 58, 95, 46, -73, -64, -97, -53, -26, -21, -71, 42, -9, -20, -11, -20, 6, 18, -77, 44, 69, -42, -84, 56, 29, -44, 0, -41, 56, -7, 64, 25, -6, -5, -47, 42, 45, 54, 40, 68, 29, -44, -44, -18, 49, 65, -21, 7, -64, -36, -82, -71, -89, 49, 81, -80, 30, 1, -29, 84, 29, -2, -13, -72, 7, -93, -45, 67, 73, -56, 44, 1, 36, -20, -82, 71, 24, 72, 34, -28, 18, -74, -73, 31, 26, -92, -9, -64, -62, -98, 86, -55, -90, -20, -45, 26, 4, 6, 78, -29, -97, 45, 67, -25, -14, -79, 48, 21, -8, 28, -24, 71, 84, 94, -5, 77, -53, 63, -29, 60, 22, -53, 74, 50, -70, -56, 11, -49, -28, 2, -26, 67, -58, 73, 14, 6, -56, -91, -81, -44, 0, -7, 45, 40, -78, -73, 24, -39, -72, -12, 57, -48, -55, 64, 96, 94, 51, -51, 31, -23, 65, -81, 29, -2, 57, 66, 49, -72, 41, -29, 87, -44, 79, -37, 51, 60, -66, 92, 50, -80, 71, 13, 69, -66, -92, 16, -79, 19, -88, 47, 
88, 0, 25, 18, 0, 68, 19, 54, 121, 109, -3, 26, 108, -29, -26, -17, -2, -56, 37, -47, -27, 16, 98, 109, 57, 115, 2, -41, 70, -2, -64, 27, 67, 40, 83, 10, 92, -13, -43, -52, -35, 67, 23, 60, 2, -69, -23, -70, 40, -46, 67, 92, -104, -59, -14, 58, 3, -74, 62, -55, 36, 5, -5, -67, -21, 49, -5, 68, -24, 28, 64, 18, -115, -74, -7, 25, -121, -99, 33, -2, -61, 9, 0, -45, 78, -41, -105, 54, -92, 84, -34, 92, 23, -81, 71, -64, 36, 81, 84, 48, 32, 52, 35, 19, 116, -39, -40, 77, -64, 52, -34, 99, 1, 115, 57, -11, 101, 79, 127, -45, -43, 103, 1, -10, 40, 1, 121, -46, 34, 112, -9, 88, -3, 1, -36, 60, 103, 42, 107, 14, -14, -4, 66, 77, -10, 127, 95, 16, 122, -9, -34, 74, 119, 127, 23, 127, -20, 87, 121, 41, 103, -2, -8, -36, 73, 78, 97, 86, 92, 111, 96, -55, 78, 76, 35, 74, -28, 4, -69, 63, 30, -88, -93, 52, 0, 83, 6, -24, -22, 36, -26, 13, 72, 43, 55, 41, 26, 39, -64, 33, -79, 108, -80, -69, 89, -26, 60, 39, -42, -44, 79, -97, -100, 64, 11, -19, 33, -87, -37, -44, -127, -57, -127, -127, -127, -127, 0, -44, 12, -22, -127, -95, -23, -127, -127, -81, -127, -127, -127, -121, -127, -33, -25, -22, -88, -127, -127, -112, -53, -118, -127, -66, -127, -34, -127, -97, -49, -113, -3, -120, -127, -14, -127, -75, -17, -127, -76, -127, -127, -55, -74, -46, -127, -22, -84, -49, -127, -82, -103, -127, -90, -127, -81, -127, -127, -39, -127, -87, -91, 19, -7, -127, -33, 12, -22, -127, -127, -76, -110, -127, -127, 28, 22, -67, -67, -127, -86, -127, -88, -86, -110, -2, 34, -50, 6, 51, -28, -30, 52, -102, -49, -64, 82, -58, -29, 18, 28, 104, -30, 48, 69, 44, 68, -44, 61, 0, 112, -81, -21, 29, -33, -49, 88, -14, 43, 36, -21, -26, 115, 115, 46, 37, -12, 40, 84, 127, 66, 86, 9, 95, 76, 125, 69, 18, 53, 127, 127, -11, 69, 100, -44, -30, 120, 61, -68, -71, 24, 2, -36, -51, 81, -34, 88, 48, 73, 71, -26, 21, 100, 10, 34, -54, 127, -10, 23, 51, 73, 117, 98, 117, 127, 127, 108, 88, 108, -21, 115, 127, 81, 0, 103, 71, -51, 58, 127, 127, -1, 75, -27, -10, 103, 127, 122, 26, 127, 76, 105, 42, 39, 123, -25, 74, 103, 27, -55, 127, 97, -2, -74, 55, -70, -65, 67, 70, 98, -58, 58, 45, -47, -21, 109, 30, -63, 54, 41, 4, 100, -22, -35, -41, -54, -84, 74, 99, -14, 45, 92, -52, 14, 94, 114, 113, -38, 1, 33, -3, 40, 66, 3, 82, 42, 11, 127, 45, -18, -1, 31, -61, 72, 65, -53, -71, 7, 12, 35, -81, 49, -42, -98, 56, 45, -28, 57, 31, -125, -65, 47, 36, -105, -96, 55, -13, 0, 19, 66, 126, 60, 53, 31, 74, -1, -13, 43, -62, 82, 56, 94, -50, -51, 37, 53, 100, 76, 43, 59, 117, -21, -49, 70, -31, 85, -17, 23, 13, 42, -12, -96, 69, 23, 52, -51, -16, -104, 95, -18, 43, 68, -18, -48, -32, 79, 54, -21, -19, -56, -83, 10, 67, 13, -23, 63, 61, -15, 39, -74, -17, -58, -35, 24, -3, 92, -40, 74, 102, 101, 46, -16, 100, 1, -52, -9, -9, 16, 48, -43, 115, 83, -13, 9, 100, 37, 50, -25, -26, -38, 58, -46, -18, -44, 77, 89, -6, 16, 3, -37, -54, -41, -59, -6, 12, -11, 73, 16, -5, -18, 10, -60, 7, -43, -49, 45, -68, -50, 24, -48, 38, 40, -12, -75, -32, 14, 39, -104, 47, -90, 83, -3, -69, 0, 29, -10, 34, 16, -43, -106, -89, -111, -87, 77, -127, -21, -56, 10, -85, 42, -127, -99, -127, -89, -127, -54, -100, -58, -127, -119, 26, -84, -94, 57, -40, 66, -119, -77, -9, -94, 25, -61, -86, 39, -17, 104, 74, -8, 67, 36, 84, -36, -19, 62, 58, 127, 91, 127, 6, 94, -5, 18, 78, 127, -13, 63, 12, 127, 127, 64, -42, 67, -2, 65, 18, -39, 60, 102, 73, 98, 97, 104, 50, 21, -35, -47, -50, 48, -37, 6, 46, 4, -5, -120, -119, 12, -90, -24, -81, -17, -73, -97, -46, -11, -71, 17, -127, -85, -84, -1, -58, -59, -16, -59, 29, -71, -82, -7, -53, -53, -66, -71, 46, -95, 67, 82, 56, 120, 18, 63, 77, 65, 47, 99, -31, -22, 127, 53, 72, 29, 115, 124, -25, 125, 63, 108, -5, 68, 32, 82, 124, 106, 80, 109, -6, -25, 28, 85, -43, 82, -44, 92, 27, 113, 62, -33, -6, 26, 102, 31, -57, 40, -58, -33, 43, -60, 6, -16, -67, 56, -6, 45, -85, -10, 93, -44, 75, 55, 118, 40, -44, 8, -81, -4, -72, -38, -82, -71, 86, 79, 87, -38, 93, 77, 0, -18, 43, -60, 37, 25, 53, -36, 19, -21, 124, 14, 61, 64, -27, 102, 52, -40, -57, -47, -15, -56, -79, -76, -25, -46, -19, 58, -62, 93, -38, -37, 23, -79, -94, -13, -100, 40, -27, -75, -78, -57, -86, -70, -60, 7, -46, -72, 3, 26, 38, -92, -87, -39, 80, 55, -34, -6, -75, -41, -88, 70, -5, 41, -49, -60, -3, 76, -75, -65, -48, 0, -95, 66, 7, 60, -26, 73, -67, 80, 97, 48, -44, 6, 21, -13, -94, -73, -31, 69, -38, -101, 24, -48, -120, 37, -49, 4, 56, -78, 45, -84, -64, 86, -92, -13, 0, 47, 84, 45, 2, -59, 30, 21, 93, 42, 49, 23, 79, 29, -57, 103, 79, -66, -86, -74, -21, 110, -61, 12, -20, -40, 89, -47, 2, 62, 42, 67, 9, 13, 16, -33, 45, 92, -70, 28, -31, 19, 1, 50, -26, -46, 49, 11, -73, -80, 18, 17, 12, -90, -97, -62, -127, -95, -123, -50, -127, -127, -98, -102, -94, -2, -82, -127, -49, 83, 60, 47, 40, 37, -37, -64, -31, 107, 61, 55, 84, -78, 2, -4, -16, -6, 34, 93, -15, -50, 104, 47, -16, -67, -66, -32, 105, 92, 6, 103, -20, 127, 43, 10, 32, 56, 97, 64, 59, 97, 10, -41, 25, -5, -38, 16, -71, -21, 62, 25, 49, 32, 99, 109, 116, 127, -15, 87, 62, 25, -18, -39, -28, -49, 20, 42, 6, -8, 83, 64, 127, -36, -20, 5, 112, 55, -85, -57, 85, -15, 88, -69, -80, 81, 61, -61, 32, -102, 9, -40, -31, 73, -85, 39, -20, -1, -90, 79, 28, 25, 15, 0, 0, 46, -16, -64, -5, 53, 55, 59, -69, -89, -51, 75, -12, -89, 47, -28, 7, 93, -8, -69, 79, -55, -77, 19, -103, -78, 11, -49, -35, -94, 56, 72, -3, -9, -41, 59, 5, -11, -73, -21, -25, 79, -65, -18, 8, 69, 55, 64, -89, 44, 42, 93, -26, -8, 57, 30, 102, -35, 49, -76, -40, 70, 42, 8, 51, -77, 6, 122, -58, 35, 70, 17, -39, 94, 34, 76, 33, 24, -47, -48, 57, 87, -78, 85, -63, -66, -13, -24, -13, -43, 56, -98, 52, -22, -64, -62, -37, -119, 8, 5, -42, -89, -5, -16, -2, -29, -37, -105, -127, 40, -22, -78, -30, -47, -32, -61, -78, -103, -119, -11, 26, 5, -116, 0, -73, -115, -120, 50, -85, -54, -107, -46, -40, -94, -72, -103, 52, -99, -57, -27, -31, 62, 42, -15, 62, -65, 13, 70, 7, 87, 70, 4, -73, -24, -68, -10, -21, 9, 4, -17, 58, -35, -61, 94, -37, 78, 12, -23, 41, -24, -38, -88, 31, -23, 10, -123, -110, -80, -63, -7, -86, -26, 26, -119, 29, -127, -15, -123, -5, 30, -62, -71, -17, -56, -63, 78, 0, -76, -62, 71, -40, 61, 88, -29, 13, 101, 25, 75, -52, 70, 99, 43, 104, 64, 30, 11, 68, -69, 87, -12, 31, 113, 69, -69, 23, -65, -48, 72, -51, 119, -59, 27, 96, 42, 5, 6, 114, -68, 23, 117, -26, 92, 54, 59, 29, -18, 7, 6, -6, -8, -104, -9, 34, -39, -45, 0, 86, -53, -26, 85, -54, -89, -29, -107, 69, -38, 66, -100, 46, -46, 71, 5, 8, 79, -67, -25, 97, -60, 95, 37, 112, -41, -39, 18, 101, 21, 11, 33, 94, 27, -8, 80, 122, -21, 94, 108, 15, 100, 109, 8, -39, 21, 96, -67, -43, 29, 82, 13, 95, -16, -6, 82, 103, 21, 22, -30, 27, 113, -75, 26, 81, -47, 55, 69, -44, 32, -71, -55, 20, 19, -67, 20, 82, 44, -21, -50, -79, 35, -33, 50, 54, -14, -84, 87, 24, -27, 5, -79, -3, 110, 54, -43, 43, -47, 64, 6, -67, -19, -2, 38, -31, 86, 26, -1, -65, 94, 62, 8, 87, 47, -82, -12, 57, -65, -18, -33, 14, -98, 73, -6, 67, 28, 40, 10, 3, -76, 3, 41, 4, 73, 63, -16, 55, -2, -70, -50, 7, 4, 43, 7, 19, -107, 31, -51, 56, -74, 31, 78, 75, -70, 36, 60, -18, -14, -93, -68, 34, 29, -70, 59, 22, 84, 75, -105, -22, -64, -31, -24, -49, 40, 45, 86, 51, 46, 16, 31, -100, 31, 73, -14, 59, 11, -90, 41, -22, -54, 74, 23, 48, -59, -23, -38, -57, 55, -31, -73, 52, 41, 0, 88, 61, -59, -58, -11, -84, -74, 11, 41, 42, 87, 66, 60, -22, 86, 44, 78, 79, 0, 55, -15, -12, -54, -67, -100, -92, 44, 49, -86, -96, 84, -98, 55, -25, 18, -85, 74, -80, 68, 34, 9, -31, 33, 25, -71, -26, 38, 25, -46, 27, 27, -11, -92, -10, 73, 73, -50, -80, -51, 5, 84, -11, -103, 40, 82, 24, -84, 45, -17, 12, 58, -92, -12, -70, -86, -77, -37, -79, 74, -88, -22, -74, -41, -28, 55, 21, -64, -99, 46, -45, -40, 25, -52, 81, -99, 55, -14, 80, -103, -62, 52, 0, -3, 50, -96, -92, 41, -96, 23, 68, 31, -92, 73, -89, -87, -39, -14, -17, -96, -98, -95, -2, -55, 9, -61, 71, 21, 18, 19, -22, -90, 44, -15, 27, 76, -44, -56, -100, 35, -14, -46, -10, -63, 45, 36, -33, -53, -55, 44, -85, 29, -59, -68, -5, 52, -54, 22, -88, 78, 31, -42, 78, 34, 52, -28, 2, -54, 40, -34, -3, -70, 33, -54, -40, -10, 13, -41, -58, -97, 86, -8, -66, -3, -70, 26, 78, -89, -59, 2, 31, -90, 10, 23, 79, 50, -36, -42, -11, -21, 25, 7, 1, -97, 69, 66, -53, 13, 49, 6, -53, 0, -22, 27, -64, -28, 31, 66, -46, 56, 57, -15, 85, 22, -44, -88, 65, -99, -10, 38, -20, -18, -91, -100, 76, 14, -31, -20, -94, -25, -93, -55, -21, -29, 57, 53, -57, -85, 60, -69, -50, -61, 87, -79, 65, -30, -57, -15, 13, 50, -61, 35, 47, 52, 36, 55, 53, 67, -37, 34, 64, -41, -40, -24, -63, 82, 83, 7, 90, -16, -67, -38, 31, -89, 5, -20, -10, 60, 56, 87, -32, -43, -35, -57, -70, -42, 16, -38, 44, -25, -57, -40, 71, -8, 89, -104, 7, 70, 28, -1, 83, 19, 36, 25, 55, -29, 67, 39, 12, 63, 48, -39, -86, -22, 74, -13, -41, 83, 46, -29, 57, 90, -57, -58, 72, 65, 28, 45, -4, 8, 46, -60, 46, -95, 52, 30, -42, -21, -6, -40, -3, -20, 39, 33, 79, -78, -6, -57, 32, -105, 30, 2, -86, 68, 22, -87, -91, 25, -35, -45, 23, 62, -13, 74, -78, 2, 87, 58, -102, -93, -75, 25, -38, -81, 55, -72, 73, 83, 87, 88, -6, 18, -10, -17, 63, 47, -6, 37, 50, 88, 22, 32, 14, -21, -5, -7, -56, 71, -68, -86, 23, -73, 67, 71, -10, 67, 81, 1, 77, 14, -96, 70, -38, -92, -84, 30, 45, 17, 66, -77, 9, -82, -64, 63, -83, 6, 34, 79, -57, -94, 83, -81, 68, -40, -40, 0, 51, 75, -33, 58, 13, -105, -4, -40, 51, 38, -47, -67, -32, 86, -11, -22, 23, 
17, -82, 89, -73, 10, -49, 37, 55, -11, -16, 54, 68, -100, 44, 86, -27, -27, 31, -26, 29, 74, 35, 95, 32, 74, 56, 31, 79, 29, 127, 48, -16, 21, 84, 7, 100, 39, 42, -43, 112, 37, 91, 1, 11, 15, -82, 106, 37, 109, -34, 84, 29, -55, 0, 48, -46, 60, 39, -2, -66, 65, -56, 10, -35, 81, 80, -35, 4, 40, -71, -14, 47, -50, -27, 57, 48, 72, 82, 99, -9, 37, 56, 91, -30, 19, 3, 73, -10, 84, 20, 49, -19, 75, 49, 86, 31, 127, 94, 127, 27, 120, 99, 20, 54, 91, 88, 115, 6, 50, 127, 127, 7, 0, 86, 78, -2, 64, -22, -22, 91, 82, 26, 67, -54, -8, -5, 41, -12, 69, 76, 4, -20, -53, 106, -24, 56, 59, -61, 21, -67, -10, -51, -85, 82, 20, -38, 13, 80, -71, -16, 36, -123, -56, 65, -7, -9, 25, -117, -9, -69, -127, -127, -72, -76, 16, -127, -116, -121, -127, -47, -83, -16, -127, -28, -20, -48, -70, -105, -11, -26, -127, -127, -106, -94, -82, -47, -48, -127, -25, -127, -58, -62, -127, -107, -56, -127, -64, -126, -68, -123, -95, -127, -127, -21, -127, -127, -76, -127, -110, -48, -127, -102, -95, -67, -127, -54, -120, 52, -59, 33, 26, 15, -16, 74, 55, -84, 18, -67, -18, -31, 45, -26, 32, 97, 86, -19, -15, -49, 21, -4, 57, 73, 103, -24, 54, 34, 22, 119, -28, 74, 77, -35, 51, -9, 28, 0, 29, 106, -57, 50, 104, 53, -15, 5, 79, 1, 19, 88, -32, 100, -96, -91, -69, 12, -39, 78, -40, 67, -6, -14, 75, 96, -11, 71, 10, 66, -96, -46, 67, -43, -81, 89, -21, -12, 76, 70, 12, 52, -39, -15, -8, 50, -29, -15, 28, -33, -24, -60, -6, 72, -43, -36, 9, 39, -105, -76, 18, 13, 59, -3, 55, 7, 0, 76, -40, 15, 2, -73, 26, -47, 44, -39, 15, -57, 50, -3, -69, 73, 67, -31, -6, 91, -22, -97, -64, 89, 92, 44, 57, 11, 7, 127, -36, -8, 93, 108, 51, 114, -48, 28, -29, 53, 37, -24, -44, 44, 70, -4, -32, 84, 81, 82, 106, 11, 127, 7, 16, -17, 36, -9, -4, -6, -46, 102, 5, 79, -27, 21, -66, -39, -43, 10, 33, 81, -40, 71, 127, -39, -44, 45, 39, 90, 75, 95, 111, -53, 102, -58, 76, 127, 94, 95, 99, 22, 10, 42, -52, -58, -33, -68, 81, 110, 14, -25, 36, 68, 95, 2, 69, 70, -19, 10, 127, -42, -21, -38, -18, 27, 61, -29, -11, -34, 49, 64, 13, -32, 20, 4, 6, 31, 28, -21, -41, 54, -49, -4, 83, -77, 68, -64, 51, 93, 12, 63, 20, -4, -42, -18, -14, -7, -41, -62, -8, 57, 37, 76, 98, -64, -31, 26, -65, -67, -74, -78, -18, -22, -7, 75, -52, 47, 117, -81, -105, 14, -21, -86, 48, 55, -127, 87, -48, -18, 18, 52, -14, -70, -87, 11, -104, -38, -23, -8, -127, -127, -61, -116, 29, -100, -114, -25, 74, -18, 61, -56, -53, 69, 100, 27, -84, 12, -52, 73, -47, 0, -75, -55, -54, -37, -79, -48, 41, -118, 24, -79, -76, -62, -39, 31, 9, 26, 58, 10, 19, 25, -2, -15, -26, 3, 82, 35, -7, -80, 21, -67, -1, -14, 13, -35, -33, -78, 43, -13, -54, -58, 60, 63, 27, 101, 17, 76, 87, 18, 103, -19, -11, 49, 2, -52, 41, 37, 51, -12, 56, -58, 15, -46, 77, 24, 60, -35, 61, -25, -84, 12, -47, -69, -36, -57, 116, 115, 52, -109, 90, -55, -19, 88, -43, -19, -83, 100, -64, 50, -82, 95, 36, -64, 6, -9, 39, -77, 61, -84, -85, -18, -38, -25, 43, -28, 57, -95, -46, -76, -84, 34, -37, 44, -84, 33, -82, 43, 74, 86, 39, 100, -82, 24, -39, 63, 78, 97, 47, 25, 101, 114, 107, 73, 75, -43, 117, 109, 94, 44, 127, -36, 25, -50, -7, 50, 74, 127, 103, 93, 65, 31, -6, -50, 13, 95, 12, -22, 61, 92, -3, 94, 87, 5, 61, 60, 127, -23, 117, 127, 113, -6, 35, 127, 54, 119, 110, 22, 127, 66, 127, 70, 19, 127, 0, 74, -56, 71, 68, -85, -76, 105, -69, -83, -22, 18, -35, -68, -98, -127, 16, -127, -27, -118, -127, -127, -71, -115, -57, -127, -21, 0, -31, -31, -50, 15, -127, -75, -106, -119, -116, -115, -78, -31, -82, 30, 9, -32, -23, -102, 8, -63, 7, -102, 73, 3, 30, -7, 84, -97, 47, -92, 37, 46, 66, 15, -62, 52, -4, -72, -10, 38, 34, -46, 46, 94, 4, 103, -62, 117, 46, 107, 71, 56, -20, 83, -1, 68, 73, 60, -69, 17, 21, -35, 63, 30, -20, 37, -12, -42, -10, 61, -7, 62, 74, -127, -114, 15, -39, 32, -82, -75, -34, 77, -19, 7, 3, -53, -1, 32, -2, 6, -9, 58, -21, 27, 39, 0, 96, -25, -21, -5, 31, -5, 7, 7, -57, 43, -78, 59, 74, 4, 55, -88, 6, -13, -36, -106, -107, -48, -55, 27, 10, 63, 51, -62, 75, -28, -60, 16, -50, 0, -49, 12, 38, 73, 62, 58, -28, 22, -9, -43, -9, -69, 49, 14, 12, 28, 46, -26, 64, -124, -1, -20, -73, -81, 78, 45, -33, 60, -87, 65, -99, -84, -33, 33, 44, -103, 61, 96, -36, -61, 9, 45, 19, -19, 40, -36, 58, 67, 77, 81, 28, 59, 45, 49, 28, 52, 24, -27, 87, 127, 116, -2, 42, 112, 6, -13, 74, 96, 24, 113, -33, 63, 62, 3, -93, 15, 10, 91, -29, 75, -38, 64, -81, -67, -41, -104, 74, -72, 39, -19, -70, 41, -50, 13, -112, -59, 98, -66, -16, -40, -27, -19, -53, 80, 59, -56, 0, -13, -42, 2, -86, 91, 52, -53, -17, 50, -25, -63, 20, 69, -101, 10, -52, 8, 53, -28, -21, -102, -27, -88, -65, -31, -95, 11, -60, -30, -86, 13, 77, 35, -33, -88, -97, 93, 77, 97, -18, 30, 6, 73, 127, -53, -77, 50, 127, 98, -30, 61, 93, -26, 31, 31, 5, 17, 57, -40, 91, 83, 79, 33, 55, 53, 2, 32, 58, 9, -64, 120, -77, 19, 29, 43, -65, 102, 97, -65, -49, 9, -29, 67, 29, -31, -47, 28, -52, -3, -66, 25, 102, -34, 63, -18, -50, 36, -68, 83, 76, -13, -55, -76, 4, 53, -91, -43, 12, 29, 3, -5, 59, 3, 19, 17, 41, 53, -105, -81, -37, 37, 6, -45, -27, 49, -81, -100, -94, -109, -5, -58, 16, -88, 36, -13, -5, -69, 58, -88, -14, -90, -48, -102, -13, 16, 54, 34, 33, -39, 51, -54, -7, 44, 18, 18, 51, -7, 73, -1, 58, 40, -26, -11, 46, -16, 39, -7, 100, -64, -8, -17, 101, 127, 100, 28, 4, -6, 120, -62, 10, 45, 62, 70, 79, -31, 18, 127, -1, 67, 2, -54, 89, -24, 92, 81, 35, -46, 59, -74, 0, -18, 60, -4, 119, 28, -4, 22, 10, 55, 28, -5, 14, 127, 64, 127, -2, -43, 55, 6, 127, 52, 54, -15, 49, -33, 84, 34, 27, 67, -29, 65, 37, 127, -56, -82, -75, -8, 37, -55, 26, 86, -17, -38, -24, -16, -102, -86, 14, -127, 4, -120, -127, -56, -11, -63, -87, -73, -76, -47, -57, -115, -38, -43, 2, -84, -8, -69, -101, -127, -39, -75, 25, 34, -42, -88, -86, -4, 5, -49, -29, 40, -64, 59, 64, 35, 18, -108, 47, 7, 37, 61, 19, 11, 13, 3, -45, -4, 52, -60, 17, -17, 16, -44, 37, -4, -70, -17, 49, 9, -6, 44, 105, 11, 58, -79, -4, 45, 23, 74, -16, 112, -10, 87, 52, -72, -63, 58, 9, -7, -88, 1, -75, -107, -50, -28, -34, -42, 78, -110, 61, -64, -19, 63, -39, 67, -51, 42, -10, 51, 34, 110, -26, 70, 59, 40, 12, 1, 23, 89, 9, -76, 99, -52, 50, 54, -58, 74, 54, 60, 29, -29, 87, 1, -3, -36, 69, -62, 41, -21, 50, -3, -6, -74, -50, 0, -81, -75, 35, -83, 44, 18, -88, -46, -19, 51, 59, 51, 76, 88, -13, 61, -71, 77, 54, -28, -57, -38, 31, 65, 81, 48, 76, -77, -43, -4, -87, 40, 63, 16, -102, 50, -26, -42, -11, -15, 60, 79, 51, -109, -26, 44, -4, 51, -35, -4, -82, -71, -18, -106, -43, 50, 8, -47, -85, 47, 22, -40, -102, 33, -42, 57, 60, -86, -46, 42, -5, 73, 49, -89, 32, 17, -127, -127, 30, -69, -119, -12, 0, -21, 0, 8, -97, -85, 18, -68, -125, -119, 34, -98, -98, -99, 0, -38, 27, -13, -83, -125, 16, 85, 56, -83, 94, -94, 32, -86, -16, -39, -30, -36, 49, 20, 43, 69, -71, 48, 46, -25, 3, -96, 84, -77, -41, -15, 57, 82, -32, -55, -26, -29, -5, 84, -21, 77, 54, -112, 11, 70, 73, -44, 21, 60, -12, -62, 69, 58, -41, 112, 8, -45, 74, -15, -42, 10, -17, 113, 63, 117, 127, 127, 92, -7, 127, 32, 35, 52, 46, 31, -6, 9, -15, -46, 22, 14, -71, -94, -43, 65, 31, 3, 56, 32, -35, -51, -12, -68, -47, -91, 92, -18, 16, 30, 23, -77, 58, 69, -71, 40, -49, -68, -39, -20, 43, -31, 32, -6, 49, 24, 80, -93, -86, 46, -69, 45, 48, 85, -17, -67, -11, 38, 0, -4, 58, -65, -28, 6, -37, -66, 8, 24, -28, -5, -91, 48, 95, -31, 92, 21, -20, -96, -78, 35, 26, -44, -20, 63, -49, 25, 91, 85, -61, 70, 56, -29, -19, 95, 52, -73, 36, 95, -2, 0, -60, -76, -56, -21, -71, 28, 45, 83, 98, -56, 78, -38, -37, 20, 76, 88, 81, 70, -83, -71, 28, 94, 34, -30, -40, 61, 93, 0, -59, -97, 63, -37, 11, -58, 1, 1, -20, 63, -73, -26, 40, -61, -63, 23, -77, 38, 45, 71, -80, 29, 41, 48, -81, 27, 80, 42, -93, 23, -89, 17, -49, 52, -47, 0, -78, -40, -42, 0, 25, 61, 43, 29, -64, 7, 18, -78, -25, -19, -73, 67, -77, 46, 4, -64, 27, 71, 43, 44, -34, -38, 8, -7, -9, 19, 36, 4, 31, 50, -39, -4, 61, 89, 51, -19, -23, 67, -74, 26, -8, 7, -47, -1, 40, 26, 93, -38, 96, -42, 45, -27, -55, -44, 27, 45, -56, 40, 27, 39, -9, 96, -94, -14, -71, -63, -47, -73, 54, 33, -43, -46, -24, 31, -31, 21, 58, 18, -4, 47, -33, 27, 82, 77, 70, -65, 48, -75, 87, -10, 41, -9, 88, 69, -2, 72, -52, -41, -35, 47, 30, 57, 71, 67, 29, 36, 38, 58, -51, 27, -84, 5, -55, -55, -7, 16, -53, 56, -27, -58, -66, 0, -5, -54, -22, -97, -24, -55, -32, 50, 3, -48, -7, -44, -20, 73, 16, 84, -93, -91, 39, 53, -94, 26, 43, 2, -25, 3, -93, -89, 61, -24, -88, -86, 12, 32, 92, -61, 80, 90, -30, -36, -27, -20, -5, -52, 58, 35, -6, -50, 8, -12, 71, 20, -2, 58, 31, -84, -25, 34, -36, 0, 49, 50, 49, 70, -13, -29, 12, -15, -77, -39, 60, -75, 70, 80, 65, 11, -93, 67, -24, -11, -26, 81, -51, -66, 61, 72, 81, 94, 55, -75, -41, -96, 68, -1, -11, -68, 10, 6, -95, 5, -6, 69, 69, 85, -81, 96, 25, -15, 29, -46, -70, 11, -75, -43, -81, -16, 75, -90, -41, -9, 38, 14, 21, -60, -55, -67, -34, -32, -49, 16, -10, 56, 64, 2, 10, -33, 22, -3, -23, 8, -74, 80, 98, -20, -97, -96, 97, -48, 29, -14, 74, -68, 8, 64, 39, 38, 71, 75, 62, -95, 34, -31, -82, 34, -69, -20, -57, 88, -48, 50, -66, -96, 9, -33, -23, -31, 84, 15, -30, -29, -87, -28, -32, 15, 76, -90, -71, 52, -62, 33, 0, -77, 81, 75, 66, 41, -93, 66, 66, 77, 29, 79, 93, 52, -62, 61, -93, -47, -56, 24, 75, 67, -78, 64, 90, 14, 86, -28, 75, 69, 93, 8, -58, -37, -68, -67, 
-99, -67, -117, -2, -28, -29, -76, 5, -25, 71, -19, 56, -43, -22, 24, -45, -107, 13, 54, -13, -36, -14, -89, 67, -38, 43, -42, -49, -30, -7, 102, -76, 50, -83, 70, 78, 42, -59, 9, -16, 28, 51, 16, 70, -56, -9, 40, -104, -66, 85, -15, 2, 21, -112, 31, 67, 59, 6, -20, 3, 30, -22, 112, -44, 0, -33, 4, 17, 56, 29, -106, 74, 94, -58, 82, 68, 78, 3, -14, 51, -66, 21, 50, -37, 41, 24, -76, -29, 68, 38, 19, 43, 26, -86, 65, -14, 13, -46, 96, 73, -49, -56, 6, 53, 64, -45, -1, -42, 48, -36, 40, -13, 6, 51, 39, 67, 7, -14, 21, 84, -58, -81, -7, 28, -54, 14, -106, 44, 34, 93, -36, 34, -36, 127, -51, -93, -76, 0, 88, -79, 34, -45, -43, 43, 1, 53, 47, 1, -16, -36, -2, 87, -83, -2, -6, -85, -112, -26, -113, -76, -72, 64, 27, -66, -74, 27, -46, 7, -1, 25, -13, -95, 71, 16, -28, -54, -62, 2, -11, -17, -19, 17, -26, 99, 39, -25, -3, 119, 111, -27, 100, -17, -8, -11, -17, 53, 96, 48, 43, 70, -81, 55, 21, -12, 55, 2, 36, -20, 56, -65, -49, -103, 69, 32, 48, 39, -42, 39, -21, 41, -2, -13, -109, -82, -72, 6, -107, -40, 59, -53, -28, -13, -93, -28, 34, -37, 21, -71, 47, 14, -79, -23, -32, -22, -52, 13, -52, 75, 10, 5, 89, 113, -23, 0, 78, 0, 22, 8, 72, -59, -44, 46, 66, -33, 32, -61, 80, 85, 39, 16, -46, 62, -94, -74, 63, 6, -105, -10, 26, -15, -70, -57, -60, 29, 68, 35, 90, 109, -43, 48, 10, 18, 0, -57, 94, -21, -43, 43, -23, -10, -45, -60, -41, -36, 11, 78, -89, 39, 39, -72, 9, -16, -22, -106, -90, 33, -121, -104, 21, 39, -31, -110, -125, -46, -56, -70, -90, -48, -124, -87, 55, -78, -17, 102, 18, 58, -64, -31, 75, 47, 75, 107, -16, 5, 124, 87, 67, -25, 53, 80, 14, 49, 61, 55, -9, -1, -16, 46, 50, 87, 113, 69, 84, 49, -59, 42, 36, 68, 2, -3, -66, 26, 1, 101, -2, 39, -27, -85, 47, -37, -1, 21, -4, -42, -32, 34, -94, -87, -100, -106, -56, -25, -27, -32, -67, 4, -82, 0, -72, -92, 45, -49, 40, 40, 33, -33, 31, -56, -80, -24, 73, -57, 80, 19, -80, 34, 88, -91, 13, -33, 78, 105, 110, 112, 93, 88, -10, -17, 1, 38, 83, 42, -29, 34, 78, 40, -27, 95, -30, -87, 88, 70, -71, 40, -4, 65, -105, -16, 33, 57, 22, -74, 6, -78, 101, -28, 21, -120, -80, -45, 30, -114, 8, -23, 13, 63, -114, -70, 38, -21, -106, 74, -48, -14, 62, 50, -25, -75, 59, 77, 25, 58, -44, -64, 47, 45, -64, 65, -36, 96, -48, 52, 43, -13, 27, -62, -57, -99, -44, 33, 67, -42, 18, 3, 21, -21, 50, -111, -127, -104, 38, -54, -51, -41, 72, -29, -38, -111, 44, -65, 9, 43, 73, -94, -101, -59, -16, 20, -58, 43, -103, -45, -55, -71, 59, 46, -67, -7, 34, 50, 95, -59, 99, 89, -51, -13, -2, 66, -59, -56, 32, 0, 51, 12, 44, 83, -28, 72, 2, -33, 40, 50, -34, -67, 70, 45, -8, 16, 121, 63, 41, -22, -39, 17, 56, 84, 110, -61, -19, 18, -44, 92, -1, 87, 11, 85, -46, 127, -1, 103, -67, 43, 79, 121, 57, 83, 51, -55, -39, 86, -6, -55, 109, -17, -23, 70, -17, -38, 9, -36, -19, 85, -25, -29, -43, 89, 55, 27, 89, 99, -53, -4, 81, 34, -45, -29, 89, 26, 75, -92, -52, -14, -84, -83, -73, 33, 36, -44, -39, -60, -84, -111, -127, -62, -95, -117, -95, -103, -127, -127, -33, -25, -39, -123, -41, -37, -67, -117, -19, -77, -50, -3, 50, 19, -96, -88, -76, -115, 68, 6, -55, -22, -69, 38, -75, -13, 48, -82, 40, -21, -30, 38, 64, 34, 26, 122, -61, 122, 78, 83, 78, 87, 89, -60, 16, 127, 86, -38, 127, 80, 22, 73, 99, 90, 99, 12, 86, -20, -47, 3, 60, 7, 9, -64, -55, -42, -111, -25, -7, 17, 52, -101, -111, 56, 81, 63, -5, -40, 1, -72, -82, -14, -26, -5, -40, 57, 13, 12, 3, 98, 19, 82, -16, 40, 46, 45, -30, 20, -65, 44, 49, -19, 56, 75, 89, 65, -84, -71, -49, -18, 20, 75, -89, 27, -60, 27, -10, 11, -29, 48, -86, -71, 45, -77, -97, 39, 46, 8, 9, -3, -36, -50, 84, 112, 7, -17, 55, 82, 127, 26, 45, 37, 127, -7, 0, -20, 49, 13, -19, 40, -63, -3, -90, 55, 7, -59, 25, -110, -94, -127, -65, -127, -127, -120, -127, -114, -127, -127, -127, -127, -127, -87, -127, -127, -127, -127, -74, 29, -98, -21, 59, 44, 32, 46, 99, 66, 127, 127, 127, 127, 127, 127, 127, 127, 127, 127, 127, 127, 127, 127, 127, 89, 115, 127, 126, 127, 53, 11, -2, 34, 29, -60, -17, -9, -89, -29, -127, 3, -24, -44, -127, -102, -127, -127, -127, -47, -127, -127, -115, -127, -125, -127, -127, -24, -127, -127, -75, -127, -124, -127, -127, -68, -55, -127, -127, -127, -106, 18, -78, -57, 59, -71, 52, 22, 71, -51, -27, 17, 43, -27, 127, 127, 28, 27, -3, 81, 127, 61, 127, -13, 127, 5, -48, 127, 123, 18, 127, 127, 28, 127, 24, 24, 85, 107, -38, 44, 32, 6, 31, -65, 75, 95, -84, 47, 13, -108, -52, 11, -92, 10, -72, -5, 5, -34, -19, -50, -58, -37, -75, 34, -51, -40, -105, -49, -77, -104, -105, -37, 21, -74, -3, -70, -51, -49, 91, 66, 21, -73, -21, -7, 0, 41, 19, 34, 63, 26, 72, -17, 81, 25, 42, -49, 59, 1, -38, 51, 66, 23, 53, 93, -1, 104, -48, -77, 34, -126, 19, 78, 29, -14, -61, 78, 35, 71, -13, -59, 34, -1, -39, 70, -53, -72, -24, -72, 27, -29, 55, -77, 30, -57, -43, -82, 29, -51, -58, -18, 90, 42, 65, -75, 32, 35, 24, 32, -66, 80, -64, 84, -63, 93, 38, -67, 112, 0, 74, -1, 78, -55, 79, 68, -17, -8, -52, -69, -43, 34, -62, 65, 91, 51, 22, -30, -46, 105, 84, -42, -66, -33, -18, 26, 45, 27, -36, 63, -46, 48, 34, -15, -36, 24, 65, -83, 20, 65, -35, 0, -109, -30, -65, 70, -110, -91, -31, 18, 3, -73, 0, -30, -95, -56, -44, -107, 71, 49, 38, 46, -101, 86, -98, 27, 22, 12, -99, -44, 1, 54, -29, -78, -49, -13, 36, 91, -1, -55, -8, 21, -60, -62, -61, -14, -78, -94, 38, 6, -91, -15, -120, 90, -14, 17, 10, -14, -67, 42, 35, -13, -80, 20, 6, -18, -100, 54, 50, -81, -28, 0, 41, -52, 40, 46, 50, 15, 26, 127, 109, 39, -49, 44, 93, -45, -5, 42, 101, -17, 127, 127, 16, -34, 26, -18, 81, 66, 20, 127, 83, 26, 93, 80, -42, 118, 94, 85, 67, -30, -62, -48, -55, 16, -19, -87, 41, -38, 10, 7, 40, -14, -116, -76, -44, -55, -93, -12, -82, 0, -14, 19, -78, -94, -88, 23, -83, 64, -78, 69, -66, 50, -1, 0, 66, 37, -83, 9, -33, 11, -82, 15, -9, -47, 32, -15, -46, 56, 100, 38, 55, -60, -6, 95, 15, -68, 45, -21, 8, 98, -27, 50, 90, -59, -46, 58, -10, -71, -12, -73, 11, -7, 9, 62, -68, 60, 58, -30, -1, -25, -29, 56, 93, -25, 20, -9, -23, 118, -20, -41, -34, 127, 2, 34, 46, 64, -84, 10, -120, -127, -125, -5, -98, 27, -13, -107, -96, -127, -91, -127, -127, -45, -127, 3, -73, 10, -91, -19, -108, 58, -27, 50, -55, -51, 91, 43, 99, 54, 11, 111, 109, 103, 92, 127, 127, 127, 127, 104, 127, 46, 59, 127, 100, 127, 43, 127, 49, 127, 127, -13, 46, 127, -19, 96, -53, 30, -34, -71, 1, -88, -114, -22, -9, -104, -84, -70, -64, -116, -127, -92, -127, -52, -104, -84, -127, -106, -86, -104, -127, -15, -95, -108, -25, -79, -127, -74, -64, -7, -127, -72, -40, -119, -28, -16, -44, -29, 16, 21, -1, 10, 40, 69, 68, -40, 106, 45, 127, 127, 41, 5, 127, 11, -25, -28, 60, 64, 84, 58, -6, 93, 101, 16, 3, 8, 80, 71, -12, 1, 101, 67, 58, -63, -40, 78, 79, 32, 75, -34, -3, 41, 43, 84, -12, 47, 57, -65, -126, 3, -39, -26, 25, -96, 8, -35, -101, -59, -35, -66, 9, -25, -70, 13, -97, 31, 59, -70, -25, 36, -127, -22, 1, 33, -55, 21, 2, -42, 31, -106, 71, -62, -21, 74, 83, 42, 62, 34, -6, -70, -84, -87, -84, -10, 55, 36, -116, 30, 7, -66, 54, 61, 8, 28, 8, 22, -38, -12, 75, -45, -8, 97, 38, -58, -29, 62, 5, 80, 19, 65, 6, 37, -89, 36, -50, 0, -85, 33, 48, -44, -62, 77, 28, 13, 77, -58, -88, -37, -72, 98, -26, 16, -56, 4, 48, -77, -68, 68, -43, -43, -6, 32, -28, -15, 93, -57, 89, 2, 84, 91, 70, -51, -50, -55, -85, 89, -1, 78, 88, -38, 24, 93, -2, -5, -28, -58, 12, -71, -80, -88, -57, -10, -76, -66, -66, -81, 30, 28, 27, 70, -55, 33, -17, 17, 15, 62, 42, 24, 69, 38, -84, -84, -39, 38, 58, -80, 53, -55, 20, -60, 48, 80, 55, -65, 75, -63, -65, 0, 0, 91, 51, -24, 10, 83, 52, -59, 15, 76, -34, -55, -33, -77, 10, 63, 18, -73, 43, -83, -50, 86, -59, -78, -22, -64, -51, 89, 62, -73, 45, 6, -25, 78, -19, -42, -10, -50, 65, 16, -40, -53, -38, 61, -13, 7, 29, 56, -67, 86, -55, -90, 8, -30, -67, -83, -91, 19, -48, 53, -58, 43, 23, -70, -22, -21, 32, 36, 44, -81, -76, 58, -42, 9, -3, -20, 91, 18, 97, 94, -94, -31, -21, 89, 21, 83, -80, 41, 23, 69, 95, 47, -33, -41, -76, -15, 42, 27, 78, -89, -88, 39, 67, 24, 28, 91, 85, 27, 79, 11, -26, 95, -82, 94, -64, 48, 89, 84, 88, 51, 76, -43, -95, 16, 4, 57, -58, 22, 19, -16, 47, -54, -82, 0, -83, 39, 25, -78, -32, -16, -20, -22, -8, -78, -88, -4, 63, -63, -92, -79, -77, 99, 38, 68, 7, 30, 76, -31, -9, 84, 63, -53, 30, -60, 71, -86, -30, 26, -65, -47, 62, 44, 15, -88, -89, -45, -54, -59, -35, -44, 57, -19, 97, 43, 5, -48, -9, -28, -12, -64, -85, -63, -16, -81, -16, 18, -47, 41, 91, -26, 7, 61, -69, 19, 30, 11, -28, -92, -80, 43, 70, -79, -38, -56, 39, 30, -60, 52, 78, 41, 93, -14, -13, -19, 15, 79, 58, 40, -46, -18, -3, -41, -80, -79, -70, 11, 50, 64, -82, -7, 11, -66, -15, 83, -19, -72, 90, 36, 9, -21, 22, -82, 95, 38, 86, -35, 81, 25, -65, -5, -77, 25, -2, -77, -49, -23, -57, 61, 81, -78, 37, -80, 71, 52, 13, 46, -35, -13, -16, 83, 10, 5, 59, -57, 76, -23, 5, 62, 62, 65, 78, 43, 41, -39, 35, 0, 36, -93, 66, 9, 11, -58, -66, -80, -60, 62, 77, -60, -10, -61, 81, -25, -14, 7, -84, 34, -26, 9, 24, 39, 60, -1, -23, 18, 4, -16, -22, 44, 78, -2, -28, 41, 79, 95, 53, 50, -6, -43, -68, 58, -60, -13, -94, -92, 20, 38, 11, -3, 28, -30, 18, -82, 36, -63, 2, 35, 35, -94, -79, 25, 72, 1, 27, 92, -17, -8, -40, -87, -79, 88, -59, 56, -69, -32, 25, 24, 29, 48, 24, 8, 3, 99, 91, -30, -49, -54, 57, 62, -32, 28, 44, 84, -42, 2, -91, 0, -47, -51, -81, 3, -82, -49, 94, -11, -9, -76, 74, 25, -65, -60, -90, -68, -18, -21, -11, -9, 60, 23, 69, -47, 76, -54, 1, 100, -25, 80, 2, -62, 
25, 16, 34, -35, -4, 45, -51, -57, -19, 27, -99, 9, -76, -90, -68, -1, -98, -50, 75, 71, -34, -9, 42, 60, 41, -50, 68, 84, -95, 70, -66, -90, -15, -72, -42, -37, -22, 12, 0, 31, -45, -16, -39, 9, -28, 8, 84, 67, -34, 23, 39, -25, 0, 32, -127, 74, 8, 88, -20, 55, -126, 0, -84, -92, -75, 60, -105, -88, -71, -8, 33, -119, 75, 58, 53, -31, -3, -42, 3, 35, -43, -84, -21, -68, -113, -99, 36, -25, -29, 67, -78, -79, 76, -73, -98, -64, -102, 57, -59, 42, -110, -44, 4, -58, 10, 40, 24, -71, -87, -108, -53, -28, 44, -76, -116, -58, 37, -23, 70, 3, 8, -102, -122, -101, 21, -65, 6, 37, -126, -37, -83, 34, -28, -71, -7, -63, -127, -51, -52, -22, -101, -40, 36, -14, -73, -87, -95, -118, -123, -9, -111, 20, -74, -95, 47, -127, -112, 85, -50, -108, -126, -30, 30, 59, -12, -74, -20, 2, 40, -98, -48, -105, -19, -96, -68, -27, -33, 88, 11, 93, 5, -6, 67, 68, -46, 88, -19, -50, 86, 81, 6, -2, -30, 103, 82, 27, 60, 127, 65, 9, 127, -2, 50, 70, 61, -38, 29, 78, 107, 89, 40, 127, -37, -41, -18, -89, 31, -26, 33, 58, -73, 49, -66, 60, -2, 46, 8, -46, 26, 54, 9, 62, 67, 36, 70, -45, 54, 11, -80, -21, 48, 42, -63, -91, -99, -14, 106, 4, 82, 91, 13, 85, -47, 87, 16, -62, 12, -59, -31, 98, -33, 49, 108, 10, -66, 7, 5, 65, 126, -84, 26, -66, -30, 21, 48, 48, -61, 55, -64, 57, -22, 12, 58, 13, -63, -45, -78, -113, -122, -25, -89, -94, -94, -127, -127, -127, -127, -31, -32, -64, -127, -94, -127, -78, -126, 8, -10, -127, -127, -127, -114, 33, 0, 7, -39, 43, 49, -33, -31, -97, -13, 0, 36, 85, 55, 17, 108, 97, -17, 20, 91, 81, 8, 56, 123, 1, -18, 36, 72, -31, -39, -61, 64, 48, -82, -6, -5, 25, -70, 79, 83, 62, 89, 78, -33, -50, -30, -72, -17, -72, 87, -58, 42, 79, 51, 97, -71, 51, 21, -23, 48, -79, 65, 14, -60, -9, 116, 92, 124, -9, 1, -32, 9, -40, 47, 110, 3, 29, -24, 4, 76, -55, -69, 31, -71, 8, 59, 1, 79, 18, 59, 44, 16, 73, 107, 19, -50, 5, 27, 1, 61, 1, 69, 18, 77, 93, 61, 45, -83, 99, 58, 30, 80, -71, -45, 102, 36, 18, -48, -19, -11, 106, -68, -51, -30, -48, -46, 48, 105, -21, 40, 69, 76, 120, 94, -39, 120, -49, 56, -45, -73, -20, 95, -12, 94, 9, -23, 82, 13, 74, 20, -29, 84, 57, -25, 16, 39, 81, 36, -53, -41, -25, -58, 25, -30, 11, -36, -32, 84, 58, 28, -21, -14, -41, -24, 79, -62, 45, 25, 89, 40, 82, -7, 110, -78, 59, 76, -17, -25, 42, 116, 37, -45, 55, 121, 98, -46, 119, 127, 1, -14, 112, -88, 14, 46, -81, -120, 10, 9, -127, -68, -7, -80, -73, 5, -19, -55, -120, -49, -124, -127, -17, -57, -29, 31, -79, -38, -127, 45, -98, -63, 35, 22, 45, -65, -110, -41, -60, -73, -31, -76, -71, -35, -27, 23, -91, -58, -62, -54, 9, -40, -100, 15, 22, -88, -56, -72, -24, 2, -54, -55, -18, -10, -94, -79, 38, -43, -105, -5, -24, -41, -17, -94, -38, 32, 99, -13, -68, -69, -41, -9, 29, -4, 71, -24, -61, 28, -108, -59, -56, 27, 51, -101, -39, -25, -20, -47, -76, 25, 56, 59, -89, 77, 30, -99, -1, 61, -20, -42, -1, -58, 64, -13, -1, 60, -24, 46, -80, -26, 83, 9, 61, 76, -11, 43, -49, -48, -76, -13, -80, -11, 63, 25, -75, 89, -90, 33, -63, -78, 71, -5, -48, 33, 54, -43, 58, -14, -75, -75, 26, -74, 71, 127, -30, 30, 41, 31, -19, 31, 120, 127, 73, 59, 127, 127, -23, 92, 4, 70, 83, 39, 127, 52, 127, 111, 127, 127, 40, 118, 28, 32, 127, 127, 127, 127, 127, 62, 89, 127, 36, 118, 127, 127, 127, 127, 95, -44, 40, 101, 66, 103, -17, 127, -61, -49, 72, 13, 42, 20, 33, 44, -68, 54, -86, -59, -10, -76, 25, 49, -72, 2, 47, -17, -77, 29, -43, 23, -15, 3, -79, -80, -43, -32, -15, 18, 0, -127, 26, 44, 64, -115, -69, -95, -81, -13, 14, -67, 25, 70, 37, 78, 86, 20, -40, -54, 21, 60, 36, 33, 81, 37, -2, -30, 118, 5, 25, -22, 66, -17, -22, -33, 111, -58, 62, -41, 35, -48, -58, 36, -44, -89, -76, 65, -116, 14, -28, -11, -120, -48, -127, -53, -114, -111, 54, -49, -127, 50, -116, -55, -127, -26, 12, 64, 48, 67, -113, -77, 21, 8, -11, 50, 53, 78, 11, 32, 33, 52, -91, 33, 43, 80, -35, 66, 17, 5, -10, 16, -59, 29, 21, 49, -31, 50, -53, 53, 63, 27, 37, -85, -9, 59, -84, -7, -91, 16, -36, -88, 18, -74, -67, 39, -25, -43, 2, 8, 69, -61, -80, 69, -41, 7, 111, -54, 31, 13, -17, 60, 88, 49, 67, 6, 112, -4, -36, 73, 127, 0, -13, 127, -10, 42, 124, -44, 62, 90, 3, -42, -33, 63, -77, -56, -22, 84, 47, 62, -11, -96, -51, 56, -89, -74, -52, -45, -5, -70, 50, -71, -72, -78, -18, 57, 122, -56, 127, -35, -3, -27, 88, 123, -38, 90, -2, -22, -11, 31, 63, 105, 127, 74, 103, 127, 85, 31, 127, 85, 103, 98, -38, -52, -11, 68, 4, 70, 58, 38, 4, 85, 97, 10, 107, -61, -27, -13, 120, -30, 75, 43, -66, 22, 49, 52, -73, 46, -66, -4, -79, -94, -69, -54, 54, 92, 84, -85, -15, 43, -87, 5, -90, -81, 51, -35, -81, -61, -36, -47, -16, 24, -61, 19, -8, -59, 52, 45, 8, 47, 10, 66, -21, -10, -120, -118, -87, -102, -127, -14, -43, -86, -127, -51, -116, -83, -117, -127, 36, 8, 0, -25, -110, -119, -67, -78, 14, 44, -4, -58, -124, 28, 18, -77, 59, 14, 50, 1, 107, -16, 25, 8, -69, 70, -52, -56, -29, -41, -43, 76, 65, 89, 14, -43, 127, -7, -3, 115, -61, 7, 4, -34, 18, 86, -16, 37, 122, 98, 57, -63, 20, 35, -20, -23, -48, -31, 74, -36, -8, -6, -62, -28, 47, -64, 28, 83, -10, 94, -51, 33, 48, 39, 35, 4, 0, 3, -28, 4, -110, 38, 16, -17, -80, -69, -34, 18, 98, -2, -30, 79, -49, -34, -98, -88, -24, 31, 78, -112, -83, 60, 26, -32, 20, -99, -122, 10, 15, -76, -80, 9, 27, 20, -7, -49, -15, -75, 101, -67, 83, 20, -71, 19, -13, 86, -56, -57, 49, -75, 36, 2, -87, -35, 54, 14, 67, 44, 86, 88, -15, 76, 12, 31, -22, 40, 67, -28, -31, 1, 20, 32, 17, 69, -91, -85, 32, 11, -56, 72, -97, -10, -123, -75, -42, -21, -57, 4, -16, 27, -16, -127, -120, -57, -92, -96, -60, 4, -83, -127, -16, -71, -36, -127, -80, -127, -124, -127, -15, -37, 15, -127, -117, -97, -102, -13, -127, 25, 3, -120, -112, -113, -72, -69, -127, -26, -127, 44, -27, 37, -32, 70, -75, 15, 59, 16, 58, -77, 70, 11, 27, 30, 83, 7, 50, -28, 124, 112, 12, 73, 36, -5, -14, 102, 114, -15, 18, -39, 127, 55, -27, -1, -53, 48, -5, 118, 121, 107, 94, -1, 89, -41, 127, -43, -39, 63, -12, 4, -60, -25, -24, 81, 56, 51, 73, 53, -104, -77, -56, -29, 65, -26, -25, -49, 38, -127, 70, 33, 24, -72, -46, 0, -78, -5, 53, -104, 29, -51, 48, 66, -55, 65, 6, -6, 81, 96, 107, 47, -52, 111, -77, 64, 23, -66, 65, 22, 78, 41, 107, 60, 69, -43, -58, -27, 95, -63, -51, -78, -3, 43, 93, 1, -107, -72, 76, 57, -24, 63, -55, 3, -68, -81, -87, -16, 65, -64, -49, -52, -68, 21, 45, -100, 87, -6, -100, 67, -39, 93, -58, -56, 74, 52, 24, 73, -68, 78, 41, 40, -75, 81, -55, 0, -6, -82, 49, -78, 1, -24, 71, 68, 10, 41, 42, 67, 52, -70, -94, -20, -34, 45, -30, -48, 7, 37, -90, -26, 9, 13, 35, -79, -103, -26, -33, 40, -25, -67, 38, -17, -103, 66, 50, 22, 86, -12, 64, -21, 2, -78, 68, 13, 43, 91, -67, 121, 34, 127, 79, 83, 11, 20, -46, 107, 122, 90, 58, -48, 31, 13, -47, 73, -70, -31, 47, -68, 33, 39, 97, 13, -53, 14, -75, -39, -11, -30, -89, 51, -34, 16, 2, -101, -88, -98, -5, 43, -93, -84, -40, -51, 35, 62, 80, 43, -110, 19, -87, -100, 87, 28, 38, -94, 77, 52, 26, -77, 18, -54, 42, -99, 6, -3, 10, -13, 69, 88, 20, 13, 56, 89, 83, -1, -79, -9, 84, 16, 78, 112, 27, 75, 29, -53, -45, -15, 127, 57, 127, 127, 127, 51, -13, 12, 127, 127, 127, -56, 6, 94, -15, 4, -89, -35, 24, 56, 26, -16, -67, 89, 38, 50, 31, -33, -82, 72, -28, 33, -7, -79, -50, 50, 17, -63, -16, -23, -27, 46, 55, -10, 72, -3, -11, 24, -63, -26, 71, -53, -78, -55, -69, -85, 20, 24, -93, -90, -9, 56, 79, -62, 62, -90, 31, -91, -71, -36, -31, -49, 20, -27, -63, -11, 90, -36, 5, 32, -43, 56, -92, -49, -85, -30, 40, 96, 53, -52, -95, -66, 12, 27, 80, -86, 41, -88, 42, 58, -88, 35, -45, 78, 35, 94, -7, -6, -63, -33, -15, 17, -44, -67, 76, 11, 25, 27, -24, 65, 27, 13, 67, 44, 33, -67, 65, 85, 66, 53, 84, -54, -84, -18, -47, 0, -78, -76, -51, -69, -69, 39, -13, -66, 11, 0, -56, 2, 28, -55, 48, 47, -29, 34, 89, 16, -42, -52, 99, 18, -49, -32, 5, 94, 12, -25, 77, 38, 23, 15, -21, -16, -91, -53, -52, -12, -53, 26, -87, -10, 60, -11, 3, -4, -23, -5, -14, 19, 43, -32, -36, 72, -87, 62, 39, -74, -31, 54, -58, -14, 27, 80, 67, -83, -37, 24, 10, -23, -43, -42, -5, 18, 8, -22, -65, -32, 95, 51, 97, 98, 41, -43, -72, 55, 94, 6, -88, -77, 32, -1, 46, 66, -47, 71, 2, 9, -69, -39, -84, -77, 56, -43, -66, -6, 29, 61, 78, -15, -63, -55, 26, 66, 91, 27, 68, -34, 33, 58, -21, 6, -29, -62, -14, 12, -19, 0, -71, -32, -59, 98, 0, -72, 41, 51, 43, 37, 89, -54, 20, 63, 5, 90, -18, -33, -43, 44, 60, -17, 53, 22, 77, -82, -4, 5, -68, 41, 57, -19, 39, 12, 42, 5, 68, 63, 67, 3, 62, 87, -28, -3, -17, -95, -43, -61, -90, 79, -37, -35, 18, -52, 70, -94, 75, 25, 34, -53, 67, 55, 81, -45, -31, -71, 69, -66, -94, -68, 38, 37, -22, -27, -78, -6, 68, -80, 77, -10, -50, 35, -45, 33, 59, -86, -48, 29, 7, -17, -78, -80, -41, 19, -81, 16, 11, -26, -85, -7, -69, -86, 62, 1, -31, 70, 40, 50, -92, 78, 6, 51, -71, -79, 37, 81, 49, -47, 19, 22, -15, 53, -23, -64, -6, -85, -12, -34, -78, -6, 76, 96, 19, 64, -28, 52, 39, -55, -92, 25, 15, 27, -95, 74, 86, 53, 16, 96, 90, 79, -28, -81, -47, 1, 53, -41, -23, 12, 45, 57, -77, 19, 63, 87, 57, 8, 46, -28, 44, 57, 58, 76, -55, -33, -80, 14, -91, 40, 87, 69, -95, 94, 93, -64, -25, -7, 51, 52, -41, 5, 4, 55, -72, -6, 92, -86, 49, 97, 67, -2, -9, 21, -34, -14, -59, -29, -37, 73, 30, 98, 72, -75, 9, -5, -3, -23, -2, -12, 32, 91, -92, -79, -90, -30, 54, 86, 36, -89, -41, 40, 76, -32, -44, 23, 79, -64, -23, -74, 39, -31, -51, 47, 16, 86, -51, 4, 90, -37, -13, 48, -55, -78, 96, 66, 88, -88, 45, 
-89, -60, 20, -70, 123, -21, 28, 53, -58, 60, 58, 73, 103, 109, 41, 34, 52, 69, 55, 62, 72, 42, -15, 105, 35, 34, 91, 103, -11, 55, 65, -40, -58, -29, -47, 49, 51, 4, -66, -38, -39, -19, 103, -6, -39, 44, -42, 51, 71, -1, -66, 1, -50, -84, 21, 59, -79, 80, -94, -57, -50, 71, 77, -19, 13, 50, 88, 30, 8, 21, -38, 61, -36, -47, 108, 94, 86, 116, -79, 8, -43, 17, 28, 83, 125, -29, 29, -38, -20, 60, 35, -11, -35, -57, 0, 94, 11, 99, 5, -30, 124, -27, 77, 11, 105, 93, 108, 45, 94, 95, 112, -39, 43, 127, -53, 27, 58, 72, 89, 108, 51, -11, 56, 0, 69, 3, 73, 86, 99, 64, -10, -10, 1, -60, 13, -40, 41, 43, -60, -57, 2, 19, 0, -52, -45, -70, -76, -55, -47, 33, -98, -55, -32, 47, -98, -4, -11, 26, 34, 47, 12, -37, -8, -30, 19, -84, -1, 52, -77, 42, 8, 3, -12, -56, 22, 68, 13, 32, 69, 16, -52, 4, 100, -55, 65, -89, 13, -103, 37, 43, -82, -41, -75, 67, -100, -105, 15, 4, -45, -50, -11, 23, -84, -90, -122, 12, -103, -62, 1, 12, 58, 64, 19, 32, -37, -118, -109, -127, -57, 51, 28, 37, -12, -122, -41, -20, 45, 29, -127, -79, -94, -119, -37, -41, -67, -99, -55, -45, 43, -46, -24, -111, -72, 47, -116, 31, -54, 11, -42, -22, -11, -12, -57, 32, -52, 78, 26, -3, 47, 95, 8, -70, 38, 83, 4, -16, 5, -70, -29, 45, 96, -41, -3, 80, 86, -15, 73, 119, 127, -38, -43, -17, -62, 42, -26, 22, -17, -76, -69, -55, 74, -60, -2, -65, -68, 22, 31, 0, 0, 45, -42, -102, -112, -127, -78, -115, 4, -32, -68, -53, -41, -112, 5, -127, -127, -62, -10, -127, -62, -127, -33, -127, -127, -73, -101, -114, -48, 15, -127, -61, -127, -127, -93, 17, -41, 4, -70, -80, 39, -115, 19, -121, -61, 38, -10, 9, -88, -106, -92, 35, 47, -69, -64, -75, 8, 56, -40, 54, 70, -8, 16, 57, 76, 5, 34, -41, -10, 69, 38, -56, -53, 4, 26, -40, -63, -4, -12, 32, -56, -38, -5, -76, -71, -25, 68, -4, -26, 15, -84, -87, -36, 55, 30, -39, -52, 32, -100, 15, -4, 99, -48, -15, -1, 84, -2, -25, 9, -10, 58, -54, -14, -15, 113, -31, 34, -39, -50, -83, -17, 117, -10, 81, 47, 25, 64, -2, 92, -33, -51, 28, 7, 44, -12, 12, -27, 89, 48, 111, 51, 127, 86, 49, 77, 8, -45, 21, 70, -31, 79, 65, 41, 82, -44, 1, 25, 30, 51, 64, 89, 71, -38, 99, 14, 111, 37, 75, 5, -42, 19, -31, 96, 82, 80, 88, -17, 71, 35, 23, -41, 105, 9, 37, -54, 46, 5, -48, 110, -50, -7, 0, -35, -70, 37, -81, -23, 15, -27, -65, 59, -31, 56, -36, 14, 6, -42, -22, 79, 79, -64, 67, 23, 21, -61, -89, 66, 2, -61, 81, 27, -106, -35, -3, 74, -69, -87, -66, -45, 29, -23, -5, -99, -31, 43, -65, 81, 46, -11, 43, -77, -77, 41, 2, -47, 24, -60, -91, -10, 45, -34, 17, -64, 47, -47, 37, -39, 47, -73, -25, -54, 22, 42, 8, -61, -19, -23, 15, -68, -31, -47, -54, -46, -27, -2, 37, 62, 83, 43, -57, 85, 9, -16, 27, 57, 7, 67, -13, 18, -46, -30, 85, 87, -91, 32, -66, 47, 34, -2, -30, 56, 38, 56, 87, 83, 0, 30, -31, 55, -27, -78, 108, 32, -43, 94, 21, -1, 29, -60, -27, -101, 72, 80, -23, 70, 56, -23, -3, -3, -20, 20, 98, -98, -61, 85, -40, 45, -14, -22, 77, 25, 36, -52, -67, 74, -6, 38, 41, -29, -33, 103, -13, -7, 82, -63, 4, 32, -66, -37, 16, 81, -65, -41, -45, 47, -74, 0, 5, -19, -77, 44, -65, -32, 27, -64, -14, -95, 37, 43, 6, -79, 66, -61, -6, -55, -89, -20, 28, 1, 50, 57, 19, 47, -119, -116, -44, -29, 47, -35, 51, -99, -74, -71, -116, -122, -7, 15, -48, -36, -67, -109, 31, -118, 19, -30, -93, -35, -4, -19, 9, -51, -106, -2, -107, -23, -63, -45, -73, -67, -127, -96, -36, -127, -64, -87, -65, -37, -73, 8, -127, -127, -81, -53, -86, -25, 31, -66, -1, -107, 68, 76, -76, -19, -53, 60, -51, 30, 67, -90, 100, 79, 28, 106, 76, 45, 3, 37, 119, 124, -32, 84, 35, 26, 105, 0, 75, 10, 92, -25, -4, -17, -16, 123, 63, 46, 68, -21, 55, 14, 92, -16, 6, 115, 25, 59, 127, 28, 127, 22, 64, 37, 127, 127, 127, 58, 103, 124, 127, 8, 61, 127, -13, -40, -35, -39, -15, 81, 16, -63, 15, -11, 71, 17, 59, -89, 0, -57, -38, 20, -77, 46, -67, 30, 37, -59, 32, -34, -96, -33, -102, 68, -17, 44, 59, 36, -77, 20, -20, 24, 78, 26, 0, 95, 90, 11, -76, 5, 26, 71, 89, 16, 105, 82, 58, 74, 43, 9, 80, 6, 2, 4, 101, 50, 25, 9, -74, -57, -81, 26, -46, -52, 50, -48, -92, -39, 23, -17, 63, 44, -25, -18, -111, 42, 55, -113, -2, -25, -27, -66, -26, 9, 58, -67, 12, -41, 87, 83, 17, -71, -77, 43, -66, 83, 70, -8, -77, 19, 98, 81, 45, 5, -35, 49, -48, -5, 68, -9, 60, -77, 2, -6, -28, -32, 73, -96, 16, 72, -72, 20, -38, -23, -53, -55, -4, -98, -90, -78, 36, -30, 22, 9, -7, -39, -2, 47, 64, 50, -79, 8, 6, 74, 40, -10, 54, -14, 6, -90, -118, -13, 13, -74, -113, -43, -105, -39, -95, -46, 53, -84, -14, 28, -63, 23, -76, -44, -13, 27, 19, -14, -77, -50, 127, 67, 52, 41, 54, -88, -67, -85, -32, -21, -96, 59, 89, -94, -27, 103, 65, -54, -23, -58, 92, 42, 112, 52, -49, 36, -58, -44, -68, -61, -8, -42, 17, -52, -27, 5, -50, 74, -36, -42, 3, 83, 34, -11, -8, 65, -80, 75, 7, -40, 93, -63, 2, -51, -56, 40, 18, -21, 11, 114, 67, -56, -11, 58, 56, 66, 117, 59, 25, 49, -64, 127, -2, 96, -40, 122, -27, -44, 12, 15, 57, -53, -49, 112, 120, 66, 96, -39, 44, 109, 47, -33, 26, -38, 29, -48, 71, -58, 119, -20, 117, 4, 14, 23, 96, 40, 20, 49, 38, -69, 24, -54, 56, 57, 100, 77, -11, -40, -8, -52, 37, 55, 34, 33, 101, -18, 32, -11, -59, -17, -9, -3, 104, 15, 77, -71, -86, -62, -6, -80, 54, -58, -33, -91, 77, 43, 30, -22, -81, 79, -22, -44, 34, -35, -72, 18, 15, -70, 43, -29, -26, 32, 68, 4, -77, -87, 45, -64, 25, -30, 72, 44, -60, -55, -28, -65, -91, -25, -47, -4, 2, -121, -114, 44, -127, 27, -64, 13, -41, -35, -127, -103, -47, -65, -127, -26, -102, -91, 21, 13, -127, -127, -62, -127, -113, -80, 12, -49, -113, -104, -127, -46, -59, -49, 12, 10, 0, 26, 11, -19, -42, -69, -4, -2, 45, -84, 50, -101, 47, 60, -62, 72, 22, -48, -86, -67, -55, 20, -70, 60, -15, -6, 25, -47, 80, 23, -2, 84, 27, 77, 46, 28, -17, -49, -6, -10, -36, 19, 104, -56, 127, 127, 114, -11, 116, 51, 35, -18, 6, 118, 126, 74, 122, 76, 107, 96, 127, 106, 22, 31, 13, 127, 91, 72, -11, 127, 66, 94, 21, 108, 77, 99, 96, 121, -13, -25, 21, 24, 8, -52, 32, -32, 118, 115, 101, -34, 49, 44, 110, 19, 126, 101, -40, 1, -45, 94, -1, -61, -23, 89, -60, 2, 20, 13, 0, 74, 56, -110, -21, -97, -32, 2, 0, -36, 38, -5, -109, 42, -2, 19, -94, -100, -72, -94, -93, 38, -63, -82, 24, -35, -2, -106, 51, -20, -50, -24, -116, -34, -44, -55, -100, -125, -11, 62, -27, -14, -118, -53, -76, -18, 17, -41, -63, -10, -53, 32, -119, -67, 50, -45, -110, 63, -67, 7, 48, -66, -44, -94, 6, -30, -111, 3, -97, -1, -60, 11, -3, -29, -56, 65, -100, 17, -8, -28, -52, 53, -98, -50, -22, -18, 20, -65, -48, -39, 29, 41, -109, 65, -38, -23, -14, -10, 45, 29, 6, -31, -46, 42, -50, 10, -76, 39, 16, -11, -12, -15, -48, 77, -19, 97, 74, -41, 63, -49, 109, -77, 54, -100, 46, -27, 7, -21, 34, -24, -21, -94, 40, 0, 21, -63, 3, 25, 18, -63, 68, -29, 50, 5, 2, -85, -19, -116, -29, -12, 46, 12, -110, -45, 36, 18, -35, -3, -32, -4, 54, 78, -31, -22, -62, 44, -79, 30, 56, 16, 68, -99, -68, -26, -67, 8, 63, -43, 73, -38, 35, 8, 41, -71, 1, -70, 46, -58, 76, 34, -49, -99, 28, 73, -44, -78, -58, -41, 0, 27, 13, 38, 87, -43, -40, 51, -8, -12, -52, -68, -8, 58, 93, 97, -43, 79, -32, 44, -3, -8, 7, 23, 91, -83, 5, -53, 38, 40, 37, -80, -47, -78, 80, -66, -85, -23, 41, 15, -75, 50, 79, 4, 89, -11, -25, -95, -61, 32, 28, 30, -1, 38, -1, 56, 23, 72, -29, 88, 88, -83, 48, -26, 64, -10, -71, -59, -21, 23, -87, 60, 7, -60, 18, -14, -28, 66, -9, -63, -89, 18, 49, 12, -11, -23, 72, -13, -40, 47, 36, -68, -28, 69, 52, -97, 2, 58, 89, -47, 61, -43, 72, 93, 58, -9, 75, -87, -59, 35, -9, -46, -80, 65, 77, -81, -38, 24, -68, -74, 26, -82, 12, 97, 15, -64, -87, 24, -84, -28, -35, -62, -88, -54, -57, 8, -41, 8, -71, 27, -27, -33, -58, -60, 30, 53, 89, 22, -37, -90, 21, -53, 52, -69, 7, -14, 55, -79, 21, -52, -66, 35, -11, -12, -18, 23, 64, -46, 75, -95, 0, 32, -79, 9, 77, -57, -35, 59, -84, -10, 74, 85, -68, 76, 14, -36, 60, -3, -53, -29, 88, -69, 82, 11, 7, 27, 88, 74, -3, -55, 31, 71, 42, -36, 26, -52, -3, -23, 2, -75, 95, 22, 48, -95, 8, -55, 15, -21, -65, 20, 37, 96, 1, -30, -36, 21, 28, 0, 44, -44, -30, 78, 90, -50, 77, -79, 83, 85, 18, -29, 96, 46, -42, 80, 80, 52, 12, 9, -28, -55, 0, 26, -9, -39, -94, -40, 5, 93, -47, -65, 11, -14, 81, -20, -86, -10, 56, -75, 68, 3, -18, -19, 90, -55, 2, -69, -80, 58, 78, -67, -9, -81, 70, -66, -23, 58, 61, 46, 84, 84, -85, -10, 97, -3, 20, -75, 87, 64, -51, 85, 52, -16, 64, 62, -15, -52, -30, 5, -76, 3, -29, 47, 57, 48, -7, 81, -40, -47, -41, -64, -92, 79, 21, 28, 55, 67, -81, -80, -45, 11, 9, -8, -96, -94, 73, -61, 29, 81, 18, -14, 94, 93, -56, -58, -33, -23, -79, 79, 26, 67, 1, 1, 69, 52, -97, -42, 51, 51, 22, -96, 24, 81, 83, 72, -10, 29, -10, 23, 15, 73, 22, 10, -80, -30, -86, 20, 73, -96, 75, -94, -21, -86, -36, -54, 59, 65, 23, -66, 78, 76, -6, -94, 53, -91, 71, -57, -6, 25, 36, 10, -45, 17, 0, 58, -83, 91, 50, -72, 61, 91, 72, 0, -16, -54, 13, 2, 98, 85, 82, 45, -30, -1, 42, 80, -62, -14, 3, 60, -9, 54, 38, -7, -46, 92, -19, -25, -52, 79, -82, -9, -21, 94, 58, -69, -66, -82, -42, 90, -45, -13, -93, -9, 30, -15, -69, -21, -87, 8, -11, -41, -2, -23, 13, 27, 21, -16, 78, -57, 72, 63, 52, 50, 12, 85, 21, 76, 70, -7, 32, 65, -79, -61, -63, -14, 92, -29, -90, 50, 42, 72, -97, -73, -64, 91, -48, -9, -54, -71, -2, -24, 83, 47, 54, -30, -81, -40, -46, 53, 22, -41, 21, -25, -55, -88, -68, -35, 38, -8, -63, -74, -49, 49, -93, 32, 63, 8, 76, -66, 42, 71, -18, -3, 54, 60, -46, 16, 68, 
64, 52, 0, 57, 61, 127, -6, -16, 71, 1, 83, -25, 57, -58, 91, 27, 72, 125, 127, 6, 113, 67, -39, -22, -56, 61, 127, -7, 114, 111, -20, 52, 14, -16, 38, -57, 50, -74, 71, 35, 51, 72, -7, 8, -49, -67, 72, 76, 107, -23, -32, 27, -55, -73, 25, 9, 69, 60, 73, 89, 9, 11, 23, -31, 108, 34, -52, -72, -66, 41, 53, 16, 49, -97, -57, -73, 18, -65, -84, -10, 31, -122, -3, -77, -37, -110, -51, 5, -105, -104, -72, -91, -14, -12, -32, 59, 33, 62, 16, -47, -9, 67, -87, 81, -120, -19, -55, -53, -23, -38, -19, 48, 33, 31, -120, -115, -56, -86, 22, 45, 17, -64, -35, -92, 36, -87, -108, -9, 72, -43, -32, -90, -4, 27, -58, -127, 29, -79, -19, -4, -62, -62, -65, 15, 26, -20, 6, 33, -29, -19, -9, -79, 31, -45, 61, -55, -54, 42, 37, 64, -69, -17, 7, 16, 20, -106, -28, 45, 49, -20, -55, -54, 71, 89, -70, 100, -5, 83, -59, 51, -98, 51, -8, -61, 59, 42, 35, 78, -28, -47, -16, 101, 71, 58, 69, 48, -69, 111, 67, 3, 99, 107, -30, 41, 101, 52, 54, -14, -62, 114, -76, 103, 94, 73, 72, -54, -89, -14, 8, 73, 61, -21, -1, -4, -49, -24, -15, -32, 78, 2, 23, -40, 71, -69, 32, -23, -22, 79, -78, 25, -45, 51, -66, -28, 71, -24, 50, 17, -68, -72, 75, 3, -37, -5, 42, 14, -51, 19, 30, 48, -69, -68, -58, -25, -3, -89, -46, -2, -80, 66, -43, -13, 90, 13, -34, 54, -70, -60, -15, 47, -24, 0, 14, 37, -85, -42, 67, -28, 3, -55, -75, -61, -70, -57, 32, 36, 27, 41, 9, -6, 0, -74, 73, 41, 42, 68, 32, 11, 6, -72, -127, 36, -3, -61, 81, -41, 5, -108, -30, 19, -91, -70, 15, 3, 40, -34, -55, 99, 25, -76, 25, -65, -27, 78, 13, 48, 127, -46, 110, 102, 80, 25, 19, -26, 32, 112, 61, 53, -40, -56, 100, 84, 103, 32, -63, 13, -17, 103, 4, 39, 82, 38, 104, 27, 32, 59, 61, 14, 122, -16, 93, -45, 59, -65, 14, 45, -36, -56, 30, 68, -75, -45, 7, -95, -88, -49, -69, 23, -41, 65, 1, -35, 53, -51, -27, -55, -66, -20, -22, 10, -15, -90, 49, -43, -28, -17, 49, -54, -95, -42, -22, -36, -89, -42, 48, 17, -74, -35, -40, 8, -38, -15, -98, 8, 73, -34, 0, -6, -22, 81, 95, -65, -91, -41, -26, -67, -59, 9, -104, -71, 42, -15, 32, 69, 51, -53, -16, -47, 79, -68, 15, 74, 12, -98, 23, -20, 12, -105, -87, -96, -116, -41, -67, -6, -26, -87, 34, -17, -69, -53, -115, -11, 46, 8, -16, -6, -103, -22, -61, -101, -65, -7, 74, -122, 44, -51, 67, -47, 9, -73, 14, -96, 20, 99, -100, -12, 83, -39, -84, -73, -72, -64, 7, 39, -37, 80, 50, -58, -58, -91, 54, -62, 45, 31, 40, 59, 2, -62, 30, 19, 11, -16, -57, 2, 45, -3, -32, 67, -31, -80, -52, -4, 59, 86, 39, -60, -11, 115, -41, -65, 24, -93, -20, 49, -66, 50, -75, -30, 54, -116, -44, -82, -94, -15, -101, -41, 50, 3, 53, -103, -36, -122, -20, 17, 57, 44, 45, -59, -101, -5, -73, 0, 49, -63, 82, -25, -88, -91, -39, 0, -72, -39, 40, -40, -26, -87, -73, -27, 21, -55, 39, -4, -10, -23, -36, 5, -53, -73, 75, -54, -60, -10, -19, 0, -22, -4, -38, -78, 76, -67, 73, -49, -100, 73, -47, -51, -72, -95, 27, 11, -127, -104, 47, 31, 3, -66, -77, -95, 41, 14, -110, 56, -3, 58, -20, -43, 8, -93, 71, 82, -26, -59, -47, -93, 18, -53, -59, 51, 35, -26, -27, -19, -2, 41, -99, 8, -69, -51, -89, -81, -118, -4, 5, 76, -79, 94, 103, -64, 40, 100, 3, 103, 112, 13, 120, -15, 122, -26, -15, 50, -30, 118, 85, 127, 107, 62, 0, 61, 43, 87, 48, 127, -42, -36, 15, 58, 100, 90, -62, 33, 43, 85, 29, 51, -66, -104, 7, 70, -33, -44, -110, -57, -127, -106, -127, -13, -20, -127, -116, -127, -127, 30, -93, -29, -124, 37, 45, -101, -92, 29, -18, -127, -75, -62, -40, -1, -99, 48, -53, -99, -47, 22, -68, -127, -7, 5, 2, -14, -124, -40, 29, -27, -96, -110, -96, -41, -109, 2, -20, -119, -15, -60, -105, -114, -95, -85, -15, 5, -44, -37, 26, -35, 69, -51, 34, -71, 93, 32, -26, 90, 122, 104, 34, 95, 69, -19, 127, -47, 76, 77, -25, 30, 127, 86, 113, -21, 20, -18, 20, 127, 127, 45, 0, -13, 62, 111, 28, -24, 98, 95, 69, 48, 17, -50, 111, 122, 95, 7, -61, 121, -50, 5, -38, 120, 22, -2, 34, 95, 98, -22, 2, 73, -48, -61, -59, 35, 112, 91, 119, 102, -67, -48, -51, -19, -65, 38, -21, 58, 26, -98, 35, -46, 86, -42, -65, -58, -22, 57, 76, 34, 24, -43, 80, -21, 69, 73, 61, 72, 127, 52, 127, 0, 59, 84, -21, 127, -17, 5, 107, -29, 118, 122, 74, 127, 127, -13, 127, 76, -12, 22, 121, 0, 103, 102, 65, 105, 62, 94, 51, 102, -28, -64, -53, 116, 54, 28, -43, -29, -109, -127, -104, -90, 26, 66, 17, 0, 11, -55, -64, -127, -127, -127, -95, -86, -127, -127, -127, -127, -11, -33, -85, -63, -127, -84, 17, -27, -127, -34, -30, -127, -127, -127, -57, -73, -8, -4, -127, -127, -95, -77, -68, -123, -127, 7, -6, 29, -95, -67, 8, -97, 66, -33, -96, -28, -83, 2, 38, 33, -90, 73, 34, 60, -47, -52, 58, -64, 35, 108, 127, -38, 61, -39, 95, 30, -20, 127, -7, 91, 31, -14, 127, 18, 80, 0, -35, 127, 127, 122, 127, 20, 58, 93, 103, 126, 94, 77, 1, 127, 73, 114, 26, 105, -29, 87, -3, -53, 35, 102, -29, 109, 121, -43, 49, 74, 79, 59, 19, -16, 56, -29, -48, 33, -59, 50, -62, -91, -42, 0, 5, 96, -20, -20, 53, -38, 89, 31, -68, 22, -109, 43, -73, 62, 22, 0, 38, 77, 35, -4, 2, 43, -27, -87, 45, -1, 2, -85, 74, 34, 43, -77, 81, -104, 38, 48, 68, -93, -79, -64, -37, -47, 49, -63, -83, 68, -90, -27, 32, -2, 59, -88, 33, 90, 32, -58, -108, 100, 35, 42, 83, 90, -17, 41, 38, 86, 23, -52, 17, -121, -13, 0, -42, 10, -82, 79, 85, 81, 77, -5, 63, 62, 55, 40, -82, -8, 39, -89, -70, -35, -81, 83, -48, -33, -43, -37, 67, -95, 52, -104, -41, -22, -84, 81, -35, 63, -12, -7, -102, 0, -76, -52, 2, -40, -76, 26, 80, -65, 43, -51, 64, -80, 85, -53, -42, -65, -62, -105, 31, -47, 36, 30, 49, 2, -75, -13, 99, 4, -60, -19, 21, 61, 59, -95, 9, -52, -37, -15, 35, 59, -58, 74, 74, 3, 37, -34, 38, 43, 21, -1, -95, -83, 76, 44, -39, -107, -85, 31, 44, -56, -61, -69, -110, 36, -62, -103, -98, -28, -95, -81, -4, -17, -44, 20, -46, 63, 98, -36, -28, -66, -17, 80, 64, 90, 36, 101, 92, -25, 1, 97, -17, -33, 58, 35, 85, 123, 91, 95, -13, 76, 80, 28, 4, 82, 110, -25, -5, -22, -15, 91, 8, -31, -37, 79, -54, -58, -66, -27, -70, 78, 64, 61, 30, -82, -6, 37, -87, -67, 21, 7, 15, -18, 48, 55, 5, -38, -103, 53, 23, -82, 33, 51, 42, 45, 26, -103, 10, -61, 43, 3, -7, 29, -19, -8, 7, 72, -29, 60, -115, 75, 42, -84, -94, -55, -10, 67, 50, 73, 50, 23, 29, 3, -101, -98, 57, 78, -34, 80, 15, -59, -68, -88, -1, -88, -23, 77, 72, -72, 83, 22, -51, -13, -92, -83, 35, 45, 69, -41, -52, -5, 55, -99, 100, 12, 32, 15, 2, -94, -10, -82, -60, 35, 86, -86, -4, 87, -48, 43, -47, 120, 16, 59, 23, -27, 3, 45, -25, 93, 54, 20, 85, -2, -38, -31, 108, 99, -32, 90, 11, 21, -74, -53, -20, 77, -36, 30, -45, -22, -122, -60, 1, -65, 45, -10, -69, -40, 16, -66, -82, 17, 53, -108, -32, -123, 9, -48, -126, 66, -7, 17, -122, -47, -115, -37, -41, 60, -90, -125, -27, 48, -62, 57, -77, 51, -78, -83, 32, 12, 59, 28, -12, -45, -63, 4, -53, -74, 79, -17, -71, -47, -63, -63, 36, 36, 0, 59, 58, -35, 119, 110, -50, 18, 38, 48, -35, -49, -52, 19, -8, -34, 105, 73, 1, 23, 20, 61, 118, 83, 119, -51, 32, 63, -82, 123, 127, 61, 93, 124, -66, 123, 121, -22, -2, -30, -58, 21, 32, -30, 3, 111, 89, -89, -71, -55, 49, 98, 88, -28, -56, 68, -34, 81, -26, 59, -117, -41, -9, -103, -122, -104, -40, 18, 25, 49, -78, 33, -111, -81, 34, -73, 11, -50, -117, -127, 36, -127, -15, -113, 20, 22, 72, -79, 88, -19, -84, -30, -56, -14, 90, 87, -42, 85, -16, -6, 29, 7, -89, -47, 78, -65, 16, 39, 85, -80, -50, -41, 86, -72, 23, -72, -74, -55, 74, 101, -84, -63, 20, -48, 44, 43, -20, 89, 46, -70, -65, 84, -38, 27, -32, 74, 45, -29, -52, -83, -76, 52, -84, 78, -28, -18, -83, -19, 78, -62, 40, -27, 2, -37, 54, -60, 78, -70, -35, 101, 1, 90, -56, -68, 84, 79, -75, 62, -22, 102, 17, 81, -48, 46, 11, 16, 65, 25, -55, 26, 8, -10, 56, 47, -16, -84, 55, 101, 55, 37, 2, 5, 97, -71, -65, 13, 33, 87, 70, -81, -26, 49, -57, 100, 16, -3, -50, 30, 60, 26, -53, -11, 82, -60, 53, -53, -30, -87, 77, -15, 103, 24, -71, -8, -69, -5, -5, 71, -44, -39, -20, 27, -66, 34, 33, -8, -63, -69, -60, 83, -45, -61, 30, 66, -73, 22, -32, -59, -72, -71, -86, 17, 9, 35, 60, 17, 29, -27, 7, -81, 47, 13, 40, -36, 46, 37, -40, 8, 34, -3, -66, -58, -6, -32, -91, -84, -26, 81, 94, 22, 50, -78, 86, -4, -78, -4, 42, -87, 102, 15, 92, -34, 54, -48, -12, 3, 92, -35, -92, 24, 37, -30, 16, -79, -21, 23, -59, 48, -87, -2, 70, -2, 3, -52, 90, -73, -25, 79, -81, 33, 59, -49, 3, -78, 102, -82, 75, -3, 54, 101, -16, 48, -17, 10, -73, 57, 37, -50, 43, -75, -49, 103, 42, -46, -50, 12, -86, -81, 47, 5, 54, -78, 71, -18, 22, -38, 28, -61, -13, -14, -57, 1, -75, -10, -38, 17, 87, -54, -47, -76, 16, -40, -16, 24, 81, -22, 7, -74, -50, -91, -13, -13, 15, -14, -33, 5, 94, -7, 20, 78, -52, 32, 99, 55, -66, 91, 60, 41, -65, -82, 63, -73, 62, -2, 2, -62, 79, 99, -14, 11, 61, -16, 82, -29, -65, -83, 51, -5, 1, -58, 54, -83, -47, 25, 87, 96, -69, 42, -10, -65, -52, 72, 99, 84, 34, 82, 74, 92, -33, 81, -9, -15, 93, -87, 92, 24, 2, -73, 24, -59, 61, -85, -15, 15, -66, -25, 4, 62, -66, -1, 11, -65, -20, -4, -38, -34, 28, -69, 45, -36, -36, -91, -67, -50, -81, -28, -49, 6, -14, 7, 67, -83, 69, -15, 16, -24, -81, 70, 6, 24, -82, 48, -9, -90, 45, 61, -80, -54, -18, 32, 17, -57, -43, 8, -92, 10, 93, 51, -44, -61, -20, 51, -40, 21, -39, 74, -87, 8, -86, 60, 10, 45, -86, -85, 94, 41, -62, -86, 102, -92, -73, 24, -52, -30, -74, -35, 23, -71, 66, 4, 87, 91, -11, 27, 68, -8, 17, 88, 62, 45, 11, -28, 53, 63, 54, 50, -19, 94, 46, 84, -80, -23, 52, 85, -21, 33, -5, 58, 102, 36, -7, 32, -28, 92, 56, -42, -71, 28, 22, 76, -48, 62, 8, -7, 51, 94, -34, -65, -65, -10, 44, 34, 19, -87, -7, 70, 
24, -18, 9, 21, -12, -62, 115, 70, 36, -45, 80, -36, 76, 10, -3, 91, 127, -49, 119, 110, 57, 125, 53, -15, 93, 62, 25, 46, -21, -71, 45, -49, -52, -25, -44, -63, 57, -23, -34, 2, 8, -76, 2, 18, -32, -77, -35, -42, -13, 57, -49, 114, 54, -59, 8, -58, -59, -66, 61, -12, 16, 28, 52, 85, -105, -17, -34, 54, 45, 27, 58, 41, 91, 53, 63, 35, -62, 56, -1, 87, -67, -44, -98, -87, -32, 5, 5, 71, -29, -30, 49, 60, 41, -23, 22, -58, 0, 39, -99, -52, 9, -48, -11, 67, -68, 49, -32, 68, -51, -17, 58, -79, 63, 19, -37, 64, -4, -11, -50, -97, -62, 22, 69, -77, 22, 58, 20, -17, -36, -27, 17, 17, -17, -87, -29, -38, -95, 35, -23, 3, 26, -79, 13, 68, -83, -77, -89, -84, 16, -127, 57, -83, 8, -107, 43, 11, -38, -34, -56, 5, -35, -124, -48, -88, -35, -14, -93, -4, 32, -56, -80, 45, -105, 8, 2, -108, -86, 82, -84, -20, 62, -14, -89, -94, -35, 13, 35, 25, -70, 65, -64, -25, -45, -18, 46, -32, 77, -42, -2, -70, -127, -100, 31, -110, -19, -65, 31, 21, 8, -56, 51, -25, 79, -62, -65, -16, 10, -26, 78, 17, -49, -58, -5, 60, 94, 77, 74, 39, -75, -58, 19, -28, 37, -68, -57, 14, -44, -10, -83, -15, -51, -21, -119, -36, -9, -25, -60, -29, -82, -61, -100, -101, 21, -127, -35, -113, -67, -111, -44, -49, -41, -126, -104, -103, 16, -121, -22, -25, -71, -63, -53, 23, 9, -76, 5, -93, -31, -116, -108, -127, -99, -127, -1, -48, -23, -43, -127, -102, -65, -127, -36, -46, -33, -5, -113, -29, -51, -62, -122, -127, -120, -113, -44, 72, 65, -39, -81, 15, -45, 24, -14, -27, 29, 18, -83, -31, -101, 55, -51, 10, -20, -89, -8, -51, -81, -110, -32, 71, 22, -10, -62, -38, -1, -31, 41, 3, 106, -21, 77, -58, -47, 71, 87, 7, 61, 109, 41, -27, 0, 35, 7, 3, 72, 127, 57, 124, 127, 127, 89, 127, 76, 127, 127, 81, 75, 127, 71, 90, 127, 127, 127, 119, 110, 22, 127, 82, 67, 127, 127, 15, 123, 51, 84, 100, 100, 127, 20, 67, 93, 71, -34, -2, 119, -28, 70, 4, 76, 17, -5, 42, 2, -37, 112, 110, -58, -30, 35, -37, 7, 73, 79, 49, -8, 66, -72, 60, 9, -20, 90, -82, -59, 18, -81, 90, -22, 59, -56, -25, 4, 95, -33, -5, 36, -20, 115, -54, 40, 93, 0, 1, 19, 104, 0, 8, 89, 49, -27, 103, 34, 96, -2, 86, -19, 105, 36, -76, -61, -22, 110, 33, 11, 24, -59, 20, -68, 89, -24, 0, 122, -58, -10, 21, -82, 53, 67, 29, 46, -30, 80, -14, 77, 24, -37, -38, -68, -79, 44, -21, -29, 69, -126, 24, -38, -5, -84, -19, 33, -32, -94, -50, -83, 38, -17, 17, -35, 71, -32, -17, -20, 48, 14, -66, 61, 74, 110, 127, 91, -7, 101, 7, 115, 127, 68, 36, 51, -43, -43, 61, 51, -58, -23, 69, -22, 49, -13, -45, 33, 96, 64, -40, -84, -24, -4, -95, 6, 80, 66, -5, 84, -52, -84, 87, 70, 47, -54, -76, -32, 1, -61, -56, -15, -17, -72, 52, 5, 47, -63, 47, 46, -73, -80, 31, -50, 16, 28, -96, 0, -21, 52, -6, -4, 51, -89, -68, 11, -71, -14, -53, -27, 19, 12, -94, -44, -112, 1, 18, -38, -88, -124, 34, -80, 19, 28, -17, 32, 32, -39, -66, -14, -77, 41, -51, -69, 15, -64, 37, -48, -7, 18, -127, 20, -63, -55, -8, -127, -76, 51, -42, -25, -37, 23, -65, 80, 9, 59, -44, -73, -76, 23, 11, -75, 20, 15, 27, 71, 40, -59, -68, -57, -79, 49, -71, -112, 39, -127, -59, -15, -94, -68, -63, -76, -75, -8, -122, -100, -123, 45, -66, -1, -127, -61, 14, 21, 41, -27, 57, -7, 43, -70, -68, 25, 69, 15, -35, 58, 9, 0, -22, -56, -45, 1, -57, 28, 2, 92, -55, 108, 11, 30, -31, -38, 15, 6, 82, -39, -30, -45, -37, 55, 46, 30, -26, -66, -72, -11, -64, -65, -89, 88, 43, -46, -48, -34, -82, -108, -94, -23, 62, 47, 53, 33, -42, 18, 1, -95, -98, -13, -87, 10, -111, -108, -94, -119, 16, -64, -124, -127, -124, -121, -45, -127, -65, -26, 36, 15, -10, -108, -119, -60, -101, -57, 16, 42, 2, -34, -60, -80, -25, -26, 4, -18, -77, 48, 16, -57, 86, -1, 13, 43, 0, 39, -32, 42, 21, 32, 78, 59, 84, 78, -42, -41, 38, 65, -26, -30, 52, 68, 127, 45, 115, 65, 91, 127, 63, 52, -26, 14, 37, 127, 101, -10, 92, 91, 86, 77, 42, -24, -9, 73, 82, 29, 52, 11, 11, 22, 83, -45, 59, -6, -4, -37, 73, 46, 2, -55, 26, -37, 10, 18, 112, 101, 0, 60, 118, 108, 127, 127, 45, 127, 127, 21, 36, -5, 51, -4, 4, 64, 42, 84, 22, 21, 106, 127, 17, 127, 54, -10, 83, 70, 115, 39, 112, 21, 124, 54, 112, -90, 33, -43, 12, -36, -20, -39, -85, -99, 80, -6, -127, 48, 18, -22, -100, -127, -38, -89, 33, -120, 49, -38, -7, -6, -32, 0, -51, 55, 45, 55, -82, 6, -20, 28, 6, -44, -98, 33, 63, 12, 57, -47, -70, 25, 0, 89, -54, 28, 69, 86, 3, -43, 19, -1, -1, -30, -43, 46, -58, -62, 79, 39, 10, 36, 33, -3, -36, -67, 70, 35, -4, 19, -62, -57, -87, 1, -68, 38, -16, -44, 101, 88, -33, 10, 97, -60, -64, -20, -18, -7, -15, 92, -81, -60, 15, -77, 62, -39, 7, -11, 60, -39, -65, -85, 28, 76, 57, 74, 26, 32, -4, 27, 81, -18, -88, -66, -14, 63, 68, -77, -37, -6, 77, -71, 58, 35, 77, 79, 27, -48, -42, -49, 92, -61, 110, -4, 104, -79, 5, 12, -8, -16, -76, -7, 60, -41, 17, -39, 111, -22, 48, 104, 63, 0, 95, -50, -75, -6, -78, 43, -95, -73, -74, -84, -103, -19, 1, -67, 73, -48, -23, 11, -85, -32, -89, 70, -68, 46, -48, 77, 84, 32, 1, 38, -83, -76, 68, 63, 3, -2, 43, 69, 23, 11, -61, 41, 66, -74, -58, -117, 48, 64, -84, 6, 16, 61, 46, -2, -9, 7, -97, -68, 16, 22, 6, -115, -92, -1, 11, -105, -17, 30, -107, -72, 58, 49, -53, -79, -40, -102, -35, -12, -19, 10, -78, -30, -95, 80, 12, -9, -37, 14, 9, -14, -94, -52, -26, -83, 82, -16, 55, 6, 15, -77, 48, -50, -83, -18, 13, -111, 18, 77, 36, 79, 6, -50, -22, 42, 72, 54, 29, 68, -32, -88, 17, -65, 61, -11, 23, -88, -51, -65, -58, 72, -54, -104, -51, 12, -66, -36, 10, -104, -43, -81, 28, -33, 55, 77, -3, 56, -75, -31, -85, -3, 2, -26, 1, 30, -7, 39, -83, -79, 28, 73, -12, -28, 108, -15, 97, 77, -29, 23, -34, 6, 91, 47, -51, -80, -39, -19, 57, -61, -40, 86, 39, 104, 56, 72, -14, -13, 0, 18, 55, 14, -68, -32, 112, -68, 56, -77, -25, -43, -54, 92, 30, 23, 79, -26, 78, 78, -29, 8, 89, 9, -33, -5, 23, -38, -20, -35, 63, 78, 92, -39, -72, 79, 94, -12, -49, 21, 2, 95, 91, 32, 23, 87, 45, 21, 60, 49, 3, -59, 34, -55, 15, 84, 113, -37, 48, -44, -61, -22, -25, -72, 82, -23, -19, -46, 37, -83, -87, 60, 21, -22, -76, -26, 77, -37, 42, 15, 8, 54, 30, 35, 59, -6, -67, -89, -49, 91, 36, 80, 60, -33, -64, -31, 17, -51, 15, 48, 0, -35, -27, -42, -83, 84, 55, -56, 2, 22, -47, -33, 40, 100, -35, -40, 39, 49, 34, 46, 73, 98, 87, -75, 111, -44, -39, 62, 89, -37, -58, 97, 109, 47, 84, -48, -41, -67, -31, 80, -76, 86, 76, 69, 18, -58, 48, -14, 11, 80, 89, 78, 87, 98, 25, 78, -61, 92, 54, -73, -15, -15, 52, -7, -89, 37, -66, -70, 39, 23, -72, -85, -45, -46, 63, -69, -2, 37, -2, -40, 52, -86, -25, -73, -104, 22, 34, -86, 14, 31, 88, -19, -10, 16, 11, -40, -87, 77, -43, 22, -29, 67, -14, 66, 40, -96, 25, 28, 83, 17, -84, -28, 50, 8, -71, -80, -7, 57, 21, 1, 68, -6, 19, -110, -28, 53, 0, 53, -7, -64, -102, 6, 51, 28, 36, -17, 52, -45, -44, -26, 80, -59, -44, 6, 34, -62, -17, 33, 31, -66, 102, 78, -32, 73, 95, 59, -56, 11, -48, -40, -8, -5, -64, 83, 106, 92, 51, 46, 26, -2, 77, -17, -67, 35, -29, -4, 38, 53, 87, -65, -1, 31, -77, -72, 90, 95, -60, -76, 98, 46, -79, -50, -29, 51, -6, 48, -10, 66, -3, 57, -17, -1, -39, -64, -109, -18, -50, 22, 30, -106, -127, -35, -30, -120, -94, -72, 66, -113, 45, -9, -50, 26, 81, 18, -1, 71, 37, 10, 4, -13, -33, 82, 72, 51, -32, -38, -9, -86, 89, -35, -45, 31, -25, -85, -42, -87, 25, -58, -56, 62, -9, -78, 48, 80, -54, -42, -12, -30, 89, 55, 90, -51, -46, 29, 79, 40, -100, -83, -33, -92, -41, 72, -41, -34, 60, -9, 72, 55, -38, -41, -79, 32, 44, 83, 19, 6, 85, 1, 8, 61, -76, 9, -80, 91, 72, 15, -91, 33, 57, -55, -86, -5, -86, 89, -16, 45, -35, 24, -41, 55, -12, -4, 79, -20, -68, -27, -93, 25, -22, 17, -95, -35, 85, 91, -58, 8, -42, -56, -94, 34, -79, 81, -9, 8, 73, -20, -67, -51, -44, -93, 43, -65, 37, 31, 22, 49, -54, -35, -62, -54, -84, 1, 48, 79, -6, 87, -9, -44, -48, 77, -30, 41, 59, -90, -93, -16, 15, -69, 67, -23, 2, -54, 28, -23, -63, -29, -63, -54, -14, -20, -86, -76, 45, -21, -52, -12, 55, -58, 42, -38, 29, 82, -13, -6, 2, 18, 33, -98, 0, 63, 87, -32, -100, -55, -93, -14, 63, 11, -33, -59, -70, 29, -41, -65, 46, 33, 62, -84, -98, -42, 61, 50, 80, 35, 93, -11, -19, 42, 39, -1, -96, -65, -66, -37, -89, 76, 79, -14, 81, -4, -26, -57, 40, -54, 6, 2, -57, -81, 5, 46, -88, -93, 51, -2, -92, 24, -95, 22, -22, 31, 71, -45, 16, 62, -93, -92, 70, 71, -95, 40, 17, -25, 68, 36, 16, 47, 73, -2, 87, 18, -5, -70, -18, -6, 75, 31, -32, -44, -38, 65, -13, -52, 93, -36, 87, 25, 5, 48, -62, 33, 27, -29, 65, -8, -66, -62, -24, 60, -97, -88, 78, 46, -19, -5, 71, -25, -7, 35, -26, 19, -3, -26, -26, -49, 1, 38, 95, -27, 67, 62, 24, -17, -70, -38, 36, 26, -69, -38, -38, 52, 1, -96, -20, 61, 56, -23, -48, -4, -52, 66, -5, 17, 64, 56, -47, -46, 46, -83, -86, -59, 24, -1, 58, -28, 21, -54, 59, -91, -79, 5, -26, -32, 36, 59, -67, 93, -13, -9, -53, 17, 9, -45, -56, 92, -6, -68, -22, -31, 44, 69, -62, 38, -96, 12, 14, 11, 27, 74, 65, 8, -63, 18, 75, 74, 63, -53, -99, -26, 56, 46, -12, 78, -93, -85, -7, -73, 38, 40, 37, 47, 12, 46, -10, 22, 81, 49, 88, 67, 57, -45, 61, 65, 65, 85, 64, 42, 55, 10, 47, -15, 20, -1, 76, 8, 51, -40, 46, -25, 49, -38, 76, -38, 27, 17, -21, -57, 81, -27, -43, 89, 16, -72, 0, -22, 78, 35, -52, -77, -81, 6, 91, -63, -56, 64, -41, 36, -53, 16, -98, 49, 15, -96, 17, 87, 70, 61, -68, 86, 60, -73, 23, 92, -5, -37, -47, -75, 39, 3, 92, -56, -40, -54, -97, -69, -26, -25, 73, 73, -61, 80, 77, -41, 28, 11, -41, 34, 87, -25, 68, -45, -23, -29, -37, 51, -33, -80, 19, -21, 34, -81, 50, 
-24, 70, 5, -55, 50, -36, -40, -38, -5, 35, 4, 31, -4, 84, -72, -64, 67, 113, 11, 101, 73, -33, 6, 77, 80, 37, -32, 3, 29, -42, -24, 48, -47, 71, -69, -21, -89, -30, -44, -97, -2, 19, -32, -44, 63, -57, 80, -24, -95, -32, 54, -86, 10, -86, 27, 3, -29, -97, 38, 48, -95, 12, 0, 32, 69, 80, -10, -3, -30, 84, 13, 88, 51, -5, 51, 0, 79, 54, -48, 63, -42, 0, 96, 87, -9, 27, -59, 69, 12, 103, 76, 85, -27, -56, 107, 106, 12, 43, 87, -23, -45, -2, 80, 57, -46, 108, -36, 70, -15, -10, 127, 0, 70, 24, 84, -13, -8, -37, -24, 44, 83, 50, 1, -22, 46, -33, -6, -53, 8, 58, -82, -48, -76, 7, -12, 0, -24, -19, -84, 23, -5, 105, -99, 38, -21, 40, -77, -88, 3, -17, 85, -27, -99, -23, -23, -2, 22, -58, 58, -124, -65, 14, 45, -88, -27, -62, -41, -28, -66, -88, -114, 22, 60, -114, -12, -30, -98, 68, 65, -108, 78, -61, -37, -73, -61, 73, -76, -8, 9, 79, 51, 67, -42, 45, -17, 101, -53, -43, 97, 113, 126, 1, 40, 5, 9, -28, -16, 67, 66, 127, 87, 127, 127, 60, -11, 0, 127, 77, 127, 65, 79, 116, -25, 106, 29, 79, -17, 123, 97, 79, 88, -53, 1, -33, 23, 123, 97, 124, 13, 14, 104, -55, 16, 76, -76, -11, -61, -14, 7, -43, -58, -19, -65, 31, 2, 25, -112, -111, -89, 40, 0, -88, 45, 33, -95, -127, -123, -51, 11, 26, 16, -127, 20, 45, -127, 21, 16, -19, 6, -80, -44, -85, -80, -125, -26, -108, -47, 57, -55, -28, 73, -20, 49, 30, -16, -36, 46, 72, 102, 53, 61, 16, -1, 94, 70, -62, 114, 121, 71, 16, -12, 104, 107, 93, 48, -34, 61, 83, 78, 60, 126, 89, 93, -63, 66, -71, 49, 90, -50, -33, -89, 15, -89, 47, 15, 91, 29, 0, 45, -4, -22, -98, 45, -70, -110, 46, -70, -45, -107, -20, 32, 6, -70, -53, -6, -121, -5, -69, -124, -45, -127, -15, -83, -127, -127, 21, -114, -14, 8, 30, -40, 20, 13, 20, 12, -28, -127, 34, -3, 9, -120, -37, 51, -17, -127, 37, 8, -38, -33, -7, -56, 62, -73, 6, 82, -78, -52, 14, 77, 20, -15, 47, -50, -47, -85, -93, -33, -76, 73, 3, -78, -77, 6, 44, -102, -127, -103, -98, -119, -122, -30, -37, -30, -64, -30, 14, 67, 44, -70, 43, 62, -22, -22, 51, 30, -59, 4, -52, -33, 36, -14, 35, 43, -33, -53, 52, -32, -6, -49, 65, 105, 72, -33, 48, -61, -10, 77, -55, 103, 127, 20, 9, 38, 1, 80, 12, 55, 69, 17, 116, -60, -33, 46, -41, -2, -47, 46, 98, 14, 66, 84, 52, 66, 40, -31, -53, -71, 86, -85, 0, -27, 62, -85, -31, -71, -65, -8, -84, 11, -39, -7, 14, -75, 67, -85, -53, 46, -64, -29, -43, 0, 23, -65, 61, 54, 53, 76, -20, 70, 87, 11, 59, 64, -10, -32, -14, -40, 23, -6, -67, -24, 84, 40, 39, -107, 3, 102, -30, -2, 110, -33, -36, -74, 91, -17, -65, 30, -54, -46, 49, -72, 58, 18, 67, 101, -54, -49, -54, 127, -12, 25, -16, -20, 48, 97, -35, -63, 18, -52, -16, 55, -61, -65, -20, 113, 95, -36, 127, -21, 88, 63, 32, 55, -51, 19, 18, 11, 84, 105, -55, 6, 18, 87, 106, -63, 31, -72, 23, -74, -87, 0, -58, 13, -23, -112, -27, -33, -105, 22, -52, -28, -72, -117, -18, 2, -125, -20, -33, 53, -55, -114, -17, -28, 43, -94, -59, -75, -127, -49, -102, -109, -42, 0, -95, -80, -106, -51, -113, -34, -16, 11, -91, -122, 40, 61, 72, 40, -57, -22, 125, -12, -28, -6, 74, 14, -22, 46, -40, 28, 56, 89, -33, 12, 65, 127, 17, 83, 86, 85, 11, 25, 9, -67, -32, 0, -66, -22, -82, -42, -2, -78, -52, -53, 77, 80, -100, -7, -28, -33, 0, 87, -87, 71, -29, 15, -2, 68, 2, -93, -52, -84, -65, 20, -32, 2, -5, 8, 48, -65, 21, -77, 19, 22, -30, -16, -72, 34, -107, 24, 0, 11, 4, 9, -22, -105, -88, -12, -36, 44, 21, -84, 45, -13, -42, -8, 41, -54, -30, -96, 34, -50, -6, -47, -37, 37, -3, -29, -70, -41, 16, -20, 55, -41, 34, 122, -41, -47, 96, -10, 82, 63, 127, -2, 112, 86, 35, 66, 81, 119, 114, 1, 127, 41, -1, 11, 71, 54, 127, 87, 89, 37, 77, 70, -27, -5, -75, 34, -117, 18, -23, -46, 7, -98, -100, -93, 13, -115, -127, -119, -121, 14, -22, -62, -127, -35, -1, -52, -17, -103, -115, -15, 29, 12, 85, -6, 53, -60, 27, -12, -21, -33, 92, 64, -1, 70, 127, 117, 121, 127, 78, 43, -5, 28, 8, 60, 112, 120, 43, 43, 126, 13, 103, 108, 46, 34, 53, 12, -61, -22, 50, -11, -18, -39, -67, 33, 16, -33, -17, -96, -79, -44, -17, -38, -53, -85, -25, 5, 103, -40, 49, -44, -16, 92, 77, 51, 70, 46, -40, 98, 5, 37, 38, 10, -43, 55, 57, -11, 66, 72, 96, -41, -49, 101, 99, 16, 98, -7, 4, -14, 12, 0, 35, 41, -83, 30, -16, -37, -58, -7, -17, 28, -110, 30, -127, -127, 31, 36, 1, 13, 46, -58, 16, -116, -29, -77, -64, -24, 16, -18, 51, 34, -66, 2, -66, -84, 23, -52, 39, 111, -83, 15, -51, 25, 127, 66, -71, 122, 61, -25, 40, -79, 127, -87, 95, -68, -10, 0, -26, 6, -45, 127, 23, -50, 4, 25, 74, -8, 56, -63, 110, -55, -51, -34, 6, -49, 1, 9, 127, 102, 70, 14, -60, 62, -36, 63, 52, -33, -67, -24, 58, 49, -69, 84, 85, -19, -46, -32, -60, 74, -48, -31, 70, -51, -79, 11, -78, -78, 63, -16, -81, -48, -16, -5, -12, 37, -67, 70, -73, 16, 24, -59, -61, -66, 11, -69, 87, 77, 9, 67, -67, 72, 47, 0, 20, 66, 43, -7, -71, -48, 72, -30, -24, -5, -23, 54, 2, -16, 60, 48, -36, -61, -24, 31, 10, -104, -40, 52, 27, 26, -70, -9, -52, 40, -63, 13, 67, 21, 83, 3, -18, -33, -56, 0, 6, 34, 50, 51, 72, 23, 49, -57, -17, 38, 51, -79, -124, 26, -33, -82, -120, 5, 35, -96, -82, -74, 53, -106, 44, -97, 28, 19, -86, 17, -103, -44, 24, -124, 9, 0, -8, -127, -45, -82, 66, 51, -18, -124, -58, -86, 19, -72, 37, 89, 58, -23, -101, -46, -99, -54, -1, -109, -40, -6, 109, 105, 52, -5, 12, -2, 30, 23, 105, 123, 86, 43, 74, 112, 127, 58, 15, 29, 116, 76, 127, 127, 5, -52, 59, 3, -33, 73, -35, 36, -7, 127, 126, -21, 79, 127, 66, 46, -33, 82, -51, 77, 11, 36, 46, -15, 84, 21, -68, 61, 92, -94, 12, -6, -25, -72, -62, 56, 31, 94, -69, 11, -28, -9, -78, 43, 24, 57, -52, -36, -8, 66, -34, -16, 64, -102, 43, 40, -34, -71, -26, 23, -71, 40, -25, -79, 30, -37, 8, 26, -77, -85, -51, -53, -57, 37, -76, 27, -53, 84, 91, 105, 30, -24, 69, -5, -4, 99, -17, -36, 47, 88, 98, -23, 56, -1, -29, 79, 89, -75, 46, -44, -32, 94, -13, -83, 94, 43, 100, 16, 89, 13, -11, 39, -53, -5, 51, 92, 110, 38, -64, -44, -52, -11, 68, 38, 19, -15, 69, -17, -124, -100, -122, -47, -127, -102, -80, -127, -127, -112, -43, 10, -127, -62, -127, 0, -19, 25, -81, -11, -110, -127, -64, -116, -11, -95, 62, 15, 68, 75, 0, 95, -11, 8, 65, 104, 127, 80, 25, -31, -9, 45, 21, 127, 80, 127, 57, 127, 127, 106, 87, 121, 110, 58, 52, 46, 98, 77, 31, -7, 15, 63, 42, -21, 77, 94, 56, 72, 105, -24, -73, -60, -82, 14, 78, 31, -85, -12, -53, 10, -77, -55, -52, 1, 33, 56, -70, 53, 36, 77, -30, 43, -10, -42, 88, -13, -24, 86, -93, -87, 45, -28, -80, 53, -19, -3, -68, 14, -32, 80, 1, 4, 88, -78, 71, 15, -89, -107, -81, 34, -73, -3, -104, -126, -127, -38, -116, -96, -106, 6, 9, -114, -90, -72, -58, -48, -42, -40, -52, -127, -104, 16, -6, -24, -127, -112, 35, 16, -39, -3, 21, -127, 13, 53, 50, -119, -64, 19, 13, -34, -99, 39, -34, -44, -12, -27, 62, 8, 50, -26, 22, -78, -49, -23, -9, -78, -70, 11, -1, -42, 24, 27, 20, -73, 2, -31, 43, -24, -127, 20, 62, 27, 74, -15, -55, 0, 71, -52, 16, -109, 30, -18, -64, 48, -2, 64, -2, 103, -17, 42, 9, 52, 76, 24, -48, -80, -29, -30, -70, 66, -39, -18, 18, 43, 80, -23, 76, -56, 55, -50, -59, -53, 52, 71, -10, 64, 58, 35, -29, 39, 110, 95, 115, -13, 66, -31, 127, 102, 92, 80, 124, -30, 30, -67, 15, -24, 45, -27, 35, 76, 53, 30, -76, 63, 29, -7, 77, 91, -53, -57, -21, -33, -19, -93, 14, 4, 13, -65, -59, -35, -22, -28, -81, -78, -54, 1, -90, -27, -97, -33, -45, 10, 36, 94, -61, -92, -67, -55, 63, 14, 7, -40, 45, 25, -14, -52, -56, 9, 49, -27, 65, 17, -25, 67, 86, -62, 83, -19, -28, 49, -15, -57, -15, 88, -59, 12, 73, -38, 9, -34, -88, 70, 18, 92, 70, -53, -5, 45, -24, 83, 39, 79, 59, 3, -84, 70, -2, 11, -52, -10, 92, -42, 33, 32, 40, 94, -77, 61, 67, 58, -89, -46, -5, -89, -14, 37, -71, -14, 44, 25, -89, 65, -26, 47, 94, 26, -35, -60, 91, 33, -79, 82, -7, -93, -11, -12, -76, 89, 56, -50, 71, 48, 22, 57, 26, -93, -31, -1, 92, 58, 84, -12, 35, 28, 37, 49, -89, -6, -33, -82, -60, 13, 82, 9, -87, -42, -19, -56, 85, 0, -32, -42, 59, -73, 3, 43, -1, -82, -80, -23, -10, -76, -59, -34, -23, 80, 72, -84, 25, 18, 61, 25, 47, 87, -12, 82, 58, 54, 86, 45, -62, -15, -70, -65, 93, 85, -5, 10, -21, 28, 87, -39, -78, -66, -40, 92, -38, 68, -66, -33, -12, 88, 64, 3, 71, 42, -19, 56, -76, -47, -38, -75, 7, -83, -1, -33, -48, -67, 43, 78, 78, 88, 65, -31, -77, 73, 2, -71, -97, -11, 68, -14, -59, -20, 59, 56, -96, 77, -18, -94, 41, -37, -35, 26, 68, 60, -43, 23, 65, 39, 4, -2, -38, -6, 43, 13, 80, -6, -96, 32, -65, -66, -35, -16, 9, 45, -92, 46, 73, 85, 46, 88, 3, -91, -90, 27, -96, -58, -91, 40, -90, 49, 29, -77, -68, 13, 68, 77, 21, 19, -43, -71, -58, 87, 16, -28, 0, 90, -86, 84, 68, -75, 93, 23, 15, 27, -54, -57, -43, -50, -32, -5, 4, -94, 75, -45, 57, 70, 33, -62, 46, 58, -57, -54, 48, -83, 27, 71, 47, -7, -10, 54, -73, 12, 19, -83, -67, 7, -75, -18, 90, 80, -69, 0, 63, 32, 86, 0, 85, 30, -46, 48, 7, -64, -2, 11, 63, -71, 84, -96, -2, 6, 4, 15, -49, 17, 96, 47, -70, -2, -39, 93, 83, -45, 34, 42, -65, 66, 71, -57, 44, 52, -51, -40, 5, -71, 25, -60, 14, 27, 88, 44, -19, 41, -69, -68, 12, 20, -34, -74, 20, 28, 8, 29, 31, -66, 22, -35, 3, -32, 23, 42, 62, -17, 90, 65, 4, 0, 26, -7, 61, 15, -41, 72, -9, -63, -95, -64, -49, 25, 3, -32, -94, -74, -3, 89, -29, -14, -29, 90, 64, -63, 65, -42, 8, 0, 11, 11, 18, -20, -89, 26, 34, 17, 39, -29, 5, 32, 94, 14, -70, -89, 28, -5, 18, 81, -29, 16, -58, -12, 21, 36, -6, 68, 51, -19, -23, -12, 59, -23, 43, 40, 27, 8, -51, -39, 6, 82, 42, -33, 77, -44, -96, -63, 39, 
